{{0.26112622,-0.4261426,-0.3195032,0.19899195,-0.032539207,0.31905544,-0.3389912,0.28588748,-0.3139362,-0.3835674,-0.39272594,-0.2701359,-0.17663647,-0.317871,0.15097907,0.39682752,-0.08745343,0.35992876,-0.17956172,0.20216338,0.014429022,-0.15145604,-0.3735247,0.13412505,-0.049306527,-0.1701644,-0.011663831,-0.049148206,-0.10253632,0.14625083,-0.061204854,0.03859894,0.12418672,-0.3367986,0.33419636,-0.01849245,0.26699707,0.31047207,-0.21892922,-0.20716076,-0.23187809,0.2959195,-0.2857688,-0.34943855,0.20034976,0.17622603,0.144693,-0.055401545},
{-0.31270948,0.26456618,0.21160544,-0.291972,0.30451,0.18983266,0.01633828,-0.39128405,0.16668648,-0.052561127,-0.24853478,0.22831933,-0.16746768,0.019443968,-0.20034222,-0.40033084,0.07863659,0.13270949,0.23943084,-0.31873798,0.3315871,0.10178448,0.39103734,-0.3391761,0.2892216,-0.31199262,0.11496484,0.3072445,-0.22820656,0.05229805,-0.26679844,0.13551179,0.3518941,-0.3435978,-0.4657868,-0.27282614,0.26022074,-0.09793899,-0.26507798,0.1608108,-0.12879367,0.07309398,-0.02899719,0.24575433,-0.2564855,-0.088440925,0.048684724,0.04439067},
{-0.24146368,0.06681206,-0.3468292,-0.043124113,0.24360813,-0.18140467,0.037974693,0.051168986,0.08331447,-0.019056868,-0.051455002,0.033290844,0.15945163,0.15415125,0.3157489,-0.22133318,-0.23792951,0.20194663,-0.09725075,0.118827805,-0.36565083,-0.1042311,-0.13232063,0.11007792,-0.17741767,0.12808156,-0.23080556,-0.34523186,0.14627136,-0.0022541564,0.21175575,-0.19497095,-0.2411337,-0.21426597,0.42113313,-0.26280186,-0.30271575,0.061272502,0.35434592,-0.094647154,0.32013476,0.34068656,-0.05485726,-0.3523184,0.35822895,0.33313736,-0.2176459,-0.14649664},
{0.007700653,0.3455226,0.024665913,0.03980963,0.059313603,0.16021211,-0.10511197,-0.22862796,-0.31290624,0.012242607,0.06661481,-0.39941004,0.077365704,-0.37599552,-0.3765946,-0.04052146,-0.079187706,-0.23976749,-0.24250706,0.24168922,-0.23332791,-0.34744644,-0.34076473,-0.3084136,0.15755999,0.04210188,0.054144133,0.0023295302,-0.14000098,0.007770026,-0.015316793,-0.36833355,-0.15190423,0.39861602,0.16458607,0.14920323,-0.302667,0.16584136,0.3482499,-0.26179957,0.11847115,0.35419467,0.13182256,-0.017537642,-0.053382553,0.34778008,-0.22254425,0.2532066},}