331,341,-213,64,-166,-213,-218,311,-124,-199,20,226,339,-259,-75,152,259,60,-326,-190,108,90,-130,-345,328,306,-38,145,270,65,133,-90,14,-77,-165,-38,284,207,144,359,338,-174,-177,-116,-339,-185,-266,66,110,-316,212,-350,189,-191,-359,120,324,-325,-86,13,-173,-204,168,313,254,-99,290,-131,-350,57,-137,297,41,148,-75,181,198,-222,-187,-303,349,125,-168,176,44,349,-199,-167,-60,350,223,29,179,-146,-199,-165,44,-307,-264,-221,-8,224,-154,-58,92,-113,-76,89,349,-187,199,-81,21,-249,-82,-18,25,313,150,175,295,-251,74,194,-1,-235,166,306
91,-167,132,-101,221,53,184,-173,224,-15,-46,-26,64,-248,169,275,-63,-258,-241,169,-177,106,-15,269,-76,108,-94,322,-105,-142,23,-92,228,-95,-207,-128,-150,-201,261,-111,44,-14,214,293,124,-247,-254,151,49,310,157,266,287,-33,322,-357,-126,-46,-221,207,251,-239,150,-11,153,-184,-309,-155,214,-93,-69,-166,314,88,-188,-157,-289,-89,51,-219,148,-254,-17,80,270,-305,-73,10,178,280,-51,-70,139,-272,-319,6,247,-142,-344,341,-70,243,131,-289,-331,110,-272,2,-187,-196,-144,326,-184,-250,295,-323,285,138,284,-336,188,239,292,-340,61,82,-308,-200
-181,-186,75,-96,133,-169,-155,-316,330,-86,251,188,66,66,-124,-180,3,-229,163,-198,-309,-125,-162,-320,51,235,-193,69,196,-44,-221,301,-130,-74,-46,8,10,-67,-132,105,-356,53,13,17,-325,241,-203,141,151,-32,-271,-237,-341,89,-166,-190,-143,234,202,-59,-154,295,67,-69,-115,-313,40,105,-276,-143,152,317,-247,-216,321,-34,-353,272,353,-229,-270,-131,-129,-86,44,194,115,-91,-264,77,229,-283,329,81,350,-71,320,-284,55,-58,-352,326,-314,0,-336,-253,302,174,-307,-245,-191,312,301,-95,-271,312,-289,132,77,-281,186,-198,-34,91,78,-340,-261,-357
65,57,-147,-319,25,123,227,301,-341,267,-154,-159,85,259,-278,-317,265,198,-103,-175,-294,-153,-211,-133,283,-56,-169,-124,-328,-189,280,-2,-151,193,333,-233,95,-26,-164,209,-139,-84,-43,-349,-301,45,-209,43,-140,337,238,-292,-124,-269,88,258,-138,-288,-356,-156,-151,-222,311,332,-19,252,57,-345,25,-87,-74,161,-285,-279,-226,308,19,-144,201,-197,-269,-166,-259,117,-83,166,160,45,226,-251,-107,-102,-330,330,66,195,82,221,-87,-220,-91,-106,46,-344,283,-35,-60,-309,72,-115,101,100,301,205,278,-284,47,233,316,-76,-346,115,253,-89,86,-142,-298,86
196,-82,-91,155,-16,283,-357,-219,-221,172,-216,-3,283,121,-80,114,-323,-312,-239,-315,-34,242,141,234,-277,171,-255,76,-71,-220,-43,-351,-367,67,162,213,297,-229,62,347,371,-110,-275,-83,294,-85,-259,-286,173,199,166,55,21,-20,-111,242,-345,295,288,-52,-13,307,233,81,-139,35,152,-327,-279,-62,-3,-206,-177,124,78,211,-50,298,-147,27,164,-136,206,-315,-51,-355,-26,-328,-195,-86,11,187,-208,277,86,-146,-201,-201,212,-270,248,-8,-290,292,-295,-338,56,47,-257,-89,-226,-304,99,92,152,357,-218,286,14,-171,-301,-84,163,205,-170,13,-341,-92
-100,-234,-305,125,165,-348,67,-229,18,216,-314,213,-42,-226,-112,134,238,177,87,23,-234,36,-288,114,-342,-107,-202,225,160,-192,-197,-215,332,-35,128,-77,110,217,247,-298,246,10,-173,-114,-244,293,-321,357,-334,-172,-360,282,154,5,291,336,-260,249,134,178,215,-228,-287,295,-44,-73,-193,-338,-125,-341,-173,-190,-52,-61,181,-13,-286,-323,314,-345,140,317,30,98,339,342,-287,-233,304,-248,-222,-349,180,317,64,152,-33,-1,-226,-72,62,70,-112,281,255,-77,294,95,-234,-244,-190,-264,317,177,-12,-163,343,-87,-262,-212,-45,-25,-105,206,-332,3,279,-273
-334,131,283,118,231,332,-109,-16,-208,264,-310,318,215,-36,-333,4,113,-92,-103,127,2,17,213,-84,236,35,227,-361,12,6,-168,-89,59,-147,-271,-264,89,-326,-265,-338,264,-319,138,154,256,-10,-219,23,-249,320,286,165,-225,-261,310,267,-188,344,-253,-51,-124,126,0,-253,-21,-206,-206,224,43,2,-187,141,-12,-161,96,-310,326,-151,64,-38,-61,-353,-212,311,157,269,-254,-195,-263,-291,202,-13,-277,-13,174,112,-119,266,101,-67,-78,-310,242,109,-70,-25,169,77,-333,316,-178,-190,246,-192,-119,-28,326,54,131,244,-333,-350,337,139,300,-28,172,191
31,87,-193,-218,-203,186,-180,-238,-206,192,-101,155,221,-36,97,217,-253,-329,-32,252,174,-217,-342,29,-182,102,97,-63,-17,75,17,99,-108,-147,-91,79,221,-45,331,-341,-41,342,-174,176,34,-122,10,-35,116,145,70,93,-19,-238,-67,208,-328,-246,41,283,198,-62,313,-316,105,189,220,-198,-64,234,-263,11,166,96,353,-282,304,-291,325,-285,113,-57,-151,317,-322,-162,52,-124,-161,-226,-193,346,45,313,237,259,53,-326,-207,286,-181,-4,259,357,240,357,283,-245,6,114,339,-8,22,-135,92,-302,94,20,360,359,-313,167,165,-177,8,137,49,-169
-117,-68,-5,275,-312,-98,-152,16,-39,-254,215,-139,148,20,-331,-290,-247,64,-306,-274,97,-28,-175,-1,-341,-128,152,-155,10,121,-2,12,-219,-25,-9,-285,-218,-241,-126,-118,284,292,-111,-77,97,262,-172,-82,268,-13,325,158,170,-71,357,-236,191,-90,-10,-75,-125,-156,345,-53,-190,-279,-143,9,-304,151,318,-190,158,-281,-53,326,-223,57,309,37,-306,-188,-275,280,-60,194,125,274,-324,-332,74,317,128,354,34,-261,28,246,49,158,-235,-281,-59,-106,-297,210,-306,136,-182,56,10,349,-265,-43,-313,-122,180,-298,-270,-46,-112,-33,-131,-197,0,-110,-306,278
-292,-134,-94,71,176,-203,-248,66,111,-213,64,-223,-332,242,-58,-177,-260,49,-13,-252,242,-310,16,-43,2,-172,260,89,82,121,-209,333,-21,-160,-157,-151,-152,227,-195,-328,40,-104,-238,-277,-140,-91,25,142,-275,-86,-200,229,-312,136,-229,148,22,-128,161,173,288,255,-254,-294,-63,143,-171,-32,-351,-43,30,92,-65,104,-56,-90,148,24,29,-6,103,274,-27,-16,268,-215,-16,103,213,181,-159,302,161,-147,-36,-172,-179,195,223,-289,-144,319,45,-166,252,-345,-150,-293,21,7,305,-237,203,171,348,297,200,154,34,24,-46,-56,161,-28,161,-114,310,-41
93,-201,128,236,-107,-197,287,218,-177,210,113,-48,-259,-206,-161,298,-92,-129,-243,-330,49,252,-208,-160,-214,203,-202,-284,235,116,368,226,-295,94,-158,86,-135,158,221,298,128,-147,320,-119,-35,318,264,-53,93,-35,233,299,-357,355,-18,226,64,-200,293,-258,330,-253,-261,10,-133,-361,322,75,-81,-72,4,-105,-294,154,229,95,325,-207,231,-107,-124,-38,-293,335,-162,-100,317,74,-148,63,343,-87,-234,-205,-144,-67,-92,-338,259,-17,250,-250,-196,-185,-142,-321,-84,-5,-78,209,-91,-94,-351,102,-330,-19,10,332,-216,-176,141,-224,80,337,340,-339,-48,-161
58,159,174,-239,-53,-299,-360,-351,-155,-231,21,-70,280,-196,282,208,96,0,-89,-129,256,-226,345,-313,-229,298,277,319,266,-191,-70,124,161,55,296,103,-153,-10,-123,179,252,-345,-195,83,-93,-64,-231,-297,-357,-45,240,171,-274,-26,-97,-10,-207,-316,323,-201,-55,-80,-218,-78,108,-76,-7,109,-268,-296,181,-348,117,213,-114,331,-34,52,318,209,342,-207,312,-28,-260,186,-128,318,-214,-247,150,-162,164,81,290,-187,-23,-363,-302,166,264,49,-80,314,301,-121,-236,325,-56,-193,-341,-183,115,-273,345,-230,-251,299,92,301,-12,203,336,-18,281,281,-358,-338
-132,-95,-28,-144,-238,-260,51,-108,43,-287,-93,-373,217,-272,-272,271,29,208,-59,301,5,56,231,119,-20,-80,-300,272,-289,-281,-300,-233,48,1,77,46,252,-350,-336,-6,-31,170,160,0,352,111,18,-11,-89,180,-233,-182,186,-219,-194,26,-260,-74,-233,128,79,-36,22,132,-336,31,-191,7,83,172,199,227,313,187,231,-202,169,117,-206,-165,-271,102,160,156,-265,319,-93,-319,226,162,-90,211,-309,-148,-46,-303,6,-341,-203,-243,-4,102,-223,-118,145,93,97,104,-59,209,-58,-6,-326,171,183,-96,244,39,236,56,56,340,-325,-46,6,-330,174,-17
-239,-60,-323,5,-75,149,148,147,-334,-89,84,-13,-322,-45,-228,-52,124,183,-94,153,-144,294,-240,-148,-250,200,327,-254,-264,14,-160,-232,26,-154,239,343,217,124,-362,314,250,190,67,264,-98,142,299,-168,92,156,276,53,-89,297,-357,-26,-45,-119,91,41,-139,-366,-70,-176,-280,-353,-282,151,109,-111,188,311,61,-290,119,-151,-94,-193,-340,290,243,133,188,52,-346,202,231,-24,189,237,-194,-109,89,336,139,236,6,235,-336,-277,-65,-334,252,-220,-303,72,-6,-260,57,324,-345,-287,296,221,-372,264,192,-267,289,-79,314,-294,-272,309,289,28,-324,228
-274,-181,75,-351,-196,321,-38,-104,312,136,248,204,-218,26,15,150,82,-280,58,-347,-95,147,-236,260,251,-108,160,103,-208,-210,235,-288,-5,-24,-70,-182,269,-43,350,-294,112,326,109,-102,-4,146,105,-18,-147,266,-269,-162,-185,281,-251,282,-164,154,-288,99,-164,288,131,132,-182,161,170,219,-322,74,-312,-251,-138,-112,155,-53,171,-115,72,149,-7,-349,265,102,327,354,254,-235,-59,279,62,267,50,-242,98,-200,-289,-105,-313,68,-10,-307,262,-72,-235,-63,130,-254,-41,185,-239,219,190,132,260,-97,224,344,-146,312,-307,307,133,156,-155,8,-300,273
167,178,121,-299,-160,-268,270,274,79,221,-49,-214,-61,-167,205,-115,-355,-350,-288,0,-277,-241,-36,68,356,-130,-89,271,304,5,-184,106,-205,273,-41,-163,342,108,-83,288,339,99,-128,162,42,-329,-15,344,-158,3,42,-330,-343,278,125,-131,322,-89,326,-107,-10,30,-318,279,-200,-117,193,142,-98,-329,332,-109,109,71,-178,58,-125,-348,-246,28,-313,-349,230,163,-75,-194,218,144,2,178,150,-196,-59,258,99,27,-84,-2,-5,-246,-153,12,-342,-159,-298,-180,196,244,-94,59,61,352,281,-37,237,263,163,253,-106,278,-205,-20,-7,-90,303,33,338,-60
114,-127,-69,340,180,-84,-20,-229,137,-295,199,-281,-312,66,261,212,-231,129,-287,134,-253,-306,29,143,315,-310,60,-327,341,-150,-306,-234,15,-117,-157,-168,-302,-188,94,-122,326,191,41,-6,34,-236,82,369,-266,-104,276,-57,106,-57,-14,142,-279,189,-86,-230,45,152,155,148,-293,262,-9,-116,298,-310,-321,-219,277,54,72,53,270,361,56,275,-37,162,-145,217,176,102,-58,-41,-113,72,252,-45,-331,-177,300,189,-163,222,-87,219,181,-210,-302,-105,-79,290,180,-287,110,-292,-331,55,141,314,212,-41,-5,-121,283,-299,214,-340,-227,-44,-94,-118,242,-108
239,-237,14,221,277,259,-41,-17,-285,103,147,-19,328,-161,58,-132,223,-61,-131,-212,178,271,134,-163,345,-283,121,-47,128,-139,347,-120,24,-27,59,135,7,26,297,-239,-267,-40,165,-30,-254,-211,-98,-142,-156,251,144,279,171,-272,-298,18,79,273,265,-3,196,260,-167,-72,320,155,-28,160,53,-230,220,294,-303,195,-60,147,66,-124,-216,-309,297,350,246,330,-50,-342,-367,-300,22,198,288,-230,196,326,-115,-96,114,69,-361,-326,136,-73,-68,301,187,-42,-109,-288,127,-142,88,-336,8,-240,23,310,-320,-224,-171,-184,87,-11,245,-138,-264,-270,-69,327
-58,88,65,-63,350,179,231,-13,-310,-242,-127,297,289,296,252,-176,237,-310,-318,347,174,-283,30,-164,-67,-287,-278,-251,-82,203,345,-83,129,-140,49,1,227,-243,140,181,29,-217,-184,282,129,36,-151,-66,-202,108,-159,334,170,-187,-203,227,27,87,29,-370,27,-58,-169,-195,286,142,-108,-308,-83,-53,-230,-371,-261,99,202,-58,154,-50,290,181,-28,223,235,237,-258,73,91,92,225,-365,213,-165,163,-277,189,-139,-294,340,254,72,-200,-250,94,-164,72,326,-349,206,54,-313,-208,344,187,152,50,-136,3,-207,289,-238,184,23,-162,-29,12,77,29,-247
-274,-211,204,135,-16,-233,151,-75,234,-72,304,107,62,-169,-131,199,-328,169,228,-136,-249,-58,78,221,-199,-126,0,-11,234,267,-249,29,140,206,178,324,-75,-39,339,249,-27,-74,-305,3,-210,218,229,93,184,-203,-61,41,-302,-204,-59,96,142,-150,275,-327,-145,-323,155,-342,-189,-75,360,-189,-106,-10,269,-98,43,152,-19,243,130,2,86,-247,99,188,-206,-127,-30,127,-91,188,-256,-113,-310,126,124,-92,308,-324,257,-362,-192,231,11,187,352,-73,9,215,-140,-53,-173,-332,-70,-311,-9,-90,-67,351,116,207,-238,-113,121,182,28,-132,282,81,263,90
352,105,212,76,-35,33,218,-333,138,-22,-182,87,-321,-197,-279,-296,55,283,-187,74,66,146,-105,102,-68,131,245,160,-34,-286,121,328,-99,301,152,-259,-144,-115,-56,233,-62,53,-86,6,213,74,135,234,-186,-63,311,-191,325,27,56,-72,317,161,-252,44,188,6,258,-126,145,227,168,337,-243,352,-153,158,28,138,-265,-11,110,183,34,-305,-143,-353,161,18,-1,-255,137,32,281,264,111,59,-146,36,-189,314,85,-55,63,129,-69,-44,330,310,353,-93,40,-342,177,-89,367,314,61,136,-206,41,-78,-225,-236,166,65,166,105,-56,220,-47,166,-93
306,338,-332,181,-365,90,313,-218,324,-203,183,-245,-17,215,-250,-161,-262,-362,-196,-252,300,-56,-122,-94,-39,-92,-143,-278,-168,143,215,38,-17,-26,-339,-362,-159,-368,-289,104,-324,248,-372,-94,-147,-111,-320,-135,341,344,-217,32,-68,-281,284,153,-187,11,251,179,-176,-238,216,57,-38,136,-124,-176,63,118,-246,229,23,-61,-88,155,180,6,139,239,-351,291,-316,67,-75,358,185,-121,-235,60,-16,20,207,35,-167,148,251,1,-364,-174,-161,-214,-6,0,-24,322,62,-124,-10,277,-48,-338,-268,46,176,-229,283,317,-254,216,-220,-112,-287,-136,-293,-225,-144,314
-34,323,0,220,-27,84,170,324,-139,344,-370,279,-64,-350,-231,92,328,-17,-334,-20,-103,-69,-112,19,-221,219,-354,-85,-265,30,1,-339,-371,-332,-221,-35,-110,-48,32,-353,-102,-187,-241,9,96,237,356,244,-104,-213,-358,350,-297,28,346,89,229,222,312,337,-132,-355,35,169,-340,143,318,-212,-93,-41,-104,-320,14,-76,-38,52,143,254,-310,280,291,-173,-70,43,192,233,-313,196,-109,-98,358,94,343,-135,32,65,311,331,86,-244,-168,-180,70,96,-255,110,13,-263,-156,235,193,224,42,331,-7,-95,-32,-100,130,-126,-82,-334,194,74,340,-351,-34,-131
-61,-205,174,283,-174,27,-70,260,153,115,326,308,-254,144,-48,311,-64,300,-207,43,-63,-198,-160,41,46,134,142,7,46,-334,-170,43,295,-66,52,-267,241,247,195,27,-98,256,217,-360,-228,37,65,250,31,-18,-50,114,-265,22,-322,304,-261,341,-116,-165,-311,-203,-304,84,-151,-108,182,-288,-77,132,238,270,-230,145,-53,-368,201,-161,34,215,192,66,-185,171,168,37,-42,-175,-360,159,318,-48,-100,147,-14,-277,99,-332,-112,281,295,-163,68,-134,-206,283,239,-249,239,-336,-317,-207,-165,209,204,-161,-115,-225,313,234,5,28,72,199,-85,325,-114,291
-72,-88,280,-238,-28,-323,73,-191,-81,-87,243,117,231,-211,85,340,-133,-183,-33,241,101,-304,45,3,179,200,247,-28,101,-246,183,333,344,-316,197,229,360,226,-226,32,-105,-349,150,-314,-14,42,247,-307,360,43,-12,215,-104,319,-180,120,-125,-110,-204,294,165,-131,13,-26,355,-144,351,-340,174,212,-97,-77,21,-355,-69,-311,-174,272,-192,-148,194,-288,111,-93,35,342,266,-297,-100,46,-30,202,333,-58,-57,-174,-204,-306,23,215,239,60,211,124,-236,-195,24,5,-221,-225,291,-100,-51,259,-141,195,-358,-166,-313,-172,59,145,241,359,74,99,-109,235
-242,58,296,188,-238,-298,-236,343,-112,324,133,273,134,-56,326,104,86,82,-291,-364,-314,93,-201,125,-14,-126,70,89,28,142,265,130,-331,140,259,-339,-17,-30,258,-224,-69,236,280,-7,-121,6,219,265,-307,247,345,-171,-266,58,227,263,347,90,228,319,274,-2,279,-1,215,-76,-244,-119,-256,-82,290,78,-108,-59,-50,59,-103,144,19,-338,253,177,52,-219,-16,192,4,186,-335,32,239,-65,-357,-173,-23,57,134,163,234,-141,43,53,-11,-248,304,-19,-82,224,-296,-136,343,124,99,59,279,-101,60,-288,-312,196,96,-363,32,-140,-239,-132,-294,273
363,209,238,262,188,-69,-329,-351,0,89,-69,304,-156,-13,-235,-245,-33,7,55,351,-319,-337,202,-228,-226,34,49,-228,113,59,-65,181,-72,254,-234,-265,11,248,46,149,299,267,149,49,338,-300,-284,176,56,-253,148,-83,-78,-273,71,-276,-41,192,-287,105,271,-153,151,274,343,-297,-5,79,76,-70,244,11,306,324,188,-75,86,-240,-219,-259,-4,165,-42,76,-81,250,-87,-197,253,-135,-146,-321,-61,-345,325,-270,181,-266,365,-46,139,59,36,177,250,-61,53,-341,309,28,-40,14,-113,-27,-111,8,262,331,-313,37,215,159,-4,-141,-284,-325,-268,252
81,-314,-205,176,26,-235,64,83,-49,76,-164,306,-153,93,296,-218,319,277,-90,-244,-184,-39,268,-231,-45,73,20,209,-119,230,-319,12,256,160,215,58,-143,-187,-357,231,-114,84,313,206,-109,175,-126,189,55,-309,-361,140,226,135,-219,59,-216,196,304,-239,140,-306,-5,175,329,122,231,46,281,-286,-197,-284,-242,-139,84,138,-58,-318,168,163,75,-333,-152,-153,-334,-51,-217,140,203,-65,-329,289,353,62,-1,182,-107,-199,157,-267,162,-15,186,33,-301,238,-135,154,119,118,14,46,-325,-260,-89,81,69,-297,-205,-180,241,-220,79,-290,-216,246,-42,18
-356,-49,-219,-307,-251,-103,93,-16,-232,268,-213,-281,-241,-90,-229,-38,-338,283,-156,79,348,-350,-241,-257,326,-135,294,278,-33,192,-151,-216,239,-50,314,123,97,-224,105,58,-111,-104,21,296,34,-96,86,282,-265,148,-191,6,-349,244,268,-58,-359,-248,157,9,-293,346,307,-191,-243,196,-19,25,-128,312,-44,-68,-304,145,92,-150,318,-15,-170,123,158,-259,328,-14,-133,-50,23,-263,250,-137,243,-235,-2,-288,-14,-35,-164,144,171,66,219,-238,-320,166,30,44,-132,11,-200,-276,-187,-188,-86,-264,7,216,-92,350,175,340,230,336,272,10,40,-46,-347,-322
319,298,-253,-121,-260,-275,155,252,55,-90,-189,5,-257,373,329,294,39,273,325,228,109,15,-142,-264,-45,86,-214,-97,-346,-146,112,38,100,-143,-137,-257,-39,-275,-360,-24,187,-194,70,108,-255,17,-298,-201,343,348,80,73,325,-303,-322,-133,12,-90,-329,-161,-283,212,-292,141,-175,278,-8,68,-199,-3,229,-213,-217,-336,116,-35,-297,-197,-69,114,172,-172,229,-97,-70,333,103,-326,159,272,306,-156,-164,-141,186,-18,144,182,-44,-262,-111,-118,320,75,-116,-201,-114,160,159,95,-330,177,-35,-206,123,-132,-92,125,341,-295,-212,23,364,104,-49,-179,200,353
328,-169,-198,347,227,192,57,347,-317,306,-252,289,285,-9,84,40,105,-45,-41,305,-138,-123,110,-12,168,-76,272,-66,-222,182,-79,101,-27,-174,-256,106,88,180,208,298,-354,-84,-206,-349,-154,-234,-65,244,-185,-91,-25,133,-255,282,-222,260,218,199,-331,-51,-255,-85,-273,349,17,232,101,-204,304,40,241,-248,77,210,-140,144,166,155,-338,214,293,-333,-81,-328,243,-167,-287,187,329,353,291,-142,61,10,-228,-200,-308,-42,-62,-232,-76,-79,62,-176,356,251,106,46,-351,353,-265,32,-204,-60,39,161,-204,-167,-352,-154,155,-191,-327,22,-95,-280,102,319
-90,264,-6,302,-59,349,-23,339,262,184,-284,212,231,-73,331,-354,-333,341,268,-10,-290,-302,175,340,234,-125,-296,245,-235,7,86,-302,-10,-102,-184,329,-347,-80,-3,93,-112,126,42,-16,-327,219,153,89,-176,219,-208,-182,-269,-255,-245,256,-89,83,-42,92,339,-109,103,-249,-24,30,-98,-166,-336,-280,-58,-294,325,-332,216,69,-40,-280,-232,-253,306,157,-169,-258,304,-175,-296,-320,-267,-237,-67,-187,-232,-248,12,338,30,234,22,-13,345,207,-238,-297,198,-24,-4,344,207,87,-309,237,181,165,198,80,204,101,-54,339,-331,254,103,226,-259,-18,-31,-128
-362,-92,-355,-117,-282,-363,-174,-235,157,-212,242,99,3,-280,-322,-57,180,-92,-32,-178,-62,166,-234,114,34,124,155,-36,-9,10,-61,18,-56,-78,-187,-253,-328,-244,248,-225,227,258,101,248,329,-313,174,272,100,190,94,-267,-12,145,299,-181,-300,154,-236,100,-74,2,264,304,260,306,240,-208,-35,146,-333,-43,59,-226,316,328,42,-306,-91,315,-28,-206,-319,200,43,201,279,72,-91,0,29,249,-155,-280,347,275,309,179,163,76,-176,-321,-158,-199,30,-366,-314,-232,-28,20,0,263,110,-283,183,12,-321,321,-140,188,250,297,-285,197,318,342,-103,-70
-346,-170,-79,-139,-19,-341,-289,-161,235,45,300,-164,-34,-300,34,80,-51,-212,-69,-132,-31,309,-150,193,298,-82,168,-219,-137,319,134,-199,-25,36,-247,181,-293,-104,-81,-222,206,269,-227,-362,230,51,202,-268,256,60,-75,359,-347,-316,288,-137,-215,156,-349,268,-221,22,-32,-136,206,253,140,-95,157,-213,-229,233,178,36,192,202,214,5,224,0,-246,-167,-164,-93,-319,207,-62,145,-258,299,306,-32,170,214,-5,-257,-75,13,9,310,67,-106,-233,81,196,173,-181,272,-16,134,274,201,-260,-23,0,147,-165,-153,276,255,-197,246,-349,-297,-217,-328,-141,-285
-3,181,194,154,317,120,105,-199,307,243,-134,-93,-157,-48,252,-15,-10,-329,86,83,239,-348,313,62,-234,373,-257,-341,26,158,-201,202,128,86,-236,189,-182,-38,353,185,16,296,39,-297,358,338,330,-342,-137,368,-298,358,-362,351,91,-292,149,-12,340,314,216,231,36,209,-207,15,-285,320,-30,230,-244,270,332,347,33,177,-132,-21,125,121,-209,22,64,-137,204,143,-136,-56,289,173,284,-10,-62,-248,77,-3,-75,-51,-24,98,-274,-180,293,-16,212,175,172,99,332,63,-7,36,352,121,172,127,-315,258,52,-38,-42,-236,-5,333,151,-52,-28,124
250,-133,299,-234,-122,-309,-309,-32,-216,340,-255,-120,-350,-285,-324,2,95,-225,-137,-295,-116,27,319,211,250,84,-150,-211,263,-242,77,214,76,-73,-80,161,-261,176,148,-363,8,-110,234,328,-28,269,-19,127,-264,228,-85,129,-63,129,-303,258,332,134,339,277,299,114,-93,328,271,-337,-72,245,33,-313,274,300,66,-179,-246,-366,-47,-220,296,-46,-78,162,142,-340,-305,129,162,310,103,84,87,349,-5,329,-169,124,118,-10,-247,121,322,272,311,188,343,282,-56,132,62,-55,229,-99,-170,86,-139,-256,69,271,-41,164,-171,-6,287,-316,-228,-180,-213,-102
47,-218,316,-352,128,-73,304,-339,258,-18,269,92,-38,223,241,293,-101,-96,-261,168,-251,319,-149,-165,231,25,-313,-90,-101,121,-360,-259,-84,-327,132,-338,-7,239,309,156,-77,327,19,-152,-100,-32,-178,144,-356,262,322,132,177,125,-195,-14,95,267,-265,300,40,199,-230,-159,106,-301,100,-101,-68,-364,-226,337,-241,337,-22,-255,255,306,-134,39,29,11,-318,127,-201,-363,-92,-167,-350,-359,270,43,-148,-169,-27,-12,-60,41,-285,-61,148,321,302,-283,-277,-198,-278,-160,-132,-351,-171,-48,344,-152,300,-189,344,260,-66,314,-329,238,12,-81,-117,96,-264,-92
-362,-214,-153,347,-111,168,-42,336,229,250,-265,-332,-51,-52,-13,-208,-238,110,12,177,-74,265,73,40,325,218,56,-357,193,302,-133,173,-97,86,142,171,-89,-9,-41,-123,333,-320,238,115,-353,-187,198,192,-308,213,99,-306,-116,-124,268,260,100,298,-78,-119,58,8,308,224,-120,254,240,262,-116,328,-22,96,133,-73,270,-290,205,-146,-42,157,-320,235,-233,62,-13,-224,-263,-121,-360,183,29,-167,218,-335,240,-263,289,-214,-36,-313,-69,40,129,-69,-196,-38,-261,289,262,-93,-152,-287,-176,165,-257,169,-157,141,-160,-222,195,-318,-193,-80,-270,103,-184,11
-190,69,-150,46,-295,12,333,-77,181,-271,119,-21,-343,-18,-313,-200,104,-295,-309,-293,106,130,-62,-41,-297,102,-200,-162,6,-168,-187,16,66,-143,300,245,-213,-368,-266,8,324,19,335,-272,58,-262,-194,212,-266,-289,281,99,-337,-221,275,-12,225,244,-244,114,-142,-226,-176,-307,128,155,-358,-136,-107,10,69,23,81,-104,96,-80,123,12,-328,-263,-44,350,186,-65,-245,-342,70,130,-194,368,-267,103,-202,144,-54,-37,108,-327,82,46,-339,113,-225,270,-3,155,-103,312,322,-362,125,-78,32,186,-342,89,-247,-68,1,-331,235,-144,75,-310,327,23,-229,57
-87,-357,216,-99,117,-177,318,18,-152,339,-163,-342,-46,122,146,-320,185,58,98,-272,-353,147,-81,-87,330,-233,-268,159,-265,300,197,184,128,265,-89,248,-338,102,-157,-290,329,-277,344,-21,-141,141,-355,-326,156,-156,-90,13,-296,147,-318,191,-18,-37,-323,-323,1,-220,-357,219,-35,203,51,299,334,2,-283,-32,131,275,-329,-144,-1,63,349,75,74,-204,280,-38,-106,232,175,-64,123,-102,17,257,-159,277,262,-133,-232,-137,-107,-142,112,-298,307,-18,-322,-253,-219,139,-323,-99,-192,107,210,-56,-195,-259,-53,-124,-292,103,245,171,-214,321,-319,173,-147,-326
290,-342,-240,81,300,225,244,-203,124,-53,167,38,81,-107,-246,302,-195,338,-329,1,324,98,-278,104,-156,237,361,220,18,-212,-72,138,-263,158,-124,-209,298,-343,121,301,73,-94,337,-58,11,233,-191,-17,-224,326,-291,-123,125,-38,95,-57,-206,-278,106,318,23,320,368,-185,-153,294,279,-60,-40,-188,124,154,-213,-247,165,266,339,-268,-138,110,343,-186,-210,59,-294,305,-120,-333,-184,-127,-170,208,187,-195,-23,-141,158,221,346,330,-196,-59,256,48,1,-266,87,190,323,56,324,-327,-282,6,-5,264,135,306,208,-229,-80,-273,-213,-151,333,-236,-325,-278
-311,230,-345,-55,315,-284,-324,135,153,29,-91,-360,-77,251,157,-210,-163,141,-209,115,146,-65,86,-204,-277,-230,37,267,-67,-261,324,-160,239,-244,114,-247,-330,-236,-162,-4,-301,-311,345,242,-77,-280,-107,55,-158,-321,-253,-6,287,26,313,-28,-232,55,162,151,289,-263,-147,91,-7,148,275,274,81,155,316,-229,195,-17,297,1,306,75,-277,15,-82,-270,-364,-243,211,-288,-286,185,33,0,-47,-66,105,-100,246,-66,330,249,359,-138,-223,-182,-369,318,55,237,-64,-170,223,121,107,-276,-118,218,-52,-335,-18,-267,-260,23,-299,155,-254,-278,-74,83,-211,346
-174,-39,-264,70,-153,213,-40,148,37,19,-62,29,332,86,-263,277,-338,-335,-281,249,-141,-77,345,179,174,-84,203,290,149,-143,8,-326,164,239,7,-363,-219,216,173,-274,174,-366,243,-308,174,-262,308,-71,-230,-325,-23,320,330,304,-266,235,-251,-298,23,289,143,329,53,83,250,168,-333,98,-116,77,-116,274,331,-313,-5,-215,-328,349,-351,-313,-126,214,-18,-324,-325,327,15,-19,339,311,158,74,228,-209,209,320,252,-147,79,321,47,362,-118,-190,-3,-183,-17,-280,-123,-232,-196,-262,45,184,-32,-187,249,-93,-121,122,-228,-287,-331,-181,-302,-271,266,174
330,253,-67,-205,-188,-134,213,141,180,99,-171,312,-206,149,51,237,271,163,227,236,-196,72,52,-184,-18,-196,-234,153,191,-193,-50,109,24,-53,-184,-11,195,203,222,236,156,243,-298,-70,-208,157,211,32,-320,-181,281,-102,-119,-161,-344,74,-181,278,-184,141,-56,-278,-344,-77,20,130,-332,-278,87,-349,156,140,-320,-333,107,-42,-88,266,30,186,-136,117,-91,-42,166,57,273,-291,45,85,107,-341,-279,339,-167,250,41,307,354,21,283,-140,-24,-303,335,124,-92,20,58,276,-232,-186,-238,-292,-173,-230,-132,119,160,-205,367,-34,-250,142,-343,71,-148,327
-189,289,151,-331,50,328,265,-75,151,307,-74,-14,214,236,-70,337,-83,-273,-185,317,-231,-367,267,-88,-354,111,-325,-301,-174,180,208,-328,-143,-344,-187,99,-141,133,-137,266,-36,-72,-162,-125,339,39,-10,348,-73,-348,-262,-308,44,315,-248,154,196,-52,162,-40,167,277,-200,-352,-54,295,-235,119,-15,129,-56,-264,261,136,-155,159,139,201,-216,-57,-340,-76,-206,30,-78,216,-333,221,-41,27,81,92,-198,-241,-42,98,341,-100,-273,-178,-373,4,-116,-50,153,136,-222,67,65,247,-272,-260,327,34,-128,-82,215,47,63,-297,61,-22,-7,264,196,21,346,-142
-270,165,262,-282,-293,295,-109,-295,70,177,-321,218,-44,233,288,334,-195,-348,60,58,-216,-63,-165,55,-134,-261,-239,261,148,212,-111,-47,-150,93,-173,312,39,270,-19,-132,-221,290,14,-201,190,-229,-116,-129,-200,-268,165,-194,2,334,-263,216,-20,185,-66,-219,206,196,-211,-205,-11,-135,-213,221,281,-6,254,142,339,-71,-100,-18,-160,345,192,-6,67,-277,294,-298,169,-235,-355,24,-277,107,-136,-263,335,322,-194,298,-283,74,146,-117,-112,-278,-98,-253,87,-138,198,-235,-157,-337,-177,253,-16,325,91,-171,173,-262,126,-149,126,-24,-240,352,137,80,-280,143
44,-337,281,-87,-349,-184,-239,-66,366,-98,-342,351,-8,252,-30,-28,-316,-170,297,-5,-168,-176,-63,-263,-237,366,232,-107,140,345,119,128,-12,-123,-65,-2,260,64,156,-221,333,253,-20,296,-115,-71,-291,239,246,79,-317,169,-152,-124,-271,-110,-196,-85,-81,275,203,-105,153,-79,-265,-213,124,219,255,363,-306,48,239,186,-260,-193,269,156,96,-277,-219,358,-257,358,-322,-294,89,259,293,105,-271,279,83,13,-243,-181,216,-287,-155,18,219,319,18,92,181,-82,178,-30,303,80,187,49,-296,-229,321,21,-265,-63,33,187,118,-1,-54,259,-49,-272,273,90
-23,286,-264,-133,198,203,-229,270,-28,-105,-344,-4,-345,-278,-136,-253,328,196,-36,152,-97,123,-123,-170,-188,74,270,-348,85,-220,6,-170,324,277,-166,-216,153,-268,-33,-190,125,-164,-284,-253,-245,343,231,-116,167,12,-243,-75,314,-8,308,-63,-59,31,-8,-320,188,261,43,167,332,-18,-88,-210,8,-199,244,81,250,-347,111,1,-90,331,172,-16,-18,-75,-270,-157,115,-255,51,-319,107,10,3,-366,20,316,-245,185,-135,-303,257,-211,-45,-350,32,203,-222,-212,-303,-294,95,98,105,300,-276,-263,239,-104,-111,-48,104,-100,17,-88,60,44,-182,225,82,342
75,167,326,180,-137,281,-352,263,-326,-232,-374,-86,-72,-232,68,-59,185,-153,-5,99,-329,-67,-40,-119,149,-30,-94,247,-269,66,-75,324,-70,-95,-8,327,-261,-351,-95,5,127,-110,-96,30,-241,-175,-346,-131,-193,-241,159,-363,42,-372,28,284,-235,-11,-86,-214,34,-36,-70,42,276,-170,192,-92,119,137,-277,43,-91,-173,173,194,-290,291,139,-249,-111,242,-198,260,-254,-139,-165,24,-341,-90,-371,156,-276,-174,-95,-259,19,315,-176,115,3,-133,311,308,106,-60,25,-314,5,-141,-65,190,316,-236,-255,324,169,337,312,51,-30,-135,-209,177,-110,-352,-368,318
89,114,-286,185,-247,-39,-120,130,-272,-3,-212,84,-342,186,-205,170,60,-170,312,65,-199,-7,289,87,-177,-246,-224,-210,324,-313,210,231,275,328,278,-251,282,114,287,-278,-323,-202,39,133,-287,-269,4,101,-66,-7,71,-96,194,105,-179,227,45,359,20,-56,347,133,209,-61,95,179,205,-148,-111,9,23,-172,-214,-94,34,176,-19,261,135,17,-235,239,136,-201,-29,-337,82,-218,91,-247,50,93,24,233,270,302,131,325,-13,-371,-257,71,12,25,150,-143,-351,-302,75,-34,336,213,-274,27,277,308,-153,6,358,260,-319,344,135,-207,-253,105,27,333
135,-74,89,13,-107,-229,-51,298,310,-184,-121,-318,-118,333,-285,-230,177,259,194,219,-4,-212,-288,124,118,-244,-344,-69,-62,266,-85,-180,160,-339,-18,-82,-108,103,294,-268,240,-293,230,323,172,-279,-299,311,-179,-183,-246,101,352,-238,-104,-10,201,-28,258,-150,-245,338,296,-213,-76,-225,-229,37,116,-16,164,106,-75,-345,-287,243,274,-227,4,-151,-23,-261,-138,88,-209,-94,-270,-294,285,-333,-52,109,-224,205,-107,-188,61,-372,216,113,289,-15,224,61,-340,-221,-351,189,264,-128,-273,179,-48,-177,236,-88,181,-293,214,157,192,150,-246,-290,-341,-318,187,171
-101,-248,-294,218,-190,-335,227,-147,-33,197,106,299,286,-175,252,-211,187,282,-178,325,152,-332,-144,-197,332,-17,146,-300,-361,-225,317,108,162,-325,200,-295,-166,-297,216,-48,71,-245,-106,-34,318,52,6,-158,90,206,-77,298,-71,264,193,98,-110,-276,-36,-11,94,69,9,71,108,317,148,-231,33,88,285,212,288,-305,24,-93,37,350,-108,92,-191,-25,-358,194,-158,-349,-225,-172,72,90,139,5,26,251,140,210,180,36,-123,-106,-73,334,203,-172,232,255,5,-339,230,311,150,-161,62,319,-325,95,-186,344,-284,-61,49,-130,-147,-95,-148,123,-188,-266
-234,-223,-154,25,-212,-120,-119,339,316,152,79,-137,-295,-322,42,57,-297,-100,-94,225,132,-21,282,55,-284,-321,324,-287,-338,152,240,-230,-116,248,155,-310,79,312,165,284,311,166,-35,-84,233,21,-305,317,96,34,-170,126,-53,-26,-349,-110,-159,208,251,-354,-28,-154,-64,132,-134,-151,-88,241,326,-136,5,-76,-183,5,-292,125,-328,145,282,-220,-280,-56,241,62,215,-300,-318,356,-110,97,8,251,258,-220,-342,-357,-353,209,225,-272,248,1,157,124,238,-276,114,151,-202,314,357,249,300,218,-277,-112,-255,-55,373,237,-313,-170,49,309,-203,-253,3,329
-210,171,190,-9,57,217,102,28,196,278,167,38,184,186,-81,112,146,80,120,61,-136,-169,139,-155,-59,-237,69,-257,-293,-141,99,-117,-74,343,-97,299,-300,-254,-66,-204,-25,231,-47,-15,-243,-249,-147,257,105,351,12,-243,57,-4,-160,-169,172,135,-184,-121,179,-54,110,295,170,-159,371,-45,-222,-20,211,334,-294,-34,-30,292,-27,-44,-62,101,-131,292,-208,-259,275,217,-341,116,-310,-327,281,-299,160,201,5,83,-144,-10,219,308,-53,38,193,141,-303,37,347,-256,-270,345,-168,119,-182,365,160,-326,-101,-48,149,275,-15,-215,13,-239,-311,-208,280,101
-146,29,-251,-60,293,-359,-225,-306,291,-24,-55,-265,-198,-26,-62,-244,-331,-133,-17,-309,270,-286,-113,-129,323,-16,30,-227,-30,-163,-319,60,-260,85,-87,303,-11,-5,-173,-346,22,356,130,-244,213,253,95,-13,-243,320,-68,9,141,184,224,47,78,135,-86,350,-283,-108,-22,130,197,56,158,87,262,-323,131,43,-91,99,165,130,-216,179,293,-202,-167,107,290,12,156,-315,306,265,293,-294,44,33,-271,103,9,149,-266,-17,215,205,54,131,-188,294,-239,-239,-353,58,-107,-266,294,-38,11,166,341,185,160,-118,38,-3,240,80,149,275,-75,-67,279,320
-164,331,219,304,-287,-18,107,312,287,-1,-86,238,108,-95,146,-79,133,270,-242,-196,76,-17,5,-197,-123,345,278,-16,62,-198,-63,318,-89,-47,1,-323,-17,144,-256,-2,-31,-326,-334,-188,257,352,-73,287,-323,-362,51,-25,-305,-200,-109,85,-133,106,96,-44,-335,-83,339,168,-71,197,53,266,42,108,-66,-269,-288,360,-217,-293,-119,-340,174,255,-290,-311,167,147,301,-207,-208,-202,-329,-229,-54,17,-234,172,86,49,-341,272,90,121,29,-280,-49,296,-214,109,344,206,288,-184,287,-27,167,334,226,280,-283,-345,263,224,-144,349,126,-179,339,157,172,-269
-120,-46,153,-158,182,329,201,-161,-88,-257,328,-254,211,-138,-198,300,172,161,193,-172,-83,-19,40,-182,-263,138,-173,341,209,112,208,279,196,263,-283,-95,-192,-325,-265,-274,-29,-65,58,-85,-348,279,162,-291,-45,54,1,-231,136,357,-3,72,-73,-353,148,-156,190,95,106,-239,-327,235,-364,-207,228,19,195,-223,91,267,-172,156,-302,-12,238,105,-333,272,38,-152,11,-83,343,239,3,-220,-150,-189,-139,-153,289,-294,-144,166,187,-127,-344,325,-75,200,-336,342,-259,136,12,175,86,-117,-30,282,-113,-59,-191,-103,-9,317,-60,-165,-190,79,-76,56,90,241
363,275,-60,283,-219,44,17,-1,-36,-317,-104,12,-272,115,59,-323,-261,-189,-169,-88,345,-221,-370,-10,-32,248,-268,-347,218,353,-292,-81,-186,-222,-186,-354,-40,-28,231,-271,83,326,-160,-15,-300,209,-161,-157,103,-231,-170,12,-193,283,-282,-101,136,88,184,-62,194,154,306,-51,-163,197,3,-197,-111,-153,-14,57,-21,-170,-234,344,-361,268,142,-113,142,55,-143,-354,-280,-160,-335,271,-82,-205,51,-291,170,358,-286,-351,-258,-223,-89,-113,-323,-105,187,-220,-225,-363,85,-171,333,-232,-173,122,-81,-357,-26,-128,64,-108,71,-342,-16,-88,278,212,-336,-53,-237,318
239,-228,201,-141,-327,-232,360,-40,134,-216,267,-269,116,-267,326,230,233,246,224,296,39,-212,-120,-275,256,-169,-296,50,272,-297,242,258,110,-14,-175,92,73,-205,-297,3,70,224,163,184,293,-60,-114,79,-287,-14,-364,35,8,-340,-70,-315,273,320,-85,-4,-310,234,41,-70,356,307,20,187,-202,-2,-260,333,-88,-160,8,-21,-260,162,79,268,-185,-54,-38,224,-231,303,-221,355,337,342,-294,-156,-367,-92,9,140,-143,-9,-17,-236,171,-52,228,59,-184,-107,67,314,136,213,-316,-205,216,321,106,139,-350,61,-317,249,270,-179,200,-44,290,345,-295,23
-242,247,-86,229,86,217,-5,229,239,177,-341,181,119,-262,-45,-53,163,308,-170,-107,197,189,-54,15,-316,-164,53,186,-27,-143,106,48,82,309,-99,-8,-344,41,-186,-88,243,174,323,149,-116,-312,45,-116,115,-36,-145,-57,204,48,0,-294,-33,149,-124,-242,284,139,-159,272,95,-85,-251,-36,-209,-300,91,222,-32,237,-94,166,308,224,-303,210,42,-330,-96,23,-10,-275,-70,323,231,-208,357,-314,325,-279,278,-283,-110,-122,189,-62,129,-11,-271,-31,220,-265,-185,185,241,-4,56,-16,-262,308,-250,278,-53,-124,196,-55,-35,-211,346,-188,-299,18,-264,-280
-254,92,-108,-148,-171,-319,-10,342,-287,169,232,122,356,129,-10,219,199,-141,126,131,-232,130,-126,253,67,169,-63,-4,295,177,153,268,-323,-223,344,51,110,-150,-95,-294,-11,47,-40,-125,-274,-36,-118,323,217,-122,278,12,128,-344,202,79,-93,-7,280,99,116,165,90,232,-177,231,172,-16,-162,215,-75,116,227,-320,80,-66,-81,45,-166,187,-123,-229,-194,-144,-140,37,-124,23,363,44,124,89,324,-326,213,279,-318,-338,14,-73,155,227,-55,255,67,212,321,-340,149,-174,291,-281,-319,-111,327,113,-328,350,-246,-249,162,92,-152,146,335,-341,-329,65
270,-253,-362,-208,208,77,-223,147,-74,-211,-255,140,-214,-174,-211,351,36,-124,-40,-256,49,-214,325,-15,-190,-7,-185,-335,131,-307,-333,22,-71,246,66,-150,187,17,-74,-162,-78,286,142,111,-71,-348,236,-32,-170,295,-283,144,-111,-363,15,-112,-210,-161,-196,126,-197,176,-303,218,-40,281,-109,168,247,-258,188,209,-4,-107,293,30,-113,-40,-74,327,-278,-125,-21,-337,-118,-277,-13,-241,289,-336,282,335,343,229,-349,342,-18,-86,165,256,-103,178,-201,349,285,106,-172,27,230,-5,344,-87,33,-326,-168,57,274,-370,-90,297,-25,-241,253,-198,-76,-234,-97,-81
-248,-158,273,-260,5,-217,264,240,261,-101,3,-100,237,0,-19,195,-246,-307,254,293,-352,292,166,294,-255,229,165,-345,72,59,36,61,211,-105,-291,249,-166,230,126,339,-35,187,-328,29,143,-281,-319,357,26,280,-3,179,-75,-77,105,241,-306,39,247,-204,-18,-45,29,184,265,213,232,-256,-144,271,199,-329,-222,205,-112,211,243,58,-7,-327,121,-283,-26,-157,-221,-80,-94,-101,-239,-131,14,274,-287,-163,-192,49,-233,-89,217,-262,7,-96,152,-135,243,263,287,-271,97,-2,190,161,-178,-367,-343,264,-355,-288,-291,-276,116,-91,-169,-300,139,-16,-147,191
13,285,102,-26,53,280,-312,204,329,-149,118,122,206,-251,335,-360,-32,-7,301,-226,66,86,295,-285,168,262,-236,-16,310,185,308,-107,-368,-185,340,-307,293,-14,-287,-181,-64,-124,116,259,-312,-137,-160,-270,-335,-328,-318,-59,278,145,-202,30,261,96,-312,-108,188,-62,250,130,166,186,-308,-31,316,-24,115,-271,-51,67,-308,-163,-177,323,288,-277,17,333,117,-308,33,91,-61,325,-234,-47,-35,263,-89,-264,-206,-98,-360,289,336,326,-27,-312,-113,-373,-88,117,171,-121,-110,-266,64,160,177,89,294,138,136,83,-140,289,91,-360,108,108,-136,-341,-260,56
