{{14,200,213,190,101,107,170,96,-28,-214,194,218,-129,159,-141,229,43,-153,149,-101,-162,-290,22,-8,-97,268,-64,258,147,189,-301,93,30,-101,-237,-24,-56,-253,124,-80,-97,147,-270,-18,-298,-117,182,-232,77,-139,-254,10,99,-241,-46,-251,274,-228,55,86,13,-103,68,-4,219,-74,-21,-103,-174,122,37,-258,198,-87,36,163,-180,199,-182,-16,-89,-279,-140,85,-45,58,-246,41,-206,98,219,-36,197,272,240,184,190,-117,236,-238,237,256,-221,271,-60,205,-71,-183,-38,-82,183,-9,269,197,-216,-94,-26,232,40,228,-294,-13,164,-266,105,127,173,107,75,27,102,272,61,247,216,-270,-168,-296,-24,199,263,-79,208,4,275,-187,258,201,24,-79,-146,244,-66,-95,-237,125,71,-182,248,268,-40,-228,-257,88,176,82,-108,169,-172,255,-119,-288,-28,-206,-277,182,-258,-221,-245,253,264,98,-245,69,90,-218,176,125,246,-84,-21,-6},
{274,-303,54,-99,-274,257,-86,34,213,-252,47,-212,261,252,-136,166,138,21,-95,218,-226,-240,-267,214,-35,-55,-230,-160,78,-264,-297,128,-9,-78,-80,154,-8,-86,-58,200,261,-252,182,223,149,184,118,-255,-222,-288,-256,209,-16,-68,-174,-190,-211,206,232,-239,120,-284,-177,-185,-20,-96,-115,235,-82,190,-55,55,183,244,-306,133,12,-288,105,-166,-306,148,-9,-156,-221,123,-181,76,-242,24,-18,-234,240,180,142,-201,84,-223,-20,-65,-312,248,-26,215,-12,36,-290,-292,-227,-4,-236,56,215,15,-193,-242,-279,136,6,-141,141,-246,87,63,-128,-30,139,216,-228,0,206,-88,293,-268,222,-303,250,-138,44,-48,-147,83,172,120,-22,88,42,-61,-160,-13,36,17,0,139,-179,47,-20,-274,267,203,-232,-36,251,200,15,-275,97,76,-80,-270,146,-149,-261,242,199,-126,-203,-87,231,-283,-261,63,-197,49,278,-168,-223,-93,-316,66,250,232},
{29,-140,-210,-220,256,-97,-237,-21,3,96,-229,241,278,241,-111,202,44,89,95,-96,94,-161,58,-19,-106,111,-38,-126,156,278,240,154,-221,-8,-300,-267,170,120,-107,-155,23,130,96,187,-220,-101,184,235,-223,-77,106,-90,197,-157,-214,-106,131,154,-69,-17,120,234,82,-124,4,31,-118,65,-20,-45,-272,247,-241,114,261,174,-7,230,-262,133,-94,-294,243,41,-206,139,172,-75,-61,211,-50,27,-38,-267,-128,174,108,67,-151,10,-51,264,250,-180,184,20,248,-78,-204,281,261,-94,265,-147,3,264,-27,-128,10,-89,-72,116,278,179,77,17,-2,233,-94,-141,-269,85,254,220,-108,-253,-282,43,222,36,-242,-206,165,223,-48,270,-21,13,243,258,-282,-214,-280,102,-161,-141,183,169,40,-184,-282,21,-107,176,249,-287,-119,26,-178,-129,-253,-231,-173,-116,-88,-215,30,-250,249,-158,254,-31,205,242,164,71,274,-196,235,186,4,74},
{210,-13,116,166,-152,-185,-146,-265,-19,83,-49,-238,172,-1,84,136,233,193,-105,93,180,111,176,164,130,-265,55,141,-190,242,-118,-21,238,-192,48,180,75,-121,-114,-277,-60,89,-55,130,213,-167,-144,-32,-155,-123,3,108,205,-288,125,174,214,-214,112,-120,156,-72,35,-69,-52,255,192,135,24,-197,78,-220,51,1,-139,291,-195,113,-124,-34,159,-232,-172,-157,-260,134,-307,-233,34,-36,212,-91,215,-261,-84,-280,24,86,-184,-107,-180,-35,234,-303,-7,109,52,147,124,227,-4,75,-41,-107,95,-264,-255,166,-107,192,-74,-239,-7,218,262,-55,203,-56,-107,118,-116,255,-199,-31,-41,-295,-244,-59,38,277,233,-3,16,237,140,-119,21,-11,9,-63,157,-45,52,197,139,82,266,-283,58,72,45,55,14,-200,-222,108,127,-71,116,-203,-238,2,226,-211,-252,174,267,-225,128,239,-74,106,36,-37,116,49,143,3,37,37,-165,-217},
{-122,47,-257,98,110,-11,216,-162,-75,-77,-60,279,125,226,-20,199,17,-260,-219,293,62,66,8,-64,26,121,-228,145,257,106,192,18,289,196,-126,-96,-95,-222,-251,193,-136,181,-147,-118,108,-170,142,228,-47,-93,-257,136,-212,-223,-238,254,31,271,-92,-56,15,-155,107,-177,-106,-146,295,-68,232,268,139,37,90,106,-31,-296,-203,-42,-79,-239,230,-118,-11,-39,16,-179,27,-128,178,-118,258,28,-103,252,27,303,-22,-157,208,-7,80,-193,50,-172,116,51,-106,-54,-136,196,-225,247,148,-153,-111,-39,-135,200,248,-85,96,64,-184,-67,-221,-217,140,147,-237,233,144,-182,-86,165,-261,-91,118,130,-210,222,-29,314,-236,-35,269,112,149,42,-153,146,223,-165,-245,254,-137,-140,-276,-299,98,-182,-190,-68,220,-253,-187,25,-223,244,-44,285,-237,-80,185,227,-206,77,228,-65,76,-198,172,-142,81,-41,24,81,-257,-264,-23,-203,-130,249},
{-135,87,-151,186,201,-182,-67,-59,-196,-48,40,12,78,-71,-94,280,-20,-21,135,-187,-280,-190,-93,-251,-288,229,-226,45,-201,84,131,171,-231,186,114,53,215,-129,-296,184,49,-204,253,220,-98,-126,-52,-138,-32,94,70,274,-278,274,284,-68,-212,109,-137,-21,-58,176,115,-42,-248,49,80,68,-6,103,-32,-171,-4,11,176,-33,267,-292,10,-97,-117,211,-48,-24,150,178,-243,70,-212,247,-114,-295,70,93,-283,99,89,227,-186,40,122,-285,-188,-45,32,-212,-170,-193,136,-110,-56,-94,182,-169,112,-85,-200,-121,-304,-172,-59,-96,-243,239,115,153,170,-171,-1,133,204,196,-50,-82,260,-303,268,90,274,123,-239,110,-252,-56,74,109,46,8,-247,233,-112,-27,32,-195,118,152,143,-170,-48,-5,-207,12,-80,-50,272,-9,-278,94,164,-106,-126,69,-23,130,-198,214,277,-244,-66,-261,-287,214,-275,-248,-79,225,220,168,47,30,-28,-282},
{135,-60,250,-149,-133,302,-116,-1,61,52,-196,-217,205,183,261,191,-137,5,-284,-114,210,-123,192,280,175,-28,-195,-229,176,-224,-213,55,62,235,-237,-112,-193,-242,219,94,44,-68,5,-269,-125,-176,256,264,-82,145,-32,224,-239,-177,125,-79,-222,201,-101,-260,-51,192,79,119,-309,40,246,-224,-224,-182,10,-196,51,290,205,-271,-206,-121,-275,-72,307,-30,191,-200,269,225,-25,-256,-128,179,-238,85,202,50,-20,-64,-214,-141,-160,316,-140,-120,-214,-16,-103,226,185,93,215,-154,304,-226,265,-110,-127,168,-252,6,-147,-13,-24,69,114,-145,-256,45,-188,-58,30,-44,-88,-76,-175,303,-212,-33,248,-52,320,-179,-149,224,-92,-235,-174,-192,103,166,159,104,59,-174,211,164,-56,218,102,-39,-137,97,-261,145,79,228,102,81,-52,160,21,-42,-2,-164,116,-255,-263,-41,5,-258,-118,111,-267,280,-97,26,87,-218,74,245,5,-252,-178,189},
{52,-63,-6,2,65,223,-80,-237,239,-36,-20,-32,247,33,67,263,-23,200,-127,195,-272,205,13,-37,-184,-157,-42,-253,-46,-10,-33,-95,138,20,-51,164,139,-12,200,-9,170,-217,-30,235,-179,-258,156,-155,-34,17,229,-50,237,-149,-107,-146,105,35,-217,99,218,-221,163,3,126,-134,92,-257,-133,-120,49,-196,-72,-181,-230,-64,127,-56,148,178,-81,-156,-216,-213,-213,-40,-172,-182,87,-225,57,-59,-36,-130,166,-286,282,125,97,233,5,178,-159,-24,-34,-117,-148,-7,121,78,-2,209,-174,43,-190,130,-160,-147,20,176,-62,42,143,-186,268,-56,14,268,-250,-198,-98,-160,219,-170,-62,108,-211,163,38,50,30,258,179,-280,-81,87,-169,-2,-196,171,57,-258,-165,108,-146,-99,-283,-182,-138,-297,217,101,170,-152,291,129,170,-67,-177,-293,176,-184,-48,301,98,-16,-152,-26,-72,-224,320,207,30,-144,-208,204,123,-173,-279,174,-72,163},
{-256,27,-266,-202,-70,-289,-123,71,108,-54,196,130,265,183,-151,140,-123,-230,-92,66,-227,290,-182,-130,162,156,198,86,-202,-182,123,24,-239,-165,-148,226,44,-152,-212,174,252,128,215,8,-46,94,-10,229,-19,46,298,-110,-18,302,203,194,-101,-179,260,185,-220,290,-273,258,128,-197,213,127,-185,-53,229,107,59,-157,-76,125,-175,218,-243,264,248,-105,-127,-117,60,-67,-42,216,-46,-32,20,269,-26,-267,-281,-30,122,215,-21,-297,-178,-143,-194,-39,175,123,307,57,78,128,-37,131,-2,-137,18,183,-141,-184,208,72,125,172,-235,217,-241,235,-177,-251,-259,15,-131,-40,-172,156,6,-100,167,-63,-274,262,73,206,218,29,-130,108,286,253,62,68,275,-102,262,-76,88,-154,-169,80,-180,-192,-197,251,8,-193,-267,-186,-136,-99,-53,19,-153,216,-63,-88,209,84,-117,-181,-198,-122,200,-116,-216,197,292,-283,124,-3,78,74,-213,-6},
{151,-95,151,-97,-29,-237,-215,-39,190,71,156,-77,144,264,-113,-135,-149,-120,249,51,-76,-258,-48,255,-43,27,230,-237,-65,-282,76,-195,187,109,274,-172,-244,174,-185,213,225,148,226,-209,95,-47,-151,-55,-199,136,-111,-300,-185,106,-251,-127,26,-159,239,-49,91,124,77,-233,-83,180,-28,-85,-299,102,123,122,75,-287,125,66,15,93,-15,31,265,23,118,-139,92,-210,14,-104,216,-204,11,-161,258,-95,-123,71,-154,-103,-42,67,-288,196,-130,7,205,-242,-147,54,-91,-199,139,56,16,-259,-177,216,-172,46,84,-89,-112,146,-117,-77,108,254,123,-39,183,11,175,268,-285,49,158,40,-130,259,117,-283,75,45,118,-236,-260,207,-129,133,11,91,-25,4,-74,73,-36,249,228,-145,-21,103,25,-135,150,65,-94,-23,211,116,160,-41,-212,93,-13,8,250,-128,-40,-238,13,246,20,126,174,-19,-257,136,118,-203,-293,-58,-6,-163},
{-158,-104,-171,-217,-162,-92,-268,182,-239,-95,125,-37,-5,-233,55,82,-36,303,-184,33,-159,29,156,-140,192,-9,-96,-211,-5,55,-276,-223,248,176,-285,-274,-224,-166,25,155,-26,57,98,166,-190,-131,-47,293,97,-176,219,-293,-187,-265,50,68,208,12,129,119,-168,-215,-227,-194,150,177,-39,-166,25,1,-35,263,-138,40,78,129,167,125,-259,-192,-210,181,214,39,-12,176,-64,187,-30,46,113,-129,85,130,235,-225,-1,188,-15,202,162,-176,9,-284,154,-98,92,-131,-273,0,168,-17,-159,113,86,-182,-143,170,-242,-24,-48,12,-109,-55,-160,236,-146,-116,291,64,0,42,241,-44,-75,67,-207,166,-88,-201,4,151,-122,-22,215,-133,-68,-111,294,305,214,-130,92,221,-168,183,100,52,253,-263,118,264,77,19,94,50,85,-117,-269,267,-83,162,-170,-174,-264,259,-43,84,-157,-72,230,-140,-274,156,70,67,-248,265,-276,74,67,155},
{77,-182,42,6,49,-152,211,-19,-22,-161,-154,53,154,171,1,-269,-82,-197,-80,203,171,-12,-274,12,-173,-48,-166,75,-153,279,264,-30,151,25,-60,-128,-23,-16,-22,-52,-150,-65,-191,198,186,-5,93,-183,-219,117,-59,-42,18,262,1,106,-247,178,285,-81,250,-174,-62,105,255,-214,249,120,54,49,-47,-200,152,250,142,-83,-172,-167,264,-200,46,167,-84,-199,172,-231,-190,103,130,63,61,225,11,308,186,-206,-257,24,110,15,-76,153,-209,51,-32,-172,-8,-19,76,-105,74,134,279,139,68,-276,39,-36,-153,231,231,245,293,-86,132,-85,-100,-214,205,-124,-117,-107,-264,-296,-208,164,100,-319,-106,156,274,-207,-108,259,-45,-81,47,32,99,-223,65,24,215,-241,-259,40,48,-287,64,-229,44,-226,230,254,261,-63,197,209,37,103,-228,200,-254,265,-10,-239,-159,134,104,241,56,269,-148,-71,35,65,244,-148,-111,51,148,-238},
{5,226,-96,-83,101,209,-234,277,-26,102,-175,211,259,-263,-42,-191,21,-84,225,232,171,-12,-119,-260,-85,-314,-198,-144,-260,29,160,-89,-261,-230,-262,68,200,287,-219,143,-240,28,-121,-148,-203,-53,213,-42,-267,231,-124,-14,-128,-117,-141,267,-242,41,-154,-152,298,-286,-33,-93,-117,203,172,26,-244,-122,-169,-230,95,-258,-179,-236,65,226,-248,212,-4,-253,259,-237,-84,-86,-19,-116,207,-46,-129,65,-247,106,185,-295,171,144,223,135,-18,186,230,31,149,87,162,235,-61,251,161,-155,-32,-223,26,0,-241,-262,242,157,152,-62,-96,236,117,48,-259,-134,56,-281,-161,28,126,290,-157,162,-270,142,64,-37,-45,-177,-269,221,-204,122,-133,159,-180,-9,-218,243,215,34,42,119,184,-83,-168,-156,191,-130,285,177,-173,-200,-187,-112,-71,-158,140,-43,-146,79,87,114,190,-174,185,174,-38,-246,-37,-125,227,-63,-26,269,142,72,259,289},
{294,203,39,-182,71,19,243,-111,-280,-48,-36,16,160,-104,70,309,252,36,173,93,140,-233,261,32,270,293,181,-127,296,-198,273,138,128,-16,248,102,31,-280,110,-22,257,-51,251,123,226,-93,188,-57,-208,-31,-59,225,138,-36,271,168,-218,-165,97,22,-238,-51,-191,50,244,121,232,98,172,-23,33,-13,-240,79,-83,263,241,-139,223,281,125,216,-56,5,217,-22,-211,284,-35,-187,-221,-28,-227,-139,218,-92,-72,-2,137,-61,185,244,-60,-87,-80,12,-59,118,201,31,-168,227,-85,51,-28,239,-97,229,152,-117,-164,222,-207,95,-257,90,-209,-126,-124,162,-182,224,-45,-173,131,155,-122,-7,229,266,-25,128,126,181,-290,200,241,-263,-230,-55,-97,-206,-242,274,-179,261,124,49,247,-214,197,-163,-127,284,230,237,255,-209,89,-23,-103,59,209,-12,-233,-113,140,-181,47,-125,-181,27,269,28,-219,-292,-88,67,-62,214,157,-52},
{178,-273,-93,180,186,246,69,160,193,29,-97,-70,-142,127,-142,204,-231,-148,91,-62,198,-292,38,-273,-234,-55,-197,-226,-53,101,-241,-109,-33,42,254,307,-75,279,42,248,-122,-150,-177,-264,-156,-163,213,-44,194,-230,191,30,259,112,-46,-203,26,160,139,6,193,89,-199,-124,-116,-5,-231,142,15,-111,-158,-177,-196,-38,265,282,-283,-154,229,194,203,276,-207,-133,277,-216,-168,65,-100,80,69,-247,50,63,78,42,220,189,-162,-266,-258,-164,161,-200,-94,-162,42,-63,-1,-185,-111,-186,197,106,-108,126,54,156,117,-177,-125,-37,0,69,12,-171,-10,-10,82,289,-216,-75,267,-169,-112,-231,90,-26,-265,29,197,-19,244,209,-277,83,308,-14,52,246,-172,-48,-71,-9,278,-109,-131,-141,-101,-236,229,198,122,194,145,181,55,-52,285,-53,-160,-8,258,-175,174,-207,13,10,198,-232,-237,96,301,-158,-62,45,95,144,-277,12,64,-144},
{216,130,152,283,-224,210,-28,-67,-48,0,205,230,43,142,166,134,-213,184,-1,87,277,-215,-231,-300,2,-190,-189,-111,-72,44,-298,267,-252,-46,-36,-246,-250,-237,108,-112,277,15,-115,-86,52,-230,-29,228,-277,287,16,-103,57,-75,-241,-127,218,-174,171,47,129,57,84,-37,-278,-116,83,265,-88,113,121,285,176,-203,-159,-123,-199,-165,-23,16,121,146,-42,-167,-212,71,253,107,-270,-269,-59,204,248,-74,-210,-94,216,-278,65,48,106,-154,203,253,280,-284,223,38,-72,208,45,-142,-220,-110,-50,296,208,-275,-194,47,176,-133,29,223,-258,246,25,188,169,-87,-127,20,149,-232,-223,164,10,-178,211,-141,-122,5,86,55,-288,273,-150,-264,-34,221,-144,25,248,-226,-64,140,-165,-82,-134,-20,-225,-9,94,-255,16,-201,79,-107,299,-152,102,-48,-25,-198,94,302,-272,-145,45,-140,-159,183,-195,-202,197,109,106,-203,264,231,-265,67},
{-60,-194,305,93,270,-231,-184,-39,-231,-226,280,127,301,-206,-32,162,-193,-224,74,233,144,-179,78,107,-106,-236,-185,47,199,77,244,212,154,82,154,-158,-136,-176,231,189,-67,-13,31,-37,34,-268,-286,-243,285,-112,216,-142,-215,-51,-21,-174,-83,181,62,274,65,-102,3,147,-100,226,-159,-5,0,33,-293,-182,-199,179,249,234,-119,240,12,61,-256,181,-290,-15,230,116,-77,-52,201,-277,95,102,-116,-38,120,-231,-104,-179,94,288,26,68,-77,219,300,146,242,262,-144,-1,198,271,99,-125,-270,270,-221,-264,313,155,-124,118,-147,164,-10,-107,98,228,209,295,-59,-147,-95,89,-231,-6,66,-131,-85,230,201,229,-20,201,232,-318,271,161,-122,-33,271,159,108,80,30,-22,-173,-10,-28,112,200,44,-130,178,119,123,-133,-63,99,-179,-89,27,-73,-153,254,-228,303,168,270,235,-216,-15,-7,59,-64,-48,-214,5,180,181,-98,-167},
{180,-194,-114,-178,112,-73,66,-183,-276,6,-35,177,96,-151,39,-240,33,110,279,92,-151,84,-156,-205,-133,-186,-241,-52,-222,-44,-30,-74,-105,-121,298,27,155,23,78,232,64,133,89,-135,22,-124,109,117,237,-152,31,-253,-139,-61,-281,49,-156,55,186,130,-272,146,-148,-108,132,-62,103,8,63,165,140,-96,37,-109,55,-11,-257,-277,-169,126,98,140,-266,82,11,-66,140,-253,71,171,214,45,89,250,281,-7,-14,-126,254,-108,-118,32,-146,168,-214,298,117,45,223,160,-51,111,-70,-68,-70,-194,52,147,-222,-229,4,148,115,275,126,41,-130,-226,246,55,109,-188,210,-181,-196,-256,205,229,238,-216,-2,160,-149,-194,72,271,-148,-200,15,113,122,-62,50,60,-57,-287,-17,-78,110,234,204,125,236,16,-63,-97,-46,-256,162,83,-116,-45,-41,54,260,271,-156,241,168,-98,226,132,114,-76,-66,-50,113,-5,-169,-188,290,131},
{157,-31,-4,190,-296,-269,-71,-156,-110,-100,-274,194,145,-298,244,-24,-7,213,-103,218,226,227,-184,203,-218,-122,-54,-152,76,6,130,-24,260,-42,63,-35,-214,39,114,186,281,114,-191,205,-292,-165,112,-301,-230,-273,21,-293,9,193,-164,186,147,132,-108,-105,-186,117,-253,-259,-54,101,-252,-88,155,-3,230,-236,172,275,122,-249,-249,259,-214,-90,-3,88,200,-148,192,-176,58,191,-291,175,-250,-209,278,-113,-133,-235,-128,-176,10,-28,-43,37,-243,-21,-49,55,-43,-122,-111,118,271,141,-115,-69,-45,73,-133,52,278,-31,45,-277,188,-157,-18,-52,-208,-65,-164,16,117,-92,95,-90,135,169,86,146,-206,-100,18,270,-127,99,-140,-18,-101,-229,225,132,225,17,-231,265,-272,-257,46,-8,-277,62,-282,-134,-120,-249,-59,84,103,205,61,-101,-106,-66,135,108,-236,-125,-234,57,257,-3,-57,-51,153,-14,139,90,249,-108,130,-93,-305,194},
{-162,-49,104,-170,-60,13,242,-182,-107,241,83,165,54,48,181,200,263,3,181,281,243,287,-23,-56,41,-121,257,-267,59,-271,143,-242,-191,-172,239,-23,23,167,-143,-95,-91,248,-212,-162,3,-195,-170,278,-122,265,-254,243,181,285,-107,-99,1,-33,-56,-192,29,85,27,134,300,-127,-186,234,-122,252,-107,-280,-176,-140,-118,-57,-254,69,208,-28,-190,-158,-67,141,197,-131,267,3,106,257,-169,299,-216,195,-143,51,-169,-255,145,-266,125,207,-177,-68,137,48,138,192,-83,107,109,-72,-6,60,-2,-200,9,177,-25,281,-246,-68,-90,64,-87,-190,4,166,31,94,-115,-231,243,253,-203,88,-175,-42,16,85,-157,298,43,202,-54,-30,-87,-45,-96,-57,253,-36,-5,102,-84,-135,-132,-184,234,-146,109,-160,-88,-126,58,63,74,-9,-196,-180,-32,49,264,211,-37,-182,-60,-1,-49,108,-61,247,-268,-59,-213,-59,302,-152,-280,191,193,280},
{-190,-260,-199,-216,91,-71,38,-70,-78,180,13,-144,-186,-231,-13,-122,-100,-246,-92,83,-222,-187,-145,-129,172,-269,144,-222,277,-200,-98,-197,122,119,40,-131,42,-302,-157,-137,263,-260,-82,35,-64,-113,-180,-221,-273,-13,30,252,209,205,56,-16,118,-95,-268,-95,-149,264,-202,77,130,47,-250,-183,9,-41,12,28,-50,-142,229,-151,156,-274,-121,-223,-153,128,-166,219,-16,250,129,285,-55,-196,251,63,262,47,235,-57,-155,283,312,-144,-114,157,14,-122,284,-44,-226,229,29,-252,-193,64,241,-109,2,72,97,-155,4,-23,-223,29,-31,298,-194,306,-146,-132,156,-144,-119,133,21,-262,-80,240,-265,-42,108,225,170,201,-42,105,-30,172,-229,-167,-272,-28,-219,209,-45,-204,58,136,86,-125,150,296,-160,213,221,282,246,-125,-238,86,199,294,65,101,-204,288,60,4,-233,251,-24,-150,-94,7,123,-168,45,-255,-189,-146,149,183,-66,-65},
{-106,-263,88,37,38,140,-73,-138,-219,-19,-122,259,-271,-216,236,-228,-104,137,-75,-115,-197,72,-295,-84,157,-245,17,-19,88,104,-134,100,-226,146,176,-51,-118,-277,236,-283,-100,259,-265,127,-261,-275,-274,-289,100,-103,-50,-175,-32,88,5,146,-165,164,-233,177,-268,-120,27,-219,-47,-279,202,202,20,216,-147,-224,-9,-63,183,-2,-187,-128,303,-252,237,100,-81,13,-201,-102,-162,54,-64,206,-37,230,134,0,287,275,117,101,13,-123,200,-185,10,-39,201,-229,232,-123,152,140,-6,232,-108,0,162,-24,-223,-274,19,99,-210,29,212,246,145,112,-282,149,-217,-140,63,249,0,-148,193,47,-61,-143,229,51,166,-166,38,10,-195,102,133,-207,37,142,-204,175,54,206,-176,-233,227,256,-193,-82,-128,-188,114,-147,-264,-201,-169,119,-140,21,-220,-13,66,-78,-115,89,-61,182,-9,-83,152,-255,-95,-124,157,269,113,39,135,177,228,-68},
{138,199,173,-148,-91,62,-25,-29,172,300,-206,-169,242,253,269,-260,-127,262,16,-64,-52,246,38,-158,-224,8,-190,-28,179,109,-91,53,221,250,-26,223,82,-177,-96,69,162,118,-228,-260,-138,225,281,-123,-184,-47,-134,-19,188,258,70,39,41,144,-133,-283,247,-126,-134,-120,92,84,-96,136,-183,-124,-295,-48,228,-247,122,-29,-158,-141,240,227,-7,-42,202,-129,51,174,-136,-138,-151,-252,282,-141,-81,-88,82,117,-274,286,142,207,53,200,-159,-227,80,-266,-186,103,274,-204,-23,100,-25,171,227,-159,-188,203,-52,-183,167,137,174,-104,-163,225,-65,-170,270,232,75,-175,-143,-60,44,-254,-123,-16,50,-77,195,-11,-188,181,-2,-119,269,103,-207,275,192,87,-227,75,-25,-117,2,30,139,101,198,-68,-193,-62,232,-84,206,187,7,-27,250,-273,255,-148,-65,-238,213,-43,-172,-236,268,-228,294,143,224,23,-80,-267,-221,-50,-51,-92},
{60,-163,174,143,37,-4,10,123,198,-173,-276,125,3,15,-117,86,247,224,208,241,-158,-246,-304,-181,101,-316,-200,124,-282,-15,115,49,-243,-271,-205,-271,-262,-287,-196,-208,-16,-49,235,76,-139,-108,-219,-280,-185,21,-286,-95,301,-137,139,-160,-203,-107,149,-104,0,220,208,-22,230,80,-139,238,134,-165,-44,-103,-87,153,93,-284,-117,246,43,-119,-217,163,-251,47,-176,207,-244,-128,45,-143,-116,55,213,-141,131,206,-153,163,-274,90,182,167,155,-245,-39,-19,-187,174,42,-201,99,-242,179,-193,27,-195,-210,130,221,-125,-104,-244,204,220,-170,-314,29,232,45,-214,-117,-168,115,162,71,28,-63,-187,-70,64,240,38,-11,68,-144,73,-308,18,256,94,-310,-145,205,241,-57,148,242,235,-106,-154,-140,-259,-216,-283,-13,175,-42,55,144,-169,-153,-69,267,-211,270,151,95,-205,87,-115,-204,172,159,-288,28,-207,-29,-221,-97,64,-213,110},
{122,240,-1,-155,128,270,195,149,-189,108,73,1,240,-24,116,278,42,-211,58,-272,242,-129,-109,-111,-221,17,-136,-86,-116,7,-70,-232,-250,293,-88,-112,139,-36,-55,165,203,-19,-289,220,1,140,-71,239,187,-91,166,19,-26,-123,52,-279,221,-277,251,-190,-22,17,-296,-241,-157,-253,186,184,-198,244,-240,244,-141,-232,32,189,229,0,65,-196,-200,119,-203,230,238,106,110,45,-87,-264,-69,-33,30,-49,-131,-97,289,289,71,169,-149,218,-80,208,-108,-188,-155,-124,-164,-268,-95,118,44,96,81,217,271,-280,66,-255,-271,89,22,216,-72,-6,-309,179,-279,-193,224,-255,41,-74,215,-253,2,-137,-249,-33,48,210,-110,-178,-303,88,-293,-35,107,280,-271,-17,218,253,104,-3,-241,-122,72,137,209,-100,-289,226,-272,-200,155,-60,-200,-139,252,-135,-263,-29,21,-207,-9,-153,-41,-204,92,-129,46,-294,-193,-78,50,279,-283,-188,164,185},
{130,63,73,-61,236,282,167,-39,292,257,-258,79,-79,-302,67,72,255,-246,-105,-229,240,23,-86,-257,-290,34,-277,80,218,46,306,-169,70,-41,151,-45,-211,-247,-67,158,-190,243,175,191,-129,-297,152,-13,198,70,-307,49,4,11,70,105,-136,-28,120,-298,-218,-295,-61,-232,-91,-182,267,-184,-68,107,-20,-255,-191,2,-117,188,240,-113,207,154,9,253,263,232,127,-289,14,-131,58,150,127,164,180,-218,-241,30,230,-242,55,1,298,-221,174,-197,-85,58,-27,-289,-256,-189,263,-21,64,127,-258,-215,-60,-41,84,4,-57,66,45,159,-252,173,141,1,-270,246,-240,-252,63,189,-233,-88,155,-88,-228,-284,-61,-200,290,-170,105,-128,-30,-246,-139,93,-220,258,-194,130,287,208,176,118,-233,280,-232,115,146,-141,110,43,-265,177,-276,-249,149,72,-217,62,-81,-282,232,5,223,203,175,83,13,-57,-70,-43,21,-300,23,-176,202,-220},
{-14,211,50,253,-182,-117,-49,-85,267,-190,118,-283,227,-189,183,-210,-20,43,257,-32,-108,-213,-24,-42,-263,-200,-172,-20,-215,-219,-86,170,-14,-57,121,-210,78,-205,-267,205,-126,-260,-116,159,281,-67,-261,108,-69,6,31,-294,-287,31,92,-197,70,-220,106,29,-25,-64,94,-134,112,0,-242,145,-22,-21,49,138,-237,-118,-255,137,-91,194,-69,-302,-30,-262,89,-130,268,-59,-258,66,-64,-53,169,-205,-43,-255,192,160,107,185,121,-126,-220,235,76,58,-154,69,-169,-279,-277,-271,53,223,153,-172,-95,-64,178,-221,-105,-249,149,-202,-87,-178,-147,94,117,-211,-112,-63,275,48,-179,-281,-300,119,37,-83,206,-214,-99,-60,255,-226,-307,244,-145,75,253,85,198,-210,-130,-274,87,24,173,-233,283,-233,-215,40,-96,-123,4,-265,-216,29,-129,-112,268,30,-286,-98,273,-272,-34,-132,92,-220,203,249,235,262,-237,199,14,93,244,33,165,-250},
{1,-150,76,-114,204,182,164,-43,215,-210,-139,-156,155,101,-56,88,-258,-195,-89,-278,76,-27,-161,280,-137,-140,83,138,280,219,-156,279,-58,6,153,-90,-199,197,3,-115,32,226,140,-173,34,248,91,239,280,-235,-81,119,255,-191,68,-26,-128,-157,164,218,279,-38,-296,-176,158,132,284,49,272,-164,-2,233,119,-194,167,-162,-124,-112,192,-82,205,-123,259,174,-76,262,280,-94,-242,248,138,204,-55,193,-22,-22,-51,-183,76,-50,-224,-73,-83,-56,299,48,220,14,11,126,107,-191,6,266,257,233,-277,256,-200,-11,-113,161,-200,-24,240,-202,41,280,-118,-39,-196,226,32,-266,-3,-242,-204,169,65,-175,-103,104,39,29,-17,0,-263,-74,-176,123,-271,-186,-86,-260,-158,246,153,-223,152,-245,240,242,19,106,-271,274,-100,-216,-23,-236,-178,-20,257,-203,83,69,233,104,191,68,-239,43,110,-228,-242,71,233,85,-98,-111,-173,206},
{-152,-268,242,41,-269,296,254,75,208,208,247,5,-247,291,-229,-4,-93,47,-168,-99,44,296,173,148,-268,27,-245,-252,-193,217,-63,-53,261,142,-178,121,-135,-149,-177,204,221,268,-76,-30,-208,-65,69,-186,-150,-68,236,-34,-225,-48,24,-41,123,238,-263,-166,-118,-129,-279,304,212,167,-245,308,20,160,45,-99,-242,-191,100,31,78,-105,24,295,72,77,48,179,-187,-95,-46,-22,-153,-91,130,-18,-217,168,181,166,56,293,-189,281,7,-271,-174,-68,-166,141,83,162,202,-28,3,-64,-5,-2,-200,298,-203,249,145,-260,262,-260,75,-239,-154,-288,-286,-240,-187,-159,0,-157,291,-134,178,12,-172,-110,173,-289,-236,-166,-188,-116,-236,-2,89,-85,-255,163,-36,-174,-95,-211,24,78,172,-39,87,183,291,148,212,-121,-69,57,-25,280,178,15,-26,-46,-277,-261,-25,-64,119,-270,-14,103,-188,197,269,20,254,-49,56,174,120,221,-126,-140},
{92,58,-149,-295,276,-168,-131,82,-233,-51,39,-133,266,184,167,4,254,-188,-22,116,20,-254,215,208,-89,-80,-247,-61,-193,-294,227,128,257,-35,246,-261,-129,90,-88,118,54,131,-30,-306,142,-225,273,-207,76,-141,142,98,128,177,-271,189,-268,-105,141,-6,244,280,243,150,-123,70,-280,51,-3,-299,68,-228,-213,111,142,-237,-157,-194,221,172,-223,-96,141,-188,156,-190,51,211,-79,15,-265,-141,124,274,-258,-163,-291,-13,119,136,267,199,-120,147,-138,171,-49,-92,236,-283,-12,62,-81,-103,-132,-232,-167,133,-157,139,-41,191,-253,163,-161,226,107,-46,-134,-282,-80,-179,-56,-250,-286,121,-290,-296,-78,247,184,-263,-12,-299,-21,226,93,84,58,282,169,-309,-279,-58,-32,-237,-267,-180,187,-55,-25,-84,-157,-75,234,155,32,-121,275,-210,51,184,182,7,-31,-117,-224,-83,-68,42,-160,-197,155,-100,201,-160,238,82,89,-157,238,-5},
{-87,36,-266,49,-268,258,120,156,66,239,-53,192,18,-221,-73,-252,231,109,256,-5,85,22,-151,-132,-6,71,-212,-91,39,242,-128,239,108,290,-156,137,-21,-46,23,112,277,-130,-14,187,37,81,232,-171,-236,-229,-170,-24,-6,-113,244,168,113,239,-144,-250,-257,-37,164,-48,291,185,65,-290,-276,231,-35,-75,201,102,-201,163,226,122,-78,56,252,-180,251,-189,277,-150,78,74,-232,273,-246,104,-168,-83,-216,272,187,-74,-146,-84,200,107,218,186,-72,177,194,73,-288,249,-139,77,-165,254,201,-163,40,-40,-287,106,-66,210,-50,274,263,37,-136,58,-91,-286,-212,-176,73,-212,-212,-174,-250,119,94,-234,-26,-97,-129,-264,-228,-71,-206,-246,6,-173,182,-192,73,-1,-263,-53,115,-38,-58,255,101,287,-124,-264,206,154,205,-155,-51,-225,73,96,163,-155,-51,301,295,-141,214,183,206,194,-227,-216,-257,-158,128,291,-71,116,201,-15},
{21,125,-80,127,164,0,50,284,-64,-3,62,98,79,-122,252,-239,-164,232,107,-70,-238,98,-182,176,275,62,-277,-94,108,107,-155,161,207,283,-42,-254,7,-31,151,-238,-54,143,156,-201,183,-238,237,174,22,-73,70,-154,289,126,113,-230,221,-285,129,-175,-214,-88,8,-165,199,-223,38,120,182,-203,-281,-245,-143,-122,-10,144,123,-141,256,-4,-5,-49,-190,242,-239,-47,-40,-271,189,35,-225,-95,174,-56,49,-56,-145,-95,-45,-166,131,78,204,-141,171,-114,114,-48,213,72,198,24,-120,-48,52,298,129,82,202,37,108,226,-236,-83,-1,115,93,47,-155,-198,206,-178,-112,-109,302,168,240,-201,278,261,188,183,-212,247,15,-237,-271,-201,185,24,237,-112,-124,281,238,-109,147,-92,-177,-177,-231,-68,142,-37,-51,272,186,-275,127,-51,156,-54,17,-56,48,93,86,168,134,41,-101,-73,257,232,251,220,-173,279,38,-231,106,0},
{-249,213,109,-73,60,-81,205,-26,-279,225,-159,74,-65,179,-145,-81,-287,-104,-150,-256,201,264,-103,-56,126,247,-49,-105,57,-201,-215,-12,84,119,-259,243,19,-196,164,267,220,255,-173,-187,268,67,-173,-133,115,-180,-71,-281,85,-173,184,242,183,-67,53,106,134,-56,-248,112,116,161,-274,-273,-25,-85,109,1,-251,197,-76,-167,179,124,174,-32,-54,-160,174,-85,148,293,109,-290,-276,-121,246,264,-239,27,-138,-165,170,-194,-275,-215,143,221,-158,15,293,181,-24,-227,-59,-203,76,-252,-219,-197,41,-37,-14,296,-261,-298,-262,220,16,35,126,68,182,-38,-74,59,171,-203,239,-197,-125,108,-287,6,-142,-67,184,-278,126,-276,-18,-244,227,-175,97,-286,-27,-279,-264,-11,-184,-131,-182,-164,215,-222,195,-304,161,236,52,149,154,-114,199,19,164,-96,-223,-207,279,273,0,166,7,-242,-32,50,71,37,-160,-92,-258,273,-170,-261,-16,222},
{251,-233,-206,-242,-60,228,-12,111,201,-237,207,192,46,69,131,-105,52,57,222,276,252,-197,-152,-53,79,173,124,-251,17,-256,101,-91,-289,236,102,173,136,291,249,-267,-56,-35,-173,-134,283,-154,227,-215,113,-305,111,-61,222,-290,157,252,292,115,-48,179,81,-218,-181,4,185,-68,168,24,239,43,-166,108,-131,59,116,-124,22,227,-188,-160,65,-168,-10,-69,-121,113,107,-289,123,-10,-220,-125,-50,90,19,44,270,-242,-208,26,288,-44,275,199,-210,272,151,241,-234,185,217,98,-163,-50,221,48,-295,243,38,137,129,213,96,-38,-166,188,88,6,-256,72,260,250,-220,206,95,-236,7,-267,267,-63,286,-280,-93,-100,25,71,274,213,-78,138,30,-14,56,-170,41,-257,-9,-19,25,-33,153,172,-162,-30,167,-49,178,-245,208,72,238,195,-30,122,-24,220,-183,-286,271,257,-47,-196,-215,-155,242,142,-222,88,151,24,208,221},
{176,102,20,57,-268,-283,209,-163,52,-38,-67,-202,34,-141,-253,115,256,-36,-174,-67,249,-189,36,86,-194,-109,267,293,-45,93,105,-87,-52,238,61,272,57,-85,248,-114,32,34,-152,-74,87,94,-195,29,15,202,-127,-126,-146,44,156,-130,0,-60,90,-14,199,35,6,175,125,20,60,118,-113,-74,-120,-283,78,-80,-220,21,-143,216,-36,-156,-94,-18,202,-279,210,98,-93,-166,146,-282,-40,147,-254,-129,-252,114,-11,-283,-198,280,256,-143,25,140,-97,-43,-249,152,-149,-69,-242,-234,72,17,-39,-71,244,-169,93,-275,-194,-282,-196,-237,-290,-108,-248,-3,190,-111,128,125,277,-5,-202,-145,-181,87,-15,34,164,-67,75,155,-132,177,155,-12,248,-129,9,-219,282,-129,-145,-150,-235,212,252,-267,127,4,-277,-221,-195,216,294,40,-62,188,-183,289,-24,53,-179,-211,112,-219,-45,88,-111,229,-242,78,254,270,92,-233,-142,74,245,191},
{131,-259,-162,-97,268,-224,-226,300,139,-147,133,236,126,211,161,185,-173,-302,-163,-104,244,-102,200,-190,10,178,-29,181,243,-178,74,126,128,173,-242,-37,153,-72,-12,-153,73,214,280,56,216,115,284,-244,-205,-53,-213,-281,244,62,-255,23,250,-172,-138,206,229,-266,11,-135,124,-82,-118,88,82,197,-67,-223,268,278,-220,188,43,-248,-19,-148,287,177,127,61,263,-82,222,-200,128,-235,162,-186,253,309,291,-46,111,166,188,-213,208,168,-213,145,130,-82,-208,-119,-41,108,22,-92,-23,-261,-243,-266,-40,-5,-35,183,-37,249,33,267,271,-119,-188,47,-267,-273,-96,-168,-97,116,122,1,107,-275,79,30,-52,-159,86,72,-270,-277,-159,30,-1,200,-273,185,-38,-39,-275,-44,262,67,-267,264,73,-249,-22,-51,-71,248,-242,-211,113,39,-37,54,279,-270,127,-115,-169,96,-186,204,215,216,192,212,-149,91,134,211,122,-32,173,180},
{-121,49,10,-202,6,46,106,263,-29,-257,-131,-254,144,-264,0,-53,-275,76,182,-210,-83,99,33,52,-151,183,232,-255,118,13,271,-136,200,-56,-188,298,-133,-291,118,-19,-130,10,214,-293,114,-55,-298,-65,133,-281,256,-143,-73,-195,193,93,-309,201,294,132,-159,217,-141,13,168,68,-53,24,-126,272,-158,202,145,294,-45,121,107,-200,-196,-273,-188,-119,-163,-206,195,48,19,11,163,-306,243,-277,108,91,-96,118,102,252,-242,-128,-214,43,34,-71,-28,135,-88,268,-258,6,-226,-180,-244,-15,-37,117,-6,-179,1,-248,49,60,-272,188,-46,214,211,-84,-302,238,-186,60,201,-97,-128,-269,107,-96,231,273,-143,-236,193,296,-238,-108,-49,83,-260,217,232,-131,-72,168,127,-27,114,282,33,-67,3,9,-271,-281,-147,-8,110,84,-291,39,215,-239,-24,148,-309,175,-85,172,-207,-94,-71,-276,144,172,139,219,142,-287,161,124,-257,-143},
{-140,124,-233,-191,120,-142,180,-96,-218,-145,-280,7,31,62,-47,-286,-246,87,-176,26,-13,9,162,229,129,39,168,-21,1,208,-123,220,68,6,230,-297,-14,199,156,70,-191,-92,161,-156,-287,-151,-139,-287,194,209,-21,-90,-199,-210,44,-186,86,-256,143,-257,45,11,-74,-35,-84,-35,-157,-300,227,-271,-259,-67,3,28,237,5,-164,186,239,202,-228,-211,284,3,-211,259,125,190,243,196,-227,-92,228,251,-251,243,-26,-115,42,293,-161,-292,253,-243,140,247,-227,276,86,-260,186,180,-115,167,-18,-190,115,201,195,-1,-236,33,-54,-9,-80,49,107,-126,265,150,-49,-59,-39,138,239,159,-135,-285,50,-49,261,-120,268,16,6,-77,226,260,-124,161,195,-223,-38,-4,-89,173,-12,72,278,130,-231,36,-279,-134,-166,-256,155,-258,164,-32,-235,260,86,-176,-174,-76,-91,-226,33,144,-60,-142,233,82,-61,-199,-219,192,-4,-205,-188,-47},
{-294,260,109,-74,-316,19,5,44,-110,-259,-127,13,-220,177,-207,-83,257,-111,-210,226,123,107,168,157,16,-274,-300,184,234,254,-115,-111,-150,-208,81,-15,40,-262,-40,-151,-147,192,296,90,-136,-230,-141,99,-256,146,107,-156,16,-166,46,215,235,-5,-257,203,48,-102,83,56,100,263,265,-196,-226,22,64,-73,11,35,72,169,-52,-287,-157,17,-262,269,25,-66,224,149,284,44,-218,-96,237,116,241,104,-120,202,122,-32,84,-132,107,-3,251,-197,-75,-102,-286,-169,250,6,-117,105,231,174,66,-198,10,108,-147,-3,119,122,47,-200,-150,8,-132,104,239,-190,-191,-256,124,111,-166,258,-104,307,218,124,68,-298,-39,268,133,-269,119,76,-294,-265,83,-90,89,120,251,225,39,246,278,-228,266,85,297,208,292,-66,-126,-143,221,274,-60,123,-190,-286,-44,-165,76,193,-126,-35,167,-190,251,-166,197,202,162,-7,-115,-115,-81,-226},
{28,34,279,45,-235,210,-6,256,-196,285,55,-186,-38,270,244,141,222,-151,-84,-244,-113,-174,-172,-90,-231,-201,-170,166,-144,-14,60,145,-234,-177,217,33,304,-190,-25,0,-264,-258,-171,224,-235,56,124,233,-99,-249,-15,-257,7,-239,-46,-221,96,241,-131,131,282,-197,130,-26,-136,-206,-273,162,26,-97,249,-61,-263,-208,189,139,202,214,93,280,-250,161,275,-80,8,-102,-115,-221,228,27,-301,-156,-62,165,-54,-166,-29,-38,-217,238,11,-78,-164,-53,-284,27,89,-206,-297,133,12,-143,273,122,97,198,133,-116,-241,149,-106,-183,-215,-88,-118,239,183,-171,-190,167,257,-114,-169,226,-207,-281,-195,-196,-85,234,-140,259,-207,-224,84,30,-217,52,-200,244,196,-94,-281,153,-131,-5,250,-274,225,101,-120,312,-81,-126,169,-275,-52,203,-84,-208,19,-247,124,-78,-55,85,127,141,-273,261,-236,280,-181,121,181,244,-158,59,-143,112,-261,-80},
{175,85,-154,0,-185,44,-113,-27,-211,-185,1,172,-25,-81,267,59,249,128,-49,-212,-262,-72,238,294,-33,-27,165,89,220,7,-255,-264,-281,-125,259,-49,11,164,250,-89,-173,263,-143,172,-180,-94,281,-47,150,261,104,-129,-21,260,-53,-126,180,257,-163,91,-121,-24,-80,-252,-145,-270,132,-262,-191,-86,276,-272,38,-225,110,-107,58,-27,-133,22,-61,270,270,-261,-221,16,88,290,-164,-105,-4,251,-252,157,244,-85,-99,-116,174,141,16,-287,-38,39,137,87,109,221,-218,-153,-119,-176,-106,281,105,178,47,-174,34,-201,140,-185,-108,91,193,263,57,127,19,-6,-148,167,-120,-95,16,-253,-11,58,1,112,-123,-57,20,223,-141,-203,-194,231,223,-127,-177,-146,150,-163,-104,43,126,-60,158,117,-10,-191,-184,-45,57,55,-21,80,-74,-43,-99,250,168,46,248,56,-170,92,79,171,69,148,25,-277,20,-199,-148,-26,18,92,-225,-276},
{-278,-130,-232,280,-174,-300,-62,163,-56,-146,88,-169,-42,-73,27,171,-161,-247,-10,-88,-43,-11,277,219,-136,83,181,32,202,-84,225,26,290,273,-84,-209,-200,20,151,305,181,130,-114,26,-231,41,263,-237,56,-200,248,63,302,183,20,102,-70,-307,7,227,-169,-136,216,-23,127,174,48,222,99,-23,200,102,171,234,-289,86,-240,202,-121,-4,-67,-82,-71,-275,-52,144,155,244,-89,-110,201,86,264,-40,94,222,-264,202,-95,99,206,-144,249,-159,-262,168,-313,-267,273,-199,-53,-197,260,10,129,-88,-17,11,-76,-187,247,-140,186,-209,110,-260,-6,179,-200,171,71,85,-8,-159,-17,-123,-125,100,-246,100,83,119,-118,267,-208,-290,92,-67,-125,-78,83,-72,207,18,0,137,-285,204,-158,303,-68,208,164,-111,279,-62,234,202,-31,-176,224,-244,90,-92,56,277,11,223,121,19,-160,-235,102,-80,265,-98,217,-18,42,-73,65,-202},
{-95,-68,200,-141,108,-197,177,-151,124,10,-301,88,-110,96,122,145,184,-139,-84,97,49,-140,-80,-124,235,319,-149,80,69,28,18,-152,-211,225,-49,307,-109,-137,176,-44,171,268,-69,253,65,77,-82,244,226,216,137,242,-259,-70,-226,93,204,260,253,106,7,34,-280,46,-143,-30,-153,-124,21,-241,-295,250,14,17,-89,-243,76,112,-243,-269,-103,-177,-205,-163,83,74,-132,-149,133,-214,91,245,198,-32,-170,196,-245,203,-64,-14,-281,-270,-175,-40,-53,95,56,-106,-137,288,-232,117,216,-107,-253,-257,-235,-173,284,244,286,-271,86,-185,96,224,159,220,205,-59,-28,86,304,-59,273,104,-219,-163,183,-252,215,-98,34,150,-51,90,163,-176,-105,231,292,-138,-143,69,44,98,-198,-155,-183,-50,-76,-10,-55,-35,210,-137,170,-199,161,46,-82,-80,193,-227,-272,126,-21,122,128,-131,118,-73,251,-27,76,33,306,-18,-153,167,-43,-236},
{121,36,-172,-25,-126,-64,-106,37,118,-46,-285,111,-85,-60,254,-189,68,243,-161,-165,-249,-69,-124,-208,-171,-108,249,131,-148,-3,171,129,78,0,29,-238,89,-235,-5,-150,57,161,-68,-65,-171,-137,-254,-11,130,-135,-172,-185,105,318,132,-194,-254,-265,201,55,-209,-205,239,181,-266,199,214,275,119,-175,-188,66,-185,173,241,220,238,168,-176,318,38,28,-77,308,231,-79,-12,-10,97,281,253,-280,113,29,-121,-179,-86,244,-204,-264,-256,158,182,-163,-271,-254,68,-285,55,-54,-118,-164,-274,227,-90,66,-126,-259,-173,-111,17,-5,-101,186,3,213,236,21,165,-131,-234,228,131,211,-233,183,241,-158,138,-17,8,264,-48,-97,-290,143,-274,-190,166,-224,-230,7,-10,-167,-285,-218,143,-261,-174,-84,-303,228,-155,-105,34,189,164,3,125,123,-243,-265,163,141,157,55,-166,37,-164,-18,183,20,140,-80,46,-191,-240,-136,-176,-165,159,133},
{246,272,233,174,-172,-71,145,-129,-271,218,127,194,-78,-134,-91,-10,-270,102,176,-259,55,130,-141,-290,-226,-41,-236,140,-208,192,246,-61,42,10,37,-86,-134,-171,-2,18,245,8,-194,-234,-217,175,139,-156,-119,117,187,207,-99,-38,-252,-307,5,-202,88,-280,-49,-259,-290,-25,-47,42,115,-202,185,-273,235,98,-27,224,-260,245,-276,148,-103,213,267,275,-197,235,-18,-179,-66,-78,-117,250,-69,-2,214,149,60,-144,259,68,29,150,120,78,215,-141,-194,-147,-8,76,-190,202,167,-206,-290,40,15,143,183,-97,195,2,-290,48,-21,4,181,153,228,-272,-219,-230,11,82,255,-171,-131,-279,-44,63,86,-33,-149,249,-147,-21,-74,189,117,-123,31,48,243,-41,300,6,-11,128,25,-82,45,-88,208,-32,-88,-97,92,63,183,273,-94,165,143,-132,276,204,90,75,-206,-51,280,271,-233,-214,150,-70,-174,26,48,-220,34,-301,-78,-270},
{-95,102,251,-48,189,143,-123,-231,-154,40,-122,95,-80,71,76,-94,169,-248,-142,-193,-288,84,56,-298,268,45,134,47,191,-172,56,-16,-78,-91,213,46,-235,238,97,-34,238,233,218,-154,-139,-32,18,-140,203,208,28,166,-79,-8,-63,267,15,40,245,-105,-219,253,-66,20,49,25,-244,245,-166,227,-284,-79,-139,188,106,-77,34,244,148,137,55,267,134,-149,270,-240,-213,271,79,4,240,-88,-156,72,-266,-208,-192,-164,43,-218,122,77,271,-65,88,199,8,-21,-137,-192,-122,-86,174,46,-309,-186,229,-64,-189,-31,-145,141,-48,104,112,174,-179,-113,-295,-265,-8,273,62,-65,100,-96,69,260,-107,133,-59,-108,172,90,-294,89,-214,-28,68,-243,-280,97,-262,-249,219,216,98,216,-201,74,-207,11,10,-283,23,165,-37,279,-279,178,97,1,43,-47,-223,267,255,248,28,66,-268,42,7,257,-174,-238,-196,14,66,-107,-250,3},
{-37,-282,140,-76,-251,-241,95,276,229,-130,36,-22,-22,16,239,51,279,-314,184,-160,-287,-105,11,-143,243,-139,-82,-76,170,-84,-143,-295,31,-141,-231,-93,220,-267,-103,7,194,181,-154,164,260,-243,109,-152,80,-115,-228,-123,-288,-227,-222,303,-86,22,169,-36,45,-121,215,-190,-108,1,-158,-45,-78,-290,-141,-193,-236,74,-59,-261,-52,255,-41,-81,103,257,-2,208,-50,-4,139,-4,-171,249,148,58,113,156,-161,-36,0,-196,72,250,166,-245,-195,-241,-277,-282,23,251,-193,246,-36,-248,-202,58,100,-148,-87,-71,99,-196,-215,-7,-24,-123,-231,70,102,139,54,250,-146,-27,-208,271,21,-5,76,-104,230,260,-86,-190,-57,-213,103,-34,-231,3,163,-2,38,161,-263,11,-177,-274,270,188,203,90,140,-228,263,-132,-87,138,-4,260,-125,-58,-164,70,-4,161,261,-261,-139,-51,-163,72,-88,127,254,75,165,-262,-163,-176,0,-48,-285,35},
{30,67,110,23,70,93,265,-164,-135,118,159,64,130,233,230,-128,276,-115,-246,-101,19,-285,178,-236,289,201,-69,-245,-42,94,-249,-160,171,-37,117,-169,295,-285,-251,95,24,145,54,-32,145,-95,-18,32,268,81,-199,-252,18,-184,-262,192,65,29,245,-107,-94,-265,-155,-142,221,52,-104,256,165,-88,82,-10,-3,243,-70,-158,203,212,-108,-48,127,106,163,138,-16,-13,-56,-186,215,-278,-96,126,-278,-77,235,-221,139,-147,-50,150,275,-69,-212,208,-128,-146,-198,71,-239,238,-132,158,-105,-248,73,-118,7,-30,-172,255,260,-132,-53,-210,126,-76,-173,-100,183,148,-81,105,40,136,281,-94,-252,28,-171,10,223,-246,141,-46,84,28,-153,243,47,58,-272,-67,-1,-108,-112,-184,-167,95,35,10,-272,141,204,-220,-19,-202,-164,272,95,-255,98,0,-131,193,-281,273,101,211,-230,-156,-32,-269,20,160,-174,255,155,-66,20,129,-74,144},
{144,-232,296,72,202,225,-173,-66,-237,31,-248,-173,-164,-187,-11,277,-117,-218,91,90,-96,219,5,-131,-146,-165,-79,269,10,116,-60,-23,228,-104,25,258,-204,-44,111,240,-136,286,81,241,125,-104,75,-182,3,154,-174,-99,-125,-117,282,91,-79,1,284,260,169,-234,-188,210,216,-215,81,160,235,291,160,103,122,-118,145,161,-26,150,-159,226,-125,-218,152,-68,281,-152,31,128,-84,-178,189,-215,274,236,112,-92,262,-278,-2,271,92,-253,48,293,-247,188,153,-197,-173,216,-279,215,256,-108,69,32,133,-286,151,48,-204,-9,-220,-236,-93,2,-132,156,-39,-29,-198,-195,-251,-162,-127,223,-146,178,-262,126,28,-290,22,-156,-136,-83,-188,-10,-263,-119,-171,-292,86,47,-110,-263,301,-205,-267,-251,187,-216,201,-124,273,-16,-206,180,-181,-190,133,-35,238,259,86,222,127,45,115,33,-131,46,17,40,-200,-273,-221,78,102,-84,113,-183},
{39,238,-242,-11,264,-136,36,18,-49,29,-118,-287,249,17,-38,-220,43,143,174,140,-35,-10,152,264,151,37,-90,-102,231,-78,245,-220,268,-301,137,-235,-197,-132,110,49,-270,-283,279,-134,-196,-250,110,-235,-11,-23,-89,43,-9,262,-36,104,-66,-118,165,275,145,-180,-135,-228,112,-45,-156,-301,284,208,-117,-280,-235,-271,88,250,-190,92,75,-131,13,-52,4,-178,-147,-60,-34,-285,248,-14,76,152,-121,-87,-14,-81,-129,188,-259,-5,-223,-263,286,-148,-3,-124,49,25,-163,-242,-279,117,200,-277,-253,224,159,-299,-170,-181,-277,3,192,107,192,-145,-154,-47,-235,-42,112,-11,225,29,32,7,112,203,90,-70,97,-255,-174,-70,-91,32,228,8,128,90,-52,-203,216,98,270,72,-238,172,174,-89,-38,87,297,-41,46,20,-256,163,-74,39,-277,-251,-59,94,153,220,204,-88,-99,250,105,275,-112,191,281,110,-75,138,-68,-303,-289,196},
{-196,127,131,85,182,261,-212,-164,259,185,-98,206,231,135,-254,14,66,183,-15,56,-175,-78,90,102,0,-178,61,261,-206,-261,143,300,-229,-202,-228,261,245,-108,83,-182,64,-155,179,49,230,107,-29,303,-87,64,218,-182,270,-133,-250,-254,-135,-76,-157,-203,176,57,26,66,-241,-141,248,-174,261,-166,17,37,-57,-184,-52,70,248,152,217,84,218,4,-130,-295,265,36,287,-85,246,61,-130,-118,221,186,266,-66,-290,-248,198,-127,-171,217,174,-103,-195,-144,235,38,-70,230,-112,185,18,-268,207,-158,172,149,-267,65,20,44,-171,248,-125,269,232,267,193,-271,-72,259,-168,117,-279,-93,187,-123,178,-88,232,-226,170,-215,-34,-173,-153,105,-238,123,-23,-133,-44,-189,260,-42,-8,218,80,-114,147,73,-140,238,-56,-75,-139,-265,208,-96,68,80,-173,-175,-113,-225,-192,-152,92,168,286,70,232,-120,-77,-44,259,178,245,-289,1,-141},
{-92,197,164,-235,78,152,-27,-46,-294,-39,200,-300,-171,-5,237,-273,56,110,-180,194,18,8,-236,-226,-96,95,109,212,-196,58,268,-220,-101,-200,-268,-75,-25,-123,-115,146,119,79,-215,34,192,94,48,-112,121,-169,200,-208,247,-193,99,164,262,-232,-2,46,-246,-236,151,19,139,-161,-42,-271,-199,-3,65,-280,205,-68,0,185,-18,130,-259,-66,65,30,-223,-252,112,22,-175,-76,-37,165,224,-137,-75,142,17,-14,-72,107,-2,49,-13,-79,-1,137,-236,-47,-229,200,80,-12,202,32,-99,21,-276,-71,30,60,-267,33,138,0,228,207,-197,49,-216,242,-83,163,-127,-48,90,-102,161,-152,49,-224,70,89,-88,-152,-103,-166,-190,223,-251,-237,208,-60,-245,-82,37,-24,262,32,251,-192,-26,26,48,173,-138,-14,146,293,-237,151,273,209,130,210,239,-94,-40,-199,62,-157,240,114,234,-39,-216,-65,234,120,-137,278,199,2,194,33},
{-156,-17,-163,-208,-33,-252,-246,180,134,47,-250,-87,81,153,-30,-223,-168,-141,-160,101,102,181,119,-129,-16,-39,-103,-164,60,-204,-34,10,-181,46,-231,64,168,210,-135,-228,91,-41,127,-210,-257,-39,-262,-182,-183,-210,227,-238,280,-124,-147,-253,183,42,34,253,269,-256,-43,234,68,293,-286,135,-169,247,-19,-36,228,9,269,-154,106,-292,-181,122,-168,-87,-223,-236,167,-251,124,-182,59,-301,10,-159,-195,-6,150,114,-90,-235,-203,122,225,-250,173,255,-262,-290,17,56,-151,282,186,6,-135,258,162,152,201,30,-263,-274,-297,-14,-139,21,-153,250,151,65,-126,-213,-47,6,24,227,-274,-184,-213,197,134,-250,-13,-202,-34,34,-209,212,267,73,-185,256,-50,90,224,170,-270,53,-148,-46,230,67,-237,-130,221,190,130,149,-52,219,104,215,-124,161,-38,-50,-88,98,52,-266,243,127,-196,-18,-209,-266,-234,187,96,23,-55,2,-33,158},
{-28,202,46,23,244,-270,41,263,-116,278,-92,-119,104,17,-27,-17,169,42,-31,78,-221,-52,-177,-29,-17,6,-227,111,147,-105,62,-22,-162,236,254,136,-53,156,-152,-185,116,-288,-283,-200,241,-231,109,-213,162,225,158,-168,70,165,-69,300,-138,-101,171,-95,86,-137,-107,-118,147,145,-243,278,-191,-292,169,-32,-41,251,102,38,-203,-269,298,-243,263,203,274,-178,-269,133,-289,-265,275,301,173,-135,-83,33,217,-8,-115,250,-263,109,162,-194,120,121,-56,214,80,120,-227,-263,181,-53,207,-232,-60,152,-134,-132,-228,-29,97,-142,-254,-209,269,-287,157,163,241,-162,-79,266,-161,0,-287,179,181,40,-124,56,102,-166,-136,162,193,-144,53,-209,185,-156,-161,-300,240,-17,169,227,-19,105,269,128,-251,-304,299,-21,82,-126,274,216,80,-288,252,-288,-35,-42,166,-260,-79,164,218,-240,45,264,187,-61,179,-165,106,-162,-218,-64,-146,98},
{88,-283,210,-111,-98,-281,94,-18,-125,37,-237,-291,210,68,-151,266,-279,90,-147,-160,6,-151,-262,161,-224,212,44,-73,236,-77,228,244,150,30,183,73,253,-111,-170,120,236,-30,-268,-191,236,-173,-113,-11,-56,85,-205,80,-94,-265,-99,-15,-91,-4,-135,-115,12,126,190,148,153,-107,170,-11,-24,118,-81,-249,-69,79,-259,204,28,-25,-38,-108,-180,-191,83,-135,-83,-42,-39,-237,-165,-166,223,63,-283,-292,-278,-192,-144,51,79,-245,204,219,108,185,100,-144,99,158,-255,-202,35,-188,-231,178,186,-258,-43,204,-213,12,-233,0,135,-135,-233,155,-259,-243,54,145,-248,115,-242,82,-186,160,227,-186,-182,179,115,-148,53,150,195,-47,-223,-189,190,-85,-176,224,195,71,-184,-138,-181,-300,44,-285,-18,-163,69,-36,-93,-149,-205,254,-239,165,-146,44,-194,-237,240,-142,-295,-199,212,-26,184,-249,-188,103,78,-261,-109,17,176,-9,12,-126},
{-157,-149,44,-203,93,-54,233,38,-226,-23,225,164,32,85,36,100,-41,82,-75,-256,-104,-14,-238,-86,-290,-31,-307,83,204,-64,-287,79,-67,-140,-153,159,-120,-283,-127,-59,200,275,154,-258,169,-149,-174,-16,184,258,-54,118,-207,40,-68,228,-52,-205,-305,-58,224,233,-64,-263,228,-16,-223,78,-34,-106,-295,-56,-242,-46,-111,240,36,-121,-239,-221,172,58,24,-90,119,153,-291,30,19,-142,218,-108,-161,6,173,-124,-32,251,94,-17,3,-104,-288,189,-193,20,-266,220,223,97,-170,166,-95,135,186,-81,240,-249,-257,197,158,-82,216,-257,-39,236,276,161,-248,-12,-237,61,107,-272,243,11,17,-71,-269,172,163,224,208,13,221,-288,48,-171,-51,115,205,94,66,272,-25,267,-221,-189,-242,-272,-42,195,-8,117,136,153,-186,98,175,206,8,84,-188,100,-124,266,-30,-302,-253,244,-286,-185,-242,190,195,180,56,-100,221,-91,177,-198},
{-257,256,22,-76,-65,55,-210,-264,-186,-74,117,-156,251,72,15,-100,-184,181,-211,-81,-210,-179,-10,258,-208,104,-71,-89,161,-263,69,16,250,6,193,240,42,111,-101,97,-220,-282,130,-42,-279,-286,0,185,-171,275,164,20,259,-269,119,159,275,-197,228,206,60,-225,-258,198,149,-104,-145,-116,248,259,41,-296,253,-185,-120,-125,-226,47,-283,-12,-287,-69,224,-223,140,-67,-146,280,203,-35,-48,-1,137,1,207,-198,-145,-230,-55,-204,79,-289,-217,-76,217,8,66,-145,-149,86,-178,-23,30,-117,-141,176,19,-290,206,-217,-186,-21,-9,-248,-53,15,59,188,88,-186,-191,167,136,-76,-294,-32,106,-215,86,-273,-24,25,113,266,21,-22,124,90,-200,120,-85,130,57,177,242,48,216,203,-137,-46,-59,-72,124,156,201,-117,-97,-19,-130,139,-216,91,-162,-262,-154,-212,250,54,-151,158,257,144,-280,-291,32,262,99,191,-303,60,46,-70},
{-18,-229,-273,-187,196,-129,85,-225,238,62,235,88,-115,-295,94,13,216,19,-120,-225,73,35,-21,160,-297,83,-216,-289,76,-46,283,-115,18,-219,20,256,102,26,139,-78,96,-86,-1,219,-222,101,-170,99,277,53,-156,164,98,-160,14,-165,146,178,159,24,154,239,-279,274,-81,-149,66,19,84,-284,-22,156,-240,-74,152,88,94,-146,270,-55,-136,-218,102,-43,-260,-277,213,99,-24,208,-197,-248,-35,-159,-65,265,-80,46,-250,-235,-137,142,32,98,157,76,-159,-89,-91,-73,98,200,117,-79,-182,-194,258,187,39,-76,263,-276,-79,-141,-56,-46,-246,90,200,-202,36,-141,15,-307,-233,-61,123,-103,-120,189,34,115,178,-51,-254,-155,-269,-241,-184,-40,-199,-95,-150,114,-41,29,-17,264,55,102,206,101,249,-7,272,-35,-112,215,248,-184,56,-175,35,-249,245,-66,225,120,-22,113,181,188,-200,135,-142,98,-16,-196,-229,-291,127,-190},
{-144,68,-108,-164,-276,93,110,129,-90,-88,288,-228,-220,70,-10,290,-102,-63,-50,-188,39,-13,-84,-177,-180,132,259,-162,158,16,-1,-165,-199,24,-151,269,-180,-179,6,-152,-146,107,-58,-9,-162,142,120,-217,-68,9,156,-144,-155,-274,-67,212,157,-140,-95,-64,-198,237,77,47,257,-204,-173,-175,-257,-238,-275,-208,41,137,217,-72,-152,152,-264,202,250,225,-161,225,208,192,-261,-90,-55,10,170,-50,-221,226,89,269,-260,-273,-186,-21,197,-158,-10,-191,30,-131,-153,145,107,71,205,-248,24,-259,-278,78,-56,67,-233,7,107,256,49,-207,-295,-108,-133,-186,108,222,-1,72,39,189,-51,-128,72,42,-152,-187,-247,226,-246,-269,135,-143,40,20,-121,-222,-215,-22,65,-268,-122,-280,-154,282,281,-250,74,-281,-185,-211,43,-136,58,121,215,141,-223,-87,-71,-293,95,-18,-168,194,-99,-137,108,-157,-185,20,-39,-260,-210,-84,82,-221,151,233},
{-270,113,-132,-155,50,-268,-241,-57,-156,11,-200,-126,-17,23,14,227,-25,187,266,-172,279,-97,-155,212,237,39,-160,13,-107,-6,-197,-104,-8,-51,262,-266,-41,-295,-84,-106,193,156,-206,63,273,-242,-285,14,18,37,-220,218,-187,266,-181,81,-1,-7,187,40,114,99,104,138,155,73,63,46,4,255,-96,-1,213,-132,279,7,-152,-177,140,-173,-73,-56,-273,-1,152,171,223,-276,-5,57,40,-96,211,134,4,-207,165,117,79,164,48,268,48,-82,4,-114,-60,-102,196,-45,-167,-217,-161,24,200,-145,-268,31,76,17,-248,175,-272,76,182,121,-12,-167,-143,116,-154,120,250,46,-31,83,190,266,-33,207,-26,-193,41,-244,-267,167,139,-172,-54,-259,-35,289,-249,42,24,163,41,69,-250,230,117,12,-140,261,-151,155,-92,13,-138,20,124,-130,-283,-202,-126,-241,-213,58,-217,175,-167,-225,66,57,16,181,-31,243,56,151,-188,-107},
{52,-234,217,-249,63,-130,-193,-145,-281,-170,-89,-198,142,-129,-123,-171,215,-199,53,-134,-202,-289,53,-274,-187,256,0,-1,46,-207,-79,8,280,254,-138,282,45,-86,86,-302,-132,-203,-212,-120,-39,53,-16,-136,-6,-17,283,-86,266,288,-140,69,-139,50,98,7,-249,-136,45,-191,207,-121,-134,-27,211,-244,-182,294,129,227,210,57,230,-238,-73,190,-255,128,221,-68,-158,-9,-224,-125,-305,-3,128,-271,-236,161,-190,-272,-198,-195,-286,-118,219,-268,-73,272,47,242,164,174,174,137,-123,-257,-54,-191,-241,234,-21,-85,-8,4,193,-169,-262,281,240,-271,63,69,-104,4,-28,-247,133,59,-303,-10,300,120,222,-280,7,283,-50,94,-72,199,-275,-116,223,197,-133,111,3,239,270,-275,-17,40,-138,-127,-16,-165,49,273,-260,-42,129,-245,235,-170,184,123,-177,-64,49,193,132,64,-181,-145,-143,112,-225,-304,160,132,262,104,-8,-133,-163,266},
{230,-254,62,-268,-43,-158,-36,-136,175,59,228,-17,80,-276,-154,-293,-163,118,94,259,-55,17,57,89,260,241,125,239,0,-38,-252,-222,-97,166,103,27,-96,258,5,-231,-284,-65,-110,-77,-232,135,90,258,275,-64,-253,222,224,182,124,124,91,17,60,-33,-169,-90,248,-194,-86,-218,87,-46,207,201,-262,-236,-72,129,266,-148,-209,-253,40,-30,260,35,242,101,-47,221,-104,228,226,186,7,212,271,120,-71,-208,-147,-18,55,-213,-226,-160,89,29,-149,-24,51,9,-254,-266,-96,10,12,6,-268,-84,113,-148,-62,203,271,88,-75,-275,39,-86,-229,241,-132,40,177,113,-243,136,164,-46,-184,-91,-51,-53,-245,-247,-153,-199,194,94,86,21,-8,-45,-177,-19,-151,-247,16,-252,211,-313,-274,-185,-206,7,-169,-204,229,-135,152,179,-243,95,-212,102,-73,252,126,-31,-259,193,-104,-94,-153,-230,79,250,161,93,-191,-140,-113,-19,90,-176},
{-182,-77,231,-251,12,281,-110,-64,-52,86,270,51,60,203,227,23,249,89,179,-242,146,110,41,-38,-243,-8,33,148,208,103,0,213,75,-200,147,157,-228,-248,-11,-40,83,-64,-144,-74,263,-178,-90,-130,-52,110,229,-59,-220,285,204,42,-116,-244,124,207,-229,-123,-173,-170,-51,-76,-64,80,263,-254,39,249,-160,291,-4,179,211,87,-144,166,-224,59,291,16,189,119,-53,-174,127,298,273,252,-101,1,233,-274,309,168,-56,216,248,-150,96,114,174,-25,298,119,147,272,21,-52,158,156,138,-192,241,84,275,154,-123,34,-240,296,-181,-186,128,-29,188,115,232,112,-69,-88,-287,175,-227,-186,-53,-159,99,-39,-145,-178,276,224,-75,166,-205,235,-263,-125,-244,31,272,-127,-39,290,-215,-242,-162,-215,-202,228,13,-29,-198,100,-73,-109,-129,-215,9,-258,254,60,165,-98,-107,111,102,-289,-248,-120,-196,121,-298,-163,31,-127,-148,-141},
{277,138,-36,75,19,-204,-113,-296,-269,-220,-238,124,-143,-140,22,-258,2,235,-190,-86,159,213,-228,-42,29,212,145,160,-94,148,-138,-98,-147,-86,-90,-143,111,-53,-217,268,131,125,173,-274,125,179,247,-133,-139,27,102,178,101,-202,3,188,-142,-285,171,172,219,-130,-92,113,-161,-118,-36,244,-122,-86,117,-219,-285,2,-210,155,-161,175,208,99,-291,162,-70,-108,-241,-92,-165,-217,141,18,-226,-209,-60,-67,52,-168,-282,-264,227,71,-304,-134,160,-51,197,-61,-60,176,-24,50,44,-40,-307,-34,-202,108,87,44,-216,-281,11,-175,1,-180,-278,258,63,-289,-110,277,-118,-278,52,170,-281,-119,-239,-15,128,315,-253,225,-223,-186,-26,175,283,80,150,176,-73,36,275,231,136,-258,-198,228,234,-301,-90,-10,-125,-80,-41,-28,-197,85,-181,264,-164,-126,-260,-7,285,-303,244,145,184,-314,73,0,88,-248,-239,-15,6,116,-193,-65,-110,41},
{-74,272,-242,122,35,293,-40,135,-209,-108,158,-22,90,234,107,230,-181,133,235,-55,-33,64,-219,-109,256,-52,-286,188,66,-16,261,-34,-4,158,129,162,-130,-114,274,278,-165,-144,-67,-4,284,203,182,-13,-171,-212,258,264,-267,202,-4,184,-205,199,139,84,216,-169,-130,241,-94,126,-116,-125,199,-87,-287,-149,204,-83,-104,78,-130,253,-43,213,-196,-142,-252,90,106,-179,-121,-147,-275,56,76,231,248,-87,130,-125,-38,-79,-77,-188,37,67,-261,25,281,23,239,-265,177,-75,134,-89,93,-98,-237,-87,209,212,207,-69,-106,-221,102,195,121,154,14,-38,46,-177,46,-148,303,224,-176,51,-13,-224,-95,156,-114,-69,127,-84,-45,-8,-281,-37,-45,-272,204,-235,123,-293,103,-11,28,246,167,223,35,-28,142,17,-44,-84,-81,69,242,-24,-34,270,171,-195,-60,-189,-257,-8,41,203,151,161,-53,258,233,-277,-276,267,277,44,-63,-294},
{-238,261,-158,-142,64,32,-74,-26,-5,-212,-29,173,275,133,-38,-116,167,-215,-126,17,115,-158,85,-117,187,292,-97,18,-303,-227,220,-148,135,-41,-194,-181,-151,-55,101,8,30,-216,-109,-94,-25,204,-149,-285,-213,-18,-6,-101,149,-228,223,217,-241,-131,-24,-205,-24,7,-87,-267,66,-141,56,-114,233,32,-272,-63,-142,53,218,-106,282,227,-177,266,-219,241,190,-75,-106,-256,-54,-196,-230,246,-118,262,74,-261,-275,-74,-229,199,-295,34,-295,-77,-63,-126,-90,-129,121,-203,202,174,45,-33,5,99,304,-259,-269,204,-225,130,9,-120,174,-18,91,-202,-105,63,93,253,-18,23,-146,130,-213,-99,-199,113,191,-225,225,-235,-130,-37,-202,267,269,-292,154,-149,-267,219,-120,148,-137,255,224,-85,-3,129,-91,-144,163,-112,265,-196,44,35,-131,-117,-200,124,39,243,78,76,-265,-144,107,122,68,-221,-59,-225,-70,221,257,14,267,-168,-19,-196},
{95,85,-280,56,-246,-282,-23,59,-174,215,-193,-9,-60,133,233,-170,-220,-90,174,93,276,-265,-11,-150,-187,165,-29,302,-190,97,216,-256,244,60,-111,-241,-43,171,122,134,59,96,190,67,-237,-229,149,-268,-32,-102,215,136,-194,-278,165,-254,53,49,297,-145,3,285,-111,-211,282,159,-104,107,-47,-159,-259,91,-263,-8,115,174,122,-304,-76,11,-54,-224,-115,188,-163,-156,177,-4,-96,-119,115,63,37,-172,-63,299,-256,-222,-214,110,-172,-174,39,-225,268,168,-74,-89,-55,-215,-112,-29,-245,302,149,-14,186,-136,-270,-266,-117,-122,47,80,55,249,43,-249,-151,279,140,-229,8,-100,-151,1,-13,-37,265,-39,15,116,-108,-37,263,293,-143,70,67,-217,-25,-255,-33,-48,-142,152,25,-98,-261,-206,-158,-107,52,124,61,224,82,244,226,15,57,-88,-125,-152,247,-274,-249,-291,-97,188,13,12,236,-50,286,-238,-149,108,-141,120,-37,-43},
{-104,-125,-59,162,-305,49,-134,-257,-147,42,-34,-66,127,-211,-133,264,113,-233,-264,5,-133,88,-259,69,239,189,261,108,-237,255,210,-175,77,-214,-219,224,-84,-167,239,265,-295,-89,32,195,243,16,165,86,42,-270,-280,140,-186,-154,-177,169,-81,-26,134,40,-92,174,35,115,33,-47,142,-241,-89,-192,-42,-60,-48,-158,-59,-11,-298,-264,-198,87,-103,-207,-168,-168,172,249,29,208,-191,-315,-304,-27,-259,-259,-143,120,-38,-232,286,-186,-181,273,66,47,-164,-37,82,-100,248,40,-216,12,130,-205,-270,-179,208,176,-93,226,261,-8,-146,-148,-24,-71,-217,-47,310,181,-261,234,3,-72,77,-14,-176,-206,-303,-8,-18,175,-104,123,-205,2,270,42,-201,-269,105,-121,182,-257,-67,14,106,-131,-54,18,-85,-31,-188,156,238,-99,55,-196,-159,39,-65,43,-24,-122,-300,270,271,241,-85,42,250,92,264,-230,134,-77,184,50,193,5,-54,24},
{-94,113,-48,-174,-233,-206,114,278,266,-37,-260,-147,-172,99,-10,-3,1,-278,-13,-70,-144,-230,209,121,-239,-34,26,34,262,-237,-268,-250,-68,226,205,-288,142,286,30,-81,261,-158,172,-147,-278,0,-162,-217,34,-191,265,-52,94,-256,91,79,-142,-246,105,87,-122,-252,53,-60,253,285,138,-138,283,-220,-198,-53,60,-296,-51,-297,-244,-220,-75,-118,143,109,61,57,-14,4,-303,169,101,-247,-250,-125,-184,-259,-89,-125,272,-47,-59,230,244,-1,-9,-167,-209,189,-82,-75,-155,191,-6,-114,-76,-154,152,274,126,236,75,-51,4,-174,-41,-96,-239,-12,73,233,-207,-13,68,-90,-36,230,-174,2,28,-156,-98,-49,174,242,-203,274,152,135,-45,-257,252,-25,191,-190,150,-206,39,105,166,-68,-274,92,238,199,235,-17,267,-106,260,-65,-32,85,153,-107,93,-191,-124,-106,85,-173,-95,248,200,166,-35,-9,263,-78,-156,197,-114,62,57,40},
{-53,-171,-152,-149,197,70,31,-216,-300,16,101,-2,123,80,-181,46,-247,204,144,234,-282,-106,-93,205,-69,134,-292,108,22,-114,-225,81,-275,53,-207,-131,225,246,-136,299,178,81,214,309,0,195,240,-85,-106,-191,153,-151,-185,-209,10,-281,-30,-125,268,-41,-108,-225,95,-23,274,234,267,-246,-198,53,230,-222,-183,-44,-238,-57,-81,113,276,-54,102,-246,104,-87,-213,-160,204,-257,-166,244,153,-47,-190,293,215,-62,153,-233,302,-274,286,161,-288,135,-1,-247,-218,-132,51,-120,-125,-184,148,71,39,-186,-299,218,253,118,-111,287,82,155,-103,170,-74,-21,-177,-92,32,264,151,264,37,311,-260,143,231,197,90,247,-28,310,189,163,16,-240,61,-148,127,-295,146,63,-122,248,-89,-136,-87,41,-122,10,289,226,-103,62,64,-150,-210,-59,-81,-40,-229,91,-153,-7,-224,-119,202,100,243,-7,-87,288,84,-91,289,-74,193,-10,225,233},
{253,47,-222,45,-260,-244,103,-250,-41,-53,81,-147,-110,115,53,-227,-299,-182,-9,-110,60,-119,47,-90,-273,160,250,-168,-249,-140,-209,-104,220,58,-99,-249,-21,120,40,246,191,114,133,54,25,214,-229,158,24,-127,-124,-36,31,-280,-255,101,-34,-179,-19,197,210,-152,156,97,-232,39,171,-144,-46,-267,-263,142,69,227,137,85,122,-191,37,-282,-220,129,101,-28,60,298,-233,-222,230,95,-102,-255,-154,-14,-12,-41,-47,-34,-79,-289,84,-15,281,-227,277,199,249,-229,-24,3,90,-300,238,138,-14,-131,81,-259,-209,90,-171,98,91,196,-57,17,75,114,-60,-139,-19,62,-130,7,275,-108,111,183,-204,-96,235,225,169,-169,-91,276,-141,-254,164,244,-87,-260,-299,117,-146,-150,99,192,-260,53,67,-212,136,-48,-176,88,-90,194,160,-63,54,-223,-204,197,72,-68,129,-150,148,79,-308,135,132,-118,-163,-17,-38,28,153,-157,-106,204},
{111,256,148,-155,-234,109,226,-9,-274,143,265,-50,256,117,23,196,156,-168,193,-236,2,176,179,15,294,-277,-259,-104,28,-288,-254,-93,189,57,-102,153,230,13,259,-271,47,309,-66,-69,144,-147,50,-174,-95,-100,-273,305,128,214,111,140,-307,-64,140,20,-111,-120,-56,-179,184,-128,201,-87,179,-276,-119,-87,-225,278,152,228,65,-279,169,304,117,-254,199,194,279,-133,131,152,79,-160,122,162,-53,131,149,-290,-80,-188,276,75,-36,-281,256,223,-32,-10,105,151,-49,0,203,67,309,-249,269,-198,-122,239,88,-289,-260,18,114,-177,114,162,220,-262,-75,89,82,-27,27,116,-259,226,-167,189,-32,3,30,-26,89,-76,-109,138,-105,-60,131,-179,-118,-276,236,-62,-252,-107,-281,-188,230,160,45,-143,72,261,-146,152,-186,240,205,198,10,268,281,-285,23,-13,90,5,-42,93,-78,-72,173,-241,-4,-37,239,-36,82,-59,55,270},
{-29,-122,-11,-31,-73,55,73,117,-255,168,265,69,197,-124,-107,-33,121,68,218,-81,126,286,233,-305,-288,-93,-96,57,129,-267,-37,140,-62,-38,-186,-211,-10,-198,47,-141,-30,261,37,194,-304,-239,-88,-51,276,186,267,-207,268,-190,-166,-84,-40,235,-145,201,133,-196,181,87,-174,155,-230,-190,149,187,-55,-177,112,103,155,-144,-37,-208,-154,-194,-6,-17,219,-110,-214,161,30,-92,207,131,114,-253,170,-147,-176,271,-73,-245,223,-236,117,85,-105,271,231,166,-85,99,193,-129,6,-260,199,-194,37,30,0,225,155,-50,173,38,-177,229,-133,186,194,-273,-241,159,161,161,-181,30,-165,-44,233,232,-88,-196,-195,-228,-173,111,218,-60,147,99,93,-253,-193,-161,47,-35,229,-252,233,-184,16,-139,0,170,-173,25,6,0,-86,63,93,-182,-295,-80,101,-106,137,-148,255,-211,143,123,93,111,7,-35,151,56,-262,200,161,-36,-101,239},
{103,-290,-189,-138,153,42,112,228,-300,91,-159,-104,144,-130,-135,15,-127,-191,-88,106,-33,-252,145,-66,-240,-249,-28,216,24,231,-12,139,281,-72,-220,212,181,-36,-139,134,230,267,134,-290,105,-75,-68,-114,-161,13,135,229,281,309,-207,-268,-18,-69,72,-109,-149,-184,30,276,-108,-286,-109,303,-267,170,171,23,-35,279,-61,218,231,126,157,-136,27,-79,-178,263,238,203,-163,62,-32,-280,-290,-99,35,-78,5,-101,102,112,35,-63,139,-229,103,235,-281,-16,2,-123,6,-202,66,72,208,-262,-58,-226,-273,-191,209,160,-74,11,-39,60,-21,217,-21,267,222,117,274,210,103,148,-102,128,-78,118,-278,-40,111,242,-96,305,211,-37,-115,304,53,-243,157,-117,236,-275,-146,251,-124,-218,-278,24,168,154,-276,30,-143,215,240,-58,-250,4,21,-238,165,139,60,41,-128,190,241,-134,-48,68,-108,-53,-139,178,263,-283,-6,222,-114,-285},
{165,-171,-18,-176,-38,235,-176,133,-84,33,288,-264,-13,-174,-59,43,58,-191,28,262,266,2,-167,-198,-69,-64,-53,211,9,-53,272,50,19,-290,-224,-230,-281,110,116,-238,-278,-190,-265,78,-203,-121,231,198,-279,-176,-244,244,-286,-221,241,95,111,-75,-102,117,-112,-257,-217,-2,-80,269,-157,-182,166,40,-196,-142,-296,50,-173,-16,57,111,-20,-130,148,195,-53,175,220,253,-178,-50,-207,257,-230,-225,75,-60,-60,-258,-70,-42,-177,103,-288,129,-247,221,202,96,266,122,-84,193,134,73,-89,-88,172,-51,259,193,-273,-164,146,280,-280,-6,-133,101,277,30,89,-139,-202,222,174,-220,273,75,111,-275,235,101,-55,160,168,-68,-155,-8,209,95,239,-170,206,-234,275,210,-77,201,-138,149,144,-20,124,-161,-304,172,166,-5,-184,224,-161,-201,-34,94,-51,-190,79,-139,-246,206,228,-303,205,-145,-122,205,217,33,133,-56,-126,-182,-158,142},
{198,-78,-124,-149,-114,209,1,101,127,-1,-58,-67,-69,-105,62,245,-190,-291,0,-139,57,37,115,-54,-260,-111,277,-291,262,197,-232,297,181,-65,-156,195,-274,-215,-71,212,-59,-170,69,-175,33,205,166,248,166,246,-146,112,-178,-205,73,-126,66,-188,-256,-33,242,-158,-143,75,-116,-104,207,129,46,210,-114,-276,-57,56,106,163,-186,68,-120,-255,-268,21,28,26,-218,-170,110,25,276,25,61,-111,-57,-198,-144,290,164,-173,249,172,-148,-257,113,133,222,277,-78,-142,235,120,34,-253,-82,-131,242,46,-21,-277,106,211,-272,271,-177,-235,-48,-184,282,75,169,44,-165,-30,141,-96,26,207,-60,126,271,-17,223,117,-212,-95,-162,269,262,-71,29,157,-173,-38,210,76,227,199,-167,176,150,1,29,-85,-105,31,-154,216,-182,-188,-80,-120,-136,-97,278,-106,63,116,247,-169,53,-167,-273,37,98,247,-106,-255,-31,-3,-58,-205,-41,93},
{134,58,-198,135,-232,-249,-104,72,156,260,12,-218,-5,-122,199,130,243,-189,-96,272,84,-186,161,19,-95,-142,-36,241,-245,-87,91,0,-243,-100,230,222,80,9,52,246,90,222,280,235,92,243,-150,8,-59,-62,212,256,98,-18,157,24,-79,-263,154,241,-62,181,114,129,195,-279,275,34,209,-77,-78,88,54,-254,250,-221,289,64,71,-115,-205,-94,-52,-232,-99,134,192,46,-309,-234,-249,-198,140,-127,283,218,-67,-273,83,-245,-277,-53,85,-277,266,186,110,-130,-197,246,149,178,175,-182,-6,116,58,190,-247,163,91,170,-248,169,257,132,-93,-98,-159,280,36,-295,191,3,148,-204,-40,180,58,77,-52,139,111,79,207,95,-167,218,257,-182,-30,-146,-222,162,-249,-137,-203,174,229,-247,42,244,-206,-287,-196,-272,150,-134,80,278,227,-156,-48,52,264,88,-170,-290,55,124,104,171,96,-281,-127,-37,-224,-106,108,-138,-6,-285},
{-157,-244,9,218,-144,-106,107,-245,-307,105,-285,-107,-5,-138,80,-236,-288,155,25,-212,159,251,-107,55,-17,232,-95,85,-177,237,-279,219,-76,-91,139,275,-298,-245,-204,23,233,-24,170,-214,140,40,-32,38,148,116,-220,-63,-170,-58,241,52,89,71,258,-228,-104,-12,-88,271,-249,-37,242,-160,-152,-213,-192,-234,273,-231,-214,-270,-4,-12,-272,205,158,-219,7,-284,68,254,-66,-179,-13,115,138,62,-285,-75,158,9,95,-120,-159,75,-82,87,144,203,261,-224,-178,-114,-271,203,293,267,113,-202,-167,56,192,-280,-279,-53,21,-49,-293,221,-194,-89,-136,16,46,-222,194,196,-258,18,129,139,-91,-128,-232,-184,-99,10,-1,197,131,-66,-161,-104,-28,201,128,-48,-277,-138,71,-224,-282,-27,58,100,75,169,216,-281,-173,96,53,35,-298,-244,-284,150,-183,286,67,68,142,-192,196,112,-171,-12,-43,-215,-7,67,-238,132,16,195,-206,29},
{89,-64,214,-227,262,-94,0,-146,-99,-132,181,12,-203,-256,145,-280,-81,-26,87,134,9,238,124,211,-126,68,164,-253,-257,-271,248,116,3,-88,-10,-34,242,-146,119,-202,-55,179,110,-139,-31,24,118,-265,-285,-92,-220,-271,123,-140,-114,-146,136,126,235,-247,-107,-115,-231,-157,215,1,-219,140,-207,-37,-60,10,-272,-115,-74,271,99,0,-132,275,24,222,-297,286,207,-178,176,-283,-24,289,99,-122,-52,-236,11,197,152,-223,154,-43,269,118,118,45,-157,259,-189,196,260,150,147,242,171,-152,-187,215,195,-233,-16,263,19,265,-142,-254,269,-24,193,89,87,-40,-135,-156,-143,-109,282,-201,-173,198,172,-5,124,95,184,-232,-191,204,-155,236,48,113,100,-223,203,-184,-59,273,-296,77,-28,162,-211,86,32,-247,-161,51,214,-210,-161,160,191,-112,153,-24,-15,-237,119,-39,9,169,201,-229,-153,215,-135,134,259,126,263,-174,-152,-195},
{-10,14,85,-99,30,94,-216,280,-85,-228,19,11,39,262,182,195,165,-81,51,228,123,130,174,-11,-1,16,-279,35,-63,221,-239,37,-42,222,159,201,166,-135,273,-85,15,-94,212,257,-243,-85,76,266,-267,-64,-156,273,271,-249,94,285,-14,79,197,-296,-222,130,79,-212,-202,-20,93,229,248,-268,215,126,176,269,-277,-149,-295,1,51,109,277,295,-252,-55,-227,244,65,-79,148,-245,22,165,-263,152,178,179,-201,-112,-18,-102,147,301,-38,15,244,-162,-7,-191,-214,295,-36,137,-58,136,-232,-59,64,147,31,-204,-121,80,42,-181,32,110,231,241,145,33,144,-195,183,277,-221,188,-100,-270,289,36,-154,-195,-189,-129,-68,179,51,153,84,252,190,45,52,94,-211,-113,140,90,-170,0,95,-165,-25,-54,147,112,219,141,163,91,-203,-276,-235,58,181,189,-249,119,-142,-131,239,-284,-24,-268,9,105,26,83,56,-143,-217,-171},
{290,186,-75,3,232,-63,-269,-4,128,224,-234,22,8,-171,-176,-186,263,-170,-62,-208,104,62,35,100,-20,95,-170,80,-85,78,-78,200,61,-307,-6,44,61,-82,211,-24,232,251,67,130,-137,277,210,13,85,-256,-53,109,24,164,42,-4,188,9,197,239,-115,-189,-111,-68,-67,-110,166,279,-124,46,61,-277,-1,-104,118,-68,-196,-1,-30,-93,-178,-143,144,113,128,-217,-269,290,126,99,107,-100,-192,-223,88,78,221,164,245,-70,91,-211,-8,-63,107,-203,129,-21,205,7,56,-228,59,-301,-118,-68,-225,-246,79,125,-249,-63,-96,-261,-238,-190,-61,124,135,242,37,-283,-138,115,-133,-242,-227,-22,-67,252,-63,216,198,-47,123,-215,78,-52,-178,-182,-83,86,-14,10,-107,58,-220,-292,-54,-231,93,-145,-235,33,-75,55,-287,-176,107,240,-194,-147,180,134,122,118,30,-254,179,189,-18,-304,24,191,-159,10,-17,-301,-239,256,30,54},
{154,135,141,254,141,-107,-88,-152,69,-99,207,-262,108,169,-88,-269,-5,240,-190,33,-179,-13,103,-242,271,50,303,99,110,-249,143,-32,-241,40,70,-252,-191,10,252,28,-178,-70,101,-121,46,-49,8,259,232,54,-176,-89,135,-262,159,-283,39,61,-212,-26,-24,84,-88,-276,-59,-166,95,134,109,3,60,198,-116,-256,104,-141,172,222,123,-99,161,112,-277,224,13,-71,59,267,272,138,226,283,188,249,276,166,-180,-75,219,20,-138,89,139,146,-68,140,188,-145,111,239,198,-57,37,-182,-156,-18,311,302,-122,-118,241,107,218,-145,152,61,8,-176,-67,266,31,-197,244,255,-166,-164,-246,42,147,-267,100,2,-240,-294,-16,118,-76,-7,-65,-246,140,268,64,-228,6,179,-276,13,124,14,225,12,22,-221,256,167,-257,-161,-93,-80,-225,72,157,-283,-243,271,-229,-168,76,254,285,-14,-83,-218,-280,-127,301,59,-204,211,-243,282},
{-181,223,169,65,-159,154,-36,29,-9,-267,3,227,119,23,-84,-29,172,-39,-49,-266,179,70,153,70,40,-119,81,-219,178,226,218,-200,140,68,-190,-64,-6,212,78,46,64,-270,-37,61,-116,210,-292,118,227,-171,123,-47,6,105,-7,-124,157,-263,219,198,146,194,-143,-99,-144,219,129,20,-54,131,-146,-67,-33,-136,-251,37,142,176,55,224,202,-259,291,-8,-254,202,182,166,-280,-240,-248,-32,-242,282,-17,-82,132,203,120,91,139,137,-39,-227,123,184,-156,21,84,-174,35,-89,103,-50,237,258,-267,37,-259,-15,-11,-7,76,-242,-259,203,-163,273,-95,254,-63,-37,-117,-40,164,247,-37,-98,31,18,-220,-89,93,-36,-178,169,-204,32,-244,31,-130,294,84,-289,-113,-65,156,-119,43,39,-230,24,-276,66,-98,23,-77,61,-235,287,-104,-85,-283,225,-254,-30,-264,1,-147,264,182,-284,131,-20,-137,104,279,-107,-51,65,-46,-238},
{133,-164,159,148,-11,-8,-84,-302,203,-8,-168,27,31,-37,260,-169,1,165,311,212,84,35,-78,145,120,151,181,89,-218,-66,-72,-34,277,203,111,-250,-247,-305,3,-283,54,123,199,90,-15,-58,220,-148,-153,52,-69,150,-234,-175,162,269,-4,-8,44,135,-138,266,178,196,-155,297,-17,11,-19,-96,118,59,-185,-173,65,37,262,122,-205,-237,187,48,-247,115,10,245,-120,169,74,188,178,-263,-128,-180,128,122,-30,-219,136,54,15,253,124,60,3,-249,-57,-183,-55,285,-239,-26,-45,147,5,-208,315,-135,29,141,-96,-173,-226,-69,76,-269,176,43,235,71,244,79,87,-193,21,104,-143,172,-39,179,-16,169,148,-211,-144,-118,-250,266,-254,221,-271,141,-68,273,-150,-197,-69,-62,284,-268,136,-165,34,-33,309,84,-223,51,-134,39,-31,-103,85,-237,-256,-254,-164,-16,-78,244,-62,-229,-141,-180,221,-209,309,-50,155,-166,-206,-64},
{-42,167,32,-124,145,169,81,261,286,-46,-158,-192,250,-76,-71,-64,237,-31,275,126,-145,264,116,-120,-121,116,-225,150,-206,-123,-80,-137,128,-190,-9,148,-203,246,169,-180,145,273,-235,26,95,288,20,252,-130,173,-183,-186,-11,-162,-206,209,-15,-122,203,1,-213,144,274,101,89,-269,52,6,-98,176,198,146,-202,-56,143,137,205,113,-51,-96,-256,-2,18,217,63,249,40,22,-93,-187,272,-258,-223,224,-170,-48,87,-231,4,-59,204,277,-192,123,53,180,7,-194,-155,-248,-151,144,123,66,248,0,161,-274,-53,166,-191,165,-41,51,86,198,76,64,128,-12,-158,198,9,-280,-169,97,-7,263,-39,60,6,-226,266,83,120,192,48,99,-192,233,-69,56,231,-149,-145,279,160,-258,-207,-27,-30,196,-56,291,227,-102,145,17,254,7,-3,44,179,182,277,-243,258,272,44,91,-138,261,20,203,-239,-283,251,-229,-249,-112,-1,-263},
{-127,214,-28,84,-94,-280,-125,268,281,243,-133,-203,181,-271,-205,17,-150,303,-78,279,-135,-219,-166,-139,-268,177,-206,134,-43,-79,77,-117,203,-282,-273,-7,274,11,-96,-165,-185,16,-134,184,122,-87,101,-209,-7,48,-78,177,-224,-258,46,-185,-150,-127,207,-40,288,-77,242,217,11,39,-85,208,174,126,39,181,29,-261,-142,135,-161,46,243,-66,74,-14,-105,262,-282,-230,-75,53,-149,-62,179,211,112,-210,205,181,-178,-33,248,241,-201,-115,298,-90,28,-261,214,205,123,242,24,-186,-161,-94,88,-191,80,177,48,272,-118,2,164,156,245,-98,290,-212,-26,255,258,-151,74,-127,258,167,-199,-227,-170,3,145,22,135,-49,-177,-73,-135,-43,261,174,-191,158,241,-257,-74,-109,197,-169,107,-228,-191,-145,-110,-175,163,79,14,6,-231,-79,-136,-134,-50,-282,-40,85,-148,-259,227,-228,-274,1,-204,-8,-292,77,-213,6,-86,-261,-59,-117},
{-115,101,175,238,271,-258,-272,-247,-64,-67,-271,-233,150,58,-21,-61,36,-114,183,-125,-239,65,220,226,-27,32,-106,303,4,-60,-220,-46,-85,-288,-76,-36,-247,22,-169,308,311,-19,-78,-105,168,-77,277,-280,262,204,228,-13,-237,-120,92,-26,-45,203,229,-234,73,143,300,-106,14,-35,-6,18,-97,-224,-159,157,-274,-207,286,-292,50,-154,103,200,197,284,98,259,14,-90,230,-46,-293,-192,166,204,-28,186,235,-170,-67,-216,-67,71,155,235,-33,187,250,-179,-217,191,-236,228,-256,71,155,-157,219,154,30,309,-47,128,107,96,-71,254,-274,-238,-85,124,-172,-262,-156,-126,-187,112,-228,-229,-75,-102,264,217,-224,-7,-164,39,0,-168,-167,-19,46,42,-242,85,-160,177,-14,298,22,97,-237,-194,-154,24,-34,-148,-293,-75,-113,-293,134,118,5,175,32,-256,207,169,109,164,-141,77,212,233,208,37,-107,129,-238,162,287,-129,102,125},
{-251,-68,-121,263,236,-57,72,136,-180,-268,62,111,189,97,-265,191,90,-74,-63,237,-122,-265,292,46,202,185,-153,-48,-32,69,223,185,93,49,-135,-194,-106,107,184,-49,-180,-78,-7,115,78,134,-47,-21,-79,276,-47,-225,32,-211,-11,234,-278,-221,-163,251,116,-103,-241,-79,-24,270,107,12,-173,199,242,-209,268,-1,154,21,145,-287,199,275,-240,68,-1,153,-37,-231,-80,-302,-138,275,-229,203,-231,221,235,-231,-47,-30,-283,232,137,-204,-194,246,31,31,-192,282,-275,-262,-295,-228,111,243,-50,-269,-236,82,-293,-243,-87,46,245,196,-38,-254,-136,-285,-18,85,22,107,-62,-292,239,46,92,19,-90,-186,-92,84,-83,11,-214,-39,101,48,-294,-287,240,145,134,-55,78,-157,17,-12,-225,174,-205,124,19,3,-65,202,242,-198,277,-128,-192,-179,-77,-83,37,-309,184,89,-139,-156,-247,-190,-230,32,260,-271,-85,81,62,-85,161,110},
{288,-57,-21,-86,294,51,-29,-161,-191,165,200,-205,-148,117,-112,-181,222,-126,-281,89,-81,11,216,-297,-39,11,-147,34,-223,-221,88,155,262,-290,-257,-277,-306,-90,43,-269,-220,90,163,-142,98,239,148,-288,210,-106,270,-136,-226,209,240,121,-162,235,-208,251,-169,-216,-197,49,60,120,-131,136,-212,-2,-98,-53,-246,-250,-104,27,-215,-66,120,148,195,-82,-119,-203,8,-158,206,-8,-170,276,20,-169,244,-275,-79,-273,-238,-88,222,70,-229,-168,155,-69,-278,93,5,101,190,-58,-234,183,-163,-172,-178,-6,286,56,-179,-47,20,-51,5,1,123,44,102,-252,-273,-193,13,-37,-42,-33,-142,-22,167,-66,-224,231,-239,236,-71,97,161,164,262,86,132,-187,77,-231,-143,-283,177,207,64,99,280,-39,173,-134,267,194,59,130,279,167,82,-106,-162,176,239,-17,142,-197,13,-145,-206,-266,-107,229,5,-76,-3,239,133,-87,74,-69,-181,281},
{-61,9,-192,102,153,-197,-289,89,218,132,-18,118,-174,-220,-260,-179,-223,-162,-147,251,-100,188,220,187,-253,-165,251,-216,158,-279,-288,199,5,-295,-114,109,105,43,69,179,-271,-78,-19,-19,-86,138,21,273,-102,198,223,251,-161,87,135,-161,-182,-74,20,-178,272,199,167,-237,267,-132,-6,-1,5,-161,-59,174,135,-156,-143,81,-81,-244,-108,-174,-264,220,-254,65,155,-77,-121,229,45,-114,-76,-296,-235,-143,37,26,-193,-243,-125,-260,93,218,100,-6,-37,-288,190,-75,-310,-261,275,163,-65,55,59,15,149,-52,-254,-184,-81,165,146,230,-161,-193,-237,-295,132,143,238,-292,198,272,75,162,-159,-16,-155,-146,274,-50,91,8,160,-292,-64,28,-18,209,18,146,140,-278,5,-120,270,-160,-13,63,162,125,94,-138,271,61,37,165,181,-18,270,-4,278,-77,-114,4,-135,-212,-211,-122,-90,138,-126,-32,191,-123,202,281,119,204,125,95},
{-112,-54,-26,-13,210,-86,-199,29,-249,136,93,-239,206,-231,86,-207,-52,28,14,-18,86,223,-22,-29,85,145,-87,-150,64,-218,253,185,-220,134,-255,-96,262,121,20,-113,15,-243,69,-233,-163,248,-247,67,-50,-267,151,-240,-53,62,-227,197,213,-195,-67,281,-143,-85,105,208,-39,-197,53,169,-236,267,-201,-23,-206,-212,204,188,67,90,-144,-23,-215,276,-260,-8,-121,35,-284,-197,-147,-20,43,-36,-160,-16,253,-143,-142,-230,-54,-281,89,235,115,-122,1,-116,43,146,-215,94,-95,-117,-107,237,3,134,151,-106,-258,-127,253,229,-175,-19,0,294,-175,123,161,-147,105,-151,181,-221,253,231,-239,134,-160,0,119,254,177,11,-282,-269,-279,-288,125,249,61,-260,-244,208,-167,-228,140,197,99,16,166,121,-287,216,91,12,154,71,-217,-190,163,-219,-9,-249,16,-182,-74,-41,-210,-258,230,150,-43,-80,-249,5,-278,-283,78,204,46,22},
{189,151,-197,-11,-96,-184,18,-179,50,-1,-298,238,-184,-8,-211,-15,158,-307,-112,-105,-46,-146,-114,290,25,-10,-137,-275,88,51,-232,-136,288,-232,85,-192,-238,270,266,127,184,-299,213,153,51,-155,-213,98,18,-243,249,-207,-277,249,-111,-269,238,274,-253,105,246,-178,-252,210,-190,220,118,233,83,-75,-102,-183,288,250,-238,177,209,-131,-74,-54,-122,58,-158,78,65,150,180,-130,255,-170,57,105,-129,238,-105,277,-187,131,12,226,33,-267,35,-28,-263,-48,278,143,203,32,207,307,-242,-201,-188,25,-117,-142,-218,-94,-205,-143,115,156,-203,-39,107,-113,52,155,180,-167,61,-91,-210,-114,-78,147,-45,272,81,-178,105,108,-235,-66,139,213,-13,52,-179,119,95,-28,19,-258,-210,-152,131,-257,-170,238,-289,-264,223,90,136,-129,-183,217,-75,234,-74,-237,-86,-60,242,-239,221,265,-73,-157,-278,98,-130,299,-226,-243,256,208,298,295},
{185,180,-105,34,-269,193,41,-227,-37,103,41,169,177,50,-287,-117,197,-261,171,-13,-244,-119,-262,268,-138,17,5,64,57,144,-284,284,-267,63,31,175,151,142,-208,-232,49,178,-99,-50,142,-251,-89,218,-105,-132,113,-294,-73,150,-147,15,-100,37,-99,193,-23,-23,-161,-270,91,85,-26,139,-224,-29,-18,218,99,127,-295,-185,-70,287,94,-256,-77,-67,10,54,-83,76,-68,201,-81,58,-146,-89,188,142,58,-203,40,220,47,256,94,141,-116,-275,-40,-103,-92,212,-133,-19,-150,-189,3,-193,93,49,-216,-214,-273,283,-232,-275,224,102,173,-264,-88,-39,29,143,-234,-280,-258,11,-255,-225,126,149,172,68,218,-15,2,-190,-244,286,-272,133,-56,172,-266,271,49,-172,223,-198,-169,-8,-262,-76,120,-52,6,-183,80,141,198,-228,-51,-43,-147,-125,-185,-184,-210,195,126,178,-89,117,135,-66,-259,242,26,92,-154,-143,15,43,145,253},
{-178,-46,70,216,119,90,155,283,46,191,-256,-3,-115,-122,-32,-212,215,178,117,-266,-193,228,-2,220,166,119,-28,-216,53,-188,-81,73,220,216,-204,50,243,-56,-150,-133,112,142,-107,81,135,188,-127,-150,-160,280,165,65,166,-120,-188,232,-57,-229,-139,14,167,3,10,132,213,234,-278,-12,250,299,-53,-228,111,118,273,127,-250,-247,-122,-9,-158,-203,34,296,-129,-31,-229,0,-7,-57,154,-6,256,-265,14,213,-18,259,210,-206,269,-202,261,192,200,133,-162,276,-36,22,206,206,3,211,182,-161,2,-115,240,25,309,188,-236,246,262,-247,-234,-198,-99,-19,-9,-136,13,-58,141,-101,166,-145,-274,-212,37,-94,-196,54,187,-265,-31,280,-290,207,156,-201,144,72,175,70,-53,210,-132,34,237,-183,-239,70,109,-118,-140,203,121,304,-70,-279,-225,274,-218,-12,-269,-164,221,220,-153,78,143,-133,291,73,138,-57,-277,9,120,292},
{-261,-192,0,233,-163,93,-109,-7,43,125,-240,-15,188,-232,193,12,-16,-183,272,272,-239,-80,-187,33,-130,-56,-42,46,-294,-269,-274,236,255,278,-107,222,16,-194,-102,-114,-298,214,-34,104,-29,195,-253,224,0,-59,79,-116,91,153,4,112,-67,10,-205,-98,-239,-143,176,186,158,-42,-117,-41,-201,-103,-204,-258,132,134,-17,-265,-158,-162,87,-273,43,220,0,-294,50,-194,-294,-163,173,59,268,-15,213,-63,4,-98,24,-22,-171,-109,-188,-263,163,72,-177,-104,20,-69,161,159,5,-160,-249,270,-303,-128,-269,-304,-299,-149,-58,-48,-188,-22,220,-121,105,248,82,-296,207,7,22,99,204,26,-198,94,-221,99,159,195,21,-188,-229,95,123,-210,184,-38,-107,4,-156,144,151,249,56,-43,265,-269,-45,-261,-86,-134,-139,269,-232,-41,-95,-125,-214,74,-17,-273,70,239,113,-117,65,223,-260,247,106,67,274,277,280,61,-4,177,-277,-297},
{-13,83,-5,277,-77,-293,-10,-52,262,171,-180,203,122,11,-275,-271,-235,183,-297,-148,213,-239,109,309,141,-27,129,298,114,-115,278,-163,-276,-130,48,-64,-150,159,152,61,243,-219,-266,-75,-222,26,-169,115,296,282,273,132,-146,-9,280,-25,-49,-292,-74,-185,79,237,123,44,-166,-72,-230,168,109,0,-110,-282,139,-104,-173,-141,268,-261,-218,-212,102,255,245,-126,-274,258,-291,-102,91,193,140,68,-34,-33,180,233,-167,-269,-143,37,55,-61,-139,-195,-270,186,-170,-118,208,167,-88,270,-22,-242,195,-136,-131,128,-270,-228,-119,192,-246,144,-271,156,-156,190,-262,-105,-59,207,-1,-38,-190,285,225,159,211,-34,201,-311,287,-81,56,194,67,49,-273,235,75,-165,23,-142,93,-184,-62,-117,276,62,-100,177,111,18,-161,-141,-76,218,289,254,166,-109,-79,-51,8,-295,-72,218,-62,-60,-131,-87,45,73,51,213,-137,126,50,112,261,171},}