0.17691493,-0.14732558,0.25954366,0.21536055,0.19633628,0.16951545,-0.3171937,0.31782424,-0.30608666,-0.27365577,-0.19416294,0.33163685,-0.15439616,0.31178308,0.289492,0.2762254,0.3333805,0.19873667,0.20937654,0.17453696,0.18669838,-0.07969041,0.23158123,0.061230436,-0.32383925,0.17449583,0.09207876,-0.012479253,-0.17337762,0.09682168,-0.053793803,-0.15225813,-0.18541972,0.1891107,-0.2859468,-0.03453522,0.048933398,-0.14128889,0.107336745,0.15316264,0.21181999,0.054665048,-0.29226324,-0.29508224,-0.025980942,0.24017851,-0.31643182,-0.14319134
0.29401898,0.19019139,0.3208485,-0.15169011,0.29988307,-0.28540003,0.17488101,0.29860833,-0.06684611,-0.013086038,0.15494725,0.070001304,-0.082467705,0.12994593,-0.08412917,0.2165536,-0.052873563,0.3484351,0.07372244,0.087832764,0.112378746,0.17038609,-0.13675375,0.03604749,0.30623367,-0.30117542,-0.0018976995,-0.096371196,-0.18171939,-0.0072188233,-0.24891488,-0.33153355,0.09259481,-0.26417854,-0.36349973,-0.25747675,0.32093546,-0.05525885,-0.13573685,0.30941844,-0.21607952,0.052807897,-0.29532585,0.22170995,0.046221964,-0.18685794,-0.3063885,-0.36306372
-0.19821069,0.108755514,-0.30865046,0.23456557,-0.06548398,0.31480792,-0.27530372,0.20544256,-0.2935534,0.05113539,0.31956264,0.12297376,-0.27364928,-0.10367956,-0.13249253,0.24192815,-0.12925208,0.31927004,0.12536399,0.3117615,0.11595607,0.31589437,0.007973327,0.23575622,-0.1230624,-0.2655691,-0.080865994,-0.12281866,-0.24762389,-0.13338517,0.21006304,-0.10130954,0.05886794,0.25888887,-0.028502814,-0.33680698,-0.1623849,0.13562314,-0.19586644,0.2910483,0.2408038,-0.36220124,0.19976805,-0.1811959,0.27872124,0.11958961,-0.16198821,0.24209066
-0.2777215,0.30263394,-0.26184577,-0.33968902,0.2593633,0.07893878,-0.2776603,-0.33565193,0.18393351,-0.2690858,0.27127546,0.30664283,0.12619576,0.20475776,0.036908492,-0.21803287,0.2827885,0.14231202,-0.19272928,-0.20485824,0.30913952,0.29394165,0.29424158,0.18831848,-0.14442073,0.010816543,0.08805399,0.2451423,0.020396566,0.1228383,-0.27635977,0.19851652,0.28193286,-0.32538155,0.09330956,0.08795522,-0.09171638,0.15690562,-0.3284993,-0.26477432,-0.13544145,-0.098275565,0.2633095,-0.04723513,-0.24839348,-0.35066447,-0.025906872,0.16864464
