-0.1918483,0.04319824,0.09288132,0.10148338,0.03474249,-0.03788129,0.090418205,0.23296048,0.014099749,-0.11641554,0.13331781,0.15320654,0.0641377,-0.060376253,-0.023861896,0.02931906,-0.13035183,0.0057068765,-0.0020864387,-0.1614284,-0.0065640965,-0.19074157,-0.17567775,0.04503611,0.23407365,-0.17361538,0.04279173,0.07756158,0.105274335,0.04361704,0.064045906,-0.031673975,-0.11836367,0.109502606,0.26183137,-0.0025421008,-0.12027359,0.2476139,0.057713415,0.019765176,0.15884873,-0.049621698,0.093712285,0.09213764,-0.08480162,-0.2243306,0.09740999,0.18284254,-0.15778333,0.0036905452,0.21105199,-0.06946415,0.037575,-0.04338957,-0.019119624,0.05290091,0.077032164,-0.15340337,0.08470094,-0.00052347925,-0.1015854,-0.0447793,0.07587051,0.19911364,0.087389,-0.13424839,-0.23394006,0.025665458,-0.0020942253,0.098699264,-0.24607575,0.23662016,0.025072696,0.17659442,-0.15870105,-0.20811911,-0.11873378,0.21699463,-0.075197555,0.11566762,-0.09337691,-0.10098669,0.048987083,-0.052809596,0.21653838,0.24001224,0.024565399,-0.21794614,0.2098914,0.10230522,0.10911607,-0.057831027,0.07151684,-0.12411355,0.1107522,0.058554336
0.1637569,0.18382774,0.09402658,-0.0067993803,0.004065464,0.22576699,0.23245019,-0.050744575,-0.053444207,-0.19053043,0.105664015,-0.07216981,-0.012980255,-0.017448062,-0.07131912,1.4652927e-05,0.22657554,-0.19272232,0.1631847,0.17691487,0.2523452,0.014462246,-0.11643318,-0.011994898,-0.0443285,-0.061304208,0.08105579,0.2181445,0.14371707,-0.001289207,0.16119277,-0.12020933,-0.08418939,0.14187971,-0.04076785,0.16986275,-0.03917292,-0.16587748,-0.14769934,-0.15684704,-0.05861273,0.21869232,-0.008023684,-0.045595605,-0.038670935,-0.10399127,0.05031706,0.15405077,-0.14084184,0.15754142,0.049392197,0.15881078,-0.076382674,0.15164086,0.17745341,0.019555293,-0.21123226,0.1026999,-0.0013791514,0.16662073,-0.14393152,-0.15977986,-0.04214509,0.0957583,0.20685203,0.022564765,0.153617,-0.06035148,0.111601695,-0.03035058,0.072538294,-0.044889282,0.21673591,-0.16563585,0.23640049,0.1523863,-0.09154126,0.21340382,-0.087553315,0.062394477,-0.22197424,0.15287063,0.054772653,-0.033524867,0.09351688,0.08591388,0.09119978,-0.07852706,0.19709112,-0.15632331,-0.13688037,0.11051807,0.12950152,-0.1219016,-0.0039487677,-0.016354553
0.01571059,-0.02506853,0.029077748,-0.01862209,-0.08548284,0.10781441,0.053305995,0.23234864,-0.15389714,0.08667316,0.09055899,0.2354154,-0.21534522,-0.07451758,0.22795776,-0.0844004,-0.009258796,0.01943156,0.20164065,0.24504103,-0.034683693,0.19396172,0.013362572,0.05816858,-0.08483971,0.14144155,0.24286874,-0.28263754,-0.09998106,0.14088893,0.007469451,-0.2045677,0.10313111,-0.1256823,0.2647004,0.048990782,0.04120331,0.028911065,-0.09863553,0.16347153,-0.1893144,-0.2330932,-0.062206876,0.24725273,-0.018485218,-0.057865754,-0.08275866,-0.07443291,-0.07451279,-0.054779418,-0.083214894,0.016674278,0.017158555,0.14901216,0.0773147,0.029785858,0.11497355,0.2361013,0.006674473,0.12802534,-0.2082832,-0.14359999,-0.2822208,-0.12577932,-0.10887088,-0.24030939,0.21641931,-0.15407027,0.077529736,0.20662408,-0.044912737,-0.16123997,0.017893357,-0.10964716,-0.21549724,-0.19149598,0.1887393,-0.24049531,-0.10352859,-0.0035709655,-0.0071134022,-0.12781909,-0.011442218,-0.15350777,0.18897296,0.06343819,0.13771303,0.037456334,0.18222028,0.04199132,0.1766615,0.042883553,-0.12021496,-0.2363058,0.050769094,-0.20243436
-0.067438886,0.11478002,-0.03566381,0.087807685,0.08708218,-0.13151877,-0.10169466,-0.20494513,-0.105585895,0.05375793,0.25293145,-0.0035863805,0.14792123,0.27406964,0.010651666,0.039345954,0.18127343,-0.08190725,0.13527177,0.0663382,-0.033955082,-0.06336701,0.09730698,0.13415599,-0.179212,0.24942486,-0.048163567,-0.11358077,-0.06579226,0.12765732,-0.02783685,0.08170496,-0.096635625,0.19074084,0.03311007,-0.099785715,-0.11594921,0.053665046,-0.10164046,-0.0727145,0.06651551,0.085074134,0.21064126,-0.14660063,0.22028968,0.06430516,-0.06822944,-0.013749755,0.09262082,-0.036000174,0.08121032,0.03314665,0.0053157965,0.11765986,0.25638705,0.031095838,-0.07777736,-0.15369795,0.2532137,-0.07147166,-0.109075345,0.018118715,0.08491391,-0.15464488,-0.03759288,0.23280585,-0.06934561,-0.13684939,-0.027654521,-0.115677305,-0.11062736,0.008691979,-0.115193754,-0.053494703,-0.0725268,0.17267807,-0.1643321,0.092332564,-0.038313262,-0.11073897,0.19547659,0.04416588,0.23630516,0.21568745,0.020485874,0.0964358,0.05672364,0.059803605,-0.119599625,-0.15163016,0.056956217,0.11195056,0.074857704,0.12440857,0.11709856,0.12435255
-0.12374478,0.033188425,-0.06237239,0.17003547,0.22541498,-0.14412001,-0.15694684,-0.07074549,0.06551739,-0.014156489,-0.083316155,-0.04874641,-0.17817257,-0.28094786,0.051522914,0.048451554,0.15386179,0.18006207,0.09864843,-0.015307545,0.09542595,-0.058222167,-0.19968225,-0.10876588,0.178416,0.17864455,-0.12368654,-0.103469774,0.24177253,0.10983555,-0.06969156,-0.10396612,0.13827509,0.1517934,0.19916892,-0.21292862,-0.14648592,-0.14556086,-0.060408298,-0.025029713,-0.0704267,0.0859821,0.000688928,0.050978895,0.0684687,-0.055773165,0.095301576,0.15012094,0.079818904,-0.11090106,-0.11779587,0.14624001,0.17464726,0.026677655,-0.2571746,0.16449614,0.22619928,0.12406939,-0.11484831,-0.14151284,-0.12729657,0.24123502,0.02174849,-0.12288572,-0.12546521,0.05006702,0.0030067195,-0.18306398,-0.04149868,0.047860198,-0.1935934,-0.021755366,-0.20104489,-0.034025546,0.06515184,-0.2285263,0.23648356,-0.011708356,0.11529234,-0.076935604,0.13098422,0.120303795,-0.114814095,-0.17343085,0.15697274,-0.21048672,-0.21386695,0.12411119,-0.022097493,0.18012598,0.0945852,-0.041551214,-0.07598787,0.058082704,-0.1323356,-0.2170167
-0.08515134,0.17095801,0.10207169,0.1476259,0.175587,-0.09587208,0.11000535,0.108859494,-0.07876998,-0.18280773,-0.00682328,-0.011869146,-0.07348684,0.08676483,-0.18950254,0.05913362,0.0472522,0.06127728,0.09344757,-0.21482717,-0.09693195,0.13606207,-0.08721091,-0.034610346,-0.05140828,0.067436606,0.051165503,-0.031841565,-0.11040087,-0.031264283,0.04271985,-0.11958186,0.098062426,-0.009966427,0.16005428,0.13870867,0.024115581,0.09609318,-0.037770785,0.14316016,0.19227201,0.15844725,0.17082556,0.16129243,-0.0063889865,-0.19228254,-0.123446696,-0.06262763,0.08088831,0.07978023,0.10512271,-0.08605194,-0.22889833,-0.18276083,0.093682,0.2172837,0.17083776,-0.10465714,0.2034602,0.09942257,0.0504097,0.08915749,0.12616715,0.15433662,-0.002755771,0.13240848,0.041177537,0.22637138,0.13281569,0.17347077,-0.12809427,0.25076747,0.0742567,0.2146179,0.16612719,-0.1556314,0.13600212,-0.026829466,0.08153036,0.09603895,0.11847688,0.0027355389,0.11881931,0.15145472,-0.0781664,-0.1232806,-0.11947618,-0.09047563,0.1081449,0.11613155,-0.21137147,-0.17381606,-0.19632274,-0.12983458,-0.20761015,-0.08796959
-0.18514961,0.12642436,0.12322684,0.13838723,-0.22282994,-0.17004351,-0.09584286,0.08298093,-0.036002304,-0.13924354,0.17820407,-0.14943251,-0.02829388,0.15458585,0.026098099,-0.15289399,-0.062131926,-0.15748236,0.17224596,-0.12018933,0.06676502,-0.0705767,0.040358875,0.0061369278,0.08878737,0.02624979,0.13593012,0.043896217,-0.1643361,-0.07762469,0.13445696,-0.02834542,0.037224382,-0.18628223,-0.0723274,-0.13214092,-0.09443362,0.17628567,0.054412734,-0.17643972,0.13177067,0.15885264,0.06598547,-0.13482402,0.14001782,-0.1466381,-0.08672683,-0.04289412,0.09950149,-0.15411174,-0.16671975,-0.0041301916,-0.14221074,0.13022712,-0.185082,-0.009125052,-0.19955352,-0.16487479,-0.056401543,-0.20090802,-0.16185507,-0.12716676,-0.10389343,0.0877011,-0.17980552,-0.08451293,0.054415405,-0.08882526,-0.15352413,-0.021435222,0.0017953462,-0.031855937,0.08151632,-0.036731914,0.039782606,-0.095334224,-0.19020547,0.00070566585,-0.049781784,0.06653814,0.1309156,-0.1140803,-0.14481477,0.098611355,-0.07500521,0.025627518,0.072826736,-0.1800911,-0.13193735,0.03848451,0.15915312,-0.069272965,0.043916658,0.10107618,-0.09339239,-0.07217042
0.010195459,0.18221773,-0.0119394595,0.14875631,0.11683322,-0.111917116,-0.01694806,0.031337094,-0.1320955,-0.11727523,0.16375574,-0.037081286,-0.07958918,0.036379926,-0.08501622,0.059263777,0.09125146,0.026427992,0.14356855,0.0064537027,0.19608146,0.15893582,-0.12188764,0.2308957,-0.1412448,-0.18790366,-0.17513485,0.017092979,0.0123984115,0.082423925,-0.04033602,0.12899368,-0.07807311,-0.12034275,0.011442651,0.17789373,-0.11246259,0.048747282,-0.05025888,0.0778188,-0.057372764,0.20568362,0.09923625,-0.12173513,0.15255663,0.093509406,0.11318494,0.24918832,0.14406744,0.26973307,0.03214873,-0.121326566,0.15746084,-0.11946513,-0.016341357,-0.07963723,0.04096469,0.078695185,-0.016441606,0.073762454,0.08983573,-0.11189418,-0.11811385,0.2698745,0.14560898,0.05353376,0.0048616105,-0.09634214,-0.03408468,-0.09405725,0.1642395,0.13881376,-0.08063645,0.17246675,-0.10857241,0.25894216,0.00063337537,0.20608874,-0.11438113,0.037898388,0.03620092,-0.05926352,-0.08930733,0.20671903,0.10358173,0.17824848,-0.058895595,-0.043021224,-0.14722842,-0.2543525,-0.05506387,0.13723056,-0.16945055,0.041900195,0.24638312,0.03550346
-0.059239455,0.20815304,0.2033678,-0.02229131,-0.17142697,-0.1143103,0.22972952,0.06705326,0.033607677,0.10901828,0.16495949,0.15400764,0.08543409,-0.019072736,-0.0026049048,-0.124287926,-0.07719067,-0.17307773,0.07099303,0.082430825,0.05651077,0.19519833,-0.011021649,0.16824026,0.15665236,0.028921282,0.06867036,-0.070320584,-0.12337454,0.1688605,0.107022315,0.10426666,-0.11349302,0.1454669,-0.07920372,0.15144894,0.23945414,0.1306545,0.2308306,-0.06513376,-0.06965347,0.14740372,-0.12662683,-0.14269802,0.012973455,-0.07699544,-0.036877852,-0.13110827,0.013135699,-0.11918067,0.2775539,-0.16221501,-0.14837365,0.22784398,-0.07251427,0.09233158,0.25603676,0.0036480227,0.22037643,0.23658736,-0.16381988,-0.09441109,0.18029772,0.022290546,-0.00011471237,-0.12732854,0.04923965,-0.018095901,-0.20615494,0.046913978,0.13481715,0.1004195,0.1865713,-0.090409085,-0.03492495,0.14184979,0.050539665,0.20017777,0.17204684,0.20876446,0.005653143,-0.054483864,-0.12527433,0.16167797,-0.11936233,-0.0536606,0.14395168,0.021536276,-0.0494726,0.07037977,0.13997602,-0.1460074,0.17693236,0.17019308,-0.0068561076,0.19330604
-0.19563834,-0.019934727,-0.1250327,-0.055349723,-0.10579182,-0.07535664,0.21245725,-0.11601393,0.11942959,0.12543465,-0.06371282,0.1652238,-0.13135117,0.15213,0.15820636,0.1946049,0.18399774,0.09291146,0.13652836,0.063785866,0.19860208,-0.06103729,0.16826226,0.22155173,0.032366656,-0.15062688,-0.096980914,0.055828575,0.10764193,0.15186338,0.22380733,-0.018387187,0.17551191,0.050448265,0.03899108,-0.14546649,0.0029110934,-0.011734498,0.027760832,0.015068898,-0.005874711,0.08333506,0.101729624,0.070083216,-0.04071199,0.038382538,-0.22144316,0.03044086,0.21178825,0.0493831,0.17028521,-0.1170432,-0.0915877,0.09067342,0.21030873,-0.08784725,-0.1786882,0.09611087,-0.06440875,-0.12958093,0.04704317,-0.012883106,-0.14376858,0.1898696,-0.02185139,0.08543427,-0.060373772,0.14715542,0.068907894,-0.016325558,0.19322044,-0.0055851387,0.18734118,-0.01278011,-0.07597337,0.18534747,-0.0025834762,0.14935972,-0.013122339,-0.16508819,-0.08679382,0.04784615,0.13151784,0.15946792,-0.033283707,-0.02865214,0.14525808,0.09266135,-0.041812837,0.123984456,-0.12422276,0.14211388,0.021627074,0.034636203,-0.13270624,0.257832
0.021768268,0.1973104,0.12334887,0.08770519,0.17897646,-0.02081784,-0.16461636,-0.10468635,-0.045959663,0.2263708,0.039927453,-0.074958816,0.02425657,-0.01158682,0.1082552,-0.010621405,-0.13488226,0.23318893,-0.016475016,0.1570944,-0.12587078,0.23515452,-0.005778247,-0.053520672,0.12747549,-0.034874417,0.22554705,0.17369626,0.2088153,0.10698024,-0.15962112,-0.0949652,-0.15406737,0.0654447,0.15634225,0.13313478,0.07804739,-0.12948947,-0.14282937,0.111253425,0.17288864,0.13327497,-0.09765599,0.2087928,0.1641651,-0.0042266427,-0.036550827,0.09350887,-0.014180761,0.022139478,-0.013009728,-0.010443661,0.15116653,-0.10749361,0.044582732,-0.03385511,-0.08259419,0.22928204,-0.05923371,0.048587125,-0.12238638,-0.14039667,0.06869606,-0.1637616,-0.10424811,0.033518106,-0.030447083,0.063882925,0.075101234,0.06637908,0.15979156,0.20563741,0.14773664,-0.09919267,-0.13892636,-0.026190184,-0.15501301,-0.17998226,0.16354494,-0.16223867,-0.1258012,0.13906933,0.22415234,0.10615039,0.21343881,-0.10001267,-0.09362553,0.17917527,0.0818176,-0.08733949,-0.04679886,-0.0983874,0.10277466,-0.18227233,-0.1788089,0.16784951
-0.03275866,0.020989632,0.022938492,-0.037902176,0.024903359,-0.0486897,-0.03572648,0.15045206,-0.13553135,0.10656101,0.20281112,0.118868016,0.027854044,0.04663424,-0.106984414,-0.14637505,0.0634372,0.14434826,0.08757253,-0.16937287,0.13020205,0.18590385,-0.2563191,-0.0942518,0.16472733,0.21911435,-0.14158055,0.2144847,-0.21479048,0.036203653,0.11575069,0.16680348,0.087805524,0.13841276,-0.23523377,0.23313925,-0.035441983,-0.11963778,0.09450182,0.054656286,-0.10638311,-0.1692644,0.091360256,0.095279805,0.09375297,0.18674071,0.04997057,0.0522199,-0.1509045,0.14129299,-0.10918545,-0.13392396,0.14616694,-0.0842018,0.13866484,-0.22890703,-0.07389547,-0.20402317,-0.1567613,0.1343952,0.14670326,-0.010521689,-0.10312155,0.00059876346,-0.1869564,0.004271271,0.08683436,0.20897421,-0.015472383,-0.19483832,0.017290603,-0.0023688888,0.1766162,-0.13691664,0.06448069,0.0845623,-0.08369612,0.2054075,0.20594265,-0.12534882,-0.16259548,0.17110264,-0.16246146,0.102878995,0.005281711,-0.12005402,-0.1338502,0.19758561,0.123606436,0.055249624,0.10391292,-0.03731942,-0.13315666,-0.07636035,0.03614679,0.07092467
-0.16304769,-0.09151912,0.16704802,0.10983297,0.17085575,0.15856674,0.20527296,-0.14593764,-0.02541428,0.12178837,0.017865786,0.11619445,0.118474625,-0.059854843,0.18723015,0.033047996,0.141237,-0.16295494,0.0285138,-0.07141959,0.20321201,-0.19739532,-0.12224985,0.1346003,-0.16832557,0.033703312,-0.007503531,-0.1090575,0.17261402,0.16943146,0.20399673,0.18948497,0.16786641,-0.13582367,0.039226443,0.025706183,0.051363967,-0.033195917,-0.16309299,-0.13313042,-0.15443423,-0.13001971,-0.1528757,-0.15905376,0.097485214,-0.09504977,-0.08871063,-0.10296629,-0.017444817,0.10852726,0.10499316,0.2037927,-0.16191497,0.06648447,0.15470943,-0.0749125,-0.16753548,-0.023769446,0.12412566,-0.042967007,0.04690915,0.046403088,-0.112560295,0.166475,-0.051092245,0.17936955,-0.054977942,0.08156776,-0.13583621,0.025991017,0.017085597,-0.15590794,-0.030973071,0.06829295,-0.09898591,0.068841204,-0.13030483,-0.014489338,0.09519464,0.056184173,-0.13682821,0.081824474,-0.10600705,0.03366074,0.07738266,-0.08841974,0.085222825,0.110670514,-0.056442194,-0.12897886,0.15132633,-0.0040841983,0.019422663,0.05846491,0.11227865,-0.12617466
-0.027823344,0.091085024,0.2586694,-0.10500849,-0.19567348,0.03389475,-0.13078845,0.06595273,-0.18905935,-0.0038135524,0.117192194,-0.016734948,0.09177872,-0.018288601,0.15285109,0.17860767,-0.12623543,0.14186184,-0.13861181,0.0054485537,0.05413349,0.050642297,-0.14411077,-0.06735605,-0.011909563,0.008630521,-0.046476837,0.0461144,0.16591036,-0.008002041,0.18316963,-0.06834407,0.035860244,0.028926928,0.15561275,-0.01699403,-0.13470683,0.19913468,-0.22008085,0.035170697,0.14383999,0.08518561,0.124770105,-0.13419448,0.07836161,-0.0866741,0.16135964,0.07245978,-0.1867446,-0.04800774,0.14034139,-0.18621421,-0.008250396,0.14536056,-0.033349764,-0.005294101,0.06388797,-0.0721941,-0.13777703,-0.04586177,0.23750867,0.062290348,0.11649376,0.046192013,-0.039421063,-0.15684563,-0.15921192,0.19295973,-0.083585896,-0.20978774,-0.084566884,0.13672423,-0.17754303,-0.14589384,0.0049749212,0.16406764,-0.0063958983,-0.08857208,-0.12178357,-0.009377108,-0.085001305,-0.10909784,-0.20077388,-0.020349445,-0.19090924,-0.03669415,-0.18647099,0.16939075,-0.2105125,-0.10674672,0.11883509,0.1896345,0.11516393,-0.16424301,-0.12959383,-0.15699364
0.134324,0.17836085,0.040034503,-0.19884086,0.21595167,0.0222094,0.10260278,-0.00811444,-0.2275266,-0.0871633,0.23876771,0.09725811,-0.07928499,0.24634075,0.083867736,0.0015933013,-0.12003405,-0.0533536,-0.11863582,-0.10513201,-0.019118082,-0.1496824,-0.23282135,0.13209537,0.025177613,0.09701445,-0.08488674,0.098213606,0.035532184,-0.12617762,0.24741884,0.2508829,-0.1165208,-0.1183238,-0.2298476,0.16419137,0.1375595,-0.19004196,-0.118879475,-0.006236041,0.10634197,0.15504712,0.033619,0.09367426,0.13775988,0.095462024,-0.010685893,-0.1320855,0.022044366,0.21526065,-0.040463857,-0.19730413,0.06256293,0.13250127,-0.04279752,0.010615922,-0.24932049,0.027095256,0.011039652,-0.11191394,0.02859869,0.0026717943,0.0039845193,-0.16452746,0.12825492,-0.15293187,0.00074632023,0.1595996,0.0390074,0.048055883,0.052647844,0.0038152179,0.22283804,0.11232339,0.214385,-0.084017366,-0.02901984,-0.13729984,0.20795749,0.0024571181,0.12257146,-0.11166215,-0.16428354,-0.14420974,0.027532924,-0.06819014,-0.15008307,-0.10730212,0.07444935,0.1773525,-0.07925739,0.23778778,-0.1892857,0.22571902,0.093897894,-0.18271847
0.15987672,-0.09361118,0.06062838,0.07519817,0.027651148,-0.21056081,0.03294499,-0.057685103,0.055490162,0.026836092,-0.12748289,-0.08371658,-0.17092593,0.11692973,-0.1265135,0.15335098,0.109625734,-0.0028315708,0.04995082,0.0069543608,0.11467179,-0.030062793,-0.16300091,-0.03892778,-0.11069829,0.12544517,0.21249077,0.0940033,0.21153462,0.062057327,-0.059656214,0.085616454,0.2002941,0.14832015,0.024741028,0.1884684,-0.16752315,-0.1425407,-0.11821246,0.07907768,-0.025615534,-0.049780656,0.00044502266,-0.1313485,0.0953693,0.07463741,0.050503086,-0.026676701,-0.08987814,-0.16222304,-0.025061158,-0.1489158,0.23308031,0.10806306,-0.037415892,-0.15730031,-0.14285383,0.02366923,0.07242755,-0.08705857,-0.08190282,-0.09165387,0.21062149,-0.20105776,0.19811982,0.16850038,-0.14754833,-0.005594015,0.20046881,-0.12995186,0.19870606,-0.11431833,0.08778721,0.083659634,-0.11754277,-0.052435644,0.081491604,-0.068347186,0.18470861,0.05556201,0.16430864,-0.02598927,0.1535864,-0.019372875,-0.0903314,-0.20680696,-0.023463309,0.23514087,0.21572155,-0.13033861,0.19986229,0.16056745,0.15506433,-0.005959414,-0.016171573,0.031398967
0.24044055,-0.08384162,0.0055676727,-0.09260742,0.01509059,-0.24627869,-0.040950805,0.097239,-0.059685033,-0.031126646,0.14563313,-0.014081688,0.027147371,-0.12050459,-0.07613989,0.098218046,0.18650132,0.06698997,-0.015767157,0.23818883,-0.03423571,0.22915725,0.08690556,-0.16690768,-0.12446329,-0.0056110653,0.15804484,0.023683129,0.05151165,-0.2041833,0.19765471,0.11470069,0.036229126,-0.05915855,0.10685171,0.16722907,-0.20159706,0.045299105,-0.07020883,0.14822632,0.13723318,0.034323998,0.07543601,0.016832976,0.045621827,0.17512636,-0.04071151,-0.037146978,-0.13932943,0.16368535,0.10683146,-0.1493568,0.109730035,0.17277408,-0.007843705,-0.17014363,-0.13445565,0.21784382,-0.00453041,-0.2401903,-0.12717894,-0.13200909,0.12410867,-0.058974843,-0.10500386,0.14379591,-0.13632287,-0.13354136,0.09943003,-0.09338105,0.083238415,-0.16025765,0.21833162,0.06774149,-0.046164535,-0.13918921,0.10732591,-0.020953571,0.08772889,-0.0394527,0.06439581,0.03206247,-0.03982087,-0.053508524,0.19147481,-0.12520252,-0.09834218,0.12570879,-0.09141528,-0.16719781,-0.056910012,0.11292805,-0.06050909,-0.06951211,-0.17243862,-0.14231582
-0.024833461,-0.13289799,0.11420501,-0.08988786,-0.05930667,-0.066299185,-0.08918202,-0.10610068,-0.11362915,-0.08464208,-0.048103422,0.029990636,0.08606759,0.015833896,-0.15765186,-0.10948498,-0.07519247,-0.18545765,-0.20518817,-0.10237923,-0.1728342,0.05235722,-0.1214981,-0.13682407,-0.018312866,0.1224669,0.041003607,0.09176951,0.011662253,-0.17003006,-0.07495962,-0.14649194,-0.041962124,-0.20362513,-0.0016758176,0.07415287,0.122298926,0.019808441,0.012611854,-0.1895662,-0.07113766,-0.17652483,0.16988312,0.11106028,-0.14750221,-0.20878807,-0.08069479,0.12334806,0.08555645,0.022301765,0.09390102,-0.09544978,-0.18519302,0.15869479,0.028195025,-0.11936459,-0.02474182,0.068187095,0.03576403,0.04200222,0.025509171,-0.15605791,0.016038435,0.037520673,-0.10470569,0.18323079,-0.0939406,-0.10701883,0.034464538,-0.15575776,0.13767014,-0.21962228,-0.05324838,-0.046342727,0.12788436,0.14036283,-0.061897058,-0.086659424,-0.19842294,0.09928772,0.10402828,0.069579005,0.12534265,-0.06526253,0.16924325,0.05869474,-0.22086868,-0.049123712,0.074303605,-0.05008023,0.06781182,0.08746245,0.056955483,0.06189047,-0.20620908,0.0808101
0.09768044,-0.1894932,-0.06861334,0.11418583,0.24633452,0.051385377,-0.19850671,0.17934936,0.06949614,0.08354217,-0.10681268,-0.064881496,-0.18997684,-0.07300322,-0.07566119,0.11732982,-0.08261524,0.055382986,-0.025100367,-0.0952908,0.14591081,0.10829571,-0.08422292,-0.22975522,0.06231267,-0.044619884,-0.11469218,-0.1409431,0.0062089977,-0.049333334,0.0738227,-0.037524164,0.15854871,0.10950865,-0.05542284,0.15063839,0.06308138,0.13129818,0.2062734,0.08528139,0.2289633,-0.048497897,0.005841634,0.09264003,0.0830941,0.04565831,0.19621542,-0.06478913,0.06921209,0.11469527,0.082855076,0.049764544,0.07339681,-0.1156055,0.02717495,-0.16922802,0.16216646,0.20394422,-0.16724718,0.13202323,0.07874451,0.19842267,0.18033889,0.060887787,0.02682338,-0.07189849,-0.033517502,-0.17950371,-0.007483933,-0.09324161,-0.036972575,0.15122408,-0.18329078,0.080335885,0.00283857,0.040632285,0.089134574,-0.170805,0.055084337,0.13616781,0.018189855,0.15743174,0.01565367,-0.1265197,0.17232047,-0.2130483,-0.006637254,-0.008230029,0.15417843,-0.11846658,-0.12886627,0.08403014,-0.083959244,-0.02922551,-0.14750889,-0.16052681
0.0059099463,0.023014156,0.05854109,0.21646129,0.021142151,0.17929499,0.17575341,0.049767107,-0.11139743,-0.1334846,0.08877587,0.2241182,0.172154,-0.059757333,0.01505448,0.17142186,0.047613572,0.026716113,0.23702115,-0.10209133,0.05963579,-0.14864959,0.03945436,0.02694276,0.1523798,0.10872989,0.17861111,-0.047925852,0.22460164,0.22704256,-0.1243433,0.015592042,0.17142034,-0.19252622,0.17510608,-0.11801718,0.14003097,0.17935239,0.17326534,-0.0881988,-0.19228527,0.015304515,0.07532844,-0.10436214,-0.07256466,-0.17077722,-0.032499578,0.1741161,-0.120368205,-0.07711426,0.12824333,-0.1618537,0.16777243,-0.042490836,-0.11050835,0.20396419,-0.09092483,0.158901,0.2510596,0.0725912,-0.11378492,0.08326759,0.17602046,-0.03917663,-0.16874559,0.03947889,0.21419531,-0.10428293,-0.06013641,0.11020521,0.11880363,-0.18276685,0.17358977,-0.03902345,0.17385499,-0.019777257,0.11557544,0.06430689,0.097848944,-0.05199769,-0.06905072,-0.20546472,-0.16880594,0.17267005,-0.0116005475,-0.078274585,0.25103518,0.022152651,0.012150506,-0.16675337,0.25014275,-0.18053642,0.0152042275,0.069722906,0.13240677,0.12934045
0.102830924,-0.18328632,-0.2147343,-0.1508596,0.038188607,-0.22282064,0.0076126857,0.11026105,-0.16555324,0.10256024,0.13774996,0.06808491,0.10539564,-0.081799775,0.10788854,-0.016197087,0.1658323,-0.13693853,0.1699922,0.17471056,-0.015654946,0.061248444,0.06828635,-0.05780735,0.13264184,-0.13735715,-0.09326582,0.13992132,0.20739125,-0.055625405,0.17324083,0.101000674,0.05422238,-0.22254755,-0.14533572,-0.23133762,-0.037253205,0.054655086,-0.0037041623,0.17452061,-0.045650378,-0.20734951,0.077927954,0.1887806,0.034667943,0.15529028,0.2326446,-0.09585247,0.1408061,-0.22330384,-0.056984436,-0.12102058,-0.045810636,-0.12341762,-0.017610688,0.08866414,0.009247156,0.020949023,-0.0815096,0.0073485468,0.11450502,-0.018658983,-0.17423992,0.13201082,0.0655924,0.09474901,-0.02095661,-0.11886171,0.19537374,0.04540965,-0.02479396,-0.020342497,-0.21485865,-0.06408289,0.1168495,-0.10256223,-0.16140662,0.011115572,0.035847418,0.19934927,0.17787012,0.020194411,-0.0667476,0.12004419,0.082442395,0.19018099,-0.1932442,-0.006132143,-0.08418197,0.23048976,-0.08159053,-0.060644343,0.16286588,-0.0023830992,-0.04207685,0.07160748
-0.16445649,-0.053752623,0.036287528,0.0847464,-0.11309058,0.04642361,0.060085602,-0.10992983,-0.00037399674,0.02585842,0.059527177,-0.09503613,-0.09103741,-0.06931375,0.21609402,-0.05612395,0.17464435,0.19229479,-0.19276981,0.119535446,0.19478497,-0.08412771,-0.060001593,-0.1644537,-0.10121697,0.009493135,0.11500088,-0.10504769,-0.18506892,-0.029240297,-0.06533477,0.007341542,0.18961425,-0.080870345,-0.20921434,0.035492215,-0.1442717,-0.18339247,0.21816298,-0.10527423,0.019158147,0.15749358,-0.087709226,-0.14030808,0.23087214,0.11371108,-0.05529054,-0.045633353,-0.046348732,0.07583255,-0.2769814,-0.19971891,-0.15833901,0.0383889,0.16998108,-0.09822157,0.020043124,0.14052494,-0.105320625,0.16153347,0.1939212,0.12671365,0.20659672,-0.09500727,-0.04621201,0.076305464,-0.028955173,-0.13596563,0.06478436,-0.10597404,-0.088443525,-0.12723319,0.1774577,0.1073857,0.18891928,0.13642855,0.104348175,0.2467981,-0.14261074,0.08804968,0.039552424,-0.05390626,0.13559966,-0.110211745,0.0078060874,-0.1570076,-0.15105894,0.18050748,0.11527417,-0.15552633,-0.08703819,0.22691384,-0.06658224,-0.13292739,0.06676105,0.18163599
0.018824037,-0.039471425,0.24728861,-0.15662941,0.21857329,-0.2590189,0.047410753,-0.26076993,0.09272251,0.19219302,0.050702076,0.0946899,-0.18072256,0.22056396,-0.029217912,0.2398102,0.115565784,-0.15422475,0.14180225,0.17000577,0.039866854,-0.1529444,0.1062707,-0.18631053,-0.035161946,0.23837024,0.09523759,0.174879,-0.074190386,-0.15437834,0.20170961,-0.051401522,-0.106521755,0.19690576,-0.23819177,0.06881206,0.006769793,-0.13589738,0.15700881,0.20643091,0.018081557,0.20076612,-0.1856906,-0.03901592,0.1638355,0.21536294,0.16546272,-0.08506633,-0.09612244,0.073692694,-0.16576712,-0.020918211,0.016290328,-0.10132718,0.22279005,-0.10295278,-0.19457014,-0.049762852,-0.14079903,0.14093335,0.19079226,-0.034966324,-0.15734783,-0.20758824,0.026270011,-0.17493582,-0.107753776,0.02744623,0.08799701,0.050870553,0.17584501,0.18080834,-0.13580242,-0.08362077,-0.012771898,0.080102034,0.059414223,0.124760486,-0.14569809,-0.06665409,-0.11544446,-0.1428871,0.2347218,0.02743017,0.005222059,-0.14861177,-0.19618034,-0.12973034,0.04882463,0.08431609,-0.16191629,0.07297995,0.15549256,0.09168601,-0.019556213,-0.18898885
0.15208043,0.05986701,-0.085786164,-0.1237205,0.20705175,0.16156873,0.10228249,-0.096419394,-0.063252814,-0.14049327,-0.13177046,0.12132424,-0.18615107,-0.04697949,0.23175575,0.06132648,-0.167599,-0.09198286,-0.1666073,0.06898818,0.099425234,-0.03486431,0.1790697,-0.14824875,-0.20631006,0.13472496,-0.08237948,-0.045287374,0.03826501,-0.13308083,0.026305582,-0.018919935,0.080637075,-0.12159063,0.1883792,0.11555146,-0.09850079,-0.10982619,-0.12455661,0.21377566,-0.027414989,-0.05078704,0.15701345,-0.079741605,-0.24343692,0.012107287,-0.09985568,0.16791292,0.071119346,-0.15166965,-0.11727329,0.069519356,0.057333715,0.120442584,-0.046688516,-0.18976066,0.035094157,0.075051874,-0.11403792,0.04730054,-0.07861273,-0.0040927622,0.08014228,-0.056174804,0.10236092,-0.25175127,0.17879973,-0.16944818,0.14674705,0.18405934,0.15830258,0.01687953,-0.14447697,0.06478507,-0.06762631,0.059166007,-0.11302288,-0.047119834,-0.03169036,0.04099535,-0.092028044,-0.09114564,0.063066214,0.07283469,0.22932813,-0.034794603,-0.22237745,0.15550117,0.12039028,-0.010231306,0.21275595,0.13881297,0.1733881,0.10225318,-0.00058862043,0.13399945
0.15172696,0.053149153,0.19850983,0.034052275,-0.12946936,-0.07542471,0.13520959,-0.08877483,0.09791905,-0.1572165,-0.13432375,-0.10513644,-0.14788425,0.14072254,-0.062562145,-0.009996859,-0.13495299,0.17674346,-0.04795139,-0.21140733,0.09050094,0.08672433,0.009473359,0.011502709,0.18947616,-0.07366483,-0.03740507,0.11471827,-0.12375724,0.090075,0.029568667,0.15672767,-0.20539081,-0.09268768,0.018316489,0.11483961,0.18584986,0.008392016,-0.068737224,0.08584059,0.08142692,-0.15006937,0.05048546,-0.06943547,0.08827774,-0.005757116,0.07022781,-0.1949381,-0.19317123,-0.013174133,-0.106164746,-0.17889415,0.118589684,0.15436919,0.19218451,-0.10699518,-0.078444324,0.09487161,0.21366851,-0.10333939,0.22708234,0.096186265,-0.13599968,-0.14327392,-0.0030268836,0.13383143,-0.14359161,0.30076197,0.13015392,-0.1507624,0.14210834,-0.2316561,-0.12916557,0.14122055,-0.097118974,-0.1730836,-0.042515546,0.02366546,-0.06345065,0.028689416,0.12905324,0.022768745,-0.13006936,0.06576968,0.102599174,0.099045806,-0.06467036,0.050126806,-0.23393397,0.15719917,0.2211223,0.10975112,-0.08761466,-0.026406784,-0.063976884,0.25403595
-0.090913445,-0.08825958,-0.060466427,-0.17210382,0.030982947,-0.115407616,0.1927942,0.21692725,-0.17097655,0.12460001,0.06895073,0.058983732,-0.037607737,-0.06034141,-0.029839093,-0.0479079,-0.1263612,-0.16952021,-0.055900596,-0.006471398,0.105547056,-0.034616657,-0.06916783,0.1210866,0.11797366,0.113259085,0.015570666,-0.06624363,-0.15794379,-0.107081346,0.14381863,-0.071066946,-0.1580163,0.020437405,-0.14005102,-0.084964454,0.01168493,-0.10550915,-0.10867685,-0.12779468,0.19238107,0.19535248,0.14170633,0.10522674,0.115345515,0.16956303,0.2510224,0.14833735,-0.15562986,0.015471056,-0.11922479,0.097511314,-0.04577651,-0.20753746,-0.1263848,0.14107811,0.12827347,-0.16823189,-0.10324645,-0.026593998,0.0350342,-0.03499406,0.0042533115,-0.03882162,0.19223422,0.06467829,0.038544964,-0.10421293,-0.14798313,-0.19878066,-0.045693133,0.14727367,-0.12363852,0.18047094,0.09980625,0.17026669,0.11999543,0.20981738,0.19284613,0.19145931,0.16895013,0.1339973,0.08238428,0.15841503,-0.039259784,-0.033766016,-0.17660066,0.16494396,-0.12188596,-0.08125123,-0.054904744,0.17263336,0.019511383,0.16922583,-0.14683297,-0.20630498
0.04953243,0.06677282,0.032555744,0.1098501,0.0074620354,-0.050580118,0.0040254174,0.12736186,-0.15673018,0.21856707,0.13337594,0.19602251,0.10371538,-0.09533932,-0.01256481,0.11782089,0.021968033,0.10604653,0.008522071,0.03311677,-0.10259955,0.21785392,-0.24208942,0.14351577,0.1505442,0.11737546,-0.13268036,-0.043854028,-0.014752678,0.021598862,-0.001805175,-0.0037320184,-0.005402648,0.039897475,-0.046516046,-0.12121672,-0.13354492,-0.23533286,0.15025459,0.1688464,0.17101192,-0.10608863,-0.044379767,-0.07058925,0.22647955,0.116973355,0.099237345,0.14302191,-0.19878362,-0.16977671,0.014783193,0.065922245,-0.017286373,-0.09108418,-0.068128794,-0.12717688,0.097019196,0.18918546,-0.18182741,-0.17160803,0.013505053,0.15571412,0.07030933,-0.047105573,-0.014184759,-0.16984612,0.004964306,-0.07509027,-0.07473214,-0.059507053,0.054874502,-0.19520742,-0.034313526,-0.13605122,0.19540587,-0.10159164,-0.11068871,0.15121222,0.17848454,-0.060040735,0.20288908,0.072292745,-0.034979507,0.079809144,0.08613101,-0.07435764,-0.05284887,0.22333214,-0.1649925,-0.09765835,-0.00014392666,-0.0727965,-0.14476588,-0.02450982,-0.11388285,-0.12022708
0.0061092097,-0.1965625,0.18898688,-0.10006098,-0.09701877,-0.13569163,0.026136763,0.054950383,0.015450814,0.12364184,0.20278697,0.17942454,-0.08193051,-0.25389805,0.15394965,-0.09235581,0.1251692,0.19715248,0.11432183,-0.017662361,0.039796155,0.22622362,-0.015220106,-0.24103343,-0.08365427,0.16851142,-0.033447877,-0.27683726,0.23306039,0.078165516,-0.1838271,-0.12631272,-0.048313685,-0.01794197,0.04897644,-0.21818486,-0.19961439,0.1247706,0.0817663,-0.007213592,0.20607519,-0.03486674,-0.19511698,0.049098518,-0.06073573,0.07758212,0.19284208,-0.12466237,-0.23283435,0.13064626,-0.21355352,0.13737,-0.055651065,-0.08287025,-0.060570523,0.12685803,-0.12827797,-0.054658663,0.0017358883,-0.19679937,-0.17256771,0.1412503,-0.17059092,-0.19912878,0.19227093,-0.1551578,-0.020088231,-0.08955153,-0.058775783,-0.06031359,-0.08130194,0.1410944,0.077693515,-0.020846846,-0.052235078,0.111632675,0.21166676,-0.038935617,0.036161575,0.13344784,0.035104897,-0.08921234,0.25312856,-0.2586343,0.027458858,-0.1202238,-0.063949645,-0.10077826,0.11845005,0.1472748,0.21781924,-0.1184834,-0.10417134,-0.22355486,-0.22362994,-0.18551326
-0.04390147,0.051487032,-0.13634688,0.12252664,-1.0713251e-05,0.0177734,-0.0143938465,-0.005856795,-0.15412416,-0.09136983,0.17717963,0.020503437,-0.06557301,-0.057071432,0.15916093,0.09933485,-0.011520805,-0.08281139,-0.12560165,0.21953811,-0.20535287,0.06502831,-0.20773983,-0.1288618,-0.22231717,0.1817799,0.17763142,0.119703874,-0.005893764,-0.21734664,0.05250347,-0.0036508807,0.078710966,-0.07869467,0.14734897,-0.20987858,-0.24176356,-0.19855155,0.0041640117,-0.07904676,0.19572103,-0.06040867,0.047955632,0.1863383,-0.115453735,-0.047133956,0.063893214,-0.19398068,-0.23256645,0.08796361,-0.015986584,0.2283465,0.04897009,0.1184856,0.113934144,0.107827686,0.13365287,0.08454059,-0.07056041,0.15356629,0.09967373,-0.05866442,0.06730348,-0.19963513,-0.1881422,-0.15766767,-0.07587515,-0.1370425,-0.13331355,0.03851002,0.02979426,0.094016105,-0.112598605,-0.05430256,-0.19216165,0.062182806,-0.06639172,-0.1624045,0.17810285,-0.05171574,0.10610225,-0.114356704,0.06336904,-0.03823352,0.21340254,-0.046648018,0.05963719,0.021260444,-0.030216636,0.151139,0.03411022,0.1547887,0.12677182,0.13215716,-0.0717191,-0.086823486
0.12624595,0.07560999,-0.028458312,0.13814282,0.010807138,-0.023316909,0.084340736,0.22137408,0.12570007,-0.09199549,-0.035472207,0.05229115,-0.13648568,-0.030910214,0.041745704,-0.0922588,-0.14423127,0.019089857,-0.13844942,-0.028644936,0.1491191,0.18668652,0.14112279,0.16785333,0.092849344,0.16671309,0.042878598,0.1304716,-0.1186073,0.06554789,-0.12963976,-0.10762475,0.14597265,-0.14406794,0.23430468,-0.16415843,0.102637306,-0.17696044,-0.052110042,-0.08881976,0.099992506,-0.03602904,-0.16702476,0.16142637,-0.03506195,-0.078196496,0.22066534,0.19271189,0.173949,-0.19518948,0.025959974,0.06398527,0.14660484,-0.09951078,-0.17948896,0.14367315,0.022865089,-0.13860577,-0.21333452,-0.13219991,0.054934684,-0.06286264,-0.04800888,0.040885333,0.022467379,0.10941445,0.22713055,0.10964021,-0.041584082,-0.06103838,0.07128453,-0.021964379,-0.1351073,-0.04353366,0.10247093,-0.16565937,0.2226927,-0.2224438,-0.15208384,0.060363617,0.06969502,0.02250882,0.1576735,-0.13360597,0.16780864,0.032667402,-0.16615455,0.19057624,0.10863321,-0.05322888,0.14628808,-0.048158634,0.1993359,0.16896167,-0.020182498,0.045833454
0.08728711,-0.13478261,0.21219811,0.123871006,0.16344987,-0.18545459,0.08357209,-0.090120405,-0.21463484,0.13205518,-0.025980266,0.008452969,-0.13320766,0.11097415,0.059576374,-0.067322396,-0.029895827,-0.027598113,0.09330415,0.031607166,0.17611934,-0.12739016,-0.12450685,0.037500136,-0.10671421,0.16358504,-0.14833848,-0.017024327,0.115842395,0.11440818,-0.050755724,0.008691342,-0.06753625,0.041494783,-0.24943343,0.25075012,-0.17668064,0.17245275,-0.13852826,0.045134787,0.21708001,-0.03562714,0.11743003,0.07166176,-0.09320584,-0.006363812,-0.0025371853,-0.13103253,0.091013044,-0.043978818,-0.18920359,-0.19631281,0.14391513,-0.03149329,0.21601929,-0.05392813,0.115676396,-0.10235722,-0.07194881,-0.08266711,-0.13562879,-0.15408635,-0.025537703,0.176205,-0.17267288,-0.046838984,0.050725397,-0.115044646,-0.049044725,-0.1798215,-0.014183976,0.08091939,-0.092555195,0.09131894,0.10930859,-0.090818934,0.16068792,0.09182702,0.14677173,0.14548276,-0.024717998,0.05857884,-0.036955595,0.24239287,-0.12846094,0.029067472,-0.11619261,0.020884344,-0.21053007,-0.042453773,0.083791025,-0.0882221,0.004029698,0.13065918,-0.23829043,0.027476707
-0.10878491,0.13850689,0.15111776,-0.046224672,-0.13826932,-0.08790191,-0.09209796,0.055387948,0.018008027,-0.22160287,0.034037203,-0.028860204,-0.008873708,0.15158248,0.23184474,0.08639386,0.22663595,0.09204598,0.07971959,-0.15197712,0.24296306,-0.037566606,0.16453098,-0.087788776,-0.1625414,0.13247526,0.13076665,0.24166779,0.11839986,0.08827751,-0.016294496,0.010524708,0.17442141,0.07850841,0.004262481,0.14779745,-0.04255501,-0.0037044229,0.023465693,0.02018254,0.1496046,-0.12478567,0.037699252,0.026088934,0.07292276,-0.16072668,-0.16976534,0.12816603,0.16109367,-0.12289477,-0.061174147,-0.10183391,-0.18073589,-0.044038784,0.2307555,0.1858486,-0.051405765,-0.11776559,0.12489617,-0.08417274,-0.14821543,0.04669135,0.033229526,0.10812813,-0.057812747,0.22767074,-0.1365672,-0.06512035,0.03471307,0.06295947,0.013305583,-0.061099857,-0.0032423425,-0.16242419,0.06248516,0.19106972,0.103493094,0.22834525,-0.13301672,0.0032194005,-0.1531328,0.18703014,0.0675517,0.22534174,-0.0004305166,-0.034785848,0.055749375,0.0569698,0.17415856,0.15863124,0.23475811,-0.19619708,0.24997553,-0.06563746,0.13539363,0.0882415
0.1885113,0.1306166,0.12739436,0.0042253863,0.13112341,-0.006503601,-0.09948033,0.049510647,-0.018357066,-0.098335326,0.2549544,0.14138308,-0.106401116,-0.13073249,0.22238588,0.17226367,-0.00021594143,0.005003901,0.18896225,0.24162517,0.15387802,0.04434978,0.112998135,0.0720727,-0.060128856,0.25329056,0.06846965,0.083596565,0.120814,-0.019013839,0.1530179,0.04586272,-0.10993125,-0.0080424715,0.012693762,0.17159016,0.07685635,-0.11883225,0.072524525,-0.09164162,0.18494864,0.012918657,-0.11930854,-0.11263412,-0.03115027,-0.15333177,0.04634028,0.05860941,0.14317837,0.18606612,0.085475735,0.051210254,0.16569376,-0.1547197,-0.12576102,0.036891993,-0.19683795,-0.057246473,-0.05360554,-0.18563516,-0.073745325,-0.0902529,-0.1023214,-0.17731552,0.015433345,0.18804519,-0.07803586,0.06326526,0.09684842,0.2116776,0.11861505,-0.08253402,-0.032744642,-0.112597205,0.12656137,0.21110585,0.07815085,0.059875946,-0.017568853,0.019766282,-0.16355875,-0.10875472,0.229722,0.2023038,-0.16694729,0.08160173,0.16676085,0.060136758,-0.11706044,-0.14348243,0.19328001,-0.13067739,0.09359538,-0.048969887,0.012020338,-0.054841533
-0.13664049,0.1707748,0.17694703,0.12443298,-0.06072833,0.030143663,0.1355099,0.14721203,0.17894785,0.19312099,0.053328164,-0.11664011,0.1639456,-0.09598879,0.012183704,0.1265914,0.068980426,0.22404623,-0.018314255,-0.10357902,0.12591594,-0.104654394,0.04509697,-0.13652843,-0.06473715,0.058584776,-0.12500632,-0.0010314623,0.2161942,0.03461484,-0.122977026,0.15474519,0.015789991,-0.069098525,0.024650171,-0.16049631,0.1542979,-0.17279342,-0.11326001,0.19668871,0.023691574,0.006277475,-0.17281324,-0.052864447,-0.17797166,0.19083041,-0.20153727,-0.018254502,0.19909367,-0.025273565,0.13132638,0.1993449,-0.06785726,0.07206358,-0.019993264,-0.13399604,0.014878721,0.12653632,0.09011801,0.023878861,-0.07961226,0.017889451,0.14536063,-0.08403618,0.13400061,0.140879,0.1756711,-0.24066438,0.15814729,0.041366663,-0.03542516,0.19999777,0.21836469,0.0132660875,-0.047991827,0.07765137,0.1302586,0.109325,-0.20463179,0.014060607,-0.12981555,-0.1404115,0.21186107,0.06089236,0.22391579,-0.07250853,0.16163363,0.23906839,0.16698278,0.19195224,0.21669433,-0.04091783,-0.07287713,-0.028194629,0.14700267,0.16242589
0.09592442,-0.123747714,-0.057919547,0.005804628,0.20993754,0.09668129,0.1324733,0.041775562,0.043246526,0.07661588,-0.09080069,0.0065639904,-0.002068038,0.017934714,0.032776207,0.096318945,-0.0066164997,0.17162004,-0.24042927,-0.1056178,0.019743197,0.1268664,-0.093409814,-0.006271181,-0.101375334,0.0075231167,-0.1573878,0.060297094,0.15509865,0.048498522,0.09306882,-0.04356196,0.114466906,0.08322911,-0.15604556,-0.07792912,-0.21600252,-0.062433932,0.07623795,-0.11372775,-0.06347358,-0.024954721,-0.05806023,0.04449303,0.26371166,0.06264485,-0.12600823,-0.09467419,0.14976713,0.078497455,-0.10791982,-0.18039116,0.083822146,0.1865983,0.0038510216,-0.092922956,-0.009356711,-0.14558889,-0.12433638,-0.17436649,-0.048421726,-0.08974436,0.21169308,0.19185506,-0.032133967,-0.054055054,-0.129749,0.07615524,0.1051411,0.18539949,0.22278105,-0.002777951,0.13777107,-0.029249791,0.13655879,0.07881297,0.00034681812,0.13099715,0.07838286,0.017804759,-0.053494647,-0.024911167,-0.12280948,-0.14913365,-0.15775967,-0.09007462,-0.22954564,0.027350275,-0.06809178,0.12521084,0.0101306215,0.09977053,-0.06658321,-0.09273995,-0.07916861,-0.039242666
-0.039985232,-0.05300576,0.06209589,0.20710887,0.12321528,0.16821006,0.02757114,-0.18896584,0.055880476,-0.14471956,0.18880372,-0.046607405,0.026225818,0.091360785,0.15195835,0.05469363,0.11702826,0.15658343,0.2221598,-0.016862996,-0.13801314,0.0031232277,0.21622309,0.21184674,-0.10094201,-0.16670161,-0.08031733,0.11445838,0.06232781,0.22683953,-0.040558882,-0.14464745,-0.032895926,-0.17332235,0.056255,-0.17597362,-0.08216067,0.13325286,-0.045889106,-0.10791282,0.018393034,-0.052641295,0.01950513,0.0893422,-0.0713275,0.05467787,-0.20352578,0.23006627,-0.15741819,-0.15368086,-0.038494226,-0.1424147,-0.11687821,-0.024076423,-0.11185189,0.22307111,-0.0775544,-0.055920955,0.068716116,-0.15642293,-0.1392424,0.06774226,-0.07940158,0.003802349,0.10934396,0.24581629,0.20047894,0.047176458,0.09607428,-0.079640605,0.1945373,-0.12899028,0.0024936015,-0.09649068,0.17183822,0.20468095,0.10931385,0.18025778,0.16223253,0.12617616,0.026133478,-0.10633959,0.15011846,0.08769349,0.17652704,-0.10316732,-0.039630212,0.16739786,-0.08407664,0.1666363,-0.056896236,0.02675065,0.2166969,0.10118698,0.20908225,-0.1108162
-0.08824654,-0.078594625,-0.116078526,0.0075307093,0.17750421,-0.015038928,0.10047047,0.10858802,-0.023598291,0.14873783,-0.0057584844,-0.09664041,-0.12629856,0.09284855,0.20324767,0.2512205,-0.15567304,0.13726686,-0.02221698,0.1355617,0.17608,-0.015722424,-0.07271638,0.071399175,0.07399093,0.04008137,-0.21496797,-0.037053708,0.059286725,0.16075858,0.17821842,0.03673072,0.04175022,-0.16217233,-0.08600155,0.01600073,0.22444001,0.07932423,0.1814662,0.09195712,-0.14224929,0.24852426,-0.025310496,0.15061665,0.21276715,0.17444497,-0.123137206,0.19617884,0.08809617,0.15487337,-0.08988355,-0.20633622,0.10694613,0.15440524,0.085600995,0.018474918,-0.21049957,0.13685727,0.16571212,0.01880756,-0.12990615,-0.21821536,0.13115987,0.1900968,-0.079217784,0.13341016,0.24506728,0.15799747,-0.13605487,0.1138027,0.23179074,-0.026866533,0.1590904,-0.1434328,-0.11296012,0.13238509,-0.11602902,-0.0037936799,0.027996937,-0.056063123,-0.022289945,-0.080151625,-0.045296796,0.028960828,0.017383741,-0.027608505,-0.083452165,0.100132,0.14008074,-0.21209261,0.13214922,-0.102363646,0.016756052,-0.14043373,0.2242634,-0.052452486
0.06430859,-0.17796278,-0.053491507,0.16668011,-0.042078946,-0.046968818,0.15051521,-0.08619174,-0.11040078,-0.052742485,0.07147978,0.16244291,-0.12796067,0.19632484,0.08224271,0.16563712,-0.00605252,-0.10931701,-0.01979926,0.00974272,0.06502163,0.04694195,-0.24060285,0.20593938,0.10578961,0.013961148,0.14556067,0.0093206195,-0.15523614,-0.07053036,-0.17595679,-0.06324874,-0.21706694,0.014256647,0.009562106,-0.10584121,-0.10209092,0.0046655517,-0.1987698,-0.21812674,-0.007474541,0.19913246,0.013091109,-0.16390894,0.17225857,-0.0024702714,-0.11077378,-0.013573899,0.10878145,-0.12127381,0.12482569,-0.09027128,-0.021965424,-0.00902269,0.17844175,0.24108785,-0.084786214,-0.12623788,0.08261979,0.057611726,-0.15718436,0.021271948,0.040369764,0.22244619,0.09487816,-0.03453796,-0.18723707,0.013671787,0.016001161,-0.0950208,-0.04822259,0.07853959,0.018205808,-0.02175173,0.20138863,0.029802797,-0.16824031,0.16624725,0.24985088,-0.108376846,0.06686449,0.054987453,-0.025161602,-0.12572314,-0.063930795,0.25897038,0.23767535,0.113505304,0.15085852,0.1374191,0.11710104,0.1444565,0.12569538,0.24235973,0.09066142,-0.008792499
-0.047704834,0.05361087,0.15054034,-0.100990295,-0.003621955,-0.068857744,-0.17924142,-0.24274357,-0.15208213,0.11573791,-0.061911438,0.17833027,-0.11996343,0.1555614,-0.12550212,0.22996992,-0.07988901,0.20171519,-0.036817636,0.06382769,0.25201434,0.15911715,-0.22736683,-0.20396292,0.17809238,0.16993085,0.16865943,0.1436624,0.08337093,0.08714179,0.12508713,0.12816311,0.1739503,0.23707445,-0.11833867,-0.031059422,-0.09710022,-0.08890765,0.12854403,-0.022405304,0.1351413,0.025883771,-0.16898665,0.10238915,-0.090939716,-0.12889293,-0.18963382,-0.12141523,-0.21256873,0.20380099,-0.15334691,0.01565764,0.19024141,-0.06739898,0.112833366,0.11731131,-0.25694677,-0.1938456,0.0593121,-0.09107781,0.2001226,0.004417327,0.010917053,-0.023920268,-0.091023155,0.22133969,0.0055571543,-0.09455329,0.1354307,0.2031089,-0.05417764,0.13995112,0.10233113,-0.14264166,0.22452328,0.15130521,0.168364,0.24398325,0.1837306,-0.03435969,0.15800464,-0.06971069,-0.030602079,0.0793719,-0.25993028,0.16507734,-0.110412486,-0.19568644,-0.016538085,0.08667427,-0.013918497,0.08346206,0.13812843,-0.11580532,0.120965734,0.13363682
0.22166497,0.1225928,-0.21297087,-0.14342715,-0.027279342,0.051467095,0.08588516,-0.16699032,-0.24954374,0.1500018,-0.005374296,0.08561201,-0.18209405,0.22315425,-0.0041456255,0.007923966,0.2637838,0.1603092,-0.045258015,-0.07902973,-0.06463005,-0.06591371,-0.18920664,-0.081197016,-0.21229486,-0.06841143,-0.10968256,0.23505665,-0.0864997,0.1225282,-0.08922413,0.0049934704,0.06173949,-0.076493755,-0.17352898,0.050193824,-0.03418619,0.020560347,0.13033327,0.14104906,-0.16057986,0.19309802,-0.14900771,-0.15795656,-0.16828921,0.12865971,0.13061516,-0.21686016,-0.06382034,0.00920073,0.0740546,-0.07168652,-0.114765786,-0.21053647,-0.029932534,-0.09659477,0.113379925,-0.09477428,-0.11101151,-0.13654052,-0.1363985,-0.11371748,0.13853846,-0.16562355,0.17578346,0.12794404,0.073664054,0.001724904,-0.1500726,-0.09622537,-0.064717695,-0.036737613,-0.029378938,-0.14047174,0.06607786,0.28747857,-0.014212567,0.20491573,0.06431733,-0.052857824,-0.1401017,-0.06954924,0.2382135,0.16087219,0.031777594,-0.14094105,-0.05335116,0.0073881103,0.17849074,0.059771188,0.1935422,-0.1485435,0.010915005,-0.06990624,-0.10640782,-0.080196664
0.21471447,-0.0018831933,0.055362597,-0.14012165,0.14954704,-0.09993899,-0.021934683,-0.19518113,-0.004839327,0.14100042,-0.20998484,-0.17670646,-0.24048145,-0.21349755,0.018578473,-0.075799406,-0.015220375,0.026691671,0.18102609,0.10526883,-0.086474955,0.032289315,-0.13520701,-0.08917497,-0.048984025,0.19643353,-0.14540647,-0.22218193,0.1314595,0.013155409,0.12982675,-0.0701878,-0.22416624,0.24742468,-0.2051329,0.09238151,-0.06399216,-0.023553014,0.028739117,0.11782894,0.1596259,-0.08014012,-0.12619698,-0.13112244,0.041963972,0.20128565,-0.14925328,0.019069899,0.06792531,-0.11874918,0.01138529,-0.055155344,0.092755854,0.025176764,0.078934714,-0.026495242,0.033633593,0.12495397,0.053833403,-0.0060087787,-0.1152691,0.0018178741,0.05992257,-0.040363662,0.04391452,0.16452765,0.120584585,0.11413105,0.13025549,-0.12292583,-0.07039565,-0.06651136,0.135852,-0.06023713,0.072874516,0.117931046,0.06561609,-0.060266692,0.11887141,-0.022081701,0.18407741,0.077706404,0.22258247,0.11219658,-0.02998917,-0.08698269,-0.23122466,0.012280377,0.15663993,-0.0011601013,-0.048668284,0.2121356,0.042380087,0.03718987,-0.09990128,0.11509587
0.053673066,0.056377254,-0.18342581,0.10302242,0.011049833,-0.15259062,-0.13082735,0.13938996,0.1629628,-0.10672616,-0.08366109,0.08266113,-0.17249897,-0.17615293,0.17239009,0.14335021,0.046927933,0.15705743,0.062060848,0.19598924,-0.094240114,0.21228138,-0.16017848,-0.18102998,-0.2156138,0.083000004,0.26103267,-0.2052715,0.00585887,0.118176386,0.069684595,-0.012858518,0.09728258,0.20641048,0.09487119,-0.13944928,-0.09653917,-0.029706055,0.21782558,-0.12663743,0.2271625,-0.111587815,-0.03917556,-0.13628905,0.087118715,-0.079328135,-0.035523113,-0.114147484,-0.036954645,-0.027782977,-0.2288155,-0.105102584,0.033032116,-0.14267266,-0.10086006,0.061542585,0.09083443,0.03807935,-0.14817537,-0.16127624,-0.050032903,0.21604481,0.15457074,0.010794087,0.034911472,0.026935948,0.029698314,-0.12521459,0.04646367,0.11304576,-0.12950648,-0.13767388,-0.19997558,0.15133351,-0.14067712,0.034685414,0.04003641,-0.15418229,0.008566913,-0.09383809,0.20740974,0.120971955,0.11833474,-0.1345427,0.032091714,-0.2271965,-0.17462091,0.07683126,0.16817553,0.15502879,0.15780231,-0.022998296,-0.0561914,-0.040758956,0.10605097,0.09207449
-0.075675,-0.15925218,-0.19413564,-0.13193356,0.09492577,-0.17417535,0.014920787,-0.10533689,-0.13443774,0.02712759,-0.13651219,0.02482705,-0.053012945,-0.17567305,-0.06472298,0.15983838,0.06527539,0.20682454,0.17699032,0.16265202,-0.27599105,0.22134778,0.022467745,0.04585991,0.12605444,0.16224927,0.20899543,-0.076532744,0.124000065,-0.18143262,-0.08598498,-0.012179751,0.12609667,0.15258151,0.24512535,-0.010724324,-0.22338814,-0.06515724,0.1889061,0.16504613,-0.0994515,-0.2152052,0.08112672,0.045310304,-0.13118522,-0.1241644,0.13523288,-0.13252574,-0.18988188,-0.15032451,-0.20913503,-0.054340377,0.025570972,0.03379604,-0.136627,-0.07508596,0.15413982,0.09988735,-0.1090277,-0.16815032,0.009578945,0.24336216,-0.22082523,0.030500235,-0.13095967,0.029468192,-0.08743208,-0.27448586,-0.047444124,-0.085148245,0.06597912,0.102907926,0.04334592,0.15105698,-0.13879251,-0.13606495,0.22254033,-0.04912062,-0.050335295,0.1767354,0.083916925,-0.11232449,0.1695412,-0.056132462,0.15606412,-0.23417622,-0.1330785,-0.017310094,0.15175937,0.15284802,-0.10871755,0.0775302,-0.07417246,-0.14338697,0.07107767,-0.11814719
0.0059850574,-0.03699385,-0.107200615,-0.079981565,-0.18677132,-0.094783396,-0.08429146,-0.16862233,0.074689925,-0.05569261,-0.18613885,0.17293757,0.17071646,0.0036168552,0.15260229,-0.03265079,-0.20436549,0.13389981,-0.16206406,-0.15362535,-0.04531081,0.08165896,-0.04377077,0.021604657,-0.1349991,0.16445297,0.015208441,-0.07856517,-0.07237805,0.041172497,0.0318377,-0.10734963,0.15121636,-0.06790067,-0.15198056,-0.17440748,-0.20139366,-0.1862662,-0.05339165,0.15423682,0.19501238,-0.10809294,0.116786554,0.10047558,0.07863188,-0.092541225,0.16048369,0.058102593,0.13209204,-0.117104255,0.12542847,0.16057663,-0.15593337,-0.21956171,0.027151965,-0.16362076,-0.15974046,-0.09515553,0.15589075,0.16956243,-0.12990974,-0.15434207,-0.022494666,0.08432247,0.011662437,0.020009406,0.07960298,-0.16040981,0.010324846,-0.016524445,-0.13277023,-0.01776266,-0.20885046,-0.19482085,0.010451912,0.15792795,0.013643166,0.0010458077,0.13289155,0.17135207,-0.07441359,-0.11898213,0.12034285,-0.17249559,-0.11073845,-0.22011533,0.05147242,-0.15639158,-0.0932091,-0.2193762,0.15107596,-0.117518365,0.13996452,-0.19231053,-0.046615303,0.052721396
-0.20149003,-0.18433377,0.13822137,-0.18500346,-0.049983103,0.11772955,0.15920053,0.20929633,-0.10494853,-0.2277566,-0.10236957,0.009288255,-0.08367721,0.14747968,0.1056531,0.057792388,0.08544978,0.14254296,0.12894149,-0.0966572,-0.07992728,0.13351405,-0.14765646,0.13337113,0.112848654,-0.119192734,0.12500846,0.09958736,0.12426936,-0.041711193,-0.12275026,-0.06506308,0.083645165,-0.0674592,-0.18106411,-0.100652,0.010512314,-0.028950403,0.16870305,-0.124267094,-0.14721899,0.14583546,-0.18856621,-0.048086874,0.13882907,0.021831708,-0.22373949,0.083596215,-0.06838888,0.20352398,-0.1326829,-0.13637826,0.0991683,-0.103250876,0.009085232,0.07128377,0.13525936,0.14753878,0.05942161,0.20467553,-0.1791166,-0.19500844,-0.21869811,-0.07372447,-0.03286277,0.08650839,-0.10484779,0.16968279,-0.16405362,0.06738579,0.147223,0.17502122,-0.17076123,-0.017028451,0.10564639,0.147428,0.028799322,0.14924456,0.13176882,-0.24629068,-0.11513971,0.059246402,-0.17209612,-0.14153907,-0.011117497,-0.04010703,-0.11110103,-0.14015818,-0.20557375,-0.19004473,0.027066253,-0.055207923,-0.12757707,-0.18140048,0.19440241,0.22115572
0.046900146,-0.03578289,-0.04947936,-0.12636182,-0.05275847,0.2049304,0.07489168,0.15288411,0.033125274,-0.13752045,-0.12465419,-0.14544441,0.23338115,0.25079614,-0.14021105,-0.09236959,-0.01647559,0.15984254,0.12373611,0.14131539,0.12867573,-0.019546907,-0.11180425,0.038264707,-0.008491732,-0.19612235,-0.081238784,-0.02928664,-0.13333261,0.08746951,0.19233003,0.124280035,0.0062950775,0.069816165,0.19934793,0.11315932,0.035947718,-0.09749816,0.18694778,-0.1427052,0.18344343,-0.017916253,0.16895673,-0.11703023,0.20105827,-0.21818925,0.007148395,0.13329405,0.19158922,0.044561952,0.13547362,0.0033884323,0.048360243,0.09526023,0.010170136,-0.016336938,0.27163664,0.16966759,0.022508534,-0.054696303,-0.11319025,-0.0041737,-0.031323723,0.19103837,0.19411191,0.09364725,0.10660934,0.20352107,-0.14145418,0.08757864,0.08538441,0.19716169,0.104261324,0.14576824,0.13024808,0.17524493,0.2556386,0.15120192,0.10282024,0.1985407,0.09580904,0.21081023,-0.07153604,0.034575574,-0.18532595,-0.017204693,0.10974268,-0.08330485,0.11114668,-0.15032096,-0.15936685,0.10911533,0.10693221,0.097284056,0.02599459,0.008072975
-0.120145485,0.23152834,-0.15511756,-0.14788209,0.16108282,0.030313432,0.08246244,0.14772815,0.09505099,-0.024638733,0.016226534,-0.18210857,0.0013707844,0.034746177,0.18266712,0.111476436,-0.06860573,-0.15125428,0.16985312,0.10241375,0.17833534,0.014947921,0.20122293,0.06860858,0.12633172,0.027340226,-0.2036144,-0.13444419,0.020461055,0.16054477,0.19252728,-0.13164039,0.24912418,0.15482052,0.16053113,-0.120786786,-0.09594556,0.08504219,0.03129105,0.095886715,-0.067793876,0.16081691,0.147842,-0.12750085,0.112700485,-0.18989392,0.15205248,-0.0876056,0.23921655,0.18851209,0.03795364,-0.11199064,-0.07398018,0.09466831,-0.088290386,0.13829358,0.04710928,-0.08099297,-0.04244942,0.24193363,0.15424627,-0.11861757,-0.0767101,0.072178766,-0.12396586,0.22417268,0.0050839786,-0.017636782,0.0030854172,-0.034993406,-0.067285694,-0.13501273,-0.0798402,-0.16559117,0.13533328,0.115518816,-0.027679019,0.06989036,-0.0660546,0.20442732,-0.13424699,-0.023995377,0.10793581,0.084453635,-0.15785523,0.24601583,0.08227171,0.019698078,-0.061984185,-0.027875457,-0.053041972,-0.07227216,0.062531196,-0.014212788,-0.1133573,-0.08274866
0.2174212,0.16264781,0.16294847,0.18927668,0.15368636,-0.10551616,0.06356478,-0.036944527,0.04729898,-0.13121286,-0.017361538,0.046775036,-0.053377453,-0.10567926,0.1005711,-0.03639579,0.11412931,0.24803531,0.07462311,0.107635036,0.0763622,0.16824025,0.07855928,-0.095707275,-0.16827594,0.11215732,0.22474495,-0.0043678046,0.07347393,-0.062187053,0.17496067,-0.017917074,-0.067934245,0.18132529,0.08876587,0.0029882197,-0.17704497,0.041584067,0.20080581,0.17650042,0.1095657,0.03392943,0.08143645,0.17657913,0.11519387,0.037139907,0.14571881,0.028044794,-0.18538709,-0.17770116,-0.22112136,0.11798854,0.1358472,0.016794037,-0.041586798,-0.13956158,-0.014627085,-0.12263072,0.052626967,-0.036019746,0.21958768,-0.15943044,-0.021250552,-0.2520294,-0.12006754,0.14386614,-0.24689311,-0.14762358,-0.14488785,-0.21982343,-0.1159818,-0.12798156,0.03457275,0.040426932,0.14007044,-0.16088022,0.072200105,0.11788652,-0.053700678,-0.1086192,-0.013379867,-0.1779882,0.114558205,-0.15662037,0.13517986,0.09767368,-0.18627502,0.0018209851,0.039510675,0.02861609,-0.1573777,0.1286897,0.0075903093,0.01019072,-0.026846679,-0.15466814
