{{0.026058815,-0.043788187,-0.03417725,0.042974904,0.056224693,0.0127804885,0.04993616,-0.0108175,-0.061124157,0.0729554,-0.0077064014,-0.03282916,-0.048968475,-0.08547511,-0.010044755,0.058867335,-0.011172474,-0.10637049,0.097790055,0.009094581,-0.10972725,-0.04894268,0.15522169,0.01690572,0.067371175,0.13479123,0.10904833,-0.05403436,0.053242043,0.066436,0.05833727,0.098899804,-0.069052346,-0.06273306,0.024040401,-0.15276986,0.09477211,0.0004471938,0.11547781,0.06964853,-0.049084038,-0.16401228,0.14414726,-0.061956123,-0.096691206,-0.0681046,0.012949747,-0.0155661795,-0.008257266,-0.03691195,0.09632199,-0.0305398,-0.08100987,0.05508293,-0.035525296,0.085536085,0.0838831,0.07275947,-0.0251412,-0.0143089,-0.11240939,-0.032827757,0.016778879,0.030175267,-0.067583695,-0.028518908,-0.034880042,-0.063577645,0.013356702,-0.0392402,-0.014015277,-0.05218584,0.018081173,0.022014044,-0.034754764,-0.113107465,0.037120476,0.04704697,0.0726081,0.076845005,-0.01691748,0.03799051,0.059630826,-0.060740363,-0.07534009,-0.09072184,0.08837455,-0.02389495,0.07127374,0.117566295,-0.15956433,-0.008733634,-0.0072742435,-0.089497425,0.003007222,-0.0053672264,0.018327953,-0.06410764,-0.033238985,-0.01936862,0.15407602,-0.017405577,-0.02251392,-0.061894037,0.035739724,-0.06002478,0.004851472,0.027985776,0.05801035,-0.06543484,0.08161771,-0.069871195,0.09322565,-0.01938512,0.05637395,-0.023791416,0.039881974,-0.025001252,0.08959772,-0.004733067,-0.03371157,-0.15797709,0.012326694,0.056849655,-0.016804434,-0.096724465,0.102841675,-0.035994474,0.12686397,-0.05576707,-0.08882384,-0.05212261,0.12775823,0.14579815,0.03181263,0.023267368,-0.07805029,0.055124078,0.10078889,-0.018618174,-0.03762879,-0.1038349,0.025860844,-0.05545407,-0.029523319,0.076953955,0.0805214,-0.13741292,-0.015048312,-0.043932363,0.039813142,0.06272565,-0.086161904,-0.07484412,0.0055160467,-0.09717988,0.07031729,-0.024574215,0.021234786,0.08840563,-0.11050978,-0.06057965,-0.09524989,0.053261667,-0.077433676,-0.017966181,0.068960585,0.070917144,-0.16074672,-0.07282532,-0.07266524,0.09448329,0.009328753,0.0263778,-0.04453134,0.011473405,0.06057379,-0.053774476,-0.01955589,-0.1354158,0.011973954,0.036701858,-0.10121323,-0.04078781,-0.04996626,-0.052513693,0.021123406,-0.012366444,-0.15262513,0.01605071,0.024523417,-0.16141228,-0.11423216,-0.14233977,-0.03552622,-0.06727247,-0.050111476,0.10310852,-0.08467519,-0.012844174,0.060117494,0.037381653,-0.012829316,0.06911517,0.029705511,-1.5652986e-05,0.07685679,-0.04966812,-0.0124864,0.06729728,-0.09117121,0.09500686,-0.026071448,0.0063573513,-0.086790405,0.013477226,-0.14506117,0.07600404,0.03518438,0.027321575,-0.054076254,-0.11103653,0.05465193,-0.061180696,0.095608205,-0.06631261,-0.1229842,0.10709763,0.055103935,0.089229345,0.11791977,-0.072590575,0.1164886,0.027880866,0.049040534,0.08392729,-0.08343079,-0.03774104,-4.5457797e-05,-0.046025228,0.013931248,-0.059093088,0.065581575,0.022815874,0.0017109218,-0.07504437,-0.05991267,-0.07947757,-0.015318305,0.069295704,-0.111171335,0.06908022,-0.061318167,0.038036767,-0.06760492,0.012621623},{0.037277855,0.084603645,0.0456767,0.046619207,-0.07235411,-0.06207406,0.04897563,-0.038174,0.065414354,-0.04606223,0.098149344,-0.017366316,0.12803398,-0.021038,0.10638055,0.033144824,0.13080326,0.014970239,0.080354035,0.035687104,-0.073800944,-0.06933059,0.11941657,0.17170298,0.10672128,-0.024315313,-0.05979916,0.07138184,-0.09441733,-0.048622824,0.028162707,0.026836634,0.03247802,0.06042193,0.014231979,0.021656105,-0.07899745,0.043343455,0.07268691,-0.09041707,-0.09816703,-0.012855208,-0.051512875,-0.03289278,0.069775686,-0.081514716,0.046895217,-0.08489233,-0.09785017,0.083836704,-0.06688811,0.0310374,-0.12462519,0.06818708,0.11220114,0.094533645,0.102777675,-0.09260367,-0.090971,-0.0394923,-0.034393862,0.04989726,0.14007683,-0.04755457,-0.0042616646,0.015427492,-0.089777306,-0.120988086,0.059771217,-0.014389576,0.0011267549,0.0766096,0.0219449,0.051761325,0.06496852,-0.046791133,-0.07376855,-0.10933396,0.04221168,-0.03149446,-0.026473576,-0.038911168,-0.12526657,0.04367323,-0.095201075,0.012468688,-0.014689885,0.08525209,-0.009104742,-0.007978339,0.031869393,0.06446623,-0.10249646,-0.059522554,0.02343549,-0.0714855,-0.013739345,-0.09523001,-0.11162333,0.058775414,0.014565291,-0.09642908,-0.1237585,-0.0054951636,-0.0334644,0.084256865,0.029486822,0.1397703,-0.035405867,-0.025211647,0.12609978,-0.05691749,0.060153928,0.058757,0.035108976,0.034992803,-0.06756809,-0.12096469,0.13605724,0.010151001,-0.05726922,-0.098773584,-0.10285612,0.09582444,-0.07501611,0.038433988,0.10453833,0.029447056,0.11259575,0.08627236,-0.022311544,-0.0904197,0.16373233,0.08938027,0.006788148,-0.006252324,-0.14124113,0.023748314,0.101533316,0.047614496,-0.022568889,-0.068075806,0.051454473,0.054791514,0.03279969,0.14416955,0.16853935,0.03725088,0.07434662,0.043016758,-0.017390095,-0.013924383,-0.105472,-0.120138176,0.09836069,-0.02165672,-0.054054935,-0.106009245,-0.044179264,-0.07111741,0.013976684,0.14901233,0.07297209,-0.043631114,-0.040905267,0.03613383,0.01390658,0.03671832,-0.033054154,0.04371033,-0.009584767,-0.022576435,-0.119797364,-0.16391836,0.04759348,-0.0038461387,-0.11425124,-0.0023543416,-0.040981825,-0.09939158,0.09564408,0.16210517,0.0837926,-0.081579484,-0.07352208,-0.095890544,0.13577288,0.04050104,0.028156498,0.09356404,-0.03810934,0.04136533,-0.034865342,-0.15373434,-0.077107124,-0.034873106,-0.121375516,0.0078533115,-0.006247713,0.0108353635,-0.03492377,-0.025642294,-0.02867895,0.084742464,0.045522995,-0.08960128,-0.11803737,-0.005494146,-0.008046162,-0.09634013,-0.079538666,-0.0053780503,-0.0026578878,0.106130496,-0.024987267,0.0019151611,-0.0043841065,0.13796064,-0.05957132,0.016924428,-0.085112415,-0.011450959,0.13008735,-0.09181923,-0.0293663,-0.09922494,0.06902927,0.08760685,0.097228624,0.09695405,-0.013116502,0.06289779,0.051918592,-0.023146724,-0.03878528,0.016828053,-0.15743764,0.032642305,-0.028177118,0.10755616,-0.030515844,-0.012832523,0.09693978,0.040812053,-0.067133285,0.13079305,-0.013942283,0.08654207,0.04641105,0.04381814,-0.09017497,0.067933805,0.08379017,-0.06184875,-0.09937668,-0.006532789},{0.015702982,-0.038985193,-0.07867981,-0.04464193,0.10650638,0.06545359,0.001190081,0.06253235,-0.071389966,0.021422923,0.06774914,-0.0072640236,0.061317753,0.10010723,-0.03394636,0.0020098272,0.027890565,-0.13206719,0.09789408,0.033434108,0.028938279,0.01742234,0.1373874,-0.00033732143,0.063949436,-0.034076687,0.036169652,-0.06965408,0.075942025,0.061193693,-0.09384453,0.08324132,-0.0652419,0.0851413,-0.008643188,-0.09910611,-0.05602256,-0.07732387,0.056944672,-0.061839975,-0.08076312,0.03126782,0.04784148,0.0085885925,0.051755305,-0.050934073,-0.092760526,0.06347403,-0.011115687,-0.035563517,-0.08469196,-0.08062041,-0.0018514423,-0.083805345,0.070219025,0.012189393,0.053049184,-0.15230538,-0.10833886,0.105803184,0.10207597,-0.07338635,-0.009253437,-0.04547766,0.08781451,-0.03246998,0.0016873867,-0.098012455,0.0069653923,0.07848808,-0.07608419,0.08273883,0.003010983,0.049454555,-0.07028194,0.012442581,-0.056124166,-0.11140372,-0.003175402,0.07693816,-0.060515873,0.014156944,0.051356215,-0.084296465,-0.094187565,0.027096348,-0.010490245,-0.070194095,-0.019288298,-0.04401655,-0.03345254,0.08180059,0.14733388,-0.13420948,0.03198017,-0.092885725,0.001985387,-0.05252025,0.06927756,0.034900025,0.00422783,-0.02698376,-0.098841764,0.02960182,0.020955442,-0.057746466,-0.10961523,0.05958089,0.0131737795,-0.014496566,0.10230029,0.06413597,0.023410749,0.093884975,-0.0649106,0.14797078,0.009364238,-0.08125807,0.008032802,0.0786523,0.093271874,-0.048759077,0.022352688,-0.030596156,-0.017423367,-0.008318585,-0.04098284,-0.03879017,-0.016391873,0.15109591,-0.028539035,-0.106559984,-0.037248667,0.03405846,-0.0039300853,-0.062427748,-0.07765868,-0.019195873,0.083373934,0.0144114625,0.11266799,0.0057841847,-0.05279772,-0.11612411,0.045749296,0.118541695,-0.08909565,-0.11340347,0.08242205,-0.07279332,0.008966264,0.101443574,-0.016554805,0.035088073,-0.046417866,0.0486807,-0.111930475,-0.036244478,0.048924405,0.018947273,-0.06903095,0.066952184,-0.047408026,-0.11410027,-0.025791256,-0.047150392,-0.06559173,-0.056309532,0.10521247,0.11750346,0.042897657,-0.0048593045,-0.016577298,-0.0122202085,0.051316947,0.022989059,0.0057991557,-0.016657222,0.06421777,-0.022159252,0.038590718,0.08911403,-0.044420186,0.028400585,0.044403583,-0.12733978,-0.11422351,-0.086862944,0.00013685983,-0.15143456,0.028952647,-0.017472452,0.019534886,-0.14294627,0.01572523,-0.04410612,0.06453195,0.086018026,-0.08386383,-0.013670823,-0.1003738,0.019217052,-0.0006464469,-0.020498985,0.0060815862,0.12989734,0.03895446,0.07293012,0.04276911,-0.047549233,0.10228025,-0.015639002,0.04234421,-0.110361494,-0.07742698,-0.08874117,-0.15967005,-0.061780725,-0.078402124,0.04716627,-0.10456102,0.034635093,-0.025341846,0.07004913,0.06163894,-0.13991725,-0.08969894,0.045188017,-0.034856558,0.024607107,-0.031747196,0.039959766,0.011687658,-0.08915017,0.11178258,-0.09352687,-0.18575291,0.019639844,-0.01528364,-0.0054368353,0.12171296,-0.09667438,-0.0047876644,0.042614818,0.0010669567,0.076365046,0.07942192,0.0831822,-0.08663682,0.07640839,-0.08510159,-0.08073113,0.1023681,-0.078755885,-0.061196458,-0.055685524},{0.015992653,-0.013348209,-0.111007154,-0.02196235,0.101340115,0.041763186,0.009038637,0.04106871,-0.06811389,0.10197325,0.042437546,-0.09163884,0.10243505,0.041678954,-0.010567584,0.07674389,0.042548325,0.007007096,0.11970317,-0.110997945,0.13578962,-0.08446945,0.15495385,0.010646486,0.05514919,-0.0028461183,0.04247505,0.02846401,0.052676853,-0.107878506,0.07016468,0.15272953,-0.09508679,0.098076515,0.08699697,-0.080427244,-0.086960085,-0.12019212,0.015484622,-0.005805303,-0.06537736,0.038072396,0.010644825,0.09516838,-0.019139625,-0.07058841,0.023113808,-0.10183062,0.020405903,-0.08184091,0.027082328,0.002249396,-0.060593653,-0.04380443,-0.016204407,0.06972558,0.052602764,-0.014049272,-0.03600204,-0.021043241,0.012539574,-0.13259368,0.06338165,0.041800052,-0.035655282,-0.0072832424,-0.10102424,0.02137267,0.030152543,-0.11740404,0.061080925,-0.071620665,0.11929513,-0.09199514,-0.14109081,0.054518364,0.10329546,-0.11469901,0.0062421057,-0.08796033,0.10967925,-0.0056708436,-0.094875485,-0.013211196,-0.042798545,0.011146517,-0.07106948,-0.032407925,0.109590754,0.088452846,-0.022939475,-0.030489398,-0.02954936,0.03536461,0.07994855,0.039562512,0.014837987,0.07013733,0.07950735,-0.0077587725,0.030739902,0.010977514,-0.049330175,0.052709073,0.087227955,0.08385172,-0.10442261,0.12405254,-0.051153265,0.023343632,-0.1009159,0.034624122,-0.014646184,-0.006738966,0.11425311,0.015170713,-0.09291397,-0.15751489,0.022345696,0.03190329,-0.076014176,0.063472025,-0.045489274,-0.08481261,-0.03288056,-0.07328008,-0.11110725,-0.007866713,0.0111396,0.13173585,0.024818726,-0.10131318,-0.08874956,0.013290559,-0.10084262,-0.06902839,-0.06872586,0.0713466,0.09378119,0.026650105,0.05067953,0.10102426,-0.11836568,-0.10000485,0.013507515,0.089679286,-0.025777953,0.045235507,0.055860125,0.014054938,-0.04338188,0.15627518,0.0154854935,-0.06678376,-0.036360227,-0.12654695,-0.018773079,-0.111146376,-0.091904305,0.08675125,0.00094504067,0.124073416,-0.019081395,0.05321696,-0.023977527,-0.037456147,-0.05208603,0.020190403,0.077806115,0.06425616,-0.058956783,-0.05145405,-0.13658115,0.0040533864,-0.10244961,-0.030805584,0.10728355,-0.0013072693,0.008930975,0.10355338,0.10207076,0.0033776734,-0.020407148,-0.096355334,0.010639739,-0.13257256,-0.064605944,0.11619252,-0.020511214,-0.047906466,0.007195303,-0.052250646,-0.049048975,-0.058340125,-0.058075853,-0.011134508,0.040934756,-0.106930874,0.03946995,0.12821954,-0.022354374,0.060042422,0.07266974,0.0054820776,-0.022069158,0.06836115,0.03159306,0.011890254,0.028009987,-0.027512852,-0.07469488,0.07239689,-0.021928614,-0.0188723,-0.025294108,-0.057448752,-0.10986921,0.021148907,-0.005081141,-0.00858169,-0.008597915,-0.034440372,-0.0663401,-0.03921752,-0.07706365,-0.16066265,-0.08307107,-0.14541522,0.064973764,-0.16992867,0.06510748,0.07558794,-0.07303315,-0.071228184,0.027059255,-0.04711041,-0.035509817,-0.08455829,-0.03174473,0.07141022,0.01861021,-0.06272317,0.020305471,0.07788033,-0.11804748,-0.07582985,0.0022105474,-0.013011608,0.057807628,0.07175299,-0.019609869,0.029333008,0.06186006,-0.11265972,-0.057597984,-0.013348654},{0.0051643928,0.030632488,-0.036447115,0.0048213913,-0.04197574,-0.018545385,0.03589224,-0.003455231,-0.115903854,-0.115203045,-0.07298418,-0.033910908,0.04823144,0.0678846,0.049585775,0.18971232,-0.02174044,0.047089204,-0.07176349,-0.080476746,0.0072033545,-0.104762904,0.0526671,-0.0058775973,0.060691677,0.11302581,0.13188048,0.0878991,0.01577868,-0.12533712,-0.1116078,0.017515127,0.052167993,0.08865486,-0.10572321,-0.1427486,0.006239603,-0.00041289433,0.03218273,-0.018205173,-0.06537905,-0.0030275108,0.024294915,0.13342023,-0.06757545,-0.07227775,-0.06773504,-0.022867916,0.023673294,-0.098919205,0.038199123,0.045602858,-0.002216096,0.07730591,-0.02201637,-0.045061816,-0.0017113729,0.03977882,0.046895858,0.12133219,0.0017290416,-0.119102076,-0.02046066,0.039042875,-0.013750886,-0.08584394,-0.112946846,-0.11526723,-0.104941644,-0.025109492,0.018410377,0.049019855,0.07665985,-0.017649531,-0.14650227,0.05351668,-0.09922195,0.08408568,0.047136735,-0.040819053,-0.091895916,0.03409085,0.034446206,-0.10212951,0.07296536,-0.08238704,0.066791214,-0.12832129,0.06473003,0.030774234,0.010264858,-0.08933328,0.005789631,-0.09326872,-0.120624036,-0.08808241,-0.015520337,-0.12919423,-0.027641797,0.107693575,-0.053101003,-0.0924635,0.015541867,-0.038397636,0.14212672,0.013592067,-0.014357662,0.0035274422,-0.010230616,-0.13175449,-0.0020741895,-0.0594097,0.05387596,-0.03945723,0.060571577,0.097170375,0.06823602,0.04721033,-0.05398882,0.01570699,-0.082293764,-0.06590231,-0.049400307,0.00961841,-0.083139874,-0.09474219,-0.09751661,-0.047194023,-0.077515855,0.03217062,-0.037138645,0.03861559,-0.19883028,-0.07799875,0.021982968,0.052495483,-0.110426985,-0.10547312,0.05509048,0.082666874,0.08742705,0.09738644,-0.01319252,0.05286272,0.07814113,-0.019305965,0.029093977,0.040151052,0.06600048,0.0865843,0.036823805,0.036390506,-0.16123077,0.1290554,-0.07283464,0.0630341,0.058201276,-0.037048005,-0.05511638,0.06870688,-0.027588788,-0.058514725,-0.012378797,-0.033893265,-0.09186856,0.060111925,-0.034116875,0.099373534,0.0817797,0.04096099,-0.06600493,0.030264637,-0.046749573,-0.04647564,-0.04325314,0.015659371,-0.08175763,-0.006435573,0.04410163,0.032015402,0.025248494,0.010351979,-0.075332865,0.05877227,0.08561788,-0.094865665,-0.033487387,0.007620346,0.12370343,0.052949622,-0.06697625,0.19492784,-0.06689814,-0.17896378,0.029609427,-0.04644063,0.02888123,0.028096344,0.04899401,0.029203035,-0.12422673,0.04414964,0.007337515,-0.10707085,-0.052397233,-0.0449649,0.04214718,-0.014651797,0.040640894,-0.041480377,-0.022460978,0.105959974,-0.05484292,-0.10549992,-0.029674929,0.10224495,0.032853846,-0.05673863,0.007297181,0.13708359,-0.041858576,-0.017755566,-0.04994656,-0.0896682,0.050274655,-0.06359528,0.12667117,0.008243018,0.015008645,-0.1558849,-0.08903568,0.09494572,0.09998783,-0.10128802,0.0123006515,0.0076874522,-0.09018369,0.123265766,-0.00553091,0.07475434,0.0677137,-0.00253098,0.0014029931,-0.07780701,-0.025395531,-0.100119844,0.06053344,-0.022367693,0.07386622,0.0065709855,-0.0406437,-0.06407203,0.06727678,-0.080505475,-0.10388376,0.042329755},{-0.1298482,-0.05944426,0.023694372,-0.03788312,0.00066229794,-0.126605,-0.13282597,-0.086004,0.06827851,-0.035275776,-0.008175011,0.10041606,0.068516076,0.017233841,-0.071336105,0.04067152,0.040920317,-0.06630856,0.09904583,-0.11011507,-0.040800445,-0.06843004,0.005279013,0.14386551,0.001479321,0.07671234,-0.06718064,-0.035921264,0.0031597062,-0.02300448,0.0066238693,0.028966488,-0.0771628,0.097956434,-0.11061138,-0.060182255,0.09983274,0.02775926,-0.064038165,-0.09294404,0.019966563,0.14663047,0.09480972,0.018384235,0.0619634,-0.107911974,0.06732251,0.0007669337,0.05115855,0.012319998,-0.09865057,-0.00076370896,-0.007299456,-0.04729476,-0.0065713753,-0.041263722,-0.0073087895,-0.033367217,0.0325497,-0.03163704,0.07241728,0.11849053,0.09666397,0.021655682,0.123225324,0.025822086,-0.113415085,-0.06090876,0.026861303,-0.1428603,0.07247999,-0.02953442,0.06487251,-0.051926333,0.031739127,0.11598134,0.011130619,0.10766308,0.0050882134,-0.149974,-0.02684177,-0.005011087,-0.019387266,0.06622194,-0.06439826,-0.020309338,-0.02946739,-0.05144335,-0.025072154,0.10664638,0.122623816,-0.1507253,0.031738926,-0.037170827,-0.04204459,-0.048201613,-0.03490545,0.06659125,-0.051706858,-0.020458018,-0.09189831,-0.052377895,9.452538e-05,-0.060278013,-0.044486776,0.15514593,-0.10767096,0.039706264,0.061176263,0.07640818,-0.09738272,-0.03546604,-0.15969028,0.06649472,-0.045979276,0.019239048,0.058076017,-0.14145887,-0.06981061,-0.081581704,0.061139762,0.05421634,0.051719133,0.07551321,0.06795583,-0.021208132,-0.14874505,-0.0262069,0.034828845,-0.039337464,-0.084422305,0.116893314,-0.08549726,0.03506994,-0.10268695,0.08035011,-0.075987644,0.032556668,-0.036964856,-0.064336024,0.043707654,0.11540046,0.033074073,0.03201788,0.00087477104,0.03040168,-0.06993618,0.099623546,-0.0279741,0.03339157,-0.068691716,0.020010348,-0.029685287,0.028520709,0.04501394,0.04758472,0.09695745,0.055362035,0.024838608,0.12680784,0.10428966,0.09412046,-0.070816204,-0.046102207,0.0671361,-0.08194721,0.1523719,0.02356748,-0.08135993,-0.014015445,-0.08233673,-0.116051264,-0.05327922,-0.076588824,-0.0328051,0.1307432,-0.051675115,0.15166458,0.05636824,0.12114976,-0.009695316,0.012307054,-0.015069002,0.03453314,0.12872899,0.022638801,0.058958787,0.11371416,-0.001901676,0.038499188,0.03425933,-0.0554475,-0.05992423,-0.17537957,-0.1018043,0.1261314,0.024703883,0.08064654,-0.0068442295,-0.022422155,-0.047187738,0.03565922,-0.08502633,0.083693,0.12364265,-0.0322363,0.075042985,-0.056577962,-0.044771284,0.13074766,-0.01446463,-0.04954565,0.096521415,0.04304227,0.013164494,0.00015302427,-0.0022699973,-0.12218359,-0.040480353,0.11734947,0.0021527305,0.029637896,-0.015789589,0.025304,0.037437838,0.08473084,-0.09748333,-0.00414181,-0.005217277,-0.059699453,0.053205367,-0.12539591,-0.015138794,0.030663973,-0.017307201,0.082268134,-0.013917573,0.07312077,-0.011926183,-0.06394571,-0.07007584,0.015176907,-0.04886335,-0.009292469,0.04705894,-0.058746547,0.02308075,0.028542949,0.09652928,-0.076834716,0.013010126,0.041463353,-0.062576234,-0.124084085,-0.14757265,0.094864205},{0.023934154,0.03900415,0.12898877,-0.046330605,-0.017639076,-0.13322738,-0.12619556,-0.02752107,0.021925312,0.029310571,-0.023689399,0.07134523,0.017345706,0.042583037,0.026895273,0.1379552,0.012450389,-0.14830874,0.04392449,-0.132166,0.020880597,-0.025343316,0.10803509,0.12446473,-0.1273296,0.083710305,0.11246694,0.01847817,-0.030141484,0.038441397,-0.012607596,-0.05715601,0.049426343,0.09406973,-0.01391965,-0.04815137,-0.07835969,0.02754216,-0.10257258,0.13454223,-0.012682107,0.12459236,0.095005155,-0.016357722,-0.03287086,-0.1363979,0.092365764,-0.11832424,0.1013858,-0.059434038,-0.095278695,-0.123127975,-0.04086648,0.11606167,0.11413719,0.059612818,0.11163392,0.01070459,0.025749847,0.10630549,-0.037334103,0.05374973,0.07443931,-0.054606337,0.05366855,-0.04315245,0.039599385,-0.03862748,0.069964685,0.014971277,0.049959358,-0.08356616,0.16822787,-0.05444071,0.08089271,0.067192115,-0.07372623,0.027566677,0.016712392,0.01638868,-0.09476295,0.05814901,0.06422688,-0.06411832,-0.031454615,-0.15180184,0.090183794,-0.009904365,0.017135387,0.08929095,0.08625549,-0.015206828,0.114219666,0.026753686,0.07603051,-0.040607918,-0.00075474265,-0.027897498,-0.10619745,-0.03880393,-0.015383036,-0.016380496,-0.047807902,-0.028153514,-0.017832316,0.06164324,-0.075716004,-0.041591972,-0.09751075,-0.07265831,-0.019404765,-0.110572636,-0.15905653,-0.07619607,0.0552683,-0.097282924,0.068141304,-0.09043162,0.121121176,-0.056548085,-0.13695762,0.039069444,-0.042372838,-0.024164958,0.04186577,0.057613723,-0.015716318,0.097080134,-0.10665646,0.12058005,-0.08778862,-0.101887226,0.016388327,0.073091775,-0.08821584,0.046842147,-0.13339739,-0.015289361,-0.00016456642,-0.029653912,0.11706908,-0.03453496,-0.01098457,0.1113908,-0.0598247,0.04595988,-0.05861596,0.08523468,-0.058656514,-0.08332696,-0.069574095,-0.08796094,0.024542166,0.118556544,-0.03555261,-0.051926132,-0.040873747,-0.10774693,-0.04377071,0.13579361,0.07145261,0.09380766,-0.0063324897,0.07919432,-0.02906402,-0.11445876,0.10283247,-0.018810324,-0.09085321,0.120112926,-0.013970428,0.051386915,0.025665674,-0.03991747,-0.065552175,0.0024340856,0.08420626,0.12318438,0.009120553,0.119770736,-0.03777457,0.06252503,0.046214305,0.03523003,0.11136451,-0.041242052,-0.089448124,-0.04964874,-0.13082284,-0.026775848,-0.061923657,0.07476675,0.08237974,-0.082297914,0.0330632,0.097206116,-0.052757133,0.076270305,-0.020301133,0.020830935,-0.09740964,-0.008622807,-0.06872031,0.010477834,-0.042395115,-0.06928449,-0.09034031,0.11349903,0.0030589777,0.07146182,0.040883053,-0.0036035697,-0.08632642,0.041214295,0.04746085,-0.042546656,-0.061988566,-0.08378966,0.05358402,-0.056241468,0.10586875,0.08410998,-0.113489114,0.035617545,0.13403992,0.03332966,0.026830664,-0.030813964,0.07370654,0.03230003,0.06528466,-0.13603038,0.06991687,-0.025681116,0.035691828,0.1006962,-0.00466386,0.030899791,0.12326525,-0.046545632,0.035503153,-0.051272277,-0.006568588,-0.09244976,-0.07462388,-0.0029372496,0.08725578,-0.01385168,0.081201605,0.07883565,-0.08276402,-0.11254744,-0.09192417,-0.038904976,-0.18432786,0.007874704},{0.02593581,-0.08000892,0.037449755,-0.00602742,0.0030321607,-0.07911466,0.061398957,-0.023361484,-0.10959007,-0.118467726,-0.10022665,0.06865934,0.026338777,0.05555268,-0.005740406,-0.12175033,0.013772915,0.037766263,0.029870696,-0.13482454,-0.12223925,-0.00056349323,0.052751116,0.04925642,-0.034003165,0.06485463,-0.088247456,-0.06751939,0.05492264,-0.003486059,-0.02153822,-0.16430283,0.14145638,0.10951466,-0.022217484,0.049699772,-0.03957352,-0.017507082,-0.14810628,0.036312062,0.0880533,-0.099569,0.12314972,0.090506546,-0.030979723,0.041966073,-0.08917295,-0.095182136,0.0889737,0.13674982,0.024901282,-0.05665694,-0.028492095,0.02048586,0.1091603,-0.020736963,0.015845168,0.024948971,-0.08787629,0.112056784,0.022327652,0.071957245,-0.04598522,-0.028907135,-0.02878931,0.014163339,-0.11194753,0.12327989,-0.087498955,0.01662255,0.09490576,-0.020333583,0.08206456,-0.102190614,-0.015503639,-0.11078042,0.098101445,-0.009569757,0.09242578,0.05827299,0.13105206,0.035529397,0.024663396,-0.06395881,0.044048335,-0.099841505,-0.082159355,0.0020482375,-0.15934,0.0068130977,-0.12610117,3.445521e-05,-0.016556103,0.11731111,-0.046895783,0.01240029,0.07509309,-0.026804829,-0.12084329,-0.069320336,0.109404705,0.009229648,-0.06342055,0.08964544,-0.031306695,-0.060294878,-0.039865118,0.01399228,0.028942248,0.021708896,-0.06880323,0.09664971,-0.03510122,0.038389735,0.006077215,0.032765914,0.028428774,-0.05554122,0.12804165,0.050734915,-0.031218529,0.118703626,0.07519375,-0.009048685,0.0025860362,-0.10461932,0.09570017,0.033694603,0.0022293895,-0.034785133,-0.015467828,0.109053865,0.13447466,0.04611437,-0.12116167,-0.036009077,-0.06125917,0.010692431,0.035776217,0.014165036,0.0020336653,0.003847432,0.10041379,0.10866581,0.050427172,0.048175678,0.04039214,-0.03014257,0.023971189,-0.10167979,-0.06346372,-0.044624098,0.059593797,-0.004897004,0.033719845,0.057046164,0.02911689,-0.093696296,-0.052048672,-0.04609471,-0.06535976,-0.055804037,-0.060124088,0.12922955,-0.03246928,0.008076785,-0.025109228,0.052029844,-0.08461847,0.0052679474,-0.11914969,-0.008559883,0.016056549,0.046656452,-0.094638705,0.008350029,0.033967264,-0.0033471503,0.07717237,0.00654968,0.11315922,0.10124303,-0.105196185,-0.04173353,-0.06485566,0.04231402,-0.04053024,-0.05131465,-0.038048416,-0.024314702,0.011438877,-0.0752809,0.12900674,-0.024746437,0.027311608,-0.0055390224,0.09451071,0.07734465,0.022408117,-0.012655649,0.01590464,0.026416607,0.12106375,-0.11636517,-0.078096546,-0.10784135,0.102881506,0.048134398,-0.026464837,-0.023581669,-0.016004166,0.022790676,0.04661533,-0.06444221,0.03489706,0.013816786,-0.12475618,0.12237258,-0.016454618,0.09314307,-0.034644175,-0.13463274,-0.082672104,-0.08326225,0.061434496,0.14523551,0.006041196,-0.036066372,0.015038337,-0.094175205,0.07386459,-0.059770405,-0.11802934,-0.01770847,-0.012919602,-0.01815488,0.055186223,0.032196175,0.050016288,0.048252646,-0.11881065,-0.14044437,0.05373065,0.10644612,0.04172374,-0.011167912,-0.021403145,-0.01929137,0.0400388,-0.040411465,-0.076626,0.08116936,0.08224707,0.05181848,-0.15088986,-0.11707866},{-0.0942328,0.06426297,0.006042448,-0.02181219,-0.098398276,-0.11434362,-0.072148554,-0.002080752,0.07336632,-0.07788718,0.14045787,-0.041920397,0.080461286,0.011195735,-0.0032920057,-0.12961787,-0.042308833,-0.03273858,-0.06947632,0.0075806356,-0.028404264,0.04595044,0.101997,0.015062066,-0.049126875,-0.013481665,0.11726284,0.017298315,-0.07860696,0.038462326,-0.04404706,0.014033618,-0.0072730887,-0.04872564,0.12551665,-0.069352485,0.1309205,0.0013164879,-0.016519556,-0.057461943,-0.07883698,-0.05669242,0.008194873,0.06734848,-0.019249057,-0.01833886,0.05472866,-0.08856486,-0.042587273,0.08568889,0.038285956,-0.008548438,0.064738065,-0.08594146,0.11627797,0.029928885,-0.03525469,0.029589936,-0.056680623,-0.067628056,0.023076696,-0.012309265,0.046583448,-0.028206555,0.113439515,0.100760356,-0.054173008,0.023379136,-0.12357499,-0.029313779,0.06736886,0.10575341,0.11081551,0.010028636,0.126527,-0.06452948,0.013384238,-0.08742492,-0.018084127,-0.04778752,0.039959263,0.044951975,0.109725684,0.011845608,0.11037904,-0.041882236,0.011833791,-0.038252592,-0.060918543,0.09869914,0.05388696,0.01976164,-0.15858941,0.06416735,-0.04981098,-0.0032714228,-0.010458903,0.04892954,-0.07309498,0.012025389,0.14733958,0.06673619,0.035424605,0.049780387,0.0651988,-0.090568565,0.07987226,-0.0148060955,0.045441214,0.2140416,-0.06866341,-0.0009552862,0.1324754,0.107169844,-0.008716675,0.17951596,-0.06310512,-0.08485325,-0.050636306,-0.09674058,-0.008233237,0.054894462,-0.012254628,-0.10845169,0.11194774,-0.04065624,0.09789511,0.064420246,-0.11505843,-0.022362852,-0.057300758,0.08409172,0.15145147,-0.05399553,0.05089696,0.026548954,-0.018340334,0.0074919034,-0.035039995,0.08505223,0.083481684,-0.124939114,0.015408742,0.06709455,0.0364332,-0.039470956,0.07137068,0.06119199,0.05644651,-0.014481642,-0.096950024,-0.10402341,-0.122725345,0.022442978,-0.03141941,0.009431141,0.046900827,0.028416546,-0.055509754,0.01647425,0.0014207937,0.023370363,-0.09556299,0.10030996,0.05417938,-0.12729077,0.0589538,-0.0788385,-0.045966655,0.0666047,0.038994014,0.0024226278,0.06495537,-0.007314473,-0.04703957,0.04521345,0.011668423,-0.018962407,0.086594306,-0.1028647,-0.031056948,0.059343774,-0.011401073,-0.12260805,0.0038307877,0.023026694,0.009947368,0.0091875065,-0.113369085,-0.05192406,-0.06386062,-0.16998933,0.0256852,-0.108997956,0.0022782579,0.004537241,0.013032796,-0.10126015,0.055115636,-0.014112273,0.156271,-0.015387962,0.033970702,0.02769171,-0.08751389,0.07708389,0.111427315,-0.045790765,-0.074471116,-0.01222335,0.066916324,-0.07505878,0.036165383,-0.0057657193,0.019994274,0.0031748356,-0.100771494,0.01621759,-0.0076176417,-0.07993706,0.026614433,-0.027579192,-0.075332195,0.059932362,0.026478224,-0.042829957,-0.019793248,0.06782147,0.007528248,-0.005336485,0.06580647,0.07066874,-0.079056606,0.069952965,0.046972126,0.0874111,-0.008490133,0.040644076,-0.031553622,-0.093660444,-0.08350708,0.011306316,-0.074276075,-0.022373658,0.029968785,0.064693816,-0.08435808,0.04309608,0.02462229,-0.033978347,0.0028338116,-0.11013633,-0.07206926,0.18872467,-0.13029212,0.07197875},{0.09599684,0.14094113,-0.031949457,0.07428938,-0.07668662,0.07041489,0.037009954,-0.07637824,0.042070597,0.041129325,0.11929283,-0.10666024,0.014460189,-0.031874906,-0.053069655,-0.05184953,0.009855962,0.00833886,-0.04040267,-0.077187024,-0.054205112,-0.052105602,0.040938064,0.075603604,-0.026772728,0.013299468,0.05376479,-0.07280055,0.07818083,0.026956402,-0.12989406,-0.07539632,0.19611634,-0.0428552,0.10376041,-0.13971029,-0.08036699,-0.0057876245,0.07622364,0.06772578,0.051380318,-0.052002836,0.11723398,-0.0019155331,-0.020598166,-0.024149086,0.05391041,-0.0478702,0.035403937,-0.07025675,-0.031404983,-0.1744615,0.08152383,-0.046609845,0.07684985,-0.092715696,0.08518392,0.09015365,0.029587112,-0.003955526,0.08288708,0.09104701,0.11116513,-0.08906383,-0.031256244,-0.048645,0.054936316,-0.039163575,0.031467896,0.038852744,-0.083002724,0.11908845,-0.014089547,0.009963638,-0.010553938,-0.05142958,0.10580351,-0.10292255,0.07150295,-0.049357776,0.029842084,0.06786714,-0.02806066,0.05917022,0.0090957675,-0.0019945926,-0.064302824,-0.007449969,0.14070196,0.058451388,-0.11742729,-0.0967669,-0.060264725,0.072432816,-0.0048978403,-0.08302768,0.038221963,-0.08270089,0.023101939,0.08581355,0.18060818,0.016411152,-0.01392251,0.021012126,-0.051723525,-0.05507526,0.013564309,0.061707012,0.10177876,0.11621438,-0.05440596,-0.0514512,0.12608175,-0.07486769,0.06598206,0.1359409,-0.011237233,-0.08211538,0.10079624,-0.0568397,0.071550764,0.009110111,0.0058020647,-0.07413257,0.021004288,0.026755285,-0.049050763,-0.0065050083,-0.076152995,-0.047359496,-0.02298846,0.021378262,0.07999561,-0.0075684083,-0.12623271,0.0040826197,-0.060528398,0.103785574,0.011484693,0.040428836,0.015712606,-0.010373497,0.01746098,0.0038906515,-0.017082594,-0.058214474,0.0387405,-0.088295236,-0.10393861,0.013709846,0.08053354,0.011227373,-0.10082931,0.0037935958,0.063006826,-0.01019028,-0.054023873,-0.013475594,0.07924367,-0.005097544,0.028195895,-0.07609319,-0.08387518,-0.04509864,0.11891906,-0.108476184,-0.06774443,-0.05795278,-0.008669297,0.078706905,-0.00840472,-0.044181794,-0.02468672,-0.008425608,0.026271174,0.1707319,0.13096358,0.076656,0.08067448,0.0032047536,-0.0021527244,0.095948,0.079582654,-0.1162992,0.062405784,0.13770944,0.09770883,-0.05482255,-0.09057612,-0.12686427,-0.010542849,-0.027909549,-0.01981338,-0.007752031,-0.0015755877,-0.024046298,-0.000502735,-0.11158223,-0.07695725,-0.10548332,0.026263569,-0.110099845,0.08280754,-0.10193927,-0.09467013,0.14179732,0.027695112,-0.11107055,0.113995194,-0.063968875,0.013316636,-0.073538125,-0.0467743,0.045673423,0.025608908,0.03451723,-0.042182647,-0.012580229,0.05236385,-0.010203719,-0.045415334,-0.033299636,-0.118959695,0.035291154,-0.0106512355,0.13944772,-0.07903853,0.08925371,-0.084557265,0.010951355,-0.05447751,0.041541908,0.0029693206,0.0130843595,0.052526716,-0.04680998,-0.0534188,0.016693668,-0.08546195,0.07899501,0.017973937,-0.14009213,-0.010249441,0.04217681,-0.018055614,0.07766443,-0.02292802,-0.005016833,-0.07703579,0.119805664,0.051680893,0.033024523,-0.0592029,0.026104659,-0.117618084,-0.089710176},{-0.026865866,-0.0091983015,-0.017445672,0.04191959,0.06872149,0.0920111,-0.146925,-0.020254668,0.04463696,-0.10870247,0.1141584,0.033370785,-0.099550135,0.004301454,-0.07678745,0.0155167915,0.040927548,-0.086783014,0.13140365,-0.14754912,0.03731203,0.01867694,0.09531268,0.13008754,0.10546525,0.12154763,0.028743807,-0.018217405,0.09161118,-0.029713215,-0.05928578,0.026305445,-0.09001866,-0.09478646,0.0051361914,-0.10035571,0.15711431,0.033816386,-0.03728878,-0.057383463,0.05865123,-0.0648848,0.07585074,-0.05650007,-0.08891778,0.01598276,-0.0787325,-0.056219086,-0.063630275,0.095189326,0.057904813,0.024252877,0.13215472,0.0803575,-0.016676465,0.07225157,0.03635661,0.01827214,-0.1330913,0.013015585,0.038726307,0.1002186,0.07104554,0.035548568,0.16595007,0.082858786,-0.07695338,-0.12310885,0.12090181,0.0036924877,-0.03524016,0.020515326,0.1033245,0.007704235,0.043255076,0.07598919,0.03098044,-0.009944862,0.03201003,0.026994651,-0.04195424,-0.055837147,0.09406878,0.045122247,-0.06079465,0.032151964,-0.090484634,0.034454625,0.0582678,0.067711234,-0.015247153,0.031704996,-0.13325334,-0.017591082,-0.12872702,-0.0059411637,0.016564475,-0.037512038,-0.06529437,-0.032557707,-0.013722204,0.08997533,0.058073606,-0.088804714,-0.12366432,0.00030275155,-0.024135143,0.10345286,0.15547167,0.08250335,0.068378136,0.10080666,-0.11464777,-0.13373847,0.026979366,0.14426385,0.08982331,0.06314109,-0.03625769,-0.116954826,0.025634699,0.010052613,-0.07814792,0.08435371,-0.08867533,0.06818332,-0.02522244,0.0057035433,-0.025358705,-0.13837567,-0.11425912,-0.01943141,-0.073281,0.020050598,-0.13917081,-0.026268158,-0.14857471,0.09771359,0.0858994,-0.006789028,0.008198401,-0.06320935,0.020876532,0.04891531,0.026872333,-0.05563128,-0.08588933,-0.10304106,-0.013979971,0.040222514,-0.1236922,-0.065584175,-0.060567554,-0.07966933,0.006996532,0.0036777598,0.07189509,0.0026948021,-0.12763295,-0.12321423,-0.11070898,0.10474295,0.041045003,-0.12536746,0.08487685,-0.09990769,0.08179532,0.055988465,0.016182378,0.11526158,0.10579225,0.01752854,0.00030062025,0.011915988,-0.0011357004,0.061265368,0.10047184,0.094749965,-0.043143224,-0.002575595,0.057681713,0.1787903,-0.050226092,-0.01344165,-0.0037863348,0.09346709,-0.049293105,-0.14709298,0.09578388,-0.15461528,0.0007959828,-0.04345238,0.036696676,-0.17385475,0.046797417,-0.115739405,0.02501162,-0.022724696,0.09216042,-0.12676458,0.16163978,-0.11990627,-0.01646866,0.05438982,-0.012536558,-0.0775201,-0.079112284,-0.018329497,0.016865509,0.09579049,-0.013297009,0.018084662,-0.1301582,-0.012443064,0.084931694,-0.053511847,-0.10040303,-0.08868912,-0.12483828,0.043513987,0.02287406,0.097485244,0.09233579,0.02147124,0.121153854,-0.06765534,-0.084120534,0.05134978,-0.12794772,-0.0028690968,-0.018253129,-0.062006854,-0.08638023,-0.062491752,0.040349003,0.08463204,0.07221649,0.00051987567,0.10062957,0.021954546,0.048343647,-0.081929624,0.05405045,-0.03838036,0.0765586,-0.09867866,-0.07090008,-0.033213705,0.0026191084,0.0870946,0.107014425,0.026238564,0.043794204,-0.10001214,-0.05876372,-0.015167405},{0.028634343,0.019933937,-0.055109613,-0.10732307,-0.0058515714,0.011435244,0.055926275,0.12185982,-0.00723274,0.045127276,0.10377919,-0.11430874,-0.01217695,0.08331574,0.0047789332,0.115597285,-0.06390473,-0.061253153,-0.0023339116,0.032555502,-0.024390884,-0.033337988,0.10440822,0.032713756,0.0082270615,0.07727494,0.0005382498,0.11559925,0.088440284,0.11087172,0.07139713,0.070672676,-0.02813583,0.029905174,0.006375998,-0.13496892,0.041324712,-0.12608771,0.08952128,-0.11151242,0.04319662,0.020720974,0.14393018,-0.011819485,-0.0708138,-0.048084803,-0.0068268664,-0.08341068,-0.093718834,0.0046422677,0.052084103,-0.10379712,0.12646902,-0.10771074,0.038589083,0.12423896,-0.020829951,-0.14159532,-0.10211141,0.08673719,0.113886364,0.013091766,-0.06419609,-0.010906693,0.010633845,0.036652967,-0.10192561,-0.093575716,0.034633774,-0.14343527,-0.12411823,0.0053290455,0.09582067,-0.011389176,0.09105292,-0.037677627,0.085673854,0.09538812,0.01992859,0.026200658,0.025487887,-0.08182338,-0.05253301,0.04182012,-0.050953835,0.10262496,-0.0823825,-0.11558907,0.048549805,0.052742407,-0.045479354,-0.069005094,-0.10510882,-0.09502425,-0.10847597,-0.07639932,-0.030665807,0.0671529,-0.07738185,0.09328954,-0.032221925,0.03428635,0.041949335,-0.056594674,0.04704493,0.07448679,0.04773064,0.097182915,0.007396564,-0.08892747,-0.022510812,-0.063917324,0.06497347,0.024757423,-0.004800556,-0.08162742,0.059957523,0.049869675,-0.0171299,-0.056637324,-0.060053267,-0.10387668,-0.056464434,0.14562462,-0.096065745,0.115802824,0.057601172,0.019899769,0.021170981,-0.034735855,-0.049314473,-0.061151113,0.005926045,-0.06591026,-0.11589397,0.105666064,-0.072512195,-0.021459904,0.0531014,-0.13665566,-0.023137666,0.074606024,0.1228553,0.019685604,-0.08695462,-0.07207903,-0.06514109,-0.012250638,-0.07532141,0.1051671,-0.07190699,-0.03965589,0.032310087,-0.1300722,-0.034723885,0.06229675,0.019497875,0.008382415,-0.1370394,-0.081995405,0.11691318,0.06966199,0.10817963,0.017901514,0.09401294,-0.11199499,-0.037692335,0.061227065,0.11502618,0.0110342195,0.06578229,0.113079734,0.0875798,-0.1254384,-0.055073615,-0.051559143,0.12521468,0.07084134,0.053981364,-0.009249636,0.090679996,0.032280907,-0.033405732,0.06445392,-0.030367846,0.020663707,-0.01283407,-0.15796061,0.061344486,-0.0020481271,0.07091503,0.12148307,0.02224532,-0.1159891,-0.016177533,-0.05084182,0.016059075,-0.006086905,-0.04025924,0.046975136,0.121513374,0.07348134,0.016915092,0.053458612,0.040524345,0.07327198,0.05715158,-0.055437297,0.008576578,0.08939094,0.074977405,0.09076633,0.09276123,0.07001886,-0.046565056,0.09833714,-0.0784724,-0.013906078,-0.10407834,-0.008828424,-0.010485958,0.036307454,0.06743677,0.008519943,0.077029586,-0.046047527,-0.036314163,0.02235786,0.059817202,0.09037918,-0.09419028,0.061410844,-0.10187573,-0.042386234,0.06551634,-0.023238651,0.03359519,0.08547652,0.007280917,-0.053849343,0.130758,0.053783543,-0.033329103,-0.05576489,-0.13789211,0.06500058,0.11169919,-0.11648095,-0.1071451,-0.0031153304,0.080324516,-0.15656276,-0.03572433,-0.06845823,-0.15958317,-0.05708128},{0.02137872,0.0354992,-0.004534736,0.06785432,-0.017996164,0.09098807,0.07237484,0.06061025,-0.07447491,0.015724141,-0.030172773,-0.016464606,0.026999747,0.076121606,0.05048584,-0.04111874,0.046778966,-0.08890467,-0.037352227,-0.12617208,0.10806315,0.016446242,-0.0002272439,0.0846645,0.09432429,-0.018366683,0.11227024,-0.022190832,0.090918235,-0.0631135,0.034747217,0.104308695,-0.12736759,-0.124748364,-0.08852646,0.02491003,-0.034437336,0.11468197,0.063429445,-0.0020011314,0.09433607,0.080156416,0.055756357,0.028354833,0.043432657,0.043449666,-0.11096025,0.03973321,-0.05157289,-0.05569624,0.034347072,-0.074767604,0.14196502,-0.05565857,0.13876562,0.053051114,-0.029180257,-0.12561294,-0.07020195,-0.049980137,0.026255123,-0.120234616,0.055317927,-0.0062888316,0.13403012,-0.024052136,0.010783309,0.08548008,0.07464601,-0.0033871727,0.02393173,0.017276293,-0.02501722,0.0055556167,0.07510444,-0.09292375,0.08645707,0.001478334,-0.033340868,-0.011259809,0.109884925,-0.1702888,-0.039888736,-0.035808265,-0.008486982,-0.04994323,-0.076720335,-0.09154068,0.011381036,0.11445361,-0.0015413617,0.050509896,0.0011877385,-0.020085933,-0.0057388376,-0.011629906,-0.07144091,0.08642667,-0.05722026,0.08517282,-0.121038,-0.021115925,-0.042377163,-0.10829932,0.04516365,-0.13761973,0.011778134,-0.0012581272,-0.056167856,-0.060251553,-0.12587646,-0.09246899,-0.12714642,0.06469671,0.112483546,-0.15628341,0.08330339,-0.13385873,0.025423778,0.10875769,0.116307594,-0.14122394,-0.028133607,0.009098761,0.020882646,0.02154824,-0.12759426,0.10681615,0.06695349,0.040578283,0.064046726,-0.05749109,-0.15870944,0.05334626,-0.04065008,0.18144056,-0.096199386,-0.025670854,0.04339556,-0.09945349,0.088042766,0.037479363,0.08664663,-0.04712126,0.06326908,-0.12834299,-0.0679784,0.14099385,0.03868718,0.076616436,-0.111170046,0.004215978,-0.14833425,-0.15762888,-0.0005857767,-0.034869887,0.07508647,-0.09735162,-0.080961116,-0.11243455,0.07845039,0.072406925,0.010898106,0.022437096,-0.017375719,-0.12282192,0.019492177,-0.044342656,-0.059237503,-0.06896576,0.026610222,0.09645943,0.059617102,0.013276671,-0.08228726,0.07265671,0.035012033,-0.051133294,0.13850357,-0.11305177,0.05272141,0.013755432,0.048540223,0.016496712,0.09968177,-0.030021437,-0.15340352,0.04738014,0.071354635,0.048725713,0.10418917,0.078793496,-0.15861306,0.010818566,0.117813565,0.13743246,-0.021544011,-0.015411009,-0.061882455,-0.026949685,0.08254327,-0.023079848,-0.07379403,0.02860169,0.09495174,-0.08201282,-0.1002837,0.099921815,0.12243766,0.00103677,0.013845434,0.059379764,0.1283637,-0.06858642,-0.0057151834,0.09951412,0.0044155275,-0.029917488,0.06482632,-0.08397897,0.05968695,0.08056319,-0.06699044,0.06287357,0.08344493,0.0066974023,0.109386116,0.02733595,-0.09118302,-0.10658006,-0.0048287604,0.080446124,0.024355413,-0.12638581,-0.114532,0.006160641,0.11233492,0.0052862214,-0.0061669815,0.10235962,-0.10283437,0.020310523,-0.053595897,0.08000513,-0.010775956,-0.09302401,0.09800414,-0.04053844,-0.040563997,0.08984098,-0.015132994,-0.047738466,-0.030432597,-0.04401218,-0.0008265376,-0.05982392},{0.044762973,0.011488681,-0.06714329,-0.014121515,-0.020176684,0.08801484,0.08228087,0.00042869773,-0.14074467,-0.031451106,0.009054093,0.05850971,-0.054127548,-0.061118804,0.021318357,-0.08792087,-0.09654181,-0.038543373,0.06282398,-0.11127587,0.14138068,-0.13881455,0.124194846,-0.059086222,-0.08768733,-0.061333977,0.110320754,-0.046484906,-0.04067602,-0.117923416,0.061171006,-0.007171795,-0.09047167,-0.103648596,-0.010744178,-0.035201874,0.08785764,0.079505354,0.05920797,0.07262012,-0.10033616,0.036556438,0.06651202,0.05635263,0.04245161,0.034299955,-0.05801745,0.039199937,-0.1025102,-0.097752966,-0.07465014,-0.05985729,0.029589204,-0.079808615,0.04700894,0.06269666,0.0017030357,0.13562079,-0.085979365,-0.06285829,0.12544672,-0.033574987,0.049906425,-0.09624318,-0.043261793,-0.0041502495,-0.08177292,0.16625346,0.06060869,-0.13345277,0.026660917,-0.09393855,0.09186296,-0.048063725,0.043860782,-0.070385195,-0.06257107,0.06673112,0.14823414,0.15109871,-0.076119475,0.09344795,-0.019942462,-0.03681302,0.17667915,-0.06481826,0.09960882,0.06136703,0.122308955,-0.021958351,0.11832233,0.03481653,0.0050117522,-0.035967108,0.05366456,0.0007986754,0.015330449,0.11050782,0.07370482,0.059734985,0.1111159,-0.070762016,0.08810783,-0.11308429,0.059295878,0.023040794,0.1528372,-0.060127657,0.07154858,0.012381374,-0.049967505,-0.00067145133,0.07067917,-0.12888312,0.04504134,-0.10486981,0.06889144,-0.059732497,0.09906716,0.15158424,-0.032755155,-0.06949521,0.048481356,0.029298548,0.071682826,-0.10237665,0.03515307,0.0042428686,-0.013383268,-0.014674029,0.0844296,0.042371508,-0.05498007,0.036111005,-0.026482482,0.026245479,-0.17466193,-0.085481435,0.07908845,-0.11707974,0.013810213,0.05001772,0.044025496,0.015828863,0.0944848,-0.039329913,-0.043109693,0.012156763,-0.01088136,0.034218725,0.00041776046,0.0051880265,0.073978394,-0.08467162,-0.0029038892,-0.07322558,0.016366573,0.009818061,-0.06582348,0.023571212,0.07515996,0.034813017,0.011760617,0.14291635,-0.13067536,-0.065266654,0.06371555,-0.01880143,-0.09997628,0.09632558,-0.11583443,0.024258904,-0.12121237,-0.12500013,0.08212857,0.0081659565,-0.016324116,0.044858065,0.10189927,-0.10501846,0.037548345,0.10308096,-0.07570391,-0.03144005,-0.041080497,0.022904364,-0.14329425,-0.010392069,-0.041195177,0.022155844,-0.050923053,-0.05031076,0.008866936,-0.032192532,-0.037067547,0.16804105,0.013546947,0.014222058,-0.033368345,-0.001096732,-0.041298047,-0.079520196,0.11630354,0.104924165,0.07012963,0.042090826,-0.056441464,-0.031730447,0.09232518,0.120003626,-0.030530572,0.018106591,0.14094083,-0.118185684,-0.05412317,0.18143137,-0.11872493,0.05161624,0.053475153,-0.02071984,0.121593796,-0.0074420497,0.03605388,0.032660875,0.12124934,-0.0062469873,0.020691201,-0.022290127,-0.044416122,0.052668568,-0.015674852,0.037072875,0.009788345,0.08337631,-0.11529958,-0.04431052,0.16402191,0.13450584,0.108841084,0.0740089,-0.028310494,0.058647264,-0.05554691,-0.104485,-0.1150748,0.11763259,-0.06504265,0.0248215,0.037366852,-0.022917358,0.0085096,-0.11292858,-0.10347408,-0.105443716,-0.107734926,0.0772458},{-0.056813948,-0.11330777,0.07372141,-0.047871973,0.026302693,0.018167652,-0.031440407,0.09484597,-0.082744285,0.09411538,0.04267837,0.08372773,0.04820653,-0.07963084,0.12635282,-0.08029628,-0.12876913,-0.11302131,0.053184286,-0.10570442,0.085826255,0.048357416,-0.0069215177,0.115040176,-0.051170874,0.002303737,-0.040894225,0.08528204,-0.049602997,-0.10616486,-0.12580511,-0.005005228,0.037787005,0.0010060467,0.008921849,-0.048751533,-0.06029551,0.08499331,-0.08671928,-0.021815771,0.07021303,0.11107299,-0.015052446,-0.021582028,0.043581355,-0.04083575,0.118993714,0.009506846,0.030681096,0.06703135,0.03622482,-0.09193638,0.08598839,-0.005325588,-0.062672496,0.087470405,0.14365523,0.014393017,-0.12967652,-0.06401361,-0.02160709,-0.06858305,0.1330461,-0.049502302,0.09920915,0.017688932,0.01977536,0.15393847,-0.045170434,0.08671797,0.023614472,0.01890462,0.010203516,0.03820591,-0.12212346,-0.018002508,0.0006581355,0.09694636,-0.013445976,0.091121376,0.0018248874,0.07114709,-0.09485941,0.09172808,-0.08505952,-0.12922522,-0.12400858,-0.08916867,0.092072405,0.08524119,-0.09649997,0.018874312,0.11354684,-0.023267366,0.03691181,-0.011344297,-0.037573762,-0.083264865,-0.10192976,-0.056097597,-0.06880943,-0.08604872,0.037175298,0.07985624,0.14412507,-0.11193538,0.10969945,0.024477672,0.08544417,-0.032456387,-0.14527082,-0.051559355,0.03666326,0.111433096,0.03185848,0.00021879251,-0.034226682,-0.13700232,0.11170868,0.12905124,0.044564463,-0.059046734,-0.027733527,-0.034004655,0.05245434,-0.053729802,0.037623845,-0.0067532007,-0.03941398,-0.07560988,-0.04966425,-0.011825859,0.060354378,0.07002431,-0.077947624,-0.017411144,-0.060591932,-0.09385014,0.0629854,0.10961053,-0.10204861,0.039975163,-0.086728565,-0.010320981,0.05008132,-0.12994947,0.15991545,-0.007468496,-0.07685571,0.07864926,-0.05313386,0.074041225,0.07760296,-0.036710083,-0.08011302,-0.090466134,-0.0015689988,-0.096516624,0.084814094,0.034847375,0.05583649,-0.0690056,-0.04264898,0.13912234,-0.07250917,-0.010705804,0.05049575,0.11218607,-0.081598096,0.057870492,-0.024757117,-0.045974918,0.026841797,-0.07049366,-0.05466766,-0.11844798,0.022067996,0.07754186,-0.052090377,0.099244095,-0.04449576,0.12476617,0.085580446,0.065206625,0.13243659,-0.0017027562,-0.08144601,-0.05637946,0.10895177,0.16609144,0.05030968,0.028119946,-0.10680007,-0.16082928,0.041214593,-0.11310424,-0.0977468,0.051750563,0.08647747,0.0027102332,0.010303886,-0.013215417,0.05417373,0.030542362,0.0458398,-0.04850952,-0.08647712,0.1322376,-0.039860632,-0.0451416,-0.13987102,-0.06113863,-0.11396305,-0.070398614,0.110982046,-0.03565396,-0.040451955,-0.07148182,0.058296558,-0.0012706217,0.005891466,-0.14103383,-0.016420322,0.09213885,0.009092272,-0.10223616,0.033931937,-0.01733425,-0.010874498,-0.118096545,0.07192927,-0.0685669,-0.104958475,-0.08534564,-0.18457328,-0.12691183,-0.011472467,-0.013121116,-0.0005197485,-0.11960222,-0.08989128,-0.08023484,0.01700732,-0.057826694,-0.016141247,0.06308438,-0.011160727,0.10970907,0.048709806,-0.035240278,0.043704998,0.04340352,-0.058139414,0.07331089,-0.14178425,0.07125507},{0.031740185,-0.05668453,-0.062442057,0.028101712,0.10701278,-0.06585175,-0.01959661,-0.04850206,0.091400035,-0.09366533,-0.081625916,-0.004963605,0.0068384926,0.03836168,0.05321513,-0.11215661,0.11662726,-0.15024991,0.044893276,0.03116205,-0.08379742,0.008966057,0.011714015,0.04281455,-0.06851038,0.072520904,-0.07049546,0.116454385,0.03353904,0.024532346,0.048185483,0.028250365,-0.06185178,0.021375597,0.06917539,0.021129044,-0.025817016,-0.021668332,0.0103573315,0.040023528,-0.14270344,-0.03203755,-0.063264094,0.10149931,0.024887927,0.013350807,0.011197042,-0.070472494,0.013123418,-0.08147176,-0.011585677,-0.03064528,-0.009961554,0.044719048,0.040373728,0.018755665,-0.028403243,0.12671584,-0.021294298,0.064292915,-0.08152694,-0.043613505,-0.009614892,0.07466436,0.13120043,0.02714011,-0.11782552,0.124168955,-0.16985124,0.106852576,-0.1115536,-0.032542147,0.08625748,-0.110468335,-0.070278235,-0.058606416,-0.084231794,-0.043383665,0.10095217,0.029129755,-0.041258775,-0.044487193,-0.085245974,-0.06718286,0.11606207,-0.11872914,0.03329404,-0.05256335,0.12492335,0.13128692,0.05845684,0.030447138,0.13876577,0.12762393,-0.026909815,0.063264765,0.02777713,-0.0063260454,-0.051742263,0.09794711,0.10114345,0.043711312,-0.091258444,-0.025559185,-0.078946166,-0.0553078,-0.015279268,0.06358415,0.03709972,-0.0504585,-0.11550691,-0.08216241,-0.003207911,-0.12574098,-0.088380344,-0.03240167,-0.015864853,0.008143824,-0.07368579,0.07066047,0.00288491,-0.10734879,0.0014433672,0.11270996,-0.06855055,-0.043455094,0.014856833,-0.035881758,0.009982253,0.014462327,0.043716427,0.02305061,0.037927672,0.09454658,-0.13184299,0.003695172,-0.04384066,-0.011739764,0.14168265,0.11068183,0.11388555,-0.075524695,-0.062220454,-0.049944352,0.008677067,0.012890972,0.06364473,-0.11377811,0.0669093,-0.0961479,0.08019628,0.09932836,-0.09646224,0.0130840875,-0.12502886,-0.0679758,-0.08130309,-0.085189424,-0.011160274,0.104450695,-0.12103986,-0.044214133,0.023528146,-0.010646647,-0.0051690317,0.11435552,0.059625566,0.056344956,-0.13458928,0.12117956,-0.07006726,0.06538827,0.016660737,0.021524237,-0.045013312,-0.05960633,-0.031444177,-0.041927118,0.13411771,0.020693893,0.12268181,0.08843483,0.0801149,0.09912765,-0.022120636,0.08419371,0.054109238,7.010349e-05,-0.117173985,-0.0027434137,0.058159955,-0.08169299,0.026857516,-0.12426028,0.062344115,-0.1358942,-0.11839731,-0.0761226,0.10261509,0.113120675,-0.15602583,0.03587036,0.033500906,-0.036457025,0.023201138,-0.06704273,0.045912284,0.030303275,0.08199776,0.061769884,-0.033397883,-0.069429725,0.08980613,-0.07261245,-0.017132517,0.061548356,0.022854134,0.02379124,-0.10380268,-0.037802592,0.08712834,-0.15261386,-0.09177314,0.024749191,-0.020867899,-0.07974001,-0.0067667696,-0.018244542,-0.07252298,-0.12347998,0.10682718,-0.054495264,-0.015251014,-0.09441174,0.023614986,-0.020640997,-0.033264093,-0.14487992,0.047076944,-0.09248875,0.12362578,0.10666125,-0.008629444,0.049689583,0.09544148,0.06575187,0.088171996,0.10521165,0.03651496,0.035121657,0.035603385,0.103947364,0.059167303,-0.04672479,-0.037568484,0.15318693},{-0.01698624,-0.13292341,-0.03381997,0.0026750008,-0.089933924,0.030424204,0.03390006,-0.08040205,-0.07439856,-0.14575371,-0.12435015,-0.00217996,-0.06452782,-0.114588134,-0.055469017,-0.09727687,0.108692534,-0.10128917,0.016019477,-0.11733033,-0.13266045,-0.0030665845,0.03232782,-0.041968707,-0.040950764,-0.036265284,-0.08502739,0.11672229,0.077156805,-0.0121622775,-0.040251087,-0.027880877,0.009638164,-0.11598473,-0.10160317,-0.057891257,-0.056476872,0.0102022,-0.10392275,-0.012058813,-0.0056301192,0.085448004,-0.106800616,0.102083184,0.03986921,-0.1433568,0.024380056,-0.024425276,-0.10532458,-0.017024966,-0.051891576,-0.10879672,-0.056363437,0.102966376,0.034453947,0.012709608,-0.048607912,-0.02422676,0.031626306,0.0021335257,0.041057035,0.057178326,0.12803005,-0.051103745,0.050422475,-0.11111293,-0.01551883,-0.14300728,-0.12161868,-0.038078148,0.030827884,-0.0226898,0.015997935,-0.007890996,-0.02958724,-0.13017175,0.12491504,0.043995712,0.034387957,-0.066193946,-0.0030439603,0.08342299,0.032254938,0.020154517,0.0016400777,0.07032529,-0.048004083,-0.04306556,-0.05564617,0.12565705,-0.105634004,-0.11132839,0.110879555,0.00089273043,-0.0050730584,0.0029436073,0.042433586,-0.08224266,-0.005565867,0.038548443,0.035942737,-0.089802735,0.019157965,0.1289645,0.12856157,0.024552766,-0.10071337,0.10835179,0.07125092,-0.05921625,0.11711267,0.09755001,0.1216976,0.0680454,0.10368606,0.036699828,-0.06640185,-0.11830199,0.051918786,-0.1180371,0.058208957,0.080280684,0.10417409,-0.029010464,0.08377555,0.007992612,-0.028922152,-0.055797227,-0.071630895,0.05971161,-0.05463693,0.06428669,0.09924549,0.016662097,-0.010100384,-0.03295516,-0.13142747,0.039448943,0.14526443,0.06684813,0.113084115,0.002312213,-0.023389827,0.038188472,0.11413018,0.09338221,0.008771695,0.009219933,0.05885528,0.059775606,-0.08216516,0.10642839,0.057680134,0.07010959,0.08638082,0.065946065,-0.0051525016,0.018567802,0.094809674,-0.11623074,0.013176739,0.07960428,-0.035674505,-0.153839,-0.058449734,0.045760848,0.029846065,0.0036226811,-0.07210432,-0.009783949,0.007398462,0.02742717,-0.05252235,-0.1539438,0.045621954,-0.06675592,-0.13995445,0.04194954,0.13911247,0.09794414,0.051572397,-0.015121803,-0.031110343,-0.018687341,0.11008177,-0.059012488,0.014870566,0.058243986,0.016242037,-0.022032244,-0.114110306,-0.10580396,-0.019344551,-0.09937891,0.11688928,-0.094323136,0.11059295,0.0038199613,-0.024112118,0.12525606,-0.11841531,0.07264409,0.050908126,0.053226802,-0.09061419,0.054804627,-0.026785983,-0.070250094,0.0374217,0.1267895,-0.03534038,-0.020221487,0.09707412,-0.10709927,0.09718572,-0.15653415,-0.12028099,-0.056841444,0.015870731,-0.04173035,0.10894926,-0.082055904,0.076545365,0.06835023,-0.05693705,-0.026037212,0.045126785,-0.05275333,-0.08224791,0.018197266,-0.031373277,-0.08327088,-0.04126779,-0.052442465,0.13153346,-0.08073746,-0.1261248,-0.115252405,-0.009958167,0.114401124,0.09921351,0.058248367,0.0009641961,0.017951652,0.13168149,0.102200024,-0.015672456,0.099557646,0.09100878,-0.05245532,-0.025962288,0.11149716,-0.12932186,0.13428345,0.025203383,0.06787578},{-0.012596818,-0.13388112,0.091229394,-0.012667639,0.090466894,0.008251118,0.025771465,-0.026061095,0.052862428,0.014941105,0.022224268,0.112433106,0.06721018,0.05781625,0.0955954,-0.094472244,-0.0008602189,-0.09413611,-0.04977228,-0.14158739,-0.07409053,-0.08270517,0.1824513,0.057508703,-0.0415124,-0.051772542,0.039180998,0.069574565,0.0911205,0.07665522,0.065817565,-0.1748548,-0.036692392,-0.005738144,-0.04036062,0.061479934,-0.12753789,-0.047418475,-0.08499808,-0.096783884,-0.013430077,-0.10709136,-0.013281584,0.16485299,0.066640474,0.058027923,0.093354724,-0.019712755,-0.032001197,-0.089053996,0.06382479,0.01850582,-0.117485754,0.12592101,0.06060791,-0.012929277,-0.032967795,-0.14170519,-0.024537703,-0.053909928,-0.006088074,0.05400415,-0.0252604,0.052304994,0.067262255,0.016368799,-0.05544304,-0.06316984,0.1072143,0.114355244,-0.04496636,-0.04933096,0.14132552,0.075074494,0.09709993,0.081921324,0.05500622,-0.00899574,0.111760385,-0.012407261,-0.068137735,0.05659154,-0.08052374,0.048161585,-0.113657944,0.09524511,-0.051002305,0.03950454,-0.038994264,0.08297618,0.040644724,0.026140861,0.13325243,-0.028831407,0.08331344,-0.063575275,-0.07011855,0.04845379,0.1250761,0.077093564,-0.081429146,-0.03349454,0.078067966,0.13425575,-0.0575964,0.13027625,-0.06969682,0.14834891,0.036816448,-0.085887104,0.076371804,-0.085807584,0.121954985,0.0163095,-0.0009475261,-0.071398705,0.05043524,-0.046507273,0.041100625,-0.04044442,0.08923836,0.06351091,0.09101121,0.09231007,0.085860334,0.10600185,-0.07809825,0.027806448,0.081861526,0.021693071,-0.113911554,-0.09323095,-0.020749826,0.0052539706,-0.07219868,-0.08646823,-0.13433246,-0.039622076,-0.02094731,0.038123302,-0.067307055,-0.09900087,0.039707188,0.116693914,0.045097418,0.010136138,0.07305393,-0.011622292,0.056675076,-0.11687885,-0.1529384,-0.020163085,0.03979891,0.21043593,0.044592045,-0.048658162,-0.018740239,-0.049590837,0.114049934,-0.044015426,0.02693345,-0.045575842,-0.04974523,-0.123319805,0.038263448,-0.100475356,-0.008651028,0.008265554,0.11894533,0.03560085,0.054920204,0.0975026,0.097680286,-0.09969405,-0.12156202,-0.05603819,0.055204302,0.031029604,0.06393184,0.10169959,-0.047398828,0.049539823,-0.014825539,0.057408497,0.09765787,0.008946689,0.060565032,-0.051145125,-0.1297409,-0.09642068,-0.03621229,0.009190642,0.12117832,-0.091710515,-0.0425091,-0.116378576,0.041971903,-0.012973245,0.007004808,-0.031405192,-0.04720839,-0.06753942,-0.0020941957,-0.014938906,-0.051592603,0.07849623,-0.047931883,0.030812645,0.07836277,0.120572135,-0.032790978,-0.041321278,0.015881637,0.09926198,0.054601777,-0.0921678,-0.06370304,0.07766874,-0.11448486,-0.049021073,0.10167928,-0.0035085464,0.024863493,-0.09578114,0.12580204,0.15734956,0.03899428,0.018939886,0.105619796,-0.040435534,0.08250067,-0.004489441,-0.043805394,0.065705344,-0.0296023,-0.09807582,-0.14272317,-0.16023758,-0.029626733,-0.06940249,-0.017472861,-0.13248704,0.040866937,0.03845629,-0.09927635,-0.11828517,0.057978123,0.00803134,0.06579407,-0.045616295,-0.047796007,-0.0095445225,0.13556589,0.12907198,-0.16282828,-0.042954113},{-0.06073567,0.0460935,-0.0335436,0.07210849,-0.058195174,-0.019905373,0.031742286,-0.048777074,-0.04507156,0.07079639,0.040501956,-0.056291386,-0.064295955,0.12040187,-0.07785729,0.06316102,0.012918722,0.03768332,-0.036352385,-0.058550056,0.04138247,-0.036923464,0.016933352,0.004270259,0.037682414,-0.054344684,0.09463955,-0.0768653,0.07736778,0.05311569,0.053960674,-0.16472691,0.038819198,-0.058742817,0.04272777,-0.076363295,0.07303243,0.07701916,0.11699901,-0.094062194,-0.014303092,-0.09672626,0.021788724,-0.03244258,-0.06854403,-0.14705274,-0.08465574,-0.17310399,-0.09107383,-0.08344222,0.06782026,-0.16144711,0.028031942,0.030856425,0.061396815,0.045224108,0.10982358,-0.1387257,-0.08364102,0.14812994,0.08673576,-0.10311154,0.106061384,0.04930292,0.12680838,-0.113539435,-0.059214987,-0.1345247,-0.053111605,0.046453603,-0.0011953572,0.08484016,0.093771346,0.10089468,0.04072172,0.17819569,-0.025086427,-0.0073171323,0.10311518,0.10289206,-0.016891029,-0.06817299,0.016040193,-0.049098667,-0.118208304,0.123312026,-0.012503822,0.052703213,-0.12807833,0.009299271,-0.07985398,0.009375028,-0.08074392,-0.01576722,-0.009755917,-0.01948495,-0.0035689007,0.070824616,0.080380626,-0.106504194,0.058392324,0.05283438,0.071818784,0.09716118,-0.043843977,0.072035715,-0.020292219,0.15430185,-0.064409584,-0.0036663439,0.09991931,0.07735907,0.0801444,-0.10265337,0.071007475,0.087846875,-0.05557186,-0.073611885,0.07112472,0.006234606,-0.04836322,0.11585461,0.027322667,0.07475705,0.10640616,-0.00186078,0.061824396,-0.042039957,-0.07897657,-0.0067838663,0.02194851,0.061233465,0.013064157,0.09125054,-0.04744952,0.035088062,-0.03870193,0.012582388,0.027504634,0.012240705,0.07909369,0.01858218,0.07001773,0.12653685,-0.073895305,0.08107513,-0.08103268,-0.05981057,0.100650445,-0.037875522,-0.07229706,-0.004330673,-0.053018868,0.042179797,-0.0041835,-0.013492735,-0.022218246,0.042497315,-0.06794419,0.05403528,-0.033177927,-0.014771174,0.1458195,-0.13829774,0.056462407,0.05583687,-0.045365117,-0.072931305,0.15643026,0.08634541,0.08599507,-0.04260645,0.07693687,-0.07913186,0.08509848,0.06690388,0.012062722,-0.1459499,0.096111886,-0.011081921,0.015987113,0.048224702,0.020230414,-0.13393985,-0.07041378,-0.08392838,0.101583816,0.101545215,0.12378535,-0.08184343,0.12134742,-0.02494418,0.08022245,-0.15609232,-0.033603385,-0.06073989,-0.035776045,-0.054964878,-0.081863455,0.059117563,0.0876039,-0.09520185,-0.019228972,-0.017523022,-0.029613327,0.028678441,0.032906566,-0.09642942,-0.06380224,0.08122713,-0.11630334,0.03633761,-0.0529125,0.0947819,0.029210212,-0.0003010692,-0.08309177,-0.035393525,-0.10233382,-0.050192036,0.04541964,0.06118742,0.10709719,-0.01070528,0.12577493,0.14715487,0.09913703,0.010263402,-0.09216167,-0.067245916,-0.065924786,0.08999919,0.09017229,0.0044306917,0.101993136,0.07602646,-0.21419072,-0.019971043,-0.09754636,-0.0526601,0.115055926,0.031611577,-0.04069622,0.040711336,-0.13651702,0.0038744113,0.023592703,0.01911835,0.06676475,0.02131617,0.14538085,-0.0059727184,0.11217846,0.101427495,-0.019500334,0.12704885},{-0.1431853,0.068585336,-0.04016859,0.022510894,-0.09255944,-0.053858414,-0.0046957447,-0.04790158,0.011723931,0.09603836,-0.080994785,0.09173623,0.03241577,-0.052211706,0.071289696,0.17342427,0.088590816,-0.05518275,0.1076816,-0.10244682,0.093379945,-0.035127815,-0.024309145,0.058098353,0.0035883288,-0.03560729,0.03578516,0.06701644,0.04664649,0.021173595,-0.12231386,-0.06794861,0.044081688,0.0039153136,-0.021681255,0.03803288,0.035067488,-0.014451584,0.15410595,0.06999266,-0.03800528,-0.0029237766,0.052928217,0.038330674,0.07833534,-0.07376107,0.0044885664,-0.083164014,-0.0020497248,-0.0657009,-0.087525964,-0.08453988,-0.061447892,0.03241181,0.15185659,0.049415473,-0.018696543,-0.1850865,-0.051808137,-0.013595083,-0.10362562,-0.07592138,0.08963571,-0.049212515,-0.038845517,0.030862898,0.009547825,0.038382616,0.061989598,-0.007843579,-0.058910675,0.012655155,0.052859727,-0.033924825,0.12445108,0.033643875,0.0092908405,-0.0971721,0.003778815,0.08849234,0.070189185,0.02425201,-0.022514608,0.019135313,0.021559581,0.08220478,-0.0037065651,-0.0037605758,-0.0890737,0.036292076,0.061785802,0.115666114,-0.08630882,0.016108206,0.060424462,-0.0505208,-0.118189506,-0.01943452,0.023697805,-0.029092336,0.024857096,-0.044663772,0.08073661,0.1525685,-0.0061075985,0.030723628,-0.07058923,0.16975541,0.11531111,-0.050106943,-0.08487177,0.064576104,0.011452754,-0.061524604,0.115697496,0.012409123,-0.01364603,0.031038703,0.066460975,-0.082764186,0.04646377,0.024030855,-0.06278639,-0.11987598,0.05373138,-0.080550514,-0.10572319,0.022485496,0.14584713,-0.020306487,-0.07800204,0.064902976,-0.12389763,0.02624795,-0.09567297,0.07325374,0.09042022,-0.03926712,-0.021691706,-0.10634656,-0.05934931,0.115796864,0.033399995,-0.07501204,-0.0733407,0.12155918,-0.11620952,-0.022613214,0.059379455,0.026338022,-0.03576168,-0.1002054,-0.13877554,0.14462522,-0.019650724,0.07367148,-0.030185431,0.05758775,-0.12538336,-0.09263461,-0.011318254,-0.042137075,-0.018553037,-0.15339619,0.13578151,0.034623154,-0.0111886505,0.010268576,-0.072523825,0.109699175,-0.02815802,0.10411108,0.024707787,-0.11314961,0.097039245,0.028795525,-0.058830515,-0.069493085,0.12725988,-0.020907464,-0.03537696,0.14321253,0.11900074,-0.1297861,-0.012203714,-0.037561342,-0.17071527,-0.07784365,0.1415456,-0.012869956,0.06770272,0.11898684,0.060255468,-0.070179164,0.018659266,0.07633434,0.03150164,0.11407267,0.09302278,0.03694472,0.013952487,-0.052780412,0.031397276,0.02084061,-0.04237925,0.14766665,0.02339418,0.030376839,-0.077115215,0.086839095,0.09023384,0.09410169,-0.07342085,-0.06249765,0.057231214,-0.02449486,0.010587325,0.008936628,-0.053756874,0.049121927,0.071595445,0.108134285,-0.012343489,-0.0244537,0.01009003,0.17427483,-0.013782719,-0.03764075,0.01085536,0.0022583427,-0.07554885,-0.14173442,0.081297055,0.06513527,-0.024891343,0.06959259,-0.10826617,-0.04403116,-0.014322547,-0.03799979,-0.09642348,0.071385086,0.113519825,-0.038402513,-0.10079202,-0.019162573,0.087613694,0.0406908,0.008881063,0.018361513,0.011838698,0.07362557,0.01780169,0.07975852,-0.095806554,-0.08800639},{-0.005941477,-0.070430756,0.009949923,-0.05392805,0.009482915,-0.005690747,-0.1464364,0.11530052,-0.08265786,0.00409862,0.039363686,0.030300448,-0.021667777,0.052039076,-0.122439586,0.08280123,0.078587815,-0.033452794,0.092907935,0.017331049,0.10834907,0.060972188,0.015650164,0.0884193,-0.06730187,0.11287338,0.12058249,0.12168634,-0.004299798,-0.06564984,-0.08902672,-0.056210373,-0.035239264,0.09884152,-0.06165729,-0.028061742,0.10506058,0.072625,0.035404477,0.05207628,0.10722618,0.009024826,-0.015741399,0.09277823,0.07194989,0.049388345,-0.093881726,-0.09393547,-0.04312259,0.10663397,-0.017410152,-0.04448994,-0.097497046,0.062859334,-0.0083227055,0.055093877,-0.06663287,-0.12042225,-0.1181287,0.038850002,-0.10057882,-0.022827782,-0.0011608495,0.054362677,0.074360445,0.028669022,0.0040384224,0.06594783,-0.0027090213,-0.14399432,-0.03793302,0.012505252,-0.03279077,0.06384294,-0.04837242,-0.014303516,0.09695975,-0.076919675,0.02561995,0.010049039,0.15554133,-0.10848521,-0.06553129,-0.09453048,0.17659557,0.048590217,0.067010954,0.0046916273,-0.082246155,0.05016652,0.11631498,0.06638222,0.0115461135,-0.06229328,0.022700114,0.06223438,-0.051407363,-0.079254694,0.07267333,0.07114056,-0.09476089,-0.09420945,0.083676,-0.04563638,0.06831992,0.1165232,0.020202007,-0.020321775,0.086660944,-0.04096487,0.043287,-0.00021604633,-0.103410535,0.042240288,-0.059227366,0.032150425,0.08374171,0.011972592,0.018167106,0.05929749,0.070822366,-0.03854928,-0.043395936,-0.1162385,0.029042404,0.067070656,0.08209554,-0.06603277,-0.07693325,-0.056872483,-0.047729224,-0.057237744,-0.17174324,-0.038984757,-0.17426434,0.09840664,-0.11789416,0.09535706,0.024366815,-0.0006172614,0.08138276,0.0066877212,-0.070174694,-0.055774387,-0.09430469,0.025100816,-0.09521056,-0.05825689,0.022929087,-0.13486467,0.025147334,-0.060748562,0.05267177,0.11582743,-0.13478144,0.052216344,-0.11993307,-0.042877693,0.08784862,0.08394869,0.0849534,-0.070050366,0.02198036,0.073768705,0.005886477,-0.021608459,0.017977063,0.11277378,-0.090757735,0.0835007,0.10643598,-0.053919762,0.045262698,-0.12732089,0.022018315,0.060820438,-0.06715319,0.08652057,0.054862704,0.012581391,-0.023025827,-0.03505851,0.009174682,0.0054597617,-0.066214524,0.013933143,0.004708818,-0.1001921,0.10666384,0.045731194,-0.04270578,0.12805955,-0.1027346,-0.22020681,-0.045397162,0.10510953,-0.031885143,-0.058019582,0.04887177,-0.07214004,0.11531445,-0.011516315,-0.015195693,-0.015755333,0.097213365,0.04027322,0.013142952,-0.008035816,-0.02365246,0.08556142,0.053172424,0.104383685,0.07823258,0.076979645,0.11285009,0.014270978,-0.13545197,-0.0846296,0.0033005273,-0.011976091,0.07997199,0.09482983,-0.0839198,-0.104984865,-0.056647282,-0.01374535,0.07324089,-0.060605902,-0.111313224,0.093287036,-0.12977493,-0.008134165,0.0037111703,0.00323076,-0.02977777,0.0039148354,0.13081414,0.047757782,0.030684851,0.02792905,-0.04761724,-0.12864429,0.11375812,-0.041848052,-0.07757246,0.12660792,0.105230086,-0.09039675,-0.018005358,-0.056717854,-0.116671614,-0.10494067,0.08112909,-0.11629239,-0.08108499,-0.017372668},{-0.12768374,-0.09089407,0.040134367,0.09538353,-0.08108553,0.074734606,-0.03130173,-0.052793335,-0.014154377,0.095935576,0.045164622,-0.11626761,-0.046785183,-0.030464701,0.10406839,0.011427592,-0.08600058,-0.01481055,0.03708589,-0.023133175,-0.11590431,0.13248779,0.16359887,-0.02264912,0.110185154,-0.08678705,0.07267663,0.011763664,0.012182837,-0.021534698,-0.04762769,0.0579107,-0.05077227,0.06056173,-0.07207937,-0.022616688,0.09004232,0.110917486,-0.023609608,-0.0009300617,0.05996642,0.10719123,0.11605234,-0.04544752,-0.070060104,-0.09918729,0.10576326,-0.041076377,0.059368335,-0.08988829,0.0042058188,-0.031680748,0.007082566,0.07325357,-0.012176065,0.077430405,0.097417876,-0.040694136,0.026290644,0.080407135,0.048829257,0.12587,-0.07128003,0.04287569,-0.07502799,-0.02972203,-0.054350927,-0.044783846,0.021003474,0.008441593,0.038140178,0.030717274,0.10126203,0.028163256,0.06902654,0.00036287046,-0.018354002,0.059340313,-0.032640975,-0.009646504,-0.015672049,0.0629337,-0.03419365,0.09846246,0.058874577,-0.07307594,0.0067181843,0.04606809,-0.13885562,0.08614848,-0.037137363,0.026651016,-0.107727416,-0.025828289,-0.020965546,-0.028194802,-0.03390669,0.042518597,0.05328362,0.0029215626,-0.060599934,-0.004650513,0.0030648175,-0.029197566,0.11532599,0.05414463,0.044703197,0.16156027,0.11475376,0.12990458,0.003728375,0.056586176,0.03460092,-0.016872937,-0.040843993,0.012627473,0.034914106,0.039333943,-0.05983463,-0.09918129,-0.10527717,0.05593219,-0.008179681,0.015768517,0.07077028,-0.11301507,-0.07687266,0.102584325,0.02311306,-0.073852815,-0.01759127,-0.044443246,-0.12721021,0.06413308,0.031356234,0.1258395,-0.061262105,-0.05716027,0.06595255,-0.12537031,0.018247288,0.0750908,0.00048780415,0.038641375,-0.07412355,-0.08899751,-0.0023371486,0.06559298,0.080202974,-0.054353606,-0.06892034,-0.043166146,-0.103603266,-0.0070881816,0.02232887,0.00834985,0.032000307,0.073418766,-0.10873425,0.016955972,-0.03436725,-0.017663743,-0.12391366,-0.014542801,-0.0829224,0.0029305962,-0.112271555,0.03682158,0.039992955,0.045874678,-0.08309966,0.08498,0.034477975,-0.11010358,-0.05524548,0.07021922,-0.051283583,-0.033135023,-0.052058797,-0.06909239,0.02936274,0.13394971,0.10862192,-0.03532865,0.09355412,-0.091456346,-0.025749322,0.06540817,-0.06693495,0.07520067,0.08902641,0.12001523,0.02656807,-0.10464053,0.0822565,0.1576541,-0.023841297,0.05228899,-0.016456455,0.13117439,0.06545188,0.047219086,0.07355577,-0.07220288,0.108695455,-0.048302867,-0.022223528,0.03554092,0.0027611905,-0.021835228,0.043247055,-0.06594823,-0.04736302,0.06084791,0.07509367,-0.00532601,-0.11589275,-0.094478086,0.014172379,-0.13898191,0.051102787,-0.10379287,-0.023516174,-0.04545092,0.0052426932,-0.023838047,0.071439214,0.002642093,-0.013473594,0.1619427,-0.047995336,-0.0808988,-0.00873727,-0.09262059,0.052909106,-0.008795378,0.14394362,0.038572673,0.12024451,0.019722577,-0.034511812,-0.12333104,0.100007184,-0.07399654,0.05116248,0.08000775,0.041906435,0.018757906,0.012269903,-0.038594216,-0.08068402,-0.0876343,0.04773865,-0.1612527,-0.11817975,-0.106695645},{0.06682985,0.07863914,-0.032845877,0.042424917,0.06759166,0.10263113,0.037213884,-0.01799932,0.055594515,0.10505149,0.0005687284,0.070593745,0.09485425,-0.018277282,-0.10000805,0.06307385,0.01585577,-0.04181973,0.11794382,-0.028011609,-0.055917423,0.022672884,0.028223954,-0.059749193,-0.008368374,-0.0044983868,-0.0039182724,0.061063673,-0.081317976,-0.14474244,0.08164792,0.110091195,-0.036579177,0.042894088,0.115638696,0.05439322,-0.027410043,0.060859144,0.019792074,0.04958082,0.03749917,0.1477191,-0.05114365,0.08175477,0.007900985,-0.08938671,-0.06535808,0.04151634,0.013694789,0.08782607,-0.063031495,-0.1994251,0.08929156,0.11702192,-0.003830853,-0.07728722,0.021400042,0.1368323,-0.112721115,0.04306497,-0.08679676,0.0144386245,-0.078634374,0.017993763,0.053825606,-0.034851674,0.03658141,0.09930655,-0.056797437,0.023209393,0.07394252,-0.01679902,-0.026732875,0.06833644,0.040737376,-0.06436051,0.045942307,0.018335283,-0.08655168,0.030002685,0.03480261,-0.1349477,-0.08241169,0.09036622,0.13521846,0.008339753,0.014983841,0.021718832,-0.07380761,-0.046735432,-0.093791045,-0.058408648,-0.11866919,0.14431852,-0.0450548,-0.017431727,0.1014955,-0.041150413,-0.05073091,0.06424872,0.043793358,-0.038899172,-0.028330006,-0.06547856,0.06885113,-0.018294562,-0.08536944,0.14250818,0.0043753856,0.077681266,-0.074286595,0.040691264,-0.16306803,0.010216534,0.07063876,-0.027267057,-0.014364591,-0.06767695,0.03958909,0.093259834,-0.15008572,0.00252417,0.100809574,0.046504397,-0.012230018,-0.053667743,-0.09814306,-0.01390865,0.01544333,0.00580769,-0.12038472,-0.07755873,0.09864922,0.041875895,-0.090819396,-0.0658701,-0.12128759,-0.09495025,-0.08125048,-0.06971351,0.06356016,-0.01197631,-0.043805037,-0.032681633,0.0014207114,-0.09517566,-0.111245126,0.020089345,0.031843014,-0.078994915,0.08170219,0.05584307,-0.030149924,-0.10955861,-0.07951349,0.060296196,-0.08972607,0.08238494,0.025451973,0.024054712,0.07596358,0.048990015,0.080580674,0.07581569,-0.027797017,0.043379582,-0.08776091,-0.009684949,-0.09687936,0.15266457,0.034013655,0.06786798,0.00398736,-0.05385594,-0.07016114,-0.10633494,-0.060256954,0.10118892,0.025167052,-0.10638826,0.04521246,0.15095797,0.056392387,0.0733387,0.109607615,0.06095037,0.10590779,-0.07125999,-0.04757001,0.03803242,-0.048254564,-0.12184875,-0.08926413,-0.11882149,0.013811763,-0.0113389995,0.0747321,-0.005680117,0.11818025,-0.110357635,0.1580765,-0.11782118,0.023127869,-0.03146472,0.031803165,-0.14559364,-0.0017514655,-0.012167183,-0.09919036,0.109043084,-0.02620878,0.07478902,-0.027961053,0.052516945,-0.0042929924,0.040349055,-0.16638598,-0.03003012,-0.014356914,-0.11737216,-0.09208203,-0.11023954,0.09815829,-0.03436612,-0.04780084,0.08099987,-0.06080058,-0.06397894,-0.028119031,0.0031859353,0.057644185,0.026847387,-0.041881457,-0.0710477,-0.06202742,-0.14021112,0.12622133,0.09371542,0.06122796,-0.0054826825,-0.019029373,0.09815744,0.014923881,0.009101347,0.05450726,-0.047264423,-0.0146576,0.040892683,0.015260752,0.08295019,-0.1502692,0.08320023,0.11391976,-0.08032542,-0.16308163,-0.11293571},{-0.054278415,0.09791247,-0.07740042,0.041534092,-0.06003686,0.10598644,-0.047774397,0.017692897,0.0079574585,0.07557248,-0.06509555,-0.059970308,0.12397056,-0.0565743,-0.06603143,-0.07419943,-0.01872637,0.053385887,-0.06467432,-0.13582854,0.003611507,0.08630388,0.11202089,0.018508345,-0.003405355,0.019681927,0.07678945,0.049764287,-0.01981449,-0.07888742,-0.03400545,0.14104654,0.12507208,-0.0028621447,0.021070458,-0.14065093,-0.007215319,0.1338109,-0.12399796,0.019994445,-0.031145507,0.009506914,0.041680682,-0.05837493,0.018108863,-0.0036442047,0.03390889,0.038402434,-0.044934656,-0.079821795,0.12300056,-0.17265588,-0.07933409,0.12709115,0.046488933,-0.03190499,0.07115684,0.10941591,-0.032317102,0.06599651,-0.067818575,0.08623509,-0.03888306,-0.06734566,-0.035733372,-0.062479865,-0.10701481,0.06003348,0.00599911,0.054888226,0.18581697,-0.0982922,0.103048995,0.0049941423,-0.12196655,0.03259955,-0.06828079,-0.05980629,-0.023138484,-0.06415241,0.08359519,0.012089006,-0.06454845,0.10359201,-0.031425916,-0.07487155,0.038386717,-0.005688293,0.017288545,-0.0070141857,-0.081550136,0.16684203,-0.11882794,0.10452922,-0.06104558,0.025134232,0.019095132,-0.112752624,-0.083590515,0.12426683,-0.05689943,-0.0791985,-0.0047134534,-0.089510664,0.02534355,0.054973885,-0.13647553,0.0313157,-0.045613416,-0.049166687,-0.041553423,-0.018158508,0.019897992,-0.02944429,-0.06153395,-0.098156914,0.039680976,0.044850614,-0.051770728,-0.085620016,0.00969805,-0.0709697,0.061917145,0.058654822,-0.016820084,-0.03781525,0.04881417,-0.009185749,0.1053113,0.13958359,-0.01205849,-0.009213279,0.15920117,0.119766384,-0.12939589,-0.047637194,-0.13072078,0.09074366,-0.0483129,0.12006052,0.032524247,-0.047757227,-0.15909731,-0.11672875,0.02652346,-0.06307722,0.011494611,0.017332429,-0.029527487,-0.07929462,0.048472676,-0.006573498,0.017804768,-0.00077752135,-0.0083946055,-0.043062724,-0.017189663,-0.045915015,0.010427207,0.16372262,0.0667013,-0.018910432,-0.018971268,0.12109215,0.06857005,-0.022768712,0.039744776,-0.019375334,-0.079353,0.010883209,0.037423547,-0.04885312,-0.052098896,-0.1337114,-0.0130512975,-0.14898847,-0.040802702,0.09491939,0.0672493,0.13045755,-0.024260372,0.016319798,-0.05256934,0.066336006,0.0044943662,0.02593351,0.13458687,0.13497242,-0.072031096,0.106830105,-0.090033874,-0.018430298,0.04854088,0.004368081,0.11262379,0.13524549,0.1255778,-0.07461182,-0.03752626,-0.02746505,0.015135888,0.043580938,-0.06674535,0.11270331,0.07294231,-0.098085776,-0.06732809,-0.05220815,-0.13584328,0.016175449,-0.0049831043,0.045810375,-0.03461723,-0.0016582395,0.041351747,-0.06793353,-0.07490973,-0.10201448,0.0344272,-0.03088261,0.08025644,0.058031313,-0.0704404,-0.00011857868,0.105459005,-0.10480404,-0.09990155,-0.09377131,0.01829916,0.10500063,0.026458023,-0.00084691215,-0.15546829,-0.081967086,-0.073667355,-0.04159114,0.07124975,0.15328917,0.04802977,-0.025861729,-0.11147457,0.10935149,0.063994616,-0.09316827,0.0328883,-0.026419302,0.08024701,-0.01309003,-0.0029485058,-0.006321819,0.079806626,0.14075571,0.024473274,0.026074711,-0.073781945,0.014777777},{0.14812016,0.060294166,0.09063207,0.015777295,0.08759917,-0.012206813,0.09030083,-0.029369257,0.06336971,0.071753874,0.15118155,0.10979394,-0.050561633,-0.13604942,0.068062626,-0.1386306,0.020754788,-0.03968361,0.042097468,0.009648684,-0.055753097,0.09537327,0.0782528,0.083590835,-0.08199217,0.14613771,-0.06986871,0.11332444,-0.091643594,-0.05687236,-0.04812328,0.15876086,0.08024977,-0.034970507,-0.008936554,-0.095375426,-0.049735963,0.06452443,-0.0047437535,-0.13571562,0.11019164,-0.05979028,0.12245996,0.08508261,-0.022302717,-0.07785245,0.019376185,-0.019991167,0.013049141,0.03703395,0.016237352,-0.14335288,-0.0751814,0.03809975,-0.04818067,0.08956593,0.06500163,0.102510676,-0.07146524,0.109465376,0.071174026,0.002813811,-0.029101303,0.052162945,0.042357385,0.06299898,0.0006955096,-0.115520306,0.07089282,0.030989852,-0.0716593,-0.007519299,0.1163661,-0.01927426,-0.17056406,-0.03921255,-0.01854952,0.005419835,-0.09058782,-0.026808174,0.05826397,-0.06280215,-0.087821804,-0.11432278,0.071173385,0.05361668,0.06322192,0.06395924,0.08466816,0.06957843,0.05590567,-0.06650629,-0.011509225,0.054322567,0.005392734,0.04204184,0.0560039,0.11730811,-0.099296376,0.10411333,0.026187666,-0.12594433,0.053046834,0.05891974,-0.016372714,-0.099644564,-0.05442839,-0.0591083,-0.095967524,-0.049875394,0.15213859,-0.05398543,0.05492411,0.019977232,-0.06652355,-0.039937552,0.046173602,-0.054450653,0.04679452,0.014693006,-0.037507936,-0.11228505,0.10328267,-0.099869855,-0.09462369,-0.113952056,-0.09847777,-0.12871774,0.14563122,0.0805438,-0.08919255,-0.0610264,0.09547117,0.09210274,-0.11771647,0.057106,-0.075925164,0.10774702,0.045420814,-0.09469755,-0.071711466,-0.13709953,0.07012979,-0.031578556,-0.022430154,-0.10354665,0.12815078,-0.017112752,-0.10122741,-0.0008376712,-0.089233615,0.119610906,-0.09773569,-0.10194629,0.017175568,-0.028820103,0.055309027,-0.07251947,0.04842682,-0.119456865,0.0022775256,-0.051687326,-0.02882085,-0.12207288,0.06838266,0.04680127,0.06419861,-0.10047318,0.13997996,0.1036853,0.034655128,0.1034206,0.09209506,-0.034282167,-0.027389435,-0.12170967,-0.077247486,-0.068185136,0.03912566,-0.08575305,0.07410208,-0.010011427,-0.09106465,0.061845653,0.07102911,-0.007679532,0.14650176,0.020560503,-0.012255966,-0.050584562,-0.07973741,-0.099517606,-0.015906442,-0.12330634,-0.0043886346,0.0019412591,-0.06362919,0.071419574,-0.08360448,-0.07541921,-0.110260546,0.016841423,-0.061347134,-0.021456655,-0.110644735,-0.10730181,-0.05273328,0.08979502,0.10941119,-0.002001936,0.06378825,0.05369527,-0.041739583,0.06799626,-0.09878041,-0.094071515,-0.14331935,-0.0117260935,-0.08676719,0.13313593,-0.014970891,-0.02592306,0.058409058,-0.10282481,-0.054573778,-0.06248147,0.023784827,0.012503687,0.015380846,-0.0072295363,-0.08363375,0.10263421,0.07542309,0.018505761,0.019655187,0.014615735,-0.06076333,0.094528966,-0.034571197,-0.09949746,0.044029508,0.005488846,-0.013682268,-0.0332276,-0.033957798,-0.044478543,-0.04707734,0.03254361,-0.07548974,-0.030068683,0.0010207945,-0.066019826,0.118059345,0.19152763,-0.07508187,-0.08635071},{0.0981469,-0.07579937,-0.032331366,-0.034812983,0.07003053,0.043533612,-0.00828133,0.07021106,0.050075073,-0.16534655,0.09859985,0.033960126,-0.027664471,0.11056783,0.13693938,0.05623054,0.031764343,0.046676375,0.05939739,-0.07101208,0.09109628,0.09627722,0.14459448,0.14774552,-0.09805584,-0.0453986,-0.03181076,0.0356222,-0.034258198,-0.07029252,-0.0042536054,-0.056872886,0.061163608,-0.057604674,-0.05764715,-0.049521457,0.010411916,-0.035510536,-0.1000204,0.012380238,-0.001719505,0.005319636,-0.052322853,0.11500054,-0.060941704,-0.01104149,0.04129879,-0.14297275,-0.06455885,-0.080598004,0.0127731,-0.119580045,-0.0018190135,0.13683031,0.04932876,-0.080360785,-0.015500906,-0.0038185192,-0.018597212,0.075220235,-0.03886521,0.03499814,0.014701901,0.065155536,-0.031119507,0.1256141,-0.13357845,-0.10267014,0.0007236379,-0.02480768,-0.05991113,0.12166368,0.13314733,-0.030213324,-0.20595303,-0.040251248,0.033790722,-0.06301413,-0.02372897,0.034168303,0.103519775,0.0012828103,-0.016947215,0.10595834,-0.07460837,-0.13056691,-0.041188892,0.07541474,0.08828207,-0.03816536,0.11869446,-0.17326404,0.08409719,0.049794134,0.1273398,0.04156658,-0.006101729,-0.049110502,-0.013900617,0.06694679,-0.09962125,0.05731077,0.13217404,-0.119379796,-0.08796779,-0.08263631,0.08021536,-0.0069948984,0.0172531,0.13841884,-0.08077933,-0.1095816,0.117046125,0.035808757,-0.002067555,-0.07035872,-0.10043738,-0.07852867,0.040791497,0.068399414,0.12386691,0.028232072,0.027072826,-0.006457508,-0.012693176,0.06539912,-0.047949817,-0.053050805,0.0017221896,0.064054735,0.09474375,-0.10718553,0.0060607246,-0.00586188,-0.06993329,-0.06092979,0.020758284,-0.101452544,-0.06867976,-0.09493788,0.021961672,-0.024025196,0.13576843,-0.05136762,0.079084225,-0.08616756,-0.09911104,-0.062499836,-0.06829004,0.05638718,0.034823228,0.09723616,-0.07496121,-0.08119976,0.15398224,-0.06858929,0.028400535,-0.06670891,0.06382832,-0.09786465,-0.0699479,0.08326387,-0.16342673,-0.07789973,0.10548726,0.062896885,-0.0699821,0.112228,0.00866163,0.0070884638,0.05686952,0.17043275,0.10668901,-0.13323097,0.06786217,-0.00845247,-0.045551993,-0.017189208,0.07583945,-0.07419333,0.04134328,0.13166876,0.046422645,-0.058672212,0.11898738,0.1194841,0.018533356,0.08310058,0.003299028,0.034636624,-0.06565262,-0.024596505,0.07429544,-0.13496362,-0.06597992,0.05450873,-0.111530356,-0.117488764,-0.068542965,0.020654554,-0.07937141,0.0021739923,0.051934112,0.037731074,-0.065753624,-0.16817206,-0.019299591,0.18003839,0.10686034,0.086597554,-0.011121225,0.097227335,0.04339458,-0.13913247,0.017809566,0.09477078,0.013311391,0.038413517,0.034500815,0.16619724,0.13085492,0.1456906,0.0450489,-0.07991558,-0.009086455,-0.047213864,-0.01913556,0.06132981,-0.091624014,-0.03540199,0.043585196,-0.07746351,-0.052940454,-0.008493068,0.08396516,0.00042900245,0.057882685,-0.06790243,0.03421076,-0.093332455,-0.12904593,0.053046983,-0.0740131,0.10268342,-0.027804976,0.00042815408,0.021873314,-0.022385392,-0.045546785,0.10784865,0.15552868,-0.090463705,0.0090130735,0.086899325,-0.033733558,-0.01267908},{0.14779001,-0.071109205,-0.09657717,-0.08192815,0.010775261,-0.030631475,-0.043401975,0.009194333,0.004341066,-0.099023916,0.06207191,0.072668016,-0.09255372,0.13003458,-0.04451551,-0.025193868,0.075853206,-0.014284197,-0.036473695,-0.11363153,-0.066170424,-0.07898449,0.14295584,0.0068672886,0.122067116,-0.019505994,0.11845689,-0.07606535,-0.020942966,0.020924833,0.075984016,0.006397344,-0.10612432,-0.07214299,0.04189523,-0.12073744,0.09043096,-0.12456804,-0.05005144,0.028910445,-0.06244128,-0.001143778,-0.053825527,-0.04353955,-0.0772477,0.04535669,-0.16755268,-0.14482363,-0.02810712,0.072361514,0.093927026,-0.083953656,0.107628554,0.023532225,0.08344864,0.059976798,0.0370595,-0.02158099,-0.053675704,9.251464e-05,-0.09085052,0.12048379,0.13965984,-0.0055530136,0.0168454,0.10863198,-0.017093612,0.026489284,-0.10447908,-0.09599481,-0.11129613,-0.04676284,0.04666788,-0.10984213,0.07581395,0.12762643,-0.035581425,0.03707002,0.04179571,0.086202145,0.12462159,0.07771873,0.06405132,0.121624574,-0.055246145,0.096949026,0.017762331,0.07482304,0.100235686,0.10415138,-0.030528165,-0.20874532,0.08387333,-0.07466931,-0.06612091,0.055137184,-0.06864207,-0.066828035,-0.058535878,-0.024291469,0.11824431,-0.11250262,-0.057652272,-0.10658064,-0.013233965,0.07025858,0.030580532,0.065900974,-0.027061969,0.021384416,0.11989596,-0.0705652,0.018044217,0.040872317,-0.04415398,0.08152799,0.044195864,0.051168315,0.11003651,0.08597082,0.13056831,0.11994176,0.10796102,0.106470145,-0.008184775,-0.0001248006,-0.12642683,-0.078711085,-0.023949746,0.091395214,-0.037769776,-0.04200693,-0.10855896,-0.10776106,-0.098514184,0.09957103,-0.017674567,0.065807514,0.08742829,-0.07424351,0.002688901,-0.0858713,-0.06707827,-0.03737322,0.035467748,0.052866153,-0.08341171,-0.1450017,0.009820015,0.04832702,0.016340513,0.11132114,-0.080766864,0.12176586,0.0713838,-0.107501335,0.059721146,-0.04088293,-0.046368998,-0.10445437,0.043970346,-0.04160428,-0.13968058,-0.07654682,0.11804293,0.07299113,-0.037857465,-0.06473308,0.076248065,0.06411095,0.037804797,-0.0023853166,0.025770873,-0.084253885,0.10506981,-0.12690756,-0.04211884,-0.08348747,0.07824763,0.09165866,-0.10427178,0.0026167312,-0.011906759,0.012088832,-0.038918074,0.10034054,-0.032356247,-0.06442399,0.078348406,0.07014025,-0.10469738,0.017080547,0.124545865,-0.024778418,-0.007147898,-0.062207896,-0.015725104,-0.107349284,0.16491383,-0.04894324,-0.15404102,0.10419975,-0.04236234,0.11211953,0.078107245,-0.03041574,-0.036376357,0.18154207,-0.09007728,0.061439946,0.022122731,0.028499,-0.055343665,-0.030767513,-0.053857904,0.06370586,-0.10996606,-0.059395105,0.062833205,0.1673414,-0.11567569,0.10096281,0.026651891,-0.011126636,-0.0051241904,-0.060347818,-0.00010751965,-0.014742697,0.044796966,-0.12998019,-0.010136263,0.07108097,-0.056978118,-0.086309895,0.0433631,0.07304695,-0.13222873,0.14445025,-0.11202511,-0.0113626765,-0.08283094,0.08559563,-0.047512982,-0.062031444,-0.05938953,0.02239941,0.1339238,-0.063742764,0.04672022,0.022250004,0.14417133,-0.09817689,0.12612593,0.030620052,-0.14555538,0.14429183},{0.03579653,-0.012685586,-0.09884422,0.116400965,0.049643863,-0.09582517,0.06659199,0.12522714,-0.124369405,0.01786902,-0.052257273,-0.07406932,-0.013258234,0.039423246,0.09113615,0.1329911,-0.024438392,0.0020438149,0.03274774,-0.10245967,-0.13414833,0.07475229,0.19000188,0.16889131,0.07194789,-0.06369829,0.15476008,0.009397423,-0.01951311,0.058300216,0.12324631,0.022111855,0.066429965,-0.13673982,-0.05671422,-0.106662594,0.060701307,-0.14074335,0.13811234,-0.017074205,-0.0056945207,-0.05586517,-0.078162014,0.07010297,0.020061111,0.091653526,-0.1012247,-0.17073095,-0.0068464144,0.026865687,0.0003034689,-0.09404449,0.10089693,0.08992468,0.12429487,0.032569442,-0.07794938,-0.1143489,-0.09288773,-0.031719126,-0.1156237,-0.009087364,-0.056669872,-0.10400787,0.08006157,0.01308858,-0.07501683,-0.025277397,-0.10119696,-0.09695763,-0.006261317,-0.042287536,0.0932488,-0.1073964,-0.017399345,-0.032658212,-0.027408326,-0.008877694,-0.020679306,0.07235088,0.086772166,-0.08284211,-0.02110901,-0.0334529,0.03959266,0.094829306,-0.082033396,0.03288757,-0.038755067,0.099572696,0.15152462,-0.0011944668,0.16461773,-0.04548365,-0.07943909,0.074830495,0.043814998,-0.021236766,0.045369353,0.012116401,0.10012754,-0.10940017,0.14288321,0.046270326,-0.04443376,0.08760868,0.09486012,-0.012975999,-0.012352549,0.03919169,0.055364434,0.051104493,0.025470952,-0.07317313,-0.015132375,-0.019182926,0.03315639,-0.059559762,0.07948675,0.0459255,0.035229146,0.07210366,0.0760034,-0.012319728,-0.019762786,0.09329291,-0.050373003,-0.043089252,0.016548263,0.111424804,0.041349154,-0.045902018,-0.023884427,-0.03416407,0.036088277,-0.025350938,-0.17773603,-0.0011026133,0.093375266,-0.10967655,0.100644395,-0.009916602,0.025200348,0.06620224,0.14694056,0.0058777705,-0.016934182,0.024468405,-0.029533787,-0.06940919,0.04461267,0.1557298,-0.010637089,0.1586691,0.04327502,0.021402994,-0.04805977,-0.060138397,-0.12685747,0.0301571,-0.06744632,-0.006182692,-0.01204009,-0.057048954,-0.042707104,-0.08861911,-0.07495941,-0.008624968,0.1259115,0.15034778,0.037549444,0.00796453,-0.09221951,-0.1793941,-0.02255032,-0.100526825,0.15240046,-0.023598725,0.18521129,0.044462573,-0.023043457,-0.0038476204,-0.08465008,-0.11563372,0.041011922,0.14889674,-0.15855046,0.09175727,-0.020513365,-0.07267966,-0.052170724,0.18916795,-0.048460107,-0.16658339,0.020736946,0.034719363,0.0013064912,0.015482275,-0.07230122,-0.05565451,-0.022666236,0.113791175,-0.0143562285,0.077623546,-0.04154536,0.018613987,0.012013808,-0.055690985,0.0025805775,0.16048564,-0.11961889,-0.09094891,0.14516412,0.05059993,0.062166773,0.015977323,-0.11861425,0.008964543,0.07609186,0.004740106,0.036705542,0.009139522,-0.008725595,-0.102214836,-0.00010518316,0.0711318,-5.977852e-05,0.0028161358,0.025610702,-0.15786809,0.03020006,0.07398774,-0.12692648,-0.0835204,-0.017159441,0.085168205,0.10718291,0.021045962,0.09024233,0.06018469,-0.01829291,-0.0106439255,0.06871892,0.04273401,-0.10250044,-0.09489589,0.062401205,-0.086333066,0.05134519,-0.035476517,-0.017261071,-0.011870015,-0.027892321,-0.10505032,-0.0796508,0.029924296},{-0.12280077,0.05582434,-0.10149584,-0.03135776,0.083976336,-0.14319037,0.03907477,-0.04443356,0.049114257,-0.053025246,0.09202451,-0.11095677,-0.008523055,0.07271362,-0.025128115,-0.1328174,-0.054973524,-0.024814414,-0.037444036,-0.10217537,-0.09086323,-0.105799556,0.13815291,0.021497156,0.07676787,0.15273198,-0.017588228,0.08997094,0.03273323,-0.009891873,0.10111066,-0.025868332,0.0583906,0.04230124,0.048706897,0.017892027,0.09273381,0.05055381,0.14003338,0.08643022,0.11231343,0.07293415,0.0006616303,0.07905244,0.07618305,-0.0025878872,-0.13217829,-0.07772186,0.10292091,0.082192205,0.06943637,-0.049699012,0.051673155,-0.016561208,-0.05371124,0.036141723,0.14883399,0.0007509355,-0.06379461,0.06665274,0.017686984,-0.06107523,-0.042623628,-0.13450965,0.035573564,0.047968753,-0.13932738,0.0012638794,0.07938024,-0.024247462,-0.022639412,-0.028381217,0.021691939,-0.10744944,-0.06703604,-0.12424383,0.13639827,-0.045853443,0.16472906,0.030237928,-0.017976962,-0.10171873,0.099437036,0.10434564,-0.03795223,-0.0021624786,-0.080886796,-0.020706346,-0.13688642,0.003672239,0.10086623,-0.18142635,0.055804092,0.027368493,0.044334196,0.032501392,-0.063120656,-0.07143218,0.09279179,0.033919044,-0.055273592,0.016788807,-0.020408593,-0.117067,-0.004988691,0.15991348,0.17423676,0.1538812,-0.022410557,-0.00022187765,-0.08337203,-0.010539257,-0.15156072,-0.027181532,0.018110668,-0.12757389,0.020053556,0.03437166,0.056710534,0.07676745,-0.11178741,-0.0058705662,-0.0067704543,0.093143225,-0.0043239025,-0.05773437,0.09431621,-0.06139447,-0.039172232,-0.042255793,-0.055455934,-0.018601928,-0.13784455,0.091384605,-0.007846843,-0.072266765,-0.008760567,0.025228566,0.039128255,-0.13822919,0.046686817,0.08180004,-0.15673369,0.0779873,0.053721838,-0.20193282,-0.050928757,0.04950188,-0.0402585,-0.015307819,-0.019729322,-0.0045522386,0.0041829012,0.13495256,0.116509005,-0.052249953,-0.08187812,-0.08284714,-0.026461627,-0.046794984,-0.067868404,0.06322048,-0.052016813,0.14827111,-0.11100479,-0.06667216,-0.116277635,0.032707192,0.05117565,-0.03666781,0.015561303,0.097768344,0.03274558,-0.010977469,0.09587779,0.1463303,0.11158069,-0.15679622,0.108768746,-0.14739065,0.08604995,0.100509755,-0.075695276,0.037232324,0.0632453,0.072844714,-0.1463364,0.028946236,0.091542095,-0.0140844295,-0.092472866,-0.070669025,0.11890732,-0.11312192,0.10323486,0.071692586,-0.020966243,-0.12090706,0.1496028,0.12346016,-0.08996264,0.0029648584,0.14082101,0.05513954,-0.015870763,-0.062377833,0.06799473,0.032905716,0.0052600377,-0.03270683,-0.061506387,-0.085121356,0.07319281,0.07633071,-0.019752575,0.0978304,0.035860542,0.040149014,0.02196334,0.06989152,0.064947106,-0.07378409,-0.108729795,0.062474806,-0.048647337,-0.011970535,0.05030436,-0.006506542,-0.041572087,-0.054084226,-0.06759234,-0.05072795,-0.046877127,-0.013092199,0.061406244,-0.08944435,0.08866962,-0.07486254,-0.043592643,0.111838266,-0.061579105,0.07668304,0.10239153,-0.11143467,-0.08818136,0.08171393,0.01686618,-0.08341148,-0.068145946,-0.043823108,0.030035121,-0.11900293,0.028419986,-0.11648049,-0.15917023,-0.06273068},{-0.14854902,0.11187886,0.05075911,0.05606775,-0.10215057,-0.15788925,-0.06020566,-0.022528948,-0.06262681,0.08782491,0.13148639,0.08590684,0.08873002,-0.06020514,-0.047473,-0.06634088,-0.08186885,-0.10792231,0.09947126,0.002590476,-0.014711881,-0.12796688,0.14768542,-0.04759936,-0.000191295,-0.022540735,-0.0052481564,0.09940329,0.00021729464,-0.06386569,0.08901234,-0.027108718,0.13572264,-0.06352331,0.09646703,-0.06974633,0.026893003,0.10531786,0.17518274,-0.0038547476,-0.005705269,-0.0101328995,0.09704839,0.090273164,-0.014383169,0.037071712,0.12591434,0.0020620425,-0.003909819,-0.0014830413,-0.07106772,0.023796434,0.010691781,0.08057153,0.07264972,0.13419335,0.03949632,0.0518579,0.018286336,0.065042734,-0.046114065,-0.14013691,0.057091802,-0.07729676,0.0657762,0.01334047,0.013688511,0.073968716,0.0013384076,-0.002741947,-0.028762892,-0.0101236515,0.14971331,-0.05647641,0.11115982,-0.04233181,0.08405498,-0.018304365,-0.055791818,-0.09622437,0.0116957035,0.028450208,-0.048075754,0.06536995,-0.033969395,0.010993144,0.0691677,-0.054787382,-0.12343619,-0.050528318,-0.15915638,0.088049755,-0.04384685,0.023924429,-0.097201094,-0.003365623,-0.0303537,-0.062975466,0.11254424,0.007129384,0.003294335,0.0912964,0.08809066,-0.080572,0.00120988,0.046405725,0.027019486,0.03330237,0.0045506237,-0.08157384,-0.054565698,-0.04917247,-0.014866752,-0.022483483,0.06374455,-0.10809403,-0.04278182,-0.021707164,-0.049633753,-0.05889703,-0.0249,0.10648664,-0.011114351,0.010058461,0.1072456,-0.09447524,0.09210419,-0.16063684,0.06523866,-0.09082535,0.0387685,0.09731171,0.05554295,0.08718299,-0.0515266,-0.13615651,-0.084903285,0.09434151,-0.06483566,-0.05416719,0.09729609,0.07143292,0.00020864031,0.12546588,0.09869438,-0.12356027,0.14270395,0.05935644,-0.01424596,0.06223144,0.12269299,0.026446562,-0.12300106,0.13345513,-0.10499847,0.11866974,-0.09044189,0.03520965,0.046120614,-0.09128021,0.04506755,0.05746217,0.020846767,0.13665842,-0.039834805,0.06119047,-0.04720594,-0.08256507,-0.12002496,0.058330975,-0.065040044,0.022997823,-0.009299899,-0.04370437,0.08963203,0.02627825,-0.05031216,-0.08495354,0.16099882,-0.05223053,-0.01478773,0.012162818,-0.02134831,0.13477327,-0.09383647,-0.024284724,-0.04085192,0.043911338,0.09353185,0.08844772,0.14566346,-0.0023498063,0.047189496,-0.10170258,0.10867941,0.012476679,0.10610151,-0.05289597,0.045805473,0.0818253,-0.08230293,-0.1404849,0.046327516,0.042840257,0.04517989,0.09511141,0.037665166,-0.11387046,0.028451137,0.11950775,0.0023712064,0.09976915,-0.025054907,0.0057680053,0.05206726,0.05772114,0.031866666,-0.047338717,0.012092104,-0.1282059,-0.048338085,-0.11761564,-0.11719012,-0.11817169,0.12737952,0.12272895,-0.025313508,0.07995937,0.0487184,-0.013298077,0.0040674633,-0.051372185,0.05813188,-0.010398876,-0.05104447,0.08370624,0.07174243,-0.026161604,0.050043393,-0.021874053,-0.040840264,-0.12302385,-0.07290844,-0.027146958,0.047542993,-0.10067948,0.072379075,0.0031771278,-0.029590325,0.027993022,0.0012725872,0.029816289,-0.055359323,0.006690347,-0.06140636,-0.086007655},{0.10727651,0.06288483,-0.07547625,-0.011272338,-0.005936135,-0.025822481,0.030163981,-0.04371713,0.053860553,0.006186282,-0.0741838,-0.07846909,0.08325181,0.019952876,-0.069266126,0.017153956,-0.08126895,-0.01624421,0.09352556,-0.16287173,-0.124151826,0.07560241,0.17031118,0.16111794,0.050371565,-0.036769357,0.045362413,-0.042535264,-0.07294073,-0.015912328,0.09997532,-0.18393643,0.10659625,-0.061762873,0.016337667,-0.12075588,0.15342677,-0.04189076,0.05220766,-0.028607475,-0.084179714,-0.0057966467,0.1308927,0.07443895,0.08815073,-0.028759668,0.09667776,-0.052786063,-0.12468732,0.14685722,0.044859473,-0.11542105,-0.103798635,0.050435327,0.11670806,0.06128172,0.06134093,0.06038917,0.057084687,-0.012805289,-0.13929075,-0.11425872,-0.043770846,-0.085966,-0.06124717,-0.0970485,-0.033949994,0.13857825,-0.10656776,0.091193296,0.043203738,0.076967314,-0.005362814,-0.014892051,0.09763068,-0.03173116,-0.061695386,0.032546215,-0.014535297,-0.13798627,0.166845,-0.054498635,0.06512926,-0.014216442,-0.0796897,-0.014211385,0.035850327,0.027141888,-0.09146302,-0.027376004,-0.1313714,-0.022148961,-0.024701122,-0.072072715,-0.09498201,0.074821115,-0.015258226,0.115579545,-0.037674017,0.12747002,-0.036999565,-0.07656143,-0.006583553,0.124780275,0.06428002,0.023258539,-0.073997766,0.07395393,0.037883416,-0.024465434,0.094182305,-0.028158352,0.11384932,-0.025502956,-0.0391276,-0.13747244,0.07659009,-0.08559156,-0.057468638,-0.020803692,-0.05886799,0.10337106,0.054315314,-0.050057657,0.008142882,0.11878162,-0.07815806,-0.049303174,-0.025194347,-0.10005836,-0.15442257,0.020421902,-0.058031812,-0.03841985,-0.14087462,-0.057599653,-0.13084416,-0.08871749,-0.04587478,0.12243155,-0.089265846,0.0646375,0.01063188,-0.019076433,0.02676518,-0.032216817,0.054388627,-0.07136198,0.10392171,0.10131637,-0.05949635,-0.12308455,-0.067108095,0.0037353053,-0.11490298,0.1032585,0.0031532452,0.080514655,0.11901085,-0.07753842,-0.07241173,0.07542225,0.07910394,-0.10847375,-0.0864614,-0.018955328,0.06462636,0.09851585,-0.0993283,-0.0020558166,-0.14685357,0.11893078,-0.048892416,-0.13818789,0.10256594,-0.0095624495,0.04411688,-0.029191345,0.056787696,-0.11069978,0.057391353,0.05138923,0.12361949,0.03288605,0.045332078,-0.14282781,-0.027198775,0.040886305,-0.10276687,-0.031368308,0.10061373,-0.07051717,0.09317594,-0.033320203,0.08972304,0.02667447,0.10611724,0.05808993,0.084682904,-0.024995582,0.08094018,-0.13430658,0.06257094,-0.11158222,-0.07875538,0.05924543,0.07108211,-0.05707394,0.032412738,0.06485441,-0.07800592,0.07334162,-0.11126753,0.0009893246,0.12228019,0.12639649,-0.05417493,0.14381424,-0.043383643,-0.07552925,0.053749565,-0.10344923,-0.118725084,0.031410534,0.05012759,0.10824559,-0.050035212,0.011809079,0.0783726,0.085142724,-0.06388855,-0.059280377,0.0043097716,0.073892236,-0.07606638,-0.07075722,0.055594243,-0.066460654,-0.06260598,-0.025105981,0.14002271,0.08103081,-0.029379465,0.11289849,-0.019088313,-0.083377376,0.101721704,0.0602665,-0.11811558,0.0819835,-0.13486563,0.13766465,-0.020385528,0.07308307,-0.06825539,0.024494234},{-0.030272333,0.015377874,-0.021534707,-0.048276648,-0.03327406,0.041869886,0.09316319,0.030540738,0.04768514,0.062420376,-0.07040315,0.07403461,-0.07836952,0.030134384,0.05124453,0.07205226,0.025024034,-0.027100736,0.11984754,-0.12868696,-0.11509,0.05616809,0.09413734,0.09423769,-0.058691952,0.13798253,0.038085368,0.16762689,-0.024737867,-0.0862579,0.08373342,-0.0074414983,0.003878473,0.05625715,-0.13688742,0.067593165,-0.044875067,-0.021372303,-0.13523112,-0.07347075,0.0130024385,-0.058076993,0.09513842,0.006262601,-0.07960373,-0.16321576,0.14050962,-0.12264199,-0.0083555225,0.09847045,0.04503018,-0.1256473,-0.10711014,0.031454716,0.10278514,0.082137905,-0.044550776,-0.010315957,-0.007766986,0.12240459,-0.07293512,0.03864921,-0.007697506,0.049802195,-0.01977801,-0.096003704,-0.08854043,0.056453846,0.0027379172,0.038828187,0.091771096,0.07326192,0.067405805,-0.1037502,0.05344245,-0.029041369,0.06757898,-0.055854045,0.095092185,0.0044912808,0.08404209,-0.1313888,0.08456713,-0.009173996,-0.013042697,-0.13847396,0.054676656,-0.028619962,0.02493934,0.032194335,0.038306914,0.13397513,-0.1359437,0.05504117,0.07357249,-0.0048405784,0.16107874,0.009534522,-0.012690629,0.11326694,-0.078283615,0.002502451,-0.07564005,-0.0097967265,-0.06936345,-0.08582864,-0.006268993,0.013395159,0.14125563,-0.07771944,-0.00080015714,0.033902343,0.10084761,0.016555099,-0.0064380486,-0.017772067,-0.040760998,-0.040924363,0.04427649,-0.13450569,0.046513062,-0.041899208,0.078102015,0.0824033,-0.052560363,-0.003313359,0.076873325,-0.056688476,-0.06166114,-0.07139002,0.0542464,0.07677341,-0.0195051,0.0529712,0.0018095545,-0.134472,-0.044556577,-0.08305275,-0.008870763,0.035368685,-0.10171512,-0.0703091,0.09464128,-0.05663705,0.005120891,0.16349125,0.13524859,-0.05329544,0.08131901,0.05096373,0.013589298,-0.16938622,0.055302825,-0.08170517,0.049627226,0.03374805,-0.03520729,-0.06888348,0.13893527,-0.029960617,0.09062904,-0.0074032964,-0.09580685,-0.05853114,-0.14859702,0.017340062,-0.040724784,0.17479591,0.021280404,0.13481706,-0.1306761,-0.02173182,0.07986504,0.009905834,-0.07555856,0.10980168,-0.1365576,-0.032587573,0.10504878,-0.025519652,-0.011909153,-0.027316757,0.13306868,0.21185128,0.10740172,-0.02636007,0.060137827,0.05331083,-0.0041824086,0.10799431,-0.014377057,-0.14105508,0.10287876,-0.06508518,0.112103455,-0.13649626,0.014343537,-0.025849853,-0.12875725,-0.076302774,0.05826699,0.109238274,0.049385205,-0.037233632,0.03634584,-0.10669237,0.09446283,-0.07021565,-0.09230615,0.0840977,0.042041082,0.019573197,-0.042536214,-0.08099912,0.13525365,0.06251841,-0.14290592,0.13440916,-0.0022527552,-0.0031330904,-0.041967493,0.024590723,0.03212534,-0.0869718,-0.010780443,0.045304038,-0.084188834,0.09589116,-0.09729805,0.08536407,0.07160857,0.073112614,0.024385462,-0.06030968,-0.15834863,0.032348674,-0.13733152,-0.052327592,0.06581537,0.084861934,0.10909319,0.09726162,0.04218576,0.06455221,0.042445682,0.017584916,0.07357655,0.08534683,0.08875785,0.06531091,0.0045151752,0.072194465,-0.12436785,0.029682275,-0.079784535,-0.07112708},{-0.03066866,0.013333756,-0.008373424,-0.17550847,-0.06708088,0.036307875,0.04624326,0.06713411,-0.021121206,-0.07965229,-0.061889894,-0.0153625235,-0.08434799,-0.13826081,-0.0741497,0.09743826,0.122204974,-0.06389342,-0.011647268,0.005571248,0.016108576,-0.036303002,0.17211205,0.05277277,0.010438888,0.076575674,0.021962177,-0.0415522,0.10202729,0.0014259575,0.005337111,-0.025557902,-0.18757911,0.10872887,-0.14323814,-0.11228165,-0.03724686,-0.10581009,-0.029215124,-0.13772543,-0.04293812,0.12985677,0.037451394,0.038785093,0.08364146,-0.11332918,-0.03270524,0.025930053,-0.082645915,0.031843998,0.0704273,-0.1221123,0.0051455377,-0.00875954,0.10634341,-0.12172872,-0.0044721817,0.011905818,-0.009420361,0.07142516,-0.028528746,-0.012844607,-0.022053767,0.022914749,0.033640962,0.037337337,-0.026035437,0.00051730656,0.09306665,0.119708635,0.056267507,0.06288719,0.15741915,0.013861776,0.054162744,0.0038197497,-0.08030086,0.02107781,0.088157415,0.03678199,0.06784475,0.055636372,-0.07437141,-0.03411474,0.01785841,-0.044406157,0.034660753,-0.13833845,-0.046547353,0.15011719,-0.07573871,-0.097054966,-0.08823805,-0.06179661,0.012937216,-8.302746e-05,0.12280623,0.060228087,0.08443385,-0.038123425,-0.13341501,-0.037323177,-0.0408632,0.03108669,-0.019903218,-0.004589021,-0.12941185,0.0007643001,0.10799791,0.09902928,0.11085641,0.030347846,0.11610656,9.080849e-05,-0.04311197,-0.039703786,0.05667615,0.01251936,0.03632143,-0.020898476,0.042774744,-0.13351242,-0.13078152,0.036993653,0.046316236,0.08840457,0.12895107,-0.047003496,-0.14125168,0.06727974,-0.051317062,0.07535064,-0.012693377,0.013828689,-0.16224036,0.047815863,0.013923426,-0.025451323,-0.09256706,0.08778593,0.06219042,0.0625457,0.09556042,0.025512205,