218,-209,366,478,-371,8,-373,44,-45,383,507,-256,-407,-130,-485,-367,78,-412,236,-335,-8,62,61,-155,455,82,345,392,-405,449,-119,-237,265,348,-158,-396,-399,136,131,-249,-75,-347,-410,330,-347,180,141,-140,411,257,155,-372,473,388,0,251,-400,446,457,-485,483,342,370,483,-435,17,-343,431,469,279,-59,124,20,322,269,-29,17,142,-463,26,-146,-178,143,-321,-17,190,-63,329,-151,249,-182,-491,449,-164,185,206
186,-473,217,110,375,154,-72,262,-225,29,-156,-362,234,-494,-190,-252,-119,86,336,-337,-294,0,315,331,214,222,-384,-274,-425,-495,237,-74,323,499,-324,97,187,-50,87,200,-512,417,-408,-487,215,258,-105,-121,327,53,503,-455,-258,185,343,-189,-94,303,-486,199,339,-295,-240,72,-451,-435,-8,-52,483,103,-453,272,-11,-35,372,-278,-209,-352,-149,63,-331,236,72,-459,494,-89,243,212,-266,161,16,84,61,99,169,202
-155,-57,-280,127,-49,-294,-269,-438,434,92,101,-142,-213,186,376,-399,74,324,-356,233,331,-226,486,-192,61,365,-143,-372,-177,-143,340,279,-295,229,481,198,401,-175,217,302,221,161,-324,113,-380,-369,281,206,446,117,63,0,344,-96,-239,-410,-263,-78,-3,-65,-481,-380,252,238,206,-233,145,243,-92,298,-398,375,-127,395,-157,-222,-387,-167,-281,362,-261,-90,319,-327,-339,-306,3,-94,-8,-178,-162,-62,17,460,-356,394
-64,10,-333,-441,334,-368,-391,39,478,-166,-196,337,173,212,83,24,426,-377,-402,100,-337,-426,371,-410,480,-98,-206,-18,129,-203,36,-231,94,62,-310,-168,-150,-402,-160,-106,-221,-96,-86,425,-204,-136,-71,445,-187,-180,388,160,-334,-387,66,-424,334,9,17,87,210,303,-5,-395,-429,222,196,-246,-269,-282,-231,-122,157,474,429,265,320,-123,294,313,20,397,43,53,-167,-321,-189,-385,441,-205,176,-297,86,460,212,-323
