{{0.016684724,-0.024496509,0.19819692,0.22763558,-0.044828285,-0.009201205,-0.12735024,0.014414635,0.019653616,0.16528155,-0.093065694,0.035800073,0.060514037,-0.031364024,-0.1994295,-0.1538184,0.04087161,0.10982366,-0.1342911,-0.027002836,0.051586512,0.1778818,-0.09347395,-0.033742074,0.23447345,-0.16649969,-0.06835685,0.19113478,-0.011510168,-0.10051051,0.22815192,0.046410505,-0.081440896,-0.07722417,-0.10379151,0.094847195,0.18283123,0.26388144,-0.25322115,-0.26794565,-0.074504435,0.14244387,-0.015590466,-0.20889121,-0.13895126,0.21707122,-0.13118076,-0.2148529,-0.00975219,0.24289554,0.066369854,-0.18251944,0.036458913,-0.17211297,0.10116748,0.026330367,-0.2137241,0.15535004,-0.13622092,0.07325714,-0.22099845,0.015556759,0.16974863,0.031132627,-0.13352104,-0.16765127,-0.18631047,0.24057293,-0.063691646,-0.024778152,-0.16731085,0.057973165,-0.11183936,0.21816213,-0.133583,0.21319704,-0.07181166,-0.14852497,-0.10167938,0.060295526,0.04305951,0.092172384,-0.0602607,-0.2242359,-0.12910454,-0.021361979,0.10822459,-0.088153854,-0.16151494,-0.028725421,0.0230348,0.1641579,0.044041757,-0.09364049,0.033401765,0.12168151},
{-0.028656878,-0.017443199,0.13246031,-0.13280724,-0.108617134,-0.2070084,-0.031863034,0.24970575,0.17394099,-0.164594,0.0730173,0.16604094,0.1562419,0.09905101,-0.039565954,-0.039349653,-0.14634986,0.11885226,0.2854435,0.08951662,0.15977317,-0.1211521,-0.019065859,0.08616511,0.2325847,-0.08465823,0.0025814292,-0.11457832,-0.14182174,-0.16475654,-0.19261034,-0.065865844,0.08501296,0.00094610394,-0.14364126,0.25606352,-0.16850926,0.03590361,-0.14468685,-0.16103785,0.23630433,-0.14175802,-0.09758283,0.2063374,0.02672727,0.19515365,0.23288341,0.13606487,0.1704703,-0.03290028,-0.01286697,0.24394877,-0.128954,0.16921358,0.18441008,0.08067659,-0.09477627,-0.19064364,0.24295077,0.040775884,0.011935816,0.002058031,-0.10822839,0.14622878,0.079886585,0.05960652,0.036946747,-0.0030027563,-0.08650885,0.18818174,-0.21551052,0.13440101,-0.10339788,-0.017355155,0.06637524,0.11344534,-0.15386117,0.1521739,0.194506,0.14147687,-0.064211704,-0.03252671,-0.14896104,0.116615094,-0.049521174,-0.04010007,-0.027908694,0.21575896,0.098396234,0.04857633,0.08153697,0.08266866,0.0695976,0.09213781,-0.15310845,-0.08620183},
{-0.15269446,0.06808188,0.1498264,-0.036792845,-0.17279613,0.031413853,0.25449216,0.08572026,0.09071843,-0.027351832,-0.093136005,-0.15100826,0.17384154,-0.15900657,0.15858023,-0.14642788,-0.17314538,0.11472361,0.1124809,-0.15478395,-0.09029616,-0.20602323,-0.01671671,-0.024962025,-0.12587932,0.045698248,0.16655649,-0.09365466,-0.14228599,0.05584398,-0.054071356,-0.05981804,-0.097767524,0.14814371,0.12530902,0.26465577,-0.039566655,0.008799043,-0.11954009,0.09847526,-0.16105527,0.033637617,0.17330958,0.23775811,-0.09635768,0.15824126,0.04946475,0.116529614,-0.0058543286,0.027208524,-0.14452834,-0.09617729,0.17041542,0.16820686,0.073547155,-0.058542684,-0.12824413,-0.069175564,-0.063453734,0.11367636,0.049845327,0.031131785,0.06186445,0.00028216487,-0.025992999,0.0041018687,-0.025403928,0.1039283,0.112681,0.03012123,-0.024445875,0.17173973,-0.09803849,0.035853226,-0.10670444,-0.03862945,-0.06958348,-0.102087244,0.1673537,-0.011436901,-0.070076495,-0.038630024,0.2093305,0.054704174,0.1530901,0.1728529,0.048271827,0.09206305,0.1346007,-0.011940023,0.10987586,0.22650413,-0.20933734,0.14676192,-0.028499959,-0.11368311},
{0.031736087,0.01512868,-0.117155455,0.270656,-0.1632031,0.10427995,-0.19816321,0.123930044,0.031252928,-0.010255659,0.03249079,0.060129486,0.017153287,-0.15482709,-0.21355927,0.19442171,-0.23879477,-0.05037985,0.06845827,0.18798223,-0.015369516,0.11704189,0.06943475,0.09777158,-0.04121563,-0.11303978,-0.25568637,0.08697607,-0.14492272,0.07971122,0.18917838,0.17887187,-0.1461273,-0.26359814,-0.21641058,-0.06324428,0.10651386,0.10809838,-0.2385116,-0.2460101,-0.12838751,-0.13035989,-0.08256391,-0.014556597,0.0052601933,0.03056615,-0.17437409,0.08201877,0.19591117,-0.10879627,0.11124444,-0.018295156,0.11241074,-0.05193466,0.24202982,0.074809074,0.23074333,0.027215363,-0.013595274,-0.10944876,-0.17460932,0.020123148,-0.11293201,-0.14774144,-0.0015546381,-0.0417933,0.15722829,0.1437837,0.21651839,-0.108136706,-0.15430023,-0.061093375,-0.17713991,0.10512762,-0.016303297,0.015250341,0.2110646,-0.07662134,-0.20768806,-0.059880454,0.14558959,0.023797037,0.14635947,0.0945413,-0.18527222,0.112653635,0.077920675,0.022309614,-0.23805138,-0.22097228,0.13385713,-0.025725953,-0.18200344,0.04134302,0.18401256,0.04487159},
{-0.0014466086,0.090204,-0.15169944,-0.21591672,0.08043132,-0.1558606,0.086876124,0.1510886,0.2001389,0.09091446,0.055922307,0.13456118,0.16785355,-0.107768446,0.2099712,0.1410744,0.032680027,-0.06323868,0.16639368,0.065889314,-0.030585617,0.11193424,-0.07919567,0.1232014,-0.054062873,0.14039527,0.018325362,0.07467814,-0.059550412,-0.070450515,-0.102321036,0.058099285,-0.14407481,0.09215815,0.10151632,-0.17888534,-0.11637953,0.13501938,0.10137349,0.24148922,0.12249414,-0.2162303,0.14901598,-0.034025494,-0.10412663,-0.092180066,0.19403851,0.09646919,0.085703194,-0.12341417,-0.048338678,-0.060705665,0.08904516,-0.06088811,-0.015415116,0.2671264,0.08517015,0.15031305,0.025642969,0.19111036,0.18845974,0.053944234,0.011265857,0.17898467,0.014260716,-0.12568925,0.157744,-0.09946631,-0.0067853327,-0.17835546,-0.007670862,-0.08255908,-0.015947405,-0.20390995,-0.008494928,-0.25067765,0.1255783,-0.0134917125,0.17371778,0.071073905,0.25581902,0.11146454,0.14336082,-0.17375557,0.20009603,-0.034491368,-0.117271036,-0.10064256,0.005000382,-0.036440313,0.04651752,0.08986341,0.23188978,0.0036431318,0.12533613,-0.15472198},
{-0.2315591,0.19391468,0.11916919,0.039766334,0.09880165,-0.049178563,0.15130565,0.08162746,0.01999466,0.1528095,-0.051233035,0.15477005,-0.11236167,-0.09236976,-0.018786566,0.023087591,-0.21603057,-0.058531754,0.12985279,-0.016586348,0.0087588765,0.08049452,-0.084307656,-0.16698644,0.12187097,-0.012328716,0.09363186,0.17250091,-0.18446603,0.10490042,-0.052709647,0.16054013,0.16795339,-0.016416952,0.14720799,-0.05393303,-0.059612483,0.27222887,0.046785206,0.1386509,-0.22002202,0.215512,0.14800814,0.10137361,-0.052795276,0.24440596,0.022429353,-0.0995968,0.03386698,0.057337116,0.14846155,-0.06933148,-0.033495713,0.0002023494,0.024824593,-0.20648287,-0.052391294,0.20149592,-0.019261405,0.12194201,-0.17675743,0.14801048,-0.010313559,-0.1603745,0.03759039,-0.22699301,0.17409651,-0.028689273,-0.09494402,0.029359978,-0.1922671,0.19860792,-0.06446316,-0.057119995,-0.19407335,0.027540687,-0.0843396,0.24488644,0.0409349,-0.034675106,0.14859389,0.004899305,0.059010338,-0.11805948,-0.2603834,0.021039005,-0.23697017,-0.035215825,-0.15469505,-0.12226928,-0.12638633,0.093729906,-0.15837377,0.1856412,0.07847232,-0.12947762},
{0.095712766,0.10229084,-0.15168443,-0.10905011,0.2554589,-0.08614016,0.16794883,0.19412702,0.2247747,-0.11651383,0.22632067,0.1900419,-0.11347118,0.13791819,0.20976745,-0.15111093,0.14850932,0.1759918,0.14905389,-0.11390737,0.0016743293,-0.13056982,-0.12018739,-0.1731479,0.22708364,-0.10433612,0.24010886,0.108491436,-0.12150609,0.019977666,0.007969217,0.0685971,-0.054885704,0.15813355,0.2318145,-0.09415411,-0.018818015,-0.0414488,-0.09097731,0.18120402,0.068494,0.136969,0.13395905,0.14879742,0.1947713,0.040265422,0.057888787,0.13057075,0.18820065,-0.18192708,0.14423567,0.14182863,0.166168,0.2599077,-0.15543464,0.063999355,0.118370175,-0.011905606,-0.061391354,0.016788326,-0.12740478,0.014111497,0.08042881,-0.10365413,-0.13443437,0.203544,0.0062046316,-0.16953194,0.2301791,-0.07727823,0.016434163,0.06621241,-0.07672726,-0.060213238,-0.028390776,0.063798696,0.14297748,0.14498419,-0.096423745,-0.01628006,-0.10814402,0.027777618,0.18104286,-0.14067607,0.2969715,0.15763181,-0.085699044,0.1951832,-0.10427536,0.0059716464,0.20128877,0.15245873,0.10344966,-0.0814803,-0.15388802,0.03065548},
{-0.03815945,0.057634708,0.19316846,0.20421962,0.023285821,-0.096885405,-0.16136824,-0.078061454,0.1996281,0.25326547,0.14037009,0.1740749,0.025927791,0.047248505,-0.006333953,-0.10614514,0.20138371,-0.06020211,-0.25357094,0.18394676,0.22839653,0.07074677,-0.15705872,0.051336206,0.10170575,0.09737126,-0.14149441,0.13798732,0.05227959,0.18015568,0.10081242,-0.0052111447,-0.21482094,-0.028671168,-0.14287531,-0.18451615,0.106671534,0.13953613,-0.23048043,0.07533422,-0.1716422,0.13914213,-0.16332892,0.15116508,0.14612237,-0.12993507,0.18184699,0.033728875,0.048668824,0.12533711,0.14250515,0.045794487,-0.05865593,-0.12180846,-0.089308456,0.06354983,0.27820563,-0.1343434,-0.13356829,0.2016823,-0.011911124,-0.12326468,0.059745837,-0.19806236,-0.05555003,-0.041326426,-0.21694426,-0.11921421,0.010874481,0.18337552,0.09133336,0.22823836,-0.037335783,-0.058101926,-0.023426767,-0.062003795,0.18912902,0.20664623,0.04411968,-0.14358763,-0.057224352,0.16699974,0.07363265,0.03425977,-0.3054022,0.03238617,0.2873516,0.08319561,-0.14046094,-0.09427265,-0.068468735,-0.054215387,0.06514203,-0.0711736,0.12313572,0.14529762},
{0.25244254,0.10071906,-0.048536852,0.0009927825,-0.11992802,0.023003533,0.17646499,0.0013184157,0.10044327,0.10490176,-0.115868114,0.18753308,0.21218678,-0.15481918,-0.11556971,0.045269657,0.20334938,0.07305662,0.15865615,0.010048543,0.20573764,-0.27512395,0.1342429,0.12833482,-0.20973134,-0.06824705,0.14257437,-0.18256685,-0.019547842,-0.19146281,0.00031048467,0.20079006,-0.064129665,0.022158932,0.037660632,-0.0066153733,-0.17318287,-0.02476291,0.04514827,0.030037718,-0.033753943,0.1009271,-0.060608204,0.22828521,-0.1583892,-0.11640552,0.23566894,0.18858193,0.088873856,0.035876624,0.19175659,0.09710098,0.08610029,0.19745702,0.045344476,-0.13254023,0.0070777927,0.03848392,0.23357195,0.022369273,0.1216465,0.09207676,0.21586442,0.04165374,0.09334952,0.03924338,0.26251355,-0.09258303,-0.13973552,0.13294046,-0.03911203,0.07119505,0.09103402,0.21186441,0.048393488,-0.19086559,-0.11345339,-0.105055824,0.09805161,0.06852277,0.062479146,0.22509332,-0.02963563,0.12003249,0.28292146,0.17560358,0.14769325,0.21739556,0.08375543,0.08045194,0.18365769,-0.09717235,-0.14203607,0.108952805,-0.007789625,-0.15257019},
{-0.028074592,-0.08695534,-0.13141152,-0.055327952,0.029255789,-0.20066518,0.07913804,0.10172531,0.07259542,-0.06691343,-0.12883809,0.12971407,0.20305555,-0.0060540033,0.21959306,-0.08650929,0.014057743,-0.06410165,-0.04752778,0.048898395,0.18741249,-0.038985584,-0.13288152,0.02740713,0.11457354,0.055524606,0.26149145,-0.017160596,-0.0021503225,0.0050660283,-0.14904036,0.13293622,0.214075,0.2119863,-0.012210247,0.20788674,-0.05593795,0.014153352,0.055143792,-0.036869213,0.24751951,0.050811484,-0.06739891,0.16907911,0.228705,0.021598084,0.20569816,0.21656838,0.10447687,0.12373695,-0.019319044,0.10600522,-0.017644193,0.068959974,-0.18489692,0.05586684,0.098565206,-0.08088693,-0.10777661,-0.11823234,0.112835586,-0.17506532,0.23797335,0.15166523,0.056325737,-0.07757266,0.25892556,-0.06956267,-0.013917571,-0.16816284,-0.1963684,0.104403466,0.13118553,0.03509686,0.02484667,0.170323,-0.010319031,-0.09225901,0.2459174,0.034630563,0.15393505,-0.02963384,0.132672,-0.08924511,0.116658695,0.075731434,0.03231426,-0.021508113,0.21967156,0.2517391,-0.10120765,0.18230031,0.03868905,-0.03118101,0.03519554,0.0537032},
{-0.053752948,-0.081769176,0.041624215,-0.015054561,0.07556,-0.059197396,0.006958701,0.020315144,0.0051511647,0.100010835,0.066575326,-0.12925589,0.19401412,-0.013965313,-0.034677655,-0.087975904,-0.14951983,0.058814272,0.112365335,-0.16639727,-0.07139368,0.045486357,0.28152877,-0.17264561,-0.093145944,-0.09378894,0.22738378,-0.022418499,0.24878661,0.07688719,0.16713034,0.13542186,-0.012753366,0.0028109923,0.24126612,0.037089307,0.04217274,0.15395352,-0.07680359,0.16168553,-0.02429359,-0.11356543,0.15347515,0.04646025,0.14451054,-0.22176954,-0.088208705,-0.09706879,0.15213944,0.096670955,-0.010273051,-0.081914745,-0.08359521,0.18935253,-0.22154905,0.21306235,-0.0972827,-0.03260207,0.11906759,-0.028137863,0.07233794,0.05047422,-0.0006779204,0.11966051,-0.0812994,0.2181306,0.0020728216,-0.19996299,-0.017265566,-0.008437726,0.08110145,0.007439461,0.25726712,-0.05440923,0.017066855,-0.17629243,0.03054005,0.073608674,0.033279147,-0.16569354,0.1758623,0.07901442,0.14492525,-0.08035398,-0.0522791,-0.018749308,0.10094961,0.11330684,-0.04147552,0.13129826,0.03743255,0.19508417,-0.04325998,-0.1489472,-0.041308325,-0.15939927},
{0.13846666,0.012294001,0.22547832,-0.06190434,0.2570774,0.07540711,0.115817554,-0.1215914,0.04113269,0.17988747,0.08563673,-0.03380569,0.006685205,-0.15612112,0.22495939,0.124804184,-0.049124435,0.08310771,0.13460386,-0.184176,-0.098144904,-0.048039787,-0.03975036,0.13224,-0.17177653,0.0890617,0.16184708,0.1426428,0.17186037,-0.23053522,-0.18703498,0.13609399,0.18768051,0.27044863,0.25820535,0.2395458,-0.0075218133,0.13484953,0.09817338,0.06902701,0.11027339,-0.17552055,0.16873026,-0.014800647,-0.076948866,-0.11944664,-0.09753305,0.1674496,-0.027935794,-0.16892333,-0.15345167,0.16654868,0.04873158,-0.08533802,-0.08144066,0.02559648,0.10022911,0.09974204,-0.034068752,0.006771668,0.2376345,0.13368724,0.035672788,0.09655604,-0.18359786,-0.023698116,0.20826903,-0.085235715,-0.06394148,0.17099822,0.10684962,0.09578845,0.031124005,0.015898969,0.005879464,0.06765015,-0.12762983,-0.12194757,-0.050927166,0.05544347,0.23205681,0.10979551,-0.017487189,0.014105575,0.3197369,0.14039257,-0.20948182,0.2249102,0.062107388,0.19716716,-0.014978705,0.19943711,0.019433167,-0.11444945,-0.10547764,-0.13751294},
{-0.030484097,-0.098329626,0.06708409,-0.13030618,0.20745687,0.05481278,-0.15418372,0.018495595,0.22006157,-0.1927827,0.07821543,0.21367545,-0.06460114,-0.020006,0.0142336795,0.023751922,0.05272594,0.047254782,0.03576477,0.019353326,-0.09958853,-0.11443878,0.0074130427,-0.17503095,0.05408638,0.1684548,0.17200433,-0.045530587,0.2652847,-0.09095968,-0.029836638,-0.07137761,-0.009673897,0.19925259,0.12571712,0.14022431,0.0025788003,0.03771575,-0.11176653,0.2431521,-0.025485033,-0.12846762,-0.111008644,-0.034469143,0.025578398,0.0026955286,0.071049936,0.1550466,-0.18453409,0.09387184,0.1569546,0.17042144,-0.0052694078,0.060227513,0.16490562,-0.019934973,0.19520308,-0.08128029,0.079063796,-0.16027807,-0.053448215,0.109846175,0.12579791,0.009282753,0.16654603,0.0057434947,-0.089773566,-0.15498875,0.12214837,-0.093102805,-0.20223059,-0.13120878,0.22972588,0.048170462,-0.072702885,0.07354043,0.13035439,-0.16537932,-0.10115592,0.17340617,0.036575444,0.123781964,0.18808357,0.1375444,0.09357103,0.25195122,-0.07863801,0.19302092,-0.025589852,0.22511502,0.2165612,0.13335343,0.14413409,-0.105632305,-0.15550219,-0.12366562},
{0.24799918,-0.09350949,0.21682242,0.17902988,0.17677015,-0.14088494,0.05014024,-0.029951232,0.13267176,-0.077369146,0.1973145,0.19304428,0.102735795,0.09977688,0.056975745,-0.11190376,0.18030989,-0.08287804,-0.016918056,-0.17388594,0.11542377,-0.20591794,0.09637912,0.17153679,-0.0932798,0.22907004,-0.07433904,0.016815485,-0.020083843,0.020650007,0.0063990047,0.18926187,-0.0568078,0.23617963,0.03304552,-0.014164438,0.16071576,-0.23777598,0.11968734,0.11021976,0.08434866,0.008052052,0.055524945,0.07749369,-0.07129049,-0.072492674,-0.031551156,0.19063056,0.17566557,-0.19353813,0.2258826,0.17877261,-0.1375554,0.16133133,0.059396066,0.17542435,0.053565346,0.20466073,0.026977772,-0.094578706,0.028842393,-0.010247177,0.19021188,-0.027112179,-0.06412104,-0.038220078,-0.04977187,-0.23108843,-0.06559025,0.1455396,-0.00085534435,-0.027131055,-0.012504276,0.12319616,0.06307306,0.082641274,0.117365755,0.07697797,0.015776534,0.064196356,0.104480304,0.040025845,0.12822556,0.10049338,0.089511715,0.21081074,-0.002786867,-0.0114368955,-0.06614681,0.10270917,0.1948801,0.2284034,-0.04231397,-0.13683608,-0.22560178,-0.11320149},
{0.0405201,-0.053932577,0.11687203,-0.115287505,-0.031709813,-0.029440582,0.19520658,-0.15749598,-0.10187055,-0.023656119,0.012012857,-0.031503964,-0.13698712,0.11746428,0.013717095,0.029301098,0.13488866,0.048336446,-0.2053946,-0.1846025,-0.08118925,-0.14548023,0.1885795,0.17566948,-0.106145784,0.06121805,0.1536757,0.23235726,0.18080856,-0.10436662,0.14916645,0.044242427,-0.05136078,0.12753335,0.24548548,0.111866795,-0.14184354,0.11909806,0.09192073,0.013411336,-0.12620509,0.21330985,-0.0793269,0.012707549,0.023689343,0.03433679,0.046017297,-0.0012159747,-0.14973211,-0.106880516,0.19456755,0.05467504,0.22622809,-0.0436702,0.07387888,0.0035292238,-0.10773877,0.21336296,0.017216545,-0.15934883,-0.04153883,0.12757023,0.12832366,0.15035152,-0.040614642,0.16596827,0.14700952,-0.00804784,-0.16006595,-0.120485604,0.23163088,0.23496617,0.23347051,0.20657693,0.14636733,0.16975272,-0.032999385,-0.031003175,0.14423236,0.11870542,-0.080045685,0.056864172,-0.11969724,-0.07899896,-0.112241775,0.09654697,0.0048207226,0.09983265,0.019621143,-0.12232607,0.16384792,0.008623018,-0.12883094,-0.21540013,0.18589713,0.11897025},
{0.039357103,0.050310247,-0.06698966,0.15898664,-0.048815828,-0.11168339,-0.17466594,-0.16728257,0.016012797,0.17293033,-0.11699444,0.14106698,-0.25428277,-0.17153123,0.109098025,-0.02176777,-0.1061408,-0.15441965,-0.026804592,0.103823856,0.14791448,-0.021948868,-0.14968552,-0.10557103,-0.11066546,0.107242465,-0.06701644,0.22973035,-0.091702685,0.08908601,0.19030368,-0.0015462165,0.14075416,-0.20362884,-0.13915424,-0.112345904,0.1987689,0.22507569,-0.16008529,-0.21998854,-0.11114469,0.15105738,-0.13357116,0.101555064,-0.14228173,-0.003291169,-0.22498856,0.13858436,0.16200551,0.24254377,0.098460585,-0.044953056,-0.13797882,-0.02252645,0.21272205,-0.22112958,0.056018114,0.21796377,-0.09998841,-0.017907903,-0.19798546,0.20092373,-0.041816734,0.01598635,0.20613143,-0.15514858,-0.10943362,0.14713553,-0.08096015,0.045707833,-0.12597196,0.17505385,-0.11991056,-0.047456324,-0.028448513,0.07471309,0.07940457,0.09011775,-0.033443697,0.045367856,-0.16746028,0.14261389,0.09378896,-0.17755745,-0.11244912,0.014595891,0.20130038,-0.081039414,-0.019659726,-0.026881034,-0.19641842,0.15172215,-0.24409603,-0.11021784,0.24016769,0.041830443},
{0.037776187,-0.010829429,0.1512758,0.030795205,-0.2080165,-0.07388557,-0.030473843,0.1426433,-0.045090582,0.067009054,0.13690162,-0.17544112,0.030584188,0.028298514,-0.07505328,0.033142872,0.11943146,0.121790774,0.23650353,-0.034383506,0.0752249,0.14756641,-0.15061429,-0.09413501,0.040280614,-0.1268248,0.06408264,-0.10815618,-0.017919961,-0.15191334,-0.19045866,-0.029319331,0.16331571,0.054433465,0.08410744,0.24322887,-0.019130526,0.079915285,0.1607864,0.13468182,0.1762934,0.032663018,0.15502793,-0.0697873,0.16906056,0.13217413,0.06454834,-0.04247249,0.10721678,0.1339035,0.15205145,0.16907692,-0.18398817,0.053822823,-0.11859275,0.08239333,0.041131005,0.01088998,-0.20446235,-0.062404066,0.019134648,0.1437959,-0.08165955,0.22309618,-0.17349142,-0.16084923,0.093023665,0.17504182,0.017824136,0.08058789,0.12587719,0.099374376,-0.23011452,0.031690918,-0.032689057,0.18396136,0.06532434,-0.14998408,-0.09567457,-0.09081294,-0.07234782,-0.027626155,0.015093956,0.11067435,0.12681031,-0.133425,-0.20366085,-0.13494118,0.051337607,-0.12626617,-0.024247888,0.11049201,0.12421201,0.03594672,0.01989158,-0.15110521},
{-0.12770078,-0.0062738634,0.21940762,0.24109165,-0.14737216,-0.06117821,0.027417907,0.1631007,0.250392,0.07354875,-0.14644597,0.08907873,-0.08250181,0.21029048,0.0161767,-0.14173983,-0.016043227,-0.13707498,0.026140472,-0.1197035,-0.07151406,0.11684975,0.013821705,-0.021041332,-0.14168426,-0.11553922,-0.12867062,-0.1118733,0.038391612,0.133481,0.1585706,0.08307542,0.044137914,0.20463231,0.21132176,-0.18440713,-0.13273677,-0.058267638,-0.030745285,-0.14850247,-0.05444147,0.22267063,0.17522036,0.02134174,0.036250047,0.082184106,0.00430713,-0.06826304,0.24700937,0.0907208,0.1369059,-0.106191896,0.03681514,0.037352376,-0.14148135,0.008618084,-0.0015938381,0.23054154,-0.06664258,0.22810884,0.06943934,0.11417696,0.1310239,-0.0036181186,0.12241127,0.12765971,0.23771088,0.06838709,-0.04931622,0.14590341,0.04119529,0.15508917,0.13250531,0.0105314525,-0.008874112,-0.094093785,0.16884643,0.1618902,-0.16886388,0.17957313,0.10091121,0.08455111,-0.079425,-0.23920025,-0.043882586,-0.13335386,0.18057217,-0.07620653,-0.16153961,0.071281895,-0.03325207,-0.0010309971,-0.17454614,-0.23125304,0.09993364,0.13750686},
{-0.11588563,-0.07428862,0.13675879,-0.15903734,-0.17030472,-0.06528673,0.18058476,0.09010127,0.14207613,-0.15221205,0.16305146,0.13696358,-0.04416055,-0.25183898,0.09946119,-0.187857,-0.19293815,0.2188623,0.27081683,-0.19664925,-0.20428827,0.06398125,0.08472608,-0.0012138934,0.13890713,0.0034116316,0.039715238,0.030372944,-0.06782143,0.11353389,-0.2151584,-0.206692,-0.017977832,-0.08973856,0.062362228,0.21164346,0.16620257,0.014467473,0.06225109,-0.10905612,0.24222969,-0.035517644,0.11674872,0.067524694,0.0011688243,-0.12923448,0.05689295,0.08630487,0.042309616,-0.010509898,0.21273881,0.03168648,0.157092,0.08480302,-0.23190358,-0.022976303,0.024383998,-0.026623221,0.1642961,0.06468095,0.18959847,-0.056151144,-0.25188142,-0.14157042,-0.015592464,-0.15533936,-0.009903245,0.17515427,0.07983815,0.02822059,0.1560496,0.21467222,-0.054969523,0.10490356,0.18447833,0.0056800707,-0.11188772,-0.13307588,0.18315524,0.0052348287,0.019164763,-0.046337437,0.22042245,-0.09435378,0.12954791,0.15715517,0.1288111,0.102022894,0.04050969,0.080347635,0.1334726,0.08182417,-0.032414783,0.068971165,-0.22934157,-0.12827532},
{-0.12150681,-0.11591003,-0.08995057,-0.0907582,-0.044586353,0.15626182,0.14596738,0.0547269,0.015067833,0.080697246,-0.1808024,0.11917446,-0.17067187,-0.004089415,-0.121325254,0.16725408,0.024183195,-0.045168266,-0.20286246,-0.0726096,0.20180382,-0.040364068,-0.12108828,-0.2118637,0.06860422,0.02778658,0.3097642,0.008527775,0.014020489,0.030951507,-0.101003446,0.19281119,0.11941445,-0.07704012,0.16699755,-0.0054434435,0.111726515,0.010710755,0.11636786,0.2043749,0.16129479,-0.20560327,-0.08613062,0.16535357,-0.028913463,0.095414944,0.16774613,0.17959702,-0.04800347,-0.09697302,0.18545301,-0.024509383,0.12861012,0.18556862,-0.07762994,-0.0060224696,-0.0055090785,0.0015514616,0.057191215,-0.1851715,-0.20587163,0.11873072,-0.007657405,-0.061392177,0.033431012,-0.06603965,0.06186403,-0.09016871,0.114779465,-0.07571688,-0.13835631,-0.011833002,0.016224166,0.042848136,0.09462232,-0.09335121,-0.1908426,-0.08966143,-0.17756896,0.12520097,0.10998814,-0.10120671,-0.012383782,-0.10673426,0.12470622,-0.0057432307,0.1779344,-0.16010119,0.0077798828,-0.011731218,-0.18460803,-0.02378744,-0.13055219,0.1328456,-0.12305681,-0.1577047},
{0.11436982,0.13554078,0.19832228,0.11992566,-0.16586898,0.0637445,0.043906156,0.16348569,-0.014537927,-0.10980477,0.05337091,-0.04318842,0.090281315,0.15044706,-0.049050555,-0.0053933067,-0.06366431,-0.06809348,0.04000952,0.12055951,-0.1691675,-0.25202537,-0.19747907,0.13398527,0.021324722,-0.1954896,-0.0942155,0.051175885,0.056278244,0.08981948,-0.14135288,-0.15491135,-0.075462356,0.08521242,-0.18910807,0.12001857,-0.025152558,-0.13516054,0.10341437,-0.1810535,0.18536508,0.16769825,0.07861351,0.074028336,-0.21124211,0.09515749,-0.20940953,0.03466051,-0.03365521,-0.09779772,-0.07889857,0.24015318,0.063942514,0.0649244,0.09528754,0.0010472174,0.05939401,0.04456782,-0.06232544,-0.036308035,0.18618742,0.04538056,-0.16122052,0.06527464,-0.14457849,0.13449106,0.10667742,0.20601828,-0.02240048,-0.09676339,-0.12104274,0.17889696,-0.17439866,0.016149903,0.1608308,0.122644395,0.08182937,-0.0811879,0.05399448,0.039040327,-0.1349482,0.1823286,-0.10209284,-0.043064263,0.2776221,0.039342843,-0.17630899,0.16458969,-0.10125387,-0.1271083,-0.10966482,0.14098707,-0.015934348,-0.060960483,0.032245655,0.08396821},
{0.022746544,0.17585607,-0.013886846,-0.23121414,0.18665092,0.09742865,0.119990736,-0.04079546,0.18554248,0.12387574,0.16341905,-0.05429741,0.20091662,-0.042837113,0.12739639,0.11207835,-0.039663084,0.014019086,-0.10936602,-0.14216767,0.07605384,-0.17872247,-0.08250011,-0.019473026,0.04193883,-0.037456006,-0.10312384,-0.08958509,0.10995417,-0.12429325,-0.03662274,0.20881715,-0.19123922,0.11247635,-0.118852995,0.030657826,0.061555956,-0.08639356,0.16118382,0.24151535,0.18789735,0.047311503,0.23298271,0.0948664,0.0031547346,-0.17840402,0.17059268,-0.1562976,0.015823271,-0.12845655,0.17646545,0.11521175,-0.129567,-0.01927385,0.16870068,-0.12907176,0.14521946,-0.1700878,0.0064080437,0.024007501,0.16447587,-0.012380316,0.018695405,0.10397777,-0.05381474,0.17629115,0.035443906,0.20974797,0.0012649358,0.1436226,0.24914311,-0.033758886,0.049772516,0.0308605,-0.15923086,0.008550981,0.15934704,0.0637036,0.028227666,0.046234407,-0.033657447,-0.11732976,0.19096799,0.017419202,-0.067269355,0.057140823,-0.14177386,0.13239592,0.16654155,0.12102959,-0.14567284,0.059493735,0.0626638,-0.17943229,0.06840645,-0.04706847},
{0.2365842,-0.19785167,-0.064655714,0.012411326,0.1693203,0.18526039,0.20157285,-0.18044613,0.17129718,0.14711332,0.044863567,0.115445934,0.119074956,0.035026122,-0.12932304,0.17690039,0.0033417114,-0.0837981,0.110802285,0.099767216,-0.080571614,-0.25456235,0.05698983,-0.05757438,-0.13272184,-0.032503102,-0.12555632,0.16051456,-0.14695343,-0.016540803,-0.0051115877,-0.09573459,0.020229615,0.0028158461,0.17180112,0.020401504,0.1531718,0.20892906,-0.13935974,0.092888996,-0.12025111,-0.06103848,-0.07900983,0.14761019,-0.08199798,-0.12087694,-0.07583293,-0.042887803,0.06588631,-0.14907362,-0.015269725,0.14312649,0.14255556,0.2931635,-0.24405871,0.17951375,0.07152894,-0.03791908,-0.13540189,0.062453713,0.23643789,0.11859068,-0.12747663,0.083049886,-0.16593404,-0.21354333,0.09837393,-0.100185454,0.06765802,-0.08602298,-0.13880818,0.090146944,0.16892637,-0.13488704,0.07012079,-0.06466171,-0.05373587,-0.16795656,-0.008021508,0.16880448,0.11473913,-0.01285738,0.18475358,-0.08191104,0.1037774,0.17710108,-0.293441,-0.008226846,0.2581474,-0.13022411,-0.18308274,-0.069139235,-0.18863453,0.14437294,0.022621408,0.11403605},
{-0.0025064615,-0.10957017,0.20284265,-0.11164142,0.27103576,-0.16812298,-0.06107221,-0.07344949,0.052391004,0.06519851,0.17450997,-0.09394296,-0.12221406,0.25769693,0.11663507,-0.22847271,-0.085362986,0.02827137,-0.22066946,-0.15358889,0.08770113,0.025069883,0.13013057,-0.1262791,-0.16030833,0.1190323,0.25149238,-0.09629686,0.23377222,-0.11244725,-0.043370355,-0.043059442,0.22064586,-0.16392429,0.13627155,0.0056451256,-0.23001249,-0.068524845,0.1769166,0.15816306,-0.029743696,0.13770694,0.12383737,0.060547035,0.11038178,-0.20325768,-0.020906743,-0.102080226,-0.11168282,-0.087289706,0.15792838,0.054872833,0.0013589939,0.16387068,0.09183099,-0.18510483,0.103143014,-0.15231219,0.21016513,0.009191818,0.14563073,0.08053855,-0.038540237,0.08413513,0.053300083,0.18519719,0.035745103,-0.20798619,-0.038353384,0.02438903,0.145124,-0.20229292,0.13892958,0.18797031,0.2265767,-0.10873941,-0.033019952,0.13523121,-0.05595016,0.17387323,-0.0011204784,-0.14461437,6.308367e-05,-0.12286819,-0.018600492,-0.01281857,0.30249342,-0.060556576,0.17816447,-0.077146314,0.086362205,-0.1449716,0.25360218,0.050412178,0.07392785,-0.032170698},
{-0.07410002,0.21710473,-0.086773224,-0.19749075,-0.20003787,0.21174027,0.028845398,0.049934573,0.17596984,0.082663484,0.10882208,0.026830701,0.005257296,-0.0801836,-0.118739754,0.06357474,-0.2279596,-0.18307184,0.19295263,0.03282807,0.1388082,-0.13081934,0.05472668,0.04418952,-0.027164081,-0.23334727,0.18937372,-0.20214929,-0.0562457,-0.08710471,0.0024423401,0.0024851535,0.079539694,0.034898125,0.001879052,-0.0016047419,-0.09714227,-0.064488724,0.14327653,0.18245038,0.18060295,-0.012324874,0.19651763,0.023542756,-0.005370109,0.029728815,-0.019139657,-0.074486345,0.11031203,-0.17909479,0.13395254,-0.0069231866,0.020599969,-0.13807245,-0.0267418,-0.1338703,-0.010084978,-0.20776561,-0.20134471,0.07149375,-0.041609284,-0.09285725,-0.11216837,0.2038903,-0.07674994,0.108799465,-0.17267704,-0.028967254,-0.18285444,0.22486672,-0.10599201,0.1550824,-0.053049758,-0.16962148,0.1609341,0.2264317,0.09759307,0.056422036,-0.02868836,-0.05879429,0.17579116,0.20899351,0.15440904,0.3054578,0.023794845,0.18540144,-0.07764323,-0.17921615,0.08806944,0.16268389,0.041438904,0.085455745,-0.085787326,0.1460086,-0.12834515,-0.02814024},
{-0.13564283,-0.18027672,0.047069803,-0.056675956,0.06132537,0.04252697,0.16170377,0.007007188,0.026096746,-0.05705964,-0.10972907,0.024585493,0.0149696665,-0.08442188,0.06685024,0.0182606,0.22589853,0.047567483,0.027574144,0.19120793,-0.036975365,-0.11796003,0.23475426,-0.00089036266,0.14074637,-0.12270588,0.14815615,0.17791682,-0.10321282,0.1629206,0.093051255,0.11821153,0.0037933714,0.07490982,0.24320091,0.1401487,0.108576685,0.011877038,-0.011271193,0.03968859,0.16880105,0.005573264,-0.12663184,0.03759256,0.12844235,0.18219216,0.083914585,0.22296302,0.15866993,0.09507234,0.14670013,0.102158934,0.23517936,-0.06014589,-0.054184135,0.22477232,0.20940436,0.07010837,-0.09112124,-0.14303273,0.01343691,-0.19254152,0.14001042,-0.1647179,0.07586772,0.18599053,-0.0427216,-0.20314558,0.15228908,-0.02788015,-0.15149246,-0.12439722,0.09389833,-0.17357945,0.092077,0.13056763,-0.016281398,-0.13443312,-0.15807639,0.093567185,0.19608271,-0.06147933,0.13531357,0.21670662,-0.14669034,-0.025083626,0.18851128,0.20338419,0.15738447,-0.14622946,0.05658683,0.052817475,0.11362526,0.13265854,0.04269615,0.10036075},
{-0.14670926,0.090375856,-0.19185878,0.093488276,0.107944556,-0.07644344,-0.105277225,-0.1628475,-0.025915833,-0.017321749,0.030635895,0.058306683,0.1561724,-0.022130879,0.033173364,0.12890086,0.047651168,-0.21902534,0.1441072,-0.20886838,-0.026640076,0.16367072,-0.07715943,0.0055812383,-0.037853546,0.030107921,0.09048283,0.17642176,0.10170992,0.17887095,0.08853128,0.052328747,-0.16530275,0.12672032,-0.14417017,0.19382198,0.032875884,-0.21516976,0.18039842,-0.08739912,0.17319284,0.044702485,-0.040117193,0.08368333,0.17319718,-0.0413188,0.17277683,-0.20199315,0.1683366,0.025760261,0.17278908,-0.08275516,-0.18074177,-0.06629372,0.047358587,-0.0970715,-0.1842285,0.023054084,0.026245708,0.123235166,0.061971683,0.08746442,0.09078668,-0.112658344,-0.10144414,-2.7799157e-05,-0.022895604,0.054454528,0.15215577,0.1636426,0.11193689,0.06332981,0.06125495,-0.12171204,-0.19889764,-0.053608235,0.113177195,-0.13198021,0.029354673,-0.1267479,-0.06826627,-0.009503,-0.18820685,-0.16192774,0.07134984,-0.12115674,-0.075206086,0.09549439,0.11336272,-0.14639576,0.018411998,-0.113263786,0.05243524,0.003489984,-0.08384241,-0.18414046},
{-0.16640788,0.1476443,-0.13998768,-0.08855124,-0.17935456,0.086919025,0.053031243,0.021240732,-0.20227243,0.17439836,0.18766566,-0.12440573,0.17241453,0.03831183,-0.012587,0.098358355,0.0292048,0.011147484,0.038738716,-0.0042225276,-0.19623347,0.054256782,0.05603529,0.05564394,-0.12664339,0.024620067,0.08295816,0.016818242,0.0036637185,-0.20881085,-0.04739822,-0.15205817,0.06361331,-0.112413146,-0.016094834,-0.123137005,-0.14181042,0.1769238,0.20864657,0.12501568,-0.12282034,-0.03738907,-0.076992445,0.14530894,-0.16899003,0.22299309,-0.1410819,-0.023458753,0.18467726,0.14244719,0.1443074,0.21862608,0.17790063,0.14469613,0.05467659,-0.14483045,0.008529104,0.12564774,-0.14982297,0.15002844,0.040303983,-0.079723954,-0.10117382,0.24621016,-0.10286807,0.01276228,-0.035997335,0.04235522,-0.11771328,-0.014431206,0.118104994,0.037156165,-0.014489842,0.03526305,0.19503585,0.038689334,0.20147242,-0.052011605,-0.1122222,-0.08427896,0.01891445,0.25626108,0.23932268,0.16465867,0.22280255,-0.16258895,-0.06682188,-0.0049236906,0.23389915,-0.10274662,-0.07526633,0.19949307,-0.17946331,-0.064738795,-0.059866626,0.087886095},
{-0.03289165,-0.12659627,0.023753224,0.11207624,0.12999621,0.20476563,0.07732353,0.16875921,-0.06563454,0.17774388,-0.0063356776,0.16999698,0.14596279,-0.05700589,0.038225506,-0.19060174,-0.10455517,0.23133665,0.04076717,0.007848344,0.08051337,0.18449984,0.07351327,-0.03844485,0.17354284,0.22009146,-0.13018955,0.17375416,0.16659948,-0.14552374,0.19354588,-0.07501603,0.23016512,-0.08021353,-0.013427331,-0.0120365545,0.09648609,-0.075165205,-0.17608143,-0.059937045,-0.0064986115,-0.13047351,-0.173866,0.03317323,0.031780247,0.0950331,-0.056823976,-0.13034156,0.14318372,0.029098997,0.21362881,-0.107725054,-0.054213375,-0.0431575,-0.02143383,0.16326398,0.17574748,0.10917911,-0.0752797,-0.0389852,0.008477358,0.06392298,-0.05920492,0.18690969,-0.21586484,-0.07157036,0.053899534,-0.08260399,-0.080766864,0.046209283,-0.012980055,0.2072673,0.039640546,-0.11491207,0.07458651,-0.18610308,-0.21236935,0.12127524,-0.032348942,0.22090325,0.0168362,-0.1731615,-0.056165338,-0.11406112,0.11314471,0.20231175,0.03818555,-0.10214109,-0.13410108,0.12946,0.07943627,-0.20184892,0.15792757,0.03805148,-0.040508572,0.028961824},
{0.09942198,0.18605407,0.036103103,-0.119903736,0.11375516,0.053285945,-0.16474184,0.0943843,-0.16353607,0.16273329,-0.10673865,0.1908532,-0.090436466,-0.21223706,-0.11022824,-0.19892567,0.12287591,-0.118174165,0.036999978,-0.028107861,-0.05213369,0.12184161,-0.025878007,0.0060458416,-0.00500198,-0.12022227,-0.043617178,-0.11126576,0.048390787,0.017543593,0.24222404,-0.071946464,-0.14695822,0.04267541,-0.26785177,0.15588057,0.0851024,0.11793967,0.044589918,-0.04546587,-0.0580575,0.13557842,-0.13184811,0.15290014,-0.0056929616,0.20260924,-0.2366877,-0.14591238,0.08271517,-0.17003433,-0.17100763,0.14979127,-0.117258236,-0.20144463,-0.121245906,-0.027378805,0.091488585,0.19986415,-0.019231386,0.20436777,-0.15899089,0.17658448,-0.16460523,-0.123653136,0.20045505,0.0906033,-0.03780097,0.088237286,0.16034564,0.046493523,0.15110101,0.06866965,0.13173328,0.16355251,-0.24364963,0.15717994,0.19374044,0.04868179,0.061408516,-0.06875925,-0.10847025,0.010226319,0.14159511,-0.15568645,-0.05812606,0.11730919,0.11109762,0.10715964,-0.15088646,0.12931389,0.015982416,-0.025026953,-0.120234326,-0.2716724,0.1274923,-0.08701321},
{-0.0779254,-0.094327085,-0.108144276,-0.05648317,-0.04265887,0.1533197,-0.14263172,0.07323521,0.25588468,0.056062967,-0.11096577,-0.09391576,0.052589923,0.08597331,0.047962803,0.015004297,0.1396195,0.0576979,-0.13623045,0.030618183,0.027831733,-0.18253186,0.062474582,0.04704351,-0.11352227,-0.052105527,0.2773868,-0.0010128213,0.09058163,0.18431166,0.13102071,-0.079020716,-0.015077921,0.11536039,0.0014693557,-0.035294533,-0.029070573,-0.16123256,0.11394292,0.24078226,0.009083175,0.034781247,-0.09151525,-0.09428852,0.1005908,-0.099418394,0.18430246,0.11197329,-0.044844937,-0.06439481,0.16351362,0.021834785,-0.050303563,0.23313981,-0.21599422,-0.107552335,0.24886714,0.17884606,-0.025151683,-0.057493273,0.07050409,-0.11647676,0.23348461,-0.035451397,-0.16188003,-0.07842126,-0.066327244,-0.13774273,0.1447835,0.022426467,-0.15184884,-0.13240255,0.2610793,0.029181365,0.046744578,-0.09940807,0.03318459,0.11712104,0.20989697,-8.3718056e-05,-0.10903271,-0.04820923,0.22160494,0.1212218,0.020462504,0.19751434,0.09784556,0.19098407,0.103836805,-0.010410964,0.19768156,0.009823261,0.18526942,0.09191154,-0.179659,-0.12654684},
{0.038827825,-0.1214515,0.033493828,-0.072666466,-0.19886047,-0.13482219,0.0006002099,0.026483921,-0.025190279,0.048015647,0.024581578,-0.073601335,0.032272488,-0.24928482,0.13655238,0.10878498,0.11836756,-0.18697686,-0.06326705,-0.21777755,0.07666678,0.025304312,0.015858432,0.19937895,-0.069350995,-0.082627416,0.124445714,-0.2196419,0.024337737,0.052950524,0.12795138,-0.05008717,-0.18632211,-0.17776857,-0.17103328,-0.10145375,0.17256872,-0.09850536,0.010837036,0.14851248,0.08433423,0.18867552,-0.05877,0.1051275,-0.11266087,-0.03646976,-0.1832209,0.085500434,0.23150423,-0.055121597,0.17232803,0.22282234,-0.085756734,0.10446444,-0.11023746,-0.10577565,-0.09218935,-0.14401262,-0.08487921,0.17047362,0.23476279,0.23505983,0.040688768,-0.096488774,-0.09221177,0.13511631,0.1619771,0.09422394,-0.13399418,0.16564812,0.084677085,-0.07720809,-0.08096964,0.12795852,0.027349586,0.12962165,0.22033353,0.2202697,0.03340156,0.15906218,0.20085317,-0.019149717,-0.036280517,-0.22868763,0.12765013,0.119277366,-0.027645122,-0.048118725,0.09414018,0.08973674,0.1458189,0.16025963,-0.19947788,-0.15990745,0.15650027,0.15441328},
{-0.11620038,0.10800347,-0.043097727,-0.23745716,0.17109078,0.05932879,0.1482725,0.028547069,-0.0003079464,0.23210393,0.03298703,-0.1669697,-0.11530671,-0.21600106,0.012621294,0.1506555,-0.056524064,0.08778316,0.13919222,-0.18269405,-0.15753582,-0.25307798,-0.19379209,0.010698965,0.019964758,-0.16485061,-0.24971765,-0.10668784,-0.2469941,0.17279682,0.14409174,0.011647487,0.13879442,0.13402359,-0.19921613,0.05874894,-0.081910685,0.1665319,-0.06395942,-0.15574344,-0.14504437,-0.027469719,-0.0870686,0.16154195,-0.20521893,0.12695295,0.067195326,0.16910149,0.15565453,-0.009112218,0.09340522,0.13999432,0.09195302,0.106959425,0.14957957,0.07525637,0.029026764,0.17432277,-0.11355166,0.21185899,0.079757504,-0.09326446,0.14304137,0.236783,-0.011792671,-0.21514617,-0.058954768,0.22163598,0.021222597,0.20364715,0.17503178,0.19009112,0.048817936,0.16937432,0.004967606,0.1326214,0.15984057,0.110092305,-0.19568394,-0.20279016,-0.08176372,0.02172539,-0.05473562,-0.23058176,0.0015153623,-0.17808029,0.127826,0.03423753,0.18001659,0.036196284,-0.107816376,0.090367176,-0.22753456,0.08963045,0.10711468,-0.17288731},
{0.10914069,-0.098323196,-0.104159445,-0.0071661267,0.004736287,0.1577949,0.15637693,0.06676654,-0.041785188,-0.061303105,0.031819467,0.19093442,-0.0063912827,-0.006293328,0.14719477,-0.1370697,0.015725845,-0.15553322,-0.023541173,0.10817048,-0.16961285,0.19052361,-0.025886223,-0.21515076,0.19038358,0.18676841,0.26857087,0.058532476,0.09040389,-0.02259346,-0.147572,-0.11724257,0.25917995,0.06825975,0.12862748,-0.1146337,-0.18615842,0.04904968,0.040194605,0.10715067,0.041531958,0.027848152,0.09165634,0.03465635,-0.19143035,0.06820675,-0.13699107,-0.021139069,0.047221687,0.05027001,0.12537332,0.057943657,0.2313938,0.14373887,0.18348736,-0.12719932,-0.034827266,-0.18188302,-0.07385005,-0.234785,-0.14608927,0.10096633,0.12011187,-0.099645264,0.2303942,-0.0356242,-0.23635204,0.18132061,0.19180307,0.10448132,-0.11037674,-0.07394393,-0.13520657,0.07020365,-0.22075932,0.2127123,0.1795198,-0.1991656,0.16803072,-0.029970376,0.08292016,-0.19821419,-0.12330723,0.1399126,0.13292757,-0.16476887,0.15579404,-0.10212185,0.15035923,-0.056029968,0.086746514,0.12548468,-0.016939731,0.17291394,0.18632437,-0.16755174},
{0.109411605,-0.14673613,-0.20216201,0.054708883,0.10656281,-0.14222951,-0.16826466,-0.00049361144,-0.100640364,-0.019248031,-0.06851895,0.14615092,0.18550473,0.0019137008,-0.118363895,-0.01912161,-0.0890885,-0.18844125,-0.017529385,0.15270008,0.042744007,0.20588072,0.18696262,0.1532534,-0.15768868,0.15579973,0.16882756,-0.14442514,-0.12190649,-0.07945894,0.101991944,-0.08777827,-0.022524865,0.122090675,0.16305254,0.11159346,0.14417598,-0.054274324,-0.03113449,0.04638238,-0.14359549,-0.1352442,0.17731431,0.0067000976,-0.034970384,0.110616915,-0.11994153,0.10153036,-0.025291756,0.06770376,0.058384754,-0.1295329,-0.21725532,-0.1960962,-0.01434095,0.05241031,0.17815973,0.2181426,0.13675287,-0.06696371,-0.15541123,0.05607156,0.28636152,0.148521,-0.0031741052,-0.014018356,-0.1255377,-0.14511089,0.15672883,0.18881942,-0.16634715,0.19873115,-0.050927754,0.25381026,-0.0023281886,0.098899245,-0.17404428,-0.19546603,-0.09782778,-0.020518446,0.20502335,0.09574726,0.18211034,-0.092871055,0.00917776,-0.08656449,0.2618321,0.009308523,-0.0077385055,-0.1524275,0.021736313,0.15582122,0.23257567,-0.15290453,-0.108389795,-0.03627018},
{0.14214247,0.15413313,-0.07729994,0.2288822,-0.136472,0.13395709,-0.007414681,-0.12635712,-0.027425716,0.14765273,-0.1638959,0.06760498,0.13622536,0.15433265,-0.05223077,0.13679218,-0.17839459,0.14114538,0.0997709,0.18751907,-0.20629866,0.04374377,0.1510883,0.18947364,0.15091813,0.094680816,0.08943545,0.1367493,-0.07899948,0.1268626,-0.15068519,-0.17041323,0.123272195,0.14896245,0.107657805,-0.10056184,0.021185746,-0.07194186,0.18481305,-0.04634552,-0.23266438,-0.16625863,-0.13904932,-0.1992235,-0.07118259,0.12503305,0.15200792,-0.013564381,0.13762309,-0.045357004,-0.057622246,0.06980675,-0.18969667,-0.13149127,0.22451138,-0.03130519,-0.00795447,0.020251784,0.03333401,0.15812021,-0.020123363,0.16146798,0.0010454628,-0.023254326,0.06927665,-0.18456279,0.057969425,0.028139181,0.16462068,0.105596654,0.16502772,0.045571007,0.10093261,0.18921876,-0.11612016,0.06306142,0.008873528,-0.0146308495,-0.109224744,-0.17304394,-0.20512249,0.08068345,-0.13681689,0.21333918,-0.038837746,0.14376186,0.005926189,0.08001121,0.12917027,0.03680155,0.094719514,0.085771024,-0.08083952,-0.107484914,0.23685935,0.11743135},
{-0.08136698,0.02962394,0.09793741,-0.114234105,0.007844412,0.077984415,-0.058399245,-0.1382716,-0.116415285,0.09918301,-0.11460796,-0.18095581,-0.085605875,0.050774544,0.112192124,0.190123,-0.21093982,0.15353209,0.09021606,-0.096258104,-0.071888596,-0.052145302,0.13333577,0.05436027,0.13650963,-0.047579806,-0.087966815,0.1298872,-0.11664755,-0.06780865,0.06233666,-0.14353986,-0.08959137,0.08526452,-0.14972046,-0.08869994,0.2442697,0.085109964,-0.13743116,-0.19588232,-0.06509091,0.05793782,-0.13284722,-0.08534869,-0.16398732,0.07238882,0.15719411,-0.050791305,0.06300702,0.07835528,-0.008853896,0.031443797,-0.22987914,0.106589265,-0.027778586,0.019152898,-0.044507798,0.21470334,-0.030567417,0.18920736,-0.055763107,0.13463001,0.082568094,0.14044914,0.18246156,0.03954808,0.05759734,0.15319817,0.11346003,0.013962293,0.09485627,0.25099507,0.021615613,-0.04802889,-0.10805769,-0.07523841,-0.12798947,0.042859774,-0.15401089,0.0853394,0.110793695,-0.026574675,0.14599897,-0.19075012,-0.17367622,0.0027806733,-0.16216347,-0.16105686,-0.032801494,0.20356734,-0.095214866,0.12470316,-0.22798839,-0.21841152,0.21080296,0.13950236},
{-0.15872598,0.10993087,-0.13429588,0.069859795,-0.09734182,0.03548276,-0.1425223,0.13435735,0.030574154,-0.0035030185,-0.22072625,-0.1877857,0.1386644,-0.09616236,0.053125344,0.15774459,-0.061636705,-0.12851043,-0.012043633,0.07175416,-0.15900184,-0.14873983,-0.0045093787,0.22717622,-0.10393192,-0.18443291,-0.11909442,0.18230799,-0.20781447,0.12005942,0.058471885,0.035146017,0.042217687,-0.14649738,-0.20524012,-0.038783927,-0.1223849,-0.10388117,-0.1444778,-0.041712802,0.11848697,-0.110286176,-0.10606008,-0.18920945,0.040339164,-0.14456025,0.13153432,0.045009684,-0.06853548,0.081473775,0.124338716,-0.06949105,-0.01595171,0.098959625,-0.11580864,0.18040507,0.11364078,-0.16967921,-0.13808872,0.21872872,-0.22790468,-0.01782956,0.13891932,0.06467639,0.21190803,0.06963622,-0.08327973,-0.038003962,-0.020128526,-0.16579708,0.22380315,0.15617172,0.04098329,0.12417795,0.11929962,0.123809874,-0.086198084,0.17796741,-0.009183711,-0.14548862,0.10851966,-0.11088675,-0.05952478,0.12881233,-0.15629104,0.10473381,0.16750874,-0.0033030505,0.09173337,-0.06784083,0.11459902,0.19159165,0.11499613,-0.1818866,0.17606498,0.15373456},
{0.23006128,0.015269047,-0.12399481,-0.07812683,0.015584884,-0.09371779,-0.13566127,-0.08951035,0.22635323,0.08476148,-0.09247493,0.19095565,-0.06401257,-0.09941334,-0.1905175,0.09436754,0.22264762,0.18483567,0.1704738,0.060376108,-0.010125253,0.18991072,0.17387517,-0.006804604,0.20405844,0.021233821,-0.02343025,0.07892909,-0.017948745,0.0949711,0.17835157,-0.033098828,0.22815378,-0.0148195475,-0.05997986,0.06215936,0.1024393,-0.1698613,-0.0653143,0.092690006,0.0059193983,0.1249046,0.21658276,-0.18222056,0.06606219,0.19456841,0.027299229,0.099144064,-0.091288134,0.2643867,0.15325323,-0.09190702,0.11062166,0.14522079,-0.119354226,-0.084627636,0.19971903,-0.0940882,0.13664319,-0.15285914,0.09232692,-0.13529737,-0.09000531,-0.24052185,0.0115448,0.0432871,0.10210342,0.08540952,-0.11787551,0.15728675,0.17522766,-0.06500969,-0.14275695,-0.16533571,-0.063830465,-0.072261125,0.13611133,-0.131085,0.08335805,0.18682183,0.06665223,-0.2689919,0.13514136,0.12379861,-0.02127014,0.018531645,-0.027641254,0.063713536,-0.053945936,-0.025142163,-0.13698043,0.13829534,0.26569152,0.2639447,-0.059187226,0.14673217},
{0.08457819,-0.067923345,0.21710464,-0.1320439,-0.076074965,0.067230664,0.13272485,0.0604515,-0.19724084,0.17229381,0.056819085,-0.17521665,-0.022230335,-0.12180956,0.04957532,0.19014783,-0.09679142,0.05604771,0.16148137,-0.14356683,0.061450206,-0.056503426,-0.01581096,-0.043086197,-0.20156895,0.0028066048,0.11579937,-0.005557021,-0.20476422,-0.12587398,-0.122323096,-0.15694498,-0.15475155,0.26543152,0.117701404,0.26771244,-0.018613953,-0.16151915,0.116748646,0.13833497,0.1699527,0.12433306,0.2665861,0.23633899,-0.09665649,0.043848593,0.20573081,-0.056032803,0.07300373,0.13699201,0.0005207836,-0.08405999,0.0003869499,0.15134422,-0.20748787,0.09828129,0.12651487,0.16109839,0.041169133,-0.10185709,0.20876731,0.12939276,-0.039547056,0.08038351,-0.14868681,-0.049636576,0.043258663,0.059614833,-0.0055470103,0.020446893,0.058498614,-0.053057853,-0.18606535,-0.11144081,0.23503934,-0.13458903,0.084270075,-0.02758444,0.19394128,0.1966873,-0.12523746,-0.075322464,-0.0161952,-0.15858136,-0.04057952,-0.10974145,0.04047003,0.15562393,0.17198104,0.1676544,0.04536703,0.09727645,-0.2273957,0.06410875,-0.007837466,0.103629924},
{0.23671831,-0.17125608,0.12470427,-0.10598726,0.18531969,0.17752644,0.21441422,0.24315467,0.035481237,-0.18131085,0.1008195,-0.064543605,-0.10217168,-0.001437457,0.25259408,-0.005427313,0.047740992,0.23115134,-0.11525951,0.0269137,0.14543244,0.224851,-0.0631304,-0.061795417,0.21567082,0.124478385,-0.022852466,-0.1180022,0.17519282,0.019184422,-0.03356748,0.09856173,0.24750349,-0.10577167,0.22758369,-0.16721418,-0.13869768,-0.061030872,0.19282906,0.07736262,0.24727751,0.10850345,-0.15080546,0.16445898,-0.148524,-0.103531234,-0.15803732,0.08680343,-0.20976292,-0.05890245,0.2390466,-0.055750497,0.20023684,0.23226571,-0.19250676,-0.12102458,0.15653738,0.22379187,0.15467472,-0.055448633,0.23493758,0.042847496,0.09892729,-0.08650763,-0.07054227,0.13061595,0.24467227,-0.050600227,0.076960206,-0.12442892,0.21793732,-0.12897347,0.22788045,-0.122714065,0.13114278,0.018060533,0.1946614,0.037026897,-0.12394485,0.13547385,0.22594626,-0.24057505,0.07174548,-0.01643109,-0.09716722,0.19332485,0.24226908,-0.15560217,0.13047715,0.17014182,-0.10820323,-0.1514358,-0.03461915,-0.08597233,-0.11816737,0.21502502},
{-0.025948223,-0.100698344,0.12245696,0.17563377,-0.098880716,0.08844875,-0.07833124,0.04403878,-0.056770127,0.10526947,-0.08351213,0.117241524,-0.14609487,0.23795888,-0.023430243,-0.048089746,0.19356285,0.06091502,-0.24987645,0.20415807,-0.010362834,0.22504684,0.15642023,0.038916524,0.12289436,0.012844793,0.19013444,0.20427667,-0.020087283,0.20848183,0.14545418,0.20683555,0.024138015,-0.13710614,-0.07774556,-0.21039936,0.082999066,0.14367811,-0.07675132,-0.06938443,0.08827448,0.06420809,-0.14067079,0.09473482,0.10029351,0.15303941,-0.011129836,0.08321463,0.120501444,0.03579579,0.17730808,-0.059107687,-0.010727022,0.18958734,0.2486112,-0.09227961,0.21272622,-0.028835582,0.04713374,-0.008296985,0.1313835,-0.21035385,0.05060503,-0.15928578,-0.15520214,0.065366425,0.13176447,0.09639482,0.17233685,0.03687133,-0.18396728,-0.10347082,0.048663422,-0.16619216,0.12107598,-0.11307605,0.052801013,0.14492726,0.11975345,-0.13949889,-0.024962133,0.03597344,-0.039769407,-0.03318119,-0.12650914,0.09469941,0.0012954229,0.13638021,-0.20996808,0.048305247,-0.015086128,0.000284941,-0.06990912,0.17381482,0.09837548,-0.09152762},
{0.060862444,0.05182633,-0.049515303,-0.07047951,-0.0053524217,-0.059904363,0.16753283,-0.13217272,0.093037814,-0.11951728,-0.083188504,-0.10466301,0.11481244,-0.15768398,-0.2097297,0.023239182,0.13894933,0.05474399,-0.16884208,-0.15308595,0.069764756,0.09140035,-0.16201882,-0.13214624,-0.21089986,-0.14483498,0.096358374,-0.013228877,-0.13241585,-0.018451087,0.05833457,-0.10595456,-0.025681533,-0.030011887,-0.20085715,-0.0075099454,0.1405432,0.18512513,0.12624568,-0.19248487,0.10186433,-0.18411553,0.13459352,-0.10300023,0.1842004,-0.040176153,-0.095097914,0.016887862,-0.010707288,-0.135946,-0.1139888,0.027830562,-0.17949906,-0.15588869,-0.18483536,-0.093961,0.101598516,-0.16793664,-0.12112225,0.10345492,-0.157816,-0.18744932,0.14762603,-0.12269964,-0.03087726,-0.08895649,-0.124800675,0.047512267,0.03480642,-0.053274076,-0.02843434,0.16796465,0.024264626,-0.1059569,-0.018379577,-0.03815551,-0.12225628,-0.014217812,0.14257713,0.17365885,0.17785327,-0.08748413,-0.041703586,-0.15298758,-0.19834259,0.042668045,-0.069824,0.093264215,0.049208026,-0.19522785,-0.1294226,0.1497338,-0.05201163,-0.025602207,0.0055001313,0.1394314},
{0.024016194,-0.15099119,0.025554426,-0.1923013,0.12411915,0.16833942,-0.13215508,0.15456662,-0.06899786,0.11108493,0.25351006,0.057939496,0.19679566,-0.14735715,0.23984307,0.16446224,-0.20096049,0.034203093,-0.03366691,-0.111713715,0.067816265,-0.042287026,-0.17375466,-0.051288504,0.11371115,-0.12726688,-0.02171871,-0.1291729,-0.13724089,0.18009049,-0.17912866,-0.21097079,-0.11428553,-0.04920722,-0.12304938,0.24257751,-0.19200422,0.1355314,-0.11826878,-0.17332672,0.032096293,-0.21092065,0.038781762,0.18783627,-0.055413507,0.1646625,0.14283013,0.15517487,-0.036923174,-0.062409617,0.017746849,-0.050338373,-0.09285059,-0.008748688,0.15910736,0.1769929,-0.15214239,0.13689467,-0.1093012,0.09103061,0.06733289,-0.06744118,0.06735901,-0.14501356,-0.015941622,-0.075796515,0.07810637,0.12416624,-0.097201854,-0.14677237,0.15562183,-0.04105643,0.15127143,0.12270629,-0.0006500065,-0.107737795,-0.1178255,0.046577077,-0.005787956,0.08500059,-0.073354505,0.2043659,0.21258624,0.26403782,0.14909206,-0.030335952,0.06914152,-0.0040714894,0.19363412,0.19251515,0.044613708,0.20981386,-0.21381077,0.1437835,-0.009096509,-0.19130819},
{0.10607769,-0.106729,0.1698925,0.048006408,0.07325539,-0.027094983,-0.17800044,0.19063711,0.24010107,0.0719761,0.065435275,0.08771262,-0.0529245,0.12435257,-0.1015597,0.2175119,0.23862755,0.19725272,0.009808076,0.066092044,0.05008679,-0.025694652,0.18924192,-0.13034123,0.008819606,0.08255755,0.19986705,0.027751993,0.09788574,-0.013978881,0.059421428,-0.049386542,0.12815507,0.03226023,0.17707023,-0.1875245,-0.11359628,0.23653263,-0.26539132,0.1712079,-0.10551918,0.201352,-0.06566746,0.04051199,-0.09824122,-0.1297663,0.07757581,0.16477825,0.07916233,0.19838111,-0.011673036,-0.044689193,-0.12210969,-0.061483644,-0.07393422,0.07674611,-0.008427404,0.18436697,0.22356239,0.010816352,0.13205901,-0.1971884,-0.13610618,0.016057115,0.23612343,-0.009575739,0.057629522,-0.018654175,0.1889251,-0.13871309,-0.05781568,0.016551845,0.18518741,0.009402414,-0.0012636253,0.024524383,-0.18511997,-0.12370579,-0.03689708,0.15845507,-0.13290565,-0.12196936,0.1560627,-0.15364237,0.0078034285,0.03762835,-0.015759988,0.15374474,-0.16959825,0.2262053,0.1880973,-0.10930697,0.07308866,0.1421708,0.18207444,-0.083046764},
{-0.10840125,-0.09547668,-0.09100024,0.029175213,0.24266022,-0.13453214,-0.1998815,0.19170506,0.13142096,0.10684693,0.089488745,-0.20067029,0.23804335,0.11715603,0.07649869,0.12392184,-0.13676435,-0.055820506,-0.022703713,0.1389148,-0.024595736,0.2532662,0.26544127,0.14647171,-0.020084819,0.10406621,0.17541723,0.0045380457,0.118468046,0.012157407,-0.12384306,0.2574408,0.15672614,-0.1520313,-0.03370099,-0.1636418,-0.21295497,-0.103005275,-0.16761327,0.1426504,0.046840087,0.10231232,-0.14685795,-0.1112311,0.12758121,-0.21378736,-0.080549404,-0.13374136,0.04410773,0.12519571,0.13868985,0.15818962,0.021896537,0.118244894,0.044081595,-0.1015186,-0.058646265,-0.027801631,-0.050668463,0.05249499,0.014416004,-0.03192555,0.15794083,0.05201444,0.1176578,0.17428108,0.18311056,-0.17976902,-0.13185014,-0.07768399,-0.19497317,-0.06137141,0.23869276,-0.07448223,0.08121761,0.097035535,0.00031432844,0.118030295,0.1487498,-0.00035448547,0.039489415,-0.0477508,-0.18801838,0.07669882,-0.1085987,0.1958116,0.23149873,0.13406947,0.19604962,-0.075958796,-0.10872761,0.020279631,-0.08218603,0.093232125,-0.14931336,-0.06272406},
{-0.104401946,0.15980561,-0.03217618,0.0892026,-0.14398302,0.19401166,-0.16224791,-0.0191521,-0.18973108,-0.07310398,-0.16278237,-0.047244165,-0.17506258,-0.21519567,0.20524232,0.07570651,-0.0069846516,-0.15584183,-0.012981505,-0.17700759,-0.19971585,0.16871534,-0.12587863,0.2256389,-0.08938179,-0.24402846,-0.07357405,-0.10868344,-0.23852319,0.061282888,0.1342766,0.124031596,0.023757217,-0.08572425,0.039884392,0.19629,0.07773215,0.12063551,-0.10260014,-0.14127192,0.16670018,-0.021115169,0.059212223,-0.059898034,0.037974067,0.04081756,-0.095453806,-0.17333065,0.051208578,-0.107003,-0.018202586,-0.14020136,0.122208014,-0.012585817,0.16857949,-0.008073368,-0.1727626,0.047106717,0.088168144,0.0037875366,-0.082029775,0.005579456,-0.0889708,0.22332431,0.15376815,0.12223557,0.22489545,0.026658215,-0.10579746,-0.066562675,0.007562591,0.08218143,-0.09994423,0.14439745,0.099677585,0.070460655,0.15960437,0.0030029984,-0.18045343,-0.01162213,0.119095616,-0.022296647,-0.0825505,0.04064119,0.16998939,-0.073805496,-0.007002496,0.05884356,0.119861506,0.14350791,0.005583945,0.21027805,-0.10409074,0.042636253,-0.013795739,0.023675397},
{-0.15162657,-0.09237943,-0.016177488,-0.110892974,-0.16136028,0.1783194,-0.1510901,0.053293224,0.09699812,0.1870146,-0.20916094,-0.048001856,0.13108796,0.11898529,0.11345196,-0.15919419,0.10492638,0.13027829,0.05512994,-0.11874618,-0.17254357,0.0114728315,0.114525475,0.041390218,0.21599345,-0.10084646,-0.07349653,-0.20064731,-0.16284013,0.033839636,0.041421615,0.16405837,-0.111419864,-0.065705515,0.075005665,-0.08849935,0.024303965,0.03122302,0.0013907203,0.031150287,-0.014858294,-0.21329536,-0.20315152,-0.19526346,0.14579415,-0.0974199,0.08653856,-0.12861153,-0.0050577377,0.15612209,-0.20473541,0.06559934,0.09409568,-0.053631075,0.061742272,-0.1075399,-0.16442896,0.110671595,0.033731926,0.022651562,0.11992873,0.17775518,-0.19877951,-0.13593262,0.076350465,-0.034142364,-0.10118639,-0.04640947,0.12668835,0.14829424,-0.0780622,0.017918391,-0.14657871,0.014614634,0.025469748,0.022762664,-0.0891024,0.17394842,-0.13214576,0.14918236,-0.21460022,0.15031561,-0.12505554,0.18935618,-0.058496613,0.20297931,-0.19714633,-0.09526243,-0.053528532,-0.091414094,0.1641047,-0.09584833,-0.0189292,0.090167664,-0.16508012,-0.11430176},}