{{0.21305068,-0.003070441,-0.30484906,-0.1180088,-0.25628164,0.043247063,0.11627599,-0.014917093,-0.27995154,-0.35365298,0.12761223,-0.1083611,0.20045005,-0.3166995,0.23281465,-0.25729543,0.2044761,0.28619665,-0.09828412,-0.036581606,-0.31559572,-0.1880064,0.14999455,0.06204091,-0.38334495,0.04186429,0.012201161,-0.18457778,-0.0028235847,0.17626186,-0.31709626,0.18279792,-0.35709345,-0.23648691,-0.22327393,0.27151865,0.0025740652,-0.00010127359,0.326332,-0.2953181,-0.0425429,0.25581518,-0.21082021,0.39374563,0.24456897,-0.037953373,0.10520134,-0.044984814},
{-0.09886248,-0.016973397,-0.07358932,-0.28238875,0.38586286,0.32335824,-0.18594687,-0.018627,-0.29168922,0.28874764,-0.024136133,-0.1761069,0.08395829,0.2648087,-0.37899542,0.18843934,0.15249403,-0.26344913,0.084867515,-0.30547026,-0.09913675,-0.15424562,0.121228494,0.21584454,-0.15542127,0.205593,0.03467165,0.32462528,0.14313951,-0.08046941,0.26918253,-0.001889644,-0.28407374,0.2185126,0.13572901,-0.38834244,-0.19715026,-0.09145961,-0.1673397,0.26384556,0.14895348,0.13306753,0.14449516,0.09901367,0.37227267,-0.19441763,0.12909548,0.3035232},
{0.3465715,0.11198103,-0.31501594,0.24008362,-0.021906657,0.05655429,-0.18639624,-0.2680194,0.06289895,-0.05247955,-0.097139336,0.16669822,0.2500473,0.36573932,0.015018939,0.18091609,0.066551976,0.1974564,-0.28845495,0.1808272,-0.2096739,0.21238583,-0.31925976,0.04503076,0.29470122,-0.2826208,-0.24916783,0.32823813,-0.27548984,-0.27382547,0.12623304,0.24605621,0.20827995,-0.30392554,0.3721152,-0.20551479,-0.276763,0.33763307,0.30260566,-0.13735692,-0.25994313,0.17881954,0.09995957,0.054057218,-6.9752816e-05,0.02317705,0.08111944,-0.15103452},
{-0.08986119,-0.3683655,-0.26205415,-0.2122588,-0.19140345,-0.25165567,-0.34438494,-0.25837567,0.06095107,0.31973875,0.3530204,0.08856838,-0.08382652,-0.27391315,-0.09558931,-0.018531684,0.19497588,-0.27126977,0.24352798,0.059130333,-0.24383312,-0.31227314,0.0056043677,0.20767671,-0.17537668,-0.12854162,-0.0119718565,-0.24020666,-0.1743745,0.053244624,-0.15868422,-0.352631,0.35948837,-0.23706704,0.09401115,-0.010384007,0.27033442,0.079462625,0.17314555,-0.0035423567,-0.21434295,-0.3810239,-0.23431611,-0.16140051,-0.29831678,0.21690907,0.25134274,-0.2647324},}