{{0.053406347,0.17636089,0.042745557,-0.070875004,-0.24502908,0.27632773,0.3063585,0.29273492,0.14237496,0.019616429,0.32518056,-0.18673593,-0.25045866,0.0540488,0.07878817,0.31774256,0.28938723,-0.17193682,0.34755734,0.17173707,0.04552859,-0.010727127,-0.33635163,0.34470877,0.34303874,-0.33160546,-0.021104213,0.0544006,0.06998183,0.29413366,-0.016225275,0.17393135,0.20353092,0.105264425,0.3698765,0.13647053,0.11185195,0.21829036,-0.14654157,-0.3208451,-0.2509431,-0.1626843,0.16768825,-0.32793647,-0.20369685,-0.08019416,0.14681983,-0.0902253},
{-0.08141412,-0.28253052,0.3529617,0.0052428856,0.05025617,-0.011242488,0.091896124,-0.37788233,0.35387534,0.31023997,0.3485275,0.3399369,0.15693825,0.070294544,-0.28847164,0.29577175,-0.31218573,-0.16745797,0.11439386,-0.011764304,0.055203117,-0.15575013,0.134949,0.29277307,-0.036748953,0.16347508,-0.20839871,-0.3493257,0.3263167,0.28477836,-0.07768476,0.29384148,-0.12136513,-0.3375416,-0.34919694,0.2804526,-0.036932338,0.22141719,-0.30987474,0.09262331,-0.2603642,-0.19622868,0.25820127,0.28384352,0.31643203,0.09131368,0.27336767,0.20144334},
{0.24593955,0.05275726,0.022204418,-0.2540667,-0.050354894,0.07160685,0.34639928,-0.14185637,-0.33967867,-0.049990144,0.24131212,-0.1952109,0.24272472,0.36218175,-0.18008938,-0.22554469,-0.21915063,-0.26179427,0.073750764,0.27431253,0.10541594,0.2855519,0.24684697,-0.075048305,0.058286197,-0.006275398,0.35273212,-0.009833582,0.28034747,0.13790835,-0.32737187,0.013885216,-0.0014749506,-0.2638317,0.21859705,-0.28806144,0.2668637,0.088152006,0.25791612,-0.26487717,0.03520604,-0.31002325,-0.09066954,0.27726123,0.06482138,0.2544995,0.32926536,-0.30178952},
{0.047382507,0.006068226,-0.16008271,0.17693722,0.029666677,-0.038808513,0.07817161,0.06973818,-0.2355551,-0.076833464,-0.052560173,-0.17299815,-0.015274022,-0.22713739,-0.16397071,0.29754895,0.08549545,0.04035377,-0.012409824,0.31224906,-0.33913344,0.16250195,0.22034582,0.27442047,-0.21157756,-0.09119937,0.30133724,-0.23234758,-0.24734384,0.045168493,0.006899851,-0.036295317,-0.09439387,-0.3288396,-0.32793888,-0.16072923,0.10216604,-0.36964747,-0.26060826,0.3159359,0.21931078,-0.24360049,0.031386353,0.2686876,0.1848479,0.107834004,0.14937952,0.31982872},}