0.15876423,0.1505199,-0.07139504,-0.024900148,-0.05146687,-0.12197895,0.081404895,-0.0775825,0.045502916,-0.11041685,-0.11887547,0.05656174,0.0695533,0.104460284,-0.012086045,0.04742494,0.083216615,-0.12784567,-0.044687897,-0.12177745,0.024401052,-0.07137873,0.1213134,0.05177975,-0.11142009,0.08738953,-0.020931073,-0.04353559,0.102756344,0.11302587,-0.0547783,-0.069849536,0.0010789215,0.012137237,-0.13895965,0.050177567,-0.12098338,-0.075841375,0.01748338,-0.019046705,-0.11550954,-0.008586263,-0.16175643,0.03252102,0.046916466,-0.055637754,0.017479332,-0.10822263,-0.17134051,-0.14061339,-0.037421696,0.025355496,-0.056071054,-0.010590763,0.064755276,-0.1753584,-0.05011938,-0.07251522,-0.1536822,-0.1514106,-0.03322725,0.05419662,-0.14108615,0.019566525,-0.107916705,-0.042238835,0.033198245,-0.112603955,0.114939846,0.075919904,-0.06941782,0.0010059838,0.13724783,-0.0649032,-0.07125322,0.039936546,0.004864497,-0.096102886,-0.00087059615,0.08917067,-0.013436071,-0.100291185,0.16064046,0.053178597,0.1483689,-0.06410134,0.0065377024,0.08860644,0.11065128,0.03508601,-0.059844825,-0.06393471,0.12146798,-0.044344436,-0.1036007,0.0012564786,0.14974423,-0.031222476,0.039673436,0.050141428,0.042654898,-0.009004317,0.15243143,-0.011328684,-0.010569331,0.027765768,-0.017871417,-0.05254605,-0.060583726,0.064666174,0.05153436,0.0035287323,-0.08019698,0.06137229,-0.1334629,0.0085443435,-0.12127868,-0.1607163,-0.013095461,-0.14248584,-0.0921579,0.122486316,0.023060245,0.009019347,0.1149722,-0.005860177,0.014687697,0.06161184,0.13699964,-0.0064175,0.06957156,0.07456317,-0.040763684,0.1687951,-0.00028511207,-0.020934857,0.17876627,0.18365628,0.17875023,-0.046657007,-0.0038112088,0.0042091506,-0.039202206,0.09808324,0.12825869,0.07762715,-0.03714177,0.014651306,0.049612522,0.087103285,0.108427756,0.09654559,-0.050415903,0.027967965,0.042669106,0.12857853,0.016339023,-0.009994158,0.112084046,0.06762784,0.055490743,-0.0622767,0.050108057,-0.09101867,0.12106708,-0.008421841,-0.07790465,0.012253129,-0.022410974,0.01831512,-0.12685686,-0.11448543,0.134709,-0.0008600291,-0.057552062,0.033849437,-0.098203875,-0.12939951,0.021265741,0.048589528,0.14555702,0.026903627,-0.08197083,0.08742948,0.10612288,0.09089538,0.11805506,0.094984084,-0.120819785,-0.08794031,0.063993365,0.020262072
-0.074276306,-0.14240141,0.10718457,-0.04412374,0.11385233,-0.016095778,-0.07221843,0.05879851,-0.054552905,0.14083293,0.135931,0.11753054,0.12129144,0.007622267,-0.07898986,0.089490466,0.031873953,-0.00834639,0.11990205,0.009980245,-0.006343568,-0.10265878,-0.06427499,0.09405349,-0.03779801,0.11475119,-0.021690495,-0.111038744,0.13916135,-0.054904677,-0.11134373,0.11945062,0.07057358,0.123386174,0.05065207,0.14142491,-0.0878096,0.05584302,-0.10507405,-0.14183122,-0.10046169,0.1071375,0.029731331,-0.13018581,-0.14109182,-0.1057485,0.110408776,-0.017513061,-0.00070293696,0.092832506,0.14447922,0.032139335,-0.10857271,0.019202525,-0.07253386,-0.116235174,-0.093362816,0.13618773,0.056096762,0.105990954,0.1483046,-0.08609979,0.05325532,0.06584422,0.04428969,-0.057914518,-0.04904501,-0.13095336,-0.001091912,-0.098744236,-0.15651649,0.0034901304,-0.07153884,-0.1127112,0.11754226,-0.14269364,0.0018862899,0.12811573,0.0010712541,0.058129597,0.0868746,-0.06929201,0.15069227,0.095025934,0.14675143,-0.028000532,-0.038252853,-0.09229168,0.09194739,0.058567904,0.049377378,0.026184073,-0.041827533,0.098423555,0.017080752,0.13369013,-0.06046414,-0.01432468,-0.064545356,0.014179252,-0.10566389,0.15399551,0.0669375,0.03199536,0.11379432,0.14128537,0.046125773,0.040534813,-0.060922906,-0.078527346,0.1424891,0.046988208,0.1418759,-0.0885642,-0.10335115,-0.05132743,0.053660344,-0.06339528,0.06755862,0.17855379,0.0852905,-0.115071334,0.060676355,0.104314566,0.06437655,0.0631803,0.060348306,-0.07978069,0.08979601,0.16164456,-0.018350203,0.06997584,0.14090541,-0.07568059,-0.08125538,0.15550236,0.15519424,-0.0805779,-0.05708756,0.014191969,0.023429224,0.03926221,0.13041288,-0.0609633,0.036313955,0.073893555,0.14548258,-0.073119216,-0.109563604,-0.037723545,0.14551094,-0.12493538,0.10013533,0.14618944,-0.032728072,-0.0029636403,-0.0017630577,0.026249897,0.08132316,0.08828965,-0.13398759,0.0228574,-0.11403489,0.082103506,0.0026075637,-0.08344885,-0.019647628,-0.10874995,0.14796554,-0.0599257,-0.07558378,0.12695195,-0.016072437,0.06689218,0.14746836,0.032358352,-0.085393004,0.1874574,0.064452745,0.13453333,-0.021820365,-0.0047354577,0.066530675,0.009661897,0.09216354,0.17405559,0.17757337,0.09789113,0.11857114,0.02117492,0.09995866,0.049506634
-0.05295141,-0.08244623,-0.08256665,0.019767063,-0.071718186,-0.00023325015,-0.13389279,0.015119687,0.068043604,-0.1287181,-0.10225122,-0.08924191,0.10835068,0.089601755,0.04833875,-0.035584785,-0.014914179,-0.02354824,-0.016270708,-0.07799919,0.17735873,-0.038982786,0.10597868,-0.081878655,0.09256616,-0.020464376,0.11682423,0.12957056,0.03167671,0.13485402,0.026313465,0.016802905,-0.0053793225,0.083870016,-0.086587034,-0.0013309843,-0.11294749,0.092029765,-0.17552826,-0.03572382,-0.14885089,-0.15887174,0.013739661,0.046465997,-0.06673032,0.09654436,-0.009761429,-0.13214295,0.04391085,-0.13984951,-0.1641724,-0.07314161,-0.1715706,0.007958509,0.095467925,0.08259729,-0.12642889,-0.07235869,0.0901154,-0.056290805,0.025075637,-0.17274988,-0.06982578,-0.041581757,-0.018917581,-0.16578253,-0.0450266,-0.1173114,0.052592814,-0.14411357,-0.109663405,0.060742773,0.048406243,-0.033838052,-0.08996809,0.1614804,-0.065890536,0.15749174,0.07688299,0.11567948,-0.007471803,0.037413336,0.13065551,-0.1100363,0.09849862,0.019182792,-0.065786526,0.07664065,0.14475252,0.08132043,-0.040083226,-0.040841885,-0.08380166,-0.12073829,-0.06974291,-0.10782546,0.0057701794,-0.09959889,-0.036201358,0.075089306,0.05944453,0.108240604,0.07582118,0.14514515,0.009867439,0.020980155,-0.0012105237,-0.01703954,0.1044944,0.041099325,0.15304722,0.11499161,-0.02275753,0.13762479,-0.03615696,0.10238707,0.16098645,0.0609239,0.083380364,0.119165055,0.068067834,0.08202524,0.1419594,0.07910365,0.13773039,0.14881295,-0.035360936,-0.035390247,0.06609916,0.10368369,0.00014151956,0.07557506,0.069840685,0.10426296,-0.080176935,-0.0126941865,-0.07923226,-0.115528844,-0.05059971,-0.09695822,-0.06537802,0.07394293,-0.12822452,-0.0731951,-0.07025514,0.047026593,0.06559177,-0.14687628,-0.11795952,0.03793803,-0.14290145,-0.098759934,0.059605364,-0.04210227,0.096466824,-0.091451526,-0.060903285,0.048714448,0.06585814,-0.056749806,-0.015738765,0.096393116,-0.11338424,0.055301208,-0.0067615816,0.12624964,-0.020483905,0.18106025,0.039570507,0.044178292,-0.099960655,-0.051343575,-0.086527206,-0.016925776,0.17428198,-0.07428564,0.15395993,0.077840626,0.015536383,0.07421209,-0.058326554,0.016503418,0.06758309,0.035326846,0.1179443,0.08536247,0.01343944,-0.08690551,0.1416338,0.028876342,0.033598978,0.091731176
-0.082046166,-0.115398824,0.09095466,-0.098995455,-0.006698613,-0.039080366,-0.08611218,0.03851094,-0.004996346,0.05122146,0.064105734,-0.04439407,-0.032311197,-0.022385964,-0.050638516,0.024265269,-0.09075541,0.122162834,0.07171162,0.03760411,-0.121999204,-0.10944912,-0.116003774,0.029883321,-0.1104567,-0.04935655,-0.17403874,-0.17784464,0.07379499,-0.06151423,0.0690367,0.06305395,-0.16779198,0.055707972,-0.098712504,-0.116380006,0.06547718,-0.049102634,-0.07872368,0.06728415,0.019105665,0.10138729,-0.14823996,-0.043211576,-0.15926042,-0.10088019,-0.119525775,-0.08213007,-0.065234125,-0.05965423,-0.09007724,-0.09623558,-0.07238904,-0.14221238,-0.09146811,-0.10887704,-0.12890756,-0.06968595,0.055724435,-0.025198791,-0.17021927,-0.037052188,-0.028795319,0.109000124,-0.04634189,0.06857937,0.02169069,-0.04433138,-0.024876593,-0.020811955,0.037999276,0.00030896836,-0.07839324,-0.012543237,0.1361264,-0.072166875,0.0408598,0.08358231,0.04922451,-0.039696537,0.022719692,0.08420015,0.04469196,0.0396237,-0.027957113,0.021829208,0.06785104,0.11444021,-0.09170154,0.086455114,-0.034903985,-0.140896,0.096062616,-0.05394256,-0.008361849,-0.04845251,0.053034037,-0.058405235,0.043830857,-0.002990882,0.06479544,0.07410838,0.1391483,-0.033769965,-0.045473613,-0.13772836,-0.08286619,-0.14597186,0.08044138,0.077842474,-0.10806022,-0.00090216653,-0.14311007,-0.13007976,0.09389221,0.045798473,0.01514982,-0.14119384,-0.03502751,-0.06890888,-0.14002241,-0.1435621,0.06551461,0.038339876,0.032682497,-0.15778817,-0.020993896,0.0365893,0.10604362,0.04222104,0.046383914,0.04491678,-0.030081777,-0.083085015,-0.019291902,0.086489186,0.17766139,-0.073491774,0.07958259,0.104604006,-0.047708925,0.07336112,0.037386443,0.09603275,0.15214124,0.15325609,-0.07837761,0.098327875,0.032749176,-0.09239981,0.11697091,0.07359189,0.06078407,-0.03586239,0.10919734,-0.055411216,-0.0014414196,0.05786617,0.124878146,0.05512739,-0.010812693,0.0049579814,0.15634641,-0.06656051,0.03645418,0.1292002,0.079893924,0.12604266,0.16052043,0.122317314,0.0028529174,0.06350308,-0.07900742,-0.026405295,-0.11306417,-0.035940178,-0.031992055,0.07501775,0.11856822,-0.08830698,0.088067636,0.034973606,0.061674863,-0.0934341,-0.0067329747,0.068158574,0.14629324,0.16556773,-0.113007,0.1094183,0.14835411,-0.09302875
0.08595465,0.0049702646,0.003850456,0.09936526,-0.060670212,0.12246323,0.08092152,-0.094158694,-0.12500902,0.008927753,-0.12138497,0.13216838,-0.022778999,0.050718542,-0.09764617,0.076695666,0.084976844,0.03200099,0.07212534,-0.07942685,0.10573755,-0.07882786,0.130154,-0.109457776,-0.058512446,0.1302438,-0.07462804,-0.11213974,-0.13332324,-0.07074535,0.075796835,-0.120317385,0.097228244,0.003816506,-0.12511082,-0.017064935,0.049333572,0.013892035,-0.053269077,0.08124627,0.009811465,0.1087012,-0.068020076,0.080760755,0.1002572,0.052933186,-0.04252602,0.11814669,-0.10566626,-0.06301042,0.09030344,-4.917095e-05,-0.11807934,-0.07807321,-0.08588056,0.017178679,-0.08632262,-0.064833924,0.07048298,0.010902042,-0.0883736,0.0023133783,-0.007900219,-0.01976914,0.035142858,-0.116919324,-0.09084114,0.118333265,0.09535917,0.044546045,0.15769494,0.17494246,0.025596738,-0.10744851,0.067899644,0.028645473,-0.027839534,-0.123089515,0.054038458,-0.104125574,-0.0861895,0.120039545,0.13696882,-0.048349038,0.06519613,0.14471701,-0.06026644,0.048434865,0.013511531,0.018249791,0.096471794,-0.09190874,-0.10821122,-0.12909022,0.117937125,-0.032489415,0.14411478,-0.018826094,0.0014281909,0.019229975,0.063387774,0.006288805,0.12181884,0.07721035,-0.010601907,0.019378174,-0.08817461,-0.11568844,-0.10808371,0.043248266,0.1160716,0.05033504,0.05473766,0.12154717,-0.08638263,0.07349985,-0.113666974,-0.05974383,-0.07665154,-0.0072624926,-0.13173777,0.12982519,-0.1150678,0.06440542,-0.11322965,0.10363402,-0.022870287,-0.16207005,0.06063184,0.037478335,0.15544152,0.074655995,-0.100819975,-0.105159245,0.11860453,0.07870626,0.032022264,0.04411258,-0.03233487,0.0030159503,-0.038778175,-0.03527014,0.12879089,-0.03141699,0.07798195,0.045617923,0.15404649,-0.0732222,-0.045717813,0.10309197,0.042880826,0.1588742,0.014626059,0.02843061,-0.031230811,0.15581204,0.018246235,0.09341727,0.053340342,0.14561777,-0.094525635,-0.06481832,0.039684784,0.12293365,0.15790734,0.11438769,0.002270701,0.12996243,0.1501864,-0.12712377,0.017212303,-0.047924064,0.07505853,0.021905877,0.13139208,-0.07580148,-0.13593163,0.012465036,0.011985606,-0.07565336,-0.064684436,0.14823899,0.11767662,-0.11809383,0.05797688,0.052515432,0.00084684766,0.009666726,-0.05124646,-0.009027685,0.10319537,-0.06167141
0.0906994,-0.13760205,0.04150608,0.032366782,0.084459186,-0.0818986,0.10906095,0.114241995,0.13125592,0.0011375067,-0.01317186,-0.0044668014,-0.10984909,0.05500044,-0.087320074,0.030954622,0.09634189,0.09256834,0.025741296,-0.032379843,0.04859893,-0.12059681,0.0023091333,0.1435097,0.036043942,0.073744394,0.12617493,0.02590569,0.11560584,-0.020060722,-0.05853234,0.11437793,0.16286786,0.139677,0.0118395,-0.015651,0.044851154,0.035277557,-0.076247,0.046859615,0.13910577,-0.051328823,0.1230632,0.054828927,-0.07924248,0.02788412,0.0783682,-0.10150445,0.0029626775,0.110828705,0.1405117,-0.07760494,-0.019196276,-0.043257788,-0.09883083,-0.060103152,0.04765018,0.07947961,-0.08273885,0.1680864,0.022803396,0.058371097,-0.034419417,-0.074787155,-0.031167308,-0.09701226,-0.08936085,-0.07419562,0.115936644,0.060231898,0.013513674,0.033228584,-0.016170718,0.09973025,-0.02482435,-0.106715664,0.013947059,-0.115180425,-0.007391987,0.0054492136,-0.085269,-0.024906367,0.022014245,0.08460701,-0.024376066,-0.106044814,-0.046502195,0.053188886,0.061624806,-0.10606194,0.010206246,0.003873561,0.092042744,0.13901532,-0.045921817,-0.05909446,-0.062909804,-0.094024055,0.10075042,0.0011688549,0.13812958,0.15122287,-0.028283322,-0.09422272,0.009770188,-0.024538258,-0.007430255,0.05039701,-0.08276899,-0.072881304,0.021006297,-0.013719248,0.0155849075,0.08872456,0.06799975,-0.11395246,-0.06943966,-0.0033110287,-0.05007726,0.10103549,0.1461757,-0.06127947,-0.03605421,-0.06996065,0.11503161,0.14531015,-0.057020456,0.12381457,0.14278133,0.13895534,0.053136196,-0.11860136,-0.09879777,-0.022911394,-0.025679177,0.025453214,0.16098766,-0.11603884,-0.07594108,0.050389696,0.019262884,-0.036685467,-0.12841219,0.021164346,0.08280287,0.0059939236,-0.014875102,-0.039968286,-0.019631485,-0.09905152,-0.01912053,-0.030708006,0.05809094,0.088163406,-0.03744472,0.08389872,-0.034909137,-0.049133185,-0.085002854,0.047254182,-0.10997156,-0.12160176,0.074972585,-0.056613795,-0.031617835,-0.057783194,0.13585755,0.08210993,0.11531583,0.066207774,-0.13120335,-0.061962344,0.13179855,0.005777274,0.0014473373,0.068182655,-0.08899567,0.006027285,0.0813409,0.122045755,-0.033145573,-0.05264394,-0.029968426,-0.08136607,-0.03525599,-0.0037421104,0.10313493,0.10539599,0.02037282,-0.062012535,0.013016319,-0.02418641
-0.041089185,0.05407731,0.07112854,-0.13401015,0.047675874,-0.11623018,0.08113878,-0.14535303,-0.0014706752,-0.054171827,-0.10683762,-0.14763428,-0.01536623,0.093840465,-0.14436673,0.019831223,-0.07688621,0.083382085,0.018596128,-0.030535487,-0.07431476,-0.13244587,-0.07053094,-0.03189796,-0.105206124,-0.122475706,-0.08613769,-0.111007944,-0.16167042,-0.0013479809,-0.10662164,-0.09987078,0.09652974,-0.07354132,-0.04386297,-0.10565259,-0.08328619,0.007054282,-0.11960839,-0.066347025,-0.051499423,0.097900085,-0.030241782,-0.07923454,-0.00095993624,-0.10145282,-0.15734667,-0.13690297,0.08236733,-0.08542502,0.01562496,0.020031793,-0.11751718,0.06514459,0.060865648,0.020296158,0.10715511,0.071177006,-0.0029125044,0.02964745,0.10696858,-0.14580564,0.012693692,0.096738406,-0.019148355,0.15367988,0.014051991,-0.129096,-0.08624085,0.15463132,0.008159171,-0.062613435,0.034475893,-0.07988635,0.079295486,-0.04483541,-0.10888758,-0.037227537,0.09425705,0.11148243,-0.07101818,0.043393187,-0.08606959,0.03591283,0.06449254,-0.07454027,-0.0726552,0.09330951,-0.13631175,-0.06615149,0.14207377,-0.008699975,0.09242927,-0.088354245,0.020244144,-0.1361184,-0.12209664,0.08549105,-0.004193763,0.05073909,0.10890522,-0.090706,-0.1258124,-0.016554449,-0.1700467,0.105146006,-0.098179795,0.09029995,-0.061831504,-0.09206221,-0.005891406,-0.0071604336,-0.09573468,-0.10780914,-0.060892165,-0.08631874,-0.016041502,-0.14445525,0.0020336416,-0.11986234,-0.0046576075,0.010514768,0.15599322,0.10807678,-0.15403076,-0.16766107,0.0014912775,0.07807232,0.12126491,0.06887437,0.015266668,-0.07161241,0.12321229,0.013756609,-0.023605483,0.12632693,0.17226858,-0.07694236,-0.06878418,0.047249604,0.15441743,0.11347201,0.060338467,0.006459645,0.11812959,-0.097722486,0.13454834,0.073103145,-0.0019799646,0.12583727,0.15836424,-0.010281921,-0.052031577,0.12423378,0.072038375,0.08669723,0.070852965,0.015534496,0.0045934394,0.11086693,-0.10379032,-0.10616244,0.078352846,0.066285476,0.15275125,-0.03314361,0.10634321,-0.0945404,-0.14578117,-0.12140953,0.09961356,0.03678503,-0.17014228,-0.12424195,-0.17165448,0.0064825565,-0.09662957,0.02135823,-0.09631123,-0.14444546,-0.005041477,0.0676646,-0.030041043,-0.10018239,-0.02517551,0.10118116,-0.10350745,-0.07797535,-0.046880238,-0.09609616,0.053775728,-0.124748826
-0.022048866,-0.02489451,-0.11340005,-0.15438539,-0.0043146466,-0.005310801,0.015166467,-0.09715534,0.0037229236,-0.000502257,-0.12173588,0.09380771,0.023843091,0.012468269,-0.11825459,-0.18011169,-0.002221185,-0.1824529,-0.14628555,-0.17025097,-0.11945155,-0.16136931,-0.14612882,0.09089714,0.087362036,-0.0022477463,-0.115915135,0.087118745,-0.17741504,-0.084148325,-0.011488391,-0.068900056,-0.06624865,-0.00027119153,-0.004678082,0.0011460027,-0.06706164,0.104054086,0.041716352,-0.1255178,0.077956475,-0.13341695,0.051762592,-0.16619806,0.056239907,-0.06363923,-0.16092679,-0.15394898,0.010776093,0.059486795,-0.11395167,-0.08289275,0.01188065,-0.041603733,0.09052894,-0.17356741,0.054111376,-0.1024446,0.06359482,-0.15185499,-0.055252228,0.019244194,0.11074963,-0.11472244,0.04734448,0.057553362,-0.15822588,0.013280847,0.09005851,-0.07418037,-0.094702266,0.10923554,0.026357021,0.16782135,0.07251999,-0.033418015,0.11332046,0.13701713,0.05920983,-0.001243425,-0.14955872,-0.09718084,-0.10292802,-0.11001722,-0.059599463,0.10609328,-0.04497533,0.08477518,0.030509908,0.0092148585,-0.07889712,0.10590306,0.0053863754,-0.03540394,-0.033959743,0.11986196,0.05026069,0.08293305,0.16604222,-0.01575861,-0.08265145,0.059629574,0.0449775,0.046913296,-0.036630232,-0.11065273,-0.10903782,-0.012668906,-0.067660145,0.02484959,0.05398014,0.045506097,0.069352195,-0.10846859,-0.041090395,0.08472576,0.099101715,0.061513074,0.11455082,-0.06853257,-0.049231164,0.03392701,0.105473936,-0.14403704,-0.086666144,-0.12088933,-0.085715786,0.06525049,0.01278161,-0.055493146,-0.04784197,0.12454476,-0.072973534,-0.021151535,-0.018081553,-0.046727706,0.004697933,0.14006394,-0.080988206,-0.1276729,-0.05028968,0.078681216,-0.0049958313,0.011717271,-0.03979248,0.12384859,0.024512824,0.028842904,0.013578857,-0.00774084,-0.0795183,-0.09291657,-0.031966586,0.16391608,0.11319668,0.15430431,0.091836795,0.04707677,0.16016908,0.16300246,0.099527925,0.021125866,0.096784234,0.015463464,-0.021991039,0.015156146,0.13398914,0.12508053,-0.0030057912,0.061673753,-0.035674345,-0.050104357,-0.10218932,-0.04530488,-0.16798371,0.054167826,-0.05146347,0.03576307,0.025621349,-0.06843522,0.027035074,-0.011249527,-0.079151876,-0.0028001615,-0.07813475,0.025194751,-0.03203506,0.079773694,0.087171145,0.012618333,-0.0080493,-0.16852604
0.14525974,0.14194779,-0.05979895,0.066950284,-0.0030981398,0.09461264,-0.04327382,0.1378005,0.08392923,0.04863882,-0.11705941,0.07496507,-0.044976894,-0.08435513,-0.10314175,0.09513409,-0.09375193,-0.18108995,-0.09996104,-0.16517282,-0.12214742,-0.15688232,-0.18590266,-0.10702803,-0.17909831,-0.006511546,-0.06286548,0.0069061453,-0.14760998,0.102332436,-0.0873745,0.07870114,-0.16449659,-0.04553653,-0.15568514,-0.08622749,-0.04515838,-0.026097685,0.010865754,-0.122920975,0.09827544,-0.038747437,-0.029871196,-0.11255026,0.0752005,0.006504796,-0.1578154,0.076716326,0.016721722,-0.084358834,-0.1410717,-0.14065608,0.00228137,-0.046646353,-0.09778007,0.09754323,-0.13857816,-0.031953048,0.028115809,0.00071078434,-0.04269777,-0.07135992,-0.049303632,-0.09986778,-0.0009612472,0.0015633266,-0.1278354,0.021717913,0.054312043,-0.102060735,0.01819768,0.14198416,0.036832683,-0.1652284,0.113482095,0.055383306,-0.01667812,-0.14302874,-0.12108909,-0.044994436,0.017790377,0.0032084954,-0.025907772,0.12269155,0.1029624,0.1445775,-0.015656454,0.025080657,-0.069258824,0.087870166,0.0681238,-0.03682936,0.06483168,0.008581462,-0.009671366,-0.04079245,0.021533925,0.1490407,-0.09820751,0.10308163,-0.1359664,-0.08009919,0.075343825,-0.01116925,-0.042670593,-0.029816737,-0.10523144,-0.01627167,-0.028602038,-0.072925165,0.12105562,0.034885272,-0.007919818,-0.15360563,-0.022675117,-0.04167016,0.02328262,0.028568761,-0.1757069,-0.1376341,-0.10898179,-0.026196167,-0.06377934,-0.09400117,-0.084245086,-0.086841166,-0.058723155,-0.15140793,0.07269626,-0.077258214,0.12818529,-0.015476315,0.06748951,0.10629535,-0.01958143,0.008041043,0.10804048,0.1123664,0.030066766,-0.083434455,-0.10285982,0.13844787,-0.017478174,0.01053861,0.12575404,-0.12570468,0.013075708,0.14268641,0.13273686,0.15083839,-0.015074444,0.1363994,-0.093154795,0.072755806,-0.033049565,-0.030794114,0.01945283,0.13878231,0.099523224,-0.06674725,0.10725841,0.052134063,-0.09042974,0.009261221,-0.036530927,0.021322917,-0.1072553,0.030924719,0.13496152,0.11471162,0.08086626,0.106503926,-0.05218428,0.053527277,0.030523894,0.020114437,-0.047567215,0.08724844,0.042889208,-0.029080307,-0.089603595,-0.00061494316,-0.11962167,-0.07247636,0.015672414,-0.02413618,0.011089771,-0.04746704,-0.058222473,0.0023691226,0.027101008,-0.11933172
-0.116978884,-0.08751021,0.007344545,-0.135281,-0.1405423,0.10109311,-0.04623502,-0.0817561,-0.08048314,0.05787283,-0.052131325,-0.04933311,0.15121074,0.058679517,0.14439209,0.027581263,-0.06478281,-0.049018946,-0.01006605,0.062025715,0.1792276,0.12179779,0.017149925,0.12304524,-0.07396582,0.1026847,-0.017560594,0.121002205,-0.004183046,0.13307351,0.07648216,0.032420125,-0.13651933,-0.018388813,0.112339176,0.0020709638,-0.06283054,-0.14585651,0.06063562,-0.0895261,-0.06464023,0.052326962,-0.030090228,-0.16004501,0.055392273,-0.07219746,0.08361663,-0.005231217,-0.005354447,-0.08174199,-0.067828715,0.033127952,-0.0942507,-0.026773177,-0.124736235,-0.041381557,0.08312975,0.07340294,-0.1560021,-0.12199915,-0.02188902,0.0006996114,-0.14703204,0.09479783,-0.029148702,0.107649535,-0.008900572,-0.107604854,-0.107437775,0.05247086,0.052061707,-0.15374157,0.03708646,-0.12876633,0.052178178,-0.04767762,-0.035897005,-0.003784761,-0.09020075,0.002379049,0.09724919,0.07795153,0.117621005,-0.100695565,-0.07404711,0.114502646,0.1276841,0.1627366,0.049430896,-0.035562508,0.08294282,-0.024719182,0.017949993,0.13810119,-0.113289446,0.113965094,0.08003898,0.15185603,-0.05031062,-0.040499438,0.07882187,-0.03528106,-0.05435773,-0.03796634,-0.100404255,-0.07537588,-0.10260162,0.06600571,-0.09325164,-0.12654641,0.100919135,-0.12607609,-0.12931806,0.12860514,-0.007166876,-0.12111041,0.11591913,-0.1302459,-0.084828295,0.148077,0.13042049,-0.05672554,0.043871965,0.0748626,-0.07496621,0.08643855,0.11720036,0.14553808,-0.07138413,-0.07683009,-0.08761685,0.14773482,0.12626733,0.08064873,0.115527414,-0.07752436,-0.06607859,0.056609638,0.029907553,-0.07325984,-0.014225637,-0.10022423,-0.102694415,-0.04744297,0.15406336,0.058324546,-0.08319262,0.072507456,0.1389845,-0.086289465,-0.059758727,-0.014104664,0.12135234,0.10006743,-0.12312717,0.039580103,-0.015762439,-0.06659222,-0.105200514,-0.118326336,0.079753295,0.003143539,-0.14022164,0.03336191,-0.13014032,0.082742125,-0.094387,0.05333851,-0.07937975,-0.13657743,-0.056087058,-0.14879625,0.055627882,-0.02479967,-0.1275197,-0.0128507465,0.02543486,0.058558643,0.059647657,-0.14103465,-0.12301244,-0.037321586,-0.09787767,-0.16574986,-0.14739935,-0.17036933,-0.09036637,-0.09176918,-0.15255085,-0.0066294014,-0.13692428,-0.057058956
-0.12959023,0.061772905,-0.10845425,0.10289671,-0.10067378,0.094553575,-0.081920505,0.163822,0.01839259,0.013477534,-0.04906419,0.118630126,0.02295161,0.06643195,-0.024056599,0.10236987,-0.035384785,0.038760163,0.10547307,-0.024779346,-0.0115347495,-0.0121482415,0.054944832,-0.02990053,0.07906199,-0.06646407,0.087177485,0.12128802,0.10153958,0.15788603,0.14869368,0.09294188,-0.09639322,-0.11616387,-0.103806265,0.029018503,0.064168714,0.07468658,-0.073801726,0.06740471,-0.08220905,0.14952934,-0.10707812,0.08954412,0.020799432,0.0053432183,-0.0024399797,0.12992938,0.11513663,0.13423495,0.09112381,0.027806772,-0.09449068,-0.037744377,0.095054775,0.14925061,0.15035984,-0.06766859,0.12630935,-0.055420086,0.0011274241,-0.103336625,0.06823765,-0.024699148,0.04967433,-0.12668578,0.06804597,0.056593362,-0.058661416,0.08281321,-0.062001355,0.08168378,0.12526254,0.09825676,0.10168978,-0.09148856,0.09462931,-0.1489142,0.05836255,-0.1606432,0.08831494,-0.09298892,-0.13712214,-0.047284752,-0.117698744,-0.0674916,0.042248692,-0.03363125,0.13731103,-0.012573819,-0.09861983,0.015836284,-0.01653203,-0.060415626,0.032468792,-0.10033934,-0.11656811,0.1169837,-0.05153356,0.040361594,-0.067775995,-0.12512556,-0.05345322,-0.045812838,-0.102256514,0.03570925,-0.0836039,-0.099197,0.13791338,0.024582893,0.13341565,-0.0024868515,0.13077651,0.0036532783,-0.08227308,-0.11506409,-0.008199039,0.01177854,0.10926067,-0.015667167,-0.08640409,-0.020264218,0.09684305,-0.020274019,0.07437232,0.14614698,-0.022173448,-0.036245447,-0.12787114,-0.13226809,0.04276187,0.09645571,-0.13080463,-0.053168673,0.0547259,0.122636795,0.023132822,-0.086522385,0.025669001,0.035861522,0.11903295,-0.039453942,0.11159041,0.10539601,-0.12521054,-0.0553266,-0.056418516,0.00952585,0.00197714,-0.02460207,-0.008488351,-0.0330473,0.014147712,0.062196676,0.046867922,-0.14020759,0.038376134,0.011164015,0.0069751297,-0.13887756,-0.112691395,0.068514235,0.09933463,-0.012378049,0.10208887,0.048707224,0.07664363,-0.054791696,-0.11337516,-0.09490548,0.065352894,0.038785413,-0.07191841,-0.113650374,-0.046443462,-0.17100228,0.07455687,-0.1533756,0.094478965,-0.027291056,-0.08853764,-0.08328988,0.040306237,-0.028944649,-0.03585563,0.094303906,-0.12355685,-0.08312379,0.12727717,0.06645789,-0.13758217,-0.089720085
0.027172921,0.07155148,0.096621044,0.0566975,-0.13082375,-0.02560907,-0.08432809,0.023360562,0.0144534,0.024057312,0.15374878,0.06454817,0.006963125,0.17395884,-0.0003250657,0.013031011,-0.10780697,-0.002111907,0.17737426,0.116158575,-0.06766981,-0.06462485,0.11249373,0.00032186875,0.10749573,0.077162206,0.05936281,-0.05756274,-0.040426984,-0.04226928,0.05974897,-0.117629014,-0.015111349,0.05658614,-0.011081647,-0.10612911,0.016791575,-0.06398568,-0.09997534,0.06623258,-0.013528681,0.03295064,0.12003996,0.07045275,-0.09576149,0.112526976,0.09446892,-0.10963315,-0.00561163,-0.03095964,-0.019361475,0.1105791,-0.09656521,-0.1080342,-0.04336439,-0.007987501,0.080074385,-0.09400727,-0.056412075,-0.052987088,-0.07288518,-0.025007134,0.061424892,0.005364877,0.06693416,0.075025864,0.09233451,-0.075823985,0.030994026,0.039509747,-0.077930145,0.04983696,0.031329475,-0.14106525,0.03340177,0.12550126,0.07627011,0.13168982,0.09232147,0.15698245,0.13741584,-0.057683676,0.029098378,0.04315241,0.05098244,-0.12148972,-0.092559405,0.08515561,0.095304534,-0.035258587,0.0007685244,-0.07203827,-0.1081298,0.013543937,0.16040495,-0.093403056,0.09775195,-0.07581693,0.109747775,0.11084835,0.07772946,-0.037896585,0.07169029,0.1087926,0.1199341,-0.04659638,0.014118443,-0.044118486,-0.08433463,0.06850922,0.06893549,0.121597745,0.12517898,0.079093054,0.12005345,0.119603515,0.072660364,0.141234,0.09611283,0.15439127,0.061566945,-0.06145131,0.11967314,0.10596445,-0.10804245,-0.020155076,0.11159072,0.1308444,0.112834536,0.14533551,0.14197417,-0.042995702,-0.08786063,0.09891408,-0.12921306,-0.11419966,0.10595284,-0.008664231,0.11334169,0.02716183,-0.06699056,-0.113364466,-0.08208395,-0.09873828,-0.107552,0.10598415,0.03333055,-0.119456336,0.090272464,-0.044580687,-0.0076274513,-0.003922334,-0.0382283,0.11972415,0.08836441,-0.10650406,0.117280655,-0.009518008,0.043407608,-0.08616003,0.00040124552,0.09839827,-0.08820297,-0.15019695,-0.038651764,-0.1433787,0.081700616,0.040177505,0.04575815,0.15053096,0.11713752,-0.059660755,-0.08360367,0.06898126,-0.05560727,-0.030626256,-0.0923426,0.0022401277,0.038206846,0.17261143,0.15592512,-0.08717037,-0.06721062,-0.030491939,-0.066194564,-0.07949017,-0.035503045,0.013843576,0.12508297,-0.011592941,-0.10014041,0.086881794
-0.06136082,-0.13866824,0.089053765,0.0882142,0.061406564,0.07890893,-0.022837231,-0.103778526,-0.042068172,0.04202911,-0.14675659,0.12593055,0.034625493,0.009984661,-0.014727055,0.15329213,0.15351652,0.12284166,0.035744227,0.1408254,-0.108426355,-0.028318135,0.062310863,0.14151312,0.12809142,0.02094676,-0.017247112,0.06533243,0.05136729,0.035531845,0.10848908,-0.06190603,0.071634464,-0.06494844,-0.06801169,0.06499357,-0.078910336,0.086848736,-0.11402858,-0.14169994,0.015382836,-0.003778443,-0.10583968,-0.0470971,-0.1413815,0.009620256,0.05725856,-0.058017604,-0.17301136,-0.086965784,-0.13243182,0.05725709,-0.17598893,-0.17425573,-0.04599327,-0.12762314,-0.016659148,-0.1490719,-0.15591834,0.037527516,0.07011861,-0.11570968,0.06274377,-0.15430692,-0.12790486,-0.05797723,0.102842905,-0.15595214,0.03598342,-0.038709942,-0.035597634,-0.10648155,-0.015519909,0.0766638,-0.06029173,-0.05883144,-0.049115244,-0.028353618,-0.14413638,0.05240095,-0.09902633,0.0043757935,0.011452406,0.079558216,-0.011094476,-0.08969035,-0.063852094,0.17921598,0.111287534,0.15709254,0.07936394,0.032533016,0.0050460496,0.17903076,-0.06129742,0.06236948,-0.055253837,0.17758319,0.019039737,0.04956694,-0.048097655,0.06458366,0.060151942,-0.058821745,0.09396174,-0.019632487,0.04009988,0.017330846,-0.071394,-0.101239294,-0.100844115,-0.060295973,-0.13238445,-0.14736551,0.11246669,-0.08699027,0.083183676,-0.015430221,-0.033584975,-0.13122398,0.02019018,-0.043995477,0.105283566,0.005932597,-0.012695411,-0.010988942,0.15263245,0.14375253,0.13311377,0.13186751,-0.025221415,0.013279539,0.029343594,0.053632066,0.041102614,-0.017122751,-0.008461252,0.01009656,-0.024265295,0.030254068,-0.049326744,0.018849857,0.07500537,0.077484265,0.045226704,0.07166314,-0.044990655,-0.031805202,0.051102582,0.10077598,-0.029969033,0.08009132,0.13909616,-0.08596052,-0.06907036,0.08759285,0.13612789,0.14971952,0.057544723,-0.053367395,0.085306,-0.14074752,0.023662478,-0.019835569,-0.07550741,-0.062449235,0.048153147,-0.0814997,-0.06618936,0.045981772,0.11247228,0.09420402,-0.070072025,0.07646168,0.072651364,-0.03598312,0.03773102,0.12541397,-0.12086908,-0.10138152,0.10840567,0.051881883,-0.11183983,-0.09942701,-0.12284029,0.06512288,0.08627592,-0.07587131,-0.037858143,0.11785437,-0.07003131,-0.005125184
0.05101081,0.10230682,-0.09721114,-0.095477805,0.09316824,0.048371594,0.08013738,0.13554312,0.11544744,0.12150103,0.1002114,0.090662375,-0.067078605,-0.09539798,0.034509454,-0.097662315,0.029489044,-0.044844612,0.13630414,-0.020829016,0.12019914,0.0003785963,-0.03782393,0.12468481,-0.029051512,0.15204911,0.03765414,-0.0041389447,0.0044922065,0.029272806,0.09666496,0.047201328,0.019583615,-0.023305086,0.036147278,0.011854711,-0.15929794,-0.0059818886,-0.04002912,0.058611047,-0.12852287,0.011158053,0.049598448,-0.04078295,0.011140722,0.04012349,0.11666196,-0.06429522,0.0341801,-0.058177665,-0.11254566,-0.051078934,-0.16086446,-0.051106304,0.057085898,0.102581024,-0.027289277,0.054760046,-0.15638712,0.10124144,0.10369948,0.08254154,-0.12338529,0.09973714,-0.08915819,0.026849093,0.13445221,-0.14945143,-0.0081889285,-0.118796445,-0.06290587,-0.0049849562,0.0008800183,-0.124551296,0.06665388,-0.036334705,0.07703868,-0.1608802,-0.10566731,0.022666687,0.13145821,-0.026337769,0.053261936,0.048411373,0.036292724,0.13032433,0.1049443,0.15634193,0.019184485,0.044935305,0.07404078,-0.007572881,0.072473325,-0.066823654,0.08416316,-0.023664188,0.13233666,0.1434053,0.08815988,0.08067148,-0.0010385658,-0.018771756,0.10032978,0.08434746,-0.089439094,0.11921995,-0.05055194,-0.09380211,0.107743695,-0.056893136,-0.016551564,-0.025241176,0.099640004,0.039387796,0.107636414,-0.053230513,0.028529637,-0.10958088,-0.049335007,0.10608987,0.12188418,0.17394267,-0.10429111,0.1447274,-0.099285975,-0.09471577,0.05231798,-0.08018807,-0.030901762,0.04943853,-0.033803657,0.052984435,-0.0028182156,-0.04545508,0.023229668,0.15829287,-0.050424725,0.14119388,0.09371047,0.1304443,0.024072843,-0.07921691,0.03295036,-0.04412353,-0.08548382,-0.0015950387,-0.01230767,0.02906675,0.09144221,0.010787614,-0.07268337,-0.013217216,-0.054720234,0.15772253,0.1773635,0.048227787,-0.04363591,0.15330113,-0.08665576,-0.105135925,-0.045310415,0.06951948,0.02836784,-0.014288092,-0.15847597,-0.021157894,-0.09790736,-0.021735791,-0.030086923,-0.13034467,-0.023045478,-0.17650637,-0.17306727,0.0050346316,0.09066936,0.047397017,0.08188261,0.029573407,-0.17991312,0.0026110949,-0.053608194,0.044466402,0.032555927,-0.1189257,-0.14234343,-0.16272357,-0.064539336,-0.18411025,0.010161998,-0.15218715,0.061335325,-0.1776427
-0.033521507,-0.13492279,-0.032496277,-0.11667932,-0.10263539,0.07705238,-0.01630037,0.06318644,0.029700685,0.0067085694,0.006832696,0.13493827,0.019883985,0.15048519,0.06787883,-0.1547531,-0.12758766,-0.101639114,-0.038267124,-0.15774022,0.10217914,-0.04195203,-0.03345424,-0.09634567,-0.045072097,-0.09106065,-0.041442066,0.09303746,0.06258695,-0.023916064,0.0153255565,-0.019247776,-0.16330235,0.016479393,-0.14611067,-0.18443958,-0.027671255,0.094279535,-0.039733306,-0.06479298,-0.06010425,-0.1820779,-0.11920947,0.047947228,0.033850137,-0.03742758,-0.18715279,0.07346381,-0.012827669,-0.035247024,-0.18192847,-0.16889301,0.025206234,-0.00016546194,-0.050103128,0.003608061,0.040610857,0.06934474,0.085085705,-0.040391177,0.08831022,-0.14083053,-0.116767935,0.09561203,0.09227606,-0.07482679,-0.14738388,-0.03926297,-0.016416967,-0.12163208,-0.12430305,0.07466292,0.13634259,0.06464567,0.07768636,-0.06449399,-0.08781211,0.058076017,-0.08315336,0.047625553,0.0058801887,0.11230303,-0.036734324,-0.10469619,-0.017084878,0.049266905,-0.013236034,0.056186195,-0.1448543,-0.14668803,0.082918346,-0.09968416,-0.14775255,-0.032605994,-0.042849842,0.123947054,-0.083979815,-0.07318107,-0.07361231,-0.029749501,-0.014128593,-0.05313441,0.05494344,0.09569718,-0.08074041,-0.17960656,-0.16657706,0.0332086,-0.04737005,0.02143189,-0.13718127,0.045810495,0.05843727,-0.08259131,0.118161984,-0.048542906,-0.03585277,0.026321711,0.0025170539,-0.04071895,-0.07984647,-0.025398469,-0.062976286,0.07593942,-0.08567168,-0.008984211,0.047708377,-0.024031075,-0.13275766,-0.015193918,0.067073815,0.09438474,0.097396605,-0.11500973,-0.13422778,0.038787376,0.04676184,-0.02113756,-0.02820925,0.09288829,0.10005891,0.110775985,0.0073628477,-0.16528274,0.07728433,-0.05236095,-0.0030871616,-0.12263257,-0.003619058,0.032876126,0.042514905,0.05383418,-0.0007942067,-0.0825829,-0.022792581,0.12412934,-0.055662602,0.13154127,-0.093549535,-0.021699997,0.11333596,0.08183498,0.09514825,-0.0004464324,0.1396102,0.12343599,-0.093078405,0.14773588,-0.10240604,-0.014262022,-0.05274485,-0.08624391,-0.12957445,-0.02075503,-0.08133722,-0.077555016,0.17431967,0.16825731,-0.09143642,0.087419495,0.13347594,0.1708624,0.12630033,-0.085020594,0.11393292,0.089995384,0.09099686,0.089348495,-0.08769722,0.051375568,0.02749264,-0.088809244
-0.05002775,0.098516114,0.08395395,0.16314144,-0.07182054,0.106392264,-0.03122155,0.08123639,0.025617024,-0.0639914,0.031117728,-0.08346671,0.068609215,0.05864863,0.104833774,0.1069947,-0.15087473,-0.04922539,0.077108845,0.010384319,-0.0061577363,0.037958253,-0.082631856,-0.12287625,-0.025286308,-0.0040468685,0.08261474,-0.06329018,0.04958493,0.09313525,0.08621248,0.052497335,-0.051738624,-0.15835898,0.1015997,0.0125509435,-0.12572882,-0.1499899,-0.053298876,-0.12349041,-0.08496515,0.06811388,-0.005972465,-0.045589227,-0.061318014,-0.061656814,-0.1259613,-0.02212666,-0.0773307,-0.18035908,-0.17030217,-0.1557607,-0.09735076,-0.16098668,-0.06166596,0.069629624,-0.14212841,-0.0675935,-0.031215621,-0.06953114,-0.09354068,-0.09990588,-0.040338002,-0.028373282,-0.08994175,0.07150446,-0.09674645,-0.07184429,0.12613307,0.039629117,0.0758323,0.012117283,0.06647347,-0.018195739,0.113703065,0.07385695,-0.00046565582,-0.0581341,0.16501923,-0.04028841,0.013988592,0.091075666,0.021548567,-0.00440743,0.060736984,0.0472305,0.04075195,0.16064024,0.077556685,-0.03056829,0.14604992,0.125197,-0.055317517,0.11047182,-0.029149145,0.13954715,0.13542305,0.099340655,-0.03319707,-0.018384812,0.16543698,-0.10564475,-0.03162599,-0.055929445,0.02091728,-0.09497737,0.049242854,0.12513725,0.0029724818,0.028774299,0.14941402,-0.03298342,-0.096431024,0.048298184,0.03527763,0.060337633,0.11967121,0.09612194,0.039013177,-0.14511462,0.058594972,-0.006440413,-0.06398671,0.09049183,0.05914134,0.023456601,-0.012330897,0.1591831,-0.095276855,0.012652202,-0.013216256,0.04369611,0.14130968,0.097473465,-0.06205734,0.090659276,0.075216584,-0.030710772,0.093295954,-0.006952187,0.12372326,-0.041155364,0.11972096,0.035288345,0.049482595,0.05087889,-0.033330154,0.022275731,0.115207486,-0.07972951,-0.013719056,0.1370543,0.042580843,0.013206146,0.042884357,0.07528848,0.18207054,0.08111113,0.18323556,-0.023391869,-0.0046474366,-0.061039142,0.009571766,0.15443356,-0.07702127,0.034117423,-0.08827727,0.10677048,-0.054306634,-0.0011010622,-0.03783073,-0.09809279,0.10910955,0.03211094,-0.038379204,-0.04172894,0.046116862,0.06969677,-0.097552605,-0.025315652,-0.06674357,-0.003098022,-0.039917,-0.060400844,0.094302386,0.06734771,0.118093796,0.17398901,-0.0040620854,-0.042197116,0.087275974,0.1625045
-0.012990663,0.042834338,0.103683785,-0.113222905,-0.08581792,0.09721721,0.061566904,0.014706183,-0.089178205,-0.12576704,0.07357851,-0.09726296,0.06555586,-0.073983744,0.15925975,0.08487262,-0.06634423,0.010566096,0.063289985,0.111089885,0.01633302,0.016534287,0.09238562,-0.058446422,0.05888374,-0.012120705,-0.08491264,-0.03242678,0.03586386,-0.012576535,0.010037569,-0.109656006,0.0903116,-0.093555264,-0.01385174,-0.12870118,0.076930925,-0.07179078,0.072671816,-0.09451339,-0.08459813,0.024076566,-0.05815817,-0.072695166,-0.028966872,-0.04641744,-0.030172462,-0.038616978,-0.036866535,-0.15563433,0.046141885,0.07386715,-0.005940752,0.031236483,-0.03870714,0.046899635,0.06607457,-0.053261716,-0.09096473,-0.10428473,0.03144072,-0.14728709,-0.016574271,0.07940121,0.07091365,-0.15598927,-0.08851182,-0.033184707,-0.07654428,0.0032171465,0.0093074795,0.0751048,0.066830605,-0.107344806,-0.122415945,0.067912325,-0.00289057,0.053662308,-0.07059038,0.009996103,-0.033607844,0.010477489,0.035193298,-0.032743398,-0.04283422,0.06552016,-0.025521945,0.027217561,-0.12254304,-0.17359951,-0.07864536,0.1326309,-0.15254721,-0.1106854,0.09208513,0.040952917,0.13979329,-0.0026564104,-0.015715307,0.00501213,-0.006343813,0.105937645,-0.1128839,0.03287964,0.05048366,-0.054302868,-0.04586826,0.022809094,0.087088495,0.044854894,-0.13750033,-0.16624904,0.08973575,0.06518136,-0.0034657374,0.04739777,-0.040346097,0.032396264,-0.07252118,-0.06500097,-0.16191533,-0.078954026,-0.08092408,0.050708972,-0.16303921,-0.11412268,-0.10723392,-0.13428904,0.13490915,-0.015857846,0.12778199,0.084358424,-0.0308823,-0.014933735,0.013186365,0.07121204,-0.012408838,-0.04362423,0.10264992,0.14544575,0.16304794,0.14297011,-0.08470788,0.15382676,0.11070584,0.11508892,0.1621757,-0.0016580905,0.0805108,0.013312912,0.051505927,-0.07208323,-0.006687537,0.15633826,0.061048146,-0.08565918,-0.013815923,-0.0042776107,-0.07448622,-0.036169447,0.02702665,0.081420384,-0.08451506,-0.07806821,0.034462452,0.14089727,-0.02635113,0.083497055,-0.042160068,0.02622684,-0.1105811,0.1507367,0.11718939,0.1257393,0.10998118,0.046893343,0.16257933,0.038572993,-0.09586843,0.0794272,0.057159245,0.07031599,-0.11341207,0.10625454,0.06346842,0.06800915,-0.027054517,-0.11308389,-0.123150036,-0.07100189,0.113704845,-0.09487366
0.09617952,-0.037011366,-0.091578886,0.036718488,-0.1495492,-0.07434979,0.039226446,0.050147023,0.0054483125,-0.11521058,-0.11282632,0.005595684,0.011732729,-0.07048312,0.103739284,0.09302707,-0.09740701,-0.09859698,0.011275024,0.029450724,-0.13175784,-0.058371313,-0.04786073,-0.040496055,0.011585288,0.034544203,0.1144429,-0.11042424,0.02045262,-0.14991882,0.03264195,0.10396816,0.03593932,-0.06719693,0.1457106,-0.027567977,0.013526688,-0.005951366,-0.06802854,-0.049723778,-0.1322757,0.0057767862,0.023434129,-0.07241304,0.042616494,0.14451185,0.020801853,0.13991347,0.14004913,-0.06685253,0.0051521873,-0.08694141,0.042892475,-0.08338794,0.12466685,0.09730394,0.15866119,0.029543638,0.021453554,-0.12084192,-0.099300876,0.07763694,-0.042123754,0.0148541685,0.060285438,0.06881595,-0.036297716,-0.037362166,-0.045790907,0.12785462,-0.043188557,0.08790885,0.059142806,0.07648278,0.074293084,-0.13424058,-0.01798701,-0.04359292,-0.089305766,0.14775965,0.04427354,0.09250767,-0.05644098,0.014812019,-0.053724784,0.05970081,0.13771196,0.058692016,-0.07666813,-0.062258054,-0.05436993,-0.13209422,0.13772732,0.06049189,0.073223785,-0.014681811,0.10561054,-0.033160962,-0.11464242,0.014844305,0.025469627,0.12833272,0.033459134,-0.10019923,0.044817157,0.061120756,-0.0010013129,-0.0402391,0.18466453,-0.055005077,0.15396582,0.0721509,-0.034440447,0.06682129,0.106098354,0.035379477,0.0059077446,0.12725592,0.03926159,0.06802112,-0.013993022,0.1177263,0.09083966,0.06369159,0.02215723,-0.026239464,-0.095993534,-0.08142949,0.09954087,-0.1445312,0.10559429,-0.041985407,-0.090376675,-0.15587,0.01997416,0.060207445,-0.08746214,0.099593036,-0.0702921,0.07458013,-0.047170818,0.039916284,0.13192904,-0.10882772,-0.06380444,-0.11123581,0.123314895,-0.09077418,-0.1530428,0.049027365,-0.12068893,-0.113887966,0.12774388,0.0025615788,0.15458454,-0.063236944,-0.033459574,-0.04103647,-0.14554031,-0.08053518,0.046814427,0.035636075,-0.105619386,-0.026513249,-0.06692728,-0.11152502,-0.02865741,-0.0153761,-0.038871348,0.02097166,-0.07514793,0.085385986,-0.022942107,-0.12648964,-0.04690695,0.07945275,0.06746148,-0.12589741,-0.11319154,0.066824816,-0.17552443,0.06322703,-0.14132454,-0.1060044,0.017184988,0.08190543,0.009714002,-0.051106192,-0.17802417,0.04599438,-0.13596909,-0.0443824
-0.14961593,0.06911347,0.030904796,0.041849315,0.033508718,0.13200751,0.044344645,0.13491535,0.058106165,0.037498657,0.040958293,-0.06964006,-0.052131478,-0.063946724,-0.0026396725,0.08743862,-0.066828914,-0.08724879,0.105972484,-0.1007353,-0.043549385,0.12482844,-0.08292273,-0.08246911,-0.10362652,0.1612629,0.09027319,-0.0364453,-0.066647485,0.07521409,0.10529459,0.035561554,0.103949755,-0.13784602,-0.16590461,-0.06169481,-0.030888699,-0.13292691,-0.0664376,-0.08780373,0.06510916,0.08127478,-0.0003779229,0.11428313,-0.049335305,-0.11485764,-0.04343584,0.0408281,-0.040304426,-0.0882084,0.021856876,0.120259315,-0.14936,-0.13424772,0.09707278,0.048735723,0.01592492,-0.044437632,-0.13714598,0.032900624,0.0018177294,0.07509325,0.00850456,0.009268361,-0.14114095,-0.11130593,-0.082492106,0.084372185,-0.12194802,-0.0635186,-0.10160762,0.11652101,0.028630925,0.045399368,0.06086305,-0.008394924,0.055288948,0.040021226,-0.00542899,-0.09277848,0.022788776,-0.08548838,0.041039485,0.00259549,0.09089774,-0.07821378,0.014831901,-0.005653259,0.01859212,-0.021175839,0.13161357,0.12528138,0.1533897,0.07882285,0.05697785,0.061296754,0.14388025,0.019915449,0.0054722973,-0.036274124,-0.110299565,0.15630259,0.09577486,0.029378051,0.0061839176,0.087477446,0.00553737,-0.08010825,0.009253903,0.13238664,-0.026759446,-0.017831637,-0.06364866,-0.12566592,-0.029290017,0.038226575,-0.036222175,0.048070837,0.16066006,-0.0916679,0.010337234,-0.10205475,0.065701276,-0.100952156,0.1382356,0.11960923,0.06319196,0.008933809,0.10138331,0.15799414,-0.0015409903,0.14422515,0.057198253,-0.0838494,0.059280418,0.0043656104,-0.017407488,-0.043497574,0.12332807,0.089882575,0.068548374,0.024852358,-0.07874176,-0.034527183,0.054684892,-0.070340686,-0.12201326,-0.11074843,-0.010488197,-0.044089124,-0.039771892,-0.08683353,0.023593277,-0.1010868,-0.081076406,0.055371135,-0.06309083,0.0327278,0.03923374,0.15890732,-0.0057841595,-0.13473614,0.12606639,0.041111212,0.073305465,0.10394112,0.049409952,0.07429003,-0.08068322,0.13619544,-0.012287273,-0.03529808,0.039707903,0.13930267,-0.09228386,0.11455166,0.100149795,0.1506715,0.14093378,0.17599595,0.04597915,-0.03855179,-0.05378616,-0.09055009,0.042542532,0.11019935,0.11998326,0.0089426,0.12016475,-0.09449283,0.10549353,0.07639999
0.022590082,-0.12902063,-0.15014786,-0.083261,0.12961978,0.01036873,0.15934895,0.074353874,0.16265889,0.14933737,0.015103117,0.13605934,0.074924126,0.071462214,-0.06533273,-0.042827796,0.02425933,-0.13360411,0.124795206,-0.006126503,0.050247803,0.13303459,0.04380699,-0.020806989,0.105232984,-0.06687434,0.112157784,0.08153026,0.010359918,0.070736006,0.06729746,0.030364668,-0.09276962,0.09217842,0.0041578966,0.09056629,0.001995286,-0.12165511,0.09494392,0.019171856,0.13760921,0.11321768,-0.03754086,-0.10280847,-0.025109718,-0.043762732,-0.14598799,-0.06705217,-0.040822808,0.0938955,-0.016825594,0.060137544,0.07421213,-0.10576098,-0.0992801,0.09393783,0.08213218,0.15281262,-0.011510537,0.14850935,-0.05363626,0.02899742,0.032183416,0.0017296583,-0.09957884,-0.12881859,0.03411736,-0.13413034,-0.021268448,-0.06292532,0.021622727,0.08982411,0.032598842,0.033176463,0.049037408,0.024191035,-0.060997035,0.094886184,0.07993329,-0.10558181,0.16743384,0.003847871,-0.022376306,0.022255609,-0.030344497,0.07863026,0.16957511,0.16854973,0.10084407,-0.101450644,0.029127661,0.034614753,0.08394326,-0.121366225,-0.06302566,-0.11665289,-0.10023594,0.017055284,0.09867266,-0.11219942,-0.07290095,0.12427324,0.044293776,-0.0921973,-0.049240556,-0.08125838,0.061235953,0.004750741,-0.025569046,0.07378855,-0.07255549,0.008594315,0.15084597,0.15095396,0.11102809,-0.009069339,0.15935747,0.10931661,-0.06957046,-0.09219191,-0.08225239,0.06312667,0.0002619757,0.11944501,0.17056917,-0.1009309,0.100591324,-0.093403555,0.15121162,-0.1048199,0.09930025,0.13529813,-0.028633649,0.060137525,0.009957217,0.13574843,0.10726421,0.13030426,-0.021803102,0.09248912,-0.10873957,-0.060783245,0.10288472,0.018066414,0.1239062,-0.10701668,0.14965999,0.03520189,-0.12561034,-0.07662961,-0.005005659,0.08936914,0.018708931,-0.074368976,-0.014783332,-0.0946662,-0.05123437,0.10789307,0.14609462,-0.018074838,-0.061745685,-0.08893382,-0.13020834,-0.10372502,-0.050174087,0.14157447,0.06660162,-0.092519715,-0.0753757,0.13934474,-0.026468547,0.14944512,-0.03383487,0.010383591,-0.03766457,-0.077916175,0.1740614,0.06673318,0.0958378,0.097668774,0.016194329,0.15967466,0.18994352,-0.007660108,0.17215373,0.12486811,0.07614665,0.15725483,0.010240348,0.15140542,0.08888317,0.10022383
-0.06376109,-0.007427403,0.18421203,0.07011712,0.16783677,0.007859652,0.03096825,-0.13899085,-0.14746682,0.062343083,-0.13886976,-0.017723372,-0.07475285,0.027788969,-0.08695395,0.14577894,0.0050455765,0.07229962,0.13920815,-0.047035813,0.10203228,-0.07231276,-0.0342862,-0.063116625,-0.10857953,-0.11246976,0.112242,0.0521787,0.08197282,-0.013786564,0.0032894458,-0.07179559,-0.08069273,-0.05465317,0.029429223,0.051558193,-0.18009977,-0.08806151,0.097126245,-0.1565577,-0.11851005,0.09766587,-0.18108135,-0.17590581,0.049254403,-0.1718523,0.04296307,-0.02080844,-0.06909488,0.03656834,0.012338435,-0.041463938,-0.08273284,0.08645464,-0.06123108,-0.08271263,-0.09868356,0.01115526,-0.03406878,-0.112598315,-0.13503002,-0.14597356,0.059773926,0.17491485,-0.1030292,0.09473825,-0.11504683,-0.080808476,-0.06170682,0.16244459,0.07615111,-0.0942578,-0.021836044,-0.009679776,-0.062189408,0.020556804,0.09223231,0.1056391,0.034808077,-0.06561688,0.13201414,0.023759868,-0.095468014,-0.03830647,-0.0070639183,0.0020607861,-0.08906661,-0.10857643,-0.15462708,-0.16827485,-0.040836528,-0.10752218,-0.14670596,0.057724882,0.09716869,-0.09071234,0.12595302,-0.079439595,0.10753601,0.073814586,0.00201061,-0.11194186,-0.06402973,0.11020839,0.010483206,-0.021928946,-0.041157242,0.014249914,0.058561932,-0.0508147,-0.09310897,-0.07916655,-0.024187895,-0.10556095,-0.017965231,0.0182981,-0.15867075,-0.14019993,0.07832019,0.055781495,-0.11960498,0.010771712,-0.002056609,0.08766048,-0.15086268,-0.12367938,0.043593988,0.0055400976,0.05865945,0.12009905,0.1108694,-0.05126441,-0.09622107,-0.15377034,-0.01896521,0.12726519,0.026385702,-0.022230245,0.112116665,-0.05074543,0.020939384,0.12412569,-0.07600901,0.12370649,0.060032133,-0.0738214,-0.10002288,0.17478646,0.18186194,-0.06552171,0.0777843,-0.090930484,-0.003728738,-0.092701994,0.062391255,0.021657662,-0.043465592,0.1407411,0.06630685,-0.018017635,-0.024247378,-0.037958033,0.1332471,0.1277929,0.073004656,-0.10704958,0.04867597,-0.09713617,0.15513347,-0.06632771,0.025798453,0.13849355,-0.006353817,-0.022534695,-0.09758928,-0.115601316,-0.0783632,-0.077666864,0.045341697,0.14171416,-0.090585396,-0.12953475,0.10184684,-0.116704546,0.038216628,-0.010163669,-0.095324576,-0.07892169,-0.097191036,-0.043500274,0.114545636,-0.047967747
-0.0828996,0.15711695,0.069400944,-0.0027139361,0.10079407,-0.11965232,-0.11233454,0.0019882973,-0.027087787,-0.14857005,-0.011841359,-0.07328251,-0.057015087,0.033633973,-0.08075865,0.00972371,-0.063158624,-0.108952686,-0.15743251,-0.16417015,0.037964184,-0.08080455,-0.113372214,0.04929635,-0.08020774,0.12352762,-0.12274412,-0.16141135,0.07772484,-0.09759173,0.0031347317,0.00088864437,-0.17345864,-0.0023736863,-0.118406706,-0.1221165,-0.06103657,-0.008548507,0.09022304,0.002218943,-0.0563652,0.10156839,-0.1620072,0.05622927,-0.075087495,-0.012412996,-0.030322399,-0.13025871,0.0016513928,-0.13704671,0.008549521,0.0073808255,-0.06794498,-0.039672427,-0.11855548,0.07811136,-0.15174238,0.052864667,0.027019313,-0.16677703,0.0106198415,0.07152331,0.08920944,0.09726124,-0.09851454,-0.060509432,-0.034024227,0.089224085,-0.03818311,0.017199777,-0.09038461,-0.00019216386,-0.040871087,-0.09095487,-0.032653347,0.06075431,-0.11390211,0.04089166,0.09539881,-0.10540552,-0.05458826,-0.0013457707,0.1640905,0.004691217,-0.13220274,0.1670647,0.15340054,0.09917315,0.07077597,-0.16504234,0.16412601,0.017698815,0.029250773,-0.04542337,0.14349395,0.11008627,0.06298059,0.07261236,0.09559649,0.12788646,0.113017626,0.124331065,-0.049295202,-0.09583175,0.079271756,0.07798886,-0.043511845,0.055233542,0.06538748,0.0779864,-0.003407258,-0.11227003,-0.053655677,-0.12968884,-0.08172485,0.0038851483,0.02668784,-0.1230481,0.04698507,0.0035991822,0.008710322,-0.06574371,0.047510874,0.0724494,0.08048418,-0.05951464,0.085684456,0.11316125,-0.10269657,0.09729972,0.066565424,0.14428696,0.06816962,-0.050513882,-0.014025405,0.05948381,0.1565065,0.011159662,0.13443074,0.011614017,0.07968572,0.03308965,-0.081531614,-0.007926645,0.10722769,-0.065782845,0.14995416,-0.026669571,0.0949041,0.12587987,0.1570906,-0.038735017,0.06432614,0.014737286,-0.025587562,0.04143041,0.03933551,-0.072325416,0.02228843,0.09223712,-0.13087292,0.078087926,0.105083674,0.036171682,0.02967934,0.12897615,-0.036655795,0.06314683,0.1824734,0.011075809,-0.056147005,0.06304408,0.056947585,0.06224409,0.10136876,-0.08102762,0.1179421,0.14013645,-0.01649941,0.0823191,0.111027054,-0.03978618,0.04522998,-0.06407844,0.06525277,0.108409196,-0.04469951,-0.09832345,0.15579179,0.17556995,0.024570843,0.163301
-0.02289438,0.13060719,-0.044539306,0.05511575,-0.035814114,-0.0556073,0.055657264,0.10193774,-0.05988006,0.102357246,-0.12117385,-0.03577742,0.039129328,-0.09527934,-0.05813357,-0.052575633,0.0018824858,0.054879528,-0.08909543,0.13070466,0.044011563,-0.113626726,0.06628477,-0.11180338,-0.021335479,0.0068432824,-0.086161874,-0.086145096,0.03452631,0.025944691,0.039777372,-0.13532564,0.085680604,0.010487481,-0.0038328085,0.0018269412,-0.06104503,-0.04170654,-0.04459803,-0.029392809,0.035980854,0.0792435,-0.15096898,-0.17469288,0.01585088,0.04427794,-0.07401115,0.05168961,0.069313146,-0.057846185,0.0056673167,-0.029228475,-0.0050071846,0.060922503,0.057144504,-0.18267907,-0.08263168,0.0011250915,-0.13771725,-0.03399667,0.056805875,-0.16391766,-0.15174335,0.057534453,-0.10974955,0.0645415,0.13697615,0.001168856,-0.018571842,-0.01819259,-0.06161934,0.11159225,0.059392303,0.0889037,0.09237843,-0.12815163,0.043115206,-0.08955782,0.12553947,-0.0735458,-0.08217516,0.029455228,0.11853778,-0.0052363416,0.055315465,-0.021439943,0.04729188,0.03933161,-0.14224757,0.08678689,-0.10683515,-0.13034104,-0.020240737,-0.030793643,-0.078937784,-0.15518348,0.024764244,-0.10903191,0.1187554,-0.033101283,0.0014122252,-0.06633517,0.099314034,0.09196484,0.0021441923,-0.012198843,0.09132348,0.13845897,-0.08627273,-0.1349593,-0.13544297,-0.059086476,0.09368795,-0.12539008,0.034193896,-0.017288713,0.07126547,-0.089055255,-0.052248023,0.06458426,-0.14824484,0.009660269,-0.13055499,-0.17557415,-0.1550081,0.06756281,-0.15750654,-0.11535953,0.050833944,-0.15045393,-0.100500405,-0.07553535,0.10409499,-0.034485616,0.07971765,-0.067116305,-0.11340135,0.124703124,-0.007246365,-0.03712549,0.1173823,0.041902598,-0.012455617,0.12194716,0.13045833,0.10669262,0.12772332,-0.030781088,0.08495872,0.040123597,-0.10772678,0.04451551,0.10275147,0.14463733,0.10220197,0.025595078,-0.0892036,0.11666439,-0.05077533,-0.088545844,-0.049075164,-0.070361614,-0.023750303,0.04245624,-0.108354196,0.16094097,0.013402618,0.13472942,0.02402331,0.13538302,0.13252997,0.15094148,0.11432437,0.08841495,-0.05220783,0.054059688,0.06889208,0.01961276,0.06318033,-0.057653278,0.1546199,0.12759572,0.06242049,0.11834829,0.0025180054,0.08703381,0.047616035,0.09501549,-0.012905254,-0.13001205,0.07896426,0.013927188
-0.02415857,0.020289447,0.07772098,-0.04730991,-0.011560474,-0.13616998,-0.059215233,-0.10379821,-0.09066518,-0.14910962,0.10834163,-0.041740593,0.09947282,0.067592375,-0.11862714,0.014577135,-0.03160072,0.116218194,0.04209183,-0.017416783,0.08352895,0.036625594,0.047955062,-0.059698418,0.11165539,0.008646856,-0.0152193215,0.0944786,0.13919859,0.12500733,-0.004422738,-0.11601199,0.08385598,-0.037094858,0.09140036,0.12193504,0.0016325922,-0.056478757,-0.07041547,-0.08379967,0.09096196,-0.078974895,0.1125431,0.053321544,0.011033847,0.10995204,-0.040119585,0.10855114,0.031596508,-0.105584204,0.06270903,-0.08028601,0.062470976,-0.002525734,0.010066164,-0.051289022,0.09707158,-0.07304516,-0.101028904,0.075758465,-0.09478471,0.091979906,-0.06773902,0.023205478,-0.009739716,0.08246136,0.03745651,-0.08800477,0.0061874515,-0.099598676,0.028949961,0.069792025,0.034444302,0.027718525,0.036611434,0.119019456,0.12252043,-0.10876949,-0.01650553,-0.09220262,-0.057235092,0.1149855,0.10455065,-0.074157834,0.13389146,-0.04911227,-0.02598221,0.14001769,0.04699725,-0.08607473,0.16557422,0.04483187,0.15253474,0.0894926,-0.091863036,-0.044661537,0.09103297,0.1429285,-0.031000057,0.07113767,0.14168443,0.11804762,0.061063297,-0.017570829,0.0454264,0.08430292,-0.16521275,0.029887525,-0.16171587,0.026231077,0.038844615,0.02249018,0.09059057,-0.06296346,0.06725933,-0.07178676,0.04936991,0.080826,0.09236255,-0.027960846,0.07562456,-0.018557796,0.064924516,-0.123207144,0.017075906,0.08694181,0.06948566,-0.013357689,0.030998029,0.027698152,0.003408495,0.13081913,0.012215605,-0.016648771,0.006353105,0.061282225,0.109471165,-0.11368006,0.12952052,0.06248651,0.12235344,-0.11242422,0.07160848,-0.017441934,0.045027908,0.12397346,0.11901602,0.062697634,-0.08892896,0.05256242,0.15365374,-0.041579593,0.036575135,0.16380939,0.022129858,-0.00027019656,0.10217748,0.11319721,0.014516302,0.092595525,-0.076158516,0.056725144,0.03433431,-0.09934403,-0.06587302,-0.010884191,0.027051518,0.08375027,-0.055328134,0.026224071,-0.07047311,0.11433427,0.015172326,0.09590038,0.029934028,-0.104973055,-0.048204657,-0.07769838,-0.13460512,-0.13296476,0.04886691,0.07365335,-0.041158956,0.024727328,-0.11149082,0.107707724,-0.09031868,-0.1057375,-0.15738477,-0.018799067,-0.0699783,0.034521148
0.1131745,-0.12819535,-0.026777394,0.09880134,0.080515414,0.07475382,-0.08406503,0.020933762,-0.016299706,0.10227087,-0.036473,0.045345772,0.1340574,0.0066377968,-0.07983885,-0.02053147,-0.09276587,0.048679616,0.05381227,0.0277147,-0.044385243,0.057487994,-0.056336436,0.05909574,0.004769811,0.09977617,0.011630652,0.04503542,0.06023967,0.14453691,-0.08555113,-0.09258059,-0.060167104,-0.06765638,-0.14486554,-0.0066502104,0.046959765,-0.0105232345,0.03526621,-0.06610203,0.058549244,0.060911886,0.021381242,0.0522427,-0.1493309,-0.15557434,-0.04937795,0.10748815,-0.050517276,-0.13867149,0.11029443,-0.15154894,0.1059286,-0.046324898,-0.10108712,-0.15445346,-0.120206475,-0.14392458,-0.093447864,-0.12195344,-0.090254426,0.044591032,0.058062557,0.0275995,0.07866294,-0.09508769,-0.11221447,0.076656975,-0.06604279,-0.07533676,-0.036846522,-0.003973126,-0.07394978,-0.041654997,-0.07592375,-0.015826715,0.075256646,0.09736033,-0.028784543,0.15299313,0.14017594,0.027169272,0.05755165,-0.0929894,-0.0076780193,-0.02146978,0.15230736,-0.073173,0.061274696,-0.057430334,0.15993875,0.08659131,0.08587628,-0.026205698,0.08998211,-0.05254398,-0.08973504,0.003107017,-0.0044636154,0.07459678,-0.10273179,0.10172241,-0.0848415,-0.105217904,0.13130426,-0.06395571,0.14748158,0.092108674,0.15238935,-0.06397318,0.032245662,0.09849809,0.12156908,-0.10888361,0.07690729,0.041645844,0.096255556,-0.10972202,0.054583315,-0.011613374,0.0039600893,-0.04361242,-0.09797658,0.14419128,0.16789718,0.11550239,0.17587066,0.17217813,-0.06947967,0.11122828,0.1440084,0.11791303,0.023656381,0.069253534,0.1734508,0.09968497,0.10775127,-0.006811857,0.13161048,-0.049468946,-0.070634164,-0.023325944,0.14196046,0.094820485,0.083770365,0.1505128,0.078639425,-0.01171446,0.09354351,-0.008353412,0.0136223165,0.04859501,-0.08947971,-0.048133127,0.09624298,0.12461894,0.015212625,-0.08769529,-0.06548542,0.017424336,0.13177082,-0.09740521,-0.028227806,-0.0009384274,-0.023615608,-0.1289979,0.0111972615,0.1415287,0.10683125,0.15441076,0.16220425,0.07921294,0.044362135,-0.09559123,0.029912926,-0.0644801,0.079057366,-0.0971544,0.16139856,-0.07306781,0.023308996,0.08001209,-0.002090843,0.116784796,0.02959175,-0.095156565,0.11361182,-0.012973926,0.114023626,0.04248387,0.05515893,0.1140552
0.06855264,-0.1252854,-0.16402069,-0.080561005,-0.006655997,-0.1284742,-0.0069905547,-0.10959534,0.09422724,-0.07729844,0.001253852,-0.14781137,-0.10654662,-0.14110763,-0.11967917,0.117393725,-0.14372805,-0.05187634,-0.026101273,-0.08637222,-0.10080652,0.14288916,0.035371657,-0.13479976,0.039342385,-0.06287841,-0.07406016,0.036753822,-0.09276786,0.10983443,0.05985777,0.052684635,0.011960847,0.058271274,0.02839336,0.03136693,0.00035244107,-0.021987304,-0.12057842,0.12640417,-0.109282516,-0.07165026,0.09872234,0.08112077,0.0525602,-0.10503299,0.067899324,0.11951187,-0.13296506,0.11407034,-0.043253303,-0.008630317,0.032399993,0.11603455,-0.0094945105,0.108886674,0.029360034,-0.045599617,0.06727171,0.06398821,-0.06611768,0.11828968,-0.03991978,0.0035903822,0.06874921,0.07249483,0.0024621328,-0.109894454,-0.11164703,-0.012879151,0.015156067,-0.006363055,-0.08381266,-0.14815807,-0.16647789,0.06914002,-0.039279345,0.004623923,-0.08414092,-0.11409486,-0.08627841,0.05274791,0.021982443,0.10954648,-0.089523435,-0.09659753,-0.08883506,0.027162125,-0.09906775,-0.072181396,0.076072425,-0.09375336,-0.124315724,-0.10207488,-0.11846294,-0.07055665,-0.05292569,0.047510006,-0.03829707,0.012766641,0.08192743,-0.03488336,0.030285778,0.049433134,0.072005756,0.1230163,0.06992956,0.029444702,-0.02972273,-0.051902674,0.0046966765,0.13533413,-0.010755292,-0.0638306,-0.108200505,-0.10861611,0.025968956,0.13098782,-0.07398691,-0.11461203,-0.05513584,0.059587035,0.12643693,-0.059208676,0.13054277,-0.012141016,0.074213795,0.028849093,-0.04137565,-0.052816458,-0.13123338,-0.068775706,0.084864706,-0.05332502,-0.029725522,0.104222484,-0.090101406,-0.09308845,-0.11310057,0.08103453,-0.17159373,0.054496597,-0.07905095,0.096655466,-0.028430775,0.08588332,-0.062499296,-0.0683528,-0.15423068,0.0623381,-0.16567104,-0.03140081,-0.16216585,0.0028524967,-0.1591688,-0.03941702,-0.12603071,0.067671195,0.063936174,0.06741936,-0.0875598,0.083594434,0.122312054,-0.032906603,0.07931194,0.11019614,-0.035211377,-0.100963324,-0.047786016,0.057481643,0.04017903,-0.120284215,-0.16448438,0.033397786,0.06387396,-0.10178757,0.108810045,-0.08050035,-0.105561174,-0.0041439375,-0.034859054,-0.040767856,-0.09271579,0.109758765,-0.10754008,0.087139145,-0.072408594,-0.059283137,0.11710507,0.053564988,-0.05295597,-0.0018296964
0.11083181,-0.10692594,-0.085986264,0.04082905,-0.04446739,0.031766288,0.13682297,0.038502164,0.093062766,-0.009148024,-0.086496525,-0.11406143,0.035636716,0.053058133,0.099020846,-0.07073604,0.07255965,0.06625383,0.0071307737,-0.12851962,0.030902063,0.046472616,-0.03550731,-0.09299943,0.109722994,0.121235654,0.08642421,-0.14333375,0.092101604,-0.12978691,-0.043036427,0.11174666,0.034682985,0.064525895,-0.0021063187,-0.11951876,0.08698537,-0.017467152,-0.009011003,-0.010339097,-0.0802996,0.07356933,-0.1322738,0.006070388,0.111018,-0.08903875,0.12691444,0.09338645,-0.06292402,0.04124926,0.01735394,0.077750124,-0.09699118,-0.028365824,0.06675297,0.03258084,0.09416807,0.08791819,-0.004221042,-0.078335315,0.12354856,-0.11370386,-0.15762039,-0.0413582,0.022821268,0.016668286,0.08388067,0.12460557,-0.09635652,0.04832772,0.09939978,0.084248565,0.10233,0.07220046,-0.03791419,0.076134816,0.035597067,0.07306301,0.16872019,0.12291783,0.0308594,-0.12150467,-0.115949444,0.09061351,-0.023187984,-0.073208995,-0.055567455,0.15975435,-0.05232539,-0.0987401,-0.018515773,-0.088938296,0.06168982,0.10923646,0.062159814,0.035821024,0.07129456,0.09986479,0.16582568,0.17523202,0.07924888,0.061556295,0.07085727,0.06088392,-0.075366795,0.042692497,-0.012390284,0.093871854,-0.088345826,0.14687838,0.15265383,0.031170247,-0.09331742,0.018968295,0.0846666,-0.11784599,0.029713765,0.1019,0.12553515,0.092284516,0.12952182,-0.024299724,-0.057386488,-0.028667899,-0.07668823,-0.004281201,-0.009395556,0.14183895,0.06575843,-0.029152136,0.032765668,-0.05469246,-0.059058484,0.017990556,-0.040113345,-0.046140615,0.084444225,0.021709938,-0.039247286,0.06417217,0.08370134,0.10465121,0.13985243,0.029284481,0.06610377,0.008329187,0.14169538,0.07313173,0.15683232,-0.092042774,0.08361676,-0.0055297567,-0.05101993,-0.12192008,-0.02982201,0.022414044,-0.10623631,0.04834477,0.114524595,0.015375502,0.07063029,0.0076013966,-0.08786293,-0.07922165,0.06132787,0.026469715,0.060047105,-0.009853041,-0.008719547,0.080302015,0.006972487,-0.0027444565,0.13349143,0.039031602,0.12737378,0.04424984,0.08942852,0.08639261,0.060738508,0.035785627,-0.015388862,0.16771477,0.1554703,0.079796076,0.0052235285,0.056615114,0.017803244,-0.007205572,0.1753208,0.15454155,0.014129247,0.04492603
-0.093060315,0.10792599,-0.12537718,-0.02521091,-0.08705004,-0.10957127,0.06363122,-0.057672746,0.044990703,0.123283245,0.15472871,-0.082269125,0.132278,0.13955626,0.04382479,0.12621503,-0.10953551,0.08176783,0.069346696,0.0022629553,0.12538013,-0.00087256095,0.0031419566,0.040210016,-0.14083487,0.03222997,-0.120806865,-0.06275345,-0.007802013,-0.10261336,-0.032137383,-0.024907837,-0.057915106,0.040833544,-0.0577608,-0.1712591,0.0364231,-0.053356,-0.04129089,-0.1396765,-0.10035406,-0.03889843,0.02595126,-0.02017461,-0.08145297,-0.10131913,-0.071175344,-0.09440804,-0.08964571,-0.122998275,-0.060577966,0.012827859,-0.17032644,-0.07998529,-0.053913638,0.0034610853,-0.05482326,0.097891286,-0.13818306,0.07268489,-0.0007035829,-0.04205484,-0.12710533,0.11059466,0.07965675,0.08995372,0.10376533,-0.113615684,-0.111193225,0.11445165,0.016839061,0.07027998,-0.03789074,0.07511896,0.13769832,-0.11379928,0.1443492,0.024957411,0.008552381,0.100997046,-0.053738154,0.07816126,0.04109576,0.14070992,-0.055806614,0.077276126,-0.04312404,0.0037872973,0.06748339,0.024510395,0.17135312,-0.08167483,0.0014344419,-0.0051264153,-0.05466653,-0.15179576,-0.116954625,-0.03640589,0.10577004,0.08344063,0.116532184,0.109041944,0.15356556,-0.04559893,0.09831866,-0.11893977,0.05748675,0.16583234,0.038379833,0.11428712,-0.0592937,0.07473877,-0.13625365,-0.046157956,-0.12629044,0.0019387002,0.058364358,-0.10844711,-0.05272606,-0.0428389,0.10970798,0.08021108,-0.04866732,0.0008270707,-0.044073798,0.0014649577,-0.12192881,0.084889784,0.151424,-0.03281238,0.012594248,-0.028032681,0.17459384,0.104577586,0.13814776,-0.049189135,-0.040985532,0.079616286,0.17414504,0.1692618,0.025450248,0.17421378,-0.014984776,0.13405551,0.04540812,0.027214441,0.111897245,0.11054074,0.0011108569,-0.008360089,0.028270649,0.11861339,0.14226006,0.021644946,-0.0041919462,0.15826029,-0.051025603,0.00044925112,-0.044860322,0.13939914,-0.017994786,0.08705408,-0.10847402,-0.060849044,-0.041800592,-0.030881815,-0.11019643,-0.056584015,0.0036901433,0.12818964,0.0999838,0.07004055,0.080899976,0.04381927,0.13513142,0.037620854,0.0916658,0.1132218,-0.0016201474,-0.050617896,-0.04766863,0.0088254465,-0.10820785,-0.03321677,-0.11253446,0.005317636,0.16785178,-0.040612184,-0.04125417,-0.05428231,0.088270895,0.09533302
-0.15961789,0.000528479,0.105671965,-0.082449,-0.045724854,-0.15389934,-0.035625283,-0.0015416222,0.0019063511,0.054205112,0.03681677,0.12514336,0.057482354,0.034140874,0.05312404,-0.004977137,-0.0420926,0.11445172,0.08080409,-0.039785616,-0.120710246,0.027459344,-0.014661185,-0.07502596,-0.14363505,-0.04736691,0.1331991,-0.10089196,0.052302796,-0.13766812,-0.00949966,0.01634317,0.048636135,0.042472873,-0.1668661,0.01689878,-0.034066133,-0.14720222,0.014340561,-0.04136282,0.08363917,0.045095854,-0.16587423,-0.129958,-0.12581834,-0.026947977,-0.10589061,-0.01345151,-0.14730316,-0.1543143,-0.14722583,-0.15044576,-0.14657815,0.024411788,-0.09138997,-0.053127937,-0.09943781,-0.15770054,-0.18620406,-0.07672947,-0.12294094,-0.11058648,0.045447376,0.14007089,0.051656317,0.061628435,0.054876853,-0.15761138,-0.062714934,-0.1396801,-0.053479865,-0.08884949,-0.10054436,0.09677403,-0.099050194,0.095239505,0.124742225,0.057776965,-0.018432818,0.11701229,-0.12288409,-0.06869053,-0.15214093,-0.14163883,0.105343,-0.12246447,-0.092258476,0.051024858,0.07581097,0.110273786,0.114404544,0.11991929,-0.145836,-0.0051428895,-0.12795538,-0.09298008,0.028307544,-0.11699775,-0.052790206,0.04219377,0.021203196,-0.104731806,0.11375284,-0.06686918,0.05209045,-0.01328195,-0.057180658,0.05915871,-0.035128634,0.041089453,-0.05254253,0.08946185,-0.061537784,0.10780264,0.05386331,-0.10822305,-0.054810405,-0.14551936,0.015027746,0.10169069,-0.029416801,-0.00085260003,-0.11174274,-0.070269026,0.109223664,-0.03472418,0.028786147,-0.11520319,0.0682555,0.115608685,0.0123646865,-0.014858782,0.108577944,-0.015704958,-0.049191434,-0.0760652,-0.040616553,-0.008187309,-0.0070293467,-0.14668974,0.03507979,0.046060637,0.02996972,0.037617758,-0.15133655,-0.025330592,-0.0021408442,-0.0061802138,-0.14321437,0.03130322,-0.06772739,-0.10766106,-0.15096974,-0.07010716,-0.09130034,0.008589529,-0.15092881,-0.012112537,-0.1548719,-0.085653454,0.019559463,0.098426625,-0.012417151,0.0040058224,0.13159828,0.07319921,0.07724354,0.157777,0.045302533,-0.098492034,0.086873025,-0.07732717,-0.060631666,-0.044912614,-0.09732619,0.01286696,0.07500575,0.11701169,-0.15137452,-0.08213861,0.044336107,0.012228028,-0.0030645172,0.064536415,0.045217313,0.102928445,0.03938864,-0.05076426,-0.059532624,-0.112745345,-0.11009315,-0.058859248
0.10789668,-0.017918661,0.049472116,0.012549957,0.01616329,0.10791116,-0.09124322,-0.111229286,-0.07558448,-0.026714858,-0.06022777,0.12155881,-0.07034498,-0.044946153,0.054211237,-0.0035693669,-0.022979727,-0.0030473964,-0.100774765,0.07494459,-0.15418099,0.057405043,-0.07769719,-0.10953837,-0.02903567,-0.025348572,-0.04754124,-0.037736714,0.087229654,-0.11983458,0.092824616,-0.09882582,-0.039624244,-0.0129892,-0.12642407,0.10625188,-0.06741172,-0.07173265,0.07205995,-0.0034899279,-0.11411987,-0.10611618,0.063897215,-0.027033294,0.11695517,0.08818075,-0.07763655,0.026168177,0.07458523,-0.018021408,0.0705131,0.09475855,-0.08466683,0.10908622,0.048999637,-0.067286655,0.05750179,0.113421135,-0.110915445,-0.04636778,-0.10144536,0.050886434,0.13543318,-0.09525523,-0.071565844,-0.08630205,0.06854217,-0.030149078,-0.09767457,0.016242474,0.010425965,-0.018044801,-0.045248955,0.009160729,-0.10956543,0.078380436,0.00412932,0.012554956,0.06363433,0.1446214,-0.048961714,0.060536575,0.14135201,0.12374984,-0.02132337,0.078356825,0.10393906,-0.030206932,0.03037698,-0.10532164,0.05813924,-0.05987831,0.082521334,-0.041367795,-0.057063174,-0.057187982,-0.057476778,0.12080937,-0.07881227,-0.14099376,0.11290233,0.06548083,-0.044869956,0.08463725,-0.13450895,-0.1280128,-0.121756464,0.14269742,-0.09699738,0.12846602,0.01724445,-0.02623105,-0.046005316,-0.10104414,-0.031483043,0.107976645,0.030560141,-0.08793344,-0.07039402,0.093860045,0.05519232,0.08469252,-0.13060713,-0.07112296,0.026793541,-0.09306408,-0.021404494,-0.08438318,0.036585502,-0.091503,0.011186497,0.15539035,0.1426259,0.062461905,-0.07033496,0.03135852,-0.08630239,0.1852529,0.13385898,0.11145767,0.07145178,0.047635376,0.13463663,-0.06807198,0.10352662,-0.02308125,-0.08777488,-0.00458138,0.1826905,0.11005342,0.008054966,0.024773551,0.004889549,0.018168196,-0.04254163,0.026675655,0.14299934,-0.012403592,0.029084383,0.08458636,0.12237999,0.032714907,-0.11225667,0.013651933,0.13471334,0.13931757,-0.077566326,-0.0030932988,-0.08314653,-0.11128499,0.06716929,-0.016971063,0.13735642,0.062228963,0.07033871,-0.053861905,-0.019967467,-0.078805596,-0.096735,0.14138517,0.12917933,0.045621853,0.0077587934,-0.020928102,0.041796792,-0.009933737,0.09524706,0.14243394,-0.01942307,-0.014963687,-0.07894129,0.040552437
-0.08220458,-0.16303754,0.09903045,-0.1623151,0.038606763,0.013503547,-0.107838474,0.004202872,0.0681863,0.12812339,-0.05630742,0.11647066,0.15660444,0.06202817,0.07396819,0.0910464,-0.054848116,-0.10007137,0.10372298,0.13529176,0.13531166,-0.030356543,0.019938653,0.07450837,-0.07691338,0.011768707,-0.16053557,0.018129716,-0.138234,0.021283152,-0.08731019,-0.077888615,-0.16607492,-0.03847505,-0.03281568,0.08695754,-0.04264456,-0.042571764,0.10612158,-0.070843294,-0.10761501,-0.09426406,0.044441164,0.06681994,0.087216504,0.074431546,-0.0046476116,-0.0338165,-0.08519812,-0.030394036,-0.05413645,-0.053276256,0.10719316,-0.16943663,0.0049015316,-0.049734704,0.011189512,0.103503324,0.00057671947,0.013393299,-0.10678406,0.051913716,-0.0060437815,-0.12888618,-0.037533436,-0.15243442,-0.022072315,-0.036850408,-0.116984524,0.07510625,-0.0011408012,-0.0075378288,-0.042051528,-0.0951824,-0.11716723,0.016376812,0.12218928,-0.1448687,0.074610464,0.08166271,-0.1098902,0.048406906,-0.019547576,-0.07158129,0.11104837,0.13931744,0.12120805,0.155211,-0.12237342,0.042660255,-0.02500014,-0.01300147,0.005834304,0.0822817,0.009645312,0.11104716,0.04656832,0.12822197,-0.14830141,-0.0007680674,-0.16096382,-0.07897209,-0.052523945,0.11254552,0.051990796,-0.075058885,0.091645546,0.0093728155,0.07409306,0.14367032,0.04031383,0.15512511,-0.11847558,-0.05320854,0.055839866,0.095679685,-0.05464122,-0.07111699,0.06776143,0.13005804,0.11057466,0.0074509773,0.12322331,0.12807968,0.0044241725,0.060315706,0.08916559,-0.0024324462,-0.16967969,0.0059960415,-0.08831925,-0.06878925,0.021140305,0.062478542,-0.15739495,0.055077914,0.0656146,0.02216914,0.049046848,-0.017950686,-0.09362379,0.022889784,0.103384644,-0.03590175,-0.009756319,0.09449096,-0.010035316,-0.14704894,0.101607084,-0.1372536,-0.0716368,-0.006982956,0.026571823,0.095339276,-0.031935193,0.112978265,-0.13157845,-0.088080436,0.11395735,0.03176861,0.048567373,0.022624224,0.15524048,0.0021620127,0.09386912,0.13221274,0.124658994,0.08862644,-0.10279388,0.06293609,0.0014705795,0.09163055,-0.051565524,0.111887485,0.16998187,0.17105612,-0.022069713,0.13199568,0.033472806,0.15550652,0.089459546,0.14677413,-0.07711951,0.045822024,0.14363547,-0.06626873,0.10881802,0.11586903,0.18118714,0.074296065,0.13564052,0.09939055
-0.07857353,-0.12557718,-0.0064260554,-0.0566824,0.039418414,-0.14431843,-0.030433334,0.1322093,-0.048842855,0.12042249,-0.0076187737,0.016465748,-0.06421845,0.1128049,0.031040773,0.11165847,0.12048299,0.14272802,0.13447487,0.17340031,0.017076578,0.07275706,0.049471766,-0.063739836,0.10429658,-0.018202055,-0.05549098,-0.14980815,-0.14949217,-0.086949095,-0.036827415,0.045315705,0.08608202,0.045496356,-0.089400604,0.10710484,0.08272876,-0.085771166,0.08539279,-0.12404626,-0.048752785,-0.076811686,-0.08773566,0.052343026,-0.07907857,-0.07178232,-0.037902616,-0.16220883,-0.15547384,0.10372979,0.070187196,0.0048564966,0.010384101,-0.019517582,0.11090562,-0.10183984,-0.050872188,-0.08634615,0.017933346,-0.032548912,0.109673984,-0.060679913,0.05686129,-0.043076985,-0.036063056,-0.106231935,0.040210694,-0.13675697,-0.020215308,-0.10254654,0.10729619,-0.0672013,-0.013727964,0.060948335,0.07207446,0.08151042,0.12254263,0.008506991,-0.07689507,-0.119738944,-0.0066122217,0.094320014,-0.02456207,-0.022576164,-0.027753752,-0.00031043144,-0.14094661,0.03015872,0.07314469,-0.056574073,-0.043873917,0.12280297,0.05051889,0.10663886,0.034378294,-0.056726173,-0.096748255,-0.081078395,-0.020027967,-0.13841556,0.09915263,-0.050555635,-0.15078504,-0.10848881,0.022273995,-0.13385366,-0.07009811,0.039015654,0.07157755,-0.15723298,-0.13246407,-0.15507574,-0.07948317,0.055500135,0.10054263,0.026086142,-0.10314959,-0.087904006,0.003178492,-0.004494708,0.05960529,0.03317609,-0.101718865,0.030509552,-0.08353381,0.06036193,-0.0045172162,-0.13797414,0.065363176,0.0012772274,-0.13890234,0.032665543,0.07651005,-0.04876649,0.0670857,-0.048612967,-0.1400441,-0.12571326,-0.011070729,-0.08311541,0.020352073,-0.011507484,-0.12273825,-0.08379636,-0.14535788,-0.057428025,0.064776175,-0.028801352,0.03395544,-0.11918214,-0.084369734,-0.07019253,0.060711376,0.098185465,0.027185814,-0.07627217,-0.054411788,-0.104583964,0.0024406677,0.066700436,0.120441064,-0.07258614,0.034794956,0.009440388,0.010934995,-0.011685346,-0.11002332,0.13547236,0.15872537,0.092289485,0.00090155314,-0.08809956,-0.013411073,0.16024843,0.0062632617,-0.052404,-0.121407926,0.08746788,-0.06906593,-0.010997918,-0.0053845905,0.08855238,0.06457211,0.11326632,-0.0036562113,0.07723509,0.13522094,-0.008485599,0.072964996,0.08441823,0.05952264,0.024118943
-0.045891475,0.03672154,-0.012278872,0.08466341,-0.013458753,0.022167157,-0.082719564,0.066230185,0.07157086,0.04875003,-0.039132133,-0.059513632,0.0947203,-0.07738191,0.12741557,-0.0932163,0.14464329,0.09515591,0.15914299,0.0694474,0.01474285,0.17211048,0.098110564,0.09963608,-0.06794552,0.05530221,0.034088735,0.12852103,0.17771044,0.025589626,-0.013054919,-0.082268134,-0.04829531,0.026205678,-0.12364518,-0.119455546,0.032466903,-0.010632118,-0.05459506,-0.10438184,-0.13759455,-0.17172033,-0.17065962,-0.15352449,-0.07728642,-0.013344637,-0.052915584,0.02559282,-0.18408482,-0.004820072,-0.027442832,-0.024039904,-0.15990262,-0.15505438,-0.083689824,0.03969704,0.03123784,0.06006955,0.023380907,0.04442106,-0.04579842,-0.064643994,-0.12064516,-0.028611407,0.08964012,0.064708106,-0.16180226,-0.017741788,0.09462263,0.0060495916,-0.1849342,-0.08863978,0.07107169,-0.15122202,-0.06168531,-0.14057633,-0.14268094,-0.14736566,-0.094851084,0.08422099,-0.119549625,-0.118683346,0.08547737,0.10200519,-0.09159812,-0.024157206,-0.11638683,0.037802443,0.06950218,0.0068970886,0.07966131,-0.03164159,0.12804575,0.059127945,-0.034871824,-0.01866047,0.16034606,0.06954235,0.014519618,-0.08803613,0.10873407,-0.02023507,0.08286962,0.07555166,-0.08078713,0.109612465,-0.00864147,-0.13777111,0.021878595,-0.14100172,0.08776701,-0.15512834,0.018882714,0.11292683,-0.093121536,0.10697006,-0.15953359,0.08853485,-0.12429097,-0.10481183,0.018088756,0.08873636,-0.113988765,-0.056885798,-0.051287018,0.0531747,-0.06782742,-0.06509727,-0.009209596,0.14095317,0.06522541,0.061700344,-0.023789914,-0.009087215,-0.080569424,-0.061817918,-0.0030559776,-0.05402655,-0.0016500547,-0.11809165,-0.09873232,0.06967743,-0.026398588,0.11895595,-0.03657737,-0.051597152,0.02223337,-0.03239282,0.13920197,-0.0017978975,-0.023919892,0.0032499554,0.144017,-0.103698686,0.06979331,0.034348406,-0.17020448,-0.08596036,-0.08451189,-0.15057045,-0.061190292,0.030337047,-0.08432206,0.08671379,-0.16147095,0.03644726,0.039737664,0.0028517335,-0.08487611,0.07243334,-0.10824919,-0.1848631,-0.17335914,-0.116194405,-0.060607873,0.024305712,-0.06610758,-0.05763332,-0.15845057,-0.14878993,-0.058231838,0.06726321,-0.13415007,-0.0866839,-0.18081713,0.019313548,-0.18206987,-0.025841441,-0.015632706,0.028262256,-0.12222369,-0.18705021
-0.10163803,-0.042142615,0.040948406,-0.13868216,-0.1407221,-0.008485728,0.030079342,0.12659274,-0.09333791,-0.07048482,-0.11788284,-0.064059936,0.00030350615,0.10848647,-0.06689727,-0.12492557,-0.027313583,0.09480684,0.080501996,-0.04723568,0.043605734,-0.009400671,-0.13329378,0.07996613,0.09226963,-0.10499454,-0.010033608,-0.168817,-0.0933388,-0.12522048,-0.04124972,-0.093308985,0.041746777,0.10018731,-0.045348383,-0.077976204,0.057110805,0.04009985,-0.1518021,0.05639346,-0.1620021,0.06376006,-0.09360271,-0.03179275,-0.14457831,-0.14315648,0.041379116,0.032057468,-0.0053910413,-0.035757773,-0.11106161,0.07447849,-0.08820749,0.05647051,-0.17901553,0.073391266,0.10764911,-0.06893365,-0.009829732,-0.02932635,-0.05954379,0.11404115,0.06160582,0.020319821,0.006141085,-0.15371972,-0.02181144,-0.09406416,-0.077040985,-0.098090775,0.09986147,0.12672928,0.1149995,-0.022463258,0.09855087,0.13781413,0.11469996,-0.100848444,0.010070392,-0.06860331,-0.05671962,-0.02952513,-0.101424314,-0.08772874,0.07694721,-0.10661727,0.104735695,0.06850111,0.05545113,0.0747096,0.0885651,-0.074285895,0.048619222,0.06676336,-0.10206551,-0.11761761,-0.026224688,-0.021590745,-0.05036597,-0.11451974,0.10164778,0.006726282,0.07099208,-0.12073762,-0.0023427808,-0.07704486,0.08882867,-0.16620417,-0.039588872,-0.05610849,0.08048053,0.09419973,-0.15254119,-0.071218766,-0.03986786,-0.0990145,-0.10806543,-0.020930346,-0.08335494,-0.05246946,-0.091550894,-0.121047825,0.0652785,-0.07514342,0.02580227,-0.1500114,0.024893384,-0.060995143,-0.030353568,-0.12609078,-0.063424096,-0.09186306,0.061618004,-0.17478351,0.010711672,-0.09262489,-0.025919313,-0.0857733,-0.1575616,-0.11688385,-0.1007556,0.012586306,-0.18066224,-0.111417085,0.07990561,0.09156659,5.0096438e-05,0.047799915,-0.11676509,0.089435294,0.004595994,-0.04123164,0.013833037,-0.07260938,-0.009262265,-0.11027912,-0.13032456,-0.06222204,-0.09722815,0.06767958,-0.017727518,0.0468893,0.16707434,-0.041701227,0.13197608,0.07743466,-0.05139559,-0.109787874,0.013325832,-0.012016746,0.09405847,-0.11382293,0.08362789,-0.033124443,0.073807396,0.16220328,0.026406929,0.037034385,0.14429343,-0.032672644,-0.119206935,-0.010375461,0.062804446,-0.09199719,-0.039249025,-0.030405547,-0.027841046,0.09536953,0.05051465,0.16538297,0.076396756,-0.07828544
-0.16709058,-0.06626142,0.011749706,0.013999413,0.085555375,0.09768115,-0.049105875,-0.09976524,-0.11846822,-0.058728416,-0.044145834,-0.0006173465,-0.104652,-0.03314177,-0.11343929,-0.08202328,-0.038837463,0.1529872,0.020684239,0.09672108,-0.010165298,-0.08680556,0.13882314,0.06512087,-0.047666997,0.11954748,0.08285878,0.11056905,-0.0077592614,-0.15224607,-0.1377836,0.10983996,-0.021459917,-0.06479134,0.05498032,-0.06815822,-0.06583524,0.049411636,-0.028223677,-0.056317072,-0.009798555,-0.11051396,0.015328751,-0.09454405,0.06297143,-0.05397294,-0.05176267,0.039703015,0.0019254435,-0.030931428,-0.11402862,0.0561257,-0.13023773,0.11508419,-0.15978687,0.0038777376,-0.13347326,-0.155862,-0.06365476,-0.16432498,-0.12148044,0.08264172,-0.012396703,0.12736586,-0.08943861,0.04443846,-0.096741766,-0.13924366,-0.15586686,-0.051461093,-0.1117201,-0.12720919,0.114194304,-0.08738365,-0.041494858,0.11483594,0.10350889,-0.12476334,0.066881396,0.017610878,0.0037814782,0.08378409,0.10960941,-0.057879984,-0.07002691,0.07015974,-0.0127893025,-0.00044460432,-0.1620791,0.0002436437,-0.15866555,-0.14739078,-0.031292506,0.009114276,-0.14176343,-0.14114565,0.11537908,0.09257616,0.14030945,-0.052212246,-0.13247186,-0.093121134,0.08583245,-0.0008504721,-0.045654144,0.0044746073,-0.079445794,0.09917728,0.06810655,0.074421495,-0.1530749,0.03132306,-0.14761573,0.039979625,-0.14338507,-0.050531216,0.1179757,0.04569278,-0.10765556,0.055748887,-0.03183089,-0.14751104,0.09958224,-0.035381086,0.05039261,0.047208223,0.066992484,-0.17008092,0.04998069,-0.080037944,-0.053759675,-0.0066008763,-0.0825405,0.13485044,-0.17307958,-0.07669975,-0.050413147,-0.09766754,-0.13797331,-0.11555107,-0.0052574934,-0.02496209,-0.121531285,0.01357637,-0.061173495,-0.122571506,-0.022980105,0.10239347,-0.0576908,-0.16130625,0.07046507,-0.09200758,-0.08152854,-0.06551964,-0.043411665,0.09462974,-0.12511271,-0.04747533,-0.17999326,-0.11113326,0.013799323,-0.08897266,0.033042755,-0.02091291,0.012939773,0.053207282,0.07878006,-0.014307948,0.12619996,0.033401504,0.046071608,0.0060546575,0.0058363266,0.03399297,-0.032760832,0.002174503,-0.04206466,-0.070388645,-0.087296955,-0.09426869,-0.100132816,-0.052064087,0.06345995,0.13821693,0.062526375,0.09338879,0.0066508944,0.048289537,-0.056501925,0.13347448,-0.06361731,-0.009916541
-0.034655113,0.0960558,-0.04321945,0.14431995,0.052738626,0.004144754,0.091483615,0.012333101,-0.17639184,0.015923008,0.096899055,-0.12751444,-0.087846085,-0.07986606,-0.10120338,0.14518614,0.14347185,0.0078004794,-0.10136663,0.042129226,-0.035027083,0.03526349,-0.0019359463,0.038935512,0.039528474,-0.10597729,0.07577706,0.1502355,0.11787458,0.13453166,0.06710648,-0.080614544,0.13438657,-0.031147769,0.10241462,0.021774348,-0.014959076,-0.02789024,-0.036697783,0.042308282,-0.023701906,-0.049557984,0.08216409,-0.04395206,0.06667769,-0.008970052,0.0015474545,0.11770483,0.052464936,0.020123256,0.1294333,-0.10700988,0.09415282,0.104516834,0.01655305,0.058419917,-0.1285873,-0.08051526,-0.024266377,-0.13895282,-0.0757113,0.051778447,0.092455745,-0.061303187,-0.07988482,-0.10638306,0.08776871,0.030087806,0.079150856,0.095554605,-0.026037121,0.05570265,-0.0040144967,-0.004876013,0.10183768,0.02879296,0.023413926,-0.11059543,-0.10304655,0.099955276,0.06588261,0.0035647475,0.07648502,-0.12782332,0.041536998,0.11854137,0.06616203,0.020969762,-0.009178096,0.00070640375,0.090343945,-0.02575139,0.09925301,-0.07085189,0.15931764,0.019706802,0.06364576,0.050321065,0.16499528,0.14392729,0.06870493,0.113122836,0.14632298,0.09441052,0.138548,0.023919914,0.03874297,-0.10502356,-0.037072558,0.09445442,0.008324285,0.06055894,0.1419973,0.08672196,-0.14184386,-0.0791779,-0.043672085,-0.027527066,0.075755164,-0.026634824,0.033806648,-0.018838685,-0.10499546,0.13183782,0.007507878,0.07918153,-0.08478344,0.13882445,-0.023363868,-0.046162315,0.02813989,-0.027771695,-0.0666831,0.07689654,0.05356057,0.06437079,-0.105580084,0.01317691,-0.014347222,-0.09652597,0.040873997,-0.0631881,0.053257,-0.08834556,0.09325915,0.03804673,0.09141417,-0.09964543,-0.08476394,0.10532608,0.13201079,0.097340435,-0.11227102,0.023026148,-0.03094801,0.12685415,0.032366604,0.116305046,0.10792932,0.003187965,-0.030263584,-0.068988234,-0.036046766,-0.108347595,0.041980423,0.027650228,-0.068543494,0.04002091,0.014666384,0.06680456,0.094018675,0.0601486,-0.019614914,-0.05698458,-0.088542625,0.17371053,0.1745322,0.13756225,-0.05560888,0.07496338,0.087793484,-0.03997612,0.13308461,0.009350562,-0.06825947,-0.10210621,0.015398104,0.015818872,-0.042240422,0.13738076,0.13347976,0.058043905
0.026201569,-0.0967346,-0.0810245,0.110500515,-0.040017847,-0.16330582,-0.12910698,-0.018338963,0.034579884,0.09357316,0.069143824,-0.06980438,-0.073921524,-0.013449053,0.09150097,-0.16036046,-0.012360335,-0.043151125,0.14923629,-0.105634846,0.07555046,0.1121963,-0.022211565,-0.14719722,-0.14301929,0.048079394,-0.060368,-0.02009909,-0.005441036,-0.10605703,-0.16831383,-0.17169085,-0.10969796,0.040563356,-0.0734126,-0.1246404,-0.08789662,-0.051771767,-0.009168798,0.0041943304,-0.027151436,-0.09153652,-0.004334934,0.06292448,-0.10281144,-0.13388099,-0.02097389,-0.07851592,0.063905805,0.039688606,0.004343206,0.071948215,-0.14263858,-0.033591714,-0.08813908,0.03473,-0.007055992,-0.05500166,0.08358012,-0.10191003,0.027045976,-0.011874594,0.09357447,-0.035300337,-0.14572166,0.02198898,-0.038768813,-0.08279318,-0.1465434,0.032977503,0.0019134311,0.04121842,0.041925587,0.14229774,-0.050217267,0.025453702,0.08191642,0.14373301,0.11478761,-0.13238469,-0.11353814,-0.11151034,-0.07373263,-0.029045604,-0.10007076,-0.094991535,-0.09103919,-0.0014119215,-0.05342306,0.05044622,0.075557366,-0.08610201,0.12760533,-0.100745924,-0.078557536,0.06750039,0.021982836,-0.037528813,-0.10040087,-0.14480714,-0.11283865,0.06852033,-0.14795752,0.09910076,-0.08885437,0.011050819,-0.056876805,0.010045631,-0.04796808,-0.06281888,0.081995696,0.021948067,-0.16950233,-0.002092584,-0.08021441,0.011629381,-0.12182817,-0.1638884,-0.12261895,-0.06859879,0.01885211,-0.15700339,0.084868945,-0.0193609,-0.0835152,-0.16874714,-0.07223697,0.026588261,0.037777063,-0.15785518,0.08127455,0.046424698,-0.013343645,0.01812988,0.025398448,-0.1380799,-0.1835527,0.105247736,-0.008127632,-0.07064927,-0.16139305,0.02221737,0.10560956,-0.087001264,-0.1470769,0.07508379,-0.044729132,-0.06526563,-0.012452956,0.10008996,0.058039475,-0.06737723,0.042337112,-0.060236845,0.013674,0.12910908,-0.04763537,0.086269684,0.07031949,-0.023295095,-0.07552329,-0.061493482,-0.07668296,0.07246411,-0.09834594,0.14581692,0.086827286,-0.06495303,-0.072329186,0.09758063,-0.014278206,-0.13358566,-0.11685979,-0.041491404,-0.015565865,-0.11266231,-0.12481392,0.15183695,0.124035515,0.09485321,-0.063516475,0.100376144,0.04904393,0.03829851,0.12021394,-0.03235257,0.09129028,0.13492608,-0.09239127,0.061645467,0.16451158,0.11773274
0.07125417,0.020799141,-0.030359242,-0.10256916,0.040126435,-0.02394508,0.09701839,-0.0138150435,-0.09846573,0.13398495,0.032067515,0.13978267,0.067057066,-0.1059966,0.032722857,-0.02366976,-0.16586535,-0.01590191,-0.03735145,-0.1322969,0.066648595,-0.059540305,0.050185833,0.0056281225,-0.1303661,0.040379625,0.048987426,-0.031281292,0.11305528,-0.162929,-0.0073323483,0.013952597,-0.12609166,0.09816147,-0.06283996,-0.030314412,-0.15667963,-0.061887767,0.102573484,-0.106880665,-0.1438271,-0.03688183,-0.0839039,-0.07668949,-0.15405047,-0.09281436,-0.08786777,-0.13791354,0.079564355,-0.06524456,-0.11859396,-0.059227344,-0.014848771,-0.15742327,0.057484522,0.09536579,0.09169025,0.14462744,-0.041591384,0.14144942,-0.0071627004,-0.012388075,0.07215234,-0.069588415,0.05257782,-0.089763515,0.0106382985,-0.12404346,0.091421574,0.010745783,0.028049251,0.06380412,-0.038867105,0.03475654,0.0062055998,0.09128869,0.047849737,-0.09671374,-0.012036042,0.0030548836,-0.07163521,0.09052125,0.18018562,0.12145662,0.065788716,0.043819513,0.1716216,-0.03183541,0.0073188893,-0.08968347,0.062220685,-0.072785504,-0.049418703,0.07042261,0.15835223,0.10660866,-0.07537704,-0.0030458593,0.15756908,-0.0064476365,0.15325843,0.14800788,0.09010348,-0.04264363,0.05604646,-0.048610196,0.12964214,0.06736382,0.0058909785,-0.09082211,-0.07038445,0.0472844,0.02304968,0.14884672,-0.08765732,0.08726959,0.12608548,0.049686886,0.14887625,0.08387216,0.06882996,0.11175024,-0.04643113,-0.09805831,0.12957539,-0.10422062,0.12861635,-0.08839596,0.020420453,0.106277235,0.13159226,0.013151819,-0.007136895,0.05479048,0.0758197,-0.07226371,0.078170605,-0.02006809,0.17842044,-0.07363854,-0.0972182,0.00028327847,0.1420523,0.16577452,0.10557213,0.04795053,0.024935132,-0.10261481,0.14359036,0.023487596,-0.074423686,-0.07112539,0.053149305,-0.045702767,0.15783793,0.1519781,0.053918347,0.1751894,-0.036046386,-0.05054442,-0.042136356,-0.06746426,-0.09219848,-0.09639711,0.041292965,0.1619671,0.037777897,-0.009062272,-0.073741525,0.081799805,0.056946903,-0.086165756,0.005590843,-0.07118255,-0.025195971,-0.046214018,0.054689623,-0.055587627,-0.08036906,0.11392482,-0.023486292,0.12293756,0.0886536,0.14106023,-0.08908603,-0.0032608132,0.17992736,0.097096555,0.13331175,0.1614443,-0.060814455,-0.09114254
0.010573617,-0.10416184,0.08640213,-0.12937535,-0.055471588,0.09621557,0.14368461,0.0064129354,0.077357724,0.13402025,0.15876728,0.1612332,0.114819944,-0.06610688,0.06111244,-0.01945811,-0.008630215,-0.0023745196,0.035938285,0.08815673,0.010317828,-0.019644542,-0.037313946,0.086251244,-0.039810132,0.13712752,0.026708448,0.044996005,-0.08155201,0.082896814,0.027449701,0.106305294,-0.10130351,0.026569782,0.033570297,0.07138722,0.13041954,-0.09611704,-0.050419692,0.011447527,-0.04860533,0.09868282,0.12772228,-0.11579559,0.07370696,0.120788306,-0.027102556,0.0678315,0.14939685,-0.02168455,0.023017054,0.10832772,-0.02329768,-0.073080935,-0.11913041,0.12363308,0.09242861,-0.07630472,-0.043020025,0.08739463,0.06390169,0.10466752,-0.021326043,-0.12265757,0.010749013,0.006560666,0.062814675,-0.096610874,-0.066215225,-0.100249395,-0.016442657,-0.11564457,0.0457235,0.039453395,0.09304104,0.0937737,-0.002750414,-0.02884859,-0.016119583,-0.056312952,0.11754173,0.037735686,0.13834545,0.09097003,0.03223081,-0.04938564,0.063231386,-0.05508657,-0.023472466,0.06230957,-0.12991959,0.116156526,0.08029716,0.0031253372,0.122453004,-0.11753545,-0.087213054,-0.015988339,0.06422872,0.085840344,-0.033005,0.14977604,0.0008441918,0.18566246,0.07117719,0.070845924,0.084113605,0.05968081,0.056330327,0.16304682,-0.09046371,0.17586307,0.15624641,0.14831844,-0.030606477,0.048222736,-0.0043043336,0.15794988,0.061832283,-0.02417257,0.10947682,0.13588989,0.09804897,0.1488169,-0.042798873,-0.008138602,0.14835241,-0.029015232,0.06930478,0.0040066275,-0.020078504,-0.090783,-0.07538288,-0.019838411,-0.11405092,-0.007506494,0.11349399,0.028251054,0.06791954,0.10293128,0.024129262,0.114591464,-0.028781548,-0.005010262,-0.078685105,0.032012973,-0.048371274,0.1270915,-0.07158751,-0.058310244,-0.058716998,0.049535695,0.020127997,0.07753607,-0.015696276,-0.08276053,-0.03030246,0.08070098,0.01021142,-0.09403283,0.02404029,-0.03665281,-0.1241472,0.060313795,-0.12773865,0.093516976,-0.09496996,-0.058835607,0.0052449857,0.064932734,0.06302137,-0.093143724,0.08565238,0.0071448926,0.14682299,0.014378004,0.1624307,0.038299955,-0.053334963,0.15403943,0.06968668,0.094785064,0.09334305,0.012325054,-0.07391394,-0.062161133,-0.059972454,0.10051509,-0.0811617,0.019296136,0.16358656,0.09527514
0.106968865,-0.016305164,0.13393265,0.02460173,0.10261837,0.020091752,-0.07717876,-0.007038885,-0.08276163,0.13508286,-0.10238345,0.17057121,-0.08992162,-0.07666391,-0.057474498,0.08106372,0.11111398,-0.027499234,-0.07302549,0.08509254,-0.077691294,0.13705453,0.084240064,-0.028171059,0.06216414,-0.07006293,0.11652474,-0.07133021,-0.075654455,-0.09851006,-0.04640547,-0.021901453,-0.0883908,0.08068328,0.02019843,-0.040978152,-0.03000856,0.07502443,-0.02645695,0.0041988706,0.13179308,-0.04260291,0.15082274,-0.10447513,-0.07318355,-0.060933318,-0.112749845,-0.028065363,-0.025381027,-0.09290094,-0.10173271,-0.021863237,-0.118018605,0.032716177,-0.043942682,-0.02613298,0.116695434,0.06360116,0.158256,-0.028975325,-0.06594666,-0.07849886,-0.006237255,0.05170754,-0.05222195,0.12538514,0.015485119,-0.085723534,-0.031091921,0.030852802,-0.09225248,-0.13788176,-0.008293517,-0.066767454,-0.018617814,0.15303497,-0.011632215,0.00517358,0.083316185,0.16525716,0.019560644,0.0071312413,0.036955792,-0.036861718,0.00965354,-0.003978974,0.033229068,-0.07076185,0.07257982,-0.079889044,0.115079165,0.09761751,0.08642735,0.09959752,0.01791061,-0.080773175,-0.076938994,0.03177988,-0.085124284,-0.06826202,0.061279308,0.057832874,0.06608562,-0.009471102,-0.05780504,0.1374531,0.080529064,0.10126046,-0.017954491,-0.08782292,0.14555205,0.014174322,0.04601086,0.019142993,-0.05958706,-0.050700534,0.09757563,0.1604154,0.022000851,-0.057699196,0.0412138,0.051614996,0.013253955,0.12876222,0.10875905,0.16010463,0.054709997,0.09896032,-0.023519756,-0.10709777,-0.006820141,-0.11532662,0.16682722,-0.01733236,-0.038732383,-0.091396116,-0.058932498,0.090810604,-0.13720185,0.006638794,-0.06408316,0.022944689,0.067097135,-0.039784044,0.015355006,-0.023138054,-0.027040217,-0.03803908,-0.009452422,0.08734176,-0.014119105,0.08405033,0.085431054,0.036434576,-0.0522909,-0.07790078,0.15075208,-0.11143874,-0.09460963,-0.023213865,0.12960918,-0.13513133,-0.019253273,-0.046704166,0.023142695,-0.05962676,-0.050785977,0.12062838,-0.096420884,-0.095148094,0.18516968,0.14810275,0.09864085,0.09962412,0.0061741937,0.08262929,0.10998458,0.031371493,-0.00064510305,0.050743096,0.026168674,0.17744735,-0.07758892,-0.055163026,-0.09987435,-0.03799743,0.14153908,0.106924385,-0.092165306,0.13307436,0.12041928,-0.07416264
-0.02508002,0.087471575,-0.0005930756,-0.009974363,-0.043978166,-0.07953113,0.0019954748,-0.08388261,-0.059905488,0.10627309,0.041211266,0.07631776,0.07265946,0.089254394,0.033350136,0.08342354,0.017300818,-0.101852365,-0.07532638,-0.01786973,0.045132507,0.09500279,0.108550556,-0.07754344,-0.11117392,0.010013674,0.15497309,-0.011026061,0.12795213,0.094932415,-0.03165163,0.17236143,-0.060578655,-0.08917401,0.12814839,0.053654034,-0.050632156,0.07824528,-0.10262713,0.10919837,0.05137193,-0.013485274,0.00798167,0.04451105,0.098247334,0.021314872,-0.0534764,-0.099927306,0.08192904,0.0075881276,-0.06278128,0.02053166,0.006322751,-0.022742627,0.10162604,-0.045629773,0.1266571,0.1325421,0.15327774,-0.0067747687,0.11472783,-0.07655611,0.039889827,0.03541469,0.010546534,0.08616317,-0.10193981,0.089734085,0.009342857,-0.07518854,0.08505117,-0.07777921,0.018571187,0.026910609,0.100114934,0.0707931,-0.114311226,-0.0010430089,0.16089877,-0.016263546,0.023965515,-0.10174112,-0.08166101,-0.080598354,-0.0895877,-0.013984887,-0.04203332,0.024374772,-0.003914001,0.1602688,-0.12032639,0.058282934,0.13861029,-0.039665706,0.06397726,0.009347262,-0.040125906,0.09908144,0.14418855,0.0143848425,-0.034628693,0.135892,0.111509934,0.018636758,0.09819739,0.043765742,-0.05820074,0.03254458,-0.016794302,-0.13109246,-0.062093582,0.062121846,0.010475784,-0.0692985,-0.0701916,0.13166285,-0.09634319,-0.0025960456,0.01575392,-0.070938274,0.076588415,0.1549045,-0.09878707,0.07145932,-0.06481999,0.062625274,0.01536795,0.14169087,0.14358988,0.08105042,0.019122064,-0.025297046,-0.07952766,-0.095716655,-0.023762131,-0.06051061,-0.033234656,0.07240152,-0.078736894,-0.16886334,0.037657715,-0.044795126,-0.1396451,0.04992542,-0.031291414,0.012990958,0.058607027,-0.1016557,0.12022984,-0.115389325,0.061913665,0.07906383,0.03971604,0.11860681,0.1260078,0.12132061,-0.12590203,-0.14884542,-0.025633408,-0.082678385,-0.16561775,0.007433022,-0.006300568,-0.042576946,-0.039480492,-0.001959377,-0.055281613,0.11014204,0.022847645,-0.01651567,0.09277045,0.034215514,0.12316086,0.05726528,0.17565711,0.11189443,-0.00063423393,0.16910894,0.044810385,-0.025192622,0.027617192,-0.0026371768,0.012977854,0.035403136,0.18861477,0.16965565,0.09433422,-0.08097387,0.13696006,0.13317977,-0.07138165,0.04468682
-0.09622217,0.05774931,-0.023899969,0.101035915,-0.023911031,-0.15371932,0.02375173,0.14203466,-0.07797436,0.1658163,0.078941666,0.027855307,-0.0015330517,-0.0012606543,0.15196547,0.14334482,0.11635676,0.056808542,0.11988018,-0.0851203,0.1648628,-0.02248601,-0.04190222,0.09702229,-0.0012702516,0.121654585,0.10504179,0.083541565,0.1660751,0.09158697,0.091681525,0.09149108,0.05553447,-0.15042378,-0.11292255,-0.014160579,-0.071247235,0.012447006,0.05717949,-0.054354437,0.036833707,0.10027055,-0.09863996,-0.06413674,0.094756685,0.0038947975,-0.13186179,-0.14378454,0.0638451,-0.031637304,-0.10455277,0.12713847,0.029197618,-0.07634487,0.08338512,-0.11083251,0.0143381,-0.026554145,-0.15400591,0.05611134,-0.12002715,-0.119616315,0.07615956,-0.070568085,0.00087132707,-0.12775347,0.08289437,-0.14765075,-0.032874558,-0.046330415,-0.026687825,0.019265393,-0.065322146,-0.13235496,-0.029968286,-0.062050123,-0.12739207,0.09764451,-0.12513743,-0.09625473,-0.02598526,-0.060753707,0.027305162,0.024546567,0.080077104,0.107203454,-0.094374076,-0.13304238,-0.020350788,-0.122929454,-0.06618255,0.0047182757,0.017337123,0.09977923,0.00080987794,-0.12772988,0.021523586,-0.045678247,0.08568933,0.13525377,-0.058111563,0.13335648,-0.094044,0.044736896,-0.038287908,0.06788214,-0.09028334,-0.07006447,0.09162926,-0.03601676,0.1428202,0.14284179,0.15111181,-0.113053285,-0.13430034,0.10037109,-0.13131873,-0.12482142,-0.019116977,-0.009710191,0.090939306,-0.1315429,-0.09565466,-0.050400503,0.0309732,0.06720097,0.10614496,-0.13802248,0.012538921,-0.14276226,0.10070991,-0.052447498,0.04962179,0.015645003,-0.054433145,0.030230876,0.10533699,-0.09993097,-0.1657436,-0.10885628,-0.08169899,-0.08647189,-0.10728427,-0.04911173,0.109928675,-0.0427634,0.0908457,0.04176813,-0.07897237,0.05226081,-0.024684768,-0.15116748,-0.11826391,0.050419725,-0.08427313,-0.031187497,-0.008941961,0.060074884,-0.048950393,-0.08868649,0.16171587,-0.0005675008,0.09814966,0.16050309,-0.061963424,0.08539311,0.12662075,0.08126872,0.020990921,0.025214694,0.04300295,0.12752482,-0.050485276,0.0732969,0.13581136,-0.100789234,0.15468317,0.035158463,0.057797037,-0.022360545,-0.0014130092,0.0695563,-0.006985667,-0.14757004,0.010810726,0.038034957,-0.028479332,-0.12786695,0.042288814,0.06605603,-0.107229985,0.0828901
-0.078622416,-0.12810142,0.0010300804,-0.13855681,-0.13169573,0.05722913,0.13373962,-0.058376692,-0.11584307,0.06219165,0.08509146,0.113698356,-0.014151821,0.052787654,0.071778685,0.023857476,-0.041507285,-0.051151022,-0.07047049,0.034143485,0.048562028,0.0917791,0.061441064,-0.05547157,0.0691094,-0.02263275,0.056525994,0.07533078,-0.109809466,0.106919885,0.14336762,-0.104045406,-0.12828459,0.08614694,0.041533675,-0.056626085,-0.12638369,-0.01878764,0.022565546,-0.045163717,-0.10252716,-0.061199717,-0.0033013492,0.027481934,-0.04346279,-0.09059301,-0.13425568,-0.14350142,-0.13047135,-0.16472578,0.01419479,0.014835993,-0.08131311,-0.080035485,-0.048538998,-0.06863353,-0.1372816,-0.05702118,0.012207456,-0.13856457,0.1053549,0.1192305,0.055842,-0.16623788,-0.16989969,-0.028027724,-0.001460937,0.07528085,0.03173501,0.021746559,0.0017484319,-0.1306816,0.08873546,0.10340609,0.01694556,-0.07170245,-0.0817576,-0.1253737,-0.05729189,0.09209773,-0.032100845,0.006400272,0.031459454,0.116576895,0.06560671,0.17186436,0.056915563,0.0021982763,1.5329162e-05,0.17931902,0.1396052,0.15797189,0.103944555,-0.037996247,0.060814735,0.045683857,0.036019467,-0.0730515,-0.058281265,0.069906764,-0.09628884,-0.08749657,-0.06118141,0.08867835,0.06912164,0.16276364,0.1597905,0.010791917,0.1339528,-0.06262746,0.051741064,0.09099796,-0.10710376,-0.07929425,0.13998716,0.06308318,0.048334148,-0.105417155,-0.07328366,0.10077061,-0.10718564,-0.02436111,0.07469921,0.13613361,0.15633136,-0.090348944,0.12617427,-0.021690432,0.08870141,-0.079885505,-0.10805954,0.15334478,-0.070974484,-0.05433996,-0.016170194,-0.06305698,-0.12220063,0.05271688,-0.09632662,-0.10616679,0.091708116,-0.11346536,-0.041289397,0.15719557,-0.09983877,-0.06530351,0.050280154,0.02953069,-0.10482059,-0.09054725,0.023485232,0.14183982,0.09895296,0.022091359,-9.830203e-05,-0.022440715,0.008503863,0.10653592,0.042069048,-0.090655565,-0.1016594,0.07103939,-0.00782552,-0.059226602,0.12380334,0.11637513,0.18035832,-0.036052644,-0.10190507,0.048481382,0.05809982,0.09522739,-0.08744027,-0.0012003453,-0.050732236,0.08404524,0.05632036,0.06277193,-0.020851512,0.11566007,-0.08297248,-0.0753843,-0.072075695,0.18108575,0.13178146,0.07615714,0.0016364732,0.082283385,0.16031457,0.10196125,0.05743584,0.081805475
