-129,105,146,-73,178,18,9,164,-165,-9,-141,170,-163,55,78,133,166,-309,171,-74,-174,94,-243,-299,-290,-57,177,275,19,277,241,177,-213,282,203,28,-104,-260,-45,-231,39,0,83,-274,218,-40,209,-33,11,115,189,26,-109,-138,208,-168,20,141,-77,-113,9,-250,-96,52,226,-118,-67,-182,129,161,-286,-60,274,266,171,48,-164,-305,282,-2,126,107,297,-157,162,-242,-86,98,275,-255,-247,173,-98,-78,-228,-9,243,-50,-25,-219,-116,280,-182,3,-214,-23,-206,-106,133,278,-245,83,25,-233,3,6,-282,15,270,199,162,233,-192,237,172,66,-60,204,192,-46,-128,-219,-142,-144,-53,179,-192,8,11,-180,173,268,61,-65,-153,219,38,-175,-187,37,-62,102,259,91,-29,297,-146,53,91,-262,103,-219,-75,65,270,-57,97,142,-183,237,-236,174,-272,89,-160,4,272,290,-252,-95,9,204,-10,-210,88,-37,272,124,-216,51,-256,109
197,267,-92,-70,296,225,-146,-229,-39,-198,176,-188,-162,229,31,288,-251,-235,-195,-191,310,17,170,94,141,-170,200,-71,163,-69,-169,-120,163,137,-270,285,282,162,-196,-7,-216,157,137,-99,27,-122,-160,153,-37,107,-11,-179,161,61,109,-190,86,76,-51,-141,-42,-15,186,-200,-93,163,-54,-86,-209,0,-146,-70,-271,265,195,-207,-11,-201,179,135,-161,-229,-85,48,-179,-220,-154,153,143,-237,3,91,-261,-171,-109,230,47,-37,40,-292,-273,133,-144,49,95,294,42,-280,-227,157,-235,-106,106,279,248,228,98,-179,19,-135,22,-238,-184,-7,-80,-61,168,-308,-235,98,244,-170,173,-171,205,-169,-28,-158,-97,77,-86,-222,-265,-70,60,175,-133,-156,63,151,-214,-112,-254,207,-254,-278,-190,-273,190,289,241,-142,55,156,-109,234,-192,207,242,-280,34,-4,-214,-254,195,19,-114,174,6,202,142,-105,-181,124,233,-59,-253,-33,-118,-194,22,64
-186,-267,-75,156,-210,-4,-94,188,-280,98,-189,35,-173,-223,-202,16,146,51,-271,-149,247,-141,98,-220,-123,255,270,-3,-80,32,255,228,-112,-280,268,8,28,-63,-102,-178,166,-277,64,170,-194,-169,-143,-131,-141,77,-185,-217,193,-117,87,209,241,252,-139,-112,-10,77,-315,-211,-182,218,-111,-40,-222,-180,173,-94,-160,-186,-146,188,-204,-24,70,-185,186,-231,53,-212,56,260,-11,-198,-225,211,-94,-48,-63,-151,237,115,140,175,-173,178,-29,258,78,-177,-175,-88,-208,-223,-63,-12,-156,219,-101,-280,-126,109,-37,-250,51,-237,-107,-31,-100,69,-209,-188,75,-274,-91,276,-172,67,265,-152,-80,-116,-49,213,-121,131,-39,188,257,-278,-50,-7,-168,-147,-136,131,-259,122,83,271,123,-188,-88,263,14,271,92,13,-140,22,289,-200,51,227,256,-128,-191,163,-205,-195,-256,240,-279,44,-52,156,-101,147,-153,-136,-129,-54,-60,217,-147,-49,-219,-156
-270,-182,-79,154,101,277,-243,-178,-236,155,-194,-44,-42,173,-51,-282,1,180,-144,-62,-125,-199,190,-148,106,50,-250,145,-276,198,-276,-44,-224,58,-97,-210,-299,-80,-51,-172,142,58,27,119,132,-276,190,-117,-42,269,-162,146,-249,-23,120,223,-40,28,-86,154,13,161,172,170,-112,217,247,162,92,179,-85,-277,-225,-132,-124,43,135,-226,42,-205,-112,98,66,-126,-101,-184,27,-271,245,161,153,-38,189,-22,-68,79,-105,-142,90,-271,-295,115,116,158,129,-301,-77,192,157,108,140,-161,3,35,95,-158,-251,-248,-143,-20,186,236,200,81,-54,-271,60,-211,-238,-46,-168,-203,-93,-281,5,64,-183,226,29,236,-288,11,59,280,62,167,76,0,-253,-248,140,82,-251,11,-222,-104,-101,250,-262,-309,-192,-262,175,-157,23,-107,-27,195,-30,-183,-109,5,101,64,-166,-32,-196,-261,199,207,191,101,-74,159,-112,-249,272,-37,183,229,26,-220
-276,83,140,-169,35,144,-218,-102,220,-71,-283,217,-16,141,-84,134,-311,-291,-215,3,-265,64,-103,185,-224,224,96,68,-177,203,-48,14,-185,-100,-74,-138,-96,-112,-125,143,228,248,75,-197,4,69,103,232,242,-108,-56,57,-171,-157,-191,-127,-256,102,270,138,-289,76,274,-216,-237,-249,-112,239,102,-190,34,-175,-128,228,229,64,-196,-270,-177,-192,40,-200,163,-30,-237,-133,-17,128,116,262,92,-209,129,-116,-119,106,262,173,-158,179,-37,-278,109,-223,-37,163,-42,215,221,-67,-40,-82,-161,93,-80,-110,177,-161,132,104,99,46,-266,-270,-234,-54,-116,-112,-295,137,-218,148,186,-167,234,-204,187,210,234,77,-165,23,-4,-219,188,235,-17,147,224,104,154,-136,97,32,-190,-106,-199,-211,137,-119,-51,264,-121,-257,-8,-76,-119,-272,-163,120,199,197,-106,-197,183,-200,245,-225,-303,128,-68,-82,276,-108,-66,320,129,-155,-187,14,-206,27
4,116,-108,152,104,-93,179,-127,215,-65,78,-159,29,268,-185,-134,186,-238,153,2,-229,-140,-2,-247,-265,-147,-242,237,52,-256,-108,-131,114,282,-21,-134,69,231,42,-118,305,-22,264,-210,186,-138,-64,165,81,-220,158,-43,27,-287,-267,-28,-206,3,-129,214,158,108,46,70,63,-190,213,152,66,138,55,154,13,251,-38,2,-226,248,134,214,-46,116,-135,-135,55,-38,34,-191,-44,144,-222,-26,186,234,142,-165,-58,160,84,-68,-219,-186,89,-153,273,-5,252,194,20,74,157,43,-134,85,-260,-195,-19,319,-216,-167,171,9,-254,-21,247,-116,-261,138,-79,47,-153,-244,76,210,290,153,-77,171,266,36,0,-198,226,-138,96,136,71,-188,-224,122,-157,192,-170,304,102,-220,-165,12,-17,-27,141,256,120,-111,-112,78,-124,286,-199,266,-192,105,-205,-110,-266,-90,-278,103,120,-204,-131,-192,230,-23,219,203,17,187,-71,-31,-94,89
-242,249,43,-58,156,238,172,166,284,215,-2,67,195,100,152,205,-169,-266,216,250,-301,289,-173,253,139,-73,139,27,-139,-235,250,-159,222,-98,-231,9,154,211,-105,32,241,-264,49,157,-41,-86,290,133,19,115,-317,265,-266,148,-227,138,-199,35,-121,104,102,79,131,-42,-263,113,-182,240,122,-70,128,-248,84,-54,-70,-219,-60,-164,-214,-27,-80,209,-135,-17,45,177,144,68,2,-89,-249,-100,258,-225,-201,109,-239,-104,-140,270,207,48,-42,-100,-267,224,-271,-190,-40,292,-290,-230,105,231,80,1,221,272,-189,262,-200,235,245,34,-251,-89,151,256,250,226,-2,-238,-75,129,-62,-155,-42,58,126,-235,-51,-210,-213,150,111,-2,212,-170,-321,140,-222,76,-291,200,-124,33,72,-157,77,248,-95,-198,246,-61,190,-9,-58,-315,135,-253,-263,14,-174,-6,-252,-133,10,-188,173,159,-58,202,227,-58,-55,178,-17,105,-264,-232,-300,-18
-226,161,-60,12,184,-287,258,7,271,-127,-114,-15,-144,-154,53,-187,208,92,203,214,48,-70,-171,90,-242,-5,218,221,-50,-251,-198,116,-98,170,-72,-51,211,70,-266,111,178,103,50,-29,-197,241,-235,75,148,221,246,189,123,-297,-94,-102,-297,144,-130,-152,-147,43,44,-167,294,104,5,-231,-23,-197,91,46,-272,-133,-201,24,-194,134,-90,7,268,151,201,182,59,-10,-64,-72,-140,-119,259,-241,-84,282,219,180,-229,-76,13,-114,-284,238,194,257,217,-20,6,-256,282,3,-102,-31,-222,-78,-106,227,-151,-99,-91,-277,216,-223,144,-283,-81,-191,210,-124,3,-62,-186,193,49,73,-183,-206,11,-26,280,-81,-139,253,-45,216,-152,275,239,223,-209,-87,5,-213,-220,-159,-37,135,234,-298,-101,265,224,-42,227,-130,55,-186,127,-191,268,143,144,145,-306,-267,-255,-262,264,-17,-231,5,47,14,158,-74,-56,-78,-234,38,51,-105,-309,240
-61,-249,-260,283,189,-169,280,-155,-105,-244,193,208,-268,221,-100,-129,280,219,74,-153,-4,177,-251,-148,284,-139,252,100,118,238,-11,-224,-156,-110,-9,-125,282,173,-283,-43,-205,51,-15,161,15,225,3,133,-22,277,47,160,189,122,47,104,-52,-165,237,-97,113,147,-71,-284,147,121,168,130,275,-48,9,-293,233,111,-132,262,-195,-154,228,-117,275,-163,73,-32,86,-27,43,330,-31,260,85,-226,187,160,-140,203,139,252,141,-211,23,-3,19,-81,-47,246,182,-86,277,-211,134,43,-16,293,61,-218,-218,-32,106,91,-188,-47,169,275,-27,-94,226,-130,79,-240,168,260,16,-32,235,75,-132,-109,-97,-63,276,-205,-251,43,-152,185,-205,-127,235,-193,186,191,-124,-161,-89,47,-145,228,-35,42,-290,129,87,-120,67,132,-163,125,-116,-73,-255,55,140,-112,69,-268,99,-95,-267,-40,233,-255,223,158,-166,-115,253,175,-179,208,2,-131
264,-133,-135,264,229,15,136,-249,-3,233,-263,-105,-245,-64,73,-18,168,-128,160,-182,-303,191,274,208,-152,-72,138,-111,-34,187,-142,-220,3,241,-19,-3,-178,-271,-113,12,150,73,105,-178,-144,-133,-58,154,-264,148,-264,281,-249,-32,9,-161,-113,-271,215,-30,119,-38,-176,-299,76,-190,181,68,-104,-92,-140,33,41,49,-19,204,-215,254,250,276,110,240,78,191,-277,170,70,207,215,-37,268,-86,215,-73,-72,244,243,-91,-285,-69,-68,162,268,258,106,-8,150,178,72,259,162,-250,-172,-243,-128,133,142,-280,-211,-213,92,28,-12,-25,166,120,-109,86,185,26,27,83,-188,-13,-134,241,-52,4,-278,9,69,-289,-201,84,-216,-210,12,20,128,-220,115,201,27,-14,-24,-134,37,175,115,-194,34,252,-291,-103,-90,159,139,-200,-262,262,18,50,270,214,-39,53,189,167,193,271,247,268,-23,-34,45,201,75,-207,-275,-234,-177,38
-186,287,-102,99,50,-194,-234,-107,-75,-283,-12,-140,90,-160,18,-116,-68,-191,189,-268,224,5,-48,-133,259,-151,-117,244,-215,-165,128,55,-261,196,298,-287,-120,87,234,-301,21,-274,151,-99,-137,140,214,135,-71,274,-263,-242,-148,235,-70,92,-84,-156,-37,59,-159,-115,-3,187,-245,-274,50,49,-56,229,-13,225,-184,-299,-85,-30,-50,-125,235,66,211,-150,-190,43,-133,175,-5,-195,271,247,-227,-287,-198,-184,187,-154,258,20,-116,176,30,218,-69,-86,123,-201,-65,-117,-213,-69,50,82,171,105,194,74,227,151,113,99,122,232,-181,88,-129,-17,-74,156,83,212,-123,-265,189,225,161,89,271,285,74,209,-190,-94,-37,-313,-239,116,18,-156,212,-88,-191,-264,-159,-189,53,2,154,-164,248,95,-191,180,215,208,-32,129,16,247,146,27,-266,34,110,77,-307,-179,124,-278,83,-17,194,192,130,179,12,11,30,206,190,-306,-186,-13
210,-203,59,-167,-26,88,44,156,264,164,-17,125,-264,-153,311,-135,78,168,135,222,130,261,-178,-103,107,-30,12,-75,-98,-217,-123,-30,-102,-240,57,172,-292,-168,72,-201,-138,112,-61,-218,70,-101,241,148,-1,-165,-38,-198,131,271,240,264,-47,-89,307,-193,17,83,-210,-90,55,186,118,97,-97,-249,-275,-152,-198,-4,151,203,24,143,173,251,263,206,-43,211,98,-32,-139,-137,137,32,-4,-227,-69,213,205,11,95,65,11,268,-154,153,-308,139,-71,18,-273,30,179,-141,-30,232,136,-229,133,217,273,-7,135,-63,-47,147,193,-36,188,173,278,78,-258,-264,233,-82,-187,-215,141,-248,19,284,-103,276,64,-165,-47,35,131,106,-37,-81,-69,152,54,259,1,106,-118,292,56,-208,242,238,277,-84,-30,-61,196,214,110,-245,238,262,106,-147,-86,-209,-138,-73,24,-269,178,85,128,272,23,54,94,-175,-188,20,66,285,-271,184
72,288,261,262,-135,279,54,267,-197,218,7,156,137,-166,-202,-249,-159,195,262,259,-30,-19,-173,299,245,72,69,-289,-197,-241,72,-131,7,-145,216,216,16,33,-212,113,-4,94,193,-125,-217,-48,-74,239,15,99,198,-217,-132,244,2,-107,132,-130,307,-306,-80,-242,-223,-182,-5,-21,221,-56,261,136,98,-192,-163,84,233,-198,302,156,-75,-99,-145,-272,191,-178,149,111,-65,42,226,282,-21,143,77,-86,-92,178,118,174,70,166,237,68,73,-145,31,171,-92,31,171,-48,-59,91,74,19,-163,98,-153,-31,-8,-143,293,213,221,-175,124,102,265,-203,-22,-165,173,-49,-40,-136,-267,121,127,-78,-8,-170,-179,-73,67,104,122,-34,-40,210,-25,-121,131,38,79,208,36,-22,-99,230,-211,-65,89,238,235,223,-219,108,102,-18,-14,-314,-225,141,259,299,57,-197,50,164,304,96,294,-245,262,184,128,-94,316,-219,-100,94,-210,-122
-158,192,120,-72,156,-68,-47,-255,184,-46,-235,-41,-31,-143,80,17,202,-107,285,-246,-20,-60,-179,-42,133,130,47,230,-267,71,-259,121,73,-162,-149,-190,140,-36,-113,-100,290,215,9,12,-160,-160,-192,179,142,-256,313,2,102,-231,-69,40,153,-211,-140,-49,-20,20,-49,229,143,-181,192,-261,-30,-295,256,250,-105,-51,-154,-278,-92,-1,-30,241,-271,-112,253,-1,-266,-252,-210,-88,-281,24,71,42,76,-127,141,100,254,-211,-254,274,266,197,-121,-38,212,140,163,91,21,-203,165,94,39,22,-241,145,75,91,-242,-50,-4,51,-7,-290,77,-168,174,-95,119,-49,-175,-65,229,-84,190,-285,270,255,-166,-84,292,171,182,183,302,-286,-101,-262,-56,0,-41,160,-282,-154,-187,30,-107,172,206,-102,-281,-77,-111,-107,-157,298,-187,28,86,172,-213,-57,-231,-180,-97,291,48,29,50,146,-13,-213,-271,169,244,169,192,-20,160,-57,-44,117
-119,141,-143,203,-56,265,59,107,253,162,-110,124,149,-58,-199,-158,164,61,243,-185,-290,-6,254,178,2,-277,180,-286,29,113,-170,-106,-98,73,-57,-106,-184,-171,-159,263,0,-63,-96,-243,-58,-189,-59,58,268,234,248,-161,-222,-195,-134,217,-21,-26,-35,188,-132,-131,282,-212,242,-133,-290,-139,234,-60,105,-200,228,253,243,232,100,-212,236,33,-265,122,235,-280,-279,-209,-75,218,252,-9,-91,143,-265,-23,191,124,109,-92,-93,-272,159,110,15,126,-303,-103,-258,83,-148,117,-196,137,-39,-297,222,112,-251,-31,-173,249,217,123,-284,167,-281,247,-216,-85,69,-30,191,-275,-69,-287,38,-190,78,255,57,15,168,-212,143,135,-273,135,-66,169,-152,210,113,57,79,223,-237,-174,10,153,15,-106,79,-213,-101,-46,-88,154,263,243,-7,-248,-282,-125,64,240,74,274,44,7,-303,119,101,186,15,260,-155,-280,111,249,-230,148,266,95
23,-181,-136,30,198,152,-219,-105,-12,259,102,200,-20,151,156,150,96,-149,-241,-165,-211,-82,-64,-230,47,-77,-109,-288,165,-214,-5,-226,257,198,-223,-20,-1,14,255,23,229,-59,-27,78,-64,44,-29,-224,199,191,154,-106,-254,84,-268,-120,-13,19,305,-109,-130,-157,-173,-265,-202,186,-201,51,-143,93,-245,-281,73,84,53,-107,-81,186,256,57,-14,-74,-43,-51,115,-180,250,152,-216,-149,45,116,243,-90,216,251,179,-58,-174,241,-202,225,30,248,63,-165,-163,68,-69,-85,-71,-79,150,39,275,228,165,-190,96,30,233,137,-38,228,-119,-67,67,186,23,101,252,-140,244,115,-56,-214,-119,203,51,-8,-278,-308,0,-138,240,28,31,187,135,-147,-262,-242,202,-197,165,169,37,31,-39,-175,77,251,-91,-32,52,10,-268,0,-146,-196,73,42,-57,-7,-271,227,204,-105,-17,-34,62,-96,-33,-194,0,99,51,212,-116,189,263,270
38,-71,-145,-157,-100,-136,64,146,15,128,124,-60,-199,160,112,278,-192,161,3,165,79,156,206,-221,-94,-222,168,88,-5,-156,117,196,-83,-247,-260,-106,-140,-20,-16,123,130,-14,-192,-126,61,-238,-149,12,-33,-180,-251,238,-294,-95,277,-120,-266,21,19,101,128,-66,48,123,-278,-279,51,-195,-304,-276,-125,190,-277,97,-36,161,59,232,158,-123,-37,227,20,-7,-41,221,-67,211,277,274,-10,11,-302,83,-263,147,-212,88,222,142,-168,-35,-172,182,19,-258,272,103,36,-111,-49,-141,162,54,-265,4,-78,-173,198,274,-208,20,-145,-130,-312,219,114,-167,154,98,-238,-245,-207,203,-57,111,-204,-101,-171,85,15,13,82,161,87,-205,-47,45,-250,-221,-172,53,261,112,-186,115,-19,-290,-90,2,41,-66,155,168,35,227,27,-9,158,110,7,-100,244,145,254,-104,56,-257,107,-80,-61,52,-130,-146,-285,74,128,132,-184,-70,248,-144
74,-83,190,142,-285,-208,151,-130,215,86,-191,274,-38,-251,9,180,107,-57,-11,132,-258,16,19,-286,-171,-95,239,-187,-83,131,-223,-126,229,-264,-303,-261,176,-141,-187,65,48,-123,-55,-19,48,165,-33,301,163,116,46,239,-137,269,8,290,-211,5,144,222,303,-266,264,10,-279,-221,243,-223,-158,-7,-83,-61,186,110,189,159,135,279,-97,-288,212,163,140,185,-207,-158,-303,-189,-104,294,93,-275,-167,195,-71,199,-31,-214,-183,-46,-13,-29,22,69,82,-292,-220,169,131,99,219,68,25,222,48,-203,168,118,-179,-177,98,100,117,129,233,66,194,232,-37,170,34,-42,245,-199,181,-171,-26,8,24,-207,-263,-143,-27,-259,-73,123,159,130,-62,-15,173,218,135,-6,113,5,63,234,140,249,86,220,-167,-231,-292,69,145,12,-158,110,-128,167,-48,66,-120,-17,259,198,-206,54,224,-268,15,173,44,-190,-127,-202,23,-195,10,-147
75,274,16,-283,-2,-178,-106,-6,180,-192,250,-178,-186,-68,24,217,-88,132,298,-45,-115,244,-37,127,9,-199,-84,-35,-26,101,-188,51,-23,76,-24,-258,206,253,178,0,-181,-66,185,-235,31,222,56,-211,-179,141,-143,-122,16,-76,255,213,274,4,-6,8,214,14,-138,145,-161,173,281,-171,-172,309,-265,-177,220,-18,-146,-58,187,81,131,72,38,-284,-218,135,-71,77,-180,22,291,-51,-186,-188,41,89,7,-204,248,169,-103,-186,206,290,294,-175,76,243,60,-240,132,-127,-208,-112,5,-152,302,222,-165,-243,191,36,227,-292,-175,52,291,224,-202,-119,189,212,187,197,-138,-226,-235,153,14,110,-143,-211,-71,122,-83,-145,191,232,35,-42,-100,-220,223,177,267,-109,6,68,291,235,46,-72,160,153,-137,-190,255,-287,-193,228,-29,93,-45,-28,72,-22,-89,-199,47,-182,-145,-248,-134,82,-197,310,91,128,278,5,-163,144,-273,43
17,142,-14,46,-119,284,-265,-47,253,-206,-234,-121,-135,164,112,-113,78,-115,-74,-155,-177,231,-188,-127,20,-224,74,200,-29,116,245,-187,76,-84,148,-32,-266,-193,32,-134,97,-84,-17,-17,-154,182,-106,-201,215,-11,10,-50,-174,207,-54,260,151,69,210,-73,-164,143,-54,69,-5,286,22,256,160,-125,-130,-249,25,7,304,-227,49,265,-221,-47,-41,-211,-14,6,-140,-212,227,-244,283,18,-123,-97,124,183,-63,-157,155,129,-152,-73,-294,134,78,102,293,246,260,3,276,-197,-243,-151,-33,-221,44,165,49,236,60,-116,-191,-59,149,255,-267,-171,270,138,12,-24,28,-35,122,140,234,-66,247,-88,-66,105,206,-113,-174,203,190,60,-174,-47,262,-180,279,233,7,118,-180,124,281,-50,206,-170,-241,9,254,280,-195,87,50,-230,-56,-186,94,58,-165,140,36,163,260,-237,155,26,211,218,-149,168,-150,-205,313,-92,277,-110,-239,275
-316,-101,94,115,65,238,66,-129,-244,-183,179,65,-35,263,-297,205,130,-118,-7,-38,-274,-262,-84,111,-100,44,201,99,-251,12,166,171,-112,-265,-127,124,119,53,215,57,291,-208,-39,-195,-282,255,99,-252,-230,-265,-46,-163,-185,-221,-268,44,134,-308,-55,140,-142,226,307,-272,-111,-80,132,25,-211,-13,-145,-93,-256,-52,-279,-116,-210,4,-214,15,65,147,46,272,181,183,-39,-92,-172,78,-52,234,-247,-283,-179,-255,-159,79,-153,97,-16,-173,-281,-146,174,86,185,195,80,-168,-208,-107,108,144,-109,240,-220,-213,-40,50,118,83,-215,-78,290,10,112,-1,-21,-110,56,6,101,269,-41,-201,43,-152,-39,236,-219,-14,-16,-135,-173,196,-301,-249,34,175,-59,-211,-84,-233,-90,216,-88,206,-52,5,-117,-231,113,-282,40,104,40,70,-157,-1,-62,229,96,143,-100,-156,30,-19,137,-194,-253,-33,28,-66,40,162,-128,-193,132,-60,-184,-278
23,251,-23,-3,81,174,-278,-238,286,-78,26,99,-131,309,16,194,-288,-276,163,202,88,-92,95,98,-77,-3,2,-120,212,77,303,287,5,95,-31,12,253,-101,-113,41,291,116,-290,-273,72,61,184,-58,-236,75,-273,223,-28,178,-129,186,178,18,-116,40,263,131,-200,-296,-252,-13,-262,130,149,184,30,273,71,237,4,110,157,-184,-121,-256,-159,-242,92,277,-87,-181,229,-191,50,-291,-189,2,285,208,-33,195,98,-78,10,236,-296,3,-197,128,-130,108,-14,-86,118,32,215,277,-39,33,-175,261,-22,-22,81,-32,-180,-50,-130,252,-206,-190,-208,264,-188,-248,-216,271,-10,-107,-83,180,111,111,210,-256,-216,-116,293,-10,-292,252,-61,69,28,198,-149,95,-199,-75,239,87,249,-15,-33,176,-163,142,-125,-226,-30,-136,286,241,-49,-256,86,267,112,-252,-211,239,-3,-6,249,305,-198,-58,-229,-266,240,-273,177,230,238,272,99,256
-302,-71,-53,183,74,-187,-251,-269,145,-83,-224,-78,-242,-209,37,275,-143,232,230,203,-225,24,-18,107,129,193,183,70,-23,272,-61,-151,158,-179,162,73,-146,96,217,-124,-277,276,53,267,-164,36,203,-125,-247,-111,-258,-51,18,-189,96,-51,199,-240,184,-245,167,-192,-115,-183,-97,-129,-215,-140,-117,126,-80,-58,-6,108,2,235,138,-41,178,-151,-53,255,-268,262,2,-210,140,-49,-273,-121,238,75,113,272,-222,-35,-133,14,-144,273,-62,209,245,230,-51,-287,-70,-257,-166,-62,254,-47,-199,-272,205,-108,245,-95,-155,37,158,243,230,79,130,12,-239,-35,-220,190,232,-205,-177,2,175,95,62,-213,236,84,254,-43,27,71,-228,9,-32,135,-202,-315,253,254,252,97,-21,-95,-298,-309,-213,-297,111,-159,-177,239,147,-31,-194,-127,-259,-27,-205,-99,-151,-136,271,101,-47,-308,-137,-302,-239,205,224,112,-266,-13,90,-100,208,245,-75,54
214,-39,148,-174,197,-148,-196,294,-20,312,-1,230,113,-164,-308,58,132,177,-175,-248,64,29,-101,264,134,205,153,171,-123,-4,292,-167,-188,-99,-111,80,167,-299,-79,66,233,-227,-64,16,272,97,-253,-42,-145,227,186,220,31,-66,-210,74,-231,-74,150,46,-249,38,114,272,-217,215,-287,-121,-2,231,38,-110,-248,-261,24,146,-266,160,-61,-193,-76,74,20,-223,-203,-35,-291,94,-51,213,-122,43,168,11,113,23,95,61,161,74,-25,-177,-143,-104,-184,-222,-175,95,124,-140,112,-92,-199,43,105,-275,61,-10,-43,-225,246,-174,-225,57,56,131,-77,23,-118,-143,-59,-161,-181,-50,-214,55,146,212,-236,-235,98,190,-37,-81,237,273,171,-78,184,187,-228,-57,-75,111,140,-140,-182,-259,200,-80,-28,246,53,129,214,103,-289,182,68,65,219,-296,40,-50,233,159,250,-305,-174,-44,188,-87,-99,46,-239,-239,163,213,206,147,-31,247
144,-116,-228,-213,-131,-286,63,-184,-199,-157,-138,-69,218,-56,46,109,-263,210,258,10,-81,131,-161,244,-248,36,207,257,-21,212,134,-78,266,45,257,127,239,-254,240,148,-54,80,-232,201,-235,-78,239,-274,29,153,-237,47,-183,-98,147,-162,-18,-132,268,-169,222,65,145,26,-253,203,-185,-148,-231,68,30,-122,-163,-120,-129,43,-71,125,-61,72,-98,-171,100,73,-61,205,-52,225,-96,295,-167,18,113,-294,-37,-148,167,315,-103,57,-213,85,-146,-155,-257,-61,-7,-58,-94,13,190,-240,-173,-132,167,124,-260,-82,-15,-232,238,167,-119,-38,173,151,63,254,-197,254,206,-77,45,-170,-235,-128,168,134,40,201,318,126,278,-217,-166,189,219,-35,215,54,-201,-101,-246,223,-104,95,73,44,178,-70,-150,19,314,167,138,29,104,103,270,186,197,148,-157,-73,232,169,-262,-50,29,9,-65,78,-80,34,-136,-44,-23,-251,-268,-63,255,-147
-86,44,217,-161,-116,113,225,152,71,-80,2,-139,135,-78,-280,74,-283,-105,9,-155,90,-84,-196,-179,4,27,-199,60,162,-131,-67,112,-34,273,-207,-131,40,134,131,-185,104,-219,-7,-44,-63,-200,85,-134,177,201,235,-209,175,-78,-273,156,139,245,-17,-76,152,159,-51,219,-112,207,-123,88,73,-78,107,-235,-285,-173,-143,-48,-180,-23,170,-163,286,-212,-101,-69,42,191,255,174,182,52,-194,-120,-270,-54,81,-215,132,-13,244,9,46,-80,-151,248,48,-99,86,-150,-263,223,-286,-327,147,146,183,-85,-14,232,-187,-172,170,-9,-184,-118,173,-299,-273,-217,5,-138,-51,67,-158,-35,67,-157,11,-123,-27,-197,-228,-193,285,143,17,183,274,-178,52,-229,45,105,-143,-226,142,-61,69,157,185,69,276,-16,30,293,98,-279,11,-116,-165,-174,116,-60,-155,192,14,53,83,173,41,155,-110,-307,70,259,-127,114,-265,205,-16,255,207,184
120,-199,63,-102,45,2,-229,282,190,-45,232,239,-128,107,-107,112,-161,127,32,-273,-226,-271,110,-130,78,-53,-39,15,-93,-281,-270,-286,16,-179,-206,126,-232,-170,115,70,287,-10,180,-228,262,1,-92,67,-102,-183,-43,307,-184,-41,245,-245,-238,-164,-79,30,-81,174,-237,-96,278,150,169,234,142,-3,276,283,175,19,-267,209,200,84,-277,278,275,36,-75,133,-137,143,-223,22,-302,-61,267,246,-122,232,-4,-16,97,289,205,91,89,176,204,117,190,-6,-68,159,-206,-234,153,58,-282,-119,-217,-244,151,-179,-293,-134,-43,62,-4,21,29,-207,65,-65,26,-66,311,-74,52,-187,-54,246,-167,240,212,-67,-267,72,249,-94,-201,116,-258,-1,156,-269,-288,-28,-91,46,145,69,220,161,-282,-130,63,102,112,-126,187,28,73,137,83,211,-84,199,105,-248,257,-86,-259,-103,193,-155,227,-145,-39,-191,-118,124,-213,-150,-277,43,172,227
303,-31,-119,38,-62,1,-27,-264,35,-179,265,-94,-298,46,147,-131,-64,-280,-125,171,-203,-298,-70,199,-216,225,-286,160,148,-28,105,-234,4,200,119,-254,-22,-187,200,56,-200,-228,200,63,-287,146,-240,55,-23,-177,-51,60,245,116,-8,32,170,81,235,-50,-81,194,201,-18,-303,-315,-211,73,-221,166,255,118,284,224,234,263,261,-254,258,-310,-162,-75,-178,261,7,144,144,256,-264,87,-144,141,-211,-40,-297,196,63,-138,86,-154,172,-14,220,180,-154,-105,-36,84,105,-275,-213,79,207,-22,-84,-211,-72,-230,57,-202,68,-230,-211,218,264,89,4,-267,191,72,219,288,43,-51,136,272,-110,254,-283,-273,-1,-179,195,-225,-127,-75,257,99,27,-161,44,12,180,252,53,235,-106,-148,196,65,-27,-34,284,-191,-269,-200,80,7,-159,-175,-41,-151,283,206,234,43,-280,21,-122,-164,56,-245,-272,31,209,-5,109,-11,-184,-256,-33,172
41,-177,270,-183,-235,-135,-82,-265,-7,-36,-141,-121,274,-251,-111,214,209,277,-124,-200,226,-99,-191,76,-72,-268,141,-50,104,2,185,115,-236,113,-234,-149,138,262,-18,238,149,-227,-118,-140,-133,-77,-269,-11,-63,8,73,236,-96,-50,144,-172,106,-298,65,273,-44,-166,-255,200,281,36,-182,165,145,124,-128,-153,37,67,79,-240,-81,-71,255,-36,51,-121,-305,82,272,175,-60,186,-24,-146,207,-30,-248,238,292,-92,80,0,20,85,-251,45,-73,-241,254,-166,35,52,-43,-53,-257,68,-114,-282,-96,213,-219,252,-172,49,12,-186,128,-10,17,146,-292,152,-113,249,156,-174,59,-195,243,180,201,259,59,-173,-182,30,-56,155,154,106,-5,219,-265,191,220,109,-262,-191,-131,-188,182,-148,207,230,-206,159,167,243,-253,99,29,-242,95,30,51,204,15,-287,254,217,280,289,48,286,222,-291,71,-174,-117,-266,-117,137,-100,-190,78,-117
-43,201,-60,-243,-66,210,125,7,-186,127,194,295,-31,41,-77,6,248,-133,265,-54,227,-10,-209,21,72,-291,273,-98,-192,-102,-84,-86,-35,214,267,-148,185,-231,139,-83,-266,-24,286,101,102,230,199,-190,-7,16,-265,-8,-167,-162,-140,170,33,-144,103,-221,-34,227,-160,20,-290,-131,120,-241,114,117,196,218,44,63,-298,137,-47,209,-52,-231,269,124,-172,-275,231,-9,105,39,-162,253,171,63,62,56,-95,-51,295,182,-202,114,-186,-140,-245,186,-41,125,-188,117,-72,239,196,-144,130,-157,-70,-91,99,-2,-262,-200,41,97,52,-162,-251,236,154,-47,152,217,-64,-300,-157,-226,155,-102,-195,78,101,7,220,-199,-80,-109,106,59,294,-114,147,209,-122,185,14,-179,-217,-158,-225,-259,8,135,210,260,-253,-61,16,-65,-99,-91,-239,-178,-67,124,-154,-90,47,285,-138,129,-270,-216,-228,225,-33,-97,-202,127,-150,31,306,-83,28,-282
-275,184,-70,-52,258,216,-3,188,285,-263,260,-194,198,-29,168,209,-45,-274,-275,-225,-239,34,-162,-226,265,-272,111,133,48,-145,-102,-64,-23,220,305,-210,107,149,64,58,289,168,-268,208,115,-158,-211,-45,-14,210,5,-82,-243,196,-154,61,276,-295,-146,216,-281,11,305,25,113,96,-243,0,-252,176,-279,-94,107,-35,-206,-261,230,-271,45,-60,83,-260,126,-66,-20,-183,-204,-132,116,246,-45,-6,114,37,39,-100,20,117,-19,116,-27,84,-104,211,-158,71,-252,27,-179,251,-84,175,123,85,-21,-221,111,-249,214,-258,70,-75,273,-123,-236,-78,-3,-233,97,-145,52,-178,30,147,3,265,-87,-92,94,148,-195,-121,-26,-17,209,-91,-6,293,251,222,-219,-168,53,247,249,-277,186,259,-219,20,13,-44,210,231,196,-96,-282,306,-174,-170,-193,116,-228,311,-30,204,-272,287,-68,-100,58,7,-178,206,-2,-208,279,169,-56,-241,-7,-216
-158,130,-260,95,-151,-15,20,286,255,-88,168,243,36,-16,-1,-205,-34,-268,294,54,-114,47,97,111,-103,-79,238,-221,60,-33,309,135,5,-124,132,-215,259,184,-13,-14,-155,-195,29,-273,230,274,176,174,-153,92,227,-179,152,-177,219,-246,-6,-117,182,222,237,130,-131,52,-182,172,-36,287,279,10,38,195,-66,218,278,-233,245,273,-71,166,-136,-27,286,-108,-104,209,108,-134,205,-244,70,170,198,-158,-303,259,-30,-106,-115,-189,-220,154,0,-220,-9,160,87,223,-10,-252,-226,-43,113,73,-65,-242,-170,242,279,136,-149,-229,-217,-199,11,-20,-81,-54,-115,156,-137,-198,-26,297,29,185,-172,-274,179,-158,-6,197,110,191,-225,-33,-94,220,-80,-77,-197,55,214,-97,-88,-132,-5,-187,77,258,-119,249,115,-122,228,219,28,-100,-273,-119,232,-58,-37,-174,182,90,36,190,-238,-286,75,-8,280,-120,-7,-85,-224,8,-146,67,-225,-275
157,78,217,-61,-255,-91,189,59,-169,0,6,-39,40,221,-277,140,232,-272,72,206,46,-163,-210,-81,159,173,197,182,-213,-178,-239,84,-110,-82,201,0,-58,-151,271,-74,-81,223,195,274,91,169,134,211,-59,-143,-208,-311,-173,-211,89,146,-95,-166,-202,12,-67,-142,244,152,-31,263,222,17,207,-88,159,-257,115,-146,-234,-34,76,-86,-297,-229,291,-32,-253,57,190,-213,-212,-53,-108,-102,59,50,-283,107,-153,204,-264,-129,19,90,41,83,168,-40,87,-44,181,-257,-153,262,118,9,-4,-30,27,-184,-192,-266,56,-216,71,-307,-157,-195,-69,-74,158,-220,-187,-223,-273,11,249,90,-245,254,152,-19,211,-236,-289,165,-304,167,227,-199,-53,-288,-234,258,167,278,-4,-11,-10,-288,278,-9,-159,-14,-58,113,260,178,-155,254,-210,190,70,64,116,-197,219,212,134,-7,-47,50,-7,-14,-271,135,-78,0,165,28,243,239,-155,-184,65,120
241,-263,-201,-143,222,166,246,89,-156,170,-46,-301,-242,52,164,112,69,285,-192,-21,58,260,-121,5,-153,67,257,-218,83,155,249,181,45,-259,20,28,-125,-242,154,-222,119,294,41,82,234,40,-280,226,131,52,194,265,60,-67,228,225,-149,53,-174,139,-50,-135,211,-196,-137,-279,-214,-203,-242,274,-162,100,128,-238,-230,108,36,219,-103,11,-258,-169,224,124,137,-171,-174,-146,52,227,134,46,-140,-139,-175,240,-278,-36,60,37,82,60,-101,75,-64,-136,-250,23,-207,-101,-282,107,-106,-281,-20,74,130,-132,-2,139,205,-143,-41,-99,191,-11,-308,-248,-143,15,-5,-57,123,-174,177,-90,282,197,-249,-233,152,22,10,206,305,194,-235,26,-198,-62,208,-145,-22,63,135,-286,-186,-48,263,227,-63,7,254,141,162,-165,24,4,-221,20,-160,-56,266,119,147,-190,64,-28,-4,98,58,161,181,-34,-25,-106,-174,-48,20,-32,133,-26
220,56,-195,240,-294,-94,-302,63,-35,-63,-159,100,178,-267,13,-213,151,176,202,-86,-7,-255,65,-168,142,-50,-42,53,-61,-78,-6,127,271,-139,-273,220,68,237,-145,215,-10,74,75,10,73,149,-198,250,43,-193,59,146,-304,293,105,-75,44,-20,193,55,21,-190,258,-289,214,-265,-228,-237,12,-172,41,-36,-207,106,-55,-183,-131,-170,-8,98,128,135,74,108,202,212,-253,-108,198,-70,-128,181,-52,-213,-154,-111,260,116,-203,-15,-36,-207,110,208,-304,-261,67,-192,22,-283,-40,21,22,-10,-206,299,160,138,-228,-75,-12,-124,-271,-22,-302,24,-81,-85,187,-3,-144,-214,106,65,-6,255,-211,174,91,-277,-188,205,213,135,-306,88,-188,104,166,-33,-238,221,170,-230,125,109,191,-28,-266,-66,231,149,91,-61,-281,-96,53,-129,-249,210,16,-280,62,-231,174,40,112,-37,61,106,39,-196,-50,65,-274,31,-20,160,-16,-192,140,134
-271,205,-160,229,-198,-72,0,-184,279,77,70,-216,-116,-247,92,-56,-73,183,219,246,10,66,-111,-266,154,216,238,-18,-292,73,-54,204,-38,283,176,-182,269,53,94,-71,-61,37,-175,-55,-38,231,-294,117,122,-62,-233,-286,95,-131,35,12,151,14,178,12,206,58,-41,254,-33,-22,198,53,-132,-229,249,108,220,-68,-27,-85,235,112,245,-185,-287,4,163,-168,-57,-258,276,74,189,277,-57,-233,93,21,78,74,-19,65,112,-211,-192,43,-208,54,-121,141,149,32,-273,-98,-1,143,62,-96,142,-260,-134,191,-192,52,147,119,-233,-81,-289,-6,262,121,-101,-293,264,45,230,-187,258,-129,-251,236,-245,28,151,-229,-229,63,201,-155,107,170,-190,-267,11,-73,-140,116,-232,136,56,-231,56,252,-40,-88,-118,61,234,278,205,-99,147,131,-188,-218,-200,41,-40,-298,200,-289,202,-304,70,32,-87,64,166,-42,-24,173,-278,-92,210,7
23,-223,-125,208,73,-260,232,-177,-65,-245,-166,-85,-279,51,196,201,161,34,-226,97,-166,174,-156,-194,-71,-109,117,-89,-288,15,-186,11,-72,-130,83,133,231,50,270,-162,55,-13,107,-16,254,144,-129,261,155,-113,-250,268,39,-101,116,-78,-120,99,167,-233,303,-52,69,167,-87,-152,-210,-31,-222,93,-96,-303,206,-63,-208,200,257,-131,82,219,-27,-241,279,-97,186,99,-51,173,180,218,-238,-118,-168,-106,190,275,-80,189,-258,141,-133,77,261,305,52,-184,121,50,-171,-70,144,-46,90,200,-263,160,80,158,-264,116,224,305,135,208,64,98,-76,217,174,175,-296,-88,-260,-219,181,136,194,-41,254,-243,265,-25,161,69,139,5,98,-166,247,176,-157,-215,275,246,-186,-113,-136,175,165,-253,183,61,223,318,164,-60,107,-248,237,209,165,-80,55,-169,284,31,-233,-281,-31,95,193,-102,249,-117,-307,24,-215,-235,-237,92,-173,-278
236,77,-72,-67,-147,0,40,86,80,262,81,-160,123,-14,-153,187,-81,-32,-20,110,181,-257,-221,170,-58,-161,205,-195,-32,174,-70,0,252,-21,-107,-14,148,-310,177,-305,172,-193,4,247,-65,-224,-299,57,274,-175,173,-99,162,-91,159,-206,-147,222,21,-150,-87,-167,63,-23,-241,-43,124,128,223,19,277,178,-51,129,136,-76,-193,-258,-267,-26,202,-136,68,-179,-162,-43,-12,105,258,32,56,190,-199,-107,102,-283,-176,90,185,11,5,120,-124,137,-26,156,164,-177,-2,76,-120,236,218,-87,-66,-60,-45,192,143,191,46,125,257,236,2,56,243,-86,21,149,293,196,284,0,257,203,269,-163,-178,-118,-295,-208,75,-197,-304,220,-273,-117,225,179,-229,-201,61,153,227,-180,18,-305,95,-265,-303,-211,182,-16,-118,-43,-4,23,-113,271,107,272,-110,-200,-39,-70,163,-62,-90,155,-75,281,-196,-63,48,-63,75,-188,275,-224,-200,-198
125,165,-284,29,252,-262,-177,175,-203,146,96,32,3,-68,234,-70,204,256,-18,187,58,-86,114,23,227,-218,-117,76,212,-288,-174,-39,-1,206,-295,-190,260,-246,39,211,-111,-222,41,232,-75,48,89,155,-147,100,52,234,-179,112,-287,-252,-62,303,-83,-75,-264,-82,-153,-129,-33,130,262,-71,220,-153,-98,-86,-59,-257,234,-22,136,85,90,-181,-255,16,-230,53,-304,225,-275,282,130,-301,120,231,-221,-290,98,-28,-2,193,-191,232,-188,-225,-237,269,-110,162,187,72,297,-106,-149,157,189,-110,-272,-168,176,217,-8,173,-275,-296,-222,-24,-192,123,-219,68,67,226,-122,-172,156,-272,79,-183,-271,205,38,-52,-231,209,-78,93,154,-236,132,-7,16,-312,76,249,68,-50,-175,192,-153,209,-105,60,32,-95,214,51,262,158,-226,173,-41,-8,-242,239,235,-101,71,-252,225,-88,128,-243,106,-77,-1,149,250,-198,7,-128,-250,-224,-31,-35
-25,89,149,-216,117,294,258,199,-210,11,71,-232,-218,-15,280,-156,-175,314,122,-170,69,56,-191,179,-223,-195,227,298,108,-40,-300,104,180,-250,162,-28,255,-48,233,15,-154,-213,-114,40,-280,-159,261,-68,112,237,-141,200,40,205,239,-223,188,-173,77,94,-278,-79,-59,-241,11,-153,-45,-237,-208,-244,65,215,173,-225,-55,144,-55,125,283,97,219,201,-283,68,191,-112,25,-76,72,138,235,-292,-94,60,156,-295,-96,-218,304,185,-42,119,122,-75,72,323,281,234,-170,-159,-233,-138,105,-236,-253,74,-12,-233,196,-80,-26,-194,56,-25,243,89,-137,-143,-220,180,10,54,271,-159,301,-97,-60,-104,32,-52,-29,234,-256,238,60,-234,-257,271,-7,240,273,-122,65,-141,295,-203,-107,-106,-25,-79,-258,-149,-161,36,11,250,11,181,15,58,-97,-63,-237,180,231,-211,208,-126,292,-55,-254,209,-12,-94,-26,251,-107,98,-245,137,-42,-8
236,222,140,114,111,-25,91,-195,-54,147,135,159,-214,17,137,249,-28,-41,70,-117,-160,-228,207,-285,66,2,128,-25,-95,126,-172,-41,101,304,206,192,71,289,-89,-95,-145,176,-121,157,52,179,272,-138,233,-106,176,266,-118,-12,-138,-108,86,-76,23,-90,-35,-37,166,229,-70,-122,3,23,-262,34,-283,-247,13,6,263,-280,-2,272,147,-203,207,42,-122,-23,-87,-156,-120,101,231,-211,78,23,192,248,-170,30,32,-291,36,-170,-107,114,-197,112,239,-186,33,208,-80,69,-83,13,-168,65,267,214,-160,111,-263,-177,-134,-141,151,115,-125,63,286,21,-22,249,26,2,150,212,0,-174,74,90,86,37,-143,-112,147,-25,38,-52,137,-282,156,36,-86,77,-166,114,232,234,-262,-109,278,67,-114,-150,-289,-136,-104,-18,54,71,187,-50,175,64,241,109,105,-56,264,39,216,-131,-244,-149,-255,71,-167,-93,5,121,269,-12,-270,46
-276,-103,191,56,91,80,-19,-285,-115,-120,-274,171,-193,-119,89,45,-153,155,-2,-32,-213,-211,-233,-202,277,94,-52,292,-12,-100,219,-201,-169,-229,112,-276,-80,255,-291,-154,166,219,250,-156,292,247,-250,-25,216,-126,115,260,103,-122,-11,-126,-25,-235,-16,-211,-160,-257,23,-125,-112,33,197,172,124,68,-80,-258,-50,102,120,58,-43,-185,244,-130,-98,-290,97,308,-271,205,-101,-141,238,260,120,-66,-202,53,136,144,-69,221,182,-259,99,-26,-155,200,9,148,-25,180,173,45,-201,6,-86,-223,43,129,35,123,-248,90,-270,-148,-182,-188,-170,-9,-207,51,79,-265,93,-156,-6,-307,-249,153,278,139,14,139,-64,-43,163,-40,-301,-60,-209,264,18,39,173,-216,214,-53,-163,-236,-238,-139,38,213,174,-129,21,-10,1,233,69,126,184,-128,-154,-17,-115,151,-136,-162,114,67,23,268,3,219,223,234,188,105,214,-55,-143,-81,144,-228
103,-157,-118,-43,-7,190,-130,-222,269,65,49,-250,23,197,17,-26,173,69,-161,-275,-188,200,-176,141,125,215,178,-158,84,-243,236,-205,175,8,163,146,-117,-141,-69,13,-203,0,44,-225,224,275,-112,94,93,-155,230,-49,-71,265,-301,90,-8,213,129,-46,163,84,54,270,-29,-276,103,-227,164,23,-145,-160,-155,-71,-168,33,265,-110,86,-185,-206,-217,237,-147,-83,-107,-167,-170,-283,248,96,-172,75,-190,-142,-127,249,139,167,-245,191,87,-267,153,-159,234,-13,-286,-237,-301,-46,145,114,196,-138,-80,-194,-82,242,-96,-66,263,-27,-215,169,141,-76,130,254,2,199,17,-108,92,261,-120,-283,-134,-233,200,157,-33,-151,35,90,-60,-115,-35,-152,-158,-107,197,-94,233,242,-310,223,157,-261,-232,137,-85,100,-130,-200,-191,32,6,-95,-131,117,-101,139,189,88,134,24,-289,-165,-19,-63,-125,-257,240,-57,-217,262,-213,-199,99,-242,131
147,76,97,279,118,-57,-249,-52,-82,-72,-87,-212,-234,-171,-144,20,-218,30,-257,-58,26,169,199,-19,-154,-269,-117,-213,66,-228,-131,62,10,-53,-264,-244,17,204,-297,-34,-211,129,-146,-76,-228,175,-128,-127,250,4,241,-232,116,-251,60,55,63,164,94,230,-91,161,-6,110,-257,-246,253,-288,123,216,216,-140,187,292,83,144,-274,-45,125,-38,-193,183,-111,-109,-249,-68,36,-74,196,-271,26,-79,80,93,175,19,25,37,-54,249,297,89,129,212,-7,-250,215,78,126,-264,-174,21,148,164,146,-178,121,97,78,-208,-119,89,168,-120,169,160,36,227,289,-279,-143,207,3,256,135,2,5,-85,133,-210,-180,-6,62,-120,-257,-87,14,25,262,75,-205,177,123,-23,-122,109,-97,251,92,-189,249,8,164,-29,22,56,104,-168,124,-4,183,268,96,-65,-18,-28,47,10,-253,-17,50,-112,76,-48,-119,-258,-122,-53,-231,-123,-41,41
235,266,-176,270,-220,-118,143,286,154,-155,193,44,-206,133,238,-207,204,81,17,3,-269,45,-214,161,-9,135,-240,-48,-176,-172,-86,145,94,265,-113,272,41,-196,-190,-235,35,246,-245,104,-219,39,28,-72,-100,-224,-106,-170,-88,239,-246,203,-297,-153,-7,-116,-11,-262,209,-145,279,301,-36,-250,210,-112,146,63,165,68,146,-196,-118,307,135,74,-256,195,-72,-62,301,239,-92,263,195,302,231,169,-114,-202,162,-167,158,13,73,-86,166,254,12,-77,274,280,-178,189,-82,271,-154,292,63,188,69,-73,232,-72,-265,-18,183,-14,225,50,-46,118,135,10,155,-261,-161,257,-92,-157,137,291,285,22,-6,156,-62,168,15,254,42,-118,-40,-198,112,-105,156,109,-278,98,-67,87,-110,-195,113,203,-221,81,-80,208,285,274,-244,295,84,-82,-24,164,96,20,-193,193,0,-187,-3,288,250,-1,-22,-85,-95,-13,-113,302,1,107,-219,219
-241,31,-196,145,-63,-155,72,-183,0,218,-241,-4,263,-157,84,-40,-60,188,-65,178,213,110,264,-178,265,230,216,240,-264,-117,217,6,-42,82,158,197,227,-266,190,-57,44,104,43,-249,83,-283,136,5,7,-234,112,-243,-239,-276,293,193,-237,197,-37,-47,-252,-78,-261,-177,-8,80,20,-207,92,262,-225,-232,197,150,-15,292,141,258,-91,-273,74,-139,-300,-49,-137,40,-145,82,63,-212,295,81,75,-223,94,-210,-242,247,28,252,0,273,183,-20,147,117,170,4,124,-277,146,-114,-168,273,-295,77,-129,270,144,-211,104,-117,237,155,-13,173,134,-90,90,-207,-202,-8,176,261,182,-171,-158,183,223,-197,70,240,-258,170,53,66,135,-247,-246,-137,-170,179,224,204,167,34,-279,241,178,-103,-99,162,186,-283,-257,-115,194,159,168,92,60,-154,-292,-103,225,123,120,-31,226,-185,84,37,-163,121,202,181,50,210,105,190,118,166
199,88,38,96,-178,67,240,42,181,78,-119,-51,-271,190,-136,-252,49,94,-274,-76,-13,232,287,-146,158,-57,-113,37,-275,-47,-164,-231,-5,106,149,-81,-219,-52,131,297,183,-231,-67,237,46,100,-128,-209,-132,79,-7,160,-206,-145,35,-310,-62,225,60,172,305,-136,76,83,-154,-139,4,-5,139,-49,1,-274,108,223,-45,230,98,15,-20,-206,-27,-157,-75,215,276,50,247,-293,-66,102,-106,-247,86,-58,-190,-244,100,-65,-262,-236,216,-51,-248,130,173,-185,-18,135,156,42,156,-3,-96,-212,218,-120,159,184,302,-110,-182,9,-151,159,-54,171,118,-314,-208,144,-131,-26,-213,-117,-10,110,-19,-172,38,-87,249,161,-116,113,30,22,-164,-204,83,124,-77,-268,260,34,72,240,200,37,-111,87,269,51,-56,94,58,-194,-177,-93,-34,230,284,16,-94,-184,1,-147,30,19,211,163,72,91,192,8,-178,-92,-10,65,38,255,19,252
94,199,272,312,-207,61,157,219,-101,198,-217,237,-85,128,-124,-278,-230,-74,-125,34,-261,179,18,-59,-247,-130,-254,-140,-67,117,220,167,-116,67,-224,108,154,290,221,143,-270,-155,83,-264,-64,254,-195,-172,-184,-130,-110,-164,-243,-224,187,230,85,171,175,22,-248,285,90,3,-78,110,18,9,238,-217,260,210,-226,-266,168,277,-95,-71,204,286,-38,-51,297,184,263,-103,268,-276,220,277,73,-4,74,-145,-11,166,91,253,5,-246,-118,-162,-7,258,254,-51,145,268,156,252,-178,168,-275,137,2,-215,200,158,-74,192,-114,9,-100,172,73,-278,-144,38,-216,12,-41,-41,-97,5,-123,-258,-105,62,-233,149,-197,-4,228,-261,-34,75,122,-223,-78,-267,-23,-184,163,-126,259,92,-41,-132,-104,228,-247,-53,165,-19,124,-70,-192,-280,-248,-22,31,-226,133,171,-31,-49,-208,-157,179,11,-331,-223,-14,-101,-46,-263,-198,-180,200,-44,-318,263
84,-48,-262,-60,-70,-201,204,-98,-21,282,204,-167,-150,252,73,-199,-307,-99,48,93,216,-272,-72,-193,-62,228,-228,-273,73,-246,179,270,238,196,-176,-106,14,-141,186,-68,-38,-286,-187,256,-137,60,193,166,156,-22,7,-216,55,58,54,-180,60,-73,101,215,-248,145,-208,-150,-259,-293,261,-202,-110,275,176,-151,-235,46,100,51,175,-178,232,-29,-162,113,-260,42,-215,208,158,51,237,91,-119,-302,138,-254,-24,241,113,154,-155,148,-255,-205,-69,-129,51,-111,-301,-91,240,-194,-275,172,120,161,-282,-31,-152,135,90,54,222,173,190,-196,-78,-239,-297,-110,-116,48,184,136,-13,-302,-8,-155,-88,-1,208,134,-216,-19,58,11,-254,-151,275,-108,116,-42,-54,255,267,126,47,-299,208,127,251,-159,95,103,60,-278,71,33,191,-82,179,54,175,-281,-110,-307,30,-176,-281,-211,59,-211,-105,26,35,51,-215,220,129,161,114,-133,-299,261
-140,-256,-187,36,-192,270,-56,144,-218,52,-201,-219,-92,268,233,199,203,117,116,80,70,277,269,-265,258,144,-286,-114,-166,279,190,106,186,-228,-39,0,-36,162,36,-24,193,-246,-203,-237,109,254,-62,-260,-40,58,82,175,-1,183,-242,77,-265,125,128,-33,110,-151,183,229,-267,-251,-71,-195,191,168,46,165,-147,4,254,126,-230,-108,-98,161,-94,-95,-23,-46,200,-113,-113,-161,-162,-283,11,-49,-314,81,1,172,-6,96,-36,-90,-274,180,95,27,263,252,-210,-37,-103,-37,-288,244,160,-162,206,-56,234,122,-49,-13,-51,-53,221,-142,-53,196,-196,-99,249,95,-262,-87,173,-158,-32,-3,-126,-248,-216,24,-76,-79,-261,-174,-258,-185,-49,128,-12,270,-164,109,12,-301,87,-217,-127,209,20,16,-97,-7,189,66,-78,-99,-195,-134,192,68,-221,182,-156,-234,-63,-171,-300,-286,-93,-94,102,276,-238,176,-305,200,-138,-209,-176,38,293,161
103,-274,180,-30,246,53,-254,170,-199,175,-295,1,-196,65,272,3,-187,-34,-51,179,160,-284,-49,-52,129,232,-250,-116,261,203,-309,-147,-38,122,-122,189,-36,138,-262,285,64,201,115,-68,197,253,-53,-130,114,222,15,250,-58,-155,271,97,94,-45,-40,-85,-140,-78,-27,176,206,-257,251,198,-26,138,199,170,-167,-91,123,-268,-264,-3,32,-307,-90,-197,138,-137,114,-235,82,-136,113,-231,-90,-110,265,-241,75,267,-241,228,-134,-132,-145,82,-239,-270,-228,-172,-304,-60,-235,132,-70,63,-142,19,48,51,-71,193,-90,-219,-27,115,-243,204,-236,-178,-254,-200,20,187,131,-5,-295,242,-58,33,214,-95,-267,234,-35,-51,-8,-115,-152,-303,-113,-229,253,-255,-191,-138,108,-210,-271,-69,-207,198,-117,-219,168,168,-115,94,253,63,-148,-241,260,194,272,44,-55,157,95,211,-143,-61,-25,-172,195,-71,197,-202,46,-110,-238,-20,50,-196,15,30
-269,295,-253,249,-259,-130,225,288,75,-66,5,165,120,-95,-226,177,128,134,-155,242,-153,126,290,-154,-171,-238,223,225,164,-240,-183,237,-287,-4,98,3,131,154,-269,-130,-129,-118,232,-258,-3,-179,-129,-205,168,-192,-50,188,296,-229,23,-23,225,29,-137,-15,-251,-118,-151,-21,-107,24,-173,136,202,34,-94,94,170,-233,-217,-125,-203,27,103,268,171,49,-233,-108,-272,-149,8,-71,-254,203,-78,197,-191,180,219,-269,138,298,37,109,123,275,-109,-31,272,-117,-83,-139,-119,74,-20,281,-130,-58,136,-84,-166,192,-183,261,113,-110,-117,-266,-209,-170,-111,219,-25,119,-214,274,-19,174,-136,258,-272,157,115,188,-279,60,70,227,246,190,135,-152,230,281,106,242,202,15,136,-232,-263,182,286,-191,23,75,222,64,-62,250,-117,18,32,56,127,-246,134,-213,280,140,-173,-49,9,7,7,112,-22,-169,-149,277,288,-242,249,-200,-180,58
73,115,267,189,275,66,-250,-109,191,-165,-91,-212,-185,-109,-244,-116,-211,46,-85,-103,161,25,151,206,116,-110,244,259,-44,110,100,-30,124,172,6,209,104,149,-66,-132,-203,-1,276,267,-238,239,-46,-248,15,-114,-198,-8,-59,102,-124,-311,223,-12,172,-105,-162,89,228,-20,6,-228,-72,220,177,247,101,113,130,188,247,154,12,47,250,66,177,250,-289,290,289,-174,70,-258,-176,-18,-283,-179,-278,91,268,218,2,-1,38,-87,-58,-93,-166,251,113,-84,163,-248,123,-176,90,267,258,111,-245,-26,285,4,-148,-151,37,-76,65,-42,-220,-208,152,-24,100,-111,-85,-118,-253,131,-123,-60,-25,291,-245,236,316,211,-145,107,218,-10,120,-33,126,155,-81,4,-21,-285,241,-258,-32,292,95,278,-250,276,170,-136,157,-261,-52,-120,229,303,-263,-175,154,-256,286,-58,88,-104,260,-82,-209,288,-202,-150,-238,53,79,30,-201,233,309,-174
252,-156,93,119,178,-166,292,-64,277,-78,138,155,55,225,-47,116,-208,257,-139,32,314,-118,-209,73,11,163,-50,266,-216,-4,-22,-297,7,211,-260,-237,101,-184,89,-120,-118,-270,107,-13,227,-15,-305,206,-65,170,-127,267,31,-219,208,-162,157,47,134,205,-164,-174,-178,57,2,12,211,196,-69,-110,9,-14,121,60,11,158,-284,-279,-110,157,99,163,174,54,297,91,108,-186,266,135,175,-305,-196,226,10,-285,-140,125,-45,119,101,21,159,-205,-163,-260,-161,-153,68,-29,-193,-83,-71,-87,-270,-214,-193,153,-294,-166,165,242,229,131,-128,246,-48,-261,306,-242,29,99,249,-209,-149,131,-10,177,55,67,-90,175,50,192,112,-251,36,-223,-92,26,-163,-276,-36,66,152,-22,187,-154,105,-201,-5,230,157,-203,121,84,-104,138,-209,143,238,-232,-45,144,-164,-138,-49,117,134,201,170,-11,232,-46,-99,-59,-131,-274,152,107,-217,184
0,157,-287,280,182,-42,-209,117,-252,223,43,-153,192,-80,107,53,-280,-266,122,80,29,289,101,-233,-145,-231,-265,122,190,-257,-211,-271,-204,187,-215,82,-225,29,141,65,166,-102,204,-141,192,-124,191,270,13,-85,-244,241,157,-191,-246,201,-66,244,106,-217,67,165,0,-171,-89,182,15,190,117,199,165,-31,-295,0,66,-28,280,-170,162,125,34,129,-300,41,109,-199,-245,-152,-85,8,-43,169,-198,119,-136,-97,84,-248,-174,249,-168,153,-97,135,-151,-183,21,-88,-77,-137,-92,-64,-78,0,-287,112,171,182,154,55,-65,-129,-150,39,-275,278,-41,-84,-242,-253,52,233,250,-16,-310,-157,-239,65,-22,-110,286,-272,9,-273,-277,12,132,197,224,198,-236,-36,2,264,38,206,-88,248,113,-21,-51,3,-74,-167,-280,159,147,-261,270,-255,282,123,-234,263,275,6,72,129,-262,152,87,30,-240,-68,98,240,-193,117,35,-191,217,59
-21,230,-94,-145,199,53,82,-286,106,-78,215,194,-67,76,254,-235,183,-175,267,-252,80,165,-161,45,47,199,-164,7,-193,-286,15,-29,-59,-256,-155,-195,9,193,158,110,207,-35,-100,-144,-223,274,79,76,200,267,210,26,153,279,105,58,150,25,-144,270,-65,-215,-156,257,157,166,-45,242,57,-185,252,123,-249,-101,-181,175,28,281,-124,-154,104,-27,241,-235,-29,157,309,35,159,-166,-79,20,91,-281,66,-83,-7,281,-177,275,220,158,207,67,284,266,110,-64,138,206,-103,154,2,-70,-17,24,-280,201,267,45,88,156,106,-185,-218,265,207,-185,251,-113,275,-88,-156,-265,71,80,-204,-256,-236,-30,-196,-31,-206,-79,-131,-283,239,79,-41,-104,312,253,213,-199,-155,-196,32,-26,-194,268,-267,-222,-97,-202,-140,150,-133,-193,44,-78,-7,69,-162,8,-12,260,124,54,10,40,-247,283,-64,-301,-162,94,-244,104,139,-7,149,36
-18,153,-168,203,222,-301,-169,166,-28,-168,-248,-5,221,131,13,-273,193,-109,144,-111,-116,-179,242,206,-129,-288,292,-130,169,-81,-180,-215,-8,-166,-284,-102,183,-279,75,-208,-165,-14,149,2,-153,24,-132,-20,283,169,172,36,36,-56,270,165,84,-5,-45,-116,-207,156,118,-184,285,-72,218,-275,-75,-94,-174,231,275,191,271,-128,-49,-177,-129,158,-234,249,-78,38,-85,-24,-239,-87,222,80,182,31,81,79,115,-211,252,-126,-231,-172,-250,21,268,-137,55,-291,105,219,106,-298,-195,122,131,-27,54,-50,100,-266,47,122,153,38,-270,88,104,214,59,226,-183,-152,-141,207,168,256,111,-61,268,91,-45,192,274,-149,96,7,7,-265,-239,-260,165,-93,120,-244,-199,-255,-181,54,167,91,91,154,-164,46,-212,-137,-222,-63,-96,-217,250,172,-116,146,189,152,104,57,-101,201,-148,155,299,-236,-233,-45,142,257,57,164,-190,-30,-139,222
149,-274,-229,-100,-189,-119,-184,177,127,-213,-145,-72,261,243,-130,-6,-33,-190,-181,30,26,73,-159,-69,-169,23,-248,159,-87,21,150,-192,246,-12,177,-305,195,220,205,259,228,46,-116,-221,7,-142,-147,-122,-314,-64,112,10,121,151,112,168,92,79,-128,-267,-198,199,-151,195,27,80,-89,71,-149,190,-229,-58,302,-48,-259,112,246,45,-65,267,213,-195,-164,-80,11,176,-254,-9,-244,204,2,1,279,178,247,-106,-173,270,142,233,193,47,244,204,-90,-16,-222,23,-160,-95,-229,-158,-133,-263,218,68,87,140,-196,45,-32,258,-131,114,11,128,-222,-64,233,2,-100,273,-55,227,-78,89,186,252,43,13,-260,-165,-235,112,-255,-221,-30,-221,58,224,-276,-278,9,-155,232,27,-102,-300,54,181,-127,-220,244,79,-282,69,238,-242,164,155,-48,-158,-134,-253,219,224,54,-146,-252,-301,-15,205,240,-241,-139,64,-184,208,-292,117,-95,54
-272,150,42,-160,124,126,-177,-99,-211,7,-115,-24,250,-220,94,-126,229,-64,-36,-122,112,39,-243,130,-34,-257,-307,232,241,-14,-54,-234,79,-207,128,-103,-261,170,74,-239,-223,-41,132,170,232,-247,-151,-111,95,-81,280,89,205,-288,174,89,120,105,60,-278,66,162,235,-281,-49,236,210,32,-102,204,-32,-246,154,117,131,-277,142,152,242,-236,278,-286,262,-50,-128,-149,-149,291,-149,186,-247,-148,-192,69,-264,161,-88,207,275,-110,-124,257,-178,-183,-100,-262,-174,249,-10,45,-127,95,-254,-197,-74,92,263,-4,-126,221,253,164,-93,233,55,178,-282,-108,-262,176,207,-90,273,-281,57,-125,19,154,-228,-134,-98,-79,228,180,-278,131,-121,182,-191,89,56,-17,105,285,-133,-65,-69,4,-108,-281,13,285,-240,59,214,-187,-247,-18,-89,-249,-68,42,144,-115,78,-205,31,211,-72,-247,248,165,170,-103,-287,314,-181,191,-14,8,58,-255
96,52,-182,102,54,291,296,-84,89,230,34,33,-20,-249,-197,-24,-70,-162,71,36,-21,134,-235,75,-65,100,-214,238,236,-67,-264,-28,-46,-265,15,206,-204,33,218,-83,167,-195,146,-39,-126,59,276,-205,-166,-102,279,-134,-40,22,-20,-170,-245,-286,-265,-121,-162,-125,110,-226,248,-104,120,270,-178,-118,-61,156,-244,-162,-227,-197,135,290,-219,60,220,204,55,216,-209,25,-30,22,115,160,-151,288,65,-262,194,-9,79,-137,-55,-272,-49,-213,36,-167,-60,39,259,-218,-153,-142,58,162,-264,-89,208,107,196,-227,265,310,33,-179,156,25,56,-107,-147,290,217,-80,217,179,-141,180,-144,110,129,298,286,247,234,135,-263,302,-51,107,17,-52,231,116,-91,-281,-189,35,-38,-279,23,87,-203,141,88,118,-13,-230,-150,-189,45,319,70,101,305,69,45,18,-4,-56,-246,-88,197,67,24,-251,-263,5,226,-144,-216,184,168,-184,8,181
67,10,-183,146,-254,-126,-203,240,-124,213,206,80,66,132,19,142,249,271,243,300,265,-22,186,-260,86,-145,161,-94,91,-279,263,-122,-176,-37,216,-181,6,131,1,-192,-8,43,41,60,192,-283,-275,173,-297,151,204,-108,232,-175,269,-70,-57,272,-88,57,20,-126,-182,-137,-32,294,92,-5,-44,258,195,289,248,75,-149,164,23,94,-34,235,156,107,134,238,-262,98,-44,184,-251,-64,-209,-287,262,-165,-123,7,-252,-289,207,-111,260,-23,-190,37,-74,219,-286,-31,-206,250,-222,-146,174,131,79,-239,20,235,225,-55,93,-135,196,-163,-157,276,279,-169,136,91,-39,-255,8,227,-231,-79,-109,-280,99,283,44,-49,-211,218,182,59,40,-150,12,-159,-197,173,-59,246,-292,239,155,-133,-187,3,-260,64,-235,141,-262,-115,129,69,-139,-229,279,-2,54,267,-1,-105,172,140,169,-12,71,-269,-197,141,241,-268,226,91,-240,-94,119,78
-38,207,-262,-214,174,-239,65,257,218,210,-210,18,96,254,90,-7,65,80,207,-197,-31,154,-75,-208,-52,171,-292,265,30,118,193,60,184,-50,-179,-172,50,-89,-123,-111,56,-33,-259,99,-305,116,-121,-227,-3,231,-264,-290,153,107,1,-178,106,152,55,-28,-5,244,43,-264,137,-146,-249,83,-32,-236,-222,-253,193,-136,-105,-41,28,94,90,-272,151,178,255,200,91,-255,174,-21,115,82,-201,107,189,203,-207,-96,272,-264,142,155,33,152,60,272,-213,173,-162,-7,-282,-79,-241,26,24,-74,-259,120,-204,-208,83,-234,74,16,-227,-180,41,29,272,163,173,-136,98,21,28,32,-89,261,-309,-187,-108,53,26,-67,-47,-205,202,-107,103,-247,121,-35,142,260,-272,104,185,-115,166,12,-219,198,272,-219,-168,-121,244,-249,-122,250,-275,24,-286,-260,-9,-123,-274,-102,-292,-37,-63,-133,201,-85,142,-205,-269,10,-206,-222,-282,-198,6,0
160,216,-24,-198,108,104,8,103,9,-167,94,-199,33,-40,154,212,184,-225,-67,87,-22,-127,-20,192,-214,88,-284,-105,173,-186,-165,-131,-170,-180,12,-26,-80,-152,128,-270,59,48,-219,-151,-219,252,-235,-252,172,-197,-74,205,-312,-104,-270,198,158,155,-262,198,-225,-104,11,-156,230,-6,-131,-117,228,-301,-20,78,-62,-223,-33,211,24,-250,7,-239,-242,-58,-3,-129,-237,-19,186,-215,-27,-77,119,-109,-159,185,-192,201,-308,-156,-232,-189,-313,150,-175,-108,-264,178,-134,-272,133,-25,-300,-110,-229,63,-127,-136,82,177,16,-256,-282,-34,82,44,-230,155,-146,-63,-2,226,186,-87,-238,-261,239,-302,-295,-307,-137,-180,-88,78,-289,27,-14,-98,35,146,-38,209,-126,-156,-189,196,254,-24,-19,48,57,-108,-291,259,135,-222,-38,-241,-218,32,-34,-54,234,60,66,77,86,-35,-240,-165,-109,-270,-103,265,193,-180,-62,-217,-244,89,232,-271,-36,166
96,-253,133,174,-39,110,177,69,144,-27,-175,210,-235,-196,182,-109,225,-58,237,266,-90,-42,224,220,280,258,-132,-11,214,284,65,-180,-277,-167,-165,93,-174,199,155,285,-204,2,152,14,-176,9,-236,252,24,-152,-232,-213,57,-155,-42,-254,-272,-141,-245,191,229,251,-137,-198,-146,-250,-246,-221,229,42,182,-246,-64,49,-21,-15,-7,55,253,272,17,-2,64,161,-164,196,27,-257,-103,-258,291,158,-83,199,203,-226,12,-19,250,-108,68,229,183,-44,278,21,260,-34,-100,-109,-161,-273,-23,-134,297,-92,-189,-175,208,181,27,-18,-138,289,-63,-81,-159,227,-294,-36,85,-36,15,117,-37,189,-191,-82,62,-212,266,-48,-233,241,147,-10,144,65,16,-286,7,-247,-230,37,82,276,-106,145,129,85,-42,-267,261,24,-142,-44,63,-223,-210,-146,68,256,164,77,-211,-206,-89,19,183,210,82,-214,-14,125,-108,272,-111,291,250,-207,-278,-137
-18,279,145,202,-212,-272,-303,-283,168,-100,226,-301,40,190,186,-222,-8,-17,207,118,-68,-227,-207,150,150,271,-44,125,245,249,36,277,258,-45,-117,87,-87,-220,-229,254,207,-143,118,142,199,227,74,-274,214,26,213,-124,221,51,236,-212,238,275,45,-127,-236,-244,-278,170,-94,-70,169,-228,-66,-127,-161,-263,60,-120,-25,-193,48,-135,96,164,-113,95,129,-132,43,169,-162,-300,277,-227,-53,73,-34,204,219,-306,223,-83,99,-238,-47,-278,-43,-133,176,-133,-92,67,162,216,256,-262,205,-117,207,-223,45,228,-307,116,-138,209,238,113,265,76,16,96,234,253,233,-93,-25,-241,-285,-2,-107,211,-216,-26,140,-234,194,-161,24,-20,-14,-4,265,-203,-102,-273,-3,112,36,141,-95,161,-242,276,-101,274,-192,-212,70,225,-87,-193,-141,-196,-91,-219,-170,236,-152,256,-131,204,-231,117,-161,110,72,-88,198,56,80,164,57,-248,155,-205
-242,-147,-145,-154,-70,-255,-99,289,160,120,23,-229,-198,127,62,-95,39,252,210,-100,169,-62,209,-235,-239,-158,-170,135,127,-30,-229,-45,-213,49,-138,232,68,-11,-221,-192,143,166,180,198,-39,14,115,192,44,-254,80,152,-140,165,-119,224,-191,186,123,115,135,244,46,60,-21,-43,91,185,-116,208,-309,104,-226,93,-100,5,-24,-83,142,48,289,175,-220,-265,-169,194,-246,-186,-239,-283,-185,-168,-170,56,-33,-225,-44,-252,-237,216,-236,-103,-238,254,197,-230,-151,-2,36,-279,-75,-6,15,-131,-118,-229,-92,-140,277,-283,-281,-118,-81,53,36,105,-58,178,-301,-71,82,-74,228,44,206,-125,90,-210,236,-243,-145,-17,170,153,-44,-10,-61,-95,178,-6,56,-53,-44,-132,-214,-17,-229,39,-229,-74,232,-67,-140,-92,-23,-201,-131,201,115,-44,-55,-270,-184,79,141,-59,-33,111,-216,-12,-30,-218,-20,-122,93,-141,127,-70,319,317,291,-128
140,-53,122,270,-143,242,282,-191,113,68,-153,-255,-166,64,-33,-285,221,-85,-194,114,169,-134,-75,42,-73,208,47,6,22,164,95,-261,19,271,-7,-60,219,9,149,-211,-125,164,-202,-22,-36,109,-179,-186,-70,-67,-130,-240,-271,-70,-91,146,-72,121,-190,-226,-12,-260,-127,245,-194,-6,-220,141,-206,230,-196,-303,-171,115,212,-131,-197,-36,38,181,-223,-284,-288,-113,-15,-260,-94,-48,226,163,-112,-133,-28,-102,-37,-1,118,-241,-115,-121,177,65,-301,199,75,-285,-252,121,249,202,123,167,104,130,-146,-251,79,131,-37,162,45,-92,220,87,-206,122,43,60,-180,-232,-288,248,-260,241,149,9,-295,213,-182,-35,106,-188,0,160,115,113,-105,104,242,174,-222,-83,277,89,-180,-252,-251,-309,223,-103,130,-254,128,-154,160,-104,240,-207,-15,-273,203,19,-53,-24,-244,213,-105,-132,166,56,-278,117,99,67,274,-284,-241,267,59,173,95,252
7,193,68,97,132,-76,-220,-149,236,70,212,25,187,-258,-86,-196,-257,-29,74,-104,263,37,-95,-31,261,-123,255,79,110,162,-57,186,-70,-172,138,61,-103,-13,-72,82,-224,218,-147,-130,-268,-7,36,-35,233,152,296,94,-37,-70,-40,-43,0,-185,-236,81,114,159,249,89,174,-265,-24,207,159,210,-280,-1,-194,7,-5,0,165,-89,-129,-43,-48,149,-14,-207,286,21,174,-86,211,-210,-160,-141,-2,-98,272,-141,-122,232,118,81,-116,208,254,129,156,184,217,75,-160,95,-122,-21,26,157,-299,-57,-244,-225,12,-221,-191,-110,145,155,183,-220,241,-203,-203,54,285,197,-226,250,111,72,216,-199,100,85,-175,108,-119,-131,-56,-269,-78,49,232,165,147,301,-102,287,-136,-78,80,29,34,-261,244,-28,47,158,-89,46,129,-1,190,-246,-298,143,-13,-188,-150,100,-110,189,-152,-240,1,240,-295,223,-65,9,101,33,-120,-262,241,177
-219,-205,-56,-278,266,32,16,-125,52,-113,-50,-218,196,-111,-312,28,-23,-58,260,161,279,188,22,-89,260,5,62,-136,214,-312,94,17,-119,148,-108,193,-175,263,134,-22,-123,-90,-173,224,-98,205,-304,153,-131,-193,136,-152,1,-119,225,-59,177,-43,126,182,-247,34,185,-193,46,149,-270,-128,76,-62,-239,-196,-265,-76,163,-194,174,-174,197,-22,-245,-132,-137,92,248,208,198,-166,44,247,243,-99,-276,248,-260,109,-82,-165,-160,-274,-95,-173,-23,223,-46,124,-113,-63,-187,-162,210,117,292,229,74,-131,197,111,-154,-111,-209,-29,138,183,98,79,-6,-136,-228,-238,-262,227,-74,26,36,252,-302,196,-207,61,-139,-44,278,144,6,75,-77,-157,86,-38,2,191,181,-116,-203,-300,-103,-158,213,235,174,122,147,-304,200,-271,-270,0,-239,166,-26,-89,210,280,255,265,31,-214,-98,-54,99,240,-215,34,-276,38,99,-233,-129,-148,-162,264
114,-158,-279,-15,-98,-279,260,-288,275,-137,205,-6,229,-215,-31,-51,78,-159,-215,223,207,-40,52,208,-284,-182,-209,-2,287,-168,-19,-248,66,247,30,105,-277,-171,0,-294,243,-292,116,-66,-93,-179,10,256,-37,-7,94,191,280,-135,-164,150,-131,256,-25,-41,-93,224,245,-57,-194,-137,97,-97,-240,202,-179,175,-244,130,284,13,-294,-118,52,98,-116,100,-39,142,18,41,181,-16,-130,-304,-267,272,85,-51,-142,72,-174,72,-270,275,-226,60,141,24,51,145,-66,-283,145,275,-99,250,-188,272,-81,243,142,237,-231,-40,137,-54,-265,-163,-149,204,275,216,-99,-48,-229,-116,-276,72,-79,-5,233,115,-76,199,-55,-185,-16,-1,96,-176,235,109,-164,256,113,-106,-248,56,165,11,-279,-81,-28,-194,-135,-2,132,0,64,139,48,-288,78,270,108,243,-70,-127,209,-63,95,159,-20,224,-163,267,-275,-200,156,-271,232,210,107,-202,243,-228
-41,156,102,-252,-67,-187,184,272,-159,-256,-163,-50,166,-142,-248,-71,-261,-145,108,43,164,-24,-128,-107,260,109,88,142,35,82,272,212,103,140,-20,-202,37,261,-107,-255,-94,238,184,131,142,99,-54,-55,-69,-280,184,20,212,-253,-276,-215,228,-28,99,279,97,-7,-109,32,226,-25,227,-42,0,38,-274,129,-55,157,22,105,145,130,89,10,14,-195,-232,118,231,105,-186,-201,-40,26,-296,-139,201,105,-119,-234,-262,-157,-80,253,311,234,-311,-38,-275,-120,-264,61,-250,-15,-248,-259,-267,129,-304,0,-18,-197,-23,69,-58,-70,-26,255,-30,150,89,-83,5,66,-95,-286,60,-76,52,176,16,-5,-190,213,243,188,-97,65,-206,77,-207,-169,-149,9,-137,-117,-128,214,232,170,198,172,185,-292,179,56,179,-151,-251,248,-49,210,125,-24,-189,-19,207,285,91,-281,114,86,-119,170,-270,-43,-208,157,-184,-32,5,161,71,-64,87,188
-122,-108,-144,-227,-205,-196,-54,-27,211,-220,80,220,205,-113,-205,35,-173,-109,-172,-223,-5,140,262,-175,-210,-163,-63,-201,-81,-193,3,-14,157,-252,61,88,-139,-292,75,193,-81,149,170,37,-202,231,171,-69,-119,-9,-67,24,-166,138,-210,-89,-171,-59,155,220,-230,-38,-211,-153,19,77,226,-121,233,-178,181,-114,-252,189,192,229,181,-14,226,-194,-165,67,174,-97,-268,-301,-23,-38,75,216,53,95,-258,269,-12,204,135,-93,-252,54,-69,-133,24,-252,-231,-140,198,63,235,157,-63,-223,135,-290,-253,-124,-93,-284,248,103,66,-76,249,-174,191,106,86,-283,65,-29,95,-299,169,27,18,-258,-114,251,155,-110,-213,-257,-245,-177,-265,-111,-299,-137,100,-191,41,-250,162,-4,-207,-79,-246,246,-168,-5,40,262,246,-150,53,-142,-264,117,-250,-130,164,-92,-69,39,-234,-91,45,61,59,-202,-49,-79,-50,-42,-19,304,82,-130,-218,177,225,258
45,70,116,-97,-246,117,213,255,-134,30,211,-66,-178,176,199,-183,85,-28,154,79,-64,2,57,-54,-266,-192,-57,-192,-163,-174,185,-209,217,-267,99,-227,-174,-80,-288,46,249,99,-295,20,-133,162,-140,78,-35,-122,-153,251,-89,135,-214,50,-15,207,-155,170,-2,-249,208,9,-207,158,201,-22,25,-284,241,102,-246,101,-75,-273,-270,-18,-94,-127,-265,21,-244,-111,-186,-203,-22,-15,-194,48,-292,-118,79,-34,225,-271,-319,244,-295,77,-194,-24,29,149,-85,63,-71,106,2,209,64,43,151,-71,55,-255,63,-54,163,199,-33,-188,247,188,67,61,-211,-269,35,-292,223,93,-212,-60,178,-166,-187,14,-219,-192,240,206,-275,221,-215,142,-65,156,194,-157,111,-299,-280,164,-149,-53,247,219,-12,-95,-287,-65,-321,30,-9,113,204,-144,62,-54,93,-19,134,93,23,-102,-105,-37,-292,-21,-79,241,-208,132,44,-205,-132,158,211,227,-173,228
-162,-204,-73,-162,-229,2,269,-245,75,267,-247,157,-88,237,273,72,177,100,-109,181,250,-132,25,-127,-66,-188,-249,-127,-106,-253,-17,158,-175,-240,63,-145,-44,45,-165,-21,206,-52,148,-107,-268,217,-139,105,16,-23,-275,160,-35,-201,233,-121,72,-270,5,-24,-139,-99,235,-67,272,178,19,-33,-50,-279,-183,30,-82,-49,-72,-135,-74,-101,-126,240,208,9,-69,-285,200,182,-101,256,-96,51,165,-21,148,198,-2,-66,-8,215,88,-92,273,-66,293,164,-268,-144,118,20,-236,145,92,168,-156,-10,180,-127,-280,-47,-180,224,216,-6,-62,-114,66,-264,-96,201,-110,304,-223,109,-25,-136,-43,76,278,65,-297,151,-133,116,-160,252,-174,221,188,-121,62,192,-285,-179,-72,163,-146,-260,154,143,242,-39,211,178,139,152,-123,-6,29,-225,91,147,1,-143,-88,-107,250,-140,-255,-95,-236,-38,260,-226,-46,-150,-219,75,188,83,115,31,-50,55
-39,70,137,-54,299,32,-80,-49,47,199,-228,122,221,-84,-16,-150,-164,-272,-8,-83,-177,-71,238,-124,133,-157,-64,-276,-24,-150,-88,48,241,-69,-96,-234,86,12,48,258,188,159,36,0,56,-187,-256,-130,-108,-121,-161,266,-25,-127,-155,-216,32,107,-235,-2,2,211,258,-31,-276,230,114,132,-85,-60,-280,-266,46,76,98,102,-289,-50,-191,177,-120,294,225,216,52,268,104,-149,182,-238,-30,211,-40,-49,-72,-65,30,-114,-111,154,137,-209,-133,247,205,-36,174,-80,-203,40,301,186,231,102,-140,-248,-253,-21,-268,117,-228,128,140,106,82,-103,194,-7,-141,169,94,-135,76,249,94,-125,0,-29,-7,-95,225,2,-8,119,-96,-258,143,130,-123,130,-103,268,-81,-258,-48,-230,185,242,249,-177,159,-96,225,156,-33,-169,192,-75,-227,252,283,105,-226,196,-278,1,-1,-10,-114,255,49,-129,191,-287,-55,76,60,48,-31,276,58,-183
-86,-186,265,242,-269,110,190,-65,-232,-72,52,-113,-157,0,-1,134,222,85,139,116,-151,-244,23,-242,-226,149,-222,61,175,-131,307,184,-167,214,-298,-8,-269,98,-297,-129,-176,-270,178,144,29,-262,15,123,68,-241,245,110,-88,-133,15,-145,166,127,-35,-271,189,272,-137,38,-118,-96,202,-145,54,21,248,168,29,116,105,79,-186,44,45,-273,73,295,-270,-217,-183,-125,-32,-2,-110,300,216,214,114,-264,257,-69,104,-67,211,-152,68,-88,26,-134,-25,-65,274,-48,-231,-121,-172,-27,-223,-232,-17,-103,188,168,23,-80,-37,284,280,-165,-4,42,208,-177,-97,43,-16,156,71,177,201,223,149,184,108,138,218,207,41,19,-191,12,-200,279,198,-136,-168,155,60,217,-252,-238,-228,92,126,-283,263,-130,132,-106,-280,-195,263,187,210,-59,298,-253,11,27,-255,120,-216,-97,244,-140,227,22,-146,-277,-244,112,-5,-22,56,262,-24,259
-2,-210,-69,244,-221,135,89,-93,-191,-114,177,-214,126,14,81,267,-173,-31,215,15,-132,124,-82,114,-235,-186,-163,20,294,-244,187,99,170,-263,-196,-195,-44,-145,-301,215,-64,212,-49,37,15,166,227,254,257,-90,-27,217,44,-85,-148,141,-39,316,213,-74,-25,168,265,-84,105,36,-74,-215,53,-41,-295,96,243,-34,-218,-216,-259,34,-111,-154,45,84,162,52,-256,70,-1,-160,-160,246,76,-52,246,-206,-26,-174,124,-28,110,-164,167,274,43,-156,-150,54,-282,-66,-93,170,253,-43,-175,-166,-220,-210,217,66,189,263,255,114,-58,-260,215,-234,16,38,-102,-260,-251,261,238,71,-10,94,258,-284,-238,-25,107,-34,266,-30,-31,224,70,-136,-290,196,114,69,-277,31,-295,267,115,-30,-193,-225,-150,14,289,-148,264,162,-176,109,-59,184,-55,91,194,67,143,234,-194,251,162,-228,226,-199,203,201,-70,-295,-183,107,204,-92,167,-175
210,-16,-106,-154,-142,112,258,-220,-90,-294,3,-264,-228,-298,-162,-118,-270,-7,14,-131,219,229,166,70,-36,-153,74,-46,-128,3,123,-186,211,111,253,-171,82,-114,-60,179,36,-259,-126,79,-85,150,-288,-40,-140,21,-89,-225,166,-177,271,-281,120,154,-130,-95,268,-155,-98,269,-94,-235,-60,9,189,-28,25,231,-182,-259,20,18,161,-18,103,279,-20,-117,-181,-194,-95,-176,-148,123,58,196,-222,77,175,-164,143,47,268,-191,76,235,-7,-234,90,219,-310,-29,4,-87,40,46,-5,52,174,-300,-264,-15,109,276,86,-160,276,-10,192,173,-221,50,131,-63,270,-76,194,-141,-260,4,-243,-271,-67,204,74,186,151,179,262,-287,105,-257,-159,121,-283,-121,-3,-244,72,251,-14,163,-292,-195,-168,235,132,158,-12,95,173,-293,-33,114,-262,288,138,-24,85,30,184,-156,265,-17,-65,184,19,-106,199,-17,43,-91,-212,-243,181,-34,104,52
216,-92,-187,5,-142,-312,-97,66,-152,261,96,150,149,-179,214,296,-236,-169,5,237,191,-309,-232,-14,-44,-43,208,-166,-155,134,-35,-128,80,149,100,-106,44,-13,315,142,130,9,251,86,176,33,40,11,213,-76,157,261,-220,264,251,196,-27,240,-23,-231,279,-80,-205,-252,-131,-171,-245,136,-286,-261,88,142,276,266,169,5,36,265,73,66,-201,-21,-187,-89,105,-201,37,-14,243,-148,99,186,115,-141,-170,-48,169,-11,169,-1,-13,-210,60,-96,-121,-168,-65,-84,239,237,-265,-205,273,173,141,-244,-284,-259,174,-61,-124,197,44,-211,91,-206,264,-72,-266,92,-152,91,-198,-200,0,34,-171,65,-112,-107,-236,-179,140,-264,129,96,60,-63,29,-144,-311,-163,-44,-20,-121,-21,-211,-158,209,169,164,-212,11,94,269,0,231,-71,-159,-132,-78,232,-84,278,-68,-187,-22,-20,-76,-23,127,3,270,161,-138,72,-169,-211,-141,125,54,-90
268,-215,86,111,192,208,12,-104,-102,-91,119,-155,-151,137,-201,-103,-103,118,176,-71,315,36,24,-148,183,-247,-4,-42,-63,42,-74,-251,40,-141,-30,-182,-207,-63,275,-216,-141,97,76,38,-149,137,19,-279,-23,-27,137,-179,-112,-157,258,-143,310,-190,79,-17,-271,81,-180,193,-125,-154,-178,135,50,-141,-11,203,27,171,-275,-90,-139,-236,-161,-14,157,158,-245,-136,266,-266,291,-87,112,285,264,-152,-245,276,298,-138,148,-250,175,-241,263,-85,-220,49,-279,68,147,7,256,-99,-51,34,-192,-185,114,-107,34,-213,-81,270,-177,194,-288,-27,132,95,-120,-145,301,-268,-108,-195,235,-95,-80,72,-4,1,-128,199,-90,210,242,119,-247,224,20,225,150,158,245,263,138,62,-147,-206,267,233,-114,-67,248,-1,0,22,265,94,-181,178,147,-90,213,137,73,23,122,27,61,-296,-169,92,-175,-178,15,-164,-57,2,-124,-223,-79,98,-99,218
110,-185,-225,272,221,71,132,50,-48,-111,246,-98,-279,161,1,-241,-73,-84,86,-270,117,50,-281,254,147,215,217,278,134,45,-136,143,218,11,62,-185,-69,-41,28,195,29,-125,245,91,5,175,213,188,-131,-65,279,-244,-142,27,-190,115,29,-244,262,-175,-5,94,115,-46,60,262,-69,-56,61,11,-90,106,-292,186,129,-244,-240,34,-292,21,70,-253,276,-211,-194,-101,75,109,132,-128,-124,30,72,18,-154,-52,277,139,48,-280,44,-85,-239,123,274,-4,30,128,-253,137,-157,206,-16,-281,151,-308,274,-62,-276,-62,57,72,-287,-59,205,-15,-257,250,227,78,-198,-273,83,-206,48,170,-122,-106,210,227,140,240,266,-7,-67,110,44,-232,222,-86,247,-9,-144,-31,-286,-116,-169,45,71,-275,274,273,-158,179,206,-149,8,-208,-290,-85,-304,-94,258,51,69,-298,-195,-50,103,-37,50,-125,-13,-175,-200,-221,21,13,236,164,-96,9
-137,53,40,178,160,-252,-180,-80,-80,-140,123,-177,-107,10,-75,32,-285,-68,107,115,77,307,211,-184,-263,178,97,-110,-209,87,-104,45,-86,-147,19,-18,-274,-197,-47,-189,-70,62,-212,207,91,0,37,174,144,-267,-241,-60,211,281,275,-276,-293,6,-283,28,-2,-269,-293,-195,-276,133,242,100,-206,170,-305,-260,63,-246,-252,3,135,190,299,73,186,-276,-115,89,-51,-34,-148,-1,79,172,34,205,255,200,-156,152,217,-62,264,-19,-172,119,-111,253,-69,-147,4,262,-136,228,-199,151,99,53,0,193,129,-4,65,-167,181,239,-178,-201,99,73,-114,-103,32,40,152,77,-118,97,61,126,-160,-231,-128,-79,-39,-31,-238,-193,-88,-211,-243,149,-40,-39,196,-175,42,279,-115,-101,-245,-267,-175,-92,-90,46,180,-66,289,205,213,-146,-205,184,-200,-139,-177,-244,225,-257,240,248,-271,264,-30,97,-232,282,-58,-23,225,-264,-15,-84,-97,-161
-190,130,134,-225,119,260,229,222,213,-49,-129,86,-172,168,-113,-216,-279,68,236,194,-86,94,183,161,40,-139,-31,-294,-71,7,151,205,-16,-75,79,173,-116,15,236,-228,-41,53,-130,-232,-210,-190,1,-1,-291,-97,-188,-223,89,6,-75,19,58,-261,-141,84,-47,-281,-56,-259,97,31,-178,-214,-68,-268,252,-138,-168,52,85,-255,28,226,149,-152,-264,178,-204,182,-34,262,29,5,135,-283,-269,3,-101,244,51,82,-70,290,21,317,-176,-240,-71,230,-271,218,65,30,65,176,102,-305,40,-99,281,125,248,225,223,153,158,-246,-49,-247,-170,273,186,125,-37,18,-154,43,-17,281,73,58,236,128,11,192,49,-209,-21,241,126,-62,-28,222,-134,115,263,-55,102,-49,201,-267,-3,186,20,-278,-155,-54,77,-255,-185,-81,-227,-12,56,84,-170,-84,15,37,-267,-261,-176,-36,198,-157,-103,34,81,-222,196,-92,142,25,25,-51,-284,211
-36,241,253,309,21,92,191,-17,234,-50,-180,-271,-51,-143,-282,-233,-160,143,-250,-219,15,-212,-35,153,-41,166,173,17,66,-162,70,-152,117,44,-223,192,146,113,-123,239,-192,255,-119,-4,106,34,218,-193,-304,-171,-268,-97,202,-93,25,114,147,-60,139,-226,-175,-223,-77,4,134,144,-74,-182,36,-72,45,-132,-162,-246,264,-162,75,-167,251,-75,-75,-32,-247,-213,-155,257,205,-69,-4,285,-35,42,257,-21,46,118,217,-51,51,-142,-220,18,-226,40,-52,-162,30,-170,37,-148,-65,261,314,30,-207,109,-220,282,241,61,40,123,-94,-26,87,-152,-237,167,268,144,152,267,-52,49,-137,180,-156,-233,-9,-232,-61,236,25,-50,-14,-30,-284,-49,296,-256,157,202,139,13,-6,-49,47,-3,6,-145,250,59,-17,186,-145,-250,254,117,-172,-32,-114,229,214,246,-123,-172,-154,-244,14,-119,85,60,208,92,128,88,-153,25,-159,-35,172,-174
120,83,79,-185,-212,51,189,-70,-229,-104,199,248,-206,-91,208,20,187,259,-50,-262,-175,-183,224,49,-250,-42,-285,-140,-263,-198,55,-265,-81,-99,212,-31,-157,39,196,-314,-269,-97,221,-87,-48,84,-193,-22,-247,262,52,42,-277,-204,-157,-280,135,-108,151,-180,251,-103,-77,-296,20,104,-89,-114,-229,-275,-219,-28,-53,-211,230,-303,-205,-269,259,62,274,59,100,51,-270,-197,229,103,259,-57,254,85,203,-283,-59,165,-83,236,-108,17,202,126,126,138,128,-10,-61,245,290,-138,-213,-134,-167,253,-20,-16,-312,-22,-83,186,19,220,-274,-220,81,44,36,-272,121,-288,45,98,118,23,198,196,-226,177,-34,-285,-196,118,-155,-36,259,-33,-271,-160,72,0,-213,-78,-257,99,66,-261,186,211,209,-19,77,104,-301,-219,119,-186,132,144,-176,-261,119,-262,-28,-133,239,-242,187,48,-34,-52,-181,111,247,-21,-194,53,285,-263,278,-34,67,151
-11,-106,-277,155,-131,-135,-132,223,-47,260,-277,-164,-202,-254,190,-149,282,222,-17,175,-243,153,239,50,-60,-61,-246,-278,-295,-217,-173,131,152,53,59,137,-172,59,128,-245,-112,-177,149,-1,-213,-55,-227,-42,-140,238,240,-197,-246,163,-223,216,60,32,-93,-45,-79,-208,71,-12,87,143,-257,270,-60,300,-148,58,-187,144,-60,-235,-298,149,-61,300,-278,-61,-243,-24,-261,54,31,-53,140,77,-46,-71,29,141,-193,283,87,-129,245,41,-235,-36,61,224,102,-97,-59,-281,-54,-256,-286,68,-109,286,142,257,-50,-20,-9,170,-12,-270,-255,80,134,-251,-39,-35,190,-192,-177,-287,136,164,-125,194,88,26,113,51,-108,-2,262,-1,127,-95,-70,-125,-233,-165,-166,-248,-229,13,-63,-73,142,90,-82,41,-233,84,-254,-60,-250,-5,-55,-183,113,-186,-53,24,269,271,280,249,275,-126,-299,93,-102,175,-33,260,-208,6,13,-300,219,180,-1,27
112,81,220,-108,211,54,-261,-223,-60,-151,228,-32,297,-210,126,-7,232,-213,-158,198,-250,-47,177,116,-309,119,-160,307,204,-248,166,-27,82,42,211,-33,275,-204,227,-122,174,157,230,-80,242,127,-7,-42,80,16,209,59,-14,234,-98,86,-101,-172,-203,187,-175,-29,121,196,269,-185,276,129,-194,43,-80,-231,252,102,-149,-15,265,-157,87,-110,17,29,-185,31,-74,-68,-172,177,-181,245,16,-213,51,138,-209,-177,-10,-60,-27,175,155,-79,-148,-122,52,-232,311,254,-166,-269,-95,-199,-147,-49,34,265,-216,-201,-252,-39,-246,245,-224,154,-211,148,166,219,-4,136,264,-163,307,-103,11,-1,-222,-203,-219,64,-168,28,-260,94,167,-131,-240,-217,-36,54,-277,-44,299,-20,-228,161,247,-156,-168,8,98,-277,-48,177,58,255,137,268,40,137,-52,133,206,289,281,4,-42,128,-91,-137,219,-27,215,47,-161,-191,-94,-218,55,2,285,-108
204,185,-257,208,133,28,-17,37,148,-254,-45,-220,203,138,130,289,-128,147,-40,-53,284,121,-22,39,-35,292,-8,233,-31,123,-104,-84,-44,69,173,-208,235,278,-170,188,185,214,-45,-169,118,-173,111,4,44,181,172,-79,0,-126,-71,-160,111,57,122,-104,184,-20,268,128,16,186,145,-13,-17,240,-240,226,40,-249,16,116,-267,296,-138,135,59,-197,277,264,65,-27,64,128,108,-91,75,197,-133,202,207,-274,-219,89,-69,-139,129,118,-137,130,-116,32,-163,-48,-121,14,283,181,-262,43,61,24,118,149,55,-127,1,-101,236,-91,99,213,-66,-120,-276,-60,-108,-167,-99,278,-148,144,143,-305,247,131,-95,-267,-150,-205,-254,-17,-28,-283,-170,242,10,225,-110,-219,30,-266,215,-69,106,130,271,160,-250,-37,107,272,125,-176,244,182,-228,242,171,119,1,-62,66,-259,251,227,-94,0,-20,242,49,201,-170,170,-151,293,23,-21
7,263,64,-33,123,-198,274,155,212,-164,-126,182,-208,-111,291,82,-220,-52,199,253,121,117,122,-238,-175,60,54,68,78,246,86,-50,-49,300,-217,-122,-5,10,-296,86,-279,248,-252,-256,-118,268,-268,65,20,-198,-131,-158,81,-142,-47,-242,-301,46,268,26,-57,176,17,-267,-293,83,97,-212,-12,-144,-285,-112,268,115,148,60,-104,153,155,138,-136,178,154,257,177,-244,218,-116,-231,-297,-24,283,85,-225,-267,154,82,-288,-168,291,261,-110,158,148,110,-292,123,-199,87,-92,-163,-133,49,29,221,223,75,-226,147,-213,7,14,-35,75,-155,-215,-137,168,158,209,-101,214,-105,-205,-228,238,-270,189,-17,56,-235,2,72,-62,-55,-11,-272,49,196,-153,-112,-242,-86,43,-200,-144,-69,164,267,-55,-89,-210,93,-232,-122,-13,227,-16,-227,-98,212,253,-104,-223,-244,276,-70,16,176,-270,67,-27,-24,25,-96,83,196,-23,-202,59,122,119
-130,-305,-49,99,255,-233,154,146,87,111,-103,-72,-194,-79,-119,-184,230,-45,-318,83,-308,35,-126,-30,274,63,238,261,-271,26,-66,-174,-276,38,-194,-129,142,125,241,313,66,-155,-7,-75,-88,-141,-276,-260,158,88,215,-128,-43,-150,-195,-174,234,-249,-104,-268,65,64,-106,-280,224,-15,167,-175,275,131,190,-54,-257,134,-103,71,182,239,-33,-17,146,64,268,278,241,50,262,255,-249,-314,-249,-141,-228,186,262,-167,46,24,95,-264,-138,-46,143,-119,6,138,-78,-112,-145,156,-4,139,81,56,-18,53,20,-54,108,126,118,1,-81,-185,-124,-303,177,151,143,-255,-9,164,-314,125,185,74,198,-228,107,253,-288,-217,-137,-237,-5,47,-1,-140,-54,-201,234,-211,153,-214,-175,136,137,249,-255,224,-229,201,175,-248,123,-12,82,100,-236,175,0,190,82,-12,14,34,104,-104,-241,-238,-185,156,-18,21,-125,142,-204,-229,-69,145,105,-126
-29,101,-271,125,-266,253,222,-215,233,162,101,-36,159,46,-110,-137,-188,126,-61,-102,162,27,56,28,-297,-86,124,35,150,-149,-143,0,197,-274,97,-229,-149,270,-229,94,226,191,52,277,-150,-178,-133,33,239,-30,154,95,-180,-170,-1,-147,-83,-190,-54,120,-158,193,-277,-156,-21,252,-269,-74,-190,222,-22,251,-62,168,-107,145,201,-167,30,-2,-37,-230,-175,-259,96,-95,70,-126,-122,103,-94,105,-113,-2,140,-116,-44,52,46,-46,165,199,-237,-154,36,3,-63,223,73,267,267,-299,296,-166,190,65,-135,224,-129,92,-65,96,-159,-212,152,56,91,-205,-156,113,266,182,-170,-266,-165,-254,-118,-176,63,42,128,212,151,32,-125,203,40,-136,249,40,149,83,187,190,-196,20,193,-240,129,-212,130,-261,168,-208,-6,-194,251,-191,287,-274,229,293,-238,262,-22,23,11,110,-90,-74,-126,86,-154,-71,269,-195,74,276,94,201,282,-178
-207,286,182,-89,52,-245,234,-225,238,-138,109,82,160,0,-202,-13,56,-6,-258,-67,281,-187,-76,61,204,105,147,-188,53,269,-248,258,11,61,266,-20,219,-115,-4,-212,105,-33,-81,45,143,-143,-212,-187,-74,-186,17,-120,284,-150,-18,-261,50,248,64,-23,0,164,228,-88,-119,155,89,95,124,-41,-48,60,174,-141,284,126,26,52,189,-131,-19,249,-216,185,-273,-97,-248,273,-60,38,49,154,-7,-276,225,193,-68,-59,153,-162,-158,-147,-130,188,-312,-177,-285,-111,226,-20,-215,-64,75,-76,-139,43,-18,-229,-36,112,30,-123,-220,-22,196,159,76,109,-1,276,291,51,70,-266,269,-195,-63,-88,212,-72,-127,-156,-6,232,-43,191,-133,30,207,137,89,-111,185,-127,9,-8,-48,-187,62,266,-126,-99,171,-225,153,253,-117,-2,247,-209,8,43,112,98,238,-268,212,279,-33,-47,42,165,238,242,-66,-136,121,-158,117,-89,-187,-67
69,-257,71,-43,174,-66,189,81,206,-296,-86,262,-30,-215,-119,-4,153,-179,-220,59,-247,74,-112,-25,-36,-14,22,236,-34,-273,224,-36,-141,269,26,57,-236,-289,173,191,141,-92,-49,-93,62,-52,-104,-158,-103,50,-213,181,195,-134,209,-221,221,-264,218,-31,-204,13,114,-150,-103,-23,25,125,-266,58,110,81,21,129,-279,-15,-55,17,195,-130,-100,28,-122,-278,154,80,-10,140,113,158,-163,96,248,21,-13,-146,-133,65,232,-141,-105,-289,-293,-55,-291,-193,-163,162,213,-81,-50,-230,154,-305,-232,244,-272,12,108,51,-295,92,6,-27,-176,-12,284,188,245,-249,14,-184,182,48,-148,-257,-82,103,-68,-164,255,-52,274,81,229,-159,-49,-90,-75,-224,-76,-268,-99,263,162,77,-1,-134,203,5,-16,86,158,173,184,205,72,-70,119,-216,101,235,256,-309,-202,162,82,159,98,219,101,253,-201,-297,-195,-75,190,-16,-156,8,-128,195
188,-68,-299,119,-194,-87,-214,278,144,239,189,-184,-210,15,-47,111,193,-196,111,-131,-151,-40,-299,-161,159,242,171,-40,-208,34,62,-11,126,95,-26,179,-265,192,-133,-78,-93,-12,126,-207,165,-223,-299,196,5,-265,120,-283,-11,-310,-186,129,-116,238,-25,6,-155,28,128,-41,-83,-202,235,216,-132,108,278,98,153,215,65,257,-255,-107,-182,125,-229,175,-289,72,170,262,81,-210,-293,156,-175,261,-262,-54,206,205,-217,-69,215,78,-212,-295,-122,-61,-99,143,72,277,153,146,21,286,-82,-186,80,-91,226,-137,-269,-148,-258,-110,243,231,258,150,-164,12,-90,-309,-121,-105,-195,125,0,-228,109,-147,203,-2,-273,-187,-222,-283,-187,81,263,140,226,-218,-125,-116,43,-272,87,-200,68,-119,-289,-108,-106,-150,282,82,183,-158,115,-76,121,-179,-200,-226,277,233,-275,-87,-26,-55,119,266,-232,-142,241,46,-92,64,-272,-182,180,-235,-216,18
175,36,239,293,-25,-238,298,-272,84,206,217,-67,45,-3,68,209,-166,-242,222,-59,245,43,115,-67,-189,209,226,133,167,-202,-54,-268,294,77,-88,56,133,296,-217,23,-5,-122,-72,-249,89,225,-286,-84,202,156,293,-33,-46,-170,174,102,-282,138,-59,-198,-232,9,21,257,-284,48,-81,154,106,51,-76,260,-44,116,-246,-179,-46,-37,99,-201,271,59,220,-102,-146,-197,-117,10,250,-146,193,96,-107,-152,190,-120,144,-1,-60,-168,-100,220,-182,-151,236,60,-201,287,-43,-50,-274,246,51,34,29,-195,-196,126,98,-19,-139,-204,-193,1,-206,130,173,20,-289,-102,3,20,71,129,69,198,125,-212,44,-123,4,189,103,-155,-254,188,12,-33,-228,-76,182,-128,-218,-237,13,26,-195,74,-26,126,-76,40,247,7,-280,280,-273,-188,26,288,181,241,-273,220,-213,130,71,-133,4,118,246,-147,-24,-210,54,-99,78,-72,-182,293,262,54
-295,64,277,-268,-139,108,159,232,-99,202,-77,277,-140,202,-271,-57,-27,-7,-115,-69,-145,248,-130,180,-97,-96,175,293,262,257,147,-19,-311,-138,245,-94,142,-250,-142,-211,-215,-257,17,-173,30,165,-66,90,-67,-259,228,39,-181,147,-317,53,303,140,-134,-102,106,-188,229,-59,85,7,-142,198,-280,-262,110,-172,-243,-260,-135,-252,-207,-310,-245,120,-53,-115,100,-69,59,-77,59,-242,144,-138,-56,66,215,-273,-214,-154,-126,-47,-218,-224,-94,-188,-248,-150,-163,161,177,-214,-66,121,-141,235,-125,253,37,-177,-61,-56,288,-304,49,236,195,-1,-16,-241,259,-130,115,-106,197,239,40,-72,134,-289,132,-169,-251,74,-83,116,-144,-56,134,-142,-8,-59,-95,-228,-112,35,-191,-181,188,-106,-127,-266,44,-132,155,174,-59,179,197,-255,-146,86,159,84,83,-75,-208,-171,-146,-168,-218,76,-12,-191,-82,-188,80,-22,83,-80,-98,142,-212,-65,182,-294
