0.02362043,-0.13860662,0.2219844,-0.039855283,0.060997672,-0.049757026,-0.04244993,0.09067174,-0.13279347,0.11108523,0.14162508,-0.08100962,0.10323979,-0.16653107,-0.090454735,-0.17461064,-0.17035246,-0.013593473,0.015062623,-0.058652084,-0.08619732,0.18160595,0.03371473,0.071485244,0.011551094,0.04526644,0.13931121,-0.17632213,0.03659751,-0.11644879,-0.12870713,-0.18347795,0.13230062,0.17998555,-0.053155284,0.060216054,0.11950798,-0.01308097,0.11965052,-0.063392274,-0.09581538,-0.12372521,-0.030315097,-0.038683448,-0.07405751,0.16641337,0.10581228,0.13983342,0.1304879,0.08348504,-0.044702876,0.22454876,-0.02129131,-0.15901251,0.022090541,0.03200581,0.20608921,-0.098762184,0.06674938,0.085195586,0.15783788,0.097256675,-0.08835455,-0.08738805,0.023824275,-0.15132275,0.20281361,0.16187371,-0.1841166,0.23472421,-0.15400639,-0.1861252,-0.058277994,-0.17216374,0.029436233,-0.12385771,0.010968665,0.17595904,-0.16662925,-0.19276416,-0.025233958,0.18328017,0.14811084,-0.14199266,0.22902082,0.062736765,0.07102542,-0.014431826,0.16221076,-0.122531734,-0.0048246183,0.20937835,0.063724026,0.081145704,0.115480304,0.17894891
-0.12911037,-0.04617505,-0.10420984,0.03147422,0.016782094,0.11151142,0.059809323,0.047147673,-0.033267114,0.19457924,-0.117817044,0.020799046,-0.15908073,0.09924842,0.067004584,-0.07806956,0.047290716,0.22666527,-0.1469425,0.06926086,-0.14491877,-0.05719297,-0.12605505,0.071549736,-0.15291929,0.073920645,-0.16087088,0.182959,-0.045222476,-0.018935667,-0.21146628,0.09533054,-0.102022894,0.13074286,-0.065685384,-0.03854523,-0.029813552,0.15174651,-0.10718093,0.101343915,0.07037795,0.068719976,-0.18794104,-0.082736,-0.12566867,0.017498748,0.17835458,-0.083806224,0.07258452,0.007846791,0.11629851,-0.1757352,-0.025801325,-0.13193049,0.16250756,-0.10463642,0.16331317,0.17655696,-0.19199187,0.105870105,0.110688105,-0.17047629,0.013017804,-0.0132979015,-0.2016955,-0.15055485,-0.033276822,0.04829989,0.03860431,-0.14951694,0.07316745,-0.032195043,-0.12295792,0.090534,-0.14288601,-0.06586142,-0.09537447,-0.06709919,0.036374353,0.1578088,-0.04649029,0.16667414,0.03897019,-0.011639466,0.12917338,0.00051720935,0.03796306,0.11764422,0.081213765,-0.03757529,-0.17932428,0.07405088,-0.19092892,0.07718048,0.020336578,-0.07779238
0.012830069,0.20796233,0.15471211,-0.01721822,-0.060611967,0.13307123,0.16087195,-0.16458645,0.008730723,0.07603115,0.0452766,0.16206662,0.20335385,0.124204874,-0.18346998,0.16394392,0.10385639,-0.059219446,-0.1514513,-0.1355618,-0.1972105,0.11068113,0.088532045,0.0880999,0.09675216,-0.17504627,0.07798438,-0.009394241,-0.18274413,0.11168924,0.1554865,-0.21614997,0.15373154,-0.21290778,-0.08133366,0.1797074,0.070571065,-0.14607048,-0.035305098,-0.11335954,-0.07475058,0.14512917,-0.044611234,0.17527187,-0.12521102,0.052375097,0.17164354,0.07581127,-0.21603705,0.1532956,0.2001275,0.07002101,-0.1374869,0.1676261,0.055114277,0.14533293,-0.057662178,0.12189865,0.15681058,0.00093739387,-0.093703166,0.16091743,-0.10945629,-0.21533372,0.11759077,0.0834795,-0.23903444,-0.12376692,-0.08089469,0.05769731,0.20308314,-0.0562058,0.021045744,0.148093,0.14248042,0.002266557,0.11803039,0.03585481,-0.005128055,0.0067999023,0.13652779,-0.07965309,0.13629405,-0.18400823,0.10812322,-0.060128443,0.014341767,0.16739677,0.106730446,-0.025555635,-0.22323637,0.06759165,-0.017441625,0.15365036,0.18034932,0.15196985
0.03764045,0.034770355,0.08251671,-0.06066486,-0.023341373,-0.16834635,-0.12916453,-0.015631659,0.15014195,-0.15489852,-0.12094905,-0.001944263,-0.09350386,0.15421167,-0.054511894,-0.17139089,0.091168866,0.15524806,0.06847846,-0.07725599,0.079346076,0.117439315,-0.21485934,-0.16709271,-0.18089433,0.041904394,0.049587782,0.007073469,-0.0997102,-0.02014899,0.09239704,-0.16543698,-0.0027612965,0.0065472247,-0.17442338,0.0033458197,-0.12477205,-0.09848983,0.020589588,-0.1846024,-0.10079667,0.09902047,-0.0983871,0.1659473,0.07055041,0.025803316,0.10893975,0.16116911,-0.15144962,-0.18103264,0.1565218,-0.20363568,-0.16786705,-0.08109495,-0.10760682,-0.06421101,0.14683045,-0.04839704,0.11236738,-0.028779732,-0.16723429,-0.14069185,-0.20670123,-0.17201951,0.12056141,-0.21516736,-0.006012424,0.10321889,0.06369431,0.10730153,-0.013533915,0.14226978,0.053504094,0.11641,0.057401165,0.1526328,-0.035596102,-0.098025404,0.1018643,-0.20511392,-0.1965274,-0.21155712,0.03074235,0.00067866134,0.16378018,-0.0060653356,-0.09786139,-0.112850875,-0.13818394,-0.11756779,0.12270773,-0.19599319,-0.20336057,0.000697756,-0.0688802,-0.080964915
0.18676771,-0.010618731,0.12964876,-0.102113955,0.13994402,0.13332443,0.06048318,0.09703931,0.04360876,0.078503676,0.11764263,-0.02990753,0.1719889,-0.021464631,0.21440984,0.043902896,-0.061125744,-0.12131141,0.22527865,0.03987852,0.100859,-0.020722177,-0.07802662,0.120193265,-0.10323971,0.17481054,0.07847398,0.18872021,0.16991839,0.0669109,0.24082996,0.13134201,0.15408382,-0.036255814,-0.17240226,-0.14074434,0.092725135,0.16389912,-0.10067403,0.12661284,-0.124984846,-0.15581878,0.082328945,0.20289828,0.102370284,0.020639973,0.1944942,0.08193807,0.19322707,0.15459232,0.09492034,-0.028396118,0.025751032,-0.18575878,0.040978514,0.0057950513,0.033590134,-0.042777255,-0.18078616,-0.14828826,-0.17033759,0.22086073,0.08878805,0.010701166,0.033318195,-0.085128166,-0.09171401,0.013461217,0.15582293,-0.07276574,0.09431804,0.19906716,0.18355682,0.13054186,0.2113556,0.08117403,-0.09048909,0.18002254,0.14895383,-0.14393555,-0.08131792,0.08313156,0.13808829,-0.19498797,0.12387103,0.13969843,-0.100126,-0.010771475,0.2034491,0.23427251,0.09007001,0.13453013,-0.0485525,0.0005710033,-0.14615819,-0.1396149
0.022086658,0.028360782,-0.20222278,0.11946798,0.17506506,-0.14446181,-0.14059505,0.05208951,0.026960567,-0.03235343,0.14652401,-0.034595218,0.14585939,0.2337508,0.12242158,0.19092649,0.18168147,0.16546418,-0.00074670336,0.14913207,-0.054420233,-0.046130583,0.14020042,0.20532218,-0.08705181,-0.18003364,0.19100678,-0.032477256,-0.19063346,0.19670965,-0.12801296,0.14933293,0.0066031218,-0.078265935,0.1835371,0.07918433,0.14819063,-0.08002141,-0.18651345,-0.03373069,-0.112387285,0.11056248,-0.0617529,0.2251413,-0.13085547,-0.13410448,-0.16907595,-0.053281758,0.20583694,0.16510653,-0.018258316,-0.15288024,0.0004029799,-0.023431178,-0.15064204,0.22017804,-0.091448694,0.1294999,0.044028305,0.0031259414,-0.15266381,-0.17418574,0.1170181,0.10058682,-0.05484566,-0.051412456,0.06951074,-0.14065693,-0.14020982,-0.12469086,0.13986753,0.14221513,-0.033987414,-0.118150264,0.029634504,-0.09191074,-0.091078006,0.14493227,0.06404718,0.12432449,0.029813403,0.039058045,0.21021946,-0.058330588,0.038275123,-0.038599484,-0.13623728,-0.18642852,0.16412988,-0.17846999,0.01751125,-0.07222257,-0.11077075,-0.17502458,0.022281783,-0.1319556
-0.1502842,0.042726345,0.058846224,-0.011441315,-0.0013663215,0.1995163,-0.11922987,-0.10186219,-0.025634114,0.09136872,-0.08066756,0.14354895,-0.12181438,-0.016682275,-0.0030291362,0.0033064666,0.130996,0.18665367,0.20887771,0.21066026,-0.17757824,-0.026013957,-0.038985793,-0.0044859187,0.036669724,-0.22736752,-0.14450783,0.099251285,-0.14488187,-0.12209024,-0.088870436,0.008639484,-0.170787,0.07098692,-0.16384272,0.13173032,-0.053753525,-0.027443279,0.1364256,0.076681554,0.23686606,0.024745418,-0.023588408,0.118956044,-0.16887249,-0.06005452,0.013850261,0.11922708,-0.13999024,-0.23757122,0.09549061,0.18374446,0.1971032,-0.061102953,0.19797729,0.16166843,-0.10291502,-0.020776503,-0.11805109,0.0012041279,0.004871862,-0.013715743,-0.0073791863,-0.053021263,0.11337722,0.038380302,-0.20788959,0.047803923,-0.076033555,0.14212982,0.14631452,-0.09407211,0.094255164,-0.13226,-0.015535761,-0.08373603,-0.13981843,0.15528549,-0.042023662,-0.19195493,0.21792844,0.06163608,0.11680721,0.043840986,0.21298382,0.058558363,-0.061390776,0.07887502,0.028094789,0.15154682,0.047153287,0.138235,-0.09213032,-0.09947556,0.080894865,-0.022342619
-0.05566643,0.16118632,-0.038339622,0.09575937,0.087693654,0.2242967,-0.12655173,-0.13781297,0.10167375,0.21096526,0.13481937,0.030480092,-0.13414772,0.16473816,0.23458894,0.15204027,0.022834057,-0.025781233,0.15295859,-0.07349407,-0.15867752,-0.07689844,0.030032897,0.16800365,0.0025596896,-0.11277869,-0.15729585,0.09004516,0.18840517,-0.22050112,0.14753577,0.026687205,0.047886916,0.029293422,0.0043988447,0.12665755,0.16406782,0.02652664,-0.113904506,-0.03886763,0.068443686,0.07298783,-0.060605694,-0.18297784,0.043411657,-0.16355264,0.04572643,-0.1553652,0.18010502,-0.103275456,-0.19099717,-0.11505115,-0.12515008,-0.103652574,-0.18280233,0.034543525,0.100042954,-0.0012142651,0.14493354,0.04894842,-0.1092515,0.048407376,0.05605335,-0.10059576,0.17506646,0.1585832,0.09881247,-0.051773105,0.24508598,0.071458496,0.19685291,0.064447545,-0.044157933,-0.04045816,-0.1746776,0.1948376,0.00517298,0.22570197,0.13329157,-0.19390827,0.14052007,-0.16101621,0.0074742166,0.001344017,-0.15717952,0.15053591,-0.2037181,-0.16931412,0.19878495,0.115170486,-0.09492121,0.011899793,0.001390307,0.03913301,0.17680225,0.13880384
0.22694246,-0.12901697,-0.1572613,0.016930668,-0.09304704,-0.078586474,-0.14468773,-0.03128752,0.09617072,0.23907623,-0.000518905,0.11797263,-0.11934749,0.1629691,-0.07379023,0.008114679,-0.11145688,0.21043116,0.02266968,-0.03262228,-0.020951128,-0.104351796,0.14054242,0.099378124,0.11651295,0.095658526,-0.087498866,-0.15710427,0.2225366,0.10641696,0.16020061,-0.015928779,0.0016334541,0.09969416,0.0034229208,0.12684129,0.10591263,-0.10963138,-0.13168657,-0.10426222,0.100617975,0.07823418,0.0057837195,0.20091455,-0.0128845805,-0.13210946,0.04138955,0.19224411,0.17476454,0.18236287,0.1650977,-0.017793763,-0.024443353,0.05098385,0.039589886,-0.031165527,-0.039185274,0.06330854,0.16947481,0.082969144,0.23290671,0.21558987,0.20432977,-0.02351727,0.13454561,0.1938604,-0.07907247,0.040371004,0.12684698,-0.11453002,-0.049262274,0.1838053,0.023922019,0.24899583,0.09710492,-0.1533746,-0.0017273518,0.04445027,-0.017771395,0.014297337,0.102183156,0.15019064,0.059121884,0.0036637045,-0.114061065,-0.090077795,0.055061266,-0.08942955,-0.072121784,-0.013390471,0.19185163,-0.06913456,0.025687248,-0.09707277,0.012271966,0.13363975
-0.05956372,0.20876099,-0.123870745,0.055194885,-0.074870646,-0.10661415,-0.21775551,-0.09889324,0.05775017,-0.030553848,0.11394825,-0.13670427,0.18961905,-0.13870093,0.03995494,0.05182922,-0.13929176,0.05289246,0.061061844,0.13983732,0.059359834,-0.041082945,-0.13070564,0.13803028,0.013069259,0.12765694,0.089914486,0.037865356,-0.00067910645,-0.15236282,0.1163222,0.03974514,-0.0903136,-0.2143589,0.1478978,-0.12345147,-0.17539223,0.16193056,0.19333862,0.1913254,0.110223,0.038226854,-0.08738915,0.02515751,-0.15350206,-0.0377689,-0.045238294,-0.052453607,-0.08787577,-0.17368467,-0.14711274,0.1423673,-0.03773692,0.037440237,0.20434904,0.17681438,0.1643408,0.009127869,-0.15476002,-0.051509533,-0.059987728,0.1824754,-0.07023097,-0.09279705,0.046450045,0.019538177,0.115107805,0.06703581,-0.06328487,-0.13043451,0.097450644,-0.15636906,0.07034968,-0.069492094,-0.051117707,-0.012381265,-0.021611968,0.08725619,-0.13264005,-0.09714635,0.052208994,-0.021269556,0.014376644,0.08679089,0.18154958,-0.19162127,0.10185795,-0.01924083,0.11892069,0.17246936,-0.031785708,-0.115746744,-0.020112244,-0.21149296,0.049409196,-0.08649366
0.15397547,-0.06135423,0.18227366,0.034184854,-0.08630649,-0.05401156,-0.010195187,-0.008385163,0.19786781,0.12826209,-0.09576396,0.021405645,-0.12296189,0.089461766,0.13200668,-0.117378,0.13987875,0.0070773647,-0.055455487,-0.018357413,-0.15710439,-0.066458546,0.090198636,0.0066198045,-0.014238719,0.24000998,-0.08317454,0.14676154,0.10041469,0.054154113,0.18052885,-0.02263065,-0.069826156,0.19185247,0.24420051,-0.14160366,0.09641816,0.22456117,0.10321545,0.25056985,0.21152979,0.07412148,-0.0019666622,-0.08024474,-0.20281868,0.0025080396,0.0882297,0.14286835,-0.12410292,-0.0757079,0.19611003,0.152503,0.17616762,-0.037835073,0.20174031,0.095805764,-0.022990322,0.14265926,0.021851152,0.12266352,-0.13972084,-0.14611715,-0.033791937,0.052267853,-0.082593806,-0.043744266,-0.006460571,-0.06775658,-0.091038264,0.118450195,0.06088867,0.13190956,0.09168231,0.010340114,-0.20772693,0.05431837,-0.17253503,-0.046442255,-0.060297668,0.06425823,-0.06700968,-0.073445044,-0.14138038,-0.13633859,-0.05104193,-0.093552254,-0.015073397,-0.124166705,-0.17109624,0.10958076,0.12127448,0.13596699,0.069689736,0.18832499,0.1573035,0.08022282
0.1444048,-0.021267464,-0.09313456,-0.034074757,-0.1269612,-0.08049906,-0.061786816,-0.009827679,0.23615067,0.1842738,-0.14774211,-0.1658829,-0.07726493,0.107432276,0.0580236,0.13013507,0.11789123,-0.11320425,0.095483154,-0.092461094,0.19112623,-0.20030317,0.076118425,-0.14977567,0.12099479,-0.12075556,0.087286174,0.03177948,0.008092849,-0.13894548,-0.17851873,0.22189277,0.021738961,0.011866575,-0.027832488,0.076275855,0.13068224,-0.1470394,0.18603776,-0.13171114,0.20283692,0.14845869,-0.16699414,0.066427976,-0.118235216,0.20745373,0.21116425,0.13191281,0.03709055,-0.13335635,-0.02254714,-0.10547432,0.20349196,0.19634515,-0.042547476,-0.04174449,0.1544484,0.059502322,-0.08884597,-0.05541,-0.06516324,-0.029689692,0.096104644,0.055549074,0.16759728,0.11115555,0.10623436,0.080642775,-0.117574096,-0.15291773,-0.09994596,0.086181186,-0.13320234,0.08471977,-0.066479325,0.0112422565,-0.16042581,0.10702317,-0.064808026,-0.10835145,-0.09702425,-0.09300773,0.0872145,0.1025261,-0.17784815,0.12764062,-0.14616737,0.1561517,0.21637516,-0.04081411,-0.10722593,0.00077809906,-0.085419625,-0.0028250758,0.083274215,-0.11285139
-0.04312299,0.10871995,-0.009237448,0.19475915,-0.043328963,0.124358766,0.03684859,0.05310897,-0.013907189,-0.030941518,0.03810801,0.081369065,0.11609316,0.04170599,-0.19883367,0.034303233,0.19340084,-0.20588304,0.17665246,0.15804331,-0.06651368,0.20902267,-0.10244265,-0.07650775,0.22440426,-0.13245961,0.20764264,0.18515506,0.09710704,0.09536994,-0.11131853,-0.06958306,-0.2371507,-0.043412134,0.013688499,0.07687743,-0.1691378,0.04477148,-0.121088244,0.13222457,0.08650885,-0.107707955,0.074468665,0.12675919,0.10083187,-0.02406631,0.056017455,-0.08652624,-0.23842138,-0.12207539,0.12304274,-0.020410957,0.049254622,-0.20110334,0.03879072,0.207213,-0.21217519,0.23019567,-0.081945285,0.0767449,-0.16546133,-0.04348841,-0.18318601,0.008301265,0.12716039,0.08721139,-0.19265167,0.07599236,-0.19576004,0.037571922,0.21239269,0.00665088,-0.19404598,0.06834559,0.009128853,0.12612373,0.218593,-0.17177542,-0.08137249,-0.018553907,0.2053025,-0.07600823,-0.21197891,0.17521179,-0.046259873,-0.15751907,0.17499052,-0.14912958,0.043968957,0.05170477,-0.08803925,0.14995222,-0.09699337,-0.07380548,-0.06754215,0.020825202
0.018575467,-0.14854881,-0.23740515,0.11794008,0.08269232,0.018290503,-0.04632223,-0.026775775,0.25238016,0.019565865,-0.14756162,0.14102562,-0.017513623,-0.11410968,-0.045006935,0.18066277,0.014972527,-0.19052011,-0.040859506,-0.18399733,-0.11404671,0.07978055,-0.07510092,-0.06512974,0.117162526,0.012656759,-0.13810574,-0.07716006,0.012603259,-0.12986416,-0.18273808,-0.057094358,-0.02968308,0.1543431,0.17947361,0.10688135,0.1990213,0.05129571,0.027386907,-0.022301424,0.07743822,-0.08597805,-0.12713407,0.2247425,0.08180776,0.03246742,0.20363934,0.1540993,0.084015794,0.19307736,0.1471852,0.091507144,0.12503006,0.053617544,-0.10926625,-0.13307543,-0.16158749,-0.06468939,-0.13093624,0.11589905,-0.004851732,0.07631418,-0.12236497,0.06120301,0.0053566634,-0.08411079,0.16966096,0.18330349,-0.010385517,-0.24063854,0.075015165,-0.06709185,-0.09382548,-0.04490044,0.019213522,0.21467093,0.2223364,-0.0077102655,-0.044871833,0.19931647,0.07176359,-0.13915877,-0.07499534,-0.10704227,-0.20800515,0.06989286,-0.054961395,-0.123489745,0.037478797,0.047292937,-0.02689378,-0.069039896,-0.108695,0.23325051,-0.11344876,0.21164735
-0.18691774,-0.02469307,0.05732089,0.0822164,0.15941784,-0.1522629,0.1379173,0.04712772,0.12038048,0.017559588,-0.18107434,0.016273377,-0.20511472,-0.05858469,-0.014078556,0.0004011353,-0.08386766,-0.13017789,-0.2177146,-0.12025436,-0.10078321,-0.04131548,-0.050425086,-0.19277456,-0.038427148,0.10401182,0.17425866,-0.061121907,-0.0026191827,0.09641468,-0.17221382,-0.115717575,0.034670375,-0.0034594294,0.15042447,-0.21019997,0.16434248,0.17171727,-0.06758018,0.12565343,-0.14846379,-0.15749936,-0.18368721,-0.09743591,-0.026906427,-0.0030221492,0.08113086,0.10387597,0.0035770535,0.05839352,0.06601281,-0.024001775,0.15616633,0.17573744,0.1158432,-0.13606605,-0.023964573,0.14591414,-0.009884432,0.042928524,0.08793494,0.0814613,0.013645633,-0.069648534,-0.04080242,-0.1378464,-0.028534006,0.093214676,0.16078055,-0.0596622,0.061051507,0.17382322,0.043150995,0.11066001,-0.21931162,0.026784923,-0.18358688,0.024589248,-0.055411864,0.10745356,0.15795004,-0.042912,0.1638089,0.0059836977,-0.068126686,-0.11442113,0.088013716,-0.18916239,0.15650792,-0.06703922,-0.21034433,0.18587567,0.03497297,-0.21075149,-0.18843864,-0.11533508
0.0031040793,-0.03931917,-0.1311873,-0.12635164,-0.05344402,0.22481595,0.14501527,0.15733406,-0.014720856,0.06600588,0.00296991,0.13233782,0.079038925,0.1040444,-0.123864174,-0.056481246,-0.09636629,0.11483762,-0.21104857,-0.037563846,-0.020740552,-0.019839965,0.05701439,-0.13928856,-0.1766846,-0.15249331,-0.15198055,0.03790426,0.1699271,-0.11103616,-0.006030111,-0.14114799,0.21659079,0.008731144,-0.08600732,-0.079170965,-0.12936793,-0.14538473,0.15430942,-0.028086105,-0.060706258,0.18272874,-0.1664003,-0.016094374,-0.018165147,0.13382515,-0.018779768,-0.05289871,0.0031418658,0.083601326,-0.14092174,0.13986623,0.111611255,-0.20971365,0.007683209,0.15089211,-0.099855945,0.2180272,0.20372748,-0.11923287,0.0225382,-0.1647531,-0.20111236,0.060383443,0.02000465,-0.18516852,0.21508658,-0.011252338,0.046784967,0.07682927,-0.14737834,-0.0042556934,0.06634566,0.07591872,0.18894769,0.15314867,0.052427653,0.19174542,0.061976884,0.03694155,0.09366788,-0.20562834,0.13667521,-0.17528664,0.10488802,-0.00023360841,-0.02952536,-0.037338678,0.08176238,-0.03354469,-0.012611175,-0.050248593,0.16537197,-0.017818691,-0.023618868,0.0020537148
-0.20479284,-0.07897235,0.04237931,0.003166982,0.05532669,0.06618697,0.15970762,-0.14083232,0.03857427,-0.18513623,-0.028640766,0.090448916,-0.06929773,0.038417436,-0.1645615,-0.13664852,-0.19180268,0.03302749,0.09975877,-0.20235617,0.077529185,-0.19698705,0.113061704,0.18581621,0.11402858,-0.046957333,0.051614687,-0.20247014,0.035702817,-0.12787431,0.15270571,0.0691336,-0.03818229,0.046684675,-0.1651542,0.045900244,0.066439524,0.09528497,-0.023235744,-0.058479745,-0.035172045,0.05694115,-0.08046771,0.041708983,-0.14865378,-0.0077616246,0.0125008775,-0.14643939,-0.030467438,-0.10355535,-0.07478502,0.13822794,-0.19028133,0.117277265,0.043718252,-0.08932303,-0.07372661,-0.11749272,0.002089954,-0.025742397,0.102371,0.14156239,0.11478745,-0.036351077,-0.11029519,0.111954965,-0.18520658,-0.008326984,-0.06913445,-0.13351944,0.16580924,0.06434888,0.18562843,-0.10694413,-0.013258673,-0.028757386,0.060478706,-0.17759702,0.039565522,-0.15871604,-0.036770567,0.1819115,0.02802347,-0.041563045,0.030730184,0.047472887,0.08598861,0.14295994,0.07552992,-0.04956944,-0.020749338,0.17669709,-0.15685767,-0.20613697,-0.111585125,-0.17005551
0.20549536,0.059443887,0.03549884,0.0730421,0.14360972,0.0783901,-0.07863232,0.09860626,-0.15006469,-0.0523454,0.11319812,0.10641357,0.014284321,0.011451397,0.20723996,0.031279102,0.13883597,-0.059661575,0.2097873,0.23403364,0.01593965,-0.12746525,0.19887872,-0.15280679,-0.091637924,0.098076925,-0.12405841,0.09000413,0.013500327,0.015978698,-0.16614632,-0.081816465,0.2145308,-0.14461555,0.120980486,0.23497936,0.21849106,0.1668673,-0.06305015,-0.12417114,0.09384296,0.036218863,-0.02092481,0.18092078,0.15063687,-0.1716155,0.14598002,-0.032238595,-0.037767544,0.18893607,-0.1485091,0.043093394,-0.10097095,0.15337212,0.21034752,-0.111854024,0.0909781,0.038194664,-0.010050457,0.1868243,0.1744221,0.21822707,0.14604847,0.046387676,-0.10978197,-0.10049711,0.100526355,0.17227446,0.12380899,0.017785924,0.20736209,0.050542064,-0.008279182,0.17306742,-0.048577096,0.019281711,-0.09738671,0.17843762,0.20186816,0.023977779,0.007645837,0.016832544,0.22550093,0.002189421,-0.030474972,0.2007717,0.17659646,0.02159103,-0.12452994,-0.09470696,-0.06663116,0.15281476,0.116708614,-0.10561538,0.037634242,-0.09850713
0.17810972,-0.11392229,0.10534242,-0.035682246,0.10584825,-0.16689909,0.04208315,0.13001195,-0.08686088,0.22991359,0.06988518,-0.19530182,-0.04828057,0.057830114,0.11740274,-0.06692552,0.06330294,-0.026510742,-0.1735574,0.13333395,0.16730835,-0.0792447,-0.06367146,-0.13629861,0.17924409,-0.04636902,-0.18217146,0.14787892,0.22477205,-0.066485114,0.121011086,0.040802132,0.13466913,-0.006835175,0.10672,-0.10708946,0.18615511,-0.07858844,-0.11710337,0.056220394,-0.18054314,0.17835428,-0.14030266,0.023063364,0.084957466,-0.10563002,-0.15770088,0.14016649,0.21919763,0.07735982,-0.043450736,0.19678652,-0.11359413,0.21946709,0.1213296,0.17887273,0.08468873,0.24082942,0.17066403,-0.05560071,-0.10061447,0.07451767,0.2046378,0.20209841,0.09508451,0.17648473,0.06340562,-0.018218713,-0.09741184,0.0003899181,-0.13670652,-0.14309196,-0.05387072,0.21299653,-0.10631402,-0.18118921,-0.0079137795,-0.12949784,-0.13780612,-0.08127275,0.02381075,-0.12674923,0.1551326,-0.07728642,-0.0068907854,0.036980078,0.17026532,0.1021792,-0.14806092,-0.08362331,0.14526676,-0.036228918,-0.03631777,0.19094583,-0.08579234,-0.14215754
0.05073622,0.030346356,-0.19555242,0.18858013,0.2324333,0.08516985,0.049124993,0.042015053,-0.0685174,-0.16530661,-0.12550175,0.13025594,0.181665,-0.13886438,0.10528231,0.031717826,-0.012338698,0.13826379,-0.09279577,-0.06888328,0.093478486,0.16207775,-0.1183781,0.1981844,0.055791818,-0.17812298,0.09858054,-0.11372886,-0.0546749,0.096660815,0.01684647,-0.22533186,-0.050643306,-0.19544144,-0.15390861,0.03320084,-0.099473156,0.23704323,-0.010042256,0.01922281,-0.10161383,-0.13675046,0.032258235,0.11983199,0.081230484,-0.08152088,0.05684877,-0.028009126,-0.0962824,-0.003457541,-0.08066182,0.03892679,0.1019751,-0.18458296,-0.06298359,0.12342731,0.14342597,0.18571347,0.049070872,0.19920368,0.07137668,0.2333049,-0.11772312,-0.026044736,0.12649699,0.021986451,0.06311787,0.21270487,0.066406585,-0.07997739,0.10587882,-0.21072021,0.10118824,-0.08360894,-0.097827025,0.13677455,0.21711284,0.007839923,-0.18937066,0.0090701515,0.032304723,-0.121690415,-0.2141749,0.052792646,-0.11784758,0.07856144,-0.122109994,-0.066751756,-0.12931894,-0.042382367,-0.02182514,0.057479378,0.11911045,0.19730131,-0.098412074,-0.17329043
0.24158244,-0.013036919,-0.22111994,-0.093173094,-0.063643,0.098616116,0.02614223,0.1177324,-0.074816905,-0.017133368,0.15063988,-0.093888216,-0.1843319,-0.08169001,0.09063316,0.1708126,0.14828068,0.0031248177,0.093859896,-0.16084854,0.19644819,-0.12549743,0.07493248,0.033183612,-0.018552348,0.10372037,-0.0540212,0.09473661,-0.23010883,0.1366953,-0.09082538,-0.13902207,-0.17775626,-0.012085561,0.034504585,-0.15435337,0.10957152,0.04349747,0.08032386,-0.05173915,-0.01609094,-0.09867303,0.03653161,-0.08280188,0.12483674,-0.13838163,0.129987,0.08807919,-0.2248868,-0.21050721,-0.102202564,-0.10762234,0.108892865,0.07504021,-0.06315777,0.0034779473,-0.0662366,0.044076987,0.14482428,0.075529605,0.12216352,0.06906025,0.050765753,-0.17672855,0.1774724,0.0018668835,0.13300818,-0.014240873,0.14446779,0.17586778,-0.05966458,-0.148375,0.077439494,-0.20367451,0.11920402,0.14376146,0.22045828,0.12780994,-0.058351863,0.17299578,0.1014112,0.089436375,-0.05531607,0.033493187,-0.026701564,-0.1591644,0.22213665,-0.10345651,0.13323782,0.06363647,0.018392399,0.17414021,-0.17453031,0.10235466,0.09503988,-0.09392858
0.24429235,-0.12914336,0.1298763,0.14388241,0.19584867,-0.11112353,0.2279041,-0.07222045,0.23517331,0.0071395524,-0.09425942,-0.018030418,0.22873425,0.24496484,0.18936549,0.23988424,0.044736803,-0.15005188,-0.02829434,0.023391651,0.11032812,-0.0371067,0.038156163,0.016809776,-0.040114943,0.06545736,-0.09359069,0.07643475,-0.0042173276,-0.0078822095,0.0077989087,-0.16319178,0.0066661835,0.128091,0.030750992,-0.09330191,-0.0564598,0.17779817,-0.059115063,-0.036077097,-0.10176862,0.10715242,-0.19235489,0.24568804,-0.023677342,0.037114393,0.00041233815,0.10994674,0.072988026,-0.027800195,0.08777829,0.11250365,0.113992214,0.15933566,0.2092529,0.026071724,0.16850589,-0.008685665,-0.057637908,0.03603162,-0.032573353,-0.07530789,-0.14477062,0.02168182,-0.15414758,-0.08855981,-0.17789519,0.06845344,-0.03353827,-0.10910316,-0.030157022,-0.088237055,-0.18302754,0.038959496,0.08743278,0.024372904,-0.093181066,0.025925072,-0.096024066,-0.10411468,0.23563567,0.14827862,0.11836901,-0.05337033,0.011202316,0.18430942,0.015199452,0.03750734,-0.089600004,-0.114303604,-0.012094852,-0.12881623,0.13252984,0.0200804,-0.05316002,0.2029932
-0.16562375,0.1400789,-0.09000752,0.016551161,0.028925309,0.03362865,0.13230906,0.104281835,0.0036007802,0.09301833,0.07807464,0.122221634,-0.07505403,0.22084779,-0.06847915,-0.0792149,0.11365076,-0.09013741,-0.21853699,0.19905233,0.00954346,-0.19339886,-0.01878348,-0.110662036,0.03067651,-0.06265452,0.16001756,0.011610516,0.050436176,-0.18763283,-0.19233753,-0.052518036,0.14630614,0.10633134,0.012849667,-0.18073747,0.028526086,-0.11947683,-0.11844032,-0.13811676,-0.18901196,0.016646085,0.12440357,0.0045390194,0.10285303,-0.060802147,0.018131776,0.15966104,0.19701278,-0.05185462,-0.13349491,-0.102642186,-0.07976245,-0.20200007,0.07115327,0.08548064,-0.16745293,0.097844,0.07705122,-0.08384869,0.0938351,-0.0048520733,0.11189306,-0.058461722,-0.17155096,-0.017645884,0.24503012,0.079007804,-0.012906082,-0.113917045,-0.0759152,-0.028687969,0.1783045,-0.20484045,0.13368905,-0.10479237,0.19615008,-0.14286402,0.16019244,-0.16792713,-0.08035136,0.07385756,0.1501048,0.011598682,-0.07604684,-0.20727728,-0.04764204,-0.09169247,0.19879168,-0.15659083,0.13371742,-0.08875853,0.20138572,-0.036209088,-0.17596242,0.082430184
-0.1556169,-0.07794091,-0.18439282,0.22680438,0.10269781,-0.010140119,0.085166365,0.16972496,0.12709281,-0.19031815,-0.0980628,-0.14541118,-0.048624914,0.0015822107,0.23827012,-0.044907305,-0.05334814,0.18987499,-0.086197145,-0.106766574,-0.06063107,0.15048584,-0.08871953,-0.14018476,-0.009277495,0.024860045,-0.16502298,0.23052864,-0.14095336,-0.14078292,-0.003171938,0.086576864,0.024569876,0.11149336,-0.11480897,-0.18902346,0.03603235,0.12456025,0.0408327,-0.09871358,-0.18370518,-0.18832694,-0.03764202,0.212808,0.02548196,-0.18854314,0.16831616,0.14714544,-0.0010787697,-0.043653905,0.1749316,0.04849098,-0.10632288,-0.108586915,-0.07044554,0.037659608,0.04743315,-0.101619214,-0.14543593,0.21520777,-0.16805446,0.07276553,-0.008244236,0.19815613,-0.11192459,0.22851849,0.04730687,-0.122188896,0.099588454,0.10469247,-0.07736394,-0.02672966,-0.08407508,-0.13934758,0.16790268,-0.04098115,0.17932796,-0.055653792,0.22553718,0.187437,0.07724425,0.112143256,-0.011864804,0.07462215,-0.18691827,0.19039598,-0.02091928,0.10226671,0.14467654,0.19326368,-0.18393484,-0.073137455,0.009259128,-0.0697311,0.0050401357,-0.005851314
-0.08603536,0.013155209,-0.12229733,0.1752008,0.03441337,0.036094323,-0.18393514,0.007276808,0.12146609,0.16860577,0.15843526,-0.14213131,-0.11649239,0.16415635,-0.09660987,0.022582091,0.17396413,0.16473635,0.060663167,0.08100519,0.041863233,0.0708971,0.12264469,-0.11892197,-0.025825555,0.10075722,-0.025242843,-0.15217564,-0.012004954,-0.13544539,-0.0067549935,-0.21221484,0.09241919,-0.19961165,0.106550336,0.012664645,0.10511862,-0.06505428,0.19390199,-0.20289311,-0.11317432,0.03514612,-0.0039256564,-0.089860424,-0.022524595,-0.11672274,-0.21614383,-0.094800495,-0.16637176,0.10948721,0.05908589,-0.053757727,0.20211592,-0.08297394,0.15775213,-0.07123959,0.08752021,-0.07301223,-0.06572566,0.090184905,-0.21567765,-0.16080369,0.13438466,-0.15748224,-0.20989875,0.052085802,0.07065682,0.18878677,0.120732695,-0.13929273,-0.10189443,0.04892783,-0.1502602,-0.040564653,-0.085899204,-0.107395336,-0.14830476,-0.13102202,-0.08503619,-0.20326933,0.16949126,0.08263884,-0.13781327,-0.09195073,-0.015486597,0.13496533,-0.062001597,0.07475715,0.11414779,-0.19591367,0.058785446,0.2100341,0.13188569,-0.1789128,0.08064986,0.010702213
0.011680737,0.04474034,0.11157072,0.00733005,0.053786635,0.22830309,0.17623834,-0.023891442,-0.08708281,0.13052632,0.05172452,0.2216926,0.1296991,0.075252116,0.18925801,-0.068787396,0.17163615,0.013429297,-0.014116488,-0.10042667,0.051355906,-0.19675949,-0.032797255,-0.04360641,-0.12903681,0.23771988,-0.08595693,0.17958896,0.15455633,-0.11179589,0.14923337,0.013211958,0.21520856,0.008885916,0.09047114,0.17343462,0.10178523,-0.1440705,-0.11539088,-0.075110845,0.17713529,0.053649746,0.17148936,-0.10794884,-0.045584537,-0.12506439,-0.12033139,0.1755636,0.022657933,-0.0707688,-0.066841416,0.23554684,0.024506474,-0.018546708,-0.03809742,-0.10685102,-0.16270706,0.25043947,0.19172825,0.19888791,-0.05958725,0.02076812,0.21315417,0.15538113,-0.06438837,-0.10078794,-0.03175263,-0.0043542553,-0.0016584517,-0.14186716,-0.14876176,0.15855797,0.08622308,-0.049780052,0.0337568,0.21028171,-0.18104416,0.05585581,0.2367143,-0.08696341,-0.17382812,-0.012232424,0.19974993,-0.14233556,0.0050319973,-0.12987377,0.030178204,0.1257371,-0.1233592,0.1795189,0.113647774,-0.06721265,0.06508295,-0.05851491,-0.06344609,0.1079869
-0.1075726,0.18918887,-0.20297162,0.07686413,0.18271035,-0.19145732,0.16685261,-0.07113478,0.14234063,0.05131226,0.00871478,-0.15379807,-0.18220454,-0.1612606,-0.08759336,0.14924054,-0.12271566,-0.16527219,0.116383515,0.015375805,-0.07840234,0.21400146,0.030279495,0.057317358,0.07598068,-0.19140024,0.13752869,-0.09601906,-0.015294361,0.16915162,-0.1864311,0.0018291235,-0.06753353,0.20704217,-0.2371184,-0.17221631,0.08171676,0.150296,-0.067919254,0.10403134,-0.077165715,0.055290386,0.037045572,0.19478449,0.061513644,0.060866695,0.017556138,0.22826138,-0.18529871,-0.10770037,-0.0035602376,0.06753664,0.14165157,-0.0076216,0.2205673,0.16548234,0.14472681,-0.15586476,-0.08885028,-0.09709017,0.08277841,0.14962593,0.126135,0.07087388,0.16226108,0.16277103,0.13317154,-0.12993814,0.22134364,-0.20949472,0.10167925,0.002508908,0.016891854,-0.17073868,-0.054997467,0.15635823,0.089670785,0.16896564,0.102001965,0.24081063,0.047748215,-0.024664527,-0.11838025,-0.073310345,0.19390523,-0.15091203,-0.06533083,-0.1398388,0.074533194,-0.19266176,0.13914873,0.1429186,-0.057519674,-0.1390895,0.07404192,0.02234585
-0.10337091,-0.06086285,0.07701626,0.22724023,0.14618938,-0.03653559,-0.19042377,0.0059721973,-0.0007722903,-0.14397621,-0.07006605,0.20557423,0.16866401,-0.038930662,-0.124346554,0.11723835,0.10660918,-0.01430518,-0.09552071,-0.115765214,0.116198026,0.23322295,0.2314421,0.0026248316,0.21971865,0.006865937,-0.09338496,0.16785584,-0.14343129,0.048957918,0.09309888,-0.104868695,-0.09941536,-0.07922143,0.069999516,0.03523553,-0.017691484,-0.0045500426,0.17458558,0.14299968,-0.12352112,0.07360726,0.17416552,0.15988606,-0.12247019,0.20047006,0.12794907,-0.06896805,0.10816089,0.22974859,0.11039962,-0.16115923,-0.13303442,-0.002096554,0.23003794,-0.0512993,0.12995076,0.018643953,0.16325648,0.20510387,0.10457303,0.0009071529,0.022575453,0.21450904,0.20432143,0.11268922,0.042751636,0.081344046,0.03705162,0.12095354,0.12602569,-0.18282822,-0.060302712,-0.08934474,-0.08526033,-0.010918112,0.13638568,0.072403185,0.19235413,0.029379511,-0.13807106,0.023495058,-0.17361566,0.002276131,0.21663645,0.07687996,-0.15520425,-0.053695522,-0.13542543,0.21402918,-0.025557356,-0.15641265,-0.15906765,-0.1583952,0.08046333,0.07375245
0.02835532,0.16506942,0.01954468,0.060606156,0.16716492,0.10642573,-0.058025897,-0.14799237,-0.013409062,0.115678795,0.14635244,0.0721533,0.016548073,0.14386265,0.04314738,0.06837341,-0.02782308,0.0804295,0.22784609,-0.08386453,-0.055023197,-0.054494806,0.15846589,-0.10279586,-0.05576618,-0.044950493,0.18836686,-0.096597485,-0.18026882,0.08295846,0.15528892,0.21720637,-0.21072158,0.065446794,-0.1307958,-0.018131834,-0.19061247,-0.11598847,0.21452428,-0.113055974,-0.12002503,-0.15641344,-0.07864859,0.12025296,0.09694174,0.03885082,-0.058387104,0.2326981,-0.16965528,-0.13492727,-0.046114467,-0.03574281,0.0735146,0.15757068,0.073062,0.16400199,-0.010780545,0.12187051,-0.026465405,-0.14690669,-0.11460811,-0.123080865,0.012790257,-0.16696832,0.1182436,0.17375922,0.0849373,-0.1040808,0.20028092,0.21665812,-0.12672175,-0.031552754,-0.025107687,-0.120336555,-0.1871002,-0.11480786,-0.17156652,-0.08607579,-0.110365026,-0.16816324,0.1371035,-0.07734564,-0.058508474,0.019508548,0.024219342,0.08979133,0.1663272,-0.15335467,0.022507135,0.00830736,-0.07080759,0.11595141,0.11893262,0.061447524,-0.12576607,0.18036239
-0.12514193,-0.098392956,-0.21699557,0.089816466,0.11868098,0.06112347,0.06980834,0.23122947,0.11154328,0.04066855,-0.16473046,0.042359892,0.13654666,-0.08487738,0.10929499,-0.13732545,0.10563253,-0.1122002,0.17762381,0.021886474,0.029259518,0.18898213,0.21049376,0.10958817,-0.13381763,-0.1679617,-0.04248889,0.14679761,0.20208162,0.060866013,2.8744023e-05,0.09964087,-0.1360353,0.19595154,0.016609812,0.15004137,-0.09306586,0.10934803,0.088510096,0.029042937,-0.13053665,-0.0030405591,0.12830447,0.17016622,-0.10407162,-0.10828201,-0.121941045,0.20669562,-0.0748567,-0.07706469,0.16472143,-0.03244049,-0.05854291,0.1283283,-0.13164593,-0.05476614,0.021650279,-0.006374743,-0.15945093,-0.008996269,-0.094532266,0.17358017,0.1850744,0.021462934,0.2257721,0.016339013,0.20553672,0.098342486,-0.04455517,-0.17481975,-0.13909675,-0.11898935,-0.13778627,0.07215835,0.089019805,0.012345191,0.13100047,-0.106727205,0.08097117,0.1896486,0.06332346,-0.056315556,-0.15707149,-0.108691834,-0.058413595,0.06299432,-0.07403002,0.07760425,-0.15108642,0.041035004,0.007302286,-0.16319127,0.11009097,-0.008347308,0.12799129,0.07601248
-0.0050699585,-0.008803658,0.1937691,0.032396164,-0.1398687,-0.11883276,0.05197995,0.075755775,-0.20445393,0.03617177,0.08555063,0.22395404,0.16302645,0.1491548,-0.16997875,-0.067362234,-0.0026473417,-0.06893466,0.008239384,-0.028530993,0.08511175,-0.0632695,-0.018287499,0.17650646,0.1323924,-0.12062729,-0.05170609,0.12033547,-0.034604497,-0.17848861,0.12530039,0.14261483,0.07826091,0.11974468,-0.025665347,-0.14459714,-0.131054,0.21678592,0.21399012,-0.03554937,0.11621572,-0.08277746,0.1018774,0.054639816,-0.12163542,-0.110665396,-0.06479299,0.055555325,0.20359036,0.015860848,0.0973524,0.15959258,0.14228696,0.14905956,-0.15069054,0.18710378,-0.076855905,0.07918125,0.16326445,-0.098608136,0.16351877,0.17070194,-0.23146354,0.16421759,-0.13092422,-0.16918896,0.053703927,0.12390035,0.15381232,0.13065754,-0.114466734,0.0059123365,0.19779964,-0.2004043,0.11625461,-0.118940406,0.060331326,0.23904459,-0.09234176,0.021581449,-0.145424,-0.109871715,-0.15829483,-0.08928948,0.03968832,-0.17494364,-0.087903745,-0.0608468,0.074036464,0.10017652,0.113702506,0.10193209,0.21639638,0.07356578,0.011822254,0.18737212
-0.026819622,0.067875154,0.025027245,-0.12549019,0.057206042,-0.09513901,0.07697176,0.09540469,0.18923533,0.1167963,0.16516352,0.011214581,0.038523953,-0.14996357,-0.11527653,0.052680366,0.03224949,-0.026061747,-0.18205339,-0.1601383,0.18076243,-0.011414995,0.14761107,0.030789757,0.03674072,0.13249187,-0.20915037,0.08493067,0.09422675,-0.018708577,0.062658735,-0.069643445,0.17710136,0.009427484,0.16391549,-0.14112157,-0.06674048,-0.09233714,-0.05280223,0.13036957,0.098388486,-0.0411798,0.16182248,0.23467118,-0.13383487,0.08086169,-0.05132772,-0.1454528,-0.12577447,0.16755886,0.23528862,0.02470426,0.089528486,-0.11093635,-0.1840645,-0.05844889,0.112485014,0.12878817,0.021779586,0.15782787,0.03114977,0.046629637,-0.12535653,0.059687205,-0.12047201,0.15439594,0.023471281,0.107051745,0.014828794,-0.17158453,0.019419007,-0.10323508,0.020234507,-0.14806119,-0.14881301,0.15786685,0.19154255,0.049335442,-0.16075738,-0.1034894,0.10977035,0.048159517,0.17349154,-0.2001668,-0.029214047,-0.10883477,0.21373816,-0.112454355,-0.012706755,-0.13971867,0.031550582,-0.10848105,-0.09181478,-0.18839605,-0.120450966,-0.022957979
-0.10557621,-0.16592258,0.057988282,0.08626165,-0.17884156,-0.17750579,0.16500811,-0.09925607,-0.0641127,-0.03883225,-0.05796408,-0.12379847,0.11344602,0.07971076,-0.20208475,-0.049471233,0.057782657,-0.16718003,-0.14271605,-0.19917364,-0.0024283156,0.15656649,-0.19492601,0.16178912,-0.1876282,-0.00022777314,0.0068595796,0.055838984,0.042305518,0.13656239,0.00518541,-0.1451172,0.034715693,-0.12797393,0.04855508,-0.18411775,0.04840137,0.16246836,0.01897681,-0.09845033,-0.10248132,-0.031523727,-0.16189703,0.037175078,-0.10101824,-0.08204419,-0.13369982,-0.12594482,-0.08253869,-0.054163534,0.09020146,-0.024374228,-0.17423542,0.018573703,-0.09703351,-0.15075715,0.17155777,0.03705008,-0.12670137,-0.114135794,-0.021587787,-0.16167396,-0.13380633,-0.15709488,-0.089952685,0.0852275,-0.079246014,0.115890846,-0.059978466,0.16241741,0.1203613,-0.07829519,0.051325653,0.03486939,0.09699618,0.15967897,-0.084814884,-0.13424893,0.06780699,-0.19154526,-0.04790183,-0.11863375,-0.014923649,-0.023995278,-0.04265213,0.10086234,-0.19804008,-0.07876663,0.06939729,-0.10848863,0.07766062,0.15868996,0.09652846,0.06226518,-0.19944021,0.07451863
-0.17897493,0.2423019,-0.13955039,-0.04401152,-0.114872746,0.120192066,-0.17956206,0.14518772,-0.12203306,-0.22996917,0.042841382,0.0006278768,-0.101458445,0.13708122,0.12909338,-0.00638761,0.022770785,-0.12790048,-0.04405963,0.12758239,0.110719405,-0.09814283,-0.18821606,-0.10930855,-0.026196936,0.023862096,-0.072113045,0.18317749,-0.07013632,-0.12640755,-0.110270426,0.012226164,0.0847151,0.03573298,-0.023960914,-0.022740256,0.061573736,0.11126204,0.15158217,-0.0705688,0.2531843,-0.00944495,-0.00092956604,0.13875721,-0.106950365,-0.055414263,0.02980807,-0.17901564,-0.2057648,-0.0023192158,0.02328928,0.18943346,-0.010280505,-0.04422907,0.19757383,0.11296361,-0.19790637,-0.025025768,0.12787086,0.035257522,-0.08810168,0.2122606,0.022204382,-0.042676967,0.053854372,0.17611565,-0.012269074,0.010708524,-0.19868155,-0.1508473,-0.058001004,0.0035973764,-0.16654293,0.047959983,-0.08929699,-0.16770092,-0.1657224,0.163128,-0.16975497,-0.03444088,0.23419084,0.12391896,0.12775941,-0.13907512,0.22218595,-0.1137251,-0.010944689,-0.15543728,0.06826401,0.15995747,0.13999492,0.17282152,-0.02483852,0.08656446,-0.14919452,0.19324225
0.032482523,-0.097759336,-0.1510495,-0.21771587,-0.06961831,0.11077789,-0.21795799,-0.099720865,-0.20286329,0.08284649,0.1145481,0.12038892,-0.062454306,0.1969509,-0.0010281054,-0.017250823,0.14494988,-0.12417323,0.16034794,-0.029756308,-0.009185056,0.12738895,-0.1482636,-0.080693655,-0.00473171,-0.01449805,-0.11440786,-0.029345123,-0.002800261,0.0438789,-0.016264888,0.13333133,0.08978115,-0.0069807284,-0.19001499,0.13712297,-0.086187586,0.14781868,-0.1489317,-0.110009626,-0.12815107,0.0011840112,0.1602445,-0.18862204,-0.16669409,0.14674348,-0.02326569,-0.21081004,-0.0077461614,-0.013217881,-0.11153623,-0.21896099,0.03580219,-0.14710705,-0.095282614,-0.22004192,-0.07771653,-0.015089023,0.0729209,0.0063873027,0.15871495,-0.13155055,0.058537267,0.08254859,-0.13298513,-0.025441768,0.15986572,0.19024487,0.14729807,0.13483827,0.16081432,-0.18464322,-0.11260918,-0.0905542,0.017576052,-0.13096753,-0.15070264,0.17545934,-0.15734035,-0.1521411,0.08403284,0.045363925,-0.025152603,-0.20752193,0.16093677,-0.037304074,-0.1125784,0.06883013,-0.1587613,-0.08446515,-0.14936794,0.19108577,0.08466869,0.017355178,0.0738504,-0.011147447
-0.1505184,0.026391167,-0.03161923,0.177627,-0.12323612,-0.07886569,0.18516056,0.07670645,0.13017724,-0.04062649,0.070501715,-0.171582,0.1905033,0.056517385,0.20520133,-0.08712916,0.18089311,0.093639225,0.21490487,-0.09105556,-0.005623368,-0.01676024,-0.088070355,0.011502147,-0.15940738,0.12976289,-0.03337659,0.08969877,0.13026395,0.11947404,0.034393467,0.19256772,0.05731651,-0.1123294,0.025999056,-0.09805709,0.1911173,-0.18390177,-0.13416953,-0.11020721,0.11948531,0.10659342,0.083298005,-0.21145299,-0.114687346,0.14799836,0.20137565,0.23778552,-0.037848942,0.008954002,0.010754889,0.1798897,0.19777964,0.023565186,0.044258457,-0.20453076,0.22676629,-0.058187608,-0.07082731,-0.061278317,-0.053068794,0.12644915,0.004268687,0.21230002,0.059109513,0.18352433,-0.022920642,0.0018020977,0.15552504,-0.16679499,-0.13229404,-0.074853435,-0.08578467,0.20634018,-0.004960763,0.04484961,-0.023914767,0.11154318,-0.12013951,-0.1308075,-0.13437153,0.17970563,0.19070177,-0.005682293,0.11433075,0.0027290627,0.04365814,0.1617417,-0.065773435,-0.049983088,-0.12547335,-0.10964703,-0.13886318,0.154942,0.22340554,-0.098221004
0.20846334,0.007840213,0.11353732,0.18623345,0.1650223,-0.060014725,0.14845194,0.2366305,-0.008218856,-0.1316427,-0.082871854,0.020219719,-0.043129887,-0.22196437,0.07004224,0.05954508,0.02259342,-0.07296713,0.07353499,0.1455091,0.063240625,0.23111568,0.06396161,-0.07663206,-0.09893667,-0.03135996,0.23717126,0.22582011,0.17360257,0.1402515,0.1083945,0.076953284,0.10315674,0.07213472,0.11277164,0.028336644,0.22916795,0.11961438,-0.0708835,-0.017503265,-0.09216704,0.12508486,0.16626112,-0.0446595,0.2257715,0.19064572,0.20469828,0.027488751,0.023480408,-0.05667474,-0.17374998,0.19927338,-0.05841235,-0.07821492,0.17311874,-0.027452752,0.15204658,0.108403966,-0.10261351,-0.0088187335,-0.19281323,0.22222792,-0.0797212,-0.09977273,0.078151114,-0.14761478,0.05962621,0.2283359,-0.058325756,0.22985613,0.21349414,0.012078383,-0.22791319,0.20436713,0.21997437,0.057185903,0.120132804,-0.07777241,-0.16328627,-0.06404399,0.23230653,-0.074039236,-0.05991378,0.041832294,0.032721423,-0.10218349,-0.09801616,-0.07189048,0.117371865,-0.002351651,-0.022279805,-0.059143852,0.1889573,0.21703991,-0.012222726,0.03944316
0.0627863,0.06731113,0.07990423,-0.035178237,0.19193065,-0.16840771,-0.041802034,-0.15384248,0.08204032,0.14157073,0.09169383,0.14055677,-0.1424706,0.15849751,0.18428344,0.025704972,0.15433455,0.15937467,-0.039642613,0.17936425,-0.1891147,0.10165023,-0.10378965,-0.12029195,0.05850276,-0.035255685,-0.08716495,-0.17100132,-0.10999068,-0.21165377,-0.044336334,0.09540642,-0.12661661,0.014371292,0.06663656,0.22348677,-0.19266334,-0.023538025,-0.09304946,0.069885746,0.16427904,0.15501647,0.13508098,0.18617126,0.14265914,0.105263695,0.01225513,-0.066072896,0.04304578,0.050846618,0.16838667,-0.11157437,0.14616957,-0.15919653,0.0077847666,0.03715083,0.04694303,0.051802337,-0.18250546,0.18168852,0.17371361,0.2013611,-0.05932882,-0.096994184,0.040371276,0.03609487,-0.11757004,0.07683306,-0.171742,0.13811556,-0.122861125,-0.21354322,0.030889913,-0.16065459,-0.004800103,-0.19436985,-0.033011608,-0.16702728,-0.0017761895,0.18598564,0.2058827,0.07775481,-0.023301253,0.05860166,-0.18952246,0.18055108,0.007529047,-0.12672362,-0.050255112,0.022986047,0.008906724,-0.007321641,-0.14230214,-0.11219613,-0.055922255,-0.19514428
0.19741778,-0.18774521,-0.04935555,-0.18710078,-0.17408007,0.050766047,-0.1604357,-0.11644625,-0.06446404,0.11688315,0.116093196,0.12893468,-0.11867395,0.12916592,-0.10115177,0.16634105,0.019091377,-0.18481858,0.1827604,-0.1970248,0.113004945,0.14573267,0.15723065,-0.20622127,0.045812007,0.13432297,-0.0879315,-0.006255735,0.063241675,-0.066119365,-0.03736662,-0.13448583,0.04265842,0.15762052,-0.2055973,-0.05780961,-0.21636663,-0.032488953,-0.08208134,-0.11561047,0.046320226,0.16047435,-0.19151372,0.0941564,-0.0023002708,-0.20346497,0.18929389,0.14962827,-0.12820047,-0.06729891,0.018638587,-0.011483775,-0.17309634,0.038005278,-0.18984984,-0.12410536,0.061931282,-0.052371364,-0.18141052,0.1298683,-0.020764295,0.112650655,-0.18815894,-0.16941702,-0.07718547,0.12098907,0.029877953,0.15438668,0.044326466,0.11273562,-0.0389664,0.14002152,-0.05286355,-0.18417509,-0.123271786,-0.084766775,-0.15513225,-0.16978692,-0.20670687,-0.16588734,-0.17086697,0.06795537,-0.066038065,0.08285854,-0.02469519,-0.14599852,0.004219625,0.067109056,-0.13379478,0.06700793,0.012024663,0.077223614,-0.17948054,0.06796537,-0.10480674,0.0068344306
0.037871707,-0.08499661,-0.07197858,-0.0061137453,0.10146559,0.012413649,0.014936225,0.19624744,0.15775132,0.11515578,-0.022066616,0.058568284,0.14343664,0.16393119,-0.12460353,0.038123824,0.06777826,-0.07390436,-0.1654251,-0.19164753,0.029317873,-0.10723521,0.074709415,0.20737076,-0.09269955,0.19331424,-0.111889735,0.17909198,0.003573989,0.048890382,-0.0745847,0.14861092,0.24258706,0.017921798,0.1132712,0.091918185,0.13411693,0.05000954,0.086066164,-0.16525114,-0.18516135,0.1767425,-0.10257112,0.12129613,-0.14451058,0.034504276,-0.005283255,-0.19148697,0.21174538,-0.101973064,0.09528057,-0.1420051,0.16128542,-0.21372062,-0.16874258,-0.0015967509,-0.17073627,-0.0029316102,0.10674862,0.23036866,0.22995588,0.15895869,-0.12425695,0.08906462,0.054083627,-0.19673094,0.15878522,-0.20252956,-0.19294108,-0.13011234,0.16251142,-0.06403805,0.14132318,0.054953568,0.194809,0.093834,0.21419804,-0.023433134,0.1582869,-0.14166452,-0.064651676,-0.10798686,-0.14719196,-0.0068528363,-0.063432425,0.11437995,0.18592876,-0.11238867,0.16484886,0.13316129,-0.007437555,-0.0031847332,0.18074785,0.10639029,-0.14408837,-0.059750322
-0.16724345,-0.07268895,0.1184481,0.15769182,0.06360373,0.10212259,-0.022883464,-0.18901849,0.024899848,-0.05149717,-0.035630714,-0.18202557,-0.042774547,-0.10125488,-0.10711813,0.07771585,0.22732627,-0.0923787,-0.13498823,-0.13551858,-0.0811483,0.11734582,0.084602356,-0.17357641,0.0044599953,0.09958061,0.05560524,0.09864939,-0.03207665,-0.08983295,-0.107914574,0.08692557,0.110164896,0.20978221,0.15443473,-0.16573444,-0.021044416,0.012597769,0.13287848,0.15339123,-0.03605987,0.22625649,-0.1670267,-0.08484012,-0.19695553,0.17670023,-0.058244642,-0.099877656,-0.14875755,0.06742466,-0.12808223,-0.11422587,0.02813253,0.020524394,-0.0024457455,-0.14917348,0.029623032,0.11978524,0.13506374,-0.15600063,-0.10002218,0.08409915,-0.052748498,0.21181078,0.16752765,-0.038124,-0.12996212,0.12784192,-0.16038777,0.071970955,0.09522986,-0.16592906,0.21670526,0.038731437,-0.06110575,-0.09128726,-0.13926317,-0.051240478,-0.024608614,0.0025387183,0.13523208,0.09054413,-0.09064717,0.22304754,0.08205016,-0.08657596,-0.100873545,0.0165329,-0.08818922,0.11457539,0.21424739,-0.19005667,0.010809374,-0.045572992,-0.1669446,0.018698983
-0.164957,-0.015132867,-0.13463312,0.16786651,0.15408814,-0.10409008,0.097245425,0.15004198,0.12791573,-0.13687982,0.07193487,-0.16241924,-0.0944503,0.12003743,0.09798038,0.064247884,-0.15998767,0.17736138,-0.021940472,0.095344566,0.07968487,-0.19974886,-0.120666996,-0.1017233,0.07100358,0.15228598,0.110181995,-0.06548588,0.12483635,0.06316331,0.11057077,0.029686648,-0.03318234,-0.083526656,-0.20860268,-0.04822107,0.08421589,-0.19211797,0.11527374,0.0041880533,-0.1500241,0.046545696,-0.11333922,-0.026952708,-0.06534542,-0.14060326,0.010984384,-0.15600696,0.050084822,0.14497578,0.16549703,0.044405665,-0.079529084,0.070583485,0.108452626,-0.10379145,-0.06725119,-0.19275318,0.012923855,0.045296118,0.06052921,-0.07747681,-0.03196468,-0.21488208,-0.055823836,0.10905116,-0.14227425,0.095010564,-0.06848235,0.18003453,-0.01536494,0.17414501,0.098019175,0.13876502,0.00442184,0.05916741,0.15567002,-0.13603458,0.0023383845,0.16378468,-0.20609602,0.12426354,0.10228632,0.13331887,-0.13429266,-0.096022464,-0.13532522,0.046354372,-0.1162886,-0.09351257,0.13045451,-0.029595152,0.1298718,-0.02837794,0.07713137,0.11404892
0.08320781,-0.097877614,0.079748765,0.18056743,-0.17912115,-0.1614498,0.13095784,0.051403325,-0.17579734,-0.13551421,-0.026736362,-0.14956158,-0.1437531,-0.18833032,0.068599045,-0.13521174,-0.06413015,0.1751672,0.15422677,-0.09074639,-0.08657478,-0.073812924,-0.15435524,0.028825724,-0.16515926,0.002284201,-0.19008224,-0.08270768,-0.20452851,-0.08528137,-0.16585113,0.016119491,0.12303769,-0.16987944,-0.16117653,-0.13150495,0.11727561,-0.06802653,-0.16618647,0.1346616,-0.059208203,-0.19519806,-0.13811399,-0.063804895,-0.08585231,-0.09488957,-0.20969553,0.16099496,-0.06568387,0.0026089686,-0.16463177,0.07683877,-0.011809962,-0.19982989,-0.101147816,0.16673544,0.19279535,-0.06792868,0.01906498,-0.15161149,0.07661023,0.092191204,-0.14523496,-0.16289121,-0.16327028,0.1078332,0.14416671,-0.06431759,-0.18365726,-0.20748919,-0.21400516,-0.12823077,-0.10903887,-0.16585685,-0.06063932,0.17271917,0.1544029,-0.096982375,-0.10485707,-0.15185635,0.17978792,-0.029093994,-0.14165506,-0.08474346,-0.021457521,-0.12656043,0.008476312,-0.07721328,-0.094964035,-0.051287577,-0.20659147,-0.030859211,-0.059869174,-0.11558908,0.18774165,-0.04200893
-0.09654833,-0.032079745,0.18935081,0.043205842,0.14761643,-0.17445573,-0.0923796,0.06677282,0.22461416,-0.19786727,0.2176727,0.1311443,-0.07327663,-0.11561042,0.03665657,0.08099155,-0.11120218,0.105910115,-0.1686445,0.18634042,0.15158582,0.16247998,0.032425776,0.08491248,-0.18852715,-0.14428468,0.11691294,0.021517063,0.14843735,0.0722914,0.10682986,0.17181022,0.042199943,0.2005922,0.1247419,-0.119928546,0.23440349,0.10545432,-0.18689296,0.025718708,-0.0687354,-0.046042632,-0.1085094,0.095565304,-0.04789355,-0.14434819,-0.054994892,0.10257121,0.06858898,-0.027094834,-0.12168596,0.04177914,-0.03704068,0.21432057,-0.112796165,-0.07627685,0.20044747,-0.045785654,-0.0016693018,0.12521142,0.015521062,0.013320289,0.23860745,-0.0879382,0.14142683,-0.036908638,-0.13090481,-0.09756845,0.10632326,0.032798037,0.20052809,0.04756458,0.0058393646,0.01246757,-0.17494087,-0.1719642,-0.06184544,-0.041043624,0.13786708,-0.15639642,-0.11728156,0.21194084,-0.10370394,0.1568178,-0.070326544,-0.14189166,-0.02486716,0.19738367,0.08650893,-0.13588259,0.16330558,-0.2008451,0.17585197,0.065204896,-0.016009066,0.15554254
-0.049624894,0.13417941,0.16242652,-0.021002825,-0.1727457,0.029574657,0.013144937,0.1714022,-0.047522966,-0.022288186,0.060608122,-0.027170729,-0.09907924,-0.059386726,0.0164946,-0.0061809123,-0.009991796,0.008112276,0.19703278,-0.015495942,-0.037796624,-0.15162346,0.13765875,-0.12201455,0.00072388723,0.18598647,-0.056504652,0.051732257,-0.07233162,-0.087811284,0.2274656,0.024118247,-0.122215115,-0.08137798,0.09427311,0.117233776,-0.025003947,0.039703798,-0.060849007,0.14171833,0.002852136,0.13839631,0.13555335,-0.0138457455,-0.12977295,0.18654189,0.101133496,0.119868286,-0.068607435,0.2311515,-0.17073247,0.12053191,-0.035533898,0.20865397,0.13253088,-0.09327735,0.21235928,-0.18165673,-0.0052540177,-0.12296676,0.07910667,-0.053960394,-0.026526397,-0.1536189,0.22565661,0.15580526,0.16852598,0.1932973,0.19123586,0.17715256,0.057994522,-0.07059247,-0.1608508,0.21309376,0.07300845,0.025990564,-0.03062401,0.10536716,0.073917076,0.10797076,0.04738885,-0.09630347,-0.13942972,0.068071164,0.13221797,-0.059803396,-0.06097995,-0.1497205,-0.0068032695,0.20368932,0.01218867,0.2012477,-0.09746491,0.04160528,0.019766003,0.22534947
-0.11220048,-0.0978071,0.24537162,-0.10557319,0.111066796,-0.03530012,-0.012662612,0.14677115,-0.21678065,-0.0033121663,0.13139711,-0.10367365,0.16471611,0.14369394,-0.026564565,-0.06216164,0.12899703,0.10025243,0.018573958,0.09898794,-0.1338518,-0.16418062,0.14547183,-0.12220375,0.19256938,0.106596276,0.1686068,-0.1721141,-0.005021465,-0.1797529,-0.06162279,0.0880403,0.0147888865,0.11501239,-0.104886204,-0.022602882,0.21198526,0.15451393,0.061128534,-0.13466057,0.098950855,0.01931687,0.10351174,-0.15908316,-0.20947918,0.16935606,-0.06503837,-0.039636303,0.110200755,-0.1369407,0.11057154,0.073700175,0.2232604,0.13408983,0.17842379,0.013035514,0.122964956,0.09651371,0.19463989,0.14839767,0.053266242,0.19837253,-0.14862509,0.23225579,-0.107210666,-0.123226434,0.20716004,0.15768376,-0.13370883,0.06373934,0.2143724,-0.029859789,0.16378914,0.10166944,-0.22998762,0.17051956,0.14919719,0.19472182,-0.107929215,-0.09493164,0.010965221,0.12151619,0.08404653,0.18992704,0.1173667,-0.19416124,0.075013906,0.22658342,-0.12283227,0.20369025,0.11053403,0.0018418542,-0.15451841,-0.07977416,-0.029316014,0.02119485
-0.12038304,0.07461595,-0.09573703,0.196131,-0.05713696,-0.15846205,0.13654058,0.018316362,0.22537857,0.11205647,-0.11123943,-0.19908749,0.09532597,0.17089602,0.17898078,-0.053042218,0.11824025,0.049124174,0.17283905,0.019851048,0.21828227,0.021931672,0.22710173,0.1351793,-0.08520383,-0.042568285,0.06921563,-0.07165074,0.14714408,-0.1317519,-0.027906114,-0.017243423,0.09555924,-0.030559279,-0.15170753,0.06969681,0.10538376,-0.10488261,-0.059636302,-0.17654243,-0.08384789,-0.01361107,-0.086985886,-0.039586157,0.021640081,-0.18186398,0.09333425,0.018180145,0.012446451,0.20670946,-0.067163475,-0.12704624,-0.06915078,0.17769754,0.010758235,0.059610475,-0.035348255,0.03206104,0.17517237,0.23121248,-0.06928236,-0.113513306,0.09316582,0.08757229,0.12041231,0.046643283,-0.09891832,0.0891946,-0.12553082,-0.00791974,0.06916288,0.1879632,0.054955468,0.014730971,0.191283,-0.04203524,0.15716207,0.0472378,-0.089406945,0.22240819,0.18952629,0.03507817,0.06215883,0.18525246,0.08954601,0.18696187,-0.09678808,0.07171297,0.09039723,0.015680563,0.18848377,-0.13188982,-0.115941994,0.031990316,0.16355494,-0.15833881
0.1999269,0.0125125805,-0.196764,0.17021888,0.14578335,-0.0031862953,-0.0006910892,0.0037623679,0.17587157,-0.04843353,0.10346589,-0.078878686,0.04640421,0.072603635,-0.0094645545,-0.035455544,0.21676002,-0.12490955,-0.17625825,-0.09407223,-0.1191388,0.09031083,0.19087246,-0.10898495,0.1840178,-0.14357483,0.0042954786,0.10310547,-0.08493625,-0.074896805,-0.085402824,-0.13029905,-0.16947338,0.18995522,0.049423687,0.027046088,-0.075792104,-0.037513558,0.022243818,0.17730224,-0.03466467,-0.10110983,0.12688325,0.012696763,0.22601801,0.06225936,-0.01561772,0.029923033,0.07875376,-0.02433112,0.07185293,-0.12140008,-0.0032670558,0.15685439,-0.07700555,-0.017607884,-0.1862709,0.06620339,-0.19319545,-0.049273707,0.18595879,0.16555807,0.07546443,-0.19556506,0.016132921,-0.17441918,0.15312874,0.09635493,0.17356813,-0.13630812,-0.16280593,0.08763525,0.172396,-0.08262732,0.23214886,0.15642922,-0.012622813,-0.1993004,-0.09166702,-0.15426868,-0.17052591,-0.016357668,-0.07390512,0.08894346,-0.072873235,-0.10952974,0.18493637,0.16661502,-0.08288493,0.09913096,0.057038594,-0.12087163,-0.062375896,0.012822207,-0.12895478,-0.21359624
