-0.12058985,-0.11825945,-0.031654533,-0.11836054,0.0027069454,-0.05733998,0.034938514,0.08152603,0.22819851,0.16894193,0.049598116,0.14141141,-0.14230302,0.2563112,-0.23810713,0.07443706,-0.20117135,0.122991554,-0.09715512,0.0029682408,-0.048035584,0.009985475,0.1743978,0.00974868,-0.24103232,-0.15968089,0.0007837298,-0.24242344,0.21384825,-0.027190426,0.20120282,0.19899845,-0.17035341,-0.053092986,0.15043344,-0.14699006,0.09804827,0.048522044,-0.10492193,-0.14882046,0.12307495,0.123023205,-0.15969273,-0.15014528,0.117329665,0.03946556,-0.18379743,-0.08512373,-0.13667664,0.07321257,-0.023215458,0.24456057,0.06752273,-0.041402973,0.22415447,0.11382326,-0.02245446,0.09773039,-0.096530214,0.025502846,0.1223785,0.078105405,-0.12749563,0.19950236,0.21648425,-0.021051567,-0.017740779,0.12830614,0.23291565,-0.055432253,-0.15070783,-0.09943348,0.11564173,0.17049974,-0.03380297,-0.10609153,-0.17203298,-0.08426491,0.21927555,-0.023991074,0.15100645,-0.1621171,-0.21989888,-0.18254456,0.2067598,-0.023195779,-0.105473906,0.19760022,0.14840016,0.23129487,0.16221252,-0.21345936,-0.1628842,-0.031588506,-0.11261265,-0.014262468
0.13078563,0.09822345,0.18639584,-0.09660774,0.029220026,0.064547576,-0.07825487,0.07743445,-0.15179513,-0.18336445,-0.118309416,-0.12926148,-0.016084703,0.148013,-0.0037799315,-0.12123646,-0.18558949,-0.10481868,-0.07390188,0.11932206,-0.13255471,-0.17096533,0.019102063,0.07268219,0.051686943,0.14093976,-0.22135207,-0.19315328,-0.05174482,0.013779839,-0.06925105,-0.15001166,-0.01158107,0.06093154,-0.21134783,-0.16648516,0.15031002,-0.0453862,0.033467744,0.14609434,0.17652746,-0.09530645,-0.15042639,0.11460082,-0.23097499,0.057443243,-0.21694693,0.14924794,0.1184498,-0.13656989,0.06178771,0.13827547,0.03824352,0.073424876,0.038995225,-0.10587526,-0.1860545,0.0625602,-0.045209352,0.16952062,-0.21822013,-0.21530826,0.08745186,0.15146089,-0.05167581,0.06224471,0.16591981,0.058388725,0.0974568,-0.20007443,0.1741844,0.07169825,-0.06556223,-0.047415923,-0.110723004,-0.0697475,-0.037211217,0.08129417,0.111870065,0.10500339,-0.18236777,-0.1800755,0.16569747,0.14331646,-0.11816019,0.10930037,-0.14557314,-0.0267149,-0.14554279,-0.066078946,-0.20295683,0.135835,-0.14220934,-0.16045049,-0.1849326,-0.22585092
-0.032159407,0.10651932,-0.13694192,0.09438418,-0.12480207,0.105023935,-0.12213135,0.10827397,-0.17932813,-0.10269636,-0.033644725,0.17043994,0.17096919,-0.1764834,-0.120377846,-0.024179379,-0.22797449,-0.18346874,0.16323392,-0.08629479,0.09120402,0.028901786,-0.07936682,0.040594123,-0.047849912,-0.0816377,-0.1259271,0.08124832,-0.012846219,-0.07364247,0.05072062,0.18134159,0.11962881,-0.16520266,-0.030430904,0.12150171,-0.10238204,0.14186704,0.03283742,-0.05460456,-0.2182083,-0.18141162,0.0059183566,0.028521935,0.059373945,-0.0057564364,-0.16385378,0.15657859,-0.13736866,-0.0680285,0.16123408,-0.10262149,-0.06198583,0.13851163,-0.17219815,-0.058166493,-0.20589858,0.007253484,-0.083674565,-0.13925034,0.18181695,-0.19201611,-0.18062562,0.13514577,0.092856325,-0.12814172,0.1771398,0.044302955,0.07032935,-0.004193497,0.1446262,-0.15527256,-0.20281295,-0.058247138,-0.22140051,-0.1256934,0.06267053,0.040582977,0.18439555,-0.17803131,0.024245162,-0.061037753,0.1067899,0.026589273,-0.18181482,0.15208177,-0.00960954,-0.15786177,0.1561731,-0.043847978,0.0979579,-0.050842743,-0.11368561,-0.09987162,0.07345788,0.17227004
0.059302118,-0.0050472715,0.11234598,0.107144415,0.16196056,0.021031681,-0.11266979,0.13117534,0.056063443,-0.13723175,0.14584564,-0.03622888,-0.14698358,0.03484333,-0.19203043,-0.098178074,-0.0023569532,0.052285396,0.10921605,0.0235036,-0.21837649,0.17554381,-0.051845927,-0.022302002,-0.015247361,-0.15187201,-0.13744846,0.019154768,0.022214053,-0.011841128,-0.010938042,0.15507564,0.08075162,0.112274766,-0.17115538,0.040571686,-0.16809547,-0.09978065,-0.15094577,0.09973584,-0.19826683,-0.09505831,-0.08132642,0.12553883,0.08546618,-0.21115226,-0.023900907,-0.08765101,0.113247305,-0.030171076,0.007533754,-0.026386566,-0.1024662,-0.13561915,-0.027353084,0.102535136,0.06341458,-0.19230488,0.18566304,0.07563374,0.08001604,-0.16190147,-0.17714043,-0.20796695,-0.12586626,-0.04553039,-0.20983747,-0.15781012,-0.04160218,0.13389231,-0.119302,0.005776233,-0.17147994,0.042446733,-0.21330883,-0.014068348,-0.0012953561,-0.21411069,0.042941134,0.17726105,0.16432314,0.070382066,-0.0023566734,-0.08207718,0.13616538,-0.14951973,0.06464266,0.07236745,-0.11519346,-0.18158053,0.18656288,0.16584806,-0.14221117,-0.19640826,-0.036700502,0.14209439
-0.05412989,-0.03920282,0.05976325,0.080495335,-0.008239177,0.19902368,-0.17636198,-0.11060739,0.20587128,-0.11113402,0.25723743,-0.15289895,0.17864062,0.22658607,0.09596617,-0.09388369,0.14878753,0.12440732,2.3184388e-05,0.09184643,0.08339951,-0.13248031,0.06964025,0.04551773,-0.10734879,-0.11829792,-0.10234307,-0.13234444,0.14551447,0.044618603,-0.17850257,0.12888347,0.20040278,0.07908347,0.2096948,-0.06954346,0.12419431,-0.104077,0.15217787,0.017327854,-0.051284652,-0.12156974,0.114124596,0.18403554,0.23070517,-0.13619727,0.006894247,0.10823407,0.21138892,0.037756503,0.028971177,0.017011976,-0.020656502,0.034616772,0.22019127,0.17330672,-0.17244084,-0.1284566,-0.07373117,-0.14679281,0.20549521,-0.12295918,0.12755157,0.14227551,-0.14193287,0.23948427,-0.18157214,0.24485716,0.12939484,-0.011200461,-0.1201208,-0.10107458,-0.14321838,0.13476768,-0.15571786,0.17885682,-0.015691955,0.102283075,0.058735058,-0.00361955,-0.10641512,0.18622553,-0.033454392,0.018487226,0.0985592,0.08738723,0.16815954,0.1971324,0.17926663,0.10041005,-0.09285402,-0.13356176,0.020825498,-0.062538125,-0.06271136,0.24927145
0.044036306,0.19426475,-0.09041087,0.19424568,0.16583255,0.19795921,-0.008154102,-0.010264171,-0.059118945,0.0077813566,0.058116518,-0.11266592,-0.0085719405,0.16277204,0.010797586,0.06586767,-0.106720984,-0.055917095,-0.16391945,0.19742131,0.11095708,0.1040105,-0.014607429,0.17545538,0.13016951,0.04664196,0.10206426,-0.07314167,0.11272142,0.1147774,0.21550345,-0.05077947,-0.1183745,0.118324615,0.039891664,0.013655574,-0.18105775,0.112872645,-0.060399447,-0.033574328,0.09053497,0.15824391,-0.06685814,0.06931904,0.044836707,0.12652141,-0.09494643,0.22381306,0.05956642,-0.00038221778,-0.116160326,-0.19227502,-0.08599871,0.21721514,-0.23281202,-0.12897389,-0.17178348,0.0056348857,-0.047035124,-0.07672686,0.15572838,0.18557315,-0.051065084,-0.20178647,0.05622333,-0.01566101,0.13370354,-0.028276064,-0.13979536,0.15319182,0.11776249,0.24929748,-0.17699206,0.16654149,-0.14499319,0.0817171,0.07558958,0.075759225,-0.040975213,-0.10088534,-0.0018356615,-0.104264885,0.047780894,0.017115427,-0.04700083,-0.058613516,0.059906367,0.1264948,0.11464106,0.13821588,0.1965343,0.25629425,0.13819954,-0.16803259,-0.18242222,0.13173385
-0.10826006,0.13481426,-0.013522452,0.10217583,0.07306721,-0.1108419,-0.17125615,0.22064114,-0.10256008,0.02829126,0.04940884,0.058577742,-0.0098310085,0.16487943,-0.1556214,-0.05994555,-0.13646597,0.23093002,-0.14030887,0.15491661,-8.901183e-05,-0.17656758,0.14006826,-0.19692205,0.20864806,-0.101416506,-0.20929581,0.13030484,0.031695873,-0.021874642,0.17176178,0.077243604,0.22329408,0.06444518,0.10376838,0.118702106,-0.03742808,-0.0856817,0.069080174,0.1507977,0.12740944,-0.22376615,-0.1421703,0.04898536,0.18207851,0.18343145,-0.040348284,0.18022151,0.098642774,0.06942174,0.025884522,-0.18334317,-0.045694627,0.064831644,0.12216148,0.023022983,0.014920446,0.16545188,-0.044278655,0.22093512,0.18502562,0.12644687,-0.07591699,-0.008062056,0.047367554,0.07385425,0.17163521,-0.030004231,-0.12290219,0.23039894,-0.07820935,0.016825857,0.015487237,-0.097845025,0.1372482,0.16816828,-0.12277758,0.14642397,-0.06527074,-0.098078035,0.05976306,-0.14574054,0.06120951,-0.00224381,-0.021885231,-0.15505096,-0.038363244,-0.08274518,-0.116273746,0.025387892,0.05630553,-0.14151937,0.19875054,-0.03486594,-0.05208943,0.20804305
0.0092814965,-0.18582998,-0.12076413,0.046850637,-0.02414549,-0.0620034,0.080355264,-0.16080786,-0.15169016,0.009485618,0.14823022,0.11328636,-0.0054502906,0.096773125,-0.025287377,-0.026792286,-0.18460715,-0.018981423,0.03168502,0.02879018,0.005905466,-0.16317132,-0.19142297,0.120619394,0.029186057,0.17601442,0.18065782,-0.24370228,0.06194455,0.11142183,-0.105573595,-0.11102836,-0.17962426,-0.18436076,-0.18729238,-0.13182314,0.1637151,0.04028767,-0.035796896,0.17353915,0.09311926,0.11599067,0.016759591,-0.13614018,-0.054451518,0.09203829,-0.09756454,-0.10145064,-0.17440921,0.13414608,0.04880529,0.13155077,0.16923472,0.016537307,-0.1196223,-0.09144607,0.17080882,0.15621123,-0.21588401,-0.1610737,0.09586036,-0.05628466,-0.010566871,0.05585897,0.18420161,-0.054192502,0.16398232,0.1284756,0.091543786,-0.23385851,-0.19741125,-0.22884426,0.19185075,-0.06935501,0.0660329,-0.018170144,0.13794549,0.05950493,0.13789842,0.12958671,-0.12359311,-0.17302878,-0.1989945,0.03719093,-0.08927117,0.13302584,-0.084803775,0.20941584,-0.10901496,0.16147394,-0.009373503,-0.051334377,-0.17671919,-0.098486796,0.19899385,0.06041076
-0.16471529,0.074871235,-0.0951054,-0.14727312,-0.1399747,-0.13446799,-0.0574184,0.10905463,-0.02803721,0.06815838,0.1315016,0.056233604,-0.124880865,-0.07616308,0.052397665,-0.04830608,-0.12220025,0.17696054,-0.029288957,0.11831725,-0.21026276,-0.011922724,-0.11445402,0.17919007,0.1570094,0.041712668,0.1582625,-0.02576709,-0.023545066,0.19800836,0.025856087,0.14254382,-0.17618312,0.064020336,0.083199814,0.05762407,-0.07348261,-0.063839994,-0.006259565,-0.19724639,0.18804713,0.031030143,-0.16151904,0.11211062,0.054364953,0.07974841,0.04670487,-0.19213147,-0.061054956,-0.028319312,-0.18230465,0.0145628685,-0.14201352,0.15555374,0.010527344,-0.1549785,-0.07654378,0.14901426,-0.115724556,0.15654416,0.018413644,-0.07204908,-0.163702,0.1879281,0.16494359,-0.014674546,-0.038043525,-0.22479565,-0.02419967,-0.1437933,-0.11155207,-0.16248292,-0.013061999,0.1844111,0.08461757,-0.016493728,-0.13377175,-0.1177274,0.13953577,-0.14209686,0.16732024,0.122006364,-0.013898563,0.043740604,0.17850256,-0.015165634,0.2618386,0.050979137,-0.0034039407,0.032774717,0.02496383,0.043110855,-0.11395246,0.048778072,0.16536443,0.16358101
0.13458762,0.20277606,0.056678418,-0.21871902,0.2722687,0.16309325,0.13761,0.2602724,0.061424155,-0.057624664,0.032656446,0.051439356,-0.037068617,-0.10972931,-0.24857064,-0.015774501,0.16445456,0.22861053,0.08376128,0.026927767,-0.029106483,-0.1325195,0.18968749,-0.119846895,0.032793343,-0.11001746,0.07260729,0.1399325,0.13752314,-0.085577406,0.12114157,0.18340997,0.28237003,0.05442575,0.08339874,-0.26156014,0.07968,0.047459483,-0.19027914,-0.15397243,0.065731734,-0.011100186,0.0018238155,-0.1478484,0.21819821,0.035101067,0.11835723,-0.112074554,-0.101282895,0.07481097,0.19669639,0.20476028,0.011288346,0.25573853,0.10545542,0.16127457,-0.074814565,0.2348598,-0.1262975,0.01837079,-0.014041585,0.24217281,0.20213337,0.19591364,-0.17212486,0.21768402,-0.15981288,0.12035114,-0.050616607,0.17606771,0.26784393,-0.019260788,-0.014322588,-0.046498284,-0.091119,0.085986115,-0.10086194,0.1555607,-0.022411458,0.12614122,0.14128418,0.066981606,0.073139995,-0.2093334,0.1392585,0.043087356,-0.08021412,-0.05585469,-0.008081431,0.03174255,-0.24386959,-0.13974178,-0.019060254,0.05514723,0.04397516,-0.08754283
0.08004571,-0.10002612,-0.037549153,0.027739381,0.06538101,-0.0021145127,-0.16765021,-0.03599793,-0.10383279,-0.013400316,-0.037946522,0.11198618,0.23699313,0.091506094,-0.10023865,0.02605783,0.15619849,-0.031302687,0.020990046,0.20123732,0.08414364,0.028797919,-0.067622356,-0.17003192,0.05609489,0.06003076,-0.1424748,0.23505533,0.024313645,0.07258519,0.14049125,0.07340945,0.02207328,0.06322208,0.12469275,0.039754223,-0.02971808,0.092360385,-0.07451111,0.07470877,-0.24920197,-0.15494432,0.27769637,-0.030503137,0.12463764,0.06543922,-0.22476445,-0.012724611,0.033213947,-0.12695539,-0.10982097,-0.10459887,0.19663902,0.16022743,0.072861515,0.19793488,0.18483004,0.12735714,-0.14497364,-0.13585776,-0.00431886,0.24602215,-0.018318255,0.09090479,0.22022797,0.06533791,0.03012217,-0.11361574,0.002080874,0.11961789,0.17374495,0.06679874,0.05728325,0.06338452,-0.15993264,0.24127339,0.21869414,0.03203146,0.14446737,0.10353709,0.19598022,-0.08887997,0.13978943,0.12894881,0.046020128,-0.08151437,0.11158582,0.09542604,-0.15443498,-0.121717185,-0.025088968,-0.07806857,0.034253962,0.14319818,-0.11697862,0.12638389
-0.0541523,-0.10921159,0.17011723,-0.04980666,0.101483025,0.1545049,0.03964906,0.095783114,-0.13362403,0.16711086,0.17073065,0.05978854,0.053999253,-0.097456545,-0.110151306,0.06948026,-0.05190317,-0.10241019,-0.10069515,-0.13948995,0.14182268,0.20093761,0.06965784,-0.085066155,0.11138994,-0.0859677,-0.011984047,0.017772619,0.04572982,0.032891262,-0.048378278,-0.1110193,0.12406137,0.036555853,0.2268249,0.16349623,0.2598393,-0.006681916,-0.16639207,0.070348725,-0.12885903,0.0028779053,-0.085323356,-0.009534227,0.16703491,0.02569842,-0.062738,-0.10027719,0.010011082,0.18460476,0.1805586,0.067664355,0.21822599,-0.11137412,0.12116955,-0.06209562,0.033926215,0.14347683,-0.057190306,0.08682642,-0.09730826,-0.074423015,0.24056996,0.2205978,-0.11732474,0.16150612,0.09894962,0.04949293,0.05413787,0.17835635,-0.031354122,0.053053647,0.022099897,0.035174683,0.1396722,0.13728707,-0.049486615,-0.10594976,-0.13934976,0.12808374,-0.092192,0.013271411,-0.0383934,-0.15677525,0.008756973,-0.057620946,-0.17730927,-0.14209884,0.023945922,-8.8360335e-05,0.095924824,0.06835695,-0.14369358,-0.19247352,0.13213636,0.043493085
-0.11152665,0.17351711,0.11960001,-0.004194965,0.12981197,0.0952883,0.06903463,0.06590843,-0.18475392,0.14571688,0.20905331,-0.14856008,0.18222362,-0.0059989323,-0.15007369,0.15675092,-0.0197099,0.16442177,0.16818507,-0.07674466,0.008547808,0.06262053,0.14995556,-0.15079169,-0.17894565,0.17193638,-0.07519018,0.019457156,-0.052409336,0.04764637,0.12716751,0.025854941,0.15987973,0.024212442,0.0041592205,-0.13591099,0.17120956,0.08794153,0.17777807,-0.03912782,-0.14479811,0.15045562,-0.003472347,0.018790754,0.12632678,-0.16447875,-0.1860997,0.13202603,0.23628123,-0.006820562,0.2157546,-0.06774066,0.09915078,0.17752972,-0.04210135,0.15031707,0.0726733,0.003184259,0.047612563,0.17806007,0.20905858,0.104022205,0.24672934,-0.0057083745,-0.10730246,-0.08649616,-0.040981762,0.24652125,0.09122145,0.20220008,-0.009998416,-0.026726978,0.19339837,-0.12882683,-0.07939128,-0.059711505,0.22809324,-0.12770525,0.08958237,-0.1338293,0.2015933,0.19175011,0.11974306,-0.017492175,0.2124045,0.17906559,-0.17542143,0.008708875,-0.115671456,-0.0038931307,-0.068005666,-0.17261139,0.052783657,0.045297462,0.19107462,0.18490821
0.0752533,0.12138627,0.12978615,0.19610383,-0.042465143,-0.021187572,-0.055303153,-0.012631083,0.09930726,0.10054567,0.18436122,0.20124349,-0.050480798,0.19291364,-0.07940598,-0.20967896,-0.008847525,0.034038253,0.072286,0.05694053,-0.099459596,-0.17552142,0.084916055,-0.05548165,-0.08816812,-0.099439375,0.04611636,0.07561983,-0.15097837,-0.05441023,0.12854317,0.16390456,0.16306153,-0.0830697,-0.13869922,0.15911634,0.23274547,0.035725597,-0.24559984,-0.14117034,-0.16781713,-0.0074571474,0.011291953,-0.14403392,0.08088967,0.18522331,-0.10032206,0.10851826,-0.07564803,-0.0687416,0.13021618,-0.1307723,0.053490754,-0.08332298,-0.11021673,0.16246039,0.18953793,0.021514475,-0.012113439,-0.03407625,0.012467041,-0.18062952,-0.11533977,-0.12896036,-0.14691101,-0.0388067,0.14472958,0.112508565,0.013293702,0.14690621,-0.17580049,-0.23597169,0.12595749,0.065849446,0.0961772,0.07055442,0.0024070004,0.20038825,0.07613561,0.2312889,0.117911085,-0.13349687,-0.16736266,0.15805571,-0.17545968,0.063921936,-0.09496064,-0.17214166,0.1490964,0.16923384,0.07798481,0.11520583,-0.034725375,0.056567322,-0.04268791,-0.11491725
-0.14562476,0.16442303,0.11087953,0.02540188,0.08764349,0.06915616,0.15547381,0.1315843,-0.14293239,-0.05314508,0.08178627,0.1953107,-0.02287609,-0.15308288,0.22502248,0.25280133,-0.06446854,0.17095657,0.15179886,0.048220854,0.22492583,-0.16565382,0.15960266,-0.13672721,0.01456192,0.08058924,0.15632536,0.012182571,-0.16708858,-0.0072255717,-0.14141425,0.047024373,0.0058293114,-0.11528627,0.23589005,-0.017910313,0.08237655,-0.10791645,0.061474502,0.0018347547,0.02550976,-0.107661225,-0.13094011,0.15931645,0.07275343,0.06444436,-0.1005893,-0.1268732,0.17584594,0.18774015,0.022456015,0.18054184,0.0070220176,-0.073630564,-0.23626776,0.058099486,0.17707084,0.15601096,-0.1618974,-0.05682707,-0.12427386,-0.06494417,0.014139626,0.029486611,0.033919394,-0.106245145,-0.06754948,-0.07881434,-0.13880345,0.14365746,0.21669841,0.1701254,-0.10247033,0.18873392,-0.13998647,0.22905795,0.06632419,0.08508417,0.08567792,0.034996044,0.21978584,0.13659468,0.11503054,-0.018315194,0.10321075,0.17429842,0.045456257,-0.038947713,0.08934054,0.01255033,-0.032681387,-0.104195334,0.09915362,-0.12450625,-0.15501158,-0.08691837
-0.10616961,0.08803674,-0.18152188,0.10784842,-0.16672614,0.0052251816,-0.19167495,0.16585338,-0.049590833,0.038930763,0.0705315,0.03823413,-0.20008819,0.034257982,-0.19607654,-0.1800731,0.19945198,-0.05349386,-0.18405779,0.09346173,0.07477913,-0.04792011,0.1594382,0.034354866,0.035759486,0.15729564,0.107748635,0.02502235,0.06363912,-0.06015173,0.048323132,-0.0036323422,-0.03315789,0.039570667,-0.038708467,0.052392025,0.10378952,-0.11543709,-0.015129299,0.062135734,0.19575119,-0.10231714,0.11761023,0.062045906,0.11769476,0.03933561,-0.013585142,0.0467045,0.18861707,-0.009998707,-0.060250156,-0.19499807,-0.21184175,0.1326197,-0.16494213,-0.015992241,0.1253549,-0.06465687,0.030197311,0.020879138,-0.20363401,0.05022307,-0.08808265,-0.10686525,0.094825536,0.15569346,-0.05664095,0.105310135,0.03482662,0.040550373,-0.08367145,-0.13706763,-0.041241378,0.058918674,-0.041961253,-0.03852447,0.06008856,0.08173137,0.15913874,0.12819244,-0.22097914,0.17583802,-0.13287035,-0.032062735,0.01735989,-0.17446096,0.029561931,0.059370115,0.13619001,0.09392317,0.17239667,0.16349675,-0.17176983,0.06916543,0.040271096,-0.10649993
0.059922732,-0.14262097,0.037870847,0.13983828,-0.0733119,0.0660336,0.0840345,0.10285099,-0.106644526,0.0063769533,-0.07366715,0.06299764,0.17681107,-0.19956103,-0.05871427,0.18235037,0.1576616,0.08437713,-0.0021787207,-0.044687428,0.18562137,-0.0573718,-0.03566623,-0.080590375,0.25775254,0.113959454,-0.15537502,0.20833705,0.1762851,0.026722215,0.13266203,-0.17613737,0.1861728,-0.012673929,-0.081515074,0.19708869,-0.1584922,0.16200814,0.24400087,-0.11003001,-0.002889345,-0.17765956,-0.057753243,0.016549382,0.021546088,0.17491615,0.18057887,0.2348357,0.15787959,-0.094530605,0.02028707,-0.017505022,0.062434457,-0.03447511,0.026412534,0.06575572,-0.16213684,0.017933505,0.06371354,0.25404656,0.0832163,-0.033289175,0.07864583,-0.076167434,-0.106784694,-0.1354311,0.13193417,-0.19541305,0.0045597325,0.19566305,-0.07708921,0.038583614,-0.1841803,-0.13980794,-0.0822677,-0.01823776,0.018681962,0.08337054,-0.06528546,0.023829836,0.16430865,0.15303005,0.111283824,-0.0022261844,0.21687682,0.07658538,-0.033795275,-0.16357449,0.13372727,0.1415934,0.019850623,0.25243902,-0.046740122,0.06387442,0.11461125,0.23392716
0.0818654,0.034233224,0.27435833,-0.17680244,0.17582202,0.20274648,0.15655006,0.18691248,-0.09728949,-0.101760775,-0.062399257,-0.085814506,-0.050078806,-0.042798355,-0.2198775,0.0974754,-0.1779885,-0.086381204,-0.13949434,0.125933,-0.21299402,-0.07415349,0.08083821,-0.15473634,-0.168654,-0.085704036,0.19445917,-0.17017907,0.24442354,0.2171825,-0.14493501,0.0064783604,0.24933073,-0.11205658,0.13449632,-0.20938325,0.15864561,0.010550504,0.121925734,-0.1498824,0.20021886,0.051208645,0.22931065,-0.00100992,-0.1451725,-0.103167735,0.034587506,-0.0028341587,-0.20102954,-0.15470564,0.04355312,0.1251791,-0.1707845,0.123213224,0.103947625,-0.026099084,0.074881524,0.24291484,-0.04451924,0.035476822,0.2295669,-0.16057049,-0.102686055,-0.15764903,-0.17123534,0.24152757,-0.10027335,0.041881043,-0.06461775,-0.103955984,0.02419488,0.13924892,-0.005480174,0.035078764,-0.0876326,-0.117607646,-0.19361262,-0.07695588,0.100789174,0.07038307,0.15759665,0.1414676,-0.007912482,-0.00783347,0.026349986,-0.13769749,-0.02997674,0.13894258,0.06552852,0.1446063,0.099440336,-0.22516437,-0.15478088,-0.0080078505,0.042389162,-0.047013916
-0.019076433,0.23118731,0.07583742,-0.22638573,0.20030764,-0.15654244,0.08464328,0.18095788,0.07070578,-0.086904295,0.16373445,0.09368539,-0.2319914,0.092492275,-0.29102525,-0.18006691,-0.12946402,0.017258478,0.13711612,-0.08294543,-0.19975948,0.20437546,0.14420033,0.040706545,-0.18842804,-0.050265364,0.19064973,0.079057656,0.044871215,-0.0040271357,0.14550897,-0.07219816,0.027197743,0.0052818162,-0.1276529,-0.26819417,0.15291518,0.22075239,0.10554374,-0.26089218,-0.023802765,0.23650861,0.13522951,-0.025636474,-0.05457757,-0.09464905,0.053964067,0.0021488161,-0.1596039,-0.049498964,0.037655186,0.02056955,-0.065599024,-0.08884777,-0.00595518,0.025005234,-0.26052195,0.23335469,0.02755223,-0.07436852,0.18425238,-0.19945891,-0.05782795,0.17157081,-0.23726985,0.010817555,-0.1282621,-0.058892254,0.20057566,0.17161599,-0.075349584,-0.12251494,0.03375733,-0.07166853,0.032052062,0.14168552,0.10816861,-0.10087517,0.13864554,-0.005656282,0.13148108,0.07800859,0.1105611,-0.057755917,-0.033892952,0.1297109,0.14744979,-0.1698723,0.06793239,0.20881249,0.037400518,-0.17108631,-0.19055967,-0.0048875157,0.066056535,-0.11471256
0.07061446,0.14083378,0.058389388,0.056690637,-0.18847285,0.0039378344,-0.043442488,0.026535839,0.14373808,-0.1346088,-0.08016567,-0.0598309,0.07395023,-0.021586375,-0.24643959,0.0347596,-0.06566796,-0.07845503,0.15957545,-0.16464815,-0.25668693,0.21985742,0.035613082,-0.15064512,0.037234217,0.040305577,0.093637615,0.12945493,0.08145943,0.0031928958,0.16967796,0.16211419,0.15427738,0.14113626,-0.10655805,-0.26097664,-0.15012291,0.030040052,-0.053117003,-0.038095012,0.033417832,-0.044128314,0.053249743,0.009439705,-0.15495086,-0.12879585,-0.20217662,0.11138441,0.12016085,0.116337985,0.18981068,0.19599414,0.090709805,0.12887289,0.021839986,0.007896275,-0.12145619,0.07819647,0.016444203,0.14553373,-0.08653293,-0.23055765,-0.040616393,0.15646562,-0.18841106,-0.119829684,0.0045679347,0.03642265,0.21407077,0.17205007,-0.17050983,0.063364446,-0.1347036,0.06685209,-0.10113256,0.1064478,0.04291739,-0.0713096,0.20119205,-0.1702987,0.19310018,0.055841748,-0.13399695,-0.19360133,0.1318525,0.13830096,-0.1513164,0.07426349,0.22918762,0.23836422,-0.15598635,0.071153104,-0.09310923,0.107973196,0.12739426,-0.13832644
-0.025044577,-0.07598084,0.046980634,-0.0040728003,0.03303689,0.12938987,0.20751329,0.04037014,0.00218006,-0.15534306,-0.067322314,-0.08032753,-0.04745373,-0.029355254,-0.11590205,-0.24408518,0.015034171,-0.065450475,-0.13087787,-0.00046125066,0.087928556,0.18873769,0.17256238,0.11689663,-0.07290188,-0.015719235,-0.17853533,0.13061649,0.14773627,0.12276492,-0.0016164011,0.040732794,0.06570707,0.07880882,-0.07749827,-0.08721045,0.03424013,-0.049172748,-0.0109041575,-0.0895495,0.15402722,0.12907518,0.12927477,-0.14769849,0.17290366,-0.00709293,-0.07014824,0.17560303,-0.13980329,0.14189966,0.0037597173,-0.037823368,-0.08255189,-0.058291562,0.054667678,0.071373746,-0.011430807,-0.13718468,0.04418892,-0.048929684,-0.0047289617,-0.18376803,0.009213769,0.0069838045,-0.00056394585,0.18204626,-0.16931555,-0.025890188,0.011065011,-0.063422434,-0.14256728,0.1228808,0.1752209,0.023416199,0.029798562,0.08287804,-0.07304682,-0.10843619,-0.13884605,-0.13284121,-0.13642615,0.09027909,0.06005537,-0.007979692,0.12898,0.13778818,-0.048603065,0.19047411,0.014120263,0.06506718,0.05091205,-0.063551426,-0.1342897,0.15251037,0.15086785,-0.20983821
0.01613513,-0.05383207,0.033912085,0.14287256,0.1516376,-0.12812132,-0.06775464,-0.009052817,-0.15555368,-0.13314812,0.16264062,-0.031720325,0.037902724,-0.09940456,-0.008200107,0.23072879,0.16132481,0.027204085,0.025843898,0.25433195,0.004745553,0.13382638,0.19738683,-0.06477244,0.17583501,0.13713506,0.009527058,0.18009256,0.008526736,0.13192225,0.04695673,-0.068291426,-0.12839717,0.14675911,0.1275612,-0.021792896,0.011102331,0.20345706,-0.1397893,0.14488062,-0.15887764,-0.008093992,0.13208209,-0.070849195,0.22574551,0.1059634,0.047451463,0.22107926,-0.03789134,-0.14541146,0.07283733,0.197987,-0.004381691,0.21772954,-0.038403265,-0.06723598,0.12276835,-0.05749018,-0.026107516,-0.08834143,-0.0463052,-0.10025954,0.08067094,-0.10821191,0.027256241,0.09588783,-0.16007403,-0.020446287,-0.031079674,-0.028691733,0.20714186,0.045398004,0.10657621,0.11799681,0.049864884,0.22843964,-0.1611933,-0.10654507,0.1886688,0.15402676,0.1555625,0.20352867,0.11754787,-0.12006478,0.2335674,0.17347413,0.028779792,0.054238167,0.14095384,-0.09722155,-0.20258752,-0.16270855,0.16143629,-0.07801695,-0.02396948,0.14747205
0.12487735,-0.18892066,-0.10062616,-0.09080682,0.032359086,-0.09539824,0.15792495,-0.08636007,-0.05222058,0.09185521,-0.10002455,0.18553552,-0.063964635,-0.073644094,0.26822886,-0.16248335,0.05451283,0.10286252,0.03235367,-0.03630998,0.18920329,0.08564414,-0.15510465,0.24028063,-0.06962174,0.15594032,-0.18067461,-0.067698404,-0.06264735,-0.21255338,-0.22067048,0.13674454,-0.13627224,-0.04669831,0.16535306,0.049996756,-0.134512,0.0022051372,-0.18574582,0.039118372,0.22684461,0.16036128,-0.19424292,0.09584934,0.10604873,-0.054942545,0.13013653,0.031877168,0.079241864,-0.0669954,-0.14894186,0.1802025,0.115664996,-0.05527513,0.028964484,-0.18514019,-0.08056826,-0.06189444,0.096847385,-0.04179155,0.08466791,-0.1714434,-0.07574664,0.03626592,0.006798137,-0.19725467,-0.13658732,0.10897462,0.05296154,-0.24387541,0.11768973,0.020076426,0.010189912,-0.2187982,0.16614877,-0.07223208,0.06554227,0.13976094,-0.07715288,0.10174011,0.007887854,-0.24836607,0.05470912,-0.0052082804,-0.1504793,-0.12786432,-0.04976906,-0.15938929,-0.14669245,0.12823983,0.15446095,0.03274676,0.077007234,-0.10114394,0.075685106,0.031213172
-0.017399995,-0.08720065,0.19960666,-0.110390946,0.099831104,0.0387576,0.1597839,0.047981393,0.17443731,-0.103172064,0.11002895,-0.17066167,-0.13057172,0.2357046,-0.19248004,0.20716472,0.098717816,-0.024012685,0.17606132,0.060879048,0.12814346,0.07702527,0.19444081,0.1804138,-0.19187064,0.20095335,-0.012797227,-0.1066667,0.24957949,0.24375524,-0.1869522,-0.04982093,0.1484792,-0.11139458,-0.0615573,-0.0040297457,0.06578108,-0.103094585,0.017936356,-0.26211122,-0.062077373,-0.02148544,0.103742465,0.08061417,-0.09537301,-0.08273328,0.1278231,0.14812177,-0.12823084,0.06972051,0.15706378,0.1262938,0.093395755,-0.14110091,-0.08779303,0.03729213,-0.023743363,0.06321812,0.14952771,-0.015301432,0.16474196,0.13345914,0.051128145,-0.014303998,0.1157941,-0.051848635,0.13818565,-0.15323947,0.23941502,-0.051005494,-0.032272965,-0.03414652,0.061108835,-0.026760697,-0.17887504,-0.13558838,-0.08713029,-0.116751455,-0.10553418,-0.19300354,0.08841344,0.20258602,-0.12710099,-0.04277212,0.22305846,-0.118944064,-0.11808245,-0.11126682,0.06569737,0.13617992,0.13627335,-0.23234841,-0.08417835,0.1668829,-0.16073774,-0.12250438
-0.1520128,-0.04528705,-0.066492066,0.007618045,-0.00013052038,0.074433066,-0.018206263,-0.20106485,0.03577393,0.1426203,0.07100901,0.044387694,0.24001548,0.11219137,0.18775067,0.04984104,-0.16394618,0.17483212,-0.14453115,-0.03451005,-0.17129543,0.008642162,0.059975322,0.120172516,-0.1689947,0.08640177,-0.04562553,-0.06782183,0.20756549,-0.13927875,-0.04137254,-0.15933017,-0.14520876,0.10350742,-0.095016666,-0.11163046,-0.11229512,0.04097684,-0.21769336,-0.13508362,0.17700033,0.030960085,0.20808546,-0.051143263,0.012461259,-0.041713204,-0.13743901,0.20916449,-0.02832624,0.11842917,0.22029756,0.15585889,0.15212445,-0.008828998,-0.12849368,-0.08121198,0.16430314,-0.08844875,0.07666393,0.05693984,0.039939515,0.20279045,0.07754214,0.22624692,0.14180793,0.0009466973,0.027767517,0.085883126,0.16216737,0.067117296,-0.12171823,-0.09721116,-0.11479289,0.14656231,-0.12001104,0.22277111,0.21338403,-0.10279486,-0.14244893,-0.08722858,0.1717432,0.041856285,-0.046860453,0.031281266,0.030385956,0.19876793,0.10664606,0.16091307,0.003878441,0.14687431,0.116524935,0.18323861,0.14918704,-0.08239039,0.13274565,0.047222644
-0.09359317,-0.19809389,0.19353107,0.17649445,0.04157562,-0.029485196,0.09721413,-0.14376359,-0.019855844,-0.13104722,-0.141748,-0.07129047,-0.12766013,-0.0011674996,-0.1346619,-0.012336924,-0.23362784,0.16569243,-0.043489575,-0.084638946,-0.1184662,0.198469,-0.14855184,0.034941297,0.17231923,0.13728842,-0.006266047,-0.11725289,0.17437363,0.047379278,-0.092600524,0.120371185,0.0064347847,0.21145508,-0.14749932,0.21441753,0.17597532,-0.23454149,-0.03806127,0.2562186,0.15415697,0.12601563,0.02538552,-0.19260305,-0.15164621,0.1321634,0.008008023,-0.194868,0.063881524,-0.016409641,0.022189213,-0.116024315,-0.10933459,0.07750994,-0.17175199,0.16156326,0.08613997,-0.103267334,0.0047770836,-0.19997725,0.08433414,-0.19259357,0.15390527,0.23393853,0.01851294,0.069762185,0.066846125,-0.054562613,0.049447592,-0.04166136,-0.16456921,-0.24079381,-0.09639457,0.057307724,-0.14963403,-0.07283136,0.037322205,0.09225854,0.15026194,0.10779101,-0.15103158,-0.03024891,-0.18185963,0.14165574,-0.15685523,0.049841367,-0.20690192,-0.0037356203,0.052966814,0.014716394,0.13058595,-0.07921566,-0.17881458,0.073286906,0.018392226,0.11466554
0.034160614,-0.10119021,0.0032983106,0.0007180658,0.16724831,0.11617531,-0.1195491,0.07753201,0.14063862,-0.08916885,-0.0067455852,0.04307067,-0.19563872,0.058844548,0.09441293,0.11987858,0.031180495,0.08127538,-0.11423951,-0.07175685,-0.2262335,-0.060250957,0.04977953,0.19706619,-0.18553492,0.049115848,0.1750953,0.06182993,0.008772013,-0.09790208,0.042329744,0.013371492,-0.0899373,-0.19333158,-0.080189295,-0.206771,-0.08894234,-0.14501922,0.18130334,-0.24388467,0.056394983,0.16275911,0.12040445,0.038137905,-0.08655745,0.0062968372,-0.039506838,-0.0070405216,0.13197519,0.070934325,-0.091170646,-0.1059107,-0.1895088,-0.14544775,0.114922464,0.20551327,-0.00042058236,0.19215356,-0.1719623,-0.049158655,0.07092174,0.00041953512,-0.015905542,-0.05284745,-0.050793365,0.11211998,0.14935297,-0.059459012,0.14794768,0.062216558,0.16315964,0.065863475,0.095505275,0.009943341,0.092201285,-0.082992576,-0.14706738,0.13618085,0.15048286,-0.0056235716,-0.049114108,-0.020523008,0.004385791,0.1487951,0.06511082,-0.18874195,0.17041345,-0.14779362,0.151266,0.19969448,-0.046389125,0.079176515,-0.08761192,-0.15796629,-0.06742246,0.086201206
-0.1015186,0.15299477,-0.18384522,-0.000500572,-0.13643616,-0.10271745,0.14100122,0.052814282,0.098583035,-0.16024344,0.07503459,0.05896968,0.034308802,0.08237765,0.04981774,-0.15801983,-0.062212393,0.09068584,-0.13050693,-0.107822254,0.12320675,-0.08623801,0.15012142,0.01569275,0.16995701,-0.08150304,0.10267278,-0.04899007,0.20349239,-0.11463365,-0.06304025,0.03736295,-0.106125005,0.23961338,0.16199349,0.1716172,0.122932024,-0.045566093,0.18661131,0.17364956,-0.11325129,-0.117053844,0.097416446,-0.0429798,-0.082507715,0.24767034,0.070840895,-0.056321785,0.08662143,0.15779665,-0.024589235,0.18508081,0.10408005,-0.17975032,-0.17563204,0.1615907,0.039879404,0.199785,-0.16037828,0.13423032,-0.13961425,0.008883102,0.029442491,-0.091324285,0.14358872,0.17029242,-0.12287132,0.2140815,-0.16330115,-0.14618549,0.18357655,0.20540881,-0.16234982,-0.01969792,0.14854953,0.16072045,0.049620822,-0.09370166,0.06478824,0.0993874,0.110535234,-0.14219296,-0.06980987,0.08024589,-0.07397886,-0.12350721,-0.14213033,-0.1791063,-0.18999869,-0.069357246,0.11183432,0.2125365,0.04923664,0.08493744,0.07740474,0.024470778
0.011443725,0.07185411,0.069921635,0.20073098,0.017101508,-0.07812416,0.18751794,-0.22509965,-0.036980655,0.2305594,-0.047887955,-0.104668684,-0.07251022,-0.07296738,-0.0063132015,-0.07871861,-0.051189605,-0.11332896,-0.18406978,0.08138886,-0.020197056,0.13365744,-0.18497585,0.14604755,0.09329149,0.053056367,-0.06453161,0.027872719,0.04690445,-0.11947241,0.14415795,-0.011564486,-0.22371025,0.19956498,-0.035750184,0.16975263,-0.15494809,0.08820056,0.13884945,0.0043106144,0.15746614,0.09625991,0.027596377,-0.13678621,0.0012516454,0.17476414,0.17318258,-0.18923159,0.08676477,-0.008252399,-0.03154848,-0.0067562843,0.09660035,-0.19909485,0.06485286,-0.09226602,-0.13238305,0.06605934,-0.02480152,-0.1856192,0.15514791,-0.17801385,-0.081312574,0.17956637,0.14618756,-0.16023152,0.19538005,-0.033285726,-0.16196394,0.15711442,-0.17987472,-0.10088456,0.14845298,-0.21812284,-0.017158443,-0.09736983,-0.028295144,0.196555,0.027593547,0.056310523,-0.11184305,-0.089405805,-0.23116694,0.02589755,-0.02647922,0.010928886,-0.05691453,0.07843167,-0.037075125,0.21839793,0.20376422,0.19003916,0.13860568,-0.07661082,0.011360562,-0.031031787
0.21436732,-0.18599065,-0.15427803,-0.1362685,0.1720536,0.13073467,-0.10829688,0.1423288,-0.13558191,-0.17099845,-0.07415598,-0.16500022,-0.0063917404,0.009812021,0.018922249,-0.046466816,-0.008973722,-0.08472772,0.15522642,0.05152931,-0.09687927,0.18164632,-0.019794907,0.11515896,0.10015727,-0.05925234,-0.19839236,-0.07773405,-0.2133487,-0.015942533,0.07680409,-0.01669988,-0.10396763,0.123593636,0.07424142,0.10385846,-0.18349554,-0.15624924,0.10398493,0.21594255,0.19734882,-0.0004528956,-0.13961874,0.10432103,0.032255802,0.15646872,-0.059166547,0.027031757,0.1459391,-0.1292563,-0.076876506,0.14975314,-0.10896871,-0.1949943,-0.17763132,0.051147126,0.15845804,0.031127099,-0.017788328,-0.19436082,0.017931253,-0.06321349,-0.101190306,0.14051868,0.05930592,0.16608286,0.18643561,-0.11945871,0.020277513,-0.0078495,-0.12084145,0.07603801,0.021992166,-0.046965074,0.21344638,0.16682382,0.1540045,-0.040995225,0.13618265,0.14690465,0.10935392,-0.22347902,-0.08704877,-0.020082958,-0.04842806,-0.13821107,0.10752573,0.047916237,0.012355522,0.16916423,0.17960493,0.25793096,-0.11490108,-0.18644167,0.16495577,-0.20410605
-0.13803075,0.11035497,0.036362935,-0.21132492,-0.089322954,0.032191053,0.18574694,0.06286778,0.1753397,0.0077959774,-0.15007661,0.18399672,-0.1583632,-0.15047401,0.15147704,-0.10962186,-0.0073838905,-0.038170878,0.13964215,0.04593494,0.010543182,0.16954751,-0.09420454,-0.1571521,0.19639066,0.04533629,0.046026964,-0.13269548,0.04012612,-0.15660076,-0.114067726,-0.004264744,-0.17343882,0.10050521,-0.010424267,-0.091586046,0.1483173,-0.12531953,-0.17266475,-0.018528024,-0.09960662,0.07776388,0.076967835,0.17804757,0.056482177,0.046956882,-0.10246511,-0.19007315,0.1718585,-0.13865788,0.14503714,-0.05374128,-0.17348735,0.14155415,-0.12759699,0.1505149,-0.028716676,-0.16753821,-0.17379393,-0.071912296,0.14995667,0.029663967,-0.2059168,0.1115287,-0.16471794,0.15651473,0.059673097,-0.042364217,0.0030295076,-0.13637133,-0.17975394,-0.02581608,-0.042434186,0.07139859,0.049956463,-0.1545039,-0.16463603,0.05355852,-0.08135842,0.08253199,0.034354396,0.048955746,0.0745466,-0.12621939,0.0025403742,0.13589288,-0.18383078,0.13825545,-0.05989966,-0.107662484,-0.13867408,-0.0026506486,-0.17346872,0.072835214,-0.13009213,-0.17931545
-0.10837295,0.06359266,0.08816081,-0.16486159,-0.024659047,-0.12023913,0.19114746,-0.06741698,0.04778038,-0.032527164,-0.07405506,-0.15565509,0.057320382,-0.15591209,0.015932372,0.06535944,0.20831706,-0.083019175,-0.15915027,0.13396794,-0.017414413,-0.1303722,-0.1999049,0.13628186,-0.011019732,-0.057145227,0.06183138,0.03984975,-0.14171572,-0.09005293,0.16897088,0.12475374,-0.08446072,0.1189518,-0.15197238,-0.13019319,0.08384002,-0.06522031,0.17046033,-0.01999228,0.20672207,-0.13133468,-0.22320633,0.21090439,-0.15505597,-0.026550677,0.24603501,-0.09578796,0.12893005,0.074049726,0.13538288,0.12071745,-0.0859458,0.21616264,0.024834357,0.16427444,0.04385824,-0.2197839,0.14981878,-0.029903525,-0.06859505,-0.20835839,-0.15878646,-0.027428642,0.11611256,0.14941715,-0.20432167,-0.15432912,0.13537896,-0.1604782,0.087201275,0.09081764,0.11531862,-0.08270255,0.12758052,0.17439558,-0.11860683,-0.13991196,-0.11359016,0.017146658,-0.12392046,0.088454306,-0.08105297,0.012368323,-0.13508551,-0.026638571,0.25983626,0.17980066,-0.06692887,-0.011135402,0.1987459,0.19111426,-0.1773068,0.042205203,-0.11108792,-0.105008274
-0.07072897,0.043402817,0.08332834,0.08966024,-0.002550909,0.17667888,0.050764754,0.16320944,-0.02579547,0.070877045,0.105157815,-0.15002151,0.027384896,0.18220057,0.18869792,0.012236387,-0.03311139,-0.06400539,-0.01315299,0.15151128,0.12523541,-0.20689008,-0.020888144,-0.036712017,0.10018263,-0.17670743,0.048710078,0.17438367,0.032432996,0.08336102,0.1544579,0.1940241,0.25686753,-0.07379668,-0.09777954,-0.21271878,0.22624351,-0.031130861,0.066070735,0.08504482,0.17515804,-0.17788337,0.10202853,0.24238619,-0.11390497,0.11816583,0.011263781,0.21355595,0.048810076,-0.03110549,0.15648733,-0.15481837,-0.07248444,0.245413,0.044118002,0.11789752,-0.016129207,0.0918578,0.15010343,-0.12962095,0.0832911,0.21936958,0.12251479,0.03834529,0.11501653,0.026706241,0.15716778,0.08390373,0.030675014,0.031627778,0.19053333,0.25743058,0.0059337313,0.18177617,0.06771817,0.11993834,0.23029119,-0.060066905,0.094571255,-0.20749427,-0.0948435,-0.080569394,-0.053501565,-0.12445615,0.115783475,0.10074491,0.27413768,-0.016249437,-0.13470258,-0.10606559,-0.18575297,0.05809592,0.13336231,-0.09691687,-0.14099208,0.13757677
0.13727999,0.031516176,0.1392196,-0.1432342,-0.017905772,0.17716625,-0.08022334,0.10499746,-0.106800266,-0.01126296,0.06751737,0.18755768,-0.120635,-0.036751904,-0.0910317,-0.12215031,0.040677246,-0.17786646,-0.1774515,-0.06681776,-0.08646708,-0.0009323799,0.13676842,-0.10373153,0.06289276,0.12743214,0.016308988,-0.095431834,0.109876834,-0.04255405,0.13041784,0.064241745,0.05130794,-0.10901055,-0.0011072706,-0.17220539,-0.125127,0.045345858,0.13084471,0.15840694,-0.04974717,0.011094685,-0.19095388,0.14177689,0.13542356,-0.14620207,0.057426065,-0.14170185,0.11244688,0.17102939,-0.08743313,-0.18022937,0.007473617,0.120772764,-0.076640576,-0.12390839,0.1991515,-0.1303744,-0.22292674,0.14374967,0.0048969793,-0.15531689,-0.14547981,0.14661492,0.1591699,-0.00072073215,0.1640216,0.11023745,-0.17774291,-0.22601686,-0.11595591,0.16748802,-0.15393311,-0.07001238,0.007550528,-0.1252005,-0.037419826,-0.09462675,-0.14668451,0.021064552,0.08892022,-0.23093921,0.1677046,-0.0959563,-0.20559572,0.060514063,0.03382359,0.059371084,-0.03486574,0.14061505,-0.18534301,-0.2216005,0.08358655,-0.15732393,-0.16136682,-0.06974995
-0.03340475,-0.10063039,0.14009939,-0.20347264,0.14646927,0.09769593,-0.20817716,0.07275109,-0.17308176,0.015212859,0.05417058,-0.0029787212,0.16972743,-0.16958885,-0.0007201458,-0.07343955,-0.0733326,0.023384761,-0.19121835,0.07953186,-0.0954985,0.0026080844,-0.21780783,-0.14436671,0.21760866,-0.016648043,-0.15480903,0.091847174,-0.09600773,0.043274704,-0.1187921,-0.19601206,0.09358855,-0.04938683,-0.041624896,-0.077732235,0.13170269,-0.19654761,0.2318702,-0.034143806,-0.16905604,0.16642654,-0.025957113,-0.063854575,-0.07015925,0.023237279,-0.11491111,-0.059707027,-0.13108428,-0.124318466,0.016542867,-0.060418595,0.13095953,0.017279599,-0.15595095,0.17732425,0.009660274,0.049709477,-0.018582126,-0.06371356,0.025473401,0.07493741,-0.12204252,0.17935424,0.04688804,0.08148464,-0.1643765,-0.03362001,0.09242733,0.15507482,0.006021405,0.10112644,-0.13610826,-0.029466575,0.20676665,-0.11364073,0.16095576,0.048806865,-0.19472727,0.18714882,0.16528413,0.17103904,0.16708505,0.11530071,-0.20060557,0.08249968,0.16779925,-0.01362659,-0.03237248,0.17969209,-0.10470753,-0.030752083,-0.10159804,0.1582722,0.13101014,-0.19068517
-0.16547947,0.024361838,0.15057996,0.110639,-0.017552013,-0.12746108,0.15068929,-0.07032061,0.0513335,0.19645654,-0.12425736,0.06371264,0.06344496,0.028134955,-0.055106405,-0.15883754,0.06393761,-0.18663107,0.003987569,-0.18078415,-0.0044534607,0.13934602,0.16119002,-0.16001455,-0.054713856,0.013199079,0.111100204,-0.19378187,0.119733475,0.16058512,0.07555782,0.020327987,-0.059933048,-0.08421025,-0.09108097,0.054099087,0.19367522,0.07609733,0.012849754,-0.12398262,0.09430559,-0.07182328,0.007536495,-0.094650194,-0.040768415,0.029181877,0.10438895,-0.107602976,-0.1290295,0.19219677,-0.15989868,0.13837494,0.10929257,0.034768898,0.16793482,-0.11520458,-0.12561263,0.14904335,-0.13842963,-0.18006219,0.18995292,0.10218293,0.13121557,0.19461988,-0.030135585,-0.030791257,-0.0599718,0.15364483,0.17857225,-0.023210548,0.10336589,-0.16317302,0.09546231,-0.092518315,-0.053737286,-0.19722605,0.12612644,-0.147551,0.045044452,0.2029766,0.1772895,-0.018250607,-0.11578052,-0.072157845,0.12710659,-0.05581848,0.021207582,0.13018076,-0.1801031,-0.12822327,-0.095875196,0.021185534,-0.14277811,0.19712707,0.21287704,-0.16845798
-0.03140224,0.15131046,0.041603673,-0.024814675,0.03352435,0.07131314,0.10302812,-0.13558944,-0.12726298,0.16196965,-0.07913667,-0.13877848,0.15673774,-0.04301763,0.17047623,0.0010160782,-0.0072670216,-0.0437406,-0.21876097,-0.03536614,-0.15210746,0.05096556,-0.13101715,0.06715805,-0.12800288,0.07296318,-0.018532438,0.08764121,0.13354547,-0.18196258,0.21720648,-0.04405887,-0.23083256,0.2508954,-0.20736502,0.103109665,0.106150225,-0.18003966,-0.0854553,0.16237313,-0.07428487,0.20169109,0.046944637,0.07788046,-0.0690064,-0.11154933,0.13108289,-0.10056031,0.085288845,0.04164328,0.0026158644,0.022954796,-0.10613067,-0.18234718,-0.09792417,0.0019762192,0.11815036,0.011718516,-0.17513749,-0.12789086,-0.06697003,0.09539051,-0.11614126,0.0785193,-0.12945704,0.03798447,-0.060582355,0.020964563,0.024471233,0.13942699,-0.25240785,0.090535864,0.17960815,-0.1471388,0.052339688,-0.06590737,-0.07110953,0.18412597,0.06979591,-0.14435571,0.02046854,-0.23538993,-0.03608421,-0.04885791,-0.2122905,-0.08620147,0.12057278,-0.1048135,-0.058252793,-0.1364811,0.20249225,0.18494113,-0.03337649,-0.200445,0.15188268,-0.034768213
0.04787224,-0.08036145,-0.1841379,0.16899483,-0.28070527,-0.17994307,-0.028268099,0.12115245,0.20110627,0.087825425,0.05089482,-0.13440083,0.12564462,0.038964756,-0.089973025,-0.1291708,0.038477574,0.081235096,-0.13637783,-0.0655279,-0.09017027,0.004267274,-0.04702442,-0.06579579,0.21008855,0.044683043,0.14568633,-0.25761545,-0.07329118,0.093081884,0.18090393,0.14215602,-0.022739392,0.034924358,-0.18573652,0.21473257,-0.14002937,-0.0653088,-0.07473219,0.23705305,0.09223532,-0.04939024,-0.08588029,0.19989836,0.09697792,0.16178025,0.18531136,-0.08207053,-0.25058204,0.0030499243,-0.0121317115,0.084829204,0.15833372,-0.1554677,0.15853648,-0.12594277,-0.12597395,-0.16306931,0.16846322,-0.13714696,-0.046406895,-0.075004846,-0.046056367,0.08125111,0.24257524,-0.17558798,0.22224148,-0.09890114,0.1400538,0.14712317,-0.14582129,0.05315415,-0.12093925,-0.1510191,0.032029763,-0.20621434,0.16946106,-0.019566704,-0.006953073,0.21247119,-0.10642212,-0.08766135,0.042256694,0.031758044,0.13160805,0.09498251,-0.24239464,-0.09991201,-0.13886975,-0.15430224,-0.062359456,0.092708565,-0.0917439,-0.08928296,-0.11916538,0.11995651
0.031758316,-0.11384439,0.08075992,-0.12637314,0.13902406,-0.11266566,0.13703567,0.08329005,-0.15579155,0.051031295,-0.14320992,0.15195693,0.23190027,0.0034933423,-0.14310054,-0.06947209,0.049695667,0.00422056,0.20895176,-0.10400381,-0.051032033,0.039415963,0.0716725,0.064806245,0.028977131,-0.09683232,-0.0041970196,0.14244208,0.20174234,0.055740386,0.10076544,0.023408122,0.0971905,0.16560768,0.16158137,0.124673024,-0.09991773,0.17964411,-0.055418413,0.01894757,-0.0010866175,0.004928671,0.01811133,0.12449856,-0.11935569,-0.071881406,0.0068830927,0.01330979,-0.114138044,0.16171274,-0.07062175,-0.14063272,0.15129498,0.11814976,0.03715177,0.12635192,-0.011350373,-0.008844147,0.1883474,-0.051403843,0.038629826,0.029753333,-0.14406303,-0.10835232,-0.07706685,-0.13259098,-0.011716751,-0.028737595,-0.0689704,0.1557309,0.11997954,0.23229569,-0.16766992,-0.057072103,0.19457482,0.07139773,-0.17025346,-0.17809227,-0.086049214,0.11428933,-0.034309506,-0.070383124,0.06481983,0.18554907,0.21940829,0.15844174,0.2272813,-0.116531774,0.1557603,0.16893296,0.04811976,0.116483405,-0.10556163,-0.04105212,-0.09511132,-0.08824448
0.07860587,0.1761052,-0.061112892,-0.12645842,-0.03657008,-0.179049,-0.085808836,-0.08389829,-0.16871168,0.10000269,-0.19038145,0.17721859,-0.17945635,-0.07165705,-0.059218444,-0.043796543,0.17563245,0.118711375,-0.052366927,-0.096852325,-0.03744749,0.051572554,-0.20327668,-0.07267152,-0.12323569,-0.076533414,0.035302803,-0.027318237,0.10485622,-0.116462246,-0.09179962,-0.017181516,0.1004236,0.147666,-0.008968131,0.04942033,-0.2254454,-0.16523847,0.14076062,0.08715214,0.12269182,0.17586033,-0.11705203,0.09777504,0.14377199,-0.1706608,0.14726233,0.12647276,0.046720337,-0.15624122,-0.14117219,0.11490984,-0.027666552,-0.033409547,-0.042494353,-0.07001264,0.17628475,0.09596784,0.17393602,-0.04332024,-0.11795835,0.032698687,0.014256058,-0.14287105,0.12758482,-0.17335571,-0.05542883,0.072290204,0.1833803,0.06390424,0.0067805406,0.08537711,-0.009865332,0.106430255,-0.07554855,-0.027542125,-0.21752062,0.057672925,-0.19936928,-0.21459492,-0.16376574,0.15041383,-0.16916437,0.012921049,-0.0378779,0.049477477,0.17371164,0.059118845,-0.1306813,-0.0990025,-0.10308313,-0.15756099,-0.11785493,-0.14254665,0.08140889,0.18101946
0.008105123,-0.16371372,-0.062306132,-0.10740169,0.13127446,-0.1904116,-0.098091744,-0.09898529,-0.059638787,0.03250283,0.019455884,-0.07757031,-0.017088637,0.013540582,-0.051712655,-0.036254883,-0.18183665,0.22384652,-0.10294405,-0.21564156,-0.12158544,-0.0013522158,0.06289304,-0.21955511,-0.0847683,-0.21288143,0.19883724,0.16630246,0.18235852,-0.09402264,-0.008136344,-0.06648782,-0.04449427,0.06386717,-0.16367623,-0.17860708,0.14319815,0.05093716,-0.05470955,-0.05531166,0.19531016,0.047991473,0.15563819,-0.1531756,-0.11402518,0.17143454,0.04786207,-0.05366995,-0.1222561,-0.11674446,-0.09962892,0.12795435,-0.0674471,-0.027822701,0.013975908,0.15642703,0.09332866,-0.18888609,-0.11981509,-0.04180706,-0.08909777,0.06077367,-0.17191163,-0.049109917,0.08050574,0.084771626,0.06493278,-0.009053878,-0.08100888,-0.081337854,-0.0013600654,0.010906854,-0.071030356,-0.030749332,0.11326178,-0.16641253,-0.18402772,-0.008650116,0.007361912,0.004190978,0.17257017,0.08502187,-0.15556568,-0.12456552,0.08778171,-0.13907196,0.06527101,-0.008754388,-0.0032878446,0.059946112,-0.23536232,-0.18606855,-0.15549515,-0.20858367,0.066905454,-0.13378535
-0.055030216,0.085138075,0.13955127,0.117422365,0.17407209,-0.07239213,0.057551138,0.052990854,0.008916592,-0.20982225,-0.13970467,0.11027362,0.05792722,0.024057006,-0.14158495,0.15200195,0.0036870218,0.09792384,-0.13862738,0.07942086,0.07516922,-0.1779398,0.04943884,0.13481295,-0.12268485,0.04193241,-0.04609548,-0.013615068,-0.1489377,0.0901245,0.032697,0.2320732,0.032398432,0.10167074,0.18943213,-0.14214425,0.22448047,0.25049162,0.032552853,0.03625574,0.12020608,-0.089159526,-0.04263113,-0.13490528,-0.10986645,-0.15392652,0.029673422,-0.14381811,0.13359402,-0.09601177,0.1282229,0.14747804,0.1690478,0.18441491,-0.19300741,-0.106027566,0.15852605,-0.12107145,-0.06502097,0.021198114,-0.16609846,-0.10867175,-0.022488438,-0.019694105,0.07542001,0.10199228,-0.0009163385,0.032736868,0.08449383,-0.14788751,-0.09747142,0.23382331,-0.002494065,0.07645925,-0.1895493,-0.0131910015,0.03491477,0.020997554,-0.17604876,0.03348108,-0.0351458,0.09423631,-0.13052322,0.13989066,-0.11738069,0.22701132,0.11858915,-0.17514965,0.14981338,0.077905916,0.115183964,0.20401041,0.13382551,-0.1913782,-0.067818694,0.13500756
-0.024501707,-0.16337335,0.0754049,0.098898426,-0.17549288,-0.061621245,-0.03190245,0.019602982,0.09599071,-0.06221106,0.08796398,-0.18028635,-0.19422546,-0.17086257,0.00074314984,-0.057009492,0.14206377,0.08702632,0.06398425,0.18995939,-0.17830871,0.041695442,-0.21596995,-0.023808755,-0.08817206,-0.014719844,-0.0084937345,0.095592886,0.05147386,0.08331802,-0.09595287,0.06691856,0.11594326,-0.1470129,-0.08814681,-0.130283,-0.006296291,-0.14329277,-0.195998,0.18681599,0.08031462,-0.14917065,-0.21062313,-0.12622887,-0.100206956,0.10600543,-0.020571401,-0.16842422,-0.010092355,-0.20789708,-0.053520363,-0.17559007,-0.17311598,0.05652802,-0.20730048,-0.21479626,-0.21560267,0.12933451,-0.047752716,-0.04620674,0.014363514,0.07810639,0.14627075,0.11830688,-0.21585864,0.09643756,0.039269857,-0.08698059,-0.07787656,-0.18473461,0.099001564,-0.084163524,0.032777064,0.040589124,-0.11120079,-0.204876,-0.055963665,-0.0627144,-0.20784698,0.04661421,0.18553862,-0.036915366,-0.06984925,-0.17303498,0.011165631,-0.11295031,0.08466773,0.09129712,-0.1499909,-0.015411128,-0.13370472,-0.10790698,-0.045670066,-0.0788585,-0.0042094826,-0.18821011
-0.054708324,0.086070955,-0.009702215,0.10991663,-0.036040347,-0.035346124,0.15943618,0.03378664,0.024395239,-0.10403269,-0.049134806,0.1126359,0.21527697,-0.03784701,-0.014558217,-0.023464244,0.14438023,0.18801716,0.10765263,0.16049059,-0.055130903,0.075921595,0.23158243,-0.1106919,0.15397534,-0.069976546,-0.14218105,-0.035498686,-0.15877196,0.042624827,0.07427884,0.096513845,-0.009348506,0.053115357,0.16453707,-0.020781757,-0.024980128,0.19848433,0.006645226,-0.16253264,-0.14997135,0.13223274,0.08852955,0.18054226,0.15394211,-0.15333387,-0.08970234,-0.07175923,0.08305805,-0.064573705,-0.031405892,0.19783717,-0.1502088,0.23500463,0.11132693,0.10270675,0.14712681,0.07226178,-0.07504443,0.064941026,0.083637096,0.20654082,-0.042187564,0.07551432,0.18891205,-0.030913586,0.11201483,-0.13226008,-0.16598348,0.190981,0.22378707,-0.14249964,0.043026265,-0.0002512213,-0.13952382,0.24479502,-0.084031686,0.03249034,0.09057848,0.07010754,0.021090217,0.14722456,0.010382098,0.09318662,-0.045149196,-0.088382065,-0.16412823,-0.087547556,-0.020711284,-0.18388964,0.10678721,-0.020232337,0.22905213,-0.11247041,0.0032452152,0.091806516
0.0662451,0.00075752346,-0.078857884,-0.15589634,0.012299425,0.12464939,-0.11979204,-0.17907593,-0.0014909335,0.10200753,0.017260252,0.16498397,-0.06532378,-0.16048343,0.076587275,-0.07934216,-0.03136374,0.09607525,-0.0042909984,-0.13872334,0.1902097,-0.1664525,0.057430364,0.22163732,0.17565513,-0.13976426,-0.093405,0.24628352,0.18749069,-0.076592796,0.19517475,0.1332452,-0.17661417,-0.06691257,-0.19180772,0.2082872,0.10667641,0.13146165,-0.0030875476,-0.0922381,-0.13103223,-0.017346304,-0.15034352,-0.002720633,-0.060773678,0.0011179143,0.18040459,-0.11771219,-0.12370805,0.16579415,0.07334517,0.17652714,-0.20602019,0.23090042,-0.0026737782,0.1082981,-0.060365777,-0.07764558,0.04811701,0.061849535,0.097184524,-0.11703001,0.03298566,0.15555643,0.018167378,-0.09796654,0.16984443,-0.1665623,-0.109328836,0.15798363,-0.041168403,-0.09511498,-0.17543438,0.14194053,-0.08436951,0.10119771,-0.030443808,0.0061714924,-0.15436417,-0.13210724,-0.0005773136,-0.10235058,0.15292104,-0.11488608,-0.17776822,-0.17549326,0.08720999,0.18839349,0.11863304,0.08444063,0.030970562,-0.0031945324,0.15687715,-0.06606991,0.050623383,-0.13326156
-0.009559637,-0.07138782,-0.15368675,0.18170096,-0.22487228,0.035760008,-0.051067445,-0.018985238,-0.09399559,0.17097785,-0.13771941,0.15147296,0.12119482,0.06459233,0.15360937,0.13663056,0.034858067,0.17117678,-0.0043532955,-0.1804312,0.09739793,0.084314786,0.0037591045,0.04014067,-0.07831076,-0.003405163,0.09484068,-0.13249831,0.12905341,-0.14549339,0.18730746,-0.09148153,-0.20526566,-0.11789194,0.16128822,0.11909254,0.18597546,-0.041075792,-0.14916228,0.1703171,-0.031133251,0.2303398,-0.1479667,-0.10868523,0.12353041,0.1401273,0.1671714,-0.23826553,-0.15791012,-0.022760838,-0.08266068,-0.072723046,0.0037663009,-0.10573208,0.031435303,-0.14984773,0.06518318,0.12708223,-0.1194707,-0.09881044,0.094618365,-0.13671899,0.19461483,-0.012729187,-0.017602734,-0.112268135,0.026777472,-0.1359633,-0.02345771,-0.14756466,0.154117,-0.14686841,0.20054379,-0.10264666,0.18222103,0.04170776,0.03778202,0.16674188,0.117680505,0.18915121,-0.20069477,0.08032324,-0.1980264,0.10709718,-0.15896899,-0.17056681,-0.08622097,0.18442248,0.07003388,-0.11551355,-0.08154269,0.09675128,0.06914507,0.012382477,-0.10120591,-0.1437645
-0.21801671,-0.020949516,-0.11697302,-0.00085394195,0.024518201,-0.13672435,-0.13074489,0.22283582,-0.035893884,0.20979434,-0.033397652,-0.17639592,-0.23412767,-0.043433342,0.059434257,-0.057088725,-0.22132069,-0.14348376,0.20525832,0.13875198,-0.13848694,0.099671036,-0.1789841,0.03770174,0.12397859,0.0064313915,-0.012573874,0.027543271,0.094178714,0.082847044,0.13156787,-0.079073004,0.11807041,-0.12218026,-0.11469993,0.11370125,0.11392594,-0.10933778,0.03051746,0.021667818,0.19710338,0.16536142,-0.08206405,-0.18364877,-0.10844497,0.09132246,0.08085745,-0.14089783,0.16682748,-0.1784643,-0.0047365846,0.18173367,0.11532488,0.2334765,-0.0144296475,0.13012047,-0.013995147,0.20411271,0.01719848,-0.040115926,0.06682026,-0.07463088,-0.042104688,0.12868796,0.1550074,0.03635614,-0.16077107,0.11100509,0.0149524165,-0.06269641,0.11580347,0.12886365,0.026703827,-0.11542642,-0.10673021,-0.16761002,-0.24149609,0.13314608,0.042452615,-0.04985148,0.08075987,0.16026738,-0.02832961,-0.08554699,-0.08916886,-0.082274824,0.09139096,0.121547565,0.2306297,-0.0114683015,-0.012098841,0.051719543,-0.08089883,0.21962315,0.13619201,-0.019558478
0.17569174,0.06792517,-0.12643486,-0.074933566,0.20540059,0.12102851,-0.17452383,-0.030992532,0.021689346,-0.17554016,-0.07831688,-0.102723636,-0.065981604,-0.16961822,0.05636805,0.036690544,0.2261789,-0.08457546,-0.10339,0.017998531,-0.06502731,-0.12618007,-0.06297373,-0.050613586,0.114556864,0.059386123,0.13016212,-0.17440903,-0.16603105,0.009922523,0.07801009,0.077219985,0.20870937,-0.094135076,-0.054381672,0.065657206,-0.0741543,0.13883634,0.09549843,0.029760938,-0.20898579,0.10928969,0.10321934,-0.13870831,0.07777128,0.04133868,0.047584794,0.19294468,0.23268528,0.18185459,0.1719076,-0.09772376,-0.07763138,0.024764892,-0.2118814,0.08041073,0.0004337623,0.1977333,-0.053239696,0.09705302,0.06809517,-0.08895315,-0.13263302,-0.05331502,0.19550821,0.0495192,-0.042191453,-0.0054456564,0.04414853,-0.07984699,-0.11915901,-0.1526554,-0.06987744,-0.018266348,0.18872625,0.023762928,0.17313494,-0.05724646,0.042073224,-0.13595223,0.1225184,0.11398957,0.068684064,-0.07731118,0.029727692,0.11214352,-0.090940945,0.09825131,0.19791962,-0.059716698,0.120439455,-0.023486597,0.12122271,0.034038648,-0.06480343,0.08283538
