325,308,-146,-50,-105,-249,166,-158,93,-226,-243,115,142,213,-24,97,170,-261,-91,-249,49,-146,248,106,-228,178,-42,-89,210,231,-112,-143,2,24,-284,102,-247,-155,35,-39,-236,-17,-331,66,96,-113,35,-221,-350,-287,-76,51,-114,-21,132,-359,-102,-148,-314,-310,-68,110,-288,40,-221,-86,67,-230,235,155,-142,2,281,-132,-145,81,9,-196,-1,182,-27,-205,328,108,303,-131,13,181,226,71,-122,-130,248,-90,-212,2,306,-63,81,102,87,-18,312,-23,-21,56,-36,-107,-124,132,105,7,-164,125,-273,17,-248,-329,-26,-291,-188,250,47,18,235,-12,30,126,280,-13,142,152,-83,345,0,-42,366,376,366,-95,-7,8,-80,200,262,158,-76,30,101,178,222,197,-103,57,87,263,33,-20,229,138,113,-127,102,-186,247,-17,-159,25,-45,37,-259,-234,275,-1,-117,69,-201,-265,43,99,298,55,-167,179,217,186,241,194,-247,-180,131,41
-152,-291,219,-90,233,-32,-147,120,-111,288,278,240,248,15,-161,183,65,-17,245,20,-12,-210,-131,192,-77,235,-44,-227,285,-112,-228,244,144,252,103,289,-179,114,-215,-290,-205,219,60,-266,-288,-216,226,-35,-1,190,295,65,-222,39,-148,-238,-191,278,114,217,303,-176,109,134,90,-118,-100,-268,-2,-202,-320,7,-146,-230,240,-292,3,262,2,119,177,-141,308,194,300,-57,-78,-189,188,119,101,53,-85,201,34,273,-123,-29,-132,29,-216,315,137,65,233,289,94,83,-124,-160,291,96,290,-181,-211,-105,109,-129,138,365,174,-235,124,213,131,129,123,-163,183,331,-37,143,288,-154,-166,318,317,-165,-116,29,47,80,267,-124,74,151,297,-149,-224,-77,298,-255,205,299,-67,-6,-3,53,166,180,-274,46,-233,168,5,-170,-40,-222,303,-122,-154,259,-32,136,302,66,-174,383,131,275,-44,-9,136,19,188,356,363,200,242,43,204,101
-108,-168,-169,40,-146,0,-274,30,139,-263,-209,-182,221,183,98,-72,-30,-48,-33,-159,363,-79,217,-167,189,-41,239,265,64,276,53,34,-11,171,-177,-2,-231,188,-359,-73,-304,-325,28,95,-136,197,-19,-270,89,-286,-336,-149,-351,16,195,169,-258,-148,184,-115,51,-353,-143,-85,-38,-339,-92,-240,107,-295,-224,124,99,-69,-184,330,-134,322,157,236,-15,76,267,-225,201,39,-134,156,296,166,-82,-83,-171,-247,-142,-220,11,-203,-74,153,121,221,155,297,20,42,-2,-34,214,84,313,235,-46,281,-74,209,329,124,170,244,139,167,290,162,282,304,-72,-72,135,212,0,154,143,213,-164,-25,-162,-236,-103,-198,-133,151,-262,-149,-143,96,134,-300,-241,77,-292,-202,122,-86,197,-187,-124,99,134,-116,-32,197,-232,113,-13,258,-41,370,81,90,-204,-105,-177,-34,356,-152,315,159,31,151,-119,33,138,72,241,174,27,-177,290,59,68,187
-168,-236,186,-202,-13,-80,-176,78,-10,104,131,-90,-66,-45,-103,49,-185,250,146,77,-249,-224,-237,61,-226,-101,-356,-364,151,-125,141,129,-343,114,-202,-238,134,-100,-161,137,39,207,-303,-88,-326,-206,-244,-168,-133,-122,-184,-197,-148,-291,-187,-222,-264,-142,114,-51,-348,-75,-58,223,-94,140,44,-90,-50,-42,77,0,-160,-25,278,-147,83,171,100,-81,46,172,91,81,-57,44,138,234,-187,177,-71,-288,196,-110,-17,-99,108,-119,89,-6,132,151,284,-69,-93,-282,-169,-298,164,159,-221,-1,-293,-266,192,93,31,-289,-71,-141,-286,-294,134,78,66,-323,-42,74,217,86,94,91,-61,-170,-39,177,363,-150,162,214,-97,150,76,196,311,313,-160,201,67,-189,239,150,124,-73,223,-113,-2,118,255,112,-22,10,320,-136,74,264,163,258,328,250,5,130,-161,-54,-231,-73,-65,153,242,-180,180,71,126,-191,-13,139,299,339,-231,224,303,-190
176,10,7,203,-124,250,165,-192,-256,18,-248,270,-46,103,-199,157,174,65,147,-162,216,-161,266,-224,-119,266,-152,-229,-273,-144,155,-246,199,7,-256,-34,101,28,-109,166,20,222,-139,165,205,108,-87,241,-216,-129,184,0,-241,-159,-175,35,-176,-132,144,22,-180,4,-16,-40,71,-239,-186,242,195,91,322,358,52,-220,139,58,-57,-252,110,-213,-176,245,280,-99,133,296,-123,99,27,37,197,-188,-221,-264,241,-66,295,-38,2,39,129,12,249,158,-21,39,-180,-236,-221,88,237,103,112,248,-176,150,-232,-122,-156,-14,-269,265,-235,131,-231,212,-46,-331,124,76,318,152,-206,-215,242,161,65,90,-66,6,-79,-72,263,-64,159,93,315,-149,-93,211,87,325,29,58,-63,319,37,191,109,298,-193,-132,81,251,323,234,4,266,307,-260,35,-98,153,44,269,-155,-278,25,24,-154,-132,303,241,-241,118,107,1,19,-104,-18,211,-126
185,-281,85,66,172,-167,223,233,268,2,-26,-9,-224,112,-178,63,197,189,52,-66,99,-246,4,293,73,151,258,53,236,-41,-119,234,333,286,24,-32,91,72,-156,95,284,-105,252,112,-162,57,160,-207,6,226,287,-158,-39,-88,-202,-123,97,162,-169,344,46,119,-70,-153,-63,-198,-183,-151,237,123,27,68,-33,204,-50,-218,28,-235,-15,11,-174,-51,45,173,-49,-217,-95,108,126,-217,20,7,188,284,-94,-121,-128,-192,206,2,282,309,-57,-192,20,-50,-15,103,-169,-149,43,-28,31,181,139,-233,-142,-6,-102,206,299,-125,-73,-143,235,297,-116,253,292,284,108,-242,-202,-46,-52,52,329,-237,-155,103,39,-75,-262,43,169,12,-30,-81,-40,-202,-39,-62,118,180,-76,171,-71,-100,-174,96,-225,-249,153,-115,-64,-118,278,168,236,135,-268,-126,269,11,2,139,-182,12,166,249,-67,-107,-61,-166,-72,-7,211,215,41,-127,26,-49
-84,110,145,-274,97,-238,166,-297,-3,-110,-218,-302,-31,192,-295,40,-157,170,38,-62,-152,-271,-144,-65,-215,-250,-176,-227,-331,-2,-218,-204,197,-150,-89,-216,-170,14,-244,-135,-105,200,-61,-162,-1,-207,-322,-280,168,-174,31,41,-240,133,124,41,219,145,-5,60,219,-298,25,198,-39,314,28,-264,-176,316,16,-128,70,-163,162,-91,-223,-76,193,228,-145,88,-176,73,132,-152,-148,191,-279,-135,290,-17,189,-180,41,-278,-250,175,-8,103,223,-185,-257,-33,-348,215,-201,184,-126,-188,-12,-14,-196,-220,-124,-176,-32,-295,4,-245,-9,21,319,221,-315,-343,3,159,248,141,31,-146,252,28,-48,258,352,-157,-140,96,316,232,123,13,241,-200,275,149,-4,257,324,-21,-106,254,147,177,145,31,9,227,-212,-217,160,135,312,-67,217,-193,-298,-248,204,75,-348,-254,-351,13,-197,43,-197,-295,-10,138,-61,-205,-51,207,-211,-159,-96,-196,110,-255
-45,-50,-232,-316,-8,-10,31,-198,7,-1,-249,192,48,25,-242,-368,-4,-373,-299,-348,-244,-330,-299,186,178,-4,-237,178,-363,-172,-23,-141,-135,0,-9,2,-137,213,85,-257,159,-273,106,-340,115,-130,-329,-315,22,121,-233,-169,24,-85,185,-355,110,-209,130,-310,-113,39,226,-234,96,117,-324,27,184,-151,-193,223,53,343,148,-68,232,280,121,-2,-306,-199,-210,-225,-122,217,-92,173,62,18,-161,216,11,-72,-69,245,102,169,340,-32,-169,122,92,96,-75,-226,-223,-25,-138,50,110,93,142,-222,-84,173,202,125,234,-140,-100,69,216,-294,-177,-247,-175,133,26,-113,-97,255,-149,-43,-37,-95,9,286,-165,-261,-102,161,-10,23,-81,253,50,59,27,-15,-162,-190,-65,335,231,316,188,96,328,333,203,43,198,31,-45,31,274,256,-6,126,-73,-102,-209,-92,-344,110,-105,73,52,-140,55,-23,-162,-5,-160,51,-65,163,178,25,-16,-345
297,290,-122,137,-6,193,-88,282,171,99,-239,153,-92,-172,-211,194,-192,-370,-204,-338,-250,-321,-380,-219,-366,-13,-128,14,-302,209,-178,161,-336,-93,-318,-176,-92,-53,22,-251,201,-79,-61,-230,154,13,-323,157,34,-172,-288,-288,4,-95,-200,199,-283,-65,57,1,-87,-146,-100,-204,-1,3,-261,44,111,-209,37,290,75,-338,232,113,-34,-292,-247,-92,36,6,-53,251,210,296,-32,51,-141,179,139,-75,132,17,-19,-83,44,305,-201,211,-278,-164,154,-22,-87,-61,-215,-33,-58,-149,247,71,-16,-314,-46,-85,47,58,-359,-281,-223,-53,-130,-192,-172,-177,-120,-310,148,-158,262,-31,138,217,-40,16,221,230,61,-170,-210,283,-35,21,257,-257,26,292,271,308,-30,279,-190,149,-67,-63,39,284,203,-136,219,106,-185,18,-74,43,-219,63,276,234,165,218,-106,109,62,41,-97,178,87,-59,-183,-1,-244,-148,32,-49,22,-97,-119,4,55,-244
-239,-179,15,-277,-287,207,-94,-167,-164,118,-106,-101,309,120,295,56,-132,-100,-20,127,367,249,35,251,-151,210,-35,247,-8,272,156,66,-279,-37,230,4,-128,-298,124,-183,-132,107,-61,-327,113,-147,171,-10,-10,-167,-138,67,-193,-54,-255,-84,170,150,-319,-249,-44,1,-301,194,-59,220,-18,-220,-220,107,106,-314,75,-263,106,-97,-73,-7,-184,4,199,159,240,-206,-151,234,261,333,101,-72,169,-50,36,282,-232,233,163,311,-103,-82,161,-72,-111,-77,-205,-154,-210,135,-190,-259,206,-258,-264,263,-14,-248,237,-266,-173,303,267,-116,89,153,-153,177,240,298,-146,-157,-179,302,258,165,236,-158,-135,115,61,-150,-29,-205,-210,-97,315,119,-170,148,284,-176,-122,-28,248,204,-252,81,-32,-136,-215,-242,163,6,-287,68,-266,169,-193,109,-162,-279,-114,-304,113,-50,-261,-26,52,119,122,-288,-251,-76,-200,-339,-301,-348,-185,-187,-312,-13,-280,-116
-265,126,-222,210,-206,193,-167,335,37,27,-100,242,47,136,-49,209,-72,79,216,-50,-23,-24,112,-61,161,-136,178,248,207,323,304,190,-197,-237,-212,59,131,152,-151,138,-168,306,-219,183,42,10,-4,266,235,274,186,56,-193,-77,194,305,307,-138,258,-113,2,-211,139,-50,101,-259,139,115,-120,169,-126,167,256,201,208,-187,193,-304,119,-328,180,-190,-280,-96,-241,-138,86,-68,281,-25,-201,32,-33,-123,66,-205,-238,239,-105,82,-138,-256,-109,-93,-209,73,-171,-203,282,50,273,-5,267,7,-168,-235,-16,24,223,-32,-176,-41,198,-41,152,299,-45,-74,-261,-270,87,197,-267,-108,112,251,47,-177,52,73,243,-80,228,215,-256,-113,-115,19,4,-50,-17,-67,28,127,95,-287,78,22,14,-284,-230,140,203,-25,209,99,156,-112,-232,-194,133,79,-147,-232,-95,-350,152,-314,193,-55,-181,-170,82,-59,-73,193,-253,-170,260,136,-281,-183
55,146,197,116,-267,-52,-172,47,29,49,314,132,14,356,0,26,-220,-4,363,237,-138,-132,230,0,220,158,121,-117,-82,-86,122,-240,-30,115,-22,-217,34,-131,-204,135,-27,67,245,144,-196,230,193,-224,-11,-63,-39,226,-197,-221,-88,-16,163,-192,-115,-108,-149,-51,125,10,137,153,189,-155,63,80,-159,102,64,-288,68,257,156,269,189,321,281,-118,59,88,104,-248,-189,174,195,-72,1,-147,-221,27,328,-191,200,-155,224,227,159,-77,146,222,245,-95,28,-90,-172,140,141,249,256,161,245,244,148,289,196,316,126,-125,245,217,-221,-41,228,267,231,297,290,-88,-179,202,-264,-233,216,-17,232,55,-137,-232,-168,-202,-220,217,68,-244,184,-91,-15,-8,-78,245,180,-218,240,-19,88,-176,0,201,-180,-307,-79,-293,167,82,93,308,239,-122,-171,141,-113,-62,-189,4,78,353,319,-178,-137,-62,-135,-162,-72,28,256,-23,-205,177
-125,-283,182,180,125,161,-46,-212,-86,86,-300,257,70,20,-30,313,314,251,73,288,-222,-57,127,289,262,42,-35,133,105,72,222,-126,146,-133,-139,133,-161,177,-233,-290,31,-7,-216,-96,-289,19,117,-118,-354,-178,-271,117,-360,-356,-94,-261,-34,-305,-319,76,143,-236,128,-316,-261,-118,210,-319,73,-79,-72,-218,-31,157,-123,-120,-100,-58,-295,107,-202,8,23,162,-22,-183,-130,367,227,321,162,66,10,366,-125,127,-113,363,38,101,-98,132,123,-120,192,-40,82,35,-146,-207,-206,-123,-271,-301,230,-178,170,-31,-68,-268,41,-90,215,12,-26,-22,312,294,272,270,-51,27,60,109,84,-35,-17,20,-49,61,-101,38,153,158,92,146,-92,-65,104,206,-61,164,284,-176,-141,179,278,306,117,-109,174,-288,48,-40,-154,-127,98,-166,-135,94,230,192,-143,156,148,-73,77,256,-247,-207,222,106,-229,-203,-251,133,176,-155,-77,241,-143,-10
104,209,-199,-195,190,99,164,277,236,248,205,185,-137,-195,70,-200,60,-91,279,-42,246,0,-77,255,-59,311,77,-8,9,59,197,96,40,-47,74,24,-326,-12,-81,120,-263,22,101,-83,22,82,238,-131,70,-119,-230,-104,-329,-104,116,210,-55,112,-320,207,212,169,-252,204,-182,54,275,-306,-16,-243,-128,-10,1,-255,136,-74,157,-329,-216,46,269,-53,109,99,74,266,214,320,39,92,151,-15,148,-136,172,-48,271,293,180,165,-2,-38,205,172,-183,244,-103,-192,220,-116,-33,-51,204,80,220,-109,58,-224,-101,217,249,356,-213,296,-203,-193,107,-164,-63,101,-69,108,-5,-93,47,324,-103,289,191,267,49,-162,67,-90,-175,-3,-25,59,187,22,-148,-27,-112,323,363,98,-89,313,-177,-215,-92,142,58,-29,-324,-43,-200,-44,-61,-266,-47,-361,-354,10,185,97,167,60,-368,5,-109,91,66,-243,-291,-333,-132,-377,20,-311,125,-363
-68,-276,-66,-238,-210,157,-33,129,60,13,13,276,40,308,139,-316,-261,-208,-78,-323,209,-85,-68,-197,-92,-186,-84,190,128,-48,31,-39,-334,33,-299,-377,-56,193,-81,-132,-123,-372,-244,98,69,-76,-383,150,-26,-72,-372,-345,51,0,-102,7,83,142,174,-82,180,-288,-239,195,188,-153,-301,-80,-33,-249,-254,152,279,132,159,-132,-179,118,-170,97,12,229,-75,-214,-34,100,-27,115,-296,-300,169,-204,-302,-66,-87,253,-171,-149,-150,-60,-28,-108,112,195,-165,-367,-341,68,-97,43,-280,93,119,-169,241,-99,-73,53,5,-83,-163,-52,-128,155,-175,-18,97,-49,-271,-31,137,193,199,-235,-274,79,95,-43,-57,190,204,226,15,-338,158,-107,-6,-251,-7,67,87,110,-1,-169,-46,254,-113,269,-191,-44,232,167,194,0,285,252,-190,302,-209,-29,-108,-176,-265,-42,-166,-158,357,344,-187,179,273,349,258,-174,233,184,186,182,-179,105,56,-181
-102,201,171,334,-147,217,-63,166,52,-131,63,-170,140,120,214,219,-308,-100,157,21,-12,77,-169,-251,-51,-8,169,-129,101,190,176,107,-105,-324,208,25,-257,-307,-109,-252,-174,139,-12,-93,-125,-126,-257,-45,-158,-369,-348,-318,-199,-329,-126,142,-291,-138,-63,-142,-191,-204,-82,-58,-184,146,-198,-147,258,81,155,24,136,-37,232,151,0,-119,337,-82,28,186,44,-9,124,96,83,328,158,-62,299,256,-113,226,-59,285,277,203,-67,-37,338,-216,-64,-114,42,-194,100,256,6,58,305,-67,-197,98,72,123,245,196,79,-297,120,-13,-131,185,121,48,-25,326,-195,25,-27,89,289,199,-127,185,154,-62,191,-14,253,-84,245,72,101,104,-68,45,235,-163,-28,280,87,27,87,154,372,166,375,-47,-9,-125,19,316,-157,69,-180,218,-111,-2,-77,-200,223,65,-78,-85,94,142,-199,-51,-136,-6,-81,-123,193,137,241,356,-8,-86,178,332
-26,87,212,-231,-175,199,126,30,-182,-257,150,-199,134,-151,326,173,-135,21,129,227,33,33,189,-119,120,-24,-173,-66,73,-25,20,-224,184,-191,-28,-263,157,-147,148,-193,-173,49,-119,-148,-59,-95,-61,-79,-75,-318,94,151,-12,63,-79,96,135,-109,-186,-213,64,-301,-33,162,145,-319,-181,-67,-156,6,19,153,136,-219,-250,139,-5,109,-144,20,-68,21,72,-67,-87,134,-52,55,-250,-355,-161,271,-312,-226,188,83,286,-5,-32,10,-12,216,-231,67,103,-111,-93,46,178,91,-281,-340,183,133,-7,97,-82,66,-148,-133,-331,-161,-165,103,-333,-233,-219,-275,276,-32,261,172,-63,-30,27,145,-25,-89,210,297,333,292,-173,315,226,235,332,-3,164,27,105,-147,-13,320,125,-175,-28,-8,-152,-74,55,166,-173,-159,70,288,-53,171,-86,53,-226,308,240,257,225,96,332,78,-196,162,117,144,-232,217,129,139,-55,-231,-252,-145,232,-194
196,-75,-187,75,-306,-152,80,102,11,-235,-231,11,24,-144,212,190,-199,-201,23,60,-269,-119,-98,-82,23,70,234,-226,41,-307,66,212,73,-137,298,-56,27,-12,-139,-101,-270,11,47,-148,87,295,42,286,286,-136,10,-178,87,-170,255,199,324,60,43,-247,-203,159,-86,30,123,140,-74,-76,-93,261,-88,180,121,156,152,-274,-36,-89,-182,302,90,189,-115,30,-110,122,282,120,-157,-127,-111,-270,282,123,149,-30,216,-67,-234,30,52,262,68,-205,91,125,-2,-82,378,-112,315,147,-70,136,217,72,12,260,80,139,-28,241,186,130,45,-53,-196,-166,203,-295,216,-85,-185,-319,40,123,-179,203,-143,152,-96,81,270,-222,-130,-227,252,-185,-313,100,-247,-233,261,5,316,-129,-68,-84,-298,-164,95,72,-216,-54,-137,-228,-58,-31,-79,42,-153,174,-46,-259,-96,162,138,-257,-231,136,-359,129,-289,-217,35,167,19,-104,-364,94,-278,-90
-306,141,63,85,68,270,90,276,119,76,83,-142,-106,-130,-5,179,-136,-178,217,-206,-89,255,-169,-168,-212,330,184,-74,-136,154,215,72,212,-282,-339,-126,-63,-272,-136,-179,133,166,0,234,-101,-235,-88,83,-82,-180,44,246,-305,-274,198,99,32,-91,-280,67,3,153,17,18,-289,-227,-168,172,-249,-130,-208,238,58,92,124,-17,113,81,-11,-190,46,-175,84,5,186,-160,30,-11,38,-43,269,256,314,161,116,125,294,40,11,-74,-225,320,196,60,12,179,11,-164,18,271,-54,-36,-130,-257,-59,78,-74,98,329,-187,21,-209,134,-206,283,244,129,18,207,323,-3,295,117,-171,121,8,-35,-89,252,184,140,50,-161,-70,111,-144,-249,-226,-21,-90,-81,-177,48,-207,-166,113,-129,67,80,325,-11,-275,258,84,150,212,101,152,-165,278,-25,-72,81,285,-188,234,205,308,288,360,94,-78,-110,-185,87,225,245,18,246,-193,216,156
46,-264,-307,-170,265,21,326,152,333,305,30,278,153,146,-133,-87,49,-273,255,-12,102,272,89,-42,215,-136,229,166,21,144,137,62,-189,188,8,185,4,-249,194,39,281,231,-76,-210,-51,-89,-298,-137,-83,192,-34,123,151,-216,-203,192,168,312,-23,304,-109,59,65,3,-203,-263,69,-274,-43,-128,44,183,66,67,100,49,-124,194,163,-216,342,7,-45,45,-62,161,347,345,206,-207,59,70,171,-248,-129,-238,-205,34,202,-229,-149,254,90,-188,-100,-166,125,9,-52,151,-148,17,308,309,227,-18,326,223,-142,-188,-168,129,0,244,349,-206,206,-191,309,-214,203,277,-58,123,20,278,219,266,-44,189,-222,-124,210,37,253,-219,306,72,-257,-156,-10,183,38,-152,-30,-193,-104,220,299,-37,-126,-182,-266,-212,-102,289,136,-189,-154,285,-54,306,-69,21,-77,-159,356,136,196,200,33,327,389,-15,352,255,155,322,20,310,182,205
-130,-15,377,143,343,16,63,-284,-302,127,-284,-36,-153,56,-178,298,10,148,285,-96,208,-148,-70,-129,-222,-230,229,106,167,-28,6,-147,-165,-111,60,105,-368,-180,198,-320,-242,200,-370,-360,100,-351,87,-42,-141,74,25,-84,-169,177,-125,-169,-202,22,-69,-230,-276,-298,122,358,-211,194,-235,-165,-126,332,155,-193,-44,-19,-127,42,188,216,71,-134,270,48,-195,-78,-14,4,-182,-222,-316,-344,-83,-220,-300,118,199,-185,257,-162,220,151,4,-229,-131,225,21,-44,-84,29,119,-104,-190,-162,-49,-216,-36,37,-324,-287,160,114,-244,22,-4,179,-308,-253,89,11,120,245,227,-104,-197,-314,-38,260,54,-45,229,-103,42,254,-155,253,122,-151,-204,357,372,-134,159,-186,-7,-189,127,44,-89,288,135,-36,-49,-77,272,261,149,-219,99,-198,317,-135,52,283,-13,-46,-199,-236,-160,-159,92,290,-185,-265,208,-239,78,-20,-195,-161,-199,-89,234,-98
-169,321,142,-5,206,-245,-230,4,-55,-304,-24,-150,-116,68,-165,19,-129,-223,-322,-336,77,-165,-232,100,-164,252,-251,-330,159,-199,6,1,-355,-4,-242,-250,-125,-17,184,4,-115,208,-331,115,-153,-25,-62,-266,3,-280,17,15,-139,-81,-242,159,-310,108,55,-341,21,146,182,199,-201,-123,-69,182,-78,35,-185,0,-83,-186,-66,124,-233,83,195,-215,-111,-2,336,9,-270,342,314,203,144,-338,336,36,59,-93,293,225,128,148,195,261,231,254,-100,-196,162,159,-89,113,133,159,-6,-229,-109,-265,-167,7,54,-252,96,7,17,-134,97,148,164,-121,175,231,-210,199,136,295,139,-103,-28,121,320,22,275,23,163,67,-166,-16,219,-134,307,-54,194,257,321,-79,131,30,-52,84,80,-148,45,188,-268,159,215,74,60,264,-75,129,373,22,-114,129,116,127,207,-165,241,286,-33,168,227,-81,92,-131,133,222,-91,-201,319,359,50,334
-46,267,-91,112,-73,-113,113,208,-122,209,-248,-73,80,-195,-119,-107,3,112,-182,267,90,-232,135,-228,-43,14,-176,-176,70,53,81,-277,175,21,-7,3,-125,-85,-91,-60,73,162,-309,-357,32,90,-151,105,141,-118,11,-59,-10,124,117,-374,-169,2,-282,-69,116,-335,-310,117,-224,132,280,2,-38,-37,-126,228,121,182,189,-262,88,-183,257,-150,-168,60,242,-10,113,-43,96,80,-291,177,-218,-266,-41,-63,-161,-317,50,-223,243,-67,2,-135,203,188,4,-24,187,283,-176,-276,-277,-121,191,-256,70,-35,145,-182,-107,132,-303,19,-267,-359,-317,138,-322,-236,104,-308,-205,-154,213,-70,163,-137,-232,255,-14,-76,240,85,-25,249,267,218,261,-63,173,82,-220,91,210,296,209,52,-182,238,-103,-181,-100,-144,-48,86,-221,329,27,275,49,277,271,309,234,181,-106,110,141,40,129,-118,316,261,127,242,5,178,97,194,-26,-266,161,28
-49,41,159,-96,-23,-278,-121,-212,-185,-305,221,-85,203,138,-242,29,-64,238,86,-35,171,75,98,-122,228,17,-31,193,285,256,-9,-237,171,-75,187,249,3,-115,-144,-171,186,-161,230,109,22,225,-82,222,64,-216,128,-164,127,-5,20,-105,198,-149,-206,155,-194,188,-138,47,-19,168,76,-180,12,-203,59,142,70,56,74,243,250,-222,-33,-188,-117,235,214,-151,274,-100,-53,286,96,-176,339,91,312,183,-188,-91,186,292,-63,145,290,241,125,-35,93,172,-338,61,-331,53,79,46,185,-128,137,-147,101,165,189,-57,154,-38,132,-252,34,178,142,-27,63,56,6,267,25,-34,13,125,224,-232,265,127,250,-230,146,-35,92,253,243,128,-182,107,314,-85,74,335,45,0,209,231,29,189,-155,116,70,-203,-134,-22,55,171,-113,53,-144,234,31,196,61,-214,-98,-159,-275,-272,100,150,-84,50,-228,220,-184,-216,-322,-38,-143,70
231,-262,-54,202,164,153,-172,42,-33,209,-74,92,274,13,-163,-42,-189,99,110,56,-90,117,-115,121,9,204,23,92,123,296,-175,-189,-123,-138,-296,-13,96,-21,72,-135,119,124,43,106,-305,-318,-101,220,-103,-283,225,-310,216,-94,-207,-316,-246,-294,-191,-249,-184,91,118,56,161,-194,-229,156,-135,-154,-75,-8,-151,-85,-155,-32,154,199,-58,313,287,55,117,-190,-15,-43,311,-149,125,-117,327,177,175,-53,184,-107,-183,6,-9,152,-210,208,-173,-215,268,-130,302,188,312,-131,66,201,248,-222,157,85,197,-224,111,-23,8,-89,-200,295,343,236,360,352,-142,227,294,241,48,141,355,204,220,-13,269,-101,-144,-47,290,194,171,308,161,-23,191,-17,27,99,-183,-98,197,255,31,-179,-134,35,269,-199,-57,-1,-48,-264,22,289,218,316,332,162,90,-195,61,-132,161,-198,330,-149,47,163,-4,239,60,-194,232,-26,233,87,112,233
140,-256,-335,-164,-13,-263,-14,-224,192,-158,2,-302,-218,-288,-245,240,-294,-106,-53,-176,-206,292,72,-276,80,-128,-151,75,-189,224,122,107,24,119,58,64,0,-45,-246,258,-223,-146,202,166,107,-215,139,244,-272,233,-88,-17,66,237,-19,222,60,-93,137,131,-135,242,-81,7,140,148,5,-225,-228,-26,31,-13,-171,-303,-340,141,-80,9,-172,-233,-176,108,45,224,-183,-197,-181,55,-202,-147,155,-192,-254,-209,-242,-144,-108,97,-78,26,167,-71,62,101,147,251,143,60,-60,-106,9,277,-22,-130,-221,-222,53,268,-151,-234,-112,122,258,-121,267,-24,151,59,-84,-108,-268,-140,173,-109,-60,213,-184,-190,-231,165,-351,111,-161,197,-58,175,-127,-139,-315,127,-339,-64,-332,5,-325,-80,-258,138,130,138,-179,171,250,-67,162,225,-72,-206,-97,117,82,-246,-336,68,130,-208,222,-164,-216,-8,-71,-83,-189,224,-220,178,-148,-121,239,109,-108,-3
226,-218,-176,83,-91,65,280,78,190,-18,-177,-233,72,108,202,-144,148,135,14,-263,63,95,-72,-190,224,248,176,-293,188,-265,-88,228,71,132,-4,-244,178,-35,-18,-21,-164,150,-270,12,227,-182,259,191,-128,84,35,159,-198,-58,136,66,192,180,-8,-160,253,-232,-322,-84,46,34,171,255,-197,98,203,172,209,147,-77,155,72,149,345,251,63,-248,-237,185,-47,-149,-113,327,-107,-202,-37,-182,126,223,127,73,146,204,339,358,162,126,145,124,-154,87,-25,192,-180,300,312,63,-191,38,173,-241,60,208,257,188,265,-49,-117,-58,-157,-8,-19,290,134,-59,67,-112,-120,36,-82,-94,172,44,-80,131,171,214,286,59,135,17,290,149,321,-188,171,-11,-104,-249,-61,45,-217,99,234,31,144,15,-179,-162,125,54,122,-20,-17,164,14,-5,273,79,260,90,183,176,124,73,-31,343,318,163,10,115,36,-14,359,316,28,92
-190,221,-256,-51,-178,-224,130,-118,92,252,316,-168,270,285,89,258,-224,167,142,4,256,-1,6,82,-288,66,-247,-128,-15,-210,-65,-51,-118,83,-118,-350,74,-109,-84,-286,-205,-79,53,-41,-166,-207,-145,-193,-183,-251,-124,26,-348,-163,-110,7,-112,200,-282,148,-1,-86,-260,226,163,184,212,-232,-227,234,34,143,-77,153,282,-233,295,51,17,206,-110,160,84,288,-114,158,-88,7,138,50,350,-167,2,-10,-111,-310,-239,-74,216,170,238,223,314,-93,201,-243,117,339,78,234,-121,153,-279,-94,-258,3,119,-222,-107,-87,224,164,-99,1,-90,3,-249,173,310,-67,25,-57,357,214,282,-100,-83,163,356,346,52,356,-30,274,92,55,229,226,2,-17,57,242,291,44,-8,324,-104,0,-91,285,-36,178,-222,-124,-85,-63,-225,-115,7,262,204,143,165,89,276,77,187,231,-3,-103,-97,18,-221,-68,-230,10,343,-83,-84,-111,180,195
-326,1,216,-168,-93,-315,-72,-3,3,111,75,256,117,69,108,-10,-86,234,165,-81,-247,56,-30,-153,-294,-97,272,-206,107,-281,-19,33,99,86,-341,34,-69,-301,29,-84,171,92,-339,-266,-257,-55,-216,-27,-301,-316,-301,-308,-300,49,-187,-108,-203,-322,-381,-157,-251,-226,93,286,105,126,112,-322,-128,-286,-109,-181,-205,198,-202,195,255,118,-37,239,-251,-140,-311,-290,215,-250,-188,104,155,225,234,245,-298,-10,-262,-190,57,-239,-108,86,43,-214,232,-136,106,-27,-117,121,-71,84,-107,183,-126,220,110,-221,-112,-298,30,208,-60,-1,-228,-143,223,-71,58,-235,139,236,25,-30,222,-32,-100,-155,-83,-16,-14,-300,71,94,61,77,-309,-51,-4,-12,-293,64,-138,-220,-309,-143,-186,17,-309,-24,-317,-175,40,201,-25,8,269,149,158,323,92,-201,177,-158,-124,-91,-199,26,153,239,-310,-168,90,25,-6,132,92,210,80,-103,-121,-230,-225,-120
220,-36,101,25,33,221,-186,-227,-154,-54,-123,248,-144,-92,111,-7,-47,-6,-206,153,-315,117,-159,-224,-59,-51,-97,-77,178,-245,190,-202,-81,-26,-258,217,-138,-146,147,-7,-233,-217,130,-55,239,180,-158,53,152,-36,144,194,-173,223,100,-137,117,232,-227,-94,-207,104,277,-195,-146,-176,140,-61,-200,33,21,-36,-92,18,-224,160,8,25,130,296,-100,123,289,253,-43,160,212,-61,62,-215,119,-122,169,-84,-116,-117,-117,247,-161,-288,231,134,-91,173,-275,-262,-249,292,-198,263,35,-53,-94,-206,-64,221,62,-180,-144,192,113,173,-267,-145,54,-190,-43,-172,74,-187,22,318,292,127,-144,64,-176,379,274,228,146,97,275,-139,212,-47,-179,-9,374,225,16,50,10,37,-87,54,292,-25,59,173,250,67,-229,27,275,285,-158,-6,-170,-227,137,-34,281,127,144,-110,-40,-161,-198,289,264,93,15,-42,85,-20,195,291,-39,-30,-161,83
-168,-333,202,-332,79,27,-220,8,139,262,-115,238,320,127,151,186,-112,-204,212,277,277,-62,40,152,-157,24,-328,37,-283,43,-178,-159,-340,-78,-67,178,-87,-87,217,-145,-220,-193,91,136,178,152,-9,-69,-174,-62,-110,-109,219,-347,10,-101,22,211,1,27,-218,106,-12,-263,-76,-312,-45,-75,-239,153,-2,-15,-86,-194,-239,33,250,-296,152,167,-225,99,-40,-146,227,285,248,317,-250,87,-51,-26,11,168,19,227,95,262,-303,-1,-329,-161,-107,230,106,-153,187,19,151,294,82,317,-242,-108,114,195,-111,-145,138,266,226,15,252,262,9,123,182,-4,-347,12,-180,-140,43,127,-322,112,134,45,100,-36,-191,46,211,-73,-19,193,-20,-301,208,-281,-146,-14,54,195,-65,231,-269,-180,233,65,99,46,317,4,192,270,255,181,-210,128,3,187,-105,229,348,350,-45,270,68,318,183,300,-157,93,294,-135,222,237,371,152,277,203
-160,-257,-13,-116,80,-295,-62,270,-100,246,-15,33,-131,231,63,228,246,292,275,355,34,149,101,-130,213,-37,-113,-306,-306,-178,-75,92,176,93,-183,219,169,-175,174,-254,-99,-157,-179,107,-161,-147,-77,-332,-318,212,143,9,21,-39,227,-208,-104,-176,36,-66,224,-124,116,-88,-73,-217,82,-280,-41,-210,219,-137,-28,124,147,166,250,17,-157,-245,-13,193,-50,-46,-56,0,-288,61,149,-115,-89,251,103,218,70,-116,-198,-166,-41,-283,203,-103,-308,-222,45,-274,-143,79,146,-322,-271,-317,-162,113,205,53,-211,-180,6,-9,122,67,-208,62,-171,123,-9,-282,133,2,-284,66,156,-99,137,-99,-286,-257,-22,-170,41,-23,-251,-171,-297,-117,132,-58,69,-244,-172,-143,124,201,55,-156,-111,-214,4,136,246,-148,71,19,22,-23,-225,277,325,189,1,-180,-27,328,12,-107,-248,179,-141,-22,-11,181,132,231,-7,158,276,-17,149,172,121,49
-93,75,-25,173,-27,45,-169,135,146,99,-80,-121,193,-158,260,-190,296,194,325,142,30,352,200,204,-139,113,69,263,363,52,-26,-168,-98,53,-253,-244,66,-21,-111,-213,-281,-351,-349,-314,-158,-27,-108,52,-377,-9,-56,-49,-327,-317,-171,81,63,123,47,90,-93,-132,-247,-58,183,132,-331,-36,193,12,-378,-181,145,-309,-126,-287,-292,-301,-194,172,-244,-243,175,208,-187,-49,-238,77,142,14,163,-64,262,121,-71,-38,328,142,29,-180,222,-41,169,154,-165,224,-17,-282,44,-288,179,-317,38,231,-190,219,-326,181,-254,-214,37,181,-233,-116,-105,108,-138,-133,-18,288,133,126,-48,-18,-165,-126,-6,-110,-3,-241,-202,142,-54,243,-74,-105,45,-66,285,-3,-48,6,294,-212,142,70,-348,-176,-173,-308,-125,62,-172,177,-330,74,81,5,-173,148,-221,-378,-355,-237,-124,49,-135,-118,-324,-304,-119,137,-274,-177,-370,39,-372,-52,-32,57,-250,-383
-208,-86,83,-284,-288,-17,61,259,-191,-144,-241,-131,0,222,-137,-255,-55,194,164,-96,89,-19,-272,163,188,-215,-20,-345,-191,-256,-84,-191,85,205,-92,-159,116,82,-310,115,-331,130,-191,-65,-296,-293,84,65,-11,-73,-227,152,-180,115,-366,150,220,-141,-20,-60,-121,233,126,41,12,-314,-44,-192,-157,-200,204,259,235,-46,201,282,234,-206,20,-140,-116,-60,-207,-179,157,-218,214,140,113,153,181,-152,99,136,-209,-240,-53,-44,-103,-234,208,13,145,-247,-4,-157,181,-340,-81,-114,164,192,-312,-145,-81,-202,-221,-42,-170,-107,-187,-247,133,-153,52,-307,50,-124,-62,-258,-129,-188,126,-357,21,-189,-53,-175,-322,-239,-206,25,-369,-228,163,187,0,97,-239,183,9,-84,28,-148,-18,-225,-266,-127,-199,138,-36,96,342,-85,270,158,-105,-224,27,-24,192,-233,171,-67,151,332,54,75,295,-66,-244,-21,128,-188,-80,-62,-57,195,103,338,156,-160
-342,-135,24,28,175,200,-100,-204,-242,-120,-90,-1,-214,-67,-232,-167,-79,313,42,198,-20,-177,284,133,-97,244,169,226,-15,-311,-282,224,-43,-132,112,-139,-134,101,-57,-115,-20,-226,31,-193,128,-110,-106,81,3,-63,-233,114,-266,235,-327,7,-273,-319,-130,-336,-248,169,-25,260,-183,91,-198,-285,-319,-105,-228,-260,233,-178,-84,235,211,-255,136,36,7,171,224,-118,-143,143,-26,0,-331,0,-324,-301,-64,18,-290,-289,236,189,287,-106,-271,-190,175,-1,-93,9,-162,203,139,152,-313,64,-302,81,-293,-103,241,93,-220,114,-65,-302,203,-72,103,96,137,-348,102,-163,-110,-13,-169,276,-354,-157,-103,-200,-282,-236,-10,-51,-248,27,-125,-251,-47,209,-118,-330,144,-188,-166,-134,-88,193,-256,-97,-368,-227,28,-182,67,-42,26,108,161,-29,258,68,94,12,11,69,-67,4,-86,-144,-178,-193,-205,-106,129,283,128,191,13,98,-115,273,-130,-20
-70,196,-88,295,108,8,187,25,-361,32,198,-261,-179,-163,-207,297,293,15,-207,86,-71,72,-3,79,80,-217,155,307,241,275,137,-165,275,-63,209,44,-30,-57,-75,86,-48,-101,168,-90,136,-18,3,241,107,41,265,-219,192,214,33,119,-263,-164,-49,-284,-155,106,189,-125,-163,-217,179,61,162,195,-53,114,-8,-9,208,58,47,-226,-211,204,134,7,156,-261,85,242,135,42,-18,1,185,-52,203,-145,326,40,130,103,337,294,140,231,299,193,283,48,79,-215,-75,193,17,124,290,177,-290,-162,-89,-56,155,-54,69,-38,-215,270,15,162,-173,284,-47,-94,57,-56,-136,157,109,131,-216,26,-29,-197,83,-129,109,-180,190,77,187,-204,-173,215,270,199,-229,47,-63,259,66,238,221,6,-61,-141,-73,-221,85,56,-140,81,30,136,192,123,-40,-116,-181,355,357,281,-113,153,179,-81,272,19,-139,-209,31,32,-86,281,273,118
53,-198,-165,226,-81,-334,-264,-37,70,191,141,-142,-151,-27,187,-328,-25,-88,305,-216,154,229,-45,-301,-292,98,-123,-41,-11,-217,-344,-351,-224,83,-150,-255,-180,-106,-18,8,-55,-187,-8,128,-210,-274,-42,-160,130,81,8,147,-292,-68,-180,71,-14,-112,171,-208,55,-24,191,-72,-298,45,-79,-169,-300,67,3,84,85,291,-102,52,167,294,235,-271,-232,-228,-151,-59,-204,-194,-186,-2,-109,103,154,-176,261,-206,-160,138,45,-76,-205,-296,-231,140,-303,202,-181,22,-116,20,-98,-128,167,44,-347,-4,-164,23,-249,-335,-251,-140,38,-321,173,-39,-171,-345,-147,54,77,-323,166,95,-27,37,52,-282,-375,215,-16,-144,-330,45,216,-178,-301,153,-91,-133,-25,204,118,-137,86,-123,28,264,-97,176,144,-47,-154,-125,-157,148,-201,298,177,-133,-148,199,-29,-273,-239,-84,-31,-230,-255,310,254,194,-130,205,100,78,246,-66,186,276,-189,126,336,241
145,42,-62,-210,82,-49,198,-28,-201,274,65,286,137,-217,67,-48,-339,-32,-76,-270,136,-121,102,11,-266,82,100,-64,231,-333,-15,28,-258,201,-128,-62,-320,-126,210,-218,-294,-75,-171,-157,-315,-190,-179,-282,162,-133,-242,-121,-30,-322,117,195,187,296,-85,289,-14,-25,147,-142,107,-183,21,-254,187,22,57,130,-79,71,12,186,97,-198,-24,6,-146,185,369,248,134,89,351,-65,14,-183,127,-149,-101,144,324,218,-154,-6,322,-13,313,303,184,-87,114,-99,265,137,12,-186,-144,96,47,304,-179,178,258,101,304,171,140,228,-95,-200,265,-213,263,-181,41,217,269,26,-14,112,155,-147,160,-41,365,-150,-199,0,290,339,216,98,51,-210,294,48,-152,-145,108,-93,323,311,110,358,-73,-103,-86,-138,-188,-197,84,331,77,-18,-151,167,116,-176,11,-145,-51,-94,112,-113,-164,233,-48,251,181,288,-182,-6,368,198,273,330,-124,-186
21,-213,176,-264,-113,197,294,13,158,274,325,330,235,-135,125,-39,-17,-4,73,180,21,-40,-76,176,-81,280,54,92,-167,169,56,217,-207,54,68,146,267,-196,-103,23,-99,202,261,-237,150,247,-55,138,305,-44,47,221,-47,-149,-243,253,189,-156,-88,178,130,214,-43,-251,22,13,128,-197,-135,-205,-33,-236,93,80,190,192,-5,-59,-33,-115,240,77,283,186,66,-101,129,-112,-48,127,-266,237,164,6,250,-240,-178,-32,131,175,-67,306,1,380,145,145,172,122,115,333,-185,360,319,303,-62,98,-8,323,126,-49,224,278,200,304,-87,-16,303,-59,141,8,-41,-185,-154,-40,-233,-15,232,57,139,210,49,234,-58,-10,-161,65,-99,260,-146,-119,-120,101,41,158,-32,-169,-62,165,20,-192,49,-75,-254,123,-261,191,-194,-120,10,132,129,-190,175,14,300,29,332,78,-109,315,142,194,191,25,-151,-127,-122,205,-166,39,335,195
219,-33,274,50,210,41,-158,-14,-169,276,-209,349,-184,-157,-117,166,227,-56,-149,174,-159,280,172,-57,127,-143,238,-146,-154,-201,-95,-44,-181,165,41,-83,-61,153,-54,8,269,-87,308,-213,-149,-124,-230,-57,-51,-190,-208,-44,-241,67,-89,-53,238,130,324,-59,-135,-160,-12,105,-106,256,31,-175,-63,63,-188,-282,-16,-136,-38,313,-23,10,170,338,40,14,75,-75,19,-8,68,-144,148,-163,235,199,177,203,36,-165,-157,65,-174,-139,125,118,135,-19,-118,281,164,207,-36,-179,298,29,94,39,-122,-103,199,328,45,-118,84,105,27,263,222,327,112,202,-48,-219,-13,-236,341,-35,-79,-187,-120,185,-280,13,-131,46,137,-81,31,-47,-55,-77,-19,178,-28,172,174,74,-107,-159,308,-228,-193,-47,265,-276,-39,-95,47,-122,-104,247,-197,-194,379,303,202,204,12,169,225,64,-1,103,53,363,-158,-112,-204,-77,289,218,-188,272,246,-151
-51,179,-1,-20,-90,-162,4,-171,-122,217,84,156,148,182,68,170,35,-208,-154,-36,92,194,222,-158,-227,20,317,-22,262,194,-64,352,-124,-182,262,109,-103,160,-210,223,105,-27,16,91,201,43,-109,-204,167,15,-128,42,12,-46,208,-93,259,271,313,-13,234,-156,81,72,21,176,-208,183,19,-153,174,-159,38,55,205,144,-234,-2,329,-33,49,-208,-167,-165,-183,-28,-86,49,-8,328,-246,119,283,-81,131,19,-82,202,295,29,-70,278,228,38,201,89,-119,66,-34,-268,-127,127,21,-141,-143,269,-197,-5,32,-145,156,317,-202,146,-132,128,31,290,294,165,39,-51,-162,-196,-48,-123,-68,148,-161,-345,77,-91,-285,102,-64,26,120,-208,246,-236,126,161,81,242,258,248,-257,-304,-52,-169,-339,15,-12,-87,-80,-4,-113,225,46,-33,189,70,252,117,359,229,-1,346,91,-51,56,-5,26,72,386,347,193,-165,280,272,-146,91
-197,118,-48,206,-48,-314,48,290,-159,339,161,57,-3,-2,311,293,238,116,245,-174,337,-46,-85,198,-2,249,215,171,340,187,187,187,113,-308,-231,-29,-145,25,117,-111,75,205,-202,-131,194,7,-270,-294,130,-64,-214,260,59,-156,170,-226,29,-54,-315,114,-245,-244,155,-144,1,-261,169,-302,-67,-94,-54,39,-133,-271,-61,-127,-260,199,-256,-197,-53,-124,55,50,163,219,-193,-272,-41,-251,-135,9,35,204,1,-261,44,-93,175,276,-119,273,-192,91,-78,139,-184,-143,187,-73,292,292,309,-231,-275,205,-268,-255,-39,-19,186,-269,-195,-103,63,137,217,-282,25,-292,206,-107,101,32,-111,61,215,-204,-339,-222,-167,-177,-219,-100,225,-87,186,85,-161,107,-50,-309,-242,103,-172,-63,-18,123,-100,-181,331,-1,201,328,-126,174,259,166,42,51,88,261,-103,150,278,-206,316,72,118,-45,-2,142,-14,-302,22,77,-58,-261,86,135,-219,169
-161,-262,2,-283,-269,117,273,-119,-237,127,174,232,-28,108,147,48,-85,-104,-144,69,99,187,125,-113,141,-46,115,154,-224,218,293,-213,-262,176,85,-115,-258,-38,46,-92,-209,-125,-6,56,-89,-185,-274,-293,-267,-337,29,30,-166,-163,-99,-140,-281,-116,25,-283,215,244,114,-340,-347,-57,-2,154,64,44,3,-267,181,211,34,-146,-167,-256,-117,188,-65,13,64,238,134,351,116,4,0,367,285,323,212,-77,124,93,73,-149,-119,143,-197,-179,-125,181,141,333,327,22,274,-128,105,186,-219,-162,286,129,98,-215,-150,206,-219,-49,152,278,320,-185,258,-44,181,-163,-221,314,-145,-111,-33,-129,-250,107,-197,-217,187,-232,-84,321,-204,-133,102,60,-214,-185,48,290,202,45,0,-45,17,218,86,-185,-208,145,-16,-121,253,238,369,-73,-208,99,118,195,-179,-2,-103,172,115,128,-42,236,-169,-154,-147,370,269,155,3,168,328,208,117,167
-233,247,206,-229,-174,230,-28,-188,-82,177,-175,243,-132,-39,-191,-50,-12,139,-251,10,-43,153,334,-31,254,-4,115,-256,-117,-160,91,89,71,62,-214,-28,-26,187,-259,-107,-60,-252,-276,-100,41,-48,159,-48,-321,96,-23,-362,166,92,-217,14,-31,-75,151,-274,-224,213,-63,-72,-155,46,-176,-46,242,105,37,-262,278,-127,156,-85,-194,354,-34,-84,266,-145,103,-132,294,-199,-150,52,136,33,102,-78,69,146,239,-76,290,218,-166,-133,18,91,-143,100,219,-291,-129,-33,-196,-27,28,-158,135,-122,86,-160,5,253,228,170,180,-86,-199,226,251,165,238,-166,190,261,209,-12,359,-14,296,25,315,-34,336,79,-137,209,242,329,182,65,-77,271,36,-200,277,250,134,-159,-119,113,-110,-58,80,292,-121,22,243,-149,264,190,164,14,-151,315,74,46,-155,-125,-40,220,184,-213,29,326,-78,-194,-243,-112,227,-95,60,144,-103,54,150,238
203,333,-162,128,84,-149,-203,150,-299,57,-132,-274,-179,-13,-117,-107,101,0,-263,19,-285,-54,-240,80,161,37,-23,-79,205,-234,-70,124,218,55,-161,233,4,-352,-100,218,-343,-292,70,176,-160,-137,-123,-160,-150,-315,102,-311,36,192,-92,-344,-50,116,99,-280,138,183,-124,34,-264,214,234,330,129,242,197,184,57,-107,-61,-42,-136,-1,264,209,171,114,173,-120,-116,-259,160,-193,-233,19,-201,63,-33,310,55,-221,-35,17,304,7,184,-65,-75,25,-29,-11,-55,-77,-77,-159,-28,-196,-15,79,-198,-34,-119,79,198,-117,-178,-13,-153,-203,154,-107,170,196,-131,-102,195,152,41,188,89,-62,-159,-145,279,374,314,218,260,375,131,253,-2,-183,357,218,31,-224,-34,314,181,96,286,128,340,-157,-10,93,9,-142,223,143,-1,-229,-224,-50,230,-4,-317,181,57,-167,-43,-76,-282,147,-169,-117,154,-90,-234,239,110,-119,-26,-177,-190,52
-275,-108,-239,123,192,-120,352,-32,323,189,-214,-133,-44,-88,347,22,27,-6,94,-14,-41,223,78,-83,-214,-249,135,-205,-18,-188,108,-121,-159,-31,28,-320,-166,53,78,162,-208,47,-40,-229,-136,175,0,-155,141,141,-150,-12,137,-243,-156,-87,-48,-133,-38,33,-1,-25,-30,20,-45,89,-158,-167,231,144,-89,-274,37,210,-271,-18,237,137,276,-52,255,327,0,-172,-59,2,322,107,45,62,-74,110,-175,193,24,259,170,-140,222,-38,-279,4,211,-251,34,-250,241,-106,-34,-76,33,255,-159,69,61,238,-81,231,-92,126,-99,174,-107,-213,264,-205,-21,321,-149,137,207,-140,-13,-148,-242,300,-74,-306,-56,-262,58,-94,50,12,-150,-64,-87,-209,-108,161,204,-263,13,92,-171,85,276,184,224,-83,-95,113,292,249,198,-44,316,222,312,203,160,14,-85,142,-63,262,368,-115,229,9,90,348,-138,105,46,-167,353,211,200,-198,-13,218
242,207,-116,198,147,-225,312,136,-259,68,172,-302,-289,-191,-218,239,-287,-230,-158,213,92,-36,9,-98,-210,-85,-47,-60,-15,2,88,-188,-183,-73,-33,-156,198,-20,114,94,-178,-269,-339,25,187,-24,-137,166,-12,-277,195,-332,16,36,120,-27,-251,-181,-293,172,-318,69,18,101,-194,-204,124,109,-40,-277,154,126,-207,-200,-185,207,-192,-46,8,57,143,263,311,302,115,249,293,-14,0,270,-219,239,-74,268,214,-130,-153,-190,-20,-115,58,234,154,-297,-222,-105,139,229,237,55,221,-279,-289,234,167,-193,56,-207,44,-207,-25,-173,153,177,-227,276,85,-131,137,235,125,-133,-115,239,-7,312,-165,182,278,241,-99,134,-146,174,203,316,-147,-73,7,60,-1,-53,67,350,84,65,-161,-55,218,247,185,295,-154,215,124,-41,-193,-10,112,362,359,374,32,172,240,165,298,352,-82,-190,365,-140,230,-200,211,51,-102,213,-63,336,-129,-207
-234,21,-173,-130,-151,-147,173,62,-90,-213,109,136,325,73,261,-250,66,-54,279,-345,47,-109,-213,-216,-120,-153,167,-344,48,-143,8,-81,-305,20,0,34,-240,-61,-215,-273,-339,97,63,103,-227,75,101,-70,16,57,-86,-292,125,141,-230,-187,-341,-353,212,-220,45,-293,50,105,216,-157,-227,102,-171,237,-261,307,224,-128,345,337,-231,-266,-181,76,172,-67,-141,-110,-107,-295,57,211,15,108,-122,342,-126,269,212,287,-121,-253,-85,-130,-58,-55,-66,165,-207,188,55,-103,-198,89,-199,-62,106,-97,-196,-88,127,140,-211,82,163,191,0,-52,-262,-259,72,29,-12,49,-277,-194,100,-316,-89,221,-112,165,8,55,155,-271,219,-343,33,97,-346,74,-178,-244,-57,-149,150,143,225,295,317,-142,142,104,116,69,252,67,59,-38,18,-14,313,-28,49,-75,141,-32,329,298,-76,160,248,237,-213,150,137,-20,-58,-160,168,-226,147,-190,196,-88
-212,-263,-79,-195,35,-49,114,-166,-96,93,360,152,269,303,-152,-188,-157,147,-126,21,-13,103,132,-285,-190,-107,-99,184,-237,-208,-195,44,-148,-65,114,-21,124,70,-244,-137,34,-273,-212,210,132,0,221,194,-208,-299,-26,112,-30,165,-299,116,35,210,-27,188,-307,47,119,-53,-214,-97,44,38,215,-340,-25,-314,-276,-151,-207,178,-323,89,189,-231,175,-251,-157,48,-14,-69,-279,264,270,-135,-129,-114,80,128,11,173,50,155,289,101,-88,-45,59,205,-43,-191,-165,-147,313,-161,-151,-229,-221,-295,-318,-253,233,-232,-59,254,239,159,-183,-270,-122,305,-135,291,-213,-22,-175,-81,-185,-13,5,233,133,-9,-88,-228,223,50,-12,147,238,-53,242,-259,31,-85,-43,285,-112,-153,58,-132,-141,-186,197,-257,91,-8,-301,-123,-324,-245,71,-21,-332,-107,123,-105,-307,-326,-298,-50,-208,-51,-287,-243,19,-188,-293,-301,121,-38,115,-26,-378,53,-321,87
-76,-50,-314,63,-200,-135,99,26,43,-282,64,-307,-64,-263,-128,41,-233,-294,248,-47,-26,62,155,269,282,-234,32,157,218,183,-300,-131,83,-125,-135,-145,-317,-97,-135,-2,132,115,182,2,131,-71,85,-130,-119,-175,-135,-41,105,96,-137,-281,135,-240,-362,-42,258,-299,228,369,74,42,-9,-43,-241,-323,91,-213,247,-280,66,167,-267,-222,23,34,-160,38,-301,-176,50,263,22,-91,240,-350,354,86,-190,97,207,-197,80,-74,7,15,-205,57,-81,-274,-146,25,-194,-5,350,244,-52,-206,8,253,-203,52,-56,-287,125,-198,153,143,-58,-215,-270,-248,-344,216,-80,41,-137,-269,199,-122,17,19,-177,-262,116,166,-5,-186,220,158,-94,-159,-244,32,-7,54,-290,-130,197,-278,-190,152,185,-25,131,-219,-59,-225,-140,-199,80,-33,-352,113,-40,29,46,217,-291,-58,-2,42,-77,1,-137,-140,56,-124,-199,182,-178,13,-98,25,62,-292,-288,-34
28,-141,124,139,218,-50,-108,-74,-224,198,42,271,-205,85,0,-117,164,-11,-173,-234,167,-157,258,-329,166,-132,-57,143,187,99,-11,-192,262,-93,241,241,-67,-11,181,-131,-252,85,-124,-280,-93,-222,244,78,-300,-92,-205,-297,-46,48,-270,39,-73,-313,-200,-50,-278,94,-143,13,-249,-65,117,-3,-140,104,-234,241,17,109,249,-30,-97,-75,-204,98,61,71,220,-123,32,-101,251,-117,-1,-8,254,-214,-72,255,269,-32,40,-211,-71,-81,217,15,206,48,-55,136,0,-214,92,135,194,-171,-173,252,237,-54,-159,-138,200,331,124,347,235,-195,129,94,297,40,-182,21,171,-231,145,-27,-255,308,206,317,353,331,-99,-61,266,281,170,56,172,148,227,122,-6,119,141,113,264,64,-233,106,-199,-197,213,134,69,3,3,58,0,-26,12,-91,-207,-33,-190,306,149,-97,177,154,-84,158,119,-61,-188,115,134,-169,121,-205,-188,-71,256,2
-127,-205,-320,-46,-23,127,-91,210,108,142,59,66,111,-42,-132,-22,-319,8,-312,-293,145,-62,-109,-206,-170,-176,41,211,4,-129,158,-53,160,-239,-9,-16,72,-21,-94,-315,234,48,-76,-255,-213,163,-26,-267,-303,74,-217,21,90,122,-249,-235,87,-62,223,-354,63,-242,-223,-354,-328,68,54,-200,156,-123,46,-142,96,53,-90,222,-148,-68,136,-169,59,-23,240,-60,128,-190,-75,67,-115,263,177,92,-40,166,-107,173,220,-123,138,-207,128,191,262,16,-112,143,286,29,255,152,315,-29,315,-196,188,75,-191,290,-208,74,266,329,325,-6,-62,-186,299,239,181,-235,49,-187,-164,-283,-142,-79,-325,117,157,-108,-151,-186,-165,-107,-128,193,202,265,189,-71,-98,101,-163,-128,20,47,309,52,297,-229,-39,106,27,-162,109,181,164,176,-120,-57,35,66,170,140,-173,-170,115,390,240,82,-2,-142,17,-24,154,279,3,-38,295,-84,182,128
-160,-184,64,-99,24,62,89,235,-182,-227,119,-91,-85,156,119,170,-204,165,-118,73,37,-22,-103,-226,-128,172,-274,-110,-66,24,286,-185,-108,109,-38,56,-169,-193,-207,-3,105,-51,139,128,41,-67,114,155,-294,-222,233,-68,47,-43,0,-216,239,-302,153,207,-341,-155,43,-155,-256,-139,-6,93,12,-29,-145,-174,72,-251,-29,-44,-176,188,172,-5,-88,343,326,137,-102,-93,215,216,89,111,191,278,74,13,-175,51,-51,85,-191,-46,86,6,216,-147,-245,-58,200,-220,-171,208,317,-209,-12,307,108,59,-151,285,349,296,27,-89,59,-79,234,247,277,52,-52,18,-367,-242,-132,-95,-103,0,-6,169,239,268,-104,38,270,54,177,74,325,105,-113,-91,290,-219,53,80,124,-87,-28,-202,-232,-88,-123,159,153,340,349,90,236,-158,195,299,-217,-16,-166,112,109,358,85,-125,-62,1,91,-144,-208,-159,-22,-129,191,-216,-69,-45,259,-295
-153,5,167,167,-118,218,-329,-219,-135,72,-270,-87,-348,-207,7,-256,-317,-150,-132,-177,231,-225,135,187,247,-94,-180,255,85,153,141,42,86,-318,4,-340,-4,41,-182,-269,94,-173,-200,-103,-269,-136,-143,47,-141,-351,137,-31,-56,-93,-138,4,-327,-168,-123,-229,-153,-98,80,305,210,-334,-158,-63,27,-41,-285,90,155,206,218,-102,112,-329,138,31,54,278,-108,-86,219,91,-136,-134,83,-325,192,-166,187,-239,-178,-237,236,-153,-63,39,-187,-245,-154,123,-188,-147,94,90,209,-178,183,-33,55,53,16,108,3,-64,247,21,238,-287,139,-199,-228,-181,223,186,4,245,-159,-82,234,-250,141,-5,214,-24,-320,-155,-183,-2,-202,146,-252,81,-8,-345,131,-7,-4,9,-301,119,-73,-152,66,-333,-370,-275,115,-82,135,275,243,129,-77,-98,220,122,141,100,-82,147,-13,161,259,44,161,219,-98,149,210,-118,175,233,35,-20,89,-213,-95,31
-25,164,-10,52,218,-7,-75,-62,-6,30,-174,296,336,248,300,250,124,233,-225,-66,-24,-98,167,-139,-94,240,-193,-202,181,-77,66,-145,10,135,-85,58,130,183,-97,-96,69,163,205,-332,-214,-27,-103,199,-290,220,113,220,-163,145,-223,-334,262,-53,-260,84,117,-140,-291,10,-150,-46,-261,243,-30,-93,-134,109,130,177,256,298,252,311,273,156,12,-211,-80,65,277,237,99,-94,100,2,-21,-11,113,2,-25,240,158,282,108,184,-13,290,93,143,36,-62,-182,102,-187,129,314,-117,223,83,358,110,125,-153,191,4,-192,229,146,20,23,-77,318,196,-68,-87,89,113,151,0,55,-96,114,-268,124,-44,-132,115,-71,110,-155,-61,198,49,249,-47,-20,195,-67,-27,203,-207,309,333,178,-44,-218,-274,-63,110,-147,-30,239,-16,245,298,117,315,365,-57,-35,173,-67,350,-124,-183,-38,198,285,164,300,76,-3,-81,274,259,8,298
-55,-81,129,-287,30,-140,-83,-165,-46,179,-42,-153,37,201,-128,-51,-185,-82,-212,1,254,-121,-186,-132,112,-218,86,88,340,290,-190,-131,71,-258,169,-124,-19,16,-167,-248,83,-209,-136,-90,-266,207,-263,130,-227,-7,-32,-153,-167,-82,-109,-140,-260,-108,-291,-38,-92,-97,110,94,113,-139,-107,-223,39,-58,-39,-292,-1,210,-167,269,-224,-151,-173,-192,-72,-150,165,-81,172,-242,139,-196,-188,42,192,237,310,-131,275,82,362,-197,44,-66,-42,244,211,313,177,104,128,53,-4,237,-163,131,336,-176,-17,-71,-169,-33,180,274,215,-76,298,347,-191,254,-57,368,350,-96,77,70,324,172,254,335,-32,188,-114,20,-18,-7,-183,300,255,276,316,224,105,316,66,28,20,192,247,-196,-98,120,326,252,-197,-27,-170,205,-60,-128,-241,282,-48,237,277,105,-207,126,-18,231,-135,84,-171,0,285,123,303,-218,-43,-211,-260,-203,-199,-292,212,13
29,62,-141,-6,-32,-86,-220,52,-225,149,99,-107,157,205,230,199,290,296,-30,194,-111,-90,61,-349,-48,-38,81,-100,-147,58,35,-299,-74,-66,-126,-330,-278,-315,-243,-312,-69,52,-122,-7,-52,193,-315,-299,193,-338,139,208,-225,-67,49,-46,160,-253,186,-134,0,5,-19,-60,-254,201,186,289,66,-73,180,-179,-274,-54,-271,36,-201,83,-174,44,-266,82,303,78,-287,315,-76,156,-117,-134,182,68,-136,133,-270,230,-106,-29,-211,357,44,-115,-124,299,181,0,93,-126,-155,87,-3,-281,-329,50,-253,-188,-112,-173,-100,54,-338,83,-118,161,188,-223,-359,86,49,114,-50,-287,-20,255,-304,-89,-140,-153,-64,-354,23,95,4,-305,40,-284,-184,-337,70,-78,-309,-139,165,76,212,-95,39,-175,156,-164,-118,27,-1,-133,295,236,251,88,321,-44,-140,-161,-161,77,-73,124,-175,24,171,268,358,335,-38,158,-103,57,-110,343,-143,353,-111,223
110,-137,-55,-67,54,3,-195,43,65,246,-127,291,251,231,-134,-157,-192,-39,168,-70,58,222,197,-211,358,356,8,316,50,-64,25,-15,68,92,202,161,-356,-272,-175,-350,204,65,-95,-263,-327,167,-56,-100,33,4,-108,90,89,-101,-204,-87,15,-51,108,-218,-355,130,158,129,70,-22,-26,38,-96,-239,190,277,271,-5,-58,122,85,200,-18,-196,-143,123,-120,-31,-96,58,232,-188,260,-206,268,116,309,195,-64,85,-28,319,341,-23,-4,-182,261,65,248,-17,-117,80,-253,93,209,177,-53,-189,-291,-169,154,-215,30,-283,-167,-109,-283,-256,35,186,-96,-149,190,50,280,-142,60,64,82,-72,360,5,140,261,208,-17,172,360,-84,256,91,356,-206,98,-3,63,218,28,226,123,7,-179,279,60,57,-229,-212,-212,162,84,52,-75,-264,281,106,-139,124,-75,-69,92,-94,-70,60,-77,-133,50,67,-131,-175,170,-331,-319,-155,-238,-312,-281
-35,-177,-276,147,-224,61,-236,-322,62,-233,-1,55,-119,84,97,287,221,317,-122,-196,189,93,104,347,19,289,-10,-75,234,145,147,183,102,241,-121,-314,242,-208,-272,-275,92,-80,-130,-107,-142,-15,-181,179,-7,-307,83,-259,136,-7,-285,124,-75,-207,84,-178,261,-83,201,69,-222,28,-254,76,-238,139,-151,-224,-190,-101,-199,-237,-284,-383,-172,-25,-297,-62,5,-124,313,52,150,138,-148,245,33,206,197,-36,-186,-180,-86,-78,62,328,221,-76,-2,-146,56,-62,-8,18,3,32,-246,168,42,252,-231,171,67,-133,-300,-211,174,133,-256,91,-263,-51,-87,115,83,326,-189,303,-55,-6,29,90,246,62,140,-121,-147,242,-212,50,-215,-77,220,7,-142,21,140,94,-25,-109,306,-201,1,-250,-217,-290,85,109,116,-257,137,3,-105,-46,-364,-40,-136,-167,-349,-2,-99,-173,170,-280,45,-168,2,-4,-156,-394,105,48,-369,74,121,-158,-83,-230
221,70,-37,-65,-184,67,44,-250,-169,48,-4,-246,-344,-277,-132,59,17,5,97,-171,93,69,22,-329,-130,-345,68,-170,-265,-18,-208,-170,-178,27,-68,-36,-173,-235,-94,-157,37,170,-280,41,140,-244,-100,-289,6,-249,-111,-224,-177,105,212,132,125,26,-84,-334,76,-88,-79,-25,-54,81,22,25,61,-170,198,15,-198,-173,242,291,-16,70,-207,-119,-17,-207,-221,239,349,-311,-48,-14,-157,-302,1,-6,147,-113,-212,-63,167,238,34,-47,-153,259,153,-179,-300,-50,45,-290,-220,-176,-41,-214,-156,-216,-125,-275,138,83,-120,-202,221,-104,21,122,-162,192,-347,30,-168,-75,171,-184,153,218,-175,84,247,337,253,241,-179,328,347,340,-186,-101,-168,-57,-88,195,228,159,111,13,253,-114,339,261,1,290,247,43,-58,-53,273,-35,-39,-187,237,-17,-77,-43,-85,-259,-184,-12,-301,-26,-175,176,198,256,51,-82,279,-173,303,-113,309,144,-34,-75
298,267,-231,-286,144,-13,111,-283,-126,-41,246,74,34,-175,93,106,-62,152,-90,228,-215,36,-163,-188,-10,15,180,155,-178,148,183,195,91,-119,102,314,-200,-166,128,-97,285,46,195,192,97,104,-263,193,12,228,33,133,-236,98,153,-59,-169,-218,88,144,-206,206,-193,187,28,220,29,26,-58,-135,-268,223,-121,-11,206,147,126,-52,268,-93,-34,-14,-236,198,-207,-45,177,249,166,-6,30,-150,8,-174,-166,318,-81,232,135,115,-183,169,-80,-189,-73,125,-166,-129,15,-31,-20,96,-51,79,-201,-214,-93,221,59,315,82,32,175,112,-160,109,-164,16,-230,-169,-189,203,-322,-148,-197,58,84,-37,71,31,-200,102,58,201,121,-195,-31,78,-84,-99,172,86,-146,-213,129,-194,-103,-139,241,-219,-265,-51,144,-182,-174,-168,-223,-151,3,15,-310,-285,31,-203,-16,29,151,85,-135,-138,-162,-102,-360,12,-16,-373,134,-272,-119,-186,-239,100
31,-230,69,136,35,-209,-154,223,94,-253,-222,89,128,95,-41,-71,215,200,50,215,85,4,228,2,232,61,191,-191,-248,68,-57,9,-315,-268,211,-342,179,-284,-211,-34,-247,-194,96,187,215,-320,146,90,-190,28,-81,-214,2,-169,103,138,-262,156,-315,-79,116,28,91,-176,-73,-221,158,-203,215,-226,178,-150,-220,171,178,109,158,69,354,124,-201,-181,-116,290,271,7,-127,-58,283,237,99,-39,192,-184,-106,-114,-273,110,72,217,182,70,75,255,258,43,18,-201,297,-21,341,-226,244,-239,-44,119,239,155,160,-224,189,279,230,-74,184,-195,303,345,0,172,104,251,261,320,61,179,105,200,-117,-134,132,28,-79,249,318,11,-207,127,-22,-183,-61,295,232,108,116,226,72,196,67,-15,-350,128,184,-216,-132,315,216,-53,86,365,-27,-111,30,-186,-5,237,362,262,-183,-135,107,240,338,38,332,42,-184,281,352,-103,213,-142
-81,21,-28,181,221,-44,114,-97,-205,-152,-281,-302,-39,0,29,191,246,-106,300,259,-238,242,-127,-253,23,5,-277,13,184,224,9,-85,89,-287,-123,119,-282,-115,11,-240,-328,-201,-190,-318,-110,-126,-371,-30,-123,-134,-186,-115,-28,6,-154,-31,-281,45,-107,183,90,84,-199,-21,142,174,-144,199,-239,142,60,-15,71,265,-222,-62,-48,64,195,-184,-117,-288,-129,213,212,257,23,44,233,-232,69,198,-222,301,-27,-213,-145,-381,-281,-298,-174,112,-221,-161,182,103,126,-137,-236,38,-338,-160,106,-148,142,45,-300,-119,-218,-244,-130,-99,-165,-92,-227,169,112,-97,-27,-121,-98,86,-285,70,147,143,-293,-83,-269,237,-143,-93,-12,-6,54,-306,-308,-263,-15,-221,-268,-16,171,-104,-24,-61,-228,217,-191,85,200,-60,-225,238,-159,1,84,-78,-142,49,-171,-209,-263,75,178,148,-179,-166,-41,111,128,236,-36,-58,390,315,130,206,296,137,32,30
72,-286,252,-274,-107,19,104,-170,-81,-10,-97,-52,186,308,-208,300,191,259,45,335,220,-112,146,-29,-165,81,321,333,100,235,199,263,232,-165,18,204,-251,-114,-171,-75,-329,-344,-230,-135,-87,-319,54,-218,70,99,140,153,-228,222,211,-98,224,-44,-298,49,-137,-227,76,207,229,-175,100,-182,27,179,45,-89,-113,-269,179,114,119,-123,-46,190,125,24,-212,113,-256,-20,36,108,-340,-93,43,20,-181,-214,209,77,-76,192,-93,-254,-114,100,146,104,200,16,99,-124,197,-237,-142,20,-67,-127,62,77,-77,-316,-165,106,-165,-129,35,-147,209,85,-244,-67,152,-148,-281,-83,-120,-314,-196,76,-141,-4,156,-53,83,86,-16,-61,94,-290,-242,7,-140,-128,199,-34,-299,-250,192,-203,-155,92,-279,-307,148,-56,67,-150,-93,55,288,134,10,273,198,3,-249,135,194,41,-177,152,147,-42,-186,-250,-352,203,-247,149,129,-195,-70,-298,174,18
-259,76,-150,-136,-183,65,-215,-149,-25,35,-216,-22,-178,43,239,219,-256,-59,271,27,64,100,104,177,-211,81,-106,-260,-78,109,-87,-67,79,-287,166,-216,-337,-331,9,-302,-15,-160,234,-71,91,-287,228,228,115,66,-310,-69,-345,-112,94,-287,-15,-291,211,27,-193,-42,-326,-340,-231,93,-313,298,-122,-32,147,88,197,298,2,-164,346,-7,309,-27,277,-120,-13,-148,96,-114,-298,-360,124,-281,-125,-106,-362,239,-213,229,-265,199,324,185,307,156,208,185,146,-214,-74,66,55,-250,-278,-305,-168,-118,210,-200,-314,-177,-207,197,98,23,-94,118,-186,-235,-317,-259,-92,87,24,89,37,320,222,-139,218,-138,-52,275,-100,-179,-255,87,-73,-33,280,-233,-209,-86,-92,-120,-264,79,266,118,-148,24,-3,41,52,151,-228,-44,291,336,58,71,184,205,80,107,-110,-148,92,150,-178,-72,267,-19,21,-107,-135,-95,245,127,-98,368,-53,325,-157,353
-146,-16,-111,199,-40,-47,152,-55,-21,-139,-244,-220,212,122,44,205,228,-137,108,83,-11,-323,76,-328,40,123,96,-315,-358,200,-343,156,-158,-198,30,35,62,115,236,-254,-319,-231,-267,-170,-87,-228,139,-228,1,80,-39,-12,-330,-190,132,-220,254,46,-145,102,35,221,-226,4,218,112,-10,-188,167,161,-172,82,-113,258,98,122,9,273,225,228,274,237,209,-32,-245,193,-334,-109,-34,-101,-249,241,21,-264,-90,-67,-95,-213,126,149,33,-247,115,-329,-241,-41,-33,-328,38,-126,-322,-302,146,123,-242,-252,-38,86,-67,97,-120,-74,-198,-199,145,49,18,216,-69,-260,-23,12,-157,-163,-105,177,235,-180,-109,-289,-31,-239,-128,50,197,-230,-121,208,-24,-211,210,-171,235,171,-158,154,213,187,65,117,-74,321,-116,102,-48,272,7,198,-186,-67,-192,-29,293,-14,235,156,279,265,3,-229,125,79,-30,-117,-55,-198,74,215,-143,-150,335,275
0,180,127,162,121,255,217,355,218,-240,79,228,140,57,-128,-236,171,-20,210,-180,178,-111,271,42,79,-218,-136,-159,-105,-202,119,-31,-182,93,9,203,89,-206,162,-287,90,-242,-276,-366,-329,-15,-143,-138,-96,-158,-351,-290,207,103,-27,-206,167,174,60,182,-233,-184,46,-360,-18,-46,-136,20,-180,-162,-344,108,-155,-207,2,30,-54,-45,29,-286,-246,246,254,-51,-49,140,181,-231,-201,94,-194,239,-162,-1,54,-113,-129,-202,-229,135,239,-213,-23,-157,-79,-294,-3,23,-5,-32,-42,-253,37,-4,-337,16,216,213,231,204,-207,-298,132,-41,-312,-5,110,112,370,321,217,-193,97,-18,189,-247,148,-317,47,-194,-132,253,-145,-46,-113,-77,232,0,-107,-46,45,-123,136,-94,-145,77,266,-103,-166,-67,135,92,-63,-356,-28,46,-219,45,-247,-202,-356,-123,-157,-290,142,-272,-299,-6,-320,-189,-152,48,-8,-228,-351,-140,-328,40,36,-138,-283,-314
108,115,-215,190,25,-198,-153,89,148,104,122,-131,-259,127,118,-118,89,153,268,202,56,288,113,181,98,89,204,-352,-309,92,-155,-290,-343,-42,-198,219,-145,-133,-195,8,160,-93,-111,-195,222,-95,-175,-65,-302,-357,217,181,-284,33,-357,121,-176,145,-193,-165,-152,-244,-297,104,94,-142,-353,-243,112,189,150,-140,-306,144,-146,-94,221,-160,-81,-50,-29,-238,-177,209,-88,161,118,148,130,-16,-249,-118,71,229,205,-38,-152,234,-205,174,264,-89,-171,206,-149,-112,145,0,-104,293,-49,66,240,-176,46,146,111,60,276,-205,61,285,307,-57,-75,21,115,145,191,157,194,-174,326,-72,-155,93,41,-66,121,283,330,222,180,-164,197,217,-17,-18,126,-208,80,53,-160,-256,47,160,-83,206,77,105,-152,67,15,192,-11,-74,-59,42,266,-22,-169,-199,144,13,137,213,331,277,-154,22,122,225,-10,-179,59,319,38,159,313,375,243,319
115,-268,-49,-68,-113,-28,13,-241,101,222,-8,24,-13,-19,-264,-132,-49,211,-375,128,-68,41,52,-268,-115,-231,12,192,-155,97,-183,48,-147,-226,-89,184,-332,-324,-102,76,-262,-28,-36,-294,-32,-271,-37,-229,-327,-56,-28,-12,-125,118,6,-66,46,-306,-328,-299,-4,47,106,42,-113,252,298,-199,-311,-168,194,-187,249,-231,190,-17,-324,-313,70,-128,-259,-153,170,223,154,-207,-135,107,104,75,-111,157,267,-104,271,217,95,-336,-283,-196,228,-156,-264,-254,-232,-358,-329,53,191,-293,-336,112,-138,-164,25,211,52,211,-28,-149,-217,214,-270,275,-247,-192,-234,241,217,-233,204,-67,-38,176,-343,-226,-96,94,-85,54,-274,4,228,-341,14,-218,-56,39,141,-68,-112,-164,45,175,278,98,113,-219,-358,-140,-106,99,-129,217,8,-144,-206,50,94,168,45,28,-36,167,233,-216,344,160,267,244,107,248,158,-137,274,148,-176,-182,244,231,-120,-224
-176,2,206,-83,139,172,230,-17,-112,292,48,-35,134,-42,148,-3,-261,-164,31,101,196,110,171,-31,221,-155,166,-21,-225,11,183,-184,183,178,208,-276,60,-253,254,-3,-45,-182,17,1,199,-41,-234,-94,36,167,-21,-320,-204,34,-139,-83,-44,-52,220,-289,92,289,-351,-103,-75,122,214,148,254,304,-164,170,174,-113,37,98,-10,156,276,47,188,261,270,-172,-223,44,305,325,224,95,-200,-116,-122,199,-194,-105,44,-160,236,32,-119,-30,-220,-216,69,323,216,57,312,43,333,-165,-203,277,-58,75,-155,220,39,157,-12,146,4,-57,244,-57,257,211,-202,-195,-371,-77,149,81,195,156,248,210,321,-212,-167,76,-111,-72,163,-72,-204,134,-214,-199,224,130,-214,120,82,156,318,206,-279,273,47,94,300,-119,-161,114,165,48,-172,-43,151,-193,131,388,90,29,252,-56,230,37,166,-62,119,362,-224,-134,118,14,256,-103,-28,-175
-28,-246,-26,108,105,161,-134,26,208,160,-138,-165,76,171,-292,-201,259,46,-94,168,-135,-137,-112,-33,-25,293,-135,-209,-150,300,-53,218,-45,86,9,-238,191,-207,-28,-3,-171,-234,-201,-88,-134,-279,159,222,-102,79,-112,-115,-354,225,-359,-177,-297,129,32,-184,-263,242,-207,-242,52,-3,123,-160,35,325,25,-2,178,-44,188,-58,-161,-145,360,217,-86,155,-72,253,194,233,36,-173,-64,176,-217,221,330,73,126,-218,184,289,124,95,147,254,88,143,315,-233,106,226,200,-204,81,277,-44,213,-62,212,183,204,59,65,233,133,-122,189,261,103,-10,43,347,277,67,10,-135,2,136,187,364,-53,-15,209,-20,5,-164,-90,-69,193,-2,-215,-7,-14,271,-157,277,-224,-6,-52,14,-70,-4,131,-127,107,100,313,-59,278,300,371,18,-58,106,-99,23,-54,-31,350,50,-57,85,337,275,26,94,-149,-125,-78,341,16,193,-196,58,183
-144,299,-45,-196,-22,70,-75,37,60,134,70,180,114,219,10,116,123,-213,59,84,-192,281,267,121,173,83,223,290,204,112,119,-64,3,-3,149,5,171,-217,-268,-179,87,-37,-10,-109,-165,60,39,-87,266,303,-140,309,-94,42,-11,113,293,221,-212,163,220,113,-178,-16,-264,217,24,-83,-316,-10,192,102,-124,-321,-307,176,-294,0,-322,-58,-83,-172,213,-18,-13,-134,177,-201,240,89,331,-145,-165,-110,-197,341,-17,-74,1,-140,313,-71,-220,-263,224,-157,38,50,-271,-68,-34,-131,-228,-10,-50,-173,105,115,97,163,97,-19,-60,-78,-68,-79,-81,107,-171,-3,117,93,-18,-151,-5,226,-68,137,35,40,-82,118,-1,-41,-44,-135,46,227,68,182,-188,-199,62,233,213,-97,9,123,-229,-296,-172,185,-153,53,-236,-99,-11,-90,-119,24,193,-16,92,-245,-337,-102,-70,-61,-267,-274,-97,-53,-383,-72,113,133,-106,-27,-36,-399,-258,72
-42,-96,88,4,-7,-161,-35,-169,-141,-90,-136,309,-158,-231,280,-151,168,-240,319,-240,113,268,279,126,-11,-41,219,309,231,-184,-113,38,220,142,161,-125,-5,52,118,-169,93,-87,-281,48,-34,-29,-35,-4,-123,222,253,-283,128,280,67,122,-53,16,203,-75,-130,-129,-291,108,69,279,139,-246,-69,-261,151,-278,113,117,105,109,-200,-71,73,-88,266,55,122,-119,146,16,-106,-141,241,-136,160,259,-52,-62,-1,-81,-72,-34,-18,221,-45,-3,2,69,127,9,-94,252,267,-20,-206,-107,35,63,107,40,316,-194,330,354,-65,168,13,-135,283,283,-126,-85,-169,42,-96,-81,-204,37,310,-195,-89,188,-196,-101,236,-229,295,226,306,-217,-26,92,-158,177,-89,-126,151,154,-132,34,226,-194,-70,-148,-109,186,-57,-196,-39,-229,12,-168,-315,-261,98,-138,-81,-12,171,-374,-129,-48,71,-305,-156,95,-52,-213,-235,121,-130,-240,-367,-7,-182,-293
-183,144,108,149,-213,84,-99,-227,-85,-197,-90,18,-40,-292,24,-2,44,261,-249,-35,71,-95,211,150,352,234,33,68,-10,252,154,-218,-113,-181,-232,69,-134,70,-198,-124,-188,160,-119,-193,0,-106,-101,24,-55,-182,-309,37,70,-14,-187,-180,-134,-43,-240,-188,107,155,-254,-90,230,-73,246,-267,-113,160,-105,-81,-276,97,301,265,-148,109,63,262,144,-238,184,218,-248,267,0,167,-63,-120,-76,59,-130,28,-163,70,118,-183,-7,82,68,222,-266,-37,-138,248,195,-214,53,249,380,140,172,-80,296,-52,-116,-126,-278,-134,171,-18,-210,-228,-340,86,-306,-208,-24,225,226,-299,26,-345,-347,-284,-365,-298,96,-313,205,-181,-133,-358,114,17,123,-61,101,116,-35,-215,-80,-231,-64,-148,88,-22,-320,92,4,9,256,59,-112,20,-198,11,175,-214,-192,-17,280,-13,-130,-133,224,210,263,61,363,-3,-158,373,-57,50,75,129,-9,160,-85,272
327,291,255,212,-71,145,-185,-260,-281,-326,-18,107,-43,-73,249,-143,-129,65,9,38,212,64,-182,19,329,-157,-209,-94,-237,70,39,-62,144,-292,9,-12,-100,102,-267,-203,-74,-172,-11,21,32,-360,86,-79,-210,-250,56,-167,120,-278,-34,-167,21,-240,-257,128,-58,6,207,-211,111,-186,30,-175,32,-194,94,141,147,114,-93,-130,115,124,-232,-188,-268,-265,-266,180,256,120,-12,-239,-259,110,308,73,306,-86,374,200,-151,180,-72,339,272,297,268,21,40,-282,0,106,-94,210,92,-339,168,84,181,-72,33,-339,132,-263,-13,-184,199,234,-44,-174,-213,113,60,200,293,378,177,-192,-24,395,191,109,105,-98,199,64,-127,-117,337,364,-116,313,237,-116,41,160,-156,311,360,314,339,-46,-57,-203,169,263,-63,2,-75,231,-222,105,243,-75,-234,-232,-202,186,-301,-61,-186,127,-195,-168,142,-205,-237,136,-362,-186,-11,132,22,-227,188,4
227,-159,182,-239,-255,141,-12,-10,19,-231,199,-97,-216,156,-143,97,64,217,62,-120,105,-273,168,185,-42,180,138,124,-240,279,-265,13,167,31,103,192,-112,162,-174,-13,186,291,-212,81,197,216,-112,241,-8,55,257,-254,38,-270,-71,124,-193,176,70,-224,104,-179,-13,205,62,-99,120,256,294,-157,218,256,-241,-149,109,-44,-37,219,-109,222,-264,-10,-196,82,165,152,137,146,-267,-301,236,221,-248,165,-275,-128,-323,256,180,95,127,120,22,62,150,-156,-222,-236,-101,-325,-70,129,68,63,-278,186,27,53,258,-156,125,-212,144,193,228,-269,-52,164,-202,-117,32,383,334,-216,-55,133,-152,-145,329,293,111,136,233,40,-12,-100,45,-133,158,327,134,-245,-121,32,118,-137,-67,-77,-155,309,-31,-165,284,160,83,-137,59,9,180,135,115,63,-16,-23,-200,-149,-200,202,-30,-141,0,29,229,231,-28,-38,56,-208,177,193,-268,190
369,-61,185,222,-18,-135,-194,-174,-18,-228,-269,16,-47,-362,155,200,146,187,-354,-118,202,164,-90,92,128,-77,-135,-175,206,257,-143,261,126,-157,-99,100,53,-345,-137,197,-193,-55,-1,156,-97,33,-4,149,-96,-241,33,-139,185,-133,-123,-58,-321,-273,-258,223,-175,-307,-205,-64,215,181,-141,-161,185,103,242,349,-57,-259,259,182,156,233,-45,195,97,54,80,-142,-107,-36,-80,-22,-251,-175,114,228,256,0,-114,-196,-231,336,-100,-153,-59,-136,274,-236,-110,123,-46,-286,220,198,-156,-210,-82,-82,-2,-209,24,-131,-273,8,-93,-176,264,112,179,14,-190,-208,356,-64,-144,225,142,375,-66,95,281,332,178,201,-146,347,298,46,376,228,-23,148,47,15,340,-151,173,14,378,-49,-91,27,253,79,54,117,-130,30,-239,275,-79,159,-115,321,-93,81,105,-225,-26,-55,-183,-188,-232,-52,-221,-104,-216,-54,182,-90,89,73,92,-125,328,-93
-372,62,25,4,-233,-229,-274,-177,92,207,174,180,-61,352,106,343,336,384,168,-66,-134,-235,-218,234,124,-62,-218,264,-89,190,-19,193,-320,-215,-149,-228,69,88,137,168,-87,157,-211,-12,-66,118,-305,-51,-333,-52,101,-208,101,55,-186,-109,142,-299,-201,-129,-131,-172,-157,-177,-105,-258,-216,-326,59,-28,-159,-103,-111,-264,-119,133,294,153,-93,-28,301,-47,-14,222,-28,345,-48,366,147,345,213,-229,-93,-164,-50,-289,199,60,350,-143,-145,166,-207,363,-2,-205,-83,269,71,-119,-228,48,269,-226,273,181,-87,285,120,164,-3,130,209,-48,148,-23,255,-60,255,200,186,87,-86,22,-219,144,-204,127,132,164,-226,209,-152,-66,-108,-240,-79,212,217,-155,-92,-264,10,10,114,107,-145,108,119,-165,-207,-296,-153,-271,146,81,98,74,-40,-167,266,349,143,-30,-60,222,166,-45,145,-25,93,82,-24,-177,280,346,-11,161,48,124,75,234
109,-142,99,-153,147,72,42,248,181,-53,243,-4,379,194,252,252,-158,45,269,381,57,338,166,27,190,-4,314,132,-156,261,286,-236,-28,211,-148,-144,-276,-118,-278,-271,-272,39,-55,123,93,28,-249,-262,-100,-77,7,274,69,6,-175,-101,211,5,81,73,97,-277,-304,-196,-230,-174,-107,-28,49,-202,159,-143,-128,-338,182,210,89,-91,-210,-324,21,-79,102,-304,100,-87,-115,194,-176,-83,71,131,-26,35,-46,29,95,-53,-152,248,33,-73,-121,-144,17,16,-222,64,-246,266,-281,-61,-58,-273,-258,-296,-287,-48,-197,-109,-22,-3,-231,18,-111,-268,-261,-340,-135,-297,196,-285,176,-19,48,-140,-84,0,206,-59,-87,13,-237,-37,134,-94,-52,112,164,-56,104,-313,-119,-15,189,-288,-339,9,11,-94,306,113,-108,-244,-107,185,0,-14,-346,-35,168,171,-125,86,225,234,-217,-312,0,-324,-137,14,180,-72,-74,-375,-36,123,-147,-318,-34,-75
122,-193,-7,185,18,-81,-32,-109,55,-302,-65,-150,77,-322,-272,26,147,-12,-247,-301,102,-349,197,-340,122,-148,181,-107,61,-165,-28,-36,-147,187,46,-280,-243,-260,-343,-14,-231,-10,-226,190,85,-327,-111,-120,175,106,177,-336,-28,139,-271,157,250,182,-286,0,16,-50,-239,195,-59,170,84,133,199,113,71,352,171,14,-125,-39,220,258,-91,-81,24,-113,302,78,-148,-66,249,-341,-132,205,-155,-188,-41,-115,-264,-166,96,154,149,-116,246,27,258,-146,170,61,142,-224,-372,-319,211,-59,-232,-247,163,146,-40,-25,-347,-346,-244,-244,226,-218,-47,179,-327,-265,-220,-105,129,309,164,59,338,231,141,104,38,-72,-67,336,316,-100,-114,225,-82,187,35,201,-78,226,-193,304,78,250,214,-200,298,185,97,-165,314,297,-95,89,167,26,142,135,-296,-288,-229,50,108,-264,-171,-60,-164,64,161,113,174,-27,-261,178,-244,-364,-26,-215,151,-113
-102,-17,-19,310,-85,142,-180,-49,-64,178,44,-92,-28,136,-243,53,187,-278,84,-155,-197,255,-21,29,-222,217,-163,116,-205,272,-104,-172,-346,-21,11,-143,149,156,205,-153,73,-361,104,-346,-30,-169,-31,177,-337,-336,-176,-296,157,-276,-63,-352,49,-351,-7,66,3,122,111,-269,163,-175,17,-178,90,171,72,340,-165,198,-92,-58,47,21,120,39,-10,-9,347,8,-97,-28,240,-206,131,8,216,51,14,290,-195,176,212,117,62,200,343,168,312,276,192,192,-170,-81,88,-212,-205,223,-30,81,-104,110,-156,-183,75,-157,236,281,-106,269,-219,332,322,-194,-5,27,64,241,-54,176,108,71,217,-203,274,-41,-22,211,105,179,110,184,280,36,-103,10,309,184,125,140,108,-208,120,222,-4,12,47,73,-9,139,225,24,161,52,-54,-108,-20,156,58,-56,56,360,121,380,296,200,-172,101,271,-18,219,-167,34,292,83,66,69,-190
-240,-221,92,205,126,1,-111,-147,147,84,-98,-257,312,98,-242,-20,81,208,-146,58,126,229,84,-225,-235,20,-197,-203,129,-311,7,-157,-319,-218,-302,-201,104,-151,146,-302,187,-198,-314,10,138,-158,-258,-241,129,97,-160,-101,-12,-151,-108,11,-215,172,242,-261,150,210,-307,68,-145,80,70,60,-193,43,221,83,-162,67,110,-219,98,170,-234,85,34,57,226,-296,-313,9,87,-72,307,-114,1,-139,-150,114,165,-78,-142,50,-210,28,229,250,-285,170,-11,-13,185,-128,259,228,39,2,191,-330,167,-238,36,-4,-91,-154,-76,93,-284,63,37,-290,-226,-157,-241,197,-67,223,-344,-114,-128,87,-18,-221,189,-33,-368,-246,37,191,-217,28,-256,30,203,-192,-284,-82,-182,-158,78,256,-143,-262,-297,-33,321,206,104,149,21,267,349,182,239,60,139,128,8,-115,-232,-10,-180,-32,268,297,-199,190,163,-320,134,284,42,-199,-13,73,74,262
-320,-253,114,185,225,-130,313,104,225,-172,227,154,167,-42,52,116,-219,214,-165,225,306,-60,113,301,20,251,-121,5,63,253,-41,101,43,14,212,-176,-259,-111,99,58,-68,-264,-194,-186,220,247,13,-114,22,67,73,-252,-106,-14,-174,-31,-268,-233,37,-325,155,-11,-299,223,-85,0,-155,-239,139,160,-237,-55,-72,158,-313,35,-341,181,-179,120,126,79,-20,-102,10,161,-228,-248,164,-197,-182,-134,-183,-152,169,75,-162,14,-178,29,-80,-31,-258,168,232,-126,204,-15,-98,-180,59,374,84,29,212,325,71,-44,316,-181,105,-116,3,-29,-49,-140,130,94,-117,-80,276,-124,167,-125,-24,-333,-96,-148,-82,211,155,121,28,84,-61,172,-289,200,224,223,-60,-12,-20,143,-90,-10,2,172,-265,-106,160,102,-353,116,-58,-301,12,-82,-305,-282,-344,-326,58,-167,78,-147,-139,-173,-282,-154,16,25,-76,-68,-122,162,-293,-204,-113,67,-173,-146
-279,-232,195,318,-31,-32,200,60,-55,-140,59,150,-206,-92,162,-245,-230,9,-10,280,43,-22,-120,-93,283,49,-33,-259,-12,257,-192,-264,145,-278,-203,-173,14,-64,-258,173,149,-204,-217,235,83,228,210,-238,-116,-47,47,-66,-208,-118,11,-209,197,90,-218,134,233,272,97,210,-269,-345,58,-115,256,-118,-84,-196,298,179,-20,227,233,-329,-3,55,-37,-189,271,-107,-172,-113,-109,-194,243,97,-242,-340,-48,-32,238,191,-264,-136,189,-237,-328,-75,-21,102,-87,-106,-37,314,-126,140,101,-62,-45,98,-101,-329,-95,-125,-234,-86,-100,-135,-63,-128,-258,233,226,-40,-243,-171,-92,-235,0,165,79,-162,-166,-260,106,-18,-65,100,-194,132,-26,36,-13,-137,-133,59,82,-241,0,160,-9,136,-205,-178,188,178,30,109,61,-222,-221,86,135,-185,-167,288,323,-213,241,13,258,236,326,-43,220,52,125,-117,25,18,-20,-74,41,212,-125,-164,171,-199
-164,-61,-265,-169,-277,136,-295,-44,-224,291,141,225,237,150,94,-12,-133,-47,25,-265,76,-146,229,119,292,243,-195,-228,64,122,-135,260,-90,139,-118,261,177,-234,116,165,68,-223,8,129,122,-183,-96,102,-73,-77,218,234,-45,283,166,-109,91,-154,98,169,146,254,127,-69,-298,6,-189,-305,-75,-296,92,55,69,8,189,77,-235,-235,177,192,82,23,-54,133,295,65,-111,-44,-95,370,89,-237,296,247,197,172,217,-162,-79,-73,-18,-152,-195,-151,-21,29,173,224,-185,239,213,-197,79,83,219,18,-52,96,372,135,126,-110,73,-213,63,-149,203,312,225,-206,54,45,-37,-82,-328,-175,44,157,-21,-176,283,180,213,-83,-277,122,-189,221,253,6,-39,-13,-93,0,-8,38,93,28,-119,28,120,-124,57,-20,33,-149,-135,33,126,216,100,246,217,39,389,172,352,-84,-92,118,101,389,-112,239,-95,138,-87,-79,223,223,359,143
178,69,87,-215,162,-276,198,3,-285,-243,-181,53,-237,56,-313,-286,185,-344,-84,-173,68,-214,144,-123,54,142,-58,-303,226,-112,-286,120,69,-43,187,-97,121,-36,-271,92,203,-28,40,-174,-43,90,-275,132,151,-270,-100,-166,70,-175,90,-163,237,-210,121,-110,204,-243,87,-71,230,-117,178,-62,90,201,16,-63,-107,-77,154,64,82,203,-349,186,189,-164,-3,231,-301,-131,128,-221,58,-273,-146,4,-219,-106,-33,190,-42,-51,177,109,-307,-282,-128,76,68,146,-139,-46,-82,-104,150,254,-291,-49,-4,-29,154,-124,-201,-103,169,9,196,-263,157,-118,-97,56,111,156,-45,207,185,85,12,130,302,-190,198,-54,118,252,-206,205,-74,171,250,-84,50,-39,-156,4,-285,27,251,107,147,97,232,-294,-291,17,-162,143,73,51,176,181,-236,57,-316,-105,55,-209,-55,-308,133,-204,-184,-333,125,-253,38,64,-123,108,140,209,-219,-18,-26,148
-45,76,69,129,-156,-93,-185,-176,79,-253,255,-204,217,-122,59,107,-201,-176,-157,-157,25,41,275,-105,5,40,172,-128,182,-161,139,72,-5,108,-135,-68,-203,-5,-88,79,-139,-244,-11,138,189,-130,122,-226,218,-114,174,-41,-103,-8,-232,272,137,-152,88,142,149,-46,-237,118,213,-148,14,241,-144,351,-112,-280,48,236,-35,5,322,-245,-210,20,-109,-177,-152,-202,-305,139,242,-52,-120,-49,58,-176,25,275,-35,262,189,-207,-95,11,-224,99,24,320,-61,135,-125,242,-151,-107,96,30,76,164,43,-160,-207,-40,48,-22,-194,163,255,113,-199,-75,117,40,-108,-250,-22,47,106,-72,209,312,347,346,64,249,207,216,227,-81,128,-70,74,-206,-173,292,176,-27,117,-43,-133,103,25,-148,157,-145,-159,-265,-267,259,-48,174,218,94,-280,-133,-221,-107,80,216,183,37,-260,102,-167,-18,-308,-92,-119,91,137,135,-261,78,-290,-181,-240,-221
22,-167,6,-72,-285,51,127,41,-214,222,-298,72,296,9,200,305,-41,278,254,-238,-73,287,-191,-129,-257,-32,-67,-286,84,141,61,-130,-343,71,22,-223,-180,-84,-39,87,-247,-282,126,235,12,-129,-22,-137,-257,56,-118,165,14,69,-75,-31,-193,160,-128,-318,-46,173,73,-169,-193,-190,72,-195,110,133,249,92,-24,285,-121,-200,26,237,-217,-104,-108,73,103,340,230,168,-239,-154,83,-233,-83,-259,-200,9,209,218,-266,127,139,-102,-263,-36,106,-64,202,-197,212,-221,-144,-167,-97,-174,197,-2,-115,-336,-223,-329,-101,-231,-175,167,-42,9,-263,-300,-228,191,31,-73,-163,79,28,19,-230,84,46,-219,-96,184,39,-50,102,-316,-162,-91,-355,-42,-348,-45,-231,-132,-265,187,-127,-348,-135,-160,-51,-200,11,142,19,258,-3,141,-73,-171,249,81,209,344,-192,143,258,340,-167,23,282,110,-60,-199,-182,-30,172,-109,23,321,-83,132,191,-75
-141,158,146,25,-171,-4,210,81,-40,-146,-236,50,29,333,-59,172,306,246,-20,249,158,120,-209,-85,-158,-41,99,125,-162,214,-180,304,17,-139,211,220,-83,-219,223,192,-250,-225,-18,-112,-360,-146,-359,-136,177,-297,-8,74,-138,16,-363,-49,-30,-107,-186,-157,44,31,-18,148,-92,-4,-86,-230,90,-248,-243,-46,27,95,-294,214,-128,110,85,334,-79,201,-58,58,235,79,175,159,-177,81,79,-259,324,167,90,191,165,122,47,313,-139,182,336,168,129,-141,-17,227,89,-160,-88,76,-22,-182,126,-37,-172,329,106,315,270,155,195,-136,-144,78,312,-171,62,342,292,268,244,-40,252,60,271,-94,-193,-46,201,57,19,-187,-195,180,-69,235,320,-199,202,315,25,-89,1,115,339,21,-108,-73,183,-118,-174,-111,-157,-269,82,-4,-135,-4,-140,-45,-132,-253,-296,44,105,-141,-301,10,111,-178,-76,-319,-5,215,67,-231,11,-126,-37,-6
2,-129,-306,51,107,38,146,-247,-244,114,-152,99,269,-9,351,344,-160,299,302,287,-7,204,43,-211,-195,98,-283,194,-169,-87,-122,-88,-62,-183,-21,98,-217,-151,66,-99,-309,181,83,43,-295,-248,232,-111,-88,-344,121,209,-8,-4,149,229,-243,-153,-134,-265,-170,104,-308,-193,-266,102,114,172,-267,157,-170,-267,112,-122,-131,-185,-152,244,349,301,206,208,54,137,-222,230,-109,-36,-144,211,208,42,166,324,-95,-158,134,96,-209,346,55,-195,-101,7,15,-157,99,198,-8,98,241,-80,240,341,-174,230,104,-186,-155,317,-93,316,271,330,-176,354,-136,369,-139,227,-60,214,-201,-92,16,174,-17,151,-230,111,-3,-194,55,-48,262,-171,-242,-141,-244,245,-156,-150,99,-23,171,104,154,96,184,-9,177,-41,-221,35,359,107,268,-18,-199,283,354,180,-9,144,-188,69,258,-131,-124,193,-183,372,375,296,-144,201,-8,194,232,-184,267,30
-306,-128,-262,223,-111,-184,4,-28,-192,-316,-303,225,-138,-256,-141,44,-333,274,341,49,-202,34,378,376,376,216,213,-86,-43,145,299,70,-197,-142,-261,-108,42,-255,-178,213,-127,248,53,70,249,187,-130,-135,-285,114,-278,134,120,-117,66,223,121,182,-109,-287,201,160,77,106,251,59,236,-329,63,104,-174,-194,41,136,133,-121,160,-342,-310,-99,103,151,-322,-204,-179,-258,-31,-14,-46,107,27,113,66,202,-219,174,-126,62,-21,148,18,260,90,-169,205,2,-282,-22,167,9,52,227,-247,-311,238,240,-105,188,-256,-92,-170,5,-233,6,227,-239,-160,-180,197,-164,199,155,-321,-127,-256,132,-178,-160,-335,-187,-32,141,75,102,177,-151,82,-243,186,-274,114,-82,-303,-47,40,222,-115,-124,-356,-158,246,35,212,-15,293,97,102,178,-55,54,-68,253,-36,-85,-161,136,8,-262,-191,-51,107,18,-134,23,-153,-3,-173,-215,-359,-94,210,-44
136,126,7,-62,-149,274,322,152,-16,-182,183,87,302,270,133,189,-62,94,-132,22,-142,12,263,-226,-47,202,160,-71,-217,121,135,-172,-256,179,-194,122,241,59,-164,121,-35,172,243,283,299,-63,-169,236,66,267,-132,267,-285,120,252,39,-240,244,110,271,-142,-210,177,53,-174,23,-128,-69,-116,-128,241,-83,57,-193,-148,163,-180,72,134,-116,-67,138,-225,18,230,299,-48,-80,-199,85,-32,-320,163,22,84,-147,-119,68,-241,3,10,-81,61,76,-99,-38,346,321,-209,-35,220,259,273,66,126,181,92,-75,173,-28,83,344,-160,159,246,246,-28,-145,125,-68,28,-181,-262,-349,-228,215,-185,27,-35,84,-96,196,140,294,111,180,57,299,91,-242,-119,-23,162,-243,-139,58,-89,28,-132,36,-201,192,-161,72,-150,199,149,367,-128,1,157,-27,-115,-167,-162,-133,-117,67,110,209,-55,283,24,355,-135,49,-57,-177,-212,213,-127,306
64,61,-76,-122,107,117,331,79,340,279,-175,65,150,60,317,-40,257,196,249,-96,-37,-43,-119,369,-160,138,36,96,94,253,224,-87,212,-142,124,-175,132,-235,147,-185,-179,-63,-81,238,-118,137,174,235,-55,266,-164,0,16,100,68,-212,51,-33,7,-39,-116,162,-22,108,-270,72,141,-214,-182,4,141,-215,59,156,222,-330,127,109,17,-12,147,244,-265,264,-102,-200,163,199,243,230,127,46,115,-60,210,-130,-230,153,-138,-275,141,-77,-91,20,226,-180,75,251,-50,-233,-234,73,195,290,-9,-227,297,-34,0,130,-135,95,-233,-158,-146,-145,212,-184,-129,-129,141,-100,-246,154,38,75,250,-100,180,-47,-211,293,30,204,-280,6,267,65,-101,-274,-189,-325,-106,-268,113,151,189,-180,-307,220,167,-97,-19,-119,-257,74,179,-260,114,-145,-240,-326,23,-242,28,-231,-243,204,69,-134,-359,27,-31,186,76,-120,7,-362,203,-177,-94,-240
-23,-112,262,56,244,206,-52,254,132,134,-94,-303,225,251,-111,-339,-274,-65,200,-29,30,262,249,-97,71,155,138,78,-369,90,-156,158,-203,-269,-219,19,-224,79,-332,-251,-87,-113,-117,18,-99,190,9,232,-85,-327,-57,-52,-174,-4,-73,135,113,-83,-265,20,-174,-179,27,108,-252,-297,-292,228,232,120,-50,-125,204,333,129,54,-294,246,-251,-96,-174,-37,-94,166,-4,224,-241,-27,-211,-199,-124,-255,102,155,161,189,-271,152,28,-103,19,205,237,114,70,48,-158,-261,94,58,167,-165,80,-74,90,116,175,-165,-210,-341,-44,-244,93,15,226,-326,-271,-211,-204,42,49,243,198,28,-64,-250,40,-121,-258,47,176,37,-258,55,-37,158,213,269,-161,58,-7,263,43,-238,-56,-142,-130,170,-28,222,4,-49,116,311,2,-56,-48,194,151,-180,311,-12,-152,61,238,-222,84,-127,96,219,-110,-10,296,-195,-86,60,113,-66,261,182,-164,44
101,-219,-103,-366,-117,-203,238,-302,-290,171,311,-55,31,-91,43,-312,205,211,-110,-133,172,8,-9,-177,197,-147,-254,30,-219,-104,-281,156,-9,-240,227,-157,-128,-330,-55,-107,-24,115,-238,85,191,-298,139,-310,86,210,-154,-103,111,204,120,198,200,-347,-128,137,154,-79,173,-290,119,-25,-187,79,252,235,176,-20,269,54,51,46,107,-299,101,202,-168,-165,64,-96,312,296,239,10,70,-124,214,-31,-68,-211,274,-284,-110,-212,10,-171,-158,243,190,-17,177,-197,33,-248,276,258,-289,-140,-258,-85,104,-250,-167,-269,-221,-11,181,120,90,138,-174,-313,71,-238,61,117,237,-95,-249,97,-6,141,-136,-231,100,-137,106,45,-71,-368,163,-284,-157,-295,-258,183,-1,-64,241,-60,208,305,58,31,-288,-52,-208,-215,-61,-271,-216,283,-155,-253,-214,190,19,266,251,235,157,-125,-40,89,241,131,-125,124,84,327,-215,242,54,303,-156,152,242,-2
-291,-158,-317,179,43,-110,133,-295,-180,-110,-5,-98,-147,328,57,93,176,-190,-165,-139,-329,-309,-84,-98,-191,-53,-218,-7,-232,-167,-4,-68,95,223,-184,-190,167,-219,241,107,-217,125,-274,-287,6,246,69,-7,205,192,92,60,-110,11,54,-153,40,40,-267,101,30,-220,-329,-240,-176,-79,155,-64,-69,-275,-204,-30,-260,264,121,-129,342,306,-64,221,-123,-82,-227,-51,174,151,263,109,-267,-18,103,-196,-138,104,-163,-160,-111,-121,232,124,136,37,-100,94,193,366,125,-48,-99,169,-11,56,299,-244,19,-125,227,21,129,-128,272,5,83,164,155,-169,-132,-24,155,275,52,-164,-172,163,7,-66,130,-139,172,-46,176,-296,114,-345,12,-248,-34,9,-300,-313,231,73,43,241,-91,93,-217,-178,-270,81,132,-180,-75,-117,197,-62,-28,353,60,332,113,-60,17,-29,-115,-112,-55,-13,9,-17,-120,42,138,212,-13,34,-203,156,163,103,372,96
