-298,-132,-272,201,-374,318,-305,197,-130,205,26,-435,442,392,-188,-159,-380,-362,-474,-236,-379,-198,279,-332,353,-228,472,463,-400,277,347,313,-375,267,83,-129,320,-195,-126,-415,322,62,199,-248,-114,445,30,-228,84,-474,-400,-457,-52,-262,161,251,464,-143,417,173,414,457,-221,-485,-146,-41,110,403,396,357,381,-187,-55,147,-32,-303,251,359,229,-439,335,-384,-246,480,-200,-506,185,-238,-315,-37,-226,375,-103,115,-209,332
-385,-435,-346,-459,36,366,22,-249,434,-330,48,-40,-468,249,507,-474,-503,74,417,-183,199,-393,227,-456,29,75,139,-190,450,-56,-233,-187,-330,-381,392,-373,-448,-392,-245,499,-153,-103,431,-346,92,60,399,340,33,-136,-371,465,-3,55,117,-399,175,378,99,-81,123,-406,22,-351,73,-213,-425,-260,78,-376,-120,444,-245,214,-277,-369,225,-47,111,-301,161,-342,480,-33,409,-257,-12,-339,-59,-312,-49,90,185,-212,315,-347
61,108,-493,341,-204,429,-425,95,-269,-454,266,-399,511,-33,-311,400,74,168,410,47,355,-445,206,-335,429,111,-90,238,-119,182,-331,-162,-94,161,329,-148,-412,-440,-361,47,-199,-10,-40,280,150,-342,297,-360,-298,2,102,329,40,-450,308,200,413,-49,-308,-33,289,513,-225,239,-5,444,-347,374,-185,-57,-251,159,117,349,25,139,10,72,-243,-490,196,-57,-336,-71,233,-179,183,-416,193,-336,-342,372,-367,-351,509,482
-45,151,-194,-169,184,-65,129,-166,-316,177,215,218,-509,85,-140,-395,-322,204,303,277,172,-420,-149,148,-14,-24,-90,-36,-465,30,105,-496,-70,-233,348,297,-64,75,172,394,-269,-314,-72,-490,46,416,257,-259,48,383,-307,3,399,371,358,147,-392,157,321,-200,-206,-417,-1,277,26,-63,-329,256,206,457,-103,-138,-272,319,173,-127,186,-286,284,276,-277,490,-97,-49,298,425,-332,-193,-456,18,-282,-450,372,-347,23,-363
