0.030568436
0.013843223
0.024242274
0.0011492714
-0.012376693
-0.003951476
-0.009758265
-0.01915473
0.034987845
0.0010990017
0.025001008
0.04236268
0.029120732
-0.0063985754
0.034930773
-0.021681622
-0.013636954
0.047219627
0.009925758
0.030054435
0.015003598
-0.023547743
0.028449804
0.022859052
0.040213868
0.052342705
0.033129144
0.01999318
0.02937051
0.035101596
0.023945037
-0.0139141455
0.039222635
0.027277626
0.039090157
0.027925225
0.04477802
0.023906376
0.0074379304
0.04663295
0.038080096
0.04521165
0.039852496
0.03422215
0.024038088
0.026689552
0.04165943
0.034409016
0.021916978
0.012577044
-0.02372853
-0.0093292035
0.037016075
0.033275
0.033664037
0.038590837
0.0035166524
0.048031833
0.015096757
-0.004602952
-0.03362593
0.03347512
0.0402649
0.013584164
0.026443802
-0.00061949785
0.028458651
0.032462016
0.0046466608
0.011161477
0.03182592
-0.0003499006
0.037156515
0.03767146
0.010231569
0.029999334
0.038654193
-0.015734361
0.015631596
0.033763267
-0.018601924
0.026731139
0.0352324
0.030584991
-0.013657099
0.035896737
-0.0054787626
0.018080408
0.009840652
-0.013085237
0.022986123
0.007523565
-0.0033603287
-0.024907634
0.018894322
0.004250125
