{{0.40689763,0.2547411,-0.19331706,-0.32813698,0.19419731,0.29154214,0.34674928,-0.46294844,0.3407317,0.37423894,0.20166536,-0.055926498,-0.26935235,0.12502126,0.09570464,-0.37575668,0.3615447,0.113071196,-0.11768912,0.009071385,-0.35469702,0.050999943,-0.09094539,-0.16262941,0.021558458,0.31540328,0.0389007,-0.13455337,0.300402,0.087634206,-0.22866318,0.06650695},
{0.37389413,0.23266667,-0.13493744,0.25814527,0.23078838,-0.3537399,-0.2645839,0.5196273,-0.28236443,0.42478585,-0.35418642,-0.3200604,-0.54115075,0.22859749,-0.3989126,-0.32824442,-0.16395463,0.183919,0.46252772,-0.071157634,-0.34518203,0.052773528,0.2670381,0.45413375,0.12608811,-0.4749071,0.23869558,0.028107699,0.018970743,-0.17226191,-0.48496836,-0.10298587},
{-0.017396962,-0.31822583,-0.3408313,0.16595654,0.14136437,0.2687804,-0.1825086,0.23355892,0.50382274,-0.15386577,0.37774494,-0.2718805,-0.3243871,0.18060671,-0.21554706,0.016927494,0.26569292,-0.553545,0.03730502,0.12836681,0.36266705,-0.42559502,0.21930291,0.22334406,0.032296237,-0.43483078,-0.38459742,0.49199426,0.19436473,-0.40963408,-0.108190686,-0.13926771},
{-0.3398332,0.3077786,0.48865366,-0.5384369,-0.5647571,0.17492755,0.21274838,-0.027403219,0.45784426,-0.19968954,-0.027749298,0.14478225,0.012766336,-0.10577902,-0.03067403,-0.1462125,0.17020456,0.13856202,-0.44076136,-0.02366346,0.15464184,-0.06496632,-0.113156974,-0.6401285,-0.49852172,-0.03165559,0.035168033,0.27412668,-0.40139082,-0.1121266,-0.05250862,0.14948122},
{0.17563699,-0.067686215,-0.30422994,-0.1754563,-0.45814264,0.16725624,-0.27715102,-0.19395941,-0.03125813,0.1448733,0.16520634,-0.29379797,-0.12858425,-0.31913123,-0.25544998,-0.28682536,-0.15782301,0.07545113,0.21462269,0.221618,0.07917164,0.047856376,-0.067529134,-0.23638076,0.46787846,0.24235402,0.31627774,0.064459175,0.021945233,-0.122763075,0.41844717,-0.48829484},
{-0.20363338,-0.26254457,0.11855157,0.3036417,-0.37834784,-0.57860297,0.03919034,-0.54695,-0.57595533,-0.1512821,0.00024804578,-0.30277497,-0.5209393,0.54053664,-0.10829257,0.2186286,-0.12192264,-0.29627407,-0.08146416,0.33842686,0.28602615,0.092926495,0.36602038,-0.008604149,0.11400848,0.093616396,-0.52210766,-0.5380982,-0.13911645,0.3431112,0.4226248,0.1614849},}