{{-55,-50,-106,-237,75,-237,-85,181,-19,225,-110,-141,-145,-145,244,61,-205,-93,42,-165,-231,22,88,-198,44,105,207,186,-165,-46,38,-5,-47,-134,22,-206,-155,72,-77,-25,-138,-160,79,116,62,43,-1,-93,-203,-230,163,-151,-109,-6,-181,34,-19,-111,56,-198,-110,44,221,-73,-222,-234,-260,161,60,104,-34,233,-209,80,49,197,-49,-236,12,-186,142,41,230,0,-73,210,-206,-166,-76,97,166,-211,-122,220,-228,-89,-99,199,-167,-91,-146,-182,-179,175,-271,73,-20,-29,-116,13,-156,-60,-205,37,22,-83,193,-7,230,170,14,60,142,90,-136,218,121,-12,190,-87,10,-197,142,-243,-40,5,-24,-10,-92,83,-27,-98,-234,-234,-156,-154,-15,121,87,30,-32,-185,2,176,-177,-13,266,105,-105,-115,-197,-116,-228,145,-206,21,-139,-88,226,223,89,-194,17,56,-146,46,-258,-273,-4,36,156,-17,21,-118,-141,57,122,-24,-222,-167,-4,-149},
{-245,90,196,-16,-180,178,-215,-122,77,11,-74,111,-201,-174,-142,107,-203,67,202,-238,-254,-269,-174,172,-203,107,-27,179,-88,-261,86,-197,181,-19,248,-190,190,168,-92,-237,-107,55,-234,175,-39,-195,-148,-135,50,-115,172,-176,-62,249,-176,-104,-121,233,-230,138,-53,-139,55,143,164,168,-43,-157,-232,103,-44,-240,46,14,-200,95,167,29,11,155,80,199,212,-157,155,102,-159,15,-24,-217,-45,173,-239,184,-218,172,-189,193,192,-59,77,-147,90,-241,214,-243,-209,158,-85,120,110,0,124,98,-74,39,269,241,-118,-222,-134,-220,-172,-182,-141,-37,34,163,-181,-208,-100,-203,234,-260,-98,173,-218,-91,216,65,-149,-228,-245,-39,-12,-138,174,225,58,4,114,-38,-101,0,-216,-219,-81,190,-208,144,-169,-40,50,-178,44,105,-6,-87,31,208,204,-73,-267,-57,-263,-215,-64,140,-55,-94,-242,169,104,6,250,0,135,26,-241,-16,-135,35},
{-62,-236,-124,-42,-168,53,-54,-60,124,-201,66,-22,191,146,126,61,-97,-177,-44,-137,-1,229,12,5,-215,-71,142,93,-141,-63,-129,160,159,-225,228,231,-210,-221,180,-126,-86,113,-154,-182,263,-188,-129,267,94,-172,-188,-7,183,-193,-50,79,-116,172,239,240,14,10,263,160,217,-121,-69,185,229,6,191,22,-184,-57,-131,113,193,-113,-213,8,-147,83,-258,150,129,-170,265,-103,143,-104,230,-177,141,48,-56,-142,-31,-85,95,84,73,52,10,-192,-33,258,-90,-65,228,-177,-150,-171,205,219,14,-132,270,29,-121,260,-213,-207,-88,-97,76,-170,94,48,252,8,110,-230,27,-85,272,-39,-128,-22,-164,-60,-37,-134,-157,148,-151,-111,32,124,-55,-224,192,203,78,153,-99,-151,194,41,9,142,-191,-2,-246,-93,-216,207,-86,-135,-131,55,138,-114,69,44,-184,85,-258,-117,42,-96,159,-35,-190,-241,-59,-205,-31,228,90,143,-222,128},
{-188,267,-111,102,1,221,-88,-138,245,81,102,95,58,219,224,237,162,152,79,-249,-23,-218,222,1,6,86,-116,-117,-165,30,-204,228,37,-50,133,11,-159,-197,-211,133,32,-47,126,-203,15,-180,215,20,-178,75,-211,225,-198,-245,-79,121,-70,13,-99,128,-185,76,-255,4,-93,248,248,-227,48,-86,-128,-135,235,12,-245,-151,219,108,242,-181,-230,237,59,-41,-207,-149,-178,-236,171,-136,117,-59,-165,266,20,-196,2,119,118,83,-222,4,66,189,114,154,123,-209,77,51,200,-232,257,159,102,52,233,-2,-68,221,71,105,-114,76,-92,-196,6,45,-99,-175,108,246,-231,4,54,-51,113,-17,118,-85,24,-65,119,150,-42,73,89,10,244,-120,-114,136,59,-92,-205,-247,142,-174,77,10,233,-59,151,123,168,-193,-145,91,65,-123,-217,-220,99,-131,47,-231,110,51,128,149,-194,-199,-217,-32,-220,-134,-36,189,249,-194,-168,14},
{270,-3,-54,260,-108,-235,-33,-37,93,-262,158,-249,56,112,-248,79,-51,-190,-76,-64,-89,227,136,175,-42,-197,-191,-212,-6,-222,-97,138,-206,160,-202,74,-191,136,-188,-194,86,-192,-86,-107,24,219,-142,-26,30,-100,-141,18,-40,137,32,-78,-195,22,46,-216,5,119,264,-162,180,8,-9,103,144,-85,205,221,229,-138,237,102,210,156,-14,95,227,-251,-165,156,224,206,133,226,-123,-99,-55,198,217,-3,220,185,-96,97,-197,-87,33,-159,123,-67,100,121,-75,-250,117,192,117,215,-58,-68,-201,-223,40,220,-114,-105,-60,167,-193,90,-226,-35,229,-223,45,-23,-197,35,64,-4,-44,-172,-116,181,176,44,-127,-33,-224,34,40,221,198,-65,-50,-146,-71,-33,250,225,183,87,1,103,25,-53,-31,122,-83,201,-194,158,132,204,110,43,-236,240,-247,157,-214,113,80,-246,236,-80,44,-216,-200,-84,212,124,-138,167,136,127,55,157},
{-81,210,-188,-177,116,-159,43,-69,39,191,226,189,48,201,231,127,32,-11,46,-15,-121,267,-4,118,38,-82,73,-203,240,260,6,229,-2,-216,-242,67,-32,-91,-157,26,158,-214,-237,217,123,31,-198,-86,-83,96,24,90,63,-123,103,188,42,-135,92,225,-116,-212,-195,57,-194,225,-150,194,42,188,52,64,16,164,-131,-153,250,-255,-75,121,-256,-211,-254,224,42,-180,217,211,-152,-168,213,112,106,-266,-82,-11,201,44,-163,-62,7,-201,-189,84,-225,-220,-45,-103,-60,147,-26,-79,104,150,-90,-227,219,-192,-174,262,-45,120,-247,-19,223,122,140,-6,-75,202,57,189,197,-171,-210,204,-51,58,-34,-250,-49,153,-234,30,-13,46,-189,77,43,7,52,-107,146,186,76,-36,-83,-214,-47,-104,92,-193,199,83,56,-43,-12,-75,124,-113,-161,-86,213,-238,-170,221,-191,-250,-213,-214,-98,-221,163,166,101,0,50,-58,-15,223,202,-181},
{152,213,-13,88,182,166,-11,-115,111,-136,-29,-110,77,-155,242,-2,97,46,268,42,-170,-32,189,104,-74,200,-240,15,170,-233,-147,12,222,-195,-108,-86,-91,-74,27,-210,246,175,140,24,103,-43,13,-237,86,220,-175,205,-48,-62,-67,261,-94,172,-250,-219,197,155,98,-140,205,-7,-120,78,-17,-204,143,-52,-141,160,-151,-90,-113,114,43,252,-67,-175,36,234,126,216,-229,-85,-153,54,226,88,-32,-68,201,-108,171,134,215,-72,225,-63,-99,-261,-89,-25,186,8,22,80,-188,214,-5,61,210,-111,172,66,97,137,-100,-35,210,-158,-222,13,-91,-237,95,-106,-78,-23,-196,168,-118,49,209,125,-37,-275,-7,-230,-186,-125,28,232,-268,-10,176,-226,139,-187,-7,-158,180,206,36,-137,104,-116,105,-208,209,267,195,-91,-43,-77,-248,176,-37,135,1,-35,178,43,124,-212,-223,-222,-256,-132,-52,-279,68,-225,34,81,-15,-206,-198,-74},
{45,-11,-183,15,12,-189,-127,144,226,201,8,-68,31,-117,-249,72,-184,-182,61,106,-46,222,130,-227,-53,63,114,-117,-165,190,-156,-200,152,-105,50,-148,-94,-81,-197,14,19,53,-245,-106,-145,77,-92,-66,-81,-152,60,-73,-106,78,-108,-65,-148,-162,62,-185,34,-258,-78,-139,-225,14,118,-3,96,-107,-173,-239,133,166,7,133,75,-97,-123,-259,197,17,-194,-157,203,23,-137,-148,-124,253,82,-9,-61,35,-127,63,-84,-168,232,219,242,60,233,-90,-56,-23,144,-176,-71,66,-83,-203,-212,-130,120,229,111,-77,209,14,-147,27,-3,181,80,225,-74,-187,-37,254,171,-40,265,-112,135,179,-3,-114,25,-69,-195,-66,-220,165,-170,240,-99,0,175,79,193,-127,-160,-221,247,38,15,118,180,70,204,163,19,93,-154,-57,109,133,-81,13,38,-108,230,114,-82,140,-176,113,222,-198,-101,150,218,-237,-88,-15,-212,-77,-30,-7,-240,-98},
{223,-64,-156,-2,-213,-66,173,236,-102,202,231,-108,232,-247,245,-54,235,-10,179,92,-216,-51,-189,208,-115,4,236,198,204,-209,-232,52,185,78,-233,38,250,200,45,175,198,-32,58,208,-189,75,-154,106,142,98,-186,-9,245,63,-194,-131,167,10,-157,-169,-158,64,-71,53,68,129,-130,86,-256,-123,-85,183,107,-102,-190,161,-99,44,149,19,-198,-94,122,123,-106,76,-206,96,-38,204,179,-196,151,-3,-194,163,-209,4,168,-107,33,9,154,-136,77,-147,-50,158,-7,162,139,-217,-240,-195,40,14,-48,14,223,49,41,-157,93,0,-55,-209,-276,206,-35,92,153,-109,13,129,74,-54,-102,188,23,73,-131,53,-56,-233,90,-65,-16,-156,199,143,-130,238,-154,94,-193,149,-114,-232,-256,62,-169,50,-150,113,195,-176,222,67,-17,-196,64,-60,-206,-52,229,171,-15,-2,83,-237,198,212,-138,-232,-39,205,112,-211,-122,161,-189,134},
{-236,57,-54,-76,3,45,-31,72,215,67,-226,-182,56,9,157,52,150,176,83,-61,257,88,-174,-195,154,-154,-42,-180,131,89,-199,114,230,-147,124,-53,19,156,-198,-171,234,-48,248,198,-48,222,-166,118,19,63,-155,-93,10,216,-149,-143,-175,-67,228,89,-73,92,101,-49,-96,-28,-12,51,71,103,-264,-251,174,-66,-1,-27,-21,140,185,-194,216,186,-121,154,-83,-193,-40,-34,38,151,242,-27,204,79,242,-81,6,3,257,-85,-25,-218,28,-23,-189,92,128,-137,246,252,-112,48,258,-62,258,-16,-181,-169,-159,60,37,58,215,-75,-194,25,44,-144,-156,4,203,-232,-53,0,232,101,101,-226,130,-58,-144,147,155,-225,-33,96,-235,-221,-55,58,-181,247,92,197,82,-261,-25,-101,190,236,-111,98,-153,2,-133,197,257,-180,-72,189,210,-59,-209,-214,179,247,-136,-18,-90,124,-130,245,-96,-89,48,236,-13,88,120,242,115,-135},
{235,-185,111,-2,29,-132,234,-143,-90,-34,-143,187,-147,80,193,38,85,104,-156,83,-155,-124,-126,-106,-223,-23,-65,112,-172,73,117,248,-41,18,-164,-102,66,-179,55,-167,186,112,-187,3,59,-212,-195,66,49,-238,216,-56,70,-217,-228,-154,-19,57,77,115,-46,-166,-93,-81,261,230,-2,78,79,250,207,217,155,-113,-90,21,-21,-137,120,24,55,140,129,105,97,64,200,-18,-131,-197,-241,-250,-105,-5,-116,-244,15,240,-120,15,252,220,188,222,-34,197,-97,-152,-176,-24,-166,156,147,-190,111,46,-123,150,30,231,-173,40,152,193,35,-236,210,188,-121,-65,231,234,59,-58,165,122,64,-193,-132,-86,42,-76,78,-9,72,95,157,-17,-58,167,-62,230,-138,-106,-165,22,179,175,139,24,235,-87,-21,210,-160,50,268,223,-51,100,-125,115,-190,-203,39,-181,140,178,-182,-91,-213,188,21,37,138,89,218,192,-108,168,-205,-119},
{23,260,114,9,27,-26,-154,-232,109,-19,-8,72,-231,-66,-217,-17,-149,-133,-212,183,214,-221,269,-229,-224,33,-178,-212,226,-150,207,225,-5,-254,33,51,56,-217,212,-12,184,-75,170,71,49,71,-145,-77,134,-51,-39,90,66,195,39,-70,-25,-225,51,-138,209,147,19,-44,-157,-80,97,135,-17,-55,-27,-91,60,-219,232,-65,62,115,-178,-199,205,94,268,10,-183,-66,40,-86,191,83,11,-62,251,-134,243,-204,241,-117,-44,251,-216,-49,11,174,22,-122,-211,62,-129,215,-192,-201,-123,-190,-143,-61,37,-187,212,-170,215,-22,62,123,-215,169,137,-206,-72,235,20,-185,-50,-115,20,-122,-168,13,65,213,-168,272,212,258,265,268,166,-60,91,-221,-213,-88,253,-176,212,-99,83,11,120,189,-173,-52,-13,83,135,205,-182,-142,238,-102,214,-79,-148,169,-88,-204,238,192,-47,-109,150,125,61,137,-92,155,214,-110,-209,-1,-213,147},
{174,69,-17,-74,251,27,-2,-112,-21,-143,183,-187,-229,225,145,-198,-56,-207,-280,-161,-127,229,173,-30,-106,33,221,-84,189,85,-277,106,124,167,78,160,193,95,248,76,88,217,37,-184,-250,-42,149,245,-178,92,-107,-80,-34,-201,-16,52,52,-160,-63,69,65,176,253,184,-69,-188,31,-168,-218,23,263,-53,-214,-208,-17,189,-80,177,-50,-250,-187,-14,-62,115,-214,-76,-201,-160,195,-164,82,209,-117,-153,40,74,221,236,118,-79,-236,-33,-153,-208,-238,74,-64,7,-137,-185,-108,137,36,-232,190,-268,26,-59,-3,-182,-85,68,-120,214,74,121,183,-8,247,-113,-99,94,234,-150,161,193,-62,-180,-124,115,-54,172,0,191,-208,214,-200,-160,57,190,250,-216,63,-86,230,-94,-178,-223,-185,131,161,-81,-195,-26,223,-57,85,26,-41,-31,-214,136,124,83,-102,-147,-235,-109,-9,226,177,-191,19,91,21,-106,-162,-68,47,-249,158,195},
{-29,125,-124,-252,-4,64,-19,153,219,239,-226,174,123,-60,-88,89,6,138,-114,1,-201,21,-128,103,35,-151,-191,90,130,-54,78,13,62,-165,-4,111,114,-233,-236,15,237,-60,124,-95,-67,-192,-245,-230,153,-129,53,56,239,-239,22,198,-242,37,-39,234,-82,181,-69,-221,214,-218,111,132,-204,-236,235,49,209,22,-161,-151,208,-58,154,-161,52,240,-205,-78,-237,-114,24,110,-152,-137,217,-35,110,-209,-102,169,66,-132,162,-166,166,57,221,-77,-39,-43,223,185,18,54,264,-75,130,111,70,-29,-100,-172,-201,-202,221,-136,260,-109,-187,116,82,99,183,182,114,155,232,249,192,-242,66,-55,248,189,-65,-89,215,187,-6,-38,-6,-6,-11,-66,-159,-216,100,241,-85,176,-136,123,96,-178,214,-229,130,117,6,190,-147,-241,65,-217,-136,100,-24,-12,-129,162,169,-69,-61,233,-117,-41,114,-209,-163,-170,51,54,-111,204,96,-217},
{-215,115,-115,90,260,-31,103,-33,119,-179,-154,133,236,139,-92,156,90,-129,175,221,158,180,26,-102,-79,-162,-59,101,-211,-189,179,46,-217,123,-99,252,258,197,67,-91,201,16,23,161,-186,-238,-183,-78,-39,-218,48,244,-118,204,183,-9,-68,242,-235,254,-31,209,-229,109,192,-13,-219,-42,-72,226,-8,186,119,250,233,100,-235,89,-163,-4,15,-252,-135,-20,189,-51,-46,-55,-149,129,-157,-155,-114,-149,156,178,-154,60,102,165,-218,-117,89,103,-246,157,28,-177,-250,262,204,-50,155,-187,-167,-185,-126,219,247,-6,-155,95,-73,117,189,147,-135,-195,-231,200,35,252,232,-135,-143,63,-10,-104,-181,134,-128,-135,281,32,-227,51,72,-115,-220,-194,131,-97,211,202,-145,186,-204,-90,-168,114,200,160,-138,182,208,-225,107,-4,107,247,162,-119,-181,-180,-148,210,254,-101,134,236,-91,271,-88,-84,12,-92,153,199,-50,-89,-52,169},
{120,134,151,45,-203,-247,156,-18,146,225,66,-225,-125,-65,-145,-113,179,60,133,180,-187,115,-231,-127,175,62,-221,-174,241,-15,11,218,-171,-9,110,-156,-217,129,155,205,-218,-92,-180,24,236,-95,228,151,100,149,264,-44,-157,171,-32,15,-212,100,-189,-160,-34,83,174,28,144,-35,-65,-199,-82,-227,-250,188,-32,89,-275,-116,98,232,120,-143,43,-222,-20,-138,-35,33,-141,-34,-170,-156,-186,-254,87,10,81,28,178,-16,-182,21,-171,-44,47,-110,174,-67,256,-30,8,-42,227,257,227,79,120,34,274,-164,201,211,-12,160,-200,-112,-188,97,0,143,56,-72,115,183,187,-20,-164,7,-199,235,224,-160,-246,160,122,74,-90,-41,128,219,-162,-57,-202,-180,-76,-255,-218,232,-7,-234,-252,-103,13,-194,219,-27,-176,204,199,158,51,-148,-177,-231,79,-157,-10,237,-103,-12,-258,191,-152,-11,-74,184,-85,-2,-81,-84,220,-87,-119,-108},
{267,171,239,-126,177,-214,124,163,176,-207,-219,110,31,160,83,-55,129,33,43,149,211,192,200,-207,3,220,51,-49,-187,105,-176,-115,-107,169,-198,-5,-211,-154,-225,-45,-59,-112,-106,88,250,231,247,16,-44,-35,-39,-95,23,-222,-90,-38,240,-147,-124,-80,-219,-225,128,-243,99,83,64,-109,84,-179,-145,-123,-131,-257,22,98,129,180,222,-236,-265,198,44,-109,-50,119,207,53,-141,-267,87,-116,-69,105,178,-198,194,18,139,-47,-4,44,214,-146,-39,53,85,-152,-79,78,-9,92,219,120,-272,-236,-252,185,173,-242,24,-244,-119,103,197,-69,186,-269,106,-148,-34,-234,-192,216,232,106,95,-79,-183,131,21,152,158,2,108,59,-243,-59,14,-201,140,-45,40,-80,159,24,-62,73,226,17,169,16,45,12,13,-107,-63,-15,-125,18,63,219,46,-178,-2,211,164,-279,167,100,-128,-166,119,144,92,31,-249,148,164,-234,-169,113},
{173,-96,-205,-177,-243,-94,-78,224,-234,162,-243,16,233,55,54,-164,233,73,-246,-228,-150,-238,-194,108,-181,26,166,-110,227,-198,211,127,-36,-251,-91,134,175,175,71,34,-234,-110,92,101,168,39,31,-58,-218,182,169,-11,245,-187,40,-96,208,-96,247,-179,243,-4,64,-74,-174,-225,54,-77,-271,153,151,222,-16,-50,12,-231,-186,-151,249,-99,77,107,-169,127,-116,-56,49,-212,141,-214,-179,154,4,-165,20,35,143,-206,175,-88,-42,-147,217,197,-163,-127,102,-139,-201,-66,188,-102,-29,213,214,-136,-208,-13,237,51,-81,174,-154,-214,233,-171,-45,-60,202,-187,208,-146,-39,131,67,203,-96,-256,200,-128,-246,-104,-79,187,76,-200,199,-226,54,-169,57,-112,-226,69,-266,132,54,-70,116,-208,-152,224,-89,103,175,-35,-95,-106,227,-136,152,31,-118,-180,-179,-225,30,167,-200,-36,20,143,160,89,40,-77,192,76,257,-82,251,-171},
{54,-158,-28,-231,220,126,51,-76,98,-170,35,18,224,71,1,94,47,3,-192,64,157,100,-203,-219,163,-39,125,-105,143,42,-170,109,-99,53,-226,-69,216,68,166,211,-119,-197,99,42,-70,-85,194,245,-7,-107,-128,-172,5,138,-1,-58,-83,12,-158,171,124,225,17,55,111,161,134,-61,38,142,128,4,-167,-134,-147,-210,61,-111,211,76,55,58,-200,173,79,-168,-223,-165,161,95,-133,-43,-126,229,17,-196,205,83,-121,-172,262,104,-237,1,-51,-201,100,6,-93,-115,-232,-217,147,43,-169,-43,-233,-211,75,101,-207,-194,74,-84,194,-40,-70,-19,41,-25,8,27,220,-74,-246,-4,-84,-85,-4,-118,210,-115,-32,-219,-173,-244,-79,-187,40,-22,-173,34,-76,227,-114,-84,13,210,85,-254,-183,-250,94,207,-25,-202,62,92,210,212,-233,236,30,-143,-203,221,-157,-66,-70,-118,41,96,-85,-66,89,70,262,-119,-31,234,255,11},
{-70,106,231,266,-99,242,224,-88,146,103,-175,-3,-124,-184,-65,-6,-199,3,205,68,-7,-161,-207,-48,-31,96,176,-126,180,-227,166,-174,94,77,-169,-136,-231,-133,151,1,219,-186,95,61,155,-15,-138,98,-67,-85,168,180,221,50,-149,132,43,249,-166,-55,109,-96,70,-171,-168,-171,-49,189,210,132,-220,105,-135,-77,-183,198,170,173,69,178,57,-4,-179,219,203,-174,56,66,-111,266,233,201,-140,-128,32,42,-6,-129,-85,99,202,-248,80,91,-140,-187,62,-260,-68,204,150,-146,171,-174,-201,-171,186,90,-79,-201,-59,109,23,-34,-186,201,-4,-131,-148,21,131,-142,69,-108,90,142,131,237,-2,-240,-47,90,156,123,-126,154,-219,35,-129,-116,-188,-143,-181,-58,-67,187,-192,41,-3,-20,105,-18,-269,127,123,32,-195,-260,-38,-182,200,-32,68,217,26,2,-90,-230,-37,98,-273,17,-146,225,-239,-182,-156,49,-267,-149,35,-163},
{90,-65,-9,-71,-234,-239,262,172,-106,118,-221,121,-168,191,-113,-184,-104,-186,168,143,-115,-254,10,91,-94,186,-180,227,-76,-29,-170,-40,-137,150,27,-154,30,79,-203,87,270,-112,-136,41,18,-18,147,-55,-98,232,92,-112,-135,-128,160,76,154,-118,-187,-106,-59,-202,151,260,-22,72,220,242,253,68,-145,95,-35,-226,-169,205,-227,1,56,52,126,197,-239,218,119,-225,269,-237,-28,160,141,-9,-171,22,-144,153,241,89,-58,69,148,-98,-213,92,-51,-120,-117,33,133,21,-12,19,184,-198,36,-46,53,-168,20,55,-148,179,-75,-217,55,63,-221,-136,68,-246,-131,-154,-133,191,70,-60,101,-37,-229,240,-83,-68,-149,-8,-259,229,-126,-115,220,-235,14,-118,115,-237,-41,136,-209,93,130,-199,149,-96,-255,213,216,-36,205,178,17,-154,-194,-141,-247,-129,138,-183,-9,157,-271,-99,-223,-192,126,230,117,-217,-32,-105,127,210,-19,-95},
{-119,-68,-29,51,-186,250,147,-210,-135,47,-8,-218,-85,222,46,18,-119,188,55,27,118,136,-59,181,-82,239,153,211,161,-231,-65,149,-199,-48,-127,-204,-217,-183,215,128,-79,-35,-189,28,-185,165,84,-31,-1,70,-89,263,19,112,195,-2,151,146,-222,145,15,-20,-231,-50,112,-140,186,14,-145,205,-211,33,82,-1,1,170,-72,-50,-161,180,-97,203,-196,-194,233,95,-182,18,-132,-19,38,86,-55,102,207,-199,-35,-68,-168,-65,-244,-177,-27,-96,-236,-59,66,189,-214,119,155,-158,-215,-217,28,-127,248,-3,236,118,17,229,-152,12,65,-30,225,-80,-95,-255,141,-263,189,216,-137,-224,113,4,-47,-95,-70,111,-218,144,16,-33,200,-181,-13,-27,141,-114,252,-72,154,86,-83,-120,242,49,-120,-104,42,164,-207,56,173,243,226,112,193,37,-37,-35,-99,-144,53,127,-186,-37,141,-28,86,268,-188,114,-37,-45,118,-128,-70,162},
{-250,228,-4,-95,23,-91,177,-9,-96,116,-115,181,-120,-50,-52,-207,198,-142,-16,-45,-226,17,73,-21,-71,0,-7,-138,60,168,94,-113,-243,-166,7,-1,150,-145,22,24,26,122,-17,-106,65,170,-47,-127,-75,46,172,-23,-27,-71,3,20,64,-224,-58,-210,-171,-40,81,-71,122,-222,-252,224,72,-243,183,203,-181,73,-248,-84,-62,-274,143,238,147,-161,177,-189,219,0,-85,-217,-73,-139,-155,-55,121,-158,-220,217,93,130,-58,69,-19,-178,-74,-101,-224,161,-91,0,28,221,176,10,70,252,188,-92,29,-155,-64,42,145,246,202,21,-209,-217,-239,-85,3,203,185,-279,-189,200,165,-222,-147,132,-159,-200,250,2,-173,-231,-58,-34,-94,129,-67,-71,-115,102,246,17,21,-177,-100,137,21,-106,-144,102,-100,-49,-75,57,-99,-212,-225,99,-221,-98,-23,19,9,246,12,-184,60,-135,198,-168,217,-149,141,-100,53,137,-3,152,176,147},
{214,224,-20,-215,215,14,85,-185,-181,-125,-196,169,179,125,10,7,-182,219,256,26,-10,-202,-112,155,-205,-98,14,75,-180,-191,52,-60,-10,210,-118,-123,-99,38,59,-263,-72,201,-40,119,-130,142,-10,-63,-240,-91,208,148,-229,-156,112,-196,177,-168,-196,-27,-46,-239,-38,1,-108,2,-193,195,-191,208,63,-91,184,-104,-73,-202,-43,-157,119,33,1,-36,-235,45,229,176,-62,11,82,207,-218,50,-190,155,226,-1,91,115,-29,48,-88,147,11,180,-228,-224,-148,128,161,-53,115,-203,-30,65,-260,159,220,-25,47,-66,156,19,127,204,-136,28,171,205,178,-238,162,269,-48,-145,103,42,17,233,170,-56,-57,-29,239,-50,-168,-120,-158,240,-49,-180,188,-215,-57,-42,-91,0,-87,-215,112,-202,249,158,14,130,157,64,17,-67,-147,206,161,212,-50,55,49,-110,42,-7,52,-66,-37,135,18,-10,276,16,-81,131,253,175,-242,3},
{-226,-169,206,-113,110,70,110,71,-40,-228,248,128,92,60,-221,-187,107,244,-71,59,-59,-102,44,255,-181,-76,189,-190,61,53,66,4,38,65,-177,65,70,-199,-165,-200,-101,87,-228,-73,31,93,-111,252,278,-65,247,-37,-10,6,41,127,132,-60,27,-90,-146,-230,-134,-190,-46,-143,47,-21,214,211,-207,-174,-39,263,-155,136,31,-235,41,-164,141,-215,-164,118,-226,178,89,210,-11,-4,-94,53,30,-69,181,-135,11,171,222,5,-11,-47,-112,-147,-184,-38,-73,9,42,-120,-214,-232,127,-232,-47,-139,-112,85,-10,23,66,65,258,80,127,17,-240,160,208,60,-252,-78,132,-49,-66,-246,-73,-55,151,118,-15,-190,-80,57,-125,-115,-159,210,-224,207,189,53,132,-157,6,185,-126,-119,-265,168,-174,-16,-204,-33,-32,-196,-153,-173,155,86,141,242,-218,-198,92,-153,192,-193,183,239,-88,24,42,-122,149,-9,225,169,-108,156,269,67},
{101,190,-210,-91,66,-155,226,191,-11,-133,-37,-153,256,129,-36,-118,-124,53,175,-10,163,4,234,-259,236,136,171,-111,145,-32,-59,-22,148,188,140,-225,-48,-177,0,-28,-80,-152,21,-124,-140,86,228,-180,46,-172,-171,193,40,-142,200,-185,-147,145,178,-151,64,-123,33,-180,-187,-129,-30,-72,242,35,-122,100,1,-207,-217,35,109,-249,-107,23,-66,-122,-18,180,107,254,257,-94,-4,-198,105,-235,79,-178,45,-96,-198,-32,130,168,225,-174,-70,-99,126,265,269,242,190,-109,-10,-156,254,174,218,243,79,249,23,-221,-51,15,-217,-65,189,-93,-78,218,-53,-102,187,175,-183,128,196,90,163,-14,125,-26,56,121,-12,102,-150,-160,-215,-67,-167,-150,-183,109,-124,-209,-74,-190,170,-163,-170,209,64,-20,211,39,110,253,-119,269,-95,142,-145,255,32,181,49,22,135,103,-21,101,176,-53,-31,-170,43,223,106,264,-93,-22,13,-211},
{-42,-22,-221,-106,142,55,-22,-162,103,-198,75,-41,-81,125,99,-111,255,135,214,10,4,-233,-74,172,89,37,-144,-101,42,152,-238,80,-155,232,41,20,158,158,127,141,86,169,-75,-208,-238,-185,185,-232,109,173,109,187,-8,-71,-230,-44,223,-54,211,134,181,-52,39,-156,-49,91,-170,143,41,55,43,41,138,110,-236,-130,213,90,-18,-146,-167,-240,-37,-258,158,-135,-202,-184,262,136,-140,192,-64,200,161,164,189,258,221,-69,-67,-141,-87,258,-33,257,-1,-34,-72,-121,-121,-127,-26,73,160,137,109,-103,237,-105,71,194,101,140,-172,194,-144,61,-2,40,230,-25,-51,-50,-118,-65,-144,-61,125,-9,25,-83,176,119,-108,-181,-175,-169,-207,-64,-217,87,132,232,226,-34,23,-47,91,188,149,122,103,-173,-198,91,30,-175,125,-77,-201,0,-98,258,206,122,135,98,-77,140,231,-153,-34,51,247,129,263,-93,179,-221,-225,-103},
{-41,-170,155,-174,-109,-198,216,69,138,-110,9,-154,255,67,185,-215,271,-187,-102,31,251,219,-199,-100,-171,74,50,235,-116,-69,165,-58,-177,-2,15,-89,204,103,-210,129,-226,196,-94,-140,256,105,245,-68,103,-231,-160,-188,222,-64,105,-57,-208,-96,-141,-215,-6,-14,211,22,127,-48,-181,-215,-203,172,0,-106,-200,182,-215,196,-140,-72,-215,-188,57,31,2,46,-44,43,53,33,-188,111,49,205,166,-192,-20,194,-227,-46,-116,-92,-227,-78,-112,-92,-95,107,-107,7,65,-70,-239,94,-91,101,271,29,-37,-70,-223,-223,-161,263,261,99,-155,-206,-149,99,-196,167,240,-41,45,61,-5,256,-20,-233,-126,204,-147,-105,201,164,-178,-161,-145,111,189,-215,79,-228,43,-108,195,-43,-233,194,-202,68,256,78,65,194,16,-230,-69,209,-146,151,211,-219,-130,-113,209,144,10,-81,187,110,174,174,94,139,-185,-159,16,15,-9,89,-133,-220},
{-140,-82,87,-26,54,231,-136,-57,88,48,-40,227,-68,-33,-139,-87,115,146,-43,0,31,109,-34,-242,145,-78,-165,-81,-187,213,-50,-15,-50,-130,-177,-92,62,221,209,247,-163,-141,84,-34,243,47,193,43,-189,48,238,225,-205,-220,-240,-66,-51,-123,248,213,-185,17,-210,105,-146,-128,177,-122,-124,-49,-63,-253,-13,-15,66,121,128,104,-182,30,-113,-56,-105,-54,-103,-182,55,-270,141,245,-214,-142,196,95,117,-177,-232,61,-148,23,170,-78,183,-165,269,129,-124,128,-41,234,-40,242,-58,40,-131,-162,-164,-100,25,197,121,-9,71,-133,227,147,126,-1,145,96,-75,-119,-22,-35,-141,-254,-149,-163,12,-59,-28,34,31,-55,-205,-132,-227,202,55,-259,141,-207,-110,77,-118,202,-104,-83,211,65,206,201,201,-103,164,158,-201,158,-114,219,-60,24,56,132,-223,-88,-183,31,157,272,-136,-128,-167,197,-31,-110,59,75,-183,-216,-156,0},
{152,8,178,123,-12,93,-60,115,-134,-133,218,-188,22,230,-73,17,11,-83,-266,-23,96,-132,-214,187,122,-123,75,-210,198,74,-219,-279,214,106,196,-168,-8,207,-109,-185,-223,131,93,139,112,-103,1,-152,-214,19,-26,-160,91,128,88,-135,-107,39,237,-68,-219,-42,170,40,-202,97,231,-93,-188,259,137,-175,182,-93,40,-78,42,116,-100,94,116,34,221,-132,-23,248,-181,-114,172,-202,13,-134,147,99,210,-202,50,-245,-107,-177,198,96,130,72,187,-242,84,-199,-240,184,61,-201,-97,-161,-217,149,21,-188,55,-206,175,173,-186,75,-203,200,-132,-86,235,240,32,138,-39,91,-223,-192,141,-112,87,-199,-213,-20,-46,-128,210,76,-172,88,251,170,127,97,223,-116,30,183,192,-82,-159,-189,103,148,9,153,-74,104,20,-73,-180,-191,78,-215,-177,9,214,124,16,-132,-166,-111,-92,9,258,-42,28,112,-145,122,-24,-227,-200,-35},
{-99,38,-54,161,63,-147,-151,144,-121,-42,101,156,-77,-185,168,47,-81,68,101,-50,251,-80,-144,-101,230,149,-264,168,45,-194,55,-248,125,72,9,25,148,33,31,119,241,-254,8,-36,-34,-96,232,-120,-101,143,128,0,-48,199,140,238,88,-266,177,-242,-115,-170,-219,209,-71,170,95,29,-84,-144,-73,54,169,109,-40,-95,-5,-123,85,-188,156,-113,217,22,122,44,147,127,-201,-16,-155,16,-152,217,-95,-14,76,-34,-209,113,-154,-145,-146,-78,-128,77,43,158,118,-199,-63,118,240,154,-155,-138,115,171,250,-96,-127,-157,229,205,-9,-216,-204,208,-230,88,163,-4,-259,-45,140,-7,136,138,75,-46,-139,58,-97,-176,77,-190,145,138,186,-204,211,31,208,43,-93,132,28,-62,-227,83,-47,-254,-237,-155,-57,121,132,169,-67,-190,-214,98,-101,222,265,135,101,-67,218,-39,134,-120,-171,-30,-127,61,244,217,17,66,-73,-207},
{114,-11,-140,-154,121,83,143,-206,178,-163,123,224,-84,121,-192,-160,-101,188,-52,105,-60,4,67,-30,-52,-165,-48,-195,179,-6,-186,-3,101,-199,228,-28,-56,9,-68,-43,-37,-86,210,67,-163,25,149,-234,60,-245,87,3,-257,-95,0,-217,177,20,6,-215,-99,-78,209,-150,173,-122,-185,226,-18,102,201,186,39,-217,-139,100,143,-85,190,169,-155,238,-81,46,-5,-151,22,29,77,160,256,-213,139,22,83,-73,209,-141,-149,-8,-71,128,219,-218,-244,85,115,-53,-65,-100,218,-31,-5,10,-276,138,-101,22,189,-86,-2,161,-232,-106,-65,-22,-91,19,16,119,-2,-157,171,188,57,152,216,190,177,-164,199,-45,-25,-203,170,135,95,126,142,-23,-75,233,257,119,90,-152,173,-157,61,-78,7,-176,124,-177,37,199,52,15,175,-249,-250,166,-182,-140,-150,-259,232,-199,222,-114,51,44,-152,182,56,-60,128,-33,-232,-199,-44,97},
{100,-9,55,-126,-109,-37,143,-189,-222,85,0,224,-198,62,-37,31,-83,68,-182,215,-232,213,177,-60,216,-14,-237,-180,87,149,-74,-165,-173,-55,-242,78,-116,125,11,-172,189,-93,137,-163,-207,-35,146,197,133,-144,211,126,82,-97,238,186,53,-233,-53,173,261,-129,-111,-163,-225,-137,-117,26,150,233,258,-234,-79,34,272,-45,121,111,-200,181,-169,-94,-67,246,-122,114,-21,147,-194,-264,63,86,-25,1,-64,30,-14,-128,214,-129,21,77,77,-16,-20,93,73,-49,84,-222,51,-97,172,156,-63,241,79,-216,158,243,153,210,42,-137,-219,-158,35,-88,196,111,180,236,174,170,93,-138,-227,52,-238,-18,-177,129,147,-156,210,-140,16,-173,98,-173,-215,-157,189,127,-10,-25,-180,74,-93,-104,-244,243,141,102,-33,67,140,-185,-131,228,-115,222,26,207,113,-138,138,86,130,-196,-129,-190,132,86,114,-31,61,-93,-52,178,-21,-96},
{-9,-61,-75,-232,-162,189,71,268,-221,182,-140,-218,22,-272,107,72,209,-138,-152,2,-27,-79,226,-137,-88,-175,64,226,-241,-122,168,65,-110,-164,-145,-26,210,22,-226,-131,-18,-178,206,175,-145,58,83,80,195,63,103,212,-58,44,-38,133,-74,68,130,235,16,150,-158,-209,129,-128,157,-234,-133,-98,-22,60,19,-17,3,84,250,187,-58,239,191,47,23,258,-97,-240,181,75,-88,-35,40,84,113,236,-188,-37,44,-90,-7,-66,17,-146,-89,-23,99,-231,50,207,106,123,189,-24,-93,-226,50,205,-131,-51,129,-169,-264,28,117,235,-77,-239,-107,167,171,-203,-143,28,-85,-234,177,-136,246,173,-128,-98,226,49,53,-196,-232,118,84,121,76,93,-87,158,-99,-163,-166,65,-74,-227,-38,-4,249,78,139,69,-123,-153,163,135,-22,-92,166,-67,222,144,-184,51,-9,214,49,-26,-156,115,-116,-27,-17,-43,-3,2,123,-209,-128,224},
{87,-236,-55,-76,13,46,-113,64,-59,-185,86,134,123,-92,216,197,162,-150,75,0,-125,224,46,-29,-53,-135,-143,244,258,-123,99,-230,84,-2,-89,149,-239,38,224,249,-7,-89,178,230,-22,-105,152,-136,-170,243,160,205,122,117,-7,185,138,-238,50,115,136,-122,-57,-10,46,-72,254,-169,-25,-81,78,-71,135,126,-120,101,201,57,140,-92,-181,177,-171,-25,-229,221,-185,-22,102,-95,155,-177,-138,230,63,-220,161,154,-97,-237,-27,-88,209,-3,-64,-148,75,-220,-187,213,229,231,167,98,28,16,181,86,246,-38,222,-248,139,169,-179,-78,79,229,-206,-124,-158,-113,112,132,154,171,-74,226,-197,-232,248,276,-220,59,-29,81,109,-45,177,-165,-189,-27,114,141,106,175,-223,-226,-37,25,-202,252,265,-77,-21,-159,193,-202,238,-23,219,189,-205,25,146,208,-64,191,-194,-196,-249,119,33,-154,-193,2,-209,-145,-31,79,197,-111},
{120,22,-138,171,193,219,-55,205,-162,-238,201,108,-242,-101,-124,238,186,253,-22,180,195,0,169,31,-164,28,-105,42,82,-57,267,9,-101,250,167,175,-155,233,-64,8,221,-70,-33,4,136,-53,203,107,-75,141,-137,-163,192,-188,-207,-64,111,230,102,-241,-158,35,20,123,-7,75,10,247,48,21,-221,-209,180,-203,181,-234,-156,87,-222,77,-86,-55,171,-249,-232,-41,149,-187,-85,-85,-242,-44,57,-108,-184,-102,138,-184,58,-142,15,13,101,233,-128,58,235,-104,158,-157,-42,162,-229,-141,-25,3,-71,-49,27,249,231,121,-151,-144,-100,84,-146,112,-175,69,9,52,-137,65,-187,100,170,-40,88,-154,197,25,171,24,-40,143,-7,-171,186,-68,-54,203,169,-65,250,104,5,33,-61,178,-146,180,90,180,29,102,122,-120,239,241,243,-63,-251,-190,166,163,-10,-126,178,230,-28,51,-27,58,-218,183,107,-107,36,208,77,-94},
{59,-215,-63,-159,-167,-234,195,76,138,-166,-159,-203,186,-160,-101,-200,-138,164,-70,-181,-63,195,154,-206,-120,124,-4,0,20,-64,151,-70,-223,-164,-94,191,-104,228,-265,121,215,-195,-118,144,-110,-55,121,-232,-222,-259,-224,33,78,88,35,-14,223,215,147,-192,-86,165,-15,77,26,22,233,218,-149,122,-134,67,-148,-12,-106,260,29,138,-136,185,125,98,118,-21,188,0,232,219,164,60,190,-138,-12,-92,7,121,120,-95,-160,-165,-73,-236,-37,-214,122,-205,8,-250,36,169,86,197,12,18,-126,-220,-237,-249,-24,-187,-8,84,121,-27,-31,138,194,-11,221,-73,195,232,151,-10,263,143,22,58,123,-56,249,-66,-65,-98,-145,139,-166,-220,-92,-201,58,-57,-53,124,77,-15,-165,63,-1,87,168,-192,-62,233,-59,70,-160,-228,-228,-101,-8,8,-209,131,-191,24,-234,196,-226,39,-52,-198,-217,70,-156,-31,115,181,173,-27,-143,-77},
{170,77,200,71,-10,-212,229,-219,159,-202,135,209,-149,-14,-23,44,95,205,144,-49,119,97,-12,-245,-159,-142,123,168,-166,-32,84,-230,-225,-34,149,127,-217,-31,144,-234,11,70,-11,258,-136,-26,-226,-119,-81,2,-82,-243,113,150,-116,137,130,94,40,-222,132,113,-161,56,54,176,-227,-245,-54,-140,-118,134,22,-35,206,-257,-93,127,180,-117,-125,140,-137,223,1,209,229,136,-44,228,138,229,185,-139,98,149,-147,50,193,-211,167,-221,-136,208,213,-138,-8,45,134,-98,-51,-190,-125,-188,165,-34,210,128,-87,-170,165,109,-118,118,247,142,155,219,125,184,185,147,-99,-141,216,215,103,170,-106,148,145,107,48,-180,-86,-265,149,73,236,131,-74,-135,-162,-63,-11,-252,-82,53,188,64,-163,-212,-272,-86,-189,-134,220,47,186,-132,66,215,-71,-132,-199,-96,138,-42,-207,87,10,49,105,127,224,-223,94,164,-115,51,80,255},
{-147,-233,-99,-13,-237,-214,-233,-37,229,34,-109,-258,228,-124,-221,218,232,234,-14,124,209,-164,38,-34,-17,93,106,163,46,-151,-232,-230,183,0,209,-59,-146,3,259,-164,-11,158,180,177,35,157,-185,234,155,48,-172,74,-107,196,120,40,-223,167,266,-13,90,-208,84,-100,-41,-151,252,52,84,-126,-222,-135,210,229,-163,-180,-243,212,-248,42,169,-173,77,200,5,34,-213,-195,-167,12,-7,-186,-186,-174,-190,97,-54,-233,-179,-18,186,-245,64,73,-192,-33,-161,43,111,-68,30,-138,183,-145,260,82,41,-206,8,-177,-149,-1,207,-205,61,91,-267,127,-251,-142,112,155,123,-55,-78,118,-40,-70,-78,-200,-165,-230,-80,-37,97,200,-104,-124,-155,-50,62,95,-152,132,-223,-12,114,-106,-177,115,-180,195,-58,73,209,-257,-42,52,48,116,115,238,-48,-180,128,27,16,-136,-243,-121,-60,-116,-217,140,-66,87,78,89,6,20,11,45},
{-95,-22,-190,-72,-58,-149,61,256,-78,77,162,77,219,41,-121,-138,-45,-100,127,-159,196,-34,118,65,155,-182,-88,23,-149,-144,-62,191,-58,-217,-40,40,-161,173,107,-115,-198,257,100,-126,-74,22,176,-219,-107,268,144,-50,104,-1,-129,-221,26,4,50,-116,133,-215,247,-142,266,230,264,-126,-86,-162,176,-169,-227,-2,120,-145,4,107,27,-179,144,-203,230,-25,-5,-187,70,-137,72,78,-75,157,-55,48,-240,-76,-81,203,-184,136,235,114,-173,131,-139,-219,-113,20,-135,-123,-135,-178,-26,68,187,121,-75,-108,53,104,-81,-109,-241,-177,-82,137,-4,-37,200,-71,-103,-35,-174,-178,-58,89,-228,-122,212,175,50,208,107,-49,-1,-50,172,188,50,76,-252,-144,-181,-20,15,19,95,-110,-32,22,10,16,-185,-8,-215,107,-108,4,-75,38,223,-192,225,69,49,-79,-241,-114,246,200,9,-11,-88,236,103,209,-109,154,-45,231,251,-46},
{219,92,4,25,-128,-65,-62,-236,-126,-112,-64,-202,-174,16,206,232,29,110,87,155,-220,-139,-197,-5,-76,44,-183,-71,166,-207,-150,32,87,-237,215,226,-227,-172,27,180,184,174,-145,198,167,89,-191,175,-199,42,152,239,34,-90,172,-109,-32,118,-49,-196,-151,22,0,207,-53,219,144,231,-134,267,236,-102,87,-165,-88,238,-242,-278,107,166,-218,-228,60,-174,-169,199,-9,204,115,220,-3,28,-135,-29,146,-40,-72,72,-82,-154,-169,182,-146,110,68,214,258,-209,93,-45,-210,-68,22,-246,133,-18,21,201,160,-98,-195,79,130,-247,-55,-142,46,-245,162,-206,184,-202,-275,105,-17,-111,-51,-166,197,-195,-92,230,-123,-138,-188,64,-189,-247,58,55,-191,-52,102,77,-129,-184,-94,199,-41,-234,107,-5,-1,-54,-112,64,112,149,-91,-185,-25,43,202,-142,233,256,-200,184,170,-131,-51,-14,-184,-133,41,-203,105,179,107,242,1,-41},
{-256,-79,-184,-5,-249,-254,194,128,-201,-178,134,218,-234,208,1,-210,85,199,-54,101,120,-59,55,112,-127,2,84,-195,-216,-2,-75,95,-27,7,-186,64,-76,108,-50,-167,-230,199,-52,-178,199,44,-107,-152,175,15,-94,215,13,-222,147,141,196,-58,-176,-220,-146,-141,107,58,19,126,-24,148,-135,19,89,-54,165,-138,-166,218,-122,148,64,-18,-87,180,144,78,147,143,230,101,-258,139,145,172,-149,-78,220,-216,81,163,61,-123,144,-128,-238,-230,129,204,-64,238,-201,-148,131,122,-258,-32,246,165,-169,75,-92,-126,-46,100,-139,-223,61,-260,-29,39,238,40,-230,-169,47,-113,55,-277,147,97,-180,62,1,-207,-261,223,-92,-201,206,-242,-122,38,-66,-155,144,-198,-271,-233,130,-240,-219,-119,-47,102,94,109,-77,146,157,-115,83,-34,-171,152,28,115,-177,24,53,-112,21,118,32,-15,77,-28,-166,78,203,186,155,25,-25,72},
{-55,172,-26,-133,-111,151,-247,-46,-15,-118,-25,105,2,59,-74,240,151,49,214,69,194,135,-149,-217,193,167,144,-124,52,-56,138,-15,-51,-84,78,-177,37,-46,-204,35,-13,152,-18,-39,-73,121,4,-220,198,182,29,-226,166,-8,-208,177,-27,160,104,153,259,22,-141,-8,-83,-127,-16,-233,171,-29,108,107,-188,12,189,193,130,34,54,-59,69,246,-107,-138,-49,-80,-92,6,-159,54,-29,187,-72,145,-225,246,49,-153,-189,39,-15,80,42,-136,171,72,141,-140,-87,162,-6,-14,104,96,-174,-166,-116,-181,226,-28,184,180,198,-178,-127,222,25,90,93,-180,238,171,165,-157,47,-204,-227,-86,-177,98,-47,-50,-148,-77,-122,229,-171,-61,-97,100,61,100,32,-31,-91,170,-76,58,83,38,-237,-163,174,-27,143,114,198,21,54,202,234,95,8,-197,-24,100,-206,-88,203,117,219,6,249,31,38,122,19,78,-1,207,-94,-60},
{-157,73,5,-92,-185,220,221,76,165,85,-182,-85,-238,-25,-153,-41,-168,125,102,113,91,229,229,114,202,-71,-81,47,243,-18,-68,231,-100,160,262,143,-62,83,143,221,-222,121,-142,197,69,248,-122,186,-140,-186,3,46,219,-28,92,89,261,240,-19,50,184,173,-202,231,162,177,35,-100,-19,198,144,-127,-12,188,146,-244,225,0,-149,77,-235,223,-235,240,115,-195,149,-123,100,-83,129,60,36,220,121,-8,-221,34,84,150,-63,-4,179,-206,-142,43,-120,-51,138,-166,-81,-68,-236,-134,68,202,115,-54,-104,-71,115,248,-152,-68,-171,-186,57,-28,181,141,21,82,-130,-49,92,-205,-67,111,-224,129,68,130,206,107,-212,-199,230,250,-94,-164,-204,-185,-103,21,-35,258,80,111,-33,-242,154,3,239,139,149,-91,192,175,-186,100,11,67,-131,110,80,-264,-110,-270,132,-168,153,11,-189,131,46,-147,6,-221,221,-265,195,184},
{167,141,43,-60,41,-241,238,97,-163,158,191,173,-7,225,160,42,231,140,-222,-52,-23,177,-158,-159,-187,146,76,-47,91,57,-104,-224,-209,-23,-68,-17,-60,-53,221,203,-16,-193,112,98,-70,-73,10,38,138,97,-166,-57,-191,-186,218,-85,-80,156,6,252,-243,41,-73,-50,-151,-119,-99,262,-61,-182,-82,-71,-223,-192,-79,-189,-141,190,-153,-172,-20,42,-32,122,154,-170,101,-209,-272,-265,-238,201,199,-178,-252,-254,20,204,193,-218,-75,69,-54,-256,93,114,-164,-17,-95,155,-159,27,191,187,230,-251,-202,-233,-157,-174,-172,217,-181,208,-7,80,175,211,-5,36,234,238,41,39,33,-109,84,-161,37,27,85,-218,188,-19,61,193,-75,35,-210,240,-113,110,-165,-94,-134,-93,61,-38,19,-49,46,-94,10,-184,-75,-199,34,88,103,193,136,-92,-75,-57,160,-263,-134,83,97,205,-38,198,94,25,-38,6,-159,24,-168,107,-159,1},
{-82,266,-237,-206,104,85,-172,-127,173,243,57,-169,-114,-87,-116,-258,-125,-7,-181,176,-240,217,210,200,81,227,-111,-71,216,48,-180,-65,-35,116,-8,105,163,-240,68,119,-231,162,118,-255,-138,149,-22,-168,-249,37,-75,247,175,-177,-231,141,-212,-46,62,232,-189,-124,-138,-132,46,169,-69,-145,-206,-15,-132,76,-224,-122,-228,-175,92,-58,74,-274,-133,-39,-196,48,36,79,100,11,117,-255,236,-124,-86,-5,13,230,93,232,-148,-79,212,-40,-173,-177,-186,-63,-24,-145,-208,-198,49,223,-74,-202,-142,83,210,142,-194,-254,22,81,41,34,98,105,41,102,207,-195,184,42,21,-159,184,146,236,195,-95,165,-32,-214,79,16,13,-104,-110,-210,-208,-242,-4,-150,-35,0,179,47,-89,-210,-174,-251,-228,-84,-124,-115,-190,27,-124,-172,76,-175,155,20,119,-98,-216,15,-92,-170,26,-81,106,-263,-97,215,-211,-235,55,150,-88,171,-96,-24},
{232,-73,74,-245,-19,162,-92,-167,-62,-228,50,196,-124,156,214,-245,228,168,123,-255,16,-273,201,-96,-33,70,-184,-233,-271,-210,-207,-104,1,260,135,-178,247,60,121,-130,-177,56,-114,60,-31,-106,-240,78,27,-1,-34,-149,10,-120,-41,178,-60,-194,56,217,143,-184,-249,-26,146,139,220,-38,174,189,150,119,-137,91,180,118,201,-122,36,143,10,144,-46,-37,-198,-130,158,-237,117,211,238,217,-142,-44,-248,-236,152,121,52,-128,122,208,-242,-99,45,-100,-130,-172,0,-162,-22,-40,-176,-24,145,171,192,-154,-244,10,-200,1,205,-144,-51,1,-138,202,68,-189,-230,-166,-225,-102,-145,130,-141,144,211,-240,-169,-55,-207,131,-153,-82,125,6,-254,199,224,-196,-5,135,-146,-124,184,-130,163,47,-15,4,-106,-21,141,-69,-110,208,-72,-25,-37,133,-51,-237,-22,-253,102,4,-41,-252,-81,-223,-29,127,111,24,118,-65,-228,26,19,-240},
{170,-13,-44,11,-208,117,-122,-77,11,17,205,-16,-155,-192,233,19,-246,-65,98,231,-45,145,-191,80,128,133,-168,-217,-77,-34,-25,154,-200,-197,124,140,-71,-148,68,191,100,-126,-108,15,193,23,97,-126,-92,-22,251,-33,204,174,-156,-192,-173,-221,161,218,213,64,134,-82,254,191,-28,-84,107,190,-12,-165,-94,-151,192,-42,16,85,236,126,233,231,-183,-207,0,89,97,108,143,-261,218,-77,234,-61,-50,241,-26,59,72,-49,168,61,60,10,-118,-136,132,92,-11,-192,206,205,197,5,171,-202,-275,-184,178,-270,39,98,-21,-148,-158,98,242,87,113,-144,40,220,78,-47,-101,-166,60,-10,-30,100,-234,155,-115,141,-133,-205,-139,220,129,133,195,76,-214,34,-214,37,54,-77,-63,22,53,273,-77,-49,-214,-179,-31,188,-229,-202,180,52,-187,13,217,58,-214,122,-91,62,-203,24,-48,-14,26,-235,19,112,172,-205,-138,-146},
{60,65,-136,-101,-49,-229,141,-34,-212,-157,15,-113,-230,196,194,-157,-227,197,90,56,-246,-163,-149,-175,-65,50,-39,55,84,-120,20,242,105,-79,-178,92,-166,-14,240,269,90,-119,-106,-109,-157,269,-1,232,126,-98,241,-162,-20,-34,189,124,-31,199,-179,-46,-115,206,-99,60,205,-129,-249,-78,89,-248,183,-95,174,5,-270,-181,21,189,-94,212,-262,108,-106,-192,123,-6,46,-134,102,219,26,107,4,-263,180,-154,234,-15,247,95,-106,-52,-44,46,-204,17,8,-205,-189,-34,78,184,50,77,224,-4,-259,41,-35,82,-108,161,-218,-26,-180,-52,-106,215,-58,-157,-78,227,-19,-200,32,39,-5,-88,-168,-260,-183,135,-195,99,-35,31,-4,181,-254,-44,-131,-196,-171,82,-50,-152,190,165,36,241,-150,-10,-186,-221,-79,78,99,1,44,75,-211,218,-168,-36,-127,117,-279,10,-134,-105,-250,31,-261,-258,-247,-201,-250,-203,-218,201,-102,-254},
{-72,-104,-171,217,169,181,-259,190,88,-5,74,-193,-63,138,-150,-67,179,-243,-54,71,-5,-143,135,-68,115,-59,215,-28,-23,17,-227,75,244,-193,-69,135,-73,199,197,188,166,209,-241,-218,-195,161,116,204,-161,56,23,-4,-6,155,219,232,183,13,59,47,-162,-227,-161,83,-200,57,-15,-110,219,-242,-113,-41,-186,-124,-205,-81,-228,-208,-160,-103,213,-103,-81,-156,96,89,121,-7,-184,98,-4,-66,63,1,-265,201,157,-83,-175,3,-246,173,-35,-112,53,94,-253,186,15,68,-114,-2,92,-237,6,-250,111,247,97,-123,-169,90,-144,166,-76,-179,-79,-100,103,-40,192,164,-18,-151,-99,-131,-162,-153,-271,-226,-142,-150,-169,14,-66,-175,144,136,-209,54,195,-267,50,-231,5,-103,-53,-177,-184,-127,-224,-128,-104,119,-89,15,127,242,-44,178,-200,-138,52,0,-117,177,-21,-97,-96,-218,98,-159,130,-91,-55,-101,163,168,-170,-78,-136,123},
{-116,-98,-227,-228,-186,-162,-178,-257,-222,-147,-272,49,21,-15,82,-46,164,-76,143,-205,-163,83,-67,-39,-138,41,-19,-97,-146,194,82,-69,-100,213,234,253,89,-233,16,-104,149,45,-236,-200,29,66,214,230,91,133,153,230,8,-85,50,-40,25,-170,140,139,-123,238,-66,-177,142,-98,99,-8,244,184,235,255,178,116,-204,-140,-178,106,-110,209,107,-121,-21,94,-23,-180,-261,44,67,-90,139,129,-223,253,-227,-98,153,231,103,208,122,-212,215,-187,-215,-60,-278,-23,-175,119,-264,205,22,-82,199,-77,-200,-223,-127,144,-74,225,-146,121,90,-130,237,68,-76,-123,43,-66,53,-9,163,229,-75,110,42,156,-223,128,45,83,157,-245,172,94,-44,128,210,256,170,22,43,92,237,-218,70,-2,-78,-119,-221,188,-71,119,201,-20,-62,-230,-11,-150,34,39,-77,138,-215,-250,109,-217,135,60,-73,-25,-192,-158,54,-172,-169,-97,-122,63},
{66,227,-93,-27,-221,-95,90,-45,-191,3,-154,51,-94,-65,67,-59,237,-185,-27,36,-154,-51,-128,-167,98,-261,-82,110,223,177,146,-187,-219,-22,136,39,-34,152,-231,106,169,-51,-233,-211,116,-231,-167,167,-182,23,184,75,44,127,-29,45,224,-135,101,-218,-205,-26,-37,3,104,-14,66,-147,13,113,-204,-211,132,-77,209,-224,163,200,198,-235,134,68,-102,-195,143,-64,-43,145,235,16,62,-76,188,35,-4,201,-260,-188,113,3,-8,-38,-150,58,-95,-218,144,-117,-57,-101,-65,10,67,-220,-246,-60,-89,-36,-259,-5,11,-114,-73,34,127,83,188,-117,-71,-83,-132,-112,58,132,-198,-89,-145,-220,-166,204,20,18,94,-71,-13,-268,-234,0,-205,-204,-93,-243,144,-144,167,219,-174,-134,79,-160,-50,-148,-143,-169,73,-15,-125,-136,259,2,103,-198,-81,-17,-238,-133,76,47,-186,226,147,137,-237,-20,172,228,-203,-150,-64,224,74,119},
{8,173,-182,-231,206,-121,-168,61,-158,-48,205,-35,-78,-35,130,-91,81,55,-8,-261,-6,-102,-90,156,-127,227,-110,-59,190,-100,-31,230,-128,-190,-167,19,-247,-233,-253,-132,243,108,-71,143,-69,-7,51,-5,92,60,106,-178,63,140,218,-195,-42,141,131,-184,-123,73,106,197,-233,204,-162,129,54,137,-96,137,-14,114,214,-72,133,150,69,-247,42,-34,-206,89,-91,229,-226,156,-64,-267,-179,110,-224,62,-26,-248,185,102,-225,-241,-130,42,224,-137,-163,25,-67,-99,52,69,-79,34,45,-14,-62,134,-262,-242,226,11,140,136,-230,-45,-27,-170,-234,205,145,17,98,220,157,209,-183,-185,216,105,-31,-195,245,-31,-224,-23,246,-124,-3,149,108,178,60,245,155,163,-210,193,181,-246,172,135,153,255,118,72,124,104,12,-245,171,-225,79,-116,-75,227,78,-24,123,189,-151,-58,165,151,-148,149,-200,49,-168,-4,199,150,-66,144},
{-9,182,230,-110,55,-80,-207,-57,-121,-239,-74,113,-133,-117,-47,-138,227,-189,-191,2,-216,-184,127,263,259,-88,137,-149,-67,-221,-217,68,132,81,-193,-238,-101,-111,-54,-247,-85,30,128,233,164,107,-3,-31,-60,138,-243,85,-76,75,-13,125,-19,-21,-142,63,-226,83,-22,79,240,183,189,-156,203,-209,173,-22,-116,-165,194,-44,-42,-129,85,-101,-99,77,45,-92,-96,242,-84,-143,216,-118,195,-105,-164,-88,-219,12,-72,-195,-30,128,-153,-178,207,-97,229,95,-189,65,53,96,-227,-161,59,-67,203,56,-193,66,13,79,-240,-161,-99,-179,-88,-53,239,-143,-7,-166,27,-164,124,-199,159,-77,-147,-132,180,250,-87,-9,72,115,132,148,-88,24,226,279,153,-222,-220,186,274,-195,273,-144,165,-146,-96,176,-39,-32,-34,12,160,200,18,155,86,-50,-237,-52,-197,37,-12,-50,-258,159,73,-232,-174,-205,207,-265,-252,102,-245,-263,-240,69},
{-25,203,206,190,-187,193,234,76,-207,103,-166,66,-6,218,156,-64,-224,0,135,29,-186,-1,49,-273,-45,220,31,-162,221,-142,-92,-176,-47,-107,-51,-217,-215,-174,20,-3,207,210,-11,141,200,-255,-35,224,-205,-40,231,28,-153,-32,70,-242,217,-51,16,24,224,52,250,-161,-156,-210,-101,-5,128,121,197,-229,21,153,150,219,-132,207,143,-257,-12,222,4,-138,-78,-205,79,-238,215,-64,-127,264,227,60,170,-162,-126,-65,-124,45,2,-86,2,203,-39,-20,28,-151,-37,-151,217,155,146,-139,-111,90,8,-32,107,177,-94,-119,208,-156,-90,51,191,-32,72,-49,92,-234,164,-46,152,122,-200,-23,96,228,28,73,93,-45,-242,27,211,-120,54,66,213,-138,-200,24,-220,127,-32,232,61,-29,-225,-25,-207,-104,-205,84,-41,169,11,-239,-53,145,-88,181,133,-179,-205,5,-237,95,194,200,-277,-42,53,-51,222,-44,-203,36,181,226},
{178,-66,-134,-120,-180,202,-143,-26,18,214,-179,227,-190,187,5,-122,-188,232,204,98,-107,64,-211,-125,-154,273,211,74,-127,-224,-185,-197,104,-102,-229,-133,102,-196,-63,261,-11,80,151,239,191,-196,-12,129,89,-44,-203,258,-247,-22,-66,246,-76,28,148,-115,21,239,159,252,133,160,-207,-158,165,214,95,123,186,151,-29,-233,-35,154,-235,-110,167,-157,113,-146,17,176,-23,208,31,265,-216,-95,63,147,-225,28,-249,-25,250,-164,-198,101,-121,-207,201,-127,230,-104,97,145,73,-101,68,75,-219,14,64,-169,-133,-103,-45,-80,234,-243,-67,183,-75,-238,58,250,-118,-225,183,110,-60,231,109,144,76,-56,-208,-205,12,196,147,-175,-189,-56,215,29,-194,234,231,223,37,75,24,-46,116,-201,188,-166,61,23,0,242,-179,-191,45,-121,51,-143,169,144,13,129,-244,-119,109,46,55,25,239,201,-225,-199,65,47,137,-44,32,23},
{253,-112,113,-200,201,156,-83,-76,115,-166,36,-164,69,142,-163,-133,-23,171,-134,-240,-18,-21,-130,55,-48,136,8,-194,-249,-170,233,-98,-39,99,0,-108,-214,-49,-138,-17,270,-160,-130,98,-59,219,-132,36,201,153,-178,85,-206,-97,-192,-102,40,-41,-234,31,123,-15,-253,145,-230,-138,112,41,111,-39,-204,-227,-35,95,-104,85,-149,-100,99,208,-102,140,36,85,200,-137,16,100,122,-247,-82,197,-233,-215,173,-120,-195,-187,-115,162,-171,-44,27,-35,269,-226,147,181,-49,-154,-157,108,-11,158,-22,-71,-82,137,-90,51,-42,-66,-267,109,136,-69,22,152,-136,-162,205,-173,-6,132,-138,-249,-66,206,191,225,197,-110,215,-103,156,211,-182,67,-46,177,50,-56,54,-95,0,-194,135,233,-104,111,103,78,-182,227,-250,-210,-217,90,86,-11,129,47,102,-274,-80,-66,-18,157,-221,49,-27,61,-9,-196,-17,184,-58,52,-214,152,-240,-81},
{121,135,-228,-55,-99,-222,222,-141,-177,-210,-49,-7,194,253,123,-26,-235,207,-63,-190,-46,57,14,75,-42,-212,-247,124,-249,187,-133,123,190,67,-47,29,90,37,-95,74,-132,-124,165,-162,38,184,-135,-143,-170,-175,-43,-132,-89,127,-19,160,156,17,42,158,-232,95,85,193,-230,158,242,-16,112,232,-159,-203,103,-22,-223,-102,155,182,-146,-53,202,-87,55,-128,-34,111,39,-77,104,-276,-44,58,-139,-73,236,66,104,71,-177,-62,55,26,-261,-96,158,161,30,-28,-97,-154,174,-29,-219,-123,-144,161,-86,4,-242,212,208,-233,259,-183,32,-40,-136,230,-248,-154,99,-20,254,-43,179,-230,-168,-184,-34,183,-138,76,187,109,180,256,114,-62,-231,222,-173,45,-37,118,-260,1,245,-117,-47,169,235,6,141,21,104,163,145,-237,-27,254,-143,-63,-158,138,236,170,-108,63,-237,245,-137,-192,-84,221,-79,183,-17,-42,108,-16,-128,-77},
{-261,-127,55,190,53,-57,-63,219,107,-176,41,119,106,230,-89,-177,107,19,78,63,164,29,-97,212,172,-217,19,-145,-151,13,202,-201,186,223,-139,45,-115,182,34,262,-8,33,98,-228,146,-90,233,158,155,12,182,60,-178,-177,224,-204,144,-195,-202,105,164,19,30,-131,-51,-239,-15,214,-7,-107,190,-16,-28,109,77,62,-63,-184,81,-82,101,-242,-174,71,52,95,-30,-226,-206,161,212,-111,214,176,233,23,258,-24,51,134,48,85,205,-99,-67,-35,-76,-175,-137,-159,170,-95,-54,44,182,259,-71,125,1,199,225,99,70,242,-229,52,-226,-205,127,-120,8,-79,-165,117,-171,-234,1,-230,-226,-205,118,118,205,221,27,-150,-200,212,119,172,169,-157,-184,145,93,-146,75,-74,27,36,-218,-186,-73,-257,22,106,220,22,90,31,89,214,120,-135,-13,35,110,42,-52,-21,-26,184,154,-140,-99,-237,-142,-56,-191,-173,86,94},
{-139,-17,78,143,126,92,65,-105,195,-165,-113,-235,125,167,-121,-11,-21,160,-59,50,-162,-52,240,152,-114,190,45,-165,162,-235,112,-100,1,-26,187,191,-30,6,58,219,38,200,91,-205,68,-42,-203,180,-69,208,126,-198,-122,-141,-222,-200,-104,-42,-89,60,139,94,-48,-253,-177,197,-175,245,11,-211,201,269,-75,-72,-115,-74,10,186,131,67,-150,-34,-162,-59,-88,-38,140,-179,-185,155,0,84,-53,-31,-49,26,-120,-239,197,0,101,239,11,43,205,75,-207,120,71,0,203,-148,151,-82,-149,-179,-219,108,-219,-109,178,248,256,150,-145,-177,259,66,-190,105,-104,127,-229,-102,242,24,35,220,32,-115,63,-164,-33,29,-4,86,-226,151,-77,-226,-154,-30,55,242,-11,80,-28,213,207,24,95,178,-16,154,-33,-33,161,-9,177,-8,244,-169,-232,0,-74,-216,-77,-51,-158,124,153,273,-158,264,92,-96,53,-36,-255,-112,93,-139},
{6,-188,-78,115,-95,-119,103,194,172,253,-63,220,220,-2,-36,-25,233,-101,27,-15,147,-102,-88,-221,165,0,190,-196,181,163,200,185,-206,178,0,-157,158,-147,118,150,1,106,-153,-166,-246,-153,-214,-117,174,126,-42,89,263,220,-7,159,237,54,228,104,-45,96,104,253,179,19,-102,241,-118,171,-226,73,250,194,-5,140,-230,107,79,-86,-183,187,60,-267,153,-76,-58,-8,-204,-189,106,148,-186,-98,-235,-18,-117,9,13,65,-37,170,86,-149,52,78,57,138,13,-149,44,137,89,244,-133,-180,-23,69,-231,-229,217,2,57,-24,96,228,-170,-81,243,100,-137,155,149,197,232,63,50,-154,10,-33,83,-65,201,-44,197,-74,-195,-201,-216,165,185,62,-108,-177,68,-202,-10,71,77,137,-40,200,-47,21,-124,-209,-242,152,202,216,-224,116,144,-7,256,-92,211,144,-36,144,-120,-201,84,118,-159,154,8,-216,-108,164,167,153},
{-11,63,221,181,132,-101,76,146,26,-193,-175,-33,-8,-171,-55,-112,45,-56,-85,212,43,99,170,-23,-211,185,117,201,109,69,-1,-32,-7,-178,-174,250,-45,-206,110,205,226,192,240,-130,-155,-128,32,163,-4,-98,18,-109,2,230,-25,218,-174,149,-207,220,45,96,173,86,-148,220,-142,183,154,-176,215,214,219,-218,194,116,9,-120,-101,113,-257,-90,143,-95,211,53,97,-162,131,-66,184,117,-89,69,91,144,16,45,140,216,204,-114,-191,6,118,28,201,-161,140,191,63,154,-84,-197,-51,-103,84,46,269,-2,-28,218,-178,158,39,-15,-61,-234,-31,-53,-31,-2,-7,71,-83,58,-132,-24,12,124,22,173,-226,-87,-251,70,119,-232,188,139,101,-4,83,76,74,131,-238,-119,-43,120,39,-8,182,165,-41,-37,-106,130,212,-50,17,-177,213,-137,-64,191,-208,209,-244,-245,-53,-203,97,-64,80,214,135,-283,-243,-279,-181,-185},
{-76,-166,-91,91,-19,267,68,160,226,-207,139,-81,-88,-225,70,235,-8,-224,-31,96,-4,-213,-214,-184,75,-189,21,92,157,-71,88,31,158,14,-125,-55,189,-161,181,148,-81,121,-38,-123,-120,-152,30,-19,83,-207,-253,120,188,-82,94,242,223,-132,-163,147,58,63,-188,-58,-234,163,-105,-189,86,31,214,27,-90,-38,-127,104,186,235,168,-136,-90,-126,139,-50,271,-150,26,271,-211,-78,234,-40,156,-76,-35,53,56,-197,127,124,-92,2,209,-244,177,-130,-31,23,173,120,78,158,-115,27,34,201,1,-230,-142,81,-20,-49,-64,177,-195,-99,186,73,-182,73,-19,-71,19,-34,-158,112,173,-2,-94,-20,166,37,-12,1,209,-240,201,-220,87,-257,-133,-260,224,-179,-172,19,83,-35,61,-183,-45,93,39,-57,123,157,184,-185,-132,147,-159,18,118,-235,216,170,-160,-187,-27,182,252,-104,177,-101,93,115,36,166,-63,-136,-222,234},
{176,49,80,213,-168,16,60,-118,-25,133,-198,-50,-103,-104,50,180,-258,-220,143,18,-96,-199,29,-139,127,-138,-228,110,173,-104,42,46,190,-165,224,197,126,140,196,135,191,-129,-222,236,-190,-104,-94,-24,-20,210,193,-69,-139,105,-40,138,-17,83,-96,-196,112,-170,30,-110,-7,-117,241,204,-3,-195,1,119,-10,-98,-51,-136,-231,-220,-97,-201,239,-141,-164,-54,20,-209,-81,0,-84,-156,0,31,-86,-19,39,-86,-98,-118,-240,213,-101,-96,243,-32,-134,168,188,-56,163,141,-134,26,227,114,198,-131,206,-194,-106,-245,134,77,-234,-243,154,-92,17,-98,-70,149,-151,245,-55,74,61,52,22,33,96,137,-170,179,-71,-74,-20,-210,-107,-209,-94,-110,188,100,-56,1,119,-106,271,-88,113,228,-66,151,34,-110,-258,74,-137,208,243,211,232,206,60,230,143,-30,0,-214,-101,50,193,-156,160,-191,150,9,-117,29,180,178,-54,13},
{105,-249,145,-116,-41,-215,-214,-239,-10,-54,-79,175,-128,-16,201,94,126,56,239,-105,-56,118,-222,173,-207,107,-194,-100,-93,-35,115,194,-67,-177,-8,1,-2,264,120,121,-197,188,20,-119,113,182,8,-41,-197,-68,55,200,-207,221,-4,-94,-13,72,-176,-210,201,180,-143,-167,74,-200,155,-231,-199,124,-232,192,32,226,-196,-63,-127,-247,85,-147,221,-207,227,178,-207,49,38,4,-198,-191,-133,14,-11,-259,-259,-197,-49,-81,73,137,172,-210,-161,1,83,271,85,-203,-115,140,230,-168,-183,-42,97,11,-194,-74,-231,-221,23,109,187,-205,-160,165,-241,92,-137,142,197,-38,104,189,-49,44,202,-174,150,-120,183,-225,-163,-198,-73,223,2,-44,-234,-240,-247,-226,36,116,-66,-119,-29,208,152,-56,44,241,-70,-155,27,-256,-253,-183,-63,-264,-207,75,139,48,156,198,72,-280,-66,-226,186,-214,143,-147,-148,23,-182,-86,-36,-155,-195,148},
{-22,-23,-244,-96,23,195,-244,-232,91,131,177,238,-89,-158,-70,48,-29,170,-56,-193,-13,-222,-151,-194,164,143,1,131,67,-153,-24,0,82,75,13,-42,-228,103,181,179,-34,-88,201,-91,150,150,12,196,-23,-238,53,149,-181,-125,-203,202,119,-163,-155,151,190,223,-146,-17,-225,79,210,-181,97,-155,-34,94,-124,163,-140,-164,-270,-115,110,-120,45,-12,139,148,187,-216,43,-12,-102,-116,-203,63,130,214,107,0,-157,-88,-137,-219,-118,-104,22,89,80,123,141,192,-94,-87,-127,156,81,-120,-118,-23,-147,174,221,-184,263,-24,-25,-172,-32,-54,248,-222,-16,99,-61,-120,-117,71,106,-200,257,-135,43,249,170,28,-34,-192,142,221,14,-133,143,-116,70,158,-34,224,-39,69,112,-125,37,-3,-174,-14,-130,-224,89,183,237,91,-221,202,-28,-15,-171,-173,-55,175,232,242,94,-24,-82,-34,178,79,220,-161,116,52,82,-165,224,5},
{188,38,-106,205,-179,38,-19,88,167,181,162,110,235,-171,-206,69,-216,-71,-40,-40,13,21,-169,-58,99,-174,-241,-91,-82,13,11,-234,-57,227,118,-38,62,-37,119,237,60,38,-163,-40,-70,247,120,-17,107,-84,173,-143,197,-49,-18,-31,3,-213,-63,-104,177,-75,-186,235,-197,-249,-188,-118,-55,205,164,-161,136,-45,7,-210,-205,182,-177,-197,191,76,-1,-83,25,114,166,98,-221,199,240,-56,125,-209,60,259,191,204,130,-145,225,164,-259,110,-210,-201,-171,99,-80,-215,196,202,-226,55,276,-166,-143,96,-112,251,159,23,-139,87,-59,-74,-127,-22,121,30,-190,-64,-269,-49,-271,-251,21,24,-80,-17,71,209,19,44,72,151,-198,200,-237,54,-113,-94,-180,92,-36,-168,168,-217,97,144,-177,-45,185,-138,252,90,26,142,149,114,249,100,-138,-138,109,185,27,-129,153,214,200,78,31,-14,-188,153,180,-63,-145,206,206,139},
{-268,-64,-193,-130,179,39,-283,-256,171,-165,-115,75,-236,110,48,-50,175,194,198,233,50,-104,-230,-116,-155,-65,145,-73,262,-183,249,111,-118,10,161,-159,-234,-218,10,-119,-110,-178,3,-159,169,-45,49,-86,-197,-236,-264,-248,-32,-191,-130,87,-135,12,165,158,29,-170,-223,132,211,101,238,-103,-166,-193,-267,-217,-68,-142,-83,63,150,147,-224,-211,14,-3,-81,127,-97,-80,180,58,-159,-38,-10,-157,101,-49,-38,9,275,164,109,-196,-87,-2,126,97,233,231,-78,-17,41,-17,-119,-128,-190,266,-96,-209,31,140,166,52,230,248,-89,173,6,137,-103,151,-197,42,47,-124,42,-174,41,73,122,105,-17,-206,146,9,15,147,-45,-224,-194,-139,-20,-162,86,-210,-84,113,-140,231,-31,-160,126,111,-13,-182,-121,-159,202,-248,101,-48,-242,146,108,161,1,-35,84,40,-266,76,-121,161,212,-203,137,27,-173,-158,38,-190,-155,-180,-241,-52},
{-52,114,236,76,37,-130,-118,-205,87,180,35,191,-245,18,-34,-229,-250,185,-144,161,-273,40,-56,70,-74,197,16,102,171,53,-1,-19,-109,1,-232,199,-21,-217,-96,-253,32,120,72,132,-120,-239,151,253,107,253,15,-168,-6,-7,-218,87,141,-213,-96,-92,86,-202,-219,-64,126,182,237,133,-7,-3,31,123,174,-80,271,-219,149,-75,222,182,-92,2,-209,12,166,42,63,-27,151,-204,88,-66,151,159,-153,148,103,-43,28,-159,186,-24,-126,159,-79,34,84,-117,-50,209,-44,101,-257,-153,-197,48,-30,162,130,-25,217,171,9,-44,110,-180,255,109,-101,-64,-62,6,218,187,179,-151,-29,214,-68,11,36,-31,32,211,167,192,-162,-101,265,53,130,-238,208,-53,165,-14,-183,-199,141,125,-106,210,143,-231,-173,-205,-139,119,-225,-194,257,4,58,170,-148,-79,-214,-192,-46,-74,-161,60,177,-47,-177,16,24,-186,-69,-106,-64,74},
{3,126,-21,-226,-62,7,-146,-99,-223,-15,-190,96,-145,178,-94,11,55,149,-54,48,194,-77,62,-201,141,83,-240,-259,260,-121,-195,148,-61,250,239,-104,235,-154,188,174,122,-45,12,19,97,-203,17,232,-8,-223,126,-196,130,-21,-49,46,-46,-65,-229,57,23,-204,-17,-76,-122,-183,50,35,138,-50,-27,253,-113,241,-200,-216,63,79,147,117,238,-204,235,-201,109,-98,207,22,233,62,-236,47,-63,83,226,-120,-3,-103,-15,21,15,75,-65,-7,163,-48,177,-138,103,-244,125,-130,-225,-69,-8,178,-185,-125,-63,147,-178,-10,-147,59,118,-124,-215,119,169,-5,21,-142,-246,151,-135,161,-176,-87,-34,-219,125,-47,31,126,-136,51,82,-192,193,21,-162,159,187,-117,-63,-181,-191,-61,4,-257,-32,-229,90,106,-229,-18,239,158,-170,-202,-227,-142,231,215,42,-122,-166,165,-110,-14,-157,176,214,136,79,-126,140,-210,56,222,-225,-134},
{223,21,11,-103,-94,153,5,-217,-89,-30,-73,66,-52,122,-55,-173,67,127,-31,189,-174,-226,-34,77,-228,-7,-67,-101,117,35,68,174,-62,-49,173,-172,-30,-27,-118,238,130,-234,-100,-154,-121,104,53,-91,-49,-251,-122,139,168,189,214,-203,194,216,-80,-57,157,13,-189,-107,141,-27,57,-95,16,-44,-145,98,20,239,92,-170,155,-79,47,87,-107,180,184,239,14,85,229,-46,200,-21,-139,81,-147,-5,-74,-111,-9,177,-174,-130,43,-213,-108,131,-89,33,189,-126,165,102,261,134,-105,-85,112,146,98,-210,64,-146,182,57,-63,50,243,-113,129,-224,-74,25,-146,-110,-178,-27,-80,238,-109,-246,128,54,245,-26,-120,-225,159,-5,2,247,80,132,-132,-266,-101,-247,-45,-120,221,-132,137,-195,20,-34,-102,-145,131,-74,263,39,193,-214,22,110,144,-66,87,57,97,-199,-197,16,13,16,-137,-42,-242,114,207,251,270,221,189,-40},
{167,3,-97,92,105,-262,144,-112,135,102,164,-26,2,228,75,60,-115,-22,-54,-70,144,-47,78,229,-168,222,-151,-160,26,-254,-226,167,111,162,-167,-194,155,237,-44,-51,-181,-17,118,7,-101,-98,-76,-244,27,54,-35,75,234,-190,239,129,218,214,-86,-76,-94,114,120,-207,215,-107,255,-49,232,-78,182,140,78,45,188,-211,-198,-22,153,49,69,219,131,88,211,-155,-108,67,253,-21,74,185,177,11,112,34,-3,-135,-183,-192,89,175,162,-227,19,-82,-75,-157,13,192,-97,-79,131,-102,-63,147,226,43,128,-184,-44,-261,-227,156,-84,-109,-83,54,232,-232,112,-245,-226,-20,-118,-176,-103,125,194,-157,35,-241,50,-156,-166,212,184,-179,-238,45,-6,213,-188,32,-24,233,-256,-229,-116,75,-117,-60,-5,-231,-211,94,190,185,-162,-182,-121,-150,-2,176,-148,251,205,-117,13,9,201,185,201,-201,-1,216,240,28,-132,117,-21,-69},
{-242,151,-68,-165,238,242,-194,-212,80,45,145,149,110,109,13,-48,170,15,-215,225,188,-123,-78,78,147,45,-186,242,157,-41,96,-44,52,13,-76,-129,-243,-28,-52,-148,-43,198,-56,-198,-173,147,-100,36,31,-260,-214,125,-125,-119,-176,-257,240,157,53,-254,120,-148,-169,161,-165,82,-131,243,36,-168,114,-200,-70,120,-208,232,173,145,18,28,104,-30,32,12,162,9,-58,92,-51,-47,-178,226,-73,175,-239,-211,-48,-143,-129,-59,-208,60,-256,-116,-51,-136,-129,-236,5,-69,-66,-47,80,-107,68,-230,21,-26,-142,52,-112,30,144,21,-178,-51,-102,-181,90,196,226,-93,142,16,175,-119,-11,-150,-203,106,-108,228,-248,126,-128,-125,-139,-93,215,87,28,-66,61,-137,50,197,-50,-202,-26,13,90,22,-235,-213,211,38,173,-42,-126,115,-162,-41,-58,118,4,-100,200,-15,7,20,73,-215,-169,23,-6,70,67,13,220,-109,-161,-78},
{236,-148,3,-137,-135,-41,160,87,107,76,9,142,157,-171,-182,208,-58,-65,-164,-34,174,-201,-268,-214,-12,100,-200,-108,-85,-74,-260,-20,-128,46,32,-84,-150,-1,-119,249,206,123,-128,85,148,17,97,-77,144,-60,-123,220,-199,108,-83,96,140,-59,250,0,-181,-115,-68,-225,-221,242,-84,158,-129,87,-99,-130,-124,209,86,145,225,-225,7,-260,-216,-23,132,-111,120,158,34,-121,183,-76,-240,-95,-4,-3,-96,197,38,195,68,45,152,14,-148,216,-63,-82,-230,38,-217,204,-167,-65,132,188,50,65,212,-39,-271,-58,-105,188,79,-147,-183,25,-24,-50,107,-121,-205,-163,-6,-105,47,-31,51,39,-42,-245,183,228,-50,-88,-34,-174,22,-207,-98,13,79,-104,-229,116,-189,114,75,-137,-47,-200,-73,249,67,-50,-233,-50,258,-226,-175,-252,198,86,-55,-165,-211,107,190,-107,-75,2,244,-45,42,142,-151,194,202,-69,76,-139,-156,126},
{21,-40,-65,-58,-202,-80,-58,-113,-116,89,191,169,85,180,-43,219,68,192,240,-159,-208,264,68,-15,-95,201,-120,58,206,-128,74,81,28,-150,32,-85,-127,200,86,-35,224,144,-75,22,23,190,-88,-208,252,58,-222,-185,-1,-231,-181,138,95,-86,-88,-161,197,120,86,251,-199,240,127,-173,-45,-124,100,-75,52,-60,-57,-40,-7,-82,-218,167,-206,83,-48,-154,-49,-199,195,135,49,-155,-179,182,-20,-120,-45,54,-124,128,166,39,211,47,14,-183,212,-200,238,-205,-206,-71,-199,-121,189,-126,171,-135,141,-9,143,-120,-66,-73,-125,-17,-144,-58,-135,-178,-28,121,-123,61,121,-232,22,-63,61,160,40,171,227,-71,99,-180,-34,57,-180,-144,94,-51,-175,10,-109,-138,51,11,-220,28,-71,72,-13,-88,-7,-208,-207,150,113,-267,-243,-98,-125,-222,-11,117,16,-155,220,-98,-83,204,-26,-142,111,-32,11,113,-239,-21,-31,-32,-165,-170},
{-65,-179,-50,-26,-101,97,-110,74,3,-176,-66,-45,31,129,-110,-54,-240,177,220,-81,143,-217,190,267,99,30,-61,-201,-53,252,-70,126,-67,-187,4,-229,52,10,229,-19,-100,100,-182,234,122,110,181,30,-240,75,243,-220,-228,-62,-205,185,66,-17,-51,253,-72,-71,-166,-85,105,-244,-207,242,-249,-56,-115,19,-223,42,231,-159,-63,-115,140,-241,-3,-35,-232,13,-176,-60,152,-223,125,-43,-106,-69,-130,162,31,125,230,-196,-96,95,-76,212,68,-175,59,-7,196,-42,-207,-112,211,54,44,-209,210,-118,18,182,225,192,222,-85,-115,151,-139,-45,-109,-240,90,-117,-44,-154,69,46,168,-223,138,187,117,-173,-105,-49,-3,18,195,104,-171,-63,108,219,217,-99,199,-85,-201,-21,96,-108,79,137,-64,-52,2,-62,-93,-54,82,-15,47,-4,-250,247,158,168,-229,-8,-85,32,-170,-129,-227,-101,-176,184,45,134,192,216,115,224,-165,239},
{-253,57,-180,98,-194,201,0,-194,132,201,16,-35,21,193,138,47,90,122,-48,236,208,-114,-207,20,-85,-65,222,176,-166,-108,-211,126,-243,23,26,119,158,196,-223,-40,-63,-228,-170,-6,-140,-198,-232,-190,63,225,-78,67,100,112,-244,-149,74,-58,-40,-161,225,-47,-70,-113,-127,132,-4,167,34,7,-128,268,-140,-189,-189,180,-66,221,-14,179,206,-25,93,204,-119,152,-133,91,-11,113,2,-54,141,168,24,-150,-113,1,81,-233,-154,133,129,82,150,120,50,135,-22,-110,-150,251,-141,219,-85,60,-70,164,58,-210,-176,-28,155,261,-113,-53,253,197,6,156,-17,101,-104,-196,-43,-86,-231,249,-212,31,-104,-82,-74,-40,-188,102,83,-205,103,-102,239,127,10,-108,60,-134,-180,226,75,-152,-25,65,-199,199,94,129,-99,-210,-40,186,-195,198,-269,191,-138,-198,226,138,-39,-49,-67,89,-67,94,-207,-238,111,-113,-88,-114,-221,210},
{12,-41,-195,-201,-202,143,26,-207,-92,-132,82,-257,125,-79,66,96,7,-102,-53,-113,-228,-235,-70,-66,143,195,-74,46,-146,-152,-27,99,161,-60,-138,-181,-50,113,-181,100,-56,-81,110,-160,38,82,110,-106,-206,-239,-89,-248,189,-242,-245,138,-75,212,30,23,94,202,47,51,-119,-49,251,-12,-168,184,-102,249,-169,137,185,-10,60,-90,122,97,164,-101,-196,3,-197,62,105,64,27,143,84,-200,-29,-122,0,-155,95,168,248,-65,-177,-98,-196,234,-160,20,8,-265,-86,-123,-151,173,-269,224,-162,-38,220,-116,-106,83,-75,87,158,-173,148,2,-46,-37,-21,-210,-50,-65,238,-144,-47,50,223,-4,26,242,145,29,96,247,99,253,-91,227,103,-201,159,-83,-48,84,-24,65,-173,145,166,-48,-154,-92,62,79,209,-109,-184,215,-226,-151,-163,78,14,-263,-264,-267,-72,-130,209,97,33,98,-49,-107,211,13,-128,57,-17,-89,-203,-259},
{123,-130,-193,113,177,184,229,-48,89,-105,-199,-198,67,219,113,-237,206,171,241,-45,-106,-113,174,233,208,218,-27,-171,36,-64,102,-207,-73,-190,-184,207,-207,-210,-243,-224,264,-131,114,151,-4,-132,248,246,-237,20,-59,126,-147,111,61,128,-82,-161,-59,-34,-144,-240,154,-114,-188,10,85,72,204,-68,-255,-106,91,-12,139,-208,230,-195,160,222,242,163,-78,72,252,-145,-80,-75,125,70,100,46,-216,222,194,236,87,228,165,11,-233,-34,-56,47,-180,177,-132,-27,-67,190,-111,-174,5,-211,-224,-61,198,97,-2,201,-157,216,251,177,-181,253,91,-153,-114,-227,50,-205,-204,15,204,141,224,-54,-166,-12,151,128,-145,127,105,111,-127,-222,-135,-151,-31,-22,6,7,-221,187,237,-166,15,112,-84,-98,-254,-234,22,-100,-56,-190,-173,-3,255,266,184,86,-219,-3,0,-20,76,188,157,-162,32,7,261,63,-224,-234,23,266,-111,-137},
{80,-83,108,84,54,-108,141,-116,62,264,-166,13,89,-205,264,-117,82,-44,77,-15,-200,-24,275,-61,-103,-84,-189,-223,-199,-44,246,68,182,97,55,103,260,16,-85,-236,178,262,-15,62,210,-174,170,-2,0,-191,191,-222,51,166,116,-212,217,-137,-58,-116,146,15,-185,196,203,177,-106,-114,-49,8,33,-64,-65,-89,116,64,-147,55,-114,0,-124,189,49,-195,218,183,-189,11,-99,-49,-14,71,-105,206,-69,-182,192,-106,109,-75,-2,57,171,213,-105,234,53,80,59,113,-125,-47,-225,220,150,-55,0,23,20,47,264,-100,-18,219,-206,184,100,217,-207,-121,-182,-190,-194,-101,-192,-151,-183,51,204,158,0,12,-163,76,-70,258,-73,-176,83,-208,-244,-74,-3,-236,-177,-194,105,-84,-91,-77,-50,145,206,180,112,-111,-198,141,-190,-66,11,-224,-137,50,-216,-10,-85,236,69,-135,-5,87,-127,203,-175,51,168,79,227,231,-126,195},
{40,144,164,-119,-223,-40,173,138,-130,78,84,-211,113,146,-74,24,-1,271,-154,5,57,-33,-255,128,-198,0,28,-247,-111,53,40,-35,-142,-133,126,161,25,153,1,168,-249,-162,29,154,-214,-91,-227,18,207,-95,-221,-146,-52,-178,-143,-253,-241,30,54,-220,169,62,-220,132,-176,162,-8,-86,114,129,-240,-128,194,-51,34,214,-203,16,15,-201,-180,-192,-250,165,-230,-225,216,-138,256,-80,-262,-44,130,116,52,-66,-125,-142,16,-140,2,156,206,-94,164,159,174,-102,246,-16,-167,152,-8,-215,123,67,269,206,230,-76,169,21,-77,-197,-197,203,237,123,-114,202,145,65,-168,222,240,36,115,74,60,-44,-252,-245,35,-236,-61,211,-163,167,245,-242,-71,-149,-29,-167,154,-1,-48,155,-94,21,-227,135,63,-246,-223,142,-47,-47,218,-176,265,134,-5,-162,-17,8,-71,216,-233,-42,256,111,65,-30,239,123,222,195,-215,93,-78,51},
{150,96,-40,-84,-209,-143,4,7,263,-191,-201,-13,11,-212,0,-243,-263,-223,-237,5,-254,-137,89,-217,-212,-248,-157,83,187,-81,-279,160,198,-32,66,-230,-224,-36,-212,93,-105,85,-165,14,73,-142,60,184,-44,240,109,191,50,-122,234,65,-201,-2,-197,-228,132,266,-16,-105,99,151,-181,-48,197,197,-92,204,165,222,-71,190,-106,-126,-126,-2,-181,167,-254,196,214,163,-115,162,-112,53,-131,130,102,182,149,-71,155,-125,77,-159,41,55,118,15,-246,76,-266,-185,-66,-96,85,-272,172,5,-267,-208,-58,-144,222,-72,-7,66,84,-190,-78,17,34,208,-70,-181,234,-91,-138,117,135,33,135,8,-89,133,207,-7,-115,-72,91,168,166,-20,53,-81,77,8,-18,77,165,-152,-215,11,79,173,266,-159,143,-239,153,-185,-48,-50,213,51,-152,-121,84,-167,226,-210,44,-275,90,-87,208,158,6,-107,-254,-106,168,-52,-187,148,220,-95},
{-158,-199,-38,-157,149,-214,-87,209,-100,-5,-78,237,13,-227,158,97,-238,-259,-117,-13,-166,-65,-213,-132,-50,-109,163,-248,95,187,114,-86,246,-205,-210,-255,240,67,-181,-236,-182,-169,-190,-176,-87,3,52,116,-181,75,154,94,188,-109,228,-27,-17,-191,112,-223,-148,-69,280,-148,11,-246,203,-62,187,93,183,-17,-201,-220,-224,-66,-207,263,-213,-42,5,-228,-52,265,-160,40,92,42,-3,-219,216,-64,-96,-214,111,-3,-156,-138,-48,42,30,-199,41,18,-187,82,-267,172,-168,-82,-10,-34,117,70,-11,10,-165,-91,-2,-43,238,-76,139,-130,70,183,-222,172,-103,243,121,144,59,219,-81,143,-147,222,85,-120,209,213,-217,257,-142,-94,48,33,249,-213,-192,-189,-48,22,229,202,155,63,-165,195,79,-100,9,-55,101,-34,151,-112,-41,107,-218,-246,30,-69,164,174,2,57,95,-94,66,-101,-50,9,210,6,192,206,125,176,229,-3},
{-235,84,-121,95,-60,-76,-214,110,159,236,220,37,-16,-134,-135,-124,148,112,-59,-239,96,23,-150,-145,83,92,125,5,-60,210,159,110,179,-222,-118,93,254,-122,-234,-117,-221,155,-16,64,-90,19,171,253,-96,-216,-193,-155,-190,263,-26,92,-219,117,-17,53,-14,271,169,-9,-228,164,158,164,-190,101,251,-169,67,-200,-32,-39,-179,133,70,-96,-257,-4,25,-134,199,-45,219,214,-6,86,50,182,-160,169,2,-240,108,127,15,48,-187,-34,75,171,-132,-221,-44,-77,9,17,-222,-240,-67,41,-143,-191,-271,152,232,44,205,-12,-127,32,138,220,-7,-73,-79,66,-184,-151,-227,-198,-143,136,112,242,161,-214,-181,252,148,-32,-211,221,205,68,211,-189,220,64,4,126,214,-188,225,-174,148,-78,167,34,-187,-163,256,-196,-148,197,9,102,95,24,-200,34,217,-109,177,-35,50,-151,-192,-22,63,217,131,195,-75,76,107,89,-104,80},
{-86,245,-44,210,-63,-235,-216,-104,-160,52,142,237,30,-41,174,77,203,104,-127,121,-59,-67,-137,-153,-67,230,210,119,-53,247,186,79,74,68,259,-201,-100,212,21,-156,-125,-206,223,-20,-231,-201,32,-99,8,-226,192,166,-19,-207,-155,239,-56,96,-23,86,264,264,-1,36,-97,251,103,66,35,114,155,-114,176,-194,-221,-227,0,78,-255,61,40,-173,-175,117,237,-224,-33,-66,117,74,-213,-86,176,-189,254,-118,245,-109,-181,-222,119,233,-115,86,-55,-217,192,47,-231,-20,-51,87,50,-204,206,-154,79,91,-6,-189,104,-113,179,-9,-133,110,-152,-129,-195,-48,194,-9,-188,34,-228,-181,17,9,135,112,-180,-170,165,-103,50,-9,117,202,-141,91,231,122,224,-159,72,91,-35,-16,-236,-231,260,-135,-4,225,-170,41,89,-215,-160,-189,-246,-103,-276,-153,168,7,-84,183,10,-27,-89,-106,-7,68,-117,-81,159,61,-78,162,-31,171},
{-12,97,245,112,-74,167,-57,-178,258,18,205,231,102,-93,95,194,-26,215,-106,97,-48,111,-189,-205,-31,230,-142,-84,24,194,187,-39,162,211,155,11,202,174,0,-71,-217,-116,255,115,-192,-27,191,31,4,-96,57,254,-87,-86,228,206,124,143,173,147,-14,45,-42,38,-5,36,123,-45,-155,-124,-15,-88,263,-243,-182,-132,34,-236,-70,170,71,-23,-191,-238,-189,109,199,222,-235,54,-199,-181,146,163,33,-140,12,-67,-2,40,-7,-33,-219,111,-266,181,4,76,53,46,-58,-99,-156,133,-108,129,-123,-67,26,-138,-136,84,-52,-24,255,8,-154,-73,-140,145,-66,156,-71,-150,-198,-121,62,34,-209,-208,4,-44,-46,-37,230,-26,-201,91,164,-242,-199,-137,145,115,-18,87,-234,210,83,189,-152,-37,-211,54,5,39,164,-185,-214,131,224,-114,-141,-58,135,-113,-166,-194,185,-137,-238,-69,98,-65,82,-11,-220,28,106,95,-265,168},
{-1,-147,-23,63,157,71,-78,157,100,221,21,178,-208,-1,-115,47,-68,191,-152,-134,-36,40,-136,45,30,197,165,-123,-139,-27,138,-228,-147,-239,-94,198,-49,-269,83,40,-63,99,104,-229,-74,0,-130,-91,-20,239,-140,-40,-248,-130,-114,-112,38,69,-229,-49,102,190,61,-189,-159,-64,21,126,82,22,-6,52,97,215,-164,-165,65,-142,-75,-36,132,3,74,170,-215,-151,117,132,9,-196,249,-70,35,220,213,-97,-31,-133,216,-195,195,-81,-242,126,65,-241,126,-140,-141,70,228,122,156,-217,-43,-71,-175,38,130,167,-45,-226,213,-127,256,275,252,248,152,214,-21,57,-214,172,-175,37,241,138,238,53,-215,190,172,-133,82,-224,-95,-173,-213,-91,263,217,-15,-29,83,161,-54,63,223,-220,-273,73,-181,-65,-55,-231,106,118,95,-162,165,-51,84,153,-107,-183,-174,-108,-79,222,-196,116,-158,-138,-85,-146,39,220,208,-196,-122,-19},
{-99,133,-37,61,-75,187,-6,-11,125,225,-199,-257,170,144,-216,94,-109,190,31,-7,90,-70,-247,100,180,103,162,-173,-95,10,-214,-130,-75,24,31,237,82,-207,234,-12,-173,149,198,197,-90,-55,-72,201,253,-9,253,262,-136,-95,-221,146,-174,250,-161,-71,-209,10,-95,-72,207,119,222,-144,214,-197,252,14,-129,-49,190,-108,181,-189,41,-101,-159,205,-188,-160,34,-139,-263,6,91,185,44,-20,-218,20,-59,0,-47,-159,5,-128,224,-124,-160,101,-212,86,-148,129,-219,123,-230,100,162,135,140,-52,-198,88,-210,82,-111,178,-185,57,-50,68,-229,38,-250,172,-33,-25,-135,40,24,-66,-189,86,-146,-205,123,-281,48,26,13,-178,60,-138,-66,166,-40,-38,124,-273,40,108,196,126,126,-221,219,-48,-50,-118,144,-21,163,6,196,161,-115,59,-209,-14,216,-270,-77,-131,164,79,199,221,88,233,187,246,99,-31,141,-189,65,-154},
{-209,111,26,-180,178,-132,30,-39,-14,-138,-196,-51,219,-67,-238,-126,183,250,-176,-26,-258,208,-203,205,149,20,-109,22,65,-175,-219,-251,-175,-28,248,-150,249,-118,-203,70,238,-191,-59,248,-63,-211,-227,170,96,-6,-8,214,135,20,-130,227,-100,149,-112,-131,-26,132,-40,94,195,-69,170,220,26,-39,-267,-208,-9,12,-137,25,-138,-76,-152,224,211,129,-125,-244,-87,112,-25,2,41,126,-117,6,174,-29,-110,50,61,-107,-12,30,-188,-21,-131,-66,17,217,35,116,73,80,-221,234,-217,59,-115,30,-61,165,1,-122,121,-94,-53,210,-42,-69,27,-36,232,-238,218,51,130,179,-16,-15,165,-92,-8,-86,-235,84,79,-87,70,26,-239,136,-76,167,-233,-119,-232,-60,80,-148,-124,-261,-95,-213,-117,-156,6,228,-91,37,91,10,186,-145,201,230,126,225,233,139,147,-82,34,-206,-258,-64,-105,2,-155,78,-147,101,232,-143,-26,74},
{-43,-115,235,90,-161,-44,-207,-101,-12,-104,-19,-11,-196,162,-36,235,155,50,-193,243,-164,-226,-105,-142,-237,-237,41,271,-149,194,-165,223,-199,112,237,53,-135,270,-112,178,-232,-192,177,8,41,39,65,110,226,126,113,29,-137,-80,-182,-141,-186,-37,180,159,-207,-137,-106,172,-70,26,-162,-170,234,172,-33,124,157,188,18,-26,-244,-126,23,99,-239,1,-175,143,134,1,17,224,142,139,-204,-104,82,183,73,105,-79,-257,-250,107,-168,-23,-261,-19,-108,124,72,146,181,60,83,98,185,107,14,-36,91,-124,203,-108,-113,-61,91,-174,-81,170,-177,211,192,136,-189,-78,-166,-109,-59,-31,118,188,174,169,57,43,-88,-240,188,-32,116,170,-43,167,143,-66,-212,-235,175,-176,-12,-251,-105,-205,81,-165,213,-114,71,-140,192,223,44,145,-184,-210,224,-73,-14,-218,54,135,-190,-135,38,56,-141,23,-101,-111,-183,189,92,-32,240,-105},
{-103,-184,-168,209,80,-31,-236,142,-120,-87,-29,81,-220,-9,163,-193,-200,175,-57,-223,-230,115,-37,-226,154,213,45,232,120,-92,80,109,-238,-168,-199,-239,57,-213,211,127,96,213,-175,-185,-136,-129,-120,-226,-19,68,-209,-18,-78,-208,-209,-76,188,83,-39,24,202,-12,148,-9,-36,39,241,92,-136,-89,-228,109,14,199,62,8,222,50,25,-32,-189,151,157,169,130,40,184,239,-54,20,106,-86,-78,160,-46,-173,-104,63,-106,73,12,209,-122,100,242,31,-136,-69,-48,-204,51,271,-116,-163,-182,92,58,-101,5,-178,249,-128,129,205,137,0,117,47,-154,79,130,-271,154,-58,-9,-67,-145,-257,43,-217,-9,31,-164,-67,67,197,-53,169,165,133,-35,-147,63,-80,182,-128,-198,-77,232,-30,-74,75,112,65,-30,75,-185,106,-213,16,52,-22,221,205,266,239,176,221,1,49,-82,214,159,-164,-63,-38,82,91,216,-102,171,-221},
{-65,36,-138,-171,133,-65,28,39,-232,73,-66,-124,-9,177,142,222,69,-157,18,-192,-141,226,-207,129,208,219,207,167,-184,-102,171,-131,-135,105,-179,-97,270,-114,-86,-221,74,-70,126,-75,81,-34,-100,-147,261,-64,168,191,163,-105,-154,268,115,-216,143,238,211,157,-110,197,149,208,-162,-99,-77,-31,197,189,222,-33,166,-213,74,43,-232,-197,-251,171,-82,106,-239,-71,-131,180,-25,177,-49,-156,103,-141,-166,-24,-185,-94,-144,88,-68,110,-81,16,172,-180,-216,223,69,-187,137,26,213,93,6,199,-181,172,-91,126,-44,-97,-58,63,46,123,0,-155,144,-1,-3,109,-229,-86,144,-32,42,183,123,-121,-17,135,-81,-54,-242,-236,-54,-11,-219,-214,-229,-65,-149,37,-165,148,-74,167,18,-4,-68,196,-75,80,-145,242,-181,210,210,-253,-254,220,168,-254,-141,-8,-102,-121,175,139,-147,101,-143,-80,231,245,-185,-109,79,142,-167,124},
{247,243,-173,-57,224,166,-65,-231,-197,-88,162,125,-120,30,76,-117,-67,117,-98,134,159,52,238,-72,-136,127,-160,-39,189,-221,-50,23,-263,-207,90,151,219,-70,186,-173,127,75,-146,-5,64,-160,-239,-131,135,-113,-222,156,-23,155,-121,13,6,216,15,19,-197,205,137,0,183,75,-81,-4,-248,-26,59,163,-103,74,51,20,13,107,-220,-192,133,-228,-12,-245,54,114,42,221,16,-42,159,90,160,171,-77,-189,3,211,28,175,184,-120,-54,-237,148,80,-199,231,169,-160,-187,3,266,-201,152,-179,208,-35,-236,111,-10,-53,-146,261,265,15,-85,-212,-203,-69,221,125,265,-50,-81,150,-161,-15,-31,6,85,20,-38,-93,175,53,48,30,77,-104,31,143,-182,-233,61,-50,-150,128,-20,163,-80,182,15,-131,111,-113,14,-182,-139,-19,-106,201,82,254,-35,-182,-18,183,148,-65,181,-34,-78,54,46,177,263,72,264,-147,101,-229},
{-106,-123,-94,27,120,218,-176,-80,163,-189,219,140,-92,-20,-105,0,-99,-84,161,-22,254,-46,149,-52,90,48,179,40,67,13,152,242,254,-122,121,-3,-11,-144,-49,-150,247,92,-2,-121,177,-229,156,219,68,-18,243,71,-14,228,-185,-224,-217,-180,-152,-223,190,-169,-165,41,116,-15,-215,-242,-225,-28,231,175,95,216,-32,-251,-140,214,-99,190,251,-224,183,-93,-34,26,27,153,-221,206,-92,-108,199,-57,137,-55,72,180,-18,-222,143,-59,-196,161,-156,241,-66,125,-161,-206,128,141,-7,-14,-122,166,-150,251,87,-97,-202,-182,-225,146,62,107,-103,-28,-56,93,-241,139,54,-34,186,276,91,-77,247,91,271,-229,-22,-8,124,-171,84,273,-140,264,-118,72,-187,189,235,143,85,240,-212,63,95,41,197,10,92,15,-160,-90,-56,185,155,229,-89,79,105,-218,-221,125,-116,25,48,-65,244,-128,-6,147,48,199,-197,-93,-144,30},
{256,-180,-54,65,88,170,-158,-83,-45,10,28,111,229,135,-19,-214,-197,-9,190,102,5,-250,51,149,223,18,100,-238,96,80,119,-196,-82,-118,-55,176,174,-9,-97,-72,239,154,-198,31,208,-201,156,-146,-2,-27,213,-131,-119,245,193,-171,26,68,-161,34,-237,20,139,90,-115,135,-209,-58,48,-4,64,130,-14,253,-182,-216,-45,-212,183,-52,229,-237,89,-215,-237,227,-215,-107,159,-246,111,206,-26,71,230,-183,-63,172,217,167,247,-53,220,-93,-13,41,201,97,-67,66,-35,221,22,-202,89,-198,204,39,-214,-57,157,-1,125,160,-127,-117,-118,59,163,87,87,33,166,-223,168,-11,-59,-146,-157,188,210,-184,-47,-151,192,-69,-162,61,175,147,132,24,188,126,222,-194,-29,-83,218,-194,-217,190,-251,25,-254,191,-7,-175,-234,-236,71,-186,70,21,55,-72,103,147,223,-83,201,-170,-224,-230,255,83,45,-186,108,181,82,-106},
{236,114,-163,181,146,-29,-232,76,-156,157,178,-228,88,-234,-174,107,-88,-23,157,-242,50,34,-219,-192,37,29,247,-91,160,83,43,39,233,-3,168,136,2,-67,-29,-167,35,-215,-120,-100,-91,102,-261,-59,231,-174,216,161,144,225,99,4,-227,-111,-25,-79,-27,238,104,203,128,220,112,0,134,-174,-226,-62,78,268,259,261,-166,-97,96,-149,-75,-86,-179,52,-147,155,56,94,187,-185,-44,82,234,-32,-72,61,214,-144,53,64,194,-221,106,-179,-107,181,-167,-157,-232,-62,76,-194,-67,-167,-71,208,-135,73,73,-35,4,-223,-60,106,-40,211,-143,-77,-82,-172,-49,162,-96,-18,-40,-7,216,-86,-220,259,228,195,206,19,238,-126,41,207,234,-39,242,-190,133,-216,-126,-198,-208,-207,-194,-45,-123,83,-52,111,166,-216,151,-216,273,-110,-71,1,-177,-219,-193,-12,240,-55,115,90,-165,38,-72,12,-96,-38,14,48,-85,107,31,100},
{81,-232,-184,37,81,147,3,102,205,179,-194,46,-206,118,213,196,-121,-144,131,119,-98,-145,-57,-180,90,-116,168,-234,-69,-158,-207,-91,78,82,112,-154,-38,2,-87,-116,3,-187,260,153,169,-166,256,-83,-164,-17,-18,134,-102,142,84,191,-115,197,204,254,46,105,224,-227,-31,-185,216,117,160,-218,-198,-5,-27,131,-56,180,-15,110,44,108,-39,202,-66,91,166,-29,-256,-58,6,228,-206,127,-79,-88,-226,-185,212,-182,135,21,23,208,-62,198,-118,202,182,18,-62,54,-116,-245,160,-228,-56,-198,168,-88,69,99,-211,-79,168,61,53,-65,-60,53,43,-245,-169,-178,-98,-183,-33,-80,163,-14,97,107,-226,-139,-9,64,153,62,3,-17,110,45,17,-102,208,133,-260,-118,-5,-175,96,80,-151,148,-28,-115,118,-181,154,-116,188,-188,5,-95,18,155,4,-162,-130,-205,107,-139,173,252,192,103,31,185,190,-132,-214,30,-6,53},
{-212,-191,135,-195,-61,52,189,-2,25,-123,131,-108,-197,-148,-178,-217,-209,232,192,91,24,-222,-46,196,-160,-155,-236,-113,219,-132,-90,99,-144,172,28,-158,-166,271,-76,-12,124,-207,-27,122,130,111,-152,-99,-95,-10,-132,229,-125,-110,14,143,129,-148,-139,99,-140,-196,29,268,38,114,186,-198,-227,-72,3,49,-31,131,-3,216,-179,-223,126,147,-252,144,-72,52,-208,-179,-253,-133,111,106,-115,-20,-225,-222,107,162,-182,70,-115,-76,-234,144,147,-25,186,-187,157,1,-91,58,116,115,-176,-64,23,-243,-145,179,-225,20,194,18,191,39,-199,221,229,133,-53,-137,-22,223,229,240,13,-265,-266,-26,158,99,-18,-137,-2,88,-269,-140,-188,-274,-64,114,200,149,-225,217,67,163,-219,-204,-245,92,52,102,-40,-174,239,28,-215,153,154,126,-81,-165,194,-121,-93,-140,-37,-136,-66,177,-80,185,102,-140,-158,-184,-42,88,-118,-141,-20,-169},
{-67,127,143,180,-179,20,-141,60,-66,230,-154,-187,-209,85,-110,-214,30,-84,-18,77,-185,-137,94,221,79,-77,57,-185,197,202,3,174,86,262,-53,208,-118,-47,21,259,226,-47,-75,-206,-223,-212,62,182,-118,56,-63,-77,-171,-55,238,-121,-154,206,-120,261,215,-7,147,99,172,233,-142,244,276,-180,-30,192,-158,0,233,-139,26,-6,-76,-209,-231,-206,219,104,-98,-154,-217,160,-20,152,-159,68,-18,115,-126,-235,-19,-195,72,-244,-104,121,-79,216,-213,220,-168,-131,-22,127,-99,182,-62,147,-185,190,-42,259,-20,-85,-170,205,134,71,204,91,249,123,97,-160,47,24,151,258,-23,-205,173,248,-138,-170,-103,-14,202,173,53,149,130,30,-169,53,116,-28,210,-40,-154,206,215,-244,-213,-161,11,116,168,164,182,-130,-50,-200,175,-27,177,174,198,3,30,-205,-66,161,-168,-69,231,113,191,-41,-234,107,-138,106,-73,119,212,-194},
{-195,-108,-60,-74,-31,37,-209,113,26,-207,157,-97,-84,-158,-8,73,-14,-89,54,180,169,226,187,136,-44,-120,118,119,-10,-195,-172,19,-154,-125,223,-107,232,-183,-207,-73,-191,-101,60,10,149,-225,2,-91,-133,-225,130,226,-153,207,-171,208,106,68,-130,-192,26,176,218,31,-195,17,48,-148,-87,-72,-120,168,174,-81,-106,265,-67,175,-28,109,-235,48,6,-96,42,205,-87,-157,17,-44,225,193,-203,-86,-175,184,-133,-245,-31,-260,-139,-192,162,152,173,106,33,-53,16,-69,-198,76,-220,-150,-271,127,92,167,161,160,-184,8,-247,146,89,-219,-74,107,231,3,43,-23,-128,230,-217,77,255,216,-177,-232,-40,-184,-38,246,153,92,247,-128,195,152,183,-107,132,-17,-36,15,-98,-159,-105,37,243,75,146,187,21,274,-14,205,103,103,-222,-18,-175,-35,200,133,213,-59,147,92,68,-181,-145,-136,-50,133,-184,20,-93,-198,49,-7},
{-202,-35,-228,-123,-51,149,48,-139,236,-100,214,-158,185,-55,-183,64,-200,256,-142,153,-154,232,-163,178,82,-116,27,195,218,-41,-178,157,-261,-72,183,226,163,-151,-23,-158,49,-133,218,-180,240,127,-91,-140,-87,143,-219,0,-75,-150,-62,197,217,2,185,-56,-246,151,-110,193,-46,-135,-182,-140,158,-146,-77,-75,202,13,21,263,7,-90,137,-52,-74,24,109,-195,-3,277,245,-41,20,235,160,-102,127,-232,223,1,-149,148,-88,48,21,225,-178,-75,-274,-199,-50,197,105,161,-171,-211,-9,2,-116,36,-216,-106,26,-11,-227,-178,-196,-76,-268,5,1,206,-193,-261,-239,-101,208,11,-34,22,110,57,-227,-195,-210,76,-189,-280,100,-232,-3,-72,72,116,140,114,196,4,6,-3,233,-208,-46,-63,208,254,98,158,-148,-39,82,-38,140,180,-121,-154,-225,-81,-33,-214,15,-73,205,263,114,-191,177,-135,-78,111,201,-219,61,86,-59,108},
{139,-103,-86,79,-200,-36,216,-171,16,-59,110,267,-184,-145,-177,-137,-145,72,25,210,-53,-177,21,-126,-185,-256,169,-156,-87,-214,145,109,-64,183,-36,-173,161,-178,234,-139,150,-144,-149,-153,-206,83,113,-11,-193,212,-265,89,-237,-188,-239,186,66,15,-124,-95,176,172,-230,-264,66,-87,149,160,-220,-184,-245,-104,-70,120,-27,-210,-71,42,5,-225,186,-201,201,-249,13,-100,132,178,-151,-160,40,-228,137,205,-26,216,57,176,-220,216,-135,-10,-71,-210,38,-248,225,-255,-138,220,-16,201,163,-84,-83,-147,-30,39,-85,-112,141,56,-238,194,37,120,-209,-271,173,175,-212,-129,-129,24,46,76,-82,-125,-219,-257,9,-56,145,-131,-98,-195,-170,-117,216,99,162,225,51,139,215,-237,-15,241,36,-104,84,-192,223,172,127,53,-107,170,114,22,172,115,-179,-45,92,-15,-200,267,16,76,-5,-196,-202,262,185,132,212,-237,-124,217,126,-146},
{59,161,-215,-21,63,-259,-40,-224,220,-144,-207,-20,-132,86,217,160,-141,-25,259,-279,-60,42,90,-135,108,-20,-213,-261,-179,-246,-50,-79,-8,157,84,43,-131,-118,-155,191,-69,14,148,195,2,35,157,238,43,32,250,263,34,187,197,141,-38,226,244,-78,110,-49,122,135,156,187,164,-195,-57,81,-66,181,66,-120,220,-62,-197,-109,-140,238,-49,50,174,93,-137,8,-85,-79,-43,-223,-221,-102,232,-26,176,-174,105,-82,-150,209,184,110,-227,-81,-52,-157,51,-68,183,-132,-175,-26,15,-159,21,-78,187,78,-197,-222,-120,-111,24,-81,233,-91,211,113,-203,-94,95,-25,-81,106,-189,-108,-64,-78,-155,-70,189,186,230,-14,-252,78,35,-139,158,52,204,237,-81,73,18,-190,219,-51,-113,80,204,-41,21,18,-121,-115,-154,-255,67,-238,132,166,-167,-91,97,120,-235,-221,-87,-280,-232,-121,68,114,-50,88,-109,-64,94,108,-187,165},
{-55,-23,-44,72,242,212,46,-151,-190,57,-11,-239,-28,142,96,116,-9,211,134,172,148,156,-78,144,97,167,-107,87,-235,225,-123,63,173,114,100,213,27,129,32,-175,184,180,176,240,195,158,70,95,-22,-230,31,34,142,111,88,255,-68,-30,-54,97,238,-89,-121,-179,179,-203,144,-121,-10,37,265,220,-189,-203,52,-146,-131,-94,-246,-22,-37,143,27,-216,58,50,197,93,-105,148,-37,35,-165,-42,211,51,166,113,-185,-168,-150,-230,-40,-70,133,212,-118,-144,65,-206,112,210,151,113,114,92,-121,117,-196,37,-23,-257,-80,154,218,185,105,-258,7,-169,77,224,-53,-37,-19,-71,-165,21,53,31,226,-17,101,221,106,181,-183,-77,239,-262,208,-216,117,-35,110,-68,-83,-28,-84,-83,182,-120,36,-153,-140,-114,-149,-261,53,-63,-268,-39,-36,223,-137,-66,-136,12,-230,-148,-49,193,-144,105,-263,106,-147,-173,-40,-91,-168,28},
{-154,239,95,-167,28,260,-236,-3,-153,-122,-170,-34,114,-61,17,65,138,234,-36,-159,-98,-152,124,178,92,0,-222,-77,33,-132,110,-89,-20,229,144,220,-194,-112,-230,7,213,97,-17,-24,154,-34,83,97,32,-179,1,7,56,133,79,16,113,41,59,-180,120,-3,184,216,130,169,-53,157,2,49,93,207,17,-177,222,102,45,-81,203,-250,-105,-88,-20,-177,225,-219,-117,215,150,-140,62,111,169,239,-242,225,61,20,-199,-63,-209,-195,-28,-62,254,149,67,-134,-215,-148,-130,5,-12,-164,146,175,23,57,25,-219,252,-75,-232,-225,-159,-35,185,108,260,257,-8,-68,-229,-61,104,80,35,218,-56,-120,-177,124,169,-32,-207,258,180,79,-161,-93,-198,24,73,262,-218,-136,236,-151,2,-81,-209,30,-103,77,-183,-150,86,-88,-181,-235,140,-192,231,-3,185,-233,119,-5,104,187,-28,-234,-94,147,205,-97,176,-78,120,134,-123,2},
{-231,-3,3,-147,27,-34,207,-63,49,-52,-124,-163,-219,-123,209,49,57,182,224,-127,122,77,168,192,11,-173,-182,-60,-219,-78,-89,24,-109,-64,-257,-40,-212,-120,-62,14,29,-225,72,128,0,-108,110,-142,-86,-121,-80,-119,118,170,-242,-101,133,-111,148,123,-15,9,-198,-170,118,-200,82,-85,0,175,-135,-238,-48,-94,-138,-83,35,184,22,126,174,-56,-75,162,210,113,209,-127,192,-267,-28,61,91,-182,-61,-244,-196,-266,129,-14,-115,-77,-40,-130,-90,-56,-246,-147,-169,179,-8,-170,-116,-245,104,158,85,2,-152,-82,181,45,-174,208,-217,-97,-271,-148,-47,-213,-253,128,-66,-57,-94,205,-280,6,217,-140,20,-73,15,-198,140,140,211,-190,-121,-276,-165,110,18,-130,151,49,-53,-227,35,-19,169,244,4,-29,48,101,-17,250,-38,-39,1,266,-215,224,177,-34,139,111,176,197,-228,150,-236,-131,-187,18,-263,-104,165,200,-159,-64},
{139,263,-19,91,-53,-68,-103,201,184,185,-184,64,-265,-117,185,122,-272,-232,103,-187,-129,-58,68,195,144,-259,-114,-275,197,-10,208,-82,191,-10,-144,-27,196,180,-246,-89,-182,-204,-16,175,49,229,116,46,10,-140,-238,123,-125,79,-212,248,-7,228,-214,-117,219,80,163,-83,-99,-88,-200,-20,85,-171,-215,214,-220,120,-169,132,165,-179,-137,246,-189,107,-49,-116,-185,-126,243,102,101,-46,-186,-68,-101,138,66,211,-61,248,-171,-88,-155,117,181,59,184,-217,-34,-204,-163,-262,75,-255,-273,127,211,-167,-203,132,-90,-50,131,95,-62,-276,-23,52,-127,136,248,145,-183,-105,-63,-1,-106,136,-86,241,252,-16,27,226,-3,-231,-3,60,-68,-184,107,217,-146,139,-43,244,108,188,-198,224,183,-149,-161,123,48,79,224,-34,-190,-112,72,-198,-106,-50,92,-116,-191,-32,206,38,217,193,-60,199,-191,65,199,-164,36,-256,232,-7,-78,-102},
{-51,-111,-158,75,212,221,-168,-172,-226,-55,166,12,36,188,42,28,-256,20,168,152,151,-254,-130,-6,236,62,126,98,-127,14,177,-98,14,186,-141,107,-55,4,-232,-122,114,-77,133,-210,220,98,-120,-51,-95,-36,-1,96,125,110,38,-234,-229,-152,112,158,-162,191,112,206,-83,-79,232,94,208,1,-81,-4,165,151,29,-93,-161,128,229,232,-170,62,98,130,-23,-127,-20,-32,170,-114,25,-127,248,29,-180,-15,-176,108,92,100,-21,149,-80,-175,-113,219,-154,105,-171,42,-201,73,209,160,172,-222,197,-81,-19,1,201,-173,-200,-159,-164,88,74,-186,88,-192,178,-170,-25,-216,108,-206,14,199,219,-159,203,29,6,-117,141,-55,227,122,-125,-225,142,-227,16,-117,120,212,234,-89,46,62,182,-48,-160,181,214,-152,-106,-180,-47,171,230,-13,225,-223,169,213,227,-239,53,-57,-55,44,83,-237,-148,23,212,-56,95,147,-237,-234},
{99,-79,-26,257,250,51,197,-190,-1,-158,-51,-200,0,-205,121,-50,114,60,69,146,-27,241,117,-17,263,-94,212,11,-58,-115,-64,-168,71,136,159,99,161,-212,-185,-114,-9,134,-25,-65,40,-34,-148,203,-22,58,171,102,-40,-107,136,79,-78,-229,-96,91,118,121,-63,216,-9,190,209,-83,89,196,-103,9,195,116,167,117,-128,18,-197,12,-244,-158,87,-94,-96,150,-119,-43,231,61,-148,69,-60,-88,-125,107,-191,167,211,155,208,6,-147,196,-25,-156,-147,150,-193,-124,-134,58,130,-185,98,159,-91,-4,-207,216,-14,-45,62,-133,118,202,-14,167,-23,-156,-237,220,86,-42,162,185,-228,-198,-49,24,101,-142,-52,-231,-181,57,-26,-62,-250,155,-70,247,-28,-161,-161,-219,-42,203,65,117,-141,39,-6,-5,83,187,-128,-108,-250,184,-20,85,-35,0,193,-54,226,-153,-7,-112,28,-271,-11,83,-121,152,234,-271,-234,-199,167,116},
{-220,142,-217,-111,31,53,94,108,-193,88,251,38,20,-217,-221,-80,13,-240,32,50,-197,-17,-177,255,82,-229,-144,62,-166,-15,-75,-62,220,-163,181,-168,-216,180,178,-86,184,141,241,184,-165,-243,253,76,6,-36,255,-28,-252,-4,17,-84,6,-207,83,-100,122,-178,-162,150,95,220,-231,-141,-34,177,217,-27,-166,-199,-101,51,-214,3,-92,107,12,-77,58,238,-145,52,-90,65,126,-227,-15,94,-31,-200,128,202,-51,-161,-230,-212,236,-212,-204,-216,112,-79,-115,55,131,-37,-116,145,146,-226,-56,-140,150,272,-195,257,-82,34,-125,-172,102,149,71,-128,19,-143,-268,-185,148,201,-90,-229,-270,-155,137,-222,195,-57,35,41,176,-34,122,-137,228,177,116,210,-235,180,-35,112,-130,203,-14,234,-255,-20,-219,-155,-76,-184,-92,95,66,-253,201,-128,-181,-137,84,87,-245,35,-208,-167,-212,106,148,173,-115,-85,-173,203,136,166,83,-192},
{-221,-163,-143,-79,-167,-61,187,198,113,224,199,-34,-267,110,167,-105,-238,-189,187,88,-86,-222,178,-66,184,176,180,-84,105,43,135,-91,220,-18,-218,202,197,-88,177,-12,9,37,98,251,-161,57,-196,-60,243,146,244,-173,54,-167,251,-179,45,226,235,-156,-212,86,190,249,-129,-201,-121,253,253,138,-130,33,222,22,-47,-156,244,-201,109,184,-148,123,-168,-73,134,-163,-19,64,13,-246,-153,243,122,-118,90,-30,-210,-63,195,209,216,111,-51,-26,-253,122,53,-241,52,35,227,-226,181,-225,-146,94,203,-119,7,-275,65,187,-145,-57,17,14,4,5,-167,-137,124,-9,223,112,48,-93,-19,-132,-134,-74,-255,-13,6,54,172,-161,86,62,199,-166,-190,215,48,-208,-154,-73,-211,187,-122,153,-177,224,-141,112,-46,120,-59,15,-99,32,-128,-63,47,-161,41,-199,-89,-126,126,146,49,-169,-178,111,240,-154,44,-110,-170,25,174,50},
{-63,-219,-177,25,-124,-24,188,185,225,-214,51,-57,-35,167,249,-54,-123,-18,-91,193,-8,61,72,-125,39,125,-19,63,78,-214,-187,-248,141,-180,-90,25,150,59,101,-219,-247,-82,226,203,108,205,8,-164,-101,65,183,215,-231,215,-11,-151,110,18,-203,87,-132,170,-229,-5,-181,165,-36,-84,-69,46,-62,102,-26,-161,-114,151,117,-106,-95,-145,-88,-61,-205,-87,210,248,-239,201,229,-161,181,-132,244,-30,-192,-161,111,155,-65,5,87,-175,-28,-212,63,-4,-122,257,-160,-217,-73,-25,38,-81,53,-231,-220,116,113,105,253,196,-175,231,120,62,-51,-24,-121,35,-3,59,-152,-64,16,-11,8,-224,-3,187,3,-259,195,151,-247,221,-136,21,216,-172,203,231,89,-41,-143,-1,-35,156,84,-195,184,-55,162,89,117,-155,69,-197,-215,-183,-232,201,-150,197,-21,-24,-96,-24,-224,7,80,-3,207,48,-131,-246,170,181,87,66,-174,-84},
{-14,267,139,255,-91,189,-131,-247,-18,157,-51,-80,-178,73,105,57,-182,54,212,-138,-49,96,-213,145,-154,-18,-199,152,-60,65,162,-195,-227,-115,0,-10,11,7,-141,23,98,188,-161,-182,166,100,-172,-2,46,-33,-97,102,-181,-167,249,-36,-104,-98,-66,-134,-216,106,-26,90,-4,-237,210,-129,145,193,-24,-239,163,46,-84,154,-250,12,-204,222,-202,-128,97,-70,-188,26,31,120,87,136,-116,224,-75,-254,-200,84,-6,-216,114,172,96,-72,236,-55,-88,157,-251,60,-4,110,228,-198,18,-37,-30,-4,-201,143,-54,-83,112,-183,26,-232,209,57,106,-109,-220,195,-8,-105,45,-118,-108,-250,97,1,131,137,220,118,-163,27,-27,174,-148,-29,-177,-135,158,112,38,-262,-71,173,-123,-42,-169,-62,-117,-215,-189,69,173,190,-96,133,-71,157,-123,73,-205,265,78,178,261,247,215,-87,176,-2,228,92,-223,135,-31,-133,57,-208,-210,-43},
{-27,197,-193,-66,201,-80,-39,110,85,256,124,-21,-108,-226,-62,-140,82,-177,-222,-164,102,-123,143,110,-96,134,50,128,63,43,103,-113,-48,-154,177,183,-179,-47,160,80,-22,-19,146,-230,-57,108,-20,145,90,53,179,184,88,-134,122,162,131,-186,103,-145,-193,-63,22,39,-112,164,108,28,-126,-78,-120,127,-146,61,-156,176,-147,-202,236,-207,-116,-2,20,194,-37,-180,219,-11,-209,-134,19,-3,-92,-92,-228,8,230,-114,56,-245,145,115,42,246,-131,178,-241,149,-103,-70,-36,-13,-139,-5,-242,76,-244,-113,-244,144,-151,99,-222,-195,73,-110,-35,13,-208,-209,-155,205,-91,161,-236,179,47,147,-130,-20,-54,17,-183,206,-165,95,42,-108,-264,140,-5,-267,-4,-236,174,-15,-216,223,-152,171,-259,-216,-160,-24,165,92,-118,-194,5,-67,-116,-76,148,-35,-191,-86,-189,194,39,-32,-106,183,-62,16,1,211,186,-163,270,-83,-97,255},
{207,-242,-73,73,-171,-144,-8,-263,-195,25,30,-28,211,-107,198,-156,-259,32,178,-42,-30,131,-229,189,152,-99,-134,-85,209,-70,-6,-220,-76,103,-227,54,115,234,-53,-104,162,183,-150,-195,133,-172,-102,-82,53,-241,217,240,64,-167,74,254,-8,183,-184,-4,-184,-28,-91,-196,237,-226,82,63,-8,-158,238,-26,154,-124,3,-59,31,5,16,84,118,257,-144,-187,-182,126,-264,-122,-40,-43,47,-125,-65,-54,163,19,154,-81,73,50,-14,175,-31,-101,-217,-94,-78,210,111,220,-124,-227,-231,-172,90,-109,176,192,-251,-221,83,117,-202,-226,12,4,80,-71,221,187,-50,26,-220,-157,155,151,-128,-186,-249,10,-208,197,33,-127,-59,-63,42,82,-192,-52,-15,-43,-256,-124,92,-20,-63,91,37,-267,-119,164,213,142,58,121,-86,-16,-224,-43,98,204,102,-153,47,-233,216,226,40,229,141,7,76,-3,139,155,-125,237,185,17,-135,-150},
{261,-90,126,245,193,-218,100,121,218,236,25,150,24,149,-202,221,-219,-255,41,-105,-47,-98,-138,-116,-176,-220,249,254,16,252,-197,-115,38,148,63,-144,245,-233,-101,124,37,100,37,-5,48,-108,102,-18,30,104,112,-96,-198,-200,-234,-209,-98,192,-125,124,8,-43,18,-227,96,203,-169,234,249,-234,45,-241,-85,-226,-220,58,-205,-112,-155,-10,-89,-55,-13,71,51,180,-8,-209,0,-101,-51,-125,73,-234,-90,-224,215,-178,-211,258,-211,-110,-146,23,-40,-153,236,233,-98,-161,58,237,-88,-176,-79,-117,219,147,-186,121,-71,-157,-115,118,-84,-137,-170,-65,9,-140,-29,-226,-143,-184,-215,-213,-207,206,225,203,142,-176,-76,-190,252,150,-146,152,-228,-27,-26,254,-110,51,-146,-62,-46,-187,170,-79,-29,-6,257,-127,-237,-121,181,210,-168,-48,-79,-67,35,114,136,70,-124,45,-114,-238,70,-240,0,150,-24,-57,58,-183,216,89,-62,-156},
{179,-215,165,-110,211,140,26,-240,-66,35,-154,204,109,-149,32,-32,-227,262,-173,197,214,243,-6,181,88,-9,215,-159,-168,-16,165,77,-100,-32,-83,19,-79,-154,98,141,-125,-164,-223,-82,-35,-136,-154,-88,-234,-187,163,-252,-239,203,-239,-108,235,-4,206,-153,-239,-203,53,-40,31,-104,23,-95,115,-167,-178,205,-64,-227,-103,157,-20,-219,-233,205,119,-35,1,42,106,208,-75,191,261,132,-128,90,-185,-129,-23,238,-9,128,-134,100,201,-225,-180,-33,162,150,141,-166,-26,-105,72,-206,148,120,137,251,-174,239,271,112,110,-149,-77,-159,39,147,151,14,125,-186,106,49,-169,126,-229,-202,-181,-275,144,115,-193,227,63,73,-257,71,93,216,-176,-166,-160,-224,137,151,158,68,-99,89,236,128,217,-70,144,-148,163,71,76,-43,160,203,-171,250,-102,163,196,214,89,-48,-42,175,-14,235,126,-98,-156,-108,-103,26,231,166,-5,-130},
{5,19,33,48,-93,-258,21,209,-34,37,249,132,-152,31,69,12,47,-225,157,-145,-230,-96,237,-107,190,7,-122,172,-13,145,-185,53,97,133,165,156,42,109,-196,-12,-50,-212,76,90,-154,-153,108,-14,208,-13,-86,-26,-184,111,136,-12,-187,-184,49,-39,-3,-189,-9,-48,-236,-110,-216,66,24,163,81,174,47,-129,118,-203,114,69,117,-202,157,-162,-158,-208,-233,215,91,187,-186,-263,-256,138,8,135,141,226,-21,-111,189,-248,80,-69,171,-209,-38,-202,-32,88,-104,-55,130,-174,-143,-86,-58,225,51,-119,-77,-265,-81,-196,223,-149,-74,-80,-32,-14,-226,68,-118,-198,-150,-240,206,199,-87,-62,47,34,-190,32,-263,-178,222,-208,-46,62,-28,7,-40,-64,161,33,223,79,-212,-206,-39,-97,-33,106,167,190,62,227,231,15,23,-1,-80,218,167,60,258,191,79,-117,-133,-147,63,101,18,-114,-213,-118,238,249,-194,0,141,-63},
{-107,-195,-115,191,194,-131,111,228,-31,-3,242,-86,-142,-23,8,-143,-216,-127,-241,-181,-115,-98,-217,-156,-114,-46,183,-49,-1,176,163,-188,12,-67,-127,152,-139,-222,190,-233,142,185,235,-96,217,127,-45,213,77,-190,234,-125,-81,-202,-47,-193,10,-27,-261,-119,-33,-229,-17,227,43,-194,39,-180,196,78,-214,17,-42,0,63,-247,-35,-121,-175,174,-39,-166,18,73,261,-95,197,0,163,-249,116,176,-197,-4,-263,204,-161,-240,-126,-178,65,-216,-43,164,-31,-13,158,-160,97,3,247,14,63,220,214,108,-185,234,53,-137,-52,-159,86,8,103,16,224,146,-169,-239,-76,-18,-177,189,-142,-46,-60,174,-222,156,-99,-83,-172,26,-1,-86,118,-255,-198,168,58,-198,-132,-113,84,120,68,-48,38,-206,-27,-38,-229,74,60,-48,-79,-215,-114,-14,16,-189,-256,90,157,-112,196,-171,-46,-152,235,127,-59,13,-145,-151,-181,-49,-213,279,28,-86},
{20,116,16,-167,31,6,-163,73,13,3,262,185,124,-86,-96,-65,188,197,-49,-166,-216,-28,-33,-85,-228,-105,-49,227,51,7,179,176,-211,-248,-143,90,158,-137,226,108,-92,-48,-237,191,26,-41,-54,229,38,-171,-85,83,70,85,-229,-168,-87,-117,-238,143,-225,57,205,226,196,-153,-136,105,20,11,-167,33,-45,102,134,159,213,-116,165,186,157,-71,-116,4,-74,69,236,219,212,198,-43,64,86,25,-102,133,-90,-36,-63,-207,98,220,230,251,259,-215,-47,-40,219,51,63,-30,146,-22,116,-220,177,-42,214,-217,90,209,110,-188,42,67,-178,218,-204,19,64,208,-14,-200,4,-72,194,135,201,-275,63,4,15,-160,86,0,-206,-145,199,39,64,-54,-112,-155,-90,-241,-188,-9,-220,192,-134,-1,-98,69,-132,-247,-116,-200,14,-267,100,-212,82,178,214,-104,-46,-236,162,-257,-54,-184,57,-131,192,133,-186,-39,-107,-184,-25,10},
{-109,-95,32,242,203,-110,-55,-198,9,192,-121,-199,21,-162,133,-213,95,-72,-58,-254,24,194,61,-216,129,-53,-216,-30,-184,223,-39,-93,-203,97,-22,218,50,243,65,-256,-190,-255,44,191,-171,-147,-126,145,251,-99,128,-28,205,135,84,64,-58,-190,241,-43,-141,229,44,-103,203,121,-177,-161,-136,201,0,-102,134,-186,-32,234,-148,-177,135,182,-203,20,-206,25,168,-38,-278,83,179,-209,230,161,-57,-91,-121,-192,-30,-138,-34,-180,-217,-44,-249,-165,-259,-248,-44,187,189,112,67,-152,-182,210,89,-198,91,58,-273,-80,-135,91,-172,-106,232,144,-169,-82,126,20,99,-230,73,197,238,-56,169,106,-6,158,-194,-187,147,165,151,96,229,-82,79,-221,-149,141,245,-202,132,134,-85,-148,-55,-242,-122,-39,-197,-174,246,-226,55,1,-85,70,-29,-167,129,87,49,92,-19,-38,56,-19,-193,217,-110,-82,180,32,30,116,157,-244,107,-242},
{-144,248,266,-235,-162,42,-89,-1,-125,75,3,195,62,-46,67,9,22,227,-254,194,131,-234,12,173,-115,-223,86,-175,30,21,68,106,65,-197,71,40,232,-131,-50,-138,-110,257,-129,-156,-66,-79,-103,-113,-87,55,190,209,230,-164,111,6,162,-93,178,190,-82,-82,78,32,206,118,28,-98,0,135,239,184,-137,53,246,-142,200,-15,-218,-265,223,-267,171,136,146,-260,-210,-266,206,-57,103,-110,67,-267,208,134,-189,-41,21,-249,-26,-23,-100,187,230,-163,32,112,41,-32,-112,33,-196,217,-10,-118,179,-229,86,97,-102,-60,175,59,-197,150,-164,195,9,17,122,-244,229,215,109,189,-133,199,89,234,-75,-33,80,126,-275,-161,20,-27,-52,-213,165,-29,-10,177,-67,-247,-157,114,-156,79,143,157,121,102,152,-216,71,186,50,9,-231,82,198,-21,173,206,105,106,84,-145,234,221,-142,-153,-5,57,-106,217,105,-153,7,207},
{-82,-242,-139,-20,104,-182,-130,35,73,-179,26,212,-47,87,-189,-47,-91,-18,183,-18,-62,253,154,233,-185,220,-82,250,-117,185,118,-232,58,118,-129,9,-49,-56,-161,-230,-229,132,-247,116,0,-133,-177,129,-11,-45,165,155,129,253,239,-162,-28,-38,218,-40,-110,-219,-38,-97,113,3,-10,232,-79,-232,-40,-270,-112,229,-49,-248,21,197,-9,-118,23,245,115,198,26,263,69,21,-145,181,-92,190,143,19,253,-20,-150,-121,107,79,-158,17,21,83,-250,155,163,-210,-164,-103,-26,222,-91,-95,61,222,222,47,47,-211,268,15,109,-142,97,207,-95,242,-92,-148,124,209,-86,-38,210,-216,91,-163,76,245,-156,252,81,146,189,-222,-208,-243,121,-249,-64,32,-29,143,44,-110,-49,-3,188,137,0,-80,-196,-53,164,85,167,214,2,193,49,-182,26,221,144,168,208,16,-172,29,95,-230,116,-103,-50,45,-41,102,-1,6,191,-138},
{-41,-31,180,-57,-202,-52,16,217,74,131,10,204,70,23,44,234,-9,113,11,105,46,-44,-2,158,5,54,-162,251,-33,206,-39,190,69,63,-60,0,-21,8,-165,-132,-22,43,-28,174,-32,168,-187,196,34,-178,99,-189,-180,-36,212,-30,-85,196,-229,151,-230,-125,109,62,28,-200,-175,-110,-5,172,36,-39,221,-210,-38,-29,0,273,131,51,-153,-138,-122,178,200,62,-73,-99,-35,-143,231,-200,141,232,-114,-238,-152,196,126,35,141,4,182,-77,34,-278,-254,20,181,-195,147,-153,-33,7,-106,-235,-114,-123,17,192,-58,-187,222,10,-230,41,-13,-203,99,-195,-128,168,-11,-230,-64,-10,218,43,-99,194,-176,-149,-227,149,90,210,96,64,85,55,-8,92,-33,-22,42,-188,-186,212,162,-73,-50,214,-226,-47,40,94,-186,-175,-219,180,240,-195,140,258,135,-39,224,57,-9,-148,182,3,216,-189,49,253,254,240,124,206,-153,132},
{121,127,103,-260,-205,-84,150,192,-44,42,-190,-32,-213,-256,-57,201,185,-190,256,154,-201,115,-106,188,280,27,256,29,-23,-75,43,-135,-207,-115,218,161,241,-159,45,177,-116,33,188,136,-131,-143,-37,1,-236,-42,132,-153,-211,-62,-143,24,-28,118,87,-57,-180,163,80,66,-212,166,134,-178,-1,154,160,-199,115,147,-23,173,-249,-229,37,198,212,-275,83,79,-100,-101,108,267,29,-220,-117,167,15,-252,-127,62,2,62,234,6,39,-60,-50,-170,116,32,-184,-158,282,-221,-230,105,-192,188,-252,-73,-23,0,126,214,220,-16,-5,146,-183,-234,200,217,-36,139,30,39,-61,202,-137,-6,130,-85,111,-245,-177,166,-212,-76,72,-89,-268,77,-197,-72,-165,128,-223,-208,-51,-201,-166,-173,-73,-132,-25,48,-7,172,-225,-276,-269,-128,-242,-195,-165,149,115,-78,-178,145,104,-108,172,-77,16,-137,137,-9,-230,-251,66,-235,-189,-227,-85,231},
{-200,-130,-151,173,112,252,-15,228,50,-39,-188,-134,212,122,-39,162,218,-135,50,6,-175,133,-204,-159,208,173,102,-56,191,251,-238,110,-117,56,217,111,89,195,-54,81,-169,-58,149,-36,-65,-188,-211,83,207,162,69,-31,-215,0,29,108,252,-201,-85,-55,71,146,237,-107,161,-42,-188,-194,121,40,232,-137,-109,-177,207,55,-204,-253,-265,199,117,-47,-45,-156,-119,46,117,173,-153,-237,-98,-247,195,84,-219,-156,79,-14,158,121,2,157,-62,-199,-171,21,-74,-19,-29,-137,211,140,-152,-44,75,-27,-214,72,115,178,-201,-53,187,-57,107,240,-59,11,212,-92,-99,109,-85,-93,238,-240,-110,-36,202,-251,-246,179,-171,185,-182,159,83,57,-41,-178,-103,63,-24,-198,-188,-53,-123,146,-46,77,141,89,-161,47,236,112,-98,230,120,127,5,85,-89,6,154,191,-215,225,167,21,-223,-4,-22,180,127,-194,190,-54,210,104,-32,-54},
{-162,-124,55,170,-238,-176,-106,-26,240,78,-243,-120,-103,-121,-93,54,179,-53,-179,-66,-189,88,114,-36,32,-249,194,92,-258,136,-180,183,182,2,-106,177,28,187,167,-259,47,-51,221,-114,-209,-3,-123,-65,-230,186,47,102,213,-144,210,-67,118,48,-228,-162,84,173,205,141,-199,-251,100,105,205,-79,-147,30,225,184,-183,86,-206,73,-197,-45,184,206,-241,-71,6,247,-110,89,20,-53,217,-278,-90,-167,10,14,147,233,79,-126,88,-81,-75,-190,-143,-38,232,209,-187,-51,14,124,-194,-193,227,-255,4,1,185,-139,162,199,-125,-204,75,182,-18,-244,-105,-184,136,-181,9,62,-36,-252,42,-17,-170,-10,-187,-231,211,-88,206,-108,-32,-81,37,16,-194,-205,58,-256,-35,-79,113,131,97,143,232,-28,-73,209,-174,124,140,-84,146,258,-14,102,-31,222,2,89,119,-131,-2,82,-184,-104,-148,199,-173,178,-72,-180,47,233,-211,17},
