-0.0020644413
0.0050672195
-0.021034699
-0.0028240567
0.06786983
-0.016547257
-0.0059201303
-0.027282735
0.041701987
-0.0009945642
-0.01595693
0.023588397
0.04770331
0.06664824
0.0014068122
0.02376133
0.03134689
0.012945456
0.02519001
-0.013482852
0.0035586215
0.038239855
0.0033359374
-0.022963798
0.0138710085
-0.007032067
0.00640432
0.012762561
-0.025450239
0.054495536
-0.0020289675
-0.0026734388
0.01081071
-0.012827352
0.004684449
-0.019005548
0.021318128
-0.009568722
0.0024544452
-0.0048895883
-0.0030099677
0.011642224
0.03599217
0.007939728
-0.010108247
0.009907512
0.00999586
-0.024324793
0.022803726
0.006402979
0.013917836
0.007883104
-0.011791666
-0.016001826
0.02826883
0.025218904
0.008532418
-0.014441246
0.047568586
0.039544754
0.022393525
0.068359345
0.037506267
-0.013382298
-0.023031896
-0.017110992
-0.02950765
0.011024661
0.030981231
-0.008822554
0.0076179462
0.015434053
0.017380275
-0.016095914
0.02722185
0.02463492
0.019356111
-0.00073461334
-0.019929029
0.05550494
-0.020674454
0.0008046443
-0.01039221
0.00086216885
0.009805537
-0.0069104615
-0.0052449335
-0.008109854
-0.022314722
-0.018484099
0.005002457
-0.018946351
-0.014229199
0.0194007
0.008540583
0.01643521
0.025221229
0.022749256
0.026145581
0.010090963
0.007591315
0.010764532
0.036647353
0.011844843
-0.018264405
-0.010623224
-0.014700825
-0.027147198
-0.008546736
0.005662083
-0.05414914
-0.022486849
-0.029694658
-0.0032455088
0.010585369
0.012231072
0.0024834555
-0.024881355
-0.0041474826
0.009250321
0.034188136
0.04793831
0.018537477
0.014866454
-0.02488808
0.0074038114
0.02048965
0.001280396
