{0.013548097,0.027452597,-0.011520711,-0.0023010944,-0.020152953,0.01947,0.026074748,0.027951026,0.0263699,0.0014324848,-0.02424601,0.038625825,-0.02159537,-0.012418139,0.027888065,0.006449079,0.034560803,-0.038198058,-0.010274732,0.01810533,0.030304372,0.04095691,0.0010130303,0.0020237253,0.015038942,0.03780731,0.013735564,0.03489183,-0.001514283,0.036406234,-0.010764127,0.018933183,-0.002917705,0.032303132,0.02833629,-0.0043436103,0.013035129,0.03392563,0.01737294,0.029553024,-0.023879051,0.021104505,0.037683,0.016477209,0.01608621,0.023669168,0.007257297,0.01096407,0.028695151,0.027493566,0.031054331,-0.010088383,0.028314967,-0.0005104401,0.01873157,0.0198773,0.025701253,0.032222185,0.018371912,-0.005227223,0.033707317,0.039240934,0.033222172,0.01720971,0.035353724,0.03251028,0.032314524,0.027165879,-0.0049575986,-0.006139124,0.023199063,-0.014498199,0.017500719,-0.013167076,0.03441254,0.030417435,0.03568973,0.037416432,0.034013785,0.015958747,0.022469385,0.016728489,0.01727529,0.010761299,0.0004384819,0.028198903,0.040717408,-0.0050157444,-0.014457038,0.01093164,0.011926483,0.038172062,0.025706654,0.036967024,-0.006209262,0.0020712449}