237,161,118,7,80,24,-1,263,-74,-4,-151,-76,-148,221,191,-167,-66,104,-10,-41,-168,89,208,168,247,251,316,224,-200,18,166,296,-185,73,252,38,-46,6,268,263,-161,-35,343,-164,70,-46,324,215,310,297,167,131,-15,68,110,14,113,85,185,21,279,189,-144,-58,205,149,-17,-138,166,176,116,357,201,190,91,198,-175,102,176,172,-4,87,-130,-34,291,-118,57,35,53,79,-91,145,103,209,-52,197,209,-6,261,374,-155,-190,-134,111,-13,157,-208,82,270,328,-224,126,32,178,216,2,174,-97,0,-133,-20,-5,213,193,110,-49,226,264
118,-67,-89,-127,224,42,-73,31,93,92,-218,-91,235,-33,39,-133,-135,77,-55,131,13,326,164,186,164,-124,288,25,-221,-173,-125,103,37,-38,99,38,166,-200,-30,18,81,91,-75,-166,-137,40,-93,-78,-123,235,58,-27,52,244,145,40,-247,96,-146,-45,264,-81,74,42,30,86,-161,-156,-76,-39,35,41,193,48,42,29,-302,196,-86,-124,-85,-238,-81,207,-172,-9,-8,63,41,-131,-127,32,-42,202,-61,-99,-44,44,39,334,-147,-90,23,1,-19,61,78,125,327,-21,-336,-53,31,260,209,-48,19,-111,22,-322,-179,-42,323,-110,-116,-5,157,13
105,-216,-170,94,148,136,-82,-202,122,-278,-58,95,-86,211,-177,29,53,-1,150,-151,-73,-283,-110,-221,-70,-127,-120,-211,232,121,150,-56,133,-30,-120,-123,42,-238,37,135,64,-12,-226,190,-149,-64,-130,-256,-266,-38,163,111,-203,32,-47,-252,78,-76,74,214,-163,9,2,8,-115,258,3,156,-113,-160,-240,-298,-357,94,132,-144,-103,-136,15,-121,-54,139,-5,-84,-60,-190,-88,-200,-30,263,-215,-225,-11,126,18,2,-28,243,-225,-178,-107,233,-51,-220,3,145,158,73,116,30,97,239,27,-194,-81,-169,-111,-119,122,-149,-94,-231,89,-160,152,90,-156,103
127,2,241,-96,220,246,-103,48,-114,-191,281,43,-72,-142,193,-96,125,5,54,38,115,-12,147,119,-1,-15,221,142,41,104,282,-2,3,169,-76,218,90,-40,-123,199,-137,105,246,211,239,27,166,138,145,-41,288,113,-36,53,183,53,61,176,-92,73,195,159,-86,-12,261,58,260,225,-60,4,108,-127,-82,263,-111,-62,375,215,148,84,392,333,-34,-148,262,80,196,58,47,-62,313,29,11,18,-34,309,67,129,22,-71,2,-142,-40,-67,214,3,160,196,194,137,148,266,182,249,-144,-137,-90,69,-86,297,111,63,-21,234,-69,278,154,-127
41,98,4,-59,155,169,177,210,-59,-187,160,27,-75,-11,172,-32,96,-38,-32,-51,-155,328,132,227,334,186,50,139,-241,-202,22,298,-87,-56,269,-71,-47,225,90,154,-52,9,95,189,44,3,-15,198,305,14,-52,-173,-163,-33,15,275,-154,89,122,-53,78,30,172,133,92,112,-69,-138,-133,-8,43,245,-83,265,-174,-9,39,124,161,214,114,-99,6,-57,-103,124,-97,322,175,-83,179,314,114,230,1,50,251,58,274,147,-203,120,-295,5,-5,154,-5,157,103,266,60,67,40,304,-43,171,49,238,-190,-199,-35,31,299,176,-29,0,158,0
-241,138,-97,-184,213,-276,-156,-247,108,143,-311,172,119,23,154,-114,-300,-58,-54,-150,-210,-41,134,122,69,241,57,125,165,297,-129,-170,-81,-107,38,-231,-82,4,-163,-218,-15,118,95,-188,-43,257,-276,-109,-149,117,-372,-42,203,111,210,187,-236,-116,-45,139,60,212,-25,-300,-164,-126,-104,202,161,-147,-224,-39,105,146,167,47,-274,-57,-280,112,-350,19,51,145,144,151,-100,1,-192,114,24,-49,-35,173,172,-21,-16,183,-190,28,88,121,40,201,-108,34,-318,44,88,124,-353,-346,113,-53,182,164,-80,-295,-169,-276,-179,-132,25,130,-17,-14,-105,167
-142,-157,122,48,-158,90,15,145,-88,-98,-140,-133,-105,-220,-143,152,134,-80,-15,164,-160,-218,-122,53,-21,10,169,-104,36,49,-25,164,-124,62,-121,142,-97,147,-61,-14,121,-187,-187,-147,128,-138,80,125,-26,-74,-131,61,-15,-79,56,-10,57,-29,-48,42,-224,-30,-137,-61,23,-135,68,145,-17,53,-12,125,171,-188,76,-29,-115,14,-171,-53,106,-137,126,41,-1,38,54,135,105,-67,-134,164,-147,88,-165,-203,-212,-14,168,104,-48,-17,59,173,-158,-105,98,84,68,-83,-154,-51,17,137,-183,38,172,-21,-176,-105,-199,66,-40,-131,-36,-220,157,-100
234,-27,-77,73,26,84,-35,237,-126,-42,201,-57,26,-173,304,-228,29,-55,-77,32,-108,304,66,-34,171,-67,210,232,-107,-113,-38,233,-147,49,12,-83,17,1,58,120,100,44,256,-2,43,201,242,-33,69,223,222,-75,-156,25,-172,18,215,44,-184,-4,76,-29,-157,149,155,-50,-64,41,115,97,91,-44,-56,31,174,2,-20,292,251,-43,-156,186,-159,-162,191,136,-65,200,228,-38,72,193,211,263,138,101,288,75,109,151,131,57,-22,159,231,112,83,-8,286,75,-58,123,-30,150,-47,304,30,171,47,11,3,291,318,44,90,-122,-10,-13
104,-2,156,91,-67,-125,-264,17,32,20,42,158,-163,50,70,-217,-201,-311,33,-255,74,-26,160,7,-87,-117,25,127,298,52,70,49,9,-301,-123,90,123,36,176,-146,-181,177,-131,-293,164,315,57,-195,69,-245,-20,-206,209,-2,183,172,68,-14,-53,-56,-63,30,47,0,-96,189,90,25,170,-27,-89,-93,-74,-69,107,-221,49,-41,-28,209,-146,-208,110,-100,-102,-113,-112,100,-176,-225,-102,-230,-127,10,-193,-15,52,56,-65,-166,110,191,92,-71,-136,5,-216,-9,172,-117,-26,-117,60,-56,64,-213,87,136,-85,114,-122,73,-61,36,-38,133,-151,-137
236,310,-210,-121,29,165,-166,322,-150,199,21,226,45,-127,129,-77,-134,-13,23,200,-208,-27,159,229,118,88,125,296,-156,-108,-30,9,172,-118,215,-152,29,284,188,66,112,-152,228,-124,-17,87,290,97,152,162,129,-149,130,71,12,201,215,2,68,50,325,-62,-134,27,166,190,-3,38,146,141,163,57,335,289,-42,203,-57,24,-95,43,-124,123,-23,-35,131,-5,94,359,248,-175,97,-16,10,184,35,283,173,-63,358,293,154,91,101,153,-14,269,-38,163,-15,171,-135,-115,91,310,145,206,157,76,17,66,-155,-30,119,42,-6,-199,291,122
3,-150,-32,51,49,-128,175,94,-177,99,85,35,-37,-158,56,0,-84,-43,-105,-80,-83,61,0,25,-95,173,118,-60,113,-107,132,-170,162,-54,77,114,-117,-92,41,-5,-145,56,-215,-110,-132,118,-105,-121,89,-43,136,125,77,87,-145,-88,-112,47,-125,48,-130,-213,-184,-130,-126,119,136,64,-30,77,-126,48,-162,151,-83,40,77,146,104,-17,-54,-92,24,142,42,60,56,-15,117,156,-181,38,-17,-164,-46,-21,-13,-94,-20,-73,-114,-81,-214,-33,-2,-29,11,11,-18,164,147,-44,-125,112,104,-186,-212,137,102,-126,59,-186,30,-163,89,25,141,140
118,-35,-43,12,-218,123,-25,-81,148,67,28,-124,175,-73,175,77,-6,-194,-227,14,71,-117,118,105,-10,119,46,-81,-9,-149,-215,-49,-169,-137,-84,-98,-196,-88,-182,-28,69,-63,61,49,-10,-134,67,-176,-131,109,-132,-32,11,137,-208,-193,14,82,40,-80,27,-89,-153,29,-88,3,74,35,85,165,81,158,-194,157,25,171,-55,54,108,-41,-77,-194,-97,-214,-45,42,-140,97,-129,-16,107,51,149,-132,-133,87,124,141,-1,-186,116,63,54,133,129,98,115,-151,109,20,47,10,-210,-189,35,-2,-6,140,-92,-138,-28,45,0,51,65,-191,-6,-148
-329,-123,-196,-242,214,-295,54,-112,193,-3,-363,-212,115,243,-43,-26,-243,-54,41,53,-264,93,7,-297,-370,146,-97,-237,-311,-342,-86,-132,289,-116,-50,-261,149,68,-283,-513,133,69,-227,34,-328,27,-144,-141,-240,-210,-247,220,-90,-128,138,-28,-313,80,110,221,-152,19,262,-109,-169,-209,-269,-22,-102,40,-96,-118,0,77,336,-187,-366,-92,56,48,-121,-211,-86,201,-318,200,-213,-254,-190,-397,-44,-193,-294,172,116,-109,268,251,-318,-100,-220,50,-137,-155,-244,-238,-212,-49,-134,-244,-322,-328,-45,-86,-303,130,249,-154,-34,-119,-154,-122,-126,48,-149,-407,-32,103
-53,60,0,-80,20,190,12,91,83,-106,263,-266,39,-7,25,-167,345,-85,-132,-113,-48,133,-190,165,96,83,251,116,168,-220,172,-36,72,101,20,89,140,4,-140,228,-59,-160,-98,73,-177,-224,188,-37,60,-14,202,-87,-108,-75,184,3,-33,93,-146,29,122,-61,-103,394,212,-145,-28,-107,-65,22,9,-59,-181,162,-160,-235,290,-91,56,128,377,287,171,62,124,19,72,-57,137,218,144,226,189,-131,-181,-70,78,72,-31,139,291,60,-80,-79,239,204,166,316,275,-89,476,262,-66,-97,-191,-106,92,166,79,267,-181,45,-162,-183,-127,302,-37,-91
-289,46,53,18,48,114,-20,31,-77,12,-67,-121,21,136,108,-64,137,115,85,93,79,-220,-228,-164,-237,-210,-28,-42,168,-130,-152,-159,237,-43,-134,-213,88,-182,95,-82,-62,268,61,207,-213,-204,147,-154,-321,96,-157,-106,24,31,177,-27,-169,32,231,41,-142,165,-18,-189,-116,-11,38,-9,44,-100,48,-51,-145,-239,11,-243,37,-368,93,171,-70,-105,209,-101,-49,149,-126,-101,-117,197,7,-104,92,34,111,-240,-92,-47,118,77,201,256,207,50,223,155,-46,203,11,-235,258,13,-134,-267,61,-38,166,-305,199,-94,44,-283,-41,-166,151,59,-272,-251
-308,-220,291,-9,-32,220,11,16,83,-41,114,-4,-145,-11,-210,275,373,147,176,-43,43,83,-303,135,-117,109,-112,-86,190,-136,229,40,198,-19,-238,35,8,-281,-204,53,179,62,-56,13,12,31,-65,1,-238,-202,-96,-52,51,-70,198,-70,138,-116,30,-127,-129,93,-92,173,-222,-36,90,137,178,-321,-92,-26,59,-56,-186,-133,146,-189,42,165,88,-83,-149,106,74,37,291,22,-10,73,-44,-120,-70,-101,127,27,66,-49,-289,-123,282,34,-22,-78,263,1,264,-16,135,-18,125,274,40,-169,-62,127,48,182,-49,286,-67,-246,29,-277,-170,6,-229,-104
-81,-186,200,122,-65,-187,-78,21,-117,-128,20,182,-139,124,-137,-57,-100,30,35,-76,-72,-193,-208,-214,-17,198,167,-150,41,147,49,-87,118,-36,153,-74,-166,-165,92,-104,-85,19,55,-32,-87,82,95,9,-190,-46,-201,15,239,158,-111,29,102,-193,-102,-184,-45,41,-207,130,15,129,44,-85,100,-155,-129,-98,-63,-138,77,96,-16,96,27,31,109,13,21,-28,-97,22,-17,52,150,11,-167,118,-84,-109,-142,-92,168,-203,74,-127,-54,160,-43,188,-216,31,15,219,-60,31,-97,-165,-27,-187,21,-161,-134,131,-209,6,-152,-107,175,-193,111,111,-191,242
145,171,-220,-185,89,-169,-139,168,-80,-136,-258,1,181,151,77,55,-123,-184,30,-164,-254,11,198,-117,103,60,170,156,-51,90,-42,214,202,5,350,133,-5,249,70,-41,48,79,-63,-5,73,77,-132,261,128,288,-224,-47,86,277,139,200,161,-75,21,-65,-33,15,-16,60,243,176,-237,-198,23,175,192,231,200,294,-139,302,-114,237,7,118,-114,-176,117,-181,233,102,-41,235,247,109,76,172,116,223,-160,27,83,240,198,91,-210,59,-188,82,-190,19,108,34,277,128,-100,-230,-10,-35,82,50,-101,-163,-90,22,-9,207,193,268,-30,-109,176,112
103,60,-158,150,0,114,16,-97,2,59,-18,-103,-146,-34,97,78,-9,19,34,155,-253,94,119,129,-74,60,-12,89,-7,4,84,263,183,37,121,-157,-59,105,73,105,142,-108,177,156,84,-80,277,33,172,96,130,82,-182,60,77,227,57,219,-74,89,255,-105,146,-39,-86,-70,-62,-74,118,0,182,295,193,121,62,304,74,74,-95,10,-3,155,29,127,133,12,-140,-52,217,-70,270,201,220,290,-22,99,-55,-19,282,-11,238,-193,99,251,236,-72,10,-52,-21,167,-144,-13,145,219,-41,199,-12,-65,177,218,-113,156,206,269,-74,138,313,-98
-48,176,66,151,165,-165,185,-22,80,27,227,183,-245,45,-54,217,156,-140,141,110,147,-60,-173,58,194,53,171,203,-222,-75,171,-131,-52,-58,6,-66,73,100,20,123,-1,85,36,-168,191,3,39,-122,-49,238,-107,14,-152,-23,-26,-74,-63,-32,-245,-193,128,31,121,142,-56,-261,-61,36,-194,168,122,146,234,22,19,209,42,-27,136,-190,27,29,-201,-207,92,-28,2,136,-164,-72,177,-14,84,132,-251,-18,115,-79,140,-6,99,-187,298,-132,-37,-170,74,68,-70,190,-32,-40,91,-87,-77,-23,0,-112,-103,137,152,-292,111,-138,197,-106,5,-72
-95,-170,154,12,46,-204,129,9,106,120,35,73,52,-234,58,-113,-132,-21,-176,-36,-144,98,-201,160,-223,-49,50,-166,-79,78,-107,86,126,-129,-155,170,33,131,231,-152,-88,-77,46,2,156,161,-117,-73,4,-138,-158,6,35,76,-13,31,-27,-5,-173,-193,207,61,-146,-164,-23,-53,73,149,-127,-68,-135,91,3,-215,237,104,-85,138,-1,222,-54,71,-229,189,-181,192,-144,-200,108,95,-98,145,-80,-229,-187,21,-125,-37,-117,51,150,-112,193,40,-147,-40,-134,-184,-29,-114,-188,104,242,-39,169,-188,-212,14,-177,221,-192,74,-158,160,-45,72,-38,121
178,83,-89,67,-91,-119,163,-101,182,127,330,-164,83,-161,82,55,-137,-59,99,20,7,139,-68,237,253,-59,89,-11,-85,-154,193,21,171,-111,50,-105,169,68,-106,-19,33,-5,-98,-83,-130,-25,192,11,26,219,68,-42,161,-52,-77,272,105,25,2,158,85,-253,193,261,-90,39,73,138,143,47,280,48,50,93,51,92,290,116,263,-51,88,-15,-127,-48,77,47,65,-8,-84,173,97,204,9,140,-105,48,-169,158,200,-41,0,153,-58,2,-58,65,138,129,244,217,51,-34,-90,13,169,247,71,-114,81,61,1,38,222,277,119,47,121,112
140,47,-65,210,173,188,-86,196,-65,-224,340,1,68,190,-106,42,299,141,-122,-130,33,-135,97,52,-89,11,76,-4,-71,-25,126,215,-41,-208,-217,197,135,-115,-31,240,158,-141,160,63,-143,-13,43,162,267,42,366,22,-69,139,86,104,114,-192,-124,46,173,-107,-47,50,176,-194,165,158,12,-116,-111,-125,-153,149,-162,144,7,-75,62,134,125,199,-45,-137,148,220,131,123,-106,114,116,195,247,-118,82,-46,-134,33,130,201,67,-66,-33,123,87,-86,144,107,241,99,377,207,-47,156,-127,-220,14,137,158,-37,142,48,79,245,149,253,80,-50
243,197,150,125,211,264,96,171,22,-190,286,222,-132,91,234,-130,-87,151,-85,-155,-165,270,74,171,225,-93,182,213,-209,-102,245,47,102,-161,98,-9,-160,152,113,113,-88,-57,78,153,138,6,235,77,43,197,126,121,-61,-119,201,15,189,187,217,7,-24,198,-100,-17,238,0,139,170,-111,118,110,109,220,62,-143,52,91,141,91,-55,138,202,-133,-100,214,134,-134,-9,59,136,16,319,185,35,-154,234,242,169,90,61,228,-128,-185,238,275,-74,174,16,-5,220,268,272,42,205,106,74,-90,33,67,23,-111,137,57,299,-32,198,195,-130
88,207,56,259,-128,-3,35,14,42,282,185,278,185,205,309,283,304,-19,-164,203,-24,13,55,101,173,57,-44,137,-143,100,118,76,-14,-139,295,198,-146,98,-48,126,-9,-157,399,185,258,14,95,75,39,399,-85,3,99,-74,-49,-13,352,-21,45,-15,254,81,115,175,262,-59,132,233,5,-59,204,361,175,244,255,299,250,-2,51,198,152,309,135,-125,307,-94,71,107,195,111,91,148,143,136,-13,343,288,102,150,175,303,-171,-5,345,235,61,171,-134,-36,190,-109,-108,-135,164,116,200,-54,199,113,-52,281,253,65,59,10,41,365,-150
-40,99,-217,-121,-232,-134,-79,-69,-215,234,163,175,-283,145,-50,264,-44,-289,-125,127,134,167,-82,83,161,80,-59,281,65,-63,46,87,-18,-5,-109,67,-120,-11,-68,-13,-24,82,-226,-314,-176,38,4,12,-80,205,-105,-114,247,-55,38,-91,103,-141,-115,-262,-104,-79,-110,-75,-49,47,-253,-19,47,-127,60,60,-88,60,137,-44,165,-9,-121,-155,-119,33,-228,-311,166,-169,143,100,57,-34,73,242,-59,-6,-127,151,-321,-135,120,42,104,-1,272,64,236,-172,-137,-155,-84,-99,-3,0,-7,-112,-133,62,-248,-269,-28,-129,275,-182,-35,-132,162,35,-55,258
93,319,6,-140,19,29,-46,-31,150,18,131,-82,39,79,285,-37,-71,100,-154,-11,-101,108,146,67,293,-29,334,272,-159,181,185,179,-55,-175,50,-40,205,205,148,140,19,2,246,85,187,128,299,71,253,139,114,29,-30,-106,-166,195,78,103,-76,-192,132,96,-22,-158,38,-43,-46,-6,17,49,98,311,88,-94,-23,315,12,196,204,219,-151,123,-63,155,187,-87,-237,211,-15,98,269,287,213,-21,-14,306,36,-63,246,402,47,-99,50,258,-251,244,-152,-50,36,153,19,123,47,40,199,268,-169,-38,-90,-116,255,204,306,214,-116,-210,79,61
42,-164,-205,160,275,-7,168,-319,93,-30,-475,130,103,127,48,-18,-254,149,152,-153,-84,306,252,-210,-27,54,172,-120,-48,3,-363,-305,110,17,162,-265,39,241,99,-300,-36,-62,-44,-125,-70,-63,-53,-79,224,46,26,211,-124,112,-16,137,-28,-263,54,-49,12,182,83,-403,-226,71,207,44,7,152,-99,-33,-98,23,252,125,-117,136,-294,270,-76,-321,12,94,28,164,78,-138,-245,-152,-2,-179,-220,61,-159,-252,235,188,177,-133,-303,-79,187,5,-382,94,-125,13,74,158,-387,-85,65,6,-53,-128,20,79,29,-268,104,293,139,-13,-149,-270,179,244
141,78,241,212,173,-98,57,200,196,106,51,128,-169,-143,229,-17,-11,-146,-180,191,16,43,263,143,18,291,191,218,75,285,97,-21,-94,83,184,219,35,227,127,-101,34,-31,-3,-167,-93,297,-79,178,231,281,-144,-31,-2,169,163,178,-160,-64,72,-176,234,87,-28,20,-89,122,61,118,84,198,212,167,252,155,27,178,-170,-110,-100,0,-149,-165,-40,139,95,4,154,249,187,200,-93,173,-118,264,-2,163,-159,76,-53,183,192,-83,7,167,-16,-133,162,83,70,-11,109,-190,187,-81,268,87,159,-226,123,155,176,117,-5,60,218,127,56,117
28,-145,79,-66,28,150,126,37,171,-183,459,-185,77,121,-6,45,131,151,-108,184,270,-128,-110,194,-38,-225,45,88,19,-61,105,259,212,179,-271,74,15,-126,-215,283,188,194,-8,56,-109,-282,268,58,-197,-83,126,179,91,-46,143,-180,52,131,200,-16,107,59,51,298,-31,-228,5,47,84,-173,82,-196,-86,157,-165,-277,315,-136,248,-137,288,306,152,137,203,52,-162,-135,-162,72,-18,191,118,68,134,240,-289,145,-39,-186,399,174,105,129,206,88,78,204,114,-3,323,308,-178,-229,105,-123,121,-60,101,322,-160,-168,81,-57,202,345,95,112
-228,-84,169,224,52,72,101,-145,173,174,126,-270,198,-55,-50,79,-93,70,211,-140,-38,-110,-278,-165,-314,-92,-256,-262,266,140,137,131,132,189,-96,-44,202,-92,-273,3,1,1,-129,84,-125,-90,-213,-41,-131,-252,156,46,121,-232,49,-15,-23,-31,198,197,-128,-98,-32,-184,-122,-30,-16,14,210,-241,-259,-181,19,-137,-75,-40,297,-29,-143,129,258,-14,107,95,-207,-174,37,-111,-34,-24,78,60,-188,9,130,-119,-164,-106,-167,-272,229,202,216,152,177,91,161,54,-2,17,257,285,111,-203,-167,69,58,-244,103,1,158,-95,-234,21,12,-132,-262,-98
-138,-178,36,-194,-49,-15,-181,120,87,102,-211,-127,170,231,-140,125,-83,179,-69,-13,92,-261,-16,-28,-170,127,-25,-9,-107,-56,-34,-259,138,21,34,98,-128,-82,138,-211,135,-8,-145,-112,-162,-132,58,-91,-260,-7,23,9,-160,35,-47,-157,-61,172,-216,-122,115,-202,-189,163,100,-195,-109,-3,34,-175,-219,-189,-111,-118,221,-275,-9,-241,36,102,-124,-133,-219,-70,-112,-71,46,-180,-1,-107,11,-236,-43,-107,-65,-205,-335,114,64,-19,-95,-68,230,-177,-219,85,-173,128,-101,5,25,-80,-125,-275,68,-88,28,-120,66,-111,11,-300,-85,-215,151,-56,-34,-273
