{{-263,184,-170,104,16,-130,-274,41,-123,-30,21,57,-314,-206,-111,-294,374,202,364,-285,180,176,-73,39,231,304,372,-234,-173,85,61,-209,181,87,-269,-241,265,281,-247,-289,-34,93,-183,-53,186,427,-209,42,412,-180,-67,-193,-301,257,-229,-329,87,-409,-126,283,-392,224,-166,-240,-314,289,213,-369,315,26,-269,161,-236,-229,276,274,214,6,-339,-444,90,111,-330,-7,-272,-208,-221,93,-53,-110,327,420,-10,292,398,314},
{225,138,-123,-1,105,310,-29,211,-224,83,246,115,261,-368,-339,-337,407,251,-145,380,-137,26,-260,239,-285,-351,-403,-366,-313,394,419,20,105,22,293,-288,274,-282,40,80,-17,-118,-295,148,320,-411,-380,55,380,-53,-298,-193,-367,-40,278,272,-175,-260,-357,20,-351,-370,285,225,-279,-292,257,13,98,102,-8,-11,-276,-334,205,110,-329,194,115,-70,-192,316,-156,146,-9,-357,-321,333,-360,189,-89,345,322,-330,-141,-116},
{399,-331,80,-396,146,83,247,186,-385,21,-156,-246,-157,-439,369,-361,-54,-283,-336,225,93,430,-173,379,64,30,-367,-289,-341,-274,-244,98,251,-219,246,-222,-35,319,-276,-238,412,290,-68,-337,161,-332,-35,133,177,-320,327,60,-83,394,107,144,-384,24,39,333,380,-287,126,2,345,-398,314,148,211,83,356,274,-343,363,381,-92,231,-113,376,-185,-325,121,78,186,-159,63,-77,250,-404,300,436,72,-89,374,128,96},
{-47,275,-362,-20,-5,51,91,375,169,365,-125,-234,-9,307,63,51,20,389,-256,-135,-327,-89,-156,281,-49,330,123,133,-228,149,-377,124,78,160,126,341,190,-375,117,33,216,183,-104,362,-178,-90,-40,-196,20,-34,82,136,-131,-153,-91,-249,238,-157,205,96,-63,134,-23,-8,-213,89,372,-291,-266,-293,-320,-130,122,335,-22,400,304,192,-183,-30,86,-103,129,426,213,-135,56,294,-58,-29,230,-163,247,129,-182,-71},
{44,-47,-36,309,-336,-208,-52,255,2,362,255,23,139,-336,139,38,-178,238,-98,164,-249,347,166,82,-365,175,-180,76,78,-230,208,-86,314,-133,140,-227,-24,292,74,369,136,252,-72,14,259,368,205,-172,-296,-413,-76,164,-184,-159,-271,263,-102,233,-338,124,21,-48,-239,-72,217,199,61,11,403,228,-129,38,-161,242,16,21,399,196,7,176,-362,376,344,-388,325,-243,-298,-205,9,192,311,-403,133,267,81,-233},
{-210,-393,-172,-226,-168,-43,217,-96,214,338,-129,390,156,-161,-85,45,-184,-3,-74,-244,-245,415,363,-76,229,-228,-185,53,-397,192,-159,303,-87,-152,-315,-390,-191,420,266,70,76,-6,109,-162,38,147,-72,435,-194,190,-259,-140,12,-390,-71,-258,-251,330,-190,-402,268,-122,50,193,343,50,-177,186,169,366,-277,172,-397,142,38,275,-15,-35,27,-391,-201,-120,295,284,126,-197,159,-330,344,118,-331,-394,-241,410,-252,193},
{90,-245,-321,134,139,355,-36,383,319,293,317,357,220,27,-202,259,279,-2,29,-160,-230,9,-45,-267,-74,234,213,-4,143,135,-328,103,-300,-193,-236,-247,-204,116,-409,189,298,-293,344,-14,-283,-304,108,35,-109,295,262,390,-318,-300,-346,-175,-233,-300,2,253,-395,103,312,-285,383,256,148,-145,-208,234,257,373,138,-259,220,-103,203,-209,-380,387,45,312,-145,84,4,-317,-223,76,-281,-341,134,-162,-48,-164,-244,-392},
{-296,128,-173,320,291,-89,228,-146,-219,321,-58,394,154,230,-296,-90,306,-310,-185,245,-306,195,-322,260,116,291,-182,407,-237,-269,-109,288,27,-238,135,94,95,-142,107,183,-400,300,-407,-393,63,-196,-86,409,-230,156,355,235,-60,-382,-30,23,-49,-322,125,-369,10,-192,287,206,-314,-277,2,363,-6,364,361,-117,-2,-82,351,382,341,146,271,302,234,-369,185,44,-146,-360,215,-65,-208,266,-185,-133,296,69,-278,-401},
{-291,-123,-257,-105,210,-412,314,405,102,353,160,140,147,306,312,-183,-417,127,-107,62,103,144,-43,-136,-232,-379,380,227,72,141,48,-4,276,5,-340,-41,20,-355,224,384,-404,155,36,133,-55,-245,240,-51,118,-93,330,-261,358,264,-212,-240,96,249,165,-250,-72,163,377,-38,147,-157,-3,215,-46,-328,-221,-353,120,-77,-41,-437,-174,-10,-139,-164,-384,311,-2,-190,-371,-9,147,-199,64,-411,-163,110,-36,30,-61,12},
{-25,-114,398,-365,185,279,203,378,293,340,-341,280,-269,294,-234,312,354,377,-418,-418,-105,251,300,-261,-62,286,255,-96,-330,209,67,-256,-321,-252,241,176,213,-159,151,14,234,146,-384,22,278,-5,150,-357,-267,224,216,8,-180,0,413,142,364,5,-261,-40,50,-84,-66,-421,235,425,349,-216,129,-228,-22,-255,240,297,-146,99,-6,-332,-147,-185,1,-315,-39,193,-409,129,250,-306,-53,-256,184,-397,-148,392,-79,29},
{-141,-161,-13,-216,274,-52,-81,-230,250,-297,-332,-198,-238,-360,-386,-279,21,6,76,155,343,263,266,-232,211,161,-75,57,211,123,310,-314,-236,60,142,256,-213,-113,101,124,-192,-375,219,15,-195,143,258,-61,279,433,30,275,307,177,-64,-344,375,170,75,105,302,326,-374,174,208,-254,197,-98,-64,-116,-249,-327,368,23,122,-205,-353,-285,-299,388,16,-84,391,375,-202,56,-407,-121,-257,227,66,421,-328,-41,-103,-234},
{262,88,392,-140,-194,252,-118,128,-95,234,-410,-93,-273,328,-292,-233,226,-421,246,-131,-23,-340,-59,-121,-283,-300,334,203,258,-420,-133,114,221,3,404,-108,-407,-93,369,167,367,85,276,84,-345,137,-258,-144,-96,150,57,-179,109,-246,-180,-80,280,-368,-46,-401,-192,58,10,339,-217,307,240,-342,-414,330,-3,-429,65,81,357,-367,-228,229,-264,232,146,-119,379,-206,-2,-139,-84,23,335,-2,-166,364,109,-49,-166,95},
{-123,-40,-25,244,-41,-36,-109,310,299,-11,-50,174,-67,-287,-11,-275,404,-323,314,271,-116,412,-64,-206,396,-60,-259,34,392,-242,10,-178,-6,431,119,-124,-179,-234,388,-227,194,-237,226,-383,-20,176,-119,132,-293,86,-31,-107,-380,-338,357,255,-78,-72,199,109,-21,-316,-232,-74,31,-83,-386,85,-336,-101,9,-79,104,284,-402,-109,175,-115,366,-392,-92,110,50,-273,-330,-149,-186,279,366,-129,-334,352,304,-160,-30,-16},
{204,87,-148,-237,-115,47,-384,388,-398,291,-38,91,-182,329,305,-16,168,295,-6,-243,-149,310,-223,247,386,-181,-99,319,4,-260,56,-36,-368,-298,131,-91,-4,214,98,-322,-266,-420,-311,-41,-210,-429,-48,-343,419,-177,-88,23,159,-60,362,249,-356,-209,333,-13,-235,273,264,299,-97,2,-89,53,24,-20,-388,-392,244,-300,-277,-258,-344,277,-140,364,-216,-293,-178,-149,-333,-68,-84,-234,-298,281,-141,-116,-345,24,234,92},
{61,380,354,-50,222,279,283,163,-98,-37,-277,157,-336,-409,-247,-81,-79,-108,74,-279,315,-397,-196,-400,-329,-217,104,-167,-297,-342,1,-226,-326,-66,388,254,157,-372,118,-385,367,146,146,-249,93,-348,-406,-338,123,104,-95,-356,-127,363,306,154,164,178,53,-53,215,-309,-353,-94,381,394,-103,-75,-303,-32,-278,-48,13,350,-221,-202,-268,126,-422,364,179,-199,-346,-180,380,-359,-408,321,83,-150,-180,-17,342,-24,379,-289},
{-177,376,-379,-326,-120,284,-372,333,112,280,202,140,-294,-47,-13,357,180,-273,-399,-337,-328,-216,76,144,162,-188,329,-278,300,-192,275,71,190,343,-341,192,-259,263,33,384,360,-101,-58,175,-296,88,-282,292,121,-381,343,-292,105,398,101,188,-165,160,51,-100,-254,230,27,249,240,-110,-149,227,-127,-415,357,385,225,303,-267,127,-58,-53,6,167,-98,-171,354,277,134,-182,396,-29,297,198,331,365,325,-178,-383,336},
{229,-395,-240,-413,127,-341,12,210,-215,-345,260,185,-258,-20,95,308,411,262,-379,131,203,222,284,-366,-204,-214,174,-346,200,249,161,-229,281,-88,-347,-254,-325,204,130,157,215,-1,-225,181,325,-199,116,179,337,69,-269,298,98,-84,-61,-66,133,-424,285,29,166,-388,-367,418,244,-349,274,-74,315,-308,-183,-120,43,-23,44,-108,-263,-362,-160,-65,315,66,249,301,208,-154,142,-212,235,-278,-71,411,37,294,-66,-382},
{-255,-274,51,-165,-99,-184,10,140,80,273,246,-102,205,45,-136,-151,253,334,40,-206,322,-411,-123,-364,-211,-82,2,-383,41,-197,322,411,370,31,-62,-191,-101,-225,-143,332,-343,201,-248,-63,96,323,224,-214,-414,209,273,343,-46,73,-291,-238,-378,-360,47,228,376,-161,-168,264,220,-212,-27,309,-206,-279,209,229,-387,-127,360,356,-270,281,-4,-208,47,-342,-76,-370,-236,-357,421,134,77,-393,56,-193,313,253,-371,50},
{-22,-172,92,104,-306,10,-95,-37,397,-381,221,236,-275,253,347,-149,119,80,27,113,224,-58,215,90,142,50,132,116,430,271,-257,-315,331,87,125,-150,-239,-355,-108,208,-72,438,-38,-380,91,-243,180,107,181,-277,239,70,357,87,273,8,77,-287,-52,-180,-361,67,98,337,-351,362,-100,-260,-240,-232,355,-235,248,36,61,212,-185,-348,-394,348,-154,285,164,307,-171,-322,-190,-69,-269,89,332,-391,-171,155,-6,233},
{-125,282,-72,-253,-3,-98,-366,-348,-44,38,-49,-378,-276,168,164,-244,-274,-177,-386,-41,135,131,-149,318,-53,-390,120,75,-148,124,-263,-134,123,-372,-125,286,-256,-379,-308,310,-169,298,-155,64,-241,-231,-245,348,315,-209,-406,-258,194,233,10,321,293,-117,210,-53,363,196,-261,195,95,250,398,-333,242,269,-239,95,-97,-330,-156,-393,141,-78,-35,-160,241,-155,-49,-20,129,-59,236,87,311,-308,281,-49,-314,-171,-387,-144},
{-184,143,66,78,-340,39,-226,1,237,-345,-289,-345,-278,-66,-147,-374,-398,278,174,359,-185,53,-245,-316,384,165,-357,-59,395,136,393,203,389,-118,-219,-101,-175,-85,52,289,149,-342,88,134,-113,154,32,-201,-131,58,204,-186,-301,127,80,381,-270,-204,-8,-73,-295,-174,-35,111,-343,22,-319,260,121,148,-319,315,-144,72,-340,-311,404,175,21,105,-25,-297,-333,-287,328,80,16,-213,294,-115,-14,269,-2,-146,160,228},
{80,82,263,78,248,254,60,319,-408,105,-183,-244,-398,296,-200,369,140,-294,-310,232,84,115,229,-223,415,27,-46,-312,289,-26,-406,-108,-358,127,-398,245,-22,178,380,244,-64,38,99,61,377,-246,217,99,-168,-354,-416,227,-46,-377,-263,130,237,305,-194,-296,-376,-278,219,-263,-35,-311,-305,133,325,-131,157,377,-38,-215,73,40,-143,-398,272,116,208,74,1,-252,126,79,47,-357,-372,-39,-35,344,185,165,360,-101},
{268,-14,293,358,394,53,-329,18,254,27,-404,321,-405,-24,-364,-224,73,-389,75,3,-40,-136,-275,84,-216,328,-410,92,57,157,-324,303,61,-166,-99,-349,-344,217,-59,-257,-4,293,-394,-169,-423,363,-249,-83,-51,-25,-325,43,-98,271,71,-215,-382,277,248,-398,210,-231,-36,261,-40,28,-314,251,185,16,-249,-376,-13,256,362,294,164,39,284,-39,162,389,21,-153,-335,-371,-353,219,-41,332,243,67,-141,220,-71,292},
{-54,-221,367,-79,-382,274,-288,-198,-358,-290,-19,170,-292,428,219,153,-120,158,57,83,226,148,-34,-297,40,-64,-342,-302,-362,-346,-247,-85,238,30,84,-260,384,-134,401,260,242,-394,-129,123,-157,251,330,-61,104,-34,-102,-40,-262,403,387,437,-127,142,241,-304,91,200,414,-77,270,-393,-31,-36,46,-283,-87,-303,-263,-68,-301,320,-373,-276,257,-72,138,204,59,64,-294,262,12,336,-195,-255,373,-72,-207,96,20,381},
{361,-389,209,-11,-126,328,-187,-370,115,-424,270,-413,-275,85,-353,-224,260,186,-110,-220,371,24,-16,-165,-353,172,-8,80,271,-70,-373,-353,-92,300,17,386,-125,284,-75,201,327,-333,10,-301,-329,-170,400,-367,152,228,-389,-218,33,364,237,329,178,-321,-259,343,13,105,182,262,248,-372,322,-385,181,302,44,292,143,31,154,-22,-298,310,-155,93,-33,296,-233,-5,142,25,182,100,6,-245,-34,-57,237,243,361,231},
{-206,265,-167,-198,275,92,-24,-340,-416,398,267,-341,-241,181,116,-312,-219,-176,127,186,191,90,-8,26,-167,269,136,-259,218,172,378,-173,-363,258,-413,-371,109,366,-185,428,311,13,99,27,172,324,-42,-428,388,271,-9,-145,-140,-18,-159,-179,-102,322,87,342,334,83,-302,-418,152,-146,-392,324,-219,397,59,340,20,-116,403,-398,-25,396,68,401,-169,259,-376,-415,-165,162,-370,84,-267,104,321,60,86,215,140,38},
{-242,-385,-270,287,37,131,252,229,-248,-241,21,-302,-388,22,-153,-65,297,-246,242,6,166,249,248,346,-419,365,-226,363,-342,156,8,399,-399,-354,56,324,-264,286,279,-387,241,132,-183,182,128,412,-350,251,-116,321,-76,306,-32,-177,38,-406,122,157,0,189,-66,294,-110,-156,305,95,-60,334,-62,-26,-86,-240,280,-15,-304,-330,-117,372,-282,29,-297,422,126,217,258,68,-327,375,-292,357,172,-157,-249,-77,5,-179},
{237,15,295,-276,350,-178,336,-35,197,227,372,41,-199,-210,328,-183,-205,-234,366,-391,-98,37,172,216,37,139,-221,186,109,-207,-94,374,30,-204,14,-318,-57,-388,36,-179,-416,-114,106,-140,-428,47,-415,372,-173,18,196,-334,-191,-320,81,-302,22,44,235,-326,-400,276,178,-286,312,229,-180,-276,264,302,-190,-179,200,-149,-405,196,345,-229,78,289,214,116,-181,-222,379,52,-302,369,180,-398,-324,215,337,398,132,-221},
{312,279,188,107,285,326,-12,-300,320,-49,-7,309,-45,-240,-48,243,-10,263,160,172,-329,387,284,106,259,154,284,243,275,79,-250,-128,-30,-131,-176,-38,-12,86,17,16,-184,401,178,-229,134,-56,-162,384,-77,59,170,360,92,-221,-36,-312,390,-366,-82,-32,-213,165,38,236,-255,-421,274,336,-216,-329,114,-126,94,150,44,66,-237,-77,35,4,-294,-166,-344,-192,-4,171,98,-248,95,-371,-83,267,59,102,-317,393},
{-306,-222,-328,13,-159,122,-352,-62,109,372,-2,188,-68,-357,20,116,342,115,30,-126,5,222,267,-369,-61,-60,-95,-262,273,51,-202,160,235,5,-416,-9,-177,-408,352,-159,249,104,-320,30,183,252,127,-284,394,-82,-100,-232,377,-397,-231,-375,269,-236,-143,-377,-118,-285,-106,-335,280,103,0,-4,-161,260,-83,-412,-76,205,-44,-360,2,42,-306,-227,-351,-293,231,-147,-422,-425,69,102,85,-131,-197,367,271,42,-279,-373},
{316,-329,279,-353,104,-274,376,414,196,262,131,-68,183,-304,-60,-27,-82,-273,-68,243,-51,-272,-382,50,-376,-401,263,-134,275,21,-328,-147,342,94,-349,-282,-368,-181,402,-187,-238,332,-346,357,-3,261,34,-344,-329,-356,208,-268,153,127,-154,129,22,-209,19,174,-363,-18,-232,389,73,-340,323,115,227,314,433,28,299,394,-195,-309,347,-89,237,-76,-15,240,-204,398,-127,162,-307,435,316,29,215,-257,-73,-6,400,-151},
{349,-348,-240,-205,-301,-392,198,286,-114,-263,-363,-99,-288,-112,-385,378,280,44,-223,-52,194,-245,-266,-55,-216,-198,-402,7,-307,48,-83,137,-49,182,-69,300,6,-337,-204,-401,-92,-208,-76,-5,-398,-413,376,-305,233,184,38,326,136,394,-57,-265,-187,-380,134,12,348,161,-74,-72,-288,176,-185,183,237,373,121,-379,-421,-277,284,365,306,308,57,-157,23,-7,-370,-320,-204,92,-347,-365,-55,391,375,140,339,-121,-185,-66},
{88,212,355,-323,217,296,-151,332,35,223,-104,202,-146,305,-337,-333,250,339,-361,-56,1,413,-303,253,-142,-3,-355,-9,204,249,-114,375,-127,378,-91,-73,82,397,-172,-307,214,373,252,280,-42,40,-156,-407,-345,58,-282,-334,385,-372,315,158,396,335,153,296,65,297,-349,-90,-143,396,-94,92,-141,429,159,30,-101,-161,177,214,255,-227,374,-273,-128,184,-312,-360,118,84,-128,-72,-329,-345,-319,137,184,-261,142,84},
{359,303,-98,-400,17,-132,-176,-253,-355,162,327,-266,-402,-325,159,-298,-367,-208,-45,385,-68,9,-145,233,-209,89,-266,-261,40,154,-300,215,227,-170,370,291,286,-9,-141,-287,92,-196,-343,206,-198,-403,-268,153,-381,390,340,64,-170,-92,-119,-402,223,-328,-176,136,-342,337,233,100,319,89,-185,-281,112,-125,28,-199,-280,-73,132,342,355,252,401,307,287,33,304,-108,-286,383,-29,-291,171,-147,412,-58,-14,73,-145,-194},
{288,197,-297,152,-306,229,-225,265,-166,-287,-56,368,-121,-175,-149,53,70,-297,340,-376,226,-168,346,-345,59,-132,-11,-303,366,-424,386,-259,-340,-347,-234,73,282,31,-389,-422,-146,89,189,401,347,-341,-81,-154,236,360,279,-77,-91,-130,278,-14,-151,-261,-224,158,293,-350,26,-231,379,44,-352,308,-239,-326,124,185,-328,-408,-404,84,384,-228,-55,-435,-137,-222,348,233,-1,148,246,-112,405,-406,-249,-200,191,-387,-52,420},
{-226,-257,-194,-21,69,-13,-365,-40,180,402,0,-236,287,-369,350,-202,152,-110,-62,-108,249,-149,-90,43,-50,168,302,-85,-56,-151,170,323,-93,-20,72,291,272,387,290,-117,-344,-401,50,132,-145,-176,-172,-137,-369,-70,-33,-357,237,254,-184,-313,333,-97,-59,27,143,340,-136,-294,53,-107,361,-193,105,-56,370,256,342,212,402,158,-249,-180,-413,-335,255,-233,-400,-7,-32,335,-80,-19,-4,338,311,-227,-161,-72,-349,-230},
{399,-355,-392,-143,-329,-122,-259,-312,-224,224,-379,-336,241,131,-88,319,418,26,191,119,-319,-408,-218,-186,51,-135,211,348,66,37,304,250,-307,255,353,-210,-219,225,-218,-366,-154,108,296,-206,-358,53,-51,306,-115,-223,-215,52,107,-194,100,-336,-310,-257,-36,261,24,59,-179,39,306,56,-402,-14,68,272,136,25,-26,96,-305,355,40,59,83,105,-122,30,366,-186,297,-370,-47,37,-329,49,-292,268,367,-273,-95,161},
{34,405,81,227,-164,24,170,176,392,-309,372,108,-9,299,-148,-171,156,38,206,-129,-117,-178,152,-229,-28,297,295,-115,235,383,284,60,291,256,-32,340,-387,373,-153,185,-191,164,-195,352,94,278,-155,-306,312,-152,43,-304,-142,-341,276,412,92,39,-232,-252,-64,-267,298,-224,402,87,401,-226,70,32,162,-307,-229,-176,-327,-248,-73,-422,37,-14,111,-147,364,-303,249,218,295,-52,379,118,-137,-271,-120,-369,-353,201},
{341,9,-334,34,-85,123,292,-136,-327,-81,-67,-17,369,-373,333,72,260,-141,-44,-388,171,140,-385,-155,251,-87,288,294,-68,400,332,-126,-34,51,-246,-127,-339,121,41,32,-409,28,-109,-335,294,-346,113,183,-376,338,-285,-120,293,-319,-256,-28,341,342,218,-151,-205,77,-150,-184,169,-196,-66,-38,-310,227,-356,-56,-180,-228,21,54,140,70,92,-196,-145,-187,359,-392,93,419,23,-427,298,-134,-14,354,-367,-252,383,230},
{-190,-50,11,-300,293,-275,55,141,-36,-218,-8,-102,104,392,23,-303,-44,-9,-141,-332,-229,-298,27,-398,-212,390,-228,-126,88,-112,-21,-393,-270,-263,276,-268,-81,60,160,-334,350,-273,-323,-223,-48,319,233,242,41,-133,-302,-332,-154,396,-138,-382,-30,-251,-375,207,-405,317,282,109,-386,-123,-378,167,-106,-272,-136,-225,206,-318,10,-80,350,193,158,-41,164,112,-106,291,-224,-133,-341,-102,-99,367,-355,11,264,-39,-166,-427},
{-156,200,270,-363,17,202,-329,167,-366,268,229,194,86,-48,248,7,256,-75,163,-197,-138,-209,370,-145,70,-345,400,-396,109,319,52,-394,324,-290,152,181,-370,48,337,330,231,296,368,252,112,294,-15,261,139,340,185,-332,130,-288,-4,-336,14,105,-136,-94,-161,-2,-148,-413,-399,-302,114,-379,344,122,317,88,22,-10,53,-161,-137,-189,148,-320,-182,-340,305,-403,-248,258,342,-180,198,308,132,-358,-420,365,-66,-5},
{-102,-298,54,4,-57,83,325,-325,29,-245,-227,125,-92,130,404,125,340,-43,120,252,-29,-68,-111,287,330,131,-117,238,393,15,-358,-376,-303,195,-62,-144,-263,-353,-220,-199,95,280,-428,-121,170,-53,6,-137,31,405,414,324,116,-96,333,190,213,380,299,-15,-380,-364,298,-293,-318,23,100,-347,-83,-110,-359,-22,-133,-79,-340,99,-56,-12,-224,139,-377,294,8,-167,-225,-366,373,-46,-150,-142,-210,-328,84,-51,40,-199},
{-245,-91,365,72,286,144,298,71,246,-137,-292,366,406,208,-207,328,-55,-386,-67,-275,-359,45,183,-346,76,-139,-327,-345,-100,-180,345,-207,-332,-419,141,172,0,154,-236,213,27,198,404,-295,71,23,211,-29,269,402,283,-140,-199,-203,-86,114,-112,0,410,-354,81,-312,-64,-175,371,320,137,364,7,255,141,-63,-369,101,-173,-170,18,321,-187,207,-174,-261,-138,41,175,-92,-14,-216,-109,-126,-306,163,356,114,-383,-353},
{-397,-174,25,292,-80,177,-52,-370,374,326,194,353,152,-184,198,-354,266,316,97,155,-308,-224,16,98,74,-367,-401,250,-340,-160,365,1,252,-129,312,-149,-254,-361,-318,-53,-233,-5,402,318,-72,135,-176,-202,368,281,217,201,257,-339,210,119,-77,-217,-383,156,-247,217,55,-199,45,-404,424,12,-44,-168,-376,64,-368,28,-357,154,230,291,188,-430,75,-207,-317,-346,180,164,217,-401,-73,-19,56,-367,380,-422,-59,342},
{153,91,270,-215,-243,-184,10,-220,-256,-321,138,-99,-72,-231,-112,107,-67,-117,-244,-162,-351,131,140,-150,-225,-422,-155,106,-171,300,390,-163,139,-141,149,62,-129,-338,146,-155,171,-29,225,-196,-277,142,-91,83,393,338,363,-279,59,54,-63,-46,225,-392,392,17,284,37,-111,-227,345,-255,312,-110,-242,221,-230,-69,145,-433,-167,7,304,323,284,291,44,-284,177,242,347,-228,402,-401,-40,-354,-342,-299,362,388,-101,-104},
{-132,146,-6,372,273,95,288,-15,-109,54,271,173,277,-205,-98,382,167,-216,390,184,386,-389,396,-367,-326,188,-165,3,-176,202,-16,296,125,-397,-46,-102,-2,-136,-224,362,374,278,265,-97,-344,-93,-409,-38,-197,35,387,258,28,-86,389,-186,-139,-286,-235,314,-6,143,59,397,-93,-198,370,-203,-174,-287,58,-344,-204,-23,54,-405,45,31,280,-266,170,96,166,-327,23,-138,-136,-278,-120,173,-117,44,149,-6,-301,50},
{290,184,220,240,278,-210,-106,-125,-247,-228,408,-349,9,-373,-373,-15,327,280,-63,-323,-277,408,73,72,-91,137,-298,26,406,240,285,412,-176,29,278,37,252,174,-10,-286,68,19,317,-176,109,392,320,-353,-141,313,-308,267,-203,-74,-122,357,79,392,108,-322,91,-344,320,66,-330,-114,-141,57,-156,-52,83,308,362,-275,107,379,334,-179,-395,-228,357,-329,-76,-290,287,-403,254,-33,284,-182,292,132,-195,-240,-109,-175},
{-328,-233,6,-131,167,327,181,-43,-293,-203,-86,-270,316,-133,54,-196,203,193,77,-35,-94,217,361,24,372,-133,-127,103,-113,-290,-363,-31,352,-153,365,-115,228,-43,32,245,-377,106,-233,26,99,-313,286,113,343,-312,109,-115,401,263,-283,-69,-104,11,298,132,-373,-18,415,53,-61,-276,-266,374,408,-335,296,-55,-21,-106,105,-384,380,124,-143,-413,282,230,-215,6,-247,398,-301,165,-383,-355,72,348,-235,283,-253,-247},}