224,316,121,-190,273,-266,258,298,99,282,209,-85,177,-166,31,-73,-57,12,-100,215,-153,-181,-91,-81,-87,277,258,-139,225,66,6,-92,-212,193,-99,-37,-274,38,-36,159,-229,224,-252,149,180,-178,-108,-73,16,-234,-235,298,-196,79,248,-61,-2,-181,-193,-279,51,-30,36,-99,20,176,-212,98,-95,-29,113,216,55,266,-44,112,-243,142,-198,-208,-175,-135,136,53,157,-132,-227,262,161,2,140,-152,-163,-125,3,-127,116,43,-124,30,213,235,-68,223,164,277,-205,-151,160,-224,99,-36,-25,267,-216,66,209,86,183,272,-210,-98,211,-51,45,-44,300,61,52,-142,157,-50,22,279,-186,19,291,126,283,53,-285,242,268,153,208,20,-45,-5,88,15,4,207,-287,23,276,-276,-130,-208,-29,71,-246,-288,269,-212,-42,16,208,-201,-94,-167,118,43,-88,-219,-225,8,-2,96,16,-253,-171,46,268,49,105,35,-137,-204,93,-84,-165,213
-185,-5,-105,-173,-143,34,285,-2,-64,-131,-45,220,73,-216,190,-151,2,-264,109,-305,261,-122,-52,-126,221,-139,3,-150,-211,96,65,-267,-31,182,127,-60,101,224,86,78,-88,-53,80,238,-240,136,108,-132,38,-39,-293,115,219,270,250,-103,122,100,-164,-154,-6,132,-198,-118,168,-179,248,252,153,-188,0,-245,-269,111,-240,-46,190,-90,-208,37,-19,-87,-140,175,95,232,-208,-169,-51,-192,-125,37,-61,-147,203,144,-138,290,142,-73,5,-93,91,-273,-96,55,-142,0,-138,214,46,-43,112,-18,-19,-159,-210,-191,97,151,234,108,-273,-256,152,165,89,-202,-250,186,-27,-176,-280,255,-298,269,-19,-114,215,32,-147,-267,304,151,91,244,-23,219,-191,90,-298,117,-259,-56,53,-174,211,-170,-68,137,179,167,297,-209,-202,-62,-282,93,-200,118,-9,285,167,36,-143,230,74,134,-87,-225,105,-49,-221,-223,35,-213,96,-12,-158,-129,-254,274
-149,69,154,124,134,-163,-22,-182,-126,-135,229,71,171,-137,-185,-72,95,146,82,85,-105,21,-282,-104,-75,109,-204,-76,-53,119,144,-181,199,-25,-282,111,274,-81,-254,-154,-290,-271,267,144,-290,-178,151,-185,-26,54,-181,-231,15,243,-241,42,-276,-148,67,-297,-235,222,-32,3,184,69,165,-14,19,186,76,-155,292,-164,-261,-63,250,230,301,-235,-212,-22,120,-11,-173,-212,-32,-212,-284,116,-30,-292,-42,-212,181,31,261,-196,-154,278,215,-45,75,235,-185,169,-244,27,111,-289,55,206,100,-5,2,204,-103,-150,-183,275,-161,-237,-247,28,-26,23,-163,-250,62,9,-166,-38,-65,26,195,59,-157,-270,-212,283,236,133,121,275,-214,266,147,176,1,-275,250,201,-118,175,-159,123,-18,100,257,-116,-86,-100,167,152,162,-14,-107,95,256,35,-52,-287,-241,-277,259,19,223,-124,139,0,-124,-281,12,-99,52,179,-254,-109,-196,-120,212,252
-115,-60,-265,281,115,-179,196,190,280,-151,-173,131,42,-36,200,-209,169,-264,-49,256,-138,22,-263,-277,269,-71,-86,-163,272,121,-52,224,157,-281,-192,-118,109,72,217,85,185,-65,118,-64,45,-10,-270,-108,-273,62,-40,-133,193,177,-21,-64,-64,-134,13,261,-149,-8,11,-112,-38,-28,-196,24,79,75,-204,102,-168,243,230,136,253,-81,-8,156,93,9,-65,-246,-197,16,234,-114,-165,20,92,192,-259,-213,-242,73,-99,-300,-276,-201,-61,-104,172,-196,106,42,-204,61,5,307,59,-100,265,-72,-102,151,-68,-243,-32,-57,-54,135,-79,123,-210,233,-166,-145,-138,-88,172,-290,97,155,47,118,-258,220,-51,-12,32,-231,-141,-256,-49,246,-9,-200,-140,3,-109,166,-153,-172,-210,127,-62,-288,38,214,-168,-145,-283,129,-142,210,55,249,276,171,277,114,282,46,-305,-144,274,-261,-101,-168,-234,-141,221,-171,-59,249,-279,-188,78,-112,155,193
223,170,274,-72,-110,160,41,19,109,165,-54,-160,-207,-13,119,-138,224,-63,-109,221,146,-111,-201,225,16,154,-102,126,191,102,19,-67,150,-76,-103,-157,-41,-279,129,269,-180,-277,187,-110,-289,-205,-55,141,242,-98,-144,-285,-258,-186,-119,116,165,-26,-57,212,43,111,-68,-272,-210,-120,115,-83,-164,81,13,-26,-45,-181,218,26,-51,-88,-23,-6,32,183,266,-277,-13,-41,-156,2,-138,2,-242,-178,42,-174,-157,88,29,46,6,-120,-177,-146,154,-160,-8,74,-195,216,-135,25,108,155,-48,214,235,-220,-146,296,154,132,-85,-7,-127,-57,226,236,223,9,-253,125,-8,-186,-170,-256,-63,147,11,80,128,-3,241,51,-68,6,147,172,299,-6,-270,-87,-118,-8,-37,166,71,-37,111,-295,-213,88,-282,107,-98,-216,52,-283,-71,-255,210,-34,-122,278,142,252,-264,73,-68,118,236,-60,258,151,177,144,177,103,-94,-26,87,263,-256,-274
29,-226,-311,206,-8,-197,-175,78,-119,98,123,293,-63,-30,280,307,216,130,-156,-97,-99,-255,233,-188,137,-64,-253,-70,197,222,-162,210,90,230,137,-154,-181,-103,-22,-131,-249,213,122,150,159,95,186,-188,-275,-170,48,50,-181,-78,-47,-209,-66,-262,-279,292,0,164,179,84,-107,200,-237,-158,-168,-152,78,-1,-23,-232,-196,107,5,282,173,-88,10,-216,-103,83,-250,138,103,-203,-192,98,90,19,225,-143,-272,38,-201,263,-144,-17,-34,-157,-7,-265,207,-127,199,-77,-242,145,14,20,115,216,16,82,55,-229,250,-93,-1,-145,160,75,85,176,93,219,259,8,-242,-169,281,239,242,45,-25,71,271,-174,258,148,-172,-77,32,53,-134,26,84,-207,-173,233,-246,118,67,-253,-237,207,-249,239,140,-211,-192,212,-279,12,-163,-250,-231,107,-71,-269,-189,273,59,-35,22,94,191,-121,-50,267,34,67,194,-37,46,-289,273,224,154,254
-28,-124,-5,308,210,280,-279,-42,58,209,-145,150,-288,124,-15,166,-280,167,16,132,65,28,209,296,-180,-83,-116,-142,284,-74,102,-195,-120,-93,272,-153,-155,4,-264,310,-300,74,12,-276,76,217,-165,184,59,-266,-55,-288,-153,-171,-51,-193,180,259,259,-1,85,201,126,-49,124,220,296,-155,-193,83,43,5,205,29,192,142,242,-120,209,245,-34,-110,177,311,14,-185,-204,-77,-238,181,157,-213,44,219,-190,-24,-261,-9,7,248,-143,-219,-183,-58,121,-174,274,-112,184,156,113,-135,217,-180,-214,-130,58,166,81,301,-97,-271,-119,210,-122,-257,-104,-62,171,-287,-71,-242,261,119,-160,290,135,-252,-139,146,-202,144,-21,135,-116,-98,-192,218,120,-121,-42,82,142,101,137,-148,-109,-123,47,-140,-132,126,-191,236,13,119,-80,162,-28,-292,-251,-12,-241,109,-257,-16,277,-21,80,6,45,-52,-271,-226,169,73,51,-169,196,-123,-175,-22
153,58,140,-237,9,248,-188,-291,-195,190,164,293,-269,131,-145,-208,-118,227,-293,250,-211,-77,150,109,-264,24,3,-31,-256,-142,-210,270,41,-213,189,123,-43,128,-198,-177,-176,-249,-122,7,238,-33,59,-283,31,100,216,108,90,-195,-144,-38,-13,-175,-135,-111,-88,-86,-217,110,-190,306,-244,-155,240,-146,-181,-226,-248,200,-188,-110,-219,-289,-176,256,245,-149,-13,170,0,164,-252,145,42,-30,209,-92,-55,264,-233,-14,-170,-100,-221,77,69,125,19,-235,32,-132,84,88,27,201,-166,285,-191,272,-115,-201,-194,-195,-10,-154,-80,-181,-257,50,-216,211,20,151,-198,-28,151,-113,-247,176,-223,-174,219,-111,-81,-112,-43,138,-28,180,76,215,106,-204,-202,-143,290,-108,143,-63,-175,-138,164,-280,115,134,-202,182,-191,-167,295,251,30,-69,154,94,-120,171,5,-271,216,-22,211,137,218,271,-218,54,103,179,-8,-90,38,-204,-28,263,284,-138
-88,232,136,185,53,288,140,-220,155,-169,-140,-184,55,-178,95,127,64,-103,226,2,-65,130,186,160,-240,-289,-282,-24,155,72,-152,177,117,176,51,268,-141,25,31,15,-140,87,-275,-97,-134,78,27,-118,-161,-126,-90,-143,-87,244,-248,-143,-32,111,-288,-270,-271,173,-287,-161,124,-55,107,-51,122,-104,249,-26,229,-176,4,-167,-126,-168,-281,78,218,14,163,93,197,263,-53,174,-211,81,-156,183,-215,13,32,-179,75,256,69,118,-255,-60,-138,-282,215,-3,-254,246,105,-196,125,-210,-194,22,-134,0,-107,108,-47,164,-6,-288,258,213,-204,197,70,-280,144,203,-302,-272,187,95,141,94,-184,89,-19,240,-59,236,-173,-307,-5,176,163,-91,4,-190,-168,159,205,-10,157,-233,105,-158,248,-250,-125,178,-233,-161,41,-91,105,-50,-232,74,-303,220,-112,85,-289,-144,104,-229,-156,-286,-209,158,37,144,-64,37,-90,-43,64,255,126,-101
172,-222,48,-91,253,231,45,-69,-222,-120,-240,131,263,245,13,139,259,200,-54,208,37,-183,185,63,-38,-230,96,-261,-307,77,32,13,-193,146,268,59,-180,91,44,4,257,-126,-233,-8,232,144,-64,273,-91,41,-34,224,11,-119,-303,83,-263,90,-283,171,-213,-77,-13,39,182,-23,-6,241,76,-120,-206,-116,-175,76,174,-201,149,-125,107,-135,-295,270,-143,272,-84,-292,-45,245,-114,-165,-64,275,-159,-123,108,228,42,-115,107,107,-281,-213,291,58,49,-199,-246,-18,82,283,-166,-286,216,59,78,-65,-148,-193,-100,-259,-22,-23,-17,98,-106,101,-41,-210,221,-12,282,-16,264,96,-103,-263,-248,21,-132,82,-249,-108,-194,219,-69,180,86,293,96,106,194,245,223,86,54,90,-288,-214,-259,92,-86,-252,185,128,-35,248,0,-154,-77,211,-225,-23,184,41,240,-221,-111,171,-37,145,-141,-144,161,-119,-17,159,-139,-126,288,-61,237,-6
57,-72,229,-181,231,260,-205,140,64,30,197,-253,-36,-52,92,-129,54,-78,-49,199,83,195,-211,265,86,-113,-192,-282,-222,289,-67,137,-252,-55,-192,-222,222,-262,-105,0,-224,90,-161,96,149,84,-168,-185,252,134,112,-67,-154,293,244,-270,152,-58,205,-167,-187,-70,-13,-58,-96,-84,-163,170,152,138,26,217,-262,-76,-97,-103,-107,288,65,-214,-36,-91,88,132,19,-43,0,120,226,201,233,138,-288,-176,-301,-94,158,-59,88,-236,8,-116,192,13,70,139,182,204,-200,16,275,75,-60,-40,44,-147,227,-82,-191,52,-245,-55,186,-307,-35,73,-78,245,264,240,-118,173,-50,-50,-206,-78,-166,-195,-25,-190,93,-223,210,-95,116,-253,-262,20,58,-69,-82,-97,63,283,-199,-150,120,24,-21,-84,300,266,174,-26,64,-223,-213,-138,-273,261,61,-247,-68,-268,121,-103,160,-192,218,228,-202,-136,206,109,177,-61,-216,19,-272,-209,-14,73
-55,-63,138,-34,-84,-187,-79,-181,105,9,127,180,-169,4,-209,-155,278,157,68,24,-242,-130,101,95,-114,180,-21,82,268,154,-201,216,-233,-78,165,-139,262,147,-229,-232,-78,-190,-296,111,212,264,-125,-153,158,-135,-195,-235,-260,141,280,82,-105,-205,155,-85,-193,275,-21,-287,-229,-157,13,-29,-31,-40,-21,199,95,176,-158,-166,298,-99,-160,281,-57,62,24,-266,47,-81,9,28,-143,-220,107,-58,-67,232,136,-120,156,55,111,45,269,-14,84,52,36,189,-109,129,-177,174,294,188,31,138,-127,32,243,76,8,1,-40,-267,-274,120,59,262,143,-166,179,-168,-128,-144,181,-292,-291,-3,188,-7,126,245,-21,35,201,254,40,252,-186,-219,239,86,240,-173,-116,-292,-292,-303,182,-272,-86,-25,-45,200,87,201,-12,10,-132,62,211,-160,87,262,43,-256,13,-199,104,276,-298,-185,5,-263,-76,-35,278,290,-269,-49,-267,200,-99,167
89,-61,-205,195,-66,-114,-42,-244,-175,-227,-135,-55,-232,293,-149,100,-288,166,-252,-212,45,68,-3,27,-6,-162,-252,-235,201,248,-20,-147,-11,223,-269,77,-224,129,-16,48,-39,-125,195,-141,231,259,-288,76,-121,-217,-170,-145,103,-30,-303,44,129,213,-107,266,-250,102,-200,122,-92,-210,128,-216,-134,-202,45,209,141,212,-191,267,20,-224,-28,113,-14,79,266,86,250,222,118,126,222,-298,28,32,122,-88,54,-120,188,122,-216,-278,-123,183,77,223,-13,92,181,222,-226,262,16,71,179,-229,264,-235,66,237,-187,-295,205,285,173,191,-71,121,265,197,-137,260,175,278,-10,165,-18,-69,206,-294,229,-209,-181,90,265,-132,62,180,-64,60,-272,-277,-144,-191,149,32,76,-268,0,181,-271,-232,230,75,-29,147,39,-255,-227,-256,-278,300,-66,-171,261,-185,-110,100,-14,140,-276,-8,-123,53,268,-55,-107,54,-88,100,-64,274,-90,213
266,91,157,134,247,-11,-113,227,138,62,-94,14,-130,122,4,22,-292,-106,39,-78,229,-68,199,142,171,182,181,-183,262,-60,-185,-93,182,-114,-274,15,220,-220,241,109,-15,43,-115,-9,85,-121,-250,-47,216,174,285,-133,80,59,225,113,-262,-295,-10,-55,-92,-56,31,52,244,-12,249,-90,-136,-285,-233,10,271,114,-136,87,187,218,-198,-44,-85,94,-161,229,-292,-85,-78,-173,-285,-110,-44,-11,-82,199,53,-115,35,-222,-69,-25,-175,163,-247,23,-160,235,127,-94,-171,-125,204,-190,-100,-57,26,-94,244,-189,189,67,-231,-113,-143,-195,-43,229,-208,256,-45,-186,-45,-179,-39,112,-15,288,117,260,-228,-269,-152,-12,168,55,91,-54,-17,-21,-131,254,-27,-199,24,-178,141,-75,-138,172,-147,-212,8,263,15,-241,261,-204,194,-305,-219,-162,75,-119,89,-49,-222,-301,13,-57,29,129,83,-13,152,230,220,52,218,26,-82,208,-224,2
219,-228,168,-77,125,97,-197,-260,-261,-16,159,16,-93,118,209,-31,-121,-189,-297,179,-20,314,-60,36,76,157,-30,-205,148,163,94,249,-123,-245,105,204,-169,-199,-242,173,144,-274,168,-51,-83,-24,139,0,-116,256,-86,-9,-192,68,8,-151,-134,-46,122,-25,-76,-98,208,-190,274,154,101,41,-195,-111,-158,134,156,-233,-116,-15,71,151,24,281,200,-124,180,120,-270,-24,5,104,-77,287,-268,15,146,-257,49,-269,299,-43,-188,10,-170,157,-235,-98,-182,107,-264,-135,178,88,-94,138,-107,-280,-156,-208,200,153,-155,-44,-234,-152,152,-3,-283,201,8,167,-184,234,-135,190,-189,271,45,-220,227,48,-227,202,133,-189,136,205,-314,-161,249,34,-208,274,80,219,-109,-253,-224,-233,152,-71,-252,266,-105,159,-163,36,167,-119,-139,-190,-87,-164,243,-34,275,235,155,201,35,135,-188,100,7,-66,-116,-162,37,102,260,282,-265,-19,283,106
305,-120,-120,2,-24,277,-89,-234,-222,-214,-296,-210,107,28,172,-213,158,-26,191,308,-141,-174,-64,-234,-28,-198,42,-122,222,-281,-277,-119,232,148,286,-215,-133,54,-142,-61,35,-229,-62,-109,0,94,-228,-83,-200,-92,-113,2,263,-90,41,147,234,-265,-133,-243,265,164,146,293,-150,122,209,187,-296,186,-197,61,47,302,-4,-193,-227,78,-143,-245,-172,118,258,274,-238,-228,-242,70,199,28,-143,-136,81,60,-268,-31,-167,137,-171,-139,256,-87,140,-249,-12,140,-32,277,55,-239,29,101,268,39,215,-129,34,239,77,227,85,294,-253,-252,-14,-156,251,68,32,241,98,-200,-74,-89,-6,252,42,230,106,-121,-15,-52,-251,-35,-32,213,246,95,78,-153,-149,-182,135,-1,-90,106,229,134,106,-171,-279,-81,-107,72,-213,-277,-53,128,10,223,186,47,-49,120,117,268,192,-23,96,301,183,-127,-289,-202,-179,-53,64,-248,-82,25,309,-127
-84,-208,117,45,-228,270,-270,-250,-261,-254,-235,-100,-234,170,-102,-184,-124,-47,178,178,-165,106,-53,184,-143,-242,116,-187,5,0,-182,-282,-68,-266,158,65,-268,6,-60,126,242,134,258,176,-225,-50,-237,-109,258,-280,-69,303,178,73,154,253,72,281,-216,10,267,-56,-258,195,-194,-128,35,-119,130,76,-35,71,0,-126,-67,-106,-36,-35,-292,21,-74,10,-33,155,132,-202,187,-150,234,-15,-96,136,-4,-60,-231,96,-95,213,54,205,-146,-230,169,-279,54,-176,123,160,109,31,39,-111,175,111,169,175,-86,-11,-146,295,2,81,-11,-192,-33,-71,121,-175,275,164,-179,84,244,-269,233,-24,75,-9,42,-53,-205,-70,52,-7,-207,68,0,64,70,-144,-175,58,164,169,-146,-253,-230,-46,21,254,254,11,248,-26,141,18,90,154,268,86,255,198,81,22,-99,-92,305,-55,-213,45,-103,1,158,88,234,-163,179,142,20,-264,81,-173
-265,-147,-165,201,-216,57,302,-63,-281,300,-251,-294,156,-38,248,249,-83,280,-264,133,45,-123,-100,-208,67,108,253,143,6,150,232,-227,86,-88,217,106,221,-53,311,-22,-92,9,-105,-170,-18,201,-226,-279,68,146,139,81,-82,116,23,150,173,-175,-88,-184,-142,-64,-159,-86,266,-208,116,247,227,-29,-147,197,-101,222,226,-107,-51,153,-277,182,14,-168,-127,187,-212,-183,-160,33,84,201,-260,-180,190,291,6,-148,51,172,-284,-26,98,35,154,-80,-184,86,90,-201,-66,228,-56,-50,-113,28,151,-184,-8,-225,-116,-70,-137,75,181,87,278,-59,-164,-108,142,282,-199,-239,-174,84,-149,-297,-178,237,160,270,-8,-191,174,-108,-104,-112,-82,-299,-192,41,246,-276,-18,-216,-153,181,-76,253,-218,-259,292,-109,-9,-224,-246,-133,182,182,8,22,-238,-130,-203,93,200,195,-260,-273,-68,-36,139,-174,-234,309,-144,-13,-7,203,147,-239,-173,252
-16,69,-165,-148,-247,-239,-52,-285,-260,-240,-127,30,176,-179,210,229,-255,213,-99,298,185,160,204,160,158,-217,92,18,134,-300,195,-245,275,-162,-184,215,-235,178,-208,299,157,215,191,81,103,-189,122,-112,-124,113,-99,10,57,11,-117,-167,-87,116,117,-112,-170,269,232,-104,272,-103,246,240,-147,40,94,294,-268,-229,72,-199,-164,-265,-211,-87,2,229,67,-26,-227,260,260,276,237,-53,235,126,-29,201,-55,-295,-24,238,-225,-110,-280,262,-119,125,-126,244,-178,272,-11,-38,-31,-148,277,267,-45,130,24,301,-32,-128,2,-84,-19,145,196,-116,-23,-247,-226,-119,280,288,-268,-206,15,177,-41,-8,284,-20,-133,227,-182,33,-240,-175,249,-26,298,-170,259,-97,-167,194,277,-240,175,14,-102,-220,-178,126,-114,158,-253,287,-172,-169,229,242,-248,120,171,-78,140,212,55,-75,242,261,-103,64,259,59,56,82,304,-273,252,-203,105,-273
93,202,-160,190,-112,235,-101,-191,48,30,103,71,227,175,96,103,-35,88,-103,70,37,94,139,-202,275,-80,-26,-79,9,26,-19,-110,83,-210,277,-6,-46,193,7,-28,43,-169,-129,186,81,-154,254,-134,45,-57,-61,-211,-7,207,130,-245,248,-14,269,-46,102,266,-139,-34,141,177,155,-270,-218,105,-48,-65,118,-202,-210,-129,79,-183,-189,233,173,112,68,-58,-69,7,-79,235,-185,-31,-169,157,-238,203,138,-244,-190,-262,69,-186,-23,-38,-299,84,-270,-208,193,202,38,-185,-1,55,-196,124,185,54,165,33,-235,51,1,-260,-75,-220,69,-255,275,-25,-66,-35,-14,-259,64,-70,-123,-289,-49,62,185,90,110,-220,185,-119,-80,75,117,-233,-159,-74,-172,229,-83,219,-13,-242,-119,-228,-270,197,-97,-47,97,-155,-144,-201,-271,130,180,265,50,-170,-6,-150,166,110,189,31,-145,309,125,226,21,-121,-16,-138,132,-169,53,31,-170,93
-217,124,-165,-222,-241,-139,78,-261,-188,141,146,113,-55,-297,-160,193,273,-281,282,-205,8,-23,284,-140,-262,-85,-248,270,-193,-254,40,-6,74,-6,289,274,-80,15,-37,214,254,292,129,-98,-132,-220,206,26,49,-165,-267,160,142,-93,-179,162,166,-238,-126,-204,261,-222,0,7,94,178,-131,246,19,-1,86,299,-181,30,-222,-259,-160,-253,211,76,-8,52,-63,-120,-262,-132,-266,-175,100,-55,-295,16,191,209,25,139,31,258,46,190,284,142,-188,122,28,-49,-76,-262,182,249,-154,25,-23,258,54,-256,-2,-282,41,76,-26,-144,127,-34,135,-157,153,-8,270,-288,-244,-161,306,60,-168,12,-59,26,255,-297,158,191,-110,186,-62,160,-160,-294,-227,-258,-21,260,-147,-92,262,155,45,267,268,270,91,-1,-174,-253,-283,-79,115,164,216,9,-135,74,54,105,-175,152,211,200,115,127,-11,-238,37,191,-97,281,-189,196,-280,286,-307,236
-152,-84,-134,-29,-64,107,-108,-182,48,151,206,79,70,97,49,258,-76,-161,48,144,-258,152,-236,235,285,-253,-286,-220,272,279,19,250,5,50,-135,-270,124,140,109,58,253,3,70,-69,-46,-205,-241,-61,-181,-172,154,65,-97,-10,43,93,110,216,-174,-13,-42,-210,-11,181,6,188,194,113,-46,-297,-83,-303,259,227,-15,212,-14,38,-182,-30,-237,158,-153,134,-80,290,-13,186,64,-139,-225,163,-17,37,217,-50,-292,-46,-185,271,-279,93,-10,78,271,237,13,-267,90,-184,-177,-192,252,239,-207,-300,27,71,-230,43,26,268,-255,73,-56,169,-237,23,61,226,48,-200,-198,-214,181,-226,-53,10,-21,-57,124,-247,-293,-64,-156,138,-34,168,-56,179,-112,182,234,221,-17,65,20,205,266,-36,163,210,88,129,-203,97,150,-52,-166,40,-121,-252,71,102,-134,-70,-239,-60,127,-205,-17,-11,-233,-170,-68,-202,208,-262,-279,255,-8,83
-152,-122,200,7,-147,-15,239,-242,-103,109,83,-56,-273,290,-104,-278,66,-270,248,-142,172,149,-119,273,-297,41,82,23,-302,-244,184,-246,84,-124,18,134,-55,40,-183,-255,-243,-77,21,-210,223,-64,7,291,-86,96,202,23,-111,-4,176,108,214,168,293,-208,-184,201,42,260,-55,-131,134,-50,-162,-179,277,161,-129,268,59,8,-252,-141,38,121,-170,-13,231,235,-218,-83,273,-14,-51,-156,-254,118,-55,-157,283,-156,-155,-159,81,141,142,52,118,-213,-91,-205,-235,-125,139,-97,259,-132,-32,-137,161,-55,-148,231,-272,240,-36,17,-107,158,-276,95,-35,-194,-112,-62,222,-192,243,-146,295,72,88,134,279,-124,294,284,97,-216,21,235,48,278,166,-295,-67,131,251,24,-258,98,41,85,-71,242,-233,311,28,20,-267,111,263,-253,150,-215,63,-131,73,60,-101,-130,-156,-241,-87,-218,-56,-283,299,-58,240,-106,-176,-144,10,191,-175,120
-169,277,32,-39,188,1,116,19,-205,58,210,182,119,20,-150,44,-3,-196,-98,160,185,-82,7,-228,-45,-103,218,-90,-109,63,-124,-43,122,-214,-95,-126,-184,-6,-1,-77,276,250,164,79,173,-218,-228,272,-263,-194,-232,-158,278,144,-147,163,159,58,56,240,28,-293,-253,-269,-162,134,-41,-217,59,245,68,155,-132,12,-38,142,81,-236,142,-99,-221,118,-273,21,-177,134,128,-222,72,-200,225,124,-225,-212,-7,105,213,176,40,26,107,-175,-23,37,-212,-269,23,-155,253,-100,150,-9,-239,-304,-165,-151,46,147,156,-300,-184,237,-79,-81,138,198,176,-124,64,72,-311,-294,251,107,161,-3,91,202,-274,100,-100,-175,-213,-7,-24,-272,260,-193,113,-89,-189,-218,-223,-178,86,-219,-4,-154,-116,197,-62,-127,-48,-154,256,-259,176,99,-132,93,-69,-72,-144,149,103,-100,-191,141,-241,11,240,-13,161,-177,115,-66,-10,-173,-238,18,-274,-9
-138,148,-14,-308,-256,7,-40,-197,222,101,9,-168,126,41,1,-251,-79,-83,-57,101,128,-75,14,109,-92,198,132,16,-63,13,157,-243,178,-201,-138,286,-165,-184,-146,152,-129,-93,6,-213,-253,274,149,78,-142,-229,-60,-60,250,-218,-180,-184,247,68,-39,116,223,-196,15,111,-90,268,-271,-170,295,-192,-272,96,195,242,-51,238,-105,-79,-25,167,-230,-8,182,-172,56,-217,-252,47,-224,-42,44,239,1,190,-86,84,-91,257,-4,220,-85,257,162,224,-24,81,-92,-222,161,196,-140,101,226,-135,-51,153,-234,-123,219,27,125,-58,222,-31,-177,-257,237,-172,-22,-6,-193,-121,10,68,119,147,-147,11,109,-233,262,29,96,95,88,43,249,221,-12,-266,-141,-120,83,88,253,146,261,251,208,138,252,-177,-205,104,187,-233,-259,-152,-223,300,-97,-191,238,-170,-255,-264,236,108,-149,-61,174,52,-9,-45,-20,-121,178,8,-41,135,42,134
-41,51,-55,-69,-97,83,170,165,-199,-237,208,-75,127,-40,-110,265,89,18,-225,-51,-220,202,-182,169,-238,-181,191,219,204,210,212,281,-227,230,183,219,-3,-241,90,164,-128,-26,37,213,28,-48,-45,-221,-27,238,-91,-149,-263,144,91,-168,-152,131,112,32,205,187,138,21,9,-187,126,21,-301,-226,-164,-227,-116,2,118,-278,301,-109,-249,-159,-8,-116,48,-137,122,-146,294,3,-104,26,195,-79,-126,98,-182,-109,134,102,59,101,233,233,95,49,-207,187,-89,272,-261,14,30,249,-113,-228,-96,236,208,176,-153,94,-250,132,-258,276,100,213,253,-172,-66,200,-208,-132,-154,-103,102,-285,-202,-28,41,-271,-118,4,88,-4,-261,-125,-188,-31,-266,-206,-122,272,-285,-114,238,-111,-73,248,145,-259,91,-267,-55,136,-181,251,-140,-131,238,114,7,56,-106,-194,209,-21,-256,261,119,163,-231,252,-275,-196,80,128,-246,82,-173,-45,-241,36
-189,232,200,159,147,17,-248,-42,-151,37,223,209,122,-148,-204,263,-221,-111,34,-162,-114,122,-232,-259,207,154,-165,174,-152,-206,146,-195,52,265,160,128,-88,-160,-57,-67,262,-280,243,164,259,-185,-101,-162,259,-197,-82,-102,-189,200,23,36,104,215,190,245,25,-13,224,40,-186,-76,-4,233,102,10,257,-264,-143,-160,142,-41,-47,-258,220,-49,-96,-202,186,135,208,-133,99,244,-13,-226,45,239,106,78,261,-192,-2,223,177,174,112,88,110,204,224,76,-205,136,38,-253,239,-165,-98,-292,192,184,37,144,-289,-47,6,-119,-57,74,-288,14,221,14,68,284,-23,116,133,-237,291,-61,-296,140,-105,166,4,-12,-126,-180,133,-294,-270,-103,217,276,-112,-37,-14,-163,101,34,144,-289,-249,-74,-201,-33,-181,-103,40,34,33,233,15,270,-220,-278,-78,-100,-160,129,125,-289,-289,-268,122,-174,114,-279,158,111,276,146,-232,156,128,41
-40,165,107,-247,135,132,-114,207,64,-311,-193,-135,252,-169,-83,158,-210,-11,-9,78,235,109,-175,-17,-61,-69,-176,-77,152,246,-59,-63,-249,-150,-253,46,97,-125,-280,251,-132,271,244,48,-176,45,17,35,-88,7,170,205,186,180,160,-70,-4,63,206,-173,-160,-283,-20,148,-54,-16,-83,-141,182,37,-15,-34,-179,185,1,28,-2,76,-226,-68,-8,61,273,180,101,98,-281,99,-194,109,-4,-2,-259,12,-168,-94,-154,219,287,-19,-193,-65,-205,52,-244,119,-238,-283,84,-265,-11,232,152,-234,7,-91,99,-279,-236,-60,-2,258,218,-50,-198,0,-213,269,-65,-285,125,148,-183,-217,-207,162,85,39,-168,263,-231,100,169,261,-179,4,217,-289,45,229,124,149,-88,-213,-87,-99,-249,-151,257,98,107,-83,242,-165,-44,82,-204,-219,-37,197,58,140,80,54,-166,-85,-21,-98,-159,133,113,138,-144,48,-100,-78,-132,-142,-218,187,155,121
-211,208,-140,310,267,66,234,188,-45,159,-235,158,-22,34,51,-280,290,168,66,-212,-130,-35,279,297,182,-118,174,-254,251,-287,106,187,-152,-101,75,94,-19,152,-49,-184,230,282,254,-198,-158,217,-61,82,-160,16,12,-105,-278,76,240,-245,-158,37,295,-190,-27,-65,177,-264,-71,-25,-108,-47,-8,-240,268,-152,-228,-221,38,199,-258,151,24,-149,32,64,72,-56,-266,-255,172,-266,5,-180,97,37,252,-12,276,-220,249,-123,76,-272,190,131,120,86,-91,241,286,-237,-269,-225,-31,-121,237,118,122,-176,224,15,-270,75,-150,-8,-109,279,-260,184,-10,-103,115,232,44,254,-45,-11,236,-57,13,-159,241,-57,16,-211,120,186,302,-167,-143,216,58,276,-33,123,-247,-122,-85,-251,149,-269,-76,-202,135,37,-52,146,173,248,31,26,-140,227,-251,165,244,-255,-243,-81,165,297,103,-232,-51,200,176,-31,-155,192,33,-167,-106,29,-104,303
-112,32,-284,206,-38,-122,198,-163,160,72,114,301,57,109,-214,10,-97,223,-27,16,154,6,32,110,261,222,-292,39,280,-163,-268,-188,274,30,-77,-27,-255,-221,196,-232,-294,24,-130,-144,56,-31,185,-25,256,41,169,84,265,-84,-178,-205,-14,62,10,-272,-247,-94,-133,-187,-182,214,-6,-184,45,20,99,12,56,-116,257,-139,-28,12,19,108,43,-239,190,96,-260,32,245,-22,-239,-183,-40,-256,211,209,-63,-285,-36,-51,134,-202,-139,66,251,-88,-250,-276,0,88,-89,-65,-55,-265,5,-37,-23,104,269,242,-92,-225,0,-23,50,196,10,-66,-166,-15,-39,42,150,122,-45,236,198,-264,193,201,106,-219,-81,-110,171,22,-101,19,-42,264,-200,-144,275,-121,-241,-66,24,60,-233,103,-66,-182,-235,-170,165,-231,-273,257,-230,-3,-64,-29,-12,-60,-237,-88,179,-54,121,121,-163,-36,143,271,-46,41,-257,-110,46,169,-160,47,154,-60
7,32,-126,280,-164,118,45,-77,-71,-266,193,-308,-269,-82,-267,263,-278,-66,146,185,-300,104,-217,38,-280,-185,-55,156,-304,48,-89,-60,-105,50,121,39,-110,80,-191,-132,62,-22,2,92,168,-300,31,35,35,4,-247,185,-217,-59,154,-18,-190,-219,-111,-284,-72,68,188,-51,214,82,-222,134,-222,119,187,-277,-17,231,266,212,55,227,-304,145,-159,64,95,-83,252,-166,132,-61,-286,-232,136,89,156,18,-26,-32,-183,-290,142,-178,149,-188,49,-260,-182,263,6,221,-162,12,-118,-144,74,136,160,47,-189,-308,-255,260,-266,-149,-206,-294,47,-77,-185,247,-298,197,269,157,-183,235,95,-32,-245,214,178,-245,-153,-138,-138,18,256,4,-72,-5,83,-261,-218,-39,151,173,-115,-300,-293,205,51,179,-58,56,65,-144,-76,-60,-199,30,-257,-6,15,-107,-141,217,-220,-245,112,158,168,232,34,-240,45,-57,125,0,150,135,-43,247,59,57
8,-255,-38,272,181,198,-97,-144,-196,39,-168,-233,174,71,-89,-233,134,32,152,-57,-32,116,-169,79,-216,199,-247,-40,240,-39,228,-48,-61,-291,167,-147,-144,198,10,-113,113,9,132,-91,169,-302,-116,60,150,39,138,193,204,-118,2,-291,-105,-122,-180,14,44,-250,250,152,-254,-51,4,195,-247,248,-272,11,-19,-203,-148,137,-130,-215,-207,-289,-166,281,279,-148,212,-189,47,-237,247,-146,198,227,245,54,191,-183,0,-52,-190,113,168,72,-199,-134,2,-242,96,77,51,-156,249,-190,-276,-166,-109,-88,-211,29,211,47,117,-273,-262,234,-158,264,-259,-243,-146,-21,266,235,93,208,295,-88,252,97,158,283,294,-289,83,295,-291,-129,-265,-37,-208,-183,-19,-146,238,252,-5,188,-31,-149,170,-95,216,-255,189,282,-261,-107,261,-227,-10,-30,243,81,-238,131,160,28,6,240,-68,0,182,12,24,283,123,-290,-158,123,261,266,-136,-99
185,169,-1,66,-55,176,-114,28,-202,-241,-189,10,189,-192,270,238,175,-44,303,9,166,-181,309,-265,-144,72,273,-215,-68,191,-156,-21,-154,286,276,-71,280,-106,69,-208,267,-257,-162,-68,-201,293,-57,-233,256,-115,178,213,-210,221,56,-50,25,214,-21,182,-285,110,-106,-190,-201,-163,-238,169,-79,295,-114,-274,-116,238,138,292,-208,-76,66,34,-46,-154,-254,-96,-64,43,29,197,-31,7,-99,214,-193,-92,-264,-154,284,193,231,61,-40,173,260,283,-202,-13,-287,-92,199,166,-14,-95,20,-215,-121,-236,136,151,-175,-20,19,-222,140,127,-120,-134,-114,252,-218,-3,36,-269,251,-55,295,-102,-211,10,26,-172,-68,69,-270,69,-113,26,-141,-275,228,101,-35,134,0,187,-109,-188,-28,-27,-78,236,32,-80,310,-245,-1,1,-47,17,142,-51,-128,4,77,90,-61,47,-268,179,-244,17,-132,92,155,-262,97,-150,-10,183,-288,-250,242,51
-254,68,179,110,41,-19,-218,-22,-113,226,179,153,62,-123,139,278,-12,-221,131,33,-232,23,229,75,186,14,-262,123,176,139,-250,-205,-230,113,128,260,23,86,106,-142,271,-150,70,89,-86,66,-296,223,-99,1,-281,271,-267,-157,-160,133,21,67,55,-274,-143,-125,25,156,172,144,241,257,4,-67,7,211,44,87,-91,-312,-51,-72,43,-242,15,-32,-251,-134,158,55,-274,-235,31,-145,235,69,269,-289,35,174,218,-144,68,-235,48,49,248,111,265,-209,136,284,-157,-151,145,228,34,113,-284,154,-72,-53,-104,-244,203,-16,-177,201,-62,104,-281,-115,169,1,-135,-306,-9,221,-193,-80,101,-194,-123,-99,45,-89,-81,135,-284,143,-189,146,143,-120,-129,-107,268,111,-240,-238,-122,242,26,129,-134,276,-100,-29,-137,-215,185,-127,-282,39,-195,47,128,-104,-76,-109,-36,-228,32,-192,155,262,170,59,189,-294,42,-268,49,-269,123,-272
-156,281,160,141,193,122,193,-250,219,91,-60,40,162,-285,-221,103,118,-78,154,-75,165,-142,201,-297,233,83,266,58,29,85,-198,285,189,104,267,-186,-137,191,-147,75,-72,-101,-233,-277,261,-117,-189,-36,-189,-112,177,148,-225,-152,-138,-267,174,-173,193,43,146,-188,63,82,41,-230,-13,-228,-254,-137,-99,283,-144,-20,-119,112,-48,-105,189,-213,-297,219,-167,-65,255,-173,-133,271,-246,116,-121,301,-201,-299,58,-260,254,77,5,-172,-284,249,234,67,182,-148,86,33,-107,161,-87,-284,181,69,147,-181,-264,112,-71,88,108,-169,-156,25,8,-177,-271,-84,-98,120,174,229,-274,30,256,208,239,-267,91,-6,27,-31,50,267,-15,-154,72,-95,155,-73,-115,64,-168,36,-191,-124,115,241,280,30,58,-267,285,91,-160,-256,118,184,-270,-105,-123,-195,271,-253,-285,-299,-167,-180,270,149,103,-267,-242,273,235,-240,-261,21,-225,47,-128,116
289,-62,292,-138,-96,-42,-194,275,-26,239,-267,-173,3,194,238,-2,181,159,-181,214,172,-232,165,-11,-196,154,294,30,-191,-243,-116,275,-298,57,238,-236,290,-70,-44,-299,-274,-144,-175,99,-199,146,-103,94,238,-266,-215,130,249,-248,-56,100,-96,-139,129,-196,275,108,-71,-268,-59,-192,-285,-291,-120,86,-43,-236,-279,96,-68,-44,-218,-164,183,-219,-294,238,-306,-179,-237,-19,-68,-297,145,-59,224,289,-182,-190,-129,-105,-16,280,-250,37,167,132,140,101,-262,-208,-49,-193,9,-156,231,-26,235,-49,88,214,-209,-151,152,75,-127,-47,-275,-49,229,146,114,-263,-12,-51,109,-76,-208,51,-229,-106,95,-224,90,-124,-169,214,-303,-109,29,-217,117,-274,219,277,-251,-103,224,-180,195,-274,64,-164,-272,-138,163,-181,-87,212,283,-228,148,273,86,-225,-33,124,288,-209,-102,-3,189,90,127,-18,-154,276,-12,-80,13,49,-218,-223,94,70,-75,-43
-140,5,120,133,7,101,-44,-61,-298,-70,194,265,191,-191,219,-173,224,261,-225,215,107,-18,-217,184,-272,-60,155,25,-68,-116,-19,288,-5,82,139,-49,-108,-257,175,-211,-300,262,-65,-271,-59,57,165,-233,259,141,125,-5,104,159,71,115,-88,-51,-238,-165,-91,-19,-130,-67,-195,238,-269,9,23,-248,93,-109,-249,169,192,-26,-37,96,270,-10,29,-143,-159,241,-73,7,106,-262,245,12,-235,94,237,-50,94,134,204,183,-87,-241,-109,101,-231,70,288,208,-179,221,-191,26,147,184,-137,-93,70,184,-97,-74,-282,98,12,-80,-2,197,-45,144,75,144,283,-112,-26,-12,-139,53,-54,22,-134,-190,-36,-29,149,40,-263,-135,39,85,204,-16,-108,-21,184,41,-40,166,-192,-164,198,208,138,128,-121,-111,65,-275,-73,-13,149,-297,-77,299,178,-220,147,-71,221,-255,-291,192,258,-157,11,-109,152,-64,213,25,114,105,213,136,222,-40
-2,132,139,137,-28,137,-189,-68,-79,-60,-131,-246,241,56,30,-236,280,213,-86,209,-195,-39,-40,-300,-29,-38,-193,190,-175,142,-39,-194,-227,-109,32,-110,-162,131,-161,-61,-139,39,126,246,84,-165,51,33,-293,-81,213,-52,176,-207,271,148,202,33,-241,-256,-89,67,-26,-50,-157,135,-159,-290,-267,-245,-266,65,-56,-273,-154,-86,152,269,280,-203,27,-155,85,-25,260,231,-288,70,75,-289,225,257,12,165,41,197,104,99,32,35,44,-24,285,56,206,-23,-147,-185,16,60,-253,-197,25,257,203,117,277,72,21,213,260,81,122,-177,167,276,-282,-39,98,-262,35,279,164,255,-30,77,234,22,-302,-263,250,-88,265,-46,-91,-60,-260,-229,80,-289,-259,98,-301,241,86,80,-221,96,-236,135,147,-186,-75,-63,98,27,-251,-18,-30,-132,279,143,221,9,-145,-253,-126,-221,-41,-44,-226,92,-136,113,-46,-208,182,255,-43,116,-21,229
-49,7,-242,-44,-74,-45,-268,-140,293,-129,99,250,292,-145,-100,124,152,199,124,165,59,273,255,-180,-156,-216,-100,-79,-166,-163,-67,-42,206,51,-24,-92,-9,-138,14,169,-235,190,32,-212,65,174,81,-90,-182,-51,-272,-41,142,175,-72,40,111,118,-148,161,-140,-21,50,131,223,181,-106,232,-246,190,-27,-133,41,-247,-23,-68,-246,185,-168,257,-116,-241,-238,-131,238,-237,-78,252,-104,-287,-223,248,22,225,-269,-86,-270,-184,217,-114,28,97,91,130,138,205,159,-25,39,-11,-201,-75,187,-30,-270,-166,66,-47,-253,28,-64,-110,-164,-153,47,-71,230,207,-200,162,241,-63,-139,-145,95,-164,221,13,133,210,231,112,177,25,-21,172,47,-153,35,28,-180,-190,-154,-16,178,-284,-25,-87,250,107,-126,-132,-211,286,-220,113,107,-202,-295,193,198,12,-264,-173,66,15,19,135,20,-261,54,229,-226,-310,58,43,-288,-125,-205,-283,-44,-282
94,-229,303,283,257,152,-125,142,195,170,-176,-161,-148,264,-250,154,103,48,-266,-272,252,278,256,-100,-9,90,271,-13,-272,-124,95,-207,-244,-38,-159,255,-228,-36,-96,-186,41,69,281,-125,-35,-225,-7,142,301,130,67,-13,8,-130,-173,-290,-74,240,-90,-211,122,-115,283,-62,-112,-4,-14,258,-193,-69,245,-148,-4,-164,139,289,309,-190,-84,15,199,51,104,251,-118,-18,-31,155,-78,43,47,65,-104,110,297,-52,-45,56,-287,-281,-199,-56,-52,-185,-35,93,-99,-169,200,-126,-227,242,171,-244,164,-76,-261,194,-22,56,115,282,210,270,-63,131,139,269,-58,245,121,-190,-21,116,224,-229,281,-258,127,-119,-93,-230,-219,39,-61,-243,-46,-142,145,250,-250,279,209,-57,287,-151,83,159,147,-160,-122,156,2,-164,-243,210,226,240,279,-143,-31,283,-221,127,-191,107,-63,-51,-105,32,-134,-155,-150,-7,-220,177,-27,-126,191,-36,-230,112
75,208,106,8,227,-293,-294,61,-270,148,-129,-275,-179,-203,-15,68,12,-19,-252,-164,84,276,-137,-44,-173,55,-117,-290,-87,154,95,79,-303,-122,13,212,-257,-177,-129,37,-49,4,-222,6,124,-148,114,-197,62,-249,103,-204,54,-58,-107,72,123,77,185,73,-249,1,172,-98,230,-241,84,-301,-3,38,54,134,-15,217,-261,119,215,-40,166,168,111,-13,-301,171,42,-50,165,195,-198,184,-296,-293,210,133,-148,18,-144,-246,259,-18,23,265,63,181,-103,7,-97,250,200,254,176,-185,25,285,16,-52,2,-3,-210,-170,-239,-220,-278,234,92,-81,-224,259,-306,-1,128,111,-67,-40,-159,-53,-10,29,48,170,-245,201,-213,-259,199,-157,-237,147,-106,132,-42,36,-130,-242,78,-257,96,-69,37,-36,162,221,-164,-63,118,11,67,-282,-218,181,275,199,91,-148,47,-290,136,-157,34,-105,-114,21,164,-101,-97,-138,106,-298,-210,-142,-186,-164
90,-179,170,-247,-239,-86,76,94,-226,-152,28,186,82,298,-148,18,-62,54,192,-254,-26,103,-136,86,182,48,-14,255,55,-186,-196,-105,180,-215,-7,-168,220,-112,174,214,-22,-265,-192,231,-256,252,-184,105,204,247,-15,276,-23,30,-113,201,-74,283,-103,1,-119,45,-115,97,-21,191,-26,-120,-51,16,-27,160,276,181,-6,-22,-171,219,-275,-54,45,-288,154,278,-172,-158,83,-143,-15,185,-268,-182,34,-215,-103,263,50,-42,-82,-128,-70,-69,87,264,51,-128,-302,229,82,62,165,-201,153,287,260,-66,203,91,13,92,205,-104,-197,-165,-124,83,-226,230,210,91,219,181,230,6,-19,146,118,-247,-280,0,-106,-134,124,100,48,-23,-78,73,95,-252,24,78,-160,221,261,-252,257,50,45,-244,58,117,-162,148,185,-183,-259,-6,44,36,87,167,44,-57,-141,30,196,-102,-251,-271,-249,176,-81,-176,-109,200,141,-274,130,-249,-53,218
-112,24,85,95,-65,116,120,-242,-14,-68,-99,-48,-24,93,-88,-66,-208,52,-134,-56,-8,-225,-189,-139,-193,146,81,84,84,-15,76,28,-2,-36,-43,276,-224,-222,179,-3,-210,-143,108,114,-264,-88,-19,249,215,-216,-156,-281,-146,50,132,-141,94,54,-253,258,-151,-251,205,192,223,-76,-296,116,-224,-212,-197,-3,173,67,126,-143,263,-282,212,126,-19,252,-67,76,5,-144,14,-154,-33,181,274,-28,169,52,16,-198,71,-106,290,-278,-28,98,22,190,162,-262,-47,269,-247,170,163,8,-72,-245,-215,-307,232,-243,-282,167,222,37,-243,-210,89,-53,-140,-283,-130,75,-201,181,3,173,-63,267,-53,184,-220,-33,154,206,163,-88,117,138,181,181,-130,2,-204,-225,156,164,187,-86,-99,258,-74,7,-47,-131,-2,252,-298,-108,-16,-253,-152,-99,-166,-92,225,220,-25,121,-17,197,-44,-168,-48,-299,-107,-252,159,-124,-181,-125,-247,161,25,106
133,-75,-169,223,82,147,-59,140,223,208,7,138,-291,174,164,-242,147,162,-5,-50,-236,-54,85,-118,280,188,-35,-70,-57,-151,-161,-49,-27,79,-247,105,192,-169,-96,264,-228,100,235,-252,-38,-258,292,-26,-31,-190,-33,-166,164,-113,-295,-59,-20,-225,-220,183,-69,-80,157,280,-261,280,-72,-33,74,15,74,179,-43,214,235,63,109,-25,-26,-254,-142,76,-50,238,-258,246,-176,152,-127,-126,101,87,-21,74,218,266,219,278,30,206,-54,-226,-184,-195,66,271,-104,-278,-257,98,-196,-156,239,127,-228,7,-123,90,126,263,62,254,244,31,159,261,-38,-240,200,204,-3,-237,-90,139,222,84,68,-29,-201,-32,-55,-277,71,23,-167,67,-58,-243,-93,-256,226,-36,98,-9,280,-106,-283,-156,74,153,-99,-161,-215,269,296,-243,159,239,-180,86,-153,35,-217,-69,-178,-151,-136,62,-239,255,-288,67,-246,-274,-124,222,53,-71,196,-101,124,110
-86,-191,-237,-72,294,124,-293,-77,88,254,255,120,284,189,-73,81,-176,139,296,-191,-206,171,-278,-214,-35,140,170,215,-114,191,-117,-158,-175,91,-149,-55,-218,-227,-8,-208,-60,310,-205,9,272,-226,104,-180,183,-85,242,260,-20,-245,-4,-162,174,-267,-55,37,19,177,174,-75,168,-129,-114,207,1,97,10,303,147,-51,-16,252,-31,-271,-175,155,84,135,83,284,0,238,-230,-175,-215,-36,23,12,-20,-268,-281,-219,15,-282,71,-258,1,144,-65,103,-196,-3,-92,-233,-147,131,231,63,-53,105,109,305,213,175,-167,171,-144,-12,285,142,-273,171,-76,196,10,86,-150,209,173,-183,144,-73,-222,166,-184,-189,22,-180,-248,-16,141,44,-95,158,-215,186,65,-277,173,-233,-195,-157,44,-41,-114,-38,169,-132,192,142,134,164,77,-276,248,-178,-212,-165,193,56,47,-161,25,-113,-63,254,248,-223,-237,291,70,-165,302,121,110,205,165,-91
110,-27,25,-50,-296,168,-128,115,-56,-153,78,-88,256,267,-31,-157,172,-227,-118,242,65,-61,-36,-6,40,-121,-28,-263,177,-215,-243,225,94,144,163,39,254,72,0,-88,97,-30,190,262,-253,76,242,-137,-9,-7,203,-48,-205,98,123,-62,208,-172,8,281,220,159,-277,83,170,-221,36,162,285,46,-199,252,240,-89,-165,-114,-306,166,275,-241,-178,-167,121,-285,-156,75,196,77,-160,-144,-66,23,-117,140,165,-268,-143,-10,12,-207,-56,-302,-245,-167,-104,33,-151,11,227,-34,213,278,-18,-87,57,-182,-218,-227,31,175,188,49,-56,-118,7,-1,52,135,-160,214,-236,275,61,-253,-180,-257,-12,68,-198,37,-283,-37,218,-105,192,183,-167,-68,193,86,51,51,-266,206,104,246,-270,127,98,-106,-89,272,5,56,185,-130,-210,-64,138,-42,-1,46,-268,10,214,98,65,283,-36,-45,-164,64,44,45,291,-143,112,83,206,-179,41,-118
-105,98,160,33,-229,38,183,-247,81,14,-218,-251,42,157,-44,132,-19,14,-50,-216,228,-185,-201,-260,180,117,-177,-267,-62,-260,0,118,-209,170,-15,-50,251,126,85,53,-172,-203,289,-268,-17,-281,-43,-127,83,153,274,197,222,74,-119,-282,254,-145,-52,-188,-66,-235,-248,-68,-100,-99,-223,-249,-191,-224,-108,167,-221,288,0,169,8,289,188,177,87,-9,-23,262,-65,6,113,129,-248,-160,78,-112,-269,-267,-238,108,-124,-57,258,-72,154,-10,-197,-164,198,-211,-47,174,51,12,-40,-229,-159,-123,-192,-275,-167,129,284,-195,-236,-166,-47,270,276,290,-4,229,-166,131,-194,5,246,-49,279,126,-245,-146,90,264,-161,238,184,-51,-68,-265,-260,-230,239,-139,-272,74,-239,-55,204,-233,66,145,-284,123,27,214,-38,-214,-268,239,-247,-6,-272,-5,-30,-191,72,-137,105,18,-202,-169,-111,-145,-210,39,-86,-177,193,182,-230,158,167,71,128,136
75,124,-28,20,-293,-85,233,114,-92,-274,177,-178,177,236,53,183,-188,-31,237,95,-233,-12,-153,85,230,79,211,17,179,-136,53,-255,191,170,-152,-262,-67,-242,111,259,39,183,-23,109,18,-165,-134,118,29,223,132,262,6,-249,-273,71,-83,54,-240,170,273,37,-139,-31,114,270,70,-95,242,-205,237,-140,-180,-147,291,176,15,-167,-142,-80,96,-147,-93,186,-247,-137,35,-75,130,190,215,-246,154,139,137,121,-124,183,209,155,141,3,236,-107,110,-214,-57,45,-148,54,-213,250,-163,267,-296,238,184,-308,262,41,-155,83,244,-51,78,-25,-50,195,122,229,-65,-270,105,155,130,281,-15,190,42,-117,190,49,-312,275,194,-272,30,255,220,104,202,70,93,-222,175,206,-188,162,-178,227,116,259,78,129,209,-181,-16,-169,210,50,240,67,48,244,-278,59,-9,-139,-39,147,-120,-274,-188,-222,80,202,46,-185,255,33,-94,-183
-215,-229,-59,-291,-226,25,-152,153,-264,-243,235,-162,237,-284,115,53,191,-301,-236,-203,-169,252,251,-21,219,-285,-136,-162,-292,-279,26,8,164,195,-72,-75,-290,-36,-208,-129,-35,-212,-205,-265,-208,197,269,79,274,-259,-206,10,42,-298,123,-300,10,-226,-275,-214,-68,-248,55,-6,274,211,135,-128,-212,-95,95,-173,276,276,28,-236,260,0,-209,-193,-173,-115,-119,202,-163,31,8,-254,-68,-201,135,-241,-93,-295,-301,-92,-18,164,-47,-183,170,-258,287,-144,-180,-29,-75,120,-250,-225,-288,-209,-73,-281,188,-307,98,-301,-142,67,232,-29,-262,67,-31,191,209,-115,-41,179,67,31,160,206,225,101,176,65,95,-251,79,206,73,-225,50,-148,218,-147,112,-105,-264,-170,206,29,226,141,11,-109,188,46,135,14,-303,-6,36,-77,147,24,58,-101,176,-155,-43,42,-107,231,-54,48,281,-113,-278,220,56,-282,61,-271,-210,-115,-247,53,-86,-3
-93,242,-104,12,269,187,288,-182,-148,-183,269,-192,-98,-69,-129,-253,-54,-192,37,154,226,230,270,-160,208,-125,-13,-43,264,252,-100,-78,-238,-144,183,-260,42,72,173,-174,-122,-254,278,-170,-21,-69,257,45,11,18,-53,-226,-244,236,-180,157,-153,72,-75,-107,-30,232,70,-38,256,-201,-251,225,-150,-257,87,107,52,-226,188,284,292,-11,67,-129,12,75,-257,-201,252,270,264,243,63,84,194,-268,53,-32,-7,-268,-86,-231,72,-283,-6,-2,109,82,263,-93,177,40,126,192,132,118,-104,-198,-235,115,-235,-167,80,138,132,-78,-294,147,194,59,59,-207,146,14,-112,-107,126,-57,38,179,-214,-91,-13,52,107,88,239,-117,247,-205,-253,227,-194,45,-108,155,239,231,203,-108,177,247,239,277,269,180,187,41,274,-196,-58,-60,37,23,270,73,258,242,240,192,-201,-87,-177,54,-186,-133,144,34,101,-288,90,118,-279,16,-213,2
-148,282,175,-92,-215,242,2,-39,272,160,98,-82,-138,-249,41,214,217,126,-250,134,51,43,247,132,55,-220,275,-29,295,-124,-153,190,149,162,174,-285,90,201,96,92,-107,-182,-149,-86,90,-7,168,248,54,-90,-254,239,-52,-253,-167,260,-126,253,-199,-271,-184,251,156,-192,169,-236,286,276,-175,-251,1,-143,266,83,-85,-194,50,252,234,-97,-24,-114,-142,-61,120,234,-94,-16,174,-127,-74,-257,-6,159,-213,-66,101,18,111,-30,-30,-127,215,-104,-178,204,-156,-199,137,0,250,64,-18,89,13,58,-251,65,-12,-156,-254,219,-283,-152,-241,-102,224,96,148,-87,-197,-233,-243,-158,77,237,249,-185,261,-235,210,-195,41,48,-256,90,-166,101,184,-13,-145,-21,178,83,-252,223,197,116,219,193,237,-266,-117,81,-94,173,266,-206,-58,106,-9,-183,309,194,195,-294,-167,197,21,-51,271,45,102,214,255,-154,85,-58,-151,-35,155,144
-124,123,-88,292,-150,106,190,-236,-227,121,21,-235,210,25,-122,96,117,133,-276,-134,276,273,-68,183,166,199,-233,-157,12,95,166,-282,17,288,17,-222,-275,-258,-141,-29,-91,-182,94,-222,-291,110,153,53,-152,123,62,-18,-256,-278,-81,-80,-65,204,-260,-29,197,44,105,-290,-269,-137,153,-209,182,-76,-217,-262,-300,187,-262,-157,-64,241,-99,167,-179,-54,-43,224,-276,107,-155,-186,-191,-133,-66,23,209,53,135,30,278,-62,-184,62,-127,-134,14,-49,-143,296,124,65,180,-224,-10,178,-219,-246,-134,220,-301,235,-192,257,-239,-233,-8,166,168,27,39,81,-163,-62,-276,-171,-212,127,-191,-163,-90,-300,-15,271,-83,63,21,-164,-154,76,193,168,-59,-148,-177,229,-276,-195,146,-234,62,105,170,242,-96,186,215,93,155,130,-238,109,-63,37,281,65,63,-20,-150,-42,-181,140,-23,-108,58,199,-198,152,-256,-135,84,-95,-62,283,-45,81
206,-151,-272,-240,91,-235,-145,-13,-94,-234,-166,-119,-1,-194,-225,-291,35,-49,-215,89,214,-56,-287,-36,44,92,122,177,112,-121,-131,-81,-108,197,-257,34,-232,200,-63,-111,-214,108,76,-190,-102,-50,-115,225,-232,289,188,24,-13,272,1,149,-202,158,-95,-82,-293,82,-54,189,92,13,-316,6,14,173,-16,176,-309,167,-3,-169,-70,131,74,-264,-142,-162,-211,-128,-279,104,-248,264,139,-80,27,79,231,-243,178,-116,-313,-45,255,-151,-65,73,75,-150,-113,-297,21,-83,213,-211,172,-290,128,-116,-266,196,193,-4,-233,-14,-243,-156,-173,266,-162,-144,59,-190,153,-85,90,-311,214,-288,147,-100,-142,-58,-207,95,-66,-102,230,-246,71,-291,12,-3,-266,-174,-42,-254,-67,-90,-215,-285,-154,74,34,153,107,274,25,145,-105,229,-47,-305,-240,-53,126,-218,209,229,-175,-249,32,212,263,-10,207,-131,-120,134,-261,170,-79,-49,-221,103,-123,-135
99,-57,-179,180,-6,-115,94,267,-246,127,73,0,63,1,182,-199,34,-72,-113,120,-125,-13,-102,238,108,158,173,-189,-153,310,-205,134,31,153,232,-203,268,-74,-164,179,52,183,-87,245,-185,305,-223,276,67,50,-239,153,135,144,116,-184,181,-129,288,169,29,180,142,212,14,179,97,43,310,15,217,70,119,-225,44,-268,292,-148,-203,-26,-5,-145,-43,-196,-14,-174,58,-239,-285,-162,-159,110,187,27,13,-38,-183,-269,205,-228,4,190,-149,99,10,-121,46,220,-43,-74,155,311,-145,231,-161,252,114,-310,-13,-170,-48,25,23,121,-265,-245,138,206,243,-268,94,-130,-265,-50,-139,-76,-88,-126,29,-85,-113,97,-148,-220,82,-248,224,-215,-276,226,-95,-20,-182,-230,-233,76,126,111,-144,-207,-49,-15,87,222,-194,-258,63,-218,278,-12,-127,201,219,11,-180,-150,-76,-202,-223,263,-124,-186,102,101,-224,-301,59,-2,-270,-167,99,142
-156,80,276,-25,145,-272,43,12,20,-157,-89,16,-153,-115,290,190,23,32,-150,128,29,-22,-234,107,206,171,83,-54,126,-81,-83,183,-59,-238,-111,-168,-190,75,171,40,-147,39,-19,-8,-295,-270,-70,-270,-139,-203,64,46,-273,185,10,162,200,-111,-3,133,-284,11,258,-239,-26,299,192,136,54,184,-101,231,175,45,286,-6,234,-180,61,-38,82,-229,-145,170,-234,201,-159,137,-189,-224,230,119,92,-251,-166,57,271,-161,-119,172,-173,118,-52,254,-11,253,19,226,151,-36,-44,-78,-164,200,-32,102,218,-12,34,-82,-148,150,-77,273,99,22,299,276,232,-72,-172,197,153,-190,-297,41,34,-284,193,-291,-41,54,-238,-7,-232,177,88,-305,-140,68,274,-243,-274,11,-205,259,-170,-66,157,300,-71,-215,208,-73,-259,118,-84,82,-85,-124,136,243,271,146,-283,98,21,-246,-172,-97,173,-72,-53,309,33,-72,-23,40,233,-106,115,148
-81,-248,6,-237,283,116,25,50,258,-162,-148,109,154,-215,-73,150,33,-65,253,54,222,-45,-177,14,22,-140,-128,25,266,50,231,217,220,-83,128,293,7,-248,-21,-218,59,2,218,166,-187,284,-239,161,-32,189,-284,228,-235,-160,242,-275,97,-258,222,-71,-80,31,-72,158,237,29,-9,-301,120,-258,-218,259,90,36,-127,0,106,34,157,-272,-99,27,-198,-85,257,59,-140,35,-59,234,-91,-207,155,-118,142,297,-9,233,31,181,-144,138,-139,135,151,243,241,-152,-109,-220,254,44,221,48,-162,-203,112,-209,88,211,76,147,-62,273,9,-28,-248,-42,78,-157,24,-68,-286,-86,-259,75,67,284,-15,250,98,-90,-44,59,225,-129,258,305,-24,232,-103,235,-176,-242,-94,82,72,-87,59,86,-29,282,164,-225,194,266,-259,-16,51,162,-264,-273,-280,-209,59,95,13,70,229,-66,-6,180,247,-71,-256,68,-238,-302,5,270,214,81
-217,-123,127,-204,165,170,-28,-293,-223,47,97,-149,262,16,265,-48,-65,116,-52,-102,-146,-19,-67,-13,209,148,239,6,-65,-26,36,154,228,-40,-80,275,211,122,100,155,159,280,189,135,-106,164,5,-51,-181,186,272,-38,233,-271,232,234,-202,-127,-299,175,126,-167,-254,-227,56,-156,-205,103,-66,242,103,-36,-204,-80,156,55,-60,18,249,171,146,70,-95,-8,-293,-3,-242,183,115,-100,-27,162,155,-57,282,75,259,194,-40,-48,-72,-252,23,-174,132,252,-132,-163,-230,-89,153,-170,68,-60,-109,-218,8,-49,53,-21,147,-238,-142,208,7,249,167,-101,-13,-16,257,-51,204,-119,52,252,113,-157,116,-273,291,151,-166,105,137,-62,175,-128,89,-114,-126,136,-84,-190,181,144,250,-219,-238,-7,-68,296,227,117,-154,235,-62,172,-162,18,207,125,-269,-173,87,-259,204,-1,-66,-176,-73,73,123,286,104,296,249,220,-101,218,85,-232
210,273,97,-157,46,-146,189,207,3,252,-290,165,-174,-77,-96,262,-267,-14,-172,26,48,-141,-17,-103,26,227,-193,249,-95,56,-229,-72,-91,224,224,-235,-57,94,-55,284,-209,49,-51,-156,-189,50,-280,-99,41,154,251,-38,-134,17,211,-18,14,-107,191,232,178,-160,-59,210,-4,-187,304,-39,-210,-179,-77,142,-160,254,-132,-171,-131,97,53,-239,-257,-133,-186,-240,52,28,-8,172,-80,-113,185,28,-28,46,149,265,195,-29,167,157,-250,-32,273,224,-98,130,-297,283,-67,175,-263,84,-26,144,49,-217,-175,105,-158,267,-74,213,-23,-40,-129,-123,-184,-283,156,-112,-140,-104,-180,225,-160,251,-238,283,11,54,-240,233,-16,111,76,41,-247,-72,132,62,238,99,-212,248,128,20,-246,181,272,120,-22,237,22,188,202,144,182,16,-201,203,-115,-269,-271,253,-175,282,-7,-128,267,-75,-241,-12,-10,40,-111,70,228,274,237,233,-231,-193
75,281,64,196,28,243,164,183,4,-293,109,-78,170,-173,162,-15,-60,-248,264,-178,-126,86,58,-226,277,50,-118,152,-141,8,-78,258,-236,212,-5,144,79,28,-45,57,-144,-293,-173,282,282,9,143,58,12,245,193,76,259,276,-105,-124,-114,270,264,-80,-273,153,-41,-166,-58,206,-48,251,-162,196,119,-123,-262,267,228,81,-180,-61,-267,31,188,123,-137,-7,109,-298,-94,-285,42,-76,89,-169,42,235,-116,136,-19,-184,219,-70,-250,276,-134,44,90,-193,76,236,92,-108,-280,-46,109,-264,-74,-30,-267,250,-153,-225,84,92,-249,-123,-38,-52,-52,242,-111,-48,197,-91,-300,287,-202,135,289,-263,-9,182,154,27,-246,-293,-284,-139,-233,188,-213,-218,231,288,-151,-73,-40,284,-209,-70,275,178,134,58,173,-250,80,-109,-150,-8,-275,43,67,-276,128,-70,-276,190,-242,-117,-211,103,-127,35,-60,-175,-188,-194,120,-226,9,-198,72,-179
113,-263,-216,90,125,-296,164,-292,77,-142,-38,138,14,-245,-92,-58,173,-24,-2,182,122,182,267,-99,234,-184,-99,-23,8,-55,-58,-156,-275,-183,-159,178,-16,268,239,-7,13,-141,-207,198,29,-96,230,200,265,102,3,152,-244,127,69,161,-49,97,133,187,261,-133,-33,4,-105,142,-66,88,245,-39,-70,-13,-251,181,-251,-171,-6,-223,145,69,-48,-256,-108,-1,-218,-256,151,-187,-305,-230,-118,207,-28,-247,124,238,138,158,-30,126,194,-37,-29,248,-86,-16,-163,-171,-62,19,-45,-67,21,157,84,257,201,-42,-214,-162,115,180,-59,-154,8,-277,116,-43,1,-174,227,-96,-191,-190,-43,-224,134,-309,-95,43,-277,-6,258,-142,67,-293,-86,164,-49,-247,229,271,-218,-238,-192,72,-119,-148,130,-26,-10,117,-5,12,198,270,9,140,-43,-241,-24,-95,268,102,34,171,275,-248,-130,-65,-248,-169,-196,263,-102,220,66,-90,-151,-308,98,159
-158,-8,-202,95,-13,-124,-36,-126,-124,185,284,-70,126,-259,223,-252,-119,-248,-205,122,236,-145,-47,-26,265,152,-226,-70,27,273,-252,209,-115,141,282,150,-171,-3,277,110,206,-93,-125,78,240,36,43,-130,-141,73,280,-250,177,3,77,62,274,-225,-36,-302,9,8,-38,285,100,-184,-96,-157,11,-59,108,-151,-295,-26,250,-138,-83,-206,-70,-67,-244,-118,-170,-273,-188,186,23,-10,-78,-293,12,-60,38,120,51,84,127,-172,104,191,-10,-77,144,255,-163,-105,201,224,28,233,101,-205,187,-283,-4,95,132,247,-255,-66,-255,-281,-228,-21,-153,133,240,-223,222,-196,-125,194,7,177,-234,-162,-254,254,-238,-62,43,122,-237,27,-133,-181,249,251,16,-292,79,-105,57,195,120,29,-154,29,-160,-240,-89,82,8,-273,-78,51,110,212,125,-167,-12,-211,50,-91,117,66,213,-287,-70,-107,269,-147,162,181,-45,77,-263,-123,-105,98,-151,-269
-114,160,85,-136,104,-101,-220,-28,-149,-10,281,61,278,-129,-249,-20,232,-76,-269,-22,-240,-295,-89,231,-234,-255,-151,137,-12,194,277,4,-48,282,-84,-261,-109,66,270,128,-80,-48,-57,211,-77,11,230,263,97,234,66,175,278,-222,116,-193,-178,285,75,64,109,111,-272,-61,19,95,-278,-97,-283,-163,-58,110,129,175,-54,233,-33,-156,-282,236,174,77,236,-217,-287,-177,237,282,-204,63,84,86,-23,-164,-279,-70,-66,191,-74,142,-103,266,-72,-129,286,227,197,-6,8,-89,52,137,171,275,24,-135,29,-19,279,-81,108,146,-241,-171,-249,237,216,-301,-174,-110,225,-289,-49,-200,79,191,170,53,30,31,100,-241,158,-104,74,-23,-227,-231,134,0,291,-105,-99,27,-26,52,-47,231,-44,-121,213,-283,44,285,-203,-111,83,-20,87,-275,209,203,-204,-11,89,-230,-92,-213,-63,-139,221,194,-160,239,109,-150,-200,-269,-163,-98,123,271
58,-95,154,55,-173,-242,-272,-299,233,26,-237,169,-257,-154,253,-208,234,-170,-80,72,144,49,-150,161,281,93,-221,-212,89,96,58,52,-248,119,25,203,-199,276,-137,118,265,-52,105,232,58,296,-29,-257,-25,-291,-165,182,110,-116,-185,131,136,147,140,142,-250,72,18,75,0,-281,221,34,-266,236,236,-21,159,-241,79,-244,160,37,192,71,-77,-272,-51,50,-216,-162,-2,213,144,114,-22,-56,82,-3,273,40,-115,98,84,-168,-131,269,21,60,-197,-172,-88,1,-236,203,124,154,81,46,139,97,157,23,-77,-12,-293,193,157,-269,-218,103,-64,146,-214,-245,-151,-62,-136,106,-190,-178,172,181,48,-46,-33,-287,267,-205,112,83,-201,38,-264,238,-293,62,-91,0,19,-199,186,262,-194,193,82,-1,-233,189,199,201,-189,200,-121,216,125,250,-15,-241,-76,21,217,-78,149,-267,-304,-81,127,225,140,-190,195,118,137,199,-200,-281
-169,-53,-243,-217,83,113,-178,161,263,225,223,135,-243,-239,-228,-26,-41,-169,163,141,20,207,57,70,201,-243,290,-247,-29,47,285,-285,-17,154,-105,-160,-284,-88,-190,42,254,152,-43,-89,144,-252,-118,-45,288,297,-22,258,-206,285,-102,-126,217,104,106,180,-253,225,233,-22,-176,60,-284,-221,179,-237,-264,-69,-200,188,-87,-200,65,-112,232,224,114,76,-72,-212,-164,12,-207,45,194,245,-266,246,-157,-230,113,-47,194,-86,-23,-264,-262,47,-225,162,254,-106,188,-285,-130,124,234,-66,178,19,-194,-50,-291,-185,22,270,218,-36,-246,-112,226,165,-58,111,265,65,-236,-69,145,-195,-41,-196,19,-271,-90,-171,-112,111,269,203,303,-29,120,-242,18,18,-120,-147,49,-133,259,122,180,-247,131,273,-283,236,110,-114,213,-263,179,36,16,129,139,246,136,126,-56,-92,263,-98,83,-120,-38,7,-136,-248,51,279,-227,243,218,238,86,-162
-106,-282,28,229,35,-189,-249,134,295,-184,-282,-249,126,-98,-163,-125,-273,214,-255,300,104,141,-41,-119,181,41,70,221,-185,151,201,288,-5,260,164,-180,2,167,-218,13,22,-37,21,-224,143,-260,-85,105,105,-40,-182,32,267,-96,253,-218,111,-237,280,162,-213,158,39,81,-260,-121,250,-237,196,8,163,131,-267,-111,147,38,122,-217,-250,-105,214,-205,74,-217,167,-67,29,142,-283,16,-123,-226,-94,-127,-246,-294,248,-106,-200,251,33,38,-253,48,-166,-53,-83,158,303,206,248,-48,-159,-253,290,-247,-5,178,100,-278,294,-297,241,-66,-162,-172,0,-182,21,-108,109,51,-174,-296,-38,-5,-108,-117,81,71,181,235,264,50,81,-272,-172,179,-205,279,-194,189,211,130,-5,-19,-124,211,111,163,-111,109,262,141,292,-69,-86,-27,-214,-236,-249,-42,-134,211,-281,-220,105,82,-35,-24,-260,15,208,119,-261,-161,258,199,215,-229,291,137
213,-127,-7,205,282,5,-269,70,112,-105,-101,116,296,253,106,181,-223,-55,137,235,-177,-287,-222,-121,-274,147,119,-196,-262,150,-185,-15,-90,173,-177,54,315,120,-260,-22,-48,-76,40,281,-206,197,196,-163,59,85,-32,255,102,-212,125,-224,-244,-32,107,-162,-89,-153,-215,-153,-61,-56,231,-262,-218,-105,-35,-43,-197,143,-256,-37,32,210,93,157,-14,299,197,-219,-99,-245,215,-43,14,113,-101,-108,278,-64,-158,-258,239,-223,-153,-11,263,281,0,-284,58,276,27,-173,-188,105,27,43,-227,150,-9,216,230,161,-144,-284,-249,130,175,-272,-242,-115,-13,201,38,259,51,-228,-84,-67,123,214,167,-250,203,-11,172,227,104,128,174,-248,-232,-97,236,19,-10,-166,206,165,152,-55,234,111,5,-258,0,209,22,22,-197,-169,-7,-153,253,-253,-69,59,244,116,-260,5,264,83,22,-225,43,-254,-8,-264,181,-214,-187,125,-29,162,-2,80
-54,-233,-173,57,-56,124,-216,185,31,-255,-131,-97,-227,-37,66,-297,-49,85,63,254,216,242,95,165,-26,-165,107,-128,211,111,129,62,-40,139,228,100,99,-280,178,223,-229,-185,-34,-279,-36,228,-90,-58,-246,-178,-67,267,39,272,-222,-258,280,39,232,-291,-160,83,-213,184,246,114,-103,-2,-116,213,30,-217,-23,93,-99,130,-283,239,-17,21,-90,300,285,-114,191,-267,159,-252,250,121,-126,154,233,273,175,297,107,-203,199,149,-39,-142,71,-226,-265,-291,294,-217,183,-263,-33,237,254,301,15,-55,-168,-219,-107,187,-28,-269,-151,92,-108,-88,-225,117,119,-171,64,13,152,129,40,-221,194,133,-124,202,228,164,0,143,-125,12,35,-99,151,-284,51,-180,-171,-223,175,212,248,203,110,-116,6,167,-283,73,239,-99,-243,-78,98,-109,-63,186,188,-35,-159,165,-237,166,95,-91,221,69,177,-248,-65,-250,-16,-150,90,-134,239,-261
18,249,-261,106,-139,-219,279,-18,130,-65,-56,-98,-139,-248,-22,269,28,-181,-29,-67,55,170,51,-108,226,206,233,176,103,102,-45,285,-62,-125,-75,202,-254,-71,221,217,-41,235,108,96,-15,-221,-221,-134,194,145,273,130,1,62,242,110,-250,-117,220,-262,148,61,-218,30,78,-203,-257,-197,-92,-167,-74,12,-113,225,148,250,-55,-191,-206,-130,73,-209,-43,-19,-46,214,9,-269,185,274,215,-89,-46,87,276,-262,150,-79,-74,-48,-104,172,28,-99,-253,170,-64,-14,108,-193,107,8,-91,223,4,234,-93,200,118,-148,110,272,211,-8,18,-69,45,-260,0,-231,-124,227,-87,-30,-24,-51,-47,138,-224,9,257,-92,-69,44,13,-118,255,-184,-95,103,40,-283,-297,-145,-60,-221,-265,-186,234,-216,114,117,-50,125,274,160,21,-7,-274,-163,-4,0,-93,44,176,-186,96,268,14,-27,-72,-213,-211,-225,-164,-275,82,223,107,-230,-98,40
20,-121,39,30,198,-146,-27,-250,247,-38,146,232,-217,19,210,198,46,73,153,197,122,-219,-47,21,55,-269,-101,-71,1,-111,46,124,15,196,-179,-10,-175,76,-42,-228,19,61,-156,-269,215,-169,18,213,1,186,-235,-297,17,250,-258,82,28,-286,24,156,-1,-144,264,-97,-94,217,36,-146,-62,-237,-217,69,-121,-203,250,-1,27,-34,59,166,-197,27,-228,4,-215,214,58,-310,166,-223,238,44,139,87,-163,257,275,-219,-254,-253,-80,90,156,184,81,215,284,104,198,-263,-24,-134,98,-271,-151,113,69,154,-184,207,-186,284,-94,297,5,156,-251,0,-192,13,136,118,-186,10,-142,258,-213,-235,-177,17,235,59,122,-19,44,-150,-194,-135,-261,-216,-136,222,-238,182,-204,-217,164,213,-176,-64,-59,195,202,214,179,202,294,170,-150,197,-307,-120,-137,-255,246,-235,9,50,-217,-1,267,250,-10,69,-250,-206,115,-196,-231,-75,278,-204
-296,-182,-294,210,182,244,113,-69,258,161,-108,52,66,-93,-248,1,34,-251,-128,-290,-259,-149,-225,247,168,-194,-173,205,-182,179,55,77,7,-113,-115,-91,-60,-208,-291,259,-213,-146,151,-256,286,149,-96,115,-147,183,278,58,-53,100,-59,125,203,282,118,214,-192,-191,284,-245,-37,-235,145,176,-66,-10,-126,-274,163,-269,58,-52,200,81,-177,53,-228,60,55,124,-42,34,18,-70,219,252,-171,-214,190,193,-180,-63,68,161,-247,-10,99,273,-17,287,-182,-124,287,42,-94,-186,-257,30,283,-267,21,-303,-35,235,41,3,-82,-243,43,-252,280,-307,220,19,-178,111,41,149,-121,-288,-138,-43,-71,-291,30,-131,-92,-213,-100,2,196,0,300,303,142,30,136,197,-148,235,135,-18,-187,1,-16,272,-227,65,158,100,131,-176,-194,121,-24,98,199,-69,-231,-175,-39,-232,213,263,-96,-113,-160,178,-102,-12,210,63,-47,-3,204,61,-60,-77
-63,-151,-242,-306,-216,49,-283,30,116,118,262,-63,-82,-152,278,239,42,-103,-213,-127,-93,50,174,94,-199,0,9,53,-72,123,-281,145,-236,40,51,80,247,-202,235,-174,-250,-171,-246,68,288,-262,213,-111,-271,-107,265,256,153,-89,-19,-253,-220,264,-140,208,118,24,171,-151,52,177,228,-247,51,267,173,73,-34,-210,-297,193,-211,0,-190,-296,-131,-73,176,210,-122,-62,73,-78,-199,135,70,220,268,18,181,169,38,-149,-192,-275,-218,-110,-179,160,120,219,267,205,185,-273,22,35,-187,-104,94,-213,-41,116,-252,169,209,274,-18,243,31,232,164,-253,-298,186,-246,283,19,197,-117,-35,100,-229,68,-283,-90,-10,0,116,174,246,69,261,198,-75,115,248,118,-241,-72,-159,-234,-195,139,-207,30,-54,127,-82,-129,-234,-125,9,-248,123,-245,-159,11,146,-279,-197,-226,108,-158,-226,97,-58,-220,205,-131,54,-215,-190,-7,-81,-32,-294
258,105,-71,-37,219,223,-193,-164,263,-3,-174,-32,157,101,-28,91,-293,-170,197,294,21,-251,284,-153,-57,125,-118,-161,226,-188,283,247,216,266,-174,64,-265,-66,-199,-131,230,72,52,-21,7,218,-81,-202,30,-36,-127,277,-53,-171,-4,44,103,-227,11,-11,0,-286,202,0,2,-122,-87,-47,164,237,-93,-204,55,305,-277,-6,307,32,234,-16,-30,74,166,-99,-34,187,15,-251,225,212,-155,-247,-135,35,-9,269,-191,92,109,-125,-291,141,146,302,152,-204,96,-69,-123,231,215,-92,-9,250,-29,-208,270,249,-87,78,-250,-79,55,-271,262,63,187,-200,-115,-159,267,223,195,-26,3,-51,223,58,213,85,-255,215,40,229,220,-250,-132,-208,152,139,175,228,89,-161,-71,-217,-22,-37,58,-246,-191,70,220,-266,-223,-245,60,287,75,129,65,-201,66,192,-31,119,-129,95,290,-266,283,63,-48,27,-284,137,-86,293,46,-281,196,9
-80,6,87,129,-92,-76,116,-206,-80,171,26,-114,248,-99,236,-6,40,-100,-68,-179,196,-253,-214,-29,57,-229,203,135,-244,77,-76,-154,-14,-285,-166,-244,-101,-218,13,-240,-105,63,155,-263,182,-278,128,-130,-115,118,91,202,-25,103,-175,175,-212,-84,107,93,226,199,-224,-40,161,-238,142,-92,158,-286,220,6,-88,245,-218,-305,188,58,81,34,111,229,-149,191,-63,-226,166,203,287,66,-1,242,236,96,266,99,28,-254,83,166,69,-78,-234,-207,30,-76,-315,164,-225,-80,232,-102,-107,31,212,79,-216,-112,2,-1,239,-28,-148,95,-108,183,145,-288,290,-261,-32,-21,295,-325,18,-215,-231,-135,273,-234,-126,-7,19,-83,-123,-28,-104,66,-170,45,114,249,114,-210,-184,178,-56,191,-187,-254,33,-2,272,167,196,75,-141,37,-80,24,-10,223,-235,154,-220,-203,77,147,-286,96,-22,-214,-245,-9,211,191,121,-236,-109,-110,-246,140
279,-278,302,128,-217,-59,70,182,270,266,36,-252,167,282,0,-111,179,120,-270,-239,288,205,-207,-184,-122,179,196,68,-35,13,-104,44,-191,227,105,186,-159,-89,264,183,183,182,83,-178,35,17,3,-227,-159,259,-129,-275,-227,198,93,77,150,107,43,-241,97,73,51,-172,-55,-244,272,38,-261,-97,-25,-136,286,13,122,28,35,29,99,195,-253,-28,226,70,167,-274,-248,-59,121,-172,-290,33,242,1,-111,-158,-75,9,-263,87,-31,-177,-275,236,-207,-86,91,-169,294,-255,174,170,-107,45,-90,37,-192,104,14,169,-275,-138,-63,36,-111,8,208,68,-47,-291,-89,257,-181,-13,211,36,-33,135,82,-290,106,94,4,-172,-214,69,-259,184,-66,-15,-215,200,-183,275,264,-29,193,-190,90,-117,-8,-307,132,8,-22,88,-49,-132,223,132,251,100,-165,215,-47,61,236,-247,-113,104,-246,127,234,-89,-162,-91,-217,41,18,-253,-289,212
-130,-76,-187,103,174,40,-212,248,281,-1,-158,-135,-82,161,151,-50,116,-286,282,185,20,-207,-23,-309,271,14,-269,-146,87,-152,129,-172,-146,207,146,-262,-83,47,-141,61,184,-83,-172,150,-162,-184,189,-218,35,241,-163,301,-251,8,-122,-174,-164,0,90,-102,276,15,221,167,-121,-159,148,16,-22,-271,122,37,72,-75,41,44,-206,103,177,262,-297,-181,185,14,234,213,-198,182,236,87,-145,108,-32,-228,98,-140,39,-150,-36,-116,314,14,94,113,-53,153,202,198,-196,11,141,-157,255,274,63,-51,-85,-283,-139,-49,171,-83,81,101,142,34,253,266,-70,90,-231,-82,104,71,-118,204,-10,-124,-71,213,-225,-164,-146,-122,12,122,125,-54,-259,221,-179,249,-218,-7,-106,251,-120,-99,-87,118,154,226,-103,-17,-111,-43,248,86,-230,-64,155,-203,-39,143,120,-96,207,-264,-100,-144,-9,282,30,136,-65,-255,-269,61,-151,256,-215,-174
20,-242,-219,-19,275,224,-89,-275,182,55,-29,-281,-44,-215,92,-296,-72,-36,66,-116,18,-62,224,222,-56,149,126,-100,243,-302,232,0,119,127,1,302,210,265,-246,-235,307,111,-148,65,271,289,283,-173,195,202,89,161,81,-62,49,-193,-223,-134,-172,52,-37,-39,-148,-110,37,-269,-80,7,264,299,-101,177,-20,-238,-168,239,-54,-281,43,-266,-3,-212,42,136,110,-219,-207,-140,16,30,144,267,-190,-13,213,177,93,86,235,175,-2,-201,-246,163,-155,222,-188,269,-183,-187,168,76,197,-206,20,-211,11,156,145,-195,-196,-231,133,202,74,280,-206,-232,-64,-118,2,109,-106,-66,-163,-294,105,-11,-277,-257,-129,188,-16,201,64,65,137,-202,-65,-236,39,-118,204,-26,-13,-150,-270,256,234,-157,276,-184,-87,-54,133,-62,74,75,-21,-38,-220,-107,28,-38,57,-43,15,-207,-277,271,5,284,151,172,218,228,1,-141,221,-201,45,279
-102,-310,-181,238,285,-92,243,10,-249,-33,-21,25,211,-213,157,89,117,-142,-250,-100,214,-13,165,-174,-284,184,-99,9,-265,-255,-113,164,-291,177,187,243,-270,142,-127,-21,-98,-312,246,70,-124,174,-299,224,-309,-186,191,38,16,-224,275,-238,47,49,-11,271,-177,176,64,58,-204,192,-31,-173,-253,192,206,109,-90,-151,-12,30,-142,-236,-263,240,186,194,-249,116,135,173,110,87,28,5,-106,13,-5,-131,164,-81,230,-78,3,-78,235,97,143,20,-133,211,78,125,121,-269,-82,152,-300,163,109,-125,257,-288,-151,191,187,-208,208,-269,29,215,89,194,-60,105,-51,-155,187,-271,202,13,-109,-149,-175,-99,-87,-51,-104,-33,-285,133,-191,-185,51,171,-64,1,-239,98,159,261,-221,277,-192,-50,-284,3,277,-213,144,-246,138,170,240,233,92,-247,122,172,202,-171,-289,-262,274,190,-101,-147,252,194,-158,169,23,143,-103,-91,-288,118
16,-209,143,235,-16,-100,229,-285,151,91,153,-3,161,251,111,-40,-146,-138,-291,-188,193,249,264,151,-307,12,-23,-15,116,136,-283,-158,223,-156,115,165,1,-269,20,265,-13,2,161,-256,254,-75,89,-250,-2,-247,138,-306,-151,220,-126,-279,-93,128,-262,-230,95,-104,46,136,152,231,98,134,-224,-260,69,-90,-211,21,87,264,-60,-35,-254,-248,276,167,-163,111,-152,-218,-152,-40,-126,103,220,278,-123,-136,160,-18,-164,-9,63,233,122,-296,128,109,-43,-81,275,-232,-187,93,-237,-248,-113,242,78,-182,256,115,172,-216,222,-192,-127,241,-270,146,-6,-220,37,-27,264,177,250,-239,-97,-194,137,14,118,92,-244,-300,25,146,71,-293,-177,152,7,-243,84,53,-113,-148,-76,-187,-236,-134,119,-54,-257,-110,267,152,119,-284,-215,-50,-191,113,-93,-42,-179,-37,4,263,184,-269,3,21,206,-155,238,65,-49,173,71,-224,-254,44,189,-129
180,-231,62,-18,209,137,-191,261,-174,200,251,-14,289,56,-252,87,125,-246,134,-55,-176,12,-148,-120,-30,-233,200,183,0,-114,40,273,209,55,201,191,99,279,-198,227,-86,29,77,244,115,129,-151,-181,-191,200,110,243,138,-39,-176,136,-105,227,85,38,28,-159,220,186,98,194,-131,91,-206,-71,-305,-2,-96,181,-10,-108,-57,-183,-155,132,169,-90,156,183,186,219,250,236,103,224,-5,141,-287,258,-60,18,-233,-297,61,-95,85,166,-264,-259,252,-83,-80,75,-138,277,77,-116,-4,-176,-87,239,-131,176,253,-61,-57,10,179,-63,233,-118,114,55,-163,248,-113,-5,-66,243,6,265,178,166,-153,237,-141,-166,-48,-42,-88,75,-256,291,-300,138,-264,149,243,-270,-200,-78,161,-159,-163,-189,87,-68,66,241,96,-180,-130,50,288,-105,-80,-28,143,36,-193,-177,-264,-30,-138,14,-235,-164,-99,-5,27,139,-44,5,222,-191,-284,-34
-193,41,-239,-227,-29,226,188,200,189,205,-129,-111,27,-253,-28,-124,-152,-114,154,6,294,157,295,-65,64,-93,51,-98,-139,197,-39,102,-84,66,170,-221,86,-133,164,-112,97,1,-244,-17,45,251,-76,-168,-226,112,-251,-236,-123,-251,-38,-284,-243,-44,278,-248,-239,160,152,-168,-197,290,-176,-173,106,-46,-215,84,302,-115,-105,-273,103,-45,-134,-176,179,-255,-213,-244,-234,309,68,-141,-18,147,-131,-167,-218,-273,-128,243,-243,-156,-117,-261,-208,106,-219,234,-76,-97,-149,-16,-126,-174,-106,-115,-60,262,-148,78,-228,29,84,-108,-131,-252,240,251,-260,199,-125,-203,194,285,-215,300,-205,288,-52,-109,286,-198,-209,18,115,-212,236,281,-285,-203,-249,184,-267,-41,-226,90,213,-183,27,-210,-265,-236,218,-128,226,-140,-184,259,-192,169,-179,-63,304,-14,184,-88,248,85,285,-252,149,-180,269,-177,118,22,27,59,-132,-221,179,53,-143,-229,-204,295
260,-168,-165,126,-40,95,246,235,248,-118,121,-224,-68,-78,35,-80,216,45,-126,56,241,-277,-10,-274,-88,262,75,149,-128,93,-101,33,219,-8,-226,-97,-255,250,-69,-215,137,-79,-90,-100,104,29,-183,-26,-56,-197,-39,176,-230,-36,-198,23,89,-196,-274,215,259,-108,16,-47,-221,-207,-71,81,-137,176,-69,266,22,-5,96,14,99,79,-268,-44,201,-60,65,144,-68,-101,184,123,-227,251,-275,190,-63,-280,17,194,-158,114,-84,-158,191,240,-252,-319,125,11,257,131,297,23,162,-250,-244,185,144,7,-69,-156,77,54,54,64,-86,-173,-122,218,275,-283,4,-216,-175,130,190,-95,7,128,138,-119,188,102,197,21,35,-257,-10,-270,-129,162,-213,-292,249,-122,-6,150,-45,79,-173,-187,268,252,-129,72,60,-213,-18,-97,87,0,236,83,-225,-258,61,-103,137,-255,243,92,53,-259,-67,-120,29,-235,-11,175,196,-102,242,-211,201,241
245,182,-233,196,241,158,297,-258,167,68,104,129,279,25,121,241,-7,155,199,188,57,-283,70,-296,-129,-242,-256,212,-233,-214,-41,-50,-176,-85,29,-284,113,101,159,-174,291,-266,-176,-82,162,-4,200,182,284,-107,251,119,-271,219,48,263,67,-183,174,112,124,-49,102,-213,40,-28,-242,285,-103,-209,-270,177,123,271,218,-71,-29,279,74,-180,11,194,-35,221,-100,232,-99,-239,-38,-242,-296,-141,-54,-254,254,-77,-91,295,232,-68,286,111,33,97,-116,-58,-133,-205,250,29,66,41,179,2,147,-250,232,-181,-236,187,42,109,-189,47,180,-198,-264,106,-102,-202,-269,-39,206,44,24,186,135,-126,-224,130,260,-66,-289,170,-126,222,235,-210,240,-43,237,-277,245,205,190,-208,3,-136,53,-119,-162,85,-149,-181,-20,-30,-94,-47,-274,78,-166,27,-36,222,-244,261,36,242,170,136,-154,-142,209,230,260,291,136,-109,76,-54,141,177
-128,-130,-222,83,31,52,29,-276,48,-155,240,220,122,243,166,14,43,90,32,223,118,-5,228,-115,108,-29,159,183,189,5,225,-214,22,-253,246,38,-229,132,121,-157,114,-234,-90,-151,-26,-200,-191,57,-29,-61,-283,107,91,-158,30,190,-185,-157,275,-90,-177,125,-89,-138,49,-178,286,-10,247,-218,-164,-33,-141,269,145,223,22,-47,234,108,-105,1,-58,-260,42,222,176,-251,305,-32,219,-248,-8,-57,-129,28,225,-221,36,-282,234,-132,-282,-186,-23,-114,212,47,-106,103,-269,232,168,147,7,-230,98,-251,275,-54,260,-168,131,-288,-29,-264,134,-234,227,153,174,39,-200,-117,-51,42,36,19,-232,67,-87,238,146,62,182,-191,86,232,288,170,204,150,-290,59,109,273,248,247,-22,40,210,230,169,-157,-247,30,-196,22,132,-124,-149,-93,-17,204,-132,-262,275,122,-104,160,65,31,-40,196,-80,-144,-177,-144,-97,-10,-92,2
107,194,112,-118,167,-244,-26,285,-87,202,287,226,49,15,31,-100,-237,-49,180,178,211,-18,-136,-50,136,-266,185,96,153,50,258,-242,-250,-178,228,-114,10,283,-191,-102,77,237,-212,-172,13,-50,263,212,-70,219,-194,-166,-61,-284,-23,-2,-42,-261,266,-131,-285,-39,-228,114,-52,-146,-259,55,192,85,164,-293,-272,-227,-212,43,93,230,-32,-135,-193,302,7,225,255,17,-277,123,-146,134,-210,-139,-17,89,144,197,222,143,35,231,120,-86,-73,2,-124,111,-42,282,-55,-24,110,-192,99,-14,-164,-13,-270,277,-124,-187,-226,49,289,-110,-19,21,-71,-225,-203,-211,-16,9,-102,-37,141,214,57,209,-171,-195,-233,215,271,-158,91,183,12,-188,214,85,130,190,-146,-90,86,-292,-187,226,235,-10,271,235,-278,185,12,179,263,210,-78,-75,-286,-184,140,-1,28,83,-221,-178,-208,-293,179,272,119,-167,-153,-243,-237,43,-221,219,103,-66
-230,205,159,-246,-175,283,-191,-85,21,-163,-53,-262,168,-146,114,-142,-79,-136,203,-144,200,-249,191,-163,194,247,116,-111,208,-42,-156,-166,299,198,-152,-226,-155,25,-4,112,36,-56,69,-181,-163,45,-186,-208,-140,-222,-154,59,81,-68,92,-226,-21,-27,282,-60,89,5,131,-148,-151,104,112,293,-242,-231,-183,161,98,-38,-45,178,-180,-180,178,-248,-122,-27,-185,-153,-84,218,195,-214,196,276,-35,205,160,-263,150,159,50,56,-231,127,-57,-163,289,18,135,0,-190,-215,-104,-217,-200,-229,212,165,307,-90,23,217,-18,-91,63,-194,-220,224,-236,-257,59,64,241,-103,-85,-131,53,-225,-81,-274,177,-176,193,114,-151,274,-267,-35,-34,-132,170,63,253,-105,-172,52,68,213,203,50,-204,230,-85,8,-17,272,245,-136,-72,68,225,225,8,263,-6,-244,248,232,136,144,143,-187,-175,220,110,41,95,-136,25,215,-134,266,32,227,192,-105
261,-37,210,-194,8,267,218,71,160,-205,211,-235,46,-13,-195,101,244,177,99,-104,-146,-231,-247,19,-197,-57,285,242,-63,-124,-148,-4,201,-39,32,278,-229,-137,7,-27,28,289,233,-49,97,81,211,-215,-3,233,197,280,230,-24,-57,-258,-151,-133,110,216,-206,-93,-159,62,133,-166,-10,248,-202,260,-231,5,148,166,214,156,185,302,-108,-84,-145,66,-49,-91,103,284,-139,45,108,-186,9,-15,64,-200,13,-122,-4,19,-280,196,-156,-225,296,-120,-76,199,-63,-131,244,80,-227,83,198,-15,225,299,25,-225,241,243,27,36,-231,-58,-86,-52,-21,13,210,-205,-123,205,201,-227,176,142,-33,-15,228,93,-64,-1,-47,173,256,-230,-238,255,-63,-109,-241,-38,-30,48,25,-8,268,-204,-262,-207,-232,-181,262,-165,-219,154,-235,-272,211,-78,-147,229,127,-169,-176,187,150,141,270,47,200,-133,-131,22,179,164,61,-89,93,190,-177,-66
-273,-62,-109,230,246,-196,254,-274,46,229,-33,230,149,0,-246,-158,-256,-172,-199,300,-245,-111,30,168,-284,131,-240,-259,-224,-240,278,251,30,20,-206,-5,67,176,25,108,226,236,-158,-73,296,4,-92,-247,-4,67,-160,-1,211,278,-230,-192,-108,147,135,87,-44,208,-21,-2,-255,-16,190,141,242,278,223,-191,-196,-66,-221,-169,74,-142,112,256,80,145,-6,118,-31,54,-48,-188,171,-252,82,-87,32,-49,-246,-115,-142,219,302,-111,189,-57,-72,-143,166,308,97,261,100,202,50,-222,122,24,299,240,-247,63,-242,1,153,22,-146,264,37,-247,180,-93,-224,258,-7,-189,-122,-115,-230,237,29,-75,103,63,-113,-180,-32,167,16,140,-15,119,-65,-127,62,72,289,229,169,-143,247,-25,-2,27,21,268,37,-110,-170,-205,-261,-271,-91,47,-65,292,22,126,236,-53,211,-238,254,228,212,301,-103,99,13,283,260,179,271,-191,278,8
-88,101,-96,184,243,-176,-40,72,212,6,-213,199,-104,-111,-307,-162,206,184,147,-67,-196,77,129,20,-20,257,-232,-64,-84,-263,-148,209,256,186,-117,134,-206,56,-45,7,23,186,190,-176,285,14,53,-301,59,-182,-105,-113,5,62,161,181,-198,-242,161,-156,149,-125,-176,-115,-2,81,-52,-92,152,110,-132,-298,-32,-137,163,264,-228,154,17,234,-289,165,-166,109,93,235,241,76,153,-200,-263,140,-20,-25,147,295,237,-302,104,45,-191,-49,102,294,50,-292,266,67,237,170,-115,85,-81,161,-248,47,-92,-150,-79,-53,-220,174,284,87,-113,-82,268,-179,-259,-122,125,3,2,104,152,-239,152,-190,245,148,151,-135,149,-71,103,-44,42,193,-22,-268,224,180,214,-247,-207,238,50,-172,-1,99,98,-228,-67,285,-8,35,150,-198,27,23,192,155,260,265,-73,-227,-45,226,234,134,-172,94,234,-157,231,-66,31,196,-200,-273,91,-104
239,242,-158,-247,127,226,56,-168,226,-171,49,-259,88,-264,-204,107,34,-12,207,-255,-61,263,105,276,-172,108,175,38,303,241,-102,-233,-119,77,160,-196,-169,-281,-147,-125,-6,228,-140,263,209,248,200,-130,-123,286,111,-168,-82,245,199,-204,-150,46,158,283,-221,-255,82,-19,-19,-53,109,-93,-11,-188,265,-127,156,241,-11,-121,-144,40,-12,79,106,-129,24,231,-291,-112,192,-149,194,-202,264,287,119,61,284,180,195,-143,27,252,282,140,243,-37,-15,-80,-93,-47,155,205,-3,263,-272,57,75,282,220,176,211,-252,-125,-103,-109,264,-295,-234,-90,-84,-17,14,151,-177,271,-18,247,-174,-124,182,-37,116,-105,279,181,-180,309,-282,203,28,-55,55,-170,167,125,234,-44,260,-36,139,-220,-278,-108,83,-55,101,-116,-100,51,122,-52,-180,232,-46,-159,-208,233,-102,274,-154,-177,-278,294,116,-275,-218,61,198,244,-133,175,201,13,-158
114,51,-267,-43,118,-174,99,-180,159,-7,193,52,-126,49,3,184,177,212,-271,-35,-47,-34,244,185,-43,198,-125,-167,-11,90,-216,169,203,-194,253,-199,-244,247,-240,112,-35,-148,-130,97,41,273,-57,256,-162,-307,-72,-91,80,177,81,-207,-198,68,192,37,64,-77,0,-286,-144,-21,144,177,20,154,117,-287,-81,79,62,125,131,-31,-255,210,-27,190,14,-272,-10,78,-2,242,114,-158,-218,138,134,37,265,-23,-92,4,-14,-221,-173,-191,118,269,-11,231,300,-76,179,16,-51,-214,-22,-158,-99,133,59,187,227,-290,-248,78,49,166,198,-72,-261,-234,251,1,-7,255,-161,76,200,-47,-104,116,127,167,294,182,-192,36,-200,-161,283,70,-292,-215,210,-130,-261,256,-54,-213,-234,-109,88,-131,170,242,264,90,-283,-224,9,-49,-100,-30,229,123,158,71,240,-10,-138,9,-215,-192,-149,-158,-119,76,-222,217,280,-159,-153,237,277,165
63,192,232,-280,140,-61,-47,-297,219,282,191,147,-46,-249,225,184,-262,78,96,-17,224,78,266,-142,164,-97,-114,-278,-204,244,-125,-243,148,-229,-148,-242,-190,-78,-126,-9,-14,70,-248,-110,-249,-267,-80,-264,117,-293,146,191,-220,81,314,-143,158,229,-110,214,7,-195,-257,-96,-302,-211,293,72,285,210,-300,17,260,44,-255,-219,-8,306,162,-19,284,-154,-287,-49,-40,127,-110,-29,-248,14,93,-45,5,24,-144,50,17,-94,42,-51,-207,-40,23,307,-46,20,-123,64,-81,-272,-18,-15,171,-169,246,17,166,-9,-206,216,290,-79,-133,11,183,142,35,-165,-145,296,59,-220,-150,-166,135,-160,192,305,-217,68,-183,29,183,-255,-187,3,-227,-182,258,165,260,131,-218,-10,79,-222,-54,-272,-107,270,-195,206,-42,-37,-205,-187,2,-180,-236,-197,207,57,-51,44,6,-65,187,-12,15,212,-141,60,-234,262,121,121,174,89,-258,87,191,-188
-40,304,238,212,-30,-238,-33,3,245,44,262,-159,233,-214,247,-30,12,43,172,-27,-84,-50,29,31,62,68,-164,117,130,177,238,-275,-113,-36,-26,-150,181,272,-223,77,-144,-126,-75,-265,49,-276,128,-32,33,45,38,241,-26,144,279,-95,-16,275,-74,257,-208,51,211,11,-227,69,-152,32,184,-14,-80,-217,157,198,33,-137,-22,104,-285,-249,227,-76,-110,78,-42,92,111,-134,313,222,215,27,-27,108,-230,-49,36,-293,-269,-306,127,240,133,-61,134,-244,-34,-133,21,-161,179,-282,96,-102,70,-256,-43,-169,-115,78,245,168,-68,225,-73,197,261,139,-315,-123,-270,11,-129,35,67,90,-49,-293,-256,222,-134,143,-91,25,-70,214,130,101,230,-251,154,288,-172,228,81,59,65,214,301,-159,-5,-20,-80,13,187,168,58,205,106,198,-76,-235,269,39,-89,210,-15,-197,292,163,53,289,-242,-136,10,70,-38,137,59,-19,-67,-292
-238,37,146,-83,58,202,57,-221,-295,171,-58,94,277,165,-186,7,-124,-102,-246,230,47,-249,-252,-221,0,-235,-139,271,276,147,4,88,-136,31,107,208,231,-192,0,-303,-139,194,127,62,-161,-3,-50,-26,-172,-126,-282,-152,253,-60,-74,208,252,-176,17,-36,60,-102,-222,-265,83,-305,186,158,-271,24,176,-77,260,-43,-251,-63,-90,-297,-242,-207,-212,-193,77,-43,-189,162,-215,121,-4,-25,-195,87,-37,-221,55,-36,-176,-173,-267,10,-196,-244,122,-256,-17,74,152,207,3,254,-121,-283,98,42,-109,241,-90,-121,49,250,217,-222,-28,282,219,-168,43,112,-221,50,-214,-93,31,256,-237,95,220,108,162,235,172,169,-113,3,-121,-257,234,-230,169,-313,4,-79,274,-139,-19,52,40,53,-238,234,-21,-176,117,144,-107,-294,-105,-94,-201,-296,18,117,78,151,73,-221,-140,-155,-56,187,168,112,0,-60,123,-223,270,-117,114,-216,-259,179
42,-152,229,-17,125,-138,-230,-133,-188,23,-285,122,-286,-148,108,212,254,76,-296,-146,125,185,-24,-200,265,127,273,105,-285,-200,-223,-153,188,232,-200,126,4,-63,-116,-81,-138,106,-117,141,-157,13,-245,-305,-257,-187,-151,-231,-255,-53,45,66,164,192,-280,-176,-132,-164,-52,49,-88,260,-188,-105,-3,254,257,277,-130,16,46,-70,268,-25,-148,-239,-269,1,209,-175,-272,156,-145,225,204,-204,39,-38,-207,-166,84,27,154,206,3,75,-174,-238,244,-277,-165,-14,-182,-161,85,258,45,-136,-21,-262,269,149,121,178,-134,112,109,115,280,1,-72,203,-162,-272,162,141,-296,-267,232,151,-2,89,-60,68,-208,-108,286,5,200,-159,-130,-181,-8,-187,227,287,73,200,102,26,192,204,-116,99,-175,103,-151,-172,-282,-195,-292,-205,28,148,-212,-166,-275,134,215,-285,217,240,223,-269,-258,216,147,-57,-239,-207,276,157,-158,46,27,-130,176,-276
-180,-264,-88,207,-27,-229,-237,-143,-53,155,124,-260,-15,-115,133,239,-179,-288,-66,-22,-27,-200,-30,213,-204,-156,211,-54,-229,-24,-35,-195,-260,307,223,39,-237,-151,273,16,-253,151,159,12,32,205,-16,-62,28,90,-12,45,228,-107,301,-195,-165,1,50,131,-122,-283,-252,-172,202,-1,150,252,205,88,204,140,-105,101,239,245,91,40,191,-33,151,63,-60,30,-125,-238,248,-2,-220,-133,15,-188,108,287,-141,-79,-49,-158,-12,-13,225,297,-235,-243,8,307,-51,276,-141,-159,-90,9,17,98,115,-27,-265,-261,159,-212,76,-237,243,-69,196,171,123,122,-168,-119,-50,-90,-125,-65,-172,252,46,-112,15,-162,132,-65,40,-98,-114,-92,-8,83,266,250,-168,259,-220,74,-113,-109,-251,201,-274,116,-150,201,-2,11,-15,-2,-34,158,-174,68,-52,279,-224,-55,-202,-35,246,-195,-224,11,-23,159,167,-47,170,-81,176,-243,150,-165,197,-153
128,-256,-71,-78,135,-168,17,139,-149,-305,136,174,74,-211,-129,-75,146,267,222,237,-15,-300,210,-308,-313,283,178,-232,-179,104,58,-205,222,92,256,27,230,-251,93,-152,186,-79,5,-140,166,146,-172,-113,-114,187,-241,106,240,-203,-73,-247,192,-33,155,-144,-49,47,-99,-219,43,-192,257,39,231,30,37,21,123,52,217,-18,209,-84,69,20,-93,155,14,44,-261,-276,-239,261,-10,-214,-193,30,63,50,109,223,-108,119,-233,146,126,267,-299,75,-204,270,265,-223,108,263,-63,92,91,-78,-27,188,-284,292,260,-241,182,32,-153,-274,235,287,-94,-123,-236,-40,-86,246,-224,213,-36,107,262,-180,215,219,-98,-294,-190,256,93,-11,219,241,277,-260,-211,-252,18,11,-151,-163,-200,-39,149,-122,-231,-150,-56,-190,-1,-17,84,-23,-275,18,288,119,-165,169,-152,-12,-276,9,104,-181,-9,105,-100,224,-104,244,117,-276,149,295,178,-74
