0.23232254,0.15732627,0.115864135,0.0077446983,0.07884266,0.024396088,-0.0015823462,0.25724247,-0.072275884,-0.004047062,-0.147849,-0.07473523,-0.14513935,0.2158971,0.18666488,-0.16311246,-0.06528536,0.10230392,-0.0106681,-0.040909614,-0.1642779,0.08701487,0.20322259,0.1646995,0.24175537,0.24578843,0.30876094,0.21965957,-0.19551077,0.018303297,0.16214764,0.28948373,-0.18126126,0.072169125,0.24643728,0.037570313,-0.045060307,0.0066033015,0.26266703,0.2575196,-0.15731707,-0.035153687,0.3354783,-0.1611213,0.06911722,-0.04584627,0.31705078,0.21018498,0.30329737,0.2900521,0.16376498,0.12864599,-0.015598759,0.06663706,0.10836897,0.013701285,0.11065231,0.08334076,0.18070048,0.020784002,0.27275229,0.18551281,-0.1413484,-0.057499763,0.20088929,0.14582261,-0.01743552,-0.13476653,0.16307943,0.17188206,0.11389999,0.34868002,0.19685785,0.18605956,0.08967365,0.19345872,-0.17105599,0.10019725,0.17211069,0.16824377,-0.004168798,0.085810535,-0.12765282,-0.03369816,0.28472492,-0.11532916,0.056621324,0.03497806,0.052385785,0.07736704,-0.089196056,0.14235671,0.10113494,0.20440453,-0.051523294,0.19242103,0.20454367,-0.006124631,0.2552108,0.3655143,-0.15200457,-0.18631259,-0.1314886,0.10861323,-0.0127337035,0.15348117,-0.20356233,0.08036224,0.26404628,0.320539,-0.21885653,0.12322267,0.03182316,0.1747233,0.21156666,0.0028860988,0.17017277,-0.09477329,0.0005449099,-0.13042991,-0.02024982,-0.005781136,0.20819686,0.18928589,0.10779409,-0.048584964,0.22103335,0.25858155
0.11570274,-0.065799884,-0.086948626,-0.124199964,0.2192207,0.04107092,-0.07213922,0.030861983,0.09135626,0.09038407,-0.21309221,-0.08979742,0.22967091,-0.03248223,0.03886222,-0.13013624,-0.13250491,0.076085515,-0.054653082,0.12800288,0.013171261,0.31900707,0.16105816,0.18215372,0.16102943,-0.12148201,0.282144,0.024874499,-0.21652488,-0.16966821,-0.122383155,0.100896955,0.037024315,-0.037410144,0.096709035,0.03789679,0.16232213,-0.19540204,-0.029387465,0.018209137,0.07995473,0.089635395,-0.073832884,-0.16269843,-0.13473131,0.03976944,-0.09122867,-0.07688285,-0.12091386,0.23016079,0.05691446,-0.026893673,0.050876904,0.23903534,0.1422649,0.039132707,-0.24125163,0.09440525,-0.14271297,-0.0448657,0.25838906,-0.07959258,0.073198594,0.04185168,0.02945292,0.084936075,-0.15734409,-0.15267792,-0.07500429,-0.038908053,0.03505217,0.040653616,0.18912719,0.047584035,0.04119593,0.028572032,-0.29586354,0.19173157,-0.08409385,-0.12150653,-0.08360573,-0.23253511,-0.07945857,0.20259063,-0.16866739,-0.008882685,-0.008532577,0.06199743,0.04098347,-0.128033,-0.12487472,0.031925246,-0.041393988,0.19729273,-0.060111217,-0.0973619,-0.043222204,0.043515686,0.03882677,0.32635596,-0.14386596,-0.08803827,0.02300059,0.0014493582,-0.019346587,0.06034942,0.07663456,0.12241105,0.31956255,-0.020902783,-0.3282679,-0.052163433,0.030617172,0.25433892,0.20444134,-0.047439393,0.018993992,-0.10860216,0.021756837,-0.3149551,-0.17483144,-0.041263286,0.31573653,-0.108386606,-0.113289855,-0.004946532,0.15373966,0.013306002
0.10254581,-0.21102852,-0.1662156,0.09206092,0.14475292,0.13310885,-0.08037297,-0.197999,0.12009967,-0.27220613,-0.057017256,0.09339551,-0.08495094,0.2063666,-0.17321123,0.028430894,0.052381307,-0.0016889907,0.14672168,-0.14795138,-0.071953,-0.27701434,-0.10778636,-0.21650527,-0.06888093,-0.12456572,-0.11778358,-0.20642489,0.22675064,0.11880803,0.14649291,-0.054963503,0.1305246,-0.029994072,-0.11775205,-0.12101318,0.041760948,-0.23249292,0.036148284,0.13255158,0.06302136,-0.012441809,-0.22115211,0.18591559,-0.14633745,-0.062746435,-0.12712203,-0.2505832,-0.25987107,-0.037559938,0.15991181,0.10864082,-0.19826879,0.03181129,-0.046021763,-0.24688058,0.07699005,-0.07454935,0.07233209,0.20900457,-0.15930484,0.008808356,0.0020946106,0.007884028,-0.11276858,0.25196522,0.0035446745,0.15236628,-0.1110752,-0.1565593,-0.23440556,-0.29143414,-0.34882507,0.092377864,0.12955828,-0.14124365,-0.10071825,-0.13347414,0.014831591,-0.11902936,-0.05318607,0.13578904,-0.005574351,-0.082846954,-0.059149675,-0.18587643,-0.08664427,-0.19557963,-0.02952561,0.2569654,-0.2099685,-0.2204421,-0.010929768,0.12339349,0.017875023,0.002622632,-0.027493365,0.238115,-0.22015136,-0.17442085,-0.1046129,0.22765209,-0.050050862,-0.21533293,0.003210956,0.14214621,0.15501145,0.07199686,0.11369453,0.029944705,0.09486917,0.2342437,0.02665748,-0.18947661,-0.07938041,-0.16555466,-0.10849348,-0.11708944,0.11986698,-0.14580053,-0.09268094,-0.2258999,0.0871326,-0.15710169,0.14926301,0.0884919,-0.15263185,0.10097481
0.124095276,0.002910591,0.23558667,-0.093994424,0.21502869,0.24094114,-0.10063931,0.047622614,-0.11184651,-0.18728136,0.27454546,0.04277835,-0.07037615,-0.1393872,0.18914899,-0.094264425,0.1223949,0.0058144536,0.053488106,0.03783339,0.1124999,-0.012636037,0.14363752,0.11674577,-0.0017056904,-0.015027611,0.21658884,0.13940568,0.040106628,0.10180168,0.27596784,-0.0020340928,0.0030956042,0.16511625,-0.074431874,0.21380605,0.08833708,-0.039971,-0.12103259,0.19513713,-0.1339645,0.10327371,0.24114974,0.20687674,0.23362863,0.027007736,0.1622848,0.13481696,0.14216825,-0.040991563,0.28171834,0.11106081,-0.036075767,0.052491017,0.17878594,0.05179061,0.06038968,0.17273259,-0.090308174,0.072137214,0.19092457,0.15581869,-0.084781095,-0.012513171,0.25580937,0.057045083,0.2543803,0.21983382,-0.059267994,0.003997386,0.10616372,-0.12415516,-0.08080755,0.25701198,-0.10857841,-0.061499726,0.3668184,0.21061327,0.1446791,0.08261778,0.38369396,0.3253143,-0.03325516,-0.14483936,0.25644436,0.07850299,0.19171545,0.05716667,0.046480313,-0.061195504,0.305835,0.028741073,0.011564307,0.017913213,-0.033775013,0.30206344,0.06606984,0.12659311,0.022055894,-0.069358386,0.0025506846,-0.1392111,-0.039412074,-0.06627743,0.20980631,0.003317375,0.15635362,0.19230375,0.189902,0.13439211,0.14478657,0.26005352,0.17864798,0.24357118,-0.14109264,-0.13390368,-0.08794059,0.06765969,-0.0849553,0.29013184,0.108959,0.061821148,-0.020965561,0.2285592,-0.06776748,0.27217114,0.15055422,-0.12494481
0.040226564,0.096560165,0.0046515167,-0.05768357,0.1520814,0.16555284,0.17295386,0.20542422,-0.057922784,-0.1829089,0.15691894,0.027010063,-0.074031316,-0.011181165,0.16858238,-0.03170464,0.094394565,-0.03736067,-0.031481236,-0.050602734,-0.15158503,0.32082364,0.12945753,0.22212309,0.32620856,0.1824039,0.049032062,0.13661729,-0.23542082,-0.19815424,0.02205354,0.29184297,-0.08574079,-0.054887585,0.26273552,-0.0696348,-0.046294287,0.22040725,0.08854278,0.15085019,-0.051627405,0.009096578,0.09329713,0.18494073,0.043107007,0.0038622566,-0.015155119,0.19353676,0.29848894,0.014028293,-0.051659297,-0.16903225,-0.15934664,-0.03279766,0.015039151,0.26895738,-0.15048581,0.08710887,0.1191576,-0.052037306,0.0769174,0.030191846,0.16813171,0.1307469,0.09033238,0.10978543,-0.068235084,-0.135205,-0.13019711,-0.008563219,0.042262536,0.2394701,-0.08201536,0.25963858,-0.17012066,-0.008810376,0.03841859,0.12155116,0.15747388,0.20906521,0.111703455,-0.09742169,0.006583755,-0.056468304,-0.10100612,0.121276386,-0.095220774,0.31508362,0.17140193,-0.08143134,0.17576517,0.30699044,0.11174756,0.2254213,0.0017631291,0.049415175,0.24591167,0.057587802,0.26805115,0.14404653,-0.19869886,0.1176403,-0.2883489,0.0051149637,-0.005080274,0.15048727,-0.0053787357,0.1539406,0.10128202,0.26027945,0.058976162,0.066199206,0.0391819,0.29769897,-0.042956837,0.16711521,0.048334427,0.23290971,-0.18587339,-0.19494809,-0.034657374,0.03111016,0.29248342,0.17206758,-0.028601805,-0.00016977554,0.1548294,-0.000345178
-0.23594815,0.13558938,-0.09522721,-0.18003406,0.20829032,-0.27011704,-0.15329282,-0.24141368,0.10633121,0.14013933,-0.30434304,0.1679893,0.11652326,0.023420319,0.15096723,-0.11216243,-0.29361036,-0.057437092,-0.053401228,-0.14718741,-0.205697,-0.040859424,0.13096777,0.119877,0.06795381,0.23627207,0.056273244,0.122476995,0.16183276,0.29046223,-0.12659577,-0.1665967,-0.07953456,-0.10534629,0.037639786,-0.2258026,-0.08034288,0.004475051,-0.15918548,-0.21323924,-0.014813461,0.11612192,0.09373815,-0.18374415,-0.04208988,0.25120288,-0.26967964,-0.10713809,-0.1457289,0.11522189,-0.36378,-0.041116934,0.19910778,0.10904459,0.20558314,0.1826714,-0.23079465,-0.11347493,-0.04408157,0.13655688,0.059437204,0.20743316,-0.025331391,-0.29332688,-0.16082123,-0.12319204,-0.10233237,0.19799674,0.15728833,-0.14449818,-0.21921517,-0.038552053,0.10300339,0.14296842,0.16380997,0.046178482,-0.26846087,-0.05610185,-0.27441034,0.110338315,-0.34267542,0.01887689,0.050586242,0.14241022,0.14074884,0.14790347,-0.09843073,0.0013947588,-0.188147,0.11174952,0.023882072,-0.047957834,-0.03500024,0.16984603,0.16812833,-0.021107145,-0.015898945,0.17891206,-0.18652229,0.028242497,0.08679061,0.118695445,0.039698422,0.19638102,-0.106245786,0.03359519,-0.3113935,0.043063547,0.08651866,0.12176867,-0.3451932,-0.33831736,0.11076893,-0.05189737,0.17853571,0.16095611,-0.07889704,-0.28885365,-0.16585627,-0.27014118,-0.17530961,-0.12925561,0.02455325,0.12760273,-0.017029392,-0.014638928,-0.10307418,0.1636647
-0.13946898,-0.15410715,0.11945153,0.04737643,-0.15442522,0.08877716,0.015360764,0.14175051,-0.08626136,-0.09625282,-0.1376372,-0.13031016,-0.10290992,-0.2153832,-0.14033285,0.14899857,0.13121203,-0.078308895,-0.0148837315,0.16077243,-0.1568668,-0.21371439,-0.119881585,0.0526769,-0.020854391,0.010585229,0.16532296,-0.101610325,0.03595774,0.04829704,-0.024627917,0.16048971,-0.12140633,0.06106686,-0.11866294,0.13898651,-0.095282495,0.144054,-0.060283907,-0.013811484,0.11827192,-0.18293507,-0.18304624,-0.14439957,0.12559456,-0.1347732,0.07842295,0.12217787,-0.025912913,-0.07247306,-0.12883106,0.060019214,-0.014905372,-0.077862516,0.054709915,-0.010278521,0.055982262,-0.029296208,-0.047004793,0.041213263,-0.21884951,-0.03003294,-0.13446672,-0.059905183,0.022693649,-0.13245669,0.06678012,0.14206223,-0.016633328,0.052014966,-0.012038346,0.122088425,0.16754854,-0.18426415,0.07489092,-0.0291515,-0.11243469,0.014095527,-0.16764122,-0.052233476,0.10413661,-0.1344816,0.123343736,0.04086028,-0.001538098,0.037639834,0.05362773,0.1324547,0.10277092,-0.06617162,-0.13106416,0.16051745,-0.14359042,0.086011074,-0.16158174,-0.19897208,-0.20784788,-0.014196676,0.16471845,0.102461986,-0.04701392,-0.016853485,0.057732444,0.16955015,-0.15515895,-0.10258222,0.09637918,0.08221616,0.06698589,-0.08115158,-0.15076633,-0.05072343,0.01732939,0.1344811,-0.1789739,0.037755173,0.1679981,-0.021477561,-0.17254943,-0.10334633,-0.19528578,0.065245226,-0.03908619,-0.12826799,-0.03535935,-0.2150558,0.15392584,-0.09802016
0.22889814,-0.027334146,-0.07576469,0.07133471,0.02577727,0.08234639,-0.03473987,0.23215616,-0.12321783,-0.0416459,0.19696331,-0.056193456,0.025452996,-0.1691441,0.29701784,-0.22316113,0.028697958,-0.053867318,-0.075632006,0.031996362,-0.106237434,0.2969802,0.06492477,-0.033386685,0.16721947,-0.06574517,0.20514837,0.22735147,-0.104949266,-0.11115254,-0.038064983,0.22845483,-0.14377347,0.048423473,0.012139576,-0.08198598,0.017087147,0.0018016166,0.05707729,0.11748711,0.098570354,0.04355935,0.25080347,-0.0027787646,0.04231434,0.19724096,0.23693469,-0.032832507,0.06832175,0.218728,0.217514,-0.07379676,-0.1532939,0.025089005,-0.16828325,0.01850167,0.21044667,0.043736346,-0.18059662,-0.003991935,0.07456032,-0.029270597,-0.15414928,0.14553954,0.15137804,-0.04888609,-0.06343872,0.041001048,0.112955004,0.09566617,0.08909964,-0.043014474,-0.055582628,0.03103425,0.17013575,0.0020053203,-0.020042468,0.28577495,0.24550818,-0.042296186,-0.1529279,0.18175398,-0.15596396,-0.15823597,0.18667628,0.13284151,-0.06433066,0.19612034,0.22337176,-0.03791725,0.07076227,0.18928736,0.20643923,0.2571258,0.13547471,0.09877196,0.28155026,0.07414105,0.10666838,0.14773342,0.12851013,0.055859722,-0.021904495,0.15541756,0.22646555,0.10952289,0.08119657,-0.007909024,0.27991334,0.074216485,-0.05691486,0.120908126,-0.030178478,0.14711425,-0.04683177,0.29761115,0.02974087,0.16766952,0.04638588,0.011573787,0.0029451097,0.28508207,0.31151775,0.043438267,0.08869687,-0.120004475,-0.010492453,-0.013446016
0.102177925,-0.0026717344,0.1526019,0.08899853,-0.06586291,-0.12245885,-0.25793937,0.016773948,0.032118715,0.019699838,0.041562866,0.15525055,-0.15938258,0.049404595,0.06850921,-0.2125863,-0.19719349,-0.30448323,0.032882694,-0.24973679,0.07262554,-0.025526846,0.1571395,0.0070816954,-0.08577576,-0.11521782,0.02517185,0.12460651,0.2912836,0.051075038,0.069181114,0.048132014,0.009127061,-0.29418266,-0.12037495,0.088368304,0.1204004,0.035503108,0.17231098,-0.14315332,-0.17711778,0.17285441,-0.1281207,-0.28631184,0.16099313,0.30818594,0.055718124,-0.19048084,0.06778684,-0.24021807,-0.019948281,-0.20209713,0.2048019,-0.0023456125,0.17960513,0.16829361,0.066611186,-0.013756822,-0.05232786,-0.05532274,-0.06168863,0.030143814,0.046784665,-0.00017475625,-0.093861036,0.18501332,0.088141516,0.02505348,0.16611104,-0.026760213,-0.08781428,-0.090847515,-0.07245752,-0.06821931,0.104673475,-0.21673357,0.04789727,-0.040105235,-0.027945852,0.20422184,-0.14293543,-0.20359428,0.10778502,-0.0981908,-0.09991292,-0.11041023,-0.1096351,0.09863145,-0.1725296,-0.22069123,-0.10012627,-0.22532584,-0.124136895,0.009823214,-0.18912481,-0.015411363,0.051348854,0.055330478,-0.064292796,-0.1630537,0.10815815,0.18733715,0.09036106,-0.06941325,-0.13283381,0.0054884334,-0.21136749,-0.009757758,0.16816504,-0.11490412,-0.02614666,-0.11471989,0.059030995,-0.054891285,0.062743984,-0.20887667,0.0851877,0.13315673,-0.083858654,0.11154117,-0.11951882,0.07187862,-0.06005436,0.035556987,-0.037361834,0.13012424,-0.14797477,-0.13425331
0.23115438,0.30294722,-0.20598929,-0.11878715,0.028994724,0.16177551,-0.16289194,0.31525916,-0.14670312,0.19511569,0.021137433,0.22132097,0.044170376,-0.12486092,0.12645634,-0.07575695,-0.13146129,-0.013065081,0.023036947,0.19593419,-0.2033245,-0.026786415,0.15618144,0.22408193,0.11600043,0.08646575,0.1220808,0.28951123,-0.15283921,-0.10573976,-0.02945414,0.009464232,0.16808935,-0.11533351,0.21036704,-0.14901958,0.028751284,0.27762944,0.18409008,0.06505319,0.110310145,-0.14907616,0.22285923,-0.121282235,-0.016901914,0.08575013,0.28410462,0.0951769,0.14875934,0.15875931,0.12654385,-0.14616372,0.1274812,0.06994118,0.0124638025,0.19653776,0.210156,0.0019628536,0.06643025,0.04925255,0.31791043,-0.06061184,-0.13109928,0.026497675,0.16285454,0.18580551,-0.003547185,0.037481382,0.14301273,0.13856874,0.15922807,0.05571619,0.3271803,0.2827014,-0.041435912,0.19907948,-0.056099396,0.023895867,-0.09363431,0.042295422,-0.12114645,0.12052171,-0.022900796,-0.034985892,0.12807205,-0.0054282052,0.0921221,0.35063168,0.2422252,-0.17171691,0.09517716,-0.016079629,0.00982534,0.18032657,0.034515064,0.27727348,0.16906746,-0.061899353,0.34966612,0.28634074,0.15104888,0.089006074,0.09946109,0.14956327,-0.014541744,0.2627577,-0.037522733,0.15987824,-0.014737359,0.16770764,-0.13191059,-0.112824075,0.08904354,0.3029028,0.14168261,0.20117623,0.15367399,0.074424446,0.016716756,0.06468131,-0.1514815,-0.029716052,0.117072865,0.041516423,-0.0065141786,-0.19504562,0.28455192,0.119771525
0.0033759268,-0.14723986,-0.032181896,0.05000534,0.048441496,-0.12588203,0.17104489,0.09198304,-0.17320603,0.09704429,0.08395187,0.03489231,-0.037061628,-0.15470523,0.054973762,4.9595084e-05,-0.082668446,-0.042937715,-0.102726124,-0.07901019,-0.081472516,0.060385033,-0.00013998461,0.024778174,-0.09294786,0.16971187,0.11613352,-0.05874579,0.11054514,-0.1049973,0.12950586,-0.16660835,0.15840746,-0.053591006,0.075904235,0.1117934,-0.11462788,-0.090184525,0.040250298,-0.0049847746,-0.14233598,0.055657152,-0.21031015,-0.10751632,-0.1294673,0.11546613,-0.10295543,-0.11874574,0.087389015,-0.0424651,0.13372037,0.12299075,0.07534772,0.08527486,-0.14220445,-0.08620523,-0.10994497,0.04609834,-0.12255801,0.047513086,-0.12766722,-0.20887825,-0.17977169,-0.12738788,-0.12335744,0.11655372,0.13337213,0.06325017,-0.030071419,0.07539255,-0.12393619,0.04709049,-0.15852374,0.1479537,-0.0813458,0.040016036,0.07540355,0.14315389,0.10237529,-0.016747648,-0.052832805,-0.09016605,0.024180397,0.1390135,0.04102966,0.059129965,0.055150904,-0.015526413,0.11457581,0.15272824,-0.17694582,0.037193216,-0.017119346,-0.16027535,-0.04547173,-0.020789007,-0.013094999,-0.09251312,-0.020180976,-0.07202776,-0.111371934,-0.07921608,-0.20949024,-0.03313793,-0.0022147242,-0.028807783,0.011551004,0.011204934,-0.017618624,0.1603638,0.14429063,-0.043637462,-0.12216569,0.11023447,0.1024394,-0.18199773,-0.20754944,0.1346129,0.10031541,-0.12324661,0.057814624,-0.18179862,0.02945923,-0.15929566,0.087849885,0.025367731,0.13847925,0.13753812
0.115474954,-0.03499687,-0.04222857,0.012107128,-0.21384192,0.12087198,-0.024696395,-0.07926269,0.14488736,0.065462574,0.02758892,-0.12187326,0.17106445,-0.07222747,0.17089996,0.07535017,-0.0066860016,-0.18975167,-0.22209688,0.013889023,0.07015781,-0.115193516,0.1153111,0.10311183,-0.010568651,0.116899304,0.04519741,-0.080045186,-0.009628847,-0.14624363,-0.21073635,-0.048100945,-0.16584136,-0.13406068,-0.08269905,-0.09633147,-0.19213282,-0.08635481,-0.17835501,-0.027740918,0.06738336,-0.06202267,0.06001655,0.048734356,-0.010155279,-0.13087653,0.066238225,-0.17262582,-0.12806855,0.107065715,-0.12901214,-0.031853065,0.010890059,0.13455494,-0.20409599,-0.18856111,0.014417925,0.08096085,0.039751537,-0.078310184,0.026534235,-0.08786622,-0.1494765,0.028575212,-0.08675185,0.0031087308,0.07291463,0.034771115,0.08317055,0.16192208,0.08004265,0.15476474,-0.19001491,0.15364617,0.02460099,0.16762035,-0.05453148,0.053639363,0.10573232,-0.040309813,-0.07525297,-0.18958974,-0.09526572,-0.20949297,-0.044794273,0.041588,-0.13765003,0.09508027,-0.12615247,-0.015639352,0.10533353,0.050356057,0.14597273,-0.12903659,-0.13055941,0.08570369,0.121118695,0.13850261,-0.0011855725,-0.18255307,0.11335702,0.06196978,0.052950058,0.1302427,0.12598856,0.09597151,0.11313141,-0.14776412,0.106752254,0.02003956,0.045988325,0.010600136,-0.20550957,-0.18540615,0.03504523,-0.001979387,-0.0065443367,0.13677628,-0.08997646,-0.13568674,-0.027831351,0.044848673,-8.917531e-05,0.05062827,0.06363526,-0.18667273,-0.0060134367,-0.1452922
-0.32184196,-0.120933376,-0.19168963,-0.23674087,0.20960326,-0.28885165,0.05369522,-0.110135354,0.18912861,-0.0032261184,-0.35460994,-0.20740297,0.11324077,0.23777387,-0.042278845,-0.026202146,-0.23754147,-0.052832473,0.040834624,0.05210132,-0.25856993,0.091573894,0.0071569695,-0.29007626,-0.36135426,0.14260857,-0.095396325,-0.23149902,-0.30377316,-0.33410567,-0.08429824,-0.12957034,0.28253067,-0.11414116,-0.0497017,-0.25529587,0.14592214,0.066412464,-0.27711192,-0.50123554,0.1301821,0.0682477,-0.22253335,0.03340839,-0.3205599,0.026881037,-0.14094976,-0.13779482,-0.23493034,-0.20547,-0.24200034,0.21510133,-0.08801,-0.12562934,0.13543166,-0.028062256,-0.3063929,0.07875431,0.10809759,0.21582623,-0.14917697,0.019131906,0.25681385,-0.107032314,-0.16545926,-0.20448309,-0.2627438,-0.021789093,-0.099889584,0.039721727,-0.09440454,-0.116076134,0.000109737164,0.07537823,0.3285505,-0.18298581,-0.3581289,-0.09057734,0.054826017,0.0475706,-0.1190363,-0.20632656,-0.08458742,0.19675009,-0.31067348,0.19589648,-0.20867915,-0.24845037,-0.18625237,-0.3883083,-0.04359573,-0.18867685,-0.28782058,0.16879214,0.11401431,-0.10648178,0.26223883,0.24538715,-0.31144908,-0.09821666,-0.2153232,0.049177602,-0.13427818,-0.15185459,-0.23849818,-0.23337503,-0.20791425,-0.048369832,-0.13123144,-0.23884717,-0.31481102,-0.32112956,-0.04443403,-0.084179565,-0.29670802,0.12716354,0.24337617,-0.15136467,-0.03323747,-0.116782755,-0.15099837,-0.11914692,-0.12396409,0.047779184,-0.1455661,-0.39751914,-0.03218277,0.10094093
-0.05221425,0.059092037,-0.0008586056,-0.07899101,0.02027189,0.18607363,0.012629072,0.089663744,0.08121703,-0.10408917,0.2571145,-0.26037717,0.038945865,-0.0073064137,0.025136026,-0.16341355,0.337718,-0.08367129,-0.12979771,-0.11121254,-0.047080513,0.13076292,-0.18628792,0.16191113,0.093908854,0.08136989,0.24579065,0.113790385,0.16495997,-0.21501559,0.16873513,-0.035470903,0.07105971,0.099483475,0.020422257,0.08691941,0.13695906,0.0045942618,-0.13759299,0.22296469,-0.05821861,-0.15656073,-0.09659651,0.0721197,-0.173369,-0.21958601,0.18421091,-0.036225617,0.058985878,-0.014499641,0.19751069,-0.08578967,-0.10626634,-0.07412883,0.17996383,0.0031770524,-0.032377824,0.091608815,-0.14289844,0.028971672,0.11986172,-0.05984527,-0.10109319,0.38520834,0.20793824,-0.141664,-0.02743787,-0.10478923,-0.06358307,0.022400588,0.008897482,-0.058488116,-0.17750865,0.1583274,-0.15698163,-0.23026837,0.28324106,-0.089235604,0.055174597,0.12515816,0.3688921,0.2807949,0.16755609,0.06118129,0.12177134,0.019050064,0.07071936,-0.056292564,0.13429433,0.21313171,0.1414141,0.22093956,0.18547781,-0.1279306,-0.17717996,-0.06852028,0.076862544,0.070877105,-0.031243583,0.13650474,0.28503904,0.05932946,-0.07815944,-0.077398054,0.23421663,0.2000044,0.16278163,0.30899534,0.26942876,-0.08743335,0.46561658,0.2564747,-0.06481077,-0.09554991,-0.18684271,-0.103775196,0.090695776,0.16261828,0.07771638,0.26154625,-0.1769537,0.044752102,-0.15835576,-0.17896488,-0.12435554,0.2958802,-0.036200613,-0.08949405
-0.28316703,0.045300867,0.051985357,0.018044574,0.046909336,0.111466184,-0.019627376,0.030305648,-0.07567062,0.012307223,-0.06576344,-0.11871339,0.021311972,0.13312942,0.10575831,-0.06281745,0.13464731,0.11304324,0.08334182,0.09124821,0.077202186,-0.21568486,-0.22312751,-0.16030045,-0.23239742,-0.20599516,-0.027861807,-0.041706596,0.1648771,-0.12723532,-0.14858226,-0.15553845,0.23230572,-0.042909775,-0.1313428,-0.20860165,0.086143,-0.17805289,0.09334424,-0.08061983,-0.060681522,0.26183584,0.059586342,0.2024548,-0.20874573,-0.19941139,0.14372034,-0.15088207,-0.3143485,0.09400187,-0.15367481,-0.10368079,0.024201324,0.030973295,0.17350344,-0.026896521,-0.16559985,0.031591862,0.22608607,0.04030303,-0.13922687,0.16210876,-0.01849785,-0.18463658,-0.11351233,-0.010853096,0.037987605,-0.009523284,0.04309531,-0.09809381,0.047230687,-0.05025001,-0.1420949,-0.2335128,0.010934261,-0.23740765,0.036487628,-0.36014876,0.09120632,0.16755907,-0.06874536,-0.103384346,0.20421487,-0.0991311,-0.047862664,0.14601502,-0.12338212,-0.09919736,-0.11462745,0.1931805,0.0075660744,-0.10229827,0.0900237,0.033964444,0.10850096,-0.23461622,-0.090317264,-0.046650015,0.115371875,0.075427234,0.19640593,0.25008678,0.20259054,0.049773563,0.21820849,0.15192257,-0.045327324,0.19898565,0.011229397,-0.22989984,0.25205946,0.013669655,-0.13127886,-0.26120993,0.060262036,-0.037661772,0.16269514,-0.29832327,0.19448379,-0.092733726,0.043599818,-0.27706987,-0.040517338,-0.16261306,0.14838904,0.057758156,-0.26577747,-0.24566823
-0.30080003,-0.21520923,0.28505582,-0.009305085,-0.031374034,0.21514136,0.011661272,0.016509831,0.081737354,-0.040875383,0.1120341,-0.004005939,-0.14248396,-0.010812404,-0.20576024,0.26913008,0.36468586,0.14424801,0.17190951,-0.042387597,0.04249562,0.08121575,-0.2959375,0.1326367,-0.11449824,0.10655341,-0.110133514,-0.08402887,0.18605086,-0.13367246,0.2243958,0.039403573,0.19360048,-0.018619262,-0.23281486,0.03438877,0.008272451,-0.27452075,-0.20007119,0.051777225,0.17485766,0.060750585,-0.055428185,0.013519529,0.012181199,0.031185364,-0.06409055,0.0014361888,-0.23299764,-0.19783628,-0.09461091,-0.050935745,0.0499586,-0.06907525,0.19402647,-0.06933335,0.13508785,-0.114066355,0.029933298,-0.12476116,-0.12617582,0.09157659,-0.08994624,0.16944283,-0.2172441,-0.035435252,0.08810786,0.13460699,0.17473088,-0.31364074,-0.090427965,-0.026213353,0.058573507,-0.05482719,-0.18242235,-0.13066289,0.14305218,-0.18514358,0.041581213,0.16177256,0.086328685,-0.08143186,-0.1455425,0.10386331,0.072669074,0.03663944,0.284355,0.021636829,-0.010408862,0.07208359,-0.04379406,-0.117913015,-0.06902035,-0.09894992,0.12456192,0.026932804,0.06482677,-0.048533004,-0.2828903,-0.12024789,0.27548212,0.033203237,-0.022323385,-0.07622553,0.25688162,0.0011834336,0.25862807,-0.01574055,0.13222457,-0.018240087,0.122107916,0.26852405,0.03939089,-0.16524453,-0.06063611,0.12493074,0.046884947,0.17820878,-0.048582602,0.27959317,-0.06589603,-0.24085481,0.028905038,-0.2713899,-0.16643295,0.0064797048,-0.2243838,-0.101951726
-0.079192065,-0.18213187,0.19532709,0.11988239,-0.06416782,-0.18307304,-0.07695396,0.021212498,-0.11460477,-0.12580846,0.019809203,0.17804459,-0.13589549,0.12159319,-0.13439152,-0.05631719,-0.09802216,0.02980475,0.034945425,-0.07496425,-0.070801534,-0.18918851,-0.20368174,-0.20985343,-0.016917314,0.19370337,0.16384529,-0.14683102,0.04069319,0.14416113,0.04877403,-0.085712515,0.11595593,-0.035949722,0.14944936,-0.07323668,-0.16250198,-0.16174768,0.09009082,-0.101806454,-0.083898276,0.019174432,0.053909156,-0.031337842,-0.08528976,0.080379546,0.092905484,0.009272384,-0.18614589,-0.04570556,-0.19707376,0.014830906,0.2342226,0.1545424,-0.10900796,0.029276958,0.099854246,-0.18864302,-0.10026158,-0.18009113,-0.044224393,0.040976983,-0.20216541,0.12753452,0.014988972,0.12693577,0.043472014,-0.083634675,0.09805581,-0.15182824,-0.12604135,-0.096221305,-0.06174174,-0.13479304,0.0752081,0.09436722,-0.016270604,0.094294846,0.027025485,0.031072482,0.107243836,0.012964781,0.020636117,-0.028176779,-0.09546055,0.022072775,-0.017345583,0.051434707,0.14686501,0.011395395,-0.16358246,0.11596842,-0.082887076,-0.10703308,-0.1395809,-0.090636246,0.164131,-0.19915396,0.07320315,-0.12487658,-0.053284664,0.15671219,-0.042389628,0.18423775,-0.21099132,0.03114515,0.015203844,0.2141833,-0.058775228,0.031202007,-0.09486783,-0.16181554,-0.026884561,-0.18303667,0.020967899,-0.15761119,-0.13137498,0.12872897,-0.20460317,0.0060890736,-0.148572,-0.10509861,0.17100821,-0.18908888,0.1092689,0.10933799,-0.18662415,0.23637733
0.14210668,0.167797,-0.21498193,-0.18115358,0.08705939,-0.1655778,-0.13576968,0.16484243,-0.07813309,-0.13291384,-0.25224972,0.001318764,0.17676555,0.14791712,0.075841345,0.054319832,-0.12011962,-0.18029007,0.02973227,-0.16038506,-0.24833632,0.011537805,0.19371718,-0.11449427,0.101359725,0.05904628,0.16660464,0.15274628,-0.050075904,0.08882684,-0.04104775,0.20963515,0.19752946,0.0052837213,0.34185234,0.1301468,-0.00541647,0.24320866,0.06890252,-0.040559124,0.047785535,0.07723865,-0.06211777,-0.0050541614,0.072002456,0.07609532,-0.12947512,0.254889,0.12516683,0.2814872,-0.21886902,-0.04603423,0.084953345,0.27103448,0.1363755,0.19599135,0.15750107,-0.0738121,0.021013401,-0.064005904,-0.03227454,0.015179135,-0.016450556,0.058931697,0.23777993,0.17280675,-0.2317269,-0.1939446,0.022967849,0.17114274,0.18832488,0.22577308,0.19544584,0.28735805,-0.13625988,0.29528955,-0.11164828,0.23209345,0.007275176,0.116053425,-0.11223211,-0.17205995,0.11498441,-0.17720325,0.22754303,0.09970161,-0.04013794,0.22974914,0.24201445,0.106840536,0.07472981,0.16826332,0.1134376,0.21785896,-0.15684289,0.026745873,0.08115346,0.23517962,0.19392124,0.089476235,-0.20564578,0.058049794,-0.1843952,0.08097356,-0.18558817,0.019433578,0.10579375,0.033540178,0.2705968,0.1256076,-0.09845142,-0.2251331,-0.009880925,-0.034258477,0.08054023,0.048999976,-0.09895294,-0.15952998,-0.08819195,0.021764124,-0.009657804,0.20301104,0.18851845,0.26206326,-0.02994373,-0.1067747,0.17226714,0.10967226
0.10092698,0.058677506,-0.15447734,0.1473588,0.0002588554,0.11184958,0.015922451,-0.09511794,0.0020579156,0.05771722,-0.018408243,-0.10118637,-0.14278996,-0.03325104,0.095044024,0.0764719,-0.008955531,0.018836074,0.034023967,0.15212844,-0.24748963,0.09276321,0.1163831,0.1261594,-0.073152155,0.05926334,-0.012196285,0.08731752,-0.007402658,0.004206192,0.08292729,0.25713888,0.17884432,0.036165237,0.11836219,-0.15364477,-0.058092806,0.103243396,0.07162435,0.10311923,0.13909589,-0.10582101,0.17358877,0.15294656,0.08204383,-0.07869496,0.27086708,0.032368187,0.16881834,0.09394367,0.12721358,0.08087,-0.17797032,0.05871249,0.075462356,0.22254828,0.056092843,0.2143155,-0.07298659,0.08711375,0.24914493,-0.10276717,0.14334953,-0.038097024,-0.084954806,-0.06908462,-0.061064567,-0.07298897,0.116022125,0.00082240556,0.17846438,0.2881706,0.18930672,0.11900124,0.061114278,0.29726613,0.07304277,0.07235001,-0.09305993,0.010735391,-0.003074099,0.15155868,0.029216722,0.12463667,0.13075079,0.011758266,-0.13756643,-0.051083375,0.21264456,-0.069266945,0.26452398,0.19707648,0.21489729,0.2839363,-0.022126773,0.09706014,-0.054570794,-0.019406457,0.27581605,-0.010749237,0.23337978,-0.18940423,0.09721693,0.24586946,0.23131438,-0.071175344,0.010114979,-0.05111963,-0.021475641,0.16398405,-0.14115348,-0.012865112,0.14232378,0.21476276,-0.040526018,0.19488345,-0.012617792,-0.06366716,0.17372197,0.21292205,-0.11044934,0.1529053,0.20192067,0.26337743,-0.072719745,0.13559581,0.30655754,-0.096376814
-0.04749901,0.17211092,0.06463967,0.14790438,0.16202235,-0.16157301,0.18147926,-0.021665901,0.07877476,0.027037326,0.2218706,0.17967314,-0.24022995,0.043957822,-0.0531019,0.2127476,0.15294874,-0.13718987,0.1379101,0.107800536,0.14381617,-0.059483156,-0.16927022,0.0574775,0.19013831,0.051997244,0.16783187,0.19856994,-0.21693851,-0.07379337,0.16795744,-0.12877087,-0.05146914,-0.056788128,0.006362225,-0.065214634,0.072110154,0.09805576,0.020159358,0.120452955,-0.0016814542,0.08343628,0.03554689,-0.16409011,0.18658221,0.0029423444,0.038929887,-0.1192638,-0.047965273,0.23324521,-0.10485073,0.013786565,-0.1488118,-0.022610627,-0.025616368,-0.07309319,-0.062417787,-0.031307396,-0.23991665,-0.18899763,0.12525211,0.030361352,0.11828727,0.13873191,-0.054952797,-0.2552766,-0.059636943,0.036065325,-0.18999933,0.16428207,0.11985797,0.1432971,0.2287609,0.022210734,0.019305777,0.20430295,0.041350175,-0.02713012,0.13376668,-0.18637459,0.026651144,0.029212285,-0.19681922,-0.20308514,0.09053876,-0.028121479,0.0021693888,0.13325594,-0.16099887,-0.070745334,0.17360249,-0.014443673,0.08221444,0.12944771,-0.24519065,-0.01795851,0.112578414,-0.07773759,0.13726158,-0.0064587477,0.09710647,-0.18264644,0.29152727,-0.12962174,-0.03643158,-0.1662166,0.0730262,0.06694993,-0.068379976,0.18566649,-0.03215314,-0.03955732,0.089642264,-0.08522348,-0.07602857,-0.022789067,-0.00063590397,-0.11019511,-0.10101433,0.13454592,0.14923538,-0.2854977,0.10869807,-0.13537747,0.19260834,-0.10357944,0.0052617937,-0.070885465
-0.093700565,-0.16651724,0.15090145,0.0125515815,0.04544961,-0.20004988,0.12640366,0.008809868,0.10381286,0.11762091,0.034442525,0.071406454,0.051524673,-0.22906174,0.05752433,-0.11123517,-0.12963837,-0.021160595,-0.17191146,-0.03551541,-0.14141692,0.09614949,-0.19653656,0.15677366,-0.21823572,-0.048521727,0.049332242,-0.16268684,-0.07749124,0.0764413,-0.10466888,0.08425769,0.12352615,-0.12650931,-0.15228064,0.1663754,0.032664724,0.1287025,0.22607377,-0.14874285,-0.086315356,-0.0753483,0.04586764,0.002598568,0.15331393,0.15768027,-0.1144457,-0.07173201,0.0046020537,-0.13570262,-0.15481965,0.006172429,0.03421173,0.07435939,-0.012954295,0.030865176,-0.026989188,-0.005443248,-0.16966827,-0.18924785,0.20312293,0.059839915,-0.14279532,-0.16071674,-0.022472065,-0.052498356,0.0721114,0.14608246,-0.12495531,-0.06716166,-0.13220811,0.08925897,0.0036634803,-0.21029782,0.2318575,0.10251582,-0.08306595,0.1354159,-0.0018395107,0.21777256,-0.0529233,0.0695403,-0.22430128,0.18498676,-0.17683126,0.18777801,-0.14117266,-0.19595134,0.10559827,0.092951536,-0.09584847,0.14244781,-0.07818055,-0.2242136,-0.18293329,0.020771153,-0.12270552,-0.036361746,-0.11505419,0.050260983,0.14719735,-0.11012596,0.18857823,0.039733138,-0.14412591,-0.039921332,-0.13146578,-0.18043537,-0.029004,-0.112163514,-0.18376385,0.101709925,0.23686242,-0.038122006,0.16584931,-0.18383712,-0.20778798,0.014432997,-0.17377129,0.21632814,-0.1877893,0.07244377,-0.15492694,0.156787,-0.04476523,0.07070647,-0.03753672,0.11837469
0.1747294,0.08181613,-0.08758597,0.065756194,-0.088999376,-0.1165439,0.15960208,-0.0990471,0.17800589,0.12462986,0.32301345,-0.16041577,0.08157013,-0.15782702,0.080825515,0.05421348,-0.13426834,-0.058087718,0.096897565,0.019956628,0.0077662836,0.13585892,-0.06684498,0.23187031,0.247479,-0.05813895,0.08721822,-0.011651317,-0.08315787,-0.15099426,0.1894419,0.020831874,0.1677197,-0.10928993,0.049139485,-0.102977864,0.16576049,0.06641918,-0.10412274,-0.019020196,0.033017665,-0.0049132016,-0.09589426,-0.08117875,-0.12749933,-0.024893,0.18841901,0.010901736,0.02559777,0.21480273,0.067173205,-0.041698962,0.15782048,-0.05145352,-0.07582649,0.26601592,0.10345771,0.024700042,0.0029125193,0.1550411,0.08303574,-0.24724479,0.18910462,0.2549934,-0.088355504,0.03904977,0.07175121,0.13540843,0.14056088,0.045948297,0.27380854,0.047302514,0.04952773,0.09175221,0.050694,0.09047346,0.28394076,0.114074916,0.25724098,-0.05016691,0.08629628,-0.014684959,-0.12442675,-0.047279485,0.07536421,0.04622839,0.06385492,-0.008285248,-0.08230479,0.16925795,0.09569041,0.19985731,0.008852405,0.13753471,-0.102692276,0.04772038,-0.1656123,0.15435083,0.19618462,-0.040722746,0.0006626645,0.15019622,-0.057194363,0.0019543339,-0.056787044,0.0635772,0.13478206,0.12598321,0.2385234,0.21216823,0.050300732,-0.0335855,-0.08876826,0.013303056,0.1655258,0.24214214,0.069917694,-0.11144845,0.079277165,0.060181025,0.0010366793,0.037234437,0.21775194,0.27072096,0.11708563,0.046232592,0.1186429,0.11018116
0.13681114,0.04658574,-0.06418965,0.20515278,0.1698152,0.1839138,-0.08476717,0.19154115,-0.06405514,-0.21931557,0.33291718,0.0017451603,0.066824146,0.18633233,-0.10363016,0.04193519,0.292757,0.1379074,-0.11914471,-0.12695667,0.032751065,-0.13234974,0.095277295,0.051164474,-0.08779026,0.011429709,0.07463524,-0.004791908,-0.07027187,-0.024625262,0.12352957,0.21009894,-0.0405392,-0.20340043,-0.21219833,0.19264874,0.1324756,-0.11296313,-0.030291246,0.2347155,0.15432352,-0.13770038,0.15673395,0.06241144,-0.14059602,-0.013330011,0.042476207,0.1583115,0.26097253,0.04181458,0.35778585,0.02198899,-0.06753737,0.1362016,0.08485245,0.10176512,0.11173491,-0.18767807,-0.12204054,0.04533512,0.16963351,-0.10465333,-0.0462824,0.049017027,0.17262267,-0.1894603,0.16199046,0.1545789,0.012216921,-0.113644816,-0.10904654,-0.12286085,-0.15007205,0.14559826,-0.15899973,0.14077072,0.007074408,-0.073471196,0.06130522,0.13103113,0.12207319,0.19503559,-0.04396793,-0.13433073,0.14507358,0.21489552,0.12827425,0.121062234,-0.10365734,0.11199439,0.11384638,0.19127737,0.24157678,-0.11607382,0.080517374,-0.04576772,-0.13150881,0.03230339,0.12713437,0.19698921,0.0662114,-0.06467971,-0.032256417,0.12053561,0.08549538,-0.084578216,0.14153665,0.10525073,0.23561008,0.09748274,0.36852786,0.20269549,-0.045916177,0.15291795,-0.12459014,-0.2148527,0.014132671,0.13472976,0.1546129,-0.036411602,0.13902979,0.04746928,0.07727672,0.23933056,0.14631167,0.24708872,0.078771,-0.049092196
0.23763391,0.19305815,0.14685251,0.12228537,0.2067008,0.25795007,0.09377085,0.16736683,0.021663688,-0.18584079,0.27996975,0.21692356,-0.12968737,0.08900897,0.22938032,-0.12745151,-0.08530689,0.14783776,-0.08346039,-0.1514834,-0.16143946,0.2645841,0.07278756,0.16705287,0.22043504,-0.09112676,0.17856568,0.20877612,-0.20500037,-0.100425355,0.23948587,0.046142273,0.10012038,-0.157884,0.09607134,-0.00936636,-0.15721886,0.14903113,0.11097983,0.11092709,-0.08689223,-0.056364823,0.076539025,0.14947477,0.13520353,0.006770023,0.22954404,0.07529857,0.04236005,0.19330472,0.12375853,0.11895745,-0.06033002,-0.11648392,0.19672985,0.015502862,0.18512288,0.1830794,0.21246494,0.0071283747,-0.023851573,0.19374081,-0.09856925,-0.017115967,0.23260078,-0.00043366826,0.13657627,0.16664319,-0.10896703,0.11552809,0.10750053,0.10672995,0.21569051,0.0607609,-0.14000337,0.05106145,0.089471996,0.13829881,0.089233935,-0.054511327,0.13492759,0.19782709,-0.13059127,-0.09812817,0.20969452,0.13111424,-0.1316736,-0.009374003,0.058236774,0.13307182,0.016099477,0.3123142,0.18072371,0.0342413,-0.15065123,0.22938296,0.2367874,0.16535275,0.0886409,0.060483664,0.22325699,-0.12545137,-0.1812515,0.23263314,0.26939368,-0.072828375,0.17079774,0.016237792,-0.004984354,0.2150768,0.26187375,0.26613066,0.04175633,0.20072328,0.103851475,0.07298315,-0.08869415,0.03256097,0.06570291,0.02288299,-0.10873094,0.13454886,0.05588476,0.29243562,-0.03178976,0.193579,0.19085725,-0.12734655
0.08633733,0.20306116,0.054795355,0.2532105,-0.12550923,-0.0038411794,0.034818072,0.0139475,0.041417867,0.27591142,0.18143384,0.2723147,0.1813061,0.20096113,0.3023719,0.27648154,0.29695234,-0.018773576,-0.16076136,0.19833013,-0.024186486,0.013257783,0.05416119,0.09910758,0.1695458,0.056253817,-0.04343561,0.13416621,-0.14041851,0.097982876,0.1153654,0.0745987,-0.014542861,-0.13595288,0.28808692,0.19351962,-0.14300963,0.09597932,-0.047315624,0.123736836,-0.00908119,-0.15372412,0.38970885,0.18082422,0.25215703,0.014069777,0.09303992,0.07363582,0.038907032,0.38979042,-0.083625846,0.0035257924,0.097577825,-0.072387725,-0.048281457,-0.013168739,0.3446997,-0.02134436,0.04453895,-0.014952369,0.24846284,0.07927691,0.11267687,0.17168875,0.2568201,-0.058441743,0.12941812,0.2283479,0.0053892927,-0.058375876,0.19944653,0.35326216,0.171432,0.2384101,0.24946222,0.2922405,0.24424608,-0.002641964,0.050146755,0.19378714,0.14922372,0.30179232,0.13191882,-0.12290467,0.30031708,-0.09212213,0.06979906,0.10536962,0.19095084,0.10842852,0.08909823,0.1453906,0.14032944,0.1328335,-0.013143366,0.335455,0.2814976,0.0999374,0.14731044,0.1710532,0.2964113,-0.16721284,-0.005832673,0.33751363,0.23037666,0.05996221,0.16751789,-0.13178602,-0.0352061,0.1860974,-0.106715284,-0.10549784,-0.13185994,0.16095772,0.1142154,0.19621892,-0.053289387,0.19466507,0.11055762,-0.051123872,0.27446675,0.24751697,0.063767344,0.058457468,0.010281327,0.040936008,0.3566708,-0.14736514
-0.039509386,0.09747972,-0.21226364,-0.11870528,-0.22675316,-0.13136663,-0.077465884,-0.068332106,-0.21042751,0.22895737,0.15958588,0.17104603,-0.27662092,0.14183836,-0.049104605,0.2586102,-0.043667972,-0.2827818,-0.12258931,0.12440574,0.13119796,0.1639411,-0.080237694,0.08118281,0.15778878,0.07870337,-0.058083754,0.27523607,0.06354307,-0.062249493,0.045358665,0.08547529,-0.017882772,-0.005147249,-0.107253246,0.065463975,-0.11807139,-0.011232704,-0.066819035,-0.013073076,-0.023597572,0.08099749,-0.22133254,-0.3069719,-0.17254916,0.037341014,0.0048692888,0.011956059,-0.07893615,0.20090508,-0.10312471,-0.11203952,0.24157567,-0.054065928,0.037335485,-0.08947444,0.100813314,-0.13773154,-0.11235351,-0.2564887,-0.10198301,-0.07797843,-0.108241364,-0.07367729,-0.04873664,0.046206057,-0.24750032,-0.018598402,0.045942448,-0.124403775,0.05940363,0.058610715,-0.08660052,0.058871895,0.13389993,-0.04359654,0.16119443,-0.008813917,-0.1185827,-0.15211236,-0.11644024,0.033191375,-0.22316124,-0.3046865,0.16300601,-0.16517083,0.1401174,0.098018825,0.055681814,-0.034172367,0.07197415,0.23649527,-0.058411606,-0.005885965,-0.124046,0.1476618,-0.31404677,-0.13231769,0.11736418,0.041812573,0.10197247,-0.0012336345,0.26592624,0.06285447,0.23127851,-0.16812102,-0.13425858,-0.15180436,-0.08250716,-0.09760703,-0.003351932,-1.4883146e-05,-0.0071752523,-0.109585844,-0.13003105,0.061455008,-0.24255063,-0.26288867,-0.02740921,-0.1266511,0.26918802,-0.17864099,-0.03442365,-0.1292313,0.15874663,0.03484793,-0.05443646,0.25266123
0.09137755,0.31179586,0.006361992,-0.13756067,0.019477049,0.028678874,-0.0458506,-0.030890396,0.14730833,0.01837644,0.12862985,-0.08007928,0.038696848,0.077151515,0.27897796,-0.036166992,-0.07015098,0.09860955,-0.15095215,-0.011649431,-0.09909497,0.106239446,0.14307669,0.066138096,0.28696465,-0.028347151,0.3265505,0.26606524,-0.15543072,0.17693006,0.18130383,0.17493844,-0.05426834,-0.17105103,0.04954081,-0.040016886,0.20043628,0.200693,0.14511278,0.13728718,0.018753402,0.0028911685,0.24077475,0.08320501,0.18294416,0.1253293,0.2926378,0.06955968,0.24714732,0.13616833,0.111697145,0.028359827,-0.030121576,-0.104254,-0.16211112,0.19117242,0.07622933,0.10112232,-0.07486283,-0.18834743,0.1293373,0.09379132,-0.022382485,-0.15466416,0.037494503,-0.04243696,-0.045326706,-0.006417109,0.017344167,0.048779845,0.09666883,0.3041881,0.08599167,-0.09262425,-0.022703202,0.30786315,0.011908376,0.19201048,0.20002846,0.21403423,-0.14796917,0.120373875,-0.062464572,0.1514959,0.18317327,-0.08532834,-0.23184828,0.20688196,-0.015578006,0.095789336,0.26296502,0.28060928,0.20835717,-0.020566357,-0.013680656,0.29919416,0.035900667,-0.062126044,0.2408652,0.39322644,0.04603406,-0.09717927,0.04951861,0.25228217,-0.24597706,0.23877673,-0.14933218,-0.048988633,0.03585784,0.14990784,0.019498598,0.120699376,0.04652946,0.039932273,0.19463196,0.2617716,-0.16505992,-0.03789723,-0.088477544,-0.11349333,0.24934618,0.1998839,0.29932073,0.20922239,-0.113514505,-0.20586321,0.0778025,0.060333744
0.041702315,-0.16032177,-0.20107643,0.15640134,0.26858103,-0.0068750433,0.16453327,-0.31208506,0.091122806,-0.030267643,-0.46437582,0.1276073,0.10132839,0.124559656,0.047185574,-0.018499153,-0.24829559,0.14574952,0.14905918,-0.14988339,-0.08294721,0.2990788,0.2469821,-0.20536631,-0.027025057,0.05315595,0.168839,-0.11792646,-0.04738458,0.0029857769,-0.35528445,-0.29814807,0.10834078,0.016652307,0.15902197,-0.25881895,0.038783077,0.23567386,0.09735541,-0.29328763,-0.03566136,-0.060939323,-0.043106005,-0.12234667,-0.0684392,-0.0624074,-0.05183705,-0.0772774,0.21877144,0.045496095,0.02610658,0.20674178,-0.12161046,0.10996767,-0.0161109,0.13440393,-0.02819748,-0.2577772,0.053114273,-0.048166543,0.012110448,0.17849551,0.081254,-0.39448205,-0.22149684,0.07019027,0.20263332,0.04321285,0.0071190936,0.14894038,-0.09735093,-0.032982763,-0.09665553,0.022461718,0.24681623,0.12227353,-0.114968255,0.13318004,-0.28775102,0.26402846,-0.074524514,-0.31411022,0.012691503,0.09255651,0.0282015,0.16089608,0.07710153,-0.13503027,-0.23940864,-0.14898503,-0.002850419,-0.17506017,-0.21527131,0.060013454,-0.15602598,-0.24621677,0.23017456,0.18370767,0.17311192,-0.130615,-0.29596323,-0.07789074,0.18346824,0.005294395,-0.37378153,0.09246367,-0.12225235,0.012944351,0.072355285,0.15506351,-0.37862083,-0.08312161,0.064039834,0.006126669,-0.052093238,-0.12510003,0.019739347,0.077164456,0.02903497,-0.2625549,0.102128305,0.28643253,0.13591474,-0.012845121,-0.14615838,-0.2638024,0.17510332,0.23921645
0.13841844,0.07629113,0.23575793,0.2070341,0.16947123,-0.09576189,0.05607912,0.19541943,0.19181201,0.104077175,0.049974304,0.12506595,-0.16524471,-0.13983274,0.22377416,-0.016968803,-0.0115414765,-0.14271593,-0.17625958,0.18680696,0.016557086,0.042079024,0.25683787,0.13975064,0.018440414,0.28436708,0.18676417,0.2130588,0.073355675,0.27834132,0.09561576,-0.021465866,-0.09196144,0.08180216,0.17987545,0.21412346,0.03514662,0.2218509,0.12487738,-0.09909144,0.033483017,-0.030516995,-0.0031901808,-0.16368729,-0.09134362,0.29097044,-0.07775577,0.17386977,0.2261803,0.27454972,-0.1414803,-0.031024737,-0.0026003313,0.16530663,0.15990897,0.17439824,-0.15717733,-0.06263856,0.0709463,-0.17240961,0.22876698,0.08561905,-0.027995754,0.020012343,-0.08752861,0.12000626,0.060019206,0.116173565,0.08207195,0.19424188,0.20793387,0.16397841,0.24703272,0.15174477,0.027143752,0.1746357,-0.16642827,-0.10742433,-0.098266095,0.00079020613,-0.14639267,-0.16175832,-0.03918872,0.13621448,0.09291602,0.0048421742,0.15068467,0.24377945,0.18273805,0.19531472,-0.09139967,0.16963153,-0.115618736,0.25838038,-0.0027923658,0.15953033,-0.15565835,0.07481287,-0.05245779,0.17914228,0.18778567,-0.08158953,0.0076964293,0.16357122,-0.015638327,-0.13042669,0.15836005,0.0812569,0.06877656,-0.011654348,0.10709967,-0.1856774,0.18355006,-0.07946552,0.26198336,0.08560779,0.15534987,-0.22081277,0.120715834,0.1514757,0.17253259,0.11435937,-0.005272323,0.05924889,0.21323659,0.124388374,0.054951865,0.11518941
0.027955053,-0.14170003,0.07738349,-0.06490982,0.0278038,0.14649627,0.12342273,0.037030615,0.16784887,-0.17959423,0.44850513,-0.18103297,0.07611744,0.1191376,-0.00671408,0.044560857,0.12803358,0.14766912,-0.106278375,0.18038951,0.26458204,-0.1254525,-0.107916124,0.18984075,-0.037612103,-0.2198599,0.04491564,0.08616763,0.018655514,-0.06043253,0.103122406,0.25307527,0.20770423,0.17487635,-0.26509354,0.072359994,0.015132803,-0.1231339,-0.21055311,0.27653214,0.18373087,0.18947133,-0.008240574,0.054896627,-0.10736452,-0.27569824,0.26204485,0.056917034,-0.19326223,-0.08114736,0.12340392,0.17509313,0.089091286,-0.04568318,0.14054157,-0.17632319,0.05091628,0.12840119,0.19571887,-0.015649248,0.10514287,0.058077194,0.050118156,0.2912955,-0.030466566,-0.22353245,0.005807764,0.046655983,0.08273811,-0.16916853,0.080684446,-0.1923397,-0.08475367,0.15427293,-0.16129217,-0.27134997,0.30844495,-0.13360012,0.24277139,-0.1344974,0.28171897,0.29946524,0.14938948,0.13419265,0.19885182,0.051445954,-0.1584349,-0.13197772,-0.15847254,0.070793465,-0.017827414,0.18664047,0.11552482,0.06650202,0.13086882,0.23518796,-0.28261355,0.14248647,-0.03847732,-0.18175279,0.39042982,0.17005856,0.10293413,0.12660591,0.2020865,0.086571865,0.07652507,0.19963923,0.111904584,-0.003252938,0.31622347,0.3017195,-0.17462136,-0.2239832,0.10273241,-0.12020598,0.118232355,-0.05909135,0.09925354,0.31458873,-0.15688233,-0.16500707,0.079545535,-0.056171488,0.19770561,0.33729655,0.09355124,0.109485716
-0.22333047,-0.08221789,0.16588457,0.21897897,0.0510751,0.07036914,0.09899691,-0.1425152,0.16972238,0.17064983,0.123292096,-0.26407632,0.19335951,-0.054047402,-0.048945956,0.07784706,-0.09170715,0.06904498,0.2060869,-0.13720317,-0.03761448,-0.10803502,-0.27193746,-0.16184065,-0.30676812,-0.08998149,-0.2508586,-0.2561006,0.26031312,0.1372935,0.13406469,0.12849788,0.12959616,0.18506508,-0.09459322,-0.04300162,0.19738823,-0.09079164,-0.26686335,0.0037416357,0.0010482188,0.0010129645,-0.12629238,0.08264744,-0.12223287,-0.08845006,-0.20884429,-0.04060507,-0.12888652,-0.2468959,0.15314673,0.04497706,0.11869819,-0.227374,0.048719227,-0.014933011,-0.023351032,-0.031016672,0.19398896,0.1929085,-0.12523524,-0.09609368,-0.031657804,-0.17991278,-0.119141065,-0.02947884,-0.016427815,0.014490035,0.20533612,-0.23563941,-0.25339547,-0.17745648,0.018956138,-0.1342846,-0.07341457,-0.039410487,0.29084224,-0.028843703,-0.14001416,0.12685075,0.2528546,-0.014254943,0.105147034,0.09372009,-0.20305334,-0.17063786,0.036273524,-0.109021716,-0.0332606,-0.02430941,0.07680293,0.05918883,-0.1841898,0.009384411,0.12709664,-0.11707709,-0.16073228,-0.10396791,-0.1640466,-0.26564786,0.22443844,0.1973968,0.21099152,0.14872484,0.17307779,0.08912288,0.15794499,0.05302631,-0.0021324102,0.017083501,0.25132534,0.27879357,0.109169856,-0.19846658,-0.16311139,0.06766538,0.057222843,-0.23873708,0.10064819,0.0014506215,0.15478148,-0.09336483,-0.22922504,0.02111658,0.01258782,-0.12939532,-0.25673154,-0.09630069
-0.13496646,-0.17438908,0.035374768,-0.18945958,-0.04825162,-0.015262489,-0.17738481,0.117459126,0.085232064,0.09982242,-0.20655288,-0.12404716,0.16656987,0.22616284,-0.13690744,0.12236932,-0.08171404,0.17482412,-0.068083555,-0.013607992,0.090435326,-0.25509933,-0.015815692,-0.027509045,-0.16619913,0.12496046,-0.024438808,-0.009151344,-0.10491828,-0.055486493,-0.03383513,-0.25373307,0.13488029,0.021360006,0.033477936,0.09595084,-0.12503004,-0.08035869,0.1350178,-0.20690729,0.13193373,-0.008252822,-0.14213245,-0.1098119,-0.15885776,-0.12925617,0.05691636,-0.089342944,-0.25455773,-0.007614079,0.022533415,0.009459009,-0.15636632,0.035080798,-0.046537347,-0.15370661,-0.05988193,0.16803253,-0.21146779,-0.119344704,0.11282393,-0.19737558,-0.18541323,0.15945777,0.09844676,-0.19138893,-0.10676602,-0.0031861183,0.033919483,-0.17179777,-0.21394986,-0.18537465,-0.10930583,-0.1159383,0.2166632,-0.269031,-0.0093874,-0.23589498,0.035270747,0.10029129,-0.12155173,-0.13084257,-0.21402438,-0.06837753,-0.11033084,-0.07025151,0.04568126,-0.17583409,-0.0018008852,-0.10455152,0.011662071,-0.23052163,-0.04238554,-0.10502477,-0.06387207,-0.20098433,-0.32752547,0.11229426,0.062616095,-0.018908426,-0.09307721,-0.067211054,0.22471306,-0.1730996,-0.21413559,0.083157696,-0.16912277,0.12532638,-0.09871261,0.0054923645,0.025122413,-0.07871201,-0.1229979,-0.26899746,0.06728568,-0.08612932,0.027819393,-0.11757282,0.06450818,-0.10924747,0.011079667,-0.29358423,-0.08391809,-0.21027783,0.14801694,-0.05481353,-0.033213604,-0.26694053
