{{0.08499137,0.22153684,0.057167467,-0.14032364,0.17091905,-0.09274533,-0.06261752,-0.12081844,-0.18891941,-0.0033525592,0.15546739,0.006260848,0.15496063,-0.23685497,0.03434648,-0.13778959,-0.07436099,0.103025,-0.11740851,-0.12216872,-0.16312581,-0.116937704,0.15291348,0.1014942,0.0929824,-0.18301153,0.018585114,-0.043899614,-0.1546906,0.1263441,0.2238486,-0.02785742,-0.2065025,0.18229792,0.20060699,0.004595924,-0.017842896,0.14164223,-0.030428298,-0.096896134,-0.1727268,0.07669287,0.15697643,0.06428658,-0.031107562,-0.1530128,-0.19209959,-0.13489719,0.015345842,-0.0015207343,0.08413941,0.1144412,0.12098305,0.18436453,-0.15081143,-0.17514366,0.062010832,0.022536974,0.015472407,0.067695774,0.081191376,0.09815631,-0.00095777155,-0.043651324,0.16859673,-0.07638549,0.14194414,0.16293088,0.16932659,0.17402022,0.1626886,-0.1574444,-0.12665802,-0.080686525,-0.20829767,-0.10694677,0.19459696,-0.040804002,-0.21370466,0.012582541,0.1454069,0.21764433,-0.0627251,0.2037628,-0.10125542,0.19459105,-0.015076282,0.20824811,0.07812753,-0.16604027,-0.1274817,0.015587396,0.11305617,-0.10066316,-0.18402676,0.15541899},
{0.17164575,0.2175899,0.02043986,-0.12109138,0.1990549,0.19241007,-0.13787748,0.08513598,-0.019652283,-0.03234273,0.081813954,0.22540325,0.15984908,-0.041334085,0.10578799,0.12709272,-0.1756253,0.13237344,0.046385027,0.109364584,0.2122181,0.06925168,0.23470168,-0.04899553,0.04700745,0.19690806,0.018020352,-0.12947291,0.23906194,-0.15363261,-0.0130272005,0.20331419,0.057607874,0.25202006,0.11573297,0.08966525,0.1505328,-0.04348685,-0.15682156,-0.124227814,-0.14872482,0.22599086,0.09665395,-0.10433032,0.0062096976,-0.0008440757,0.11462987,0.064883776,-0.1158864,0.02103224,0.0878639,-0.086981215,0.090298176,-0.074330725,-0.07692179,-0.09469295,-0.14199995,0.13210186,-0.15819134,0.13865767,0.15643495,0.12508711,0.21903722,-0.06061031,0.09185248,0.07026368,-0.122303896,-0.04338327,0.08685593,-0.059497587,-0.10303185,0.05690073,0.00075151725,0.1388395,-0.011254763,-0.010538719,0.04055255,-0.06637831,-0.119480096,0.16357936,0.20707196,0.028452955,0.11386379,-0.042806037,-0.069413655,-0.077749304,-0.0019141431,-0.11156974,0.081824645,0.18346621,0.07183971,0.1243642,0.020523628,-0.058020003,0.096380085,-0.043857664},
{0.19931833,-0.06520684,0.050577912,0.16665713,-0.15664114,0.006963647,-0.15869631,-0.13297603,-0.16684856,-0.15370712,-0.17780876,0.15844892,0.20095628,-0.18797213,0.16639164,-0.009925292,0.108898886,0.17965256,-0.07337733,0.13403179,-0.009713961,-0.031490903,0.05020672,0.065262794,0.08600223,0.006829355,-0.17755242,-0.10905783,0.07412351,0.18840465,0.20771593,-0.065025374,0.114569314,0.16005395,0.072045885,0.10487571,0.08884338,-0.15995681,-0.12352506,-0.0016247957,0.037818227,-0.17604575,0.014489893,-0.18237606,0.042643156,-0.07085798,-0.099094726,0.07828406,0.033924785,-0.120313406,-0.202612,-0.061406605,-0.016253812,0.050515525,0.09574812,0.078630544,0.13809483,-0.0875461,-0.07527079,-0.1644984,-0.10163619,-0.13329747,-0.12830138,0.15571336,0.2206673,-0.1655058,0.19538027,-0.039744094,-0.15565492,0.08854578,0.006504508,0.03341192,0.07393516,-0.016163277,-0.13541791,-0.04743898,0.11727563,-0.13182665,-0.040746823,-0.10254597,-0.21302517,0.14856537,0.057762954,0.013800618,0.12118842,0.049364828,-0.22104615,-0.016176611,-0.16060753,0.039848145,0.20328724,-0.12377603,-0.13680787,-0.16324888,-0.012267161,0.09647745},
{0.05841165,0.07019285,0.110170476,0.024289265,-0.06871724,-0.07205941,-0.17830218,-0.18196298,0.12052719,0.028393028,0.19313268,-0.15592088,-0.014175365,0.16010228,0.19601162,0.14516698,0.11959819,0.21172932,0.12237823,0.16363029,-0.00035625507,-0.026543835,-0.04065448,0.12156972,0.21982138,-0.096872896,-0.10002841,-0.11065547,0.11419929,0.10001328,-0.15488307,0.012457116,0.08089662,-0.031593394,0.03392475,-0.102153055,-0.03128457,0.24260414,-0.044844747,0.054837946,0.21888167,-0.08740423,0.037406646,0.18678816,0.021616396,0.22867331,0.18323578,-0.095132664,-0.04618839,-0.15895952,-0.09682299,-0.10916173,0.094953746,-0.04878789,0.23675263,-0.16418748,-0.09093585,-0.097242326,-0.12054401,0.0031379014,-0.14827868,0.027435383,0.05803796,-0.032010462,0.09067042,-0.15631844,0.08815001,-0.13490514,0.106195614,0.029203817,0.16970609,0.21330978,0.06822889,0.12514804,-0.11001131,0.16695532,0.09834326,-0.15290381,0.23913068,-0.14931016,0.037137546,0.0005773297,0.028333837,-0.07882659,-0.15428665,-0.10739404,0.011711962,-0.010131542,-0.09065892,-0.044513375,-0.22229241,0.21235664,-0.09199392,0.09755318,0.0008291942,0.063127026},
{-0.12688194,0.22382802,-0.21899189,0.02643528,-0.06506588,-0.03488897,0.21746722,0.10495049,-0.14642648,-0.051378507,-0.06444448,0.12293807,0.103335425,-0.16845801,-0.058591325,0.1904166,-0.054710098,-0.024820372,0.0034282822,-0.14740174,0.011845967,-0.08819895,-0.052331723,0.037516084,0.04734843,0.017010998,0.04924843,0.026271556,0.1701884,0.0026672573,-0.08049974,-0.20481353,-0.0983474,0.093583964,0.022642015,-0.05749646,0.084168255,0.07129359,-0.036906216,0.21153495,-0.037478108,-0.018490203,-0.06088969,0.11082252,-0.043301996,-0.20489386,-0.00020644622,0.15018487,-0.110014535,0.18750292,0.09714839,0.033557944,-0.16621384,0.0345187,-0.010668417,0.11637908,0.073596634,0.11635641,-0.03413832,-0.16604465,0.16440769,-0.030539542,-0.21952026,-0.009455349,0.012973359,0.18847612,-0.15965635,-0.16330099,0.13087541,0.038465068,-0.0045517683,-0.12325599,0.20292817,-0.0370313,0.1247863,-0.19142811,-0.037240207,0.21383196,0.082245305,0.09962016,0.21848743,-0.12667716,0.039628055,-0.05286606,0.22547504,0.13058402,-0.17575753,-0.1250405,0.24026649,-0.15813921,-0.10832399,0.16014838,-0.0789969,-0.12582056,-0.11658889,0.19247366},
{-0.022882888,-0.0056377235,-0.07679287,0.20898147,0.030660229,0.17177561,-0.07638853,-0.19181243,0.009733946,0.15005498,0.020300502,0.17208177,-0.15972719,0.059501827,0.111448035,-0.04207318,-0.03602514,0.20946115,0.05585017,0.065384224,-0.031409636,-0.039559208,0.14263473,0.122951016,-0.104077436,-0.037171587,-0.17878562,0.15856402,0.055779405,-0.15307501,0.11411233,-0.012980971,0.08645839,-0.20203447,-0.090767786,-0.027102804,0.025421528,0.092873834,-0.094592,-0.14802699,0.19162074,0.07145317,0.16146599,-0.1004429,-0.14773184,0.08360361,-0.04664691,-0.16692396,0.23748748,-0.14320917,-0.15100254,0.016221967,-0.0032645795,0.21580191,0.15510295,0.07369558,-0.051353052,0.12610763,0.15029022,0.13274354,-0.08604578,-0.06945843,0.066304594,-0.15921888,-0.18161608,0.13198791,-0.04344182,0.03938783,0.18884258,0.033062514,-0.14537486,-0.20069596,0.14763875,0.12363504,0.020400891,-0.17383792,-0.09239465,-0.17560288,-0.095447436,-0.157272,-0.028093722,0.04043291,-0.10509666,0.19858217,-0.057894826,0.03446989,-0.086375035,-0.062391754,-0.15069471,0.044554383,0.10298822,0.027251665,0.10088479,-0.17067093,0.12410545,0.18392749},
{-0.10212188,0.22711262,0.017567098,0.23709607,0.019079674,-0.014745219,0.14391956,0.06811461,-0.03087057,-0.048514657,-0.1628196,-0.0036993984,-0.09016503,0.13779826,0.00085058785,0.07483858,-0.1552057,-0.16416344,-0.099900134,-0.16476825,0.075408295,-0.022881784,0.1523704,-0.14267312,0.17992896,0.09232025,-0.016222063,-0.09781849,-0.0950209,-0.018460682,-0.124772534,-0.06768237,0.12791872,0.16196983,0.15535,0.10867075,-0.087529585,0.056151066,-0.19046213,-0.08990522,0.015331141,0.05409657,0.056547444,-0.17473279,-0.09544566,0.1625616,-0.09510584,0.1985617,-0.033229996,0.2351563,0.17127535,0.029510198,0.13435386,0.077180065,0.07859912,0.09723833,-0.0972721,-0.003981817,-0.11637856,-0.0306772,0.040528286,-0.15982364,0.088764,0.06280619,0.15312675,0.1247055,-0.13596393,0.14422837,0.046270967,0.245105,0.06275938,-0.12123719,0.13623662,0.21324663,0.02078501,-0.13996674,0.23884225,0.18398851,0.1514463,-0.12295363,0.02615249,0.09471503,0.08213659,-0.01182321,-0.018349372,-0.020615079,-0.034492098,-0.047293406,0.10962196,-0.042967,-0.08788224,-0.021698838,0.08475727,0.12931056,-0.06567888,-0.09987103},
{0.012629838,0.21800274,0.14337952,-0.14362802,-0.022221657,-0.02452418,-0.044036057,0.15863395,-0.12870324,0.022595571,-0.048524797,-0.13119274,0.022081496,-0.18437769,0.18131846,-0.19639695,0.017574213,-0.13070789,0.1988206,-0.04545262,0.017568914,-0.18239994,-0.06781473,-0.09339064,0.063342564,0.17192832,-0.108698726,-0.14685836,-0.21795976,-0.14883228,-0.1494023,-0.124338344,-0.05454668,-0.04886507,0.117737204,0.15668274,-0.08883691,-0.108041845,-0.011829651,-0.008495457,0.16563067,0.11708315,0.14887202,0.18225989,0.123541415,0.024431054,-0.09932273,0.18434523,0.085601255,-0.12938827,0.10357905,0.0532689,0.041401442,-0.16248739,-0.09458616,-0.11164461,-0.022334801,0.053598896,0.17959309,0.0066976687,0.08720721,0.17458369,0.123947985,-0.004884656,0.046674747,-0.07297766,-0.14989239,0.053410802,-0.08553661,0.051738296,-0.13102263,-0.15992808,0.11532818,-0.17071196,0.18790978,0.06885336,-0.14255774,-0.04152325,0.062165547,0.06308272,0.019015934,-0.015416541,-0.18203935,-0.13595876,-0.08393859,0.031054553,-0.06995643,0.0048422585,-0.14426464,0.002683713,0.2052506,-0.15507384,0.2046394,0.025893379,-0.056625538,0.044685986},
{-0.20316127,0.030963123,-0.16411658,0.100461215,-0.052712765,0.014624991,-0.030613063,-0.1431905,-0.10798515,-0.16681823,-0.17677619,0.22183375,0.12050989,0.0857476,-0.06724414,0.04471003,-0.06313973,0.0407447,-0.042861287,-0.07977788,0.24548933,0.040617097,-0.15550944,0.19643241,-0.03144758,0.05104981,-0.14438981,0.14445022,0.055183083,0.23710139,0.005193242,-0.18914092,0.1208452,-0.033488546,-0.09297363,0.08469325,0.043288194,0.14401487,0.07148287,-0.048741426,-0.02615655,0.08685109,-0.06316946,-0.18661661,0.1744186,-0.09612168,-0.15264641,0.047322627,-0.14157207,-0.13054477,-0.10246404,0.19433959,-0.16203216,-0.18338828,0.13589832,0.25254428,-0.066094026,0.024548167,0.031056987,-0.021993848,-0.14513938,-0.03645445,0.12638827,0.21614063,-0.049417894,0.025358276,0.09148845,0.020796686,-0.06576833,0.013294184,-0.07111599,0.022017831,0.09854024,0.014016997,-0.15754484,0.191019,0.2031921,-0.13312106,-0.07951829,0.19114156,0.04682055,-0.08631361,0.1649448,-0.123574205,-0.13244104,-0.061319567,-0.113859035,-0.082298346,0.1869017,0.01387969,0.25005782,0.17814828,-0.15185662,-0.028742464,0.07020997,-0.15355559},
{0.07788215,0.07791069,0.077944554,0.15007204,-0.038061574,0.01928666,0.069592655,0.024452481,-0.10361596,0.23092058,0.14072049,0.044457175,0.07388975,0.03288705,0.18346761,0.07856424,0.10291453,-0.04666916,-0.09051992,0.1126828,0.091738835,0.044906184,0.089329734,0.15341133,-0.118724085,0.12409793,0.18673944,-0.12951839,-0.008181555,0.13352418,-0.026356885,-0.16599108,0.030780695,0.15338278,0.085761,-0.11321833,0.072562605,0.106249206,0.0780477,0.19021246,-0.16934697,0.08825492,-0.16512674,0.015501046,-0.0294346,0.14722463,0.20423272,0.025574494,0.106442705,0.025848055,0.10964073,0.07192879,-0.012012185,0.025740737,-0.16814497,0.032847162,-0.13722631,0.09225583,0.07671238,0.084670275,-0.11491609,-0.0014475738,0.042431958,0.20016721,-0.119319685,0.05241905,0.08412271,-0.10495171,-0.04217547,0.044000067,0.053938393,0.057822697,-0.06584296,0.0079763,-0.14953192,0.1709388,0.2304352,-0.14977281,0.08433683,0.23374347,0.08764572,0.12474563,0.15942153,0.16774862,-0.17385684,-0.19602564,0.21442436,-0.08536763,0.1362567,0.16846012,0.2434547,-0.07528507,-0.14176992,-0.0305236,-0.013097093,0.21104372},
{0.10970674,0.1565615,0.009528405,0.19595756,0.10228486,0.038591973,0.045259785,-0.074684426,0.16593198,0.10974848,0.18939492,0.22806603,0.14877374,-0.10761492,0.1598322,-0.13718338,0.16122852,0.08034748,0.18590888,0.19009171,0.0024802971,-0.16424708,0.12102255,0.18716751,0.18989244,0.17834945,-0.11334433,0.17437255,-0.16046804,0.06643948,-0.10573015,0.17470467,0.010763027,0.071026914,-0.17251027,-0.06728021,0.15493417,-0.16053869,0.103569105,0.21801925,-0.008523836,0.15762822,-0.028910074,-0.08670081,0.17707074,0.07599791,-0.08207948,-0.11815841,-0.057773493,0.03491024,0.06987262,0.12422048,-0.033282444,0.03575236,-0.054045387,0.22106518,-0.019278303,0.25256807,-0.07461314,0.098588824,-0.1581949,-0.052412745,-0.043354116,-0.01038808,-0.07356631,-0.08454335,-0.034700036,-0.05582316,0.19140711,-0.11124586,-0.0475593,0.15070486,-0.054474365,0.1876953,0.08169798,0.091865756,0.02151783,0.06390836,-0.16430762,-0.08840228,0.013628039,-0.09301872,0.07400196,0.19786307,0.20273393,-0.026875248,0.06893624,-0.053259373,-0.013358507,0.18888286,0.11495252,0.045675796,0.022302967,-0.13026226,0.23362416,-0.061739113},
{0.057976857,-0.017348861,-0.0746777,0.13135211,-0.093308926,-0.16502005,0.09407463,-0.08847624,-0.10970346,0.13115932,-0.052564107,0.19394107,-0.0042684423,0.06801795,-0.17293708,-0.15341657,-0.14067914,0.1730498,-0.20565635,0.1355566,-0.052975744,-0.054544874,-0.14214362,-0.11697046,-0.10287971,0.05643714,0.08921641,-0.0441707,0.072154224,0.14873084,0.12259696,-0.09826919,0.12231999,-0.14877722,0.010657517,-0.12671843,-0.024596915,0.045881536,0.15406324,-0.16185862,0.0587235,-0.07657989,0.059006628,-0.15977268,-0.051537152,-0.010725887,-0.17815475,-0.11954207,-0.036974024,-0.16538744,0.041937333,0.17939314,0.14017761,0.17707215,0.19884405,0.16710715,-0.1501168,-0.067065425,0.093755975,-0.0894342,-0.143413,-0.15586334,-0.1188626,0.0622885,0.012937916,0.22521394,-0.043108,-0.013051288,-0.062833525,0.0884507,-0.006212176,-0.16883409,-0.087122396,0.030187648,-0.016345775,0.14202598,0.039119806,-0.004042233,0.09093832,0.009445807,0.15498681,-0.1709302,0.011798223,0.10515272,-0.04542223,0.19276798,0.17332236,0.049863555,0.048325785,-0.038374968,0.12792438,-0.20008586,0.0069344854,0.017151501,0.20976797,-0.091269664},
{0.1331477,0.057812795,-0.21420744,-0.032801703,-0.13851178,0.093322076,0.19963549,-0.068144344,0.047344692,-0.08129486,-0.21390538,0.04829615,0.15887955,0.18470046,0.026075896,0.039610073,0.011743853,-0.1337879,-0.15546252,0.18630843,-0.077735014,0.11889186,-0.16224968,0.1687346,0.15543188,0.0896126,-0.15901713,-0.16760136,0.15993783,0.08383502,0.14606546,0.16129978,-0.1128205,0.14174083,-0.10021066,-0.123946585,-0.022560421,0.18788105,-0.07715137,0.1367102,-0.051487386,0.016534913,-0.0757735,0.11102749,-0.17754757,-0.091849685,-0.13027011,-0.0040166746,0.11626265,0.07226511,-0.16896202,0.14158665,-0.18830308,0.17089628,0.0086841695,-0.15073626,0.17186242,0.12096648,0.074101046,0.019757004,0.16520366,-0.10533337,-0.09026629,-0.098331474,-0.07332796,0.05747664,-0.061266493,0.051466975,-0.20371751,0.10782226,-0.16464348,-0.02884585,-0.013697052,0.11961803,-0.060203556,-0.11811055,0.05218468,0.03151755,-0.09856276,0.15408006,0.060584374,-0.04622324,-0.15012905,0.1899787,-0.054422,0.16312155,-0.031158177,-0.09070184,0.19726288,-0.14225599,-0.18146712,0.17872977,0.14864661,-0.13417016,-0.0049282727,0.043359566},
{0.14965087,-0.14076881,-0.2295677,-0.07674956,-0.104747154,-0.1918569,0.033578783,-0.12682964,-0.11032214,0.14837722,-0.12897123,-0.18682997,0.071337394,0.14343861,-0.05427962,0.1792755,-0.14204535,0.13764827,0.015972963,0.065336846,0.007915277,0.17629863,0.065334946,0.05952045,-0.08414857,0.012014058,-0.17580153,-0.0040436094,0.09276418,0.06309155,-0.036162715,-0.115029305,-0.07619432,0.059114452,0.17395596,-0.16437379,0.13048993,0.06850826,0.10426919,-0.054747492,-0.057894304,-0.08916454,0.03907301,-0.15144716,-0.101492085,0.111314416,-0.08999497,0.18982281,-0.17981793,-0.19438049,-0.090159655,-0.05997866,0.102110244,-0.04081663,0.037077546,0.17634603,0.12677397,-0.0009543579,0.18566673,0.10022266,0.10182051,-0.07475729,-0.17056628,-0.036229394,0.058552273,-0.13206705,-0.19959213,-0.09043586,-0.17915869,-0.099611744,0.06263762,0.04082633,0.097936764,0.14768544,-0.07212037,0.13048363,0.010305975,-0.051594365,0.08772139,0.04739062,-0.112987176,0.16581547,0.058957882,0.13509984,0.06373594,0.18757048,0.09215739,0.19686833,-0.13370176,-0.16367562,0.1880595,-0.062285032,0.06320567,-0.0454183,-0.019132495,-0.021164563},
{0.01830404,0.077119045,-0.027302528,0.13084757,-0.19691466,0.10089315,-0.115397595,0.0143026505,-0.07724824,-0.07816758,0.12280472,-0.009583686,-0.2153641,0.015952349,-0.051199116,-0.19873592,-0.1945169,-0.08580716,0.17335182,-0.024975479,0.06347533,-0.1566682,-0.1068145,0.123329684,-0.1057942,0.07097743,-0.19841227,0.03513324,0.1284901,0.08323693,0.16310765,0.09802875,-0.08314798,-0.13941294,0.024053521,0.18483911,-0.12382542,0.21948218,-0.06217036,0.016046235,0.19977546,-0.028611457,-0.10401329,-0.077713415,-0.226046,0.08188766,0.16081053,0.16636029,0.0056146854,-0.1181149,0.056569014,0.1512961,0.18777315,0.15799604,0.083930485,0.089884214,-0.17257737,0.11932599,-0.13796455,-0.123739205,-0.16020285,0.16693513,-0.07371286,-0.15976262,-0.19191547,0.1757925,0.18103386,0.087330505,-0.11603962,-0.0058437204,0.16825132,-0.046315752,0.103376746,-0.14852177,0.1609471,-0.18365328,0.16345906,-0.041314963,-0.0679166,-0.05086602,-0.12596871,-0.021833468,-0.05154356,0.11374991,-0.20431343,-0.047577944,-0.12067312,-0.03295235,0.17901316,0.0860879,-0.18517625,0.16061158,0.12469229,0.024104083,-0.034054488,-0.01574577},
{0.008301524,-0.11503988,-0.10490208,-0.14557542,-0.121769644,-0.07196321,-0.041659065,-0.14339052,-0.043835633,0.18298183,0.20521925,0.08390184,0.10285147,-0.14359348,0.0073713283,0.17761333,0.20577897,-0.14992134,-0.06781578,0.19407974,0.011481734,-0.12818635,0.17431232,-0.2077437,0.0147997765,0.15327747,-0.09083526,0.11250635,-0.044492975,-0.09214685,-0.11880265,0.11539072,0.08487206,0.035513174,0.2056237,0.021288818,0.04429913,0.045531705,0.15294662,0.20753863,-0.02707164,-0.052071605,0.20514634,0.18431398,0.08217561,0.10517495,0.13165791,0.026875107,0.14901143,-0.04003451,0.09188392,0.14335325,-0.1714717,-0.020434428,-0.034991797,-0.07079604,0.071717255,-0.04045902,-0.059239566,0.16250527,0.13423905,0.22574349,0.08336541,0.09126158,-0.17368333,-0.09781554,-0.05695828,-0.039063994,0.1385926,-0.10513703,-0.053179022,0.12686747,0.042499546,0.17599258,-0.0022617858,-0.10573704,-0.1298305,0.05222947,-0.063132554,0.17692925,0.18332493,-0.14865261,-0.1322876,-0.09358494,-0.024128871,0.13980727,-0.054243967,-0.14430355,-0.088393964,0.122249894,0.038078852,-0.1559761,-0.018347127,-0.011798434,-0.0044679283,-0.09289736},
{-0.1712545,-0.082225114,0.051873762,-0.13184002,-0.163707,-0.14891712,-0.031929106,0.17856856,-0.1850988,-0.016491082,-0.07437912,0.079305544,-0.1263467,-0.1246096,-0.03987005,-0.08873636,-0.16573885,0.075806916,0.2034335,-0.090224974,-0.03015228,-0.056855116,0.06326385,-0.05744091,0.21453239,-0.13825917,0.016392926,-0.011963429,-0.035890266,0.08401862,0.15610117,-0.08752567,-0.22474588,-0.23497757,-0.13429317,0.0028069448,0.027582806,0.12920028,-0.008534642,-0.032146662,-0.089688115,-0.14401142,0.11960138,0.09302972,0.10991875,0.06364148,-0.059307255,-0.04300858,-0.028355835,-0.029636588,-0.031158283,0.08591669,0.10090198,0.13710542,0.14870058,-0.041806336,-0.079734415,-0.19696076,0.09765634,0.032806024,0.18357559,0.15744868,-0.03136565,-0.23186524,0.06566725,0.23178989,-0.1389518,0.088191435,-0.09048,0.044723894,0.14272605,-0.18404567,0.2203726,-0.11000535,-0.1143682,-0.06413629,0.066907264,-0.10945286,0.10723908,-0.06709722,0.05057189,0.15820616,0.19538115,0.005762678,0.14023633,0.13479887,0.14334124,-0.14214979,-0.09982834,0.08693315,0.1547528,0.037624866,0.17635602,0.14748478,-0.118568555,-0.11684006},
{-0.15033075,-0.08908289,-0.14800787,-0.12748365,0.090955086,-0.06442186,0.14953092,0.08734186,0.05415394,0.21763144,-0.10027326,0.12853852,-0.15376666,0.1962924,0.19014618,0.08608138,0.039701167,-0.17164476,0.18315811,-0.09745613,-0.07114436,-0.18871093,-0.101322465,0.047352992,-0.085285224,0.10382813,-0.093984134,-0.20417786,-0.020692699,0.035767574,-0.0844702,0.09900031,-0.11997294,0.2049485,0.21437933,0.09968373,-0.06243638,0.13270546,-0.08667115,0.2172182,-0.032377407,-0.0867722,0.056310784,0.13501187,0.04178876,0.18485332,0.17747799,-0.15028667,-0.11775404,-0.056300834,-0.105571985,0.16727524,0.15664902,0.17302851,-0.16789912,0.014324606,0.042872775,0.045093954,0.14932069,0.037369467,-0.19905415,0.16143788,0.10935037,0.12794366,-0.09433985,0.005761002,0.124136284,0.010791645,0.22337821,0.0512483,-0.06459293,0.019713894,0.21701531,0.043692853,-0.034212694,0.13881129,0.05397178,-0.13476066,0.08725457,0.22331576,-0.15447627,0.08854643,-0.0040607457,-0.010548849,-0.018944891,-0.14860357,-0.034583114,0.13964406,-0.1516972,-0.051178295,0.044835586,-0.07994738,0.13269877,-0.16518888,-0.111276515,0.07386045},
{0.04259198,-0.18068007,-0.03572777,0.093281336,0.15865096,-0.08453122,0.002820516,0.13663965,-0.0022844109,-0.1630608,-0.14608346,-0.004777689,-0.047156148,0.008785441,0.1717756,-0.038018398,-0.12301194,0.115977444,-0.15406324,-0.13632652,0.04097269,-0.008017124,-0.06675062,-0.14024232,0.010193332,-0.16724358,-0.19068292,-0.012990549,-0.062860705,-0.17498694,0.17092699,0.15127498,0.06964932,0.0016929869,0.028242024,0.06672051,0.14055352,0.1154319,-0.15883112,-0.14063501,-0.18911299,0.11019761,0.13076057,0.071503386,0.00396137,-0.06228337,0.0008708889,-0.03329435,0.08620952,-0.16366045,-0.028234228,0.101258926,-0.20027502,0.051533595,-0.20777309,0.14587574,-0.13669416,0.19969253,-0.07598055,0.091650285,-0.11225142,-0.15243103,-0.05503113,-0.16349879,0.21916556,0.13595942,-0.15975745,-0.108193,-0.09548729,0.047724638,-0.04178264,0.07937965,-0.036573835,0.12509334,-0.06509734,-0.16233239,0.049407113,0.02061038,0.123447396,-0.13837175,-0.025519175,-0.18317401,0.06930112,-0.13186607,-0.13915494,-0.083000585,-0.06019301,0.05561314,0.049247332,0.030617487,-0.17843832,0.1573478,-0.2153659,-0.1660577,-0.05113836,-0.16251469},
{0.22779188,-0.15049088,-0.09889972,0.11729907,0.1676849,-0.005859971,-0.037350666,-0.13608018,0.13813744,0.16992255,-0.12235319,-0.19243565,0.04529367,-0.18149495,0.10053528,-0.015660644,-0.027986996,-0.17812167,0.17384276,0.18659037,0.1316408,-0.17342573,-0.18405357,0.05506709,-0.0832302,0.09098961,-0.12460709,0.22836864,0.064869635,0.10878125,0.05868071,0.044391964,0.086253785,-0.19837518,-0.009289381,0.055305988,0.0065195467,0.15556724,-0.067869075,0.049922764,0.050635867,-0.18331204,-0.042858742,0.04179299,0.173168,-0.020968232,0.085533954,-0.18281887,-0.123782955,-0.13745092,-0.14272033,-0.041026756,-0.015865706,0.06326855,-0.10782763,0.19551443,0.10124709,0.10138729,-0.07556116,-0.02943705,-0.14506313,0.01800953,0.18897907,-0.10545436,0.2137369,0.019536594,0.1675028,0.0075955144,-0.044349074,0.052662008,0.10520039,-0.039118826,-0.117498524,0.09880527,0.18338633,0.16642636,-0.085416846,0.14607705,-0.083076105,0.14845034,-0.12559208,0.07522072,0.21693459,-0.0670699,-0.05706158,0.052627698,0.029906353,-0.018759664,0.16500448,-0.070826195,-0.04477885,0.055315148,0.058862444,0.0059360694,-0.0617281,0.043878093},
{-0.00044623867,-0.08675727,0.06891752,-0.17019139,0.14321001,-0.012849592,0.116486244,0.15905452,0.18402708,0.09499955,0.13476695,0.22566584,-0.2006288,-0.0130816065,-0.10191574,-0.12527582,0.13357364,0.22207423,0.10326584,0.14986993,0.054023433,-0.17326275,0.06726266,0.031223197,-0.16692473,-0.102389604,-0.08256739,0.17038979,0.1285179,0.019500116,-0.16280988,0.13163945,0.0047058,0.1376258,0.13160928,0.1695549,-0.0031808272,0.08054503,-0.13848577,-0.15690736,0.06009601,0.20269881,0.20596483,-0.09763792,0.0914981,0.12874502,-0.051002864,0.057624422,-0.1528561,0.0968172,-0.028890288,0.12632939,0.029793577,0.118936345,0.06006284,0.086104706,0.036602527,0.11270049,0.046718545,0.017463176,-0.16081531,-0.15968865,-0.079521894,0.12420448,0.09912884,-0.12303674,-0.0987708,0.13191362,0.031214803,0.02849053,-0.111940145,-0.03168699,-0.08097974,0.07004848,-0.022901542,-0.054561827,-0.08046073,0.0066744504,0.10848564,-0.21486823,0.04103041,0.094854474,-0.07854494,-0.1588257,0.051750638,0.09129748,-0.13567273,0.08698083,-0.19834913,-0.059626088,-0.11873321,-0.025394723,0.081892766,-0.07301379,0.23848405,-0.16972795},
{0.16545182,0.09490764,0.23405525,-0.124557614,-0.0073316433,0.22738506,0.09909749,-0.035794303,0.025355173,-0.13510871,-0.04992986,0.12675042,0.10164199,-0.06788246,0.079214305,0.08248185,0.07962359,0.09791458,0.11548235,0.23216654,-0.07659093,0.016305959,0.15810125,0.061321374,0.0017681689,-0.01670668,0.1531655,0.06331654,0.0018704131,-0.18636794,0.07594177,0.24075928,-0.0284914,0.20767258,0.11934079,-0.09132707,0.25112253,-0.08374401,-0.14734732,0.0017660777,-0.06355229,0.19902219,0.15280168,-5.4528355e-05,-0.0827765,-0.14790168,0.11487299,0.06827477,0.16452277,0.19332802,0.10476444,-0.096634604,-0.03325638,0.036074415,-0.20189053,0.030123783,0.04493769,0.15735209,0.22232422,0.13639161,-0.0007122329,-0.05696423,-0.1462523,0.16336156,0.062474098,-0.17153873,-0.018211205,-0.157278,0.10099505,-0.07542671,0.05912366,-0.04015198,-0.14882156,-0.05190432,0.003809926,-0.104747,0.1608722,-0.0029019732,-0.14804764,0.1259255,0.05255558,0.0113882795,0.08236621,-0.15629007,-0.08346915,-0.03611636,-0.10341449,0.1726744,0.12999618,-0.0011947905,0.03702194,0.1771043,0.14302662,-0.1530099,-0.10072479,-0.06462871},
{-0.15733005,-0.13353507,0.05089792,-0.1302183,0.1401968,-0.090250075,0.09392293,0.021104142,-0.11112827,-0.02171168,0.117688045,-0.20378506,-0.082880355,-0.1132281,-0.10132138,0.1552057,-0.005726488,-0.06636376,-0.08699861,0.13804595,0.021958224,-0.13975081,-0.07669679,-0.042118594,-0.15420042,0.015799306,-0.19469903,-0.00082327804,0.010602877,-0.055551514,-0.16183634,-0.16831739,0.12227271,-0.09944517,-0.08504706,-0.059133034,-0.12192246,0.06877816,-0.1396042,-0.018117948,-0.08296199,-0.15789755,0.15603341,-0.041695513,-0.20145203,0.078745835,-0.13668253,-0.17951031,-0.175177,-0.040890213,0.17487572,0.0017757379,0.032147564,-0.11229042,-0.108444996,-0.14103942,0.18862028,0.085740805,0.07373939,0.096898675,0.12580886,-0.1651626,0.023572763,0.18121804,-0.10266948,-0.03905837,-0.042994563,0.013263407,-0.17608854,-0.20125094,-0.1625618,0.13194951,-0.03811762,0.08858608,-0.06040374,-0.15638801,-0.18979031,-0.16250011,-0.13631243,0.082269534,-0.14358975,-0.19900246,-0.09963266,0.17032146,-0.044011597,-0.056276113,-0.03774665,-0.015977416,0.028334701,-0.10192913,-0.20778963,0.03282611,-0.03448515,0.14020921,-0.061449192,0.02562527},
{0.18160054,0.024796782,-0.0033337695,0.00149783,0.13220672,-0.112642504,-0.014557383,0.12887752,-0.049235437,-0.054790173,-0.12082659,-0.016903182,-0.058089145,0.22393715,0.13714683,0.18611643,0.096027985,0.054634493,-0.13008426,0.09981021,0.12007832,0.09451247,-0.051870313,-0.20303854,-0.026598198,0.055767808,-0.1560952,0.17228849,0.14197548,0.04350908,0.15175757,-0.17542712,0.22541025,0.12591805,0.013046203,0.07203399,-0.046224445,0.10799874,-0.06834854,-0.11803842,0.12766469,-0.00043088355,-0.16856442,0.086836755,0.052078385,0.09485398,-0.020301126,0.15878446,0.09250645,0.103276454,-0.105744876,0.03301989,-0.08771059,-0.1143478,0.114997424,-0.1214328,-0.17434849,0.062624775,0.034536812,-0.0648777,-0.118601516,0.1577695,0.2334092,0.054704443,-0.18157591,-0.13388754,0.052486777,0.011875395,0.1914706,0.06529549,-0.0016725557,0.11193709,-0.09983572,0.10494947,0.05819479,0.017185153,-0.005082141,0.060078952,-0.12830444,-0.13990937,0.060259018,0.08913513,0.13319601,-0.15157138,0.035482913,0.0898046,-0.09897593,0.13354833,0.08460124,-0.111296415,-0.14285639,0.16715021,-0.15273818,0.11570423,0.22281031,-0.0003408962},
{-0.10968522,-0.13677926,-0.13081747,-0.05315885,-0.03611985,-0.033404693,0.045436684,0.033790562,-0.12766065,-0.011142812,-0.21337393,0.12607284,-0.04744188,0.06527203,-0.02330721,0.019981433,-0.04327085,-0.12489003,0.04555232,0.08237652,-0.104483165,-0.16078317,0.13199918,-0.059235416,-0.19271037,-0.16968848,0.18399966,-0.022597976,0.0041143955,-0.081807725,0.08904798,-0.02118223,-0.2252944,0.002471132,0.042972736,0.046415687,0.15185389,0.16854374,-0.07830147,-0.20027454,-0.03207009,0.014484626,-0.15846953,-0.18033987,-0.04243769,-0.09375688,0.08180681,-0.092569724,0.08708165,-0.072155476,-0.17808424,-0.21279418,0.00029891837,0.15939058,0.05545275,-0.17123815,-0.17111097,0.015582315,0.17965712,-0.007142858,-0.18620545,0.101521686,0.08219988,-0.08584935,0.002871466,0.1693808,0.12578134,-0.0092514865,-0.11804124,-0.027467033,0.0999835,0.07305674,0.056486923,-0.17474903,-0.18224432,0.040836375,0.17481422,-0.14299218,-0.23022637,-0.19907224,-0.09723807,-0.017165933,-0.0389297,0.024185779,-0.12969448,-0.018490123,0.14428835,-0.1494257,-0.018143842,0.13485983,0.092989765,0.0038509525,0.07706998,-0.16767265,0.12427477,-0.15318902},
{0.12336383,-0.15022433,-0.028051063,0.1309943,-0.20731023,-0.19193171,-0.06644531,-0.20276794,-0.033084154,-0.13897972,-0.13379273,0.076987006,0.095156625,-0.10723593,0.1192655,-0.023363696,0.17282447,0.090603456,-0.048701353,-0.085374005,0.14542295,0.009880671,0.09490608,0.1501342,0.16335078,-0.14881672,-0.20316385,0.09857492,-0.15503053,0.05852907,-0.050352175,-0.11081628,-0.032783475,-0.1534448,0.13751298,0.075308196,-0.09167946,0.20139055,0.21086179,-0.15477905,0.2253445,-0.06796393,0.08019848,-0.23300016,0.025888866,0.13851121,-0.11859907,-0.012518927,0.13241982,-0.2094408,-0.050423533,-0.070369855,0.046188544,-0.08955637,-0.052746076,0.027292483,0.19535285,-0.12867613,-0.16326354,-0.20415695,-0.06910878,0.19956926,0.13892308,0.005007885,-0.17621978,0.20189919,0.086310074,0.123512134,0.035334244,-0.18288927,0.19583005,0.024091158,0.12317028,0.08579718,-0.18307738,-0.20884706,0.15326904,-0.15036276,-0.18112111,0.06824782,-0.07309127,0.15528697,-0.0311933,-0.063679725,0.061758805,-0.09548057,0.1348477,-0.13613708,0.11777744,-0.09490016,-0.21386984,0.15676929,0.08983107,-0.005582365,-0.09365733,-0.16458474},
{-0.035713226,-0.12173786,0.16104643,0.002317427,-0.065839596,-0.145125,-0.07038602,-0.0687196,0.05664632,0.023415465,-0.079279594,0.06331253,0.09021072,0.0043559805,0.11862296,0.17221138,-0.19504206,-0.03393769,-0.05941981,0.030388767,-0.21961582,0.1344422,-0.14703503,0.17439057,-0.06864416,-0.1990576,-0.16553089,-0.0086131655,-0.16696914,0.1267055,-0.01335749,-0.07395567,-0.101976424,0.122200154,-0.21497676,-0.19923772,-0.039010204,-0.13113695,-0.034848314,0.14331585,0.127764,-0.2063025,0.012026146,0.058822755,0.1329966,0.1766544,0.1705603,0.07251273,0.07328239,-0.21515612,-0.07937527,-0.18842342,-0.15413629,0.04285151,-0.22109775,0.040482853,0.05401039,-0.17790668,0.15499443,0.14219497,-0.19875295,0.07017384,0.03781172,-0.20546198,-0.1607984,-0.046236683,-0.057301678,-0.11789574,0.07680716,-0.11040767,0.18184999,-0.14079428,-0.10124138,-0.14895791,-0.20324805,-0.15214427,0.044739105,-0.08215371,-0.06283437,0.16859843,-0.015272114,0.16651389,0.04449091,0.13070437,0.07747291,-0.18263772,-0.14895327,-0.1086986,0.17675763,0.0861616,-0.19515188,0.18341197,-0.11226702,0.030698556,-0.07335071,0.016826475},
{-0.13503797,0.029202165,-0.03820241,0.19268581,-0.15935363,0.049150467,0.15821962,0.008496581,-0.19811757,0.08289192,0.08640112,-0.004290223,-0.007363586,0.13524696,0.017189495,0.15006907,-0.11967957,0.04320207,0.1069921,-0.17943698,0.21071091,0.05260975,-0.11940945,0.078985736,0.10814066,-0.04207701,0.08324621,-0.084060654,-0.108393975,-0.08980062,0.0807117,-0.04576932,0.16638552,-0.18579566,-0.023938218,-0.07760264,-0.057460874,-0.14025491,-0.16197047,0.16332568,0.100555785,0.09106847,0.081069864,-0.11381465,0.027573228,0.1575028,0.15298687,0.121214025,0.053720884,-0.1403224,-0.13858078,-0.033742502,0.12885718,-0.148295,-0.17928681,-0.11321899,0.14372805,-0.21099834,0.109010786,0.05730442,0.1251481,-0.21259244,-0.012250453,-0.08251799,0.11666666,0.11967681,-0.08256439,-0.085112855,0.15120026,0.13196312,-0.037304845,0.03755608,-0.1375641,-0.07320165,0.052088313,-0.14513326,0.019048473,-0.10006212,-0.15888643,0.045086514,0.18327954,-0.13775533,-0.14791037,-0.13543534,-0.14135808,-0.15957813,0.12360341,-0.19887583,0.13974531,-0.16589889,0.063683815,0.13750598,0.08875031,0.053304743,0.19984059,0.09613988},
{0.07884913,-0.15050909,0.14626287,-0.18850443,0.025166916,-0.06887836,0.1500616,0.17554006,-0.017827848,-0.041954625,0.14863428,0.014295289,0.08826015,-0.16418861,0.16683373,-0.04912221,0.13895515,-0.19490643,-0.1546909,0.06341465,0.10444046,0.03586516,0.16895819,-0.17988054,-0.034819968,-0.21791926,-0.019172365,-0.064425096,0.046512842,-0.16701034,0.08762941,0.01696644,-0.09262254,0.05436843,-0.20976661,0.06475733,0.15966101,0.12013784,0.18021266,0.08024104,-0.009690344,-0.1056328,-0.0070756767,-0.13633037,0.10771425,0.09095773,-0.21539968,-0.006722801,-0.08610941,-0.11740898,-0.17429997,0.06916107,0.16980897,0.15241794,-0.16981716,-0.14538959,-0.028575754,-0.008125259,-0.14939858,-0.0800507,-0.18318126,0.14106622,-0.13118142,-0.16627723,0.027265675,0.09836657,-0.13100353,-0.20226592,0.17837161,0.090798005,0.08253529,0.17885199,-0.10575589,-0.12805867,0.114857875,-0.024989419,-0.014338279,0.18364485,-0.20960665,-0.17110321,-0.0009978465,-0.054178193,-0.21401843,-0.1590304,0.14135952,-0.16657224,0.1347386,-0.19612418,-0.17853323,-0.005917451,0.09382675,0.03737368,-0.048645515,0.11106292,-0.123573475,0.027233243},
{0.18328924,0.039259028,-0.015479501,-0.15456665,-0.11898319,0.120102026,-0.029919446,0.022252336,0.067901306,0.1214447,0.029106515,0.042015083,-0.18821393,-0.18332513,0.18875879,0.102621764,0.053111874,-0.19608288,0.17816569,0.056813803,-0.21747768,-0.12823227,-0.052320205,-0.078464866,-0.03724653,-0.15491164,-0.13800767,-0.18822843,0.13406976,0.107614845,-0.16194388,-0.18841039,0.17619006,-0.16983704,-0.18619649,-0.09307642,-0.19118144,0.041144606,-0.17246245,-0.06058813,0.10488294,-0.16408937,-0.08702339,-6.775503e-05,-0.099617206,-0.013792226,0.090590395,-0.103884324,-0.1990318,-0.059210446,0.11785643,0.06053759,-0.21644224,-0.010117957,-0.08149273,-0.017670553,-0.0046439855,-0.17307898,0.18246213,0.16890718,-0.12836191,-0.1965549,-0.09181001,-0.0985523,0.10290029,-0.1014797,-0.20394558,0.147588,0.060414523,-0.15512136,-0.2157054,0.107737936,-0.163459,0.13229929,0.077201426,-0.0031185441,0.038390044,-0.17056799,0.08297888,0.15817659,-0.21533519,0.074648805,0.094623476,-0.1860156,0.12259939,0.0839842,0.15158719,-0.12945074,-0.02034641,-0.067918405,0.07528896,0.13343038,0.011510272,-0.007452585,0.16985795,0.17563522},
{0.055863243,-0.009645763,0.06651408,0.16193973,0.09832225,0.02356938,0.09378124,-0.0174186,-0.13828596,0.11545867,0.22414193,-0.18969087,0.13616063,-0.100924015,-0.03328477,-0.16085553,0.080266744,-0.11809266,0.21139258,0.080719225,0.10219143,-0.04744101,-0.029603675,-0.041469444,0.20216165,-0.017481618,0.024222083,-0.14563736,0.19538857,-0.22952518,0.09210674,0.031670254,0.20676999,0.10051597,-0.14154477,0.012807641,0.2025038,0.033260934,-0.15736893,0.22878294,0.23266807,0.055682745,0.17795396,0.2155476,0.11044017,0.06658075,0.067243956,-0.09080495,0.1731439,-0.1413762,0.023276798,-0.17153718,0.20194888,-0.02332697,-0.16626401,-0.09720249,0.20451689,0.12374981,0.05502378,-0.13678026,-0.014511561,0.18092783,0.0033714944,-0.12113081,-0.07838459,-0.1840669,0.20782277,0.05934796,0.031128572,-0.071906246,-0.09326864,0.029092079,-0.09194935,0.20686494,0.10393533,0.22751537,0.08431323,0.076405115,0.19624926,0.13143939,-0.024279209,-0.037646394,-0.12059126,-0.15531243,-0.092715114,0.1669307,0.20366699,-0.14565893,-0.16507433,-0.113436095,-0.082417846,-0.080299765,-0.06816469,0.03165851,-0.16314434,-0.11714185},
{0.032735985,-0.097938485,-0.12595238,0.031383064,0.18966709,0.19806719,0.159436,0.038994815,-0.07447547,-0.10224268,-0.0008491261,0.042309817,-0.18340614,-0.05662655,-0.16265659,0.036431503,0.103519306,0.023837853,0.17588648,-0.100324176,0.17244884,0.064339034,-0.19633935,0.17778401,-0.08267353,-0.062211417,0.082262956,0.0733116,-0.01920226,0.00824501,0.0011096015,-0.0009865271,-0.098178156,0.03724041,0.04750609,0.05471815,-0.17570081,0.14675826,-0.11421061,0.17980038,-0.017895961,0.13767897,-0.17835377,-0.093129605,-0.1522102,0.15669034,-0.11712372,-0.07383665,-0.11116622,-0.1230428,-0.17924611,-0.029235201,0.17795093,-0.06843232,-0.19849648,0.04199874,-0.0031154174,-0.14421086,0.18651214,0.1308979,0.14125359,0.036086645,-0.10020328,-0.040496755,-0.005072942,-0.15722127,0.14299928,-0.028688276,0.18637928,-0.17410828,0.17909159,0.067904584,-0.16989028,-0.17860389,-0.12490403,0.017011018,0.06183516,-0.097753085,0.17484899,0.03132667,0.006311818,-0.16595837,0.119087666,-0.060444836,-0.06787879,0.09685575,0.18908837,-0.11201577,0.009185871,0.1589985,0.08851441,-0.08745049,-0.08274932,0.1505965,0.12597778,-0.06026708},
{0.045697734,-0.17378165,-0.12219356,0.13621782,-0.049125116,0.15669245,0.033554573,-0.1946996,-0.017324483,-0.044151895,0.21186791,-0.11786048,-0.1608903,-0.15634476,-0.194104,-0.002196289,0.19743103,0.15049073,0.10204481,0.15262039,0.06499893,0.16833697,0.11129146,0.059613768,-0.13093166,0.14929865,0.16002305,-0.10318199,-0.1781943,-0.02006905,0.003024058,0.17359217,-0.1311245,0.21596529,-0.13529031,0.010080261,0.08227993,-0.045067742,-0.108712174,-0.1856624,-0.00788258,-0.15425132,-0.08234749,0.14156643,0.033872377,0.11064045,0.010811186,-0.018747462,0.13851862,-0.13872555,0.12234237,-0.105413355,-0.11292118,-0.1330694,0.030950595,-0.05782609,0.07888071,0.031254653,0.119859174,-0.108300835,-0.099356875,0.07986244,0.12211303,-0.02273026,-0.09320555,0.07122979,-0.036250263,0.008551228,-0.038380135,-0.11237828,0.056655295,-0.110134296,-0.16480222,0.15943953,0.067289166,0.14195503,-0.17687738,-0.18852755,-0.081579775,0.010709235,-0.020532638,0.01588192,0.026358895,-0.11845463,-0.04943326,0.023358548,0.1584077,-0.050448846,-0.11589919,0.14032608,-0.10628747,0.06076607,0.11958766,-0.13423209,0.06715435,0.20088388},
{0.17632438,0.006686865,-0.07078705,-0.20184734,-0.06709114,-0.07878297,-0.093924426,-0.1321706,0.2010722,0.0015409191,0.08879335,-0.008775721,0.15157655,0.06498745,-0.17109384,0.13847134,-0.11898462,-0.0009093579,0.20823373,0.1101675,-0.20092985,-0.18824795,0.050076693,0.014510385,0.079601415,0.23583388,0.11669459,0.03721148,0.13230771,0.14562775,0.23261653,0.15564023,0.12487824,0.015362787,0.20636798,0.14837681,0.19711776,0.046108574,0.10017428,-0.1443709,0.19377485,-0.008470784,0.113031134,-0.13523464,0.21618304,0.13599364,0.2361754,0.05674463,0.15390064,-0.05857859,0.04620016,-0.037571482,0.21078677,0.22863609,0.14080006,-0.110633574,0.008386727,-0.032627963,-0.1874482,0.21644309,0.09543184,0.24327095,-0.079484835,-0.031400476,0.082488135,0.09960087,0.016378008,0.020597389,0.032987207,0.021410264,-0.1305226,0.15472873,-0.15594766,-0.08741109,0.0060257893,0.04111169,-0.024976091,-0.1582818,-0.00029511115,0.184639,-0.027733348,-0.19101363,0.09560723,0.18138711,0.02588113,-0.16621724,-0.11684317,0.17205118,0.11423363,-0.075979635,-0.22075422,-0.09206025,0.023329485,-0.005409753,-0.11971867,-0.17233622},
{0.12370319,-0.07317335,-0.0017452296,-0.13614361,-0.042767428,0.034637786,0.172414,-0.119568475,0.10035346,0.12981142,0.114283934,0.17998302,0.022974407,0.08636272,-0.1761695,0.17419502,0.1563653,0.17635965,-0.086907454,-0.081983894,0.012612285,-0.10114884,-0.048664797,-0.062433064,-0.14755797,-0.020790074,0.15963514,-0.14816123,0.0056217685,0.14378151,0.11388931,-0.08657154,0.19268377,-0.15704796,0.108953446,0.026465092,0.2150698,-0.1499487,0.22055069,-0.18720905,-0.038126428,0.19041403,0.10518751,0.06275329,0.075487114,-0.108065076,-0.07054453,0.1555785,-0.0900122,-0.06294428,0.18148394,-0.13837498,0.22276215,-0.10432625,0.016054735,0.090149805,0.0042551663,-0.117694095,0.06150499,0.09424967,0.16305012,-0.15924712,0.09822382,0.01334673,-0.08041948,-0.02713692,-0.020769132,0.045082837,0.13645561,0.22970106,-0.047123134,0.1369281,0.094557635,0.2006964,0.0119854,-0.0131653,-0.14120291,-0.09520607,0.0086646,0.11884869,0.113784336,-0.19554578,-0.0979615,-0.18809013,0.14676578,0.014935089,-0.12600693,-0.042385425,0.030530035,0.038166672,-0.03864796,0.22287945,0.18579623,0.013102163,-0.045687113,0.0962456},
{0.13450338,0.06418323,0.04674315,0.0105469255,-0.032694414,0.13954975,0.09528573,0.06487427,-0.12127634,0.13716738,-0.08951249,-0.15454781,-0.1567496,-0.2055078,0.06721252,0.034900058,0.17287357,0.033372156,0.08876798,-0.016270263,0.13429019,-0.14795308,-0.06839439,0.06439668,-0.066233344,-0.05770329,-0.21925734,0.2179604,0.13619156,0.20834601,0.12623385,-0.2005797,-0.1155742,0.09084538,-0.11163845,-0.08827467,-0.16633387,0.112552166,0.10736277,-0.012122049,-0.119828954,-0.11758556,0.21305427,0.15781891,-0.18118301,-0.038452655,0.049263194,0.1225079,-0.096304454,0.07901444,-0.040268805,0.016151685,-0.017579377,0.07683493,0.1945735,0.08759872,0.021632917,-0.11867895,0.15741774,0.121492594,0.12223964,0.21145202,0.047498226,-0.19465253,0.034201592,-0.054511975,0.17419913,0.101033375,-0.17459802,-0.020541113,0.07143228,-0.0707619,0.013977215,-0.12919508,-0.028537976,-0.12307186,0.070406884,-0.13525794,-0.09730094,-0.11004629,0.07863478,0.09658332,-0.189438,0.05036232,0.16127844,0.13254574,-0.02561053,0.19230181,-0.17013022,0.095907085,-0.20770785,-0.15308294,-0.010314977,0.12344369,-0.16031939,0.01075509},
{0.0017583303,-0.13383226,-0.04140967,-0.11376158,-0.048440713,-0.067867875,-0.07259918,-0.19150676,0.13161032,0.18012677,-0.12910764,0.063078046,-0.093421414,-0.040469144,0.11654168,0.038178217,-0.025790544,0.1279382,-0.13681196,-0.018624116,-0.07931795,-0.19179907,0.21781525,-0.1560989,0.19687945,-0.07830753,0.11548958,-0.18323362,-0.039370395,0.08959507,-0.03643101,-0.18095988,0.16621375,0.06403993,0.043509725,0.2387627,0.10868581,-0.15241998,-0.17726183,0.19976547,0.12679723,0.020855237,-0.12501019,-0.092219815,-0.13098788,-0.10718199,0.10399953,0.18215661,-0.13417758,0.1112198,0.14679845,0.22894448,0.07455582,-0.07887731,-0.0062066307,-0.16069825,0.124341495,-0.24055229,-0.03907249,-0.06541924,0.13803251,0.112745546,-0.03652353,0.20012061,0.031246005,-0.03129066,0.08099496,-0.06930632,-0.034370616,-0.018695941,0.23312685,-0.059633005,0.0834403,-0.064438686,-0.23377325,0.09548823,0.19914697,0.1630794,-0.13319023,-0.19383262,0.034316346,-0.02466155,0.07579013,0.16577476,-0.12810586,0.19667141,-0.1208347,0.20662637,0.22322081,-0.15553504,0.2348812,-0.22430985,0.20132336,0.039983094,-0.032868452,0.14218652},
{-0.028522452,0.006083124,-0.0476101,0.0034633721,-0.04535335,-0.18906109,0.021657594,0.06506203,-0.015828747,-0.18744412,-0.13383041,0.21890754,-0.16520064,0.022075303,-0.01370861,0.10187853,-0.17209747,0.22016998,0.06638467,-0.16524027,0.10638122,-0.16080129,-0.0076767546,0.19259894,-0.00037082954,-0.03515068,-0.01943878,-0.19620524,0.1738616,0.019809311,-0.00028632712,0.102620155,-0.019040558,0.15728234,-0.029850706,0.14455777,0.17542303,-0.11335537,0.14130268,-0.15868765,-0.15392818,-0.061507937,-0.061488748,0.07054948,0.24503334,-0.00093163503,0.0051774597,0.18915965,0.078410104,-0.14850658,-0.119745485,0.09936677,-0.18775167,0.14324237,-0.18644886,-0.08382906,-0.002312388,-0.061205484,-0.074652486,0.16238949,0.09385954,0.011462086,0.119692735,0.10106955,-0.04855509,0.10898187,0.12470925,-0.15083362,0.0028194862,0.14827988,0.07147212,0.0028174797,0.056230117,-0.130845,0.13737366,-0.1548845,0.07471942,0.23742636,0.14523695,0.05004407,0.13359597,-0.19610134,0.1633019,-0.04661956,-0.06366712,-0.13823655,-0.013725092,0.06992477,0.10265651,0.19572328,0.12465096,0.0033461656,0.0014633294,0.0983309,-0.12156414,-0.17551929},
{0.1707862,-0.12601207,0.07818351,0.0075417375,-0.11718494,-0.15152086,0.081814304,-0.14557658,-0.22960845,-0.121572174,0.14415558,0.0076203076,0.029079467,-0.22040257,0.04022805,0.03786159,-0.18330413,0.077021904,0.0012432212,0.018256366,0.14512026,-0.14669415,0.09712931,-0.04599768,0.068108305,-0.08821023,0.010193555,0.24020876,-0.106080845,0.21392721,0.052855328,-0.1200601,-0.030184291,0.020424306,0.20081632,0.08354411,-0.20691504,0.061621293,0.17318346,-0.17069532,0.18308403,-0.20876789,-0.003723467,0.014579975,0.11265936,0.060415436,-0.21742187,0.10076192,0.07709107,-0.05549341,0.15967976,0.0044360305,0.23373996,0.17265007,-0.07264189,-0.244305,0.13911732,-0.20348239,-0.021685803,0.075331256,-0.17107832,0.04578354,-0.05913198,-0.1179274,0.018608294,0.026803013,-0.029037016,0.012321304,-0.058770835,0.13606608,0.165006,-0.09494632,0.03432934,-0.20269626,0.029294526,0.13800889,-0.16954008,-0.19028243,0.17511569,-0.070132464,0.07629204,-0.069680035,-0.1093744,-0.13346311,0.09023198,-0.08045487,-0.07364701,0.1643174,-0.12849483,-0.17918265,0.15737706,0.038977444,-0.020310448,-0.11192857,-0.21068802,0.15147406},
{-0.18991657,-0.05796699,0.11519796,0.027307754,-0.1802092,-0.1311064,0.042268135,-0.13692296,-0.029244578,0.041438963,-0.070509076,-0.11381157,-0.1978167,0.10108875,-0.13964494,-0.10223873,-0.07942493,-0.13391395,-0.009803316,-0.11861818,-0.1870838,0.058888584,-0.13826585,0.07255291,-0.005579504,0.00060647936,-0.12700397,0.011475119,0.049458623,-0.074121684,-0.12214335,0.09357957,0.021723883,-0.12293989,0.06997054,-0.042591568,-0.07505737,0.1854739,-0.124225356,-0.010040331,0.11361307,-0.09490346,-0.122075975,-0.037765402,-0.08471994,0.05339444,0.065671414,0.14762412,-0.02965608,0.04991815,0.056521825,-0.012424599,-0.121997535,0.14436379,0.044024568,-0.063669436,0.030830637,0.0824664,-0.07597204,-0.17162405,0.08628468,-0.18799977,0.08485237,0.12600493,-0.032381028,-0.18991005,0.039210368,-0.010573743,-0.083222516,-0.020863477,0.024648858,0.08823583,0.020749435,-0.040142447,-0.07373807,-0.060629137,-0.0675253,0.08732778,0.048638836,0.14291759,0.14240204,0.08969239,-0.1814779,-0.18318424,-0.066296734,-0.12727788,0.012559035,-0.0034331705,0.09892962,0.05625679,-0.0748492,0.06139411,0.04555665,0.08393676,-0.07396373,0.13037667},
{0.16531467,0.014661589,-0.16267306,-0.12666456,-0.16194676,-0.059737172,-0.073323764,-0.062589005,-0.035498124,-0.00927143,0.09497788,0.047425237,-0.07836124,-0.1346032,0.14702053,-0.17624615,-0.064117506,0.03137827,-0.16103292,0.052228678,-0.21114895,-0.018198252,0.12812991,-0.013810469,0.14045185,-0.00050588045,-0.16918936,-0.034071986,0.2033515,-0.08003097,0.04338098,-0.17415786,-0.055937506,-0.20004804,-0.20283088,-0.18276851,-0.1622679,0.0454083,0.024608659,0.17352675,-0.13275526,0.18766542,-0.117641844,-0.1538884,-0.13067512,0.15269463,0.0015591392,0.15651993,0.1708573,-0.123935506,-0.16590917,0.039779313,0.22023688,0.099469766,0.20604241,0.15989615,-0.037863303,0.017712347,-0.01381601,-0.0633402,0.16686036,0.18840663,0.08961394,-0.18336819,0.15833655,0.1892942,0.0076089944,0.19892013,-0.04536835,0.11060109,-0.14032853,-0.104166016,0.10630549,0.04647567,0.21346284,0.1146458,0.11658605,0.1374286,0.07820326,-0.02171297,-0.02404438,-0.09944233,0.11379425,0.058018193,-0.049996037,0.13959126,-0.122274905,0.20878801,-0.22839956,0.23863408,-0.077398844,0.022968313,-0.1703602,0.037291005,-0.084843166,-0.09099543},
{-0.16077667,-0.0045723,-0.15165514,-0.0148212835,-0.10069261,0.12401256,0.04238882,0.044747274,-0.1409201,0.1818624,-0.053080324,0.17379719,-0.12866673,0.006012533,0.1306927,0.06570697,0.009194373,0.09967104,-0.109192595,-0.005665493,-0.053131536,-0.17023467,0.08472306,0.03169764,0.10370448,0.0924666,-0.15844472,0.123474054,-0.13295309,0.02409906,-0.12542017,-0.1237711,0.14185174,0.07374203,-0.059595928,0.1301179,-0.047105435,-0.021646053,-0.017995559,-0.0074554943,0.22831114,-0.19186454,0.07556577,-0.024759946,0.057637203,0.14553192,0.1117532,0.054251205,-0.056809314,-0.13118209,-0.105332226,0.00539459,-0.13679534,0.15709281,-0.16154782,-0.023489656,0.07205767,-0.0374806,-0.23626281,0.097906575,-0.2054658,0.16587749,-0.109874785,-0.08503073,-0.1186122,0.008122931,0.07699166,0.052179288,-0.15368196,0.16900012,-0.08062502,0.16681549,0.14384776,0.19321434,-0.019651989,0.103809536,-1.3835612e-05,0.15329742,-0.21664448,-0.11774261,-0.0958036,0.17935926,-0.05118308,0.1311726,-0.10246754,0.051648006,-0.030789262,0.21402198,0.06180361,-0.13680921,0.09902816,0.16821626,-0.11233932,-0.13684458,0.12037632,0.029695442},
{-0.1476097,0.011896979,0.07241676,-0.08018717,-0.013031508,-0.043337893,0.048710886,-0.09772807,0.19516917,-0.1633933,0.06905368,0.0585611,0.23412094,-0.04913066,-0.070501,-0.119615555,-0.10921198,0.20117967,0.10164683,0.22301152,0.016951386,-0.044804372,-0.081709675,0.15985012,0.04412271,0.1457934,0.07142141,-0.056752905,-0.032459527,-0.09742794,0.053719826,-0.1629256,0.23216674,-0.12687199,0.06637928,0.20913187,0.03322905,0.09844565,0.10258406,-0.0983956,0.02722249,0.04770007,0.15609936,0.17820567,-0.14478117,0.17621712,0.22647852,-0.11233813,0.005408964,-0.05470076,-0.0270997,-0.09214467,0.15118027,0.21623021,-0.010118013,0.20902102,0.08381694,0.25373563,0.12578633,0.02304905,-0.09044346,-0.19651419,0.092062734,-0.07576305,-0.07934519,-0.115875766,-0.07162288,0.13773479,0.20131566,0.010930883,0.10834239,0.13426478,-0.008150399,-0.11514378,0.16153826,0.20877789,0.07478323,0.04505277,-0.037604745,0.01983344,-0.1386464,-0.09314765,0.24099526,-0.089643754,0.039957855,0.014351292,0.22022983,-0.10471334,-0.095708035,0.08759537,-0.07698357,-0.040953662,-0.08464168,0.0153892655,0.0013511169,0.027138755},
{0.07690902,-0.11505355,-0.048133872,-0.06181006,0.123293184,-0.1408538,0.035269767,-0.18910137,-0.06472588,-0.04570065,-0.07407362,0.12561099,0.20227994,0.005480905,-0.023378197,-0.08885909,-0.042905353,0.0027590734,0.08697383,0.056097027,0.20178394,0.13655457,0.035486996,-0.1768932,0.06535584,-0.04774162,0.08351658,0.1543835,-0.15116453,0.03462302,0.13727306,-0.095357485,0.03634487,-0.027244842,0.08821811,-0.16458496,-0.14117551,-0.118365265,0.08527321,-0.08158152,0.09862238,-0.2044498,0.06756984,-0.13940917,-0.06632684,-0.20526057,-0.13092434,-0.12452919,-0.07630313,-0.1431837,0.082841605,0.18852371,-0.03435966,-0.1661711,-0.016762964,0.017056713,-0.0006156056,0.037233725,0.0075482638,-0.046507645,-0.20864728,-0.20269881,-0.062273443,-0.117058754,-0.08617329,0.04911858,-0.1794027,0.10195405,-0.15545319,-0.07299957,-0.10802918,0.21100879,0.22125854,-0.107386544,0.044969205,-0.008190011,-0.14844605,0.10598042,-0.0589504,-0.027757633,0.0783821,0.07834257,-0.13711548,-0.15441504,0.081364356,-0.040024374,0.09821535,-0.03853812,0.15601535,0.17238262,0.23257455,0.11858217,-0.04400464,0.087370545,0.14632525,-0.0445218},
{0.21205707,0.1841628,0.14207433,0.09591637,0.21372612,0.10819049,0.03600019,-0.17382032,0.19254974,0.20170245,-0.14042117,-0.20624346,-0.16079272,-0.1592545,-0.124587595,-0.13401745,0.22279081,0.09308349,-0.1137554,0.20580329,0.09213549,-0.14392604,0.15247397,-0.008088532,-0.014102278,0.17561801,0.19706158,0.1494925,-0.07864348,-0.038749326,-0.13816385,0.14826423,0.06513476,0.15142943,-0.013825384,0.18669352,0.0476028,0.044672318,0.059705228,0.19281057,-0.15465017,-0.15079649,0.11601227,0.037824165,0.17195497,0.12231797,-0.14629422,-0.10978095,0.16862027,-0.11015395,0.077222176,-0.093451366,-0.0686338,0.0866932,-0.056451187,0.15287355,0.08128831,0.2424556,0.18628237,-0.13721813,-0.06983206,-0.14482412,0.17272837,-0.13855505,0.22372025,0.120777085,0.20116432,-0.118286796,-0.120447986,0.08101195,-0.05250677,0.10315034,-0.027413879,-0.114250176,0.024088258,0.06534944,0.17978783,-0.06367539,-0.11052808,0.15815805,-0.061868828,0.16075088,0.184285,0.14090276,-0.1758511,0.101306856,-0.110446855,0.15898016,-0.08593777,-0.08391618,-0.04351418,0.13155144,0.03280043,0.010448413,-0.15424226,-0.06373486},
{-0.091299936,-0.045589384,-0.11301397,0.110186644,-0.012516922,-0.025762817,0.19428766,0.16272874,-0.12098723,-0.062337212,-0.101268716,-0.118629314,0.1257243,-0.2051488,0.058964457,0.10788046,0.19893607,-0.16810325,-0.0025336947,-0.08016163,-0.027175415,-0.009871161,-0.11508106,-0.04990176,0.17126487,0.17322434,0.2115248,0.11808721,-0.14986168,0.22972806,-0.13346076,-0.10223924,-0.13895085,-0.18223245,0.15791553,-0.19062579,-0.013922841,0.028258473,0.12992121,0.116464,-0.14587566,-0.052959565,-0.1300618,-0.04788155,0.18652911,0.13229832,0.024245393,0.13353182,-0.14595224,0.11962039,0.17532277,-0.13397188,0.006044452,0.08293546,0.08938487,0.12563866,-0.11367719,0.22842826,-0.20716469,-0.053167924,-0.049693745,-0.056500595,-0.10068761,0.041497592,0.088989355,-0.16974467,-0.10890141,-0.035757806,0.11993577,-0.14579879,-0.082777224,0.22782823,-0.0879782,0.17546193,0.17095849,-0.11926662,-0.01573829,0.09909723,-0.1074747,0.15838546,0.15825267,-0.057479918,0.20927234,-0.048316546,-0.02407085,-0.046111636,-0.083825424,0.078177124,0.19250515,-0.091614,-0.17949307,0.1658535,-0.1578342,-0.05387161,0.1841298,-0.14560199},
{0.15978749,-0.11258074,0.028687622,-0.15873007,-0.17466597,-0.0083277505,-0.06270786,0.16547112,-0.00012278437,-0.07185569,-0.10544182,-0.16892837,-0.20312566,-0.21238509,-0.199116,0.07508051,0.06463084,-0.20942894,-0.15420294,0.1738487,0.10609204,-0.13233833,0.11368993,-0.06611173,0.17242655,0.07239114,-0.010883659,-0.17040817,-0.13431954,-0.10718111,0.10901573,0.17771563,-0.08688034,-0.098503,0.07819648,-0.008482671,0.021586074,0.017070208,0.17642571,0.017924573,-0.1829465,-0.17154254,-0.049335647,-0.14168617,-0.09622939,0.17319445,-0.07190934,-0.109151006,-0.107656516,-0.106631964,0.16188754,0.004139371,-0.20914303,0.08389972,0.16413625,0.16606155,0.1826857,0.05979793,-0.093726665,0.20338129,-0.13059023,0.06379653,0.119023524,0.06672788,0.06231198,-0.20126344,0.088874035,-0.15896438,-0.07819763,0.062108807,-0.22483401,-0.049652945,-0.21690239,-0.03938265,0.08641262,-0.16857482,0.16148202,0.14122365,-0.16291048,0.004408566,0.020105748,-0.009273646,0.11770594,-0.10343535,0.13538206,0.16366062,-0.06357401,0.08320497,0.026066616,0.044017658,-0.17343657,-0.17822596,-0.014833149,0.06491285,-0.10935626,0.06388403},
{0.033020932,-0.08403429,0.24685398,-0.047994208,-0.18151626,0.022107268,-0.08361119,0.2131418,-0.15483966,-0.07120875,0.076350436,0.24504077,-0.11938904,-0.011173677,0.029052451,-0.10519243,-0.039371535,0.04823254,0.10681051,-0.012630303,0.12536286,-0.13800079,0.15070844,0.054189056,0.044822622,-0.11481734,-0.12543908,0.08716488,0.19279842,-0.18454358,0.14167929,-0.14934973,0.14701778,-0.15449674,0.1345733,0.014780642,0.16988447,-0.03364687,-0.06101432,-0.034728836,-0.019851387,0.22767432,-0.106906064,0.08899671,0.25302234,-0.15770042,0.08203518,0.1222545,0.22029851,0.13357945,-0.10460328,-0.15889993,-0.019482238,0.13777903,-0.024243433,-0.10117954,-0.06641809,0.13535877,0.06875257,0.028538533,0.15335399,0.17438073,-0.049559075,0.21052033,-0.102313325,0.09610144,-0.17761296,0.14731912,0.030126227,-0.06881192,0.058709655,-0.025689412,-0.04653456,0.1358355,0.017112602,-0.08575091,-0.09836782,-0.115016945,0.012016063,-0.16561094,0.05873214,0.11140463,0.13129072,-0.11950412,0.08295973,0.07296472,-0.060013186,-0.05081151,0.0384681,-0.13792907,-0.14851804,0.12554961,-0.15115842,0.0034233914,0.24760471,0.05007767},}