#include "hls_stream.h"
#include "ap_int.h"
#include "hls_math.h"

#define INPUT_SIZE 192
#define HIDDEN1_SIZE 96
#define HIDDEN2_SIZE 48
#define OUTPUT_SIZE 4
#define QUANT_FACTOR 1

struct AXIS_wLAST{
	float data;
	bool last;
};

float relu(float x) {
	if (x >= 0) {
		return x;
	}
	return 0;
}

float dot_product(float a[], float b[], int n) {
	float sum = 0;
	for (int l = 0; l < n; l++) {
		sum += a[l] * b[l] / QUANT_FACTOR;
	}
	return sum;
}

void MLP2(hls::stream<AXIS_wLAST>& S_AXIS, hls::stream<AXIS_wLAST>& M_AXIS){
#pragma HLS INTERFACE ap_ctrl_none port=return
#pragma HLS INTERFACE axis port=S_AXIS
#pragma HLS INTERFACE axis port=M_AXIS

	float inputs[INPUT_SIZE] = {};

	int i = 0;
	int j = 0;
	AXIS_wLAST read_input = {};
	AXIS_wLAST write_output = {};
	
	float layer_one_bias[HIDDEN1_SIZE] = {0.030568436,0.013843223,0.024242274,0.0011492714,-0.012376693,-0.003951476,-0.009758265,-0.01915473,0.034987845,0.0010990017,0.025001008,0.04236268,0.029120732,-0.0063985754,0.034930773,-0.021681622,-0.013636954,0.047219627,0.009925758,0.030054435,0.015003598,-0.023547743,0.028449804,0.022859052,0.040213868,0.052342705,0.033129144,0.01999318,0.02937051,0.035101596,0.023945037,-0.0139141455,0.039222635,0.027277626,0.039090157,0.027925225,0.04477802,0.023906376,0.0074379304,0.04663295,0.038080096,0.04521165,0.039852496,0.03422215,0.024038088,0.026689552,0.04165943,0.034409016,0.021916978,0.012577044,-0.02372853,-0.0093292035,0.037016075,0.033275,0.033664037,0.038590837,0.0035166524,0.048031833,0.015096757,-0.004602952,-0.03362593,0.03347512,0.0402649,0.013584164,0.026443802,-0.00061949785,0.028458651,0.032462016,0.0046466608,0.011161477,0.03182592,-0.0003499006,0.037156515,0.03767146,0.010231569,0.029999334,0.038654193,-0.015734361,0.015631596,0.033763267,-0.018601924,0.026731139,0.0352324,0.030584991,-0.013657099,0.035896737,-0.0054787626,0.018080408,0.009840652,-0.013085237,0.022986123,0.007523565,-0.0033603287,-0.024907634,0.018894322,0.004250125};

	float layer_one_weight[HIDDEN1_SIZE][INPUT_SIZE] = {{-0.07790776,0.087276116,-0.083004676,0.12485288,-0.05190657,-0.07545766,0.11682363,0.022669893,-0.018193206,-0.114950456,-0.1259129,-0.12193056,0.045799434,-0.032877155,0.06246493,0.10299985,0.004791224,-0.09704763,-0.08316569,0.024991976,0.1353032,0.012932541,0.13423078,0.13217033,-0.095651776,0.06667248,-0.0885546,-0.06881125,0.068123594,0.08378748,-0.03567116,0.028524918,-0.14103654,-0.13091482,0.079036914,-0.13252656,0.079191476,-0.06516123,-0.10850478,0.09481228,-0.12882921,-0.13914146,-0.11563339,-0.039749283,-0.093605585,-0.050906647,0.10204767,-0.13768408,-0.12547295,-0.169273,0.051933497,-0.109121196,-0.13277723,0.07382201,0.07331353,0.006327084,-0.106315635,-0.031914495,0.025175083,-0.08219848,-0.043306723,0.021859609,0.10200944,-0.038856275,0.1012424,0.11481952,-0.16523145,0.15310434,-0.14097533,-0.018032428,0.08171449,0.0018244373,-0.08062262,0.0137024755,0.05013697,-0.0053327265,-0.061501924,0.1412529,0.050540116,0.12524274,0.023533227,-0.11551427,0.007766792,0.16139647,0.008488139,-0.048885692,-0.10251545,-0.019109368,0.08261804,-0.010463511,-0.0014848965,-0.12394499,0.08909307,0.059198197,-0.009892613,-0.10896077,0.039510015,0.0035761031,-0.009607383,-0.053318914,0.13465977,0.14461304,0.028567947,0.024356226,-0.06306487,0.03551985,0.018800955,-0.10319433,-0.103026725,0.029809415,-0.15023153,0.02974628,0.10003249,-0.0006419191,-0.11916331,-0.12801978,-0.12864812,-0.122427545,0.024109261,-0.0018569966,0.06743672,-0.09996753,-0.14889674,-0.09792325,0.050789014,-0.024272678,0.050043058,-0.17997693,-0.068074614,0.06308185,0.089556955,-0.061277702,-0.12095121,0.03964428,0.12510335,-0.06196395,-0.060974002,0.15307984,-0.03719767,-0.05154057,0.07122553,0.0481258,-0.09163986,0.08099457,-0.097076,-0.024053112,-0.06267779,0.098088086,0.11626318,-0.0671244,0.025998984,0.057957903,-0.032490645,0.105655424,-0.107604586,-0.06991037,0.11363143,-0.04481102,0.054488126,0.17332417,-0.0028356542,-0.01832727,0.05690932,-0.09321454,0.15955435,-0.052737497,0.14619549,0.13587768,0.15629971,-0.07508878,0.15119424,0.077222496,-0.07713352,-0.11069732,0.15567839,0.04466747,0.0042557567,0.08396486,0.043193396,-0.009789692,0.053947326,0.15525073,0.13824777,0.113014795,-0.10580238,-0.05734579,-0.10119376,-0.015892265,-0.072214015,-0.052985877,0.08756456,0.14888546},
			{-0.022433855,0.079683304,-0.1431815,-0.14738432,0.13949989,0.1179622,-0.08200913,0.15514702,0.09838531,-0.10491347,0.1517368,0.08318576,0.14797074,0.081106305,0.013150157,0.17732812,-0.012864547,0.005664774,-0.10968652,0.04037056,-0.041776724,-0.073218204,-0.032174394,-0.10036281,-0.017800232,0.028164292,0.031960286,0.0750514,0.0019189428,-0.012480668,-0.08696861,0.010000724,-0.06789012,0.041478604,0.0071445834,-0.13963985,-0.021489508,-0.015241582,0.047187652,0.0070656505,0.059980325,-0.013211399,0.0432983,0.050525907,0.024543632,-0.07593115,0.01410298,-0.026634593,-0.023466716,-0.053235557,-0.12328087,0.008046522,-0.057812117,0.036088742,0.0072285347,-0.037948117,-0.07963304,-0.0632448,-0.02864453,0.07748826,0.0322099,0.054142017,-0.12255916,-0.07741042,0.080659606,-0.16526915,-0.088341035,0.011640067,-0.06954322,0.0680977,0.033221904,-0.16390805,-0.015956609,-0.12102042,0.096982665,0.029136425,0.15863723,0.04798317,0.032461625,-0.027516218,0.020370446,0.16434117,-0.06842457,0.08201402,-0.006520207,0.1273578,-0.10708162,0.17090239,0.1529689,-0.04970054,0.013207811,0.15204398,0.01998266,0.09007124,0.093476586,0.038736966,0.15844476,0.12991312,0.14783345,-0.101169735,-0.09139504,-0.024247713,-0.0445581,0.108217515,0.17749912,-0.105006754,0.17124836,0.08460119,0.014829347,0.09949272,-0.03907282,0.17872985,-0.007862269,-0.08444966,0.02003148,-0.03253486,-0.07034724,0.021451179,0.1658672,0.14589003,-0.033287026,0.06412209,0.05189464,0.14295149,0.09336694,-0.08162621,0.11301718,0.17329079,-0.04486124,0.022642592,-0.0768912,0.012499917,-0.017487718,0.09538301,-0.06842597,0.018715853,-0.08279056,0.0120651405,-0.030754156,0.040332403,-0.048709348,0.0018551353,-0.0075357147,-0.146708,0.067539744,0.059032254,-0.08833431,0.047619868,0.080241114,0.021098677,-0.075601235,0.086535,-0.07511865,-0.021360423,0.12071153,0.12561305,-0.13907693,-0.12628026,0.10514567,-0.0345366,0.09766797,-0.09673708,0.03969944,0.04953074,-0.10278389,-0.08377699,0.15041254,0.037681602,0.16023302,-0.08582252,0.013424135,0.13574253,0.08276588,-0.059119478,0.16789983,0.0630142,-0.045029115,0.14440721,0.1780492,0.07493849,-0.0401413,0.18921284,0.07539572,0.0103301415,0.053346507,0.049747977,-0.0031612825,-0.02106471,0.039911076,-0.07923831,0.12326754,-0.056945294},
			{0.077780195,-0.061459538,-0.03781438,-0.021647554,-0.012938086,-0.07330005,0.09119881,-0.067835756,0.017120223,-0.13411805,-0.16017866,-0.043688897,-0.0063269413,0.058553137,-0.050786737,-0.14701386,-0.09883177,-0.0640239,0.04021165,0.054968055,0.051948626,0.06422363,-0.12140507,0.05553101,-0.15091534,-0.00039375023,-0.017538691,0.09992631,-0.0584045,-0.06664685,-0.015897447,0.04582419,0.080696285,0.052412026,-0.10426648,0.0131796505,-0.022432072,0.1226701,0.049720712,-0.028797835,-0.1296126,0.07665007,-0.13184445,-0.095806226,-0.03712596,0.040421486,-0.099268004,-0.053142462,-0.057371937,0.10462261,-0.03995421,-0.050646324,-0.07466068,-0.08693344,0.020581493,0.016058275,0.02711914,-0.14687306,0.08580773,-0.052318033,0.057668924,0.07506651,-0.017562617,-0.023999382,-0.1202011,0.007587646,-0.14517383,0.031743,-0.059350375,-0.0009056267,-0.068564415,0.07380892,-0.08427511,0.14473319,-0.08521972,-0.05675449,-0.023691174,0.0006853016,-0.07164646,0.071452565,0.076370515,0.00046505296,-0.10123038,0.066354975,-0.10815699,0.097377285,-0.14458306,-0.02478024,-0.03129173,-0.008947992,0.04957545,-0.027409796,0.15493473,0.07875138,0.049112637,-0.070864305,-0.09990357,-0.051654685,0.12512755,0.016690593,-0.062161293,-0.040910676,0.058181483,-0.04211006,-0.1420219,-0.10409096,-0.05609514,0.05582956,0.024537558,-0.1254121,0.15524969,0.020649018,-0.063887455,-0.028516209,-0.020232763,-0.058650948,0.10325981,0.1540742,-0.087823465,0.03531138,0.16325374,0.05882225,0.103585154,0.0107363025,-0.032025293,0.10400279,-0.012635464,0.0051916717,-0.1090006,-0.1367824,0.055541944,-0.114152305,-0.011389499,-0.12327513,-0.0832737,0.03460354,-0.10664602,0.035389923,0.034305528,-0.041980553,-0.13018627,0.05758659,-0.111175604,-0.055515885,0.1262916,-0.13013776,0.03176569,-0.09584753,-0.015913377,-0.10517882,0.029350087,-0.032582674,-0.13923416,-0.13114615,0.06756456,-0.029730143,-0.04220003,0.12690274,0.061370052,-0.08410789,0.10320615,0.017032076,0.09367923,-0.1439382,0.11091688,-0.1634867,0.059464123,-0.05730213,-0.12713255,-0.15375866,0.05106008,0.104311764,-0.09489105,0.034279443,-0.03138206,0.12885864,0.000817201,0.06054031,0.12198038,-0.0009144428,0.030101685,0.06433444,0.15560102,0.15826634,0.12075938,-0.023771783,0.072345495,-0.011495758,0.14689735,0.1630481,-0.102882326,-0.06525944},
			{0.07218531,-0.14067139,-0.080656625,-0.11364966,0.0751461,-0.032625347,0.12379155,-0.09171761,-0.025472607,-0.13089405,0.02429877,-0.042684235,0.010405856,-0.098694205,0.1629629,0.10758743,-0.05284632,0.02913594,-0.058270235,-0.085473664,0.0860346,-0.10191374,0.006217914,-0.12125531,-0.10646725,-0.056106757,-0.0532044,-0.09286937,0.037882067,0.1129099,-0.07362196,-0.10013322,-0.037268702,-0.026537174,0.13603123,-0.11166795,-0.007474758,0.07721949,0.0058881603,-0.002282236,0.100690626,-0.02066627,0.087500975,0.0048543266,-0.08291049,-0.065292336,0.06145836,-0.05128493,-0.102269605,-0.031284276,0.110876255,0.024867976,-0.14078782,-0.09685436,0.054527495,-0.10691833,-0.019479664,-0.14022586,0.021650592,0.081911154,0.004380187,-0.029329777,-0.085432574,0.019843005,-0.08246327,-0.044656094,0.11099713,-0.02933899,0.081271544,-0.15699227,0.048591573,0.04723202,0.15888111,-0.052268814,0.10019916,0.12290867,-0.0038765508,-0.034447063,0.08400719,0.069847204,-0.012670675,-0.113462575,0.10703566,0.09371325,-0.035030168,0.00016371385,0.10299571,-0.029899685,-0.020891156,-0.006574319,0.12987159,0.14426072,0.019099921,0.13946798,0.07440753,0.03404691,0.056301285,0.11564747,0.012473265,0.1543189,0.025289318,0.051114656,0.1284574,0.07173203,0.07686621,0.09661308,0.05659707,-0.075588055,0.07021973,-0.00590655,0.1055761,-0.08130587,0.07917233,0.15053023,-0.04311801,0.046883006,-0.05187413,-0.079243176,0.023231804,0.0011303775,-0.05377478,0.02723798,0.16574742,-0.102132045,0.021109274,-0.04123943,0.01901232,-0.036902048,0.16508146,-0.08044049,0.08766559,0.14448015,-0.09149636,-0.06576603,-0.11735637,-0.10039738,0.07229197,0.07035874,-0.009398663,0.048942443,-0.08557506,-0.0046328492,0.08519369,-0.1387328,-0.11354253,0.059189428,0.1261134,0.124259174,-0.08098165,-0.089133695,-0.0394565,-0.0038050294,-0.15509206,0.11781762,-0.08113867,-0.011380773,0.102340475,-0.010844809,-0.12058671,-0.051624034,0.03189586,-0.146522,0.029256385,-0.0038743347,0.1260234,0.058880985,-0.10774612,-0.03837676,-0.06166502,0.15303673,0.17014578,0.17560422,0.09912838,-0.108220264,-0.10327581,-0.02049105,0.0372555,0.12962088,-4.3095497e-05,-0.073401906,-0.0775157,-0.0235305,-0.058961224,0.10818536,0.17270164,0.059657764,-0.05718664,0.019149736,-0.10281534,-0.078998044,0.040995844,0.05417305},
			{0.10180972,-0.12776439,0.08275399,-0.13250537,-0.00932041,0.051973652,0.146133,0.1332039,-0.109210074,0.039090395,0.14273325,0.15771057,-0.10319995,-0.052311674,-0.09034151,-0.09410128,0.13644809,0.0016724184,0.0026481622,0.06456732,-0.10345395,0.09778341,-0.028840454,-0.05377756,-0.11746624,-0.10559494,-0.107106164,-0.09460021,0.06861816,-0.14122085,-0.011871679,0.011572341,-0.09233037,0.044062536,-0.114685565,0.09709114,0.109840505,0.001706799,-0.014203517,0.13800631,0.006418,-0.006891617,-0.047478244,0.09233721,0.0730148,-0.103296585,0.031366486,0.033090293,-0.09138232,-0.06030986,0.0068643177,-0.122742996,-0.12371393,0.08198132,0.09318478,0.09330081,0.048919052,0.00084618025,0.1361226,-0.1173739,-0.09576825,0.03380234,0.08434139,0.011289799,-0.004620317,0.115732834,0.021129068,-0.045493282,-0.019453175,0.022586793,-0.05477413,0.08984984,0.03374885,0.07472844,-0.13360652,-0.09391423,-0.1240365,-0.029299824,-0.14088549,0.033210896,-0.024407826,-0.024177728,-0.09363099,-0.10665475,-0.065892115,-0.04662061,-0.16857891,0.0017428955,-0.033033766,-0.013122206,-0.15128061,0.12605412,-0.03246296,-0.08616016,0.05666277,0.01591136,0.063350365,0.046522755,0.0024898665,0.097173505,0.03528761,-0.118927136,0.12375146,-0.08349042,-0.0040352154,0.1412119,-0.009657572,0.006730126,-0.028573826,0.03224937,0.043386742,-0.02178591,0.03704076,-0.05228153,0.04931442,0.03899089,-0.07327357,-0.11536212,-0.08640897,0.15491414,-0.022763014,-0.00036221163,-0.0053915572,-0.060859196,0.1431648,-0.11196557,0.09086754,0.029910821,0.034387514,-0.07089382,0.075324245,0.08540489,-0.14719218,0.1070195,-0.016287327,0.101905584,0.1030222,-0.13015363,0.01748699,-0.07991668,-0.16362211,-0.15896371,0.027589783,-0.12335969,0.011696619,-0.103953905,0.0508285,0.014484842,-0.110024616,-0.0489995,0.083430625,-0.14542954,-0.04803576,-0.015531846,0.049979158,0.09223884,-0.15070644,0.09536387,0.08146179,0.07958654,-0.038945206,-0.14537337,-0.02950912,-0.080787376,0.12410475,0.10953747,0.08782355,0.18871546,0.17576444,-0.042377017,0.098013565,0.051332444,0.06792144,-0.009012195,-0.06845732,0.15014744,0.12897451,0.048475582,-0.00831542,-0.07011804,0.075501435,-0.08827719,0.15198842,-0.037137177,0.10037537,-0.06035464,0.018236222,0.18992089,0.09820682,0.0703122,-0.081059426,-0.05864867},
			{-0.13980871,0.0861872,-0.13836046,-0.0422266,0.057242174,0.048110686,-0.090208285,0.027143361,-0.08050239,-0.092493035,0.069617875,-0.0917409,-0.03862973,-0.13514017,-0.0478367,-0.036765326,0.11966013,0.012816428,-0.13198216,-0.08630978,-0.011692729,0.09731,0.059956517,0.091865644,-0.09285617,0.012905541,-0.02848926,0.03955999,-0.09984503,-0.07879512,0.10774003,0.07092552,0.11213742,-0.11527636,-0.12524313,-0.08799039,-0.1266219,0.08041006,-0.029063003,-0.014340584,0.009793416,0.021825278,0.043467697,-0.093685456,-0.04302934,0.06147081,0.01974011,-0.010676015,-0.024452914,-0.01716496,-0.10973423,0.14667225,0.022081286,-0.12830608,0.008297945,0.117113374,0.106408715,-0.111190565,-0.07632637,0.13803655,-0.014223718,0.09274263,0.089352876,-0.039484244,0.12072847,0.06421666,0.045408,0.09335885,0.07141223,0.1315853,0.09270884,-0.11158336,0.10025862,0.038380563,0.08545165,-0.114229426,0.078321196,0.006369621,0.035218038,-0.13997023,-0.030279398,-0.018274192,0.014626566,0.05458508,-0.070273325,-0.039333206,0.025326476,0.04614802,0.09323016,0.11206221,-0.11673136,0.0601582,0.08386868,-0.08499894,-0.01783101,0.12161309,0.0635449,-0.016680572,0.043349415,-0.0052448013,0.10578506,-0.11874174,0.07852588,-0.061445523,-0.12802836,-0.010278756,-0.017671434,0.12784602,-0.015651148,-1.06276275e-05,0.046550676,0.08374586,0.009268615,0.031097446,-0.13662332,0.12149236,0.0045018382,-0.02902864,0.083066285,0.1332818,-0.032044936,-0.035158213,0.11777616,0.0844385,-0.08655665,-0.055843227,0.075598024,0.102729134,-0.066015825,-0.043940242,-0.049671944,-0.16182622,-0.06797242,0.07111961,0.044545002,-0.04494054,0.029941076,0.054742005,-0.04055114,-0.11847251,-0.07668986,-0.10746044,-0.051059414,-0.09391993,0.0911692,-0.025262801,-0.049250524,-0.09406749,0.116494894,0.013437208,0.020746825,-0.13783315,-0.010244382,0.0010900693,0.10023248,0.114630975,-0.07234055,-0.020510098,0.10605635,0.1222261,-0.14101785,-0.082598925,0.06474947,-0.072721325,-0.095847026,-0.16038641,0.05329163,-0.13663937,0.021546816,-0.005112916,0.07460819,-0.14219306,0.094343185,-0.03745085,-0.106471546,-0.026330398,-0.081482366,0.0827921,-0.00029076933,-0.065929726,-0.1278866,0.002883799,0.018229846,0.022255968,-0.08990006,0.07907151,-0.06147573,-0.123679936,0.04322239,-0.10890887,0.11610082,0.059680477},
			{0.11470147,-0.13749136,-0.013763974,0.017423628,-0.12819177,0.020296808,-0.14846432,0.057100475,-0.09425101,-0.0085184565,0.04219902,-0.024033984,0.09581123,-0.016053827,0.14536168,0.04598789,0.029812498,-0.034416743,0.119891785,0.038170353,0.14156869,0.14985187,-0.018493105,-0.08917662,0.11627348,-6.7232526e-05,0.0011014633,0.0484802,0.17313026,-0.10537683,0.07628763,0.085853696,0.13621148,0.10367958,-0.09823878,-0.0035582294,0.13331223,-0.023902131,0.037413694,-0.036874164,0.1386215,0.124629416,-0.049903452,-0.10465958,-0.0062565235,-0.11214631,-0.078615054,0.11925311,-0.119997166,0.05073371,0.014571929,-0.11769408,0.15351216,0.13198459,-0.006161012,-0.034020286,-0.08163743,-0.11782303,-0.10798258,-0.12336128,-0.11230716,0.1185286,0.09450656,-0.022011308,-0.0001969021,-0.057462912,0.090790495,0.06932879,-0.06878727,0.1209372,0.081239015,0.08106963,-0.099254936,0.021435373,0.009904838,0.100405425,0.046630595,-0.04694007,0.03590383,-0.039513253,0.010601949,-0.10497756,0.061925143,0.10960928,0.0064714807,-0.13666953,0.079516344,0.09954845,0.04972901,0.12012837,-0.04534655,-0.034846876,0.015571338,0.1265994,-0.14318058,0.052415244,0.03699026,0.02215856,-0.044551443,-0.118805476,0.014450949,0.05913183,0.14111415,-0.088135265,-0.068935126,0.10193776,0.12781572,0.00706094,0.16436031,-0.00012725379,0.08176838,0.042319942,0.08300105,0.03369175,0.12455255,0.05597709,-0.0037133503,-0.108140744,0.037984334,0.039659984,0.12979159,0.09941008,-0.044277877,0.058048148,0.07123468,0.073518224,-0.037534676,-0.004343258,0.07892867,-0.10819106,-0.027662959,-0.088319354,-0.045040164,0.10445162,0.06613157,-0.062218737,-0.058271393,0.053108137,0.06559767,-0.026864206,-0.12710288,-0.04557675,-0.033787094,-0.14377052,-0.15907884,-0.15183471,0.050270118,0.077714644,0.03787767,0.101975255,-0.09041699,0.1161049,0.10435973,0.033294965,-0.01470389,0.095304504,-0.0021969916,-0.032043416,-0.09805827,0.060706817,0.040415492,-0.11236778,-0.06795794,-0.048537403,-0.15191981,-0.11223906,-0.13211232,-0.08797221,0.06851396,0.086240195,0.069753446,0.04668312,-0.07783482,0.05202025,0.055094168,-0.027489347,0.0791495,-0.118895315,-0.03675667,0.060831636,-0.1636258,-0.072201595,-0.0625797,-0.14388062,-0.046040058,-0.061301395,-0.05094844,-0.18065885,-0.15896615,-0.14391439,0.08620885,-0.15652134},
			{0.03437158,0.062335428,-0.07416099,0.090897635,0.05368215,-0.04518394,0.0016473025,0.153013,-0.09043407,-0.020565249,-0.10785688,-0.09913591,0.14379409,0.08485134,-0.07074449,-0.0040883124,-0.07816889,-0.050672635,-0.027190285,-0.051357772,0.096465096,-0.018636987,-0.02419181,0.12888348,0.07963723,0.07145583,0.02507998,0.07414397,-0.096585974,0.10410325,0.09025732,0.08818584,-0.025492148,0.14820093,-0.06335841,-0.02331456,-0.11904053,-0.100428864,0.01999203,0.03870289,0.087378524,0.10756245,0.012055886,-0.09884492,0.08648779,0.15514345,0.023794403,-0.1063066,0.15321556,0.16162078,0.014608217,0.08018582,-0.006345245,0.16384645,0.053400677,-0.03125888,0.07805437,0.045062326,0.09842313,0.14674497,-0.06911568,-0.07112639,-0.050901975,-0.04253238,0.15017845,0.15593213,0.023657275,-0.12529093,-0.0998383,-0.05970713,-0.11308409,-0.08293585,0.037179258,-0.07386591,-0.0948972,-0.0320664,0.102010384,-0.0853342,-0.0472718,-0.10895537,0.07189941,0.10389596,0.092978545,0.11338263,0.094455004,-0.07591886,0.04521065,-0.08758558,-0.10373918,0.04496105,0.016836712,-0.016051412,-0.11165467,-0.01996427,-0.08881143,-0.09440388,0.049554717,-0.0065425984,0.1135499,-0.08213984,-0.023186056,0.020339286,0.086320944,-0.060305808,-0.11156343,0.005280884,0.032624062,0.00083922094,0.06509508,-0.0266729,0.028187597,-0.12189811,0.050133616,-0.08673672,-0.09014086,-0.006754614,0.134517,-0.057047937,0.017198913,0.04764485,0.062287953,0.067524366,0.03758736,-0.06444083,0.090470776,-0.078142785,0.06488054,0.06380253,-0.024491586,0.07230581,-0.056205917,-0.13277009,0.12499436,0.071527414,0.0016993494,-0.08960239,-0.1498978,-0.008638181,-0.07149449,0.12238888,-0.074411646,-0.09075025,-0.14839819,0.055718943,0.039998457,-0.020641666,-0.052782662,-0.025028534,0.09146377,0.033877384,-0.01779173,0.11480931,0.080376625,-0.08220582,-0.112706035,0.09376317,-0.14878012,-0.011790098,-0.10185671,0.01591271,0.14383465,0.07084134,0.1204411,0.07782306,-0.032397296,-0.117604144,-0.043161724,-0.15646961,-0.15024653,-0.1519617,0.09235634,-0.067516804,0.03636121,-0.072161034,0.025458612,-0.12634607,0.11549687,0.08959657,0.061194878,0.10718023,-0.0359682,-0.16584957,-0.12588553,-0.12996657,-0.023353485,0.098430716,-0.038891178,-0.16072918,-0.041858476,0.09801632,-0.16059193,-0.16267577},
			{0.049714807,-0.082776144,0.084621474,0.00076678797,-0.032212757,-0.09223772,0.12573674,0.052656453,-0.116189286,0.08135332,-0.14420186,-0.10331091,0.13790032,0.034318235,0.0157541,-0.045189247,0.12209522,0.05548901,-0.058868837,0.053538214,0.0048025018,0.058556635,-0.008110389,-0.07865408,0.028539078,-0.11320042,0.052397847,0.03365297,-0.18626106,-0.061441682,-0.019816715,-0.14519177,-0.10693483,-0.10069449,0.00562195,0.10028273,-0.07447426,-0.073816985,-0.05971319,-0.04039723,-0.10886696,-0.11550131,-0.14877324,0.027353305,-0.14475845,-0.10725329,-0.13046412,-0.13388869,0.05389199,-0.07045369,-0.023251943,-0.1140387,-0.003640341,-0.054946583,-0.12166671,-0.10439641,-0.1014453,-0.0386737,0.07724807,-0.1299882,-0.03557585,0.005777977,-0.07114379,0.0947242,-0.057675954,-0.09023364,-0.053601034,0.010134021,-0.04434323,-0.07009415,-0.039397176,0.064695634,-0.047768887,-0.009305998,-0.13426206,-0.070481405,0.07302,-0.040945224,-0.06279658,-0.06821527,-0.0041845697,-0.12391205,-0.068447955,0.02143923,0.036034524,-0.1410314,-0.08551393,0.11678069,-0.07715397,-0.017136773,-0.0025389714,0.01946432,-0.1485747,0.07905011,0.027836433,-0.14228438,0.13220441,0.054913193,0.030831942,0.07530201,-0.14176387,-0.16480148,-0.03410406,0.11164322,-0.05585302,-0.08336847,-0.1112678,-0.12023658,0.11624596,0.03984882,0.091527104,-0.08591419,-0.014486599,-0.112653516,-0.01858322,-0.043987997,0.1001452,0.027899696,-0.0366334,0.009837205,0.1029343,0.10211134,0.08499936,-0.15203367,0.07252076,-0.038130812,-0.051114354,0.05064834,-0.026442818,-0.009647326,0.043580104,0.10380034,-0.027535716,-0.07049387,-0.008348714,-0.15623719,-0.023732457,0.041337788,-0.07446828,0.0019859672,-0.060750484,-0.16925342,-0.11793993,-0.09275516,-0.15797831,0.071892194,-0.07642094,-0.14296009,-0.0795848,-0.017465133,0.0107087605,0.08425969,0.023708018,-0.11961614,-0.117390126,-0.15428801,0.051134728,0.059814457,0.089323945,-0.14574808,-0.012772582,0.15632525,0.04064243,0.07899748,0.17710334,0.14301127,-0.030342594,0.104946814,-0.05051702,0.11327594,0.09555905,0.078128494,0.03278488,-0.04852721,0.13435638,0.019244775,-0.11215342,0.09996999,-0.07176698,0.018760601,-0.08557649,-0.10767886,0.0984465,-0.09520096,0.046650264,0.01943409,-0.0010313,0.0073056994,-0.071175106,0.15182823,-0.002511491,0.035682216},
			{0.12867829,-0.12355435,0.025232425,0.0075920876,0.021238081,0.08312054,0.052111384,-0.0543041,0.085564055,-0.113184124,-0.09012638,-0.082933396,0.08884832,-0.060067084,-0.0030672231,-0.16139857,-0.069935285,0.11917354,0.13584532,-0.072977364,-0.008691962,0.095358774,0.023370607,-0.030307725,-0.074963145,0.05378894,0.111024186,0.04978601,0.06901969,0.05122647,-0.0094454875,-0.088399306,-0.039353155,-0.10087575,-0.0018436003,-0.12464601,-0.0014499917,0.038088374,0.14222339,0.089153096,0.100346334,-0.033958256,-0.13975482,-0.1455514,0.055954408,-0.09927512,0.0470121,-0.111342035,0.12909287,0.13847353,-0.03624354,-0.009897526,0.054938607,-0.0026691654,0.11436823,-0.060160995,-0.04130999,-0.022927107,0.07705234,-0.020482056,0.08928091,0.11224252,-0.052872144,-0.08273744,-0.042083003,0.061276264,0.12077372,-0.099905096,-0.119777575,0.041599542,-0.061953586,-0.08205126,-0.117232144,-0.09531715,-0.049613446,-0.03085534,-0.04837574,0.019148195,0.11935423,0.14342433,-0.059070405,-0.038605794,-0.065297596,-0.140051,-0.04617755,0.038644668,0.016478859,-0.03658428,-0.027995765,-0.1487276,-0.06518888,-0.061844114,-0.09588492,-0.043472845,-0.080786034,-0.029128842,0.09711701,-0.07430216,-0.066822596,0.053259388,-0.006503222,0.10591532,0.0073243813,0.10784872,0.11955976,0.08657641,-0.119195886,0.042545725,0.027543098,0.0006727669,0.010829887,-0.014225475,0.13054189,0.021899031,-0.0049480475,-0.13549925,0.004465634,-0.039735407,0.09475829,0.084440865,0.11740864,-0.1000603,0.101890214,-0.03814994,0.063888416,0.014461936,-0.112414114,-0.023446636,-0.031117646,0.13784148,-0.06660315,-0.085174315,0.12014528,0.11299458,-0.032770745,-0.013368344,-0.067265056,-0.08347709,0.04958542,0.05041792,0.013536114,0.026586294,-0.071428455,-0.10887136,-0.11519137,0.0839462,-0.113163605,-0.09546074,-0.12413694,0.028127566,0.060040865,-0.13399144,0.06981261,-0.06672757,0.05283039,0.10129998,-0.08410343,0.0913434,0.0151812965,0.07084719,0.09302627,-0.0076771826,-0.095083915,-0.0588513,-0.11196346,0.121433295,0.13258815,0.09025631,0.104942285,-0.0064375177,0.10696873,-0.043783017,0.023163509,0.033205986,0.030878782,-0.051273003,0.0900103,0.059445553,-0.07681941,-0.09162032,0.13381359,-0.043453757,0.14636299,0.14421752,0.106095254,0.08377458,-0.047477238,-0.0052498453,0.13551983,-0.057664506,0.010194746,-0.07617455},
			{0.0365278,-0.13094282,-0.07248592,0.05624126,-0.12965405,-0.059636634,-0.041152943,-0.057233505,-0.12400395,0.06438134,0.016234288,0.093542285,0.11387169,0.15133964,0.018466303,-0.1409217,-0.05958411,-0.120876946,-0.01727474,-0.06064178,-0.13454553,-0.14794652,0.059869613,0.017678255,-0.109643474,-0.12773319,-0.10752559,0.02597369,-0.02741731,-0.002265194,-0.18082654,-0.118212156,-0.027738614,-0.089354225,-0.15102895,-0.16471556,-0.09991266,-0.0038044404,-0.032265175,-0.024653647,0.10527725,-0.042236496,0.07995421,0.07947994,0.016593887,-0.10487535,0.07856962,-0.11773617,-0.010262102,-0.12197484,0.082732014,-0.16870472,0.019257963,-0.14783208,-0.045593534,0.061855454,0.11568702,-0.017332895,-0.05833405,0.030365562,-0.0698376,-0.0202542,-0.117204025,-0.00029646236,-0.11093577,-0.015361229,-0.0641395,0.07666887,6.8245456e-05,-0.016385835,0.03255605,-0.06199297,0.1036718,-0.08501293,0.041061815,-0.09033993,-0.06171664,-0.007215292,-0.076252714,0.08479449,-0.048134536,-0.002282008,0.054355927,-0.12907454,-0.009604821,0.12173698,0.04516933,-0.08821335,0.024876783,0.103491485,-0.048455235,0.09153696,0.017359162,-0.10762283,0.025545962,-0.11336364,-0.08025833,0.10458999,0.11690855,-0.082910284,0.12379135,0.00074791984,-0.07966462,-0.118226,-0.14451383,-0.07868067,-0.13545723,-0.054143965,0.017893618,0.017170649,-0.013903167,0.10896826,0.084393874,0.03437774,-0.094828375,0.07749099,0.007754468,-0.15105166,-0.019003171,-0.064768165,0.029047554,-0.14820473,-0.014136898,0.10635905,-0.083161876,0.0029834935,-0.1131104,0.061290763,-0.07685754,-0.13996632,-0.09253284,-0.0012113365,-0.0061046593,0.11636857,-0.020395521,-0.07849208,0.07092515,0.079546906,-0.010382669,-0.055743646,-0.13009897,-0.034918558,-0.17717305,0.06832773,-0.14975229,-0.009549182,0.026145408,0.0870165,-0.1428728,-0.016102018,0.046722442,0.05024011,-0.0860585,-0.05188821,-0.08095392,0.12070228,0.067271635,0.09614431,0.14902727,-0.0052756025,-0.040606625,0.124777965,0.13843158,-0.0979277,0.120324455,-0.01705846,-0.047186952,0.10397014,-0.07299958,0.1236344,0.041491736,0.12919372,-0.117689215,-0.055602375,0.059718423,0.03558037,0.0067673335,0.06269591,0.13535836,0.0057659545,-0.1639683,-0.14140028,-0.08404959,0.0404561,0.04525738,-0.1326712,0.047680177,-0.02645978,0.081658565,0.04810418,0.100375146,0.12989576},
			{0.054674603,0.09053477,0.017346542,-0.18278567,0.010453202,-0.13572621,-0.10807993,0.024687845,-0.10839687,-0.053704187,0.04931426,-0.061549164,0.16067494,-0.08085908,-0.07723476,0.16531795,-0.066300064,0.18483436,0.0147326,0.03469179,0.018328222,0.1448111,0.028485041,0.09050447,-0.006119079,0.061875097,0.12329916,-0.038843572,0.17382517,0.14571986,-0.10641122,0.0036361737,-0.052388825,0.06401625,0.104063325,-0.070916034,0.09460657,-0.019273218,-0.048508648,-0.11337001,0.014765767,0.0071904087,-0.15687205,-0.044179376,4.1782405e-05,-0.12511846,-0.022945428,-0.023017274,0.09689019,-0.102750234,-0.034815107,0.069418065,-0.15018415,-0.11322409,0.07251749,-0.023303071,-0.10532662,-0.07294684,0.044031125,0.10309605,-0.043407343,0.090905085,-0.053117223,-0.049451306,0.04432717,-0.058839437,-0.1635527,-0.1333311,-0.14137432,-0.03360771,-0.012445029,-0.083926335,-0.024084846,0.12269386,-0.023488944,-0.04206776,0.0051360917,-0.07476994,-0.07291072,-0.0474938,-0.091223426,-0.050149664,-0.14204958,0.09380826,0.046023823,0.10021445,0.14095241,0.09106856,0.09857069,0.14437488,-0.044854727,0.05170624,0.045058783,-0.01757478,0.14061731,0.04421926,0.1024329,-0.06490932,0.08416678,0.050041743,-0.05276718,0.009472088,0.14119796,0.11712089,-0.01272929,0.034510043,0.051794384,0.095075406,0.119976975,-0.099405326,0.1038685,0.13483392,-0.1027488,0.13110378,0.047169358,0.10392114,0.12324543,0.075896606,0.056544114,0.062735416,0.14937674,-0.014616806,-0.10447339,-0.05947207,0.14161003,0.08424978,0.14494868,0.014153234,0.013895532,-0.066810675,0.08581538,-0.09695736,0.019643668,0.04002663,-0.05127097,-0.09729822,-0.011876924,0.074788205,0.027771272,0.017516905,-0.02919821,-0.08884207,-0.028246935,-0.028809698,-0.0056465864,0.1488191,0.031422075,-0.00055724476,0.15162663,-0.025470883,0.02206072,0.043022428,-0.10354118,0.029115755,-0.073476166,0.13695353,8.526159e-05,0.006076218,0.07014624,0.057387415,-0.009574454,0.008994021,-0.17539719,-0.0056614634,-0.16440377,-0.15030739,0.02961182,-0.007668578,-0.13288511,-0.11815821,-0.027052853,-0.19023752,-0.10484204,-0.18926787,-0.044572636,-0.01374539,-0.071816795,-0.14255442,-0.018664876,-0.09544932,-0.014611893,-0.11360226,-0.15102677,0.02078036,-0.1906117,0.06844804,-0.13649139,-0.18083903,0.044442017,0.025395978,-3.9961888e-06,0.051374514},
			{-0.15842815,-0.14628418,0.08611955,-0.02189301,0.12596366,-0.118409075,0.09585301,0.02925836,0.052924518,0.10757278,0.054267302,0.16305776,0.090571724,-0.07859397,-0.017753482,-0.029125871,0.1400415,0.13125685,0.08747022,-0.06498585,0.0039419536,0.015019022,-0.17540412,-0.15921488,-0.04050555,-0.15252477,-0.050001156,-0.025949402,-0.07842202,-0.109097965,-0.04095809,-0.08930053,0.079022296,-0.16756885,0.067537986,-0.08379167,0.08516219,0.11604098,-0.030170077,-0.043606695,-0.017377667,-0.07157673,0.07763734,-0.05788242,0.114565946,-0.105478525,0.028384328,0.025757711,-0.00020404361,-0.16238904,-0.031597827,-0.16193257,-0.028535292,-0.06499902,-0.16372927,-0.14717056,-0.057962038,-0.023383109,0.016679147,0.03966247,0.0406559,0.031150369,-0.050875038,-0.03926465,-0.13782005,-0.061341785,0.08874976,0.11893897,0.039175935,-0.04580723,-0.004660083,0.028891688,0.11864934,-0.094211146,0.04474678,0.12781239,-0.086088486,-0.018349573,0.15017204,0.12302458,-0.06857578,0.10783059,-0.039917342,-0.01799147,0.060139645,0.11119343,0.10695963,0.051077172,0.1650926,0.11249234,0.10660225,0.0048090867,0.04679454,0.14284046,0.08348426,-0.12508291,-0.05079076,0.14207752,-0.10268293,0.14777362,0.14928181,0.041892093,0.1331523,0.08804533,0.025752803,0.130381,0.023413608,0.15810744,-0.016390277,0.017551944,0.03724079,-0.02970598,-0.08388167,-0.06798361,0.071929246,0.031569656,-0.08960104,0.13529272,0.13265814,0.11182595,0.054248095,-0.004661456,-0.038903084,-0.094133526,-0.12719122,-0.0035465774,0.014877119,-0.11269068,-0.1294937,0.15246424,0.07154229,-0.04370389,0.11772582,-0.038434856,0.015748885,0.020939829,-0.07623483,0.1424479,-0.12486918,0.15988238,0.016181504,-0.06535275,-0.08150009,-8.327578e-05,0.021949433,0.059648544,0.15013245,-0.090837516,-0.00440903,0.010604987,0.08866972,-0.10560192,0.02027,-0.055642147,-0.105774604,-0.03157551,0.036931265,-0.0012127443,-0.034213014,0.059711285,-0.1232013,0.01851529,-0.09683398,-0.06627961,-0.10366667,0.023917217,-0.039009303,0.048046324,0.050638378,-0.04673097,-0.0562572,0.15625905,-0.0045525325,-0.057120502,0.018993072,0.121538624,0.045626532,-0.094095804,0.045460127,0.06965735,0.11939537,0.016184734,0.103374325,-0.047155388,-0.053614162,0.10108887,0.18552373,0.13970616,0.0064037214,-0.05960221,0.11905186,-0.08415948},
			{0.029009305,-0.013890541,0.0029610689,-0.10663943,0.1165141,-0.06837642,-0.08222998,-0.031346686,0.0667657,0.09163971,0.09129101,0.030179001,0.059978157,-0.06654967,-0.105919234,0.010804976,0.09986197,0.026282124,0.009800349,-0.061015386,-0.046283945,0.13116303,0.1350438,-0.12409269,-0.026388908,0.123755425,0.13951373,0.025531732,0.15842447,0.13827363,0.0036437612,0.106248915,0.117142126,0.08505768,-0.0049616494,-0.1243323,-0.014198128,0.10534558,-0.039435197,-0.104767166,0.039568987,-0.095730595,-0.113317125,0.110139124,0.1162779,-0.06760112,0.1255647,0.062637754,-0.09118459,0.059352335,0.11438905,0.06419464,0.024093937,-0.021582786,-0.059431244,0.11354888,-0.1321276,0.010360071,0.1061585,0.10118956,-0.069415964,0.054581884,-0.10668465,0.04626805,-0.048334837,0.07422284,0.0034300548,0.03714545,-0.13119107,-0.11946086,0.066260114,0.003764598,-0.09846789,-0.044340562,-0.0545644,-0.042176485,-0.13152754,0.11057375,0.1109886,-0.05418329,0.07214163,-0.1550986,0.11495431,-0.04104642,-0.0017636394,-0.08648686,-0.11303183,0.13896246,-0.027163332,0.1430078,0.08382122,0.093768485,-0.005790055,0.04303505,0.09934947,0.04220973,0.0778582,-0.01507369,0.009349466,-0.15054643,0.030355724,0.11807699,0.044360943,-0.07086634,0.05918714,-0.018116275,-0.0938531,-0.0867292,-0.0607181,-0.00023013166,-0.11080061,-0.055566307,0.06573574,0.10086386,-0.03549269,-0.07673011,0.072276175,0.09493842,0.09629692,0.12851883,-0.07106429,-0.022144027,-0.1321776,0.021448059,-0.101085134,-0.09820088,-0.015056777,0.1433036,-0.079977095,0.02359265,0.08379901,-0.024697626,0.049119856,-0.021308014,-0.07857239,-0.14413568,-0.09192496,0.04845817,-0.14439505,-0.15106629,-0.009729958,-0.13454409,0.08684828,0.060603924,-0.048876386,0.044830088,0.11223866,0.013387424,-0.0586471,-0.054438267,-0.11820904,-0.13902912,-0.14599839,0.0933216,0.09421015,-0.16213647,0.109271504,-0.1264437,0.10930636,-0.060193792,-0.13642049,-0.08924817,0.105841696,-0.17167857,0.009748684,-0.06149224,-0.060738605,-0.10757241,-0.015188531,0.08649764,-0.0002719807,-0.17998688,0.053280354,-0.06419212,-0.06442538,-0.13575214,-0.086362585,-0.12149901,-0.16920547,0.06906192,-0.021025639,-0.15249787,-0.16295089,-0.12809007,0.071621135,-0.008261446,-0.1140016,-0.028266096,0.100864194,0.04545425,-0.068549804,0.024794806},
			{-0.0459288,-0.04621699,-0.13071798,-0.040478475,0.124945,0.011872603,-0.04921418,-0.07990571,-0.12686935,0.06860388,-0.082863554,-0.13429703,0.09919979,0.008120159,0.14764476,0.0092957225,0.08268949,0.011563769,0.033741713,0.05005655,-0.12630515,0.08710444,0.042294696,-0.029313209,0.0765491,-0.037168283,-0.021986583,0.09440587,-0.03871612,0.07971527,-0.10838089,-0.0051917783,0.06752606,-0.08744085,-0.063015856,-0.11085254,0.040188916,0.0972653,-0.03513667,-0.02304907,-0.06909446,-0.020655874,-0.090562955,0.09634382,0.09747326,-0.047775406,0.0094771385,-0.11995894,-0.061982658,-0.019596951,0.035326883,-0.011668722,-0.10173998,0.10633922,0.059378795,-0.051060922,0.069041856,-0.14108808,-0.13763908,0.032185968,0.04148357,-0.15621185,-0.08477997,0.13511097,0.01617619,0.026777051,0.061026916,-0.09792309,-0.05861402,-0.028981587,0.12617841,0.00874076,0.056279186,0.16005376,0.1443873,-0.018776765,-0.034081455,-0.010552013,-0.013546385,0.14611271,0.02209613,-0.059109755,-0.053759594,-0.026636004,-0.021872057,0.066348456,-0.06616384,0.01971768,0.03920955,0.07297795,0.123168886,0.095975175,-0.11629401,0.1510896,-0.0005971944,-0.09887121,0.0701367,-0.019029217,-0.0238299,-0.06607173,0.003151343,-0.058659762,0.12823422,0.017478151,0.11727229,0.039378643,0.16861959,-0.10377782,-0.09233758,0.101924844,0.0061385175,0.05717312,0.15256615,0.15506777,0.05524699,0.068492524,-0.043399245,0.030963367,6.883376e-05,0.14952378,0.06892895,0.1519003,-0.088444754,-0.0061484324,0.07928461,-0.01915621,-0.025191413,0.0144857615,0.11280703,-0.0369998,-0.06642812,0.028890807,-0.07213233,0.09163814,0.0748019,0.10515988,0.056383397,0.070281446,0.16307257,0.0712231,-0.053674266,-0.102072485,0.052479565,0.15587114,-0.06679006,0.115382746,-0.024461422,0.15575299,0.058682423,0.14754133,-0.072661266,-0.04616703,0.031085413,0.13707143,0.055740386,-0.06304732,-0.11051275,0.12094336,0.09759467,0.025902508,-0.011472218,0.00975279,0.069437474,-0.037802756,-0.051957,0.03870548,-0.05604141,-0.035507694,0.16180423,0.093350485,-0.060985416,0.11249414,0.032167997,-0.08478454,0.15623039,0.098823145,-0.015676813,0.11592867,0.035997156,0.07380265,0.17105457,-0.011636319,-0.081422605,0.15485024,0.18325792,0.10290422,-0.06504945,0.019695643,-0.0038696253,0.15151913,0.057553347,0.158827},
			{0.0016954213,0.13061889,0.034814075,0.078262314,0.11798296,-0.04124358,0.03259529,0.035855968,-0.005446508,0.115237124,0.12604961,0.008879918,0.13772927,-0.11215719,-0.10666321,0.058197826,-0.06920886,-0.12299199,0.12107639,-0.10317624,0.13984028,0.14219789,0.06880399,-0.0622673,-0.08986707,-0.06338121,0.16177939,-0.116662174,0.14177261,-0.04138926,-0.11362772,-0.101097815,-0.022885755,0.076197304,0.117886744,0.16063344,0.058475006,0.13205189,-0.061320014,-0.07331545,0.07561436,0.05801006,0.020978952,-0.047797155,0.13436879,0.12967587,-0.103330456,0.05881291,0.11492088,0.05667868,0.016673282,-0.11612275,-0.121852405,-0.068846494,-0.10537822,0.038252175,-0.096703835,0.020217787,-0.0049089002,-0.01473617,-0.06608696,-0.0069778203,0.0068894853,0.12611672,-0.036815725,0.11862023,-0.03628882,-0.10847113,0.017451262,-0.054710783,0.10890767,-0.030498892,0.0057745147,0.07266143,-0.04917586,-0.093876906,-0.010629027,-0.08055491,0.11166214,-0.027032703,0.006148404,-0.030428372,-0.09737908,0.006034838,-0.12405601,-0.093834005,-0.08738026,-0.029433388,0.08541657,0.03282746,-0.06753397,0.028652404,0.090221755,-0.13493729,-0.019279562,-0.12159278,-0.024128446,0.11579038,-0.056727365,-0.15603325,-0.0045288275,-0.073511355,-0.0153771145,0.035570387,0.12059787,-0.04175839,0.08728856,0.10197085,0.13993028,-0.0002482194,0.06929955,-0.0522246,-0.039511602,0.1279608,0.042598955,-0.10552659,0.011247379,0.14137796,-0.010339362,-0.061480697,0.0024782966,0.07711966,0.09748217,0.021794211,-0.11248955,0.13655595,0.12993558,0.102510855,-0.07924818,-0.057379108,-0.08042232,0.13753097,-0.083044305,-0.1209694,-0.06112705,-0.10109262,0.02137481,0.03290182,-0.08608701,0.12435573,0.036846053,-0.035511643,-0.10690821,-0.025261285,-0.09570996,-0.07722459,0.15641858,-0.1201406,0.15831943,-0.0012026059,-0.06843452,-0.090653926,0.013789843,-0.06581303,-0.07427212,-0.16198811,-0.030564511,0.07207731,-0.059644125,-0.07185897,0.108954586,0.051376503,-0.08559952,-0.10667264,0.07387812,0.05801894,0.038310755,-0.040453266,0.035651404,-0.10687826,-0.06330002,-0.14502226,0.024565905,-0.123915285,-0.019411612,0.014644205,-0.13574782,0.00013368911,-0.072658665,0.084172845,-0.116258726,-0.0351477,0.036552094,-0.08940751,-0.039078906,-0.078473575,-0.041305188,0.1026362,0.01848935,-0.13403337,-0.07772227,0.06623207},
			{-0.09776206,0.001111252,0.072839394,0.08249855,0.08586802,0.072941646,-0.12430391,0.01872129,0.075275116,-0.03491518,-0.046175577,-0.104987845,-0.118583806,-0.11716763,0.011823943,-0.15700929,-0.17205682,-0.026020393,-0.07480646,-0.04562291,-0.013731932,-0.097611636,-0.014512293,-0.16089089,-0.11272386,0.095278576,-0.12865764,0.087582156,0.008819118,-0.01505457,0.098061964,-0.06566989,0.062303305,0.08070597,-0.10843083,0.08174143,-0.09650005,-0.06621025,0.078167,-0.12672782,0.03613753,-0.0710317,0.05377484,-0.08289853,0.07129055,-0.0145597225,-0.032818966,-0.009452277,-0.08184966,-0.06533051,0.05874161,0.15617879,0.08660539,0.10918799,0.0990956,-0.12663788,-0.009514349,0.14236958,-0.027970813,0.10302528,-0.10526773,0.05406611,-0.017898636,0.064782426,0.05839598,-0.083138876,0.11112192,0.020927228,0.13437209,-0.10354269,-0.043469988,0.08468592,0.116269894,-0.13612781,0.016505133,-0.08219972,0.0050200694,0.010489275,0.11974778,-0.012209496,-0.103404425,-0.046528783,-0.13331448,-0.12265527,0.14818974,-0.10025198,0.08620751,0.053140394,0.0671712,0.03634638,-0.06253417,0.005693858,0.04213492,0.023828277,-0.029099848,0.11619941,-0.029917331,-0.100183606,-0.110160634,-0.01097587,0.07499042,-0.0065576625,-0.14222355,0.10524807,0.05576486,-0.13944893,-0.027744327,-0.09523553,0.12484178,-0.09482584,-0.105114445,0.06449892,-0.050658382,-0.12242592,-0.11237965,0.01903623,0.071895026,0.0249197,0.054644916,0.02388733,-0.0017285543,0.022719696,0.046678394,0.116537616,0.0355478,-0.03550813,-0.021711068,0.111956604,0.08559777,0.03198096,0.1146006,0.017671555,0.092972234,0.036580645,-0.16550975,0.048328895,0.03558507,-0.11452451,-0.009499023,-0.035784405,-5.436741e-07,0.091099516,-0.0762232,-0.013688442,-0.11113426,-0.058644474,-0.006381005,-0.12646927,-0.15219857,-0.05332418,0.096036606,0.11188036,0.12342865,-0.006952339,0.04201596,-0.15095289,0.06489325,-0.11271982,-0.052970935,0.007958167,-0.11520912,0.011242065,-0.027397353,0.07025571,-0.069092266,-0.05222574,-0.10176823,-0.09490825,0.0029053364,0.086668365,0.067977056,0.05401717,-0.025670832,-0.023117729,-0.00012244013,-0.07705511,0.015485264,-0.13597296,0.03147916,0.013234131,-0.0070810085,0.12510456,0.032722667,-0.050867237,-0.12821323,-0.047572616,0.0061278483,0.10430662,0.07025231,0.08327651,0.00057213765,0.10540415},
			{0.07121759,-0.12500465,-0.05624114,-0.0880913,-0.04224275,0.0006757612,-0.12374013,-0.06604141,-0.04779484,0.11647048,0.12043157,0.07432926,-0.09863364,-0.0019212428,0.029873757,-0.046873033,0.14618406,0.008114395,-0.052541163,0.10621218,-0.039598588,0.037679836,0.027730327,0.07293423,0.025734654,0.15521221,-0.042643894,0.15727802,0.14253388,-0.010870395,-0.033295043,-0.17149308,-0.1371112,-0.18387304,-0.009540066,-0.15164718,-0.05459994,0.05360543,-0.10199923,0.09079826,0.05182968,-0.071730115,0.009161856,-0.026114963,-0.15477188,0.011278122,-0.117592834,-0.04113732,-0.022024723,0.086999565,0.064798556,0.07671132,-0.021810966,-0.09596135,-0.007973709,-0.051980216,-0.12914596,-0.055804748,-0.1475891,0.058848795,0.07064879,-0.1298443,-0.11509991,0.08117292,0.08704315,0.07879634,0.05199579,-0.0021221952,0.10942008,-0.080183625,-0.08450025,-0.062948495,-0.11428742,0.0187655,-0.07479465,0.03156157,-0.0565111,0.058535967,-0.13754652,0.12650777,-0.0012788159,-0.12523648,-0.0362175,-0.0039118766,0.12757272,-0.016584292,-0.09444826,-0.090736814,0.0035397229,-0.10359738,0.02742586,0.10139999,0.14449665,-0.028716568,-0.04027493,-0.11158117,-0.020334268,0.0043723662,0.12703842,0.14981154,-0.009170371,0.13323414,-0.08380165,0.08891171,-0.045472756,-0.009959855,-0.06190236,-0.1141234,-0.07946185,0.008228844,-0.0054242066,-0.04652644,-0.012453972,-0.038179286,-0.07687379,-0.15283005,0.049234003,0.06903331,-0.104724735,-0.11270939,-0.059962347,-0.06775825,0.07569652,-0.15281558,0.029214941,0.018657068,-0.059196003,-0.115358494,0.1373969,0.10664524,-0.05658179,0.124069735,0.16406555,-0.077442504,-0.024547204,0.1350493,-0.032338277,0.02513651,0.10306236,0.12857974,-0.106596194,-0.104204156,0.07815262,0.026587773,0.16096823,0.1783908,-0.03889153,0.17430183,0.11372129,0.11985801,0.10347041,0.0758372,0.10596209,0.049273353,-0.097611584,-0.10558842,0.06722301,-0.054276004,0.076369055,-0.06366008,0.013256612,-0.03586242,-0.08012973,0.13531241,0.050633155,-0.009325861,0.06371042,0.04875977,0.15424664,-0.051465236,-0.061258815,0.123270415,-0.09078604,-0.023889551,0.023974502,-0.15083072,-0.14669992,-0.18248618,-0.018056918,-0.0040100026,-0.03817584,-0.12645476,-0.08308522,-0.053892612,-0.15341504,-0.13029471,-0.14423208,0.021135457,-0.11574836,-0.053770162,-0.079858325,-0.08895955},
			{0.117943995,0.14295842,-0.113367304,-0.06618137,-0.021338759,0.11518101,0.055949528,-0.068448134,-0.013377503,-0.054377016,-0.10701031,0.116384335,-0.15950914,-0.14810614,-0.1005032,0.02594227,0.022700692,0.14934841,0.13147303,-0.017559389,0.145693,-0.09384154,0.073587686,-0.021968132,0.068255916,-0.009364461,-0.0039336337,-0.1638807,0.09234997,0.12425211,-0.11966523,-0.17901184,-0.03781618,-0.12614079,-0.06634392,0.10582887,0.11337164,0.057928693,-0.06956989,-0.011824056,0.06835178,-0.01544066,0.092501156,-0.03683995,0.08488909,0.016745122,0.124917336,-0.09607427,0.08671729,-0.11833741,-0.06167108,0.051781893,0.13324158,-0.14288455,0.03332776,0.121471785,0.037244394,-0.015262858,0.117388025,-0.04312584,0.1116705,0.02376764,-0.11005798,-0.08427887,-0.0181132,-0.14394444,-0.12567884,0.064001106,0.025960231,-0.081374176,-0.067430355,-0.14958693,-0.034482602,0.041844856,0.08019071,-0.109490104,0.0071958955,0.06654496,-0.029491708,0.069303975,0.0076355473,-0.048773773,-0.013900505,0.09187709,-0.0028269957,0.0132239135,-0.071290836,0.020682914,0.043672975,-0.06050636,-0.05967229,-0.006075813,-0.07899496,-0.014982718,-0.05897792,0.07076824,-0.11444411,0.021261854,0.006711069,-0.121123776,0.12836283,0.07045423,-0.08541636,-0.033041418,-0.14169368,0.025382439,-0.028285364,0.02575774,0.13183802,0.1346293,-0.096523836,0.07674482,0.034303375,-0.06770987,-0.12656404,-0.06516247,-0.011021404,0.0704997,0.074074,0.05337754,-0.08955329,0.033074833,-0.169988,-0.12249662,0.0029770667,0.043705083,0.05529271,0.08411221,0.07264978,-0.026500981,-0.014136883,-0.031648435,-0.0025141702,-0.13607155,-0.054806195,-0.09623809,-0.028123334,-0.089454,-0.15360007,-0.070312195,0.030663477,-0.056826,0.094115354,0.02277141,-0.06494956,-0.12471078,0.066769354,0.07879552,-0.1196899,0.030468525,0.05406854,-0.11902771,0.013181138,-0.0090157,-0.15260284,-0.07537459,-0.09092885,0.111038916,0.10621143,-0.044671774,0.14106749,-0.12078605,0.055254504,0.12082196,0.028257886,-0.025328953,0.107814096,0.04458381,-0.09376657,0.04519179,-0.055807088,-0.041105583,-0.01678687,-0.04774837,0.010453469,0.05859978,0.020145288,-0.025631063,0.15782966,-0.07240077,-0.13701339,-0.07268552,-0.1213823,0.025560575,-0.052162264,0.109406985,0.13216531,-0.010691156,-0.0647348,-0.111604474,0.121426,0.03276698},
			{-0.1286657,-0.122593544,0.03057562,-0.12961088,-0.08079681,-0.067645535,-0.07978017,0.11105586,-0.07217457,0.056963287,0.015337261,-0.0992932,0.15165746,0.088445164,0.14690469,-0.041651484,0.16792612,0.084495395,-0.016833907,-0.08851449,0.12501426,-0.10523512,0.14102505,-0.014244611,-0.13405114,0.022462364,0.071233384,-0.010749872,-0.14432062,0.02515642,0.0667189,0.025330719,-0.105319634,0.086310014,0.025036955,-0.14997116,-0.16273804,0.059125166,-0.058331676,-0.13503909,-0.003604278,0.096549146,-0.1289537,0.07463527,-0.029062143,-0.15814303,-0.046009228,-0.1699705,-0.13149859,0.09446705,-0.109460525,0.00067493285,-0.15339223,-0.06833608,0.02703834,-0.09369569,0.009704945,0.077901445,0.10638759,-0.042585768,0.01078558,-0.04832791,-0.14154376,-0.14496395,0.07143506,-0.12688798,-0.07107354,0.04915521,-0.009594931,0.020935412,0.06683362,-0.12652095,-0.09057122,0.08577079,0.040394284,-0.09476881,-0.0122676315,0.03638307,-0.1196226,-0.013429921,0.052125186,0.001614951,-0.12836072,-0.07877693,-0.074285954,0.0802249,0.076305375,0.008711326,0.0034039638,-0.14327203,-0.14260913,0.11258016,-0.018498175,0.06889093,-0.123479344,-0.067312516,0.09291783,0.10889272,-0.15435506,0.0010196259,-0.04093878,-0.060910225,0.09081219,-0.15338744,0.031017218,0.061327428,-0.05521174,0.051624987,0.043435015,-0.083638534,-0.0040041152,-0.12438018,0.064509615,0.07403102,0.0341039,0.01856458,0.08529081,0.11038855,-0.026418708,-0.005245661,-0.026946351,-0.068431094,-0.103405714,-0.028840017,-0.09500006,0.015909353,-0.14219889,-0.13089502,0.07804126,0.061687283,-0.09365956,-0.14296132,-0.10329834,0.00864931,0.039758977,-0.12791654,0.07396893,-0.10925745,-0.1722533,-0.01596575,-0.123074315,0.069579035,-0.028846918,-0.16145733,-0.05235218,0.056526814,-0.12107922,0.06313324,-0.15782005,-0.039546814,0.066014335,-0.14713515,0.104769826,0.07092756,-0.13310261,0.08913075,-0.029200587,0.103519596,-0.14923492,-0.164021,0.06811353,0.062171128,-0.038215883,0.06428147,0.091487385,0.09913613,0.0873137,0.059355967,0.07917778,-0.042994205,0.08535978,-0.011971802,-0.04874071,0.15262198,0.095180996,-0.09778767,0.06681734,0.13418402,-0.082597345,0.15475108,-0.11387645,0.09215407,0.11346519,-0.034366693,0.011538626,0.06858329,0.008685703,0.109481476,-0.11814696,0.01334287,-0.057040714,0.008536566},
			{-0.06694954,-0.09892745,-0.1292822,-0.12851243,0.11193966,-0.09399526,-0.0039047592,0.043532632,0.14578858,0.11108454,0.0010223112,0.1124752,-0.109797366,0.093663454,0.10067205,0.09296537,0.0034532405,0.11945853,0.052615084,-0.05855715,0.057712488,-0.11051274,0.03318249,-0.12639853,0.0711179,0.12753867,0.025687067,-0.004374501,0.091701664,0.053973038,0.14620456,0.11926922,0.027691826,0.11473598,0.055946577,0.077636644,-0.10891161,0.045235068,0.04253239,-0.09054569,-0.121594094,-0.10734837,0.03412466,0.05128846,-0.1383127,-0.1079013,0.0568699,-0.10870896,0.016803246,-0.06925155,-0.1536075,-0.015000779,-0.037750173,-0.11285048,0.13093127,-0.08897913,-0.013601593,-0.045776416,0.017460702,0.075758696,0.11458183,-0.0667218,0.035360493,0.044238787,-0.0047667157,-0.109767795,-0.14178564,-0.08931495,-0.051028945,0.13335179,0.109067716,0.11312805,-0.09464163,-0.00068266486,-0.022072848,0.079122685,0.0011876978,0.11096577,-0.12508257,0.09457329,-0.13194014,-0.12468663,-0.050531726,0.066119716,-0.08936443,-0.051938873,-0.13539413,-0.014455032,0.10389001,0.088977285,-0.08603357,0.047149114,0.15186423,0.12946513,-0.05912792,-0.068801515,0.13788386,0.0588261,-0.019426301,-0.010079063,0.051867098,-0.056057636,0.10419218,0.03634637,0.059313983,0.11231243,0.0021570905,-0.07304291,-0.06281726,0.111947365,-0.08617285,0.040550135,-0.10389946,-0.05643867,0.12182161,0.026964359,0.12821703,-0.04730738,0.0072987904,-0.012372279,-0.06437578,0.07766849,0.083280824,-0.07298216,0.06978908,-0.0467778,-0.11333343,0.120996065,-0.006859492,0.07514568,0.046763584,-0.11890983,0.05609389,0.06223904,0.082157485,-0.07421228,0.13253409,-0.018794728,-0.1425666,-0.13204646,-0.08044115,0.003003398,-0.08090106,-0.009446318,-0.06538309,0.013111365,-0.07921565,0.07857985,-0.037846092,-0.01701537,-0.022602271,-0.0712034,0.10502588,0.06587551,0.070395164,-0.022105133,-0.041423913,0.0765235,-0.082027555,-0.007347527,-0.14800572,0.055949364,-0.13731644,-0.17379554,0.07306568,-0.0677988,0.01917695,-0.11226924,-0.13575932,-0.15986244,-0.0677692,-0.11873366,0.09128469,0.021261182,0.025083497,-0.14783764,-0.0732136,-0.028858867,-0.10025378,0.027588822,-0.04962882,-0.073215835,-0.13360415,0.03585174,-0.14066154,-0.03740234,-0.1312589,0.024449298,0.046212353,0.088043325,-0.115066335,-0.102051094},
			{-0.002053553,-0.052947927,0.0076119066,-0.013841723,-0.022905312,0.104675435,-0.036087677,-0.07411679,0.060822096,0.06579471,0.028211262,-0.07810695,0.051870566,-0.12563397,-0.107726835,0.086656146,0.095172144,0.034163006,-0.10479429,0.13404678,0.12599134,-0.012073182,-0.056790594,-0.010563583,-0.0981598,0.11468085,0.1323676,-0.050157014,0.15721002,0.074947484,-0.051143195,-0.09447542,-0.0050277417,0.04170787,0.13393512,-0.063490495,0.11930912,-0.052404635,0.052880406,-0.08914291,-0.04737314,-0.09537613,0.038070414,0.16554919,0.13186158,0.12123753,-0.002678258,0.15834628,0.04337422,-0.03437078,0.15701729,0.017132547,-0.070853926,0.08144051,0.05404633,0.025509266,0.11742544,-0.11476634,-0.0027540245,-0.07156667,0.15831535,-0.006712632,-0.043988284,-0.0012123568,0.11854721,-0.10698486,0.13047965,0.027826305,0.10410348,-0.012972085,-0.09519202,-0.074470125,0.068343334,-0.07313215,0.0333435,-0.050432753,0.115373075,0.0920867,-0.15487999,0.11545872,-0.08171528,0.022300882,-0.078729995,-0.10930881,-0.08453178,0.06623979,0.07720825,0.13395707,-0.022992438,0.16972654,-0.09265024,0.111943714,0.092424795,-0.051600788,-0.09305303,0.10154729,0.12153357,-0.07905542,0.087841876,-0.059522357,-0.0060533644,-0.04026762,0.107676186,-0.1422264,0.122332804,-0.050304674,0.0029570186,0.05173311,0.06578383,0.012638792,0.025607985,-0.06932131,-0.005308864,0.069183044,-0.021808345,-0.11422814,0.0076568266,-0.042553872,-0.011926812,-0.03694162,0.14814019,-0.09007434,0.12613885,0.09678654,0.054951057,-0.100430414,0.06992004,0.10156716,-0.022184456,0.0646826,-0.028346425,-0.11883848,-0.033441033,-0.14757687,-0.0041444735,0.0050738105,0.111808985,-0.11134344,-0.123510346,0.038977116,-0.13066071,0.086048536,-0.078689866,0.058367427,-0.0060235164,-0.02778364,-0.11643459,0.0027054024,-0.0324557,0.08492984,0.114578016,-0.030112166,0.11180373,0.022054253,-0.05965493,0.045222946,0.07227722,-0.041103754,-0.16770838,-0.02287868,-0.015269357,0.098602824,0.074307874,-0.13035943,0.010887386,-0.09198764,0.06936883,-0.09984244,-0.03345257,-0.047345005,-0.07046543,-0.06751523,0.060124464,-0.00048372734,-0.10060182,-0.13834701,-0.09080405,0.036084745,-0.071060605,-0.09388764,-0.07722415,-0.14724873,-0.080720626,-0.07168417,0.06094093,0.06787451,-0.04038878,-0.16194035,-0.00508282,0.04554392,0.10239395,-0.0831704},
			{-0.15998054,-0.13505593,-0.13950607,0.07720243,-0.010556732,0.033592604,0.068272494,-0.07986892,0.029149972,-0.004658096,-0.050350904,-0.024557438,-0.051607367,-0.09266606,0.10681104,-0.08771714,-0.11004924,0.07558892,-0.14810206,-0.13318768,-0.12960318,0.10537289,0.1301244,0.05655549,0.11888599,-0.12262926,-0.08608689,0.0809828,0.023119478,-0.03742732,0.04160512,0.15848947,-0.06549807,0.0007261772,0.029032681,0.022765419,0.09494158,0.04868016,-0.06789498,-0.10196733,-0.16395476,-0.09993538,0.10348672,-0.06846962,-0.10215714,-0.014246766,-0.081451565,0.012422575,-0.044606004,-0.13521434,-0.09628038,-0.0014344415,0.033347517,-0.05665242,-0.056679606,-0.018400261,0.07621686,0.056820888,0.0356618,-0.019085998,0.028910315,0.02343585,-0.044330247,0.027721556,-0.018399468,-0.16264938,0.08544942,-0.11048739,-0.04554197,0.10342803,0.13293716,-0.070418544,0.04819639,-0.0023010771,0.098727256,-0.0700935,-0.042009156,-0.09905926,0.15079738,-0.009533947,0.12738875,0.021469623,0.04967648,0.007861753,-0.015029764,0.110318,0.11510809,0.022179741,-0.072789244,-0.054350063,0.13724932,0.107567206,0.068573944,-0.08462657,0.07164255,-0.005844477,0.1444999,0.09954632,0.014324258,-0.076160006,0.12922718,0.12195002,-0.06626509,0.1308433,-0.07649478,0.07613018,0.08431773,0.023505872,-0.035548102,0.04623429,-0.090475574,0.12957431,-0.032898102,0.113285996,0.14067471,0.060591746,-0.07411585,0.114217505,-0.035035085,-0.07495935,-0.010970956,-0.05146051,0.004723666,-0.04486791,-0.030527072,-0.048030738,0.15001349,-0.10138034,0.084474035,0.05794974,0.13323677,0.006167586,-0.039234266,0.010973019,-0.028398693,-0.049541306,-0.040912747,0.07055978,-0.050401825,-0.097249195,0.026776226,0.01967136,0.15741035,0.12702082,-0.007487563,0.13996506,0.05522523,-0.10702402,0.11719135,-0.047454104,-0.01997258,-0.026142767,0.10720445,0.012502844,-0.039286777,0.06923899,0.11200181,0.050087623,0.033166267,-0.03516491,-0.013073082,-0.10982335,0.046171438,-0.13071176,-0.08446999,0.12162602,0.11744247,-0.02363291,0.11313903,0.14316237,-0.053627856,0.07907107,0.1601973,-0.091156825,0.07384912,-0.08410734,0.015602179,0.041481487,0.1462904,0.03851882,0.14150974,0.07889769,0.16308624,-0.059171796,0.17053449,-0.0925168,-0.045774654,-0.012411462,0.16124453,0.0101286685,-0.050970323,0.15149611},
			{-0.047575716,0.03539624,-0.119096026,-0.10888957,-0.14510193,0.08906636,-0.063908204,-0.08753271,0.12123417,0.12485583,-0.028479572,0.18416004,0.1323157,-0.08162985,0.11984913,0.056756232,-0.066201314,0.12716219,-0.073613875,0.06676944,0.023016402,0.014162785,-0.03669584,-0.10648837,0.12102616,0.07647008,-0.16060181,-0.04111764,0.012340358,-0.0199502,-0.17550749,-0.076056205,-0.05193594,0.10601301,-0.018575275,-0.009381751,0.11622175,-0.024950236,-0.052681215,0.11509923,-0.07622523,-0.09038269,-0.14729507,0.01362931,0.110488616,0.041272774,0.11690573,0.050350547,-0.039284486,-0.12572563,0.0069771684,0.10914495,0.01417159,0.05476208,0.11595776,-0.109915294,-0.13645446,0.10865043,-0.14546119,-0.05119653,-0.14049752,-0.057436954,0.1141493,0.038149666,-0.13501516,-0.0055338345,-0.13581766,-0.13185634,-0.13446751,0.0047742887,0.103604496,0.116619505,0.022922602,0.071695335,-0.1177793,0.056461208,-0.133911,-0.109337606,-0.0011392643,-0.13056248,-0.116506055,0.066300966,0.0005704084,-0.13766348,-0.028368624,-0.10001232,-0.1611266,-0.03684602,0.03281779,0.040683232,0.1164976,-0.036612995,-0.087876625,0.0947451,0.115044765,-0.100984946,-0.012816379,-0.08298171,-0.11845608,-0.089776315,-0.15996784,-0.10692975,-0.116896644,0.10877731,0.0015192457,-0.10642438,-0.048366748,-0.028165488,-0.078701116,-0.083596036,-0.1427004,0.0062578926,-0.037096504,0.046437573,-0.15087539,0.082136415,0.043269433,0.0022079342,0.021713072,0.104901746,-0.06987158,-0.012969497,-0.083861046,0.12703487,0.0364655,-0.02937659,0.09416759,0.00076058443,0.083427325,0.11840221,0.016438017,0.025029916,0.09043003,0.023165623,-0.14323047,0.0994907,0.05368563,0.12142903,0.101718724,-0.08612575,0.08693178,0.0052522714,0.09299093,0.12208019,-0.047137484,-0.13021506,0.028967714,0.043254033,-0.14826848,-0.00015096157,0.09905745,-0.032861177,-0.11349847,-0.05283607,-0.014660509,0.015196322,-0.048748713,0.07051238,-0.045935676,-0.06493062,-0.07051316,-0.0029644328,0.03475359,-0.12837583,-0.07032074,0.113772936,-0.06824141,-0.05380494,0.103618,-0.09096891,-0.13259608,0.074569955,0.04034219,-0.15161562,-0.18985653,0.0182556,-0.09012227,-0.0003806809,-0.17039315,0.01832703,0.008851442,0.104764,-0.109658375,-0.05108134,-0.08481708,-0.014956125,-0.10096868,-0.15194818,-0.005630818,-0.012524351,-0.17863394,-0.18004572},
			{0.0742604,0.09843328,-0.10535057,0.09090352,0.13050835,0.09008658,-0.026199268,-0.084976465,0.028818058,-0.11017862,0.049827296,0.015903436,0.054433938,-0.07939856,0.05009746,-0.12106905,0.057113495,0.13575122,0.0029981309,0.03637874,-0.01448775,-0.086911656,0.029837355,-0.043520454,-0.09397493,0.048225675,0.11280925,0.01819523,-0.12551214,-0.1007186,0.10698626,-0.10126399,-0.074269675,0.090380736,-0.16302982,-0.04788128,-0.031657808,-0.08980391,0.036127504,-0.12340887,-0.03320725,0.08407562,-0.1149915,0.07952869,-0.16737473,0.027887175,-0.11974851,0.07999971,0.09856622,-0.015212662,0.078940146,0.06352877,-0.0044707875,0.028075399,0.017932992,-0.16289827,0.021343792,-0.08265605,0.015053981,-0.17242989,-0.14767365,-0.1442329,-0.022768425,-0.13767798,0.08564716,-0.1471582,0.044946328,-0.070274375,0.098813415,0.100135,-0.068647735,-0.088910095,0.14373086,-0.051110428,0.014042455,0.045794103,0.027813515,-0.11651854,0.04292333,0.009555007,-0.005207151,0.16382171,0.17134745,-0.06453788,0.13565439,0.02320102,-0.010276374,0.050247297,0.06413883,-0.085017025,0.1065399,-0.067245126,0.17407142,0.17666622,-0.079290204,0.049048547,0.15493989,0.14766431,0.074726105,0.14790195,-0.0040823244,0.0074776183,0.17165355,0.0035946257,-0.008009169,-0.10056455,0.10752969,-0.065685675,-0.096677855,-0.14188422,-0.07929858,-0.0059993463,0.09043636,0.15526342,-0.05194406,0.0044861496,0.004964889,-0.0402805,-0.06177143,-0.003987899,0.04645035,0.0217765,-0.071172975,0.09757338,0.039504517,0.112821944,0.109399654,-0.11504434,-0.0551784,0.13345988,0.14270645,0.034699142,-0.09253745,0.1729923,0.015063467,-0.04615259,0.18063532,-0.010914174,0.025834233,-0.049977444,0.03066053,-0.053922124,-0.018454928,0.079435624,0.08843978,0.00017684663,-0.004631531,0.1215445,-0.010422346,0.14553781,-0.09063232,0.033133935,-0.085161574,0.061930716,0.121876635,0.0039461995,0.12738807,-0.08782743,-0.077642284,0.07160133,0.1044712,0.14444466,-0.059440624,0.06323185,0.040330924,0.017149076,0.056922566,0.10929776,0.031941976,0.08030808,0.059441898,0.10692811,0.14402764,-0.022205755,-0.10081742,0.14343217,0.0102804145,-0.0042075342,0.12814733,0.15059082,0.11320724,0.0740574,0.018332746,0.03409074,0.13599536,-0.022616891,-0.009034729,-0.070148006,0.038749035,-0.078535765,0.1115775,0.0617223},
			{0.027018327,-0.11705337,0.0909763,-0.030752592,-0.09648408,-0.13768283,0.06089601,-0.049198695,-0.08387283,0.025550552,-0.1020683,-0.14625229,-0.16250199,0.033141345,0.07109186,-0.07211509,-0.05263238,0.064768635,0.0015600253,-0.1614076,-0.063963234,-0.08619947,0.0074620587,0.044096977,-0.033180486,-0.15428412,-0.06759418,-0.03928989,-0.08276054,0.07708969,0.078258894,0.0011258615,-0.14005503,0.06442317,-0.11009993,-0.1661521,0.017667556,-0.016884759,0.07479881,0.049413934,-0.13614476,-0.044129305,-0.02379169,-0.0014716581,-0.041345123,-0.14538722,0.045191895,0.02264843,0.0701102,-0.18670782,0.08142562,0.019989105,-0.068752535,-0.14314339,-0.078282654,0.08314217,-0.05067818,-0.011746856,-0.0343649,-0.0111311115,-0.038146883,-0.078004785,0.049820837,0.017701818,0.03224539,-0.014893997,-0.16422889,-0.0907496,-0.12078338,-0.10311725,0.13339826,-0.03667389,0.17982452,0.12746798,-0.11655497,0.09752339,-0.12938662,-0.09249835,-0.012541686,-0.07211949,0.13904409,0.0060163923,0.07945186,0.004037928,-0.025007667,0.072726406,0.15267582,0.08911095,0.022896858,0.05615929,-0.035671998,-0.059552256,0.05877317,-0.0088066915,-0.13166955,-0.044572197,0.010479414,0.088493355,0.109518744,0.04694513,-0.12221504,-0.08115755,0.020571196,0.028296256,0.0356635,-0.095464796,0.06485803,0.06294621,-0.0043164752,-0.10185193,0.028195655,-0.06980662,-0.08538525,-0.077660896,-0.14064237,-0.13268693,-0.024930045,0.10220842,0.10740627,0.042459175,-0.03963267,0.1611298,0.15932217,0.122480325,0.030901723,0.024398657,0.066667266,-0.070892446,-0.061530836,-0.11213617,-0.1626735,-0.092955425,-0.051800605,-0.16731663,-0.12002615,-0.104144126,-0.1236619,0.10310385,-0.17277072,-0.003952488,-0.056356754,-0.109381825,-0.0058108545,-0.018108852,-0.14683019,0.0741617,-0.09485906,-0.06374778,-0.06410789,0.09331469,0.05233878,-0.10650722,-0.13566507,-0.03337434,0.1356722,0.16572978,-0.10570815,0.06400106,0.0048397924,0.04388392,-0.11044291,0.01678551,0.08958779,0.062298078,-0.0703986,0.006925834,-0.09409314,0.07074208,-0.08782066,-0.09147685,0.03192888,0.010388919,-0.07371455,-0.043907754,0.0383982,-0.02218367,0.1181266,0.18125631,-0.0014198256,0.05792419,0.12037063,-0.08480353,0.08694351,0.017100936,-0.010749582,0.06678446,-0.09990071,0.100503035,0.03282928,0.11493325,0.012993422,-0.041961204},
			{-0.07908738,0.00064399187,0.10289584,0.097612895,-0.076132424,0.122482195,0.14786793,-0.025716148,0.16287646,0.047523092,-0.15421538,0.091889255,0.114880785,0.08101296,0.07783485,-0.1329296,0.026338574,0.048564848,-0.15959303,-0.14003885,-0.09155293,-0.13901421,-0.048376195,-0.010298203,0.10111362,0.09005294,0.0040370724,-0.010567798,-0.052863486,-0.08087704,-0.15898667,0.022934034,0.010612983,-0.09208957,-0.08219971,-0.13468464,0.02610832,-0.13957164,-0.11268774,0.07275481,-0.046248022,-0.15784281,0.035495624,0.08459626,-0.10617536,0.120033324,-0.020721653,-0.13439246,-0.03531042,-0.075406976,-0.029095083,-0.1234514,0.0525127,-0.0133617325,0.06285445,0.019191938,-0.13517767,0.07109134,-0.009153334,0.06477179,0.009585914,-0.07270302,0.031761926,-0.07207725,0.057762805,0.06782316,0.020783242,-0.022087974,0.15438956,-0.109099455,0.0560648,-0.084801555,0.13893302,-0.124170706,0.111694306,0.1764782,0.14957681,0.15574007,0.01351492,-0.13151225,-0.021333124,0.17739925,-0.09423936,0.17453825,0.15956184,0.1098592,0.044549163,-0.04122631,-0.08049762,0.077197894,-0.066814296,0.06025889,0.056874562,0.12000307,-0.09780981,-0.12124008,0.11410408,-0.024381777,-0.06950913,-0.023920013,-0.1045644,-0.1189438,-0.011362096,0.009024045,0.0680335,-0.1354381,-0.049983505,0.06464916,0.13537471,0.097590104,0.020129895,0.0026622654,-0.09762827,0.045513935,-0.05109324,-0.019769829,-0.059628688,0.14046265,-0.018133217,0.12081971,0.004992203,0.08658322,-0.0601421,0.00068909145,-0.096714884,0.083748825,0.10665472,0.0757187,-0.034188163,-0.1348662,-0.09468682,-0.03156737,-0.1301302,-0.13636936,-0.08985175,0.11519145,-0.10403925,0.0062092394,0.10209635,-0.0077688135,-0.06176625,-0.057413373,0.0928824,0.0464949,-0.122206174,-0.0165118,-0.037428074,-0.13438898,0.026902694,0.1250082,0.12657526,0.11946237,0.11028428,0.12819846,0.0111426925,-0.03142691,0.043083955,-0.093345635,-0.06993321,-0.006476529,0.046799902,-0.07536002,0.056149274,0.045093875,0.098684035,0.13032623,-0.015957678,-0.08513182,-0.09468452,0.13285752,0.13172257,0.11373374,-0.057155166,0.07450909,-0.06344213,0.14476924,0.1201285,0.14537795,-0.04210764,0.07267319,-0.09351951,-0.046325196,0.15569165,-0.044223305,0.07915464,0.16987465,0.012702034,-0.07680931,-0.0903075,0.058046862,0.1339656,-0.037824698},
			{0.1216206,0.104685076,0.03246068,0.09210216,0.12140934,0.12050924,-0.07497327,0.07059189,-0.13245945,0.0284768,0.11884824,0.020184185,0.10813732,-0.050006635,0.023164425,0.04040181,-0.02450095,0.08664956,-0.038501937,-0.0074788216,-0.091807194,-0.04147149,0.12890652,0.08054256,-0.13228594,-0.04293423,-0.14521304,-0.16474597,-0.034309693,0.10468499,-0.051104907,-0.091937594,-0.00088889425,-0.16439736,0.07830096,0.025403991,-0.14067847,0.04509733,0.013814155,-0.12600408,0.089929156,-0.10023344,0.07898388,0.107954964,0.071842805,0.105390586,0.06772134,-0.16141239,-0.00080441014,0.06829272,-0.1523786,-0.15714934,0.042201128,0.107104294,0.07145972,-0.01635677,0.07240686,0.010038353,0.029110279,-0.049527746,0.07387256,0.03397414,-0.15569769,-0.04175284,-0.0035351748,-0.14915529,0.02791235,-0.101172745,-0.10664002,-0.1058199,-0.103666715,0.08525228,0.1262245,0.056738343,0.0094807,-0.01046286,0.04293586,0.11320733,0.05673497,-0.11492813,0.13139044,-0.06439999,-0.084897354,0.13511951,0.051231943,-0.11583129,-0.071914785,-0.0397515,0.018002586,-0.017479233,-0.0957667,-0.06376006,-0.11729186,-0.020188186,-0.14278895,0.02933645,0.06806263,0.0921773,-0.023985518,-0.026101926,0.081934944,0.0127737075,0.109418996,-0.05697842,0.06265488,-0.13578436,-0.005811105,0.120091885,-0.13975956,-0.073476024,-0.072623014,-0.047751315,0.0532778,-0.09729757,-0.15744027,-0.16758332,-0.06579893,-0.096346155,0.09224491,-0.00450904,0.07173203,-0.12767835,-0.07803362,0.028606452,-0.11770335,-0.18053673,-0.10733213,-0.061083175,-0.002267217,-0.08212683,0.04432164,-0.08634676,-0.09390664,-0.031064598,0.13762225,-0.032301847,-0.049513523,-0.0021689625,0.087729365,0.055414718,0.05808932,0.096207336,0.0031998686,-0.09852679,0.1042065,0.09543472,0.035457898,-0.017672405,0.0058790576,-0.0129504,-0.056450166,-0.040614657,0.1665487,0.13133523,0.16335958,0.1560431,-0.08276586,0.12802474,0.015423704,0.095460996,0.12159981,-0.07164071,0.081858255,0.107927345,-0.040898528,0.139306,0.029974882,-0.07513353,0.022504592,-0.101182245,0.052721754,-0.0016777689,0.028285595,-0.07640802,0.07768769,-0.1608578,0.06999392,0.058100704,-0.028549368,-0.16251627,-0.13593005,-0.12850383,-0.12685588,0.07097035,-0.014139207,0.007126197,0.010858801,0.106386766,-0.033714794,-0.09463,-0.09165832,0.06591408},
			{0.051545992,0.050759364,-0.025313297,-0.11059886,-0.047426272,0.13355356,-0.092748985,0.16390616,-0.0040445183,0.06148869,0.12153829,0.09685005,-0.093049385,0.02694871,-0.098551795,0.11784998,0.028540825,0.0699096,0.014373829,-0.09587324,-0.011028234,-0.11808834,0.09577655,-0.1704862,-0.10442494,-0.107573114,-0.08576959,0.10066234,0.10595022,0.10487463,-0.10332066,-0.17416413,-0.14644721,0.050280858,0.009902746,0.0043086135,-0.07078535,-0.06807148,0.06933988,0.012601443,-0.038845856,-0.060896516,-0.13285033,0.033516817,0.039742243,-0.16990916,-0.04204264,0.09796318,-0.07958555,-0.0988834,0.04510414,-0.028076349,-0.14005281,-0.14895053,0.04749612,-0.10387865,-0.08244633,0.017165022,0.08845747,0.023574663,-0.048325714,0.0112221185,0.074050754,-0.114492625,0.0976859,-0.13521546,0.056967605,-0.0596594,0.032680873,-0.031349804,-0.041397005,-0.015342264,0.08546948,-0.06972459,-0.027471554,-0.045024637,0.00971787,-0.0013612802,-0.022851793,0.1179716,-0.044786815,0.13721025,0.07393983,-0.118748635,-0.0434655,-0.07715202,-0.11227182,-0.09162756,-0.11632591,-0.10255363,-0.119887345,0.15871027,-0.15116824,-0.1548677,0.10852245,0.1166758,-0.035908513,0.032970577,0.068901606,0.103099085,-0.15055571,-0.050361335,-0.004242855,-0.025664689,0.03334627,-0.052949086,0.07960212,-0.039068542,-0.06929083,-0.1617259,0.055076346,0.088194475,0.018359546,-0.12136965,-0.042387333,0.09390807,-0.064870015,-0.14379776,-0.14256628,-0.1721696,0.10020633,0.11640154,0.12219022,-0.1486269,-0.047502626,-0.015728286,0.08070957,-0.11713162,-0.031128373,0.0672979,-0.084139206,0.11398301,-0.025654895,0.07729551,-0.00889429,0.014720433,-0.104036085,0.11974421,0.024618024,0.021242423,-0.10321605,-0.032734133,-0.00071323436,0.02229142,0.057572845,-0.1297916,-0.06476477,0.07675601,0.052870154,-0.10244532,0.1244381,-0.13241953,-0.10063296,0.023280548,0.006072031,-0.019394945,0.07621066,0.12868926,-0.12677918,-0.0063150865,-0.06799562,-0.08060811,-0.077665605,-0.06754023,-0.0227399,0.07611682,-0.06313999,0.097972326,-0.000610912,0.021295024,-0.09520282,-0.029543977,-0.10947967,-0.12813532,-0.08582749,-0.015139455,0.05109174,-0.1537118,0.08219514,-0.12524614,-0.022042666,-0.042560358,0.076715745,0.023365898,0.048949927,-0.09484645,-0.1620271,-0.13887008,-0.053790677,0.051696964,-0.00812083,-0.0032009797},
			{0.056378175,-0.084292755,-0.047599122,0.05588587,0.040023126,0.061520774,0.10486677,-0.09809672,0.06543825,-0.065153286,-0.042160492,-0.09257864,-0.041017782,0.07241635,0.08414729,0.050528646,-0.096315704,0.12125536,-0.10374126,0.09920174,-0.06989206,0.012062225,0.013077629,-0.010473769,-0.04141771,0.17232199,0.0198021,0.022741728,-0.082120374,-0.06738942,0.07056336,0.012137849,0.100263596,-0.06128609,-0.070000574,-0.15223035,-0.10168411,-0.1064558,0.0801229,-0.07188435,0.07055842,0.10287065,0.1036285,-0.003498106,0.053657483,-0.0062640957,-0.103655115,-0.02585211,-0.10162786,-0.00849469,-0.14842506,0.025801364,-0.018986447,-0.096454106,0.064803846,0.07358625,-0.1282353,-0.09336603,-0.019274628,0.06495341,0.044348873,0.061293438,0.029624797,0.057552446,-0.07043267,-0.13700779,-0.040408377,-0.118974864,-0.124711655,0.08575377,-0.002432647,0.118282534,0.06438801,0.0071590394,0.064422734,-0.023827303,0.023850298,-0.049373023,0.026739514,-0.014873394,0.057287656,0.07332874,0.1532022,0.13093725,-0.07963669,-0.10304317,0.10556099,0.08778606,0.02622856,0.04865694,0.05056972,-0.048409563,0.13014857,0.012455965,-0.086729005,0.10913198,0.061197754,0.04353851,0.17025785,0.121684276,0.073558174,-0.018187484,0.15804233,0.07604681,0.12812924,0.11685376,-0.0636104,0.07942822,-0.069835894,-0.09905857,0.08671995,-0.056174327,0.07540395,-0.09231791,0.049737193,-0.06167764,-0.043862686,0.10191984,-0.09536898,0.09675337,0.032355692,-0.024957173,0.114830546,-0.07602945,-0.050381526,-0.054629844,-0.014072678,0.046693984,-0.08336081,-0.028733503,0.052386034,-0.023623286,-0.062061835,0.07899682,0.11925956,0.13038337,0.13710457,0.10839633,-0.017494809,-0.016751729,0.1686368,0.025569925,0.047025006,0.13558477,0.11101305,0.16162059,0.109517165,0.13721031,0.14775859,-0.0024254,0.13651945,-0.025577048,0.0783191,0.103269994,0.104642086,-0.047469772,0.04281047,0.15304592,-0.03521532,0.109966755,0.054355185,-0.0107364245,0.00579193,-0.004278768,-0.038711127,-0.005593392,0.026960278,-0.0018567434,0.06251276,0.10450385,0.11765657,0.10717643,0.10783141,0.024122743,-0.051499933,-0.055623423,-0.10009114,-0.08307291,-0.084796935,-0.08093752,-0.047864027,0.13961756,-0.03126432,-0.035552517,0.08826798,-0.046177678,-0.10193973,0.11372226,0.023373345,0.12664887,-0.05855194,0.010424746},
			{0.009747961,0.120346665,-0.01668516,0.071005546,0.12196394,-0.0995111,-0.103068925,0.042598493,0.099382825,-0.14849703,-0.05082701,-0.056202784,-0.029639617,-0.12763895,0.08803381,-0.050681766,0.07009237,0.10746232,-0.104887895,-0.062372524,0.0979287,-0.12255041,0.07814234,-0.11373783,0.059916995,0.033170708,0.037448823,-0.14569631,-0.13805225,0.11169115,-0.10458238,0.12591459,-0.03495898,0.108758494,0.05270024,-0.054415196,0.04425576,0.03491215,0.041666962,-0.06657604,0.09216525,0.03755505,-0.09426168,-0.14381525,-0.08360945,-0.016847044,0.04182633,-0.07256406,-0.06910911,-0.105768874,0.013287754,-0.06407414,-0.028562013,-0.14560266,-0.15239282,-0.07259831,-0.16571969,-0.12839328,0.023433683,-0.03755589,-0.08049113,0.073164314,0.005975373,-0.054645825,0.056218423,-0.1311562,0.009699104,-0.09175837,-0.14258634,0.13686326,0.08618374,-0.10724797,0.15290843,-0.0904253,0.07600802,0.070553444,-0.111720204,0.046669587,-0.12082087,-0.09286851,-0.01839698,-0.11667289,0.0724519,0.09696213,-0.098630115,0.061562225,-0.13659137,0.11726313,0.0043445383,-0.09415304,-0.046262514,0.040603533,0.04726299,-0.021988705,0.07215392,-0.0020466773,0.12110473,0.1485325,-0.048249595,0.04300029,0.14157814,0.09276053,-0.11312287,-0.06538789,-0.07388898,0.07140531,-0.07296718,0.011318557,-0.04588253,-0.1464053,-0.021935819,-0.15335393,0.02805545,-0.13990182,0.06585705,-0.048202682,-0.10423824,0.028469423,0.06532489,-0.17450272,0.06899967,-0.058117,0.093665324,-0.00095957436,-0.14374948,-0.13679145,-0.07065356,0.035945244,0.07531319,0.06971927,-0.09215364,-0.097087435,0.06981774,0.025773795,0.062951975,0.040431764,0.16311653,-0.058879048,0.051764652,0.10717611,-0.031912945,0.023644403,0.0670774,-0.029285314,0.1649138,0.12848392,-0.016209627,-0.0033351344,0.16194583,-0.08703272,0.107805915,0.07492448,-0.095384516,0.11339648,-0.04476923,0.014074245,0.038782585,0.1629737,0.07980979,0.08998017,0.17525792,0.026938053,0.05814806,-0.01389577,-0.07433619,0.07017091,0.15574256,-0.14240132,-0.029848909,-0.119957514,0.054568686,0.07974172,-0.0055988254,-0.1509115,-0.09725994,-0.09840378,0.034919735,-0.019510152,-0.12466219,0.09752918,-0.07045154,-0.037058108,-0.17022155,0.087041825,-0.17048797,-0.17149487,0.051556423,0.05546665,0.08932937,-0.011942179,0.06144901,0.07238697},
			{-0.07430053,-0.13661501,0.0012593693,-0.046379585,0.084242724,-0.0014093214,0.055320345,0.1007342,0.032866698,0.09871941,-0.03373333,0.020036375,0.15074658,0.10331059,-0.090845585,0.06586692,-0.010371113,-0.061906364,-0.018194353,0.07405319,0.09495499,0.11632016,0.14645754,0.085167,-0.06999794,-0.095718734,-0.0196858,-0.04364301,-0.12986217,-0.021341536,0.051370416,0.09127867,0.13486458,0.07113867,-0.082437254,0.13250099,-0.08945784,-0.102646366,0.14767124,0.107378036,-0.078059055,0.06682889,-0.11376563,0.12287849,0.1514698,-0.12123813,0.090783074,-0.117631055,-0.10079301,0.15420349,0.13948658,-0.08178264,0.001607038,0.09453322,0.09594165,0.0865587,0.0905757,-0.0021253282,0.023854407,0.11739359,-0.035482112,-0.009690827,-0.14932507,0.099928886,-0.020577082,-0.059832558,0.1043982,-0.114730924,0.103657834,-0.009890539,-0.042945806,0.048116956,0.10266853,0.037087828,0.021208238,-0.16800489,0.05398861,-0.15047128,0.084380984,-0.1316511,-0.11139537,-0.14985271,0.07150927,0.09276827,0.030457275,0.00018069096,0.0013742254,-0.14358655,0.06775872,0.10015314,0.012163369,0.079386204,-0.105765074,0.09064908,0.04753022,0.078420885,-0.06302158,-0.09000377,0.095783554,0.055129454,-0.072980754,0.095972024,-0.10824799,0.04741417,0.0069414056,-0.022238852,0.08092975,0.052549634,-0.11437357,0.0018700581,-0.12626415,-0.13433798,0.013856924,-0.074014105,-0.07476677,0.06966614,-0.12529896,0.013001322,-0.021965863,-0.09193307,-0.0956629,-0.10661698,-0.15178418,0.036072753,0.011041564,0.018583884,-0.12477277,0.030537525,0.028052775,0.0681279,-0.09056509,-0.08851491,-0.13974513,-0.028449414,0.023522936,-0.015440989,0.06334964,-0.17400041,-0.023890503,-0.073760904,0.01624275,0.11069543,-0.12577243,-0.06531948,0.070559636,-0.00089838344,0.053384844,-0.022712892,-0.0120152505,-0.12083391,0.005286396,0.0489425,-0.022271084,0.07598187,0.10426641,0.05699767,-0.06902273,-0.17110874,0.011601279,-0.107189864,-0.071880415,0.07165018,0.07616655,0.11657386,-0.08353313,0.084876135,0.009865186,-0.0033491314,0.114487715,0.10559028,0.022663422,0.11391042,0.16523495,0.039482255,0.12033405,0.15428603,0.12443857,0.16261144,0.11971655,0.14757216,-0.020767277,-0.096884154,0.08071349,0.042213034,-0.097816385,-0.09767511,0.005302192,0.03154145,-0.03150745,-0.099913456,-0.10541905,0.013921462},
			{0.039324623,-0.120607056,-0.123614505,-0.1217125,0.078462586,0.025654422,0.055430874,0.0054112696,-0.00400869,-0.10507208,0.13373308,0.16178799,0.07728757,0.14738289,0.008070656,0.09200352,-0.015511207,-0.1091114,0.12561817,-0.048446998,0.10649548,-0.09419623,-0.059974037,0.07062579,-0.17319854,-0.020110987,-0.15441474,-0.13258252,-0.072962165,0.0130300615,0.013504035,-0.0061317263,-0.028704751,0.006720192,-0.097845,0.045795713,-0.13470872,0.015357124,-0.0789202,-0.1032695,0.0967775,-0.084415734,0.071170054,-0.018323727,-0.15215941,-0.16691987,-0.020396011,0.052718464,-0.018108407,-0.0339785,-0.076459154,0.09571532,-0.053983986,-0.10887039,-0.026027538,0.04809126,-0.08236183,0.09991719,0.05760186,0.100129716,0.009928523,0.055344842,-0.02813511,-0.007971373,-0.17055596,0.016054276,-0.0051170522,0.019375762,-0.028819516,0.04385361,-0.1572587,-0.00024669868,0.037531793,-0.07291595,-0.054390613,0.124915846,0.05035861,-0.09935593,-0.0877741,0.03062905,-0.03321024,-0.10314101,0.062201228,0.14159247,0.065977804,-0.12093168,0.10707418,0.16643085,0.086199895,0.028691428,0.018088462,-0.02276507,0.0054956856,0.0072154724,0.060065135,0.04300409,-0.036546137,-0.08627501,-0.094937235,-0.06526705,0.07697768,-0.11940854,-0.106533185,-0.11175288,-0.0045877993,-0.09059804,-0.04914732,-0.13729681,-0.05288651,0.09795339,-0.0789483,-0.15435661,0.026546678,-0.1353071,-0.040927824,-0.03194017,-0.07281536,-0.07150366,-0.112465136,-0.12731817,-0.037662353,-0.026710082,0.09253603,0.10613603,-0.17104346,-0.09616063,0.0840597,-0.045273606,-0.044645146,0.013365807,-0.14608468,-0.06768583,-0.07887049,-0.07716645,-0.09666843,0.011635291,0.054472316,0.09031254,0.08879628,-0.0766474,0.0073735854,0.00676032,-0.14222755,-0.086300984,-0.095171876,-0.113649115,-0.16373847,-0.17952359,-0.042962324,-0.107900366,0.039782204,0.08610149,0.1384365,-0.089726985,-0.11775862,0.018452324,0.024345962,0.07544129,0.10961063,0.061374307,-0.066719994,-0.009512632,-0.072932534,0.170466,0.13763534,0.119411446,0.0636757,0.107523866,0.0036002817,-0.049844317,-0.034111086,0.17240605,0.03851324,0.0625169,0.17202286,-0.09444219,-0.08586328,-0.08379412,0.15025447,-0.042660568,0.07085982,-0.06835636,-0.022615686,0.13774489,0.0045693526,-0.038177285,0.08934672,0.00753854,-0.058296166,0.11821797,0.15016554,0.07533041},
			{-0.056760084,-0.09867552,0.10197693,-0.05026698,-0.011146043,0.122938655,-0.09558579,0.06969252,-0.034270916,-0.04184879,-0.0059292256,-0.10233283,-0.04452707,-0.08605911,0.04548835,0.0130901495,0.061487306,0.10438665,-0.035437282,-0.06303894,0.1557124,0.14558867,0.03742753,-0.06440495,0.13195945,0.012412913,-0.06797475,0.024206256,0.015689349,0.07009022,0.06085667,-0.12323734,-0.1500096,-0.11243405,-0.114753,-0.08582712,-0.027983356,-0.12787668,0.047313575,0.004833906,-0.03522875,0.027006797,0.065935366,-0.12589476,-0.031238442,0.0048773354,-0.07527324,0.09941422,0.04135,-0.008256334,-0.121314,0.10305629,-0.025084104,0.05064699,-0.095196396,0.07742812,-0.08630348,0.049713597,-0.11842998,0.11589015,0.08790767,0.07074091,-0.05130509,-0.15585984,-0.10458269,-0.16339849,-0.03385557,-0.009631028,0.050135966,-0.0021499794,-0.14890283,-0.11804135,-0.04813032,0.022987599,0.08568705,-0.09212367,0.17228687,0.056636848,-0.05229201,0.06754117,-0.081319824,-0.003181234,0.00092286343,0.16592385,0.07129184,0.13068414,0.04359397,0.09320778,0.14630319,0.07041169,0.10344569,-0.06660385,0.12397493,-0.057676286,0.08177222,0.022325965,0.11064287,0.14179072,0.13514166,-0.052967794,0.14893775,0.06815486,-0.0865589,0.12745799,-0.044282846,0.17440423,0.13661963,-0.09726929,-0.09591671,0.027728328,0.057371,0.13727036,0.17723256,0.13308232,-0.077528715,0.13414909,-0.031839266,0.09480066,-0.009839067,0.08286571,-0.01981494,-0.016341668,0.10433021,0.15330985,0.12477626,-0.008354335,-0.0536063,0.02459394,-0.065072365,0.0102089,-0.031547472,-0.026604004,0.1134669,-0.0730675,0.114033215,-0.059227455,-0.10453868,0.05227852,-0.04038297,-0.094799265,-0.060869917,0.11135549,-0.09535325,0.07064478,0.13030216,0.027522152,-0.0846594,0.030985756,-0.051931713,0.12085294,0.12919083,0.0022089225,0.022617292,0.03460975,-0.03532593,-0.11543551,0.048669647,-0.10611768,0.017019073,-0.08496262,-0.10053151,-0.10258942,-0.09099132,0.03239455,-0.12645438,0.083661154,-0.1069923,-0.04626888,0.09767747,0.07891853,-0.073512495,0.143664,0.023964984,-0.004491909,0.16696435,-0.011216246,0.12894914,-0.06683377,0.014807066,-0.04392152,0.1508753,0.105449066,0.1741233,-0.06795709,-0.056224648,0.11892153,0.029266067,0.19151574,0.14079055,-0.039353784,0.0991545,0.096795306},
			{0.06049549,0.11468091,0.0967753,-0.10500152,-0.10123844,0.071435764,-0.071664155,-0.043859914,0.058966998,0.008315609,0.02156117,-0.09020256,-0.103322215,-0.033439826,-0.16497251,0.10863606,-0.057195302,-0.13084596,-0.10303382,0.07708107,0.11804111,0.14131542,-0.010938626,0.115853816,0.036364216,-0.023134008,-0.012180125,0.10607168,0.007420013,-0.04731708,-0.007711177,0.07063815,0.09532892,-0.17535873,-0.037345193,-0.03924741,-0.17960931,0.04419769,0.07274475,-0.15027869,-0.0076906327,-0.077126905,0.083620444,-0.039860196,0.07898882,0.083339095,0.0008039029,0.034737397,-0.00087547745,-0.061249513,-0.028118676,-0.075836614,-0.17224999,-0.17085488,-0.09639674,0.029616455,0.015610668,0.04553713,0.053118635,0.0059734182,0.04119504,0.09975736,0.088911824,0.020486407,-0.039158795,-0.14868508,-0.123056084,-0.10730321,-0.09542895,0.11970316,0.08785378,0.11302515,0.03768237,-0.045827523,0.14068845,0.12224335,0.10678734,-0.10471303,0.09687331,0.0050321654,-0.003918813,-0.07076692,-0.015479824,-0.110554546,0.074543335,-0.106834374,0.05201434,-0.013484297,0.17070079,-0.039228622,-0.09910312,0.15726659,0.029658634,0.05433162,-0.06084658,0.1023346,0.1289673,0.052075915,0.14251131,-0.042910643,0.018784044,0.01728776,0.06346889,-0.11155012,-0.004821251,-0.086183,0.060102973,-0.093376346,0.15140921,0.1200731,-0.10649519,0.06889774,-0.07082263,0.13084409,0.10895428,-0.008965403,0.09095647,-0.07010647,-0.05006915,0.020980094,0.0050839316,0.101688474,0.16799232,0.12835836,-0.01756507,0.08739041,-0.04530106,0.111214034,0.13259377,0.12282972,-0.04235878,0.08391155,-0.08624881,-0.10266977,0.12396592,0.029598216,0.11208254,0.139087,-0.09811552,-0.09300546,-0.03237513,0.15004438,-0.06705012,-0.056137633,0.091458075,0.041979253,0.023248408,-0.013638492,0.13404672,-0.036515526,-0.0024291798,0.030539954,0.09438452,-0.08716985,0.042379268,-0.080375716,0.053993136,-0.01649863,0.17831324,-0.016373934,-0.10858804,-0.045092892,0.112082414,0.009986951,0.02260587,0.07716024,0.05423205,-0.06876191,-0.08973014,0.115468934,-0.020408431,-0.09736108,0.18318187,0.13363856,0.019514617,0.14143051,0.15289426,-0.020586668,0.07416644,0.16702016,0.025561925,0.027058555,0.13767534,0.061179925,0.01421767,0.093357675,0.14735997,0.043559458,0.13973954,0.14018987,0.1340917,0.03366945},
			{-0.076135896,-0.0010066385,-0.15911719,-0.0046141865,-0.10917338,0.05164898,0.03358161,-0.113405734,-0.07719182,0.010392881,0.12800051,0.1371846,0.15112005,0.043338582,0.15373711,0.044436347,0.061712522,0.13649377,0.061742704,0.032111116,-0.104313515,-0.023104366,-0.14945966,-0.04647014,-0.10375524,-0.12543581,-0.073746584,0.023048677,0.053115983,0.0698531,-0.09177623,0.045811687,0.03481277,-0.14518893,0.002856612,-0.044259604,-0.13575189,-0.04281318,0.08333692,-0.07437406,0.1070006,0.10426605,0.10192153,-0.03148367,-5.368882e-05,-0.1010975,-0.09193642,-0.054135874,0.015982212,-0.13324217,0.10458641,-0.1376007,0.081346005,0.078559436,-0.040278006,-0.006443825,0.04257643,0.10627489,-0.009272064,0.041065056,-0.107203156,-0.08697477,0.0071491776,0.10504444,-0.008876476,0.069410555,-0.01436221,-0.017147118,-0.10586569,-0.13373207,-0.11562201,0.1039756,-0.06738451,0.14868397,-0.030279726,0.030102506,0.06861814,0.14047255,0.12974493,0.1508662,0.033797856,-0.12118156,0.064810716,0.15039948,-0.04652274,0.15033786,0.11223637,-0.07410504,0.15627158,0.15552485,0.012041143,-0.12235073,0.16949725,0.027318053,0.012572069,-0.10807923,-0.094674505,-0.08817636,0.1629885,-0.015112107,0.03763615,0.09749901,0.0024142682,-0.038539562,-0.0045177354,-0.069737434,0.16936171,-0.07882684,0.13395049,0.030568581,0.1595655,0.1661934,-0.09533406,0.12556978,0.09400053,0.15726255,0.0795472,-0.024024613,-0.032415602,0.046427406,-0.064492166,0.12128786,-0.09490275,0.064281456,0.009872378,0.061267164,-0.082518674,-0.004928923,-0.12922841,-0.029871646,0.08134353,0.17671567,-0.016813723,0.10979544,0.13553812,0.12501733,0.09706178,-0.10200223,0.12559587,-0.11244056,0.1117668,0.045425013,0.07945811,0.16235492,0.16473188,-0.027185852,0.13418277,-0.02925706,0.042449385,-0.05982402,-0.024344547,0.10237349,-0.01860609,-0.05253957,0.05126712,0.05733373,-0.028615827,0.03667915,0.12699936,-0.046650704,-0.022089995,-0.03466951,0.022575721,0.07550513,-0.024998676,0.0048888987,-0.03877537,-0.00029210316,0.018486124,-0.06547918,0.053464253,0.12479305,0.029507093,-0.07193271,-0.019684862,0.016666913,-0.005381283,-0.08315567,-0.024124952,0.1817222,0.08097976,-0.10279065,-0.10528251,0.103376865,0.07469458,0.1462291,-0.04207265,0.028459366,-0.06681969,-0.09367611,0.1243605,0.013028003},
			{-0.057505492,0.09318526,-0.11357385,-0.10208158,-0.10218675,-0.123031765,0.014988364,0.043055896,0.14410217,0.14037412,0.08810411,-0.024529746,-0.099686876,-0.043292087,-0.07730491,-0.017542588,0.16091456,0.01125186,-0.053949527,-0.016352857,0.1352635,0.058168035,0.10063727,0.01961138,-0.16090943,0.09909388,-0.15607487,-0.018722715,-0.14510913,-0.06805943,-0.13424554,0.018726889,-0.09711737,-0.049388975,0.075734906,-0.097223714,0.06413313,0.018612621,-0.14796326,-0.18607509,-0.15050328,0.06003958,-0.015564186,-0.0066448767,-0.046454825,0.01919416,0.059352,0.07083271,-0.17656107,0.09236926,-0.1496681,-0.18506351,0.089479715,-0.054228425,-0.0017423304,-0.0301255,-0.15850203,-0.061955642,-0.1119035,-0.058209203,-0.049934193,0.063779324,0.102835245,0.054580342,-0.042414192,-0.074344836,0.064540945,0.07895085,-0.13769634,0.038716655,0.06732703,0.0666616,0.05114658,-0.13923118,0.019268546,0.014446741,0.16012639,0.039376162,-0.014030157,-0.12245312,0.15773581,0.14902806,-0.011148679,-0.05890614,0.065670915,-0.1530204,-0.12635922,-0.0692255,0.08924719,-0.07188268,0.17963003,-0.027706629,0.08101846,-0.085690714,-0.08539933,0.07975979,0.15163712,0.11323539,0.13313426,0.048256144,-0.08002388,0.09917707,-0.023871388,-0.14656658,-0.18003502,-0.01706514,-0.040522907,-0.10585936,-0.028581046,-0.14481276,-0.14608262,-0.060608957,-0.15861003,0.017085595,-0.15870066,0.02595832,-0.0020118866,-0.0066996114,-0.021754479,-0.13015985,-0.056982283,-0.032792058,-0.022240806,-0.0013291889,0.109852836,0.04918207,-0.09452479,-0.025132814,-0.14531982,-0.08826672,-0.120629095,-0.1624386,-0.07300232,-0.1186885,-0.116178915,-0.14300835,-0.062207002,0.065419585,-0.123706356,-0.005241643,0.044625312,-0.18536128,-0.11448311,-0.17273611,-0.0711562,0.07717852,-0.11513162,0.0728904,-0.074401364,0.09465395,-0.030951362,0.0006286592,0.015393629,-0.010047924,0.08985612,-0.13331984,0.008599491,0.019951198,-0.092523806,0.07861062,0.0774398,0.004052697,-0.06602682,0.0108828945,0.10440685,0.13310179,-0.014929587,0.031290453,-0.10613161,0.12900841,-0.07484235,-0.07984985,-0.00846527,0.12100428,0.053728167,-0.04031301,-0.03940555,-0.07269841,0.059939366,0.10116276,-0.07544499,0.017028265,-0.00042742974,-0.055780288,0.13558047,0.0013309423,-0.05235439,-0.03156566,0.13653916,0.005187313,-0.071808584,0.032612767},
			{-0.08816821,-0.022034701,0.08649918,0.07737165,0.115217626,0.056082983,-0.119098976,0.0073783835,0.019317312,0.011616875,-0.12855981,-0.10470116,-0.13842991,-0.12288101,-0.030591147,-0.07934455,-0.027144117,-0.12086699,-0.0059449296,-0.15064748,-0.01768412,0.034746625,-0.06425379,0.08054969,-0.17493404,-0.117203996,-0.0072157723,-0.05430087,0.053417146,-0.13790128,-0.082094714,0.05516371,0.0036644074,0.07628215,0.0627665,-0.028618662,-0.16467138,-0.15155248,0.07658741,-0.032675933,0.056539513,-0.052237183,-0.06402551,-0.13771957,0.10292004,0.012261951,0.02917607,0.054549776,-0.06875985,-0.03710954,0.10197878,0.08234224,-0.13741738,-0.042460583,-0.023467805,-0.10031186,0.006840595,-0.11910789,-0.1305659,-0.016817536,-0.018969165,-0.03475277,-0.112800375,-0.0050565028,-0.05263135,-0.107642636,-0.07770611,0.10864513,0.09993914,-0.11876944,0.00038780773,0.117586285,0.09087184,0.10475857,0.07687244,-0.110212214,0.0026681665,-0.047960307,0.081092864,-0.007873127,-0.03311043,0.118055046,0.10535406,-0.112822846,-0.13925375,-0.017701246,-0.028163884,-0.12649623,0.09883823,0.028806891,0.11626555,-0.023422426,0.13332003,-0.10307738,-0.072716944,-0.1500707,0.021612005,0.115417,0.09477704,-0.023479695,-0.08684677,0.11059216,-0.10838529,-0.043751016,0.022044135,0.085990235,0.07601669,0.0039845365,0.050407276,-0.12411169,-0.027441755,-0.041659873,-0.103318624,-0.06970789,0.016605046,0.013989233,-0.15523668,-0.035805237,-0.10006229,0.07145458,-0.13238402,-0.026705263,-0.09349369,0.07123913,0.041057024,0.067158565,0.09365492,-0.037694827,-0.12152708,0.052762635,0.14879683,0.009261796,0.09520652,-0.110825256,0.083595864,0.08488492,0.08284163,0.17032705,-0.013350472,0.10067093,0.16963845,-0.0027321612,-0.0032299892,0.0621106,-0.0042471555,-0.084996685,0.14901865,-0.022888461,-0.009154256,0.14037633,0.17667146,0.038812313,0.06257778,0.12261514,0.108401924,0.1280218,0.040106192,0.14395241,0.05005026,0.018646313,-0.028873874,0.12123605,0.046154138,0.01338995,0.072639436,0.03227295,-0.10063357,-0.11904656,0.03160983,0.056040473,-0.08419463,0.07468902,0.07656001,-0.06308616,-0.13596816,-0.06005466,-0.07053355,-0.04904941,-0.1629464,0.04415758,-0.17119981,-0.19520783,-0.060826916,0.033079408,0.08087437,0.008305757,0.07959805,0.08836911,-0.14953518,-0.14915664,0.02660009,0.053939264},
			{-0.06604266,0.013665235,0.080735415,0.08026232,0.05609119,0.08198951,0.024222478,-0.066473655,0.07854914,-0.16239801,-0.040044025,0.056468,-0.019030178,-0.051958606,-0.15985128,-0.16911197,0.0699558,0.017439995,0.06057415,-0.11101196,-0.030797182,-0.06400195,0.090987094,0.03965903,-0.042454857,-0.12757234,-0.015682269,0.08842386,-0.005757494,-0.06486096,-0.0718884,0.031326476,0.034578208,-0.029253794,0.027544698,-0.00964442,-0.15126468,0.09422789,-0.0712305,-0.13390452,-0.12405172,-0.110560864,-0.012360769,0.046065446,0.12608789,0.046874434,-0.13501549,0.04710706,-0.06324619,-0.05263194,-0.15864974,-0.060714733,0.11130351,-0.15061691,0.07711193,-0.014712105,0.0193589,-0.124751665,-0.0011542528,-0.07080181,0.06916144,-0.08978992,0.11651887,0.08434164,-0.105429,-0.004455215,-0.10373886,0.06828868,-0.095873594,0.07398305,0.028288256,-0.041893438,0.13288726,-0.03293269,0.14156064,0.12578191,0.026325343,-0.0732421,-0.15470979,0.08105643,-0.068533055,0.13978639,-0.013492337,-0.09016023,0.07080269,0.111576766,0.013384117,0.05673241,-0.10196889,-0.16967599,-0.042885374,-0.08019565,-0.11234739,-0.056889012,-0.0067418492,0.042886075,0.09468969,0.057989284,-0.0029394443,0.04040167,0.006675916,0.12483428,0.079027034,-0.108385906,0.053209685,-0.00084968755,0.018185288,-0.011034625,-0.11773102,-0.12062614,0.1163198,-0.038605783,-0.13460581,-0.13871607,-0.0020528745,-0.06232169,-0.10724678,-0.052552536,-0.17021899,-0.07841819,-0.062096126,0.09538898,0.075306065,-0.043392774,-0.1277106,0.011040714,-0.13940729,-0.11845259,-0.068372026,0.08436196,0.08969146,0.07187559,0.045031928,0.04553213,0.118690394,0.021354359,-0.073329486,0.06897587,-0.062859245,-0.059654225,0.12081232,0.03268893,-0.018828258,0.037313182,-0.08593776,0.033760317,-0.073588446,-0.0106986035,-0.10678517,0.1529034,0.052322417,-0.050817937,-0.08861413,0.11531737,0.050636042,0.13659364,0.10994041,-0.08505835,0.056454793,0.060826883,-0.0222243,0.0214855,0.05811447,-0.007943873,0.11469933,-0.037926383,0.117092356,-0.06424074,-0.06996599,0.030080952,-0.1710253,-0.0073445453,-0.0671171,0.0045398334,-0.005257961,-0.09002743,0.032886885,-0.054919563,0.04227069,-0.02457987,-0.12687553,-0.06395601,0.009902651,-0.0018861529,-0.17127697,0.013081407,-0.032262135,-0.062161997,-0.13389759,0.032310177,-0.021564467,-0.1332701},
			{-0.09882537,0.053869806,0.0470253,-0.089205414,0.08081614,0.03759244,0.091177315,0.14949013,0.03191328,0.17051563,0.122166716,0.14625047,-0.08825986,0.00585728,-0.04733085,-0.116125524,0.08558325,-0.083075084,0.060379677,-0.05747414,0.07539326,0.011295354,0.06732937,0.08269789,0.05973287,0.06610318,-0.11243671,-0.028713064,-0.15895565,0.080946386,-0.028977878,-0.15194528,-0.15476772,-0.10357913,-0.17962953,-0.12472236,0.08494393,-0.0088403765,0.048057567,-0.054400973,0.09484682,-0.06921671,-0.16836594,0.09956975,-0.08361389,-0.17047168,-0.12348707,0.058461033,-0.024515802,-0.112232,-0.15556927,-0.02540555,-0.07952918,-0.15277673,0.051156715,0.04653541,-0.10440247,-0.08574069,0.022661746,-0.009604378,-0.062133543,-0.04691008,-0.11789746,0.026247606,-0.023621064,-0.12179713,-0.08429484,-0.038439028,-0.015769416,-0.15924893,0.040655244,0.0535771,-0.09050119,0.109404765,0.0784843,-0.036290664,0.030529188,0.076462,0.051599637,-0.12317144,-0.11860777,0.13907371,-0.039926898,0.08168535,-0.04312335,-0.07733416,-0.13324773,0.024694515,-0.12687793,0.048413135,-0.007261335,-0.07121811,0.15088703,0.13095209,0.05484918,0.076286204,-0.043161985,0.09287364,0.06263673,-0.035735138,0.14609933,0.071825415,-0.05418176,0.06582508,0.12340286,-0.08214653,0.12308902,0.019167015,0.011963943,-0.08185004,-0.0006882518,0.06633484,-0.0973047,0.14031036,0.06353699,-0.06714946,0.03237593,0.03369051,0.006574405,-0.05578806,0.11028943,0.033022046,-0.1368357,0.092956685,0.07008651,-0.019891685,0.030450799,-0.13369039,0.01719983,-0.01321398,0.090125464,0.020675818,-0.064791285,0.08610099,-0.16738486,0.027852824,-0.011220933,0.094408184,-0.05417548,-0.041170716,-0.05977165,-0.011495306,0.0987409,-0.17022786,-0.16117892,-0.016016519,-0.14127578,-0.09774854,-0.07778089,-0.07082331,-0.12576403,0.09421236,-0.06045475,-0.052142218,0.07088874,-0.116901696,-0.13502987,0.1129207,0.076410204,0.03030597,0.05174993,-0.059122965,-0.007167532,0.11962081,0.048270483,0.056426316,0.14552258,-0.004834902,0.070810236,0.13347548,0.17884345,-0.09102051,0.17818198,0.1890016,0.09213759,0.16348542,0.101999514,0.1192303,0.1541749,-0.01799469,-0.048126053,0.1903356,-0.059143063,0.08121464,-0.044282116,-0.08692054,0.018785572,0.1932471,0.15821567,-0.0016576533,0.16528988,0.05417933},
			{0.13904391,-0.09361885,0.12933794,-0.07075322,0.060950447,-0.05893521,-1.5496538e-05,0.0539368,-0.11431295,-0.07257322,-0.027340982,0.09068595,-0.13406917,0.031057049,0.035489686,0.05837122,-0.0416943,-0.062219415,0.002365138,-0.08637297,0.0329888,0.071831696,0.08866439,-0.06333223,-0.16667229,-0.044056248,0.018606389,-0.06983098,-0.102140866,-0.077464074,-0.080363505,0.073629856,-0.18371516,0.06830242,-0.11873203,0.029777408,0.096553005,-0.16825865,-0.025961928,-0.10182312,-0.12693247,-0.12994753,0.06493632,-0.0840243,0.07358878,-0.17144895,-0.0033529215,0.02960988,-0.18764092,0.013667797,0.04534378,-0.101590075,-0.16389646,-0.06692285,-0.08528917,-0.07938024,-0.086703405,-0.048820194,0.0996974,-0.12373637,0.0388435,0.03873441,0.02257396,0.059523754,-0.031771887,0.13455364,0.12060856,-0.07674084,-0.09019438,-0.081903465,0.120955825,0.00688814,-0.022983788,0.02792315,0.121685386,0.026843311,-0.0018463308,-0.013319867,-0.05293475,-0.049940865,-0.000968325,0.05927401,-0.08908929,-0.05726604,-0.0065561202,-0.11131593,-0.12594625,0.021732358,-0.12762944,0.0075738686,0.15240112,-0.049505074,0.09613558,0.047486715,0.028464967,0.1041743,0.025915347,-0.0024735124,-0.104554705,-0.10830439,-0.08026575,0.06758588,0.06229903,-0.094085485,-0.17016064,0.043123346,0.029366417,-0.14118801,-0.11740313,0.059189003,-0.08028427,-0.03268563,0.057534255,0.013736753,-0.11055683,0.023750054,-0.12188831,-0.11124887,0.088041365,-0.10198803,0.06899078,0.004913534,0.05570529,0.09799722,0.11418559,0.07316857,-0.048843067,-0.018843267,-0.049185175,0.009778235,0.1728834,0.17595032,0.07662053,0.083874226,0.010317958,-0.0775253,0.09624216,0.070284225,-0.0518586,0.0864448,0.040025994,0.19036448,0.041376483,0.0056083943,-0.014394884,0.17884946,0.03786034,-0.0319422,-0.049436472,-0.0007579849,0.010128594,0.08927963,0.1634521,0.099002436,-0.0885299,0.072365,0.006582393,0.046208616,0.06777189,0.17442106,0.1210248,-0.01930159,-0.098539665,-0.023897242,0.010720038,0.16044547,-0.035339426,0.02962884,-0.004265319,0.1314458,-0.09214352,-0.10407674,0.010908213,0.025921607,-0.09544822,-0.14033692,-0.04720772,0.03336164,0.010152358,-0.115970366,-0.07084062,-0.14378615,0.10761468,0.04515902,-0.13204041,-0.14203443,-0.055184264,0.029311534,0.07582388,-0.022431115,0.06661984,0.10236356},
			{-0.19104464,0.0887482,-0.042194262,-0.020995693,0.080076545,0.07250255,-0.092190705,0.08934899,-0.06921486,-0.10889329,0.14693096,0.1522843,0.16908641,-0.048265133,0.022689424,0.13151368,-0.010275907,0.006795599,0.09382495,0.10324723,-0.05487074,-0.09086658,0.15514047,0.13998294,0.06613439,-0.13440585,-0.1517218,0.06477129,-0.045897968,-0.15219036,0.07853856,-0.13909581,0.019013952,0.086013205,0.015067778,-0.16405252,-0.10931321,0.041791108,0.054173958,-0.13732214,-0.09490822,-0.035953704,0.0034158537,0.0036713013,0.076152034,0.09895253,-0.098839365,-0.02889255,-0.021998923,0.09244178,-0.0006924438,0.031769577,-0.0377568,0.010570783,-0.03251692,-0.035320688,0.01468587,-0.121313274,-0.031540032,0.095167555,0.084234715,-0.17097811,-0.03513443,-0.1265349,-0.15802488,0.021813946,-0.15737702,0.018247982,0.029785307,0.026356405,-0.16270648,-0.12062521,-0.00016818543,0.078147255,0.015621441,0.05290572,-0.0025358815,-0.040582884,-0.05371764,0.16337672,-0.09492681,0.12147573,-0.0063772094,-0.12909837,-0.043231778,-0.0069751493,-0.042556603,0.05648549,-0.01631683,0.13752599,-0.024651224,-0.044750407,0.120501496,0.085732296,-0.027186435,0.11713769,0.13958152,0.13718031,-0.048562456,-0.01409498,0.09069858,0.071502864,-0.1097607,-0.094176404,0.0063609695,0.12743945,-0.07656981,-0.07005244,-0.014871477,-0.069841444,-0.11802722,0.054877136,0.13017666,-0.019507952,-0.12907895,0.03821196,0.086947635,-0.007571826,0.010903396,-0.08895899,0.13491473,-0.054905996,-0.07517071,-0.014413047,-0.06502842,0.099838935,-0.17667831,-0.06336399,0.019912105,-0.07673817,0.055127047,0.036108162,-0.0965498,-0.115777686,0.10169819,-0.14013036,0.0793217,0.093892105,-0.13613275,-0.050495487,-0.17855297,-0.13313478,0.032016072,0.024435384,0.07792448,0.08523732,-0.12192828,-0.089221925,-0.06733138,-0.12486815,-0.02354542,-0.026897997,0.113951884,-0.15901464,-0.120827176,-0.067587905,-0.12388116,0.06624047,-0.16575947,-0.09407391,0.09780093,0.12921834,0.15324186,-0.061998874,-0.0124269575,-0.012180117,-0.12143808,-0.0057367287,0.1534975,0.14448254,-0.0051865294,0.046162073,-0.09993767,-0.07691713,-0.0062529077,0.01174401,-0.1335105,-0.12818612,-0.05051807,-0.0850911,-0.066327155,-0.1104655,-0.11035742,-0.17003205,-0.09863559,-0.1728695,-0.087398365,-0.13636787,-0.13307515,-0.14181985,-0.15042233,-0.039294735},
