//#include "ap_axi_sdata.h" // ap_axis can also be used, but it will include all sideband signals which we don't need
#include "hls_stream.h"
#include "ap_int.h"
#include "hls_math.h"

#define INPUT_SIZE 240
#define HIDDEN1_SIZE 128
#define HIDDEN2_SIZE 32
#define OUTPUT_SIZE 6
#define QUANT_FACTOR 1

struct AXIS_wLAST{
	float data;
	bool last;
};

float relu(float x) {
	if (x >= 0) {
		return x;
	}
	return 0;
}

#define N 8
void top(int a[N], int b[N], int &out)
{
  int a_int[N],b_int[N];
#pragma HLS array_partition  variable=a_int dim=1 complete
#pragma HLS array_partition  variable=b_int dim=1 complete
  int product = 0;

  for(int i=0;i<N;i++) {
  #pragma HLS pipeline
    a_int[i] = a[i];
  }
  for(int i=0;i<N;i++) {
  #pragma HLS pipeline
    b_int[i] = b[i];
  }

  for(int i=0;i<N;i++) {
  #pragma HLS unroll
    product += a_int[i] * b_int[i];
  }

 out = product;
}

float dot_product(int a[], int b[], int n) {
	float sum = 0;
	for (int l = 0; l < n; l++) {
		sum += a[l] * b[l] / QUANT_FACTOR;
	}
	return sum;
}

void myip_MLP_quant_HLS(hls::stream<AXIS_wLAST>& S_AXIS, hls::stream<AXIS_wLAST>& M_AXIS){
#pragma HLS INTERFACE ap_ctrl_none port=return
#pragma HLS INTERFACE axis port=S_AXIS
#pragma HLS INTERFACE axis port=M_AXIS

	float inputs[INPUT_SIZE] = {};

	int i = 0;
	int j = 0;
	AXIS_wLAST read_input = {};
	AXIS_wLAST write_output = {};
	
	int layer_one_bias[HIDDEN1_SIZE] = {-2,5,-21,-2,69,-16,-6,-27,42,-1,-16,24,48,68,1,24,32,13,25,-13,3,39,3,-23,14,-7,6,13,-26,55,-2,-2,11,-13,4,-19,21,-9,2,-5,-3,11,36,8,-10,10,10,-24,23,6,14,8,-12,-16,28,25,8,-14,48,40,22,69,38,-13,-23,-17,-30,11,31,-9,7,15,17,-16,27,25,19,0,-20,56,-21,0,-10,0,10,-7,-5,-8,-22,-18,5,-19,-14,19,8,16,25,23,26,10,7,11,37,12,-18,-10,-15,-27,-8,5,-55,-23,-30,-3,10,12,2,-25,-4,9,35,49,18,15,-25,7,20,1};
	int layer_one_weight[HIDDEN1_SIZE][INPUT_SIZE] = {
	{38,27,67,62,76,-170,-163,0,18,-43,50,66,-15,85,140,-65,-41,88,127,-118,22,-72,13,-32,-18,-146,-80,-51,-12,108,16,-83,95,-89,76,27,121,19,-177,-126,-99,39,-116,21,170,165,-47,-19,165,156,137,-56,-100,-7,41,-188,-182,28,-30,109,122,163,112,-114,98,99,-106,-127,-19,-146,-227,7,32,8,-23,129,4,88,110,-35,121,-43,-111,-50,-66,20,-38,21,-45,12,56,-76,35,-74,-52,123,-110,-23,-68,-88,-103,-28,-167,28,0,144,119,161,35,25,-119,-66,184,186,45,-44,66,-124,-220,-91,229,109,-16,161,-114,-101,-35,-65,101,97,-27,-23,-189,-110,-73,116,19,229,137,-120,-112,-82,-11,10,26,143,-58,-237,-122,144,-89,127,82,11,-60,-155,46,122,81,101,42,136,160,0,-142,-61,-133,-168,162,-61,-4,-69,-155,136,-114,137,63,164,6,-103,-149,-154,74,104,-182,-155,-70,-63,-3,184,157,39,11,-152,-27,76,-36,235,136,-169,-192,-34,-73,-42,98,37,159,30,-51,-9,-22,130,67,-16,-51,-87,-34,-164,185,31,68,73,83,62,29,99,51,-148,-176,38,-59,-20,-38,38,60,8,-117,22,188,221},
	{108,59,0,-139,77,-118,-20,60,18,-102,-104,24,-96,66,1,-61,-27,-103,-5,-96,-78,50,49,-22,-139,125,87,-93,137,-96,115,-6,55,-151,-46,86,112,135,165,75,59,-85,-164,-135,25,80,-87,141,50,-89,-138,-24,-41,-23,86,205,62,-95,-145,-221,-115,181,162,220,59,-62,-125,-58,-5,74,-68,108,43,27,-124,-58,-11,-16,3,153,75,-33,-171,-12,-69,68,119,126,-23,120,90,159,161,-65,180,30,56,-158,47,-36,42,124,170,58,-4,-106,-164,-78,-138,0,-76,-75,-35,-85,-137,-50,8,-145,-33,-36,111,52,-45,94,-94,-92,-2,67,114,-84,-177,-188,-198,-24,74,35,77,76,91,-118,-116,-95,123,-117,-27,30,37,-166,76,181,0,25,170,139,-60,106,-78,21,-76,118,-53,-14,-58,105,-44,-53,-50,30,-113,-86,-48,94,-21,63,48,-51,-111,-103,-9,38,64,-105,-117,111,142,-21,-117,54,-14,43,0,3,119,-20,-3,-152,63,60,-43,100,-41,-137,87,116,141,130,151,-32,16,-62,-87,-5,0,23,83,-79,71,135,198,171,115,25,-42,25,-105,-42,-7,-92,-95,-48,-92,-35,-11,16,64,-120,-104,113,-205,4},
	{23,-71,102,-66,-2,-91,-60,-7,-14,130,176,-16,63,-34,53,201,-55,94,40,132,172,109,23,62,49,-1,10,-31,-54,74,37,115,-24,-28,-38,83,139,38,136,-26,-28,3,97,112,-73,89,37,16,-40,-21,164,-63,-82,-86,146,108,126,-36,60,-79,174,32,-56,98,143,-16,80,-20,-12,-85,-106,82,64,65,-88,64,51,166,53,-113,-7,-75,29,-99,35,41,-116,112,51,-54,44,27,81,-56,108,-32,-19,-6,-69,54,-98,90,-88,-22,9,95,127,-80,-85,-55,-76,-92,-68,-27,-33,148,-42,91,-79,-145,-37,-18,35,24,52,75,150,144,94,-43,-109,-148,-9,96,10,38,15,92,-50,72,-84,-131,-135,95,-19,21,-19,0,-110,41,-15,-19,-104,-119,-102,-5,94,66,-25,-4,28,-41,62,211,186,102,34,107,120,182,31,99,162,116,78,49,-9,71,-26,-13,-10,47,148,15,181,102,100,145,-89,52,202,70,189,206,142,145,-36,-31,-105,-111,173,220,83,87,208,150,-37,61,-62,73,137,130,201,157,173,72,53,-76,-147,-121,-22,-32,117,165,53,241,19,169,8,-135,70,30,-20,121,208,218,195,91,-8,22},
	{-14,-4,-56,-50,-107,-122,86,34,37,-23,47,13,121,70,-14,-21,-1,130,-12,-46,97,15,27,20,-65,34,80,34,-41,113,5,-2,147,106,-47,99,145,-8,-27,140,-77,158,-16,135,-7,-93,-18,-116,81,-93,57,-12,-82,65,173,164,-135,-23,14,47,24,127,-83,85,141,106,-2,20,-78,117,146,-6,-17,-83,-76,78,13,57,-112,-87,36,-59,109,-73,-73,-126,-176,-68,29,-41,9,-31,-16,93,130,100,11,89,127,-50,-68,77,-63,-51,73,-125,92,-134,-168,-206,25,94,-60,-61,-15,-63,80,-78,-78,-48,133,-96,157,62,-5,-111,109,123,36,-36,-83,34,107,108,2,-31,-5,-126,16,-49,-23,-41,-86,77,43,-14,90,-31,94,69,41,9,87,-82,95,-119,2,62,38,37,170,196,120,-87,19,-4,-6,24,-38,26,90,138,-64,-6,56,-70,-205,-135,-45,-21,97,-14,182,110,62,-66,61,80,86,-57,88,58,-32,-55,10,-116,-2,-104,-114,55,41,95,2,-35,35,-102,0,36,19,-31,-75,-1,161,135,58,-33,-24,76,155,-7,-8,44,-147,-11,-66,-33,-121,10,8,6,-47,-47,85,-67,-6,-73,0,-54,105,-54},
	{-6,10,-94,135,-18,105,42,-86,-3,128,103,-121,-122,-135,11,95,75,137,23,-51,52,2,-98,149,115,-53,141,-28,-120,-107,-91,58,30,10,143,-68,-17,-109,-54,-68,-33,-86,120,-63,-20,-24,114,174,59,91,100,15,7,32,136,-41,24,-34,82,1,-117,95,-27,-15,113,-28,7,119,-144,-17,40,-56,86,83,26,138,109,-46,16,113,101,20,34,-109,-68,-85,28,65,89,-33,-45,-34,-85,160,111,101,141,162,149,67,-102,40,-54,155,190,77,111,38,126,65,151,141,-48,90,76,-104,51,-8,101,67,139,103,124,92,83,13,128,197,16,167,-39,120,55,-55,-55,175,146,132,-62,-63,52,-54,-37,44,-70,64,76,-76,110,68,-20,36,-66,180,-58,9,-37,-16,120,-26,52,118,113,-57,-33,181,59,38,78,68,-101,160,17,-10,2,129,132,-57,-37,155,73,63,-68,-24,91,20,135,74,52,185,100,74,197,-53,-31,79,-66,107,126,97,146,85,86,-82,14,130,-2,16,-50,0,-71,157,-88,-19,41,-76,6,69,-87,118,76,114,118,73,-18,109,52,-3,55,45,11,13,79,-76,84,147,64,15,-56,77},
	{-136,-110,18,82,33,-62,-76,6,152,29,-16,-132,-41,158,52,-81,-31,17,-106,-24,88,30,127,81,65,35,181,37,-144,-27,-148,-126,7,-5,-57,127,204,11,66,93,79,43,-166,-196,-63,17,-47,69,89,-29,90,103,-148,21,-158,-82,50,-33,77,-42,61,84,-58,-174,-161,-25,-18,138,93,176,38,-19,57,71,18,-201,-230,-153,57,74,15,113,38,143,-38,58,12,81,-9,-55,-141,82,77,57,-7,-66,130,11,8,101,-29,52,-91,106,-102,48,100,-159,-114,-61,23,73,97,72,-9,-135,-129,127,150,71,-87,24,-173,-105,70,20,90,3,-77,-3,-107,109,22,-37,-107,-168,-121,-150,-11,93,49,-70,57,21,-100,-47,95,44,-80,-105,65,97,-62,128,-5,-38,-37,33,-27,97,38,206,174,169,82,-89,-139,-117,110,-161,12,159,182,28,-183,-265,-26,79,-66,51,-134,120,19,139,168,-12,101,-184,-232,-198,-43,-14,189,-122,-45,-78,72,-37,25,-90,73,-106,-39,23,25,140,111,-29,-128,54,-101,-50,10,-95,-36,-27,91,23,28,-132,-51,-56,73,-161,-103,90,54,-23,21,82,-32,149,-145,-189,-5,-169,50,0,114,50},
	{92,-5,94,115,127,129,123,72,85,-23,-43,122,-65,-9,37,-15,132,-80,161,121,149,102,102,112,101,147,-20,-82,129,60,-67,167,-20,29,0,172,129,75,108,77,145,184,166,23,98,36,94,49,112,153,83,182,130,-43,-9,156,-25,153,115,31,-44,24,-21,57,-70,-68,12,148,176,-17,108,-34,96,61,-92,136,142,-62,98,-33,-72,-106,34,72,-43,105,134,104,90,-39,-43,124,65,-80,-60,-82,-64,65,1,105,52,-11,84,14,20,-5,119,-52,80,29,-5,-94,113,-20,81,-108,-77,-101,109,71,1,-17,11,27,148,-85,35,15,-96,22,103,67,-78,25,125,-28,32,41,53,-1,30,41,18,-47,-99,118,-25,124,77,-82,-74,90,-99,-30,51,-66,125,-20,70,-80,10,-76,89,25,91,-11,-62,46,-149,39,-3,-173,-54,-17,-96,77,42,-56,88,-59,54,-37,113,-65,-46,88,29,89,128,-56,-34,-61,17,-102,148,24,-82,100,9,-141,87,-86,-27,-25,-98,-78,99,28,-113,-13,140,-55,0,-125,58,120,-106,-72,84,-10,10,75,-94,106,-90,-5,-58,95,-98,-137,-103,-17,-38,39,75,-168,-137,-64,-97,-115},
	{12,-59,-136,43,-103,39,109,111,51,-94,-157,62,-27,66,-110,-31,122,65,6,-103,11,-9,60,123,-126,-6,14,-37,67,-146,-55,44,-40,-163,-127,-52,130,52,146,-43,-106,-143,-124,-63,-57,174,-33,33,3,19,-157,31,-104,17,95,75,135,-30,-4,33,87,-129,92,-145,104,76,66,64,-33,56,-20,-2,76,132,115,0,64,-42,119,-137,-100,153,-105,-109,-29,-129,19,-42,49,-38,-26,60,69,-65,-58,67,-116,17,-87,22,101,-92,-114,18,90,62,84,104,-33,24,-105,-70,78,22,95,-72,110,51,47,-93,-45,150,120,40,-150,0,104,-57,-53,144,68,-48,-163,-164,-61,96,21,-34,22,-34,-20,-157,50,17,-12,125,78,-5,-155,34,84,-2,-102,55,115,-62,53,109,37,-18,-146,-117,-83,67,96,118,27,-72,-78,-205,-51,89,88,174,100,-59,81,28,-109,9,-179,94,142,-43,72,-98,-103,-37,166,32,-55,85,-113,-12,-55,-51,-69,209,167,-129,-260,-46,-107,95,221,100,-44,-119,9,-135,-148,-28,194,207,-61,-64,-109,-63,60,150,137,106,8,-157,-21,-34,229,56,-112,-13,64,43,-160,74,84,140,54,-29,-31,-93},
	{0,51,91,-9,95,114,48,-31,15,-9,-16,0,43,-119,-5,-22,115,82,-96,116,127,39,82,-96,-17,-12,-101,-41,10,-60,-58,-86,-76,84,15,0,126,-116,-64,66,-18,-21,-115,-41,8,-9,16,-59,44,-136,-7,46,-114,-66,85,29,87,17,-73,108,-83,-4,75,-48,75,49,-37,-80,-29,-40,54,-94,108,75,-100,-104,-118,-101,86,98,90,89,-29,-57,-59,81,-9,135,38,122,26,56,-57,77,147,120,117,80,147,-59,159,-54,82,37,-34,4,63,-67,91,-7,104,126,48,-29,111,146,-58,-20,79,73,62,111,138,153,152,145,59,130,77,37,6,131,-44,-80,37,-19,-88,150,-36,109,162,-9,166,101,87,178,58,-49,158,150,54,151,-27,46,62,-7,-11,-86,149,-80,52,6,-101,14,75,36,7,-46,139,127,154,62,-43,-96,106,-59,56,128,34,80,41,-17,137,-35,137,-84,155,126,161,19,4,112,139,152,149,0,88,33,9,115,0,65,-16,13,82,-49,28,18,112,142,158,129,-19,55,64,-19,-52,188,79,-61,135,-36,52,10,-25,36,23,-47,96,-16,92,64,-57,-79,82,-47,30,47,74,101},
	{48,-44,151,11,-110,-31,49,44,149,87,0,97,13,-11,-70,125,84,119,83,8,136,-38,130,102,32,28,101,127,-15,153,141,128,152,45,-61,28,108,-53,128,72,-31,165,156,200,166,70,90,94,150,138,138,-1,173,108,121,97,-4,164,125,70,21,125,37,48,-14,157,134,138,207,126,162,138,71,3,24,63,3,137,90,130,15,73,-15,28,1,101,33,-56,-38,-62,-98,0,17,-147,-37,16,-115,90,-111,2,-53,-58,-79,-84,-132,-27,-144,-132,-41,-105,20,81,101,-45,44,31,111,92,37,61,75,114,69,127,92,-84,-5,-19,58,49,-88,85,-13,-130,-85,-65,78,-111,82,24,-13,-110,20,76,-72,6,111,16,136,-143,-63,79,-99,-95,-40,-105,-19,11,22,6,-45,-37,-76,-5,10,-14,-127,17,-187,-188,-86,-190,-81,-104,-7,-133,0,-10,-184,-136,-127,-235,-61,-45,-46,-38,32,-64,28,-14,-39,-221,-40,7,-137,-113,-59,-115,-90,-63,-95,-37,-80,-137,11,-125,-25,-151,-122,-22,-172,-75,-88,-83,-220,-124,15,-89,-206,-185,-117,-146,-93,-69,-22,-60,-40,-6,-119,-36,-82,-43,-190,84,-10,-59,-182,-149,-49,19},
	{-66,-4,82,-70,62,190,84,54,-15,12,-89,85,-50,32,84,-15,50,15,-59,-8,15,-23,-51,-66,-198,25,28,-18,120,126,111,-177,-126,-26,-212,56,120,61,115,-68,-50,12,26,-105,78,41,-112,-156,113,114,220,0,27,22,-18,-176,-86,-194,48,85,126,2,-70,143,-2,-23,-137,-93,136,-55,31,172,-28,8,45,-128,20,-104,-168,-16,32,110,42,-82,61,68,-57,5,-74,26,119,-70,-8,-45,70,16,-47,-148,-188,-155,28,182,170,52,-41,-56,-45,-124,-74,74,134,53,77,5,-49,0,22,-119,-44,2,53,-20,32,21,229,45,122,-200,-242,-220,65,193,134,55,41,-75,-85,-45,-127,-98,-40,179,48,-24,-40,-56,91,116,-30,24,43,-56,-45,-18,121,74,127,-133,-144,3,136,186,-114,-158,-205,-5,-153,-39,129,233,18,-115,-29,25,-42,-44,-16,-85,30,93,52,106,1,-66,-225,-69,-13,-105,124,170,197,236,-112,-122,-124,-320,-80,-23,88,305,166,133,-35,-83,-116,-255,-257,-46,95,306,126,189,240,-86,-172,-162,-87,-27,35,223,197,107,279,26,-191,-331,-250,26,14,109,62,138,-16,216,-45,-113,13,-253,-126,192},
	{-125,66,95,35,-30,-68,-55,-89,56,29,-63,-94,-55,-17,-46,-41,132,-76,80,-43,-52,45,133,84,-29,104,40,-57,51,4,88,-57,-47,60,78,-11,-61,21,-52,40,-69,79,86,-34,-47,-43,-20,121,90,80,-18,-23,-87,128,-2,20,-49,83,-81,-70,-40,92,113,38,-116,89,-9,75,62,-144,4,6,31,-49,95,90,-97,74,58,-51,-110,3,112,-68,71,-10,0,-30,-57,131,-129,-158,-177,-55,-6,67,35,-30,-152,55,-38,-46,79,-56,-13,-88,-170,-120,-105,35,87,31,-61,54,-27,-119,14,-45,0,87,-57,-83,-204,10,116,-68,-35,140,-23,8,-151,-177,27,152,104,-110,-129,-6,-134,-80,-11,65,-20,-67,-126,28,-82,-26,135,-2,48,-149,41,-43,-45,-8,-22,-76,16,-13,131,124,156,150,137,193,132,96,12,163,110,-9,178,-17,-27,-31,6,41,64,155,-6,-66,62,-63,127,-8,137,60,7,15,5,187,-25,-19,-8,184,4,-14,113,113,182,49,64,189,-19,96,42,177,123,38,169,0,-5,42,190,189,151,90,67,55,-48,179,-22,204,213,-3,131,100,-62,160,103,-1,124,-8,77,-39,1,38,33,40},
	{51,-24,-73,-50,-22,138,-67,47,121,-22,147,112,-79,72,51,10,21,132,82,89,-66,92,105,-98,-94,-19,-109,-103,-59,-23,-64,107,129,-29,-126,65,-11,69,79,94,-110,59,69,138,80,-41,117,99,48,101,-26,-5,3,14,-1,116,32,81,-25,150,-79,59,100,-65,-26,108,-130,51,-66,32,-48,-144,5,90,21,-92,81,-13,-31,56,108,60,103,60,-70,90,-48,51,127,-20,-21,167,118,-89,138,1,36,33,-46,154,128,-15,-31,77,128,108,138,35,-52,30,116,-59,-15,-44,18,168,151,113,60,139,0,37,184,195,89,47,-17,-27,99,141,83,102,180,-54,-6,131,42,134,63,51,66,-77,110,-64,38,131,50,89,57,145,122,79,-30,94,110,18,38,125,165,14,-41,-107,5,-10,21,19,88,61,-68,-6,85,-148,83,55,42,-64,61,-148,35,-131,-78,-42,53,93,65,20,69,74,-10,-41,62,-92,-36,97,14,-96,-93,60,-53,64,105,-41,18,-96,-101,-153,-144,116,-146,-36,3,-115,42,69,60,-26,77,-164,-27,-28,-63,-24,-12,-128,67,46,-95,30,-113,-139,40,-92,1,101,-58,-60,22,68,-19,63},
	{-213,21,-6,-179,47,-98,-100,-151,-125,-86,-72,-14,-135,-150,-3,-43,-91,-170,-216,50,51,-161,-80,-133,-157,-153,-108,16,-63,-82,-133,-193,-204,-179,56,-32,55,-42,21,-213,-144,-115,-178,59,-4,-111,-52,-10,-18,27,-72,-202,3,-187,-46,-166,-206,-171,-73,2,48,-79,-138,17,56,-111,-185,-209,-127,-216,-62,-190,-80,-120,-43,1,-131,49,-62,-117,78,-70,101,26,66,162,-36,131,-66,57,-98,-59,-59,136,175,38,28,-56,-30,86,-55,-56,167,43,115,17,25,-103,-71,106,50,39,114,-6,1,-2,57,47,132,-19,-88,-97,-139,90,26,60,179,-18,110,-91,19,14,122,52,175,-7,-8,-19,6,116,35,53,136,79,97,-75,-91,91,1,178,-68,116,-126,13,1,-13,-77,-74,138,122,-12,-11,-37,-51,87,109,102,74,-36,-20,-65,28,68,69,-154,5,35,-135,-24,98,-40,4,-98,106,-14,-7,-93,60,-146,-94,-57,-1,48,-47,13,41,-16,-56,-22,-3,-119,-40,-83,-102,96,84,-27,-104,-53,69,132,139,53,88,-93,68,125,-82,112,-4,69,-165,26,170,-53,-16,132,117,-36,-100,77,-110,-104,56,-7,128,-35,140,159,126},
	{16,5,-13,73,-96,-55,93,56,112,-39,5,87,9,-49,-83,-112,70,0,-39,-147,-128,101,87,-15,-46,17,75,52,-104,-23,32,-172,39,130,61,-118,32,-11,145,55,206,41,83,39,-157,-54,-4,66,139,100,-107,-27,49,-24,-139,48,140,-91,46,-73,-166,-72,-138,8,-4,100,-136,33,-93,-33,90,52,-84,87,-16,-24,-11,-29,117,-29,30,-1,15,40,60,151,162,-58,-45,56,-190,-35,82,52,163,162,-127,-86,-137,-2,-123,-47,34,42,-117,-140,-30,-1,-95,134,-45,18,-169,-36,20,-68,33,20,-90,63,1,-104,-5,-36,145,5,-140,-7,17,46,-71,134,112,-133,-82,110,77,41,99,-20,-15,45,64,-95,128,131,-51,-87,143,108,-118,126,-92,-107,86,67,-128,-38,-60,19,-131,31,116,-97,-55,-60,-58,5,-147,88,28,-3,-22,-137,-125,204,-29,30,-32,103,9,-193,-176,97,34,-32,210,-5,-203,-14,68,-54,-97,-103,-101,-125,-39,-99,52,155,-51,-126,-56,40,171,13,73,-117,67,-22,85,-67,100,129,102,22,-27,-41,-110,81,66,-31,75,81,-160,8,-69,109,85,85,35,-11,107,6,54,9,102,2,53,5},
	{-165,7,-189,-135,-110,38,18,39,21,-62,-152,-114,-184,-3,-34,-167,-119,-56,-138,-66,-210,-223,-74,-111,-209,-95,-159,-125,28,24,-197,-97,-12,-12,-179,1,18,-42,-27,-148,-144,-4,39,-1,-185,-184,41,-93,91,29,118,-19,30,-120,28,-16,-69,-85,-173,14,-49,74,1,39,-93,-78,-68,-63,-53,1,-71,-109,-45,-69,-14,39,34,30,-104,-123,-135,-37,-71,17,-41,-120,-57,-70,-72,-60,63,-49,-37,-29,-75,48,61,85,69,73,1,-83,83,-37,-70,-213,-110,-145,35,-81,33,36,-64,-113,65,-91,-106,72,47,-97,5,46,130,195,113,-42,40,9,-84,-41,30,24,56,31,-30,-89,-80,-78,-95,24,-156,-83,73,-4,-94,-82,-109,-50,-115,-92,-77,-118,41,97,32,-74,-83,64,-84,-30,147,95,-78,33,13,13,61,-38,42,-49,-4,69,73,65,70,29,75,12,107,174,128,141,102,-10,-25,60,-42,-88,22,58,29,49,127,-60,-103,-100,65,117,96,150,-10,-47,123,112,-24,124,95,-100,93,-2,28,25,-48,29,-65,-68,95,145,174,68,52,125,-90,-7,-80,91,99,77,-87,-99,-75,37,132,-13,23,43,8,-123,-70,-69},
	{-18,14,-20,-21,-21,-86,-21,-129,-53,-81,2,174,21,138,95,12,12,-110,-148,-185,-150,-84,179,-46,19,35,19,-110,-72,-42,-114,-23,-84,144,116,188,120,49,18,-93,-116,-210,30,-8,220,-2,77,-8,-73,3,6,-130,71,-49,-20,55,123,53,196,35,-94,-130,30,-57,63,107,35,-16,87,-9,-36,-125,113,-113,-31,-42,-73,105,-4,9,-16,-104,121,26,16,131,33,40,-103,39,-26,-107,7,24,123,108,-35,132,57,168,-144,-73,-213,13,47,99,137,137,-19,-88,-107,-134,-110,-39,-17,110,-1,15,-77,-60,167,107,-132,-159,-135,-134,-57,-33,200,149,99,-75,-227,-146,-70,-20,180,-8,86,-70,135,-138,-88,45,-90,64,-124,-35,123,25,-67,37,57,123,-106,-83,-112,56,22,-77,32,90,104,-28,195,160,-155,-216,-165,-192,-24,-56,150,98,146,-92,68,-40,-277,11,20,82,119,73,53,237,25,-139,-191,-76,-221,-119,-35,86,189,304,45,-171,-194,-156,-132,-222,-60,-76,11,186,77,-11,51,-56,-202,-144,-335,-48,162,-7,232,271,36,-204,-184,-299,-237,26,53,96,-22,194,191,25,0,-204,-131,-192,-113,118,66,119,-42,-21},
	{45,112,0,98,-4,-65,2,83,53,145,112,56,134,75,-65,-44,83,-16,42,138,-20,60,129,132,117,30,-5,-105,-109,-80,-63,80,135,74,31,145,-3,-113,7,46,55,140,-41,149,-20,-21,52,-61,-77,-46,44,-11,-8,61,-25,82,165,37,154,-42,-66,103,-84,-59,154,35,114,107,108,-54,-23,-53,-63,12,65,44,-56,25,63,112,127,44,149,70,49,-44,108,110,-106,-13,-51,-92,-31,-13,51,112,50,6,-25,91,16,-76,65,-92,-68,-67,-54,-52,30,-96,51,131,69,-63,113,63,-14,42,28,134,112,19,-40,-98,30,88,103,129,-58,57,-50,-49,19,-77,-91,118,-93,26,-66,52,-109,30,-81,-29,-86,-1,132,121,72,116,100,-113,133,123,57,2,17,30,26,-11,26,-4,-142,41,-3,36,-89,-92,-157,-60,-116,-131,-158,43,-51,-82,-152,36,-173,-192,-169,-56,-114,17,-112,-125,49,9,-9,-54,29,-29,-41,67,73,28,-48,6,-156,-52,-70,59,58,46,78,-114,-31,-23,-63,-148,-177,-6,45,119,-74,23,45,62,2,-3,-166,87,0,-48,-127,56,-113,-59,-14,-165,-93,-176,16,-111,-76,-104,-95,-75,-110,-135},
	{-138,-4,-133,12,-111,-154,-74,-171,-79,-131,-154,37,17,-14,-110,51,-156,13,0,72,-121,43,33,-130,-45,-96,-88,-27,-73,-82,-107,-163,-179,-103,37,-17,-107,73,-7,-26,17,12,-137,42,-188,-108,-102,-154,-17,-160,-168,-115,-74,-66,-132,-67,-172,-154,-33,-64,-12,-51,-150,-146,-91,-83,-146,40,-25,-32,4,-131,-126,-89,-145,-59,47,35,60,58,153,-54,133,-75,117,60,-20,133,46,62,38,-38,-95,-15,9,80,180,-48,89,29,32,-93,54,115,156,-21,-5,108,111,-85,24,77,7,171,-89,-74,87,-57,172,-46,-51,124,136,-37,16,148,-27,93,163,1,-19,138,-74,-20,42,6,147,98,81,113,-31,-15,89,-39,-57,3,45,0,100,-37,121,-88,88,132,8,159,140,154,122,136,30,-61,-5,-61,-85,75,8,70,85,78,-73,-54,-128,-81,-104,-156,16,-94,-64,-4,-99,-123,42,45,-104,19,69,-117,-45,-56,35,-150,-133,-152,-99,-19,-8,35,80,89,-9,-46,-4,-118,49,56,-73,58,-73,28,15,-75,-74,40,-119,-143,125,22,-101,28,-124,-12,34,77,-112,-89,-43,74,-46,-14,9,-41,-93,-59,-118,-61,83,-143,-89,142},
	{-80,-59,-45,-77,133,-19,50,117,114,-98,-90,34,117,-33,46,-65,144,4,-45,1,-30,46,-112,-3,114,25,0,-104,143,63,115,13,-49,36,-88,-79,134,-99,30,-5,143,95,-4,147,138,-98,-23,88,21,-16,68,77,51,-66,63,117,-72,-86,84,113,-12,110,84,68,-21,-32,17,42,-97,-89,96,107,168,40,-112,-102,-98,-75,-41,105,36,96,-77,8,-16,81,-11,-35,55,102,-31,-103,99,63,-106,-9,-3,41,-67,39,-74,49,76,12,-19,-44,77,-46,-57,-142,-55,-169,-2,-74,67,-103,-13,14,-59,-29,-108,-19,78,3,81,121,55,84,45,-57,40,-62,-12,-39,11,-37,-44,-8,57,134,-24,44,-165,-103,91,-110,121,106,-122,65,61,-6,-137,-25,65,40,109,24,-80,-67,-71,110,-125,57,87,37,124,-18,-82,-41,23,15,-90,-44,48,-24,18,-14,-22,-73,-66,-1,-55,-6,76,-72,60,-9,-29,33,13,-28,117,43,-50,38,-109,-41,-56,84,59,-32,-56,-92,-40,94,-89,-90,42,-88,-68,3,-115,21,23,-96,-5,-45,-51,-162,99,-142,1,13,-34,-109,76,-11,127,-77,-75,-90,60,-80,-50,-76,52,-109,91,99},
	{-188,-192,-188,-15,-162,-225,-180,7,-38,-143,-159,-16,-62,-11,-160,3,-135,-132,-187,-249,-86,-153,15,-216,-157,-76,-51,-103,-71,-172,-201,-143,-154,-111,-15,-35,-77,-207,45,-50,-161,-177,-29,-201,5,-27,-84,24,-33,-178,11,-211,-198,-223,-15,-30,-143,-45,-96,-148,-4,29,0,-101,-164,19,-116,-106,-24,22,-133,-120,-39,26,-69,-125,-144,-120,-154,-169,-38,-6,-66,-23,-3,-94,-89,-3,22,93,-156,8,-145,-94,-54,-37,-114,-148,-77,-5,-162,-185,-13,-11,-102,-67,-91,-69,-57,3,-38,-112,-91,-178,-117,20,-77,-93,15,-49,72,0,-2,20,-8,14,-42,-90,53,-74,-109,-70,-120,-39,98,-35,49,-122,-137,-111,-48,103,-73,31,48,-37,0,-63,-101,-101,63,-131,16,-87,-130,-123,73,-125,54,-63,-5,-52,27,-59,-23,82,65,-61,137,144,78,60,36,78,88,-78,100,203,113,32,82,108,151,126,-29,111,83,76,-55,9,40,-97,108,89,106,115,163,-71,-115,48,118,201,-37,22,-73,-27,23,-44,84,47,-41,-109,51,116,177,52,72,150,-32,150,100,28,-28,153,-45,-79,-94,93,-85,29,-51,106,48,-88,62,101,11,32,23,201},
	{135,141,-72,-33,-144,28,-164,-48,-82,93,-104,-80,-161,-58,-39,45,216,211,-23,61,-102,-210,-168,-85,-41,18,-20,-179,-60,94,147,173,233,125,-52,-44,-110,-113,-15,76,66,-85,-63,3,0,67,121,99,149,102,-120,-94,-164,-169,-63,50,105,-119,-19,-80,159,174,49,-129,71,25,-35,-33,42,-14,1,-159,-124,69,161,133,62,-76,-105,-42,-183,-78,57,101,43,2,-56,-97,7,84,76,96,101,33,-52,-149,19,-153,114,-9,45,68,-12,83,-26,60,97,39,174,45,-99,-11,-133,-145,-91,-57,79,80,-101,5,-99,81,11,174,160,58,89,-193,-247,-41,34,73,166,-49,-85,-73,-16,161,25,158,118,-146,-105,-165,-33,-22,67,-7,100,-52,-69,-128,109,82,88,-13,-59,-104,-181,89,-33,-94,35,-154,8,-129,-59,-88,95,28,-162,-39,70,-10,-54,5,70,55,-111,-99,-124,-10,29,89,107,-75,-175,44,-43,73,-108,-91,20,8,-41,-53,-144,-95,97,-100,-63,44,-73,-154,-69,16,-105,24,179,-48,2,-170,-81,-83,167,4,-177,64,61,-118,-50,76,-31,-6,103,-163,-84,-135,-35,-65,140,-106,-46,-51,-89,-6,-1,7,36,-77},
	{-24,48,-102,-68,-37,16,-68,59,-6,-158,-110,10,104,85,79,-61,82,-126,-60,-82,16,-1,10,-32,43,29,-181,-69,62,102,36,-6,-9,-56,30,-173,-16,30,-52,61,55,-110,-32,106,188,-35,5,95,132,-24,-35,66,-62,84,73,25,-34,47,90,70,84,52,-165,-35,2,-44,3,0,23,42,-87,-143,-23,78,-1,62,45,-8,-116,-55,6,-31,178,75,-40,-17,-138,-3,-36,-53,23,66,-41,-187,32,-52,37,-29,180,177,124,40,-151,-187,-27,59,-28,-123,128,68,-56,61,217,-27,140,-12,-110,-251,-39,70,-6,-88,-140,-72,46,-31,78,150,137,58,-187,-170,20,-4,-127,142,156,-140,-122,82,122,97,68,-71,-35,72,98,-36,-133,-60,-16,-132,3,34,6,55,2,53,-86,-48,76,194,-16,80,4,99,-101,95,-147,-154,-119,-104,-22,-104,58,93,-24,-130,46,-65,-47,25,28,-48,-168,-173,-238,-86,14,57,115,44,-42,144,78,-76,22,88,-102,-163,53,16,31,151,-64,3,-97,-62,-52,36,210,172,21,-129,-101,-32,41,183,147,0,-129,-71,8,29,67,93,22,129,32,44,143,69,-104,-79,24,18,29,19,-73,-56},
	{-131,-188,-53,64,-43,168,170,-14,-91,165,88,85,-12,-54,-17,-126,-171,-37,-153,5,-48,24,35,-57,11,12,-68,88,-61,-47,-130,-127,-30,99,2,-94,-124,-44,-79,145,178,4,-23,104,-160,115,26,98,46,-13,61,-97,-87,212,149,62,-25,115,-74,33,-197,-72,42,67,-52,36,74,42,102,-5,39,-72,3,151,142,-61,-81,27,-201,38,110,96,-46,13,-13,-51,-37,-38,20,47,-3,-1,-95,-25,56,-56,97,46,-69,83,48,36,-148,24,-100,91,-111,110,-64,-138,-151,36,71,101,117,149,-133,-141,-81,9,22,-50,120,37,-166,75,28,44,-3,94,81,-50,-187,-127,131,123,36,98,-150,-30,-43,-54,54,0,86,-18,-3,31,90,48,-116,25,-108,-92,-28,124,11,-74,144,-54,-185,-129,49,-122,172,93,198,-119,-28,-4,-2,21,-70,-7,55,72,-108,92,-16,26,-104,-27,-52,122,99,36,58,-36,-105,-115,22,-41,171,-107,-7,128,-78,-43,0,131,-106,-57,111,-61,103,-38,143,94,24,-155,-121,86,144,46,188,-44,73,-73,-112,116,-91,-3,-87,16,-139,-47,145,-134,-99,16,208,186,-101,-103,47,58,-80,45,-65,-114},
	{20,57,-84,-13,72,6,-108,70,46,99,-18,-40,-36,60,-136,100,154,-101,73,-127,34,-11,-86,-78,101,-34,12,9,-80,19,-33,-15,-11,-43,-41,35,195,43,-82,-49,-121,-141,-10,77,-3,128,126,-104,-186,-93,30,155,-5,-18,-177,-25,-84,-45,-23,168,119,-17,93,68,-168,-109,55,144,-6,84,-143,-104,36,155,198,-13,25,7,-152,70,97,63,120,-55,-13,11,63,5,98,47,12,108,-27,49,-102,-102,-60,67,-86,-32,92,120,-41,-57,184,-6,-131,77,-12,-86,-52,-63,-43,-114,-130,7,-38,52,169,67,122,-184,-199,15,-65,176,94,64,-197,-161,39,-52,138,224,124,14,-169,-97,-148,26,69,-63,161,20,-66,-208,-181,146,100,165,40,73,-177,-36,-103,-30,122,12,44,-112,-47,-103,87,-25,12,93,7,-140,-29,-11,158,-42,71,74,-16,-116,-18,-156,10,-168,62,-97,-88,-166,-97,-17,90,28,27,-111,-4,-155,39,-42,77,65,-75,19,-175,-36,143,81,131,88,71,-86,-74,34,92,179,66,46,-148,41,173,70,136,99,59,44,6,4,-114,4,201,179,-86,-85,-86,-36,106,19,-17,102,-14,-149,-133,-12,-18,-41},
	{68,-34,63,-47,97,124,64,-90,61,-137,87,-29,51,-43,51,124,45,-54,44,-206,-133,1,-15,16,117,110,-5,-47,54,94,-115,43,79,10,-71,102,-88,0,-131,-64,97,99,129,-123,6,-9,-128,-46,-165,-141,22,-47,85,-66,-91,38,-44,-97,-149,98,94,140,19,79,-42,-10,-3,-163,-17,27,54,49,57,64,-52,123,-28,-80,36,65,74,-102,64,-29,5,-38,-32,-42,-9,-76,93,-2,-132,113,-39,-65,-44,19,-49,-139,-75,-21,-99,42,7,22,-94,-92,15,123,21,-128,-54,-92,70,-95,-55,120,97,-36,77,152,-45,87,82,-31,72,-98,93,-35,25,-13,-7,55,-97,84,-104,65,14,147,-24,87,-84,34,-73,-39,-134,-34,115,89,-51,68,72,-107,-77,-118,-30,-24,-27,2,147,-107,130,25,31,98,212,-28,4,-86,-57,10,91,25,40,-56,122,67,108,144,158,149,50,107,135,21,81,125,-19,51,-84,16,127,15,-50,-39,30,-100,126,-17,-62,-46,147,-38,-75,-27,5,-54,78,38,93,-95,144,11,72,111,56,-29,-90,-41,49,61,-87,146,44,-13,-136,74,-72,-127,21,-47,-15,2,89,-1,-155,28,-115,-66},
	{-4,-35,115,-36,41,-11,82,-74,-119,-29,-175,-158,19,15,20,149,151,61,112,-64,-78,68,-31,-32,-68,-97,-127,-79,-4,-86,68,113,124,149,125,-100,-60,-110,-50,28,0,-39,-47,96,-95,80,104,114,180,-35,117,-210,-18,-76,83,-142,-83,158,28,35,-11,9,-49,172,114,-19,-61,14,-147,-57,-134,101,80,-3,51,-137,147,25,116,-112,96,29,33,-181,-105,80,146,103,-89,-75,4,-84,-35,117,-46,10,91,-65,-3,-65,-36,3,170,-56,-49,-75,-101,-87,99,54,-58,118,20,-48,-76,126,34,-25,31,-38,69,-121,76,46,-31,-92,5,35,27,186,149,95,-47,-43,-192,-11,97,-60,7,37,-152,-111,-93,50,-47,25,20,-111,42,-98,-4,-34,51,80,-75,-31,31,-83,61,142,72,-52,-55,-44,-109,-103,-36,-82,102,-26,68,153,-233,-66,62,89,35,-114,132,-87,-62,-95,-52,56,211,117,-181,-16,-77,-162,37,175,85,-34,42,-79,-69,51,75,-45,73,46,-98,-112,101,38,115,46,7,20,79,133,149,15,43,-43,0,-150,-56,73,146,46,41,68,-26,-10,20,55,113,-180,-167,62,-124,121,96,24,28,103,-80,111},
	{-49,43,-66,-111,-62,34,196,176,54,16,-2,-106,0,-88,73,19,0,34,-195,-90,-38,182,193,125,-8,-5,-117,-163,-168,10,-47,-66,-145,-37,-132,-26,58,169,59,36,-18,20,-88,-18,-45,-28,-35,-13,-30,-79,-53,90,129,81,166,-120,-164,24,55,-156,-69,101,79,25,-251,-72,156,161,125,124,-82,-79,-58,50,-4,-93,80,121,155,-42,6,-24,-104,62,-36,23,3,58,-169,-80,-92,-5,59,-39,-87,-1,-147,-61,56,164,95,-148,38,-72,14,52,151,173,15,-37,-159,-49,-39,156,233,-30,-160,-220,2,59,96,102,119,-83,-94,-82,-75,-69,18,108,-124,8,-32,21,90,56,54,71,102,61,-144,27,-92,145,60,-34,-21,-5,-102,-35,-16,35,0,-79,162,3,-53,-65,155,-81,-104,3,-7,85,-21,-4,-142,-57,205,98,-75,84,-108,-140,71,123,79,-82,-129,-84,18,-68,157,107,-14,-102,-24,-79,-34,199,30,-21,55,-264,9,74,100,168,107,87,-87,105,159,59,136,104,-147,-14,-21,4,-25,7,-24,118,-147,-14,116,60,77,60,-183,-189,-129,120,123,-106,-76,-125,-139,12,11,-33,80,-32,-65,-52,-47,94,-93,54},
	{126,61,126,155,103,188,-31,168,17,47,83,30,111,78,2,95,31,129,102,31,30,-46,21,79,169,3,-34,85,99,96,4,-56,59,172,90,159,217,90,65,99,67,167,164,119,135,167,197,154,85,164,-29,90,51,167,74,-19,57,84,58,130,88,-16,15,-2,72,-11,89,127,18,97,41,37,39,132,-66,-14,116,35,-15,92,-185,-59,-128,-105,-130,-49,-50,-156,39,42,-171,45,-73,-57,-50,18,28,-139,38,-144,-147,-63,16,-29,9,-170,3,-63,-41,-160,-70,23,-48,-131,26,-142,74,-109,-37,77,-84,-53,-77,-113,-40,-96,-57,-89,-8,-69,-113,84,15,-96,-119,-97,-86,-13,-116,-168,-130,-24,-9,-152,-127,-129,-147,-32,-100,-102,-33,-31,73,-84,37,22,-11,-50,7,-104,-20,-49,24,100,-41,28,8,126,-77,77,-43,41,-26,153,171,121,-32,-89,-10,55,28,-28,80,-35,90,86,56,72,7,50,49,137,-2,192,94,63,152,181,88,-27,89,99,27,2,143,-70,171,16,146,166,98,40,39,51,5,0,120,67,-93,114,124,-37,17,-87,49,-32,41,73,-15,54,70,-62,-17,69,0,-4,129,92,48,-26},
	{-2,-13,62,71,10,-116,-141,97,77,115,-97,4,8,120,166,-11,77,-72,-16,43,14,35,-13,-24,-26,0,53,72,-58,117,55,41,-2,74,-64,-40,3,6,-6,-32,-4,86,72,19,-90,-122,139,-27,-31,22,117,-18,79,92,-93,-111,67,-23,-87,-63,17,169,4,-81,-70,-55,37,-23,152,53,-30,-37,125,-19,8,94,-56,6,-47,100,-111,10,79,-137,-187,-172,26,-132,-92,-7,-82,-44,-106,-104,76,-144,119,-32,-164,9,35,12,-93,55,-100,-124,-79,55,-67,-78,-36,-12,87,48,-43,-6,-13,22,-40,-83,-88,57,-54,73,-25,-38,-133,61,25,-124,70,-22,-103,-94,-25,-90,-70,32,-140,-39,24,-174,-118,-13,-23,56,49,85,-124,18,53,10,-50,-46,-121,-17,77,-104,23,-86,175,91,211,132,294,152,-25,76,32,215,228,-43,11,154,25,101,129,113,171,8,181,-28,72,131,38,66,199,19,41,206,163,10,118,156,6,15,109,105,48,-70,-23,-39,4,78,151,-24,-41,76,144,163,74,0,20,67,117,105,149,0,90,163,89,-26,78,90,121,-13,2,161,72,207,104,-56,86,47,77,13,103,85,195,108},
	{-47,-122,125,-76,-25,-60,166,68,-9,46,-8,-10,130,60,-59,-28,91,-47,57,-152,-144,-109,-129,-92,153,-52,-30,27,1,-45,76,107,-47,18,-4,56,-91,136,114,52,-122,1,-17,-46,-158,-10,117,-51,154,9,52,-45,-8,-9,-107,63,-91,61,-65,75,150,-26,-79,-26,-29,-173,-124,9,-7,151,108,115,-86,71,-15,-91,60,56,-24,108,-47,65,-123,-132,-95,-79,116,193,9,-102,38,8,4,-95,51,-61,41,137,54,-109,96,117,96,24,-28,18,-189,-13,-88,15,103,139,-48,-47,-152,-181,-27,131,9,215,55,-105,-56,-104,-131,-152,-7,121,17,-66,86,101,-107,117,114,66,-166,-148,-57,12,-32,70,74,113,0,-132,44,43,137,91,98,-41,-96,68,-13,16,-67,101,80,-107,51,175,39,-22,-126,18,73,73,68,-169,59,20,-197,-159,10,73,82,288,105,-113,-175,-171,-217,-76,17,0,201,183,103,53,-34,45,-83,-309,-140,-77,187,81,208,88,133,-155,-153,-148,-226,103,140,218,123,143,126,-129,-176,-72,-119,59,-58,4,33,173,171,4,61,92,-154,-195,83,-29,7,122,-24,-63,-28,103,-109,-53,-34,-52,-131,84},
	{48,5,-24,-11,-5,-148,40,-158,-166,-59,-131,112,146,123,91,10,-177,-17,-104,-32,-4,-157,156,74,-96,-113,-99,147,-24,170,104,-3,46,-166,-18,107,-7,-131,125,122,89,-152,-19,110,127,149,167,-32,-200,-129,-154,102,-52,-74,-45,116,0,55,-34,108,119,119,-61,-79,-162,-200,-85,-35,-52,-79,129,126,66,-58,10,147,-53,181,19,-23,-82,99,15,-112,27,-98,-41,-66,102,127,118,-105,-89,66,134,6,-112,80,-116,-68,43,-64,103,110,107,-138,-53,128,-58,146,129,-60,59,90,-84,49,154,15,57,-59,-135,22,126,144,-79,-88,1,-141,-58,-68,-18,50,-12,57,-48,-66,43,231,198,-95,-67,-113,-36,0,66,13,-69,12,-73,-94,-96,159,26,0,-53,-155,-216,63,-67,42,92,83,127,-60,13,-152,-156,53,166,7,118,62,-174,-69,-76,-101,-132,48,13,25,119,27,54,107,-58,-1,45,-110,10,-84,147,114,-60,54,69,-47,-88,-106,25,116,4,46,28,-103,-3,-12,71,32,34,-128,-37,-22,89,-3,153,-13,-94,-8,84,-88,201,88,-44,-136,99,-43,120,83,114,-18,126,-24,-138,-90,47,2,-106,-112,-84,-144},
	{11,-133,-83,-54,-44,63,48,-41,-145,-42,-136,-152,-131,-135,-146,7,3,-186,67,-163,82,-71,1,-95,-150,-150,-73,56,10,-104,-97,75,-140,53,-61,-17,-161,-125,-131,-56,-152,-134,-78,13,-26,-35,-128,34,72,58,64,66,39,-63,22,-128,56,-45,-106,-135,-129,-35,32,-66,-157,103,83,12,-36,53,-98,-40,-173,-86,-106,-19,-173,35,-161,21,63,4,20,89,34,-64,85,68,153,-66,-66,-68,-30,-79,34,12,170,-46,-18,161,140,13,-35,148,-29,111,-74,-10,122,164,97,15,52,41,92,-58,-63,102,2,77,50,81,91,40,-76,-2,79,64,134,138,-84,147,-74,-45,159,-34,59,-44,4,150,48,36,87,-58,-20,8,74,-89,-34,30,150,-81,136,54,-44,162,-18,-12,-3,80,-57,-33,97,41,-67,-38,-19,38,58,1,-66,-71,-76,107,-62,-62,127,-20,146,-81,2,-116,-77,50,105,-26,-53,41,204,180,114,-1,-35,-113,83,14,-86,110,11,123,51,34,-21,114,148,105,-126,-38,-30,56,143,19,-38,-118,51,-56,157,-66,8,-53,94,86,-116,-95,-57,-84,144,-26,-91,100,180,10,145,115,22,-78,59,3,-38,23},
	{35,86,126,47,123,82,113,-51,-65,61,129,84,145,-65,104,72,44,153,67,68,61,41,78,-58,104,76,175,126,119,84,5,20,108,-107,77,70,-26,120,21,170,31,88,-48,-87,99,28,45,29,115,34,-84,-80,-52,113,38,21,48,-76,96,158,156,-43,10,54,1,137,20,0,78,-75,-23,40,-105,-55,67,90,-59,-15,-19,136,35,-3,-62,-87,44,-46,-80,-88,-25,125,-62,81,-15,95,-72,68,121,23,-7,63,-88,-120,-99,62,10,-41,-23,-31,48,109,-38,6,56,7,-49,-26,56,3,143,138,38,-42,45,84,41,88,14,114,116,18,143,112,14,16,38,118,101,67,28,-44,132,-52,-45,-93,119,86,84,-111,115,76,-39,5,146,-31,40,1,141,-91,36,-54,-68,-16,-103,71,-82,11,25,3,82,-22,-44,-41,-168,-50,7,-70,-107,53,-99,-179,12,-120,78,-101,41,-90,-36,-126,41,38,-47,-99,4,-110,-24,-102,14,70,12,74,-139,-84,-115,-95,-68,3,-137,-146,-85,26,54,82,-108,-109,-143,64,-141,-101,-30,-43,-111,-35,-25,-153,-34,-39,-148,-56,-21,-14,0,93,-64,-77,-86,-136,-129,39,29,16},
	{-57,-54,-1,59,26,109,137,80,27,-49,72,142,182,-16,91,-125,-49,-133,-84,33,56,36,125,-83,-75,-62,20,57,-52,82,-65,-10,-13,41,37,-53,22,139,163,91,93,88,-13,-54,30,78,-57,-46,-105,87,0,-95,-92,18,-11,126,70,-58,-131,-218,-159,-85,87,-1,-19,0,-190,-151,26,148,-49,32,28,0,-150,-110,-44,-93,-62,84,7,-142,-208,84,176,-9,173,164,11,-188,-208,-86,83,180,108,5,-91,62,118,-83,131,155,-86,65,-83,-117,58,37,3,-13,56,-46,16,90,-2,-132,-60,34,-112,84,111,-10,27,-13,-60,-42,33,68,138,-115,-72,55,-54,-99,-71,-91,12,176,-1,-139,54,-71,-149,-156,-11,-105,-100,63,148,100,-46,-54,111,60,-10,56,-22,0,14,33,1,83,17,-40,-55,-137,-130,-115,111,-15,103,-105,-88,-200,-105,139,146,-77,-15,-17,-135,-175,-63,39,95,76,5,81,52,97,-33,121,-26,-186,-61,-87,-131,-23,-41,-103,-17,52,131,81,66,-3,-117,-27,-142,-123,19,69,40,82,36,-64,-39,17,92,60,29,56,73,-105,-36,138,-80,-5,73,162,99,176,88,-105,27,-15,62,130,5,-70},
	{6,-70,-97,-49,78,15,6,18,30,-20,96,-143,-108,73,-105,1,39,-1,87,-87,119,-29,2,19,-131,-123,162,74,75,-76,67,45,19,53,-74,-106,-132,76,-133,-112,29,99,-12,24,69,10,-11,87,27,80,-50,-23,-19,11,65,0,-2,16,3,-108,-30,-125,60,88,1,12,41,91,25,77,-133,22,-9,-39,-34,41,42,81,21,-156,-16,11,-29,-139,-99,-67,84,107,142,68,-1,-78,-53,-26,-33,87,-103,84,40,7,44,-123,-50,-51,-114,29,-11,-18,61,53,35,-55,78,-115,-109,30,-78,-113,40,-11,-90,-72,2,-25,24,74,4,84,162,-91,-11,56,52,-47,40,121,-32,98,95,-26,-143,-27,0,48,-56,42,-25,36,55,116,63,-17,-86,73,11,-69,42,36,7,48,-111,-162,-77,23,-4,120,234,-33,123,-110,-82,-256,-193,-116,72,-13,17,221,209,-28,-136,-67,3,-160,-11,-10,142,139,142,-78,-101,-20,4,-105,-154,90,78,79,177,102,110,74,-126,-7,-119,5,-68,33,-91,117,153,-74,-48,72,-80,-67,-46,167,122,-85,-73,121,91,22,-4,21,38,99,10,-33,-91,-11,63,7,-61,-56,181,20,11,-18},
	{117,115,61,-43,62,-2,41,-87,-29,-40,-50,115,12,86,83,-125,-14,55,124,39,42,89,-131,-48,64,52,-3,-58,89,-8,132,-39,7,-95,-89,-24,-55,-69,-45,-96,-59,4,-4,-30,-20,8,101,139,74,-29,-95,-10,74,-12,111,109,86,-121,60,48,-89,-2,18,-18,-39,-2,-42,47,61,-75,-123,70,-50,-47,102,52,77,-60,47,10,4,84,-43,76,154,-66,-39,65,-2,152,92,151,-101,163,45,116,51,-76,154,131,15,35,-88,-74,93,-60,-73,72,31,92,33,-1,-58,-51,114,155,-31,88,-79,-54,-2,66,166,-69,27,-10,80,120,151,132,-23,53,37,141,-77,72,8,-26,126,71,-73,-40,-49,107,79,115,27,-31,-84,-61,-14,125,-33,148,-42,113,137,15,-99,76,32,48,28,-23,-68,-144,-145,71,-121,49,-16,-45,-51,-34,-88,-42,-4,-101,60,44,-14,94,117,-30,68,38,-14,17,20,41,90,53,-60,94,77,85,32,-137,71,47,75,-37,95,52,-28,-22,25,-47,75,-25,-53,-77,-66,69,0,29,25,50,52,-13,40,-42,-86,55,-104,33,-84,83,37,-121,-117,8,-25,97,-24,62,38,-29,-7,-49},
	{-196,-100,-22,55,-37,43,19,-101,-151,-162,19,1,-22,68,76,-178,-105,37,88,219,174,-58,70,-120,-171,-84,24,59,189,-53,-72,-9,-154,122,164,-16,26,-82,-113,-60,-156,-57,0,42,108,36,-122,-70,22,10,28,47,152,-21,125,-74,-71,13,50,75,0,77,-114,70,-40,-26,77,114,0,33,22,38,74,-17,36,-54,-69,-4,1,109,107,153,18,139,32,-100,-91,-44,-13,-44,-18,42,-63,-58,132,108,126,-1,109,-94,-7,-86,21,25,-103,-74,0,75,-134,119,174,0,77,-54,-147,-20,-82,-92,-7,144,-14,78,-63,-131,-99,173,-66,84,23,-164,-150,-131,-18,56,-66,0,75,-24,-80,-113,112,0,64,66,14,-130,8,87,49,49,91,-55,2,-97,73,124,-131,75,-54,-96,106,61,-28,79,85,102,11,50,-31,31,-1,67,233,175,90,56,89,70,0,2,102,-6,-39,40,41,103,-16,-18,88,-1,-114,33,-32,56,112,-48,51,-55,-68,-89,89,129,-34,-9,-84,-39,-18,-18,83,159,195,152,-24,77,29,42,57,-22,64,-13,-93,-4,15,-7,-62,159,-109,-166,-185,-66,-146,-76,-120,-89,-162,-155,-58,-31,-33,24},
	{-26,-26,102,81,5,86,-105,11,2,61,61,-73,24,101,-103,85,-11,-56,4,59,-16,-12,-35,156,79,42,-137,94,-45,16,-64,35,-38,40,-21,55,-95,-106,95,1,166,49,84,-9,1,-116,49,35,97,-98,-119,31,23,-119,130,0,166,-14,150,-15,-27,-81,-152,-44,-83,-107,-114,50,31,-97,-18,101,74,74,-2,122,59,-1,-143,-172,-20,-64,54,101,-18,96,-14,81,-106,-119,90,138,-4,52,-22,93,-158,-162,-96,77,-31,113,-110,50,-139,-26,-125,126,-113,-117,-18,-172,48,-30,51,101,4,-29,-49,-106,85,21,151,-64,-127,-94,-158,95,49,-75,87,138,80,-116,-130,-62,109,-140,107,116,67,-58,-96,-152,84,33,126,29,-83,56,-74,13,-106,-27,65,60,-101,72,28,-106,27,-1,16,101,-6,205,123,80,-60,43,33,-102,-52,7,107,156,102,-48,21,110,-9,-111,-75,111,95,143,-97,-176,66,116,140,138,116,88,60,-37,-123,116,82,52,-70,-65,-41,-45,-77,13,-92,-5,25,-3,-126,-56,109,30,-81,47,63,63,73,-71,-25,32,123,118,101,-21,31,26,12,37,172,144,-5,154,99,-72,88,11,121,37},
	{-126,-15,-48,87,127,152,6,-52,83,-25,-80,165,85,-175,-208,-21,-139,-99,115,127,24,25,-12,-154,-32,20,217,31,-64,-193,-1,18,-33,-9,-35,84,-38,-42,-43,39,-28,171,-85,-134,-15,-56,57,41,-33,34,-122,63,39,-88,49,21,-22,-6,19,93,97,63,100,27,87,66,-11,-24,-79,-64,2,-66,-53,15,45,-73,-58,70,-35,79,-39,-12,59,0,147,154,-176,78,-120,39,-11,137,52,-24,-29,-209,-208,-51,67,-17,119,23,-35,-83,-48,113,110,51,-16,-11,-179,31,-80,71,108,234,-32,-122,-177,0,169,214,35,178,-25,-113,-285,-134,27,111,188,148,-139,45,-164,-112,20,172,67,114,-55,-184,-178,-99,258,136,-7,-111,30,-10,-236,159,208,95,88,-33,-131,-204,-73,-38,99,-107,-85,0,-113,-45,-154,18,11,181,26,-28,-11,-44,61,-47,-65,-179,7,190,28,186,-110,-211,-22,-86,41,-19,96,248,165,3,-88,-164,-71,266,-13,-44,-54,-6,106,33,24,-50,-9,10,-235,-68,-108,236,242,128,67,-174,69,-133,48,37,21,55,75,-72,-158,-91,47,-28,87,-104,-30,20,279,262,175,-185,-17,-289,-295,107,180,25},
	{130,-51,137,117,-12,-18,145,-112,-90,15,-78,125,97,60,92,69,-20,105,80,108,120,-131,-41,65,111,-46,-47,143,58,75,10,126,39,-120,49,134,130,-114,59,88,-17,107,128,-14,122,-58,110,86,55,79,-11,93,103,116,83,-82,-115,118,13,-94,126,71,132,-115,5,-50,56,-64,88,-86,-106,-34,11,-115,94,96,102,-24,97,-85,-18,1,-25,-60,-94,76,18,-80,57,135,-62,20,124,-5,44,1,40,-73,-54,44,-78,-65,61,125,0,-75,112,83,136,-40,-72,121,91,15,-76,-44,77,-56,18,-47,60,-96,144,41,2,-48,3,-80,-24,-116,-79,64,-94,67,-8,120,4,-43,115,-109,136,3,102,-66,-29,-33,68,71,110,28,-13,64,32,118,79,-27,69,-96,82,27,-1,-106,-149,61,-138,-54,-3,58,-124,-88,-9,-124,3,-71,-21,89,68,-24,95,83,-34,-3,52,-24,-27,-17,43,91,56,87,-130,112,-38,-1,52,47,42,-16,42,72,-85,-148,-38,-85,-29,-49,21,-28,14,20,-86,51,110,-33,-68,77,-86,111,91,-95,106,40,58,34,-21,-122,-104,-77,-38,-39,-140,-152,-9,-59,-49,-47,-146,-103,-37,51},
	{-101,18,-82,-23,-94,-169,-166,-66,-127,-57,5,-110,-16,-22,20,-13,14,-103,-95,-136,-10,-61,-199,53,-119,-45,-71,-104,-211,-1,-44,-50,-68,-157,-149,-108,-133,-62,-108,-166,-8,-182,-56,-137,-40,-120,-118,-121,-136,-13,-103,-191,18,-177,-9,16,-66,-9,-163,-128,-122,-84,-138,-33,-40,12,51,-107,-101,-129,37,-75,-31,52,30,-46,-16,-33,36,-242,47,50,-63,114,114,-35,-12,115,7,-27,135,70,120,28,128,70,122,164,29,3,90,67,-28,4,20,71,145,-34,-17,50,137,36,79,115,-55,31,13,70,119,50,-96,0,165,155,150,0,123,24,-76,67,90,141,-21,8,154,-56,80,4,-67,72,3,-39,112,-13,107,-45,166,5,-23,179,-42,-25,157,-59,-51,38,115,0,84,109,96,133,122,-51,4,26,78,154,45,134,-78,22,-84,-38,51,-45,111,42,79,1,-17,-19,41,-26,-75,82,141,-18,139,-15,-29,-5,134,42,123,33,-9,167,28,9,16,62,30,-16,-14,184,194,43,-61,-14,0,10,-35,28,181,51,-46,-43,13,-56,41,203,0,-27,120,-125,-19,76,25,91,-38,99,79,-26,4,36,111,75,-27,94},
	{8,126,94,-36,-64,-135,-26,-141,-138,6,111,2,93,-14,0,93,226,185,173,-92,37,-208,-174,11,62,2,51,102,127,-105,112,45,64,-10,-16,-189,-117,-160,-123,-121,-40,97,-29,124,103,33,-56,120,-39,-37,-77,124,26,90,-84,86,25,95,-117,-55,98,-26,69,4,34,-90,-139,-142,-36,121,-25,36,99,-122,-141,-101,175,-11,54,111,-90,-27,-17,123,-51,49,107,-35,87,-85,-16,114,178,54,-71,93,21,-60,-160,-96,74,-28,-106,-104,-102,-158,-54,101,128,90,-93,97,-188,-182,-6,36,143,112,-57,-72,-54,-101,2,209,94,-19,19,-153,-202,-171,120,169,64,7,1,-65,-64,74,197,193,96,60,-218,-202,33,-93,-42,-89,-17,-124,55,4,-117,42,162,138,-39,110,117,-64,16,88,-35,43,-45,-67,-106,-1,45,-40,-68,13,-55,-71,-57,-118,79,-9,111,8,4,-56,-61,-83,148,-19,-48,-5,30,-18,-51,193,169,65,-23,-208,-150,-53,46,41,-153,-59,-107,-125,60,-35,46,104,96,-83,-62,-126,-76,82,205,93,-162,1,49,4,173,203,41,-87,-30,-131,100,-8,-95,65,-121,114,2,-28,47,112,2,81,0,123},
	{-71,47,91,109,147,44,-88,45,-2,-68,91,77,61,17,102,-40,80,14,-74,16,64,152,57,-34,-83,35,166,-84,57,79,-122,39,84,67,-50,2,31,14,-10,3,107,-127,109,41,161,-50,34,-69,-28,14,12,80,-22,111,-60,-47,-86,56,-101,68,161,-110,-118,-57,122,-96,-20,34,145,118,34,79,6,-115,0,120,53,83,18,7,61,86,36,102,97,32,-83,141,-43,16,43,102,-53,47,-22,2,60,-28,-58,-10,-23,62,-16,-2,33,-89,79,46,-111,-111,36,1,86,89,-2,-63,-30,-101,123,-28,35,132,6,66,-106,104,126,-10,21,-4,13,-111,19,60,-36,147,107,25,39,25,76,7,96,-13,3,20,-85,91,70,-59,116,26,102,81,-21,119,-65,-65,-89,-68,-11,-131,-22,12,-76,-11,-91,-133,54,-24,-43,-49,-46,-37,33,28,-35,63,72,-21,74,-53,-67,69,-142,78,19,12,-75,-74,-83,-99,1,-3,-98,2,-11,-40,62,-86,-171,38,55,-157,-149,35,-80,10,-61,91,-92,-164,29,-74,-53,-67,-66,-74,-6,82,-70,-95,64,-127,-83,53,-125,83,2,-46,53,-121,-84,11,-25,-44,-28,-39,60,126},
	{-62,6,-93,53,-145,-109,98,-80,-2,-98,-95,137,-14,35,-116,27,23,118,-122,-17,30,6,137,115,115,-82,-26,34,9,-43,-70,136,13,-86,35,35,56,-21,43,-57,-31,11,8,-70,-37,-104,-75,11,-21,128,30,-95,105,-17,10,-46,47,138,63,-9,-134,-111,46,38,151,-112,-36,-103,15,60,-10,164,158,-84,95,-33,63,-130,-109,154,7,-64,-63,-161,52,-107,-22,17,-101,82,-141,-76,88,131,17,-109,12,21,100,-18,66,0,-49,-76,51,-19,48,-61,43,9,89,-73,-109,-97,4,-47,-163,-133,-175,76,-44,-68,22,147,129,-123,94,123,50,120,25,65,29,53,-6,-73,65,-18,-113,59,-48,-133,-139,-150,86,31,87,101,105,-22,-104,135,-43,-111,-102,69,83,73,48,-88,123,96,-42,-27,99,-18,133,-97,159,188,7,2,13,64,-86,136,-18,-3,59,-43,66,12,-127,-110,78,153,49,-7,-59,87,164,57,52,-126,20,127,27,116,-35,-27,77,75,-9,4,69,-89,125,52,-107,-123,102,164,-76,-68,2,-110,55,160,-19,40,117,172,56,-98,5,105,53,34,-9,-97,-30,110,16,87,-83,-80,163,146,-7,95},
	{77,48,48,67,14,163,129,77,-43,77,-47,33,-84,-33,45,34,133,-66,-31,-52,-24,-59,28,-81,140,-75,-80,23,-3,-81,90,66,4,-82,-15,-48,142,157,-17,-55,98,147,111,107,3,-7,-12,-103,26,-84,27,72,-23,77,-95,94,-33,-60,-144,-17,-10,6,-31,65,-131,78,137,2,-30,-29,17,-6,98,21,123,-99,19,-135,-132,92,-128,49,-86,-20,-109,-145,-90,-124,-68,-23,-28,-140,-81,26,44,-10,111,-16,-39,-45,-153,-64,-87,-54,-45,-156,-33,85,-101,91,30,48,131,85,-40,-144,-106,30,-98,-68,-160,78,-6,-81,87,-82,-20,-82,-152,72,-29,-35,-103,-92,-7,83,9,84,-25,28,71,4,-17,2,-28,64,-116,-112,-55,41,-29,-70,110,58,34,13,-5,-183,14,40,-36,211,-57,-43,91,144,123,184,212,100,91,15,169,183,-16,48,-19,161,126,71,-20,130,80,59,138,77,71,127,-23,16,53,172,-7,50,77,73,22,20,30,70,29,50,220,76,169,101,129,97,64,24,116,31,190,79,127,191,184,6,106,131,53,161,184,51,133,153,64,165,217,32,77,41,109,78,165,186,21,182,112,58},
	{-145,43,-62,95,163,-103,63,-67,16,-26,-125,-65,-106,22,-83,19,90,-140,87,64,-103,-19,189,0,160,-103,-190,-67,-113,142,104,63,-119,-157,7,69,61,153,176,-73,-167,-90,-106,27,22,209,164,-138,-110,-150,-125,109,152,187,82,28,-124,10,-92,-25,8,-94,-31,13,-101,9,77,159,77,62,117,108,86,-64,-174,123,159,-112,-65,-29,-36,-3,-120,-137,-70,169,84,-7,49,12,-115,-39,-62,-27,-70,52,-106,-7,7,131,33,-104,151,41,-127,60,-117,154,-66,97,-111,-123,6,0,121,-77,-14,129,-83,84,-140,92,-77,138,147,-55,52,-124,-120,-131,-131,110,48,108,-144,-139,-32,-64,147,27,63,-79,22,56,-141,-36,-11,151,86,-22,75,-49,94,-21,96,90,68,86,143,-121,-77,15,111,-20,-106,125,-12,69,-52,59,-8,-142,34,-3,-24,149,-46,-48,50,-1,-74,-40,158,23,182,-29,-35,-89,-106,109,-139,-26,33,42,-6,-122,120,-33,-45,16,-82,18,-34,29,-152,-95,153,147,159,-28,-81,0,-116,91,-59,64,52,-22,-45,-40,-5,139,-87,11,38,55,-92,93,4,145,79,-47,-28,-59,-30,-146,165,-33,-140,49},
	{105,148,2,-35,-132,121,-42,-41,119,50,12,-109,-137,23,-41,107,-12,27,123,61,15,-55,34,37,-34,150,-57,125,74,-130,7,-84,-131,71,9,-17,-31,-135,-95,70,-8,44,-94,-34,54,-173,-141,92,-2,147,140,-96,-11,-11,77,38,-69,-18,189,-93,-79,-35,-133,-79,-25,181,146,101,51,-165,-16,-68,138,75,110,-87,-75,-92,-67,68,60,94,68,-13,135,-53,33,-139,-109,94,64,-103,-47,143,84,32,-141,48,173,62,-134,51,88,-38,-38,48,89,-95,-33,135,-32,149,100,25,39,-1,-10,-13,-32,-77,-48,-80,-246,-147,110,99,101,44,160,121,-187,43,-8,-65,-5,207,-101,32,-144,-59,58,-54,171,-99,-78,-130,-53,-140,-44,128,2,-78,84,-158,-110,-84,15,-18,145,-14,-116,0,-104,-88,-92,21,175,-31,70,136,-19,130,-69,-62,-15,176,41,-144,-133,8,76,-36,50,150,81,59,14,-106,21,25,-142,-74,-112,74,29,238,-52,3,33,-181,52,78,108,150,60,17,-149,-16,57,203,17,141,-42,-71,-74,15,-133,-89,-19,17,-73,-115,-124,-63,124,150,47,110,34,-91,-83,37,162,-133,-39,-80,54,6,4,-105},
	{-70,32,-90,11,-23,105,3,8,-72,35,-156,10,162,-17,65,35,-24,-94,113,42,62,-42,87,13,-84,-131,-48,-80,-33,41,32,-46,-19,77,-122,-6,-32,52,-34,97,27,-37,-69,-140,-4,-109,-24,193,113,-99,-43,2,5,-51,103,-59,-67,-122,-28,-154,-6,-62,15,112,13,107,16,75,-122,30,-25,78,171,18,-166,-5,47,107,197,93,114,-61,-25,91,-133,-174,-78,165,115,144,-125,-178,-42,-22,84,221,157,-103,-169,-9,-47,-85,143,11,-15,-68,-131,-1,-103,-65,107,51,-33,-110,-200,-198,132,198,129,139,43,-191,-226,-17,55,80,-47,177,-12,-115,-86,-36,-62,-1,135,44,-108,-132,-119,133,34,154,15,113,-25,-36,-109,58,75,-73,-54,102,5,103,73,14,35,91,-67,53,3,-146,94,-57,90,126,-108,-167,-1,-116,116,40,61,80,-17,-148,-167,33,28,234,102,-118,-64,-194,56,-56,20,12,-18,77,-50,5,146,113,177,188,-49,6,46,69,126,-16,-108,-230,-115,-58,-157,56,29,226,5,-123,-6,-15,-56,-56,-18,-132,14,38,-67,30,56,139,150,60,4,-118,-108,41,-146,-45,-135,-27,64,-25,34,3,22,-22},
	{-21,-11,-4,-8,81,9,77,51,-40,-97,60,-108,77,58,120,-72,-80,-44,-19,-94,-19,-47,-124,-65,-12,64,77,88,-18,-219,26,-48,170,123,60,-144,-90,-140,-85,-4,75,70,96,-131,-220,-64,-81,22,157,-44,-19,-190,-92,-15,66,51,-33,130,-130,-90,49,0,76,130,-55,3,76,62,-109,112,152,111,-97,-70,11,65,-50,90,94,83,35,-121,48,-143,63,149,-89,33,-33,96,-49,-17,1,120,-16,-155,-38,-63,-99,153,-3,190,-116,-123,116,-61,8,34,119,-71,-130,100,-63,21,91,12,136,84,0,-53,-185,-115,-108,24,7,-66,-75,-148,11,22,51,82,92,3,65,-39,-113,-130,51,-120,11,113,0,51,91,20,-15,-44,4,9,7,-10,84,-102,121,-98,-22,95,40,36,-124,15,103,38,45,-57,79,90,183,160,-115,27,22,-75,-18,148,62,-108,59,-134,-95,-40,84,14,-27,-109,-253,-46,-14,40,190,33,11,54,41,140,-92,-83,-21,71,-43,-119,-59,18,39,201,192,181,71,7,-124,51,-151,-95,-58,8,25,-101,-74,-31,-84,76,46,20,-129,-82,-210,-154,31,-148,-13,-83,20,55,67,247,220,102,-34,-23},
	{-133,28,47,85,-31,137,76,-110,-180,-27,-44,25,-20,27,-82,7,-22,-176,-143,47,102,67,-55,-71,27,45,212,60,-13,-46,-6,-93,86,58,-22,-93,-100,-2,-91,-154,5,115,211,-124,-30,-71,92,78,26,107,-92,-62,20,112,-39,-16,122,-5,0,0,-101,-89,109,0,115,67,-97,60,-102,-46,-26,99,-81,70,-144,-125,-76,54,2,44,-21,-129,-19,38,-67,8,54,111,-130,-138,-37,107,-28,98,-99,-42,-109,-124,44,193,23,50,8,-223,-36,73,62,-17,150,20,81,-192,-238,-46,-93,-22,152,39,-75,57,-4,-68,-93,120,89,20,151,-74,93,-14,5,84,-33,-14,23,-158,-56,33,171,64,15,101,-116,-151,-74,61,46,202,146,78,70,-157,-66,7,104,0,143,55,-176,-167,-206,20,-52,-38,93,-76,21,-38,82,-250,-64,137,-13,-47,70,-36,120,167,-55,-10,-63,-62,-72,-97,9,162,146,35,-196,3,-30,-106,-126,-57,64,137,185,28,-195,36,-184,-91,-160,12,35,-10,211,119,-97,-63,-134,-90,-26,-123,15,163,175,90,54,-52,-195,-164,-58,-59,60,-24,41,-51,-72,-112,-66,-115,-119,-22,170,65,159,187,-49,129},
	{37,218,-3,173,7,-1,-13,60,94,-24,106,172,147,-34,15,55,74,-103,141,1,0,-8,78,-65,145,115,1,74,158,146,18,15,100,39,-62,29,43,89,149,132,134,43,103,-33,-99,-50,-19,120,-45,-79,155,35,134,29,67,8,-59,129,-88,0,175,-15,135,-26,102,-61,38,-11,103,144,162,100,9,6,87,128,-88,3,125,-30,39,139,132,-77,122,91,120,22,-37,13,-57,-13,66,-110,93,122,-30,-53,129,-41,-91,-64,135,98,-105,108,-18,-20,60,-79,161,-94,-27,24,-87,8,-35,-42,105,4,-83,-15,-111,-113,-38,24,65,-22,76,133,35,-41,14,-99,160,-54,-39,-70,-51,75,-48,49,147,-80,-41,-83,-91,52,-131,-64,-11,98,78,-122,34,76,115,155,156,107,-32,43,36,-41,-82,15,-2,-67,-152,-152,-127,-62,-57,-116,-129,37,-172,106,70,-76,78,69,11,-35,-45,-104,25,-71,-30,-73,-153,-148,-121,-83,26,69,-119,32,11,-68,-27,45,20,-133,11,-87,-98,57,-121,-22,21,-160,69,18,-127,-140,-154,97,-87,57,70,-138,-25,32,14,6,-72,-58,-189,-105,-34,-169,-52,-138,15,-184,-177,-58,-56,14},
	{141,165,-2,69,-43,60,20,81,34,10,96,26,32,64,156,-82,46,199,-27,54,112,71,160,8,116,104,86,204,164,191,142,111,187,154,157,130,193,127,55,44,162,-2,147,39,36,201,215,72,187,102,71,179,162,90,129,76,141,31,156,201,40,-9,30,80,-30,89,221,138,22,92,189,142,70,146,39,-28,-31,195,16,115,5,-85,-39,-1,-49,-97,37,10,-171,-101,15,1,-70,-103,-165,0,-76,-126,-89,-62,-128,-80,-85,45,-4,63,-155,-72,-2,7,-77,53,40,6,-176,-37,-77,-113,-19,29,-64,1,-6,-40,-31,-128,84,17,-13,26,4,72,14,-24,-115,-166,-67,50,-120,8,-8,-68,-5,15,40,-27,-186,-37,-52,-72,21,-132,80,-88,-122,57,101,-132,-124,-60,81,71,-39,1,79,-42,-43,121,-100,28,-48,50,43,-50,36,22,-10,-75,-112,18,-99,-97,1,60,64,49,-72,-89,5,16,24,-34,58,-50,65,-102,-15,-70,87,-22,95,48,7,-65,-89,-116,-112,75,0,61,64,85,-143,-60,58,114,-89,38,42,-22,34,123,-67,-102,0,61,43,-82,-71,70,27,-121,76,39,-131,75,-103,-65,60,53},
	{98,-153,-153,-126,62,59,110,138,78,-21,49,-86,-2,69,3,18,119,-46,39,-7,134,-86,114,-13,121,116,29,51,13,48,58,-6,-80,55,125,-10,-54,91,-126,67,-63,-89,-56,68,10,44,98,73,-31,-26,46,-57,93,-18,-26,-86,140,9,-31,-40,98,-39,23,130,146,-11,-4,-72,78,101,-139,74,-78,-136,101,-10,4,-94,53,-4,-108,2,-38,25,-15,-29,0,2,-54,-79,69,-84,-37,49,107,-84,59,95,107,40,40,28,-19,-98,-118,120,-43,-29,-121,-50,53,-71,5,-29,-91,76,15,-47,-54,26,83,61,-66,57,-148,-148,-138,68,-110,-49,59,35,92,88,88,66,111,-28,-135,-90,97,-25,-48,-95,-76,110,-92,-34,-106,97,95,76,-34,-32,-137,121,70,-30,-130,0,23,-81,-106,-38,-108,-26,16,55,76,110,-91,135,71,-42,10,33,116,-93,66,110,-122,150,107,198,50,84,77,-28,176,-20,148,61,-29,130,184,53,-28,53,96,5,-119,-51,-2,-64,-12,90,5,-71,-28,0,-10,137,101,-59,82,-172,-103,-32,104,55,-123,87,-44,107,127,84,55,-123,58,-19,-102,-11,7,1,-54,69,156,-23,60,84},
	{87,24,-142,-90,92,-88,-6,-4,18,-83,-22,-121,-46,-100,116,-59,72,-38,67,-10,-24,16,-8,-31,-30,106,108,58,-9,7,-30,-24,79,150,163,50,22,34,-102,-57,-132,8,75,116,-46,-31,21,105,-9,30,-60,-81,-2,-91,-65,92,150,-49,-119,67,50,16,-66,133,22,74,-10,24,39,72,40,133,101,-76,-32,57,42,114,-104,36,-50,15,60,-30,102,-52,147,-76,3,-11,108,59,11,58,-22,-58,115,74,-82,69,106,144,-47,147,85,21,20,6,-23,-42,-21,21,120,17,126,70,1,96,20,148,114,-112,101,-58,111,-41,146,-19,-93,68,32,-81,46,90,95,100,86,64,-41,23,129,53,90,71,-76,1,78,-30,56,163,95,128,109,25,8,-19,89,-59,144,-86,125,95,16,-67,57,86,112,-48,24,2,-16,-50,53,120,67,-81,-49,-42,1,-6,106,-3,110,-69,-66,1,-72,-13,-67,-63,35,115,97,-28,-28,154,165,96,131,-104,41,55,5,73,124,103,104,17,-30,84,-33,18,15,185,50,142,53,89,54,-8,46,57,79,108,148,10,-4,0,131,1,90,90,152,-10,54,-83,19,-43,-111,117},
	{4,-145,-87,-8,33,107,114,26,-173,-121,-35,14,-57,11,-67,-52,-14,62,120,98,65,-3,49,37,-76,-164,68,100,159,-22,-65,-104,16,-41,-38,91,-81,-40,36,-79,8,-66,60,58,65,2,56,-121,-111,-135,-8,-25,-69,-62,52,-63,72,117,-94,-7,50,-19,-45,-71,-168,26,64,43,-121,-22,149,-75,44,-115,89,-37,-25,107,10,36,64,-67,-63,-6,-9,153,164,52,-22,-170,-177,-71,95,105,-27,-110,15,-183,-132,-112,109,16,122,-57,65,-183,-154,111,197,159,-55,-80,-201,-63,19,58,-55,124,95,-87,-133,55,117,-30,-76,85,130,-78,-192,-111,147,170,183,145,11,7,-62,-26,13,34,-83,-67,-44,-42,-23,-7,-54,-33,70,39,78,-160,-119,-77,65,22,20,17,-31,-143,-68,-144,98,9,73,-31,-80,-38,60,148,172,-96,-4,22,-107,-53,-108,235,106,75,30,106,15,-98,116,127,150,-140,-8,-121,-20,57,30,120,-91,26,1,-47,120,55,108,-17,58,25,-20,-4,4,68,71,-28,36,41,37,87,149,-10,-29,-49,47,4,86,-58,147,114,98,50,133,84,58,57,-76,-30,17,160,-14,-82,-28,118,160,158},
	{73,149,71,106,124,-17,-137,40,-15,-69,45,-43,-58,-40,139,1,-99,32,120,-124,-50,-25,-130,76,-175,-68,-87,29,88,-84,-65,-34,-33,145,-92,-99,-38,88,-19,-11,-92,24,58,36,-24,154,78,-19,108,12,51,-84,-94,-94,-84,42,-104,-38,-60,16,85,-75,173,172,149,-144,10,-104,56,-38,46,28,-30,-64,-1,-56,-65,153,170,-54,-87,33,126,6,-67,-68,53,47,51,-158,122,112,-51,186,-99,-48,15,-19,-112,-157,-10,-126,32,-116,-149,-99,151,215,32,-67,20,33,153,87,90,80,-60,69,18,-126,-45,127,133,-27,-102,108,-77,-116,102,-53,-67,-152,-2,90,114,-24,119,-10,-129,59,24,-26,2,97,-131,18,-154,5,-82,80,-36,-154,-87,117,-2,-102,135,32,99,-21,-20,33,-99,-7,-102,-92,115,-88,64,-69,107,11,186,203,-172,-48,-138,76,146,-62,-47,-66,24,-180,-10,-101,52,199,110,-84,-199,-122,124,-51,13,-173,-28,-10,102,41,24,189,157,-80,-154,70,-7,-71,121,113,99,-29,-93,42,-67,126,-23,26,-134,-12,-118,-144,-20,165,91,-77,-88,2,127,-62,-26,143,87,51,103,-145,-7,56,63,-88},
	{31,92,-57,-60,-52,-167,30,-130,74,-73,53,-90,-122,174,130,-6,84,52,21,-132,-46,-111,75,61,96,59,138,-88,101,114,87,136,-95,-67,-143,-14,-41,140,-102,46,-36,13,96,-170,144,90,10,122,-146,-50,-70,-106,-126,-70,74,79,193,-44,180,-58,-46,-57,68,46,-143,-153,-114,100,-109,9,89,-104,-65,-51,-147,93,-15,-6,162,103,-77,-125,-136,-63,-136,97,109,70,27,33,-46,75,92,128,-42,110,99,59,-146,81,54,104,-127,81,-113,47,125,89,3,-112,-55,-140,28,-114,46,57,-49,-5,-141,-113,61,127,25,40,-18,-52,-21,113,-50,37,-80,-31,26,-63,-28,-113,-117,-85,130,-34,-135,-4,116,49,-105,-8,-113,33,42,51,-65,44,62,122,89,-17,-101,100,86,7,-56,38,125,-84,-60,6,-26,4,86,-215,50,75,160,103,-13,77,168,138,-93,-167,-22,-68,105,-118,-63,-133,-11,80,127,-181,-132,-55,-19,-49,33,43,-41,87,-149,-68,-25,-99,34,-140,-17,33,121,85,-39,83,-111,-148,15,72,-26,74,26,-87,69,151,18,-152,76,-44,117,-45,106,-132,217,121,-44,-20,54,-57,-90,62,114,113,15,-72},
	{49,91,96,76,-21,-1,14,150,104,98,80,157,136,52,71,-1,54,-27,99,79,168,-3,157,-62,111,37,-89,-138,-65,21,-20,-6,32,-32,58,24,-74,-46,120,-84,-77,-28,-63,85,-4,-108,-16,-34,-114,77,-9,-33,102,0,153,-26,23,-50,76,0,-120,-129,3,67,-6,170,1,89,79,-65,8,84,125,-115,118,-79,-103,-38,120,-99,95,145,148,95,133,39,-13,155,163,53,198,175,90,-13,-32,131,197,87,-16,-31,53,64,176,88,81,166,157,-39,104,6,70,99,21,98,-63,100,128,149,72,134,84,136,-40,101,95,167,113,133,160,-21,10,-31,95,-11,-21,-13,178,143,78,44,159,155,-21,-44,-57,-11,67,-18,29,-9,76,124,-37,128,75,188,-41,75,-16,64,27,-75,-71,-63,-161,-140,-115,-38,-170,61,-141,30,38,-90,-104,-62,15,-107,-15,-41,-152,-64,99,-123,88,72,-127,-23,65,38,69,88,-120,-71,-45,35,-65,-119,30,31,-32,3,-40,40,101,-148,15,114,-27,-53,-23,35,-72,66,-170,11,-129,-22,60,-97,-19,15,6,-40,55,42,-46,-100,-16,-27,46,45,-30,15,-116,-63,-97,88,-82,52},
	{12,56,-4,-12,-110,86,117,89,-58,6,-44,-22,-41,124,114,-53,-75,55,-38,13,2,-86,135,-104,-102,64,-52,133,108,5,78,-30,37,-77,70,-58,-31,-105,131,69,-48,-65,120,-23,109,-7,49,88,-50,-20,101,60,47,-21,32,-36,3,-84,1,63,-81,117,-29,64,-87,6,-21,31,-98,112,-106,112,-1,62,-103,38,103,-39,-3,-82,2,-28,136,83,55,51,-72,44,-17,-45,122,122,122,83,49,63,-24,73,102,167,-40,84,11,36,158,185,0,131,114,-58,163,175,102,-28,90,103,71,-42,178,49,166,-11,95,-34,-72,47,56,36,70,131,155,40,156,50,177,113,85,143,-57,-8,40,-4,-45,-44,135,84,-55,128,145,-76,-9,57,-48,102,-32,97,-64,59,149,-20,59,-31,-90,-83,85,-24,-57,8,103,27,-103,61,95,111,-40,53,-69,-122,-139,51,81,97,-81,-34,-14,-115,-11,30,-27,-136,-113,-24,68,-8,41,-161,71,70,-92,50,31,-83,55,95,100,-45,-108,-38,51,-26,19,0,-72,-81,-67,-62,-131,104,-43,-40,117,-139,-34,70,-29,107,-31,-102,68,42,33,-128,-150,-99,14,-19,-37,89,0,-104},
	{43,39,-173,-153,-92,-169,164,-23,37,136,17,43,38,163,133,98,-162,-37,-103,-149,-65,-139,-67,165,45,-60,-31,58,6,20,105,-68,43,-157,-190,-147,24,63,43,139,-59,10,-3,119,141,1,94,32,-78,-117,-1,-63,-82,137,108,-2,11,-25,178,171,119,-89,-69,-37,-153,-30,-6,18,55,-71,-80,35,12,196,78,101,-135,20,-94,22,-70,-54,4,-13,-64,-73,-110,-151,160,130,166,163,-168,-84,49,-31,-138,170,120,29,-146,-104,21,-105,136,116,128,-1,-175,42,-92,127,93,-16,110,28,-139,-105,-73,71,-84,60,23,61,-199,-159,128,-98,186,-65,94,-2,-132,-115,82,43,-42,-33,120,109,-139,-140,-82,59,64,156,93,96,78,-40,-70,-41,116,12,143,-5,-135,4,-157,-50,-4,-114,-63,-171,50,-40,80,130,-15,-1,1,108,198,88,182,148,-26,-112,-92,-61,25,15,110,-141,-42,-180,-55,158,45,124,-70,-1,13,5,53,-10,-7,-16,-40,-96,20,137,160,131,-32,-121,15,-61,16,4,-50,-8,-140,-85,-17,-13,212,-106,-129,51,-61,-1,50,26,-130,-166,-162,51,83,146,16,90,-11,3,-107,176,-2,45,39,-74},
	{-71,22,-26,11,27,89,13,86,161,-22,-83,106,89,119,-66,-63,-71,-62,60,167,-31,6,-86,65,-127,-50,-12,65,43,32,-75,145,124,83,-14,118,-10,136,21,41,84,-66,-85,26,22,-57,-88,74,92,188,-19,71,127,-38,-59,70,-55,106,-52,84,74,126,-84,198,145,68,81,112,55,69,28,-111,4,-12,105,-103,-51,-43,-55,82,80,-84,38,102,18,-103,149,76,34,-40,39,-29,1,-68,140,52,60,-102,14,-42,-10,99,61,110,-93,20,7,49,117,73,36,-18,-100,-14,73,-23,27,101,-95,45,102,23,-40,-43,21,108,66,-110,108,78,-3,115,5,85,106,-64,-21,27,64,-9,26,106,141,-25,-53,-17,158,71,-2,175,-83,-6,-21,-38,122,99,23,4,-35,-33,8,-26,-24,188,164,-5,-51,76,176,82,11,87,96,18,-29,158,-12,37,-60,32,-5,148,-44,36,181,86,10,121,-75,-56,64,26,-20,114,-40,43,41,-55,39,-43,138,171,158,104,1,159,106,132,36,149,76,16,8,47,152,128,67,-21,49,29,151,46,71,14,41,153,116,133,152,-35,57,-16,103,-42,112,187,109,-46,84,97},
	{50,-20,-40,96,76,-55,-68,76,15,-140,-48,0,-67,18,63,-48,68,70,40,-31,82,72,-60,78,16,-4,-49,32,-32,-110,-11,-94,49,0,125,115,64,-49,85,139,-96,-76,-121,114,34,-107,53,-126,97,-27,8,40,37,52,-87,-113,103,91,-129,28,-140,-121,-47,60,75,69,-33,100,97,-97,146,-13,-93,-19,-75,-63,-109,89,-15,83,91,31,-34,26,78,-56,83,79,26,-17,122,-70,-72,121,106,2,85,115,49,64,90,30,-78,58,-5,64,134,-3,-56,120,-1,147,70,-33,143,28,-16,-36,16,112,-24,-33,24,-50,73,115,106,-49,65,30,152,-43,8,-31,-3,84,104,-55,72,40,2,-46,9,-13,-96,16,136,37,-3,-90,-18,-50,133,-91,-64,-103,104,131,-110,-88,-85,-61,-44,120,-82,67,-73,133,-140,-150,-65,-28,160,-141,59,5,38,-143,30,117,58,137,-103,-81,-65,-12,78,-77,-88,-100,66,-61,-154,36,-1,0,-82,50,130,-57,-47,-125,-108,-109,61,-20,-54,-68,-95,-146,-67,55,-16,-77,21,89,14,-55,-99,-117,-1,-20,-128,-17,113,42,122,172,91,36,-172,12,52,-159,-108,124,-14,116,-56,-22},
	{-86,160,95,-119,-57,50,10,-167,77,-25,25,54,-30,-95,-5,15,109,3,105,-144,-98,-81,-66,107,97,18,201,-39,-88,-162,-123,35,133,-55,150,-60,-44,-34,-2,46,-113,-102,-11,35,-111,25,201,152,198,-46,-181,10,-205,60,-62,170,-93,60,81,111,22,-132,45,113,-53,-26,179,54,141,-56,42,85,-171,-102,-112,-126,-102,11,31,12,72,114,98,77,8,42,-73,56,92,23,-25,122,35,-64,-116,22,-21,116,-40,-34,-5,-51,-34,-161,-80,128,-17,-21,-38,62,-130,67,-111,-83,-65,95,-92,-56,-40,82,33,93,12,63,-173,-96,-144,124,-37,223,79,102,-140,-99,-84,-23,81,95,35,41,-55,-63,81,-42,-116,66,1,-82,-54,138,-73,170,172,-102,-47,-89,-156,-62,141,7,2,-118,9,22,101,4,56,77,-29,-51,-159,-122,17,-87,129,86,24,-10,195,-34,-161,66,-188,-86,-140,-51,199,169,29,47,1,-164,3,-30,-34,-40,82,238,47,-58,46,-132,-87,-67,-98,28,138,63,113,165,-37,-208,-249,-193,23,53,46,276,163,71,14,-101,-155,-40,-203,25,-8,176,91,164,22,-77,-149,-41,-76,-19,121,145,-39,187},
	{-17,178,95,-92,-129,-97,-50,-35,25,-43,-118,-16,-170,7,-8,87,-65,176,-82,20,-31,-162,86,-123,43,26,164,83,72,-127,86,101,34,95,-83,-185,-138,-121,-63,47,-103,107,29,116,137,104,167,61,10,120,-167,12,-133,2,-26,-124,-95,-12,68,110,16,161,0,-106,61,-41,86,-154,106,-60,-3,-108,-27,186,-38,182,113,41,-136,-11,-159,-120,-101,-121,93,178,63,21,45,13,25,-105,34,82,7,-91,-137,-73,-110,-26,26,-16,-40,145,29,-33,66,-148,5,56,-12,83,-175,-12,55,-83,-11,129,207,101,-83,33,-110,72,99,15,114,-117,-77,75,89,-38,17,40,215,-32,-83,-36,-36,-160,-131,19,-124,105,124,112,-47,69,32,67,-22,-94,123,-66,-114,27,-175,31,129,50,12,89,-33,-20,-14,-144,18,-151,-28,-122,-52,51,152,138,142,-21,-4,56,81,-26,8,-41,-135,-74,-80,26,51,59,3,-191,19,132,-171,109,15,-69,43,61,89,75,-50,154,-123,-90,-135,105,-31,33,-102,-3,4,122,-86,-81,126,-103,-7,118,-28,50,80,-54,-163,83,-123,-90,-64,132,87,-65,-102,82,25,199,35,29,-11,29,-54,96},
	{121,50,105,-80,122,33,-35,-22,-71,39,58,-26,-53,84,21,38,1,13,16,46,124,148,176,-17,-5,33,98,-15,62,130,21,121,97,107,34,19,174,171,65,-42,187,133,126,-87,-17,-54,-68,-92,115,-61,21,-62,-58,123,93,-23,15,-42,-38,149,-66,38,-53,-68,-33,96,-46,-60,129,-50,29,116,80,-85,111,90,-27,-64,140,-35,82,-60,-111,5,-24,8,-46,-166,25,-168,-63,-65,52,-90,-158,-119,-71,-46,-5,34,35,-174,-59,-135,46,19,-50,9,-48,-145,14,-67,-92,-38,-105,28,-165,-104,-1,-125,7,-86,-28,-72,-102,-139,35,-140,-64,-89,-79,-88,-148,-127,-54,-28,30,-14,-80,83,-40,-116,-110,32,-98,-84,-16,-81,-109,-64,-159,-186,-20,-62,-131,-72,-91,-135,-69,-149,-101,-34,-81,12,89,25,-110,89,49,72,100,17,-77,0,56,-146,108,-72,-15,-109,-16,24,-72,99,-70,31,45,-104,79,69,19,6,47,-61,46,7,-70,-103,-96,19,85,27,31,39,-77,93,20,83,-103,1,-90,-27,-1,78,65,41,10,-107,28,-124,67,80,46,-17,-8,-22,125,13,-83,-50,-11,-78,65,-67,-105,-112,9,-15,-60,-118},
	{-44,156,45,68,23,117,66,21,72,-45,-30,56,-93,4,0,22,-30,124,-22,162,128,-40,68,98,98,-80,-2,61,-33,174,-31,10,11,33,-82,-64,-12,63,4,-19,166,124,-28,-40,110,-33,-47,-103,164,-8,58,-63,162,113,-42,100,115,-52,110,156,120,11,98,67,67,102,-110,-128,-74,135,106,-129,-38,47,26,99,141,62,-48,-44,121,92,-46,38,49,37,-52,-11,8,-112,-90,-37,-31,-15,-96,9,-59,19,78,104,-24,-40,87,-86,-78,5,-66,-71,-35,8,-83,91,51,-70,84,67,72,69,20,-80,86,125,-112,0,-104,8,-30,-10,128,11,-130,-11,-100,-28,-51,15,22,-76,-3,58,85,65,49,64,-92,-114,-26,-81,92,-93,43,-68,-136,-139,102,-8,98,46,37,-47,95,77,133,151,29,28,30,138,-56,147,-40,-26,96,171,127,112,193,-45,195,5,157,41,-9,82,31,59,185,102,-43,134,7,-75,56,126,55,185,44,197,19,83,81,122,75,106,20,147,52,39,190,142,47,106,30,41,168,85,215,63,-38,-4,128,58,74,-44,123,60,-59,-44,142,215,-20,-49,46,82,83,48,36,221,170,48},
	{-25,51,46,-148,-11,-130,22,-113,45,-43,148,202,75,172,140,-41,-49,-68,31,26,-63,52,0,-9,-149,-46,40,-134,74,-153,-2,32,99,-38,122,169,-3,11,-115,-36,-46,-14,-26,58,-63,89,24,19,-69,-52,-118,-75,90,77,149,169,-14,-47,118,-13,-116,-59,22,13,127,-24,-102,-139,-7,-52,48,-223,-49,-9,-104,38,-61,-2,50,-22,139,-76,-26,76,-50,-106,-49,76,129,10,-47,-86,165,139,-39,152,-76,110,14,125,-70,-92,-82,-15,25,65,1,29,-110,-86,76,-57,33,50,35,21,66,-7,12,53,86,-74,1,-14,-44,18,145,-62,5,-93,-94,33,144,-57,4,87,-58,56,-59,-17,94,-17,-10,125,-97,-46,-94,85,83,128,-49,-90,8,97,-98,-56,-48,-100,-15,94,-26,6,-53,138,97,108,138,162,31,76,15,28,15,99,163,118,-45,-68,-29,89,86,40,111,88,107,51,192,136,141,4,92,87,86,11,-89,35,23,-36,3,56,31,-52,192,167,56,125,53,-54,-50,9,80,-115,134,127,178,-28,-55,186,187,-78,-69,-86,-34,20,97,98,174,174,121,63,-104,66,-55,126,50,156,124,-43,144,71},
	{5,-13,-43,88,-99,-11,-89,-89,-74,80,54,-25,-82,-100,-66,121,1,60,145,-108,-50,-103,61,-85,137,-73,40,-84,-6,-66,165,47,0,-101,-100,-95,-90,-103,118,-82,-29,79,-32,-41,108,41,72,70,-117,-3,118,64,88,51,-95,-49,-49,-32,101,2,-5,23,-83,37,67,-17,-98,0,20,-119,-63,-13,32,39,111,9,22,-22,140,-64,30,107,-22,1,52,138,-56,48,-48,98,78,4,137,82,60,33,-34,108,114,15,12,39,110,50,42,-25,139,-39,-73,-33,119,121,-29,40,-46,-84,-25,-8,-42,117,-69,94,-39,-20,58,0,92,-64,4,123,73,-29,62,62,119,-90,4,-44,-35,-70,-20,102,4,-106,-4,123,90,145,-76,109,47,124,43,51,99,0,35,-44,122,66,-14,-95,94,67,-55,82,34,-18,27,-16,-69,-13,36,85,-1,-69,-16,58,83,85,10,2,-42,130,-57,11,-83,161,92,-2,-90,62,-36,158,-64,21,-33,-39,29,92,-51,11,7,20,59,-3,-38,30,43,-72,-73,127,232,-54,6,-38,-27,9,65,-49,3,65,87,83,-67,91,116,140,84,74,-108,88,-14,-41,-21,151,123,-27,53,148},
	{100,0,25,122,26,-86,-147,-106,-141,-143,0,82,151,53,10,86,-137,-23,-18,79,-13,52,-113,-193,-157,41,-41,187,107,123,114,-24,86,40,12,-86,-71,79,-1,109,106,67,-78,158,6,45,35,22,0,-69,-96,3,-100,43,78,65,-70,-9,-161,60,-11,70,89,-14,-158,-94,-95,-87,35,173,-55,116,5,-133,-144,4,150,-23,126,137,-26,-26,-33,29,16,-21,-118,-53,-136,5,112,122,61,-85,13,124,-63,95,-67,39,-108,-79,15,92,-17,28,-29,91,72,18,107,81,-62,-42,-137,-83,-85,-52,-55,122,62,-106,-116,123,33,-96,113,-88,-82,-31,-180,-6,-15,66,128,-8,62,-63,20,32,-2,-27,39,-18,-172,20,127,168,160,-77,-76,-29,-101,-19,100,110,77,-45,-159,123,-25,56,25,-10,-146,-70,-17,-35,0,-50,-48,-97,20,65,119,118,-39,-52,-70,-58,-48,-108,-34,-14,-153,8,101,108,77,-10,18,-82,37,-94,42,54,-51,-171,-58,-55,-66,52,192,58,85,36,-4,29,13,78,84,42,-53,-157,54,50,-11,176,76,38,51,-44,-13,148,4,-79,-122,-37,-49,12,-11,16,-12,-71,-74,20,26,187,183,76},
	{0,-130,140,-124,90,30,-86,-83,105,39,-113,70,-165,-58,-61,91,-54,-73,-55,22,-126,106,29,157,61,-127,80,66,-12,42,-120,13,-54,99,8,62,-39,2,-112,108,-121,-114,29,108,-44,-62,1,-84,52,-29,121,95,38,100,-64,-16,54,2,-31,14,-112,-100,63,33,31,175,178,203,-141,-62,-40,5,2,-49,-90,-44,106,-44,-154,118,121,-91,163,147,-37,-21,90,-127,-51,-40,67,58,100,-121,-9,-80,100,189,71,-34,-53,-164,-75,61,-46,-91,-90,-34,24,-107,202,148,-43,58,-163,-90,-195,-119,175,152,163,38,-41,-28,-107,63,197,1,1,-145,-157,-66,130,46,94,142,110,41,-194,-113,114,88,123,-89,64,-128,-80,-87,-92,25,36,-89,78,-113,-84,-47,76,-78,133,-91,83,48,-47,-37,-15,49,1,51,8,-187,55,55,-5,68,48,-140,47,5,-108,60,53,53,-29,41,-150,-16,89,124,-16,45,-68,-37,-92,47,32,3,48,100,-181,-116,99,171,127,-66,93,-59,-160,74,-99,67,84,-3,44,78,13,59,-86,-88,81,-148,-141,97,-105,-26,-14,46,61,3,103,59,39,-54,-98,-27,96,0,34,11,-186,-4},
	{132,86,6,90,-108,52,-106,-17,59,-33,-51,-150,-1,-206,35,89,-46,177,91,-3,32,-121,-95,-68,90,107,168,-39,-50,-21,-12,-35,139,107,144,83,-169,-75,-153,-26,-128,113,100,-68,154,77,58,-135,-31,-112,-40,-115,-32,119,-48,-2,-109,-47,52,106,95,132,-2,-106,-179,-165,-111,-33,42,25,77,-71,30,64,87,94,37,17,-28,-128,-31,-5,26,0,104,-51,-24,140,-97,24,-111,110,121,-19,-36,-11,-14,48,-33,-33,50,114,-128,-111,-143,-128,-89,-1,-27,24,63,-3,-112,44,81,-62,54,-41,-9,59,31,-34,-52,49,-109,40,88,-44,-92,106,-205,-243,-154,98,-35,36,142,-51,6,-43,-148,146,74,188,56,-88,-147,39,-156,103,159,182,56,122,-76,-212,-19,123,111,103,57,75,-62,-5,-42,4,-61,-17,-46,12,-44,56,-54,62,-4,91,105,146,-46,44,-44,135,74,41,46,54,29,67,101,-85,8,45,28,-97,-140,-45,-101,-35,8,8,-78,-28,128,247,-17,96,104,-72,-69,42,-9,176,1,45,49,97,59,65,141,93,96,-191,-204,-122,-202,-92,-14,-14,-202,-286,-158,-45,-68,171,140,84,-32,-150,-112,-79},
	{-90,19,-9,21,45,47,-156,-50,6,27,110,-84,-111,13,28,-89,-62,29,41,75,53,45,22,-55,163,61,130,-12,-105,-32,-180,49,122,139,124,127,-12,20,-115,43,147,151,3,-44,-167,45,-54,83,154,55,55,118,16,50,-110,39,65,-52,-146,94,-117,-130,-109,-59,-39,0,36,29,63,-83,-103,-47,-20,-85,151,-76,6,-69,-133,-121,73,29,-1,38,-79,162,112,-74,-11,76,-95,83,106,-113,-114,-62,-14,35,-17,-16,112,59,-123,-53,-82,-56,-104,19,102,-79,-68,43,125,-54,-81,-25,78,102,-19,70,-72,112,-97,-83,102,-29,-49,-17,56,-152,-167,-24,-124,55,86,2,-58,-139,67,-112,12,137,45,-55,59,97,-61,-32,-116,116,129,-18,-64,96,-140,49,-116,107,18,171,-33,101,-63,-163,-137,-198,-105,-42,-149,26,42,22,76,185,-15,164,126,125,49,-38,73,127,140,165,158,54,18,78,0,51,60,-268,-100,-128,-213,-194,-6,-84,-123,-149,-4,34,147,115,28,54,-22,38,12,254,-54,178,133,-12,68,-40,113,-9,-20,-179,-4,-112,133,30,-184,-142,-22,-79,42,21,-76,-191,-14,122,134,-27,57,59,-62,-32},
	{-87,-153,-133,7,71,47,13,86,-83,92,-55,-35,75,-48,-1,53,-58,-62,40,100,39,-33,0,85,25,171,-2,-113,-15,23,6,37,-212,-67,-46,-2,-57,-149,-43,-63,28,82,135,121,60,-54,-169,-96,122,83,-105,-5,116,-140,8,6,167,120,52,44,-167,-76,-20,147,130,-99,81,36,76,-38,-87,-71,117,113,220,-104,-77,-76,-201,62,-125,87,35,34,-7,-105,-132,-86,-123,54,104,115,86,-115,-110,33,96,24,147,74,-23,15,90,81,1,99,147,-5,-119,-12,8,-28,109,50,-110,-132,-23,131,144,-54,86,-118,-102,-68,-131,-119,-11,95,-72,-138,-180,78,138,88,94,-13,-95,-56,70,-67,111,178,69,-120,31,34,76,64,119,114,-78,-123,-144,-116,70,74,0,-136,-104,38,-175,37,61,27,91,109,36,37,5,13,29,51,34,118,46,90,-157,24,-1,-7,14,72,-41,10,-80,-39,8,66,15,137,-24,-63,-136,136,-64,2,108,-77,-88,-109,-34,111,78,-12,64,-26,-175,-76,10,-3,-130,-86,-38,-41,-111,-9,95,33,104,-89,-117,-110,36,147,103,-98,-150,24,-62,-26,67,155,125,15,-85,-30,30,125,-65,40},
	{-43,-124,-18,-10,-194,-70,-183,-89,4,12,-43,-17,58,-2,61,2,-9,-58,-106,-55,-145,-138,23,-144,46,59,-32,12,-108,55,-67,16,-32,-28,-209,-224,-191,-92,-83,-167,1,-111,-49,49,-129,-87,-44,-176,-166,-154,-41,-62,-107,3,-35,-123,5,23,51,11,-124,-12,-58,-136,-134,29,-30,-130,92,44,-154,28,-98,-94,-73,-43,-201,-91,-146,-169,45,80,-79,-123,-102,21,-85,108,91,14,34,70,98,-47,-39,92,5,80,44,111,-9,-50,133,-96,-6,57,115,-92,-23,118,-103,-72,63,55,28,-45,59,74,13,-36,13,-40,-58,-84,-22,-115,18,73,21,-105,52,81,36,62,-96,-121,-51,-116,-34,-124,36,-95,122,43,71,76,-84,113,47,-104,19,-121,-25,73,50,71,3,-79,77,97,77,147,58,-10,184,146,128,174,24,83,204,175,65,119,146,57,-46,140,35,160,203,90,140,-37,-18,-24,-5,130,86,-1,184,79,1,-6,167,-18,86,157,142,209,34,196,104,111,135,112,79,10,144,159,150,17,143,139,173,141,21,196,-52,52,165,169,52,90,62,-4,163,131,36,129,157,209,137,122,119,21,233,-7,129,96},
	{-101,55,60,-25,127,10,48,-96,-58,141,46,116,50,103,-112,-90,-215,-162,105,240,133,-26,-16,-153,-120,-100,177,-41,119,54,-150,-246,-76,-96,107,103,18,135,-43,14,-172,-11,54,58,11,61,-29,-43,8,-9,-46,130,-7,-101,127,-57,-129,55,-9,135,19,94,-79,101,54,-41,-98,-34,-89,67,23,-92,73,26,65,-61,-65,-37,19,-125,-15,-73,-32,26,99,58,-155,52,-44,116,-36,-133,-104,-26,-126,-106,129,138,37,31,-87,-15,34,165,79,113,-50,7,-158,-163,-15,-40,79,149,-136,-151,-160,19,63,-21,94,-89,67,-81,-87,-19,206,-38,78,1,69,102,-119,40,-13,155,74,135,-28,81,-152,14,-150,-155,-31,-32,-86,70,-8,54,107,25,-43,-32,45,-40,11,100,23,-81,101,106,-59,-81,53,11,106,82,96,73,-126,57,35,16,18,-104,0,-70,-153,-163,27,3,-110,-189,-225,25,105,165,165,16,50,-6,32,75,44,145,137,36,36,-77,84,159,132,33,-35,-98,-145,-163,-57,-71,-152,-147,27,-118,-43,45,31,42,-21,146,132,180,97,77,-61,-39,145,48,25,53,-32,37,-52,31,-29,-172,-164,-53,73,1},
	{-19,-39,45,87,8,7,15,21,16,-203,60,19,71,107,137,170,127,-90,-2,-129,-85,3,76,1,64,-52,139,24,116,-3,-4,-143,20,-95,137,30,209,84,-6,158,-118,-86,-121,-265,37,-31,-107,-104,-91,26,114,2,-135,-103,10,-1,-42,113,28,91,-60,76,40,16,-80,-63,-154,-169,82,24,6,-46,106,130,-37,84,39,-73,29,-37,13,-69,-85,53,113,-87,81,14,132,45,0,-92,26,-88,139,114,116,-34,112,68,92,-21,-43,-125,-143,-17,-126,-64,-59,74,45,156,13,-77,0,-124,7,-39,-36,215,10,152,-90,54,-161,-12,-199,-31,-34,-13,59,24,80,89,-50,1,-65,-141,118,-38,186,41,156,-87,-87,-65,57,-80,-146,0,-100,80,182,25,28,-37,-4,-28,-95,-53,-135,109,-52,206,160,-10,222,25,43,41,-151,-170,-190,-81,55,-24,66,5,0,-132,-163,-112,-125,-38,26,223,119,167,192,49,-104,-253,-208,-110,31,80,-39,-1,144,212,63,-2,-126,-118,-82,107,10,234,283,246,1,-8,-229,-139,-216,-261,-198,123,271,203,193,156,-71,-144,-193,-87,78,69,66,203,292,51,32,-62,-76,-290,-292,-189,9,229},
	{25,19,92,106,-162,-26,-163,-33,153,-62,174,-46,95,-103,119,-53,148,15,141,-140,-151,-157,-171,52,106,154,77,-16,62,-9,-8,122,-87,-15,-119,-20,-165,-62,-79,143,18,100,141,-117,83,94,-12,9,41,-139,-150,-92,58,119,13,99,-70,126,74,40,-6,-13,-110,-34,-78,77,-11,52,-19,-27,-48,-21,73,187,99,59,-130,-125,-36,1,21,85,-87,-46,-116,-93,-137,65,108,141,88,-1,-132,-180,-95,20,14,-45,7,-103,-194,47,28,-53,80,155,128,-203,-96,-76,10,151,131,147,11,-112,-49,108,98,-94,102,171,-178,11,4,-39,-2,-101,-87,-20,-80,-111,-3,87,12,-94,-54,59,-37,-5,87,61,2,-141,94,66,34,-29,11,111,108,26,97,77,-9,94,-174,-8,-179,68,104,9,-59,-82,-20,109,-14,-115,21,-126,-31,138,21,6,123,-100,62,-45,-41,94,149,162,-90,-161,37,68,11,166,-66,-34,55,-129,-39,-75,31,31,-52,-94,-143,-117,-152,85,57,-40,5,55,31,152,-60,70,14,-158,55,-80,129,60,-38,156,-57,-57,-75,56,10,-45,-30,-106,-14,38,-12,-54,-26,125,108,127,100,27,150,59,-96,-10},
	{93,131,-15,101,-20,-4,-142,14,-211,-142,-71,-97,-49,5,-58,142,154,46,132,86,-138,-24,-108,76,-164,-161,130,-147,43,-83,9,122,-104,38,128,143,-48,57,101,36,-21,-164,-24,82,55,83,176,52,-104,23,-185,-22,-123,82,-116,3,94,-77,-57,85,-69,52,3,-156,-2,-4,127,-78,-31,52,-150,-199,-13,7,18,95,134,185,82,116,-5,27,108,-41,35,-106,47,74,115,-123,-89,80,38,61,50,56,-37,-63,-51,34,-120,-14,-95,33,-42,87,-130,-94,-1,61,49,-17,-50,-133,-158,114,113,93,43,-108,-62,114,78,-76,98,126,64,114,-59,-122,-127,-103,-56,2,-47,-125,-9,-111,70,-50,39,166,95,74,-166,-54,-143,-6,62,64,97,-122,47,75,-114,-44,86,53,180,120,-85,92,64,-53,-165,68,1,52,25,70,-18,-120,77,-76,95,160,64,141,-171,-203,-98,-51,81,-95,3,8,20,-109,-53,-145,146,124,-21,-49,17,-25,94,87,23,-2,-151,-85,-169,-179,37,166,-26,4,39,54,-14,19,117,136,-108,-63,46,79,-115,69,-128,105,-153,-6,-126,34,90,1,145,113,-40,-120,4,-25,24,100,146,-50,102,71},
	{-64,-86,44,76,53,29,136,86,-30,-90,5,-102,23,-50,54,57,-42,11,52,-19,-64,6,106,-93,-52,-25,-99,55,-101,-83,68,-59,16,15,136,-91,98,-7,-10,56,-131,-79,90,-21,-62,-106,36,37,49,110,-12,-23,-85,-6,82,82,-21,80,-123,17,15,125,-45,117,99,14,13,-39,78,-48,76,55,-44,108,-92,75,10,87,90,-9,141,143,116,37,91,-88,52,8,-20,-48,-95,-37,-82,-119,-7,-104,46,122,22,1,-82,-84,-22,56,81,66,-20,-15,-29,-122,81,81,-67,159,-27,98,-118,102,101,-96,-7,-114,-131,-40,136,117,-23,145,4,154,137,105,0,-122,-105,1,-100,-40,40,94,-77,110,162,133,21,-3,-72,109,57,-26,-15,-10,22,-81,109,-12,-40,135,-57,83,126,42,31,187,199,67,156,157,69,-21,185,170,58,26,140,34,149,86,127,152,119,122,1,98,108,128,85,7,128,166,88,78,-16,-17,192,31,126,108,33,138,200,140,41,4,25,196,195,4,25,4,123,205,116,121,98,68,20,198,-22,175,27,10,183,149,54,132,33,4,-11,-5,62,108,151,142,81,130,217,9,172,47},
	{-76,-167,-61,5,-20,86,109,97,56,73,-127,-158,-206,70,-20,-16,99,164,180,76,-76,-141,-158,-133,0,-131,8,163,114,126,-5,145,-146,-104,-4,-142,-153,63,-19,194,12,56,-21,-170,-256,-217,-180,83,131,53,113,197,133,40,-68,-185,2,14,-74,95,61,41,128,46,-16,26,-99,-18,48,-19,76,83,78,50,85,29,-28,-75,-166,-162,152,43,-11,-69,-111,-104,-33,-38,-26,17,26,89,58,-62,-26,-8,-163,-75,83,-30,33,-6,-20,54,-100,12,-185,57,44,107,-92,173,139,169,52,-129,-122,-25,-109,-30,5,122,5,34,4,-117,94,-134,94,-71,9,-91,34,153,-15,149,-105,-27,-88,-17,-46,-101,127,-52,-49,79,-87,-42,85,42,-98,-124,-74,42,35,152,61,103,57,87,42,-22,17,34,-159,-59,13,151,189,96,-77,-165,-91,-142,-240,-72,-112,12,277,270,50,141,-30,-92,-227,-111,-158,38,319,180,98,-24,-112,-29,-188,-149,-239,30,151,133,307,218,102,39,-182,-237,-152,-24,-56,-6,11,4,23,35,-37,-162,-22,-179,-134,-14,168,133,167,-24,85,-146,-167,-141,-153,-149,-102,74,0,33,43,24,94,-27,7,-95},
	{81,-30,90,-81,6,143,-65,88,-16,-83,-49,136,-123,-75,-2,-88,91,45,33,73,-106,72,-20,56,134,-126,-45,-65,99,-87,32,-58,109,10,6,-197,1,-27,102,-55,-4,-153,5,-92,169,160,55,118,-111,-87,19,154,126,141,109,-35,-86,-144,-75,-36,58,-32,-121,-170,-10,107,187,82,-82,56,114,41,-9,38,-84,-75,-53,-40,-138,2,91,-17,-13,-67,-59,-80,68,136,105,102,-17,140,7,86,70,93,117,-90,-200,-107,-94,52,-24,158,-8,-134,-45,-104,-68,73,210,89,-65,-168,-25,-61,-74,26,-51,-91,-165,-198,-17,99,194,-25,-51,2,-146,-134,101,108,164,102,-125,-82,94,-11,-120,81,111,100,-123,-75,-51,-93,112,-28,-40,-21,43,37,58,32,-81,107,57,55,116,-111,-51,-44,8,-36,-129,-92,-71,5,95,38,196,-181,-271,-148,-72,25,270,258,134,151,161,-3,-128,-187,-102,96,-16,-205,28,75,83,128,20,-165,37,-186,-88,219,138,255,26,-32,126,107,69,-116,-187,8,17,-123,-108,42,58,21,-179,-190,24,34,50,14,88,220,47,70,47,56,-114,-100,-240,53,-32,39,-154,-163,65,154,50,45,85,-35},
	{151,-125,107,54,-34,58,138,-7,70,59,-25,116,120,-14,-42,10,98,102,101,45,133,104,-50,12,-42,87,87,86,115,-65,-36,114,81,12,-2,111,-102,100,-92,113,41,-94,-131,101,1,-66,31,77,-8,-5,-23,56,-21,-73,-6,-72,-79,-95,25,-123,-88,36,-129,32,127,-71,-63,-29,27,61,-5,-100,48,93,-86,112,23,-106,-11,51,-83,70,98,-61,19,136,14,63,50,39,109,54,-94,8,14,-39,-70,-29,156,5,-88,86,-61,40,89,62,71,108,145,-45,85,88,116,26,112,87,104,2,4,78,129,-82,44,152,-49,18,141,-11,-55,-60,61,118,-23,47,111,-34,70,136,32,68,74,163,163,15,100,82,-34,-35,-42,56,-57,56,-38,19,67,-49,-22,133,-66,19,127,32,-73,62,9,-81,-87,-46,91,131,-35,-32,77,-87,-2,-37,-12,-114,20,67,-1,14,-29,0,53,-10,-4,-26,28,41,115,-80,82,97,-21,-89,61,52,40,49,-84,-9,61,-112,-94,-66,-26,52,-78,-31,47,42,101,54,-52,0,-76,13,61,119,62,49,-74,41,0,-107,-61,36,-35,56,-47,31,76,-5,9,-113,-150,66,-160,-15},
	{57,-60,86,85,40,100,82,-36,92,14,-34,123,34,-6,31,-53,35,-46,79,139,6,88,-24,134,-63,50,100,-64,169,44,158,30,38,74,112,-119,88,121,-6,44,-30,138,-38,81,-96,-35,126,67,68,25,105,47,63,38,-16,-79,-12,-10,-152,29,64,-75,148,-83,90,138,-56,-84,33,136,-62,-88,-38,62,-52,71,-85,-66,14,7,91,78,-52,122,96,15,-15,-39,52,89,12,-88,136,18,71,-80,62,137,0,21,152,62,165,120,-50,-71,43,93,55,-39,125,-76,28,92,137,61,-13,44,23,51,99,100,-27,23,55,114,20,-78,109,-39,-9,4,-39,101,7,-42,32,87,-18,13,56,4,119,80,-66,175,96,12,102,-77,7,107,129,20,-32,142,5,155,39,-37,162,9,45,72,52,32,86,122,-69,4,53,106,41,84,163,4,-28,-69,-80,89,120,92,134,165,52,-27,16,97,-34,-61,42,69,140,145,-31,127,140,125,-9,63,17,-59,129,83,-46,39,100,48,92,77,23,-2,-44,-25,1,63,165,123,145,107,36,161,-11,120,76,12,-17,82,-23,34,43,33,68,57,86,44,174,31,64,102},
	{28,26,43,-130,21,-101,-51,-69,28,72,-149,-119,64,-15,200,76,56,85,-14,28,-77,-69,-3,-35,-63,-175,-36,-29,101,180,144,182,19,56,-70,-22,-105,116,-45,-169,-174,-101,81,-86,188,196,-9,173,-99,-105,-34,-49,-82,68,-145,-156,4,35,7,31,44,179,193,52,58,-21,-60,-117,42,-123,-19,64,-53,38,48,-64,-7,3,-122,120,-114,87,116,146,-45,-155,-115,-142,91,138,113,27,77,-131,-128,112,36,106,-12,-116,-25,-11,-113,127,37,28,132,-22,83,-121,114,-89,-11,38,-103,47,-23,98,162,36,24,111,51,-171,5,-34,-44,139,-37,99,-87,-52,-75,0,81,-63,-140,-168,-125,-117,-91,-17,44,42,-20,-158,86,107,15,146,-39,-74,-20,-134,-182,-49,119,160,93,77,-163,108,46,74,-70,-165,-86,-41,-7,89,48,-90,80,196,-12,-179,127,124,73,-19,-133,-19,-5,-73,-104,-101,186,142,60,-90,-108,-70,-60,70,156,-12,-8,95,-22,90,83,160,118,-4,-50,43,-137,-141,118,-36,172,-27,-120,-106,-16,-16,8,-185,159,-86,-27,-132,0,-28,150,176,231,73,4,-148,-14,-81,19,-34,-123,83,-108,-36,-22,41},
	{1,2,13,-11,135,-15,86,114,-17,105,-75,-15,32,12,-33,62,55,23,17,126,42,-23,18,42,118,88,-66,-5,-70,67,78,-69,92,44,100,-29,97,-32,142,159,20,90,7,-66,24,53,-86,152,106,118,54,51,61,97,18,96,17,-60,27,7,-108,-55,-53,31,184,-44,43,-25,-124,150,-15,-67,-76,-83,87,-26,-15,-52,-99,-1,35,5,79,32,-19,99,-118,67,-57,-46,-62,-44,-112,95,110,74,-87,65,-49,57,70,60,44,-37,103,-26,116,-31,-97,-15,81,-5,32,11,-45,83,-67,55,-1,-102,-119,20,-122,-124,142,148,-6,104,-26,-72,115,127,119,-32,81,49,-86,94,-44,87,-56,106,100,-84,-86,137,-120,-37,-27,-127,66,25,-8,59,71,-42,8,94,101,-26,41,-8,116,-83,8,16,122,-49,4,-16,23,-51,34,106,-8,-40,-19,-61,76,50,84,130,146,-106,101,87,18,-7,-17,106,126,41,-29,-96,134,31,134,211,82,13,134,78,-48,-139,-53,-97,-33,115,-51,119,136,106,102,129,164,18,106,-36,-65,-129,-95,143,64,38,-44,-15,154,89,76,135,73,-20,28,-79,0,-64,121,-37,67,64},
	{-160,-74,26,-101,-133,60,-166,-151,-166,12,-182,-125,-53,37,-110,23,-71,15,-138,28,-178,-97,-117,-144,-70,20,28,-63,-64,-192,-140,50,-172,-10,-3,67,-27,-31,-142,17,60,-19,-172,-13,9,53,95,-108,-130,33,-129,-15,-195,-184,-84,-21,-134,-77,-58,84,-59,-67,59,-111,56,-194,-229,-55,-40,83,19,-128,-90,23,-103,-130,-206,-168,-1,-72,-128,30,-14,-57,0,-122,-45,13,-66,28,85,64,71,-72,28,-115,-85,24,57,58,-22,-100,9,-48,77,-123,59,-72,-34,-10,-16,-18,83,6,5,48,-73,90,-144,111,55,-101,-51,29,83,-83,101,-29,47,-90,-18,28,-119,-146,14,15,-53,43,40,102,-88,98,18,-95,31,14,-95,84,-11,14,-167,-15,-25,99,76,-96,-52,-101,95,-51,-140,-83,68,93,-58,101,-28,103,-43,115,-139,7,-57,97,85,-129,101,77,22,56,162,-122,-117,-120,68,-19,-127,-43,-24,-46,72,21,-97,-7,-88,66,-32,-21,-84,-58,22,82,43,-56,-163,12,15,-18,-1,114,-103,146,16,138,9,-212,118,73,61,-49,74,27,8,-90,-43,-75,-157,-93,-19,95,-100,-22,-22,21,117,10,-123,-69,65,-66},
	{-51,-68,108,77,-2,-69,-132,36,-205,-81,19,125,-37,-153,-18,-109,24,117,242,181,114,-5,-154,18,-186,51,67,-50,87,-84,26,0,121,27,173,121,25,-105,-116,-139,-144,14,60,-137,166,-69,-30,65,10,-64,165,151,-44,-48,-24,-174,-156,-49,98,-80,-73,77,105,91,-68,64,-23,-60,9,108,54,-78,-35,-166,29,95,2,70,78,72,86,-141,-23,-55,6,-92,43,75,72,-64,-40,-65,-47,106,-3,134,105,3,96,73,-143,34,60,-63,-78,110,19,10,132,117,60,-102,110,-163,-53,-17,-2,-99,23,70,72,-133,29,-33,130,122,62,89,-2,65,113,-42,-120,-89,-53,-89,-57,-40,62,145,-102,22,97,-101,-7,0,-21,-1,-72,0,-30,43,138,-66,-114,-41,-87,-122,-68,-29,70,126,28,93,48,-57,-102,-14,42,-34,-22,74,-11,-111,56,-127,27,35,213,-30,28,120,-151,104,-38,106,-78,-52,-101,-101,7,40,91,124,-105,-80,-13,-39,-51,193,60,-111,7,-110,-10,16,39,-46,224,3,92,11,93,64,84,-161,-140,-178,-55,1,160,-3,172,-3,105,-108,-46,33,-50,-6,-69,-149,96,-70,-89,37,-6,128,-43,-165},
	{19,0,109,-122,48,41,-19,97,78,-99,-29,134,-91,113,-20,90,-129,-27,-63,49,-79,24,6,-8,81,-58,-118,-78,71,-85,9,-39,14,-9,90,-28,44,88,15,81,136,-74,-33,70,-53,-183,86,69,82,65,133,-52,36,-147,-63,-64,96,-8,-9,-70,-45,-144,-7,-21,162,88,108,-63,-126,-164,46,93,-65,95,-66,-172,-64,-89,115,98,-53,142,29,-44,-150,-78,-127,-31,118,-42,-57,2,-104,-84,-5,164,160,163,-17,38,-123,-21,-87,59,83,-33,141,-115,-111,-77,-130,131,120,-65,-23,-39,9,87,-91,-34,-10,-56,-65,69,68,-12,-122,115,81,-118,79,159,150,53,67,35,12,127,120,136,51,-138,-154,-55,-1,-5,127,37,71,-15,-219,-159,101,-61,180,82,-190,-24,-169,-26,6,-101,92,-26,91,-139,-107,14,47,107,97,-26,-5,205,-126,-134,30,119,-140,-78,-30,-118,-42,95,-10,77,165,152,88,-100,-216,106,47,-87,-192,-153,-43,128,69,31,-80,158,154,-114,-131,-21,-41,106,-1,-161,-136,-139,28,131,-11,-10,140,29,34,-87,-78,61,-76,77,43,-206,-84,173,130,194,59,77,127,4,-4,84,-34,33,-118,-52},
	{2,-133,-39,48,48,-35,34,-109,56,-3,0,-102,27,15,-6,0,99,60,109,-64,49,-11,26,20,-82,-83,71,59,73,130,-56,-53,-74,-132,-115,71,44,-15,4,19,-99,-113,-157,-12,6,18,100,140,102,82,68,-102,11,-10,-61,-43,76,83,24,-85,34,-10,-45,-72,-73,69,81,98,43,136,-62,108,-47,-92,-113,72,-64,-23,50,-55,-44,-69,-51,-137,-51,30,86,17,88,6,97,-68,-82,25,60,19,-77,31,109,-50,124,54,112,60,51,-132,-21,-34,3,-72,11,139,22,-106,-6,-96,-11,-113,41,126,132,41,-144,9,-135,31,-1,-122,25,83,103,0,-65,-119,79,-27,76,32,116,70,-85,125,-30,-94,93,1,-57,-2,56,75,-91,-104,-37,-73,34,68,-87,113,-86,-102,-107,10,-45,-90,70,102,40,152,70,65,3,-128,-164,48,74,-34,11,164,163,-3,-33,-129,-178,-65,23,5,-15,222,173,101,78,-151,-140,-224,72,45,-61,276,222,43,0,-70,-214,-174,-6,109,-26,217,247,83,-70,35,-40,11,-60,-98,56,46,48,154,22,-77,-21,-50,-127,8,-69,-20,112,-2,43,76,-86,-119,-89,-111,-105,93,-136,34},
	{-65,-69,-78,-84,79,135,-56,-84,-16,-188,93,117,43,-52,33,52,9,10,162,-27,48,-115,128,-25,135,51,105,40,-147,28,-155,132,-91,-61,-35,11,-91,-76,-86,186,150,24,-137,-162,-84,-59,44,-88,37,-6,-110,-81,-71,97,59,136,178,-115,-50,-142,-108,125,123,80,48,15,69,101,23,99,58,62,33,47,-110,-105,125,146,-137,-75,-64,-37,150,100,-44,-113,27,-44,33,-41,89,44,-81,66,-122,5,13,136,198,74,-109,-182,-26,-52,136,120,-1,20,-124,-146,83,71,85,197,6,47,-85,-114,-121,132,-29,130,9,-200,-181,-120,-133,77,216,-51,-45,-23,-86,-199,119,235,167,145,-105,-18,-146,-152,63,179,144,61,-42,-200,-102,66,-14,14,47,139,55,-174,-196,48,14,46,5,-47,-62,-126,126,186,-120,-34,-76,9,51,-60,135,105,33,126,85,-86,-54,-20,61,-34,-195,-81,28,38,-68,27,105,143,-23,-91,-29,94,32,33,76,-67,110,99,-16,65,52,7,104,107,-70,-91,81,6,-24,-189,42,-98,-97,-19,9,-167,-27,-67,4,106,-79,-65,93,-76,28,-41,96,-48,-5,-65,-2,-142,33,59,24,74,66,-171},
	{88,-145,-120,-22,-60,58,1,-69,187,56,113,-71,45,60,0,-44,-196,53,-38,-41,-50,9,32,134,19,203,-7,77,-102,-14,-146,-37,-45,191,59,-73,-80,38,48,84,143,140,-109,-206,-148,-144,9,-35,18,76,36,91,127,86,77,132,193,-100,-83,-140,47,-56,64,-78,-110,-27,165,149,134,9,-11,56,-67,-145,-145,-142,-82,11,-55,-67,121,-25,-36,90,89,-88,15,-63,-129,90,-81,-161,-3,59,163,138,-64,35,-66,-7,72,142,15,133,-88,-212,-38,-26,82,217,198,-74,-57,-172,-20,49,-52,174,0,-162,-144,-176,56,-104,87,118,88,-60,-124,-124,148,130,46,-97,49,-81,-102,17,-23,-76,-85,95,58,-82,68,10,105,144,-120,-138,-25,-24,20,60,47,-17,-42,15,111,-71,88,33,83,44,-94,-126,-6,106,-112,23,184,-72,17,-229,45,77,61,16,168,-163,-6,-98,-31,50,-33,-131,10,-70,-242,-75,80,60,57,44,-92,82,-160,27,-22,-20,83,49,-55,-3,-109,58,138,162,60,8,-107,-26,172,49,-131,-57,105,246,107,-122,47,51,71,83,-143,-64,-55,189,20,1,-31,185,-97,-105,23,-117,-18,-129,4,-33},
	{-127,31,8,-150,-20,35,-69,-77,-158,81,73,163,169,-118,-67,46,-59,-53,121,-76,-70,6,7,-122,115,13,75,210,63,23,-13,-111,-57,-53,-64,154,52,13,47,-52,-107,31,200,152,0,-26,-20,-118,-21,60,-64,30,-147,-59,68,-80,14,-79,116,-107,-16,-179,-148,116,105,29,41,-47,68,5,12,-5,-91,118,-3,-159,-5,143,73,103,128,-129,-205,-125,43,-2,133,210,-150,-146,-228,-21,123,206,221,73,-96,-92,-216,108,70,167,68,-70,-209,-42,17,122,160,53,121,0,-115,-32,51,181,-15,18,4,-216,31,-83,128,107,41,45,130,-131,-89,33,-69,132,13,-125,-22,-136,96,-91,-127,-73,-11,126,65,-42,111,-115,27,-98,-4,-122,112,0,46,-134,-18,77,-97,80,-22,75,119,83,23,-186,-77,68,65,-113,-60,-23,66,-10,-119,12,161,-75,63,133,-133,39,-50,-66,-102,16,149,-145,-83,46,112,84,120,87,15,101,43,-120,-51,-54,-144,-22,-109,7,135,99,59,-86,103,103,-24,-155,59,-82,-20,-65,-103,46,-118,97,174,-105,74,-12,96,-94,75,53,33,92,-48,98,-12,78,41,0,-4,-4,-108,-25,-81,-101},
	{-69,-66,102,-124,-42,-5,-36,110,82,-72,-137,-79,-54,-131,73,166,213,-66,7,-130,-121,15,143,7,29,61,-137,-55,-129,14,0,114,14,-36,-101,-151,-160,-95,76,-86,36,57,-71,-60,-37,163,-1,190,60,-93,-86,18,-131,5,-99,-163,150,-22,95,19,154,-55,68,101,130,-96,83,-80,-102,-207,-14,95,53,160,189,74,119,95,-41,30,68,46,49,12,87,-93,84,-106,56,55,10,199,54,-76,-130,-56,-67,108,-93,58,52,-114,-5,-55,125,203,3,146,-21,41,-186,46,14,80,119,99,-13,14,22,-5,43,-37,-32,2,-164,-96,-90,-126,168,86,52,-18,7,-40,-158,-47,34,186,99,-54,-102,61,-20,-133,12,-34,-17,50,-51,12,-57,76,18,-109,0,-65,-120,-48,-153,64,-74,53,-112,-16,-1,90,29,-18,112,24,-12,-42,102,175,39,-68,40,-129,19,-143,15,114,-73,124,-17,-97,-67,-37,-42,63,38,-133,-165,20,69,64,171,44,173,6,-26,113,134,99,20,6,-49,-56,-79,1,61,1,1,91,-30,-106,-124,-185,9,74,125,84,72,-128,-81,26,-47,-2,100,-89,-4,-98,-1,10,107,-57,-81,-78,-34,-50},
	{155,-29,85,190,-18,120,44,-77,-47,109,93,22,126,51,83,-6,151,29,90,-52,111,-69,-26,109,-41,-51,51,-23,132,4,163,0,92,-96,82,92,110,-57,46,193,-4,30,40,88,121,-3,120,-59,36,-60,127,-29,136,97,28,7,-101,-73,59,55,105,68,-60,-80,-78,28,-63,82,113,121,117,-20,92,77,36,-63,88,15,169,12,-33,-43,-5,68,58,73,97,121,146,-90,-26,110,99,120,-48,17,-28,-55,162,149,-46,48,21,93,37,59,37,180,162,99,-14,-52,25,-71,18,38,44,-53,75,22,172,63,54,95,-71,-63,-26,87,143,132,40,167,-35,22,-73,-54,146,81,198,11,55,33,103,-38,43,201,-8,75,113,-51,70,103,182,138,159,119,98,122,131,-16,-46,-121,-97,-30,-117,-76,-41,49,-134,-103,156,-34,-12,55,-49,-51,-121,68,-37,-121,104,-4,143,-43,-23,96,-61,-17,-37,-101,-105,112,126,-16,-138,31,-11,86,-46,-116,84,59,30,-30,92,91,62,90,23,5,57,33,-59,77,41,-86,-108,21,-77,-102,49,38,80,-109,56,-51,-12,-11,46,-82,-15,-19,-122,-60,125,98,125,-88,-71,18},
	{-120,71,104,8,80,37,24,-156,32,151,36,47,85,-110,18,-30,50,-108,116,156,-57,4,-54,-110,25,-82,-37,-47,-54,54,-46,-51,63,-38,-101,116,128,-3,-165,-104,2,-126,54,-12,144,-64,22,57,-52,123,81,-126,-142,6,2,156,77,7,-3,-67,82,23,42,-112,121,-103,1,-81,-38,-62,100,146,3,-133,75,-99,148,43,8,-163,-79,126,-33,76,196,15,105,-162,42,101,89,196,-81,-13,-145,-22,-97,-38,5,172,-14,-76,-176,22,-73,-73,-54,56,-63,-26,-7,-89,-42,-6,69,-44,-84,-172,-14,-98,-36,-94,-24,54,-24,-71,152,-44,181,102,53,87,-194,84,-80,151,-40,-30,-107,-72,-169,116,105,125,103,-81,35,-160,-116,56,109,17,87,90,-167,-65,100,110,57,47,47,5,-110,-220,-74,132,144,26,90,148,-93,-86,-142,-44,182,165,-136,-179,-86,12,187,-14,-163,-46,207,179,44,-137,-30,-9,83,-23,-180,-26,161,184,29,-32,-133,-15,108,46,57,-195,-45,81,58,-122,78,77,75,-28,-154,-78,-93,105,-21,19,147,-84,-133,-59,87,100,222,-11,-53,-51,25,-96,-207,-159,92,147,144,82,-114,3,21,-12},
	{2,-87,-85,138,33,-92,-72,-168,33,-23,-7,153,60,0,29,60,-7,-11,-44,-16,45,95,-170,-106,71,112,-65,55,140,19,-146,-151,-25,10,-6,-91,136,-173,-82,-194,-18,40,175,116,32,17,-40,-202,13,-21,129,54,-151,-188,-116,-77,39,-73,90,152,83,-12,-67,-50,-66,-130,-23,-153,82,-35,12,-97,120,31,144,127,-81,77,73,-112,-20,80,-4,-124,-146,134,17,-13,-127,95,106,-16,-71,3,32,-117,-88,-179,-102,10,32,120,153,83,-78,-60,-70,100,26,-78,99,3,-1,-113,-94,31,-59,124,-5,141,6,-132,-150,-46,-56,130,95,-48,-173,-53,-184,-4,-37,116,46,-109,-145,-53,-100,29,92,101,-6,-115,-55,-74,94,113,77,87,56,32,59,24,-59,-48,-98,-2,68,41,-190,33,-87,110,-123,-125,-42,-43,-132,39,-138,109,-81,-141,-62,-140,-128,-42,-11,-134,-80,-109,-128,25,-8,-52,-36,-23,6,-121,-67,-99,-127,20,-39,87,-53,-25,-150,-61,91,-96,8,-156,-175,-181,-131,-29,-80,-24,-22,-146,-120,-160,-151,-44,-101,-34,-160,-135,-158,-70,-102,-84,34,-150,-195,-77,-191,-124,-89,38,-4,-118,-162,40,-88,-12,-52,-185},
	{-51,57,-64,-54,-87,-94,107,-74,131,47,-182,9,107,97,60,-188,128,-113,86,6,-89,13,68,52,-139,20,53,-118,41,56,-136,126,-46,-65,-10,-81,10,-72,124,62,-17,-2,-130,73,-68,10,61,82,25,97,37,-137,135,-9,132,-192,-20,-7,-5,-109,-47,90,-91,20,-126,68,-49,98,104,115,-101,-60,14,-57,-50,-139,-149,38,86,-50,140,192,-87,20,113,-25,-105,140,101,12,-55,45,-128,-25,-29,34,152,131,-93,-92,-123,115,31,13,-72,11,-21,18,131,22,33,152,-3,-48,72,8,-23,-89,143,-65,51,147,48,18,-51,21,141,102,71,-106,26,-12,52,151,-17,124,64,-103,42,43,62,-87,-65,38,131,113,118,37,38,94,91,57,105,-39,-7,76,-112,-32,-94,181,-66,7,-44,120,6,128,110,-139,-119,-72,83,32,-73,-86,-29,115,129,-19,34,-69,-111,153,-73,-108,-145,69,-102,-83,-53,87,-92,134,17,99,-51,43,135,-20,-81,111,-102,69,126,-65,-112,6,-44,-76,61,126,-25,168,35,17,76,106,51,52,-66,-94,39,-113,-48,-63,54,-83,-54,170,-37,-85,27,131,-69,20,61,32,140,106,33,-34},
	{65,-105,-12,-158,-113,86,29,-89,86,13,112,-18,80,3,105,-31,5,-10,-92,-68,101,-55,-29,-31,142,-68,130,-12,-26,90,-134,-77,18,0,-56,-9,36,-31,77,-10,57,85,20,160,-15,-97,-43,-129,-11,78,6,-50,-23,93,-116,76,222,236,194,-31,-206,-47,-194,-64,46,157,86,-20,-70,-51,46,139,39,-5,-64,-38,-70,-168,-106,-130,59,151,-15,-178,50,-33,70,-81,154,-64,-124,-151,34,-82,122,-15,137,85,-81,-66,27,-87,106,67,96,-40,-80,-80,-102,4,133,199,87,-154,-148,-40,3,63,177,22,-85,74,-96,-222,82,58,-57,3,109,-37,-11,-50,172,209,-50,-86,-80,-222,-41,-165,81,14,15,136,130,63,-18,37,17,92,-5,-145,-211,-136,-175,-156,87,199,100,-41,-136,-63,1,-151,132,-7,-6,-28,19,-37,-31,55,165,134,-110,-83,-143,-51,199,-10,-101,-67,52,-100,112,-52,15,42,132,64,-64,-14,84,27,198,13,-56,-123,-138,115,-36,70,40,-62,2,-187,60,-115,-31,-30,33,-89,-113,-73,-35,41,-53,74,-31,15,66,20,82,29,143,103,16,38,84,-83,18,-30,69,45,-7,-58,-69,-51,29,103},
	{-68,-87,-215,-147,-135,144,137,18,-101,74,-218,-5,-12,215,91,-56,-173,61,-121,-88,107,89,-41,-42,17,100,83,86,55,159,81,-126,-6,4,-92,100,46,13,-81,41,-142,-188,-83,-53,154,193,-51,-123,-132,-39,-182,3,6,89,46,132,-6,-77,-129,-88,-68,113,221,9,58,79,44,-126,-78,147,176,1,-28,-34,-83,-97,-51,134,-13,-2,86,-56,-111,66,104,77,-56,38,115,-17,97,-117,-8,-5,22,-123,0,164,-118,-161,55,-28,-96,25,158,19,-166,-86,-8,-22,-88,131,-17,-135,-30,-163,79,-11,115,84,126,170,16,-196,-24,-65,17,128,104,-77,59,-78,-157,27,72,42,83,-63,-116,-147,-151,132,40,46,-85,146,-3,-88,-129,-96,114,81,-28,-11,77,24,-93,81,82,-127,76,-110,52,31,34,52,78,-14,22,86,-40,40,150,145,-24,-20,-147,-117,-3,146,-58,164,-8,-113,22,90,76,59,167,-34,2,27,129,111,85,18,-16,34,-11,-52,-50,-49,-104,-168,-59,54,41,-163,-13,-90,-2,224,42,-121,-14,21,-28,-187,-52,121,-162,-132,51,144,-58,58,77,16,-129,5,-12,39,-138,-84,111,26,-70,-17,65,47},
	{95,-8,86,189,-36,-41,-168,-156,-77,-77,71,207,53,142,-13,60,-104,-36,-193,-128,27,-27,-41,192,208,175,44,148,-117,23,21,-179,-169,-64,203,113,9,20,16,-173,-38,-114,47,53,65,250,163,1,-91,-75,-5,-83,-107,-94,22,-19,-41,-61,29,-76,-18,-21,-4,-173,68,-78,0,134,92,-47,-88,109,161,-72,-72,-92,-96,94,72,-39,58,-217,3,-70,195,153,53,64,4,90,-142,-170,-68,-5,-53,98,-78,151,199,-79,-77,59,61,-100,111,148,7,180,189,76,-83,-179,29,-161,-128,-44,40,13,114,-19,29,-90,-39,30,-125,-117,-114,-110,-6,78,192,78,175,129,-100,-30,-149,-10,-67,75,87,-5,-131,-4,120,-40,-98,-122,13,-62,-20,-29,77,31,-17,-39,40,92,-21,-141,-206,-205,81,174,163,184,29,-113,-97,-224,-238,-189,75,237,97,220,110,-33,-73,-145,-164,13,43,170,42,258,186,-38,-33,-17,-187,-105,22,27,205,70,158,10,95,14,-28,-125,-92,52,22,88,-4,188,139,-77,-52,-112,-203,-230,-115,-72,-13,140,79,74,92,-53,73,36,-115,-39,-105,53,-54,-35,10,-38,-58,41,-77,-79,30,-98,96,104},
	{-93,12,112,-89,-96,53,-70,-51,-76,47,91,-102,44,-92,106,29,-54,-78,91,-44,-62,-64,46,4,27,-63,-66,-77,110,-74,17,23,116,75,89,-8,114,-38,34,50,46,-42,-10,-62,-42,-23,-22,-43,52,-132,75,-10,-101,95,102,-49,64,121,33,85,34,41,-7,-15,-58,-63,-16,-100,92,31,40,-104,134,6,-45,-78,131,84,48,22,88,98,116,73,-32,111,46,163,-77,-9,-66,98,157,128,1,138,-61,132,-25,2,-8,-25,152,14,-82,131,-58,100,-33,2,79,68,-62,10,131,94,35,59,131,174,119,-48,58,145,-32,-24,169,31,114,118,-45,75,120,-50,134,91,80,88,148,-4,-39,110,125,123,101,82,128,-17,108,50,66,-53,83,33,101,0,-47,128,102,63,119,47,-16,-73,86,44,-23,-22,58,-85,-12,-65,-142,97,-63,76,129,11,-119,110,16,-49,35,35,90,-55,81,-26,-81,-29,-12,127,-36,-119,-24,-72,34,49,99,82,147,35,-50,72,-37,-79,-114,-67,-17,88,9,110,28,101,-29,124,53,-107,53,27,-112,48,31,51,-123,83,63,86,-53,-114,37,112,21,4,-25,-91,48,-39,65,-103},
	{-65,-146,-71,-112,-178,-188,-93,-75,-45,-116,-6,37,-153,-30,-124,-105,-93,-228,-193,-109,-16,-112,-189,-45,-174,-158,-109,-186,-178,-61,-54,-219,46,-128,-114,-51,-182,-105,-177,-117,12,-132,-7,-45,-127,-79,-87,-141,-87,-82,-126,75,-4,-12,8,24,23,-90,-206,-58,-47,-106,-82,-46,-139,18,-125,-83,15,-100,-171,-18,-55,-9,-39,-6,19,17,-97,-42,-69,54,3,-63,-50,2,-4,-54,47,-11,2,20,25,-66,145,-48,72,-140,-105,-90,-109,114,120,-33,18,-58,53,134,-146,79,-113,-95,64,-108,-62,-31,80,-47,-91,-32,-2,-85,35,92,2,-187,-14,51,102,-20,-59,81,99,0,-115,115,-25,36,-116,-146,-71,9,-100,131,-110,-120,80,-130,-88,9,-77,1,40,79,-149,76,53,89,-44,-77,97,177,184,10,-8,0,-33,-39,54,227,39,207,237,219,120,-22,22,143,131,93,-4,147,-32,52,108,80,-2,41,67,119,0,-12,112,41,30,124,102,10,-43,71,158,-2,38,4,72,61,92,2,119,48,3,64,254,215,14,114,185,7,55,11,-48,45,160,193,126,212,171,96,-25,171,108,-2,-20,-51,27,11,26,138,91,12},
	{18,-153,-106,37,155,-33,16,-59,-18,-6,-33,-21,108,0,24,-29,-140,-89,40,10,5,31,-76,-92,-86,-42,20,80,64,-36,34,-105,35,-23,124,73,187,13,150,17,92,-31,-77,42,-19,-25,2,-115,-62,128,187,188,99,43,2,-1,-132,-52,-10,98,-38,-138,67,-102,33,71,109,97,-115,-86,-190,-29,-89,-36,-60,-82,75,-29,-47,-56,-122,16,-32,87,-33,102,63,10,-39,-84,96,59,139,116,34,77,52,-77,53,-37,-31,123,119,94,-102,42,-59,-44,-96,-129,47,9,18,-120,149,79,96,-72,-98,-22,28,-43,-125,-88,-23,98,-57,-83,-132,103,84,-67,25,-168,66,-167,-102,66,1,59,143,145,154,39,-148,46,31,-124,-113,7,56,60,23,-116,-62,103,-17,-59,-89,-168,59,-134,93,-151,-120,113,0,52,-96,85,-97,-98,43,15,-65,27,43,-38,44,13,46,-111,84,-72,-16,76,-91,-98,-131,-156,-134,11,69,79,-16,18,34,-138,38,4,-22,-144,-97,81,184,148,66,275,139,112,-92,-17,-137,23,-22,32,34,-105,72,84,11,-100,34,29,46,-63,-178,-20,-136,3,78,12,91,240,216,153,-29,10,80,-62},
	{72,-119,-58,-258,-106,-56,-88,112,63,186,136,54,-30,-96,-107,-192,-94,113,32,163,158,47,-21,62,-73,-122,-190,-70,-10,22,-55,24,97,-36,-35,-71,-63,-100,48,82,93,186,213,201,55,-180,-205,-56,-173,-185,-118,90,123,72,147,56,126,107,14,119,-8,48,19,114,-67,71,-13,-19,7,-103,-135,-164,-198,78,83,154,-59,16,-67,28,-3,179,-43,6,-99,62,20,-123,-35,2,-44,-21,65,-54,-56,81,39,9,-31,76,0,112,165,156,-61,-78,3,48,-58,-142,-43,-71,80,40,62,-72,133,-20,-90,-82,7,63,142,20,-51,50,-127,-74,9,-97,139,-120,67,-123,5,36,122,12,77,59,44,0,-30,112,16,143,-26,-119,-145,-101,62,135,-52,-131,-136,-31,-45,-39,126,-115,101,-38,-137,-275,-138,-156,-5,160,260,136,112,109,-20,5,-163,-194,-171,3,-86,122,-44,215,166,-152,-281,-139,-264,36,242,243,216,94,121,63,-214,-200,11,-53,-234,-36,27,236,25,147,-20,2,14,-141,-54,-24,174,215,117,5,51,35,42,-134,-151,-40,21,-12,-156,-15,26,108,174,-31,79,-57,9,-5,128,33,-67,-114,-141,-45,98,-144},
	{-96,-20,91,-73,153,86,-115,-7,-5,-57,-122,82,119,-113,-40,-7,98,103,155,2,-7,13,-170,109,24,74,19,9,-48,13,-80,80,57,-52,47,159,-109,132,77,-99,59,-114,-148,56,-55,65,-86,-36,-84,-14,-61,107,-55,38,-92,-83,-122,116,21,8,162,-19,8,-160,-159,-14,55,133,-70,-81,146,-66,0,-172,43,50,33,29,79,-10,46,67,-30,17,30,24,68,124,45,-122,0,-1,-78,-42,-42,110,-94,-115,25,-72,-58,-19,85,-27,-62,39,-119,-126,-75,109,87,-128,-24,-136,58,8,94,50,-131,99,-83,107,59,185,-75,-67,-106,59,90,-99,9,-2,40,49,5,-68,34,29,53,-54,120,-91,109,-40,-13,-105,-2,75,6,104,-111,107,-23,-54,65,20,-63,-114,33,74,-20,-56,-9,27,54,108,-138,-67,4,-86,-105,54,91,57,-140,72,83,-99,11,38,61,89,-116,74,-12,5,50,-69,0,-134,-97,8,17,65,-55,65,-27,-22,-35,118,28,-72,-60,-106,56,77,50,109,-48,92,-50,-96,22,121,102,-2,138,-99,-61,108,-135,-4,77,-44,104,63,12,-102,98,64,124,5,20,-148,-76,40,-7,7,-5,-82},
	{101,143,-34,5,-109,-134,51,3,-55,-15,165,77,-61,26,-73,45,-68,-8,-185,-81,104,-85,-41,152,154,33,-100,-26,-145,32,-68,132,-75,-28,-4,129,-56,108,-88,-12,-164,-195,95,-19,15,1,69,-36,-42,18,-4,-120,-102,-19,92,99,-26,46,106,-160,-98,32,-103,-5,-15,13,8,73,8,56,107,8,-5,75,31,-20,-83,-33,133,-90,-70,64,46,57,-30,-64,120,13,-8,49,-147,-123,16,35,-73,77,100,69,94,-122,-93,-54,24,-66,22,118,102,82,28,98,-57,-116,54,26,118,104,-25,182,114,-90,-95,-177,-6,-129,-105,-63,-65,59,47,-41,-53,-67,-51,79,23,40,28,-89,148,71,-94,-135,26,31,-122,25,-107,-64,7,27,88,-104,71,-23,6,-5,34,93,106,32,-147,173,65,101,-79,71,-15,43,-17,-105,9,7,141,194,38,41,104,-22,-230,-78,58,53,12,259,94,169,-121,-152,-116,-29,-173,-30,-47,14,107,-38,94,-25,-84,-253,-211,52,28,71,110,109,138,85,-104,-260,-168,-154,-96,121,92,101,150,-7,-74,-29,-131,-94,-185,-24,166,147,147,-11,44,-69,-168,-239,-30,-79,-129,26,96,-11,178,28},
	{155,29,-4,19,-74,92,115,-73,95,104,0,-52,-31,-98,132,71,64,-25,155,169,164,168,-115,-70,97,71,177,-79,-96,74,37,53,67,104,53,91,-72,82,60,138,-37,0,183,22,122,16,-60,-87,29,-42,58,-109,26,92,13,13,26,153,97,153,-30,-148,-103,88,-87,171,59,-74,30,-29,7,-130,-70,-88,13,38,79,122,-42,3,-106,-51,-32,50,-28,50,-138,-84,77,-98,9,16,40,-84,67,-1,-9,-18,-86,62,-28,-48,32,105,-62,-15,-133,53,-9,-118,-85,-21,-165,-125,-53,33,-62,-38,-8,-140,24,-53,112,-6,-139,53,6,-103,-3,-54,-118,-122,80,123,-32,-60,27,-135,-41,-25,-127,-140,55,115,88,-26,-139,-121,89,105,-114,-151,-59,-144,-91,16,-91,20,-91,-64,-105,6,-34,13,-125,38,1,24,-1,-154,56,98,24,-36,-29,-93,74,18,-69,-11,116,76,-42,26,74,72,-99,-94,-108,-12,-45,42,27,-2,66,-72,56,-110,5,16,5,71,-119,-57,-105,-125,38,28,-85,-154,-44,-27,-33,83,-1,110,143,-193,-56,-76,-53,-70,-50,49,-7,-97,-8,47,5,-156,-59,53,-37,105,94,37,-4,46,13,-130},
	{104,-122,-69,53,-10,55,-36,-34,-75,62,130,-111,50,-17,35,118,85,-108,126,-102,-149,33,15,-49,22,-3,-90,109,-82,-56,160,56,84,-9,-60,-27,21,-86,-37,68,77,-133,35,-128,113,127,115,90,-73,89,110,-143,-80,-144,-51,-62,62,93,119,45,-131,34,-132,106,125,170,0,118,-45,-118,-1,103,86,39,116,-165,-109,-145,145,151,-86,93,49,58,14,-1,-75,29,124,-110,146,156,-69,-1,-59,58,-111,-29,-25,-76,45,-58,94,7,-65,-84,-19,-51,20,141,0,-41,-122,29,41,-147,-83,185,171,-54,-124,-93,1,117,61,-86,102,47,9,66,-53,84,114,-76,-91,-97,77,-6,49,112,59,-148,-85,-36,-49,168,144,-57,-114,-170,-118,-2,31,26,97,16,-138,-116,-67,25,-68,89,-101,-80,-7,70,-91,-10,35,40,-73,199,48,112,-40,121,-41,-126,-84,72,-38,22,-93,52,-39,-27,-20,105,78,51,120,28,-155,-36,42,84,-42,180,111,-52,82,75,-128,89,-66,36,90,44,-38,-7,-29,16,-66,4,136,-77,181,-73,-122,117,26,61,49,-93,102,102,120,-35,-25,-17,161,85,-103,0,192,54,-2,73,30,-55},
