// #include "ap_axi_sdata.h" // ap_axis can also be used, but it will include all sideband signals which we don't need
#include "hls_stream.h"
#include "ap_int.h"
#include "hls_math.h"

#define INPUT_SIZE 192
#define HIDDEN1_SIZE 192
#define HIDDEN2_SIZE 96
#define HIDDEN3_SIZE 48
#define HIDDEN4_SIZE 24
#define OUTPUT_SIZE 4
#define QUANT_FACTOR 1

struct AXIS_wLAST{
	float data;
	bool last;
};

float relu(float x) {
	if (x >= 0) {
		return x;
	}
	return 0;
}

float dot_product(float a[], float b[], int n) {
	float sum = 0;
	for (int l = 0; l < n; l++) {
		sum += a[l] * b[l] / QUANT_FACTOR;
	}
	return sum;
}

void MLP2(hls::stream<AXIS_wLAST>& S_AXIS, hls::stream<AXIS_wLAST>& M_AXIS){
#pragma HLS INTERFACE ap_ctrl_none port=return
#pragma HLS INTERFACE axis port=S_AXIS
#pragma HLS INTERFACE axis port=M_AXIS

	float inputs[INPUT_SIZE] = {};

	int i = 0;
	int j = 0;
	AXIS_wLAST read_input = {};
	AXIS_wLAST write_output = {};
	
	float layer_one_bias[HIDDEN1_SIZE] = {13,-10,-5,9,8,-7,-3,10,-2,-7,4,-3,-12,-6,-9,-9,4,-4,12,-12,1,7,-11,-3,-10,10,10,-9,-4,1,-4,6,-9,12,-13,-5,8,-7,9,-2,13,13,-7,-4,-12,0,1,-10,11,7,2,5,-11,-13,2,-11,-13,-9,-10,9,-10,-11,8,10,-8,-12,12,-4,1,10,-12,4,-8,3,-8,-13,11,-12,-11,9,-7,1,-11,11,-7,-4,9,-6,13,13,-12,10,4,-5,-9,-6,-10,-12,-11,12,-3,1,12,11,-9,7,13,-12,13,10,7,11,-10,-11,-10,2,-9,-6,5,-10,-4,-7,-1,-8,-8,-9,8,0};
	float layer_one_weight[HIDDEN1_SIZE][INPUT_SIZE] = {{-72,-62,192,-90,-108,49,35,-23,178,220,51,158,97,-233,221,260,98,-14,69,-229,173,236,-5,-88,-97,-111,199,-127,-190,22,-173,-128,71,58,-54,199,86,56,141,188,48,87,236,-209,-177,149,-167,-51,-8,113,-216,80,-244,-211,130,-187,132,-132,-4,-198,97,-115,109,201,-256,-24,84,162,-59,158,121,-123,-241,-223,-213,72,89,231,154,-134,-167,-210,-61,-167,144,-110,190,142,-137,-186,-177,152,-22,-80,-205,-12,-163,-72,-75,-150,-6,-130,-115,-206,240,154,39,-181,217,-13,116,257,179,54,-205,155,-236,-135,-17,138,-253,172,212,-56,-25,-86,-198,-202,186,-63,-23,210,-157,56,-78,42,97,48,-11,-124,-121,143,-28,-19,241,140,-31,-52,89,-141,97,-241,-135,-147,40,237,-73,60,184,103,43,-99,-5,-37,131,-143,211,-201,15,-223,-243,-16,-74,92,-210,13,107,-82,190,81,1,-23,15,21,210,-166,-32,-66,257,111,179,-170,-96,64,-70,231,39,-138,-20,89,-234,-5,87,-213,-220,172,-180,40,182,-1,235,-81,51,79,-204,-46,-172,50,-202,-182,-55,105,-151,255,74,-123,62,137,195,27,263,167,130,6,-70,-133,226,111,-132,-32,116,165,-77,231,-194,-189,8,208,138,122,109,207,-235,-162,137,-184,255,260,262,171,3,22,-101,246,124,125,-23,171,205,-73,-164,-192,229,129,89,220},
			{56,156,70,-204,-205,-155,-125,68,220,-166,-97,76,-209,-147,197,-169,-179,203,-233,-3,-32,-157,-7,76,-102,-200,151,-128,203,24,-99,-8,-35,-43,-57,-11,195,-181,126,-157,-189,249,-203,-48,235,-189,-2,177,10,-186,-222,-13,-51,-223,-105,-123,-15,148,55,-140,-69,-207,23,-173,-5,-107,-158,144,58,-154,-187,87,217,1,146,202,-13,95,-59,168,-9,-82,247,111,197,0,59,233,11,56,185,-230,-8,171,70,54,239,-32,236,103,209,48,225,98,168,234,-40,34,-202,91,-109,78,248,16,107,105,84,53,148,146,101,-164,259,-219,86,18,48,-32,140,51,48,170,-109,-36,-245,169,178,78,108,196,59,170,88,-52,-4,115,-16,141,121,97,242,-8,-147,10,-122,9,209,0,198,172,-168,-200,-25,19,-27,113,102,76,145,-68,104,112,106,-240,-51,-179,194,37,-194,-246,165,-43,-239,-77,216,223,43,80,66,-110,-67,-112,41,-211,155,137,-180,171,-51,217,228,-210,-92,103,-179,-74,30,-90,190,26,75,-244,-199,-228,203,-8,39,-61,238,100,-6,82,101,116,135,-33,200,-62,111,199,-91,120,-156,-114,63,58,-86,-247,128,-48,-8,-249,129,-58,-93,52,83,-35,54,12,141,203,-103,99,167,-176,-100,-159,-204,46,-190,42,-17,-58,53,62,-72,68,154,-91,19,12,108,136,-67,-234},
			{0,-47,9,153,211,85,-207,98,188,-235,172,-17,-92,236,93,-177,-149,-164,-204,-59,8,-108,-231,-11,-184,-240,194,-203,-62,-88,148,-146,-215,96,-40,46,5,-58,-42,-61,-230,-97,-146,-39,-187,203,-175,196,-19,-78,-45,-62,132,173,233,247,56,-223,-41,247,0,134,178,-207,203,-208,-216,210,152,-229,208,-104,203,35,-68,217,102,39,233,-146,-65,-170,209,199,164,-222,-197,131,-38,-244,189,238,-45,-27,-17,216,-211,-90,-137,-136,-42,-74,-80,206,121,135,-67,-58,167,-48,185,202,28,208,226,-22,204,-238,-146,-102,206,-230,54,144,-21,-173,-212,145,-100,-163,-66,81,141,-18,-23,-72,166,-171,49,133,-11,-166,45,-105,159,107,-8,-212,41,230,51,2,-178,-228,199,-136,21,150,-193,-140,77,-62,-188,-59,107,-52,235,168,120,4,-69,-219,185,-185,87,100,131,-94,46,233,-167,-157,-74,140,108,68,-179,-128,-198,135,-133,-127,-84,-158,-182,89,-86,231,-45,-233,-242,105,58,205,-119,-174,-8,-118,79,-92,-123,179,-256,-77,-32,-135,-215,-44,86,-179,236,-12,66,171,170,153,199,128,-69,-91,-141,-221,70,87,-164,19,143,85,-93,102,-193,-6,68,-230,109,162,14,-159,247,-104,-208,-187,-62,-6,-30,154,-184,-212,-64,237,-64,224,-191,184,218,91,-104,89,-173,-117,-195,51,-187,-3,166,191},
			{161,-184,209,11,-175,178,-73,43,199,-12,185,234,70,-172,-124,34,83,-224,47,122,-7,-52,125,-23,193,-59,-166,160,-228,-93,81,-75,52,-80,-35,93,-79,168,-97,-195,22,201,107,100,-86,-241,-80,-96,-151,-227,-17,-97,154,-146,160,-184,32,-124,94,-199,147,-206,24,22,194,-149,-37,-191,228,-37,-107,2,-104,-103,9,129,124,76,-54,-157,-19,-249,-241,-77,-186,170,-140,-195,-211,-5,147,96,-6,-173,-105,23,-103,241,-29,-94,114,-6,12,192,0,-40,-135,210,-158,-194,-146,167,112,74,-93,-144,32,150,-62,-192,84,-219,-141,-183,-223,-222,56,231,0,-103,98,-137,-108,-143,236,-167,-230,186,74,-34,-41,16,-180,-186,76,167,-113,145,-106,220,21,103,-178,-51,87,-237,-92,-23,-77,-87,13,233,83,239,233,186,-218,5,229,-174,-142,184,-123,67,-18,115,2,26,167,-49,59,-95,-124,150,-22,61,-34,89,-222,-138,-193,-154,89,255,-126,-35,4,162,-107,131,226,51,76,-142,117,62,-143,-112,-120,64,137,-110,-213,36,197,123,-45,-141,206,-135,-196,-186,154,-67,153,-140,38,211,93,-82,-111,229,189,-135,-206,-62,-204,60,212,-94,221,-229,-104,-236,53,167,110,-164,-112,-62,164,-106,-226,-68,132,-202,111,-183,183,9,89,213,-74,78,-180,182,122,-12,-88,10,137,5,251,55,70,-46},
			{221,156,37,131,66,79,-27,103,224,-198,92,-101,-229,-100,-19,-238,140,115,-218,-150,-27,155,-59,-162,92,130,203,-2,189,-29,243,71,213,-132,-253,218,87,-174,-76,-15,-212,129,66,219,232,-36,-207,-121,-247,142,63,-6,86,221,-186,88,79,117,210,234,203,-71,-200,100,49,-114,-168,-152,-96,-151,180,93,158,-61,-69,230,69,107,192,209,106,127,-221,126,-160,164,75,146,-115,33,-60,132,-46,185,-98,-208,60,-30,137,-171,-120,158,48,180,75,-77,-146,-231,146,57,89,230,216,28,66,-135,-70,194,187,-15,-164,-49,-4,206,165,-18,-146,124,-151,-36,-91,-227,-49,116,33,-156,96,-21,-211,205,-145,-107,-194,-193,-69,-181,14,-98,104,-191,-91,-227,208,-109,-116,229,-95,252,26,-155,181,62,-129,81,38,-229,-110,147,-17,207,-9,-112,116,81,-4,224,32,153,71,-135,73,128,-106,-86,-118,252,14,-220,86,152,-137,-106,22,-47,-211,225,-189,128,84,-173,-146,-104,88,4,-91,219,86,-122,-50,6,-177,104,154,-235,-173,109,-212,176,-108,95,-30,64,-20,-222,-105,80,99,-77,-167,-220,110,-8,119,52,-128,15,-191,-183,-19,-238,146,139,-175,-136,57,171,42,-132,236,-251,-218,107,161,-211,87,118,100,-257,125,43,121,-192,30,240,-154,-69,-206,107,-98,167,-64,80,200,190,-243,-86},
			{147,222,79,100,-21,145,98,1,-219,195,9,-240,-150,-184,-232,-23,-120,-1,97,-97,151,-84,141,68,-182,-252,-164,83,25,-81,-177,178,-31,-222,120,7,49,73,152,-69,214,-185,159,214,-15,245,-121,-86,69,108,74,233,187,28,165,30,194,-19,-126,1,-36,-236,130,46,-113,43,196,-200,20,237,-23,-222,-79,-83,-184,179,62,-66,217,199,-26,-94,-12,229,-100,51,108,-238,-52,218,-112,-159,3,101,104,-145,-159,137,-49,33,-65,12,151,95,43,-14,-59,-3,160,-220,-63,-83,223,57,-53,-237,-100,-218,-213,-241,97,-195,88,73,109,191,-98,26,183,226,-195,-27,-94,-5,215,-121,97,-248,-145,-184,71,157,-142,153,-179,-191,183,-117,216,-218,3,8,246,-161,-153,12,-90,-94,85,110,129,91,200,-127,-34,74,108,-115,-165,180,-43,61,-61,138,238,-166,53,-39,-69,-60,192,100,133,42,31,207,162,34,103,-136,39,54,-60,-79,224,104,-47,-177,132,-189,124,-110,176,-193,-9,-235,136,159,197,65,74,91,-16,50,219,209,-227,70,-116,-146,164,9,226,-202,46,77,-115,-117,-201,54,114,-194,58,-238,-233,-45,97,25,113,-163,-70,205,-222,47,-57,-68,79,-211,165,-173,108,-81,156,0,-195,217,-242,195,-82,50,-202,220,-102,179,-41,203,-21,-15,72,192,103,61,-182,182,-86,26},
			{164,228,-50,-100,-210,86,-4,-147,215,84,-103,-163,-171,-34,-14,44,110,123,70,189,246,233,-9,-95,128,244,126,-42,124,6,-137,173,-218,-58,127,108,-136,-159,-2,-108,77,208,12,32,-123,181,-133,-19,-229,187,36,121,41,-166,140,30,203,-176,-182,52,123,122,179,241,61,-28,-171,174,-212,43,139,53,-122,250,10,188,-123,221,-240,100,145,-219,-81,-64,134,218,231,204,153,240,-28,-27,-115,-173,-208,52,212,-30,257,158,-154,200,5,-79,203,-135,60,-119,-100,94,119,-54,80,185,3,-193,-2,-200,-50,91,-65,185,76,168,-221,5,-30,134,156,245,75,178,30,6,-238,232,115,-55,112,77,-76,-150,104,83,44,-119,-163,41,-5,139,244,-145,107,-170,76,-49,-12,260,-190,-149,-59,-103,-173,87,153,221,-197,212,-16,-205,-80,72,72,182,-111,133,-213,96,153,75,236,-81,-227,66,-207,-205,-55,181,45,119,-25,-88,-211,244,214,0,34,-171,-32,66,13,-88,200,-130,-60,61,-221,40,142,22,41,-134,-27,-215,53,22,202,-170,139,-47,-94,-72,-1,201,-172,5,134,-211,68,10,92,-108,190,11,-187,-18,-134,-68,166,-124,184,118,-138,-105,-180,0,-218,-21,185,158,-203,-226,-35,-188,66,-35,-56,156,-21,228,-128,199,-44,-230,192,-234,-198,101,-202,6,46,-218,-119,164,-84,-118},
			{11,-160,-122,96,-171,127,32,24,-214,154,178,21,-158,150,169,200,-54,50,-77,-86,-135,189,22,90,-96,17,238,187,199,218,137,30,121,-95,-101,-172,108,-58,56,167,209,-183,-57,226,-140,97,236,123,20,116,163,-99,185,191,190,-150,88,229,-179,-57,-73,-187,-200,227,-209,154,-141,-192,-39,-109,-47,86,-122,121,136,193,153,-180,-167,-227,-91,35,-92,-58,85,190,43,24,-58,95,113,92,205,-98,-62,160,-20,-117,222,130,227,-211,-198,-44,-47,-127,160,-55,-74,232,-214,-87,-90,-150,-234,109,142,119,230,-17,-102,-129,108,-100,131,40,243,114,43,122,-169,-227,-201,211,-262,186,109,-222,-165,213,-231,-28,-69,-136,211,193,209,197,-113,182,-220,165,-69,199,232,-143,213,176,-60,-27,181,-43,3,-54,151,214,-30,-178,108,150,126,-135,-65,91,72,27,64,-190,180,-174,-96,139,-213,87,67,-44,239,31,228,72,-217,163,146,-22,75,-23,62,-8,35,107,-147,141,-193,-209,-185,-233,118,-192,36,186,219,84,121,-15,-71,-118,-201,6,79,-127,156,-47,149,-38,55,73,6,-58,111,20,233,-120,18,-144,-192,132,188,-176,8,120,238,-47,-53,-96,-51,-245,-195,-65,-43,70,156,34,-248,-60,-16,221,-200,-94,-224,-45,48,165,-257,-19,-2,152,-34,-194,195,-56,-96,184,192,157,108,196},
			{131,15,-169,64,-23,-163,209,-139,132,45,114,-253,-36,206,-21,116,-160,95,96,-166,80,-213,-189,10,-130,138,-41,-237,-247,239,-143,-20,24,-112,10,189,146,-82,-38,-127,19,-109,-86,-84,-187,-75,-142,221,156,76,130,78,-209,-210,250,-164,101,28,205,-74,-128,121,-137,119,-152,-197,-58,-72,-106,29,85,-81,208,197,-52,195,-197,-53,148,177,-171,-219,-211,-59,190,-152,68,-143,33,-135,-209,73,188,-98,-215,-202,-101,163,-3,-136,227,13,107,-214,-62,214,-129,-43,29,16,149,178,60,-169,-162,86,167,-175,145,94,-19,4,-74,-8,235,-187,-227,98,2,89,-225,20,-190,-237,-217,99,-192,118,48,9,37,178,66,-231,-123,73,-95,6,-166,-104,-152,-84,48,-14,147,77,-151,35,-41,-220,236,-219,185,-65,30,91,100,148,-217,-27,39,108,128,220,-47,-103,74,217,17,-103,-194,181,-210,-56,-149,-84,161,55,216,0,216,-195,-158,-129,-174,175,121,-177,36,-33,244,-48,16,39,211,50,-120,-83,-186,182,28,13,196,165,-203,-37,200,-72,-163,161,-1,109,76,181,-99,180,160,-4,212,181,160,241,210,-41,152,-128,-130,-214,-26,211,-137,-145,-235,-115,231,162,-150,39,-111,187,141,-131,99,-80,-49,-153,196,-130,-80,-146,39,-206,219,188,-79,-115,186,142,209,17,123,-65,89,-80,233,-185},
			{41,246,-85,-241,150,-152,-152,-190,-186,-41,212,167,-16,-108,-154,-191,129,-67,-29,-138,203,-55,67,-170,-167,38,-178,-62,-19,-236,181,137,-198,152,120,-34,222,-83,-29,-221,-207,-157,103,-212,-85,141,109,164,173,161,-27,-66,255,139,96,64,133,51,141,186,193,92,50,-179,235,-61,-237,-98,230,52,212,-219,-56,-47,130,181,86,143,-135,-60,-199,12,-26,-29,-188,235,-25,-203,-36,175,-30,-187,-64,244,133,-171,42,-235,36,-1,101,-26,129,184,-7,52,104,90,-83,-135,165,-110,-69,-167,-102,-240,-130,-126,132,-58,-117,-150,-7,-14,-215,89,210,-23,130,-173,-116,-226,-187,126,-172,226,67,-194,-181,-242,-174,-125,-18,44,109,-173,68,5,83,-217,-1,38,67,-48,-69,-106,-161,-213,-21,78,7,-180,-120,71,-202,-156,-143,177,90,-90,-8,75,-28,239,173,116,-180,125,-188,233,-100,86,-69,-131,-57,-214,193,-213,-41,211,-111,174,-178,12,159,-66,195,209,-47,110,81,-201,-246,91,-89,-116,-21,-218,211,-121,-96,106,-239,93,35,211,174,139,-114,78,-44,91,0,-127,-227,-1,-42,127,-38,-218,-141,109,-216,-138,-18,-219,89,67,-120,-43,238,81,88,-158,-58,-167,83,-26,-131,-75,-26,69,-161,47,-65,-89,-40,223,207,107,197,-154,-198,-84,39,-85,182,-197,73,-65,-148,40,-169,-26,178,-85},
			{-132,70,37,92,109,220,209,198,-144,153,-7,67,-97,221,84,26,-92,-129,-75,220,208,-26,210,177,-62,60,254,203,-2,250,-28,-128,2,236,-150,-223,202,-244,-151,-20,22,187,-184,95,11,-129,144,-229,181,-6,-104,-32,41,204,74,60,-71,29,145,-203,-135,-161,168,-65,23,-198,-26,208,-210,-225,109,84,-203,-31,74,-180,51,194,128,-133,156,182,162,-74,105,-52,82,124,-187,116,20,-92,136,-42,-76,147,-89,112,12,55,-111,-120,-1,129,75,90,-190,-80,-125,167,-168,-252,9,-53,42,54,30,-105,81,50,-137,85,153,16,45,14,-38,-113,-121,-58,190,-48,79,196,194,165,-117,47,-52,102,-6,-168,-204,-135,-132,46,48,-186,-85,90,63,49,172,177,83,132,-193,-56,148,-100,149,-147,-197,-126,-18,-195,218,60,23,-34,70,-94,235,-177,124,168,-216,-190,-167,91,-167,-144,57,214,113,-117,-48,200,-206,197,-121,-145,168,-143,-193,149,-161,-235,-65,228,-52,169,242,-4,-4,0,215,-61,80,-87,219,0,119,42,-91,60,-76,-51,48,226,-213,-208,-17,107,198,-80,72,143,101,248,140,-228,144,170,216,-63,-188,-68,-22,56,-37,-195,244,3,-98,-89,-73,77,-200,-71,3,134,-206,-49,28,-63,-41,-123,185,189,27,137,-6,-88,9,108,-206,227,-216,-232,-241,68,237,-171,75,-135},
			{193,-82,81,90,170,26,-7,218,-198,-31,-9,-179,-52,107,71,-21,66,6,107,41,199,-165,114,-74,-220,-187,-171,-25,216,-40,-202,114,23,-225,-122,-84,-11,13,-179,-131,-7,237,-205,85,-261,76,53,55,244,9,11,16,-215,17,230,-14,-122,201,72,-48,-1,-83,218,-138,-137,127,27,142,-141,-95,53,180,57,233,-136,101,159,-132,-245,-141,106,-107,9,55,85,233,-79,-45,-195,-219,-205,190,-224,-50,259,243,57,-165,73,-34,196,177,42,179,-260,-84,79,130,-183,-32,177,-43,-243,-256,19,-216,-64,117,-84,-16,98,183,-258,-205,91,-197,102,90,119,17,-215,-52,-199,-14,181,123,121,-29,-109,216,-178,-103,165,-51,-198,-110,187,-100,-71,72,-199,197,182,32,47,-6,38,-155,-197,196,232,253,130,-104,200,-12,244,-41,-158,-223,85,-113,150,238,-83,-191,-196,-3,-23,142,-6,-35,-165,-2,22,-31,31,155,-167,45,-166,-12,-70,139,-74,188,-92,182,190,-152,-112,196,-231,126,-161,-205,-114,162,-46,-244,209,188,-98,5,-103,-182,-231,-187,29,-203,21,-211,-87,-85,130,226,-103,77,-166,-221,205,49,-138,170,233,152,126,70,-18,239,-175,-31,-152,-1,207,63,14,-234,-78,125,170,46,-204,202,-209,-17,-83,44,235,58,127,-98,-7,-151,-139,-115,-39,107,-63,-184,168,-73,38,-183,-16,62},
			{78,69,-149,-219,-14,-130,-86,61,161,-82,117,164,-77,-202,-165,159,-50,122,166,-158,127,71,146,189,111,-216,32,-134,163,78,-145,167,72,261,-135,14,-137,21,180,101,35,199,195,-149,46,109,-172,-141,230,97,27,-59,155,-176,-74,203,53,30,67,-14,-18,-40,209,-186,224,-172,-153,47,211,-92,-72,-63,158,150,92,58,75,-97,247,-83,136,205,-170,146,-131,168,-137,-33,-158,218,167,49,-81,239,214,-27,104,-182,77,200,-198,-12,31,-183,31,25,-220,227,198,204,30,179,245,-128,-165,-89,-192,-225,-159,-6,5,-50,-225,-29,-159,23,173,-170,-238,114,105,85,206,118,-49,-171,-79,131,-5,-229,28,3,-251,-203,133,-234,165,-168,244,-195,-99,94,70,43,-192,245,117,233,216,0,-233,21,97,-145,219,123,-193,97,118,66,-168,15,-255,9,112,66,43,-79,216,73,-75,-2,240,51,-8,141,165,118,190,82,-21,199,62,172,-170,141,-54,201,160,-26,19,-147,95,98,-25,214,-191,158,75,-61,-5,127,-21,-117,48,146,163,-210,98,102,106,-208,24,-131,-142,126,-89,49,-60,-65,-169,-79,-29,-86,-103,-225,55,108,-35,80,-40,149,173,-70,182,87,4,-261,60,-87,-189,-250,194,-239,194,-189,-166,16,31,-72,-246,93,-47,-89,-226,-217,-186,-127,231,-257,48,103,174,-43,-81,-202},
			{-74,138,-103,169,-91,-217,-94,-49,50,48,-101,33,-205,-82,77,-95,36,-84,-186,-167,39,-76,-46,-48,200,-233,174,226,61,84,-1,113,172,-129,-54,-134,45,-73,-60,167,84,-55,-68,-81,-125,74,-182,-198,252,254,90,103,-71,204,-35,-164,-183,-230,207,248,-124,-159,-89,133,-77,-85,71,-102,188,131,-188,29,15,241,179,207,57,-238,-128,-35,-57,-208,-238,169,124,-63,-187,235,-28,-186,11,49,211,-150,152,242,255,-109,81,17,63,68,57,-50,-192,32,168,-163,-107,204,-63,-29,-213,-49,-86,217,-165,92,71,125,69,33,-152,71,231,122,148,20,203,-97,127,-112,-139,119,-232,124,235,-193,125,63,116,-9,224,-55,190,9,33,102,-244,237,25,-151,-88,-42,58,-67,23,-198,-134,-219,162,-24,-174,132,-185,-28,-64,256,-138,-36,-68,81,133,-67,-88,-206,-10,-30,-50,-20,-225,-104,-222,-122,-139,-13,176,171,-109,17,229,-175,170,245,39,119,-194,47,-228,100,49,234,-66,44,37,-10,174,216,-205,-154,-71,241,147,-73,197,27,35,73,68,-66,-81,76,23,-18,224,-26,0,-198,-122,-21,-104,186,70,110,-31,1,163,158,-16,106,71,230,181,-107,-42,200,165,-38,65,-19,-137,-72,-9,-103,-37,133,203,224,228,196,-125,-110,121,-190,-5,-47,-205,-4,-121,133,-22,73,-122,-71,96,80},
			{55,-45,-28,-73,193,121,-142,-71,-254,-63,-233,11,133,246,110,-220,-210,38,78,172,-116,-194,-45,-51,-178,-58,83,103,-98,-147,-115,-242,246,228,-154,127,-167,214,-201,-5,-112,222,219,-207,187,-23,-154,57,35,-205,256,121,-129,109,-160,-209,79,-171,-160,-225,97,-114,16,-83,-86,-148,56,255,238,-108,173,117,257,9,49,-162,-29,-70,149,-187,-61,-139,-45,-16,154,92,-35,116,-20,-100,32,-62,188,-42,-189,161,19,65,-1,-153,196,-193,102,-53,184,-12,-231,-183,-128,123,-237,102,-232,247,-151,224,203,55,-216,-141,-147,-169,12,56,4,-218,-135,88,158,139,-33,-68,148,-91,-62,-181,101,-175,-20,234,202,-55,215,51,-87,-245,-41,-91,-63,38,242,-137,62,-40,-239,142,-62,13,-9,86,-46,-158,-39,2,218,152,22,81,-92,42,197,-229,233,238,-136,-149,70,50,178,-230,-43,194,114,45,205,25,-98,91,234,47,-1,218,44,197,84,227,-64,-80,-51,154,-137,-240,221,-228,-165,84,1,-48,-53,9,-189,220,-222,-247,223,-185,-130,-168,130,230,-111,140,-15,-41,-20,-168,-194,238,7,-166,37,31,-192,-157,-239,-56,12,-219,82,86,-201,162,-199,-10,-109,-66,169,155,-48,106,-122,84,185,61,-104,76,-16,-40,21,247,-208,-7,222,-27,-7,79,39,-68,-40,196,-247,228,118,-189,12,6},
			{63,3,154,-143,-169,-15,138,55,-125,183,224,-96,-10,189,132,231,187,-186,-91,88,-44,151,127,37,-168,240,-4,-45,147,-190,105,-193,-167,-96,242,135,11,189,-205,229,-63,158,-73,-181,-218,120,-210,-24,134,-86,164,182,-96,-69,-185,74,70,-170,-207,70,137,76,171,56,215,-197,62,-229,99,-156,94,55,187,-143,-146,-13,-13,11,-184,3,166,4,-84,-1,166,249,-89,29,69,-208,198,155,75,-187,-217,132,20,-109,-45,-155,3,-226,-148,-48,-130,-98,-233,137,62,-74,-209,14,-43,50,162,-62,123,-147,244,-61,-124,-227,-136,128,231,-220,143,-75,-123,-18,-171,-153,-168,-176,181,33,78,56,189,-162,-168,168,-59,55,-125,156,-9,123,110,229,-168,-204,56,-62,231,-220,226,-134,-181,-3,36,-196,-125,204,11,30,218,-220,-28,-151,124,-124,84,-22,-183,-73,213,-62,102,26,126,-29,143,-210,-148,98,218,207,57,-250,-66,214,-164,138,26,-135,-155,221,-212,58,-233,-173,58,124,158,-170,-232,55,-134,-43,135,-94,111,121,-109,146,186,-214,237,92,182,-14,232,-189,-119,68,204,220,-229,-209,154,-252,69,215,9,68,15,-154,79,-249,-113,177,-256,-94,-184,219,135,-215,-106,-237,85,-180,227,54,7,-158,5,210,-5,-93,-102,-55,-165,-149,-174,-46,-47,-3,-49,-57,103,187,-137,-213,-203,-196},
			{-58,143,-45,-164,99,-188,-28,197,-176,12,-84,-72,-6,254,-221,-139,27,-225,5,170,-170,228,-214,154,-79,-143,-18,229,62,153,60,-17,65,-34,-35,25,-129,-23,115,-106,-157,-58,48,109,-104,-149,-118,-226,87,-63,-250,-67,-241,-118,-29,-215,123,-187,-114,43,-226,-86,158,-185,-92,-201,104,182,-200,61,-40,202,119,-17,-65,-193,131,162,-248,113,173,114,-235,25,-4,155,-102,-206,76,95,141,-99,-167,-164,191,-113,57,234,161,-103,-59,-102,238,-106,169,-52,-222,-74,99,-99,214,35,-196,51,229,-201,244,137,-254,-73,192,-180,111,33,93,204,-219,228,-88,-100,-48,-229,248,-4,-220,-163,-59,49,156,198,-53,-76,-128,-175,-67,-114,-110,-256,-18,1,-155,-152,180,-18,-127,32,31,-100,223,-89,-16,43,-46,17,76,-116,138,-156,177,36,-108,-181,228,-47,-229,181,-219,80,113,-132,186,221,10,228,-246,-35,-246,-176,-86,-119,-174,178,174,-33,-41,-110,-208,166,-103,131,-177,-58,124,-208,-240,-102,-257,-205,-21,-40,-35,-122,-241,-31,80,-137,-142,-181,189,-167,91,-93,54,168,-249,-195,153,105,-82,160,-224,197,157,173,23,93,124,179,21,-157,112,-140,209,-78,229,14,110,249,194,212,69,210,-18,44,30,205,-200,47,-224,-179,-239,215,-112,-38,-117,71,-153,125,230,-239,-32,-41,-127,150,0,-246},
			{-99,137,-19,-88,-207,73,-169,219,-9,-199,247,63,-183,186,-254,12,-75,-4,146,262,185,-229,171,238,-114,209,-134,-177,-47,-44,-131,174,-218,39,-96,-207,79,-127,-8,223,-103,-155,-149,-218,-69,-228,204,-85,202,224,76,-129,67,-74,-40,-177,-59,209,218,119,-34,-192,95,205,-203,0,47,-100,141,-99,145,-191,255,34,-107,10,-229,-188,-219,94,76,-207,107,24,18,-131,-208,62,-93,-13,-94,-149,37,189,98,-206,-71,223,138,163,-100,76,-5,202,63,141,53,35,-157,22,-50,33,52,-77,-231,-160,-192,211,-29,189,-8,-176,224,-220,-49,-52,72,-12,-120,82,-177,19,-24,-191,168,-246,-223,67,183,88,230,-43,-61,-227,4,40,59,192,-207,47,189,-68,220,-36,185,-234,0,190,-28,124,121,-76,-183,53,-219,167,167,157,-79,-95,-19,146,-130,-96,29,190,-10,181,99,-168,-158,-41,-165,-35,235,220,88,195,90,-226,-133,152,2,99,55,48,226,-167,-16,180,-24,-55,167,-146,-182,184,156,160,122,148,-65,-136,-38,168,228,-69,96,9,-6,186,-61,-235,-225,-53,-219,-96,-35,112,-199,173,-37,233,108,-62,-162,92,-111,-103,-130,-4,-44,101,211,148,-207,158,106,134,-99,-243,-73,-13,-38,1,-26,-153,177,6,192,-204,146,91,-78,-157,134,132,-137,-243,49,-52,-8,16,-222,215,170,164},
			{-206,-93,231,-152,107,184,13,-214,198,-225,-246,129,-183,-66,163,101,123,86,-260,10,-71,0,-160,5,-199,173,-218,-231,106,-67,-54,-117,39,34,-86,-237,-108,-198,216,-254,-110,129,165,110,190,-6,67,96,-140,-256,186,-252,-161,-150,69,-21,91,224,-246,-153,-15,131,203,5,-238,126,124,91,106,109,-143,72,190,-137,-136,85,-244,-20,97,183,197,-219,107,-139,39,126,-210,-228,-129,110,-59,-119,150,200,-60,159,-232,-14,-48,153,-148,24,-31,-140,-81,200,204,131,-257,-209,18,-175,-139,-100,176,-67,-44,196,180,-36,-195,-3,-58,-45,199,196,-176,-60,41,-124,252,-31,-11,38,86,-210,8,219,-112,-76,-73,205,-236,141,202,165,-63,56,89,-71,-220,72,91,190,-52,17,-13,-7,150,123,110,165,-188,-127,-190,-18,33,-181,-143,-111,235,-197,-44,101,-256,-77,120,214,104,27,74,145,10,-163,-141,-146,108,40,152,-35,-79,-197,250,257,-37,126,47,47,-225,140,-177,-144,-27,-46,211,158,107,128,-161,200,-231,14,145,125,-176,-50,-95,-17,-236,49,115,37,-110,34,203,250,-132,93,-236,-172,218,-30,113,7,46,-64,-154,-205,-213,70,178,-102,-112,-186,-164,29,32,23,-76,151,-70,156,110,74,-50,144,-209,26,-229,-107,-235,231,59,-210,-20,31,-228,78,43,-23,108,-218,62,-3,181,-133},
			{-174,-243,-198,74,-109,219,102,163,0,156,255,-70,158,33,-20,-33,42,181,-166,55,197,-190,-121,196,-142,-25,-166,-151,174,-201,-120,112,-64,-34,-24,-9,-23,126,-67,194,-51,-55,77,-27,-57,-80,-141,-16,256,214,-163,125,-158,-33,188,-80,-103,-154,-155,117,-96,-13,149,-17,241,-130,-216,248,7,-68,0,96,23,92,-77,237,-174,18,0,-30,-147,-255,162,-81,42,45,-206,-230,113,146,-238,-33,-32,129,-206,-59,-103,-98,-137,116,249,-31,-133,130,211,103,-32,171,-10,24,-93,109,-8,49,22,15,3,10,-90,124,-153,-184,236,-77,-53,220,-34,-8,25,-109,-75,-155,168,-143,141,-52,219,168,-210,-26,69,-233,-130,212,138,-50,45,158,-162,-59,-173,-213,44,205,12,-181,-156,143,-20,177,216,43,-204,-105,-120,-219,202,-43,-99,-122,-193,34,53,114,-154,-205,153,-224,32,-152,-62,-131,63,-78,132,50,183,-193,145,-31,-196,-216,231,-29,193,37,-91,67,-111,-258,94,-250,229,117,-25,-201,-117,191,-166,-46,-135,0,99,115,49,33,-186,-53,-84,-234,-51,-192,120,-38,-179,120,162,-193,-40,0,-166,136,-109,186,-181,-132,156,6,-56,-103,-66,-251,-183,55,-154,199,-193,-225,133,-53,-99,-191,36,171,-210,33,-175,177,-221,99,-20,-158,237,47,-225,41,-168,21,62,-23,199,-46,-198,122,83,49},
			{142,-247,60,197,196,-3,203,-42,45,-103,-8,240,135,193,10,-221,-32,222,166,165,-59,-154,212,-45,199,221,-99,78,119,202,-73,-128,125,-16,-37,200,28,-80,65,153,-52,213,15,-90,242,-137,84,-43,-43,245,96,73,-226,101,82,-232,-211,62,213,-171,-184,235,16,-185,246,-79,-37,-58,-130,24,-59,-174,-226,-96,71,-33,-118,89,6,-122,221,-52,187,-138,110,-29,155,-74,-52,119,117,140,-75,-114,58,-238,172,200,-105,-161,-235,-141,155,-17,-48,-223,0,-72,-161,64,16,-3,64,-155,-31,124,-251,-85,226,139,-184,-171,-211,146,161,190,20,3,-115,-6,137,-133,242,146,95,-215,134,-241,-33,-114,-94,-188,1,-216,-28,-176,-71,3,-186,114,-134,95,-219,-41,99,-142,214,93,248,-178,-136,-176,-119,249,77,-235,209,48,-198,-13,-85,-65,-134,26,-181,53,-174,93,-11,16,5,-175,-22,-68,66,-82,-63,251,92,-183,-231,192,215,41,219,-235,142,147,62,-123,-186,-237,173,-128,-90,-156,69,-159,6,39,-124,-235,-203,-82,83,-132,-7,-228,212,245,-227,41,205,193,113,188,184,179,-136,131,145,-129,231,-44,-65,-25,-152,-188,89,-41,-194,-234,-168,64,-177,-79,29,-38,195,197,-30,-184,80,229,-16,-159,-170,-65,64,-205,-217,-211,-99,223,-162,-163,-66,173,-12,198,-126,-195,-242,-65,123,133},
			{26,-130,-216,194,130,-131,122,213,-57,-235,121,-189,-25,221,134,-78,116,89,65,75,-154,230,-173,216,55,153,-198,-130,-72,-115,-227,134,119,36,24,81,77,-88,168,199,-67,-236,-244,-6,120,166,-112,234,152,-46,-202,-22,-243,117,35,-130,-250,-182,97,-205,-237,20,122,-137,-189,-113,179,-177,-122,133,27,210,79,130,226,-218,32,-249,-161,90,227,77,235,50,-211,-242,-170,119,-37,133,-52,103,34,-195,177,194,184,199,221,140,207,-173,-63,226,-51,205,72,-225,122,150,-10,229,-77,111,243,173,-229,228,151,-58,-169,121,184,-23,183,-104,132,36,-30,2,-191,-107,215,207,160,26,211,-97,-170,-33,-6,-50,-64,-33,-19,-203,188,81,222,149,-230,-76,136,150,132,105,-230,-100,244,97,96,242,138,185,41,56,-114,-181,171,233,-33,162,9,-213,-43,-125,-204,-178,-235,-39,-101,140,131,88,-174,-187,224,1,82,-54,-81,-136,-105,-182,-221,208,-4,-90,255,183,165,66,247,222,238,-15,-183,242,-99,-182,-80,225,-203,-164,181,141,157,-103,-24,196,-193,-109,-202,-129,22,-89,31,-180,36,223,88,-56,61,-202,8,-80,-134,194,197,84,-105,187,202,-205,125,135,100,31,-218,125,-191,-46,99,177,-6,-85,158,-212,-135,216,-228,13,145,187,27,241,-155,203,-41,-73,-137,88,-115,-53,-1,244},
			{79,-176,240,-2,-39,121,183,95,-21,-127,51,-196,-63,-39,-167,7,240,-156,61,-63,11,-46,-188,-194,172,-86,-54,198,164,229,121,56,6,106,-233,39,54,66,-221,154,-141,229,-157,134,-131,-101,7,92,21,-144,181,-203,247,-54,-153,259,80,123,-205,232,-94,175,24,136,-84,-150,253,166,82,-53,-125,3,65,186,-231,148,254,109,-130,-227,-186,-164,-112,-102,218,-4,-212,213,236,-181,-89,8,-174,194,-54,118,-220,-72,-230,-203,-167,68,-155,-207,84,202,15,181,-167,-237,-64,29,-137,1,175,-73,206,51,-10,81,56,174,-5,116,-10,169,5,-177,185,-115,-15,-141,-97,-94,-4,-199,-150,256,82,-100,-77,-131,222,-181,-175,-105,84,56,222,161,213,169,-50,163,162,-233,72,72,172,-20,-50,140,-4,0,96,-162,-222,88,-198,-156,55,151,-208,64,206,-186,166,-114,171,124,87,-160,190,-199,-50,213,-238,19,-183,210,215,-6,84,-6,-231,221,-115,175,88,-55,-197,-1,122,231,16,-182,-146,21,77,-7,234,-97,-165,-159,-84,96,15,-93,-244,162,155,32,-154,205,183,-160,226,34,-11,63,192,156,2,-102,-40,-70,72,-98,-6,126,79,29,-17,-248,144,-197,96,-97,70,-96,46,-250,124,69,210,-244,63,137,129,-83,113,-22,216,-191,171,-260,-245,-52,-115,95,-74,112,109,-248,-249,-261},
			{-224,-35,-46,-213,-216,170,65,72,-67,-247,152,97,99,-17,-75,78,-126,-44,-220,49,210,-156,59,-92,3,-119,180,-83,1,-90,-196,218,197,221,30,174,98,-225,132,78,-117,232,140,61,-182,135,-208,-24,71,112,-166,-222,72,206,-106,-200,149,91,129,233,82,127,-88,-205,193,87,239,-135,46,-6,115,228,-44,213,-7,-147,218,30,234,76,-78,-235,220,-96,208,38,-155,-115,228,227,159,-142,209,-147,-234,2,-227,33,-1,96,-190,-216,-39,24,-118,-142,-12,-208,-35,239,-109,-46,184,-165,11,53,-123,-91,-229,-129,117,-73,7,144,-48,-237,221,-223,-10,-26,193,107,-198,168,132,117,-235,-198,-84,52,-131,-211,-208,34,78,-36,210,88,216,-5,-137,44,218,-90,-91,-67,229,54,-132,-80,-84,-7,-72,92,109,5,-208,49,136,-62,56,-228,-254,-154,-78,101,73,91,-124,147,187,-126,-213,-74,-23,-211,-117,-185,32,127,144,9,-120,14,76,-218,-208,-208,-186,103,-239,211,31,-36,182,-171,-64,24,241,-246,212,-7,2,-53,230,-92,52,-235,144,51,-230,102,230,-56,22,71,84,33,68,220,-195,-152,-194,-239,152,40,70,166,-136,146,3,-146,-79,154,227,40,0,-169,-227,-178,113,37,-116,-12,48,-207,240,217,-10,25,138,-145,160,-194,125,198,-146,57,-195,-215,203,180,80,-111,190,-98},
			{163,64,-120,107,-12,57,59,-6,-79,-235,-87,-31,-141,-99,-32,-230,-68,63,-150,109,-14,105,152,-124,-32,-241,-196,184,254,-53,81,-163,258,-79,-133,93,157,95,60,-217,-183,-225,221,-80,159,194,212,202,-146,116,-147,-65,38,-232,237,198,167,88,-198,125,177,-166,-116,-51,251,152,101,194,75,-139,104,120,70,-184,-150,149,135,-178,40,255,135,75,-162,-97,-76,-61,146,146,34,177,-205,-103,38,117,-202,219,157,-35,-100,-67,-38,-10,-127,-15,204,-3,163,113,86,-132,-106,-110,-208,-93,146,131,253,23,-74,56,88,-199,126,230,-7,-13,230,92,124,143,104,-252,-155,-111,-35,-259,93,1,-159,-171,-97,-180,20,-44,217,-62,165,-151,-41,46,188,-121,222,228,-91,19,-60,7,-102,-1,-189,47,-193,47,-9,94,-91,12,237,31,-167,-175,35,228,-113,18,96,-221,176,77,-50,-221,-138,196,112,23,-146,21,-168,2,66,171,-17,-175,73,-141,-246,80,-228,-114,-36,-73,121,-80,-212,-116,-178,163,49,-247,212,-113,205,72,-61,6,195,74,85,31,29,-203,33,214,247,-155,-77,-163,43,-90,-16,8,192,128,-129,140,111,192,165,37,-44,43,26,227,217,-66,-174,88,155,-219,-55,-175,144,153,212,-179,232,122,127,199,-29,-226,-201,192,29,232,-189,64,131,-240,42,-59,50,-97,-165,-253},
			{-11,138,230,59,-232,-114,224,-212,-6,235,-123,217,228,214,108,22,21,-212,-236,-258,-153,244,238,124,204,238,128,-56,176,-103,109,7,215,66,-145,-40,-67,-55,-239,132,9,6,227,-109,231,50,-24,228,-184,219,-91,-59,-130,-112,166,183,0,56,-227,-93,197,55,-121,-177,40,57,171,231,110,-131,-236,45,-189,101,220,-10,182,-176,-53,-237,45,-130,27,103,-133,-162,15,-195,-87,110,-193,69,-209,-145,250,114,221,116,181,47,184,67,17,-8,-212,-173,89,-20,-136,222,-203,81,-53,58,149,46,-185,107,-230,-116,-152,-88,-151,-200,-227,249,7,141,-58,227,183,-105,-51,252,-53,-119,-162,134,82,-194,157,152,53,33,126,-140,224,149,71,-174,215,168,-68,82,-27,218,-114,243,-179,-193,-72,193,12,154,109,45,160,-5,-115,132,71,-115,223,-199,179,-151,106,198,-202,160,178,215,210,159,-102,-206,-157,227,-215,62,146,31,-176,91,-108,234,-71,48,-204,-91,-145,-103,14,250,-31,33,12,-18,-159,6,99,-108,183,148,-207,-105,19,255,-149,249,42,215,159,222,-49,85,110,-214,-178,234,163,-139,135,-70,89,226,-138,-99,-228,46,-166,-214,191,194,-43,104,-175,163,-14,199,-13,116,-194,232,-56,-85,39,128,221,212,-127,-163,236,52,-156,-85,100,-23,227,13,215,-223,-133,-15,-139,-6},
			{-77,-115,125,-30,21,198,-188,7,23,-113,-143,-222,-104,211,-242,65,-196,84,185,186,149,54,219,244,176,-229,110,-105,201,35,-135,205,222,-8,104,13,-76,44,-61,111,80,35,234,-55,-195,48,-113,-83,-67,216,-124,-42,-235,59,-181,-35,-209,-109,170,222,200,150,198,11,-118,-79,-123,153,193,-224,-161,8,39,-123,-31,-105,-83,-207,-168,180,-17,228,162,-89,69,-130,-5,12,-160,-74,-238,167,-220,-162,-183,120,-144,28,186,-208,-71,0,90,100,-184,180,-109,-181,105,135,112,31,99,78,32,-85,-163,204,92,156,186,-158,140,-10,209,24,-228,79,53,239,-9,-54,219,136,-194,201,-66,-237,135,153,23,-86,-84,-107,86,253,-104,11,100,135,68,-87,-195,-203,-147,-233,103,-61,175,-54,104,234,122,-100,-66,195,184,-31,-104,259,147,109,244,-156,-181,80,-202,101,-158,249,77,-144,-117,-101,-231,65,-15,-75,-229,219,117,-18,-189,198,-129,255,190,-153,-7,-90,117,-9,56,-213,-135,227,257,1,163,71,-208,232,-133,140,60,66,-39,-78,46,-90,-181,240,-48,214,94,-167,-76,250,194,144,23,-68,204,-64,-145,32,118,239,-24,169,256,-80,-62,-202,78,-12,-85,-236,57,58,84,-20,212,-161,-182,212,-54,-126,-15,188,-71,-234,-139,-180,114,194,213,148,259,98,-98,-107,-138,-184,43,-68},
			{-155,128,79,9,45,-167,-82,-152,-66,87,77,-245,-171,-140,-38,108,4,211,-210,-193,-160,-49,144,186,-30,32,194,-78,-155,77,233,-169,-234,66,-35,-201,-69,89,120,-230,70,121,110,-93,187,32,116,-76,-25,-119,-195,-53,-88,-15,-53,-201,-210,-174,-100,-225,-54,-184,123,24,60,-127,138,107,154,219,-234,163,81,162,-40,-164,249,86,61,57,154,-144,150,-147,200,216,210,218,-45,234,-126,191,149,219,-36,184,-173,160,-122,188,-115,112,-78,-144,255,-115,8,-183,240,-125,-174,-165,-145,229,116,35,-40,-156,-53,150,219,105,-164,196,-172,-47,-122,56,54,110,196,214,180,-194,117,31,89,-15,-75,208,206,82,46,-4,98,162,155,193,-220,160,101,-231,166,154,191,143,-121,17,196,190,149,168,-109,-31,36,58,17,-1,-94,-10,23,-30,-67,1,209,-42,23,-256,-104,168,151,234,-83,22,-107,129,83,115,109,-239,-54,159,-129,66,-159,-246,-144,57,-98,-215,22,68,150,-178,58,-194,-222,-71,-150,-113,-60,-96,-153,61,-204,146,-132,107,-179,-80,-14,-33,-44,-121,-28,41,32,-178,141,155,-130,44,-34,65,206,178,199,173,-205,170,81,-109,44,-239,185,215,89,-99,-251,111,-189,149,103,65,-163,139,-5,119,-209,-88,-224,-42,-145,-3,-102,127,17,42,86,99,-196,-234,-184,203,-151,179},
			{118,190,152,162,19,-183,-135,-206,163,211,-230,-60,-130,240,-205,-21,11,215,194,-62,109,114,120,40,-116,117,90,107,198,121,179,81,126,-226,180,83,223,-14,-68,14,-176,73,174,191,25,-164,-71,-25,191,-88,-87,112,-42,-118,-75,197,252,-239,33,160,209,-10,-240,-72,-57,29,77,46,112,-156,92,-60,-224,-148,190,-132,-208,-110,45,154,231,63,110,-126,86,158,239,-161,108,-11,57,-155,110,182,143,91,164,-42,-101,68,-239,225,225,-177,-201,120,-213,134,122,176,131,-230,153,158,-76,-127,-242,204,216,177,108,39,-98,-103,-1,193,-4,68,-184,-229,-13,-134,-236,-23,-35,-83,20,-221,238,-147,-191,-63,-221,65,-183,41,-131,183,-182,-201,-80,141,-46,214,-197,53,-203,-132,249,23,9,-56,103,-87,137,-47,-120,-198,42,-24,250,119,161,-46,-152,-238,210,234,-233,-135,32,-200,7,11,-186,-23,-153,97,49,-102,63,79,151,91,-120,-252,213,55,-91,107,156,-67,226,172,-186,49,96,-232,-87,161,75,-72,83,245,239,206,146,55,-156,-46,-47,-166,74,-64,87,-160,136,-43,-241,-101,-195,0,96,-38,97,193,-44,67,-146,-146,-65,-151,99,80,76,226,-28,221,60,-138,-77,233,-83,-170,69,205,106,17,-45,174,152,137,114,222,101,15,-94,20,-92,-43,167,111,164,83,-175,-39},
			{201,-171,162,-80,-49,232,215,-34,42,37,-39,143,147,-233,167,-1,162,48,-233,168,202,52,123,-164,-179,-139,43,-30,189,68,245,-31,-170,-56,-1,41,212,1,-98,72,-180,-33,-67,-174,161,-135,158,-149,-179,45,-211,165,-91,-27,55,-183,143,-65,59,-17,-248,-85,-125,144,-29,-144,128,-221,-125,40,228,-190,-34,13,119,92,184,139,27,27,-14,86,-25,177,-150,-137,106,-60,-121,-86,-135,-132,12,-29,-206,-166,-125,-12,153,-217,65,22,-240,-31,189,59,156,-56,107,49,-149,178,-245,-244,134,-65,-173,129,113,242,40,-135,93,-69,-88,-76,67,-33,197,198,235,150,70,181,-13,38,-75,198,-106,-11,-194,-73,-232,-147,144,-258,126,223,120,96,204,195,-32,190,97,203,97,135,-229,-99,-116,-134,-140,71,-161,182,38,-157,-33,-140,102,-109,148,-171,215,-4,209,242,-197,142,-112,-157,169,238,-87,-144,102,-176,-175,96,85,-164,-232,-13,-3,166,-141,220,125,-211,38,-35,-158,194,54,87,-41,-174,-89,161,-1,232,-181,-192,122,154,212,117,-121,57,-160,-120,24,37,-219,195,-226,-45,122,84,-34,155,129,-96,-153,216,-89,137,-221,-222,-238,-75,-105,3,-79,135,-97,-142,57,-146,32,-230,0,232,-137,-66,76,70,-261,-160,123,195,198,-86,-84,220,-31,-34,74,-173,-185,-117,165,83,-23,-220},
			{2,131,-35,42,244,43,-16,8,-136,-78,-11,-221,-183,-110,101,-69,82,-213,-39,58,69,-212,210,-126,187,-132,59,254,-6,-63,184,-163,-103,234,-188,-192,193,-119,246,-205,-111,-51,127,60,-23,-58,-23,77,202,-2,-168,-65,-118,122,177,-18,99,-178,79,-27,198,192,72,-227,75,121,-9,252,-66,157,65,240,168,-186,-142,-230,174,-203,80,49,56,-69,227,-116,-26,-2,-71,-116,-150,62,156,125,223,-142,112,191,233,219,106,81,-18,-174,192,-73,-89,-7,-10,198,184,-48,-244,168,162,-228,-116,-201,199,-140,107,87,96,235,214,12,-149,-74,-157,95,-22,-194,-8,-198,10,-107,-112,35,131,-237,195,139,46,-63,-59,23,122,-156,209,215,146,169,-37,-99,-124,-39,183,115,187,0,-15,-31,-232,62,-144,50,-50,54,-97,142,-37,-84,-119,-157,-130,228,-63,-95,43,-73,198,-183,-179,-230,239,118,101,80,78,-52,16,-253,80,-97,-79,203,-130,197,149,-42,-163,-145,-37,-185,212,-194,159,-67,127,-11,137,-110,-63,-182,-200,133,-99,-213,160,109,-239,167,-132,-197,-48,201,-42,-150,47,-31,-181,-169,186,0,137,-84,199,-252,179,219,-255,77,-202,-161,-129,113,-141,97,-11,-60,-151,233,8,-140,168,221,-155,55,7,-232,-141,7,78,-106,-49,235,131,-240,-111,-159,175,75,-171,202,12,68,-97,-154},
			{-113,206,111,96,-50,217,-180,-209,-52,169,90,-54,172,209,-93,-128,-155,-77,-174,-206,-71,233,-194,31,-97,-6,71,-138,-210,-112,-74,139,-214,-171,-47,-209,-193,-243,144,-151,-202,13,71,-176,-213,-109,30,-48,-231,23,-169,136,-125,-184,132,-96,-90,-87,-110,-119,-182,-153,-172,238,112,182,138,240,235,-90,-18,-28,82,-64,15,-12,-116,-21,3,7,-155,-13,-230,-127,-74,-78,72,-139,-150,-100,-44,-69,-10,-211,49,179,209,-259,-162,-115,237,208,-141,132,111,122,-97,102,-11,-52,224,-157,52,-197,-37,-28,62,-203,-212,162,-212,-167,-109,187,-193,67,237,5,-186,-50,217,-53,113,121,-92,-111,146,45,56,-66,-149,230,43,213,-183,-27,-16,113,234,-14,48,-168,225,-185,90,65,-114,-7,117,-165,-187,-111,-93,-77,-125,228,-192,9,90,-91,214,24,114,6,134,-215,-221,-139,113,-199,224,-110,179,179,156,-108,-26,67,-57,17,229,-160,114,-10,239,49,206,-90,-95,-4,146,33,106,-219,-180,-24,96,166,95,-11,-5,25,218,-119,-240,-29,-155,33,254,-160,-137,41,-216,243,235,36,-168,-189,-184,-71,-58,68,77,-82,-123,158,-73,-159,-222,-184,134,-99,-191,-234,-2,-139,176,-135,3,21,97,119,141,212,216,173,-178,-37,138,-44,-172,175,27,-108,168,-31,-125,103,58,3,16,70,-206,97,-181,-109},
			{-199,252,-216,127,63,60,-211,95,141,245,-47,-195,-229,164,70,-206,-135,-64,123,-181,61,101,41,-38,-38,25,173,155,-139,56,-230,-57,68,-125,-181,161,240,-135,74,181,221,-113,185,-39,-100,-51,-197,238,-41,-30,109,-224,-1,-172,-168,-143,-94,-126,117,-195,182,-35,-167,193,-69,-51,-121,-87,49,233,-20,102,248,223,-180,-38,-51,42,206,-9,-208,236,-185,-216,24,42,74,-182,-153,-179,-71,-222,66,24,132,-216,-238,204,103,40,55,-162,159,-29,-201,-182,-244,10,125,-62,-15,-17,-53,-45,-118,245,154,-59,230,-150,91,-148,-202,94,-242,-213,81,-111,96,115,214,-43,-211,104,-126,137,213,-230,32,238,48,-127,215,51,-140,-32,125,189,226,90,-222,-17,105,-80,148,142,-27,25,249,10,-47,14,148,-60,52,-3,-64,215,207,222,-41,209,-168,198,-214,-35,62,-212,15,37,139,90,188,141,130,72,-231,-64,44,-118,-218,-91,-235,-135,34,-161,-5,189,162,40,-226,165,194,-11,-192,-215,-189,-242,228,110,-30,-55,145,-190,144,124,11,-43,-167,227,205,-80,-144,-152,-47,89,-22,-257,-143,-67,-102,109,142,-111,151,152,-198,-40,221,-161,177,-43,-45,188,-102,-206,-232,-20,55,-55,183,-81,168,-87,182,71,126,-178,-63,-154,238,-72,-183,-199,105,170,159,90,119,-6,-164,109,136,-108,196,-88},
			{91,-122,-27,70,106,224,168,-182,12,-242,98,-64,117,41,-52,47,127,-40,-101,33,4,42,-212,79,-172,-4,-62,-178,222,-136,-65,-80,-234,-105,-85,177,-230,-7,61,-99,5,100,-19,-45,-221,-201,71,-254,19,53,215,232,42,4,97,-15,199,-11,-85,233,-71,197,-179,2,-201,-186,-127,37,168,109,26,240,183,89,-113,98,157,-31,-135,65,-202,-27,0,215,-128,227,219,119,-89,-4,3,127,242,-201,0,18,-196,151,72,136,-39,18,-168,-115,-241,51,94,-28,84,-42,-26,-34,187,-145,45,-160,245,80,-209,-242,-26,-206,10,-236,171,197,0,-245,233,131,-130,-230,-162,243,-93,14,-159,-105,-141,156,-102,188,-51,-146,61,-235,-71,-36,-190,222,141,-124,-132,52,132,-46,232,-42,217,-207,140,60,19,248,235,40,-69,-55,-76,-91,34,38,76,-216,56,148,167,55,126,159,-62,-75,36,115,-57,8,128,-114,-23,-186,83,-85,-42,-22,65,-34,-55,-171,-14,-210,-76,-7,-165,26,30,-162,21,-214,-38,-217,-26,49,-137,8,124,254,99,179,-199,-30,-70,236,184,261,-74,-40,-111,170,150,63,2,144,236,67,35,134,-191,-238,-87,-183,-66,47,-54,33,182,21,122,-217,186,192,-220,71,-9,-14,63,-163,-145,98,-55,-209,119,207,166,198,254,-219,70,-71,188,46,101,-55,11,186,159,214},
			{106,-20,-85,-93,102,117,-45,-222,83,-37,-143,-227,-163,-217,-32,-145,169,238,193,-143,-97,105,17,-111,-31,-183,-207,-131,-162,215,118,-120,-171,72,68,-64,-69,-180,17,221,-97,-58,242,86,-216,-190,54,-130,31,62,69,-66,89,178,179,99,50,-165,147,-29,-88,-118,146,-102,-48,-9,-129,-85,186,-108,-99,-144,204,177,119,10,123,234,-91,222,-129,250,-88,-62,254,256,107,-151,-61,126,-128,-74,154,191,221,20,-163,39,84,-71,139,-178,-71,-230,173,13,131,-197,141,-218,193,-89,97,249,-2,-157,244,-188,22,177,-177,44,-127,-121,24,-57,216,-175,-174,-116,204,-209,158,-97,112,-170,209,-16,-24,126,211,92,66,151,-194,232,-190,54,5,-195,97,59,224,80,230,-39,20,-196,80,-95,225,-156,-102,35,-34,-168,-126,-97,-126,169,-20,-89,-167,12,222,-17,138,188,-87,-114,-112,152,100,-115,-189,174,-181,-150,0,123,-125,92,-194,-49,-192,-34,104,128,-250,-12,-67,213,156,66,158,3,69,-98,45,-184,117,-127,-27,113,226,-41,54,-80,-8,199,-161,-104,-136,-34,-33,-104,-127,-105,102,208,-189,-257,14,-57,-74,146,-51,-30,-55,222,-4,-169,-78,-226,101,-4,127,-207,191,81,52,227,16,-114,-10,186,14,-155,-194,136,70,203,172,-155,204,165,198,53,-124,15,210,-165,-18,-135,136,-239},
			{207,48,-208,38,-96,113,19,31,-199,-42,-140,-113,-91,207,-186,-134,117,191,113,-196,-99,123,-57,108,174,233,-65,112,-147,183,189,96,48,128,131,119,-54,-108,100,10,-117,-198,-35,-108,-50,172,115,19,22,20,15,64,117,-34,41,230,232,-115,-27,81,37,145,-39,31,202,-88,53,-200,22,-238,43,-198,225,-186,-157,5,-50,45,-216,-53,117,25,121,155,-72,-167,65,-80,48,109,-3,-223,97,63,210,38,-5,98,-25,122,73,144,79,72,82,194,211,-173,-134,84,103,-6,191,-164,226,-31,-235,225,109,40,-237,146,-55,167,-154,181,229,-17,152,-151,-129,190,-210,-119,17,-168,-66,-163,-22,155,-119,-30,4,246,-202,-158,-76,-233,114,-54,91,23,-128,-66,-27,103,-64,227,-106,-124,-125,-22,29,-165,179,-56,175,-166,-195,-91,11,156,215,-104,145,-137,-175,67,-28,209,-259,-255,235,231,-182,215,170,162,126,191,-98,98,146,-162,148,25,182,93,-139,-148,-126,-222,-107,65,150,-182,218,-69,206,-75,-154,59,-47,-242,30,8,-181,12,-28,137,0,89,146,93,91,36,-240,78,-243,96,-158,-75,45,-208,50,110,-185,-145,120,-176,-39,68,70,211,196,-193,-240,116,-46,-225,-135,-157,70,-229,-170,122,-41,88,-110,-61,233,63,188,59,-223,-65,106,-51,-80,191,96,-165,-228,156,40,-133},
			{213,231,6,-126,-1,-248,-229,38,-44,-164,178,122,215,-224,39,-159,219,31,60,-48,4,-235,113,-84,-3,-185,99,67,-106,-68,253,57,-190,200,73,251,23,235,-158,251,-59,112,202,0,165,79,-21,-45,152,20,-190,-104,76,158,-206,-150,-118,-171,-87,-15,121,102,-85,-247,-15,-121,-56,132,-244,-119,-22,193,-228,39,-239,117,-249,43,-111,220,116,-83,-33,210,-204,55,-132,-36,-59,0,210,105,-23,73,-246,46,108,64,-46,-181,-208,176,221,-34,-94,-95,-169,148,26,174,229,-173,-205,196,-155,-198,-97,123,-8,136,-1,148,123,-172,-138,150,132,-39,-55,-68,-69,-24,154,-50,27,-226,189,-111,-222,227,-180,40,28,-197,84,-123,95,83,-65,-32,42,-10,-7,83,-11,-191,205,-125,238,251,55,129,152,165,-218,151,23,-204,129,0,190,222,-172,236,-133,-108,-162,-3,-76,139,171,-229,-61,-57,172,-96,-129,224,172,32,-20,79,-113,-143,143,69,216,67,229,175,-43,61,15,-15,-118,161,-39,-107,-236,146,202,174,124,231,82,201,-150,-8,-13,-95,-20,-31,120,-142,133,91,-207,93,155,218,30,121,-88,85,80,-8,119,-72,146,185,225,167,-244,127,-226,178,143,34,-210,234,235,114,-45,166,178,-78,11,154,-105,8,-201,-58,-186,-16,243,-84,144,113,83,-120,-61,-233,-125,-131,-191,-247},
			{-228,92,-147,-86,-47,-5,222,38,76,201,23,8,161,43,-34,-202,176,-97,-77,113,156,137,-20,-166,-116,167,-47,237,-195,-57,200,-166,-181,9,-65,-75,109,132,-60,30,-14,-22,160,79,197,-131,153,-114,93,71,-190,55,101,-131,241,54,21,-60,-117,-123,106,-187,117,176,201,64,244,164,-114,216,201,88,-167,106,228,-95,5,83,-83,28,-136,232,-202,-122,-139,168,-44,-152,150,-159,-213,120,88,147,105,-32,-188,67,-182,-98,-109,-102,-147,-153,232,-32,-182,-194,-184,-44,87,17,-13,-90,-169,-173,147,94,126,-48,-99,-218,113,-242,-10,45,53,-87,231,-225,-183,-169,-99,110,114,54,71,-197,36,-236,-63,-94,-60,230,230,147,148,-121,157,197,120,-87,-212,126,239,-3,-139,148,-60,36,-206,-146,7,-25,-191,-119,-199,-112,228,108,-59,-213,-232,-159,-173,187,0,24,92,23,175,48,-232,73,-196,-212,138,53,-15,57,65,-237,-105,-111,186,-83,195,-177,-214,227,170,-200,229,-11,30,-233,-215,-96,-140,-161,-234,98,-215,-245,97,19,79,137,-115,-85,239,-39,96,-30,174,209,-4,-251,93,1,-169,70,182,43,-197,-220,-29,198,18,-231,169,-53,-215,-87,215,-18,174,122,21,20,38,20,-11,164,-246,-39,75,177,120,159,86,183,-129,132,139,172,-3,235,13,56,145,-161,116,46,32,-182},
			{-154,44,83,40,-13,-185,-155,15,204,32,172,-212,155,39,148,239,58,-229,-115,69,225,214,-121,-207,-31,49,-19,37,150,109,84,-204,-31,241,-132,-79,179,-4,-65,250,192,-261,110,115,-155,8,-243,145,-8,226,-21,-221,-92,-236,228,200,205,-67,22,204,234,232,-224,187,-96,8,-119,137,-102,97,51,-174,-86,116,-119,-74,68,94,139,84,-39,94,-255,-119,198,75,124,-194,-183,41,20,-56,142,37,-221,244,34,18,-178,-106,-220,-188,-76,71,160,229,202,-150,-87,103,175,-254,-95,95,3,-27,26,-166,16,-166,-171,-164,127,148,198,11,-96,-73,35,23,-139,118,-16,96,-226,-223,227,-63,77,198,177,-41,201,54,61,-66,-152,130,-92,226,46,116,225,-64,-66,166,193,-51,-97,153,-200,171,39,-1,-77,-133,-74,-112,167,17,-237,-109,229,-110,120,-98,122,120,-61,-118,70,-39,-242,-200,-51,57,121,114,170,-132,-143,-58,-10,206,-201,108,-77,116,-200,-173,184,38,-183,-48,-231,67,-219,35,-203,1,-86,37,238,-199,10,32,-29,-40,-41,-137,-123,134,-74,-149,-198,138,153,-152,-136,-12,194,-183,-219,-57,-158,-181,-110,-151,125,-195,190,-209,144,164,54,-58,30,211,-187,-67,-139,-66,-47,144,-76,-36,-238,31,-202,5,8,114,-251,229,16,-178,-90,-88,35,45,24,256,159,-96,201,198},
			{45,204,142,42,174,-240,186,-225,-176,-240,-29,-212,-230,150,-238,63,205,-233,235,105,132,73,-173,-123,-9,-149,52,87,170,216,205,-124,13,93,-145,-24,-156,42,-198,-92,77,243,-130,-10,-71,138,-171,-83,-57,239,248,-24,-45,117,185,-61,178,3,-64,-46,248,-121,222,-82,-91,-165,218,-100,-153,226,-97,-222,61,-161,-30,151,-16,-107,172,-190,54,-111,-231,-174,-162,-126,-20,88,-218,128,141,-113,214,87,-193,-38,16,41,233,-163,-101,-142,-136,-109,72,152,233,-188,-204,30,154,166,-69,180,-147,-33,0,-258,-215,182,-224,221,-211,175,-98,7,103,-163,-128,196,-103,-90,95,-27,-220,213,-147,-115,-1,-13,-140,91,-52,49,-63,-219,125,-216,45,-53,-163,-71,51,-87,-138,28,209,-21,90,-75,228,214,-164,194,159,-200,120,175,217,118,-90,-218,-99,-221,70,-35,-186,12,31,21,-170,-205,-131,173,-92,32,-34,-182,-110,-55,-109,-229,-238,129,-143,-190,164,-48,163,-75,35,221,218,164,-3,-127,15,-156,-241,185,-223,-54,-102,-135,-187,189,-198,192,-137,-121,-104,39,41,233,-83,100,8,172,-234,-227,-240,-129,220,-117,-82,154,236,224,-149,-4,154,-38,-216,-237,-92,194,134,200,232,162,-231,-142,-214,-192,22,-236,182,-170,-6,-248,179,-213,-199,161,165,-168,-87,60,133,123,-165,170,115,240,-123,-214},
			{-37,-87,-111,86,-146,199,211,168,88,209,-226,-78,56,73,200,225,63,-135,-10,-217,-69,73,-123,-83,141,-52,87,-50,84,-104,222,-39,-94,-176,-188,83,39,176,151,120,231,58,101,50,-234,92,11,126,159,-4,185,147,217,-158,-177,101,153,-145,26,-137,131,-221,-190,161,-197,-233,-11,-148,-219,-248,-5,-220,116,151,-152,-195,-73,210,-37,-149,-84,33,48,-195,25,-95,96,-196,42,222,23,-166,-85,-66,-19,82,-230,-152,236,-11,-236,-53,-57,-24,201,-203,-68,145,74,192,185,50,-3,-216,-139,186,-71,-186,131,59,194,-256,-131,180,-109,-72,122,130,191,-197,166,6,-219,-90,17,182,151,-197,54,70,-211,63,96,32,66,-139,0,9,224,-5,138,-81,-213,207,-134,-109,11,-63,27,-244,60,-25,184,-249,42,-245,92,210,-43,-11,14,-200,-37,-248,-85,-199,149,-91,-194,-190,-170,13,-19,-3,-214,214,111,-87,189,227,9,-220,90,-193,-120,-108,69,-117,-226,57,127,21,259,-183,146,161,255,-207,114,-155,-131,-206,-204,-134,109,-165,30,-226,-84,-165,-197,179,99,259,17,155,-42,241,38,17,142,-148,-43,174,73,152,-12,-114,253,222,94,-90,-213,-74,-187,154,-184,210,-114,-129,-53,143,-119,159,-167,-74,179,249,127,206,101,158,-161,-80,-28,259,131,-25,7,-210,38,240,230,108,-222,165},
			{-172,200,20,-85,-243,87,-48,27,-218,-167,212,35,89,-216,-157,93,84,119,0,119,78,-231,161,4,-239,40,-15,-136,-169,199,73,-258,-134,-74,126,111,-195,142,172,-235,147,47,75,-24,-9,-62,198,155,99,164,4,97,38,139,112,130,150,63,116,35,-199,-104,85,-39,99,-218,50,173,-220,-161,-75,-202,188,-73,126,125,16,-54,-234,-140,-205,-135,-94,232,229,-256,-238,119,-220,163,-207,-250,-150,198,-224,3,148,-111,211,218,-50,86,173,-54,246,137,-79,237,99,-55,-115,215,-15,202,-30,-237,-157,-219,-183,-161,-61,220,139,-159,172,147,-59,144,-182,66,202,-130,153,-185,-225,-160,-161,-29,21,14,138,-212,-129,78,-158,105,-12,-104,162,7,-253,98,-235,-204,-172,-68,-153,19,-232,25,190,132,1,16,-214,159,70,-81,-226,-232,213,225,-83,49,214,134,-107,216,184,122,101,39,109,-223,-131,-208,-230,153,-85,45,27,178,-31,148,-26,133,42,259,180,190,-181,55,-231,-145,-163,198,-79,23,2,102,6,236,-105,223,205,222,-31,-200,-97,64,96,249,-176,79,-89,0,-81,113,48,175,122,63,-126,91,-24,-234,129,-5,24,-188,-68,-14,91,-184,-114,-187,-144,213,0,-208,122,-13,-182,-117,131,-193,121,79,-177,-3,132,-178,186,145,-21,-223,74,156,-184,-62,-34,119,93,-229,-86,-111},
			{-203,140,157,141,-215,-96,5,172,-190,-1,154,-145,4,-127,-154,-44,-53,-167,166,74,-213,-106,163,-254,222,176,-4,26,-246,-255,-102,-128,-105,-106,-226,229,-12,194,-153,-167,-219,17,-14,218,-74,-132,-127,-60,229,-122,-165,179,215,-169,113,-28,-117,68,-179,60,-223,215,217,-107,123,99,85,-196,55,-84,221,21,7,138,218,64,-212,-88,-56,198,90,-77,-140,38,31,-216,78,71,-124,174,168,241,173,123,-203,-148,74,177,81,215,123,-99,-39,-239,77,86,97,-108,-13,71,-189,204,3,-111,-164,19,220,-175,74,-2,79,16,-148,20,14,149,-122,-132,140,-124,-119,122,143,-158,89,61,-167,87,167,180,14,-240,7,-79,87,-84,45,-8,228,185,81,72,249,-200,-137,-182,-227,234,77,-122,-85,-50,-37,-226,-216,-111,218,123,185,-116,-127,217,-117,-128,-249,84,156,-248,23,-64,19,111,125,-77,-201,155,-11,-135,4,207,172,-45,-70,35,41,-96,68,-169,-105,8,116,77,95,-63,57,98,-55,79,161,79,-44,-223,-105,-65,-33,173,14,110,-81,-225,203,96,118,-227,63,-26,55,191,185,97,90,259,255,104,258,-77,225,-220,171,-240,-15,-57,225,182,25,71,41,69,-85,245,51,-219,-154,250,87,-84,68,189,246,129,197,228,26,-73,-122,-7,-209,-106,212,8,162,174,-86,-112,247,-111},
			{133,21,56,-8,-245,-208,-164,153,0,52,-41,-179,-142,103,-155,-135,114,109,46,-143,-125,53,14,-207,60,115,-169,57,-210,148,221,181,-151,58,-212,70,223,210,-79,54,-106,225,50,-241,161,-26,132,58,159,15,130,-138,-49,-213,175,-155,-218,154,-206,19,253,8,-182,202,106,43,58,111,9,175,197,60,-49,19,158,184,-41,-101,185,58,213,-141,-217,-227,-139,103,174,74,-224,217,-212,140,127,-20,51,-70,-93,65,89,-78,152,-228,-62,-14,-230,189,208,54,33,216,101,-150,218,-80,215,-256,221,-138,-192,-112,-47,-138,-43,114,63,57,210,60,-1,-151,67,235,-153,135,172,160,-122,-102,54,-83,-60,164,223,-43,-163,80,55,235,43,126,173,-43,150,-205,176,73,181,-196,-225,-42,-150,37,-240,-205,-239,-36,45,78,111,37,-50,47,-249,-189,124,-45,-138,25,158,139,-183,53,112,-50,-203,-236,180,-201,-168,212,240,52,-10,35,-105,-201,-138,144,-199,-112,77,154,116,222,-120,227,184,-70,-146,-243,37,4,-208,162,241,-206,96,-242,-167,2,104,-175,20,-125,71,-141,15,210,-40,10,251,-153,215,-119,10,180,-195,-165,46,245,-81,-180,58,-75,13,250,61,14,-235,-167,22,-116,-172,-151,139,-116,22,-34,105,75,46,104,-14,-220,185,-215,238,24,-156,-10,-9,-177,90,257,56,110},
			{-194,-161,-174,-34,-81,-18,-99,-46,-177,6,193,-215,-161,-68,40,-17,54,203,88,212,-71,-95,-78,-145,-160,-212,141,68,229,218,-166,-246,-54,-41,46,174,-87,-175,-237,19,-180,-149,4,-14,-68,204,-215,200,130,85,-52,-6,-149,246,181,67,58,50,21,-74,206,-220,86,0,169,-120,-132,-73,41,72,-149,0,41,-123,109,202,223,250,258,115,212,-236,-102,-218,189,112,-153,197,-69,24,1,87,236,-223,20,-164,-3,-226,109,144,-181,1,-119,-101,-131,-166,-133,-249,142,9,9,-190,188,154,54,-249,168,-107,-169,-141,-74,111,220,31,-4,-204,-65,37,179,120,-80,79,4,25,97,44,86,-140,24,-211,12,155,213,-199,-96,-110,-234,199,92,220,-14,-202,69,-222,214,137,84,107,-35,-62,-236,124,-166,-3,40,22,-133,-19,11,233,253,115,-120,122,-203,117,-106,253,-7,42,86,-203,69,-194,18,-144,-149,41,206,176,-245,209,-137,121,57,-169,-214,67,-17,-112,-119,-23,130,12,-177,66,221,15,1,217,26,29,-51,-253,126,-221,184,209,56,-17,115,206,186,166,38,56,-95,-162,-171,-72,-94,216,-199,-42,-192,215,-157,126,80,-250,-212,36,109,200,219,11,256,103,-132,-41,249,-138,23,-43,-102,15,-41,-18,192,-182,212,-239,-214,-28,196,-9,155,-39,-170,-12,-140,-58,82,-208,162,-31},
			{-141,227,51,173,9,43,191,-216,21,-11,103,-115,123,160,240,24,-58,188,-228,74,-242,-127,-54,42,246,145,30,237,101,35,262,-137,-198,28,38,134,90,85,-125,104,214,81,-44,194,-169,-122,189,-107,141,-125,110,-200,-37,105,75,-205,-196,-80,150,-188,172,-114,35,34,8,-65,155,-241,-66,122,98,88,-11,-81,167,157,95,182,76,136,37,-213,226,-142,0,139,113,-106,34,107,-46,-81,43,-16,207,169,-162,-53,85,-106,262,86,86,-80,-95,-180,175,-189,-78,224,-81,-201,-52,-17,12,132,-100,95,-165,246,-194,-25,-85,-105,257,-154,-206,-184,40,-160,168,-131,-64,-200,61,95,-150,-188,105,-85,-80,-14,-155,69,-64,-92,-153,-209,-60,69,191,85,220,20,-79,-41,29,19,-152,65,65,-79,-157,179,172,-49,37,-223,-164,172,-16,-57,-103,-175,-43,83,-43,197,-13,-66,-234,-66,-200,185,-99,-181,238,-121,-107,-51,-59,32,59,58,213,-211,92,48,201,95,-85,-178,211,-86,-147,241,184,84,189,-27,-93,-64,-115,-29,-47,116,7,-107,-121,33,139,-225,-122,242,-189,-56,134,173,-228,-33,158,-92,-142,-105,-123,138,-7,168,230,123,37,-207,-130,54,-5,129,-125,87,77,-135,-168,181,-222,22,236,88,-8,227,167,-210,-173,-193,-95,202,-92,-187,-241,-85,-21,19,-192,12,-244,11,-150,-189},
			{-163,-213,236,-24,-58,-206,87,-236,150,-144,-158,-23,87,-239,77,-135,-229,188,-79,-41,134,133,-135,-107,-5,-70,246,-126,-228,226,121,-220,61,-130,-159,59,202,-103,155,-100,-8,110,-158,159,-30,188,-205,204,3,137,105,-71,-8,-173,45,72,117,-214,-224,-124,-38,-60,-22,-166,-77,3,-229,55,-116,-63,143,171,61,-142,139,182,-39,-128,-134,-110,-16,0,157,-176,0,-116,-21,97,-6,95,-12,-253,-109,-199,6,41,105,-57,253,178,173,-182,-205,152,242,-23,121,225,216,224,-100,57,111,159,-139,-114,-132,-157,-213,-114,205,76,-74,188,-122,251,-68,153,-5,106,-169,44,-55,52,122,-149,181,-143,-223,146,164,-53,-150,-26,-226,-207,205,191,121,-169,186,139,199,197,28,137,-150,56,-37,-92,-157,139,-119,215,-139,-121,77,-20,72,166,200,91,22,-25,-136,-38,-185,-218,-25,-133,78,-120,-2,163,-196,-28,-195,206,-150,165,-114,239,-103,-112,-182,228,-227,101,85,-210,11,238,122,32,-118,37,53,-222,221,-72,110,133,-52,39,58,-19,-63,-73,30,185,166,-51,-85,26,-15,236,-44,169,-173,-71,32,-35,-26,175,-256,-84,-141,44,78,-218,125,-51,233,25,-57,-176,77,-135,-8,97,154,86,155,7,77,79,-163,112,21,134,29,55,-34,-103,-251,-180,26,150,-202,245,138,-124,-164,149,227,11},
			{73,217,181,92,-154,-42,84,61,-84,18,219,124,184,-62,62,189,-77,-251,-230,-158,29,-197,223,-10,-232,-74,-117,-174,-207,93,-38,120,201,-227,-169,37,151,38,115,150,-209,187,169,97,126,-128,-120,-75,51,179,118,78,-74,-166,159,-183,42,-157,-21,-156,213,32,182,51,68,-134,10,-185,247,-110,-85,101,-216,-155,57,-99,-109,-78,92,-207,-68,10,32,217,139,91,178,-1,177,-205,-221,-183,180,-77,-5,82,203,190,-205,-36,212,78,-126,-195,-147,-168,33,-51,184,74,214,-63,-94,185,-5,-76,120,63,201,55,-229,-9,124,235,136,-193,5,-43,22,230,-72,10,-187,162,164,62,-7,-185,-88,24,10,97,-67,49,-9,120,130,-45,113,172,257,-33,144,79,73,41,6,10,-126,-97,63,-115,63,-175,44,82,-226,-222,-225,27,207,213,-141,-69,-71,-170,4,225,157,27,-214,246,121,32,-76,108,101,-30,176,197,-240,13,-152,13,144,-52,-194,-222,-158,-253,-115,30,-227,-254,165,55,102,-167,156,57,213,-185,-238,-173,45,-87,231,228,-25,88,139,-46,-167,199,232,-16,-245,117,-42,-161,236,-94,-194,146,106,247,-83,-214,-2,-26,-138,-88,183,217,-74,68,247,171,78,167,-93,25,-7,67,-221,98,146,82,181,114,-46,20,163,-242,166,-15,16,140,35,48,-226,-201,13,36,-49,109},
			{-69,134,152,-149,55,-122,176,31,39,234,242,-9,241,159,-227,-162,-231,-59,-88,-130,148,-145,-27,99,238,-63,-63,-25,79,0,192,-149,136,-144,-190,121,128,-45,-24,-118,-64,179,36,-138,202,-85,-86,23,-91,-129,192,-48,-212,116,199,200,-209,3,-246,131,121,-234,8,-224,-222,137,47,-105,-1,-23,53,115,138,-228,24,46,102,-110,-191,237,51,125,156,-151,-35,-241,-44,-175,47,125,-150,-122,-91,-26,197,211,-172,57,-243,-84,189,165,-247,-127,-71,-44,-122,-22,-23,201,-210,206,169,51,-64,56,134,-66,0,209,-64,-163,-9,-125,218,-203,-162,-119,-220,-86,37,67,-74,-1,-202,60,-146,-125,126,238,197,-29,28,-199,-60,-14,-53,-49,-136,56,40,240,140,125,-167,-228,114,-48,157,67,147,-119,-186,-137,111,-10,-100,226,243,47,-112,-119,41,-124,130,42,-181,58,-190,60,69,-144,-46,4,256,-130,117,-125,-179,-53,203,-235,-199,92,62,-132,117,-127,126,196,-14,-169,-92,75,-157,253,-150,0,-62,194,-116,-113,111,-59,-61,-97,-36,16,-173,-233,191,241,-32,-6,208,-209,14,252,180,18,-114,123,140,174,163,237,-45,65,167,-106,-170,-187,208,-13,95,219,-175,-161,123,-31,171,205,248,-227,186,222,135,-180,201,131,29,-160,-144,-61,-131,113,15,-225,29,114,-176,-176,245,-188,-172,-103},
			{192,28,-183,-181,-219,-194,112,-133,38,-19,-98,-178,181,25,217,-240,-147,177,-84,222,154,79,152,232,194,215,-90,195,-196,8,138,-218,251,-145,2,154,-237,-8,136,-174,136,-238,183,1,173,248,70,34,-119,233,-171,-109,144,12,-216,-69,-129,162,-31,-144,100,-23,189,73,-249,-187,97,-61,-172,12,-142,11,-72,-236,71,122,-15,60,242,-16,58,-94,97,191,12,65,23,81,115,-123,183,-96,-4,-237,-70,-5,233,139,-78,-59,-145,-96,120,213,-30,243,-202,-241,-118,107,2,-32,223,-197,-37,153,-162,-131,-172,70,53,199,94,123,-90,-203,-95,-164,-99,80,-111,-212,129,111,183,-184,-75,-64,113,-25,140,-1,-12,246,120,-237,-130,-22,-175,101,160,206,64,126,97,-66,54,99,-56,9,-239,104,-27,-94,175,-145,-70,-42,256,129,11,-227,201,-46,-30,257,-68,-131,144,43,38,-196,223,-69,-51,-60,-226,-215,115,76,163,-86,33,-150,-36,-185,190,45,-177,38,-145,199,47,-1,-134,78,-160,21,-101,108,97,-22,258,142,-63,173,-48,-40,165,121,-30,-204,-209,92,-7,153,-51,-55,-45,-137,-248,133,203,179,-61,-161,209,185,-197,-28,-210,-83,175,-143,-180,-254,-176,-119,-228,-23,-61,180,-1,-97,129,-92,175,-60,-28,186,-138,-177,29,170,-201,-135,178,12,-137,-7,-107,90,140,-65,-51,-140},
			{196,-165,-95,199,9,-9,9,-85,89,-107,-121,-20,-10,-11,-77,125,-103,15,165,88,-22,168,209,-74,0,80,46,134,47,-140,34,97,-197,-191,182,81,167,167,145,-78,118,243,222,132,199,114,22,156,-205,72,-240,188,165,-242,-136,-147,191,46,214,-10,-135,-47,148,-143,-139,132,33,240,-19,-231,-236,1,223,56,-162,-19,195,81,161,147,62,11,156,-238,47,-227,227,23,-134,-19,203,-79,256,-110,-205,-160,52,-168,-216,116,165,32,-143,-120,-33,177,-166,-71,-24,116,-186,-108,-164,-33,-184,211,187,-174,-34,182,-241,192,203,-87,-188,62,-65,-193,-168,236,-199,-100,-179,50,187,-120,172,-247,192,135,-214,-204,125,115,110,220,220,-173,-127,134,160,195,158,-95,42,-82,-66,-130,-128,1,229,106,-191,248,194,17,-159,229,-18,0,-22,231,-35,187,61,-135,221,188,130,-247,-81,230,99,56,-112,-35,-151,146,65,160,145,74,-207,200,-103,-148,142,-241,-210,202,143,-169,234,73,146,223,157,143,-59,-239,-57,92,211,45,-201,-80,147,-147,156,-98,-212,225,-7,98,151,208,236,-79,134,-42,-129,-33,-94,27,-223,-93,-14,-35,62,-180,144,-181,180,5,-71,63,-123,99,-170,51,-54,-192,45,32,-188,-257,-2,87,-209,-199,-110,34,170,249,-61,-93,-146,222,-61,-83,63,-210,239,-15,80,227},
			{-162,66,-168,-52,83,-220,221,256,122,-234,-108,106,-209,166,244,-251,-69,38,222,49,47,-156,136,-64,-110,-46,-25,33,199,174,152,95,-42,-36,29,17,-4,7,-187,173,225,213,-5,49,-59,87,229,53,-174,-147,51,230,-109,-25,-117,-51,-82,-6,143,148,144,17,-216,159,-141,213,167,-183,-67,-175,16,225,174,102,-90,-231,51,82,-24,25,36,172,-78,-73,215,-106,-80,-161,188,-247,11,-201,-80,172,78,-75,-154,-61,150,216,-55,-20,40,20,231,-79,-189,-29,222,199,176,105,103,176,-255,-67,161,-184,232,40,208,-31,-210,126,-74,46,69,237,-14,223,-216,220,262,-166,11,37,-54,-80,-118,24,205,39,53,-92,193,-77,13,-129,-22,-144,-217,212,-230,55,-190,-11,-1,76,-41,88,65,227,-126,179,175,-79,-38,-59,51,-29,-114,-49,-60,-144,23,214,-217,-22,135,9,-7,48,176,-56,-119,-75,203,-44,-13,-221,224,-79,225,185,27,-146,-181,51,-234,-86,199,197,65,-86,231,94,200,-102,-89,-86,200,127,193,-57,-156,-119,-2,198,215,-94,-235,-170,-119,-71,71,255,163,21,191,115,205,-154,84,-218,-217,144,-62,-206,148,3,150,-127,-112,-140,117,-79,-179,-25,73,-153,-206,-51,-194,-149,-63,-139,79,-41,138,-199,215,114,118,-37,212,-88,-184,-67,-179,-220,6,-35,-222,236,-162,-26},
			{-58,-11,-193,-34,58,-240,92,-33,-15,250,-43,142,218,-88,15,137,-28,197,-218,127,86,-16,-17,-139,-16,-158,98,-249,-120,-239,27,-155,-153,-103,-92,127,172,-114,-26,208,55,27,38,180,18,55,-82,7,199,167,19,181,-182,42,-233,-54,140,-53,144,-106,243,75,204,-87,160,234,-26,74,-175,-135,-202,49,52,-226,-239,-223,179,-64,-110,-147,-92,-96,261,-35,-132,-29,70,128,188,-115,-137,-39,-182,-209,155,39,-236,-205,46,-76,-57,202,-114,246,-160,-34,-41,197,197,-203,-250,175,209,-46,232,-76,213,-80,64,251,-90,139,-35,167,119,-236,62,-203,194,-97,-237,109,91,-85,-219,-194,-174,-157,-170,130,9,-77,50,233,8,-243,151,164,73,99,-219,89,83,-85,-224,160,-180,-207,103,-76,-232,94,-162,149,-22,21,99,48,-88,112,-132,192,27,-95,70,16,71,14,-159,-49,-228,-59,-142,216,-145,184,-210,153,-183,-166,-143,-115,-213,20,26,-95,-13,12,73,219,-26,-225,-219,-88,-58,127,-172,-82,-57,251,130,-137,64,12,167,-196,-193,-146,35,138,101,78,-21,-205,-222,-7,161,137,-17,-247,-200,-196,22,-71,7,-130,163,-249,-28,55,116,-98,-40,83,-131,196,38,-240,199,-47,-119,67,-1,-184,-48,215,-45,-194,-228,-108,-51,-75,200,-216,115,-225,-102,-38,11,78,-145,93,78,242,-35,224},
			{-25,-113,-178,-154,108,-158,-104,-114,-223,-75,149,208,-162,191,-247,-60,-190,-55,156,-40,-182,-188,-225,249,-72,-181,-215,189,233,73,115,200,195,2,154,-141,228,131,-12,-37,-163,187,224,-87,136,-142,-6,26,-85,132,24,61,118,207,-109,101,189,152,-93,-66,171,-228,-20,24,145,-127,121,159,28,23,-29,40,-85,-185,-1,-130,200,-51,-41,192,83,-12,42,-209,-134,83,34,90,-148,64,72,54,-139,96,-44,171,-14,-152,-116,-48,-85,-194,84,-157,-18,87,114,-243,-126,188,151,-90,50,-125,-130,123,46,-149,2,130,-22,-127,-153,-217,-186,20,-141,-161,-13,-174,177,175,-213,-159,-123,-13,7,121,173,47,224,68,197,-83,94,58,230,-24,202,-87,-161,245,-32,-94,-214,-217,-9,91,-60,111,-17,-68,143,-88,147,-194,25,250,240,149,259,-175,116,-171,39,-80,208,206,105,-214,-212,-19,206,-60,146,188,-135,-207,-42,-54,145,-27,154,-143,116,-95,-61,102,-48,156,-146,-24,118,-86,-65,-144,54,-47,20,146,166,-99,232,3,-142,156,82,-232,98,128,-45,17,-71,53,-55,71,-197,-215,169,-130,-195,-184,35,-176,188,198,50,138,-98,-46,-19,27,170,143,-192,13,-4,81,77,3,-18,-152,-86,-256,190,-7,-131,-186,198,-187,-211,121,-83,20,-12,-224,225,-251,49,26,33,181,-152,161,-66,173},
			{-158,33,-207,-10,112,-114,189,-3,40,51,127,-49,170,155,68,128,46,128,193,130,101,-84,-85,-188,254,-35,59,87,13,131,-70,164,-12,-128,-67,-200,73,-227,-228,-59,109,124,-31,-4,149,209,-76,-174,-65,223,-131,-145,180,26,131,25,68,11,-113,-54,-201,242,199,-125,-251,-211,-29,-154,-241,-127,77,224,124,156,237,225,-31,-64,-66,-163,-65,78,-161,146,114,154,124,-74,-22,152,-42,234,-149,84,3,-166,-119,49,-240,-35,-207,201,-212,211,26,128,-245,-13,-258,148,20,103,-45,-77,-169,136,239,62,-162,-17,-172,119,-190,-213,-120,-37,219,-56,-68,0,199,-182,9,103,-193,-181,8,-90,-99,127,38,178,-19,42,-95,234,-55,143,-166,-192,-104,-112,-175,-175,-232,-216,190,187,82,255,-159,-210,-199,193,57,-88,7,-70,44,52,-127,52,227,-237,94,-213,18,100,-38,252,-71,-195,129,98,84,-155,-136,128,116,46,1,-150,-22,117,81,-8,-77,121,-226,-130,-166,31,-238,-43,-215,24,133,88,120,-83,202,-62,205,-212,-122,-189,21,-148,55,-235,38,-198,-124,-192,-130,202,238,-41,-3,32,-13,39,56,180,32,-163,97,174,-73,210,197,-166,-202,-244,-81,220,174,-25,-237,10,124,79,144,157,123,-249,10,-96,-257,228,163,65,-253,216,-249,-70,-114,-7,-65,-42,-177,-141,153,-162,155,-69},
			{-158,147,158,5,253,140,113,189,22,-157,115,-164,-115,211,-54,224,-165,-168,2,230,-181,-161,-205,-61,102,180,-103,200,-162,-182,184,-47,166,-11,193,51,-52,-187,240,-47,-18,169,-82,-83,-136,201,184,-119,166,-111,-86,-225,-108,-87,8,240,32,-158,61,90,104,197,-206,126,-112,-58,144,79,-36,-122,-179,-149,33,172,29,45,-190,-54,-112,-233,-59,243,151,-227,80,112,-141,17,-45,105,169,37,-86,58,-176,83,73,40,-215,-210,131,146,-186,45,-180,6,-96,109,-99,222,201,-50,-188,-67,-213,188,-174,-119,-137,13,207,21,-2,234,-108,234,-103,180,-188,85,-179,-22,181,180,11,-70,-254,-222,14,-177,176,130,-18,-148,-109,-157,-69,225,193,72,-134,191,-209,41,-6,49,36,133,186,235,-5,-1,29,55,-26,-92,1,-11,216,30,122,49,-185,45,225,64,-184,208,204,-226,-16,-167,134,112,-81,24,-172,59,67,-130,199,-134,166,-159,-252,34,73,140,-83,159,-170,24,-217,-249,31,-258,72,-101,-215,93,-99,143,-35,154,10,79,102,-65,-195,-8,102,225,-164,-133,86,-25,21,-87,178,132,-75,-153,170,-218,-113,24,-241,177,33,121,-7,-157,-33,14,0,-24,174,-54,237,-36,47,-14,-172,10,17,105,147,19,-121,190,140,225,-7,-60,57,137,-205,57,190,70,-88,-142,231,17,-138,91},
			{182,-165,-121,-95,236,29,258,-208,-182,-6,-208,-237,18,-131,67,66,-155,-117,209,-197,-72,-227,-41,86,-19,-226,204,-54,-131,-141,191,-51,75,21,92,-14,-99,-118,218,-200,-190,84,-195,-36,-111,-128,140,5,-156,13,-70,93,-40,51,-42,39,-54,-59,-128,-93,136,-156,-112,128,114,-201,235,-107,-165,160,-212,183,3,75,-74,132,-243,170,13,5,189,-177,160,219,142,-69,137,37,-159,-144,-3,-144,212,168,66,186,64,223,172,-238,116,-56,-255,-94,123,-61,81,71,124,-217,41,27,69,98,-62,228,-191,-221,213,-146,210,-28,-222,-92,-229,-77,251,-115,13,20,-61,-67,-93,-182,-184,-179,-141,61,-37,-13,68,-131,-213,-166,-246,153,-140,-107,183,64,35,36,70,173,23,-67,154,110,41,-138,-10,-178,159,102,189,-93,136,-205,10,-55,-173,-128,75,43,-190,-107,175,-130,-121,-172,-41,202,-192,-107,-20,83,226,190,211,200,-69,27,-154,120,98,214,-66,-41,-231,-140,202,45,173,-169,99,-192,-247,7,-70,-226,225,205,106,29,-93,-179,131,125,-238,-204,3,-91,212,-76,41,-222,-11,-122,138,63,-175,-75,148,-245,-40,188,38,-243,-237,155,-32,-229,9,-217,207,137,97,208,-162,39,-226,194,-146,-18,12,199,-167,167,-181,29,27,47,72,155,95,97,-101,178,-251,179,-159,-208,68,188,109,159},
			{-24,-217,176,224,-28,180,-74,-230,6,239,180,30,-36,-179,-62,191,143,-32,109,114,-158,157,24,-22,127,-135,-6,-136,-22,110,-217,96,-4,175,85,119,-2,-76,34,204,-1,86,-172,-246,-168,85,218,84,206,-89,117,-228,-20,-178,217,236,49,177,103,154,-194,98,124,236,183,-233,59,-216,-201,252,131,-22,-179,-155,155,-45,87,204,-177,174,127,-70,-102,-140,131,-120,-151,-97,-188,-108,-231,63,113,204,92,-84,-124,-81,-36,-234,-208,38,158,-32,222,188,36,-253,-175,56,52,187,8,-97,108,-109,115,46,-126,69,194,-29,41,-66,205,231,-176,201,-36,50,93,183,180,-29,86,106,-139,-56,95,183,183,-162,236,132,93,-231,0,-100,109,7,-194,146,-160,167,236,-156,135,-97,127,-167,90,82,-12,-126,-166,33,-99,203,-60,197,-52,-53,-134,-59,27,123,-255,134,-31,26,-193,-29,-47,192,-65,-230,-28,-48,0,-240,86,239,-121,135,36,-190,118,-48,141,115,-167,215,-65,-145,18,163,79,119,219,-34,173,13,-12,-208,23,-139,10,53,96,-178,-238,-247,-251,-96,150,-63,175,-211,158,-48,-143,25,-179,244,-107,126,-199,-63,-237,-23,127,-107,42,-225,42,-99,82,-209,176,221,-215,-68,245,-74,238,76,-255,227,145,-221,-161,164,-116,-92,-226,43,165,220,64,242,-23,-168,-243,115,101,74},
			{-193,78,-138,-192,-161,16,5,17,126,122,-71,184,-190,221,-11,88,112,33,169,-48,-6,-145,-6,215,-188,90,96,171,141,-15,-53,-104,-222,203,103,-122,119,87,-24,155,188,192,141,-124,-71,232,-12,1,-120,54,98,-68,-85,-85,1,-149,159,-205,171,-22,50,237,32,128,-19,36,55,-25,144,200,-36,144,-60,101,48,-151,39,147,186,152,-195,-167,-206,-166,126,185,174,189,-156,77,159,-22,43,40,0,-239,76,230,-50,-28,247,-85,-49,-121,-77,-148,-106,237,-72,126,-141,3,-112,-25,83,42,172,39,-35,191,157,-24,-249,60,-73,93,12,166,-165,-67,15,-54,211,-175,29,165,71,-218,-138,229,-100,58,-26,-80,-224,-148,218,-130,231,69,13,103,237,124,135,160,77,49,-94,130,-140,-238,137,109,-114,-202,-228,-228,-19,-138,-18,-41,-138,-130,160,-19,-93,-175,184,-133,-86,-190,-210,141,15,-253,73,161,200,-209,-229,29,136,-226,-37,8,-28,68,-119,-17,-229,-194,-80,216,40,-123,-227,6,-23,46,229,-128,-159,-213,-5,-253,-121,-95,-252,-114,-21,-133,64,-180,50,91,115,-228,-235,-40,198,-15,-237,183,229,16,-200,-3,-24,3,-83,67,92,-21,210,-93,-95,-205,242,92,-59,119,138,97,73,35,133,-28,-164,203,-173,-148,176,-71,189,108,156,154,68,-255,94,75,-123,-74,18,-54},
			{-124,139,-77,-7,137,-216,-131,72,163,227,-107,26,70,-50,-89,-66,-28,-79,211,46,116,114,-241,24,-76,-242,58,206,173,-216,148,-236,209,-39,242,15,-35,-116,-132,-48,121,-183,76,-137,-161,94,-123,-178,145,-238,-173,118,-120,-44,40,18,41,-208,49,-172,72,183,-74,193,127,-228,-201,-158,80,-193,129,43,124,-15,157,81,100,194,134,-225,41,-193,192,-98,121,102,37,118,-228,-138,12,-101,-16,-234,34,-220,167,-48,-154,55,195,-164,142,206,127,-6,-162,7,-41,216,135,239,102,-189,44,113,-168,-95,57,246,208,49,84,44,-92,-219,229,208,-3,241,-150,3,-34,34,-163,-126,220,-99,105,-128,38,-26,-159,-115,-119,-61,-36,-179,-237,49,-10,239,169,130,-148,-49,110,-34,-175,250,217,72,-48,-155,-154,-97,-145,172,-193,53,-48,-175,27,-219,-53,116,106,96,-131,238,184,-127,141,-124,-213,-91,142,222,-143,238,59,16,195,-18,108,-109,162,190,-135,-23,-36,232,-131,-228,249,-51,-27,-126,167,-65,-196,-230,80,123,-156,124,-152,-42,121,-201,119,119,0,-99,-106,43,-55,188,73,-184,211,-74,-153,-193,-103,-235,115,221,196,-170,-199,25,93,-112,69,-80,178,-28,193,-82,-133,-21,158,199,24,-22,-191,92,70,89,106,204,11,116,197,-17,25,51,-140,-25,181,182,217,216,106,-58},
			{99,-10,191,-205,-109,156,217,67,-13,40,-208,131,18,-34,206,-110,-169,-76,-15,165,-163,127,-145,-245,75,-196,-22,36,71,122,145,47,-29,27,-10,-197,-64,152,-80,-53,-213,-154,-233,-147,215,249,54,-233,193,-172,-213,144,-144,233,-38,-206,-126,257,-37,199,33,-19,-195,6,-25,123,-14,96,-186,-217,-214,-91,217,-202,197,239,-140,-222,70,-4,-168,-188,15,168,155,-191,103,19,-22,-175,-30,76,194,183,-206,-238,220,165,218,80,-161,-57,-190,215,-15,29,-144,-7,-204,-233,-128,57,-207,-158,-235,229,-233,33,-16,-38,175,180,-170,-223,-179,-103,-42,165,94,-228,157,137,-122,-122,211,108,91,137,-245,-171,100,153,35,-246,-131,106,41,-37,200,148,-44,80,171,47,8,20,54,-240,201,-221,-109,-141,150,229,49,-65,-153,-109,-26,-224,193,177,-164,-96,1,-56,212,-36,156,204,-227,-78,-29,125,206,173,-109,205,198,-178,-229,-239,68,-176,-138,67,-228,-43,-14,-8,-98,102,-88,-105,-124,-240,54,115,199,-214,-81,79,99,-51,-220,-73,190,-1,-135,-3,-130,-151,-33,-225,214,12,102,224,-103,-206,-67,-191,187,-182,-3,31,215,215,-5,213,198,-147,62,50,-91,-65,145,138,-89,137,-34,79,-28,170,120,-157,167,-144,-81,229,23,3,37,-137,-24,183,69,-65,-95,22,243,85,138,226,206,-100},
			{242,132,-36,-55,-26,-37,210,257,-148,218,-59,-145,143,176,-228,-137,-158,-48,22,-148,76,87,-156,-84,63,97,1,-12,-27,-207,-215,94,-202,-183,-39,196,-226,-12,199,-66,101,-157,93,-76,177,-195,4,62,-138,-69,21,-207,-37,-209,-237,76,229,237,255,110,-74,2,119,40,-13,-202,69,-159,113,247,132,-109,130,-58,65,152,-164,-100,226,242,117,210,-24,163,-181,255,137,-122,132,-34,-11,-70,250,84,-92,-145,12,177,74,-186,46,-140,221,-46,-47,27,-203,-18,-233,45,-186,-192,197,-80,141,-208,21,-135,-58,-48,-217,-196,56,-202,-125,-46,119,-168,139,-117,2,-6,-205,136,-104,82,-112,-30,-95,158,203,-173,178,118,193,153,-136,-21,156,-131,158,86,-129,162,-8,-212,-6,-128,237,127,127,-74,80,-85,-32,255,-19,-202,194,-138,-235,-85,-174,-4,-21,24,109,110,-110,-151,154,-214,-191,-158,-228,203,-50,-109,-33,46,70,118,-101,125,96,-102,-168,32,164,183,45,-177,-98,-115,154,47,208,182,-240,15,-85,-135,-91,1,-8,-216,235,-128,68,46,213,16,86,163,148,67,234,3,-258,-243,-95,-124,-192,-136,69,-51,111,-99,153,-134,84,-243,86,-190,169,0,-55,-49,70,-167,124,20,-125,227,-176,85,-166,145,-233,-49,-14,-46,-51,-88,-88,122,33,99,76,-86,209,-89,204,-195,138,159},
			{175,-61,238,192,-112,147,194,-139,-112,129,-18,-30,-50,-8,-178,205,259,-190,220,126,178,-192,-105,145,-162,113,-54,-142,-171,214,58,91,78,41,-83,14,-112,-77,-163,256,-8,-17,-189,-36,178,-25,-244,56,-212,105,-213,15,72,-187,-110,146,197,222,-47,80,-131,64,-100,192,-39,-250,159,-48,25,-60,169,77,87,0,22,-80,105,19,-137,-231,-210,-173,106,165,41,-22,16,35,156,234,181,144,-51,6,-58,-68,110,-223,-140,134,75,176,-24,-183,172,186,-154,-69,1,-161,-227,27,-139,6,176,-231,164,-138,-36,38,-206,25,-101,165,-184,204,150,-138,-207,-103,-202,-151,-85,-167,-48,175,-248,215,96,-156,-176,-90,-59,3,201,245,-88,76,188,-73,109,122,77,29,-252,-136,36,-12,207,197,198,-59,-193,13,89,-169,-155,-120,1,120,70,-31,-196,-181,-65,262,206,231,-240,21,12,-195,-240,-173,43,-159,230,-11,-171,215,100,154,-95,-40,237,4,-127,176,-197,166,100,-173,-218,164,-80,57,-75,-183,28,-90,-221,47,148,-43,-114,-4,58,-203,89,66,-17,171,-130,192,-118,-118,202,36,-18,216,49,30,74,194,-72,-6,-166,241,103,126,-31,-24,56,207,115,-126,-102,120,-99,-194,41,197,-107,65,-87,-71,30,241,-159,244,-222,-219,-236,209,151,-142,-21,224,-6,-44,54,121,129,-15,-34,-46},
			{-249,-210,-46,-47,-109,-194,238,120,-150,73,-214,253,256,78,-210,-2,27,147,-74,183,15,40,122,-108,-76,-143,163,-46,8,-65,79,-199,-74,139,8,128,112,50,-43,-118,118,-156,-155,-211,75,116,-231,110,108,-106,-92,144,-197,-252,151,-166,-196,-77,-151,84,149,-62,-30,-188,194,-118,89,-226,143,54,56,-21,-247,-151,15,-57,106,-110,197,71,-99,-104,235,93,-232,-173,-213,-63,-217,-123,110,-143,-129,-159,33,-61,9,-162,232,188,51,-162,229,89,105,-165,61,162,3,-243,197,227,157,174,190,131,-50,57,170,58,10,203,83,-144,-240,-144,-222,-34,70,-9,11,4,172,235,165,-186,54,-29,201,180,180,-156,184,-115,187,-185,-1,115,-98,-133,-48,77,-234,62,169,-196,-70,239,93,-223,-62,121,161,102,14,11,84,-70,213,115,-55,51,-28,-71,-123,5,-23,-56,137,255,-227,-97,78,10,-164,-125,220,260,-229,123,12,198,-81,193,171,125,-230,24,260,-166,-141,219,-37,-197,22,125,134,-33,46,36,115,-185,-25,-160,204,194,-113,94,-212,-219,232,-25,-72,-11,132,-64,-72,-227,-84,187,230,-74,-218,-75,76,-12,-176,8,97,-143,-136,5,-128,-116,150,-138,-76,122,100,60,47,-181,256,35,93,22,219,237,67,77,-123,-19,174,34,67,66,111,-201,149,103,-83,237,14,173,-151,8},
			{-226,-229,109,-126,-178,-238,-170,-216,-65,-50,54,-149,179,1,238,-152,29,-168,-52,-106,-146,-32,32,-197,160,-87,198,129,-43,-28,-202,160,-115,131,176,-19,16,-59,163,-187,222,-42,40,-15,170,132,-70,-49,-140,49,-94,54,15,-140,180,64,-39,58,148,-6,-138,-59,-234,-64,-130,-27,-137,-8,205,124,-215,147,253,81,-93,229,108,49,110,251,102,-210,85,-201,-71,-46,160,-64,229,-97,-154,30,-138,-71,20,56,84,-181,195,72,-153,-233,-88,92,-217,120,-30,-197,66,104,-245,-180,-161,-155,-116,-220,-139,-178,-110,112,255,-1,129,61,-29,-18,135,175,-146,85,179,131,-251,216,-18,186,-192,-145,14,-194,199,42,39,-142,5,-76,169,-108,-70,142,22,87,90,206,120,224,182,237,105,-223,42,-151,196,-132,59,-179,-14,-211,125,98,-177,-99,-255,184,-216,-45,-185,0,-35,-14,40,-30,-110,227,-231,64,-130,-7,55,-83,-216,-240,-147,102,35,131,77,-151,-138,-103,237,-30,-198,235,64,-127,94,107,-46,161,61,-36,-225,142,-166,-258,-172,14,-133,182,203,232,-183,-103,-59,69,19,62,-119,-134,-19,31,-202,-199,-1,-31,172,-214,163,146,187,240,44,-95,88,-135,53,193,135,74,-226,-84,-69,-111,219,173,37,96,159,1,13,202,-138,-245,-171,-123,42,-174,74,125,133,-200,142,-170,52,-68},
			{168,1,-249,139,38,188,95,-73,29,-58,-204,19,181,-126,156,-97,59,145,-139,-25,-38,251,-170,-126,-165,7,61,70,224,-127,32,160,16,64,40,93,-234,-100,251,170,-169,-189,0,40,-218,-114,-107,192,-86,-100,-209,-178,-235,-127,-119,74,21,227,-109,32,-29,209,1,149,178,221,249,254,2,-6,-202,67,-178,129,47,-29,70,55,206,169,-103,49,35,-71,-16,-192,-91,-119,42,-21,132,70,-211,-53,-68,-102,-16,189,180,-213,121,248,-186,16,235,100,168,-149,-76,138,-55,-170,-116,193,154,169,15,131,-168,114,9,-12,-182,182,111,-202,-3,34,49,169,-106,-208,-112,103,187,-198,32,108,-65,-38,10,103,56,-152,137,-224,46,-24,-62,-206,-169,-56,-150,71,85,239,-124,3,88,-187,23,60,-193,-112,-197,-184,141,70,-72,155,117,-44,150,6,-163,-92,68,-125,223,-192,49,-51,-160,118,-143,-94,-201,34,16,28,229,-229,-199,-70,-214,-255,131,-65,12,-116,-46,231,-238,189,118,144,165,3,152,186,-138,-88,44,-128,124,-59,14,-163,118,84,-25,-225,-31,165,60,-128,167,97,-162,224,40,-97,-186,-176,-186,186,195,186,236,59,-27,-199,-105,-219,-252,-216,164,-216,-109,109,-194,-78,56,-118,-131,76,17,27,101,198,185,96,-100,188,-175,-71,181,-107,-81,-26,16,205,98,-66,138,-128},
			{36,194,129,144,109,159,-233,57,22,-20,-14,-61,188,102,236,-188,-195,20,151,-143,-105,-28,-62,161,-156,-31,-68,-162,223,-262,-78,250,-260,-80,-191,172,-180,-261,-203,80,93,106,-196,-256,-230,-99,-118,77,1,234,-54,119,-217,-233,-162,226,14,93,179,-189,0,105,-24,-33,-153,-106,-183,71,-180,-223,-135,223,-114,72,162,31,40,-145,133,-135,-126,-76,-97,236,-110,-6,190,-72,154,179,-81,-129,183,80,-46,-242,-69,-58,63,-137,205,-110,-55,-186,-70,42,170,69,-223,162,-108,229,28,-11,226,199,59,8,-161,182,101,-221,-69,-170,56,189,-199,42,194,116,-203,130,200,160,-109,-41,69,200,19,244,128,-5,-112,150,189,-167,219,-87,238,154,-204,6,-5,-188,8,-126,-104,-233,-77,-163,165,56,21,-33,-186,56,-161,47,67,208,232,-214,15,-237,-166,-212,-102,83,1,169,85,-61,252,-27,73,-177,43,144,259,0,241,-195,40,26,-3,-211,80,-123,-111,140,259,146,-53,-39,159,-42,211,255,-217,-149,58,-81,-54,215,189,-48,-176,-9,-151,-27,54,-205,188,-9,89,229,-40,77,-87,-220,-31,-230,-164,10,111,73,216,88,-170,-144,-147,-165,-87,-173,-160,-30,65,108,68,-28,105,-159,-209,207,243,133,105,115,259,-31,-36,-129,-174,-110,-36,-198,169,-158,-213,-46,99,158,-210,72,-182,-139},
			{-79,-181,122,204,-62,51,-14,215,224,109,-24,-11,-175,172,67,-180,228,27,176,-135,237,-162,-170,241,-3,162,20,-140,217,-168,75,-40,159,58,-236,213,-212,-20,-109,-90,30,54,-214,-51,-150,-29,127,113,173,-124,152,126,-130,86,-92,-142,-188,-168,-39,195,-122,-62,-230,176,-189,-1,-177,-206,131,-91,-2,-171,144,112,238,52,-197,244,-38,-150,171,-208,43,-207,-85,50,-198,237,126,138,69,-198,-200,-25,-141,-93,-151,207,88,120,-211,-49,-203,-179,-155,-90,127,230,-94,-81,146,12,41,-2,157,53,-173,233,131,-155,-222,-225,34,-31,-200,13,-119,-27,-2,28,-117,167,-153,172,117,231,235,-111,28,-208,112,-4,95,-130,-65,-119,-112,11,-72,134,26,-91,-52,243,-243,65,167,131,56,-162,10,-226,59,-11,-90,50,-205,-75,-59,-145,217,-121,-39,232,142,-36,-49,97,60,-64,137,73,-81,-31,231,-88,64,-234,169,57,83,-258,-48,-87,-47,-86,-191,199,108,-25,176,-242,-35,187,-207,228,101,-113,-214,107,240,-243,-7,-170,66,229,26,-20,-219,-139,-43,89,-197,-102,-85,-170,246,-82,60,83,204,-240,137,18,-217,108,-23,88,-141,-184,-33,111,161,66,68,48,174,218,-240,218,108,-85,124,41,163,166,-185,35,160,61,120,-14,-7,-97,-109,-194,-119,184,-2,-214,62,-229,20,-28,210,-63},
			{50,175,226,-224,-106,87,16,-24,110,173,-230,-155,-11,-9,124,59,56,-172,72,-213,118,-60,57,183,239,-60,-236,239,12,-146,-21,214,-175,113,230,73,-133,-40,20,-223,-28,-149,-165,36,229,48,-76,-154,13,-201,174,-8,108,103,-167,-18,182,-250,-231,-214,-221,185,-22,167,46,-73,-200,-42,-28,125,-31,-110,158,242,-216,-228,48,109,87,120,168,242,189,-221,-41,12,-69,-113,61,-205,-189,157,-197,-19,-82,29,-1,-141,82,-1,-13,-56,-81,114,89,90,61,-177,-116,-152,240,-3,196,-183,210,230,76,-143,-118,-134,-17,31,6,23,-84,59,118,189,215,146,152,-94,230,80,-228,-252,48,60,87,-75,-80,229,-93,231,-109,-249,63,-143,3,-108,-25,-197,-240,-50,-30,96,-201,-43,36,-209,8,-205,244,231,-176,66,117,45,12,-52,-204,202,135,260,225,-227,-181,109,211,35,-92,-228,111,51,73,-81,124,21,56,66,72,-77,-148,-211,102,-31,241,162,-220,-89,-109,-114,-152,131,79,130,241,-168,-38,-145,179,-129,-161,211,221,144,-19,22,-102,82,-5,133,30,-125,-81,109,-59,-229,142,-123,73,-160,214,-177,39,-131,-239,-152,-51,-26,225,145,-233,250,-154,-227,-184,-230,-151,97,201,173,198,3,24,-23,22,-153,-201,118,81,-191,-49,-128,-241,187,-148,-229,159,-154,123,50,-48,69,-190,34},
			{203,-115,83,120,-175,-25,-106,90,-125,250,122,-5,-63,-3,160,31,210,-33,184,24,-204,236,173,-18,91,-220,-195,-189,0,-28,112,17,-152,-231,143,-205,-47,-154,-156,191,109,-238,44,-130,118,209,7,-124,3,-150,164,-234,-120,-108,-120,58,89,-245,210,34,-257,111,-112,66,-257,-121,-186,-249,166,54,233,-61,212,39,154,-156,-214,148,-88,195,36,-170,68,-158,-245,92,-40,-211,156,-143,185,-240,-26,-254,94,198,205,156,203,-216,-78,194,-163,119,11,45,-149,-171,205,173,108,-152,28,71,-127,-28,-33,220,-166,67,232,-231,232,108,116,80,69,216,49,-60,33,-56,213,-227,140,194,178,59,-114,-160,-134,232,114,68,-230,-242,96,-234,57,105,8,-138,165,-56,-34,22,147,116,-234,-25,104,183,-153,173,-95,188,-138,42,22,207,162,179,29,43,-205,-161,-67,-7,-84,165,51,186,-223,16,56,241,-213,-131,-117,70,-89,-111,-31,-52,107,-26,-91,-136,236,-69,-182,-134,-128,104,-224,138,-98,-141,-202,76,40,95,-70,191,55,-5,-146,-215,227,228,204,-39,-35,-214,-53,-33,-191,-171,-244,-168,158,-109,232,130,-52,103,28,-73,248,-223,89,-136,92,-109,44,9,-54,117,-58,-40,-74,-133,-13,219,-195,-53,-256,-173,-187,-217,220,-89,-204,-165,209,239,170,-26,-69,167,-55,-62,203,12,128,104},
			{-171,-142,108,100,-223,173,-15,-243,200,-42,-31,-93,-37,29,-170,-221,-130,34,218,-170,-87,111,-89,123,170,-81,125,226,16,182,176,-89,-158,220,-3,190,-83,-171,151,173,-155,205,105,202,118,13,77,47,-88,-84,-139,172,227,-182,67,-73,54,-50,-154,-214,222,-174,-133,251,-154,-165,247,149,-154,-96,94,-166,132,4,135,-46,-37,-94,84,-228,-10,-26,-98,100,-123,-177,-16,-162,200,-11,190,-47,-62,-119,78,149,178,18,-212,-231,187,-48,-33,233,-85,87,-101,-211,118,-37,88,60,205,-103,97,50,241,209,-181,-50,-68,219,222,-149,133,-223,146,120,-13,-4,35,-18,183,204,159,63,-5,-123,-61,-155,16,6,213,-243,108,-234,108,66,-238,-116,80,75,-104,-41,-96,187,-55,-57,163,-198,230,15,188,52,180,138,-166,-19,53,-209,219,-57,62,-134,69,-165,195,-107,-30,-86,-101,80,67,-106,38,-173,-53,149,-120,222,58,-48,42,-62,-130,-148,-229,-56,-140,-162,86,-156,-24,232,-80,-79,178,-253,-38,155,163,-207,166,20,-19,-174,-79,-2,-87,87,74,-127,182,22,-210,-73,-189,-189,-205,-98,-154,82,-147,-154,-100,-75,14,111,-261,-67,207,59,-225,-53,202,-101,56,31,-88,-51,-52,-80,-208,7,-177,115,154,180,-241,214,117,193,177,163,-41,138,9,-114,212,144,-109,126,-209,161,-185,-83},
			{135,6,49,-201,107,-193,-180,191,-34,-162,-51,98,22,71,-194,180,102,-194,-253,-137,-110,-39,-190,94,63,-198,57,34,205,239,133,-1,52,-1,-42,-64,203,200,-118,-225,-183,69,-55,-156,96,-80,229,-217,-22,-180,-85,-19,156,-224,237,-27,-13,32,-33,147,132,-109,39,-124,-105,-237,-28,105,5,-116,26,50,-136,-45,211,-203,-47,167,-159,124,-109,70,-167,225,-158,204,-71,19,25,146,-156,-135,-13,81,-210,-164,18,82,127,-148,-26,36,204,161,-19,42,-249,-34,-1,210,-33,-187,207,-173,178,-89,121,-118,115,217,-98,212,130,51,173,46,126,-12,-131,-210,-125,141,84,16,215,-17,8,-94,-58,-39,13,61,197,136,58,-50,132,133,234,20,35,-205,201,158,-215,181,-35,166,195,-108,-232,-196,-39,-233,138,121,-50,-118,65,-93,-138,113,-209,173,-44,-120,-18,230,-206,219,210,-229,0,104,-220,-28,-152,-118,-164,-89,143,69,-6,119,247,-58,6,-217,140,-229,160,-148,-167,-162,222,165,126,61,-78,-84,-67,111,53,154,201,74,72,190,183,-68,-73,36,-206,-52,-32,68,-174,75,234,68,223,209,62,19,-256,153,-105,-27,88,-48,-80,114,215,-143,23,83,60,-75,-156,168,-86,195,-192,-211,154,-196,74,-56,147,-80,-5,-131,123,159,-72,247,96,205,86,120,106,227,-59,128,-196,-33},
			{-67,-46,-28,242,-230,-234,212,81,115,38,-252,190,131,-139,214,-199,207,-186,-19,178,141,-34,-213,-11,72,-259,-43,-217,-26,-69,-127,39,99,175,-80,-102,-35,112,141,-174,-12,38,-121,-203,152,-82,49,116,-11,96,133,-73,210,-225,-214,-139,100,20,244,74,-110,101,123,230,190,249,65,242,-63,-97,-239,-26,-180,-142,-7,77,78,-111,-67,-39,-95,178,-176,106,161,218,-166,-142,39,221,-237,98,212,41,-92,-126,-174,-2,158,-85,-77,-157,-176,-155,219,66,78,-180,202,-94,-126,180,-237,-10,249,-206,-190,-189,30,-78,78,-245,-59,161,63,186,-230,-243,-26,52,-84,-70,-35,-47,-5,26,145,228,-180,227,134,187,-131,35,181,-217,-78,-56,117,-140,90,-96,-24,-115,-164,103,222,95,199,22,225,116,180,84,220,220,-82,120,-15,-222,-129,-217,-235,-14,-112,86,-25,-67,32,182,-115,-82,16,-216,70,-80,193,-62,-30,137,-240,-64,62,234,-210,153,-128,95,44,128,-16,220,-31,86,89,-156,-88,113,-64,205,-58,124,218,127,85,205,213,-82,205,184,206,-243,117,189,173,-256,161,109,-16,187,-136,113,238,-51,43,-44,-236,-95,-174,-30,4,-219,-207,160,-133,36,-158,-93,-151,-203,-152,-45,12,46,138,133,44,-129,-87,-209,186,103,56,33,-202,125,182,98,-51,220,129,10,98,-50,246,100},
			{22,121,-218,-165,-214,23,-119,82,43,44,-15,65,68,246,-45,192,-15,195,208,34,194,-128,-199,-90,-162,-170,247,-103,-100,257,-170,183,-138,-160,91,-71,232,245,-87,-212,102,24,-47,-65,-242,92,110,-108,-72,179,229,16,-85,-161,-238,-129,19,160,66,-30,1,114,-64,74,62,-246,-218,62,-36,102,97,-63,70,-135,110,121,-9,25,-75,-7,176,238,215,-114,-60,-17,233,122,95,-76,210,48,245,-50,143,-116,215,145,-134,137,-25,-140,71,-225,72,68,233,-192,-234,-40,-40,-205,39,94,-176,-252,-151,164,-47,-139,237,-104,180,-26,3,210,-78,139,-23,-171,27,59,79,-46,215,19,196,-40,-231,164,-132,57,11,-153,117,-215,-188,-13,-219,-214,-149,-142,24,28,19,107,89,-176,-94,259,111,13,17,-156,-37,-60,-125,96,-145,207,179,-45,-46,-170,74,-55,66,212,-131,86,-111,181,174,176,-49,-187,-239,-29,210,50,124,-210,-42,-107,107,-182,-156,32,60,79,-42,-55,-137,-255,-180,37,-121,209,179,-236,100,231,151,90,43,80,-51,14,-172,-218,153,89,123,-114,-148,-175,-250,9,-219,122,-208,-145,123,243,-94,13,-199,-241,-174,-224,-210,28,9,-76,-68,200,173,131,132,-24,56,124,116,114,-241,-183,-44,120,51,50,-245,62,-240,164,-135,18,-57,-104,236,77,-199,-20,250,146,90,76},
			{-92,-193,-238,-21,73,-35,249,109,-107,201,115,55,112,-239,-22,-31,120,129,116,104,219,-245,-89,-223,-245,162,-173,39,177,-121,-4,-201,41,167,23,-199,-123,-221,-61,83,-138,170,-10,92,11,66,228,87,-87,41,130,-143,-90,38,-12,186,82,-54,136,200,-193,-19,87,-45,38,-65,-107,-96,169,-3,-57,138,147,185,-123,214,-65,223,3,57,222,-50,-215,0,-189,-148,-124,245,-10,-173,-8,191,130,37,-32,7,-166,-224,130,-147,232,64,-177,-229,-155,-136,-9,-170,107,177,105,210,-119,-2,-16,-112,200,-159,63,59,146,12,-93,44,219,-8,-139,-155,-181,-152,0,-28,231,-180,-186,-72,-21,46,-34,-1,154,-151,181,-215,168,118,238,-15,135,88,229,-95,-150,42,34,250,92,-100,2,252,-79,-177,-178,123,-175,-2,-9,110,93,204,-25,-147,170,-208,120,-22,140,-247,135,153,230,-117,-54,-67,23,-248,36,26,147,-181,255,-125,-117,41,-174,-174,-126,-169,-48,21,-94,178,-123,230,215,17,-119,-139,-143,188,-211,221,32,230,-131,-143,170,-172,-226,54,86,-115,-251,34,-199,65,136,187,-110,-252,21,-217,146,-69,-56,-86,30,47,-3,-86,6,202,77,-23,-17,-69,-228,-184,-112,165,-4,-237,-182,-43,-193,-67,-196,28,214,112,109,91,-126,165,229,-232,-122,-133,-138,-148,65,-169,-184,-224,-96,-50},
			{4,-89,82,116,-150,143,108,154,191,-79,-91,-12,176,113,225,-78,-227,-151,-136,236,-243,-45,50,-229,89,28,-167,-118,-163,124,56,45,-10,149,-123,-18,-206,-44,-51,156,-170,45,-218,-66,254,152,107,133,44,-49,50,155,-189,94,-167,-79,25,214,155,-112,141,194,116,68,-173,-21,-40,58,-136,147,177,-160,220,-183,74,41,-127,20,-120,50,-25,-163,-148,38,-32,-55,154,85,88,183,241,-121,-175,-239,45,190,-55,-100,213,-170,-191,46,232,-169,45,207,170,-114,-188,-56,-63,134,-145,91,157,226,119,-65,-206,71,160,33,96,110,226,225,237,-82,-99,45,86,112,63,256,86,158,-211,22,55,154,-218,129,32,-119,-188,187,-220,198,201,160,200,36,51,-152,104,-106,-54,-28,102,-232,185,180,220,235,-234,-112,239,-245,227,237,201,129,-156,92,85,114,-221,-103,-71,-5,-189,-180,-214,80,-79,-60,227,69,2,40,-236,-254,-38,103,-68,46,-185,-152,0,108,-195,141,136,125,244,-173,41,62,9,128,122,-101,202,179,-180,219,-162,124,-200,38,-98,-51,122,24,-86,205,-76,-231,50,-238,-51,-197,-206,-216,-151,-97,-256,-260,-15,233,-216,-146,195,-121,-119,-113,96,-179,-57,-110,-21,159,-221,-83,43,-138,-231,93,98,228,235,87,1,-114,-57,77,187,202,-205,-227,-201,-109,119,183,102,31},
			{-205,212,195,-93,-36,220,-22,211,176,123,197,226,241,135,252,225,-235,43,127,-208,44,-36,-151,94,-220,-13,22,67,251,90,-99,230,250,-31,-14,230,211,135,3,-12,2,90,27,-60,159,-2,-208,-159,-235,195,230,81,29,164,-124,-79,-8,-224,-146,-122,202,-49,-242,96,-110,94,-203,-214,-161,-229,134,-247,-61,54,-62,-193,172,138,-197,107,-79,-140,-137,-101,-215,231,-186,159,71,69,-135,-107,96,209,-137,-160,-78,-26,-30,142,60,97,-68,72,-24,143,201,91,-83,118,175,221,-234,-32,226,244,-104,113,16,155,-225,65,218,-189,-248,167,-205,216,200,93,155,36,78,119,-239,91,203,101,-232,238,-179,-40,76,-20,-202,88,61,94,-237,-150,107,-39,48,218,251,-40,60,170,-81,175,-138,-227,175,9,133,-233,0,20,39,85,-48,-163,-207,63,-158,260,212,154,173,-205,-184,229,31,169,130,225,195,235,8,60,7,163,-203,-89,21,-243,-36,-137,219,-223,-132,26,-193,75,188,-112,-16,-221,-33,95,-96,78,-1,189,90,-217,-22,-104,214,115,-219,113,-244,84,113,-54,-240,26,-190,226,-119,54,65,97,175,-227,-181,-164,146,33,-55,-110,120,205,14,-222,-122,90,34,-101,-166,90,-55,-216,-41,-108,-68,-27,168,124,41,0,120,-6,211,-53,3,36,-131,11,-169,-130,8,116,-7,-174},
			{-213,-39,124,8,17,-211,57,52,132,-204,-208,20,18,-148,-86,6,-208,-185,226,214,-76,68,-7,-27,190,88,234,-175,-82,218,178,-144,56,-176,155,107,-212,-92,68,245,260,-119,56,133,-217,222,-222,-76,56,63,-135,128,-154,194,-232,-220,165,-147,-79,102,-98,-16,69,217,-220,-29,235,163,107,-19,31,68,-241,-31,6,259,-125,52,-204,-45,85,-174,-22,34,219,97,-105,-228,233,-159,-132,-69,130,190,152,-72,59,-239,186,-21,-137,112,-37,-141,58,179,-227,227,58,53,-148,151,-93,-32,199,194,177,146,-114,-170,-9,-159,-13,140,223,6,-70,-134,7,110,67,-97,-171,-70,183,-40,-20,-96,-77,27,113,19,164,-38,73,-33,179,-194,173,170,-52,-131,-41,186,38,-201,74,-126,25,-216,-21,-144,41,246,-2,-127,-82,172,-133,-117,-17,7,-73,180,-13,-209,-177,220,-186,10,8,243,-50,-197,1,-226,185,47,-210,-187,-255,160,226,-33,-35,105,61,-69,-50,-76,173,132,-174,-15,-37,-159,216,-177,-118,-41,92,197,201,-169,-198,-36,6,-197,84,171,107,-10,-40,117,-150,-178,-168,77,-178,-255,-199,-84,-116,80,100,108,-173,-178,142,147,-246,83,216,-104,-1,-195,31,-160,-116,110,223,48,91,-199,142,-200,-213,-177,-214,196,69,-224,-43,-232,-39,11,236,-87,-115,-257,-98,166,43,73,211,-56},
			{-147,66,-174,-54,-49,100,-43,66,70,-20,112,-152,12,-88,-223,-16,-84,169,180,-182,-201,-25,133,-72,-215,-13,108,155,40,-25,-145,158,203,24,225,-83,-213,-42,-221,-226,-24,155,126,-107,-231,-138,239,-221,8,25,-103,154,147,82,-167,140,86,-237,11,-212,-185,222,-22,81,-236,-68,6,-230,240,-190,65,-89,-102,149,-161,-171,75,37,-170,2,-193,199,-76,76,-133,179,-121,-143,-195,-182,233,119,230,-183,-139,-218,-143,83,-121,210,-6,124,-88,137,-43,97,-204,-239,9,237,61,128,217,5,136,15,-187,184,136,-24,-61,-46,72,-212,-173,-47,-43,-73,-160,-97,59,172,-160,-39,-155,-5,224,-94,-105,-40,216,213,-15,61,195,-59,204,209,-49,184,-187,-33,240,-156,111,156,210,-144,191,-41,-40,183,-131,91,-142,228,0,-187,-192,-222,29,62,-250,198,-177,-194,-110,-204,149,-186,-116,-7,-217,-129,169,-38,-86,26,-122,-66,-19,144,-219,-14,-243,-37,-165,-79,145,229,36,225,-130,8,-114,105,-13,-87,219,-99,-179,-130,99,-235,35,17,129,171,-55,-107,97,235,8,76,177,-201,-11,47,128,-4,251,-25,92,30,35,-91,-231,137,-257,-183,-72,228,-142,240,-169,90,88,172,25,-58,183,123,-9,26,-92,70,-179,-246,-123,-192,-98,-28,19,-136,-85,146,-134,44,102,143,-144,188,120,-128,-17,-147},
			{113,-182,-36,-138,-194,-21,42,229,232,-205,158,-10,-52,-83,125,-98,-128,181,204,65,146,206,253,235,216,-179,91,-94,148,48,91,-6,198,126,133,-173,141,-43,-183,-115,54,111,-2,215,-94,84,164,-102,-6,-188,205,148,-141,-164,-157,-90,49,-212,34,207,-161,-152,69,-88,135,65,-27,135,-158,229,-49,228,48,-196,135,180,-231,-229,80,224,142,-147,191,1,-162,24,186,228,20,127,-204,-186,65,238,-15,108,61,121,0,119,-96,-166,222,-194,215,-120,163,-148,-80,-126,21,231,41,49,-57,-217,9,-144,173,-64,-6,127,-218,228,156,109,-32,-207,131,-224,125,31,-56,-25,217,235,-186,-67,-203,215,19,88,-71,99,121,29,74,129,81,91,-133,217,24,-127,-29,-50,117,5,74,143,210,62,-212,142,-34,36,-163,76,251,108,114,72,227,163,-188,56,250,-95,199,-17,-183,-102,18,243,74,-30,-56,225,-246,14,156,93,-34,55,-34,79,21,-37,-214,112,-17,-83,-103,199,164,-42,-37,50,-41,62,8,-178,108,-109,-42,-163,-86,-171,-36,234,-45,221,-46,-15,-1,-226,133,159,-201,-135,-53,-157,156,-185,128,-200,-92,-166,244,-174,-59,121,129,-75,-163,-250,194,-102,87,-54,-128,-28,51,-192,150,-16,-96,-29,235,-102,-159,97,-138,-60,-164,-198,-60,82,167,-244,-156,138,144,87,206,-133},
			{-219,110,164,-192,178,100,179,-23,-77,-107,-6,-191,238,-193,197,167,52,18,-43,117,-73,114,106,112,-79,-75,-87,-159,-198,170,115,-53,9,-34,120,-219,-85,70,219,104,-11,-225,-254,170,-216,-202,93,187,-29,113,203,190,47,84,230,-107,-79,-206,142,25,-76,34,108,-56,-67,-38,13,48,-125,22,202,-10,-36,165,231,-121,167,-215,-190,-212,-184,116,-30,211,206,201,-205,-68,-93,-31,-90,55,-18,106,-119,111,-143,-61,204,86,-69,-59,-186,-22,48,8,-83,98,216,105,-243,-128,-76,99,173,47,-91,-158,174,-207,220,-160,56,184,-241,-28,132,131,86,-118,-51,-250,188,123,56,-38,140,47,187,-184,87,-120,-3,229,172,-3,-4,-162,44,127,224,-174,-37,92,155,-111,190,-137,145,-49,-243,-109,85,-260,-240,-217,130,227,-23,-138,-47,146,-44,138,88,227,43,-46,-86,-175,-163,202,50,232,28,-201,224,212,-11,-198,-27,21,-35,-96,-202,-107,194,144,-173,-22,-214,-28,-122,214,-253,24,230,-223,-106,-96,45,-89,225,140,-197,-95,52,28,208,-205,129,52,-126,-224,198,-149,-128,74,219,64,143,190,-174,-233,255,143,-250,-217,46,10,41,238,35,140,47,-249,30,-89,138,-90,-43,135,105,-61,148,32,-135,-227,-19,-90,-224,17,-226,-123,-44,-146,-24,236,99,-236,-166,-6,190,215,-38,-132},
			{-170,-49,214,-254,151,-127,-120,-76,-61,-88,249,8,-83,-229,-148,-180,-82,-197,20,175,209,41,-142,231,128,-58,196,-182,249,106,108,39,145,201,171,-100,-158,239,12,26,-58,120,-3,-121,-177,-20,-210,-94,-214,-115,-203,-72,222,246,181,-33,-250,78,-137,-196,40,-57,-166,-28,-103,186,-230,117,-4,212,21,82,-43,-236,23,-124,-119,102,-203,-115,-29,149,-8,-107,4,-32,-223,17,-152,189,-121,141,85,101,130,49,-38,-222,-99,-150,63,130,-114,0,125,44,120,-5,-200,190,230,153,110,159,84,-181,-65,-17,223,-161,-230,-25,202,53,13,152,227,238,-77,106,-79,83,34,-48,121,-97,95,-7,115,-151,-87,-155,-15,-63,-241,136,201,-135,-86,61,-190,-125,-161,-214,70,137,-154,-62,-46,-180,-206,48,217,250,156,-158,-27,-152,-78,-205,250,-28,-120,-38,204,-235,-93,-115,154,-45,94,12,239,113,-87,188,209,-17,93,220,-92,-142,-101,154,-25,-49,219,-22,219,-10,-31,213,143,149,86,127,-164,-146,-75,199,-207,-150,71,145,189,-80,-99,104,82,-154,20,162,111,119,-182,-184,-109,41,-200,-21,-11,140,-125,62,-73,152,-106,122,139,-112,52,-4,57,219,41,-150,-251,146,144,-18,52,-133,-186,-221,-117,-101,51,15,-230,-64,208,-222,-126,155,-235,-1,-233,-218,-251,221,204,223,-62,-48,1,1},
			{30,-57,175,250,163,28,-120,144,-40,207,-11,17,-80,139,-159,46,-176,-83,-48,217,98,-163,-88,96,-117,13,242,243,-61,43,83,-36,79,60,98,-65,77,108,-190,221,-192,-116,233,54,-66,-108,41,10,148,-186,21,-60,-8,20,127,83,-158,-60,125,172,-223,-84,-40,91,51,0,152,-231,159,-220,-119,-107,50,242,-27,-235,89,68,246,216,-52,-11,128,62,-21,-121,-129,-175,-122,183,191,-238,-55,123,236,193,-138,166,171,67,144,-45,-20,-101,-83,112,175,-1,-213,-209,-51,40,154,150,-84,-54,236,91,-107,-191,-212,-5,150,-108,-129,-204,102,-33,194,-122,62,-180,-158,-160,-172,-94,23,-247,95,24,34,-184,-166,13,-133,238,-188,67,214,-101,222,-97,2,-61,33,-86,-2,-190,-64,-32,90,-154,118,-18,66,160,75,110,-102,-232,-116,-17,-23,-158,-72,-93,-1,191,-179,-16,-247,53,39,101,-54,24,95,197,125,-13,-127,80,-259,210,129,172,-186,-42,230,88,-250,-24,104,-233,-258,132,213,110,-21,-82,231,-81,-227,102,-90,-191,216,-226,-70,-168,-85,-23,128,140,10,-191,-181,226,-225,10,245,-189,176,-142,227,-101,229,-214,-184,-214,-180,174,83,-125,-231,-179,-168,208,159,74,50,-132,-213,-100,-137,-15,-144,157,108,189,-121,21,-52,170,-15,-8,-215,128,5,196,-172,38,-235,118,-148,-5},
			{-76,0,144,-13,89,-199,205,81,31,153,-144,83,16,174,6,72,45,107,-57,64,-217,-195,-158,-259,83,-193,-53,204,131,196,-36,210,174,-197,249,110,161,-210,152,-95,144,153,63,-92,-129,-68,160,-7,-144,209,234,-104,115,221,-125,42,-202,-26,155,96,-18,194,-154,-259,-191,-213,-154,-90,-67,-100,28,67,-109,-205,-240,-156,223,190,45,-47,-124,-115,-55,-73,129,-27,-254,94,140,-2,145,-67,-255,-229,-32,137,-155,-48,87,241,190,201,16,43,-193,83,-164,252,118,194,-164,-114,-28,61,23,157,-151,173,-130,-9,-220,110,120,206,-72,-224,103,142,5,36,-33,20,22,-75,4,-62,194,83,-157,143,255,-205,137,238,0,-214,-53,-209,155,-66,-163,72,-112,139,-48,-102,-180,-83,118,41,54,-160,-228,235,-40,-104,247,-121,-58,53,31,-235,-142,0,-143,-36,-4,0,157,-156,-240,-31,166,-135,172,-87,47,36,69,-102,4,103,-209,-200,-218,168,-177,78,-170,-39,182,154,183,-16,9,-212,139,89,-68,236,-198,-42,69,-151,166,173,55,-35,-157,4,-50,-13,231,13,-84,-186,179,-41,220,-14,-148,97,64,218,-163,-243,-206,-167,206,-181,-194,-227,132,248,-59,76,91,-24,168,-18,74,82,47,175,151,5,103,86,-147,83,143,-213,132,248,38,240,-116,175,-73,179,-93,116,148,-110,201,212},
			{51,-232,-138,-152,-20,-212,146,-19,217,127,-259,213,165,-25,209,34,81,-168,185,-108,4,-247,-73,46,-242,-77,-85,-126,243,-229,-139,-185,215,243,-133,0,-99,183,-147,-178,251,-233,-15,96,-192,43,138,17,-33,-58,-86,-167,116,-40,168,-201,-237,-23,213,209,-236,104,136,111,159,-17,120,-94,-47,-137,-146,-201,251,15,-182,-39,205,121,-157,16,-242,-193,157,156,-37,-237,-201,91,-104,-163,141,196,-148,257,253,6,-231,195,-112,177,-11,-135,149,140,-183,-141,-126,118,-5,-103,57,-216,-161,17,-132,70,112,-89,172,223,-237,-219,116,148,117,-226,-121,139,-244,-12,135,150,119,83,105,110,36,-67,-249,117,68,24,145,-186,166,-158,3,4,-184,53,-147,-147,178,157,-101,-80,-90,46,122,254,107,-182,79,-134,124,128,53,8,217,116,-189,87,168,-240,-106,-235,-185,171,-90,242,-29,-205,-136,211,50,-12,-160,-47,70,159,-207,-205,117,59,219,220,205,-168,24,-23,37,-5,-124,-237,218,166,-13,-151,125,39,102,-67,-22,64,-202,-96,-233,62,-140,111,108,54,220,-73,84,-199,222,165,9,237,-226,-169,217,39,-145,-231,9,-12,-36,-185,105,185,89,149,-183,-154,-6,213,87,77,-14,-25,-183,-63,-77,-189,-146,-224,160,86,-146,217,-11,72,-9,-164,230,-76,95,-103,-214,-98,175,143,-171,157},
			{-5,-201,-74,-243,-244,-213,-219,18,-145,104,25,156,-156,-126,-14,112,13,-140,-35,27,-195,-199,76,49,-53,208,5,-189,-31,165,-251,121,151,-4,-215,117,-106,-57,153,-220,190,-121,101,-200,-129,-154,62,-70,187,-112,229,233,96,-121,142,-115,99,73,0,112,-209,-233,110,-182,-244,-109,-162,209,-207,74,166,46,135,97,-43,115,206,-139,-13,6,249,-143,-31,-238,203,-77,163,140,44,-126,223,-53,-248,51,249,13,9,-255,66,-91,36,50,-113,-179,-59,6,58,81,-77,218,193,-248,-237,-76,-49,2,-55,35,-63,-232,24,-12,-140,12,173,143,-106,3,-68,-83,43,-160,-56,-138,188,-56,0,-68,170,-39,-207,-208,-109,60,-42,-16,73,-156,180,52,-31,81,-29,-16,229,-28,-135,46,-143,78,219,0,218,103,-23,49,-239,-166,-219,-155,219,156,20,-171,160,47,-257,-184,-172,184,-76,168,163,-83,21,-10,90,142,-84,-221,36,-212,-95,181,38,-122,73,90,-147,-194,-154,-140,89,184,-149,170,0,119,53,-50,-11,144,-141,-193,-3,155,193,149,-201,-245,83,-130,-108,-55,-111,-142,-76,223,93,46,-87,129,-227,146,-24,-219,-160,25,206,-164,169,-122,-16,130,11,108,-89,49,-165,12,108,-36,-19,-204,49,-229,-15,-90,229,186,128,97,141,-118,-112,-114,89,-80,108,216,228,-8,-157,209,73,48},
			{-60,185,80,-200,168,84,-91,-61,102,-45,81,-180,-93,-113,172,-92,12,114,45,161,180,-93,227,113,105,-26,43,-106,-13,-209,-39,-223,24,104,142,-33,-8,-143,-90,87,-66,-52,-88,-23,73,160,123,159,-170,168,79,-9,-31,-130,68,219,203,95,-2,-94,132,121,-99,-6,-76,149,204,-40,-81,-39,-196,143,-163,232,-149,222,-183,36,209,124,213,14,171,139,-211,-240,-110,182,15,92,159,-4,-99,-23,-230,-41,-29,62,-51,-133,-193,75,-159,-213,4,-181,-120,40,40,-182,-19,159,204,181,223,58,-145,-85,-16,-34,-224,-247,14,-140,-92,252,11,154,103,253,156,36,-175,-81,-161,-59,20,-222,256,63,-28,-225,-137,-238,-78,224,223,-161,188,-30,-108,199,18,79,-248,224,120,-223,14,81,29,49,-143,-227,195,227,194,-69,245,-173,-58,229,226,136,-112,88,7,222,196,43,-188,-74,38,-221,-33,126,225,173,-123,157,178,-100,-45,213,219,98,143,152,0,79,-166,-222,-10,118,-35,-232,-3,68,229,141,-229,-162,187,-9,-222,30,106,50,116,-202,126,152,-129,108,179,169,-232,-38,-189,146,-171,233,16,44,-244,6,105,-111,-128,-114,-76,93,100,87,175,-127,66,-221,-194,-36,56,57,-131,103,51,-118,-28,233,117,-31,-229,-90,-55,140,-109,-207,-223,167,-165,-139,9,-173,135,-136,24,71},
